svm_type c_svc
kernel_type gkm_esttrunc
L 11
k 7
d 3
norc 0
nr_class 2
total_sv 1780
rho 0.0890067
label 1 -1
nr_sv 991 789
SV
0.6695849414342812 TCTGTATACTGGTAAACTGTGTGGCTGTTCCCTGCCTAACCAGCTTGCTGCTTTAAGGTGACCTGTCCTGAAATCCCAGACAAACACATTTCGTGATACAAGTTCTGCCCTCATTTCTATCTCAGAGCTATGTGTCTGGACCCTATGACTCTGCACCCTCTCATAGCTGAAGAGTGTTATCAAGAGTAAACACTCAGGATTGATAATGGTCTTTCAAAGGTCTAAAAACACACCCACAGTCCAATGACCTATTGAAAGGAGGATGAGTGGTTTCTTTTGATATCGGGCTGCTGGACAGACTTTAGTGAGTGAAAGATTATGCTGCTTATTTACCTGGAAAAAATCGACGTCATAAGGATGCCCCCAGGCCAGTGGGGAAATGTCCACTCTGTGTACATTGTATAGGGATTAAGACACAGCCT
0.1654734243854658 CTGGACAAGCCTCAGCCCCTGTATAGCTACCGTCATGTGCTGTGGATGAAGATGTACTGGCTCACTTCCAAATAAACAGAGCTGCACAGAAACATCCCAACACAGGGCCCTGCTATGAGAGGGAAAGCCACTCAAAGGTACCCTGACCTGGCTACCTAGGTTATGAAGACAGACCCGGCCGGGGTCCCTAACTGAATGCTGTCTGAACAAAGTGACATACTGCACAGGGCTTTAAAGCAAGTGTGCAGTGATGGGCAGCTCTGTGGCTCTAGCGAAGCCCTAACAGGCCTCTAAAGCTGTTAACAGGCTAACAAATCACAGCTCACCCCACACCATCAACACTGGCAAAGACCCTTCTTCCAAGACACACACACACACTCATTCCTACAGAAAAGCAATACAGAAGTCAAGTGCTCTGTTTGTGGGTGTTAAGTGGCACCCGCTCAAGCCTGCTGATTTTAGCAAGCTACTCCCCGCAGTCAACAAGTCATTCGTGGTAGCAGTGGCAGCAGCAACGGCAGTAGCAGCAACAAACCCAGTAGCTAAACTATCAGAGAAGGGCACGCCATAAACCTGAACCTGCCCCAATCGGTTTTCTTTTCTTTCTTTCTTTTTTTCTGAGACAAGG
0.4415674163111894 CTGACATATACCATTAGTGTGTGTAGATTTCAGACCCCTTCTGGGGAGTGAGTTTCAATGTTGGGAGTGAGGGTGGGATAGCCATTTGTCCACAAAGAGCCCATTTTTCTTCCCAGCTCTCTCTGCTCAATGTGCTGAGTGAGATAGTGCTTCTCAGCCTCTTTGAACGCTTTCTTGTCCCTCTGCCTGCACTTTGGTTCCCATCACGTCAGCCTTGAAGGTGGAGTGGCCTGTCAGCACCACAGGCTTGTGACTGGAGCCACAGGATCTCCTTTATCTCCTCAGCTTCAGGCTCTGTTGTGTGAATCCAGGCTAAGAGCAGTTCAATGACTCAGGGTTAAGAGGACACACCGCCATCTCTTGACTCAGCCAGGAGATCCTTCCTCTTTGGCAATAAAAGGACACAATGCTTTGTAGAGTTGCCACTTAATATAGATGAGATTACAGTTTGTGGACTGGATGAATCTAGAGACTTGTTTTCTCACCTATGAGAAAATATGCAAGGCATGGGAACATTCTTCATAGTAGTAA
0.4233704879892263 CAGTGGTAACACCAACACTTGAAACCCCAACACAACCCTTTTCTTAATTATCAACTATAAAAGGCAAGCTGCTAACGTGTGTGTTTGTGTGGGTGGGGATTAAAAAAAAAACAGTGTTAGGGAATAGAACAACTTTCCTGAAGCTAGCGTTTGAAGAAGACTGACTCGAGTAGGCTGTCACCACACTCTCAAGATCCTGTTGGTTATCACGGGTAATATTTAGGAACATTCTGCAGAGCCTCTAATAAGCCATTTGAAAGGGAAAACACTGAGCACAGGATTGAGGAGTGACGGAACACAATGGCAGTGATGAAAACCAGACACAGCAAGTTTCTGAGGCTAGGTGACCCCTCCCACTTCCCAAATAGCCCAGGACTCTTCAGGGAACTTACTGCCTCTGATTTTTCAGTCTTTCTGTAGGCTGATTTCCTCATACTAAACACTCCTCAATGATACAGTGAGGCTTCA
0.4048126940746281 GGGAGTCAGGAGCCCAGGGTTTGTGCCCCAACACTCAAATTGACTAGACTTTGTGAACTTGAGAATTTTACTTGAATTTTTTAGAGCTCAGTTTTCTTATTTGTAAAATGAAGAAGTGTGACTAATTGATCTTTCAGAATTGTCTCTGCTAAAATTTTGATTCTGAGAACACATCTTCATGGTTAAAAGTAACTTTCCACACTATTCCAGTGTTTTCCTTTGAGTGTTTAAGTATTTATCACTCCAAACTGCTGTTTATCTGAGTAGTTCAAGTGGCTTGCAATTTGAGTGTGTCAGAAAGGAAGCCAGAAAGCTCAAGCTCTCTGTGACTCCTCTGTATATCAGAGTTGCAGATAACAGAGTGGTAGAATCATGCATGACAGAAAATAAATCCCAAGGACGAGAAGAGTTGCTTTCACAGAAAGCAGAGGTACCTGGGGATCTCTCTATGAGCCTGG
0.4732890377794841 AAGAAACAAATTCCAAACCCCAAACCCCACTAACTGCAGAGCAGCTGCTTCTCAGGGAAAGCGGCCACCCGGAATGTAACGCGGCAGAAACCGGTCTCACTGCCTGCCACCAAGCAAACGTGGCCTGTTCTGATGGCTCAGTGGCCAATGTCTTCCTGTCACCAAGCTCCTCCAAATCGCGGGGGAGATTGTTTTGACATTTGATTAGCCACAGAGTGTAACTTGTGAGTGCTTGAGCAAGCCGACTCTCAAGCAATGGCATCGCTGAGTGCTTTAGCCTGTTAGAGATACCATGTATCAGGGAAAGCGATGGCGGGCAGGGCTCCAAGAGGGAAGATAAGTGGGCTGTTGGGAGAAATTAATACGAAGAAAGGAAGCGGCGAATGAAGTCAAACGAAAACAGGGTCCTGTGATATCCATGACTCATAAATTTCATT
0.4159559652237339 GGTTTAACTCACCCAGCTGGTCTGCACAGGCCAAAGCTTGGGGAGCCCCAGCTTCCCTGGCTCAGGCCCTGTGCAAACCAGTCTCTCGCCCTGTCAGAGGGAGGGACTGCTCCCTGGAGCCCACCCAGCTGGCTGGGAGCTCTCTGCGTGCCTGCCACTGTGTGACAGTCATGCGATGAGAGGGAAGCTCAGCACATGTCCCCAGCCACCATCAGTTGGCGGTTCCTTGAGTGGAGGGATGTCAGAGGCACGTCAACACTTTGGCGGCTGCTATTCCAGGCGGGCGAGGCAGGCAGAGGGCCTGTGGGCGCCTGAGTCTGCAGAGCCAGCCCTCGGGGGAAAGGAGCCAAGACACAGAAGGGGCTCAAGCTGCCCTGCCCC
0.7976783517322122 TGGGGTCTGGATCGGGATCCCTTTCCAGTAACAGAATGGTCACTGTGCCTATCTGGATGTTGGTTACTGCATCGGTGACATCTCTGCTCATCTGCCACCTGGCTTGCTCTTTCTCCTGCCTCCAATCTGCGCTCGAGAATGCCAAGGCATAATCATGACATTAACCACAAACAACTTCTTGAGCACTTACTAAGTGTCAGTCATTGCACGGAGCACTACATGCATTTCGTCACTGAATCTTCTCTAAGTGGGTCCTCTTGTTATCTCTATTCTAAAGAGAGACTTAGAGAGGTTTGCCAACTTACACAACACATAAGAGGCAAGGATGGTGGTTGGGCCAGCAGCTGCAGGTAGGCTGGATAATTTGTTTGATAAAAGATGCAGGTGTTCCTTTTTCAACTAGCCAGCCAGGTGCCGACCACATCAAC
0.8426629998181895 TATTTTAAATTTATAGAATATTGTTACTTTTGTGGTCCACAGTTCCTCAAGATCTCCATTAAGATGTCAGAGTCTTAGTGTCGAGTTGTGGAAATGAGAAACACACAGAGACAGTTGCTGCCATCATTAGCCACCTGCCAGCATCTGTCCTCACACTCTGCCTTCCTGTTTCTGTAGCAGAATTACCCATACCCTTATCTAAAGCTGTTCTTTCATCTGTACACTGGAGCTCAACCCTTGTCACCTACTCAAGGGTATCATTCCAGTAATTCTCTCTTCTCTCTTTCAACACTCTCAGGTTTTTCCTCTATTAGACTTGTTCCCAGCAGCATACAAATTTGCTCATGGGTCTGCCTTCTTAAAAAACACCAACACCGGCCAGGCATGGTGGCTCACGCCTGTAACC
0.5585427185248248 GCCCAGGGACTCCCTTGCCTTACTCCAGTGCAAGTCCAGGACAAAAACCAGCCACTGGCCCACTGCTGAAGGGTGGGGAAGGTGACTGAGAGGTGAGAGATCAGTCCTGCTTGCTGATAAGAAACAAAGGCTAATCTTGCACCTCGGAATCTAGGCTCTAAATGCAGAGAGCTTTCTCTCTTTTAACTTATGCTTGCAAAGAACAGGCCTGGCTAATGAAGTTGAGGACCACTCCAATCTTGATGACAGCTACCCTCTTTGTATGACAAGATTATTAACACCTGCTGGAGCTTAACTCTAAGTGCCTATACTCTAGCTAGTCATTTCCCTGTGTGAGATGTTGACTTAGGGGGAAAAAAAATCTCAAAGTGAGAAACTGTAGACAAAAACACACAGGGTTAAAAAAAAAAAACAAAAAAAACACTAAGGTAAAATTTGCAAAAGAGTAAAAGAATCACATCT
0.4380430762992261 TGATCCCTTTTCTTAGAGCAACCAGATTTTTTAAAAATATATAATCTGTAAGTTTCCTACCCTCTTTTGCTTATCCCTGTAGAGCTCAGGTCCAGATACTTGAGCTGGTGACAGCTCCATGCCAGCACATGGATTCCTGCATTGGTAATCTGTCAGCAACCACTCACATTGAGATACCTAGAGTGTAAGTAAAAAGGACTTAATAGAGGCTTTTCACAAGTGGTCACACTTAGCTTCCCTTCTCCTATCTGTAGAACAAGAATTGGACAACTAGCTGAGAGGATGCCTCAGTGGAGTTTGCTGTTATAAAGATGAAACATACCAGTGCAATTCCAGTCACATTGTGCCTTGTCCCAAGTCTCCCTTTTCTAAGCAAGAAAAGAATTCTGTTTTCTAT
0.2113136184185106 TTCCTTGGCAGAATATAGGATGAAACTGGGGCCATGTCATCCTCTCCAGCCCAGAACAAGCTGTTAGCAGGACGCCTCTGCTGCTGCGGGGCCCCCGCCTGGAAGCCCGTCCCCTCTGGCCTGTCTTCGGGGCTTAGATCAAAGTCCAGCACTCAGCTCCCTCTCTTCCCACTTCCAGCAGCTCCTCCCGACACACTCATAGCACTTGTCAGCACTTGGCTGTAACAATTTTATCACTGTGAGTGTGTCTTCTCCTTCCACATCTATTGAGAAAAGACTCCCTCCACCTCTCAGAATGCCCTACTGCCTGAGGAGGGACCTGCTTAAATGGTGACTGATAGATGAAGCCTTAAGATAAGTTTTTTCCT
0.2755022555700266 CATGGGAAGAGGCAGGAGAGGCTATGGCTGGGGCAGGCACCAGGACAGGAGGGAGGGCTGGGTCCAGGAAGGCCACAAGGGATGGCTCTGGAGAGGAGACAGGGAAGTGCGCCTTCCCACCCCACCTCGGCAGCCAGACACACCAGCACTCAGAAACATAGCTGCCATCTTAATGGCCATATCAGCTTGCATTGACCACTTACCCACTCAGAGCCCGGCCTGCAGGCCTGTCAGGTGAGGATTCGAGAGTGTGTGTGCAGCTTTGCTGAGTGATAGCACTCAGGAGCTAAGGCTCTTAAGCTAGACCTGGCATATCCAAGCACTCTCTACTTTTCCTCTCTCCATCCCCTGCTTTACATTTCAACAGCTCTCATCACCCACAGGGTAAAGCCCAACCCCCACGCTGGAAATGTCAGACCTTTTCCCAACAGGCCTCTGCCTACCTTCTGAAGCCTCACTTCCTTGTCCTCCATACCCAGAACACCCTCCACTCTACTCCTACTCAACTCTTC
0.3364398397884344 AAGGGAGAGATTCGGTTTGGCACGGAAGAGGGAAGATATCATAAATTTAAGCATAGAAAAAAGGCATGTGTGAAGGCTCAAAAGTAGGAGAAAGGAAGTGATATCAGAAAGTGCCACAATCACTCCTTTGTCCTGGTGTCAGGTGAGATCTCTGAGTAGCTGTCATCACCCTCTCAGAAACCAACCTGATGCCTTTGCCTTTCAAACTCAGATAAGCCACTGTGACTGTAAGGACCCTCATCCATGGAGGATGTGCACCATAATGGGAAGGAACACCGGCTCAGGAGCCACACTTCCTGAGTGAACTTCCAGCGGCATAACCTTGGTCAAGACACTTAACCTCTTTGTCCCTTAAAAAAGGCCGTCAGAATACATTACTGAAATACTGATTTG
0.4744298721076902 TGTTTTTTGTAAAACACTGGAATTCTCTGTGATTATCAGTTGGGGAATTCATCATGGTATTTATCTGGAGAGGAAAGAAGGCAAAATGGACTTCACAACAGTCAACTGGGTCACTCGTTGTCAAGCAATCACTTAGCATGTGCTCTGACCATTGAGTGTCATTGCTATTAGCCACTTAATCCCCACAAGAGGCCATGCTCTAGGTCACCCTCATTTTAGAGATAAAGTTCAGCCCTGCTTTTCTTCTCTACCTGATCTCAGCATAGACAGCTGAGCATTGCTTTGACTCCAGCAAGCAGAACACCACTCTCAGAGCCCTTGTTATTAGCTTGAATTGAAATTGCATCTTGACCTCAAATGAGATTCAAGAGCATAGGAACAAATACTTTTAGAAGAACTAAAGGAGATGATAAAACTGTCATCGCATATGTCAGGCCTTTCTCCCTGGATTTCCATGTCCCTGTTTCTCTCTCCCTCTCCTCTGGATGTCCTACTGGAATCTTGTAGTATTCACCTGGCTATGAGGGAGAACATTGTGA
0.4009945913117448 AAAGGTCTAGCCTGTAGATAGACATATAGGAGATGTCAGTATCTGGAGGGACCTTATCTACAACCTCAGCCTGAATGAGCCCACCCAGGGAGCAGGTGTAGACAGGGCCCCGGGGATGAGTGTAGACAGAGCCCAGGGAGTGGATGTAGACAGAGACCCAGAGAGAGTGTAGACAAGGCCCCAGGGATGAGTGTAGACAGAGACCCAGGAGTGGGTGTAGACAGCCCTGGGAGTGGGTGTAGACAGCCCTGGGGTACTCCACCACTTATCCGTTTGGAAGAGGAGACAGATTCCAGAAAGGAGCCTGAGAAGCAGTGGCCAGGGGAGAAGGAAGAAACCGAGAGTGTTGTCCTGGAAGCCAAGTGCTTAAGGCAGCGGGGAGAAATCAGC
0.5549033427634392 ACAGTGCTACTCATCACCTGCACGGCACCCCCCAGGGGGCTGTGGCTTCCTTCCTCCTAGAAAGTTCCCTGCCGCCCACCACACTCCGTGACTTCCCCACTTACTCACTGATGCTTGAAATCCCCCTCTGAGGACCTCATTCCTTCAACAAACAACTCAAGGTGCTGATCGCTGTGAAAAATGAGACACCCCTAGAGAGAGAGGGAGCACTTTAAACTGTCACCGCGTTCACTCTTTACTGAGATTGCATTTTAAATTGTTATGAGAGCAGGTCCTAGTGGGAAGAGAGTTAAAGAAAGATTTCCTAGAAGAGCTGGTGCAGAAAGTTCAGAATGTTGAAGCTTTCAAAGTCCACTCCTTTTATTATTTC
0.559690441497781 GAGTCACTCCTCTCCTGGCAAGGGGCACATTCCTGCTGACGACTTGTCTCCCGTGGAGGAGCAACAGGCTCTGCTTTCCCTGGCCTGAGAACCCTGGCATATGTGCTTGCCTCTGCTGACAGTTGCCAGAGCGATGGCAAGTGTTGCCCAGGTAACGTCCCTTCCTTGACAAGCAGAGAGGGTGAGGACAGCGCTGGAGTGGCTGACTCTGCCAGACGGGAAGCAGGAGGCTCTGCCTGCTGTCTCTGCTTGCCGCTGGCTGGTGGGGCTTGGGCTCGGATGTGGGGAGCCCTCCTGAGTTCTACCTCCCTGGACTACTCCTTTACAGAACTTGGTAGGTGAAAACAATCAG
0.347297606431753 GAATGAAGCACTTGGGTTATGATCTTGTTTACAATTTTGAAGGAAAAAAAGAGCTGCAGCTACACAACACTCATTTCTGTACTCAGCCCTCTCCAGTGTCTGTGGCCTGGGAGAAGGCTGAAGGGGATAATTAGGATGCCTGCCACACCCTCATGGCGGTGACAGGAATGCTGAGTGCTTACACTGAGTAAAGTGCCATTATAACTGAGTGCCTGTGGAATGTCTCTGCTTGGCTGTCCCCCCGGCACTGTATACTCATCTGTGACACCACCCAGTCACCCAAGCCAGGAACCTGGGCGTCCTCAACACGTCTTCCTTTCTGATCCTCCATGACTGGCA
0.8762465311581006 TATAGCGTAGTGCAGTCATATGGCTCTGTAGAAGTCCTTACTCTGGGAAATAACCATGAGCACCTCAATGGTGGAAGGGTCCCTCCAGCTTTCTTTAGCAGCAATCTTGTTAACCACATGCTTGCTCTGACAACCTTATCACTTGCCAAGTGCAAGCAGCAGTGTTTGCACTCTTACTATCTCTTACCCACTCTTACTATCAACCACCCACTATGCACTGCGTCTGTTTCTGAGTCTCTGTTTCTGAGCTCAGCGCTGCTTAATGCTAGATAATTCGTGTTTCCCATGTTACCCTTGACTCCAGATGAAACAAAGTCACACAAACAATACTCAGCAGTATTCCTCGGGTTCTCATTCCCAGCCGCAGGTCCATTTCCAGT
0.8265822493701814 CCATGAGGATGTGGGTGTGCACATGGAGAGGGCTAGAGGGCAAGTCTTGGGGTTTGTAGTGTTGTGACCAAGACCTCGGGCTCTGTACCCAAGAATTATTTGGGCTCCAATACTTGCTTGTGCCTGTTAAGAGCAAGAGACCCAAGCTAGGCCTCTCAAGGCTGAGTGTCCTTATCTGCAGAATGGAGAGAGTGAGGACAAAAGTTCCTGTGTTAAAGGTCCTTTAACACAATCTTGGCCCATAGTGAGAACACAGCACATGTGAAGTCTTTTGTTGTCACCACCCCCAGCTATACGGTTCCCATTCTCCTGGGAGCTGGGGCTAAAGAAAGCCCAGACAGTATCCAACCCAATTTCCT
0.5987955841482391 CATGGGCTCCTAGGCCTGTCCCCTCTTACCTCCTTAGAGACCTTATTCTATCAACTTCTTTCTTTCTCTTCTTTTTCTCATCCTTCCTCCCCCCATGTCCAACCTACTCCCCTCCTCTTCTACATACAAACATTCTCATGACTCTTATATTTACAAAAAAGTTCCCAATCACTCACTATCCTCTTTAGCTACCACTCTCTCCTCTCTTATCACAAAACCACTGAAAAGAGTACTTGGCTTGCTGTCTTCACTCCTTCTCCACTCATCCTCAATCCCCCACAGTCTGGTTTCTGTCACCAACACGCACTAAAAATATGCCTTTGATGTTTTACACAGGGCTGCCTAATTTGCAAGCCCAGTGGATTTTTCTCAGTCCTCCTCATGATCTCTTCAGGCTGACACTGCTAATCTCCTGCCCTTCCTCCTTGAAACCCTTTACCATCTTGACTTCTATGATGACATGCTGTCCTGGTCTCCTGCCACCACCCGAACACTCACTCTCAGCCCCTTTACAGCCTCTACCTCCCTTCATGGCCATTCCATCCTAAGTTCTTTTCTCT
0.8877008003056311 TGATTTGAAGATTTCCATCTCTAATTAATGTATTAATTATCATAAGCAATTTCTCAAATTTGAATATGGAAAATCAAAAAGGCAATAAATTTCCCTTATCAAGTGCTCTGGGTCCAACGTGCATATAGACACTCACATGTGTTAAAAGTTCAGAGTGCCTCCTTCACCACTGCTTGAGTGATTTCCCTTATCAAGTGCTCTGGGTCCAACGTGCATATAGACACTCCCATGTGTGAAAAGTTCCGAGAGCCCCCTTCACCACTGCTTGAGTGCAAGGAATAGTCTTGGGTATTTCCTTCATTGAGCTTTACTTTCATTGGGCATTCACTATCTGTTTCATCTTGGAAGATATGCTTCATCTCTCTGACCCTCACCTTTATCCTTTATAAAAGGGGATTCTAATACATCCCCCATGGAAG
0.5218160491286046 CCCCTGGCTGCCTTGTGTTGATCTCTGGCCTAGGTAATGACCAGAAATCTCACTGGCAGGCAGGCAGGCAGGCAGGCAGGCAAGCAGGCAGGCTTTCAAATCTCATGTGCCTCTAATTTTCTCAGTGTGATTCAGTAGCTCTGCTCCTGTTTGGCCTCTCTGGGTTATCTCAGGCCTCTCAGGAAGCTCTCAGAACTCTCGTCACTACAGTGTATGTTCGAACAAATGTGTCTGTGCTTGCCAAGTTCCCAGAGCTGGCTTCTGAAATACAGCAGCCAGGGGAGATGGGTGGCCTTCAGGTGTAACACACACACACAGGTTAGAAAGCAGTGTGTGTCTGTGTGTGTATT
0.2262347932031732 TTCTTGGCTTACTGCTGTTGAGCCACTTACACAATTCTGCAGAGAATAAATGTAGGAGAGAGCAACCTCTTTCCTGCCACCTGACCTTCACTTGGTGGTCAGTCGTGTGGAGCTGGACGTCACTGTCAGCTTCAGTGGAGTCCAACTGCTGACAGATAAGTGGGAGCACATGGCACGTGCGAGATAAGAGCCTATAAGAGCCTGGCGGCCTGAAATAAATGGCAACAACAATGCTCTTCTAAGTGGTCTTCCGAGAAAGCCCTGTTATCATCAGCATTGTTCACACTTAGTAACAACTTTCCTTGAATGGGGTTTTCAACATGTTTGTTCCTTTCAGTCTGAATTATCTGCCAGGGAAGAAACTCTTTCTAAAGTCCGTCAACAGTTGTGAGATTGGGTTGAGGCTCTCAAAGGAGTTTCCGGCTGTTGTCAACACAGCAGGAAGGGGCAAGGATAAAGGGTGATTTAGGAGCCTGTGCCTGGGTAGGTCCTGCCAGAGCCAGCCCAGCCCAGCCCAGCCCAGCCCAGCACAGCACAGCACAGCCCTGCCCAGTAG
0.6264774363426904 CTCCTCTGTGGTGTGGACACTGCTATGAGAGCCAGGTAGCCTGCACTAAGGCTTGGGACAGATTGCTGGTGCTGTAAGCTGGATGGAAGATGTTGCAGGTGCTGGGATTTGTAGCAGTGGGAGCTGAGCTGAAACCAAGTACTTGAGGGAGCATATCTGGGTTTCTAACAAAAGAAAGTCAGCCAAGATCCAGTTACTTCTGCTGACAAGCAGCACTCAAGTAGACATAGAACAGTGCCCAGAGACCAGAAGAGTTAGAGGACACTAACTCTTTCCCCCTCCAGGGACACATAAGCTCCCCTCCCCCAAGGGCCAGATGTGACAGAGAAGAGCAGGGGAAAGGGTAGTTCCCGAGAGCCTGAGCAAGTTTATCCAAATAAACATTTACTTTA
0.2740960907656518 CACGGATTTTTAACTGTGTGGGGGTCAACACCCCAACCCCCATGTAGTTCAAGGGTCAACTCTAGTTCATATATAGCTAGTTAGCCAGATGAGTGATGTGAGGATGGGGACAGAGAATAGAAAAGTACTCCAGTGAGAAAGTGTCAAAGATAAAGCTGAACACTAAAGTGCTAAGGACAGATTGTAATCAGTAATATATTAGTGTGGTTGGAAAGAGTCCAGCATGAACTGAATTCAACTTGATTTTCATAGAGGTAACGGCATTTTAGAAAGAGTATGAGGGAATAAAGGTAATGAACATGGGCTCACTAAAGTCAGGGAAATAAAAAAGTTATTAAAATGAGGAGTGGGGGTTTAGTCAATGTGAAACCCATTTTGGGTTTGTTAACTGAGAGTTATCAGAGTTAGGCTCCTACTTTCTCATACAGGCTGGGAGACACAGGCCCTATCTTTAGGTGTTGAATGACAAACACTCAAGTCCTTTAGCAGTCTTGAGTTTTCTCACACAGGCACTTTAAGGGGGCCAAGGGTCATTCTAGGGACGTAGCCTTTAGGTGTTAGAAACAATGTTTGTTTTTTGTTCAGGTCTTTACATGTCAAGGTTACAGCCTAACTGAGAAGAGGGCTCAGAGGAGCCTGGCTAAAATTTGGT
0.971610984880324 AGGGACTACAACCTTGCAAAAAAAAAAAAAAATACTTTGGAGGATAAGATCAAAAGATCAGAAAAAAAGGAAAGTGAAGACTGTCATGGCCAAAGCAGGAAGCTAAGCAGAAGGCTAAGGGAAGCCTATCCTTCTGTTACCTTTAGAGGGAGCACTCAGAATCACATTAAAAATGCAAATAAACCCTGTCAGCTTTGATAGTGGCTGAGGGCCTTCAATCAACAGCTGATTGCATATTGCTCAAGGCTTATCTGGTAGGATGAGTAAAGGTGCCCTGTGTGGACAGCTCAATAGCCCACTTAAGCCCAAACTGAGCCAGGGGCTGCAATGATGATATGAAAGGGAAAACTCCATACAGGAGTCAGAGAGTGGGGAAAACTACTTACATGAAAATAAAACATTCTTCAAACTT
0.7260191150414176 AGAGGAATGAATGAATGAATGAATGAATGAATGATCCAGACCAGCCAGAGACTAAACTGCAAGCAACGTTAGGTTTCCCTGTGACCATTCAGACTTAATGTGACTCTATGAGAAAGCACTGTTGCAGGCCGGGGATTGGCAGGCAGCCCCGGCCCCCAGCCTCAGATAACAAGCTGCTCTCCAAGAACACGTGCTAGGAAAAGTGCTTGATCAGAGTGTCAGCTTGTGGACTGAGTAGGAACACTAAGTGGTTTTGTCTGTCACCTCCTTCACCCCAGCTGGAATTTGGCCATAATCTGATAGAAACACTTTGCCCACTTTCAGGAGAATTTTCCACTATCAGTAAGGCTGCTTTTTCATACTTCGGCTATCACCAAAGCCTTTCAGAACACTTGTACTACTATCGCCCAGGGGAGCTTATATGTCTCAAGGGTAGGGGGTGGGGGACCAAAACCATTCTGAGCATGGAACACTCAGTTGATTCAGGTTTCATCCATGTTGAATTTCAGTCCCTGTTTCCTGAGGACTAGACTGTACTAGATGCTGTCCTGG
1 ATCATACCTGAACCTGGGAATTGGAATCCTCAAAGACCCATAAATATTCAGGGCTTTGAGATCCAGATATGGGGTGAGACAGCTGCTTTGATGGAGTATTTGAATGTTTGCTCCAAAGAGAATAGAAAGGAGAGGAAAGTACTTGAATAATCTTTCACCACCAAGCTGCCTCTGAATTTCTAAATAAAGCCTTGAGTGGAGGGAAGATAACATGAGGAGCCTGCACACCATCACTCCGCACTCTCATAAGGCTTGCAGTTGGGCGACCCAGCCATAACCATTTGGTAAAAATGTTACACTGAAGGGAAATATGGAGGTTGAAACTGCCAGGCACGATCATTTCACCAGCTATCCAGCCTCGAAATGGTACCTTATGCAAATTTTGATTTTTATCC
0.709882548551003 TGCCAGCCACGGTTCCCTCAGAAAAATTCCCGTGCAACTCTGTGGAGGGAAATGGAAAACACCGCGGGCCTATTCCCCTCCCCTCCTCTGCCACTCAGCCGCCAAGGCAGTCTGGAGGTGCCCAGCACAGATGGCCCCCTCCCCAGCACTCAGCCCTTTCAGCAAACACCTTGTTAACTTGAGTGCAGCTGAGCGGCCTGGTTGCTAGGCAACAGCAAAGCCAGAGTGTGGGAATGAGCGCAGCCTGGCCCTGGGGCGGCCTGGTCACTCTGGCCCTGCTGGGGGCCTGGGACTGCCCCAGTGTGAGGGCTCAACAAGGCCCACGCAGCCACACCCTCCCCAACCTTCGCAGTATCAGG
0.1787089245883544 ACTGGGTTCTATTCAGCCCAAGCAAAACTCCTGAGGGGATAAAGATGAAATACAGGCCTTCTGATACTTCCTGGTGGTCTGAGTTAGGTTGTAAGAAAGGCACCTATAAAGAATCTCAACCCACTTCCCACTCAAAAGCACTGTGTATTTCTCATGGCCTGCCTGGGAGCCCCCATCTCCAGCCTGCTGTGCTGGCTACTTCTGGCACTTATAGCCCTTGAGATAGTACCGCCAGCAGCTCCCTGTGAAGTGCTAACACCCCTTCAAAGCAGCACCAACCCAATTGTGAACAAGCTAGGAGTAAAAGACGTAAATGAATTGGTCACCCCAATGCAGGGGATACAGACTTGTTTTAATATAAAAAAGAAGTGGCCTTAACCGTGCAGGGCTTGCAGGCCTTTGTAGGCATGGGAGCATGCTGTGATCCCTGGTTCTGTGCTAAACACTCAAAAGGGCTCTCTGACTCAAGTGGAGGTGATAAACCTTTTCAATAGTAACAGGAGAGAGTGTGATATCAAAGTGCCAGAAGTCCTCACGGACCAACATTTAGCACAGACATTCAAACTGCTGAAAGAACCAAACAGAACTCAACTGAAAAAAACAGACCTTTTAAGAAAAGCAATAGATCTTAATTTGGTGGCAAGATCCCTGGTTTACCTTTTGAAGTCAAAATGTTCAATACATCACCCGAGCTTGACTTTTGAGCACTTGGCAAGATTGTTTTTTGCCACTTGACACAAGTATGATGTCCAGCTATGCAAAATGACTGTTTGATCTGCCTTTTCAGTGTATTTGTGTGGCGATGTCTGTAAAATGCCAGAAGCCTCTT
0.7965185871402467 GAGAGGTAGGAGCAGGCCACACTTGGGCCGAGAACCAGTAGCCGCCTTGTGTGTGCCAGTTAATAGCGAGGTGGGGCCACGGCTGGCTCATGCGATGGTTGTTGCTCCGGACTGGGACACTCACACTTTGCGGTCATTGAGGAGCATGCCATTCATCTTCTCGATGGCCTTGTCGGCAGCCTCTTGGGTCTCGAAGTGGACAAAGGCATAACCCTTAGAGCCGTTCTCATCACACACCACCTGTCAAAGACAAGGCGGACCACTTTAGCAGAACTGGCCAGCTCCTGAGACATGAGAACCTCAGGGTATCTTGTGCCTGAGGAGACTCTAGCCCATCCATGGCCAATGGTGGTCAAGTACACCAGTATAATTTTTCTAACACCTAG
0.9194260830476987 AATCTGAGTTATTTTTAAGACCGAGGCTGTAATTTATTTACCATAAGATCCCTAGACCTGCAGAACAGAAAGGGTAAAAGACATCTCTGAGAGAGATTTTATTCTACGTGACCATGCTTCTTTTGAAAAGCTGCCAAGTTTGCTTGTATGCTCTGAGTGTCTCAAGTGGGAATCAATGAGAGTACCTGCCGTTTCAAATAGCAGCAGATAATGGTGGAAGGGCAGAATGTAGACCACCAACAACGTTCAACAAGCAAGCATTATTCCAAAACTACAGTGTAGATTTGCTTTTTCAGTTCAGTATGCATTGGTTAACTAATGAACTTGAATAAAATAA
0.9402434216432446 AATCTCTGCCTCTAGGCCCAAGAACCAGCCCCCCTGGGGCCCTCGCCTGTGCTCCTGAGTTTGGGTAAGGCCACTTCTTTTAGCTCTAGGGGAGGTATTGTCTGCCGCTGACTAACTTCCACAACACTGCAGCTTTCCTGCTTTGTCCTTGAAGCTTTCAATAGCCACTCTATCATTTCCTCACATTGAATCCCCTGTGTTTGAAATAGCTAGCTTGGCTTCTCTTTTCCTGACTGGACCCCAGTTGATTCACTAGAGAAGAAAGCATCAACTAAAGAGAAAGCAGATTGTGCTGTGTGAAGAGCACAGCACAATAATAAT
0.9683095178609887 AAAGCCCCTCTCCATTCATCCCCAAGCCCTCGGGCTCTAGTGCAGGAAAGATGCTGGCAGAGAAAGGCAGGAGCTCCCCAAATCTTCATCTCCCTGCTTCCAACAGAGGGCAGTGGCTCCAGGGAAAGGCTCTCCAAACAATATCATGGTTCATTGTCATCAGCCTCTCAGGATCTCACAGGCACCTGGAGCTTCTGGCCCTGCATTCTCCAGACCTGGCCTGTGGCTCTGCCCCTGGGCCCATGGATGATGTCTCTGCCTGCGGGTGACTGAGGCTGGGGCTGGAGAGGACGCCATTCTGATCATGGAGAAGGCACCATTTCA
0.3745488185108223 GTATTTTGAAGGAGAAGAGAAAGCCAAAAGAAGAAAGGAAAAGGAAAAAGGAAGAAAGCATCTTGGCTGTGAGTCTCAGAGAGCATTTGTTGAAAACAAGATATTGTCCCTTTAAGCATATAAAAACAAGGCCCTTGAGCACGCAGTTCTCACTCTGGTACACAATTATGGGTGCTTTCAGCTGTCTAGCACTACTTCAAGTGCTCTCTTAAACCAGACTGTCAATGGCATGTTGAAAGCTATTTTGCTGGCTGCTATCATTAATAGCAAAGTGGAGAGCTGGGCTGATGAGAATTAAATATGGGGGAGGGGGCGGGTCATAACCAGTCATTACAGAATTACCAATATGAGAAAGGAGACAATGCCACTTTGGGGAATAAAGTTCAAAG
0.2026032017942946 AGAGGAGAGTGGTAGCTTGCATTCTTCTTGTCTGCCCTCACATTGTCCTCATAAGGAAGCAATCTGCCCATAGCAGTGGGATATGAGACCCTTTCAGACTCTAAGAGTCTGGAGTTTGAAGTGACCACTTTGCTTGATCATTAGAAAGGCAGCCAAAAATCCTTATCAAAAACTGCTGCCTGAAGTTCCCATCACTAGAAGCTCTTCTGCAGGAGTTGTTTCCAGAGACACTTATTGACATGTAAACGTATGACATGGGTTTTGGTGTTTTACTGCTTTCACTCCACTATCAGCTTATCTGTACCCACTCAGGCTGAGTGAGTGTCAGGAGACAGGTAGCTGTTGCGTAGGGGAGACAGGTGTTGACTTAACCCTCACCCTCTCCCACGTAGTTTCTGAGTTCTGAGTTTGCCTGAGAACAGGACAGAAATGTGACGAGAGGATGGGGAAGGCAGGACGTGCTGATTTCTCGAGAGAGGCAAGGCAGCCTACATGAGTCCTGGGCTGCAGGAGGCTCTAGGAACCCTGGGGCCTGAGACTGAGGTCCAGGGAGACCCTAATTCCTGCACCCCACCCCTCCTGGTTCCCTCCAGATGGGAGGCATGGAGGCTGTCATCACGGGCCTGGCAGATGACTTCCAGGTCCTGAAGCGACACCGGAAACTCTTCACATTTGGCGTCACCTTCAGCACTTTCCTTCTCG
0.5633482038036535 CCCTGCCTGACACCCCGCCCTATCCAAGACAAACTCTTTTCCCCAAACCCCCATCAGTCTCTTCCTCTTCCTTAGATCCAGGCCCAGCCTGTCATGCTGTGGAGTTGATTTATTTTTCTTGTGGCCTTGCTCTCAGTGGGGCTAGAGAACAGCATGTCATCACCCTCTCTAAATACTACAACTCTGCAGAGAATTGATGAATGTGACTCATCACCCTCCATTCGCCAACTAGAGAATCCCCAGGCCTTTCTTTGTTGATATGAGTGTGATCATAATCATAAAAATAACAGTAACAATAATAATGGCAGCTCACAATTACCGAACACTTGTTATGTGCCAGATACT
0.8399811390480606 CCTAGTCAGGGTTTGCTCCCCACCCTCATGCTGCCACTGGCCCCACTGTGGTTGTCTGATGACTCACCTTTGTCTTCTGTTTGGCTGTGGGCTCTGTGAGAGTAGAGCCTGGGTCTGCCTGACTGTGTTTTGCCAGCACCCAGCATGAGTGTCTACCCTGTACCAGGCACTTGTAGAATCTTGTTTAGATATTTTGTTCTCCCCTGGAGATGGAAAAACACTCAATCTTCCCAAGTGTTAGACTGATTGCTGATGGGTCTTATTTTTCTCTCTGAGTTCTTTTAAGAGTCCTGGAAATGTGGACTGAGAACAGCTGTCGCATGTCAGTTCCGAAGTAGCCGCTTTTATCAGAAACGGTTTAGAGAGAGATTCCTAGTTGCACCTCCCGCCAAGGGCAGTGACCCCACTTTTCTCTCCCCTTGCAGGC
0.8687722783623538 ATATTTTCCCTAAGACACACACACTTTCAGTTCCTTTAAAAAACTTTCCATGAAGCCTGAGCCAGGGAGGAAAGACAGATAAGACTGCTGTCCACCTCTATCTGCCTCCTGTCGTCCTTGCTTCCTTCACACATCCTCACCTCTAAGATTAAGAGAGAAGCTAATCAATATTTTTTAGAGTCTCTCAAATTAGAAGTGGCCACTTTCTGCAGCCTCTTCAGCAGTCCCAATATGGCTCTCGGTTGTTTCATGGGGTCATCAGTCTTAAAATAGAGTGAGACCTGGTGGTACAGGTTTGATAAATTTTGCTCGGTAAACTCAGCAGATTTACCTATCTACTGAAGGTAGACCATAATATTAGGCA
0.4682685590695577 AAATCTCATGGGAAGGATCTTATTTCCTGGACTTCACCTCAAACCCTGGCAGCAAGGGAGCCTGAGAAATGTAGTTGTTAGCCTTCCAGCCCCTATGACACAAGAGTGTGTAGAAGGGGGTAGATGTGAACAGTGAGTGCCAAAAGAGCATGTCTGGCTTATCTCTAAGCTGTCAGACATTCTCAATACCTTTTTTGATGGCTCTCCTGCTTATGTATTTTTCTATAGCCAATTAAAAACTATTGTTGTACAGTTATTATGTGCTAACACTGTGTTAGGCACTTCAGAATGTACAGAATGATAGCATGGTTTGGATCACCTGACACCTCATCCACTCAAAAAACTTATGTTTAATGTCTATCAGGTACTCAGAAAACCATCAATAGCTCCTCGTTATCTATCAAACAAAGTCCAAGGGCCTTAATTTAAACCTAACAGACTCTCCATGTTTTCATGACCTCAACTCATGTTTTAAACCTTATCTCTCATTTCTCTGCTTATTGAGCTCTTGTGGACCAGGAAAACTGGATGATTTTCTCTTCTTTATACATGAGCCTCTTTTCTGCCATCAGCACTTTAGTTACAATGTTTTTCCTCCCCAGAATGTCCTTCTTTCCATCTCCCTATGGTAAAGTGCTGCTGGCCCCTTAATGTCCAGCTCACATGTCACATCCACTGTGAAGCCTTTCCTGACGCAGGACAGCTGGAGATACTCCTTT
0.7418804740423244 GAAAAGCACTGGAAAGGAGCCCTGGCTCCTAGAAGCACCTCGTAAATGGGAGTGACGGTTCCTATTAACCAGAGCAAGAAGACCTGTCCCATGGCAGGAAAGCCTAAAAGTCTGATCACAGTGCGACACCAATAAGGTCTCAGGCTGCGGGTCCATCACGGTCAACTGATAATACTGAGTGTTCCTCTCAAACCACAAGTGTGTCTGTCACCATGCCAGAAATAAACTTACCTAACCTGCCCAGGCATTCACAAGAAGTATGTGTCAGCAAACTGTGTCCTATCTCTGGCCCATCCACAGACCCTTCTCCTACTGCCTCTCCCTGCTGCTGTTCCAGAGCTGCTATGCTGGATGGAAGCCATGGAGCAGACTCTGCCCAACCAGTCCCAGAACCCAGCCTGGAGAGGTGGGAGATTCCAATGAGACTCTGACT
0.6555883524128642 TTGCCTTATTTTTTAATGTATATCATTCTCTATTTACACATTGATAATTTTTTCCTACAGGGTAAAAAAAAAATGCACCAGATGCAGCACTTTTGTGTAAGTATAGACACATCAGGGCTCTTTGTTAAGGATAAGAAACAATCGCTTCCACTTCAGGCTCTAATGTTATCATAGCCAACTGCCAGAGCCGCTCTGTAATTACGTCTCCTGAGTGGAAAGCTCTCAAAATGCCACTTGGTCTAAGAGTTTGAAGCTGGGCTTGCCTCTCCACTTTGGCCAAGATGACTAAAGCATCACATATTTTTAAAGCAACTTTTAAGAAATGAGGTATAGTGAGTGATGACTAGCCAGCTTCTCGCTGCTCACACTGTAGCATT
0.4911584885707116 TTCCTCTCTCTGCCTCTACTGGGGAGCAGCCTCAGGGGAGTTGGGTGAGCAGGAACCATCCCCAGGGGGCTGCCAATCTCAAGCAGAAGGATACAGCCGAGTGTGGGAACTTGCAAAGTGGAGAAAGTCGTTTGGATCACTCCACCCGCAGAGTTGTCTTAAGCTTAAAGAGGAATTAGCCAAGAGCCCCAAGCTGATAAAGGCTGGCTGTTATTTCTTTTTTTAATCCCCTGAGTGTGGCCATTTGTTGCTAATGAGGTGAGGACAAAACATTACTTGTGGCTATCTTGCATAGGGCAAGTGCAGAGGCTCAGAATGGAATCTTATCTGCTTTCCTGCCCCTCCTACACCCCAGGGACCCATGGAGGGGCTCCAAAGTGGTTCTTGTCTGGAGGGCTTTAATGGCGCTTTTCTCCTATTCATCACGTTCATTTATTGAACTTAGCTCCAGCCTCCTAAGCTTTGAGCTGTCAACACTCTGAGATGAAGACAGTAGACAGCCTTCCGTGGGATTGAGGGGGATCCCTGTGGTTGCCCGGTGTCACCGACTGACCAGCAGGGCTCCGGCTTTGGAGTCAGGATAATCCAAGTGTATATTTGGCTCTGACACTTAACAAATCTGCAGCAAGTTCTCCACTCCTCTGAGTCTGTTTTCCCAGCTGTAAAAGGGAGCTAATAATAGCTCTTGCGGCTAGCGTTGGATCACCCAATAAACCTTGTAAGCATATGCTGAGGGCACACCCACACAGGCATGCACGAGAAGGAAGA
0.5050526352110428 AAATCTTTTGAGTGGTCAAGATTGCCAGAAGAATTTATACAATGAAGCTCCTACATTTCCATCTGTTCCTTCTCTGTGTTGGTCCTCTTTCCACTTCTGCCACAGTAATAGCTTATTCTATTCTATTGTTTCCCTCTGTCTGCATTCTCTCACCCACTCAAACAGTGTTAACAGCCATGCATGGGTCTGTGGATATCTCCCAGGTCTAAAGCTTTGGCTGTGACCTGTCTGAACTCTAGACTCACATTCCAATTGTAGACTAGCACTGGGAGTTAAGCTTCTTAACTTTGCCCAGGGAGAGAACCTTCTAGGGACTTTTAGCTTTT
0.4642989427087839 GCATCTCTTTGTTGCCTGCTCTCTAATTAGCAAGTTCTAAAGACATCGCACTCAGAAAAGAGGAAAAGTAGCCTTGATTTTGTTCAAAACTTCACTCATATCGTCCCCTAAATGAACTTCTAAAAATGCTATCAAGCTACTACAGAAGCTGATGAAAGGAGAAAGTACACCGCCTGTTACAACAAGCTTCCCTAGAAGCACAAGCCCAGCCCTCTGACACAGGCTTTCAAAGGTTGCCAAGGTCTTCAGACACACGTTTTATCAGACACCTATTTACTCTGTGACCCTCTAGAGTGCCAGTCAAGTGCTGGTGGGTTGTAAGATACACAGTTTTATCACCACTTCCTAACGTGAAGAGAACCAGAACCAGAACACAGGAGGGGAAGAGAAGGAAGAAGACTGGAAGGGTGAAGAGCAATTTTTCCAAATCAGTCTAAGGGAGAATTGGGCCATAGCATTTTTTTTTTCACATGA
1 GTGGAAGGAGTTGTCTTACCAAAGATTATTATTCTTTTTTTATTTCCTTCAGTTTAGTCACTGTACCACTGCTTGAAGCAGAAGCTGAAGTCAGAGGAATACCAAAGGCAAGGGCCACTTTGCAATGACAAAGAGATTCAAGTGGCAACTCTCCCTCTCTTGCTGACCCTGGCTGGGCCATGTGCCAGGAAAACACTCCTAGATCCTCACAATGACAACTGAGCCTGAATAGATGTTGAAAGCTTTCACTTATCCTATCATTCTGGATTGCAAGCTTCTGCTCTGAGTATGGATGGAAAGGACAGAATGATAAGTATAGCCAACAGCCTAAAACTTTTTGTTGCCTCAGTGCATATCTGTTTTTTAGCTGCATTACTTATTTTTTCATTTTTAATTCCTTTGTTTGTAGTGCCTCTTTTCTCATGGCAGTTTTGAAATA
0.4762325675928921 AGCAAATGAATGGAAGAAGAAATACGAAGAGACCCGGCAAGAAGTTTTGGAGATGAGGTTAGACTGGAGGTTTTGGGGAGGGGCTGGATACTTTTATGCACTGTTAGATTTGATACAGATGAAGTGATGACAGTGTTTGCTTGCCACAGAACCAAGTGTTGAGAGCTTGAGGGCTTTGCTGTTTGCACCTTGCTTTGTGATTGAGAATGTTATTTCAGGAGTTATTGCTAACCAGTTATTATATTCAAATACTGTAGTTTATCTTGGGTTGTTCAGAACATATAACATGTAAACAGAACCCACATAATTCTTATCTTCTTAGAACTGA
0.8150667979175225 GAACTTATCAGTATCCAATATGCTATATATTTTATTTGTCTTGATTTATTCTCTCTCCTCCTCTAGAATATAATTTCCTTGAAGGGAAGGACTTTGGCTCTTTTTTCACTGTCATATCCCTAGTGCTTACAGTAGTGCCTCAAGTGGGTGCTCAAAAAACATGTCAAATGAATGAGGGCTGACAACAGGATCAAGGGCTGAGAACAGGAGCACTCCATTATGCTGGTGGCACCAGCCCAGCTGGACTGTAAGCGTAGGCCTTAAAGCACCTGAGATCCAGAAGCAGATGGTATCAGTGTAGATTAAAGGTAACAACTGGACAGAGAGATAGCAAAACAGCAAGTATT
0.8326390949287338 GAAACAAAAGAGGGGATTTTCAATGGGTTCATCAAGGTCATCCTTTCCATGTTCTAATGCTCCTGATTTCCCACCAGCAACATGGATTCCTGAAAAGGGGATTTCCTCACAAGCTACAGAAGTGTTGGGGTACTAGAGAGAGTAGATAATAAAGGTCAATATAATTGACCTCCCCAATTAACCAATCAATCCACTTAACCCTGAGCTTGGTTTCTTCTTTAATCTCAAGTACATGTCAGCCTTATAACACTCAAAAGTATTCCCTTGCTCATACACTTTTTTTGTTCACCACTCCATCCTGAGGACTTAGAATAATACCTAGTTCACAGCAGGCACTCAGTAAGTATGCAGTGAATGAATGATAAATAAATTAAGGAGTATAGAATCATTATTTCCAAAAACATTTGCTGAATGATAGCATTTGCCTGAATGTCTAATAAG
0.3905431977154781 CATTTGCAAAGCAGAAAATTATTAAATAAGACTCGGCTGCAGACTGTGCATTGGTGCACAATTAGTCTGAATCCTCTGAAAAAGCTGAGATAACCTCTGCGAGAGAGGCTTATCTAGCTTGTTTTTACAAATCGAAAACAAGGTGCTGAACAAGGGTTTATCTCAACCAGGAGAGCTACTTGAACAATTTAGATAACTTTCTATTTGCCAGCCAACTTTCTGTTATCAGGAAATACTATAGCAAGAGGTTGGCCGTGTAAAATATGTGGAAATTTTCAGCATACACTTATATTCCAGCGGGAAAGATGATGTTGTTTAAATAACAGACAAGTGATGAAATGCTATTAAAAGTGTACAAAGTAACTGCCAGTCAAAAAAGCCAGAGCAAGCTGTCACAGATAGGCTCATATATCAACAGCACTGTGACTTTTTGTTTGCTTTTTATCACAGCTTGGTGT
0.6150835924181692 CCTGGATGTCCCCAGAGCACTGTGCTTATCTTGCAGATGACGAGTCACCTAGGCCCAGGAGGACCAGGAATCTGGCCGCCACCCGAGTGTCCAGCCCACTGCACCTCACTATTTATAACCCAGCCCTTCCCCCACTCCAGGGCCACTCAGCTCCTCTATCTCTGGAATGTTGAGTAGAGGTCACAAGACCATGTATGTGTTCATAGAATGATTGTCCCTTGTGGTGACAACGCTGTCTGGTCTGTGTCTTACGATAACAGGTTGAATCAGATATTTCCAGTTGATTTGGAACTCCCTGGTGGCGTGGGAAGCTGTGTTAACATTTTCGCAT
0.6444463708546128 TCAAGGCCACAAGGTTAACAGGAAATTTAAACTCAGGCAGGGAGGTCAGAAGGCCCACTTCTAGGTACCAAATTCCGTAAGCCTTGTGACCCGATTCCAGCGTGGCCTGTCTCCTGCACCTTCTCTCTGAGAGGCGCTGACAAGTGCTCAAAACCTGGCCCGTTTCCCTTTAATCCCGAGCCCTTCAAAGCACCTGAACCCTCCCATGTTGGCAACCTCTTATCACTCCCACTCAAGTGTGACTTAGTGTGTTTGTGTTCGGGTACCTTTCTCACAGTGGCTATATTATTATCAAATGGGGAAGTCAAAGGATGATGAATGGACGTTTCTCCACTGTGGACTGCACTAAGGGATTGCGACAGAGAATAGTAATAGTTGTAGTGATTTCTTTGTTAGTTACAATCTCTTCCTTTTTTTTC
0.2006678905226023 GGGAGTAAGTCTATGGTTGGGAATTGAATTTACAGTTTTAAGTAGGCTTACCAGGGAATGAAGCTCTGAAGGTGATGGGGAAGTGGGCTATGTAGGTGCTGAAGTGAAGAGAGCTGTAGTTATGAGGAAACAGCAAGTGAAGAGGTACTGAGATTTGACTGTGCCTGGAATGTCTGAGGAACAATAAGCAGGCCAGTGTCACTGGATTAGAGTGAAACAACTAGTAGAACAAAAGGTCAGAGAGGTGATGACAGCCAGTTCTGATGGGGACTTTGTAGGTCCTTCTAAGGCTTTTGGTTCTCATTCTCACATAGGAAGACACTACAGGATTCTGAAGAGACAATGATGCAATCTGTTGTACATTTTAAGAGAATCACTGCCACACTCAGAACAGAACAAATGGGGTGAGGACAGACGTAGAACACAAGTTGGGAGGCTACTGTAATAATACAAATGAGAATGGCTGTGGCATGACCCAACCTGATAGCAGTGGCAGTTTTCAGAAGTGGTTAGATACGGGATTTATTTTGAAAGTGGAAACGATAAT
0.4095040823697038 AGAGACTTTGGAGGTGGGCCCAGCAATCTGTGTTTTAACAAGCTCTCTGGGTAATTTCAATGCACACTAAAGTTTAAGAACTGGGCTTGTAGATGACTATGTTTGAATTCATCCTAATTCACAGATAAGTAAATTAAGGGTCAGAAAGATTAAGAGGTCGAGCTGAGCTGCTGATTTTTAGCAGTGTTCTTTCAACTGTTCTCAGATAAGTCCTCTCAGCTAATCAATCTGAATGAGAGAGGTTTGGTGCAGTATCTCTGATTGACAGGACAGTCAAATCTCTTCCTGATTGTGTGGCTTTACCCTTGTAAAGGCCTGAGGGTGAGACTTGAACAACTTCAATCTCTCAGAGCCTCTTAGGGATCAGGCTGCTCCATATTTGCTCTCTTTAAAAAGATCAGCACTCATTTTCCTTTAAAGTTAGAGTTA
0.8618691153999533 CCATATAGAGTTTGCCTTGTCTTATTCTGAGGATAAAAAAGTACATCTGTTAAACCTTATCTGTCACCAGTGCAATTCCCATGTGAGAAGTTACAGAAAGCTGCAAAGCAGCATTCCCCTCAGGGACAAAGTGGCTCAACTGGATCACAGTTTTCTTCAAAGTCCGCCTCTTGCAGGTGGCCAGGCCAGGAGTCTCCAGCCAGCTTTCACCCACCCTTCAATCAACAAATCCTGAGAGCCCACTCTGGGTCAAGTATGTGCTGACCTGGGGCGGCGGGGAACAGTGTGATCACGACAGGCAAGATTCTCCCGAACTCACTCTGGGAAATGTGATCTGAAAACCTTCCTGGTTTCATTTCTTGGATTTCTCACTGAGTAGCATTTTTCCTTCTCTAAAAACTCA
0.6241923818462446 ATTTCTACTTGAAGAAACAATTTTACAGTTTGGGGATGCTTTTGCAGCCCTGTTCAAAGAGGCTGTGGATTGGAATTCTCCATAAGGCCATTAATTATTGAATTTGCTTTACTGTAAAACAAAGGAGCTGCTTATAGGTGTCAGCTGTTGAAGGTGCAGAGTGACTTAGTAGCAGTATAAGTGCTCCTCCTAATCACAGGCAGACCTGTTAGCAGACACTCAGAAAAAAGGACAGGATACTGTCAGCACATTGCTTCAGGGAAGATGGGCAATTAGTGGCTTCAGATGTCACATAGCATTCTTCTCCTTTTGGTCTCCCAGGTGCTCTCTGTTGGGCAATCAGAGATTTTAGTTATGACTCTAGAAACAAGTCCCAGTGAGAGAATTTTGGGCTTTGCACTTGCCAAATGGTGAGATGAGTGGTGCCAGAGAGTTT
0.4960682810564267 TCACACACACACATGCACACACACACACACAATCTGCACTTTAACTCCATCGGGGGAAGTCCCAAATGTATTATCTAGGCAGTGTGAGAAGACTGGCTAGATATTTATGTTCCAGGGACTTGTGAAACAAACCTCTTACAGCATGGTGTTGCTCTACAGCCACTCTAACTTGTCATCTCGTTTGGCCAAGTTACAGAACAGTTTCTAGGACCGGGGTTAATACTTCCACCTCCTCAATTGTCTGTGTCTGTTCTCACAGATATTTTTCTCATCAGGCTATTGAAATGCTTCCCTTCAGTTAAGGCAAGAACAGGTCTCCTGCCAGGGAACACGAGAATCCAAAAAGCTGGTTGCTGCCTCAATATC
0.7850356104058823 ATTCCTCATGGACTTGCCTGCACTTGAACTGTCAGTCCTTCCTGGGAAAATGGTTTCTCTGGGGGGGGGTACAGATGTGTCCACAGCACCATTCCCCATGGCCAAGTGCCAAGTGACGAAAGTGTCGGGCCTTTTGAAATTGTCAGAGAAACTGATTTTCTTGTCAAGTCTCATCCTGTACAGTTGGAGGGCCAAATTCTACTTTCATGTTAGCTGCCACAGAGATCAAAGGCTGCTGACAAGGAGCTGAAGGGTTTGTGCCTGGTCTGCTTCAACCTTTCCTCAGTCCAGCATGGGGAATGCTCTTGGCTTTCGGCTTTCTTGAACTCTTATCGATCCTCCTTTGTGGGCCAACAGATGAAGGGCCTGGGAAATAATTTGAGGGATCTAACTCAGAGAGAACATTCTTACATATGCAGCGTGAGGGAGGTGAGAAACGAGAGAAGACAAGGTGAGGTATGCACAGAGCCATCCTTTGCCTCAGAAAATTCAGGCATACTAAAATAA
0.5466438324074943 TTTCTTTTTGTAACTTTGCTTGGTTCCCTGGAGAAATATCACTTAAGAAACACATCTCTCTCAGGTGTATGAACAGACTTGGCACCACTTCTCTGAGCCAAGTATAGTCAGCCCTGACTATTCTGGTTTCTGTCATCACCCTCAAGACAATTGCTGTTCTATTTTAACCTCAGTCCTTTAGAGTGCTTTGGAATTTGAGATAACTACAGAGTTACTCAATGTATTGAAAACTGCACAAATTCTACTTTCTCTTTTGTTCTTACTCTTCGGCTAACTGAGACCATTCTTACCAGCCTGTCTTCCTGTTTCCCCATGAGATTTGAGATAGCTCATCAAAGAAAAACAACAGAGAAGAGA
1 AGCTGTTATATAAATAGAGTGTCCTTTAAAAAATGATGGTAGAATTAGATTGCTAAATCAGATATAAAACTAAAGAACAGATTACGGTTCTATGGAGCAATGTACTTATCATCTGGGTCTAGGCTCTATCCTGGTCAGAAATTATTTGCATCTCTATGGGATAAAAGTAACAGGCACTCCATCACCCTCAGCAAACTGACAAAGGACCAGATAACGAAACACCACATGTTCTCACTTATGAGTGGGAGCTGAACAATGAGAACACATGGACACAGGGAGGTAATGACACACACTGGGGCCTGCTGGGAGGCAGGGTTGTGGGAGAGAGAGGATTAGGAAAAATAGTTAATCCATGCTGGGCTT
0.8337077597499886 TCTTTACTTGGTAGTTTATTGCTACCACAGTACTCAGGTTCAAGTTAAACAAAATTACTTCCTTTTCCTTTTTCCCATACTGTAACCAATGAGAGAGCTGATAATACACCTCCATTCTTTCTGAGTGTCCACTGTGCACACAGTTCTGTAGTGGGATGCCAAAGCTTTTATGGGACCCTCAATGGACAGGAAAACAAAGTGCTCACATGGGATCTAACAGATGCCCACTTGAGTAATAGGAAAAGTCTGTCTGTCTTCCAGGGCTAACAGCTCATCATGTGAGGCACACAGAGCCCTGTCTTCCTTCTTCTTGTCAACAGCAGAGTAAATGAGTTGTACAATAGATCCAGTTCAACAAGGAGCCTGGACCTGGCACCCCCTTTCACCTTAACAGACTACAAG
0.462294706508997 GAGCGATGCTCTGTGCTATATTAGAACATTCCAGCGCCAAGGGAATAAACAGATTGTGTTTGACGACATGCAAGTAATCCCCTCCAAAGTGCTCCCCTCCCACACACACATTTGTCCTGTGCCACTTGCTGTAGCTCCCTTTTTGAGATTGAGATTGCCTTCAAGTGGGTTGTGGTGACAGACTGGAGGGCTTCAGAGGTGTCAGATCTCTTTCCTTGCATGGTTTATTTTATTTTGGAGGAACAGCCAGAAGTCACAAAGTGCCAGTTGGGCCAGTATGACCGGGATGGTTTTTGCCCACCAAGAAGTACCGGATGGCGATGACACCCTCCCATTGCGTGCTACTCAAAACCTGTCATTCTTGGAGAGTTGCGCAGCTCCCTTAACTCAAGTGGTGCTCAGGGCCCTTGGCCAGGGCTTAACCTGGGTATGAGGGAGAGTTGCTACAGGGAGCCTCACCCACAGACGTTCCTCT
0.4594872660039064 CTTCACTAATAGCTGCTAATAACAGAGACAAATGCTATTTAAGGTTAGGGAGAGCATTTACCTAGCACATCCTAGCAGAAAGCAGTGTAGACTTCGTTTCATTTCCAGCCTCACTTCTGGGAAATACTGGCAGGGCACTTGGACCCTCAGCACCCTCTCAGTTTATCTCTTGGTACTCTCTCTTTAGTTTTGCTCCTGTAAGATAGTGGCAGGGCCCTTGAACTTTCAACACTCTCGGTTTATCTCTCAGTACTCTCTTAAGTTTATCTGTAAAATGGAAATAATGATGCCAGTTCACCATTTGACCACAGATGCTTCAAGCTCAGCATAAAGTCATTTGGAGTTGTCTTTTCTCCAGAGGGAAGATAAAT
0.7457607882709638 GCCTTTCAGAAGTTCACTCCAATTACAAAAAAGTTTAAATCCCCTACAAACAGCCATGTGTTAACTTTTAACAGTACCCAGTTATTTGGGATAAAACTCATAACTGCTTGAAACCCAAAATGCTGGAGGCACCAGCCACTGCTGACAGCCGAGAGAGAGTGTTGAAAAGCTTTGAGCAGGAGAGTGATGCAGTGGTGTCGGATTTCACAAAAAGCATTCAGGCAGCAGCTGAACACCACCATTTCTGTGACTGAACTGATGCCCTTTCTGGGGGGCAGCCATGTGCTTTGGCCATTGAAAACACAGAGGGTGTG
0.9398846252460309 CACAGAGAGGGCACGTGAGACCTGGTGTGCCTACCTCTAGTCTAGGCACTTCAAATCTGTAGAAAAGACAAACTTGCCACCTAGCTTGTACATTGGTTAACAGAATGAGCTACAATCTCATCTTGGGCTGTTTTGTCAAGAGTACAAAGCCATGTACTAGATGAGTGGCTCTCACACCTGTCTGCACATTTAGAATCACCTGGGAATTTAAAAGAAAATGCCGATGTCTGGGCCAGACTCCATACCCATTAAATCACAATTTGGGGGTGGGGAATGGGCACAGGAAATCAGTGCTTTTACAATGTCCCTAGGTTTTTC
0.6933030020796191 ATATTTCTTTAAATCATATTCCATTTACGTGTCATTAAAGATTAGTGGGCAGTAGTATTGTTAAAGCTTATGCTTATTCTTTTAAAACTGTAATTGAATAGATTACTACTGCTGCCTTCTCTTTATTCTCAGATAAATAAGAGGACCTAGTCATCACGCGACACTCTTCACCTGACAGCAATAGAGGACACACACATAGGACAGAAGGAGGACCTAGTCATCACGTGACACTCTTCACCTCCTAGTCAAGGAGGACCTAGTCATCACGCGACACTCTTCACCTGACAGCAATAGAGGACACACACATAGGACAGAAATGAACCACCCATGGAGCACTGACATTATGATCCTCACATAACATAATGGAACAATCAATGGCTTGCAGGTGGGCAGAGTCATCAGCGAGGTACACACACGGGTGCCATTTTGTGTCCAAAGGCAAG
0.1955040175542411 CTTCCCCAAGGCAGAGAGGAAGGCCTGGCAAGGGCACTTCAGGTGTCAAAGAGGTGAATCGAGTCTCTTAGAAAGAGGGCTGTACATATGAAGCTGACATCGTGAAACCAAGCAAAAGTAGATGAGGTGAAATGGAATGACATGATGAGAAGGCTGTCACTTCTATGTTTCTTTGCACCACTCTCTATCTTGAGGGTGTCAGTTATCAGGTGTTGGTTTTGTTATCAGACAGGTCCTTGTCTCAAAAGCTTGTAAATTTGCCCGGAGCCCTGAGGGCCTCTGATGACTATGTGTCTAGACGAAAAGCACTGGGTCACCCTCCTTGCTGCTGCTACTGTGACAAGCTGGCACAAAGAGAAAGGCAGTCCATGGGGATCTGGACTAATTCACTGTGGCAATCCAGCAAACGTTGTCAGAAAGGATTTCAGCTTCCCTGTTGGCTGTGATCCTGAATCAAGGAGGAAAGCCACTGAGTGCTCAGAGTGAAAAAATACAGTAGCCGCAAACTCCTCTGCCTCTGACATGGTTTAATCAGAAACTGTCACTCATTGACATCAAATGTCAAGCCCTGGGTCACCCCCTGCATTTAGAGGGCAGGAAGTCCCTGACTCCAGAGGTGG
1 AATTTATTGGTTTAAAAAAAGGCCAATGATAACCGAAGAATTGTGAAATTTTCTTAGTTGTTATTTAAAAAATCCAAGTATTTGGCATCCTTCAAATGATAAAAGCATGTAGCAAAGTTTAAAAGACTATTGTCCTTTGTAAGCCTATCCACAAGGCCAAGAAGGCCTTTGAACTCTTGAGAGGACTGTACTTGGCTGATAATTCTTTGGAGATATGAGCTGATGGATGTGCTGAAACCTCCTCAAGAACCATTTCCCTCCACCAGCCAGGAGTCAGGGAATAGTAGAGCTGAGCAAGGCAACCTTGGCAAAGACAGGAAAGTCACCCTGGATGCTCAGTTCAAGAGGAGGTCAAGAGCTGTGCAGCGAACACCACTCCATTATAATCTATTTGTGGAAAGCATAATGTGTATTTTTGTTAAAGGACAATCATACACTGAGGAGAATTAAGTTGGCAGTCTGGTGTTTAAAGGATCAGTATGATAGACAAATAGAGTAAGTGTGAGGGGAAATTTTCAGCAACAAAAAAAAATGACT
0.3805808081889479 CAGGAGCAGTAGAGCATTAGCCACTCATGGTTCCTCTGTGCACAGATCGTGTGCCCGTGAAGCCAGCCCGACCTGATGGACTCTCTCCTACTGTGTTTTCTATCTCAAGAATGACATCATCATCTATAGTGTCTCTGACTATCACTCTTGACTTTTCTTCTCTCTCTCTCCTAACAGCCAGTAAATCACCAGGTCCTGAATTCTCCCACTTAAATACCTCTCAAACTTGTCCACACCTCTTTATCTCCCCTGCCAGCCTTCCTAATGCAGGCTGACATCACCCTCACCTAGATTGCTTCAGCTTCCCCCACTCACTACTGCCAGCTCCCTCCTCCACTAAGCCTGCCAGGATATCTTTCTCAGGAAGCAAATCTCATCATGATTCCTGCCTCTCCTCCCTATCTGTCCCACCACGCTTGCAACAACACCTCAATGGTACTCCTTGCTTTGGGGATAAAGTGTAA
0.6474337398057933 GCTCCATTTTGATAAATGGAGGAAAACAGCCTCTTAGTAGAATATACTGGGTTACACAGTCTGATTGAATCTGCTATTGTGTTTAGAAGTCAACAGTCAAATCAGATCTGTTAGGAGCCTGCCGTATCGTTTCCCTCTATAAACAGGTCGCTCATGTCAACACCTATGAGTGGGTGTCTGTGCATGGAGAACATGCCGGTGCTTTGCAACTGCCTGCCATCCTCGGTAAAAGCAGCCACAGAAAGACTCACCTAGTTCTTTCCTGTATTCCTTTATGTCTTATTTTTCAACAGAAAGTGAAAAGAAGGAATAAAGAT
0.6268686073340733 GATGGCTCCCAAGACTCACTTTTAAATTTTGTAACACTGGTCCAGGCCTCCTGGTTTGCTCAATTATCTTCTCATTGTGTTTCCTTTTTATCAATCAACGCTAGGCAGGGCCAGGGCATGTCTGCTCTCAGCCGGCCCTGTCTAGCTGCCACAGCGCTTGCCTAAACCCCTGACATGCCCTTGACAGCTCCACGGTTATCATCCTTTCTGTCTCCAGCCTGACCTCCCCTCATAACCACACTTGAGCAGCTCTCAGACAATCCTTTTGTAATGTAAACCACTCACTCCTCCTTTTCAACCCCTTCCCCTGTTGGCCCATTAGCAGGGACTCAATTGTTGGCTCCCTGTCACCACAATCACAGTTAAGTCACTATTGTGCTTCTCCCAACGGAATGGCTGCAGTTCCAACTATTTAAAATTATTATTAATAATTCCTGTAGT
0.6426033612401544 GCAAGGTATCCACAGCCTTCCCCAAGAGAGATTGGCAGTCACTTTTATGCCCGCCAGGGTCTGTGTCATGCTTTCAGCACAACCCTCCACTTATTCCGTCATGTAGCATATTAGGGATTCCCTCCTCTCGAACTTATCTCCTCTCAAGTGTCTATACAAGCTAAGAAGACTTACTCAGGAGTGGGGTCATGGTGTCTCTTCACTGAGTGACAGATTCTTCTTTCTCAGCTCCTTTGAAATAGATAAGAGCTAGTAGTACTGACTCAATTTATAAGATGGCAAAAAACTAAGTAAATAAAACCATGCCAAATCAAAAACAAAAAT
0.2852943871372152 GAGCACTGATTCTGAGCCCTTGCATACCTCAACCCGTAATAATAAGAGAAAGTTCCTGTATACATTCCTTGCAGAGTGTGATTTGAGAAAAAGCAGGGGGATGAAATTCAGGTTCTAGTCTTTAATGACTTGAACACAGATGTTGCTGTTGACAGGCGGAGATATGTTGAGTGTTGTTTCTCCATTTGCTTAGCAAGATTTGACATGTGGTGAGCCAGAATAGAAATCTGAAGAGTTGAATCAAGATGTGTTGAGAGAACTTTGGGTGTAAGAAGTGATAAAAGAAGCAGGTCTGGATATACAACATTAGGTGGCAGATGGAAACTTTTTCAAAAAATATCTTTCCAGGATTGCCTGCTTGGATAAACTGATTG
0.8585622920310915 TTACGGCCCCCTCCCAACTTCTCCCATCTTCTCCCACCATCCTCCAGCAGATGCCTCCCAGGCCTCTCCCGCCACCCACACCCTGGCCTCTCAGCTGAGCTTGGCGGTCATCTTGGCCCACCACAGCCAAACCTCTTAAAAGAGCTGTCTGCACTCTCTCCTTCCACATCCTCCCCACCCTCCCGCCTTGTTCCTCTTTAACCCTGGCAGCCGCCCCAGCTCGGCTAAACTGATCTGGCAAATGTCACCTTGTTGTGAAATGCCACGAGGGACTCCTCGGCCTTATCTGCCTGGTTGACATTGTCGGCAGCTTCTTGACACGCTCTTGCCCTGTCCAGGCTTCCTTGCCCCTTCCCTGGAGGTTGTTGTCCTCCTGCCCTGGCCGTGCTGTTCCTGCCCAGTGCTGTGATGCTGGTGTT
0.6816342863986129 GATCTCACAGGAGTGGATAGGCAAGCTGGATCTGTGAGCAGCTACAAATAGAAGCACAAGACAAAGTAATCTATAGGCTGGCACTCACATTCATTTACTAAATAAGGTCGTGAGCAATATTAGGCACATTTTTCTGACACCTTTCCCAGTTGACTAGAAGTTGAGTGCATTTAGTAAAGGAAGTACACAGTGAACTGTTGTTAGTATTTATCAGGAAACGTGATGAGTGGCCCTGAAATAGAGCATCTTACCATCCAAATTTCTCAGTAGCCTTAATAAAGAATAGTCAGTAGCCTTAGTGCAGACTAGCTGGAGTAGATCTAAGCAGTA
0.5803682706597411 AACTCACAGGCTACAAATAATTTACGAAACTCTTTTACTCATTGTGGTCATTACTGACCGTATTGGCTAGCAGCAGTCCTTCCCAATGTGAAATGGGTGAAGTGCACTTGGAAATTACATGAGGCTTGCACTTTTCATCCGCTCTTGTTGGCCTGGTCATCTTCAAGTGCCTGTTATCTTGAGTGAGATAGAGGATTCTAGCAACAGCTCCATTGTGTAGTCTTATCTTAGGAACATATGGACTCTTTCACATTTGGTTTCCCTAAGTAGGCCTTTAAAAGTGATGGCAAATTCTGTCAACATCTCCACCTGTTTTGTATTCTCTCCAGTAAAAATCTGTCCAGTAGCTTCAAGAAGCTCAATCTACTGCTGAACCACTTCATGCCAGTTTCACGTGCTCCTTTAGTCATTTTCTTCCTGAAGTCATGTCAAAATGTCTATCTTCAATAAGCCCTGTCACTTAAAATAGAACCCTCTACCTACAGATTATGTTTTCCTTTTGACCTGTGTACCTCATTTGAAGTATGTGGCATAGATTTTCTATATCCAATTCAACGTTTGTTCTATATTCACTTTTGGATGATTCTAAGTCGTGTTATCATATCAGACTATCACAATTTTGAATGTTGAACTCAAACTAAATACTTCATTGTGTCTAGTGCTGTGGACTTTTAAAGGCACTCAGTATAATTAAGGCTGAATTATACTAATGATTAACTA
0.9412493494201918 ACTTGTTTTTAAAATTTTATATATATATATTTTTTCATACATATATATACACATGTAGAGACACATGCTGAAGGTTTCCCACTGCTGTCTAATTTCCAAGTTACTTGTGTGTCAACAGGTGCTTTTGACAGCCTTATCAGACCACTGTAGGATCCACTCATGGACGTCCCAAGCTGGAGCTTGACGGGACAGCTAGTCTCCATGGGAACAACTGTGACATCATGGTCACTAACTGTGGACCTAGTAAGTGATCCTGGCAGGAGAAAGCTGTTAGTGACAATGGAGGAGAAGGCTTCTGTCGTCACACAAATGCGTTT
1 TTTCTCCATGTTAGCCAGGCTGGTCTTGAACTCCTGATCTCCATTGATCCGCCCGCCTCAGCCTCCCAAAGTCTTGGGACTACAGGCGTGAGCCACTGCATCTGGCCTTTATCATTATTCTAGAATGTACTCCTTCTGCCTCAGGCAGGTCCTCCAGGAGGTGTCCAGAAACAGCACTGTTATCACAGGAGATGACAGCTACATGCTTGTCCTTCCAGTGGAACAAGATGTGGAGGTGGAAGACAGTGATATTGATGATTCCCGACCCTGTGCAGGCCTAGGATAATGTATGTGTTTGTTTCTTCTTGTTAAAAAACAAGAAGGTTTAAAAGGTTAAAATTTTTTTTAATAATTTAAAAATA
0.812324075230938 CGATGGCCTGGGCTGTGTGAGGAGCGCAGAGGCCCAGGTTCTTCCTGTGCCTTTGCTTTGCTTATCTCCCACCCTACACGGGCCTGTGAGTGACAGGCCGAGGTCAGCCCAGGCCCTTCTCCTTGGGGCCCCTTTGACATCACGGCAGCATTTAACATTCCTCTCTGAGAGGCTGCTGATGGGCAAATATGTTAAGAATCTGCCCAGAGCCAGCAGGGTTCATGCAACTAATGGTTCGGAGGAAAGGAAAGGGTCCTTTGGAGAACGGCACCTGCCAGCTGGGCTCCAGGAGGGATCCCAGGGCGGAGGAAGGTCCTTAGAGGCCCAGAGCCCTGAGGCCACACACATCAGAGTCACAATAAAAAGCAAGACCAAGACAGAAAGGAATGTGAGACCACTCAGCAAAG
0.4062465529281313 AATTCCTCCAACTCGTCTGTTCAGGTTGACTTTCTGGAAAAGTGTTTTATTCTCAGAGGATTTGATTATTGAGTTATCTTTCTATTCTGCTGCTGTCAGTAGATTTGCCATAAATGTTTCCTGAGAGTCTCTCTCTTGAAGAGATTCAGGCCCCAGTTAAGTTCATCCCAATTAAAAATAGAACCCTGAGATGCAGCAGCTGTAGCACCTCTTAAACCTCTTCAAATAACATTGAACGATTAAGTGGCTGCTACTGTGGAGATAGTGCCCACAAAACCAGCAGCAGGCCCTCTCGGAAAATGATAACACTCTAAGTGGCTGTCAGTCCTTAGTCATTTCTAGTCATTCAGGGGATGTTGCCTTATCTTCTACAAGTTCTAAAAGTTCCTGGGAAGAGAAGAATCACATAAATTCTTTATTTAAAAAAATCCCCCTTCCCACAGCAAAATTCTCTAAAACAATAC
0.8574532651733372 GGATAGGCACATTACTATGTACCACAGGGCAGGCCAGGCTGCAGGAGGAGCTTGCAGTCCTGGAGGCTTCTGGCTCTCCTCTCACCCCGCTGCCCGCCCCTCAGTGATTAGTTGGAATCCAAGACAGCAATACAAGATGTGTCGTTGGTGGGAGTGATGGAGTGCCTGCTGAGTGGGCCGCAGATAAGCACCGTGATTTCGGAGGACGCTTCATCATTTCGCCGTAAGAACATGTTAACGGGTGATTGTTTGAATGTCTCCAGCTAATAGGATATTATTCATAACACTCTGGCTAGTTGGAATGGAAGATGATAAGAAATTAAATCCTTAATGGCTTTCTTTAAGGGAGGAC
0.3897706670301382 GCAATGAGAGTTATCTCGTTTAATAAAAGACAATTTCTCATTCAGTACCTCAGAAGAGAGATTTCAATCAGCTCACAGTCTGGGGCTTACAGTCTACTTGCAGGTTGAAATCATGCTGTTGACAGTATCGCAGCTGGCCACTAAGAGTGCTGTTGAAAGCATGTTTGCTTGGACAAGCTCCAGACTGAGAAAGCCCTCAGCAAAAGATAAACTAACAAGCAAGGACAAGGACGTTTTCCAAGTAGTGATGACTCCTGATTGCATTCTTAAATTCTTCATCCTCTCTTTGAATGTGGGACATATGGACTTTCATGTAAAATCAGTCCAACTCCCAGAAGACTGATTTGTAGGGAAAAGACTGTCTGACGTGATAAACAGC
0.7957582375310722 TGGAATAATAATAGTGCAACTGCCTTACAAACAACCATTCTAGAACGTTCCCCTAAATGAATGAAGTCCTTTTGAGGAGTCACCTTGGGAGGCCTCCAGTCACACTCCCATAGCAGCATCACTAACAAGTCAGGCTGCTCTTTCTGGCTGAGCTGGATGTGGTGACAGGATTCTCCACAGGATGCTGGAGGCACTCTAAAGGTCACTCTAGCCTGACCTATGGAGCTGGCAGGCAGATGAAACCTTTTGGCCATCCCTGAGCCATGCGCTTATTCTTGTTTGAAACTCTATCCCTCCTGGCACCAAAACTAGTTTGTAGGCTGCTTACAGAAAACTCAGCTAT
0.2311205674744737 GGTATTAGCTCACAAGGGTATTAACTGAAAAGTTGCTTCCCTAGCAACCTCCACATTGCAACAATGTCCTTGAATAGCATTTTGCAGAGACGGCAAGCCATAGTTAACCCAGAAGACTGTCAACAGTTCAAGGATCACCTAAACTTGGTGAGAGCCATGAAGAGCTAACACAGGATTCCTTAAAGATGACATTACTGCTAAAGATAACATGAGTGCACACATTCTGAAGTATCTGTAGCAAGAACTCAGGATCCACTAAGCTGTTTAAAGAAGTTTAATGTGTACACTGTGATAAAAGCTTACCTTTCTGTCTGTTACAAAACTTACAGAGGAATGAACTGAACTCAACTAAGCTTCTCTCATCAAGGGTTTTGCTG
0.6827210108253863 GTCACCAGCATTTCTGCTGTCGCCTCCACCCTGTCTTTCTGTTTCCCTTCTGGTCTCTTTTTCTCACAGCGTGCAGATAACTGTTGTAGCAGAACTCAGGTAATGCCCCTCCTGTACTCAAAACTCCCTCAGTGTTTCCCGTCGATTTGGAATTCAGTTCAAGTCCTCTGCCTTGCAGGACCTGGCTGTCACCACCCTCTCCAGAGTGATATTTCAGGCTTTCCTCCTCTCCCCCTGCGGCAGCCCCACTGGCCTTGAGTTATTTGAACACACAAAGCTTGCTCTTCCTCCAAGCCTTGCCCCAGACCTTTGCAGGACTGCCTCGCCCTCTTCATTTGGGTCCACTG
0.4145447277022877 CCTTTCATGAGAGCTGCTTCTTTCCCACCATATTTGGGCTGCTTTGCGGCTTCACCTTTCTGATACCAGCACTATCTCATCTTCCTGGTTCCTTAGTGATGCCCCTGCTATGAATCTCTATCCCATATTCCGTGCAACCTGTTTATACCAAGAACGTCACTATCTTCTTCATTCATCTCAGATGCCATGGAAGCCCAGTAGCTACTGCTCTGTCCCTGACACCTTTTCCTCACCCTGAAATGACCTTGACATACCACGACAGGGGCCAGAGTCTGGTTCTTGTCACATGGCCTGTGTTTCAGCCACTGTAAGTTGTCATCGCTGTCAGAGTCTCCACCCTCTTTGCCAGTTACATAAGAGGCTACATAGACATCTGCTTCCTAGCACAAGCTTTTATTAACCAGAGGCAGCGTGAGAGGCCAAGTAAGCAAGAGGTCCATTCCGGAGCCCTGTCCTCAGGGAGGGTGAGGGGCTGTCGTCAGGTCAGGTCGTGGCTCCTGGGGCAATTCAGCTCAGCTCTGAGCCTGTTTGCAGCCTTCAGTACAGGGGATGACATGTGATGTTGTCAGCCTGAAGGGGCAAAAAAAAGCAGCAGCCTTTCAAAATCAGAATGCCCCTGCTGTTTGTTTCCTTTTGGAACACAATAAGAACAGACTGGGGACATGACTCTAGGCTGTCAACGCTTCCTACCAGCTTCCACAGCACCTTTCATATGCCAGAAGAAAAAAAACAAGTTGCTTAAGTTAAACAAGG
0.6439337939822999 AGGCAAACTAAAAGAAGACAGGAGGCAGGGAAGTTGAGAGGGGTCTCAGAAAGTTACTAGCAGGCATTCTCTGATTCTGTTTTTCTTTGCAGGTTTGTGATTGGTGACTTCACAGAAGGTTTTCAGGCACATGCTGAGAAGTCTAATTAAGAGAGTTATCTCCATTTGTGCAGGCTTGAGGGGGTACTTCAATCAAGTAGAACCTGTTGAAGTGTGAATAGGACGAGCAGGGGAAGTTGAAGTGTCATCAGGAGAAATAAGTTGGCTGTCGACCAAGAAGTGTCACAGGACAACTTTACTCTAGCAAAAATGTCTCCAGTTTCGTAAGAAGAG
0.33814924462218 CCAGGAGACTCTGTGGGACCACACCTTCAACAAGACTAGTGGCCTCCCTACTTCTACCCTTGGCCCAACCCCCAGTGAGGTCCCAGGCCAGGAAATTCTTGTAGCAGATTCAACAGATCACTCTGCAGCTAAACAGACAGACACAACACTCTGTCCCAACCAAGAAGGTGCCGAGTGAGAGGAAACAGTCATCTGCTGCTCCAGCTGGCGAGAAGAGAGTGGAAGAGGGCGCTGAAAGCTCACATCCTAGTCTAATCCCAGCTCTCCCCCTCCTCATCCGGACCCCATCTGCAGGCTGTTTTTCATCCCACTTCCGTCAGTGTTTCAGCTGCTGTCAGTCAGTAGCTGACCCTGCCTGAATATGCCGTCTTGTCAGACAGATGGCTAG
0.5339157133251076 CTGGCGACCCCTGAGTTGAGGATTCCGCAGGCCCTGGGCCGACTCCCACTGAGGACTGAGGACCTGAGGCTCACGCTTCATCCCCAGCGCCGGCTCCCTGAGGAGGCCCCTCTGCACTCTGTCCCTCCTCAGGGGACAGGAGGGGGAGGGTGCAGATAAGGCACCGGGCCCCGGGTTATCTGGCTTGACCTTTGGAGAAGCCGAGAGGGGAGTGTTGTCACCCAGAGGAGATAGAGGGTCGCCTGGTGGGAGCAGCTTCCAGCCTTCCTGAGTGGTCAGGGGCAGGGCCCTGCGAAGACAGCCTGGACTGGGGCACTGGCCTGGCCTGTCAGCGCCATCCCTGCGCGGCTCCCAGACACCCAGCTGTGCCGGCCTGGGGCATGCATGAGCGCTCAC
0.9483215924633506 CACTTAGCCTTGTGACACTATAACTCCCAATTTTTGGAAGTGACTCATAACGTCTGCTTATACTTCTCATTCAGTGTCATGGTTGGGTCCCTGTTGGCTTTTGATTTTAAGTGCCCGACTTGTAATCCGCTCAGCCTGAGAGAGAACTTAGAAATCGGAAGTATTTTATGTTCCAGGCTGTAGACCTTATGAGGTGATGACAGTGTTCTATAGGGATATCTGTTCTGCTTTTCCTATTGAAATCAGTGAAGGAACTGGAGCAGAGTGCTTAACAAGGGCAGAGAGCAAATGAAACTGCCTTGTGATAAAGCTGAGAATGTGATGATGGCGTGTATCAGCACAGCTCAAGGAGGGGACTGGCTAAAAAGCAGGTTGGAGAAAGAGGGAGGAAGTGAAGGTTTCTACACATATCCAAGCAAGAGAGAAAGCCAAAGGTGCCAAGAAAACCATATATATATTACATTATCAATTATATATATATGCATATATATAATTAATTTGAATAGCCCAAAGGTGTATGTTTTTAATAGGAGTGAGTGGGGGCCATTTAAAATGG
0.3338446730717258 CCGTTTTAGCCTCTGAGGGCTGCTGATAGGGAGACTCTACCTTCTCCCTCTTAAATACCGCTGCCTGGGCAGACTTCATGAGGATAGCTGGAGCTGAATCCTTCATGATGGCTTTTTGCCACCACTGCCGGTCTTGTCACAGGCTCCCACTCCTTCTTGTCAGCACTACTCCTCTAAGTGCAGAGTGAATGCTGATGTGATATGGTAAGAGGGAGAACTTTCATAATTTGCAAGAGAAAACATTCTCACTCTTACTTGTTCAAAAGCAGACATTGTGGGGTGAGGAGAGGGAGAACAGTAAGAAGGGCTGGTCCACTCTGCTCGGAGTTTTCAGCAGCACAAAGCCACCCAAC
0.6026714405148337 ATGTGTGCATGTGCACAGTGATAGTGTATGGCAAAGTAATCACTTCTTTTCCTTATCCTGAAATGTCCTGCATGTTTATATATCAGGCATAAGGTTGGACTGACTGTAAATGGATGATCTGGCTTAATCTCACTACAACACTGTAAGTGGGATTAACCCCACTCAAAGATGATAACCTGTGGTTTAAAGATCAGTAACTTGTCAAAGATAACATGAGCCCTGGTAGGTGAGAGAGACATATCTCAGTCTAGGCTGTCTCAGCCCCAAAGCCCATCCTCTTAGCTAGGATCTCTGAACTATCACTTATTCCACACCCTCTTCAATGATTTTTGCATATCCATGA
0.8198127924426919 GTTGTTTGGTTATGATACACTGAACTCAAATGCCATTTCCTCTAGGAAGCCTTTCTTCAACTCCTCATCTAAATTTGGTGTCCCAGTCCCCACATTCCAGGCCCCCAGTGGTTTTTGTCCTAGCTCTTGTCATACTTTGTAATTACAGGAATCTATGAGTATCTGTTGACTGCCCGTCTCTCTCACTGACTGACTCACTCACTGAAGCTGGGGGCAGCCTCTGTTTGGATAACCACGTAGCTCCAGTGTCTGACACAGCCCCTGTTTCAACAGGAGATGTTCATTATGTGTGAAGAAGGAAGGGAGTGGAAAAGGAGCAAATGAAGAAAAGAGTA
0.4782063112081149 GAAAACTGAGACTGAGACCTCTGGCCCCCTCTGGTCCAGGGGAGGCATGGCCCTTTCAAGCTGGCCTGGCTCCCGGCCCAGTCTAGTGGTGAGGGTTGGGATGAGAGTGTGGAATGAAGTGGCTCCTATCCAGAAGGCTCCCTGTTCTCAACCAGAGGCTGTCTGTGCAGCTCTGGTCCCCTGGGTTTCAAGCACCCTCTTGTGGGTCTGCTGCAGTGGCTGGAATGTAATTTGTCACTTGTTTGAGGGCCAGGCTGACAGAGGCCAGACAGGGCTGGGTGTCGGACAGGAGGGGTGATGAAGTCTTGATGCAATTTGCAGGCATCTGTAGAGCCTGGGAGACAGATTGAAATGTCAGCTCTGTTCTTGAGGGCTGTCTTCCATACCCATAGCCAGTGACAGGAGGGGACCTGGGGGCCAGGCAGGGGGAAGACAAAAGCAGAGGGAGCTGAGGACAATTCCTCCAGGACCCTGGGCTGTCTAACACTGCCCTGCTTCCAGCAGACCATGGAGTCAGCTCAAGGAGGAAATACAGCCACTTTGAGAGGCTGGCCCTTTCCAGGATGGGAGGTGGGAAGGATTCAGGTTGTCTTCTGCCAACCTCTAGCTCAAC
0.424452257386241 CAAAGGTGGCTGAAGCTTCAATCAGCCCAGGGCAGAATGAGGGCAAAGAGCCCCTAGTAAACTGCTGCAGGTGGAGGCACTGGTTTCAACCACGGTCCCTTCCCAAAACAACTTGTCATCACTTCTGTCTAAGCTCAGTGTGCTTCCAGGGGGTGTGACCCCTGGAGATAAGGTATTTCATCAAGTCAGCCTTGTTGGTGCCCTCATACTCTAGGGCCTGTTATCACACACAGTTGCCCTTTTGGTCTCTGAATGAGTGACCTCTTCCCTAGCCGCTCACCATCTCTTCCTTTCCCTAGCCGTTCACCATCTCTTCCTCCTCTGGCTTGTGTCACAGACCCTGTGGAGGAGTCCATCTTCCTGACAGCCTATCAGGCATTCTTGGTTCCTCTCCTGCCCACGACAGGATGCCAGTGCAAGCTATAACCTTATCTTCTTAAAGCTTATCTCTGTTTTTATCTTCTCTGTCTCCCTGGTCCCTTTAAGTCCACCCACCCATGTACTCTAAGTCCAGGATCTTCACTCTGGTGTATTAAGGGTAGTCCCAAACTCACCCTTGTGGAGGGGAAGGAATTGCTTTTACAGGGCTCTTCCAGAAATGTTCTTATCATATCCAGGGATCATCCCAGAGGACCTACTAAAACAATGCCACGTCAACCAGGGCAGGTGGACAATCACTCAGGATAAGTTCTTGGACTGAGAGGGAAACCCACAGAACAGCAATGCCTGCATGAGAGGCAAGGACCTGTGGGTGGGGCGGGGCTCAGCCAGGGTCCTTCTCCCCACTCTCTTCAACCAGAGCTGCTGCACTCTTATCTGCTTCATGTTGGGGTTCCCAGGAAGGAGTCATTTTTAAAAACAGGTGAGGAAGGTGTAGGTGTGTGTGTATGTGTGTATCACTATTCTGACTTCCAGCTTTCCTGACAAGAAGACAGCTTGGTGTAAATGGGAGTAAAGAGGGTAAAAAATGAACGACTCAGTTCTGCAATTACCCATATGCAGATCAACTGTCAAACAAACTATTTCTGTATCTGTGACTGCCTTTCTTCTGCCCTCGCCAACACCTAGCACAGTACCCAAATCCTCTCCAACCCAGACAGTTGCTGACAGAAAGGCCTCTGGGACTGTCAACACCCCAGTGTGATTCAGAGCTCCCAGGGAGTCTGAGGCAGTCCCCTTGTTTATGGATTCACTGATTGATTGGGCCCTAAAAGCTCCTGGCCCAGAAGACTAAATGGGTTGTAATCAATCATTAACAATAGTGTTGATGTTAAAAATTGGGAGATGCACCGGGTCTTTGGCCATGTGGATAAGCTGGGTGAT
0.3378315821556019 TCCCATGTTTGTCTTCACCCAAAGTCCGGAGGCGGCTGAAGTGGCAGGGGACTTGTGTGTCAGTGCTGCCCTGAGCGTGCACACATCCGGCTGGGTTGCAATAGTTCCCAGGCTCATCCTCAACTTTGCTCCATGATCTGAGTGGGTGCTGACAGCAGGGAGAGGCCAGGGAGCTGGAGCAGACACCTCTGAGCCTGTGGGAGTAAGGGGGGCCCAGGGAGTGCAGAGATGTCTGCATCTGCAGCTGCAATTTGGGTGGCTGCAGCCATGCCCAGAAGGGTGGGACTCCTGCCT
0.7538933505942501 AATAATCTCCATTCCAGACATTTTAACCCACTTGAAAGGGGTAATACTTACCCCCCAAAACCTAAAGGGTGACTGTTTTGAGCATGAGGTGTGGGGAATAGAGATTAGCGTGAGAGGGAGGAAAGTGTTAAAATAGAAAGAGGCAGAGAGGAAATGAAATAACCTTCCTACCTCTTATCCTTGAGTGCTTTCAAGAGCCTGTCTGGGGCCAGGAGCCCCAGGAAACACCAAGGCTGTTTCTTGCCTTCACCTTTGGGCTGTTTTTTACTGCCATTCATTAAGAAAATCTTTTCCATCAGCCTTATCATCCTTTTCTTGGCTCTTGGTCAGGTTGAGTCAGACGTGGAACATTTACTTTCACAAAGACTAACCAATCTTTTGTCTAGACGCAGATGTCTTCCACCAAAGCTTGTTGATCAGGGTCATGAAAGAGGCTGGTAAACACGTAGGCCCTTTTGTGTAACTGAACACTGTGGGGGGAAGACTGAGGACAGAGGAAATGGAGAAAATGGGGGGAGCTAGGAAT
0.7047276068424967 TGTTGCTGATACTAGCCGGAATTTATTGAGTGATAGGATATTTGTAATGTACTTTGAGACTGAACTTAGAGCCCTGAAGATTAGGCAATTAATTCGTAGGGAAATATTTTTGCCATTTAGAAAAAAAAAAAAAACTTCGGACTAATTGAAAGTCTATATTGGAATGTCCCATTTTTATAAGGCTATTTTAGACCTCTGGTTTTTAATTAGGTGTGAGGTGTTCATTTAGTGCTGACAATGTGAAGTAGGCTGATGCCTAAATTTGCTTCTGATAAACCTCTCATTGATGTCAGCACTTGAATACTTAACTGCTACATTGAACATCGTATTCAAAGATAGTGTGGGTGAAAGCTAACTGCTTATGAGCCTGATTTTTGCTAAGAGACCTTACGTCACATCCTGGTAGCATTCTCTAAATTGACACTAAAAA
0.9269242051904252 TTTAACATCTATCCATGCTCTTTAGGTTTTATTTTAGGGGTACTTTAGAATCTATTGAGGATTAAGTTCTTGACTTTTTTCTCTACTCAGTCTGCTGCTAACAACTGCAGGGCCCTACTGCAATCCATAAAACTAGCTCTTTGAGAGGCCATGAATACTGTTAACATTAAGTGACATTCACATTAATGCTCATAAGTGAAGGGAGAGAAGTGCTCCAACACATGCTGGAGATTAACAAGGCAGTCAAATACCTCTAATCTGATAGTGCTGAGAATAAACCAAGTGTACTGTAATGCTGTCATTTAGCACCCTTCAAAATCAGTTAGAGAAGAGAAGCAACAACTATTTTGAGGGTGGCTCTCAAGAAGGTCCCAGAATAGTATCACCCTCCTCCAAACCCCCAAGTGAAAAGGACTATTAAAAGAGGTAATGAGTACACAAAGACTCCATGAGAGCAATGACTAAGATTATTCACCACTGATCCCCACTTACCTTAGCACCACAACTTATATTATAGAAGGTATACAATAATAATGATAATTATTATTATTACTATTATTTTGAGACAGGGTCTCATTGTCACCCAGGCTGGAGTGCAGTGG
0.7962832102238858 TTGGGAATATTGCTTAAAGGATGTGGCAAACTCCACCCACAAATAAATATGGGCACAACTAGTAGTAAAACAAAAAACTGTAAAGGAAAGTGTCGTAGGTATTAGAAGAAAGAGACAAGTTGCTATTTATAAGGTGCTCCAGTGTGAAAATCCTTTCAACAACACTCTGCCCTTTTTTCTGCTTGAGTGTGTGCTGACAAGCAGCTAACCAACTTTTCAGGCACCCATTCTTTATATCAAGTTGAAATGTGTCTTTCCATAAGAGTTTTTTTTTACCTTGTTCTTCTTTATAAAGCAGCATACATTAAATAGTTTTATTCAGATTTTTCCATATACCAAAT
0.6065845426225495 CATACTTACAGAAAAGAGAAGTGTAAAGCAGGTCAATCTACTGCTAAGGGATTTCAGCCCAGCAAATGCACACATTAAGAATAATGCCAGAATGTAGAAAAGTGGCTTTATCTTTCAGTAGCGGTGGACTGTTCGCACACACTCAACAGTTAACAAGCTCCGCTCTGAAGTTATTCTAGACCTTATCTTTGGAAATAATGCAGGCATGATAAATAAGGTTGGAGTAGAAAAGCACTAAAGATGCAATCATAATGTCATCAGGTTTGAATTGCCGATGAAGATCTGTGGGAAGAGTACTAACACAAAAATATGGGGCTTGAGAAAAGCAGACCTTGAAGGAATACAAAATGAGTTTTGAACTTG
0.6058294262211411 ATAGCAGTCCTTTCTCTCTGAAAATCTCAGGTTACTTGACTGGGAGTTCTCAGACCTCCAGTTTCAGCCCTGCCCTCAGCCTCCAATCCGTAAGAGACACCCAGCCCCAGCAATTGGATTGGGCAGCCCGTCTTGACACACCACTGTGCTGAGTGCTTGAGGACGTGTTTCAACAGATGGTTGGGGTTAGTGTGTGTCATCACATTCGAGTGGGGATTAAGAGAAGGAAGGCTGCCTTGCTGGAGCTGTGTGGTCTTCTCCAAGTGAGAGTCGCAGGCAATAGAACTACTTTGCTTTTGGAGGAAAAGGAGGAATTCATTTTCAGCAGACACAAG
0.6183176940012001 GTCACCAAATATAGCACTCAATCATGACTCTCAAGAGTTATTGTATTAATACCCCAGCAGCCTCCCACCTTGGTTGGGATCATTTTGAGCTTTGCACTTACCCCAGTTTTCCTGTGGCTTTGTGACTCCACCTTCTCTTCCCTGTACAACATGCCTTTCTTTTCTGGAGTTGCCTGCACTTCTTAATTTCATTTAAATCCTCTTGGCATCTGAATCTGAAACAACTCACACTAAGACTCATTAAATCCAATGGCTATATCACAACATGAGCAAGGGAAGCGCTCACAAACAGATACACTGCAAAGGCACTGGTTATTTAAAAAGTCTTATCTCTACCACACTCAGGCCCTCAAGAGGCCACTTGAACAGGCAGGACACAGTCTCATATTACTGACTGTCCATGCCATTTAGCCCACCTAACATGCTTTCCTCCATCTTCTCAGCCCATCTGCATCTAATTCCTTCCTAGAAGCTACATTGAAACCTAACCACGCTGTTCTCTAGGATAGTGG
0.5836829591038919 CTTCAATTCTTGTGTTCTTGGTAATTTTCTGTTTTCCCAAACAGAGAGTAAGATTTTAGTCTCATGACTTTGGCTGATGTCAGTGGGGCTGAAGTTTCTAAATCACCCACGCACAGCTCTAAAACTGTCACTGTGAATTGAGTCCAGGACAACTTGGAAACAAGTTGAGTGTTTTTCAAGTAGGTACTTCAGCATGTTAAGGAGATGTCCATGCAAACTATCACTAAGAGAAAACTCATGACCATAATATAGAGCGTGTTAAACTTCCAGCTGGGTTGTGGGTTTGGGGACATGTTTCAATTAATTAAAAGTGAATTTATGTGAAAAGTTCTTT
0.8060383844075188 CCTTGCACCGCAACAGTCTAAATTTACCCATGTCTTGGTTTTCTCTCCGACAGTAGGTGCTGCTCCCACTGCTGACTCATCTATTTCATGACAAGAAGTCTAAGGACTTAGTGACACAGCTCTTTAGCAGATCTGAAGTGGAGAGCAGCCTCAGAATGGCTGTGCTGCCCAAGGCCTCACCTCTGTGACAGACCCTGTGGAGCCCATCAGCCTCGAGTGCAGCAATCCATCAATCCATCAGCACGGGGGAGATGTTGTGTGTACTCCTCCTGCCACTCACCGGCCGGCGGGCCCTCTGGCGCTCATCTCCCTGCTTTCCCAAGGCTGCACATTTCTGAAGAGCACCTTGGAAATGGAGCCGCGGTTTCCCCTAATCTTGACCCCAAAGAAAAGATGATCTTGACCTACATTGGAACCCGCCCCTCTGCCTGCCACTGGCCGGGGGCAGCCCATGCCGGTGCAGCCTCGGAAGGGCAGGGAGATGAGAGCCAGAAGGCCTGCCAGTGAGTGACAGGTGGAGGGCACATGACACCTCTCCGGTGCTGATGTATTGCTGCACTGTAGTGTGATGGGTTCCACAGTTACAGAGATGTGGCCTTGGGCAGCACAGCCATTCTG
0.6195984923712224 GTGCCTGTTCTAGTTCCCTGGTGACCTTGCTCCTAGCCTGTCATCTTCTTCCCCTCAAGGGCAGACAGGCACTTGTATGATCTTCCAATCATCAGGCCCCGACTTCTGTAGTTTCCTGTCCCTCAGGGCAGCCCCAGGACACAAACACCACAAGAGGCACTTAGCATGTGACAACAGGCACTCAGCACACTGAACACTATATGCAAAGTGACCAGAGGGGCCAATACAGAGAGTGCAGAGAGCATACCAAGGACAACATGAAATGAGAACTCAAGCAATGTAATTTACCAAGCACCTCCAATGTCTGGGGGAAGGAAGTAATTCATGAATAAGTGAATGTATCTACAT
0.9891553040789409 TGGGAGACAAATGCACCATCAGGGAGGGCAAATCATACCTGGGAAGGGCCTGACTCCAGCAGTTTCAGCAGTGGCTGAAAGATCATGGCTATTTTTGCCATCATTACAATGGAATGTCCACTCCCTCCAGCCACCTCCACAGCAATCAACACCGGTGTCCAGCCACTCTACATGGACGTGTGGGGAACAGAGCACAGGCCTCTTGGCTTGGCTGTGGTCACCGGGAGGGAGCAGGGAGGGACAGCTGCCAAGAGGATGGGGGAGGGAGCCTGCTACTCAGGAACGCTGGGGCAAGACATGAGACAAAGGGCT
0.804112319097017 TCGGGCACAGGTATTCTTTTCATTCTCTCCATCATTCCCCAAAGCACAGGGTCAAGAGCCCCTGCCCTTGGACAAGCAGTTTGCCCTGCAGCCAGCTTTTAAAATAACTTGTCTTTTCTCTTGTGGAGCAAGAGGACCTTTCTAAGCACCCAGCTCCAGGAAGCAATAGACACGTCCCTGCACTCATGACGGGTGTTGGGCATGGAGGTGGTGACACATGGCTTCCTGGTGTGATAGCGGGTGTGTCAGAGACAGACGCCATCTGGAGTAGAGGGGAGGGGGGCTGAGATTGAGCTGGCCACACCCGGTCCCTTCAGCACCTACTCCCATCCAGGGACACTTCTAGGGCCTCTCTGTCCCAGTCTCCTCAAATCTGTCTTTCTGGGGGGACACTCCCCCTGACGCTAACACACAAATTAAGCCTTTGAGGATGAGGTCATCTTCTTGAT
0.5513605880817279 CTCTAGCTCCATGATGAAGCTGGAAAAGGGCAGTCATAAGAATAAAAAAACACCTCTAAGGAGACAGAAGACATACCTGGGTTATTCCAGTAGCTTCAGTCACAAATACTTGGCGTATACACTACCACTTGCCTCTCTTGTGCCCTTAAAAGGCTTGAATAATAAACACAATGCTGTCATCATGACTTAAGCTTAGCACCCTCTCAAACTTCTCAACACGGTATTCCCAGCAGTGAATACCCATTGATTAGATAAGGAATGTGAGAGTGAAGCCTATTTTTAATCTCTGGATAGCCTGAGAAGTGGTCCCAATGAGTTTATCCAATCTCATGTCCAATGTGATATAATACATAATATCTTTGCATAATTTTGCAATGTCATTTCACACCTGCCTTTCCAATTGAGGGGATTGGAGCACTCATACGT
0.5502702122244426 CTTTCATGTTCTGGTCTGGGGTGAGAACCTGCCTTCTACTTCTGGCTCCTCGGTGTACCTGCGATAGGATCTTAGTTAAGTAGCCGCTCCTCACTCTTCAGTTCCTTTATCTGTAAAGTGAGGGGTTGGGGCTAGACAGTGTCCAGCATCCCTCCTCTTTGGTGTCTCTTAATTGTCCAGGGCAGAGCAATCCTTGGAGCAAGGCAGCCTGCTGCGGTGGTTTGCAGAAGAGGCACAGTGGGGCGGGCTGGAGGCCGCAGGGGCAGAGTGGGCCGAGGGCCTCTGATGAGGTGTGAATGAGGGAGGCAGAGCAGGGCTGGTGTGGACAGCCCTGTCCCAGCCCTATCTCCCGTCTGCGACACCCTCTCCACACCCCAGTGCTGATAAGCGGGTGTGAGCCACGGCCGCCTTGTGACAGGCCCTTCGGCAGGGAGGGTGATGGTGGGGGTCCACTCCACTTCTGAATTCAGACGTCAGCATCTTTTTCCCCCAACCCCCATTGCCCTGTCAGACTAGACAGGCCCTAGCAACCAGGCACCCTCCCTGACAGTCCCTGGCTTGGAGATTTGTTTCTGCTCCATGTGGCCTCAGCCTT
0.484232019630027 ATTTCAATGAGCAGGAACCAGTCTTTCTCTTGTACAGTTTCAGTCATCGCCCTCACTGTCCCATCTCTTGCCTCCTCCCTTTAGGATGTCTGTGGGCACTGAAGTTTTCTCTTCAGACTGGATATGAGCCAGCATCCCAGCACTTTGTGAGTTGAGTGTCAGGACAAGGTGCGACTTGATTCTCCCAGAAATCTTTCTTGTTTTAGAGATAGCCTCCTGGGCCAGGGACTCTTAAGGACCAAAGTTCAATTCCCACCACTCCCCATTACACTGGGAACTTCAGAATGTGTGAGTTCCACGTTTCCCGGTGCTGACAGATCAGAGGAGGACCAGACGCGACAACATGGCTGCTGCTGGAGGGGCTGAGAGGTGACTGATTAGCTTAAGCCTGCACAGCCCGTGGAGGAAGCACCTCGTTCCTGCCTTCTCAAGTGATAAAGTCTATGCTGGAATACAGAGCTCCCTGCTCTGAGCACCTAAAGTCTTGATTTTTCTG
0.2205078951914896 GCAGGCCCTGCTATCTCTGGAGCCTTTCTCTTCACCTTCATCCCTTCACGTGAAACCCAACGCCAGAGCTTCTGGGACAGCCTCCTCATTGATAAAGTGTTCCCTGACTTCTCAATGAGCTTGCACACTGTAGCTGCAGCGATAATGGGCTATATCTGGCTGGCCCGGAATCTTGCCTATGTTCCAGTCAGTGCTGTGACTATCAGTTGTCTGCTGAGCATGAATGGCCAGAGGCAGAAAAAGGACAAGGAGCCCCGCTGGTGAGAAGTGGAAGTGATTAACTTATGTCGCATGCTCCAGCGGGAGTCTCAGCCAGCGATAGGCGAATGAGTGTATGATGACAGCTGCCTTGGAGTTCACACCACACCATCAGCACTCTGCAGGAAACAGATTACTTCAGGGCTTGAGAGCTCGTTGACAGCTGGAGCTTTCTGATAAAGTTGTCAGAAAGTGAAAAGGACAGTCCCAGGAAGTTGTAAGCTTCCTGTCCTTGGAGGTGTTGTGGTAGAGGAGGAGAAGTGGTGGATGGGATGTTGTAGACGAGGTTGAAAGTGCACTGATGGGCTGGGTGCGGTGGCTCG
0.5939559209835524 CCCCATGGGCCTCCCCCTGTTCTCTTTGCTTTCCCCAGGTCCCCTCTCAGGGCTTAGCTCAGGTGGCCTGGCCCCTCACCCATCTTGCTCTCAGGGCAGAGGAGTTGCTGAGACAGGGAACAAAGGAGGCCGCACTCAAACGCTGACAGTCTCAGATGCACCCACTCAAGTGCACACTCTTGGCCCTGATTCTGTGTTAAGCTGTGAGCCAAAAATACATCTCATCTAGACGGGAAAATGTGTCTAGAATAGCATTGTCTGTACCCACACACACACACCCTACCAGCCCCACCAAACTTTGGACTGACTGTACACTAGGCCTA
0.2052657812858457 ACCTGCTATGCTGTGTGTGTTTGACAGACATCTCGTGCATGAATCAAAGAATACCTTCTCAAAATGGTTTATGCCCTTGCTGGCCATGCCTTTAGCATACATCCGGAAAATCTGTGTTCGAATTCCTTCTCTGACAAATGCTGATTGAGCTGCAGTGCCTTGTGATGTCAGCTGAGTTACCTTCAGTGCTCAGGAGTGTTTTCTTTTCATCAGCTACTCCTGGTCAGCCACTTGGGAGTGGGTGGGGGGCAGGGGGAATTAGTGCCTAGGACAGATTCTCAGGCCCTCTCATGTGTCAACAGCCCTCAAGGAGATTCCAGATGTGCTCACTCTCAGAGACAACAATTCTAGCCAGGCTAATATGCTTTTGAGCATCCCAAGGGACATGGTAACCATTGAGTAGGATAGCTCTGATGTTGCTGAAGGGATTCTGTGACTATACTTATTTCTCCCTAATACT
1 ATGGCTATTTGAAATGTAAAAAAAAATGCCATGAAATATATTGCAATTAAAAACTTTGTTCTCTCTGCTGCCTATTTGTTTTGGTTCCATTTTTTGGCAATTTGAGGTAGAGGAATTGGAACACAGACGGGAGGAGATAAGAAGCACTCTCTGCTAAGTGAGTGATTAAGAGCTCACTCATGGCTCAAAAGGAAACTCTCCATTATATTTTCTATTATCACTTGTGTTCTTGTCAATATAAGTACTTGCCACTTGTGAATCATTTTGGCGTTTGCAAAAACTTTCTTAAACAGTCAATTTCTTCCATTCTACCACCAAAAGAAACAAATAAAATAAACAATAGACA
0.4876776881531528 GTTGCCAACATTTAAAAATTAGAAAATTCTGAAAGCTAAAAAATCTAAATTTCCCTTGAAAATGTGAAAGAGCAGACAACACTTGGCCCTCATTCCTGAAGGAAACAATTTGTTAGATTAAGAAGGGGTGAGTCCTTCCAGACAGAGTATGCTTTCTAGATTAGCACAGTCCCTGTCAGCACCCATTATCTTGCACTCATTCTACTTCACTCATTTACATTATCAGCCTGGGCTCTGTGGTCTAACCTTTCCACTTTGCAAAAAAAAACTGAGAGGTCTAAGTGGTTTGGTCAAGGTCATAGATACAGGTACAGTGTTAATATCTGGCCCTAGGCCCGAGGCTTCTGGTTAAGCTCAGTGTGTTAACACTATCTTCATGGGCCCTTTGGAATCTATCAATGACCTGTAAACACCTAGAACACTCAATTTGCTGTTCCTTTACAGCCCTTACTACTTCTTACTTTCCACTGGAGTTACTTCTAGATGCTCAATTGGTCCTTTATTCATTTATCCACTTAGTGTTTCTTGAACATCGACTGCATATCAAACATTGTGATAGATTCTGGGGATACAGCAGTAAACACAT
0.3380151921043128 ATCTGGGTCAAAACACTGACAGCTCAGCAAGATGATTTAGCCTCTGTAAGCTTCTGTCTGCGTGTATGTCTGGTGAAACCTGTACTGGTCACTTCTCCAAATGGTTGTGAAGGTGAAATGATATAACATACTTGCTGTGCTTAACATGGTGTTAAGTGTTCAGTAAGTGTTGACTCTCACCATTATCACTGGATTACTTTTCTATGGAGGCTGTTGAAGTGTCCTGGGAGTATTCAGAACGACATTTGTATTGCTATCAGTGATAACCGCATGCATTTTTTCAGCATATTCTATGTCACTTAAAATAAATGCAGAGTTGAAGTAAGAAACTGTGACTTTATTGTAATATAT
0.7448440366434145 TTCCTCGCTCTACCCTCCAGCCAGTTTCTGCCCTCTGCCACTGGCCTCAACCCACCCCACTGGCCAGACAGTTGAGTTACTGATAACTTCCAGATGCCTCTGGAATCTTGCTTCCAGTCCTCCCAGCACTCTGCCTGGTCTGCAAAAGTGGGGGCAGTGGGCAGCAGGCACCCTGCCCTGAAACTTGTTGCCACCTCTCAGAGGCTGATGAAAGCCGCACTCAGCTGGGCCCTTCAGGACGGGGGACCCTGGAGCCAGGGCACTCAGAAGGGATGTTTGACACCCACGCCAGGAACTTGGAGTCCCTGACTTTCTAGCCCAGGCCCTACAGAGGTTTAGGAGGACTGGGAGGGGGCAGATTGCAGGCCACCAGCTACCAGAGAAGCCACAAGGAAAG
0.1689007692743714 ATTTCCTGCCCACCCAGCCTTATTTTCTAAATTTTTTTACTATTTAGAGAGCCACTACAGTTGCTTCAGGCATGTCAGGCCCTTCCACACAGCACATCTTCCCTTGATGCCAAAACCACTGGAAATGGTTTTCAATAGGATTGCTGATTTGCCAAACTACACTTTTGTCCTCTTCGCCTTTGCCCCTTGAGTGGCCCTTTAAGCTATTTTAGCTGAAGAGCCTGCTGAGTGAAACAGAGCTAACCCATTGGCCGGGATTGCCTTCTACCCCACAATCACAGAAACTGGCTGGACTCTCATAGCACTGATATGGGACAATCAGAGTTATGTCAGATGCACTTGCAGGCCTGATAGGAAATGTCACTCTGAGATGCCTCAGCTGCAGGACAGAGAGCTCAAAATTGGTGTTTGAAAATAACCATGATGAGACCCAGAGACAGAGCACTTGAAAGGTTGAAGAGACAGAGCACTTGAAAGGTTTGAAGGGACAAAGGACAGATTTACAAAGAACAATCCCAAGGGACTGTCTCTCATAAAGAAAAACAGGCAATAATTTTCCCAAACTAAATGAGTTCTTTTAAAGTTCATGGATAGTTTTTTTTCTG
0.4748930032889445 ACTCATGGGGTTATTGTGAATATAAAGTAAGATAAACTATGAAAATACTTAGCAGCTTGTTAAATATTCAACGTATGCACAAACAGCAATAACCTCACCACGTGACTGTAGTTCACTTGTAGGTCAAGGAGGGACAGGATGCTTCTGTGGAGAGGAACAAAGAGAGATGTTACCAGTCCTCACCTCTCAGTCACACTCCCATTTGTCAAGTCAGGTGACTCACACAGCATTTGTCTGGCTTCTCTCACTGTGAAGCGCACGCTTGGGGGAGGGGAGTGATGAGAGCCCAGGGGCAGATCAAAGCAAGGGCTGCAGCCTCAGCTATGGCTCTTTATGCTTTTTCATTCCTCCGGGAGAGAAGTGAGAAACATTT
0.3258669166740413 AACCTTGTGAGCAAAAGCACTGAGCGGGGAATGGGCATGGGGTGGGAATGCGGATTCCAGCTAGCTTGGTAGTTTGTGGTCTGTTAGAGAGAGGTGGGTGAGACCAGATAACAGATGCCTTTGAAGCAGAGGGGCTTACATGGAGCCACTCTCCTGGGGGCAAGTGTCTACATTATCAGGCCCCTGTTCTCAATAGTAGGCATCTGAGACTTCTCCAGGCTTCTCCCTGCCACTGACGGCCACCATCCAGGGGATCCAGTTGAGAGGCCCCTCCTGCAGTGCTTTCCACACTCATCACATCCTTCAGCTGGCCGGATTTCCTGACTGTCCTCTTAACCTAATCAATCCATTTCCTAGTGTGCCTGGAGACCATCTGCTGTAGAGGGGAGTGAGATAACAGACATAAGCACTACTCTCAACGTCTTAAGAGCTGCTCAGGGGAGATAGACATGGGTAGAGAAGTTTCATGTTAAAGGAGGTGCTCCTGACCTGGAATACAACAGGGCTTTGGGGTGGGGGGATGAGGATTGAAGCCAGGAGGGCCTCTCTACAGGGACAGCTCTCC
0.6539667560602651 AACTAGTTGTTGAAACTAAAGATTCTGTCACAGGCATGCTAATGTGTAGAAAATAAAGACCTTAAAAACTTCATCCTTTGAAGTTTAGAAGTGACTTTTTAGACTCTGAACTCATTGCAGTGTGCAAAATATTCAGCCATTGTTATCTAGAGTGGAGGGGTTTATTCATGTTTGTGTCTGACCTACTTTCTTTGAGGCTTGGCCTTTTCACCCTTAGATAATTAGGCTTCACCTCCCACTCTTCAGTTAGGGTTTCACAGCTCCTCAGATATCACTTAGTTACCTTCTCAGACTTTCAACACCTTGTCCTTTCATCACCAAGTATATCAGTTGCTTTGTTGAGTAAGAAAAAATAATACAATTTATTGTTTAAAAATGAAAAGACTTAGTTGCTTCATCCTTCATGCCACCATTT
0.4098122268756326 AAATTATTGATCAAGTGGCATTGGGAATTACCTAATTCAGAGATGCAAGGTTGAAAGATTCTAGAGGAACTTCTTAGAGTAATTGTTTCTGAGTTTGAAATCTTTAGAGTTTTATTCATCAGAATTGAGTCCTCTTCTGCACAAACAGGAATAATAATGCAGATTGATGGAGTGGGTGATGAAGTGCCAGAACTGATACCTTGTTGAATCTCTATTTGTGGAGTATCTGAATAGCTGCCCTCCCACGTGTGTGCAGATAAGACCCACACACAATGTGTGCAGACACATTCCACTTGGAAACTAATATTTTCAAATGCCTGCTCATG
0.6824199992577131 CTGGGAATCTGAGAATCAGCTTTCATCTGAGTTCTACCATTTGCTTTTTACGCATCTTTAGATAAATCAAGTAAGTTTTTTTGCTTAAATTTCTTTACATTTTAAATATGACCAATAACACTTGGTCTCTCTCAATTCTTGCTCTTAGGATGATAAGTAGGTCAAGCACTTTGAGTATCTTTGAAAAGAAACAGTATTGAAGTGTCATGGATGTGTACATCATGAGTACTATGCTTCCACTTACATTAGGAGAAGATAACACTGCCCTTTATTGTCAACACAGGTTAGAACATTGACCAATCATCACACTGATATTTAGCAAAAATGAAATTTGTTAATTTGAAATCCAAGTTG
0.5506497824026401 GAGGTAGCTAAGAAGAAACAGCTGCTGTTTTGGGGCTTAGATAAATGTTCTTAAAGTGTCAGTTTCCAGTGAAGCCTGTCATAGAATAAACAGAATTTTAGAGGAGTGGCCTCGTTAGGCTTTGCAATTTCTGGACTATATCACCAGGACAGTTTGGATGATTAACACTGAGTTCTATTTTTAGCCCTCTTGAGTGAAAACAGGAGCTCATGTACTTGGCACTCATTAGGAATTTTCCACTCATCCCCCATTTAGAGAGGCACTGATCTAACCCTGGGCCCTTAGAGGAGGCCTTGATCATATTTCAGTCAACCCACAGTGTCATCACCCAGACCAGGCATAGTTTGGGGAATGGAGGGGAGTAATGACTTGAGATCCTTTCCAAGGGAGTCCCGGGTGTTCAACA
0.6152896574079149 ACTAACCAGACCATTACCCATTGATCATAATATTTATAAATCCTTACATCATGCTGCACTTCTTTCCAGACTTAATAGCTAGTATATAGATACTGTTCAGAGTTCTTCCTGCTGGAAGGACTTGCCTTCATCACTCTCTCAGGATAAGGCTGAGTGGGGCTGTCATTGCACTACACTTCACATCTGGCTTATGCCAGCTAGGGGTTCAGAGTGCTAAGTCAAGCTCAAAGCGTTCCCTCATTAAAATAGTCACAGAGAATCACCATTAGGCCATACACATTTGCTCAGTTGCAAAATGGG
0.887199098539616 CGGATAATAGTCACTATGTTAGCTGCCATGGTGGATAAAGCTAATATACCTTGCAGTTTTTCCCCTTAGGATCTGACAACCTAGTTTTGTTTCTTTGGCATTGTCTAGTAACACCCAACACAGTCTGTAGCTTTCAGCTGACACTCAGTGAGTGCTCATTATCTAACAGGGATGAATGAGTGGACTGGTTCCCAATGCTCAGCCAATCTTCATGAAATTTCCCTGCTGGCTCAGTGACAAAGAGGAGATATGGCATATGTCAACGGCCTGCAAGTGTCCCAGAAATAGGAGGCAAAAGAAAATACAGCACATAGAGTCTTAAAATAGGAAGACAGTGGAACCCGTCTAGTACAAGCTTGAGCAAACATCTTTGGCTTCTTTATCTCACC
0.1016751140682936 GCCAGAATAAATTAAAAGTAAGGCCTAAAAATATTTCCAGTGGGATATCCCCCATTGGCTATGGAATCCCACCTTTCCCCTCCACCTTGATTAACACTCCACAAACATGGGGAATATCTGCTCAGGCTCTGAATTGAGACACCAACCCTCCTAGAAGACAACAATTTCCACTCAAACAACTGGTCCTCCTTGCCTTCTTGTCAGCACCACACGCTGAGGGAGGCTGTGTTTGGTCTCTTAATCAGGCCTTGCTGACGGGCTGACATCACTGCAAACGTTTTCACTTACTCTTTGGCAACAGTTAAATCCTTGCCAAAGGCCAGTCAGTAAGTCGGAAAGTGTTGTGAGAGAGAGGCTGGGGGAGTCGGAGTGTGAGTGTCAGCTAGCAGTCTGTGGTGATGACAGCAGGGAGATCTAGGTGCTGAAACCATTTTAAAGGTCACTCTGTGGCAGAACAAAAGACCTCTGATTTAGAAAAGGAAACAGAACTCTGGGCCATTGAAGCCCTGGGATGCCGCCCTCTGAGCACTCTGCAAATTCATCATCTGCTCCCTGATTGTGAAGACTGGGGAGGAACTGTTACTTTACAACCCAGTACAGCTTCTGCCAGCAACTGTGTGGCTTAGCAGTGGTACAGAATAATCTGGTAAGATAGAAATGCCAAATAATGTATCCA
0.7197808746920249 GTTTATAAAAAGCAAGTCAGATCACTACAAAAAATAAATTATCTTAGTCATACTCAGGTCTTGTCTTAGCCTTTGCTATGGTCTAGGGGGTGACGGAGGACATCTGTCAAGGCCCTGTGGGGACAGAAGGCACACTCAGCTGGGATGTTGAAGAGCAGTTAATGGAGGGTCTGTTGACAGAGGTGTCGGCAGATTGAGAGAACTAAGAGAGTCTGAAGCATCTGGGAGTGGCCAAGAGTGGGAAGCCATTCCCAACCCCGGGTCTGGAGGGGGCAACAAGAGGAAATTGTGTTACTGGAGCCTGGGGACGGCTAGAGCCACAGAAGAGGAACTGGGACAGTGGTGGCTGTAGGGGGTCCAGTCTGCTGCCTGAACTGCAGC
0.7723398608803504 GTGTTAAGTGTTTATTTTAGGGGCTGCTAACCAAATGCTATTTTTAAACCAGAAGTTCTGAAGTGGATACTGAAGAAGGAGATTTCCTTTGTCCTCATTACATTATTATTGGTGACAGGTGGACATGGCAATACATTGGCCAGAGCCACCAGATACTCACATTCCTTCTCTGCGAGTGTCATGGAGAATGATAAAAACCGAGACAACTGAAATGCTCTAGCAACACGTTGTGGAGCTGACAAGGAATGAGAGGTAACATCGCTCACAAATCTAGACCAGCATCGCCTGTCTTAGAAGTGTCCTGGGAACAGTTTCTCATCACTGGTCCAGGATAATTCAACTGCTTTTTAGGAGAAAATTTAAGAGAGAACCAGGGTTGTTGTTTTTTTAATCTTTGACAG
0.25113140985086 GCAGAGCCTGCCTCTCTCCCCAGCATCAGGGATGGTTTCACGGCATGTGGCCTCTCCCTGCTGCCATGCCTCCATCAACTCTCCCTTTCTCATATCAGAAGATCACAAGCATTTAACAGCCTTGCACTTGTCTGACCCGAGCTTGCTGTATCTGCCCAAGAGGGCTGGGAAGATAAGATGAAACAATCCCTGTGAAATACTGATCACTAGTCAGCACTCAAGAGGTACCAGTACATCACCATTCATCACATATTCATTTAGGACCTAATACATGCCGGGCCTTGGGATAGGCGTTCTCATCACCTTCATCACTTACTGTTACTACGTTTAACACCCTCCACTCCCAGCAACATGCAGAGTGCTTCACACAATACACACTCAGTAAATGTGGGTTCAGTAAGTAAATGGTGATGATCTTGGTGGTAGATCAATTTATTCTTCAGCAAATATTT
0.619851038727912 TAGGCAAATACACATTATGGGCCTGGGTTTGCTTTTCTACCTCACAGGTCTTTAGCCAGCATTATTATCAGAACACTATGTTTGGTCCACCAGCATGGACAATTATATATCACAACAGCCCAGAAGACCCAAAGTCCCTCAAAGGAAGTGTAACAGGGCACTCATGATTGTGTCATACATTTTTCCTATCACATACTGAACCATTCAGCTACAAGAGTGTTGAAATAACTAATCAAAGATACAGAAAAAACATATCTTTGAAAGGTGTTTCAACACTCTAGTAGATAAAATGTATCTTTGATAGGCTATTTCAAGCTACTAGAGTGTTGAAATAACCTCTACTAGAGTTTCCTAGCTACTAGAGTGTTGAAATAACCTATCAAAGATACAGATAAAATGTCAAGTTACTGGCAATATAAGTTTGGGGAGTCATTTTCCAGGATTCACTATGTACACAGTAGAAAATACTTTAATACTATACTTTGTTCCTAACAGGAAAAATACAGGGGGTGGAA
0.5257594718724992 CCTACTTCCCAGACCAAAAAACAGAGGTACTAATGTACTTGGCTGTCCCCTAAAGAAGAGAGCTCCACCTCCTCTTTCACCAGCCATACTGAGAAGAGAGGCTCATCTCTGCCATCTGACAACAGCTCATTCACAGACTTGGAACCAGGCACAACACTGGTTCCCAGGCAACTTCTTAGATACCAGAATTGTTTCATATCAAATTCTAAAGTAGATCAGTTGTTTCGGCTGAGGCTTAAATGGCCTGGGTCTAAGTGCCCTTTGTCAGAACAAGGGCCTTGTCTCAGCGCTGCATGTGATGGGAGCTGCCGCTAGAGGAAGAACTGTTGACAATGAGATAAGAGCCAAAAACAAGCCCCCTCCTGGATCACTCTCTGATGACCTTTTCAGTGGTCTACAGTGTGTTATCACTCAACACATTAGGGCTAGGAGAGATTTGAAAACATCAGAAAGCTCAATTTTTTTTTATGGAAAAAAAAATGCCTTCGATTGCAGAAATCCAATAACTTCAGTGTTAGGATAAGAGCCCTGGGATGAG
0.5757868734823587 TGCCTCAATATCTTCATCTGTACAATGGGGATAATAATAATCCCTACATCATGGAGTTACTTGAGGATTAAATTGAGTAGATATAACAAGTGCTTAGAGGTTTCGGCACACAGTGAATGCTGTGCTATATGACAGCCCTCTTTGTCACACGAGAGAGGTCCTCACTCAGCTGCTTGTGAGCTGATTAACAAACCTCTTTGGCCCCCAAGCACTAGAGTCTGCCTGACACCTAGGCCTGAGGTCACTGGGCATATGGCCAGCTTGGGCCCCCAGGGCTTCCTACCTGAGACTTGAACCTCCTCAATCAGCCTTTCCTCACAGGCTACGTTACAATCAAACTCAGAG
0.5477496118162496 TAATAAAGTGCAGAAGAATGAAGCTGAATCTTCTCTCCCATACAAACCCAGATTTAGCATGGGAACGCTCCGAAGTGGGACTGTAACCTTGTTATCTCCTTCCTCAAATGCTGTCCACACCCTCATGCCTCACAGTGTCTGTTTTGCTTACTCTTAAGAGGTCCTTAAATTTGGCTCAGTAGTATTCAGTGGGACAAAGCTGTTACACCATGCTCACTTGCATTTCACTCCTTTTTCCATCCTTATCAGTATTGCTTTTTACTACTATCAGCTTCTTATAGCTGACATTCCACACTGTTTACCAAATGAGAGACTAAGGGCTCCACTAAAGGAA
0.2983518607014261 GCAGAATCCTGTTCCCTGGCAGGCATATTTACACTGCGCTCCAGTGCTTGGGCCTGCTCCTTCCAAGAAGACAGGATGCCAGGATGGCCGGGACTCCGCTCGCTGGGACACCATGGTCTTTGTGAGCAGCAGGCCTGAAGTGGTGAAAGCCATCATGAAGGTGAGGGTCAAGTGCTGAACGGTCACTTTAGAAAGGCAGCGGCCTGGCCTTCTGTGACAAGCAGAGTGAATCGGCCTCCATCTCACCCTTGGTGCCACTATCTTGTTGCCACTTCCCTTGAGAGCACTGTGAGCTCTTCCTCAGGATCCACTTTTCAGCTTCCCTTCACCCCATTTTCACTGGGTGGTGGTGGCAGCCTCTCTGGCCTTGCCAGGGACTGGGTGCAGGGAGGGGCAGCCAAGGGCGTGAGGCAGGTGGGCAGCCTGTGTAGGTGCCTCTTGCCCTTTCCACCCAGACAAGAAATCCACTCTAGTCAGTAAGTGTCTCTTCATCCTATGGGTGTTAATAGCCTGGGTGAGAGGTTTGGCTCCAGTACTTGGCAGGCAGTAGTAACACTTACACAGCACTTGCTATGTCTGAGAGGTGCTCTAAGTGCTTCACACATTAGTTAATTTAATCCTCACAACTCTGACATTAGCACTATTATTATCTCCATTTCACAGATAAGGTAAATGAAGCACAGAGAATGTAAGCAAGTTGCCCAAAGTCATGTAGTTAATAAGTGGCTAAACTAATCTGTTGTTCTCTCTCTAATGGTAAGCACTCAATAAGGATTTTTTGAGTGAATGAATGTCCTAAATCCATTATGCAGTGTTTTAGTCAATTTTGTGCTGTCATAACAAAATTACCCAAGACTGGGTAATCTATGAAGAACTAAAATGGATTCCTCACATTCTGGAGGCTG
0.522043082150117 AGAGCTTCATTAATTGTGTTCCTCTTCTTACTCTCAGACCTCTGTTTTCAAGGGTCCAAGAATTTGAACAGATGGAAATGTATGTGAACTGTGTGTGGATGTTCTATGTTCCAGTGCAGCTAATCAGGTCTCTTGATCCCTTAGCAACTAACTGCTTTGTAACATAGCCCTGCAGAGAGCTTTTCAACAAGTCTTAATTGAGCCAAGTCCACTCCAGGGGTATATGCATAGAGCTTGACCCTTGATTTTGAGTGAGACAGGAGCTACCTGTTGACGCATGATTCAAACTCCTTTCATCACGGTGTCTGAAGAATAATAAAAAGTGGAGCTGAGACTGACGTAACTAGATGATAATGGATGGGGGTGGTGAGAAAAGTATGAATGCTATGACCAGATTACCCAG
0.2117796806298689 AGGGTAAGGATTACTCCTTCCCACATCCCTCATTTTAGAGACACAAAAGCTGAAGTGCAGTACACAGAAATGACCTTGCTCAAGGTCATGTGATTAGTAAGACGCACACTCTCCTGTCCTGGCCGATTGTCTTTGCATCATATCTCTGTTCTCTAGGACAAGTGTCAGCACTCTCTCCATGGGGGATGGGCTGGTGACTGCCCTATTCTGGCAGTGCTGACACACTGGAGAGTTCTTCATGCACTACAGTGATGATTAAATCACCAGGAGATGACTCTGTAATACCCCCTGCCTGGGAATTCATCCTGCTCTCCTCTGCTGCAGTTCTGTATAGTCGTGAAACGGATGTCACTCAGTTGCAACAAGTTCTCGAGTAGCCACTCATTGTTTTAGCCAGTTATTTATTCACCATTCACTAAGCACCCACTATGTGCTAGGTCCTAGGATCCAATAAAGTAAA
0.6877448202531502 TTCTGCTTTTTCAAACAGGTAGTCTTCTTCCACCTAAATCAGATGAAAAAGCCGAAAGTCAGTCTTACAGGGAATGGTGACAAGCCCCAGTCCAGACCAAGCAGTACCCTGCCAGATGCAAGAGGGGTTTCCCTTCCCCCACCTGACAGAGGGTGCACTCTTGCCTGTCAACATCCATGTACACACACCACTTGCAGCCTTGAAGGTCACCTTCTATTTTCACTCACTGTATTTCTCCACCAGAGAGGAATTTTTTCCCCAGACTTAACATGACCTTGGATAAAGATGTGTTTGTGGTTCAAAGTCAAGATACTTTGGGGGATG
0.9060977366972134 AAGCATTTTCCTATATCCACAAATGGAGCACTTGCGCATCGTGTATAACTTTAACTCATTTTGTCCATAGATAATACCATGTGGCACCAAATACCAAAGGTACAACAAGCGTGCAGTGAAAAGCCAGTCTCCCTCTTACATTTGTCTTCACCCTCTCAGCTCCTCACTGTGACAGTCTTTTGTGTTGCTTTTCAGAAGGGTTCTGTGAACATGTGGGCAAAAGCATGTATTTGCTTTGCTTTCTTACAGATATCAGAGGACTCTACACACTAGTTCTGTGCCTTGTGATTTTCAGCAACAGTAGATCTTGATG
0.3341291565292999 ACAGCAGCATTCATTTCACCTGGGAACCAGTTAGAAGTGCAAAATCCTAAGTCCCTTTTCAGACTTAATAAATCAGGGTCTCTGGGAGCAGGGGGTCAGAAATCTATGGTTTAACAAACCCTCCGGGTGATGCAGGTACACACTCAAGTTGGAGAGCCACTGCCCTAATTTGTTCAGCACCTCACACTTGATTTTGATGGCTGTCACCTGCAGATAAGTAGGCACTTTAAATCTAAAGCCAGCTGAGCCCTATCACATGTCAGATGATAGGCAACCTTTATCAAGGCAGCCCCTATGATATGCCAGTCAGTTGACATGTATTTAGT
0.5639374690502328 ATTCCTTCTGACAGATGCGCTTTCTCCCTCATCACCTGGCCAACTCCTGCTTATCCTTGAGGTCTCAAGATAGCATTTTCTCCAGGAAAATTCCTTAATAAATTCCCTCCACCAAGCTTCATTAGTACCCTTACTGTGTGTTCCCAGAGCACTCAACCTTTGCCCTAACAAAGTACTCTGTGTCAATCACACTCTGTAACTGTCTGCTTACTTATCACCTTTCCTCTAATTCCATGCTGGCCTATGTGGCTCTTGGACACTAAACTGTAACTAGTATGACTGAGGAACTGAATTCTTAATTTCAATTGCTACAAATTGTAAATTAACACTGATA
0.5781312758463735 TACAGGTTGAGCCAACCCCCTGACAGCAGAGATAGAGACTCCAGAGGGTAGGGAAAGGACAGGTCAGATATGCAACAGAAAGATTGACAGTGACAAATGGGGTGTGAACTCTGGGAGAATGAAAAGCCCAGTGCACTTCACACTCTATCCTGATGAAAGCAACCCTCAGAGACCCTTAAAGAAATGAATCTGTTAAACAGATGCCTTCAATGTGTCACTTGCAGACAAAGCTTCCTTTGCTAAAACCCCTCTTAGACGATGAATAAGTCTGGTGAGAGGAATAATTTGTCAAACTAATTTATTATAGTCCAAGGAGGTCTCTGAAT
0.6477176224426231 AATCTTCTTAACAAAGAAGAGTCTTCCAGGCCTCATACATTAGCCAGGCATTTTCTCCCAGGCCTTCCAAGCTTCCAGCTCCCTGCAGGGCCTCAGCTGACACTCTTCACAGGCACCTACTTTGCAAGGCCCTTGGTCTCCCGACAAGACAAGCAACACAAGCCAGATAACCACTCAAAGGGAGGCAGTGGAGATGGCTCTCATTCCCTGCCAGGAGGATCGCCATAACAAGGTGGCTGGAAGAACCTTCCGTGGCATGGGAACAGACAGCTGTAGACCCTGTATCTAAGTCTCTTCTTCCCGGAATTCTTATTCCACAGTGGT
0.8709681927902422 TTTTAACTTTGGAAGGTTTAGAGGATCATACACAATGGTTAATACAACTGTGAAATTGGATTTTAACCACTACAGCCCGGGCAAATGCTTTAAGCCTTGAGCTATGTACTACTTGACCTTGGTAAGTGGCTGTGGCATATGCCTTTGTTCACAGGCCATTGACAGCTTACAGAGAGGCAGGGTTGCTTGCATAGTGCCAAAAGCTGATAAGGTGTCCCAGCCTCATCAAAAGGGCAAGGTAGTTCAAGGATTAGCGAAGGCACAGGGGACCACACAGCCACCAAAAAGCTAAGCTTAGTTCACACAGGTGTCCTCCATAGATGGTGTCTCTTGGAGCTTGTG
0.7725222475673565 GAGAGATAGGAAACAAAGTGAGCCAGTTGCCCCAGCTTACTGCCATGGGAGGGCGAATTTATAGGCCTTGGCACAGGGAGGGAGAACTTAGACAGTCCAGCAGATTTCCTGAGCTGAGACAATGCAGCTGAGGATCTGGGGGAATAAAGGTAACTAGAGCTTGAAGGACAGAAAAACAGAGAAGAGAAAACTGCACAGAAAACAACTCTTGAGCCCTTTATAGGGCTCAGCAGAGTATTGTTAAGCACATGCATGTTAGGGAACCACCCAAAGCTGGGGAAAGAACTACTCAAAAAGATAAGAAAGAACAGAACTCGCCACTCACACAGGGTCAGAAACATTGTCTGTCATCACCAGTCAGACAGAAAAATCTCACAGTTCAGAGGTTATCAGGTAGAGTACTCAGAATGGTCTTACCTAAGAGTAGAGAACAATTAGTCTTAACTTATACATGAATCTAGTCCTGCCTAACAAATCTTAAAACCAAGACTCCAAAGGATCAAACTATTTCCTAAGTAACTTAGCACCCCAGAACAAGTCTCAAT
0.6478018647110803 ATTCTACTCTCACTTTGCCTCCCAGCTTCAATTTATTACTGGGCAGACTTCAGATTTGAAGCTAATAACTACTGGCATTTTATGTAGGCCATTCTACAGGAGGATTCTGGTTATCCCTTTTGCTTCTCTGCTGTTCCTTCAGTACTGACAGCTCTGAGACCTTTCCCTGTGTAGTACAAGTTTCTACACATGTCTCTTTAGAGAGATGTCAAGAGGAACATGGCACTTGCGCTGTGATCTTATCACCACACAGTCTTCAGTAGCTTCTCGTGTCTGCCTCTGTGATTTGCCATTTAGAACTGGTGCCAAAAGGTGGTCACACTTCTAAAAAGAAAGTACCTAAAAAGGGTTG
0.3109833408789724 GGTTATGTCACAGGGTCACTGCAAGTGAACCGGAATGTAACTATTGTGATCTAGAAACACTAGATAAAAATAGCTGGTATCCTGCTCAGTGCTTTTCTGCACAGCTACTTAGCCTGGTCAAGGTCAAGAGGCTTGATTACAACCCAGACCTCTTGACTGCCGGCTTGAGTGCTGGCAGGCACAACACGATTTCCCTCAACAAAAACTTGTTGAGTAATTATTAGGCACTCAGCAAAGTGCCAGCCACACAGTGTTGTGTGAGAGAAATATAAGGCAGAAAGCACTGGCCACCAAACGCTCAATGATTTGCACAGACGAAATAAGCACCCAGCTGGCCCCAAAGTATGCAAACCTTGGCATT
0.5954080161796231 TCTCAGCATGTGGAAAAATTCAACTGCATTTCAGATTCTAGTTAAAAAAAAAAAGTGACTATATCCTGCCATGCCTATATAAGTCCTGCAACGGAATGTTGCTGAATGCCTTCTTGTCTGCACTAGAAATTCACACTCTCTTAAGCTAAGTGTATGCCCACTCTACAGGGACTCCCGCTTCCCCCTGGCCTCAAAGATCATTACCTACCTCTTTGCGTGAGGCCAATCCATCCTCTTGACAGCTCACTTACCACGGACCAGGGCTGTGGGGGAGCCTCTGACAGCCAGAGATGAAATGGCAGAAAGGGCTCCTTGTCTGGACATTCTTGGGCATCTCCTACCC
0.9475227015017177 GGCATGGCCAATGTGGTTTCGGACTCACCTCCTGGATCCCCAGTGCCGTAGCAGGACGCAGCACTTATTAACGTGGCATCTGCAGGAGGAGCCTCCCCATCAGGCCAGCCGCCCAGGCACCCCCCTTCACTGATCACTCCAGTGGCCCTTTGTGAGCTACTGGGCCAGATGAAGTGGGAACACAAGTGGCAGATAAGAATGTGACCAGCTGCTCAAGCTCAGAAGAGCGCATGTCCCCTTATGCTATTTACACACCAATTTCAAACCACAGAAACCAAAGATTAGTGCCCAACAGGCAAAAGTCCTTTAAAAAAATCAAAACTGGAGTCAAACATGAGGGC
0.2680467142637401 CCTCGTCCTTTTTGACCCTCTGATTGGGAACACACTCAGTGACCTTGGGAGTGTTTTACTCAAAGAAAGAGGACTCTTGGATGTATTTCAGTAGGTGCATGGGGGTTTTCCTGGAACCGTGGCGTGGTCCCCAAGCCCTGCACAAACACCCTCTCCACCTGTCAGCACTCCATAGGCTCAAGTGAGTCCCTGTCACACTTGGAGAAGAATTTGGAGCGTGTGTCTCCCAGCCACCCTCCAGCCCTTTTTTAGCGGGAGCCTTATTTTAAAGGATGTGTTTATTAGCTTAATCAGTTGCTTTTATTATCAGCTGTGTGACCTTGAGGATGTAACGTAACCTCTCTAGGTCTCGGTTTTCTTGTCTGTAAAATGGAAGGTTATGATGAGAATTAAGCA
0.506667167646102 AACCTGCTTTTGCCTGAATGACCTAGGTAACAACCTACTTTAGCTTGAGCTGCTTAGATATTTCAGCTAAAAATGGCTTATTTCCATGAGTCACCTGGATAATTGCATTACTCTGCTGGCCCACTTAGCTGGGTGGGCCAGCAGGTGTTAAGTGCAACTGTCAACGAGTACTTCATTGTTTTCCACTCTATGGATAGTACTGTGACAGTTTCTTAGTGCCTGGAGAAGTACCTCTTAGATTCACTTTCAGCTCTTGAGCCTCTTTCTTTTAGATGGATCATCCTTGCTATGTGACAAAATCAGCCCCCTTCTATCTCCGTAGGGCAACTTTGTATCATGCATGTATGTGTGTGTAGCTTTGTGGTTTTGAAGAAAAATTACTTCAACAAGT
0.8871157710350445 TATCATCACTCATTGAAAATACTGTAAATTCATACCATAATCTTATTTCTGTGGCTGTGGAATTCTGTTACTTTATTTAGAGGGGACACCTCAAGTGTCTTGGAAAGTAAGGGAAGAGAGTGATAAAAGAACCTTTGTTCTTTTATCTGGTGTGACTTACAGCTCAAGTAGTTGTTGAAGGAAGGAGTGGATTATTGATAACCACAGCTCAGTGGACTTGAGAGGAAGCTTTACTCCATTAGGAAGGAGGAGTATCGTGGATTAACTCATAGTAAGGGATGTTCAACCCCAGTTCACTAGGGTTTTTTATGCCTTTTTGTGTCAAAGGATATTCTTGGAAT
0.6541274069202645 GAAAACAGTACAAAAATGAGAATCAGTTTTAAAAAGACAGTACAATCTTATAGTTCTACTCATGCACACTGTGATACTTAATGGGACATTATAACAAGTTCTCCCAAAGTCAGATGAGAGCAAACACTACAGCTTCTCACTTACAGCATAAGGTGATGACATTAGTGGTAAGAGGGTGGTAGTAAGAAGGCCTGAAGGCAAGAGCAGATCAGCTGTTGGAGGATGGAGAGACACGAGTAGAGTAATTGCTTGTTGACTAATTGAAGTGCCTCTTCACCATTTTATCATTCATGAGAACAAATGTCAAAAAGTATTGATGACTACTTGAAGGATGATACAAAAGAGATCACTTAATAGTGAGGAAATATAAAGATAAATAAGTTGCAAAAGAAACGGGATAGGTAGAATTAAGCAACAATTCATGGAAGCTGCTTGACAGTGTATACGATTTGGATA
0.01177143097220516 GTGGAAGTCCAAGGGTCTTGAGTGTTCAGGTATGGTCACAGCCAATGTGGCGGGCAGGGCACGAGAGAAGGAAGAGTGAAGGAGGAGGTGAGGTTAGAGGGGAGGTGACAGGGTCCAGGACTTTGGCTTTTCTCTGAGTGAAATGGGAGCCTGGAGTGGCAGTGATCTGACTCACATTTTAAAGGACTACTAACCTGCTGTGTTAAAATGACACCAAGTCTGGGGAGGAAGGTGTAGTGTTATAAGCAAAGAGATCAATTAGGTGACAAGCAGGGGTGGCTACAGCTGGAGTGGTAAGTGTGGACAGAGTGAAAGAAACAGGACGTGATGTGAAGTAGATTTGCTAATGGGTTGTATGTGGTGTCAGAGAAAGAGTCAAGGATGAATGTGTGGAAAAGTTAAAATACAGATAAGCAAAAAAGAAACTTAAAAGGCCACTTGTATTCCTACTGTCAGAGAGCTGTTAATGTTTTTAGGAGATGTTCTTATATTCTTTGTCCTAAACACATGTGCACACTCCTTCATGCTCACACAT
0.7010901558740413 CCCCTGCAGTCCCCTGAGCCGGTGCATTGAGGGGTGTGAAGCGTTTTGTAGGTTATCATGCAAACACACAGGCATCCCGGATACAAGCGAGCCCAGCCTGAGCCTTCATGGCCCGTAGCCTTGCCGGGCCACCACACTCTGCTGCTGAGGAGAGCTCTCGAGTGTGCTGTCATCAGGGACTGTGAAGCACTAAACATGTGAGATGCTTGTATCCAAACAAGCAAGAGGGATTCAGTGGGGCCAGTGGGGCAGACTGAGTTCCAAACACTGATGTCAACAACTAGGAGGGGAGGCTGAGGCATGGCCAGGGGCGGGTGTGGGGATCCTGTCCCCCTC
0.2148213589339001 CCTTCTGGGTTGTGAGGCGTGGGGCACCCCGTCCTGAGCGTGCCCTGAAGATGGGCACAGAGCTCCCCCAGCTGCCGTGGCACTGTTTCCATGCAGCTGTGGGGATGGTGACAAGGCCTGAGGGCTGTCAGCCCGGCTGAGAGCACTCAAGAGCCACTTCACCGGCCTTCTTTTCTCTTTCCAAGGCTCTTAACCCACTTGTGGAGGGGGTGGCGGGTGAGGGGCTGAAGAGGGTGGATGTCCACTTTGGGCAGACAAAGGAGCTGCAGTCAGCCTCCTCTCCAGCCTGGCTCTGGAGAAATGCAGTCAGCCTCCCCTCCAGCCTGGCTCCAGAGATCCGGAGCTGAGGGCAGTGTAGGAGC
0.6474959527234249 AGCAGTGAGAATGTTATTGGGAATAGATTAGAAGCTTCAGAAACTGACAGAAATAATAAAGAAGAATATAACAAAATAACCCGAAGGGATCTGATATCATTCCGGGACAATGAAAGAGAAGGTAGAGGAAAGCTTTGTGTCGAGAGTGTTGAGAGTGTTGAGAGTGTTCAAGGATGTAGCTCATGATAACAGAAGAAGAGACAATCATGGTGAAGTGTAGAGTTCACTGCCAACAGGTTTTCCCTTTTGTGAATGTGTTACATCATGAAACAAGTGAATTTAAACAGCAAGTACCTGGTCAAATTTGGTGAAAATTATGATGTTT
1 GTCATTTCCCATAAAGATCAACCTTTACCTTTGGAATCGCTCTGGCCAACTTTTGTTTCATATGCATGTGTGGCTTATCACAATGTCTTGTGTTTCTATTGCTCCTTTCTCTGAGAAAATCCAGGCACATTCCAGACACTCAAGTCTAATCAGCTCTGACAGCAGAGAAGCAGGATTGGACTACGATGGGGGTCATTTGGCACTTGCCCAGTGACTGTGGTGTAACCCATTCATTCAGGTATTCCTGGAGTAAGAATGGCCTCAGTGACCCACCACCTCTGTATGCTAGGTACTTGGTTGGT
0.8039788701500713 GCTAAATGGCAGGAGAATGAAGTCAGGCCATTTACTCTCATGTTATCTTTTTCCTTCCGGACTCACTTCAAGATGTGTGGGCGGGGTAAATGCCAGGATATTTTACCTTTCAAATTCAGAGATCTTTAGATAAAAGCCGCCCATATTTGGACTGGGTTTAGAGTGGAATTCTCAGCCTAACCCTCTGCCTGCTTTTTCAATCTGTGATAGGGAAGGTTCATTTCATTTTCTTTGTTCATGGCCACCAGCCTAGACTTCCCCATATTTCTAAGATATTATTTTACTTCCTCTGTAAACCTTTATAAAGTAAAGCAAACAAAAGCAAGCAAACAAACAAAACATACCACATTTATTTGGGATTATTTCTGTTCACTGAAAATCGCATCCAGAAGTGGCCACTCCACACAATCGAGGTGATTCAGGTCTCAAAAAGCCAGCAAATTCACGTGTGAAGGAATCTCCCGGTCTCAGTCCAGTGTCTGTCAGCACCTTTTCAGGCCACTCCATGAAGCTGGCAGGATGTGCGAACAATATCTGTTTGCTGCTGAATTCGTACTACGAAAGGGTCGGTCGATGGGGGGATTTCAAGTGGGCGCCAAGGCCCATCAGTCTTTCTCCGCTGTCAGTGATAAGAAGCCAACAGGAGAGCAACGGGACGAGGGGAAACACTTCCAGGGCTCACAGGAGTAGCCAACGGTCACCAAATTAACATCTGTTACGCTGTAGCTCTCTGGAGTATATTTGCAAGCATTCTGAAAATTAATTAAAACTAGCTT
0.6792748603883371 CAGATGGCAGATTGCACTGTATGCGTTTATTTGGCCAGCAGAGTGGGGCTCAAGTATTCACATTCCACATGGGTTTGTTGGTCATGGCTTAACTCCTCTGTGCACTCTGGCTGCCTCATCTGGACATAGAGGAAGGCAGCACTGCAGCCTTCATCTGAGTGTAGTTACCAGGGTCTTCTCTTTGCTGCTTGGCTGCGTGTTGCCTTTGTCTATTAAAAGGATGTGTGTAAGTATGTATGTCAACTGGGGACTTCAGCCTCTGTAGGCCAAGTGTTGAAAAGGGTGAGAGGGCTGCTCTGGTAGAAGTGTCAGAGCTGGGATGTCTGTACACCTCCCTCTCCATAGCTAGTCCTGGAGATAAGTAAGAGCAGATTCTGGGACTGAGCTGTCGCATACACCCTGGTGGTGATAACAGCAAACACAGCAATGGGCTATGTAGAGGGAGCCCTGAATAATCTCCATGAGCTGCAGAGATAGGGCCAGTGAGTGGCAAATCCTTTTATAGTGTGGAGGAGAGGAGGTGGGGAGCAGCTGCAGGAGAAGGTGGGGAGCAGCTGCAGAAGGAGAAGGTGGAGCAGGAGCTACGTTGGACAAGCCAGTG
0.3916526828452718 GGCACATGATGAGCTCACACTGAAGGGTTGAGAAGTGCCCATCAATGGGCACTCATATCTCTCCTTGAGAAGTTCCTCTTCTCCCTCTAACTTAGACTTCACCTGCAGCCCAGGTCTTCACAAATTACCCTCCAGAGGAATTAAGCCTCTCACCATCTGTCAGCCCCTTCACAGGCCCCATCCCCTGGTGACACCTCCACCCCTGCCCCCAGCCCTTTTTCAAGGGCAGCACATCTGTCCCGAGGAGAAAGGGCTGGGATCTGGTTAGTGTCGGCTCACTGCTGAGAAGTTCGACGTGGAGGACTCATTTATCTTCCAGTCTGTGTGTGTGAAAGTATGCATGAGTGTGTCAAGAACCTGCAGATATAAACAGCTCTGCCTCAGAGAAGGAAGCATACTCTCATTTTTCCTCAGTGGACGACAAACAGAGATAAACCAGACGCTAAGTTTTCTCAGGTCCTGTTGCCAGTAATCTCAGCCAAGGGGGCACTGGCAGGGCATGCTTCCTGAAGACTCTGGGACCCAGTGGTCCTCAAGGCATCACCCCAA
0.7705504405364046 ATAAACTTGTACGCAGGTATTATGATAATTGATTTTGTCAGCATTCCATTTCTGCCTCTCTTCATGTAAGATAAGGTACAGCAACATAAAAAGCTGCCATACTCCACACACAAAAGATGCGCTCATGTCTCTTTCAAGCACCACTCCTTCCACCACACCCACACTCCAAGAGTTTGAAAGTGCACTCTGGCCCATATGACAACACATTAGAAAAAATGTCTCTCCTGTGTATATTCTTTATCTGTGGGGTGATGGGACCCTGAAGCTTGTCTCCAAAACTCCTCAATTGCATCAAGCAACACTTCTGAGAGCCACGGTGACAGCTGATGCTTATCCTATTTGAGCCGAGAAGGGGAGGCACACTTTTCCTTCTGCTCCTTTGCAGGGATGCTTGAACAGGTTTAGGAGACAGTAGGTCTCACCTCATGTTTATAATCTTAAAGAGGCATTGCAGTCACT
0.6541779844320809 AATCTATTTCAATTTACCTTTAAAAGTGAAAAATGCACTCATCTGGATGCTCAGTTTTTACCAGTAGTAGCCCACATGACATGTCATAACTGGGTGCTGAAATGCTGACAAGTCTGAGAACACGACTCCCCTAGGAGACAGACACGCTGACGGGCTTGAGCATTCACAAACAGATATCGGATGTCTGCTATGTGTCAAGCCCTGTGGTAGACACCGAGACTCATTAAGTCAGTGCAAAAAATGGAAAGGTTAAATATTTGCCCCGGGTAAACGCAAAGGGCAAGTGTATTGCATCAGGGTTGAA
0.7793905581527778 ACAAGGGATTCCTTGGTTCCCATGTTATCTCCCTGGCCTGGTCTGCACCATTGCTTCTTTTTGTCCTAAGCTCCATTCCACACAAATTCCAGCTCTCCGTTTCCATAACACCCGTCATTTATCAAAACAACCCTGTCAAGTTGAGTACCATTAACAGATAATGAGAGGAGACAACAGATGTGGCTGGAAGCAAAGCACTCTATATTCTACAGGCCTCAGCATGCAGCCAAGTGAGCTGACATCTGACTTTATCCTAACAGTTATAATTAAATCGAAAGTCTAGTTAAACTA
0.7967429487904683 TGTGTTGTTTTAAGGCAAACAACACTAGGCAAACAGTAGATACTGAGAGAGGAGATATTAAGCAAACTGACCAGCCAGTGCTTAGGAAAACATGTATGTGGCATTTTAGAAAAGCAGTGAGGGTAGAGTGTGCAAAGGGGAGAGAAATAGGAGCGAGATAAGAGAGTTAATTGAGTGGGTGTGAACAGGCCTATATCATATGAGGGCTTGAAGGACACTGCCTAGGGCTTCGGACATGTAGGTGGCTTAGTGTGTGATTTGTCATATTTGTCCCCTTGTTTCAACTACTGGCAAAAAAACACAAAAAGTAATGATATCAACTTCCTGAAGGTT
0.3537298343494103 CTAATATTTCAGAACCTGTTAATTAGTCAAGGGCTTTTGAGAAAGGTGGTCAGCTTCTAGTAGGAATGAAGCACTGCTTCGGTCCCTCTGAAGGGCCTAACAGGAAATAACTTGCTTCAGCCTCAACTGCTGAGAGACGCGGTCAAGTGGATACACTCAACAGGTTTAGAATAACACATTCCGCAAGTACTCTGAGTTTCTAACCAACAATGAAAACATTCCACAGTTAGACTTCTCTTTCTAGACACTCACTGACAGTGACATTAGAATTAGGTGGCTTTTATGTATAGATTTCATATGCAAAACC
0.5793810324837066 GAGATAAGCAATGCTTAGCAGAAACTTTTAAGGAGAAGTTGAGTAACCAAAAGGGAGCATAATCCTGGTTCGACAGAAAATTTGTCTTCTATCATTAGCAAGCACACAAGATAAGCTGACAAGAGGAGCAAGCTAAAGTTCAAGGGCCTGTGTGAAAGAGAGATGCCTGACTAATGTTTTGTCAAGATAAAGCAGAGGGTTGGTGACAGACAGTAAGTATTATGTTAGCACTTCTGGATTCTGGAACTCCACACTCATCTGAATTTCATATTACACTGTTAGCTACTCCCTCTCCATCTTTTTTTTTTTTTTTCCAGAGAGAGGATCTCACTCTGTTACCAAG
0.6623644681128865 TGTCTGCAATATTTTTAAAGGTCAAAGATATATTCAGAAACAGGTCAGCAAGAACGAGTGGCAAGATGCCACACTGGCCCTGAGAAAGGTGGCTCCGCGCCCCAGTTGCCCTGCAGGCCATCTCTGATGATTGATAAAGAGCTGTGCAAGAGTGGCTGTGAACAGGTCAGGAATGTGGTCGCTGAAAGTGCCATCAACATTTGCAGCAATGCTTGATGTATGTGTAAGGCGGCAGTAGAAGAGACTGTTTGAGCGATTGATTCTAGGAATATTTGCCAGTCTCCAAAAGTCAAGTGAATCTAAT
0.5568272296529774 TGGTTTATACATGTGAAAAATGAGAATGGGAATGGCTTCCCCCTCTGTGAGATTTCCAGTGCATTGCTAACTTCAGTCTGTGGGACAGATTGTATTTTTCTAAACATAGCCACAATGTCATCACCCATCCCACACCTTCTCCTAGGCACCTCCTTATCAAGAGGTAAAGTTGAATGCCTGTCTCTTGAGTCTGAGTGGGTTTGTGTCTCACTTGTACCCAATAGAATGCAGCAGAAATAATACTGCATTACTTCTGAGGATAATTTGGAAAGAAAAAGATAGTGCAATTTCCACCTTGCTGTCTGGTACATTCTTGCTGGAGTGCTGAGCTGCCATGCAAGCAGTTAGACTGTTCTGAGGCTACCATGCTATGAGGAAACCCAAACTAGCCCCGGGCAAACAGATCACATGACAAAGCCCTGAAGCTACATGAAGAAAGAGAGAGATACCGTAGCAGTCTCCAGCTGTTCCAGCCATACCTTCCCGTTCCCCACCCCCACACACTCTGCCTTTTGTTCCAGTTCCAGTTACCATCTGGCTGCAACCACATTTGAGAC
1 AGATAGGTGATAAACAGACAGATTATTTTATGTAGACAATATACTAAGACACCATAGCCCAGACTAATTGCTCCTCAGGAGTGACCTCTTAGGAACTATTTAGGCCCCTAAGCTGGGGCTCACAGTTCTCCAGCGTAGAGAGAGGGTTATGTTCAGCGTCTTGTTGAGGAGGTGCAGACAGCAGCCTAAGGCTAATCAGCCAGGTAGCTTCCATAAAGCCTACACTCTGGAAGAGGATGCAGACAAGGAAAGCCAGAGACCAGGGCTTATGCACCATACTCCCTGTGGTGACCAATAATAATATCATTATTTATAATTA
0.4253374521339261 CACAAAATTGACTCTTGTTTTATAGCCTTTGGAAAGAGTAACTGGAATTCAGAGGAAGTATTGACATATTCCCAGAGGCAATGCACAGCTCCAGTAGAAACTTTTGCTAACACCAGCCAGCTCTATCCAGAGATAAAGACCCATCATGAACCACTCTGTGCTCAGTGCTCTAATCTACACAAGATAATTAATTACCCATTCCTTCAGCACATTTATGTCAGTTCTAGGTGCTGACAACATAGGCTTGTCTCCTTTTATGTGGCCACTTGAAACTTTGACAGCAACCAAAGCTCAGATTTAATCATTTGATTCTGACTGCTTTCTGTACCAAATTGTAATGGGATTCAAGTACAGTGTGACAGTTCAGGGACAATAACACTGCTCATCAATGTCAT
0.6339312795517795 TAATTTAATTTGTTACTGTCATTTTCTTGCCAAATTTGAAGCTAATTTTTTAAAGCTCCCGACAAGTGGTTTACTGTGGAGCAAACACTGGCATACTTTAGGCTTACAATCTGCTGACAACCCCGTCTTAGCCCTTCACTTGGAAAATGTGAGCGTGCACTGTTCATGTGCCTGTCAAGCACGTACACCACTCAGAAGGACAACAGCCACTCAGGTTATCAGGTGAATGTGTGACGAGCCATTAAGAGGCTGCACGTGGGCTCGGGAAAATGAAATTCCCACCATAAACCTGTCCCCCATTTCCATCCCATGCCCTGCCCCTGCCCC
0.4549283840735164 CCTTCAATTGTCCGCATTTTCTGCTCTGTTGCTATATTTGCTTTATAATTAATCTCTTGATCCTTCTATTTTTGCACTCATTCTCTTATCTGCAGGCCTTCCACATGGGTCAGGCCTCTTCAGCTGAGGCTCTGGCAGTGTAAATCCTGCGTCTGTCTAAAGCACTTTGTTTCTGTGTGGTTCACTCCTGATACAGGGCCACTTGTGCGAGAGTTGAGAGGGAGACAGGCAGGGCTCTTGGGGAGTGATACAGCACTTATGTGTTCGTCAATTCTAATAACAGGCTTGCTCCTTCTCCCACCTGGGGCTGTCACTCTGGCTTCCAAATCCAGACAGGTTTCTGTTTCAAAATTACTTCCTTATTAG
0.3841530237728614 GGGACAGCCTTTGACAAGGTACAAGGAGAGTCACAGCTTAAATTACAGGTTTGCCTATAAAAAGGTTAAAAAGAGCCTGTTACTGCCCAGGGCCAGTGGCTCAGGCTGACCATGTGGAGTGGAGAGAGAGAAGGTAGTGACTCTATCTTGACCCTCACTAATTCCCACAAGAGGCTGCTGAAAACATCCTTGTGCCGCTAAATTGTATCACATGGAATGACCAGGGCTGACCTGACATCAAAGCTCTGTAGAAATGCTGTCGTCCAGAGAGCACGAGAGTCTGAGTGGCAGGGCAGAGAGATTAGAGATAGGACTGTAAACTCAAACGGGCTTTGGGGATTTTGCAGCCTGCCACAAGCCTGGCCTTTGTTGATTCCCTAGGTTGCTGTGGGCAGATGATCATCGCCATCATTACTTTGGA
0.8702409298190049 TTAATGGTTCAAAAATACCAATACTTGCATTATGAGTCCTTCAGTGATTCTCCATTACCATCAAGAAAAAGCCCAAACCCCTTAGTACAAGATACAAATGTCTTCATGAGGTGACTCTCCTCTTCCTCTCCACACATTCCACACCCTTCCATTCTTAGGTCTCTGAACATGCCATGCTTTCAACACCTACTTCAGTCTCTTTGCACATACTCTTCTCTCTGCACAAATCCTTTCTCCCTCACCTCCCAACAGGGTGAATTCCCTTAAAATAGCTTAAGTGTTATCTTCATTTGGAAGCCTTTCCCGAACCCCACTGCCCATATTCCCTATGTTAGGTATCTCTTCCCCTTCTAAATATGACTG
0.6513348189283127 GAATAGCATGGATTTTTTGTTTTATTTTTAAATCTGATAAGTATAAGCTTACAGGTGTACCTGTTTCCTGCTGTTCTGAAAACGTGACCAGGCTCTCTCTGTGACAGGATCACACCACAGCTCGTAGCCACTCTGTGCAATAATCTGCAGATGATAACGCCTTTGCAGAGCAGACCTGCACGTGTACTTGCAGAAAGGTCTCTGTCAGACACAGCGGGTGCCTGTGATATCTGAGAGTGGGTCAGCAGGACTGGCACGTTCAGCAGCTCAGGAAGCCAACTTCCAACGGCAGGAGCAGGACCCTCTGCATGTGACTCTGATGGGGCAGATGGTCCTTGGGGCTTCCCTAAAGCCAATGGTACCAAATAAAAGAGAACATCATCTACCCTTGAGACTGCTAAGTGGCTTTAAGAGGCAGAAAAATGCCAAGCATGGACCTTAACCCCCAGATGACAGCAAAATGGGCAGAAAGCAAGCCATCTCAAAAATGTCAGTGGAAATAACTTTGAGACCCCTGGGAAGTGTT
0.3117199844012251 CCATGTTCAGAACACTGCCTACATCTACTGCTATAGACTTTGCATGACCGGTTTTGCAGTGAGCACACAATCCTGGTTTACATAATGTAGACCGGGTTTGCATCTCTATCTTAAGCCTTTGGGACAAGGCCAAAGAGATCACTGGAGCACCCACTTAGCCTGAAATTGAAGGATAGGAACTCAAGAGTCTCTCATTGGTTGTCTCCTGCTCTGAAAATACACAGACCTCTGTATTAGCCCTTTGCCACTTAACACTTACAGCCTTGAGATGTCATTTTTCATAGCTGTGTATTCTACAGGCTTCTGAGCAGTGACGTGGCCTAGCCCAGTGACACGGAACAAGTGCTCTCTAAGTGACTGTTGACTGGCCCTTGATTTACTGAGGGAATTTTTGCTGGGGCCTCTTGTGTGGAAGCTGCTAGAACTTCCCAAGGTGTTGATAGCCACTGGCTCCTCAAAGAGGTTCAGGGCAGCCGGGAAGTATTTCTCACTTTTGAATGTCTTGGCTGAACTCTTGACTTCCATGCTCCATCTTCCCCACTGCTTCCCTTCTGGAGTATCAAATGCCATGTG
1 GTATCATTTGATATAATACCTTTTCCTGCCCTTCTTGCAGTTTTCTTTTCTATTTTCTTCACCCTCCTGCTCGCCTTTTTCTTTCTGGTGTTTTCCCTCACACCTGGTTGCCTTCTCATTAGCAGGCTAAGTGGCTCTATGTAAGCCTGTCCTTGGTTGGAGCTGTCTGCTGACTCTCAAGTGTCATAAGTGGCTGTAATTGAGAAAGGCATTGAGATGTTGAATAGCCAAAGTGTAAATGGAAGACTCTCTGTCCTTACCTATAAAAAGAAAAAGAATCTATAAAGGTAGCTATACAAAGAAATTGAAAGACACATATAATAGTGTACTTTTGTTTTTGG
0.7474463084284332 GTGATATGTTCGGAGGATGGGGGAGTTTGTCTGCAGAGGAAAGTTTGGAGGAAGCAGGGGAGTCAGTTGGAAGGGATGAGTCCCAGAGCAGTGCTCTCTGGGGATGTGCATTCCTTGGAGGATGAGAGACAATACGGTCTTTCACTTTGCACTGATGACAAGGATGAGAGGCTGGGAATTGACTGCCCAAAGGAATCCAAGTGGATGCATGCTTAAAGTCATCTGTTTCAGCACTAGCTCAGGCCCCAGATGGTTCTGGCGGCCTGAAGGAGTGTTAGCAGCCAGGCAATGGAGGCTTTGCTCAGATTTTCAAGTAGAAGGTTAGTCCAGA
0.8491543225974488 ATTTGGGAAAACTCTGAGGTTTTTTTTTGGTGGTTCATTCTGAGGTCTGGGCAAAGGTTCAAGCCCATTCCTGAGTTATCTAAACTGATTCATCCTCCCCCATCCAAAGCCAACAATTGCAGAGGTTTGCAACAGTACTATGCCCTAACTACTTAGTGCTGAGAGGTTTTTAATCTTTTTCTTGTTGGTCTCCTTATCTTCTGGTGCTTCTCTGTCTCATCCCCTTTTCCAGAGGCTCCCAACATAATCAGCATCTCCTACAGCTGATGACAGACACAAGGAGCAGATGAACTAAAAGGTTAATGGAAGGGGAATGGTAAATCCAGCCTGACCTAAAGAAAGAAAAGGCCACTGGAAATTTAGCTGGGTTACAAGTGAGCAGAGATAGCTAAAAGAGACTTTAAAGAGCTTAGAACTGGAGTCAGAAAAAGGCATTCAACAGG
0.3425709402112286 TATGTGCCCACTACACATTTTATGCAGGGTTGCTAGATCATCAACACTGACCTTGCTAAGCAGTGACCCTGAGCCCATCACCTACCTCAGGGGTGTGCAGCAGAGGGGAGGAGGTGAATGAGGAGGACTAGAGAGGGGGAATTTATTTCAAGAGAGTTGTCAGTATGCTGAGAACATGAATCATCCACTTCAAGTGAAGAGAGCCACTCAGAGAAGGTAGGATGTCTCCCAGGAGGAGAGACTGACAGCTTGCTTCCTGGCTGGATTTTTCAGAGCCCTAGAAATGGTTCAGCCTTAAGCCATCACAGGACTGAGACAGAATGTGAGGAGAGCAAGGGCTGAAAAACAACCTATTG
0.8361319719984568 CTGAATCCATTTTTTTCTCCTAAATAATGATATTGTGATTAGCTGCCACTCTCATGGCAAGTAATGAGAGCACAGCGAGCGTTTGCTGCTTCTGGATTTCCTAAGATAGAGATGTGTGGATGCCATGAGCCTTAATGGGACAGCCACTCCATGCTAGGTCTTGAGTGCACAAACTCCTTCCGCCTCTCAACACCTCTCTTGAGTATTCACGGCTGTGCCCATGCAAGAAAGGAAGAGACTGAGGCCCAGCTAGGAAGTCCTACAGGAACTGGGGCCTTCTGACTCCAAGGCCAGGATTCTTGCCTCTGGAT
0.6433781626744031 AGTGTCTCCCTTCCAGCCTGTGACAGCTCCAGGTGGACCTAAACCACCTCAATCTCGTCCTTTTGTATTATTAACCTTACTGCCTTTGCTTTTGTTCTTCTGGCCTCTCTTGTCCCCTTCTGAGAGTGACAAAACCTAAGAGCATCTGCCTGCCACATCCTCAAGTGGTGACAGGTGGAAGTGTTTCCAACCAAACCAAGCTCCCTGGTGAGGAAGCACACTTGTGGCCCTCTCCACAAGACAGAAAGAAGTCAGGGCTTTTCCCTTTGAGATAAGTGTTACATTCCCTTATTCTAAAACATTGGGAAAAATAATAATAATGAACTGCAATGAACAATT
0.6657822828456227 AGGAGTTTCAGGTTACAGTGAATGACGATGACTCCATTGCCCTCTAGCCTGGGCAACAGAGTGAAACCCCATCTCTGAAAAAAATAAATAAAAGAAACAGTTGGGGAAGTGAATGTGTAATAAGCACCACGATGAGAATGTGCTGAGTGTGTCTGATGCGTATCATTAATATCAGCTATTCCACTTGAGCGACGCTGCCCTTGTCCTAATCACTCACCCTCGTAGGCGCCTGTTCCCTCTCGCCACTCGCTTCACACTCAGCTCGGCTCCGGATCTGCACAGTGTCACTGGATCTTCAGCCCTTGCTGTCACACCCCTGTCCACCTTCCCCTGGTGCCCCGCCTCCCTCCCTTATCATGCTGGATGCCCCTCACCTCCCTCTCTCTCATGCCTTAATCGCTT
0.3755723729942423 CTGATTGTCTACCCTGCAAAGACACCAAGTTAACAACTATCTATGCAGATAAAACACCCTCATAAGAACCACAAAGCAGGTGAGCATTCATAGTTTTAACTTCATACTGCTGAAAGAGGCACTGAAAACAGAGAAAAAGCAGTCCTGAATCACAGACGCCAGTCCTTCCCTATCCCCAGCAGCAGAAGTTGGGTGAGGAGAGCTTACCTGTGAGCTGGGGGCGGGGGAGGGAAACACAGCAATTGTGAGACATTGAACTCAGTGCTCTGCTGTTACAGCAGAAAGGAAAACCGGCTCAAACTGAGCTGATGCCTGCCCATGGAGGCAGTATTTAAAGCAGCCCTAGCCAGAGGGCAATCACTGTTCTCAGAGGTCAAATTTGAGTGCCTGCAATCCTTGCCACTGAGGGCTACAGTGATCTGAGTCTTCATATAAACTTGAAAGGCAGTCTAGGCCACAAGGACTGCAACTCTTAGACAAGTCCTGGTGCTAAACTAGGTCTGGAGATAAGGGATTGAGGGGGCACTCAACATACTGAGGTAGTACATGGGGCAGCCAAGAGAGTGCTGACATCACCCCTCCCCTAAACCTAGGCTGCACAGCTCGCAGATCCAAAACAAACCCCCTTTCTCCTGCTTGAGGAGAGGAAAAGGGAGAGTGGGAAGGACTTTGTCTTGCATCTAG
0.6355274285826307 AGACATTCATTCCCAGCTAACACAAACTTATTGAAGACTTAGAAAACCTGTTAAGAAAGTGGGAGTAGATATGATGGTTTTCCTTTGAAAGGGACTTACGTGTGTGTTCTCACTTTGCGTCAGTTATCCTGGATAGTAACTGCCAGAGAGATGGGAGTTGAGTGATATTTCAACAGGACAGAACTCCAATCTACTCACACTAAGGCCTTTCAGCAACTGCTCAAGCCCTTAAAATTAAAAGAAATGAAAGGAGGAGGTTCAAACATGCCCTTGACTTTTTTCTACTTTCCCATAACCTGCTTGTTCCCTGAGTCCTC
0.8031752260870612 AAGGTTCTGTAATAACATAATACATTTTTCTTTACACTGTCCAGTTATAGCTCTAGAACTTCATCACTTTCTCAATTTCTCTTCTTTATTCTTGTGCTCTTCTTTTGAAGGCTCAGAAATTGGTCTAAAGGAGCCTCCACTGAAACATTATCTGAGTATCCCCACTCCAAGCTGCTCTCAAGATAAAGTACTTCTTTCCCAGCCATTGTCACCATGCCACGTGTGTGAGAATTGCTTCTTATCTGTTTGCTACTTTGGGGAACAAAGTGCGCAGGCTGAATTCTGTGTTCACCCTGTTGCCTGAGTCTACATGTGTAGGGATATGTAGACTTTTAGAATGGAAAAAAGATTAAAATCTGCTAT
0.5850722581457066 TGAATAGCGTTTCAGGGTGACTTTGTATTTTGGCAACATATCCCAGACAGTTAGTGGAAATGAGAGAACATGTTTTATTTAATTTGTACTTTGGTACCTTTTATGTGAACGAGGCATGTTTAAGCACTTAATGTTGTCACCAGCCTTTTAAAACTATCTTTTTTTCCCGCTGCCCAACTGTAGTTTCCCTTCAGTGTTGAGTGGTCGTAATCTAAACACATTAAGTTTTTGTCTTGTTCTTTCTGCAGAGATAGAAAGCTGGGTCTGAAAATAAAAGCAGAGCTTTTATACAAGGAGGTCAGTGTTTGTACTCAGAAAAGAAAGTATGTAAACCAGATTTCTAATGGTTTTTATAACTG
0.5201614090224214 GAAAGTTTGCATCACATTCACTCTACAACATCTTTAAAGGCAGCGATTATTCCAGAACACAGAGGAGACAAACAAGGCCCCTTTGTTCCAGGAGTGCACTCCTTAAAGAGCAGTTCCAAGCCCATCAGTCTGAAGGGCCAGGCAGTTGGCCCCGGGGGAGCCTGCCAAACACCCAGAGATGCTTCCCGGGAATCTTCTGCTGCTGCTGAAGTGTTGACAGGCTCTTGAGCTGAGAGCTCAGGCTGTTGATAGGAATATATAGCTCAGATAGTCAGAAATCAACCTACTCAAATTTCTCAGACCATTCTCTCCTTCGTTTCTGTCTTTTTAACAATCCAAGTACAGATTTTCTTTTAAAAACCTTCTTCCAAAAAAATGTCTACGTTCCTGCTTCCTCCTGGGGGTAACGAAATAAAAGGCTTAAGGTGCTTTAAGGAAAATGGAGTCAGTTCCCCTCCCTTCAGCCCTCAAGTTCTGCTGATTCCAAGGGGTGGGTGGCGAGGGCCAGCAGTTGGCGGCACCCAC
0.4270767126795932 TTTCAAGAAACATGCATGATGAGATTATTTCAGTTAATGGGGAGTTATTTTAGGAGACACCAGATAATAAAGATAAAAAGAACACTTAGTACACTATCTCTTAGCTGAAGTTGTTTTTTCACCCACTAGCAGCCACTTTGTCATCTGCAGTGTCTTTTCAACATCCCTAAAGCCCTCTCAGCTCTGGCTGCCTTTCCACAAACAGTGGGGGAATTCCACTACTACCCTCTTTTCCTCCTTCACCAATGCCACTGCTTTTGACTAGTATCACAAAAAAAATATCAGTTGCACT
0.7240118115724277 TGGGGAAGTTGTAGGCAGCTGGTGATTAGATTTCTCGGAAGACGTGGTCTCCCTTCAGGTAGCCTCACAGACTACAGCGGTACCAACACCTCTTGTGGGGCACCCTAACTTCTCCAGGACATGACCAAACTTGGCATTTCATGGAAGAGAAATACCAGGCCTGCCTCAAGTACTCTCCTTACTGCATTTGCCCCTCTTCAGCTTCCCTGTGAAGCTGGAATGTAACTACTTAAGTACTCAAGAGGCCTTCCACAAGAAACACAAAAGCTTTGCATTCCAGCTCTTGGTTCTCTGCCACATGACTGTCTCTAAGAATTTCTATGTTATTTTTGGAATGGAAAAACCAGACACAGTATGGCTTCTTTGAAAAGACAAGGTGATTGCTCTCCAGAAGGTTTTCAGAAAATAAACACTCTAATGCTTCTGTTCAACAGGCATTTAAAATTCAAGAAGAATGAGGGCATGAGGAAAGAACTGTTTGGACACAGTTAATTCTCTGTATGTGCCTTATATTAGTGGTTGTAGTGGAATTTGGAGCAGAATATAATCAAACACATTAGCACTTAT
0.8769718129875409 GGAGTATAGGCATGACATTTGCACTAAAAATTAATCAAAGGTATACCGTAAATCAAAGCTAATCATATATTATCAGCATTGAAACCATGAGTCCCAACTGCATATTTTCTCTTTCCTCATTTTCTCCGGTAGTCCATTTCTCACCCACACCACTCATGAATGCTTTGTTCTACTCTGCTCTTTTTCAAGTGTTTGCATGTAACAACATCCTTGCCACTTATTGTGAAGTGCTGTCAGTCTTACAAGGTGCTCTGTGCCTGTTCCCAGTTTCCACAACATCCTGCAGAAATCAATACAAAGCCGCCAGTTTGTTAATAAATCTGCAATTAAAATGT
0.3936077514960829 CCTCTGTCCTCTGCTTCAATTCCTCACACACTTTACCCATCCCTCTTGCCTTGCAGAACTGGCAAGAGCACACTCCTTCTCCCGGGGCTACAGCTCACTGCCGGGGAAACAATAACCTCCTGACCAGCCTGTCACTTCCATGAGTGGCCCGTGCAATCCATTATCGCGCAGCTGCCAGCAGTGGCTCTTTCAGCTGTCACCAGCCTGGCCTCTTCCAATCACAAACGGCTTACAGCTTCCCGCACTCATCTCATCTTCAGATCCCTTATCCCACTGACACCTTACATCATCCCTTCCCTGGTGCTGTAGATGGACTTGTGGTATCTTATGCAAGAGATCCTTCTGGAAAACCTTGCCCATTTCAAGGCTTGAACATTTCAAGACTAATTCTGCAAC
0.9415259498686087 TTTTAAAAAGGGTTGGGGTTTTATGAGAATACATTAGCACTAACAGGAAAACATACATACCCAACCCATATGAGTCAATGGGGCATAAGAGCTTTCTGCAAAAATAAATCTTGAAAATGTTTTTGCTACTTTATAAGTCTGAAAAATAATTCAAGCCACTCTAAACCCTTGAAATTCTGTTGGATAATGAACTTAAGGAGCTGTTGACATCCATGTCGCCTGGTGTCCACACTTGGCCTCATATCAGACAGCCACTGGAAAGCGATTTGCATGAACATGTATCTGAGAACCCTCTGTTTTATTTTTAAATGATAACAAAAGTAAGTACAACCATGATAGTAGCCTACTAATAATAAAGGGAGCTATTTATACATTTTTAAGTGACTGTGGTAGATATAGTTAGCTATCAACATGAAGTTCTTGTACCTTAGAGATGGCATGTCACTGAAAGAAACAGACTCCAGGTCATGGGAGTTCCAAATCTCCTCTCAGATGATTGGAACCCAGGAGTACACCCTTCCCCAGCATAACCTGCATGTAGATGCATAGCCCACTGCTGAGGGACATGTACCTGTGACCAGCGCCTCAGATACAATACTGGGAGGACATCTGTA
0.1941914891008265 AATTACTTACTACTTAAAGCATTTCAAAAATATTTATTCCCATTCATCCACCCTTGTTCTTCTACAGATTCTCTTCACTTGACCTCTGGTATTCTTTAACCATAGAAATACTTGACTCCTACTCCATGAGGAGTTGACAGGTTCAGCTACTGCAGTTACTGACCACTCAGTGGGGGTTTTCACTTCATCACCCTCTTTCTGCTTAACTGTCTCTGTGGTTTCTTGTCCCCAGTGTGTCTGTTTGAGTTTGAAGTTCCAACTCACGCACTTGTTTTCAAACCTATTCGGAATTCCTCCCATCACTGAGGGCTGGAGGGTGGGAAGGGGAGGGAACGATCTTGATGTCATACACATGTGCAACCACTGCAATAATATAGGTGCTGAATACTCTCAATAGGGTGATGAGTGCAACTTCCTTCTGGTTTTAAAAATACTCTCCCCACTGCCCCCAGCTTTAAGTCCTCTGTCAAGAAACTCTGATTTTGACATATCTGGCTTCCTCAGCAATGCTTTTAAACCACTTTATGCTTGCTCCTCCAGTCACAGAAACACTTGTTTCAAATTTGTCTGTCTACCTCTTCCAAGTTCCTCATCTTTTCCTTCAATTTCATCCACTTGGTCTTTGGGGATGTTTACACTGAAGCTTATATTTCAAGACTCTCTAGTTTTCTCTCAAGCATCTCTAAGTCCTCCATGCGGTCTGAAGGCTTGCCTTGTCATCTGTATACTCTGTCTCTCTGCACTTCAGTTTCCTTCCTCTCTGACAAGAAGCTGCAGCACTCACA
0.3809665326198439 TCTCTTTGCTGTGCACTTGAAGGTTTGCTTTGGCTTTTCACATTTATTCCCTGGGCAGTACCACCTACACACTCATTTCATCCAGCTCTCACCCACCCAAACCTCAGACACTTCTTGCTGGCAAGAGGCCACCCTCTTCAAAGGCAGGCATGAAAGAAGCTGGGCACTTACTCCTCCACTTAAAACTGTCACTACCACAGAGTGTGAAGGGAGCTGGTTTGTCCTACATTGAAATCTCCTGTAGAGGCCATTTCTGGTCTCTTGTCATGACTGTGATGCTCCTAAAAGGGCTATGACTACCCAACTAGCCCCTCTGCATTAGGAATGGCCCC
0.4172671186768998 CTGCTTTCTCCTTTATTGTTTCTTCCATGCTGTAATGCTGGGTGGGGCCTGAGTTGGGCCTATAGCCCAAGGAAAATCCAGCCTGCTCGCCTGCTCATCTCCTTCAACTCCCATATCTAAGACAGGTCTTTGTGTTCTCTCAGCAGCCCGTGGTGACATGAGTGAGTGCCTCTGTACACGCTGCACTGTCTCTCTGGTTATCATCTGACAGTCAGCCTTCCCATCGCTCTTCCTGTCTTTACAGTTCTAGTGAACGGAAACTTGTTAACCTTGACAGTGCCTCTCTTGCAGCATTAGCCATCCTGAGAGCGTCCTTCAGTTTCTGTG
0.572391578425632 TGTTTTAAGAACTCAAAAAAGCATGGTAGGTTCTTTGAGCAAGGCCTTAGTTGTCAAAAGTTTCTGAAGCCCTCAAACCAATAAATAGTATTATTACTAATTAAAAGAGCAGATAAACTGAGAAACAAAGCACTTAGACCTAGGGTGACATGGTGAGACCAAAACTGAATTCTGTGTCTTAAAATTCAGTTATCTAATCTCCCCACTTCATTGCATATTCTACTAGCAGTCATTCAGTAAAGTACCTTTCATCACTGCAGGAGTCTCTCTGAACACAGTGGCTTTGGAATAGGGTTATCTCCAGACATTGTTGACATCATGTCTCTGCTCACATACCAATTGAGTGAATATTGGCCCACATGATTCTTGTAAGTGGATTACAAGAAATCCACGATAGACTTCATTCACTTTTGATGAAACCAAGAACTTTCCCTCTTGAGCTACCTAATGAGATACTGTTATTTGTTTATTATGCAGGGTACAGGTTGGGGCTTGTTAGCTCTCTGAATTCTTAAGCACTCAACTGAGGAAATCAAA
0.3965230446170935 TTCAGACCAGGTATGTGAGGGCTTGGTTATCATGCACTGCTCCTGAATCCACCATCTCCATGTCCACATCCTTGGCAGGGAGACCAGAGCCAACTGGGAACTCTGCCACCTGGAGAGACCTTTGAAACACTGTCGCCACCAGTGTTCCATTTGTGTGTTTGCAGAATGCCAAGTAAGCACATTCTTTTTCACCCTCTGACATGACCTCAGGGTTACTTTCTGTGGCTGTTGACAAATTTTTAGACATCCCAGTTTTATCAGCGGAAACCTTGAAGAGTGACAAATGGTTCTTGGAAGAGTTGGTACATACTATAAAAATGTCAGCTGGCTCATTTATAACCCAGTGATGTCCAGTGTCTGAGCCGTGCTATCAGCATGGTCTATAGATAACTCACCCTCACGATGCTCCGCTCTCCCCAAGTACTTTGTGCAGCTGTTCTGGTTGAAGACCCAGTTGACATCTATAATAGATATCAAATGGAGAGCCTCTTATTTTATCACTCTCTGTGTTTCAGCACTGGCGGTCCCCATGGACTGTCAGAAACAGGCAGCCAGCACGTTATGGGAAAGGTGACTTGCTGAGTCCCTGTGCCCTGAGGACATTATTAAGTGCTAGGGAACCTTGTTAGCTCATAAAGTTGGTTCAAACCAATTATTGT
0.5864205492588901 CAAAGCTGGCGCTGCTTCCGGGAGGAGAGAATTCCCAAAAGGCTCTGTCAGCCCCTCTGATAGGGATCTGCAGGGTGTGTGAGAGATTTGTTTTTCAGCCAGGATGTGGGGAGTTAAAAATAGACACCCTAATCCCTTGAGTTCGTGTCACACTTGACGCTGTGCAGAGCCCTATGGCTCCATTATCTCACTTGAGTGGCTCGGCAGCCTTTGACGTGGGGAGAGGTTGCACTGCCCGCTTTATAAATGAGCGTGTGGAGGTGCGTGCCCAATTTCTTACTTGAGACTGTACCCCAAATTCAGTGGCAGAACCTGTCTGATCCTCAGCCCCTG
0.4831477612911181 CAACATGTCATGTAATGTAACTGGACAAGCCTCGGAAAGGTTACCCGTGGGGTGCTGGTGTGGCCGAGCCCCTACTGAGAGGGAAGGGCTTATCTGCCTTAGTGCTGGCCTCTCTGTCGCTTCAAATGGGAGTTAAAAGCAACACTCTAAGTGGATTAGACCTCCAGATTAACTTGAGTATCCTGTGTTGAAAGGCCTGGATTTTACTCTCCCCTGAGACCTTGAGGATTTACTAAGGACCTGTATTTCCAAAACTTCTACAGCAGCTGCCAGGCAGGCAATCCTATTGTTGAGAGATGGGGGCAGGGGGGAGTGAGAAGCCCCTCCTCTCCCTCTGATTTGGCCCCCTCACTTTGCTCTTTTG
0.225093061034895 TGAACCTCTGTCACTATGGACAGAGGCTGACCAGACAGGCTTGGGCTCAGCCCTGGAGTTTGAGACAGCATTGGAGACACCCAAACACCCTGGATAAGTGCCAGAGAGTTACAGCTCTCCAAAAGCACACACCGTGCTGTCACCAGGGCAGGGAATGGTCGCTGGGCGGCAGAACAACATGTGATCAAAGCAGAGTGGTGATAGAGCCAAGAGTGGAATTGATGGCTTTCTGCGAGACAGAACTTTCAAAGCACTTGAGGTGGTGGAGGAGAGAGGCCAGGTTTCCAGCCTGAGCCTGGTCAGGAGCAGTGAGAACTGAAGGAAGGGAGGGAGTCTGAAGATAACCAGGAGGGACCTGGGAGGGACAGAGCAGTGGTCAGGCTATGACCAGTAG
1 AATTTTTGTATTTTTTGCAGAGACAAGAGTTTCACCGTGTTGGCCAGCCTGGTCTCAAACTCCTGGGCTCAAGCGATTCTCCTGCTTCGGCCTCTCAAGTGCCGGAGTTACAGGTGTGACACATCAAGTGCAGTCCCACACAGACTCCCGGTTGACTGCCTGGGTGACCTTGGGTGGTCTTTGTTTCTGGGGTGCTACCTCCCTTGTTGGTTCTCTTAACCCAGCTCTCAGACCTGTCAACGGCCCTTCTGCTGAACACCTGCCTGAGGATCGTTGGCGTGTGTTATCTGTTTCCTGCTGGGATCATGACAGACACAACTGGAAAAAAGCCCCGGCGAGCAAGGCCTGGGCCTGAGTCCACAGGGGGGTCCAGAGGGGAGCCCCCTCCCCCTGCAGTCC
0.7629273410061019 GTGAGGAGGAGGGTCTGGCGGCACAGGCCAGGATTTGCACTCTGTCCAGGGTTACTGGGTGAGGGCCCCTTAGACAATCAGTTCCACCTACACTCATCACACACTTATCACGCACACTCACTCTGTGATAAACAAAGGGGAGCCTTTGAAAACTTGGCGGCGGACGAGACACACAGAGGCCCAGGCGGCAGAGGCAGCCACAGAGCCAACAGTCCCAGGAGCTTTATCAGTGCCACACCCAATCACCTCCTATCAGAGCTTCCTCTCACCATGTCCTCAACCCAAGGCCAGATGTGAGTGGAGCTGAAGTGCCTTGGAGGGGACACCCCAGGGCAGGGCAGGGAGGGGGGGCAGGTGGCAGGAATGACAAAGTGTGAACCCGTGGCCAGCTCCAGAACCTCCTCCTGCAATCATCCACAGGGTTCAG
0.5409160272650466 AGCTAGGGAACAGAAGTATCAGAAATGCCAAGCTACTTTTTTGGCTATAGCTCTGAAGAAAGAAGGCTCTGAAAAGTGGTCGGCCTGTAACATAAAGATGTGGGCTGGATGTGCTGCCTTTTGAAATGTCAGGGTTTTTGTTGAATAGGCATTGAGTTGGATTGGAAAGGTCAAAGCTGACAGACTCAACTCATACTCAGAAAATCAGCTCACAGCTCCTTTTCTTCTCATCACCTCCCAAGTGGTAGGTTGCTAACGTCACCCTGGCTTTCGGCACAGCAATTAATGGCTTATGAGCACAAGCCAAAACATAAAAAATAAACCAGATTAAGAAACTGCTCTGTAAAATGTAAT
0.745116422940712 GGGTTTTGGCCCCAAATCCTTCTGCTGCATTTTTCCCCTATCCCTGGGAAGCCATGAGACCTCAAACCTGTGTTCCCAAGGAGGCGAGCTGCTGTTCCCAGGTGATGATATGATGTGCTTGGGGAAAGTAAGTGGCTGCCAGACATGGCTGAGAGCTGTTGTCACTGCCGTCAAGTGCATGTCTCCAAGCCATATCACACGGCGTCCCTCGATGTGAGGCCACATGGCAAGTGGGCCGTGGATCTCCCTCTGCCCTTTGCAAGCACGTAAGACAGCAGATTTTGCAGATACCTTGTG
0.3009663995764175 ACCAGCTGCACTAGCTTCCGGGTGCAGGACTCCAACTGGGCCCACGCCTCTCCTCTGAGAGCACTGGCAGGGGTTCAACGTCACCAGCCCTCCTCCTTGTGTTCTCCTCTGTCTGTCGCCCTCTCCCAGGTTGTCCACTCTGTAGCTTGACTAAGAGGCACTTGATAAGGGTCACTGCTGTGAAGTGTGCCTGAGAGCTGATGGTGCAGGCAGTCATCAGGCCCTTGGTGGCATTTCCTCGTGGCGGGAGCTGGGGGTTCAGGTGACAGGACAGCTGTGAAACCCCCAGCTGCAATTCCTGTGTAAGGGCTAATAAAGACATTTCTGCCTGTGCTGTCGC
0.5393556607660096 GGAAACCTCCCTGTCCTGGCACCCATCTCTTCCTACTGCCATGAACACCAAGACAGGTTCACACCAAAGGTGTTCTGTTCCTCATGGCAGGCTCTGCCACCTGATTAAGAGAAACATCTAATCTCCTGCTGGTTCCCTCTCTTCTTAAGAGGAGAGGCCTGAGGACCTGCTGAAAGCTTTATCTCTGCTTGTCCTCCGGGTGAGGCTAATGAGTGGGGCCAACGGGTGGGGCAGTGTAGGCGCTTTACAGCAGACACGCCTTCAGACCTCTGTTCCCTGAAGGGTGGGGATGTGGGGGTCACCTCTGCCAGAGGGAGTAGGAGTG
0.6743717728634796 TGGCCTATAGTTAATTAGGTCAAAATGTTGGAACTTCCCTGGCATACCAAAGAGCAGTGCTTCTCTATTACAAACAACTACTCAGCCACCCTCTCATCTGCTTGTCACCAAAGCCGCAGGAAGTGCATCAGTGGGAAGATACCAGCCTGCTTGAAAAGGTGATGACTCTCCTTGAGAGGCCAGAGATAACCTTGGGGGAAATTGCAAAAGGACTGGGTTTTCTGATCTCATGGGACTATGGGATCCCAGAGGCCTGAGGCCAAATGGCAGCATTTAACTGTCAAAGACAGTTGAGTACACCAGCTACAGTAAGCCA
0.395661939269381 TTGTAGATTCAATGACATGTGATACCAACCAGGGAGGCAGGCAAAGTGGACTTTAGAGATGAGTCATCTGGTACTCAAAGAGGGTAAGTTATTCACCCAAGATCACACCTGCCTCTTAATGGCAGATGCAGGAGTCAGAATTGTGCCTTTTGATCCAGGGCTGGTGTTTTGACCCCTGCCCTGTGCAGCCTCCTTACCAGGCCACCTGGTGTCCCCCTTTGTCTTCCTGACACCTGCACCCACAGCAGTCCCTGCTGACAGCTCTTCCTTCCCACCTCATCTCCAGGTGTCACCTCCCATTTTCCCCTCTGCACAGGAGGAATGACAGGTGCTGGAGCATGACACAGTGCCTCAGGGCTGAGGCTGCACAACTTCTCAGCTCTCGGTGCTGACAGGAGGGAAGTGGGTGCTGAGGTGTCAGTCAGCTGGCTCAGTGTAAGACCTGCTCTTATTGATCTTTGCTGAGAGATGACTAGTTGAGGGGCCTGGGCTACCACATTCTGCCTGTGACCTCTGACCTCCTAAACTTTAGTGTTCTTTGGCCTATAAGTTGAGGGTGTGCATGGTTTAGAAAGCGC
0.03196279642472182 CTTTGGTTTTGGCAGCACTTCTAAAGTGTCTATTCACAAAAAGACTCCCATAGTGAATGAATGCTAGTGTTGACACCACCTAACAAGCAGGGATTATGTGTTTACAGAAGAAGTAATATGATAGGTCAAGTATAAGAGGCACTTCTCAAGAGCACTTCAGCACATAATGAGTGACTGACTAGAAAGTGCGGAGCTGCCACTCTTTGGCTTGGAGTCCGTGTTGATGCCTGCCTCTCTTCTCCAAAGCTCTCTTGATCATGTTCAGCTGCTCTGTTCTCATGTGGGGAATAATAGTAGAGTAAAGCTGCTTTTCTGTCTCATTTTT
0.3780209286033639 TCTCTAATTTGGAGACAAAGAATTGGAAACTTAGTGCTGGCTTCTATCATTGTGGTAAGAGTGAAAATAATGGATACAAATCAGATACCTGAGGATCTTTAGAGAAGTAATTGTTGAGATGTGTTGACAGATGGGATAGTTTGACAGAGTGGTTGAGAGGGTGCTAGGTCAGTTCTCAGAGAGGGAGGAGTAAGGAAGTGACATTACTGTTGGGAGGTAATTGAGTTGGGAGAGGGAAACCAGTTAAGTGAGAGTGATAGGAACTTGTTTTGAATTCTTTTGTACTTGATGTGACCGTAGCAAAGGTGATGGAAATGTACCTA
0.509575039889838 CTCCGACAGAGACTTTTCTAACTGAGAAAGAGCGAGCTGGTGCAGCTGCTCAGTCTGAGGGCATTAGGAATAGTGGAAGGGCAGTGTAACCTAATCCTCTTATCAGATCTGCATAGCCCTGTCCTGCCTCCACACTTGCTGCTCCGTTCCTCTCAAGTCTGTCAACAGCTCAGTCTCCAGGGCCATGAACCACACCTGCCATTTGTTCTGTGCTCAGTGTGGGTGCAAGTGTCTGCTTGTCACCTGTTCCTACTCTATGATTTATTAGGGTAGGCTGTCCAGTTTGTGTGCCTTCACAGGCCAATGTCACTGTGAGTTGGGCCTTAATAATT
0.4602063906035057 GGCAGTGTCATGCTGGGCTGCATCTGGCACATGGAGAGGACGGGCCAGTCGAGCAGGTGGCCTCCTGGCCGCTCACAGACTCTGCGCCCGCCAGACTGTGAGAGGGGTTCAGGCACGACACTTCCGGAGCTGTCATCTGGAGGAGATTCTCATCATTTTTTCCACCACTTAAAATAAAACCACTCAATGCCTTCTCCAGTGTACTCTCTGGTCTATTTAAAAATAGCAGCGCAAGTCCCACCACTTCTTATTTATAAAGGGAACAGCCAGTGAACATATTTTTACCTCCCGTGTCTGTCATCATGTTCTTGCCACTCATTGCCTCCAATTCCAAATAGGTAAAGAGTGAGGGCCGTGCCGCTGTGCCTGGAGTGGCAGGGGCAGCCACACAGACCTGGGGGTCCCTGAGCTCCCCCAGCTCCAGGGAGGACGCCCCAGGCATGAGCAGGGGCCGCCAACAGGACAAAGAGGCCACTCTGTCAGCCTCTGCTGGACCCCTGAGCTCCCCTCTCATGGGCCTCTCCGTTTGGGTGG
0.6624479638346428 AAGTGGGAAGCTCTGTAAGAACAATATCCTGTGAGCAAGCTGAATGAAAGCACCTGCCTTCCTCCCTCAGCCCAAGCCAGCTTGCTTAATAAATTAGATTGCTTGTTTGTTAGAAGCACCTTTTTAAAAGGTGAGTGTAGACAGCTGCTCTCCAGATAATGACACTAAGCAGAGCTGTTGCTACCAAGCCACGCTAGAGATAAGGCTGCTTTCCCAGAAATACATTTCGGGGCAGGGCAAATTGAAAGTGTGTACTTCTCAGGTAATAGGTAATAAACATTC
0.395677175693901 CTGTGCTGGAAGCCAAGTGAAGTTTTTCCTGAGGGAGGAAATGGCCAACTCAGTGACATGCTGCTAAGAATGTGAGTAAAGTCAGTATAAAGTGTCCCTTGGACTGGGCAATACATAGGCTTTTGGTTATCTTGACAAGAGCAATTTGTTTTCAGTAGTGGGATGAAAGCCAGATCAGAGTAGGTTAGAGATTGAATGGGAGGTGAGGAAGTGGAGACAGCGCACAGTTAAGTAGTTGAGATATTTGGTTGAGAAAAGGGAGAGAGAAATGGAAAGGGGCTAGCTGAAAGGAATGTGGAGCCAAGAAAGAATTGTTTTTACCATGGAAGATATGAATGGCCCACTAGAAAAGGACAGATTGGCATTGTCGGAGAGAAGAGATAACTCCCAGAGAAAAGGCTGTAAGTATTTGAGAGGTGATGAGATCCAGAGCACAGGCAGGGGCTTGGCCATTGGTCCCAGGTTTGCTCTATCCGTTAACAAGGAAAGAACAGATACAGGTGTGAAAGCAAGCAGGTTCCCATGCATGACAGCAGGAAGATGAGAGCTAATTTCATCTCAAAACTCTTGGAGTTGTAATTAACACCATATTCTTTAACTCATGCCAAAAGGATATAGTTTACATCTGTGTCAGTCAGGATACGCTATGTATTGTAGTGGTAATAGACAATCCCAGATCTCAATGGCTAACAGTAACAAGAGTGTTTTTCCCATTCACACTGTTGTGCCTATCACAAATCAGCTATAACTTGACT
0.4027474804612422 CAGGAACTTCTAAGCTTAACTGCCCCATATAGACTTCTCTCATAAACCCTCCCTCTCTCCTGCTCATCTTAGACTTCACTTCAAGTACTCTCCAGCCCAGAGGAACAAGGATTCAATCCTGAACAGTTTCCAGTAGACTACCCTGGCAAAGTCCCCTTCAAATTTCATCAGCTCTCAAGCAGTCACAAACTGATTAAGATCCTTGAATTGGAATGTCAGTAATACATCATCACCCATTACTGTCTGTGTAGAGGAACCAATTAGTTTAAGCATCAGCATGCAACAGCTTTGTTAGACTCTGCTGTTATCAACAGCATGTTATCACCTTCAGCACCTCCTGGATATGCTCTTGCCGCTCTGCTTCTGTGATCCGGTCCACGTACCATTTGAGCACTTTGATGAGATCTCTAAAATACAGGGGAAAATGTGCAGAATGTAAAATTGGTCTAATT
0.5992955117548324 CAGGAAAAAGATGTTGTAAATCTTGCTCTAGCTCTTAAAGCTGTGACTTGAAAGTGACACAGGTCATGTCTGTTGACATTTCATTGACCACAGTCACATGGCCACACCTAACTTCAAAAGGGGTAGACAAGTATGTTCCTATGCTGTACTCAAGATAAAGAGGTACAGAGTGTGTGAAGGCCCTAATGACTGTCATGGGAACAAACAGAGGAAGAGCAGGACTTGAAAGAGATTGGGATGAGGCCTAAGAGCTGGGAAATGTAACAGGAGAGTAGTATAAACAAGGCCAAGGCAAGAGACAGTGCTAAGGAAAAGGAAGCAGTCAACTATCATAGAGAGAGAGAAGTCACATAAGATGAGGACGGACTGTTGTGT
0.129567843126324 CCCAAATCAAATTGGTGGGCACCTTCTCGGCCGATCATCACTGTCTCAGTGATGTCTAAACCACATTTAGATACCAGTTGTCCTAGAGAGACGCAGCACTTTTGGCCGTGCTTCTCTTTCCTCACTCTTGGCCCTTTCCTCACTCTGGGCACCCTGCAGCTGACAGCCCACTTGGCTCCAGGAGCTTGGAGAGAGGCGTGCTGACCTCTGCTCAACAAGGGCTTGTCAAGAGCTTTGTGAAATCCCTGCTTGGACAAGTAGCCCGGAATTCTTATCAGGAAAGGAGGTTGTGGAAGTGGGTGTCATGCTGTCACTATCTCTGATGTTGATATAGGAGTTAAGAAGAA
