svm_type c_svc
kernel_type gkm_esttrunc
L 11
k 7
d 3
norc 0
nr_class 2
total_sv 13233
rho 0.198797
label 1 -1
nr_sv 6981 6252
SV
0.6525831187139879 TCTGTATACTGGTAAACTGTGTGGCTGTTCCCTGCCTAACCAGCTTGCTGCTTTAAGGTGACCTGTCCTGAAATCCCAGACAAACACATTTCGTGATACAAGTTCTGCCCTCATTTCTATCTCAGAGCTATGTGTCTGGACCCTATGACTCTGCACCCTCTCATAGCTGAAGAGTGTTATCAAGAGTAAACACTCAGGATTGATAATGGTCTTTCAAAGGTCTAAAAACACACCCACAGTCCAATGACCTATTGAAAGGAGGATGAGTGGTTTCTTTTGATATCGGGCTGCTGGACAGACTTTAGTGAGTGAAAGATTATGCTGCTTATTTACCTGGAAAAAATCGACGTCATAAGGATGCCCCCAGGCCAGTGGGGAAATGTCCACTCTGTGTACATTGTATAGGGATTAAGACACAGCCT
0.1177418199010965 CTGACATATACCATTAGTGTGTGTAGATTTCAGACCCCTTCTGGGGAGTGAGTTTCAATGTTGGGAGTGAGGGTGGGATAGCCATTTGTCCACAAAGAGCCCATTTTTCTTCCCAGCTCTCTCTGCTCAATGTGCTGAGTGAGATAGTGCTTCTCAGCCTCTTTGAACGCTTTCTTGTCCCTCTGCCTGCACTTTGGTTCCCATCACGTCAGCCTTGAAGGTGGAGTGGCCTGTCAGCACCACAGGCTTGTGACTGGAGCCACAGGATCTCCTTTATCTCCTCAGCTTCAGGCTCTGTTGTGTGAATCCAGGCTAAGAGCAGTTCAATGACTCAGGGTTAAGAGGACACACCGCCATCTCTTGACTCAGCCAGGAGATCCTTCCTCTTTGGCAATAAAAGGACACAATGCTTTGTAGAGTTGCCACTTAATATAGATGAGATTACAGTTTGTGGACTGGATGAATCTAGAGACTTGTTTTCTCACCTATGAGAAAATATGCAAGGCATGGGAACATTCTTCATAGTAGTAA
0.03413213461069282 AAGAAACAAATTCCAAACCCCAAACCCCACTAACTGCAGAGCAGCTGCTTCTCAGGGAAAGCGGCCACCCGGAATGTAACGCGGCAGAAACCGGTCTCACTGCCTGCCACCAAGCAAACGTGGCCTGTTCTGATGGCTCAGTGGCCAATGTCTTCCTGTCACCAAGCTCCTCCAAATCGCGGGGGAGATTGTTTTGACATTTGATTAGCCACAGAGTGTAACTTGTGAGTGCTTGAGCAAGCCGACTCTCAAGCAATGGCATCGCTGAGTGCTTTAGCCTGTTAGAGATACCATGTATCAGGGAAAGCGATGGCGGGCAGGGCTCCAAGAGGGAAGATAAGTGGGCTGTTGGGAGAAATTAATACGAAGAAAGGAAGCGGCGAATGAAGTCAAACGAAAACAGGGTCCTGTGATATCCATGACTCATAAATTTCATT
0.2275102894137113 GGTTTAACTCACCCAGCTGGTCTGCACAGGCCAAAGCTTGGGGAGCCCCAGCTTCCCTGGCTCAGGCCCTGTGCAAACCAGTCTCTCGCCCTGTCAGAGGGAGGGACTGCTCCCTGGAGCCCACCCAGCTGGCTGGGAGCTCTCTGCGTGCCTGCCACTGTGTGACAGTCATGCGATGAGAGGGAAGCTCAGCACATGTCCCCAGCCACCATCAGTTGGCGGTTCCTTGAGTGGAGGGATGTCAGAGGCACGTCAACACTTTGGCGGCTGCTATTCCAGGCGGGCGAGGCAGGCAGAGGGCCTGTGGGCGCCTGAGTCTGCAGAGCCAGCCCTCGGGGGAAAGGAGCCAAGACACAGAAGGGGCTCAAGCTGCCCTGCCCC
0.8157816534072345 TGGGGTCTGGATCGGGATCCCTTTCCAGTAACAGAATGGTCACTGTGCCTATCTGGATGTTGGTTACTGCATCGGTGACATCTCTGCTCATCTGCCACCTGGCTTGCTCTTTCTCCTGCCTCCAATCTGCGCTCGAGAATGCCAAGGCATAATCATGACATTAACCACAAACAACTTCTTGAGCACTTACTAAGTGTCAGTCATTGCACGGAGCACTACATGCATTTCGTCACTGAATCTTCTCTAAGTGGGTCCTCTTGTTATCTCTATTCTAAAGAGAGACTTAGAGAGGTTTGCCAACTTACACAACACATAAGAGGCAAGGATGGTGGTTGGGCCAGCAGCTGCAGGTAGGCTGGATAATTTGTTTGATAAAAGATGCAGGTGTTCCTTTTTCAACTAGCCAGCCAGGTGCCGACCACATCAAC
0.9544697161303742 TATTTTAAATTTATAGAATATTGTTACTTTTGTGGTCCACAGTTCCTCAAGATCTCCATTAAGATGTCAGAGTCTTAGTGTCGAGTTGTGGAAATGAGAAACACACAGAGACAGTTGCTGCCATCATTAGCCACCTGCCAGCATCTGTCCTCACACTCTGCCTTCCTGTTTCTGTAGCAGAATTACCCATACCCTTATCTAAAGCTGTTCTTTCATCTGTACACTGGAGCTCAACCCTTGTCACCTACTCAAGGGTATCATTCCAGTAATTCTCTCTTCTCTCTTTCAACACTCTCAGGTTTTTCCTCTATTAGACTTGTTCCCAGCAGCATACAAATTTGCTCATGGGTCTGCCTTCTTAAAAAACACCAACACCGGCCAGGCATGGTGGCTCACGCCTGTAACC
0.7111274710009368 ACAGTGCTACTCATCACCTGCACGGCACCCCCCAGGGGGCTGTGGCTTCCTTCCTCCTAGAAAGTTCCCTGCCGCCCACCACACTCCGTGACTTCCCCACTTACTCACTGATGCTTGAAATCCCCCTCTGAGGACCTCATTCCTTCAACAAACAACTCAAGGTGCTGATCGCTGTGAAAAATGAGACACCCCTAGAGAGAGAGGGAGCACTTTAAACTGTCACCGCGTTCACTCTTTACTGAGATTGCATTTTAAATTGTTATGAGAGCAGGTCCTAGTGGGAAGAGAGTTAAAGAAAGATTTCCTAGAAGAGCTGGTGCAGAAAGTTCAGAATGTTGAAGCTTTCAAAGTCCACTCCTTTTATTATTTC
0.7948518268229445 TATAGCGTAGTGCAGTCATATGGCTCTGTAGAAGTCCTTACTCTGGGAAATAACCATGAGCACCTCAATGGTGGAAGGGTCCCTCCAGCTTTCTTTAGCAGCAATCTTGTTAACCACATGCTTGCTCTGACAACCTTATCACTTGCCAAGTGCAAGCAGCAGTGTTTGCACTCTTACTATCTCTTACCCACTCTTACTATCAACCACCCACTATGCACTGCGTCTGTTTCTGAGTCTCTGTTTCTGAGCTCAGCGCTGCTTAATGCTAGATAATTCGTGTTTCCCATGTTACCCTTGACTCCAGATGAAACAAAGTCACACAAACAATACTCAGCAGTATTCCTCGGGTTCTCATTCCCAGCCGCAGGTCCATTTCCAGT
0.240247058227859 CCATGAGGATGTGGGTGTGCACATGGAGAGGGCTAGAGGGCAAGTCTTGGGGTTTGTAGTGTTGTGACCAAGACCTCGGGCTCTGTACCCAAGAATTATTTGGGCTCCAATACTTGCTTGTGCCTGTTAAGAGCAAGAGACCCAAGCTAGGCCTCTCAAGGCTGAGTGTCCTTATCTGCAGAATGGAGAGAGTGAGGACAAAAGTTCCTGTGTTAAAGGTCCTTTAACACAATCTTGGCCCATAGTGAGAACACAGCACATGTGAAGTCTTTTGTTGTCACCACCCCCAGCTATACGGTTCCCATTCTCCTGGGAGCTGGGGCTAAAGAAAGCCCAGACAGTATCCAACCCAATTTCCT
0.3750491899863807 CATGGGCTCCTAGGCCTGTCCCCTCTTACCTCCTTAGAGACCTTATTCTATCAACTTCTTTCTTTCTCTTCTTTTTCTCATCCTTCCTCCCCCCATGTCCAACCTACTCCCCTCCTCTTCTACATACAAACATTCTCATGACTCTTATATTTACAAAAAAGTTCCCAATCACTCACTATCCTCTTTAGCTACCACTCTCTCCTCTCTTATCACAAAACCACTGAAAAGAGTACTTGGCTTGCTGTCTTCACTCCTTCTCCACTCATCCTCAATCCCCCACAGTCTGGTTTCTGTCACCAACACGCACTAAAAATATGCCTTTGATGTTTTACACAGGGCTGCCTAATTTGCAAGCCCAGTGGATTTTTCTCAGTCCTCCTCATGATCTCTTCAGGCTGACACTGCTAATCTCCTGCCCTTCCTCCTTGAAACCCTTTACCATCTTGACTTCTATGATGACATGCTGTCCTGGTCTCCTGCCACCACCCGAACACTCACTCTCAGCCCCTTTACAGCCTCTACCTCCCTTCATGGCCATTCCATCCTAAGTTCTTTTCTCT
0.870732789926455 TGATTTGAAGATTTCCATCTCTAATTAATGTATTAATTATCATAAGCAATTTCTCAAATTTGAATATGGAAAATCAAAAAGGCAATAAATTTCCCTTATCAAGTGCTCTGGGTCCAACGTGCATATAGACACTCACATGTGTTAAAAGTTCAGAGTGCCTCCTTCACCACTGCTTGAGTGATTTCCCTTATCAAGTGCTCTGGGTCCAACGTGCATATAGACACTCCCATGTGTGAAAAGTTCCGAGAGCCCCCTTCACCACTGCTTGAGTGCAAGGAATAGTCTTGGGTATTTCCTTCATTGAGCTTTACTTTCATTGGGCATTCACTATCTGTTTCATCTTGGAAGATATGCTTCATCTCTCTGACCCTCACCTTTATCCTTTATAAAAGGGGATTCTAATACATCCCCCATGGAAG
0.6306049248246314 CCCCTGGCTGCCTTGTGTTGATCTCTGGCCTAGGTAATGACCAGAAATCTCACTGGCAGGCAGGCAGGCAGGCAGGCAGGCAAGCAGGCAGGCTTTCAAATCTCATGTGCCTCTAATTTTCTCAGTGTGATTCAGTAGCTCTGCTCCTGTTTGGCCTCTCTGGGTTATCTCAGGCCTCTCAGGAAGCTCTCAGAACTCTCGTCACTACAGTGTATGTTCGAACAAATGTGTCTGTGCTTGCCAAGTTCCCAGAGCTGGCTTCTGAAATACAGCAGCCAGGGGAGATGGGTGGCCTTCAGGTGTAACACACACACACAGGTTAGAAAGCAGTGTGTGTCTGTGTGTGTATT
0.2156692772293764 CTCCTCTGTGGTGTGGACACTGCTATGAGAGCCAGGTAGCCTGCACTAAGGCTTGGGACAGATTGCTGGTGCTGTAAGCTGGATGGAAGATGTTGCAGGTGCTGGGATTTGTAGCAGTGGGAGCTGAGCTGAAACCAAGTACTTGAGGGAGCATATCTGGGTTTCTAACAAAAGAAAGTCAGCCAAGATCCAGTTACTTCTGCTGACAAGCAGCACTCAAGTAGACATAGAACAGTGCCCAGAGACCAGAAGAGTTAGAGGACACTAACTCTTTCCCCCTCCAGGGACACATAAGCTCCCCTCCCCCAAGGGCCAGATGTGACAGAGAAGAGCAGGGGAAAGGGTAGTTCCCGAGAGCCTGAGCAAGTTTATCCAAATAAACATTTACTTTA
0.09406010904484899 CACGGATTTTTAACTGTGTGGGGGTCAACACCCCAACCCCCATGTAGTTCAAGGGTCAACTCTAGTTCATATATAGCTAGTTAGCCAGATGAGTGATGTGAGGATGGGGACAGAGAATAGAAAAGTACTCCAGTGAGAAAGTGTCAAAGATAAAGCTGAACACTAAAGTGCTAAGGACAGATTGTAATCAGTAATATATTAGTGTGGTTGGAAAGAGTCCAGCATGAACTGAATTCAACTTGATTTTCATAGAGGTAACGGCATTTTAGAAAGAGTATGAGGGAATAAAGGTAATGAACATGGGCTCACTAAAGTCAGGGAAATAAAAAAGTTATTAAAATGAGGAGTGGGGGTTTAGTCAATGTGAAACCCATTTTGGGTTTGTTAACTGAGAGTTATCAGAGTTAGGCTCCTACTTTCTCATACAGGCTGGGAGACACAGGCCCTATCTTTAGGTGTTGAATGACAAACACTCAAGTCCTTTAGCAGTCTTGAGTTTTCTCACACAGGCACTTTAAGGGGGCCAAGGGTCATTCTAGGGACGTAGCCTTTAGGTGTTAGAAACAATGTTTGTTTTTTGTTCAGGTCTTTACATGTCAAGGTTACAGCCTAACTGAGAAGAGGGCTCAGAGGAGCCTGGCTAAAATTTGGT
0.5950997452602412 AGGGACTACAACCTTGCAAAAAAAAAAAAAAATACTTTGGAGGATAAGATCAAAAGATCAGAAAAAAAGGAAAGTGAAGACTGTCATGGCCAAAGCAGGAAGCTAAGCAGAAGGCTAAGGGAAGCCTATCCTTCTGTTACCTTTAGAGGGAGCACTCAGAATCACATTAAAAATGCAAATAAACCCTGTCAGCTTTGATAGTGGCTGAGGGCCTTCAATCAACAGCTGATTGCATATTGCTCAAGGCTTATCTGGTAGGATGAGTAAAGGTGCCCTGTGTGGACAGCTCAATAGCCCACTTAAGCCCAAACTGAGCCAGGGGCTGCAATGATGATATGAAAGGGAAAACTCCATACAGGAGTCAGAGAGTGGGGAAAACTACTTACATGAAAATAAAACATTCTTCAAACTT
0.6867849826951354 AGAGGAATGAATGAATGAATGAATGAATGAATGATCCAGACCAGCCAGAGACTAAACTGCAAGCAACGTTAGGTTTCCCTGTGACCATTCAGACTTAATGTGACTCTATGAGAAAGCACTGTTGCAGGCCGGGGATTGGCAGGCAGCCCCGGCCCCCAGCCTCAGATAACAAGCTGCTCTCCAAGAACACGTGCTAGGAAAAGTGCTTGATCAGAGTGTCAGCTTGTGGACTGAGTAGGAACACTAAGTGGTTTTGTCTGTCACCTCCTTCACCCCAGCTGGAATTTGGCCATAATCTGATAGAAACACTTTGCCCACTTTCAGGAGAATTTTCCACTATCAGTAAGGCTGCTTTTTCATACTTCGGCTATCACCAAAGCCTTTCAGAACACTTGTACTACTATCGCCCAGGGGAGCTTATATGTCTCAAGGGTAGGGGGTGGGGGACCAAAACCATTCTGAGCATGGAACACTCAGTTGATTCAGGTTTCATCCATGTTGAATTTCAGTCCCTGTTTCCTGAGGACTAGACTGTACTAGATGCTGTCCTGG
0.8723567451514769 ATCATACCTGAACCTGGGAATTGGAATCCTCAAAGACCCATAAATATTCAGGGCTTTGAGATCCAGATATGGGGTGAGACAGCTGCTTTGATGGAGTATTTGAATGTTTGCTCCAAAGAGAATAGAAAGGAGAGGAAAGTACTTGAATAATCTTTCACCACCAAGCTGCCTCTGAATTTCTAAATAAAGCCTTGAGTGGAGGGAAGATAACATGAGGAGCCTGCACACCATCACTCCGCACTCTCATAAGGCTTGCAGTTGGGCGACCCAGCCATAACCATTTGGTAAAAATGTTACACTGAAGGGAAATATGGAGGTTGAAACTGCCAGGCACGATCATTTCACCAGCTATCCAGCCTCGAAATGGTACCTTATGCAAATTTTGATTTTTATCC
0.614637704200576 TGCCAGCCACGGTTCCCTCAGAAAAATTCCCGTGCAACTCTGTGGAGGGAAATGGAAAACACCGCGGGCCTATTCCCCTCCCCTCCTCTGCCACTCAGCCGCCAAGGCAGTCTGGAGGTGCCCAGCACAGATGGCCCCCTCCCCAGCACTCAGCCCTTTCAGCAAACACCTTGTTAACTTGAGTGCAGCTGAGCGGCCTGGTTGCTAGGCAACAGCAAAGCCAGAGTGTGGGAATGAGCGCAGCCTGGCCCTGGGGCGGCCTGGTCACTCTGGCCCTGCTGGGGGCCTGGGACTGCCCCAGTGTGAGGGCTCAACAAGGCCCACGCAGCCACACCCTCCCCAACCTTCGCAGTATCAGG
1 GAGAGGTAGGAGCAGGCCACACTTGGGCCGAGAACCAGTAGCCGCCTTGTGTGTGCCAGTTAATAGCGAGGTGGGGCCACGGCTGGCTCATGCGATGGTTGTTGCTCCGGACTGGGACACTCACACTTTGCGGTCATTGAGGAGCATGCCATTCATCTTCTCGATGGCCTTGTCGGCAGCCTCTTGGGTCTCGAAGTGGACAAAGGCATAACCCTTAGAGCCGTTCTCATCACACACCACCTGTCAAAGACAAGGCGGACCACTTTAGCAGAACTGGCCAGCTCCTGAGACATGAGAACCTCAGGGTATCTTGTGCCTGAGGAGACTCTAGCCCATCCATGGCCAATGGTGGTCAAGTACACCAGTATAATTTTTCTAACACCTAG
1 AATCTGAGTTATTTTTAAGACCGAGGCTGTAATTTATTTACCATAAGATCCCTAGACCTGCAGAACAGAAAGGGTAAAAGACATCTCTGAGAGAGATTTTATTCTACGTGACCATGCTTCTTTTGAAAAGCTGCCAAGTTTGCTTGTATGCTCTGAGTGTCTCAAGTGGGAATCAATGAGAGTACCTGCCGTTTCAAATAGCAGCAGATAATGGTGGAAGGGCAGAATGTAGACCACCAACAACGTTCAACAAGCAAGCATTATTCCAAAACTACAGTGTAGATTTGCTTTTTCAGTTCAGTATGCATTGGTTAACTAATGAACTTGAATAAAATAA
1 AATCTCTGCCTCTAGGCCCAAGAACCAGCCCCCCTGGGGCCCTCGCCTGTGCTCCTGAGTTTGGGTAAGGCCACTTCTTTTAGCTCTAGGGGAGGTATTGTCTGCCGCTGACTAACTTCCACAACACTGCAGCTTTCCTGCTTTGTCCTTGAAGCTTTCAATAGCCACTCTATCATTTCCTCACATTGAATCCCCTGTGTTTGAAATAGCTAGCTTGGCTTCTCTTTTCCTGACTGGACCCCAGTTGATTCACTAGAGAAGAAAGCATCAACTAAAGAGAAAGCAGATTGTGCTGTGTGAAGAGCACAGCACAATAATAAT
1 AAAGCCCCTCTCCATTCATCCCCAAGCCCTCGGGCTCTAGTGCAGGAAAGATGCTGGCAGAGAAAGGCAGGAGCTCCCCAAATCTTCATCTCCCTGCTTCCAACAGAGGGCAGTGGCTCCAGGGAAAGGCTCTCCAAACAATATCATGGTTCATTGTCATCAGCCTCTCAGGATCTCACAGGCACCTGGAGCTTCTGGCCCTGCATTCTCCAGACCTGGCCTGTGGCTCTGCCCCTGGGCCCATGGATGATGTCTCTGCCTGCGGGTGACTGAGGCTGGGGCTGGAGAGGACGCCATTCTGATCATGGAGAAGGCACCATTTCA
0.03701843470777325 CCCTGCCTGACACCCCGCCCTATCCAAGACAAACTCTTTTCCCCAAACCCCCATCAGTCTCTTCCTCTTCCTTAGATCCAGGCCCAGCCTGTCATGCTGTGGAGTTGATTTATTTTTCTTGTGGCCTTGCTCTCAGTGGGGCTAGAGAACAGCATGTCATCACCCTCTCTAAATACTACAACTCTGCAGAGAATTGATGAATGTGACTCATCACCCTCCATTCGCCAACTAGAGAATCCCCAGGCCTTTCTTTGTTGATATGAGTGTGATCATAATCATAAAAATAACAGTAACAATAATAATGGCAGCTCACAATTACCGAACACTTGTTATGTGCCAGATACT
0.4410681141867226 CCTAGTCAGGGTTTGCTCCCCACCCTCATGCTGCCACTGGCCCCACTGTGGTTGTCTGATGACTCACCTTTGTCTTCTGTTTGGCTGTGGGCTCTGTGAGAGTAGAGCCTGGGTCTGCCTGACTGTGTTTTGCCAGCACCCAGCATGAGTGTCTACCCTGTACCAGGCACTTGTAGAATCTTGTTTAGATATTTTGTTCTCCCCTGGAGATGGAAAAACACTCAATCTTCCCAAGTGTTAGACTGATTGCTGATGGGTCTTATTTTTCTCTCTGAGTTCTTTTAAGAGTCCTGGAAATGTGGACTGAGAACAGCTGTCGCATGTCAGTTCCGAAGTAGCCGCTTTTATCAGAAACGGTTTAGAGAGAGATTCCTAGTTGCACCTCCCGCCAAGGGCAGTGACCCCACTTTTCTCTCCCCTTGCAGGC
0.644303635976464 ATATTTTCCCTAAGACACACACACTTTCAGTTCCTTTAAAAAACTTTCCATGAAGCCTGAGCCAGGGAGGAAAGACAGATAAGACTGCTGTCCACCTCTATCTGCCTCCTGTCGTCCTTGCTTCCTTCACACATCCTCACCTCTAAGATTAAGAGAGAAGCTAATCAATATTTTTTAGAGTCTCTCAAATTAGAAGTGGCCACTTTCTGCAGCCTCTTCAGCAGTCCCAATATGGCTCTCGGTTGTTTCATGGGGTCATCAGTCTTAAAATAGAGTGAGACCTGGTGGTACAGGTTTGATAAATTTTGCTCGGTAAACTCAGCAGATTTACCTATCTACTGAAGGTAGACCATAATATTAGGCA
0.6842596895634924 GAAAAGCACTGGAAAGGAGCCCTGGCTCCTAGAAGCACCTCGTAAATGGGAGTGACGGTTCCTATTAACCAGAGCAAGAAGACCTGTCCCATGGCAGGAAAGCCTAAAAGTCTGATCACAGTGCGACACCAATAAGGTCTCAGGCTGCGGGTCCATCACGGTCAACTGATAATACTGAGTGTTCCTCTCAAACCACAAGTGTGTCTGTCACCATGCCAGAAATAAACTTACCTAACCTGCCCAGGCATTCACAAGAAGTATGTGTCAGCAAACTGTGTCCTATCTCTGGCCCATCCACAGACCCTTCTCCTACTGCCTCTCCCTGCTGCTGTTCCAGAGCTGCTATGCTGGATGGAAGCCATGGAGCAGACTCTGCCCAACCAGTCCCAGAACCCAGCCTGGAGAGGTGGGAGATTCCAATGAGACTCTGACT
0.1648022810633838 TTGCCTTATTTTTTAATGTATATCATTCTCTATTTACACATTGATAATTTTTTCCTACAGGGTAAAAAAAAAATGCACCAGATGCAGCACTTTTGTGTAAGTATAGACACATCAGGGCTCTTTGTTAAGGATAAGAAACAATCGCTTCCACTTCAGGCTCTAATGTTATCATAGCCAACTGCCAGAGCCGCTCTGTAATTACGTCTCCTGAGTGGAAAGCTCTCAAAATGCCACTTGGTCTAAGAGTTTGAAGCTGGGCTTGCCTCTCCACTTTGGCCAAGATGACTAAAGCATCACATATTTTTAAAGCAACTTTTAAGAAATGAGGTATAGTGAGTGATGACTAGCCAGCTTCTCGCTGCTCACACTGTAGCATT
0.02858741839254714 TTCCTCTCTCTGCCTCTACTGGGGAGCAGCCTCAGGGGAGTTGGGTGAGCAGGAACCATCCCCAGGGGGCTGCCAATCTCAAGCAGAAGGATACAGCCGAGTGTGGGAACTTGCAAAGTGGAGAAAGTCGTTTGGATCACTCCACCCGCAGAGTTGTCTTAAGCTTAAAGAGGAATTAGCCAAGAGCCCCAAGCTGATAAAGGCTGGCTGTTATTTCTTTTTTTAATCCCCTGAGTGTGGCCATTTGTTGCTAATGAGGTGAGGACAAAACATTACTTGTGGCTATCTTGCATAGGGCAAGTGCAGAGGCTCAGAATGGAATCTTATCTGCTTTCCTGCCCCTCCTACACCCCAGGGACCCATGGAGGGGCTCCAAAGTGGTTCTTGTCTGGAGGGCTTTAATGGCGCTTTTCTCCTATTCATCACGTTCATTTATTGAACTTAGCTCCAGCCTCCTAAGCTTTGAGCTGTCAACACTCTGAGATGAAGACAGTAGACAGCCTTCCGTGGGATTGAGGGGGATCCCTGTGGTTGCCCGGTGTCACCGACTGACCAGCAGGGCTCCGGCTTTGGAGTCAGGATAATCCAAGTGTATATTTGGCTCTGACACTTAACAAATCTGCAGCAAGTTCTCCACTCCTCTGAGTCTGTTTTCCCAGCTGTAAAAGGGAGCTAATAATAGCTCTTGCGGCTAGCGTTGGATCACCCAATAAACCTTGTAAGCATATGCTGAGGGCACACCCACACAGGCATGCACGAGAAGGAAGA
0.3316168630026 AAATCTTTTGAGTGGTCAAGATTGCCAGAAGAATTTATACAATGAAGCTCCTACATTTCCATCTGTTCCTTCTCTGTGTTGGTCCTCTTTCCACTTCTGCCACAGTAATAGCTTATTCTATTCTATTGTTTCCCTCTGTCTGCATTCTCTCACCCACTCAAACAGTGTTAACAGCCATGCATGGGTCTGTGGATATCTCCCAGGTCTAAAGCTTTGGCTGTGACCTGTCTGAACTCTAGACTCACATTCCAATTGTAGACTAGCACTGGGAGTTAAGCTTCTTAACTTTGCCCAGGGAGAGAACCTTCTAGGGACTTTTAGCTTTT
0.2062929041608949 GCATCTCTTTGTTGCCTGCTCTCTAATTAGCAAGTTCTAAAGACATCGCACTCAGAAAAGAGGAAAAGTAGCCTTGATTTTGTTCAAAACTTCACTCATATCGTCCCCTAAATGAACTTCTAAAAATGCTATCAAGCTACTACAGAAGCTGATGAAAGGAGAAAGTACACCGCCTGTTACAACAAGCTTCCCTAGAAGCACAAGCCCAGCCCTCTGACACAGGCTTTCAAAGGTTGCCAAGGTCTTCAGACACACGTTTTATCAGACACCTATTTACTCTGTGACCCTCTAGAGTGCCAGTCAAGTGCTGGTGGGTTGTAAGATACACAGTTTTATCACCACTTCCTAACGTGAAGAGAACCAGAACCAGAACACAGGAGGGGAAGAGAAGGAAGAAGACTGGAAGGGTGAAGAGCAATTTTTCCAAATCAGTCTAAGGGAGAATTGGGCCATAGCATTTTTTTTTTCACATGA
0.5472740441615683 GTGGAAGGAGTTGTCTTACCAAAGATTATTATTCTTTTTTTATTTCCTTCAGTTTAGTCACTGTACCACTGCTTGAAGCAGAAGCTGAAGTCAGAGGAATACCAAAGGCAAGGGCCACTTTGCAATGACAAAGAGATTCAAGTGGCAACTCTCCCTCTCTTGCTGACCCTGGCTGGGCCATGTGCCAGGAAAACACTCCTAGATCCTCACAATGACAACTGAGCCTGAATAGATGTTGAAAGCTTTCACTTATCCTATCATTCTGGATTGCAAGCTTCTGCTCTGAGTATGGATGGAAAGGACAGAATGATAAGTATAGCCAACAGCCTAAAACTTTTTGTTGCCTCAGTGCATATCTGTTTTTTAGCTGCATTACTTATTTTTTCATTTTTAATTCCTTTGTTTGTAGTGCCTCTTTTCTCATGGCAGTTTTGAAATA
0.9046117790934788 GAACTTATCAGTATCCAATATGCTATATATTTTATTTGTCTTGATTTATTCTCTCTCCTCCTCTAGAATATAATTTCCTTGAAGGGAAGGACTTTGGCTCTTTTTTCACTGTCATATCCCTAGTGCTTACAGTAGTGCCTCAAGTGGGTGCTCAAAAAACATGTCAAATGAATGAGGGCTGACAACAGGATCAAGGGCTGAGAACAGGAGCACTCCATTATGCTGGTGGCACCAGCCCAGCTGGACTGTAAGCGTAGGCCTTAAAGCACCTGAGATCCAGAAGCAGATGGTATCAGTGTAGATTAAAGGTAACAACTGGACAGAGAGATAGCAAAACAGCAAGTATT
0.7675806110528897 GAAACAAAAGAGGGGATTTTCAATGGGTTCATCAAGGTCATCCTTTCCATGTTCTAATGCTCCTGATTTCCCACCAGCAACATGGATTCCTGAAAAGGGGATTTCCTCACAAGCTACAGAAGTGTTGGGGTACTAGAGAGAGTAGATAATAAAGGTCAATATAATTGACCTCCCCAATTAACCAATCAATCCACTTAACCCTGAGCTTGGTTTCTTCTTTAATCTCAAGTACATGTCAGCCTTATAACACTCAAAAGTATTCCCTTGCTCATACACTTTTTTTGTTCACCACTCCATCCTGAGGACTTAGAATAATACCTAGTTCACAGCAGGCACTCAGTAAGTATGCAGTGAATGAATGATAAATAAATTAAGGAGTATAGAATCATTATTTCCAAAAACATTTGCTGAATGATAGCATTTGCCTGAATGTCTAATAAG
0.04804590553700527 TCAAGGCCACAAGGTTAACAGGAAATTTAAACTCAGGCAGGGAGGTCAGAAGGCCCACTTCTAGGTACCAAATTCCGTAAGCCTTGTGACCCGATTCCAGCGTGGCCTGTCTCCTGCACCTTCTCTCTGAGAGGCGCTGACAAGTGCTCAAAACCTGGCCCGTTTCCCTTTAATCCCGAGCCCTTCAAAGCACCTGAACCCTCCCATGTTGGCAACCTCTTATCACTCCCACTCAAGTGTGACTTAGTGTGTTTGTGTTCGGGTACCTTTCTCACAGTGGCTATATTATTATCAAATGGGGAAGTCAAAGGATGATGAATGGACGTTTCTCCACTGTGGACTGCACTAAGGGATTGCGACAGAGAATAGTAATAGTTGTAGTGATTTCTTTGTTAGTTACAATCTCTTCCTTTTTTTTC
0.4187647906023358 CCATATAGAGTTTGCCTTGTCTTATTCTGAGGATAAAAAAGTACATCTGTTAAACCTTATCTGTCACCAGTGCAATTCCCATGTGAGAAGTTACAGAAAGCTGCAAAGCAGCATTCCCCTCAGGGACAAAGTGGCTCAACTGGATCACAGTTTTCTTCAAAGTCCGCCTCTTGCAGGTGGCCAGGCCAGGAGTCTCCAGCCAGCTTTCACCCACCCTTCAATCAACAAATCCTGAGAGCCCACTCTGGGTCAAGTATGTGCTGACCTGGGGCGGCGGGGAACAGTGTGATCACGACAGGCAAGATTCTCCCGAACTCACTCTGGGAAATGTGATCTGAAAACCTTCCTGGTTTCATTTCTTGGATTTCTCACTGAGTAGCATTTTTCCTTCTCTAAAAACTCA
0.09655565811459589 ATTTCTACTTGAAGAAACAATTTTACAGTTTGGGGATGCTTTTGCAGCCCTGTTCAAAGAGGCTGTGGATTGGAATTCTCCATAAGGCCATTAATTATTGAATTTGCTTTACTGTAAAACAAAGGAGCTGCTTATAGGTGTCAGCTGTTGAAGGTGCAGAGTGACTTAGTAGCAGTATAAGTGCTCCTCCTAATCACAGGCAGACCTGTTAGCAGACACTCAGAAAAAAGGACAGGATACTGTCAGCACATTGCTTCAGGGAAGATGGGCAATTAGTGGCTTCAGATGTCACATAGCATTCTTCTCCTTTTGGTCTCCCAGGTGCTCTCTGTTGGGCAATCAGAGATTTTAGTTATGACTCTAGAAACAAGTCCCAGTGAGAGAATTTTGGGCTTTGCACTTGCCAAATGGTGAGATGAGTGGTGCCAGAGAGTTT
0.4051899891986029 TCACACACACACATGCACACACACACACACAATCTGCACTTTAACTCCATCGGGGGAAGTCCCAAATGTATTATCTAGGCAGTGTGAGAAGACTGGCTAGATATTTATGTTCCAGGGACTTGTGAAACAAACCTCTTACAGCATGGTGTTGCTCTACAGCCACTCTAACTTGTCATCTCGTTTGGCCAAGTTACAGAACAGTTTCTAGGACCGGGGTTAATACTTCCACCTCCTCAATTGTCTGTGTCTGTTCTCACAGATATTTTTCTCATCAGGCTATTGAAATGCTTCCCTTCAGTTAAGGCAAGAACAGGTCTCCTGCCAGGGAACACGAGAATCCAAAAAGCTGGTTGCTGCCTCAATATC
0.923187494103179 ATTCCTCATGGACTTGCCTGCACTTGAACTGTCAGTCCTTCCTGGGAAAATGGTTTCTCTGGGGGGGGGTACAGATGTGTCCACAGCACCATTCCCCATGGCCAAGTGCCAAGTGACGAAAGTGTCGGGCCTTTTGAAATTGTCAGAGAAACTGATTTTCTTGTCAAGTCTCATCCTGTACAGTTGGAGGGCCAAATTCTACTTTCATGTTAGCTGCCACAGAGATCAAAGGCTGCTGACAAGGAGCTGAAGGGTTTGTGCCTGGTCTGCTTCAACCTTTCCTCAGTCCAGCATGGGGAATGCTCTTGGCTTTCGGCTTTCTTGAACTCTTATCGATCCTCCTTTGTGGGCCAACAGATGAAGGGCCTGGGAAATAATTTGAGGGATCTAACTCAGAGAGAACATTCTTACATATGCAGCGTGAGGGAGGTGAGAAACGAGAGAAGACAAGGTGAGGTATGCACAGAGCCATCCTTTGCCTCAGAAAATTCAGGCATACTAAAATAA
1 AGCTGTTATATAAATAGAGTGTCCTTTAAAAAATGATGGTAGAATTAGATTGCTAAATCAGATATAAAACTAAAGAACAGATTACGGTTCTATGGAGCAATGTACTTATCATCTGGGTCTAGGCTCTATCCTGGTCAGAAATTATTTGCATCTCTATGGGATAAAAGTAACAGGCACTCCATCACCCTCAGCAAACTGACAAAGGACCAGATAACGAAACACCACATGTTCTCACTTATGAGTGGGAGCTGAACAATGAGAACACATGGACACAGGGAGGTAATGACACACACTGGGGCCTGCTGGGAGGCAGGGTTGTGGGAGAGAGAGGATTAGGAAAAATAGTTAATCCATGCTGGGCTT
0.4403810902140214 TCTTTACTTGGTAGTTTATTGCTACCACAGTACTCAGGTTCAAGTTAAACAAAATTACTTCCTTTTCCTTTTTCCCATACTGTAACCAATGAGAGAGCTGATAATACACCTCCATTCTTTCTGAGTGTCCACTGTGCACACAGTTCTGTAGTGGGATGCCAAAGCTTTTATGGGACCCTCAATGGACAGGAAAACAAAGTGCTCACATGGGATCTAACAGATGCCCACTTGAGTAATAGGAAAAGTCTGTCTGTCTTCCAGGGCTAACAGCTCATCATGTGAGGCACACAGAGCCCTGTCTTCCTTCTTCTTGTCAACAGCAGAGTAAATGAGTTGTACAATAGATCCAGTTCAACAAGGAGCCTGGACCTGGCACCCCCTTTCACCTTAACAGACTACAAG
0.1898932289013832 GAGCGATGCTCTGTGCTATATTAGAACATTCCAGCGCCAAGGGAATAAACAGATTGTGTTTGACGACATGCAAGTAATCCCCTCCAAAGTGCTCCCCTCCCACACACACATTTGTCCTGTGCCACTTGCTGTAGCTCCCTTTTTGAGATTGAGATTGCCTTCAAGTGGGTTGTGGTGACAGACTGGAGGGCTTCAGAGGTGTCAGATCTCTTTCCTTGCATGGTTTATTTTATTTTGGAGGAACAGCCAGAAGTCACAAAGTGCCAGTTGGGCCAGTATGACCGGGATGGTTTTTGCCCACCAAGAAGTACCGGATGGCGATGACACCCTCCCATTGCGTGCTACTCAAAACCTGTCATTCTTGGAGAGTTGCGCAGCTCCCTTAACTCAAGTGGTGCTCAGGGCCCTTGGCCAGGGCTTAACCTGGGTATGAGGGAGAGTTGCTACAGGGAGCCTCACCCACAGACGTTCCTCT
0.04273717598098846 GCCTTTCAGAAGTTCACTCCAATTACAAAAAAGTTTAAATCCCCTACAAACAGCCATGTGTTAACTTTTAACAGTACCCAGTTATTTGGGATAAAACTCATAACTGCTTGAAACCCAAAATGCTGGAGGCACCAGCCACTGCTGACAGCCGAGAGAGAGTGTTGAAAAGCTTTGAGCAGGAGAGTGATGCAGTGGTGTCGGATTTCACAAAAAGCATTCAGGCAGCAGCTGAACACCACCATTTCTGTGACTGAACTGATGCCCTTTCTGGGGGGCAGCCATGTGCTTTGGCCATTGAAAACACAGAGGGTGTG
0.860167394171192 CACAGAGAGGGCACGTGAGACCTGGTGTGCCTACCTCTAGTCTAGGCACTTCAAATCTGTAGAAAAGACAAACTTGCCACCTAGCTTGTACATTGGTTAACAGAATGAGCTACAATCTCATCTTGGGCTGTTTTGTCAAGAGTACAAAGCCATGTACTAGATGAGTGGCTCTCACACCTGTCTGCACATTTAGAATCACCTGGGAATTTAAAAGAAAATGCCGATGTCTGGGCCAGACTCCATACCCATTAAATCACAATTTGGGGGTGGGGAATGGGCACAGGAAATCAGTGCTTTTACAATGTCCCTAGGTTTTTC
0.486688840412509 ATATTTCTTTAAATCATATTCCATTTACGTGTCATTAAAGATTAGTGGGCAGTAGTATTGTTAAAGCTTATGCTTATTCTTTTAAAACTGTAATTGAATAGATTACTACTGCTGCCTTCTCTTTATTCTCAGATAAATAAGAGGACCTAGTCATCACGCGACACTCTTCACCTGACAGCAATAGAGGACACACACATAGGACAGAAGGAGGACCTAGTCATCACGTGACACTCTTCACCTCCTAGTCAAGGAGGACCTAGTCATCACGCGACACTCTTCACCTGACAGCAATAGAGGACACACACATAGGACAGAAATGAACCACCCATGGAGCACTGACATTATGATCCTCACATAACATAATGGAACAATCAATGGCTTGCAGGTGGGCAGAGTCATCAGCGAGGTACACACACGGGTGCCATTTTGTGTCCAAAGGCAAG
0.6199851978445242 AATTTATTGGTTTAAAAAAAGGCCAATGATAACCGAAGAATTGTGAAATTTTCTTAGTTGTTATTTAAAAAATCCAAGTATTTGGCATCCTTCAAATGATAAAAGCATGTAGCAAAGTTTAAAAGACTATTGTCCTTTGTAAGCCTATCCACAAGGCCAAGAAGGCCTTTGAACTCTTGAGAGGACTGTACTTGGCTGATAATTCTTTGGAGATATGAGCTGATGGATGTGCTGAAACCTCCTCAAGAACCATTTCCCTCCACCAGCCAGGAGTCAGGGAATAGTAGAGCTGAGCAAGGCAACCTTGGCAAAGACAGGAAAGTCACCCTGGATGCTCAGTTCAAGAGGAGGTCAAGAGCTGTGCAGCGAACACCACTCCATTATAATCTATTTGTGGAAAGCATAATGTGTATTTTTGTTAAAGGACAATCATACACTGAGGAGAATTAAGTTGGCAGTCTGGTGTTTAAAGGATCAGTATGATAGACAAATAGAGTAAGTGTGAGGGGAAATTTTCAGCAACAAAAAAAAATGACT
0.8861060887970884 GCTCCATTTTGATAAATGGAGGAAAACAGCCTCTTAGTAGAATATACTGGGTTACACAGTCTGATTGAATCTGCTATTGTGTTTAGAAGTCAACAGTCAAATCAGATCTGTTAGGAGCCTGCCGTATCGTTTCCCTCTATAAACAGGTCGCTCATGTCAACACCTATGAGTGGGTGTCTGTGCATGGAGAACATGCCGGTGCTTTGCAACTGCCTGCCATCCTCGGTAAAAGCAGCCACAGAAAGACTCACCTAGTTCTTTCCTGTATTCCTTTATGTCTTATTTTTCAACAGAAAGTGAAAAGAAGGAATAAAGAT
0.1183444901237914 GATGGCTCCCAAGACTCACTTTTAAATTTTGTAACACTGGTCCAGGCCTCCTGGTTTGCTCAATTATCTTCTCATTGTGTTTCCTTTTTATCAATCAACGCTAGGCAGGGCCAGGGCATGTCTGCTCTCAGCCGGCCCTGTCTAGCTGCCACAGCGCTTGCCTAAACCCCTGACATGCCCTTGACAGCTCCACGGTTATCATCCTTTCTGTCTCCAGCCTGACCTCCCCTCATAACCACACTTGAGCAGCTCTCAGACAATCCTTTTGTAATGTAAACCACTCACTCCTCCTTTTCAACCCCTTCCCCTGTTGGCCCATTAGCAGGGACTCAATTGTTGGCTCCCTGTCACCACAATCACAGTTAAGTCACTATTGTGCTTCTCCCAACGGAATGGCTGCAGTTCCAACTATTTAAAATTATTATTAATAATTCCTGTAGT
0.2053744964608392 GCAAGGTATCCACAGCCTTCCCCAAGAGAGATTGGCAGTCACTTTTATGCCCGCCAGGGTCTGTGTCATGCTTTCAGCACAACCCTCCACTTATTCCGTCATGTAGCATATTAGGGATTCCCTCCTCTCGAACTTATCTCCTCTCAAGTGTCTATACAAGCTAAGAAGACTTACTCAGGAGTGGGGTCATGGTGTCTCTTCACTGAGTGACAGATTCTTCTTTCTCAGCTCCTTTGAAATAGATAAGAGCTAGTAGTACTGACTCAATTTATAAGATGGCAAAAAACTAAGTAAATAAAACCATGCCAAATCAAAAACAAAAAT
0.2282636199009865 GAGCACTGATTCTGAGCCCTTGCATACCTCAACCCGTAATAATAAGAGAAAGTTCCTGTATACATTCCTTGCAGAGTGTGATTTGAGAAAAAGCAGGGGGATGAAATTCAGGTTCTAGTCTTTAATGACTTGAACACAGATGTTGCTGTTGACAGGCGGAGATATGTTGAGTGTTGTTTCTCCATTTGCTTAGCAAGATTTGACATGTGGTGAGCCAGAATAGAAATCTGAAGAGTTGAATCAAGATGTGTTGAGAGAACTTTGGGTGTAAGAAGTGATAAAAGAAGCAGGTCTGGATATACAACATTAGGTGGCAGATGGAAACTTTTTCAAAAAATATCTTTCCAGGATTGCCTGCTTGGATAAACTGATTG
0.4881362926642508 TTACGGCCCCCTCCCAACTTCTCCCATCTTCTCCCACCATCCTCCAGCAGATGCCTCCCAGGCCTCTCCCGCCACCCACACCCTGGCCTCTCAGCTGAGCTTGGCGGTCATCTTGGCCCACCACAGCCAAACCTCTTAAAAGAGCTGTCTGCACTCTCTCCTTCCACATCCTCCCCACCCTCCCGCCTTGTTCCTCTTTAACCCTGGCAGCCGCCCCAGCTCGGCTAAACTGATCTGGCAAATGTCACCTTGTTGTGAAATGCCACGAGGGACTCCTCGGCCTTATCTGCCTGGTTGACATTGTCGGCAGCTTCTTGACACGCTCTTGCCCTGTCCAGGCTTCCTTGCCCCTTCCCTGGAGGTTGTTGTCCTCCTGCCCTGGCCGTGCTGTTCCTGCCCAGTGCTGTGATGCTGGTGTT
0.5146760995677599 GATCTCACAGGAGTGGATAGGCAAGCTGGATCTGTGAGCAGCTACAAATAGAAGCACAAGACAAAGTAATCTATAGGCTGGCACTCACATTCATTTACTAAATAAGGTCGTGAGCAATATTAGGCACATTTTTCTGACACCTTTCCCAGTTGACTAGAAGTTGAGTGCATTTAGTAAAGGAAGTACACAGTGAACTGTTGTTAGTATTTATCAGGAAACGTGATGAGTGGCCCTGAAATAGAGCATCTTACCATCCAAATTTCTCAGTAGCCTTAATAAAGAATAGTCAGTAGCCTTAGTGCAGACTAGCTGGAGTAGATCTAAGCAGTA
1 ACTTGTTTTTAAAATTTTATATATATATATTTTTTCATACATATATATACACATGTAGAGACACATGCTGAAGGTTTCCCACTGCTGTCTAATTTCCAAGTTACTTGTGTGTCAACAGGTGCTTTTGACAGCCTTATCAGACCACTGTAGGATCCACTCATGGACGTCCCAAGCTGGAGCTTGACGGGACAGCTAGTCTCCATGGGAACAACTGTGACATCATGGTCACTAACTGTGGACCTAGTAAGTGATCCTGGCAGGAGAAAGCTGTTAGTGACAATGGAGGAGAAGGCTTCTGTCGTCACACAAATGCGTTT
1 TTTCTCCATGTTAGCCAGGCTGGTCTTGAACTCCTGATCTCCATTGATCCGCCCGCCTCAGCCTCCCAAAGTCTTGGGACTACAGGCGTGAGCCACTGCATCTGGCCTTTATCATTATTCTAGAATGTACTCCTTCTGCCTCAGGCAGGTCCTCCAGGAGGTGTCCAGAAACAGCACTGTTATCACAGGAGATGACAGCTACATGCTTGTCCTTCCAGTGGAACAAGATGTGGAGGTGGAAGACAGTGATATTGATGATTCCCGACCCTGTGCAGGCCTAGGATAATGTATGTGTTTGTTTCTTCTTGTTAAAAAACAAGAAGGTTTAAAAGGTTAAAATTTTTTTTAATAATTTAAAAATA
0.4810338358392977 CGATGGCCTGGGCTGTGTGAGGAGCGCAGAGGCCCAGGTTCTTCCTGTGCCTTTGCTTTGCTTATCTCCCACCCTACACGGGCCTGTGAGTGACAGGCCGAGGTCAGCCCAGGCCCTTCTCCTTGGGGCCCCTTTGACATCACGGCAGCATTTAACATTCCTCTCTGAGAGGCTGCTGATGGGCAAATATGTTAAGAATCTGCCCAGAGCCAGCAGGGTTCATGCAACTAATGGTTCGGAGGAAAGGAAAGGGTCCTTTGGAGAACGGCACCTGCCAGCTGGGCTCCAGGAGGGATCCCAGGGCGGAGGAAGGTCCTTAGAGGCCCAGAGCCCTGAGGCCACACACATCAGAGTCACAATAAAAAGCAAGACCAAGACAGAAAGGAATGTGAGACCACTCAGCAAAG
0.157618140836656 AATTCCTCCAACTCGTCTGTTCAGGTTGACTTTCTGGAAAAGTGTTTTATTCTCAGAGGATTTGATTATTGAGTTATCTTTCTATTCTGCTGCTGTCAGTAGATTTGCCATAAATGTTTCCTGAGAGTCTCTCTCTTGAAGAGATTCAGGCCCCAGTTAAGTTCATCCCAATTAAAAATAGAACCCTGAGATGCAGCAGCTGTAGCACCTCTTAAACCTCTTCAAATAACATTGAACGATTAAGTGGCTGCTACTGTGGAGATAGTGCCCACAAAACCAGCAGCAGGCCCTCTCGGAAAATGATAACACTCTAAGTGGCTGTCAGTCCTTAGTCATTTCTAGTCATTCAGGGGATGTTGCCTTATCTTCTACAAGTTCTAAAAGTTCCTGGGAAGAGAAGAATCACATAAATTCTTTATTTAAAAAAATCCCCCTTCCCACAGCAAAATTCTCTAAAACAATAC
0.1120672682951183 GGATAGGCACATTACTATGTACCACAGGGCAGGCCAGGCTGCAGGAGGAGCTTGCAGTCCTGGAGGCTTCTGGCTCTCCTCTCACCCCGCTGCCCGCCCCTCAGTGATTAGTTGGAATCCAAGACAGCAATACAAGATGTGTCGTTGGTGGGAGTGATGGAGTGCCTGCTGAGTGGGCCGCAGATAAGCACCGTGATTTCGGAGGACGCTTCATCATTTCGCCGTAAGAACATGTTAACGGGTGATTGTTTGAATGTCTCCAGCTAATAGGATATTATTCATAACACTCTGGCTAGTTGGAATGGAAGATGATAAGAAATTAAATCCTTAATGGCTTTCTTTAAGGGAGGAC
0.9295999092799727 TGGAATAATAATAGTGCAACTGCCTTACAAACAACCATTCTAGAACGTTCCCCTAAATGAATGAAGTCCTTTTGAGGAGTCACCTTGGGAGGCCTCCAGTCACACTCCCATAGCAGCATCACTAACAAGTCAGGCTGCTCTTTCTGGCTGAGCTGGATGTGGTGACAGGATTCTCCACAGGATGCTGGAGGCACTCTAAAGGTCACTCTAGCCTGACCTATGGAGCTGGCAGGCAGATGAAACCTTTTGGCCATCCCTGAGCCATGCGCTTATTCTTGTTTGAAACTCTATCCCTCCTGGCACCAAAACTAGTTTGTAGGCTGCTTACAGAAAACTCAGCTAT
0.3888153516231478 GTCACCAGCATTTCTGCTGTCGCCTCCACCCTGTCTTTCTGTTTCCCTTCTGGTCTCTTTTTCTCACAGCGTGCAGATAACTGTTGTAGCAGAACTCAGGTAATGCCCCTCCTGTACTCAAAACTCCCTCAGTGTTTCCCGTCGATTTGGAATTCAGTTCAAGTCCTCTGCCTTGCAGGACCTGGCTGTCACCACCCTCTCCAGAGTGATATTTCAGGCTTTCCTCCTCTCCCCCTGCGGCAGCCCCACTGGCCTTGAGTTATTTGAACACACAAAGCTTGCTCTTCCTCCAAGCCTTGCCCCAGACCTTTGCAGGACTGCCTCGCCCTCTTCATTTGGGTCCACTG
0.1223494701871362 AGGCAAACTAAAAGAAGACAGGAGGCAGGGAAGTTGAGAGGGGTCTCAGAAAGTTACTAGCAGGCATTCTCTGATTCTGTTTTTCTTTGCAGGTTTGTGATTGGTGACTTCACAGAAGGTTTTCAGGCACATGCTGAGAAGTCTAATTAAGAGAGTTATCTCCATTTGTGCAGGCTTGAGGGGGTACTTCAATCAAGTAGAACCTGTTGAAGTGTGAATAGGACGAGCAGGGGAAGTTGAAGTGTCATCAGGAGAAATAAGTTGGCTGTCGACCAAGAAGTGTCACAGGACAACTTTACTCTAGCAAAAATGTCTCCAGTTTCGTAAGAAGAG
0.03517198691638076 CCAGGAGACTCTGTGGGACCACACCTTCAACAAGACTAGTGGCCTCCCTACTTCTACCCTTGGCCCAACCCCCAGTGAGGTCCCAGGCCAGGAAATTCTTGTAGCAGATTCAACAGATCACTCTGCAGCTAAACAGACAGACACAACACTCTGTCCCAACCAAGAAGGTGCCGAGTGAGAGGAAACAGTCATCTGCTGCTCCAGCTGGCGAGAAGAGAGTGGAAGAGGGCGCTGAAAGCTCACATCCTAGTCTAATCCCAGCTCTCCCCCTCCTCATCCGGACCCCATCTGCAGGCTGTTTTTCATCCCACTTCCGTCAGTGTTTCAGCTGCTGTCAGTCAGTAGCTGACCCTGCCTGAATATGCCGTCTTGTCAGACAGATGGCTAG
1 CACTTAGCCTTGTGACACTATAACTCCCAATTTTTGGAAGTGACTCATAACGTCTGCTTATACTTCTCATTCAGTGTCATGGTTGGGTCCCTGTTGGCTTTTGATTTTAAGTGCCCGACTTGTAATCCGCTCAGCCTGAGAGAGAACTTAGAAATCGGAAGTATTTTATGTTCCAGGCTGTAGACCTTATGAGGTGATGACAGTGTTCTATAGGGATATCTGTTCTGCTTTTCCTATTGAAATCAGTGAAGGAACTGGAGCAGAGTGCTTAACAAGGGCAGAGAGCAAATGAAACTGCCTTGTGATAAAGCTGAGAATGTGATGATGGCGTGTATCAGCACAGCTCAAGGAGGGGACTGGCTAAAAAGCAGGTTGGAGAAAGAGGGAGGAAGTGAAGGTTTCTACACATATCCAAGCAAGAGAGAAAGCCAAAGGTGCCAAGAAAACCATATATATATTACATTATCAATTATATATATATGCATATATATAATTAATTTGAATAGCCCAAAGGTGTATGTTTTTAATAGGAGTGAGTGGGGGCCATTTAAAATGG
0.2991198958456484 ATGTGTGCATGTGCACAGTGATAGTGTATGGCAAAGTAATCACTTCTTTTCCTTATCCTGAAATGTCCTGCATGTTTATATATCAGGCATAAGGTTGGACTGACTGTAAATGGATGATCTGGCTTAATCTCACTACAACACTGTAAGTGGGATTAACCCCACTCAAAGATGATAACCTGTGGTTTAAAGATCAGTAACTTGTCAAAGATAACATGAGCCCTGGTAGGTGAGAGAGACATATCTCAGTCTAGGCTGTCTCAGCCCCAAAGCCCATCCTCTTAGCTAGGATCTCTGAACTATCACTTATTCCACACCCTCTTCAATGATTTTTGCATATCCATGA
0.356073966096781 GTTGTTTGGTTATGATACACTGAACTCAAATGCCATTTCCTCTAGGAAGCCTTTCTTCAACTCCTCATCTAAATTTGGTGTCCCAGTCCCCACATTCCAGGCCCCCAGTGGTTTTTGTCCTAGCTCTTGTCATACTTTGTAATTACAGGAATCTATGAGTATCTGTTGACTGCCCGTCTCTCTCACTGACTGACTCACTCACTGAAGCTGGGGGCAGCCTCTGTTTGGATAACCACGTAGCTCCAGTGTCTGACACAGCCCCTGTTTCAACAGGAGATGTTCATTATGTGTGAAGAAGGAAGGGAGTGGAAAAGGAGCAAATGAAGAAAAGAGTA
0.2262772661634708 CAAAGGTGGCTGAAGCTTCAATCAGCCCAGGGCAGAATGAGGGCAAAGAGCCCCTAGTAAACTGCTGCAGGTGGAGGCACTGGTTTCAACCACGGTCCCTTCCCAAAACAACTTGTCATCACTTCTGTCTAAGCTCAGTGTGCTTCCAGGGGGTGTGACCCCTGGAGATAAGGTATTTCATCAAGTCAGCCTTGTTGGTGCCCTCATACTCTAGGGCCTGTTATCACACACAGTTGCCCTTTTGGTCTCTGAATGAGTGACCTCTTCCCTAGCCGCTCACCATCTCTTCCTTTCCCTAGCCGTTCACCATCTCTTCCTCCTCTGGCTTGTGTCACAGACCCTGTGGAGGAGTCCATCTTCCTGACAGCCTATCAGGCATTCTTGGTTCCTCTCCTGCCCACGACAGGATGCCAGTGCAAGCTATAACCTTATCTTCTTAAAGCTTATCTCTGTTTTTATCTTCTCTGTCTCCCTGGTCCCTTTAAGTCCACCCACCCATGTACTCTAAGTCCAGGATCTTCACTCTGGTGTATTAAGGGTAGTCCCAAACTCACCCTTGTGGAGGGGAAGGAATTGCTTTTACAGGGCTCTTCCAGAAATGTTCTTATCATATCCAGGGATCATCCCAGAGGACCTACTAAAACAATGCCACGTCAACCAGGGCAGGTGGACAATCACTCAGGATAAGTTCTTGGACTGAGAGGGAAACCCACAGAACAGCAATGCCTGCATGAGAGGCAAGGACCTGTGGGTGGGGCGGGGCTCAGCCAGGGTCCTTCTCCCCACTCTCTTCAACCAGAGCTGCTGCACTCTTATCTGCTTCATGTTGGGGTTCCCAGGAAGGAGTCATTTTTAAAAACAGGTGAGGAAGGTGTAGGTGTGTGTGTATGTGTGTATCACTATTCTGACTTCCAGCTTTCCTGACAAGAAGACAGCTTGGTGTAAATGGGAGTAAAGAGGGTAAAAAATGAACGACTCAGTTCTGCAATTACCCATATGCAGATCAACTGTCAAACAAACTATTTCTGTATCTGTGACTGCCTTTCTTCTGCCCTCGCCAACACCTAGCACAGTACCCAAATCCTCTCCAACCCAGACAGTTGCTGACAGAAAGGCCTCTGGGACTGTCAACACCCCAGTGTGATTCAGAGCTCCCAGGGAGTCTGAGGCAGTCCCCTTGTTTATGGATTCACTGATTGATTGGGCCCTAAAAGCTCCTGGCCCAGAAGACTAAATGGGTTGTAATCAATCATTAACAATAGTGTTGATGTTAAAAATTGGGAGATGCACCGGGTCTTTGGCCATGTGGATAAGCTGGGTGAT
0.1155274755057818 TCCCATGTTTGTCTTCACCCAAAGTCCGGAGGCGGCTGAAGTGGCAGGGGACTTGTGTGTCAGTGCTGCCCTGAGCGTGCACACATCCGGCTGGGTTGCAATAGTTCCCAGGCTCATCCTCAACTTTGCTCCATGATCTGAGTGGGTGCTGACAGCAGGGAGAGGCCAGGGAGCTGGAGCAGACACCTCTGAGCCTGTGGGAGTAAGGGGGGCCCAGGGAGTGCAGAGATGTCTGCATCTGCAGCTGCAATTTGGGTGGCTGCAGCCATGCCCAGAAGGGTGGGACTCCTGCCT
0.6042979792027701 AATAATCTCCATTCCAGACATTTTAACCCACTTGAAAGGGGTAATACTTACCCCCCAAAACCTAAAGGGTGACTGTTTTGAGCATGAGGTGTGGGGAATAGAGATTAGCGTGAGAGGGAGGAAAGTGTTAAAATAGAAAGAGGCAGAGAGGAAATGAAATAACCTTCCTACCTCTTATCCTTGAGTGCTTTCAAGAGCCTGTCTGGGGCCAGGAGCCCCAGGAAACACCAAGGCTGTTTCTTGCCTTCACCTTTGGGCTGTTTTTTACTGCCATTCATTAAGAAAATCTTTTCCATCAGCCTTATCATCCTTTTCTTGGCTCTTGGTCAGGTTGAGTCAGACGTGGAACATTTACTTTCACAAAGACTAACCAATCTTTTGTCTAGACGCAGATGTCTTCCACCAAAGCTTGTTGATCAGGGTCATGAAAGAGGCTGGTAAACACGTAGGCCCTTTTGTGTAACTGAACACTGTGGGGGGAAGACTGAGGACAGAGGAAATGGAGAAAATGGGGGGAGCTAGGAAT
0.198802536267043 TTTAACATCTATCCATGCTCTTTAGGTTTTATTTTAGGGGTACTTTAGAATCTATTGAGGATTAAGTTCTTGACTTTTTTCTCTACTCAGTCTGCTGCTAACAACTGCAGGGCCCTACTGCAATCCATAAAACTAGCTCTTTGAGAGGCCATGAATACTGTTAACATTAAGTGACATTCACATTAATGCTCATAAGTGAAGGGAGAGAAGTGCTCCAACACATGCTGGAGATTAACAAGGCAGTCAAATACCTCTAATCTGATAGTGCTGAGAATAAACCAAGTGTACTGTAATGCTGTCATTTAGCACCCTTCAAAATCAGTTAGAGAAGAGAAGCAACAACTATTTTGAGGGTGGCTCTCAAGAAGGTCCCAGAATAGTATCACCCTCCTCCAAACCCCCAAGTGAAAAGGACTATTAAAAGAGGTAATGAGTACACAAAGACTCCATGAGAGCAATGACTAAGATTATTCACCACTGATCCCCACTTACCTTAGCACCACAACTTATATTATAGAAGGTATACAATAATAATGATAATTATTATTATTACTATTATTTTGAGACAGGGTCTCATTGTCACCCAGGCTGGAGTGCAGTGG
0.647380063615847 TTGGGAATATTGCTTAAAGGATGTGGCAAACTCCACCCACAAATAAATATGGGCACAACTAGTAGTAAAACAAAAAACTGTAAAGGAAAGTGTCGTAGGTATTAGAAGAAAGAGACAAGTTGCTATTTATAAGGTGCTCCAGTGTGAAAATCCTTTCAACAACACTCTGCCCTTTTTTCTGCTTGAGTGTGTGCTGACAAGCAGCTAACCAACTTTTCAGGCACCCATTCTTTATATCAAGTTGAAATGTGTCTTTCCATAAGAGTTTTTTTTTACCTTGTTCTTCTTTATAAAGCAGCATACATTAAATAGTTTTATTCAGATTTTTCCATATACCAAAT
0.127526194782919 CATACTTACAGAAAAGAGAAGTGTAAAGCAGGTCAATCTACTGCTAAGGGATTTCAGCCCAGCAAATGCACACATTAAGAATAATGCCAGAATGTAGAAAAGTGGCTTTATCTTTCAGTAGCGGTGGACTGTTCGCACACACTCAACAGTTAACAAGCTCCGCTCTGAAGTTATTCTAGACCTTATCTTTGGAAATAATGCAGGCATGATAAATAAGGTTGGAGTAGAAAAGCACTAAAGATGCAATCATAATGTCATCAGGTTTGAATTGCCGATGAAGATCTGTGGGAAGAGTACTAACACAAAAATATGGGGCTTGAGAAAAGCAGACCTTGAAGGAATACAAAATGAGTTTTGAACTTG
0.5594851882059697 GTCACCAAATATAGCACTCAATCATGACTCTCAAGAGTTATTGTATTAATACCCCAGCAGCCTCCCACCTTGGTTGGGATCATTTTGAGCTTTGCACTTACCCCAGTTTTCCTGTGGCTTTGTGACTCCACCTTCTCTTCCCTGTACAACATGCCTTTCTTTTCTGGAGTTGCCTGCACTTCTTAATTTCATTTAAATCCTCTTGGCATCTGAATCTGAAACAACTCACACTAAGACTCATTAAATCCAATGGCTATATCACAACATGAGCAAGGGAAGCGCTCACAAACAGATACACTGCAAAGGCACTGGTTATTTAAAAAGTCTTATCTCTACCACACTCAGGCCCTCAAGAGGCCACTTGAACAGGCAGGACACAGTCTCATATTACTGACTGTCCATGCCATTTAGCCCACCTAACATGCTTTCCTCCATCTTCTCAGCCCATCTGCATCTAATTCCTTCCTAGAAGCTACATTGAAACCTAACCACGCTGTTCTCTAGGATAGTGG
0.9236613451447437 CTTCAATTCTTGTGTTCTTGGTAATTTTCTGTTTTCCCAAACAGAGAGTAAGATTTTAGTCTCATGACTTTGGCTGATGTCAGTGGGGCTGAAGTTTCTAAATCACCCACGCACAGCTCTAAAACTGTCACTGTGAATTGAGTCCAGGACAACTTGGAAACAAGTTGAGTGTTTTTCAAGTAGGTACTTCAGCATGTTAAGGAGATGTCCATGCAAACTATCACTAAGAGAAAACTCATGACCATAATATAGAGCGTGTTAAACTTCCAGCTGGGTTGTGGGTTTGGGGACATGTTTCAATTAATTAAAAGTGAATTTATGTGAAAAGTTCTTT
0.6650906398800187 CCTTGCACCGCAACAGTCTAAATTTACCCATGTCTTGGTTTTCTCTCCGACAGTAGGTGCTGCTCCCACTGCTGACTCATCTATTTCATGACAAGAAGTCTAAGGACTTAGTGACACAGCTCTTTAGCAGATCTGAAGTGGAGAGCAGCCTCAGAATGGCTGTGCTGCCCAAGGCCTCACCTCTGTGACAGACCCTGTGGAGCCCATCAGCCTCGAGTGCAGCAATCCATCAATCCATCAGCACGGGGGAGATGTTGTGTGTACTCCTCCTGCCACTCACCGGCCGGCGGGCCCTCTGGCGCTCATCTCCCTGCTTTCCCAAGGCTGCACATTTCTGAAGAGCACCTTGGAAATGGAGCCGCGGTTTCCCCTAATCTTGACCCCAAAGAAAAGATGATCTTGACCTACATTGGAACCCGCCCCTCTGCCTGCCACTGGCCGGGGGCAGCCCATGCCGGTGCAGCCTCGGAAGGGCAGGGAGATGAGAGCCAGAAGGCCTGCCAGTGAGTGACAGGTGGAGGGCACATGACACCTCTCCGGTGCTGATGTATTGCTGCACTGTAGTGTGATGGGTTCCACAGTTACAGAGATGTGGCCTTGGGCAGCACAGCCATTCTG
0.08117884056111954 TGGGAGACAAATGCACCATCAGGGAGGGCAAATCATACCTGGGAAGGGCCTGACTCCAGCAGTTTCAGCAGTGGCTGAAAGATCATGGCTATTTTTGCCATCATTACAATGGAATGTCCACTCCCTCCAGCCACCTCCACAGCAATCAACACCGGTGTCCAGCCACTCTACATGGACGTGTGGGGAACAGAGCACAGGCCTCTTGGCTTGGCTGTGGTCACCGGGAGGGAGCAGGGAGGGACAGCTGCCAAGAGGATGGGGGAGGGAGCCTGCTACTCAGGAACGCTGGGGCAAGACATGAGACAAAGGGCT
0.6459137784995326 TCGGGCACAGGTATTCTTTTCATTCTCTCCATCATTCCCCAAAGCACAGGGTCAAGAGCCCCTGCCCTTGGACAAGCAGTTTGCCCTGCAGCCAGCTTTTAAAATAACTTGTCTTTTCTCTTGTGGAGCAAGAGGACCTTTCTAAGCACCCAGCTCCAGGAAGCAATAGACACGTCCCTGCACTCATGACGGGTGTTGGGCATGGAGGTGGTGACACATGGCTTCCTGGTGTGATAGCGGGTGTGTCAGAGACAGACGCCATCTGGAGTAGAGGGGAGGGGGGCTGAGATTGAGCTGGCCACACCCGGTCCCTTCAGCACCTACTCCCATCCAGGGACACTTCTAGGGCCTCTCTGTCCCAGTCTCCTCAAATCTGTCTTTCTGGGGGGACACTCCCCCTGACGCTAACACACAAATTAAGCCTTTGAGGATGAGGTCATCTTCTTGAT
0.1018011606748972 ATTTCAATGAGCAGGAACCAGTCTTTCTCTTGTACAGTTTCAGTCATCGCCCTCACTGTCCCATCTCTTGCCTCCTCCCTTTAGGATGTCTGTGGGCACTGAAGTTTTCTCTTCAGACTGGATATGAGCCAGCATCCCAGCACTTTGTGAGTTGAGTGTCAGGACAAGGTGCGACTTGATTCTCCCAGAAATCTTTCTTGTTTTAGAGATAGCCTCCTGGGCCAGGGACTCTTAAGGACCAAAGTTCAATTCCCACCACTCCCCATTACACTGGGAACTTCAGAATGTGTGAGTTCCACGTTTCCCGGTGCTGACAGATCAGAGGAGGACCAGACGCGACAACATGGCTGCTGCTGGAGGGGCTGAGAGGTGACTGATTAGCTTAAGCCTGCACAGCCCGTGGAGGAAGCACCTCGTTCCTGCCTTCTCAAGTGATAAAGTCTATGCTGGAATACAGAGCTCCCTGCTCTGAGCACCTAAAGTCTTGATTTTTCTG
0.9097427471277733 ATGGCTATTTGAAATGTAAAAAAAAATGCCATGAAATATATTGCAATTAAAAACTTTGTTCTCTCTGCTGCCTATTTGTTTTGGTTCCATTTTTTGGCAATTTGAGGTAGAGGAATTGGAACACAGACGGGAGGAGATAAGAAGCACTCTCTGCTAAGTGAGTGATTAAGAGCTCACTCATGGCTCAAAAGGAAACTCTCCATTATATTTTCTATTATCACTTGTGTTCTTGTCAATATAAGTACTTGCCACTTGTGAATCATTTTGGCGTTTGCAAAAACTTTCTTAAACAGTCAATTTCTTCCATTCTACCACCAAAAGAAACAAATAAAATAAACAATAGACA
0.825792083719972 TTCCTCGCTCTACCCTCCAGCCAGTTTCTGCCCTCTGCCACTGGCCTCAACCCACCCCACTGGCCAGACAGTTGAGTTACTGATAACTTCCAGATGCCTCTGGAATCTTGCTTCCAGTCCTCCCAGCACTCTGCCTGGTCTGCAAAAGTGGGGGCAGTGGGCAGCAGGCACCCTGCCCTGAAACTTGTTGCCACCTCTCAGAGGCTGATGAAAGCCGCACTCAGCTGGGCCCTTCAGGACGGGGGACCCTGGAGCCAGGGCACTCAGAAGGGATGTTTGACACCCACGCCAGGAACTTGGAGTCCCTGACTTTCTAGCCCAGGCCCTACAGAGGTTTAGGAGGACTGGGAGGGGGCAGATTGCAGGCCACCAGCTACCAGAGAAGCCACAAGGAAAG
0.1385032744971911 ACTCATGGGGTTATTGTGAATATAAAGTAAGATAAACTATGAAAATACTTAGCAGCTTGTTAAATATTCAACGTATGCACAAACAGCAATAACCTCACCACGTGACTGTAGTTCACTTGTAGGTCAAGGAGGGACAGGATGCTTCTGTGGAGAGGAACAAAGAGAGATGTTACCAGTCCTCACCTCTCAGTCACACTCCCATTTGTCAAGTCAGGTGACTCACACAGCATTTGTCTGGCTTCTCTCACTGTGAAGCGCACGCTTGGGGGAGGGGAGTGATGAGAGCCCAGGGGCAGATCAAAGCAAGGGCTGCAGCCTCAGCTATGGCTCTTTATGCTTTTTCATTCCTCCGGGAGAGAAGTGAGAAACATTT
0.1510242812511443 AACCTTGTGAGCAAAAGCACTGAGCGGGGAATGGGCATGGGGTGGGAATGCGGATTCCAGCTAGCTTGGTAGTTTGTGGTCTGTTAGAGAGAGGTGGGTGAGACCAGATAACAGATGCCTTTGAAGCAGAGGGGCTTACATGGAGCCACTCTCCTGGGGGCAAGTGTCTACATTATCAGGCCCCTGTTCTCAATAGTAGGCATCTGAGACTTCTCCAGGCTTCTCCCTGCCACTGACGGCCACCATCCAGGGGATCCAGTTGAGAGGCCCCTCCTGCAGTGCTTTCCACACTCATCACATCCTTCAGCTGGCCGGATTTCCTGACTGTCCTCTTAACCTAATCAATCCATTTCCTAGTGTGCCTGGAGACCATCTGCTGTAGAGGGGAGTGAGATAACAGACATAAGCACTACTCTCAACGTCTTAAGAGCTGCTCAGGGGAGATAGACATGGGTAGAGAAGTTTCATGTTAAAGGAGGTGCTCCTGACCTGGAATACAACAGGGCTTTGGGGTGGGGGGATGAGGATTGAAGCCAGGAGGGCCTCTCTACAGGGACAGCTCTCC
0.4632761252443708 AACTAGTTGTTGAAACTAAAGATTCTGTCACAGGCATGCTAATGTGTAGAAAATAAAGACCTTAAAAACTTCATCCTTTGAAGTTTAGAAGTGACTTTTTAGACTCTGAACTCATTGCAGTGTGCAAAATATTCAGCCATTGTTATCTAGAGTGGAGGGGTTTATTCATGTTTGTGTCTGACCTACTTTCTTTGAGGCTTGGCCTTTTCACCCTTAGATAATTAGGCTTCACCTCCCACTCTTCAGTTAGGGTTTCACAGCTCCTCAGATATCACTTAGTTACCTTCTCAGACTTTCAACACCTTGTCCTTTCATCACCAAGTATATCAGTTGCTTTGTTGAGTAAGAAAAAATAATACAATTTATTGTTTAAAAATGAAAAGACTTAGTTGCTTCATCCTTCATGCCACCATTT
0.3046493852417139 AAATTATTGATCAAGTGGCATTGGGAATTACCTAATTCAGAGATGCAAGGTTGAAAGATTCTAGAGGAACTTCTTAGAGTAATTGTTTCTGAGTTTGAAATCTTTAGAGTTTTATTCATCAGAATTGAGTCCTCTTCTGCACAAACAGGAATAATAATGCAGATTGATGGAGTGGGTGATGAAGTGCCAGAACTGATACCTTGTTGAATCTCTATTTGTGGAGTATCTGAATAGCTGCCCTCCCACGTGTGTGCAGATAAGACCCACACACAATGTGTGCAGACACATTCCACTTGGAAACTAATATTTTCAAATGCCTGCTCATG
0.8372330613930175 CTGGGAATCTGAGAATCAGCTTTCATCTGAGTTCTACCATTTGCTTTTTACGCATCTTTAGATAAATCAAGTAAGTTTTTTTGCTTAAATTTCTTTACATTTTAAATATGACCAATAACACTTGGTCTCTCTCAATTCTTGCTCTTAGGATGATAAGTAGGTCAAGCACTTTGAGTATCTTTGAAAAGAAACAGTATTGAAGTGTCATGGATGTGTACATCATGAGTACTATGCTTCCACTTACATTAGGAGAAGATAACACTGCCCTTTATTGTCAACACAGGTTAGAACATTGACCAATCATCACACTGATATTTAGCAAAAATGAAATTTGTTAATTTGAAATCCAAGTTG
0.3450427772976842 ACTAACCAGACCATTACCCATTGATCATAATATTTATAAATCCTTACATCATGCTGCACTTCTTTCCAGACTTAATAGCTAGTATATAGATACTGTTCAGAGTTCTTCCTGCTGGAAGGACTTGCCTTCATCACTCTCTCAGGATAAGGCTGAGTGGGGCTGTCATTGCACTACACTTCACATCTGGCTTATGCCAGCTAGGGGTTCAGAGTGCTAAGTCAAGCTCAAAGCGTTCCCTCATTAAAATAGTCACAGAGAATCACCATTAGGCCATACACATTTGCTCAGTTGCAAAATGGG
0.7422004936755601 CGGATAATAGTCACTATGTTAGCTGCCATGGTGGATAAAGCTAATATACCTTGCAGTTTTTCCCCTTAGGATCTGACAACCTAGTTTTGTTTCTTTGGCATTGTCTAGTAACACCCAACACAGTCTGTAGCTTTCAGCTGACACTCAGTGAGTGCTCATTATCTAACAGGGATGAATGAGTGGACTGGTTCCCAATGCTCAGCCAATCTTCATGAAATTTCCCTGCTGGCTCAGTGACAAAGAGGAGATATGGCATATGTCAACGGCCTGCAAGTGTCCCAGAAATAGGAGGCAAAAGAAAATACAGCACATAGAGTCTTAAAATAGGAAGACAGTGGAACCCGTCTAGTACAAGCTTGAGCAAACATCTTTGGCTTCTTTATCTCACC
0.1232424786832029 GTTTATAAAAAGCAAGTCAGATCACTACAAAAAATAAATTATCTTAGTCATACTCAGGTCTTGTCTTAGCCTTTGCTATGGTCTAGGGGGTGACGGAGGACATCTGTCAAGGCCCTGTGGGGACAGAAGGCACACTCAGCTGGGATGTTGAAGAGCAGTTAATGGAGGGTCTGTTGACAGAGGTGTCGGCAGATTGAGAGAACTAAGAGAGTCTGAAGCATCTGGGAGTGGCCAAGAGTGGGAAGCCATTCCCAACCCCGGGTCTGGAGGGGGCAACAAGAGGAAATTGTGTTACTGGAGCCTGGGGACGGCTAGAGCCACAGAAGAGGAACTGGGACAGTGGTGGCTGTAGGGGGTCCAGTCTGCTGCCTGAACTGCAGC
0.9822895334492457 TGCCTCAATATCTTCATCTGTACAATGGGGATAATAATAATCCCTACATCATGGAGTTACTTGAGGATTAAATTGAGTAGATATAACAAGTGCTTAGAGGTTTCGGCACACAGTGAATGCTGTGCTATATGACAGCCCTCTTTGTCACACGAGAGAGGTCCTCACTCAGCTGCTTGTGAGCTGATTAACAAACCTCTTTGGCCCCCAAGCACTAGAGTCTGCCTGACACCTAGGCCTGAGGTCACTGGGCATATGGCCAGCTTGGGCCCCCAGGGCTTCCTACCTGAGACTTGAACCTCCTCAATCAGCCTTTCCTCACAGGCTACGTTACAATCAAACTCAGAG
0.2054651777764106 AGAGCTTCATTAATTGTGTTCCTCTTCTTACTCTCAGACCTCTGTTTTCAAGGGTCCAAGAATTTGAACAGATGGAAATGTATGTGAACTGTGTGTGGATGTTCTATGTTCCAGTGCAGCTAATCAGGTCTCTTGATCCCTTAGCAACTAACTGCTTTGTAACATAGCCCTGCAGAGAGCTTTTCAACAAGTCTTAATTGAGCCAAGTCCACTCCAGGGGTATATGCATAGAGCTTGACCCTTGATTTTGAGTGAGACAGGAGCTACCTGTTGACGCATGATTCAAACTCCTTTCATCACGGTGTCTGAAGAATAATAAAAAGTGGAGCTGAGACTGACGTAACTAGATGATAATGGATGGGGGTGGTGAGAAAAGTATGAATGCTATGACCAGATTACCCAG
0.6453117862229503 TTCTGCTTTTTCAAACAGGTAGTCTTCTTCCACCTAAATCAGATGAAAAAGCCGAAAGTCAGTCTTACAGGGAATGGTGACAAGCCCCAGTCCAGACCAAGCAGTACCCTGCCAGATGCAAGAGGGGTTTCCCTTCCCCCACCTGACAGAGGGTGCACTCTTGCCTGTCAACATCCATGTACACACACCACTTGCAGCCTTGAAGGTCACCTTCTATTTTCACTCACTGTATTTCTCCACCAGAGAGGAATTTTTTCCCCAGACTTAACATGACCTTGGATAAAGATGTGTTTGTGGTTCAAAGTCAAGATACTTTGGGGGATG
1 AAGCATTTTCCTATATCCACAAATGGAGCACTTGCGCATCGTGTATAACTTTAACTCATTTTGTCCATAGATAATACCATGTGGCACCAAATACCAAAGGTACAACAAGCGTGCAGTGAAAAGCCAGTCTCCCTCTTACATTTGTCTTCACCCTCTCAGCTCCTCACTGTGACAGTCTTTTGTGTTGCTTTTCAGAAGGGTTCTGTGAACATGTGGGCAAAAGCATGTATTTGCTTTGCTTTCTTACAGATATCAGAGGACTCTACACACTAGTTCTGTGCCTTGTGATTTTCAGCAACAGTAGATCTTGATG
0.4486644385372971 TACAGGTTGAGCCAACCCCCTGACAGCAGAGATAGAGACTCCAGAGGGTAGGGAAAGGACAGGTCAGATATGCAACAGAAAGATTGACAGTGACAAATGGGGTGTGAACTCTGGGAGAATGAAAAGCCCAGTGCACTTCACACTCTATCCTGATGAAAGCAACCCTCAGAGACCCTTAAAGAAATGAATCTGTTAAACAGATGCCTTCAATGTGTCACTTGCAGACAAAGCTTCCTTTGCTAAAACCCCTCTTAGACGATGAATAAGTCTGGTGAGAGGAATAATTTGTCAAACTAATTTATTATAGTCCAAGGAGGTCTCTGAAT
0.08802989542526304 AATCTTCTTAACAAAGAAGAGTCTTCCAGGCCTCATACATTAGCCAGGCATTTTCTCCCAGGCCTTCCAAGCTTCCAGCTCCCTGCAGGGCCTCAGCTGACACTCTTCACAGGCACCTACTTTGCAAGGCCCTTGGTCTCCCGACAAGACAAGCAACACAAGCCAGATAACCACTCAAAGGGAGGCAGTGGAGATGGCTCTCATTCCCTGCCAGGAGGATCGCCATAACAAGGTGGCTGGAAGAACCTTCCGTGGCATGGGAACAGACAGCTGTAGACCCTGTATCTAAGTCTCTTCTTCCCGGAATTCTTATTCCACAGTGGT
0.8348937419821113 TTTTAACTTTGGAAGGTTTAGAGGATCATACACAATGGTTAATACAACTGTGAAATTGGATTTTAACCACTACAGCCCGGGCAAATGCTTTAAGCCTTGAGCTATGTACTACTTGACCTTGGTAAGTGGCTGTGGCATATGCCTTTGTTCACAGGCCATTGACAGCTTACAGAGAGGCAGGGTTGCTTGCATAGTGCCAAAAGCTGATAAGGTGTCCCAGCCTCATCAAAAGGGCAAGGTAGTTCAAGGATTAGCGAAGGCACAGGGGACCACACAGCCACCAAAAAGCTAAGCTTAGTTCACACAGGTGTCCTCCATAGATGGTGTCTCTTGGAGCTTGTG
0.4213480358046724 GAGAGATAGGAAACAAAGTGAGCCAGTTGCCCCAGCTTACTGCCATGGGAGGGCGAATTTATAGGCCTTGGCACAGGGAGGGAGAACTTAGACAGTCCAGCAGATTTCCTGAGCTGAGACAATGCAGCTGAGGATCTGGGGGAATAAAGGTAACTAGAGCTTGAAGGACAGAAAAACAGAGAAGAGAAAACTGCACAGAAAACAACTCTTGAGCCCTTTATAGGGCTCAGCAGAGTATTGTTAAGCACATGCATGTTAGGGAACCACCCAAAGCTGGGGAAAGAACTACTCAAAAAGATAAGAAAGAACAGAACTCGCCACTCACACAGGGTCAGAAACATTGTCTGTCATCACCAGTCAGACAGAAAAATCTCACAGTTCAGAGGTTATCAGGTAGAGTACTCAGAATGGTCTTACCTAAGAGTAGAGAACAATTAGTCTTAACTTATACATGAATCTAGTCCTGCCTAACAAATCTTAAAACCAAGACTCCAAAGGATCAAACTATTTCCTAAGTAACTTAGCACCCCAGAACAAGTCTCAAT
0.5359895095870625 ATTCTACTCTCACTTTGCCTCCCAGCTTCAATTTATTACTGGGCAGACTTCAGATTTGAAGCTAATAACTACTGGCATTTTATGTAGGCCATTCTACAGGAGGATTCTGGTTATCCCTTTTGCTTCTCTGCTGTTCCTTCAGTACTGACAGCTCTGAGACCTTTCCCTGTGTAGTACAAGTTTCTACACATGTCTCTTTAGAGAGATGTCAAGAGGAACATGGCACTTGCGCTGTGATCTTATCACCACACAGTCTTCAGTAGCTTCTCGTGTCTGCCTCTGTGATTTGCCATTTAGAACTGGTGCCAAAAGGTGGTCACACTTCTAAAAAGAAAGTACCTAAAAAGGGTTG
0.02728733873698585 TCTCAGCATGTGGAAAAATTCAACTGCATTTCAGATTCTAGTTAAAAAAAAAAAGTGACTATATCCTGCCATGCCTATATAAGTCCTGCAACGGAATGTTGCTGAATGCCTTCTTGTCTGCACTAGAAATTCACACTCTCTTAAGCTAAGTGTATGCCCACTCTACAGGGACTCCCGCTTCCCCCTGGCCTCAAAGATCATTACCTACCTCTTTGCGTGAGGCCAATCCATCCTCTTGACAGCTCACTTACCACGGACCAGGGCTGTGGGGGAGCCTCTGACAGCCAGAGATGAAATGGCAGAAAGGGCTCCTTGTCTGGACATTCTTGGGCATCTCCTACCC
0.7364742572897089 GGCATGGCCAATGTGGTTTCGGACTCACCTCCTGGATCCCCAGTGCCGTAGCAGGACGCAGCACTTATTAACGTGGCATCTGCAGGAGGAGCCTCCCCATCAGGCCAGCCGCCCAGGCACCCCCCTTCACTGATCACTCCAGTGGCCCTTTGTGAGCTACTGGGCCAGATGAAGTGGGAACACAAGTGGCAGATAAGAATGTGACCAGCTGCTCAAGCTCAGAAGAGCGCATGTCCCCTTATGCTATTTACACACCAATTTCAAACCACAGAAACCAAAGATTAGTGCCCAACAGGCAAAAGTCCTTTAAAAAAATCAAAACTGGAGTCAAACATGAGGGC
0.700225683342787 AACCTGCTTTTGCCTGAATGACCTAGGTAACAACCTACTTTAGCTTGAGCTGCTTAGATATTTCAGCTAAAAATGGCTTATTTCCATGAGTCACCTGGATAATTGCATTACTCTGCTGGCCCACTTAGCTGGGTGGGCCAGCAGGTGTTAAGTGCAACTGTCAACGAGTACTTCATTGTTTTCCACTCTATGGATAGTACTGTGACAGTTTCTTAGTGCCTGGAGAAGTACCTCTTAGATTCACTTTCAGCTCTTGAGCCTCTTTCTTTTAGATGGATCATCCTTGCTATGTGACAAAATCAGCCCCCTTCTATCTCCGTAGGGCAACTTTGTATCATGCATGTATGTGTGTGTAGCTTTGTGGTTTTGAAGAAAAATTACTTCAACAAGT
0.4684878469366531 TATCATCACTCATTGAAAATACTGTAAATTCATACCATAATCTTATTTCTGTGGCTGTGGAATTCTGTTACTTTATTTAGAGGGGACACCTCAAGTGTCTTGGAAAGTAAGGGAAGAGAGTGATAAAAGAACCTTTGTTCTTTTATCTGGTGTGACTTACAGCTCAAGTAGTTGTTGAAGGAAGGAGTGGATTATTGATAACCACAGCTCAGTGGACTTGAGAGGAAGCTTTACTCCATTAGGAAGGAGGAGTATCGTGGATTAACTCATAGTAAGGGATGTTCAACCCCAGTTCACTAGGGTTTTTTATGCCTTTTTGTGTCAAAGGATATTCTTGGAAT
0.3179511101211183 GAAAACAGTACAAAAATGAGAATCAGTTTTAAAAAGACAGTACAATCTTATAGTTCTACTCATGCACACTGTGATACTTAATGGGACATTATAACAAGTTCTCCCAAAGTCAGATGAGAGCAAACACTACAGCTTCTCACTTACAGCATAAGGTGATGACATTAGTGGTAAGAGGGTGGTAGTAAGAAGGCCTGAAGGCAAGAGCAGATCAGCTGTTGGAGGATGGAGAGACACGAGTAGAGTAATTGCTTGTTGACTAATTGAAGTGCCTCTTCACCATTTTATCATTCATGAGAACAAATGTCAAAAAGTATTGATGACTACTTGAAGGATGATACAAAAGAGATCACTTAATAGTGAGGAAATATAAAGATAAATAAGTTGCAAAAGAAACGGGATAGGTAGAATTAAGCAACAATTCATGGAAGCTGCTTGACAGTGTATACGATTTGGATA
0.2572243408843939 CCCCTGCAGTCCCCTGAGCCGGTGCATTGAGGGGTGTGAAGCGTTTTGTAGGTTATCATGCAAACACACAGGCATCCCGGATACAAGCGAGCCCAGCCTGAGCCTTCATGGCCCGTAGCCTTGCCGGGCCACCACACTCTGCTGCTGAGGAGAGCTCTCGAGTGTGCTGTCATCAGGGACTGTGAAGCACTAAACATGTGAGATGCTTGTATCCAAACAAGCAAGAGGGATTCAGTGGGGCCAGTGGGGCAGACTGAGTTCCAAACACTGATGTCAACAACTAGGAGGGGAGGCTGAGGCATGGCCAGGGGCGGGTGTGGGGATCCTGTCCCCCTC
0.9597606891678473 AGCAGTGAGAATGTTATTGGGAATAGATTAGAAGCTTCAGAAACTGACAGAAATAATAAAGAAGAATATAACAAAATAACCCGAAGGGATCTGATATCATTCCGGGACAATGAAAGAGAAGGTAGAGGAAAGCTTTGTGTCGAGAGTGTTGAGAGTGTTGAGAGTGTTCAAGGATGTAGCTCATGATAACAGAAGAAGAGACAATCATGGTGAAGTGTAGAGTTCACTGCCAACAGGTTTTCCCTTTTGTGAATGTGTTACATCATGAAACAAGTGAATTTAAACAGCAAGTACCTGGTCAAATTTGGTGAAAATTATGATGTTT
1 GTCATTTCCCATAAAGATCAACCTTTACCTTTGGAATCGCTCTGGCCAACTTTTGTTTCATATGCATGTGTGGCTTATCACAATGTCTTGTGTTTCTATTGCTCCTTTCTCTGAGAAAATCCAGGCACATTCCAGACACTCAAGTCTAATCAGCTCTGACAGCAGAGAAGCAGGATTGGACTACGATGGGGGTCATTTGGCACTTGCCCAGTGACTGTGGTGTAACCCATTCATTCAGGTATTCCTGGAGTAAGAATGGCCTCAGTGACCCACCACCTCTGTATGCTAGGTACTTGGTTGGT
0.2388051949699812 CAGATGGCAGATTGCACTGTATGCGTTTATTTGGCCAGCAGAGTGGGGCTCAAGTATTCACATTCCACATGGGTTTGTTGGTCATGGCTTAACTCCTCTGTGCACTCTGGCTGCCTCATCTGGACATAGAGGAAGGCAGCACTGCAGCCTTCATCTGAGTGTAGTTACCAGGGTCTTCTCTTTGCTGCTTGGCTGCGTGTTGCCTTTGTCTATTAAAAGGATGTGTGTAAGTATGTATGTCAACTGGGGACTTCAGCCTCTGTAGGCCAAGTGTTGAAAAGGGTGAGAGGGCTGCTCTGGTAGAAGTGTCAGAGCTGGGATGTCTGTACACCTCCCTCTCCATAGCTAGTCCTGGAGATAAGTAAGAGCAGATTCTGGGACTGAGCTGTCGCATACACCCTGGTGGTGATAACAGCAAACACAGCAATGGGCTATGTAGAGGGAGCCCTGAATAATCTCCATGAGCTGCAGAGATAGGGCCAGTGAGTGGCAAATCCTTTTATAGTGTGGAGGAGAGGAGGTGGGGAGCAGCTGCAGGAGAAGGTGGGGAGCAGCTGCAGAAGGAGAAGGTGGAGCAGGAGCTACGTTGGACAAGCCAGTG
0.3806496307111401 ATAAACTTGTACGCAGGTATTATGATAATTGATTTTGTCAGCATTCCATTTCTGCCTCTCTTCATGTAAGATAAGGTACAGCAACATAAAAAGCTGCCATACTCCACACACAAAAGATGCGCTCATGTCTCTTTCAAGCACCACTCCTTCCACCACACCCACACTCCAAGAGTTTGAAAGTGCACTCTGGCCCATATGACAACACATTAGAAAAAATGTCTCTCCTGTGTATATTCTTTATCTGTGGGGTGATGGGACCCTGAAGCTTGTCTCCAAAACTCCTCAATTGCATCAAGCAACACTTCTGAGAGCCACGGTGACAGCTGATGCTTATCCTATTTGAGCCGAGAAGGGGAGGCACACTTTTCCTTCTGCTCCTTTGCAGGGATGCTTGAACAGGTTTAGGAGACAGTAGGTCTCACCTCATGTTTATAATCTTAAAGAGGCATTGCAGTCACT
0.6244880688809645 AATCTATTTCAATTTACCTTTAAAAGTGAAAAATGCACTCATCTGGATGCTCAGTTTTTACCAGTAGTAGCCCACATGACATGTCATAACTGGGTGCTGAAATGCTGACAAGTCTGAGAACACGACTCCCCTAGGAGACAGACACGCTGACGGGCTTGAGCATTCACAAACAGATATCGGATGTCTGCTATGTGTCAAGCCCTGTGGTAGACACCGAGACTCATTAAGTCAGTGCAAAAAATGGAAAGGTTAAATATTTGCCCCGGGTAAACGCAAAGGGCAAGTGTATTGCATCAGGGTTGAA
0.7257252692064478 TGTGTTGTTTTAAGGCAAACAACACTAGGCAAACAGTAGATACTGAGAGAGGAGATATTAAGCAAACTGACCAGCCAGTGCTTAGGAAAACATGTATGTGGCATTTTAGAAAAGCAGTGAGGGTAGAGTGTGCAAAGGGGAGAGAAATAGGAGCGAGATAAGAGAGTTAATTGAGTGGGTGTGAACAGGCCTATATCATATGAGGGCTTGAAGGACACTGCCTAGGGCTTCGGACATGTAGGTGGCTTAGTGTGTGATTTGTCATATTTGTCCCCTTGTTTCAACTACTGGCAAAAAAACACAAAAAGTAATGATATCAACTTCCTGAAGGTT
0.3499690801096502 TGTCTGCAATATTTTTAAAGGTCAAAGATATATTCAGAAACAGGTCAGCAAGAACGAGTGGCAAGATGCCACACTGGCCCTGAGAAAGGTGGCTCCGCGCCCCAGTTGCCCTGCAGGCCATCTCTGATGATTGATAAAGAGCTGTGCAAGAGTGGCTGTGAACAGGTCAGGAATGTGGTCGCTGAAAGTGCCATCAACATTTGCAGCAATGCTTGATGTATGTGTAAGGCGGCAGTAGAAGAGACTGTTTGAGCGATTGATTCTAGGAATATTTGCCAGTCTCCAAAAGTCAAGTGAATCTAAT
0.6743433675303601 TGGTTTATACATGTGAAAAATGAGAATGGGAATGGCTTCCCCCTCTGTGAGATTTCCAGTGCATTGCTAACTTCAGTCTGTGGGACAGATTGTATTTTTCTAAACATAGCCACAATGTCATCACCCATCCCACACCTTCTCCTAGGCACCTCCTTATCAAGAGGTAAAGTTGAATGCCTGTCTCTTGAGTCTGAGTGGGTTTGTGTCTCACTTGTACCCAATAGAATGCAGCAGAAATAATACTGCATTACTTCTGAGGATAATTTGGAAAGAAAAAGATAGTGCAATTTCCACCTTGCTGTCTGGTACATTCTTGCTGGAGTGCTGAGCTGCCATGCAAGCAGTTAGACTGTTCTGAGGCTACCATGCTATGAGGAAACCCAAACTAGCCCCGGGCAAACAGATCACATGACAAAGCCCTGAAGCTACATGAAGAAAGAGAGAGATACCGTAGCAGTCTCCAGCTGTTCCAGCCATACCTTCCCGTTCCCCACCCCCACACACTCTGCCTTTTGTTCCAGTTCCAGTTACCATCTGGCTGCAACCACATTTGAGAC
1 AGATAGGTGATAAACAGACAGATTATTTTATGTAGACAATATACTAAGACACCATAGCCCAGACTAATTGCTCCTCAGGAGTGACCTCTTAGGAACTATTTAGGCCCCTAAGCTGGGGCTCACAGTTCTCCAGCGTAGAGAGAGGGTTATGTTCAGCGTCTTGTTGAGGAGGTGCAGACAGCAGCCTAAGGCTAATCAGCCAGGTAGCTTCCATAAAGCCTACACTCTGGAAGAGGATGCAGACAAGGAAAGCCAGAGACCAGGGCTTATGCACCATACTCCCTGTGGTGACCAATAATAATATCATTATTTATAATTA
0.006727306935922499 TAATTTAATTTGTTACTGTCATTTTCTTGCCAAATTTGAAGCTAATTTTTTAAAGCTCCCGACAAGTGGTTTACTGTGGAGCAAACACTGGCATACTTTAGGCTTACAATCTGCTGACAACCCCGTCTTAGCCCTTCACTTGGAAAATGTGAGCGTGCACTGTTCATGTGCCTGTCAAGCACGTACACCACTCAGAAGGACAACAGCCACTCAGGTTATCAGGTGAATGTGTGACGAGCCATTAAGAGGCTGCACGTGGGCTCGGGAAAATGAAATTCCCACCATAAACCTGTCCCCCATTTCCATCCCATGCCCTGCCCCTGCCCC
0.2509590198102131 GGGACAGCCTTTGACAAGGTACAAGGAGAGTCACAGCTTAAATTACAGGTTTGCCTATAAAAAGGTTAAAAAGAGCCTGTTACTGCCCAGGGCCAGTGGCTCAGGCTGACCATGTGGAGTGGAGAGAGAGAAGGTAGTGACTCTATCTTGACCCTCACTAATTCCCACAAGAGGCTGCTGAAAACATCCTTGTGCCGCTAAATTGTATCACATGGAATGACCAGGGCTGACCTGACATCAAAGCTCTGTAGAAATGCTGTCGTCCAGAGAGCACGAGAGTCTGAGTGGCAGGGCAGAGAGATTAGAGATAGGACTGTAAACTCAAACGGGCTTTGGGGATTTTGCAGCCTGCCACAAGCCTGGCCTTTGTTGATTCCCTAGGTTGCTGTGGGCAGATGATCATCGCCATCATTACTTTGGA
0.514099035758757 TTAATGGTTCAAAAATACCAATACTTGCATTATGAGTCCTTCAGTGATTCTCCATTACCATCAAGAAAAAGCCCAAACCCCTTAGTACAAGATACAAATGTCTTCATGAGGTGACTCTCCTCTTCCTCTCCACACATTCCACACCCTTCCATTCTTAGGTCTCTGAACATGCCATGCTTTCAACACCTACTTCAGTCTCTTTGCACATACTCTTCTCTCTGCACAAATCCTTTCTCCCTCACCTCCCAACAGGGTGAATTCCCTTAAAATAGCTTAAGTGTTATCTTCATTTGGAAGCCTTTCCCGAACCCCACTGCCCATATTCCCTATGTTAGGTATCTCTTCCCCTTCTAAATATGACTG
0.8621439523440332 GAATAGCATGGATTTTTTGTTTTATTTTTAAATCTGATAAGTATAAGCTTACAGGTGTACCTGTTTCCTGCTGTTCTGAAAACGTGACCAGGCTCTCTCTGTGACAGGATCACACCACAGCTCGTAGCCACTCTGTGCAATAATCTGCAGATGATAACGCCTTTGCAGAGCAGACCTGCACGTGTACTTGCAGAAAGGTCTCTGTCAGACACAGCGGGTGCCTGTGATATCTGAGAGTGGGTCAGCAGGACTGGCACGTTCAGCAGCTCAGGAAGCCAACTTCCAACGGCAGGAGCAGGACCCTCTGCATGTGACTCTGATGGGGCAGATGGTCCTTGGGGCTTCCCTAAAGCCAATGGTACCAAATAAAAGAGAACATCATCTACCCTTGAGACTGCTAAGTGGCTTTAAGAGGCAGAAAAATGCCAAGCATGGACCTTAACCCCCAGATGACAGCAAAATGGGCAGAAAGCAAGCCATCTCAAAAATGTCAGTGGAAATAACTTTGAGACCCCTGGGAAGTGTT
0.7524110029133173 GTATCATTTGATATAATACCTTTTCCTGCCCTTCTTGCAGTTTTCTTTTCTATTTTCTTCACCCTCCTGCTCGCCTTTTTCTTTCTGGTGTTTTCCCTCACACCTGGTTGCCTTCTCATTAGCAGGCTAAGTGGCTCTATGTAAGCCTGTCCTTGGTTGGAGCTGTCTGCTGACTCTCAAGTGTCATAAGTGGCTGTAATTGAGAAAGGCATTGAGATGTTGAATAGCCAAAGTGTAAATGGAAGACTCTCTGTCCTTACCTATAAAAAGAAAAAGAATCTATAAAGGTAGCTATACAAAGAAATTGAAAGACACATATAATAGTGTACTTTTGTTTTTGG
0.5387838349814207 GTGATATGTTCGGAGGATGGGGGAGTTTGTCTGCAGAGGAAAGTTTGGAGGAAGCAGGGGAGTCAGTTGGAAGGGATGAGTCCCAGAGCAGTGCTCTCTGGGGATGTGCATTCCTTGGAGGATGAGAGACAATACGGTCTTTCACTTTGCACTGATGACAAGGATGAGAGGCTGGGAATTGACTGCCCAAAGGAATCCAAGTGGATGCATGCTTAAAGTCATCTGTTTCAGCACTAGCTCAGGCCCCAGATGGTTCTGGCGGCCTGAAGGAGTGTTAGCAGCCAGGCAATGGAGGCTTTGCTCAGATTTTCAAGTAGAAGGTTAGTCCAGA
0.02434703508017816 CTGAATCCATTTTTTTCTCCTAAATAATGATATTGTGATTAGCTGCCACTCTCATGGCAAGTAATGAGAGCACAGCGAGCGTTTGCTGCTTCTGGATTTCCTAAGATAGAGATGTGTGGATGCCATGAGCCTTAATGGGACAGCCACTCCATGCTAGGTCTTGAGTGCACAAACTCCTTCCGCCTCTCAACACCTCTCTTGAGTATTCACGGCTGTGCCCATGCAAGAAAGGAAGAGACTGAGGCCCAGCTAGGAAGTCCTACAGGAACTGGGGCCTTCTGACTCCAAGGCCAGGATTCTTGCCTCTGGAT
0.7118278908647738 AGGAGTTTCAGGTTACAGTGAATGACGATGACTCCATTGCCCTCTAGCCTGGGCAACAGAGTGAAACCCCATCTCTGAAAAAAATAAATAAAAGAAACAGTTGGGGAAGTGAATGTGTAATAAGCACCACGATGAGAATGTGCTGAGTGTGTCTGATGCGTATCATTAATATCAGCTATTCCACTTGAGCGACGCTGCCCTTGTCCTAATCACTCACCCTCGTAGGCGCCTGTTCCCTCTCGCCACTCGCTTCACACTCAGCTCGGCTCCGGATCTGCACAGTGTCACTGGATCTTCAGCCCTTGCTGTCACACCCCTGTCCACCTTCCCCTGGTGCCCCGCCTCCCTCCCTTATCATGCTGGATGCCCCTCACCTCCCTCTCTCTCATGCCTTAATCGCTT
0.2166669674329286 CTGATTGTCTACCCTGCAAAGACACCAAGTTAACAACTATCTATGCAGATAAAACACCCTCATAAGAACCACAAAGCAGGTGAGCATTCATAGTTTTAACTTCATACTGCTGAAAGAGGCACTGAAAACAGAGAAAAAGCAGTCCTGAATCACAGACGCCAGTCCTTCCCTATCCCCAGCAGCAGAAGTTGGGTGAGGAGAGCTTACCTGTGAGCTGGGGGCGGGGGAGGGAAACACAGCAATTGTGAGACATTGAACTCAGTGCTCTGCTGTTACAGCAGAAAGGAAAACCGGCTCAAACTGAGCTGATGCCTGCCCATGGAGGCAGTATTTAAAGCAGCCCTAGCCAGAGGGCAATCACTGTTCTCAGAGGTCAAATTTGAGTGCCTGCAATCCTTGCCACTGAGGGCTACAGTGATCTGAGTCTTCATATAAACTTGAAAGGCAGTCTAGGCCACAAGGACTGCAACTCTTAGACAAGTCCTGGTGCTAAACTAGGTCTGGAGATAAGGGATTGAGGGGGCACTCAACATACTGAGGTAGTACATGGGGCAGCCAAGAGAGTGCTGACATCACCCCTCCCCTAAACCTAGGCTGCACAGCTCGCAGATCCAAAACAAACCCCCTTTCTCCTGCTTGAGGAGAGGAAAAGGGAGAGTGGGAAGGACTTTGTCTTGCATCTAG
0.2947121605806411 AGACATTCATTCCCAGCTAACACAAACTTATTGAAGACTTAGAAAACCTGTTAAGAAAGTGGGAGTAGATATGATGGTTTTCCTTTGAAAGGGACTTACGTGTGTGTTCTCACTTTGCGTCAGTTATCCTGGATAGTAACTGCCAGAGAGATGGGAGTTGAGTGATATTTCAACAGGACAGAACTCCAATCTACTCACACTAAGGCCTTTCAGCAACTGCTCAAGCCCTTAAAATTAAAAGAAATGAAAGGAGGAGGTTCAAACATGCCCTTGACTTTTTTCTACTTTCCCATAACCTGCTTGTTCCCTGAGTCCTC
0.7624528017901202 AAGGTTCTGTAATAACATAATACATTTTTCTTTACACTGTCCAGTTATAGCTCTAGAACTTCATCACTTTCTCAATTTCTCTTCTTTATTCTTGTGCTCTTCTTTTGAAGGCTCAGAAATTGGTCTAAAGGAGCCTCCACTGAAACATTATCTGAGTATCCCCACTCCAAGCTGCTCTCAAGATAAAGTACTTCTTTCCCAGCCATTGTCACCATGCCACGTGTGTGAGAATTGCTTCTTATCTGTTTGCTACTTTGGGGAACAAAGTGCGCAGGCTGAATTCTGTGTTCACCCTGTTGCCTGAGTCTACATGTGTAGGGATATGTAGACTTTTAGAATGGAAAAAAGATTAAAATCTGCTAT
0.3318753870569678 TGGGGAAGTTGTAGGCAGCTGGTGATTAGATTTCTCGGAAGACGTGGTCTCCCTTCAGGTAGCCTCACAGACTACAGCGGTACCAACACCTCTTGTGGGGCACCCTAACTTCTCCAGGACATGACCAAACTTGGCATTTCATGGAAGAGAAATACCAGGCCTGCCTCAAGTACTCTCCTTACTGCATTTGCCCCTCTTCAGCTTCCCTGTGAAGCTGGAATGTAACTACTTAAGTACTCAAGAGGCCTTCCACAAGAAACACAAAAGCTTTGCATTCCAGCTCTTGGTTCTCTGCCACATGACTGTCTCTAAGAATTTCTATGTTATTTTTGGAATGGAAAAACCAGACACAGTATGGCTTCTTTGAAAAGACAAGGTGATTGCTCTCCAGAAGGTTTTCAGAAAATAAACACTCTAATGCTTCTGTTCAACAGGCATTTAAAATTCAAGAAGAATGAGGGCATGAGGAAAGAACTGTTTGGACACAGTTAATTCTCTGTATGTGCCTTATATTAGTGGTTGTAGTGGAATTTGGAGCAGAATATAATCAAACACATTAGCACTTAT
0.907158086860044 GGAGTATAGGCATGACATTTGCACTAAAAATTAATCAAAGGTATACCGTAAATCAAAGCTAATCATATATTATCAGCATTGAAACCATGAGTCCCAACTGCATATTTTCTCTTTCCTCATTTTCTCCGGTAGTCCATTTCTCACCCACACCACTCATGAATGCTTTGTTCTACTCTGCTCTTTTTCAAGTGTTTGCATGTAACAACATCCTTGCCACTTATTGTGAAGTGCTGTCAGTCTTACAAGGTGCTCTGTGCCTGTTCCCAGTTTCCACAACATCCTGCAGAAATCAATACAAAGCCGCCAGTTTGTTAATAAATCTGCAATTAAAATGT
0.546998278715484 TTTTAAAAAGGGTTGGGGTTTTATGAGAATACATTAGCACTAACAGGAAAACATACATACCCAACCCATATGAGTCAATGGGGCATAAGAGCTTTCTGCAAAAATAAATCTTGAAAATGTTTTTGCTACTTTATAAGTCTGAAAAATAATTCAAGCCACTCTAAACCCTTGAAATTCTGTTGGATAATGAACTTAAGGAGCTGTTGACATCCATGTCGCCTGGTGTCCACACTTGGCCTCATATCAGACAGCCACTGGAAAGCGATTTGCATGAACATGTATCTGAGAACCCTCTGTTTTATTTTTAAATGATAACAAAAGTAAGTACAACCATGATAGTAGCCTACTAATAATAAAGGGAGCTATTTATACATTTTTAAGTGACTGTGGTAGATATAGTTAGCTATCAACATGAAGTTCTTGTACCTTAGAGATGGCATGTCACTGAAAGAAACAGACTCCAGGTCATGGGAGTTCCAAATCTCCTCTCAGATGATTGGAACCCAGGAGTACACCCTTCCCCAGCATAACCTGCATGTAGATGCATAGCCCACTGCTGAGGGACATGTACCTGTGACCAGCGCCTCAGATACAATACTGGGAGGACATCTGTA
0.07927507711555515 TCTCTTTGCTGTGCACTTGAAGGTTTGCTTTGGCTTTTCACATTTATTCCCTGGGCAGTACCACCTACACACTCATTTCATCCAGCTCTCACCCACCCAAACCTCAGACACTTCTTGCTGGCAAGAGGCCACCCTCTTCAAAGGCAGGCATGAAAGAAGCTGGGCACTTACTCCTCCACTTAAAACTGTCACTACCACAGAGTGTGAAGGGAGCTGGTTTGTCCTACATTGAAATCTCCTGTAGAGGCCATTTCTGGTCTCTTGTCATGACTGTGATGCTCCTAAAAGGGCTATGACTACCCAACTAGCCCCTCTGCATTAGGAATGGCCCC
0.3219306179611462 TGTTTTAAGAACTCAAAAAAGCATGGTAGGTTCTTTGAGCAAGGCCTTAGTTGTCAAAAGTTTCTGAAGCCCTCAAACCAATAAATAGTATTATTACTAATTAAAAGAGCAGATAAACTGAGAAACAAAGCACTTAGACCTAGGGTGACATGGTGAGACCAAAACTGAATTCTGTGTCTTAAAATTCAGTTATCTAATCTCCCCACTTCATTGCATATTCTACTAGCAGTCATTCAGTAAAGTACCTTTCATCACTGCAGGAGTCTCTCTGAACACAGTGGCTTTGGAATAGGGTTATCTCCAGACATTGTTGACATCATGTCTCTGCTCACATACCAATTGAGTGAATATTGGCCCACATGATTCTTGTAAGTGGATTACAAGAAATCCACGATAGACTTCATTCACTTTTGATGAAACCAAGAACTTTCCCTCTTGAGCTACCTAATGAGATACTGTTATTTGTTTATTATGCAGGGTACAGGTTGGGGCTTGTTAGCTCTCTGAATTCTTAAGCACTCAACTGAGGAAATCAAA
0.4575371364156764 TTCAGACCAGGTATGTGAGGGCTTGGTTATCATGCACTGCTCCTGAATCCACCATCTCCATGTCCACATCCTTGGCAGGGAGACCAGAGCCAACTGGGAACTCTGCCACCTGGAGAGACCTTTGAAACACTGTCGCCACCAGTGTTCCATTTGTGTGTTTGCAGAATGCCAAGTAAGCACATTCTTTTTCACCCTCTGACATGACCTCAGGGTTACTTTCTGTGGCTGTTGACAAATTTTTAGACATCCCAGTTTTATCAGCGGAAACCTTGAAGAGTGACAAATGGTTCTTGGAAGAGTTGGTACATACTATAAAAATGTCAGCTGGCTCATTTATAACCCAGTGATGTCCAGTGTCTGAGCCGTGCTATCAGCATGGTCTATAGATAACTCACCCTCACGATGCTCCGCTCTCCCCAAGTACTTTGTGCAGCTGTTCTGGTTGAAGACCCAGTTGACATCTATAATAGATATCAAATGGAGAGCCTCTTATTTTATCACTCTCTGTGTTTCAGCACTGGCGGTCCCCATGGACTGTCAGAAACAGGCAGCCAGCACGTTATGGGAAAGGTGACTTGCTGAGTCCCTGTGCCCTGAGGACATTATTAAGTGCTAGGGAACCTTGTTAGCTCATAAAGTTGGTTCAAACCAATTATTGT
0.1700084071626879 CAACATGTCATGTAATGTAACTGGACAAGCCTCGGAAAGGTTACCCGTGGGGTGCTGGTGTGGCCGAGCCCCTACTGAGAGGGAAGGGCTTATCTGCCTTAGTGCTGGCCTCTCTGTCGCTTCAAATGGGAGTTAAAAGCAACACTCTAAGTGGATTAGACCTCCAGATTAACTTGAGTATCCTGTGTTGAAAGGCCTGGATTTTACTCTCCCCTGAGACCTTGAGGATTTACTAAGGACCTGTATTTCCAAAACTTCTACAGCAGCTGCCAGGCAGGCAATCCTATTGTTGAGAGATGGGGGCAGGGGGGAGTGAGAAGCCCCTCCTCTCCCTCTGATTTGGCCCCCTCACTTTGCTCTTTTG
0.6420866032505617 AATTTTTGTATTTTTTGCAGAGACAAGAGTTTCACCGTGTTGGCCAGCCTGGTCTCAAACTCCTGGGCTCAAGCGATTCTCCTGCTTCGGCCTCTCAAGTGCCGGAGTTACAGGTGTGACACATCAAGTGCAGTCCCACACAGACTCCCGGTTGACTGCCTGGGTGACCTTGGGTGGTCTTTGTTTCTGGGGTGCTACCTCCCTTGTTGGTTCTCTTAACCCAGCTCTCAGACCTGTCAACGGCCCTTCTGCTGAACACCTGCCTGAGGATCGTTGGCGTGTGTTATCTGTTTCCTGCTGGGATCATGACAGACACAACTGGAAAAAAGCCCCGGCGAGCAAGGCCTGGGCCTGAGTCCACAGGGGGGTCCAGAGGGGAGCCCCCTCCCCCTGCAGTCC
0.05400733615494377 GTGAGGAGGAGGGTCTGGCGGCACAGGCCAGGATTTGCACTCTGTCCAGGGTTACTGGGTGAGGGCCCCTTAGACAATCAGTTCCACCTACACTCATCACACACTTATCACGCACACTCACTCTGTGATAAACAAAGGGGAGCCTTTGAAAACTTGGCGGCGGACGAGACACACAGAGGCCCAGGCGGCAGAGGCAGCCACAGAGCCAACAGTCCCAGGAGCTTTATCAGTGCCACACCCAATCACCTCCTATCAGAGCTTCCTCTCACCATGTCCTCAACCCAAGGCCAGATGTGAGTGGAGCTGAAGTGCCTTGGAGGGGACACCCCAGGGCAGGGCAGGGAGGGGGGGCAGGTGGCAGGAATGACAAAGTGTGAACCCGTGGCCAGCTCCAGAACCTCCTCCTGCAATCATCCACAGGGTTCAG
0.448807992925264 AGCTAGGGAACAGAAGTATCAGAAATGCCAAGCTACTTTTTTGGCTATAGCTCTGAAGAAAGAAGGCTCTGAAAAGTGGTCGGCCTGTAACATAAAGATGTGGGCTGGATGTGCTGCCTTTTGAAATGTCAGGGTTTTTGTTGAATAGGCATTGAGTTGGATTGGAAAGGTCAAAGCTGACAGACTCAACTCATACTCAGAAAATCAGCTCACAGCTCCTTTTCTTCTCATCACCTCCCAAGTGGTAGGTTGCTAACGTCACCCTGGCTTTCGGCACAGCAATTAATGGCTTATGAGCACAAGCCAAAACATAAAAAATAAACCAGATTAAGAAACTGCTCTGTAAAATGTAAT
0.8330966775542914 GGGTTTTGGCCCCAAATCCTTCTGCTGCATTTTTCCCCTATCCCTGGGAAGCCATGAGACCTCAAACCTGTGTTCCCAAGGAGGCGAGCTGCTGTTCCCAGGTGATGATATGATGTGCTTGGGGAAAGTAAGTGGCTGCCAGACATGGCTGAGAGCTGTTGTCACTGCCGTCAAGTGCATGTCTCCAAGCCATATCACACGGCGTCCCTCGATGTGAGGCCACATGGCAAGTGGGCCGTGGATCTCCCTCTGCCCTTTGCAAGCACGTAAGACAGCAGATTTTGCAGATACCTTGTG
1 GGAAACCTCCCTGTCCTGGCACCCATCTCTTCCTACTGCCATGAACACCAAGACAGGTTCACACCAAAGGTGTTCTGTTCCTCATGGCAGGCTCTGCCACCTGATTAAGAGAAACATCTAATCTCCTGCTGGTTCCCTCTCTTCTTAAGAGGAGAGGCCTGAGGACCTGCTGAAAGCTTTATCTCTGCTTGTCCTCCGGGTGAGGCTAATGAGTGGGGCCAACGGGTGGGGCAGTGTAGGCGCTTTACAGCAGACACGCCTTCAGACCTCTGTTCCCTGAAGGGTGGGGATGTGGGGGTCACCTCTGCCAGAGGGAGTAGGAGTG
0.1696608954205854 TGGCCTATAGTTAATTAGGTCAAAATGTTGGAACTTCCCTGGCATACCAAAGAGCAGTGCTTCTCTATTACAAACAACTACTCAGCCACCCTCTCATCTGCTTGTCACCAAAGCCGCAGGAAGTGCATCAGTGGGAAGATACCAGCCTGCTTGAAAAGGTGATGACTCTCCTTGAGAGGCCAGAGATAACCTTGGGGGAAATTGCAAAAGGACTGGGTTTTCTGATCTCATGGGACTATGGGATCCCAGAGGCCTGAGGCCAAATGGCAGCATTTAACTGTCAAAGACAGTTGAGTACACCAGCTACAGTAAGCCA
0.1788148915909843 CTCCGACAGAGACTTTTCTAACTGAGAAAGAGCGAGCTGGTGCAGCTGCTCAGTCTGAGGGCATTAGGAATAGTGGAAGGGCAGTGTAACCTAATCCTCTTATCAGATCTGCATAGCCCTGTCCTGCCTCCACACTTGCTGCTCCGTTCCTCTCAAGTCTGTCAACAGCTCAGTCTCCAGGGCCATGAACCACACCTGCCATTTGTTCTGTGCTCAGTGTGGGTGCAAGTGTCTGCTTGTCACCTGTTCCTACTCTATGATTTATTAGGGTAGGCTGTCCAGTTTGTGTGCCTTCACAGGCCAATGTCACTGTGAGTTGGGCCTTAATAATT
0.118257323478073 CAGGAAAAAGATGTTGTAAATCTTGCTCTAGCTCTTAAAGCTGTGACTTGAAAGTGACACAGGTCATGTCTGTTGACATTTCATTGACCACAGTCACATGGCCACACCTAACTTCAAAAGGGGTAGACAAGTATGTTCCTATGCTGTACTCAAGATAAAGAGGTACAGAGTGTGTGAAGGCCCTAATGACTGTCATGGGAACAAACAGAGGAAGAGCAGGACTTGAAAGAGATTGGGATGAGGCCTAAGAGCTGGGAAATGTAACAGGAGAGTAGTATAAACAAGGCCAAGGCAAGAGACAGTGCTAAGGAAAAGGAAGCAGTCAACTATCATAGAGAGAGAGAAGTCACATAAGATGAGGACGGACTGTTGTGT
0.1411639014947257 TTACCTACTGCTTCTGAAGTCTCCTTTCTCTTCTGTGTAAACTAATCTGATGAAATGAGCTGCTTTACTCGTTAAATATGTCAACTCCCTGGGGATGTATCCCGCCAGGGGCAGGCTGTGTAAGATCCAGCCTCTTCGTACCACCACTTCAGCTGCGATAAGAAGGTGCTTAACTTGACGGGTGAAATAGAGCGAGAACACTGGTGATAGTCACTGCTTAGTTCTAAGTGTGCTTCTGTGCAGTGATTTAAGCAGCACAGAAGAGGGGGAAGGGAGATTTAGATACATTTTATCTTTATCTTTAGTTCTGATAGGATATGGCTCACACATCCCAAACCCTAACCCT
0.9120404150438051 TGCAGAGCCATGAGGACCCTGGAGACCCCAGGAACAAATGTCAAACACGCTCATTAAAGGGCTGGACTCTGCAGGGTGTTGGTTCTGGGCAGACCAGACCTAGTCTTAACCCCAAAAGCTCCAGCTGGCCTGGCACAGGCCCTCCAGATGAGTGGCCACTTGACCTTGGGGGCACGGGGAGGACGGCCCTGGCTGGAGGGGAGGGGCTCCCTGGACAACTGTGCATAGCCTGGGTGCTCAGGCCCTGTCCTAGGATGGGAAGAAATTCCTCCAGGCAGCCTGCTTCTGTCTCAC
0.1333965610073085 TCACTGAGGGAAAGGCCTTCCCCCAGGCTCCTGCATGGCGATGTGCTGCACGGACACGCATGCCCACAGTGTCCACTCCAGGCTCTCCCGACAGCCCTCCCTGACCCCACCCCTCGCCAGCTCCCTTCTATCTCTCTCCTCCCTCTTCAACCATCAAACTCTTTGAAAGAGCTGTCTATACATGCTGTCTCCACGTCCTCACCTCCAGCTCGCTTCTCAACCCACTCCAAACTGGCTTCCATTCCCACCAAGTCACTCATTCATTCATTCAACAAGAACCTGTCTGTACTGGGCCCTACATTCTGCGGGCGCTGAGTGGAGTTTCTCCTACCAAGGTCACCAGCACCCTCACCATGGCTCGATCTAATGGA
0.7794125884174061 CTTTTTGCTGCATTTCTGGGTGCATTTTAGCATTTCTTATGGATTAGCACTTCAAGCAGCCATTTCATAAGCTTATTCCCCATCTATCTTGGCATTTATACACAGACATCAAATTGTATTAGAATTGAAAATGGAAGGGGGAAGGAGGGAGAGGTGGAGAGTATCTGAGTAATCAATTTGGTTCTCTCCTGCCCTTAGGCTGTGTTGACACAGCTTAGCTCTCGCCTGCTCCTCCCAGGCAAGCTTATCTGCTGCACACTGAACTCCATTAATCTTCTTGAAAGGCAAATGTGTTCAGGACAATGTTAACACTTAGCTCTCCTGAAAAGAAGACAGATTCTATGAGGTACAGAGTCAGGGCTCCAGGGCCTGCACTGGCAGTTCAGACAGGCCTCAGCCAGAAGGATTCCGTGTGGAAAGAGTGGACAGCAGAGCAATGGGCTTTGTGAACCCAAATACCAGCATCAAACCAGGTCCAACTAAACC
0.4851694957017118 GTATGTGAGCATATGTGAATTTTTTGTAGACAGTTTGTTGTTTTATCAGAGGCTAACAGAAGTATGGGACTCCTAAAAAGTTTAAGAACCACTAGTTAGACAAAGCATTTAAGCTGCTCCTGGTAATCTGTAGTCATGGAGAGTTATGCAGGGATGGAGTAGGGCAATGCCCTTGAAAGCTATCTGGATGTACAAGGCTTTCCTGTCCCTACGTCAAGTAACACTTAGTAAGCACTTACTAAATGCAGAGCTCTACATGGATTATCTCATTAAATCCCTCAACACTCATTGAAGAAAGAACGATAACATGAAGTCCATTATGCCCATTACAGACAGAGATAGTAATTAGGTCGAGGTCACATAGCTACCAAGGAGTGAGGCCAGATACCTATCTGGCTATGCTGGCTCCAAGCTGGCTCTCTATTATTGTGAGAAGTGGAT
0.4584739136059567 TGGGCCCCAGGATCTTCCCTAAGACATCAAGCCTGACTGGAACACTCATTTCTCTTTGACCTTCTCTTCTGGCCTGGCCCAACCTACAGACCATGTCACCTCCACACATTTTCCTTTCATAGCTACCCCTCTCCCACCTCTCCAGTCTCTCACCACCCTCTCAGAAAGCTCTCCCTGGCCCTGGCAGGCATCTGCCTGCTCTAGCAAACCCCACCCCCGCAACTTTCTGGCTGGGGCCAGCCAGGGCCAGTAACCCCCTCCCTGAGCCACGCCTTCTTAATATAACCCTCTGAAAGAGGAAAGCTAG
0.1365093751520386 GAGTTTAGAATTTGATGGTAATAAAATACCCAGACTCAATTTCTAAATGCCGTACTGTCAACTAAACTCCACTTGCATCCATAGGTGAAAAGGTGAAGCCGTGTTTTGTTCTTTTGCCAGTAAGTGGCAGTGCTGAGTGTAGTACAAAGAGATAGAGGATAGGGTTTCAATATCACCACTCGTACTTGTCGTCACTGAGTTTCTGCACGGAGATGAAAGGATGAGATTGAAGATGCTAACGAAGTCAGGAAAAGCCCACTTAACCGACAGTGCTAGAGAATGGAGCTCAAGTAATGCTGATAGTGCTTTTTTTCCGGGTTAAGAAGACATTTCTCC
0.2224602143605675 GCTCCACCACAGGAGGGGGAGCACGCGCCCTGCTGACCGCACGCCCACGTGATATCGCCTTCTGCCATCGCAGAAAGCAGCGGTTCAGCCTCTCTGCCTGCACACTTGCGTGATGGGGAGCTCACAAGCAGTCCACTGCATTGCTGTCAACGCTGACCATTAGAAACAGCTTCCTTATGTTGAGCCCTTTGTCGCTCACTCCATTTGTCCTACCTCTGCCCTCCAGGTCTCGCCTGCAAAGGGCTTAGCTTCTCATGACAGCACTTAAAGCATTTCAACACAGCATTAGCACCACCTAACCCCAGTTCTTCTGCTCTGCCCAAACCTCCCCGGGCCCTCCAATCATTGTGGTATGATGTAGCGTCACCATTCAGATGACTCACGTTAGGACACAAACCATCTACAGAGTCCCTTCTCC
0.7695073182603047 GTGATGACAGGGGTGCTGCTCCATCATCCACAATGCATAGAAGACAGCACGGACATGCAGAGACGCTCACAGTGCCTACAAGGACACTAAGCCCGTTAGTACAAAACGAGGGCCCCCACACCATCCAACTCCCAGACCAATACTTTCCCAACTAGGCCGAGCTATTTTTGGTTCTGGCAGCAGCAGATCTGATGATTTTGAGGTTTTATCAAAAGAAGCTTCTGGAATTCCCTTTTGAGGACCCTAGTGTGATAATCAGCAGATAAATATCAGGGCTGCCTACCCCTTCAGAGCTTGGCTGTTAGACCTGTCCTCAGCATCCAAAGCCCTAAGGAGGGTGTTATTAACACATCCCATGTGCCCTTCTGTAAATAGAAAGTCACGTCAGATGCTATTTTGAACTTGTAAGTGCTAATCTTGACATAACTAGACAGAGGATTGTTGTGGGGACTGTGTACTAGTGACAATAATTTTGTGATGAGATGAGTCAGAGAAGCAAGTATGAACTATCCCCCACCATGAGG
0.1355372620037656 TTCTGTTTCTTTGTCCCTTGGAGACACCTTAACCTTTTCCATGATGTCAGAAACAAAGGATTATGATTTTAAAAGTGGAAGAACCAGCTGGAGAGAATGAAGTTGTGTAAGTAAGATGACAGATCCTGAGGCTGACTATAAAGACAAAGACAAGCATATGGCAGCCCAGGGTGCTGATTCGAGGGCTCGCAAGTACATCTTCCTACAGTCTCACTGGGGCCATGTGGGATGTTTCTACAGCCCTGCCTTTCGTGGCTCTCAATGAACTGTTTTAGCGCGTTGCTTGGTGTCAACACTCTTCTCCCTGGCGACATATTCTTGGGAGTCTGCTTGGCTATATTTAGGCTTTAGATTCAATGAAGATTTGGCTGTGTCTGTCATCTTTGGGGTAAGTGAGTCATCGCCCCCTCTTTCAGCTGGGGAGGGAAACAGCTCTGGTTACCCTGCAGAGCCCTCCCAGCTCCAAAGTGTCAGAGGTCAGATGTGGAATCAAGGGTGTCTGTCCCCAAGTCAGTGTTTTAACTCAATTCCCTGTAGGGCTGCTCTGGAGAGACATGGAAAAGCTGAAGCACTGACATTTGGAACTAGCATCCGGCACTGCAGTCAGGGTGGCAGGCCCTCAAGAAACACTCAACTCGGGATGCTCTGGCTTCCTCCGCTGAACTCTCCCACCGACGAGCTTCAGATCTTCCCGTCTACTGACTGCATGCACAGCCAGGGCCCTGCAAGCTCATCTCTGCTTCCTACCAAGTTCCTATTAAAGGCCAGTCTTGAAGGACAGGAGGCACCAG
0.3450939648303022 TGCTCTTCAATGTGCCAGATTACTATGGTCTGAATGTTTTATCTTCTCACTCCTCATCCCACCTCAAAATAAATGTGTTGAAATTCTAACTTCAAGGTGATGAATTTGGTGGTGGAGACTTGGGAGGTGATGAGTGAATGTCCTTGTAAAAGAGGCCCAAAGGAGGGCATTTGCCCTTTCAACATGAGAGGGCACAGATAGGAGTAAACGTGTATGAGGAAGTGGGCCCTCACATCGGATCTGCGGGTACCTTGATCTTGAACTTCCCAGACCTATCCCTGTGAGAAATAACTTTCTATTGTTTATAAGGCACTATTTTT
0.1717247419966534 CAGAAAGAGCGACCAGAAATGTGCAGCAGTCAGTAATGTACCCCCCGGGGTTGCTGTTGATTGATGACTTCTCAAGGGCAGCATCTCCACGGGGCTCAGGGAATTCACCGTGAAAGTCAGCCTGGGCCTCCTGCCCACTTTCCCATTGCCTCATTCCGCTGCACAGAGAAGTGTTGAAAGGGGCTCTCCAAGATGGGCTGACTGTTTGCGACCCTCACAGAACCCTGCAGGCCATATTCACAGCAAAGTTCACATGCAGAAGAATGAGAAGGGAAAGTTAGGAAGGGTCAGAGCACATGCAGCGCTCAGTTGAGTAGTTTGGTGGAAAGAAGTGGCCTGTTCCTTCAGAGAACTTGGG
0.67157247953555 AGGAAACAAAAACATTAAAAGGCTGAGTGGATTGTTCAGGTTCCTGTAACTTCCTAGTGGCAAAACCAAGGATAAAACCTGTAGTGGCTGCTGTGGTGCACTGCTCAGATGCCTCCTCCACAGCCCTCCTCCCCACCACAGTTTTATGTCTGAGACACTCATTCCATCTGTCGACAGCTGGGAGTGTTAGTTGCTGAGACAAACAGCCAATTTCCTCTCCAGGAATTATCTTCTTTCTCTGGGCACTGTCCTCTGCCAAAGGGAGTTGCCTTGCCTAAGTTTATACCTCCTCCCTAGGCTAGGGGCAGCCTCTGTGGAAGGGGAAATTAG
0.5241468826949208 GAATTTAATTGGGTTCTTCTATGAGGAGACTTTCCAGAGGCTTTTGTATATTTCAGGCTGAGCATATCTGAGTTTTCACACCTCGTCTGTGCTTCTGAACCTTCCCTAAGGATGGAGATTGAAGATTGCTGCCCAGCTGCACAGCTTGAGTGTTGCAATTTTAGAGGACAGGGTTTTCTACAGTTTTGTTGATATCTCTTACTGTGGAAGGAAGGGGAAGTGGTAATTCTCAGATGAGGGAGGTCTCAGAGGTGCTGACAGCAGTAAGCTTACCAGGCTCAGAAGATTTGGCTCTTAACATTCTGCAACAGAGTGGTATGAAGTGAGGCTGGGGAAGTAGACAGAGCAGGTGGGGCCCTGTAGACTATATAAGGAACTATGGTCTTTTTGTTTTTCTTTTCTTTTCTTTTCTTTCTTTCTTTC
0.1120069442170129 AGAAGTTTTATTAGCACTCCATGCAGATCTAAGGTCCAGAAGCCTCTTCAACTTAATTGAAGAGGGAGAGAAGAGGGAAGTGGGAAGCTGAATTCAAATGTTTGGTTCTTGTGGACTAGCAACAAGGAAGTGAAGACAGATGAAAGAGAAACCTTGAGTGCCTTGGATCAGTTAATCAGTAACTCACTGACGCTGGCACTAAACTAGATCCCGCTGACATCCAGTGGCAATTGACCGGGTAAGGCTAGACAAGTTTGTAAGTCTCTTGCTCAGTGCAAAAGAACCAGCCACAGAGAGAAGAG
1 ATCCATTTCTTCTTCAAAGCATTGCCCTTTGTGCCAGGTGGACAGAGCCCGAATAACATGGAGCTGTTCCTGAGAAGCTCTTGCATTGGGCTGCGTCATTCAGGCTGGGAAAAGAATACTCAAAGGTGCACCTTTGACCTGGTTATCTGGACAATTGTGACTGGGGAATGACAGTTTAGAGGACCTAAAAGATGTTTAGGGAATTGCACCCAGTCGGTGTTGACAGTGAACCCAGCCATTGATCCAGCCACCCCCAGTGAGTGCTGACCATGCCAGATGGTGAGCAAGGCTCTTTGGCTACACAAAGAGGAATTGGACACCAAGGAGAG
0.4707928177487059 CCAGGCTTAGGCACCAGAGAGCCCACAGATCCAAAAAGAGAGGGTCTTTGGTGTGATCCTGGAACAGAAATATCAGTAACATTGGAGCAGACACATCATTTTCCACATAAGCACAGAGCATGAGAGGTTTTTGCCCTTTACGGTCAAACCAGATGTCTCTCATTGACCTTTTATCACGTGAAAAGAATAGAATTCAAGTCAACTTAAACGGTTATCAGGTAACCATACATGACATCATGTTTTAGTGTTTAAACGGGCAGAACACTCTTTAGGCCTTTCATTCTTCTAGCCCTCTTGAGATAACATTTGTGATAAGGTGTTGAAAAGAGCATAAGGTTTCCATCAAGCCTTTGACTCGAATGCGAACCTGTCTCCAGAGGACTTGCGGTGTTACACTTGTTTAAATGCCAAGAATCAGTAAACATTATTATAAACAAATTTTCAATAAAATCATCAAAGGTCTTTTCCCACTGAACGTGAACTAATCTTGGCCATATTTTT
0.1279530693491294 AACCATTTAGTATTAAAATCTAAACCCTGGATCATCCGGGGGTACCTGGAAGGTTAGACACAGAAGTAACCTCATGTCAGTGACCACTGTTAAAACACTCTGCCGTCCTCCTTTTTGTGTTCATATGAGCAAATGAGCATTGGTCAGGGTCAGCTTTCAACAGTACTTGAGTAGTACAGTGGTGTTAAGCCTGCTTGAGCACATGAGATAAGAATGTCTTTGCTGAGTACAGCTGAGCATTCTGTTATTTACATACATCAGAAGAACCAAATTCCTGAGCCTTTGACTTAGAGAATGATAGGCAGAAACCATTAGCAGCCTTTGCTTAGCATGTAGAGGAAAAGAAAAAG
0.3934890728598044 ATTTTGCTGTAAACCTGGAAGTGTTCAGATTAAAAGTCTTTAAAAATGAACATAAAAATAAAAAGAAAATAAACGAACACAAGGTAGCCTGCCGCTTTAACTCACAGTCAACCCTCTTTGCTTTCATGAGAGCAGTCTGGTTTTTACCCTCCCGTTGTCAACACCCTCTCCTGTCCCTGTTTCCATGAAGATTGGTTTCTGTTTAGTATTCCCCACTTCTCTTCCCATCAGCAATCTCGGTACAAAATCACTTGCCATGGTCCGTTTCCCAAAGTCCCAGGTTTTGTCAGGAATGTTGAGGGTGGGCTTTGGAGC
0.2812034161976997 TTCCAGATTGACCCTTATATCAGTGAGAACAATTTCCCCCCCATACACAACAAAGGCTCAGATGTGATTTGTTTATAGATGTGAGGCTATTTCATCTTCCCCCTTCCTTTCATTGTCAAACTTCTCTGGAGTGGTCTCCACTCACCGTGCCTTTCTGCTCTGTACATGTCCTCTCTCAAAGTCACTCATCGGGTGTAGCTCCAAAGCCTGGTAGGAGAGCTTTAAATAGCAACATGAAAAAAAAAAAGCGTCTTTGTTATCTCTTAAAGGGACATTTTCAAGTAACTTCAAGGAGCTGGAGAACAATAAGGCTGCACAACAAATGTTTCCAGCTTCAATAATACTGTTCCCAAGAACCATACTCCATAGTGCTGAAGGGTAAGAAATGATAGAGC
1 GGCTCGGTGCACAGCATAAGACTGACGTTTGCAGCGAAGAGGCCTAAAACATGACCACATAGACAACTCCTTTACAGGGTGAATTTTACAAAAAACAAAGACGTCTTCTTACCTATGGTCGGCCTCAAGTGGGCTCTCAACATTACAATGTGACAGAGCTCTCATGATTAAGTGGGAGCTGACTAGTCACCATGGGACACAGCATTCCTAAGAGGCAACTTCTTTCTTGACCCTTTTAAAAAAATGAATTTTGGCGAGACATGGTGGATCACGCCTATAATCCCAGCACTTTGGGAGGCCAAAGAGGGTGGA
0.799050913743439 TGAAGTGAGTGCTTTTGGGATTCTTTTTATAACTGTAGTATTTGTGTAGTACTGGGATTTGCCAAGTTTTGATTATGGCTTATGCAAGGAAAACTACTTTCTAGAATTGCCATCCATAAATGACCAACTGGGTCCTTTCTTAGAGTGGCAAACCCTTAAAGCTGTCAACACACTTTGAAAGCAGTCTTGGAGCACTGCAAACATTGAGTTACCTCAGATGTGACCTAAGCAGAATGGTTAACACAGTGGACAGATTTAAAGAAGTTGGGGGAGAGATGAAGATTTGAAGATGTCT
0.6351775567551643 TATAATGGAAATACTGAGACTTATTTTAGAGATAATATCTGCAAAGAGTTTATCATAGTATAGCATACCACCCACAGGCTCCCAATACATGGTCCTCATTACTGGTTTCAGTTTTCAAACTCAGAAGTGTGTGGTGACAGGGTTTCTCAAAGCAAGAGGGCCTGTGTCACCACTGGTCTGGTTTCAGTGACTTTTCACTCTTCCAAAGGGTTCTAGAACAATTGTTAGTGGTATGATCAATGGCATGTGTCATACATAATATATTTATTTGTGTGCATGTAAATACATCAAACATGC
0.4368572773799093 ATTGACCACAGAAAGGTAAATTCATTGGCACAATTGACCAGTGCAAGATGGAAGGGCCTGGAGGAGAGCTGGGATGAGGGAGGCCAGCAGCCACCTCTTAAGGGCAGCTGAAGTCCTCACACACTCAGACCTCATCTGCATAGCAAGGCAGGTGGGCCCCTTCTGTCGGCACTTAGCCTGAGTGCCATCACAGCCCATTTCAGCACGCTGTTGAAATTCATGCTGTCTCCATTTCTCATCAGATGGAGTAAGTAAACCAGCACCAGTGACAACACTGAAGCTTGTGGCTAATCAGAAATTTTCTGTGTGCTAACATATTTTTCTTTTATTTGGGGGTT
0.8591826962323306 GGCCCTGCCAGGGCTGTGCTCCTGGACTAGAGGGCTGCAGTCCGGCCACCGGGCACAGGCTGGCTAATTGCCGACGCGCAGCGCTGCCCTGGACTATGACACAGGCCCCTGACAGACATGATTTATGAGGGCCCTCGGCAAAGCGGAACCCACTCAATTGCCTATTACCTCACTTAGCAGACACCTTGTCACCGCCCGAGAGCCGGGTGTTAAAAATACAAACCAGGCGGCCAGTCGGCCCCGAGTGTGGCCCCTCCACCTGCTCCGCACCAGATAACCAGCCTTCCAGCCAGCCAGCTGATCTCTGCTCGGCTGAACTGGGGAGAAGACGCTGAGAGTGGATTAATGAAGTAGATGTCATCAGGTCTCAGTCTCTGGGTTGAGGAGGTGGACAGCGGGAGCAGGGATGGGACCCCAATATCCAGACTGGTCCATCTGCTGGTAGTGCCTGCTGCAG
0.977016084519975 ACCCCCTTAGCCTCCCTCCCATGCTTGTTGGTGCACAAAGTCCTGAGGGGGCCAAGCCGGCAGGCGTCTGGCATGTCAGCTCTACCCCGACTGTGTGCATATCTGGCCAGGCTGTGACATTGCCCAGGCTCAGCCCTGACTTTACTCTGAGATTGGAGTGGGCGTTGACAGCGGGGAGAAGGCAGGCAGTGGGAGCAGGCACTTCCGGGCCCGCAGGGGGAAGTGCCGGCTCCCTTCCTGGGCCCCCAAGAACAGAGATGCCCGGGTCCTGAGCCATGGCAGGGAGGCTGCAGCTGCACCTGTGG
0.1020720378698734 CATCCTTTAAATTACTACTTGGATAAACTCTGCTTTTAAATGCCATAAGTCATATAAGATAGGCATGTACTTCTGTGACAAAGCAATGAAAATCGAATGTGGCTTTATCACCTTACAGTTGTGTTACTTGAGATAGGCCACTTGGAGTCTTGAGTGCCCCATCTGTAATGTGGAGGACAGTACTGCTTGCTTGACAGAGCTGTGAGGAATTCAAGTGCTCACTCGTGTTAAAGTTCCTGGAAGAAGACTTGCTAAGTAGTAGGTGCCCAATAAATGTGAATTTTACAACCAAAAAAATTTAAATATTGTGTAT
0.9207380258156896 CTGCTTCAGCCATGTCATTTGTCTTCAGGTCCTGCCCTGAGCTCCTCTGTGGCATTGCCCTGCACTGAACAGCTGTTGTTTTAGGACAGGCTGCATTTCTGTGAGTACAAGATGGTCTTTGCAGGTGGCTGGTACATGAATTTTAAGCTTGTTGAGTGCTTTGAGATATGAAGCTAAAAATACATGTGGGAGGTGTGTGTATGTGTGTGTGTGTGTGTGTGTGTGTGTTTGAGAGAGAGATTATTCTTTGTACAAAGAAAAAGTGACAAGGGGTTATATGCCGCTGATGTTCCTGCATCATCATCATCAAATACTGTTTATTAAGC
0.9180943066214645 ACAACTTCCTCTCCTCCGCTCATGTGGGTAAAGTCTCCTAACCAAACAACTCTCCTTATCAACAGGACCAGGTGAAGTTCCTGCTTATCCCTGAGCACAGAAGATTTCAGTTTTCTGTCAGACCATAGATCAAATGAGGCAATCACATTTTTCCCAGGGAATGAAAAAGGACAAGCACCCTCTTGAAACTACAAAGCCTGCTTTCCACAGCTGCTGCTTATCCACTCTGTTTCAAGGACACCCCCATGTAACCCTGCATGACATGCTGTGCCCTTCTCCCTGGGACTGTGAGTCTACGTGACTAAAACACTGCTGTCCATCTCATCTGTCCAATTGCAGGTCTCATGTGTTGAGTCATTCTCATACCCTGGAGTGGGAATCCCTTCCTCATGAACAAGAAGAGAAAAGGATTGAAACACTATTGAATAAGACTAAGCCAATAGGAGAAATACAACAAAAGAATTTGGTTATTTAAATAAAATACAT
0.1602127874295168 GATATAATCATGCATAGGAAAAGAAGAAAGAAAAATGTGTTGAGATTGAAATCCAACTTTCCTAGTGTGGCATCCAGGCCCTTCATAAATGTTCCTCTGTTCTGTTTCATTTCTCAGCACTCATCAGCTTGTAGTCCGAATCACTCTTATGCCTCCTTGAAAACTCTCAGATCTCTCACAGCACACTCTGATCTCTCACAGCTCTGGACATTTGTACATACTTTTGTTTCTGCCTCCTGGAAGGCTTTCTCTTGCTCTTTACCTTGATAACTCCTCTTGACCTTTCCACACAGTGCCTACATGCCACCTCCTTCTGGAAGGCTTCCATGACCTCTTCCCAGTTTCAACAGCTTGTGAATAATTCTAACTAATAATTATCATACTGGGCAGTGATGGTCTATTTAG
0.1022805456563314 AAGCAATTAATACAACATTGAGGATAAAATCCACATTTCCACGTGAAATGTCTAGAAAACTGCAGTTCACTTCCCTTTGTGCTTGCCTGTATCAGTTATCAACACCTCGGTAAGTACTTACTTTGCAGTGTCAGCACCACTTGTAATAAGAGTGTTGATCAGCAGCTCATGGCCATACCGTGCTGCTATGTGCAAAGGGGTATTTCCATTCTTATCCTCACAGTCGATTACAGCTCCTGCAATATAGGACTTACTGTCAGACACTGGACCATATAAAGATCAGGTCAAACGTACTACATGAAA
0.4191020827520668 GCCAGTATTTGAACCCAGGTCTGTGTCACACCCAAGTCCACCCCTAACCACCACATAATCAATTCTGAACCAACTCTGAGCCACTATATACTGGACACTCATCGCCTCCCTGTGACAGCAGCACCTGCCACCTCAGAGGGGTTCAACAAGTTTGCTGAAAGCATTTGCAGTTACGAGTGGAGCACCAACTATTTTAGTTGATTGCTGGCACTTAAATAAGAGAGTGTTTACTGCTGAAAAGTCTGGTGGTTCTTTCTTTGAATGAGGCTTATCTGGGCTCCCCAGCAGGACATGCCCTCCACACACTCACATTCCGCTTGCCTCTCACTCTCAATGTTATTCTTGGGGAGCCACTCCTGAGAAATACACAATGTTTATCTGGTCCAAAGACCACAGTGAGTGACTATATGAGTCCGTTCTCACGCTGCTGATAAACACATACCTGAAACTGGGTAATTTATAAAGGAAAGAGGTTTAATGGACTCAGT
0.1426744783011012 GCATATATATATGCACACACACACACATATATTTTAGAAAGACACTTGCAAGCTCTCAAAAATGAGTTGCTGCAATACCATTCCCTCTGCCAATCATATGGGTTAAGGCTGATTTTATTGCCAGTCATATCGTACTCAAGTTGAAGTGCTAAGAATGCTGTCTTATCCCTCAGCTAGATTAGTTTTAAAAGGTGATCCTGAAGTCCTGACAAGCACAGAGTGAGGATTTACGAAGTGACAAACAGATGCCGACGACATTTACTGTGAGATTTCTCATAGCTGAATTCCCAGTCCTGGCCAAGGAG
1 TCCTCTCACCCTAGGGCAAATAACAACCATTTCTATCCCTTTCTTCACTTTGCACTATTTTCCCAGGCCTTAAGTAAGTCTGCTAGAGTTGAATTATTCTCGAGGCAACAGGGGAAAGCTGCTGAAAGGCAGCTGCCGTCACTCTCTCGATCTCTAATCTCATAATTTCTTCATGGCCTTCTGCACACCGGGGATCACTGAACAGCCTTCCACACCTGCAGGTGTTATTTTTGCAACTCTTCCCCAGGGTCTTCAAACCAGAGTTGGGTCTTTTCTTGGCTTCCTGCTGCTAAAAGCCAAACAAAGAGAAGGGAGAGAACATCATTTATAAAAGCCT
0.2544407127042452 CCAAGGATAAAAACCCTTTCTTGTAGCTCAGAAGGAGGTATTTCTTCACTCTGTCTCAACTCTGTTGTATCTCTCTCCCCAACCCTCAACCCCACATAATCCCATACTGCATCTGGCTCACTGCTTTTCATCCCTCAGAACTCTCCAGGCACTCATCACTTCATTCAGGAAAGTGCCACTGACTGGTCTGATTGCGATGGCATTCCTTGGTGTTACCATCCCACTGTATCCCTCTGAGCTCTGTTGACTGACTTTTCTATATCCCATTCTAGACTATAAATGTTTTGAGAGTTGTATGT
0.264437204730599 CTCACCCCACACAGATCCTGTGCTGATTGACTGCCATCGCCAGGCTTCTGTACCAGGCAATCAATCAAAAGAGACCTTCCCACGCGGAACAGCCGCCGCCCCTCCACCAGACTGCTGCCTCTGACATTTCCTGCGTGCCTGGACTGAGCCTGTTTGGAAGGCTCCAGCCCCCTCCTATCAGTCTGGGCACTCAGGGCTCTGGCAGCAGCTGCCGCTCTGAATGTTGACACCCTGCCACGTCAACACTGGCCGGGCCGATGTTCCTTCACACTCATCTGCTGAGCCCAAACTTCCCCTGCTGGCGGGCTCTCCCTGTTTGAATGGGCTCCCAGTCAGAAAGGGCTCCCTGAAGCCTTAGCTCCTTGAAGCTCGCCCCTTGCAGCCTTCCGGCTAGAGGATGTGGCTGTTGGATCAGCTCAGTGATC
0.1383124860144571 TGCAAGTTTGGCCAACAGGAGAATGTTTTGGGTGCTGAGGTTCTATTTTTTCCATCTGCTATATAGCACACCAATAGAGGGCTATTTTAATTCCTTTCAGCCATGTGGCAAATAGTCACTTACATGATGCTCTTTCTAGCACTTCACCTTTGAGGGGTGACCTGGCTGATGACAGTTACATGTACTCATGCTAATTCAGTGAGAAACGTTCAAATCAAAGCCTGTTGTGGGCTCCACTAGAGCCTGAAGACTTTGGGCTCCTTAAACGTAAAGGGTCAAGTGGCTTTTGGCTCCTGTTTTATCCAGCAGGAGACTGGCTTGTATTTCTGTAGGGCTGTCTTGTTTTAAACATGATTTCAAGCAGGCGGTTATTCCAGACTATCACCACAGCCCCCATCCTGACAAAAGAGGCTGATGTTGCCAGGTCAGTGTATGTGTGACATGTTTCATCACCTTGCTTCTTGGCCAGCATGATTTGTTAAAAGCTGTACCACAGGATACACAACCCCC
0.6124042217879629 GATATGTTGGCAAACTGCCCTGTATTTGAAAATAGAGGAAATGCCCTGGAAAGAATGAGATGTGGTAAAGAGAGGAAATGACAATGTACTGAAAAGACTGGGCTGTAAGTCATCACAGCGGCGCCCTGAAACCCGATATGTCAGGCAAGCTGGTGGGATCCTGGGATCCCTCATGTAACGGCACTCATTCTGACAGAAGCAGAGATAAAACAGACTAAGTACACAGAGGAGTTTAAGGTTTCGTGAATGTAAGTGCTGAGTACAGAATGGTGCTCAATAAAAGCTTGTTAATTGATGGACCACAGGTTTGTGACAAGACTTCTCAGAGTCTGATTCTTTCAAGGTGGGATATAAGAGTAAGGTAAGCACCTCAGAAAATGCCTGGGGCAGGTCACTCAGTGTTGCTGG
0.03724957455329968 ATAAAATGCGAGTTTAGCATAAGAATGAGGTATATTTCAGTTAAGTAGTGTGTTATACAAATAGATATATCCCTAAAAAACTCAGACACAAATCTTTTCTGTCACTTGAATTCCATTTTCACATTGACTTTCAGGATCATTTCAGAGTTACTACCATTATTTATTTTTAGTAGATCTCTAGTAGCCTACCACTTCAACTTTGTCAGTCAAGTACTTAGTAAGTGATGACCTCTTAAGCAAACACTCAAGTACCCTAGAAGAGCTTACTAGAAACAGAAAGCCTGTCATGAGTCCTCTAATAAAGTGGATATTCTTTTTGTTATATAAATACGAAATTTGAAAAGAGGAAAAGCAAATGTTAGATTTCTAGATCTGAAAAGGACCGGAGAAACAA
0.2444404215079675 TATTCTTGTACCTATATATCCACACCCTTGGGTGAGTATTTCTGGAACTGCCGAATCAAAGCAATGCACATCTTAACTTTTAGCAGCTATTTGGGCTTGTGGAGTTTAAGCATCTGCTTCTGAAGCTCAGATGAGTGAACCTGATTACTGATGGGAAGCAGACGGCAGACCCTGTCATCACCAGCTCCTGCCCAGTGTGATTGAGAGTGGGACTTTGTGGGGAAGGGGCAAGATGAAAGGTGACGCAGCAGGAGGTTTCCACAGAGAGCTTGCGTTGTTTGTTGGCAGCAGTTTGCCCTCTGGACACCCAGCCAACTTGGAACTGTTTTCTAACAACCAAAATGTT
0.6376895769637672 CCCTTTTAGGAGCACCCGTGCGGCCTTTTTGTTTTATTAGAACATGCCAGGCACACTTTCGAGCCAGGGACTCTTGCTTCAGTTCACCCTGTCTGGACGGTATCTATCAACTTGGTAAGCTCAAAGCAGGAAATATTTTTAGAAACACTCAAAGTTTCAAGTGTAGAAAACTCTTATCTAACAGTTCTAAAGGAATAGGATGGGGATCATGGGTAATTACAATCCATGGGTAAATTTTTAAAAGCTTCCTTTGGCTTTTTTTATTATCAAGATATTTTCCTTGTTGAACTTGTGATACAGATA
0.7865490304274253 GATATTTATCTCTAGGAATAATAAAATTGCTATTGCTTAAGCAAGGGCTATAAATTTCAACTTTACTAGGTACTGTATCTAAAAGTAGTTGTTCCAACTTACATCCCAACAAGCCCTTGATGAGTGTTGCTATTGCTCTCCAACCTTGTCAACGCTTTGAACTGCTAGACGTTCTACTTTTCTCTATTCTGAGGCATGTGTAGTGGAATCTCATTAAGAGTTTATGTTGTATCTCCTGGCTACTACTGAGACTAAGGATTTTTTCATGTCTTGGACATTATT
0.2169111560989893 TCATAGCATGTGCTCCTTTCACAGAAGCAGCTTGTTAATCGTCAGGAAGGATTTCAGACAACCTAGTGATGATTTCCAGCTCAACTGCTTCCCTTCCATGAGGCACCGATACCCTATTTGTGTGTGATAAGGTGATGATTTCCCTTTCATCTCAAAGCTCTGACTCAAGTGGTTGGAGGGGCTTGGTGATGCGAAGGCTGAGAGAGATACAGAGATGAAGGATGATTTCTTTACCAATGACACTTCTTTAGGTATCTCAGTTGTTATTGTTTCTAGAATTAGTATAAGATTTTTCAGAGGACAATAGGAGAAATAG
0.1944650491245053 CCCCCTTGCAGGCACAGCTGTAGCTACCCGAGTTGTGGCTACGGACCCAGGCATCCTCGTGCTTGGGAAGGCCCCCCTCCCTTACAGCCCTGGAAATGCCTGCTCCTACTGCCTGGCTTTTCCCTGCTGTCAGCACCCACTCCAATCTCAGAGCAAAGTCGGGGCAGTGCTGACACACCAGTGCCCTGCCGCCTTGGCCCCCTCTGGACTTTGGGCACTGACAAACATAGGAAGTAAGCTGATGGGGGATGTGTGCAGCTCAATGCTGGCCTGCAGACACCCCATGGAACCT
0.3698751144881396 AGGGTAAGTAATAGGAATCCCAATTTTGGCCACTTGATGTATGTCCCCAAACCAGTTTTCCAGGATTATTTATGGCTCCATGCTTTGCACTTATAGGGTGGCCTCAGAAGGCTTTCCTCCATTAACAATCCCATCAGGTGACTTTGAGAGCCACTTCCATGAGATGGCTGTGTTGACAACTCAGAGAGTTCCACCACAAAGGCTGACTCAGTCCGAAAAAATGACAGCACATAGATGGAAGGCAACAGGTGAAAAGCAGAGGTCAGACTTTCCAACGTTGACCACTCTGGCTTTGATTACACCAGGTAGATGTGTGGCACTGAAACGGGA
0.09503797424974741 CTGCATACTCACCGCCACATTTGTCTCTTGCTCAGTTTCTGGCACGTAAGGGTAATGGTTATAAAACATATCATTTCGCACCATCTTTTTCCTCATCCTGCAGGGCCCTTCTGTCATCTCCAGCATCCACTTGTCGAGGTGGGAGCCGATGGGAGGGCCCCACAGCCCCCGCTCCCTCAACAGCTCGCACTCGATCTGACACCACTCTTCTGTCACGTACTTCAGGGCATTCTGCTGACGCTGACAGGAAAGAGTCCAGGTCGGTTTTCAAGCAAAAGCAGGAGTAACAGTAACAAGTCTACAAGTCACTGAAAATCAAGTTATTATTTGGAAACAAACACAATCCACACCA
0.419320192632661 ATTAGAGTTTTTAGTGTGAGGGTTGCAGTCAATCTAGTAAGAAATGCGACTGGATTTGGGCATTATTACTGCTATGGTATCCTCAGTGCAGCACAGGCTTCATGTTTTTCTAGTTTACTATGTGTTTTCAGGTAGGAGTCCATGTGCCAGAGAGTGTTCTCAATCATCCCCTCCTTCAGCTTTAAGTGTTTTGCTTGTCATTTGATGCTTGTTAGCTTGATGATGGAGTGGTGGTGGAGTTCTCTGTCATGATTAAGCTTCAGACTTAGACAAGCTCTGGGATCCTGAGAATCAGAGATATGGCCCTCTCAGTTGCCCTGACACTTCCTGACATAAAGTTCTGCACAAAACAT
0.2996795693423047 GGCAATGAATAAGGCACACCCAGCCTGCTTTGGGGTTTAGAGCCTCCTGCACTCCCGCCTCCACCATAGAGGAGCCAGACTGGGTTCATGCTCCACAGTCTTCCAGCTGCGTCTCCTGGAATGAACCTTTGAGTAACAACTCTGAGTGAGTGATGATACCCCCCTTATTGTGGACCCACACTCAGAGATAAGCCCAACTCACAGGTCACGGGGAAGCCCGTGTCCTTATCTCTTCAGTTCCCGGCCCTCTTGGAGCAGCATGTCTCCTTTGATGAGGGGGTTGAAATACTGGATGCTTTCCTCGGTCCTTTCATACACTTATTCAGAAATTTATGTGACACGCTGGAAGGACTTCCTGGACAACAGACGGGCAAACTTTCAGTTAATTGTGTGAGGGCTTCAAGTGGTTTCAAGTGACAATGGAGTAAGAAATGAGACTTGTCAAAGTCCTTGCCTGTTGTAGGAGAGAGAACCGCGCTGCTCCTGGTGCACGCTGACTGCAGTCCTAACCACGCAGCTCTGACAGCAGACCGCCATGTACAGTG
1 AAAGTAAAAATGTACCTGGCTAGTGTGAAACAACCCTTTATTCAGAATGATTTCTTTAAAGGCTTTATGAAGCAAGTGTTACTATTTTACAAAGCAGCCTGTGAACTCTGTGCCATGTGTTGACAAACTCAGTGGGTTTTCAGCGAAACATTTCATCAAATAAGACACATTGTAGCACTGCTGAGGGGCTATCACCCAGATGTCAACGGCTCAATGCCACACAGGAGACTTGTGGGAAAAGTCTTAAGCCATTAGGTCATGGAAGATAACTGCAAGAGGGGGAAAGGACGCTGGCTTGGGAAACACTGGTGTGTCATATGATAAAAAC
0.1565499300591955 CTGAAAATTTAAGTCACCTCTCTCAAGCTGGTACAAGCTAGGTCCAGCACACCAGAGGTTAGAATCTGACAGGGCTGGAAGAGAGTAGTATGTTCACTGTAGCTGCCATTTCGCCTCCCACTTCTGGTGGAGACAATATCAAATTCACTCCTGAGTGGTGCTTCAAGTGGCTTTTCAAGGTTGAAGGATATTAATAGCTTAAGAGTAGGTCCTTATAGACATCCTGGCCTGCAGCTACTTGCTTTTGAAGCATTGTCAAGTAGGGCTCAGATGTGGGAATAGAGCACTTTTAGCCTGTAGGCATAAAAGTACAGTT
1 AACTGGACTAACTGGACTAAGGATTGGGAGCAAATCAAAGCCCACTGTGCTATGACCATATGCGAAGACAGCTCCGTGCACAGCACCTTCTTAAGTGCACAGTCCCCACCAGTATCTGAAGAGGCCTGACACCGCAATGCAAGGAATGAAGGAAGGTGTCACACGCGACCACTGCAAAATGTCAGCAAATACCTAGGATCACTGGGACCGCTGCTGGGTTCCAGGGCACTCAGAGGGCCCCTGTGGTCTTTCCCTGGGCTCCGCCTGGGCTGCACGACATGAGACCCAGAAACTCCGTGGGCGCCGAGACTCCGGCACTACC
1 ATTATAGAATCTACAGAGACACCATAATCTTCCTATTTTAAGACACAATTTTAATTGTAATTTTGCTAAACTCTCTCCTAAGACAAGCAGCAGCTTTTTATCGCCTGTTATCTAGGGTGTTGCTTTCACAAATCCACACCCTCTGGGCCCGTCACAGGCAGCCAGATCCTGGGACTTCTCAGTCAGTTGCTTTGCTGACGGTTCTTCAGAGGTGATGAGCTGTGTGTGAAGGCCCCCTTCAGACCATGGTCCCACGAGGGCATTACACATCAGGCATATGTGCAGAGATTAGAAACTTCTCAAGGATTTCATGTTCTATTCCAAGAAGTAAGGTCTAAAAATGAAAACCCATTTTAAGCTCTTTTGTGGTTATACTTTTGGCAACATGGAAGGAGGACAAACCTACACAGTTTTGTGTTGCTTTGTGTTTTT
0.8603560273225992 GTCCTTAAAGATGTGAAGGAATGGTCAAAGAGGTAGGTAAGAGAAAAGCCAGAGGGGCAGTGTGCCATGGAAGCTATATGTAGATAGTGTTCAAGGAGGAGGAAGTGTTTAACTGTATCAAAGTTGCTGAGAGGTTGAGTAAGATAGCACTGAAGAATGTCCATTGGATTTAGTAACAAGGAGGTTGTGGAGAGCAGTTTGAGTGGAATGTTGGGGGAGGCACCTTGGGTGTCTGCCAGTGGGTGAGAAGTGAAGTGATAACAGAAATCAGACCAGAGGACATACACTCACAATTCACAAAACAAAAAATACAAAGGGTGAGAAAAATAATATATATGAAAAAATAGAATG
0.1396706307972961 AACTATTCCAATCATTGGATCACTCCTATTGCTCCAAGGCATGCCTGTATCCCTCAGTCAGTGTTGGAGAGTCTTAATAATTCTATTTTTAAATTTTCAGATTTCATGCTGACATGCTCCTTAGTCTGCACTTGAAATTCCAGTGGACACTTGACATTGGAAAAGGTCTGCTCTGGGGACCTGTGAAAATCTCTAAATGGAGAATTCTCTCACTCACGATTTATCGCTATAAGCTATTTCTGCCTCAGAGATATAAACAACGCAGATCTTGGGATGGCAAGGCAAA
0.7101208123161648 ATCTATGTTTCCTGAATTCATTGTTCATGAAGTTAATGCCCTCATTATATGAAATATTGAAATCCATCCTCACAGTCCTTGCTTTCTGGCTGAGGACACACATGATCCATAAATCTAAAATGGGCTTTAGAACAGTTACAAAGTAGTCTGCCGATGAAGTGAGTGTGAGTGAAGAGAGCGCTGAGTAAATGGCTGATAAGGGAGGCGTGGGGAGAGGAGTGACGAGTCCGAGTCCTTGCAGCCAGAGGTAGGGCACAGGCGGGAGACAAGCTGCGGGTGGGGGACAGCAGGCACCCCAGCAGCAGT
0.896470257486534 ACTGTATTTTACCTCTTTTCTTGTCTGTATCCTTCCATCTGGTATATTCTAAGCTTCTTAATCCTAAGCACAAGGACTGTGTCTTATTTTTAGTACTATCTCCAGCCCCTAGCTCAAGCACCAACACTTAAGGAGCACTCAATACCAGTTGAATGAATTTTGTTAGATTGCAGAGGGTCTGGAATCTGTATTGTCTTTGTGCAATTGCAGCTGAAGGTCATACACTATACAACCAAAATGCACCAGTAGATAATGGAGATTTTGCCTAGATCAATTATCCTGGCCAAAGGTC
0.2631201172752883 TTTAAATTTGTGAGCAAAGTAGGCGACTGGGGAGTGGGGCAAGGATTGTATGCGTGAAACTATGTGTTCACCTGGAGGAGTAATCTAGGGATACCCTTAAGCCTCTGGCTTGAGTGACTGGCTTCTTGATAGCACTCATGTCTAAGGTTGGGAAAATATTAAGAGGCAACAGTTTTGGTTGGGGAATTAAGTAGGGTCACAAGTTCAGTTGAGGATGTGTTGAGTTGCGGTGTCGAGTTGCGGTATTGAGTTGTGGTGCTGAGTTGTGATAGTGAGCAGGAGGCACATGCAGATGTCTATGTCCAGAGGGCAGTTGCTCCGTGCACAGGGGACTGGGAAGGGTGATGAATT
0.7430272711583013 AGAATGGAAGGCCTTTGGCCTTTGTAAATGCAGCTCCCCGGCACAGGCCTCAAGTTCCTATCAGTGGTCTGTTTCTTGAGCCCTGGGTTGAAGATTATTTTGTTGACAATGTGGAGATTACTTTAGAGAGTGGTGCTCAGGGCTGTTAGGTGATTAAGTGGATGGAGGGTAGAAAGTATTGAGCAATACCTCTTTTTTTTTTTTAGACAGGGTTTTTCTGAAACAGAAAAATATCAGATAACACCACTAGTTAGACTAGAGTCTTCTGTTTCTTGAGATTTTGGAGGGGAGGAGAAAGAGTCA
1 CATGGTCAGGACCCATGCTAATATTCCTGGCCAGTGCATTCAGGTTTGGGTTGGAGAAGCCCCAGCTCCATCTGCAAAGCTGGTCTGTGTTCCCAGTTCTCTTGTCATGTTGACGCCCCTCTCTGCTTGTCATGACTCAGGCGCTGACAGCCTCAATGGTGCTGGCAATCCATCAGTGAGTGGAAAAAGATAATTGACCATCATCTCACCTCACCTCGCCTTGCCTCAACTGATAGAGAGAAATTTAACTGCTTCATTCCACTATAATTTCATATAATTCTCCATCTTTTTCTTCCTCGTTTTTACTTGGAAGTTTACAAAAGTGATTGATGATTTGCTAT
0.5902866395839088 CTTAATTTTACATGAGGAAGAAGAGGATTGGTGGAGATACAGTAGGTGAACAGTTTTTGTATGAGGAAGTTGAACATGTGTCATTCTAATAGCTTCCATTCTCTGTGAAGTAGAGGGCAAGGTCATCTACTGAGAGTTGGGGAGGTCAAGAGAGATAAGGGGAGATTAGAAGAGCTCTTCTAGCAGAGAGTGGAAGAATGAATTGCTAAGAGAGATGAAGTAGGATTGTTAAGTAGTTTTGAGGGCCCTGTTGAGATGTGCTTCCAGTTGGGTGTGATTTTCTCCAGTAGTGCTTTATTTCCCTGGGTACAGGCAGAGAGAAAAACAATAAGGCTCATGTAGGGTTTGTATTTTGTTGGACAAGTCAAACAGAAAAGTCAGAG
0.2152525323221791 AAAATCCAAATCATCGACACTTTTTCTAAATTGAAGTCCCACAAAGCATTTACTATTGCATTGCTTTTCAAACAAACCGTTATCTAACAACCCACTGTTAATGGGGTAGACTGTGGAGGGTCTGATTCTGCCCTATCAGCACATCCGCAGGAAACACCTGCAGAAATCATCACCAGGGAGATGCCGGGGGCAGGGGTGATGGTCGAGTGTGTGTGGACATGTCTGTATTCTGAGTGTGGCAGTGGCTTTCCAGAGGGACACTTCTGCCACAACTCATCCAATGGTCACTGTCAACGAGTACAGTTTATCACGTGTAGATAATGTGTCTGTAAAGTTCACTTCTCACAAAGTGCTCCTGTGTGACTCCAGAGCCCAGGAGAATGGGAAGCTCTTCTGGCTCTTGG
1 CATCTGCCTCAGGCTGGCCCTGGGTCTCCTCCCAAGAGGGTGGCCTGACATCCGGGGGCTTTGGGTGACAACCTGGCCCCTATCCCCGGCCCCAGCCACCAACTCCCAGCCCCCAGCACACACGTGGTTCGTGAGGTCCATCAGGAGGTCCTCAGACATGTCATCACTGTTCAGCAGTCGCAGGATGATCCTCTGCAGATCCTCCTCATCAATGAAGCCATTCTCATTAAAATCTGCAAAGAAGAGGCCAGGCCTGCATTAGACGGAGCTGGGGGCTAAACAGGAAGAGGACTTGAGGAGTCCTGGGGG
0.3299427506394593 GCAATTTCCCTCACCTTTATAAAATTATTTCTTCACCCCCCTTTAAGTCTACTCCCATTTCTCTGTTCCACCTTACAGCAAAAGCTTCTTGAATCAGTGTCTACGCTCCAATTTCTTCCTCCTTGTTATCTCTTGAAGCCACTCCAGGCACACTCTGCCCCTCAGCACTTCACCAGAATCACCCTCTTGTCATGGTCACCAGACAACTCGTCTGTTTTTAGAACTGCCTGAGTTGATCTTTCCCTCCTTTGAAGAACACTTTCTTCACCTGACTTCAAGGATGCCCTAAGCTTCTGACTGTCTTCCCACTTTTCCTAGCTGCGC
1 TGGCAGAGTTGAGACGGTTGACTCCAATTTTGAAAGAGGTCCTACTGTGGGCAAAATGTATTGTGTGCTACAGAGAAATCTTTCATGAAAAGAAGAGTCCATCAATGCAACAATTACTATTTTTAGAAATTTCCACAGCCACTCCAACCTTCAGCAGCCACTACCCTGGTCAGTTAGCAGCCATCATTCAAAGCAAGACCCTCTATCAGCCAGAAGATTACAATTTACTGCAGGCTCAGATGCTCATGAGCATTTTTTAGCAATAAAGCATTTTAAAATTAAGGTATGTACAATTTT
0.1640233562533776 TGGAATTACTTTTCTGATTTATCTTTAGTTGGGGAAAAGGATAGGGAAAATACAACTCCAAATAGGCCAGTCACTGGTTTTAGGCTGACCCTAGAAAGAATGTGTGATCTTGTCAGCCATATCTGGAAAGAGCTGCCAGCTGAGAGCTCTTAATCAGCAACACTCTCAGAAGTTGAAGCGAGGGTTTTGCTAGTTGAGTGCACTGTGCATTACCTTAAGGTTACCACTATTTTGTTTCATGTTACATGAATTCTCAGCAGTGTTTGATAGTCATGATGTGTATGAAATGACATGATTTGTTTTTTATTCATCTTC
0.6798012619325637 GCTGTAGCTGCCAAATCTTATTCATACTTCCTCCAAGCATAAGCACATGCATGCACACAGACACAGCCGCCAAATGCACCCTCCTTGTCTACTCCTCAGCCTCACCTCGTACCTGATAACAGATTGTACTCAAAGGCACTGGAAGACCACATGGCTGCCTGGAGCACCTTTCAATTATTAATGCTGTTCTTTAAAGGCCTTGCCTTATTATTTCTACTCATGCTATTATGAAGAGGGCAAACTCCTTAATGCACTCCTGTGCCACTTCCTCCCACTGCTAGAGGAAAAGCA
0.02104059570932978 AGGGCCTGTCCCATCCTCCCCCGCTCCCCGGGGGCAGCGGGCACAGCGCAGTGGTAGGTGGAGACTGCACTCGCACTGGCTGCCCAGGTGCCACTTGGGGCTCTGTCACCAACTAGCTGTGTGACTCACAACACCTCACAGTCTCTCTTCAGTCTGTTTCCTCATCTGTAAAATGGAGATAATTATAACCATAGGGTCGTTGTGAGGATTAAAGAGGTAATCTCTGTAAAGTGCTTAGCAGAGTGTAGCCGACTAAGTGCTTGATAAATGTAAGCTATTTTTAGGTCAGGCCAGCACTTCCCCCTTTGAGAGCTGTCAATGGCTGCCTTGCCTATTAGATGAAGTACAAATAAAGGGAGAGGCAGCAGTGGTGGAGGGAGGCGAGCTCAGAGACCTGCGTGTGACTTCTGGCTGTA
0.4826633108117076 ATTGCTTGCATTCGAAATTGTATTGGATGTCCTATGCAGTTCATTATGACAATTAAAATATCATTTAAATCCATCAAAATTAAAAAGAGAAGAGTGAAGCATATAAAGACCACTCCAGAGATCTTTGGACTTTATCTCTTGAGTACTTGTAAGTACAGGGTGTTAAAGAAACTGCTTGACAGTGGAGAAAACCATCCAAAAAGACTGAACAGAACAGTCTCCAGGGTTATCACAGGGCCAGGTCCCAACCTACCAGACTTTTAATTCAAATAGAGGCCTTATCTTAATAA
1 ACTTATCACGGGTCCAAGTTTATCCTTATGCCCATAGGTTTTCATTTTGTTTTGCTTTTTTACTCTGTGTCTTCAAAGATACTGTGAGCCCCTTGAGGACAGGGATATGTCCTTCTGTGCACACCAGGAAAATTTCATAGCTCTTCCTCTTAGATGACAAGGACCACTCTAAATCCAGATACACTTCAAGTGGGTGTTCATTGATCAATCACGCCAGGCTTTGTGGTCCTTTGGGCAGTCAGGGACATGTAGCATGAGGCACAAGGTTCTAGCCACAGGCCAGGCTCGCTACAAGCCTAGTGCCCTTTGCATATCCCACTGGAACTCCTAATTTCTTTGGGATCTTCT
0.01122525477707893 ACTGTGGATCACATCCTTTTTCCCTTTGGAAGGGAAGTTAACATGAGGACAGTGTTGAAGCTGATGAGTGGCTGTTGGAGCAAATGCATGCTTGATAAGCAGTTTGAGCCTGTTACGAAATAAAATTATCTAGTTTTAGGACAAGGTTTTTATGTGGGTATATTTTACTTTAAATTGAAAATAAGGTTTATTTTTTCTCTAAAGGTCTGGAGCATGGCTAGATATAAGAGACATGGCATGTTGATGCTGAGCTCTGGGTGTGAAGAGATCCCCAGACACGGATTTGTGTGATAGTCACTTGAGTACTGCACTAGTGTTGAGTGGTGTTCAGGGGCTACCAGACAGCTGTTCAGAAGAACCTTACAGTATATGAAAGCAGGAACAGAGCTTAGCCAGCTAGGCCTAATTGGCCTGGCTCTGTATGTACAGTGGGTCTGTTTTAAGGGATTTAAAAATCCTTGTTTT
0.3410032533840833 CCAATTTCCAAAGGCAAAATCAGTGATGTCTTCCACTGTGCTGCAGCTGCCCACCTCCTGGAAGCCTGCTCTGTGTGCCCCACTTATCTGCTATTCTGGCAATGTAAACATGTGAGGAAGGCTCTTTGTTCAGAGGGCATGTTGAGTGGAATATGAGGTCAGGGTTCATCTGCATTTTTGGCTACAGAAGGCTATGGAGATAATAGGAGCCCCTTTGTGTTCAGTGGGGCTGGGTGGGAGCAAGTGGATGTCTGAAGGAGATTACAAGCAGTTCTAGATATTGCTTGTCATGCTACCATCAGCAGACGCCTTTTCCAATTGACTAGTTGCTTGTATTTCCAGAATAGGGAATGCCAGATGTATTTACTGCAGTGAAGGAGAGTGCTGAAGGCCCTTGGAAAGATATCCAGCTGTTGAGTATCTGAGGAGAGCAGGATAGTTTAACCCCTCATGGCCTAGTAATCAGAATTCCTGGGGAGCCAAGGACAGAAAAGGCAGCACACGCCAAACGAATGACTTGAGATTTGAAAGTCCTTTCTAAAGCTGCTTGTTTG
0.04320039065276908 AAGAACATCGCTATGAGTAAATGAGGGTAAACCTGAACTTAATATGTCAAGAGATAACTTCATCCAAAAACTTCTGCCTGTCCCTTAGATGCCAGTGTAATAGCACTTGACATACAGCAGTACTAAGCAGATGAAGCTGTTAAAGCCGCAGGCCACTCACCAGGCCTGTCAACACGTGGAGGTCTCAGTAACACAGGGGACTTTTGATTCAGGAGGCAAAGTTCACCCCGAGGATCACAGTGCATTAGGGAGGAACGAAAGCCTTCTGGTATGGCCAAGTGGACGAGACCAGGG
0.4346355367004199 ATGCAGCACTGAAATGGACATCCTGGCAGATAAATCTCTGACGACTGCCTTAGGATAAGTTCCCAAAAGGGAAATGAAGTGCATTTTTTCAGTGTATTTTTTGAGATACCTTTTCCATAGTCAGGTTCACAGCCACTCAAAGCTGTCAGCTGCAGGCCTCATGCTTGCTGTCTCCAAAGTGCACGTACAAGTGTCCACTACACAAATTCTGCTGGAGGCAGCTGTGTCTTGGTAGCCTAATCTGCGGATCTCCAATTAGATGGTTTCAATAAGGCAGACGATCCTCTATTCGCAAAAAAATAAATAAATAAAATAAAAT
0.3580842180019994 GTCACATCCGAAGTCAGTCTGTACTTTGGGATGCCTTAAAATTGTTTCCAAGTCCTGTGGGTGGATGAGCTCATTGGCAGCGGTGTGGACCCAGCCTAAGAGCTTAGCTTTTCCTTTGGGGCCCAGAGGGCAGGTTCACATCTCAGTGACAGCAGCCGGCTGTGGGAATGTGAGAACACGGGCACTTTGAGTGGAACACGTGGTCAGTGTTGAAAGGACAAGGGCGGCTCATCCCCAAAGCCAGGTCGTGGTAACCTGGCTGCCTGCCAGCTGACCTGCTCTGCCAGGGCCCAGGCTCTGGTAGCCAGGAGTGCTCTCATTGTGCTTGGAAATTAAGGG
0.5222394378148317 GAAAATAGCACCAGGGCTTTGGCCTCAGGAGCTCTGTAAATGGGGAGATGTTTCTGTCCCCTGAGAAACTGAAGATTCTTTGTACTGGGATGTCTTTTTCCCGTGTGGCTTCCCCTGGCTTTGAAGCAGTTCTGCAGGTTTTGAGTGGGGATGAGAGGTGACCCTATCCCTGGATTCCAGAAATGCACTTAACTCAAGAGGGATTTCCTCTGTCAAGATATCCCTAGGGCCTTTAAGTGCTCCCCTCGCACCTCTGACAGGCTAGGCCTCAGAGTCAGTGTAAAGTGCACTTGGGAAATCCAACATTTGTCCCCTCATCTAGATTTTCTCAAAGTCCATTCTTAAAATTTCTGGGAGGCCTCTACAACTAAACAGCCCACAATCGTTAAATGTATATTACTTGTAGAAGGCACAGGTGTGGAATATAAGAACAGGGCAGTTTAAGAGCACCCCTCCTCTATGTGGTTTCAGTTTACGCAGGAAGATAAGGCCAGGCTCTGTTTGTTTTTGAACCTGAAACCGGACAGGGCAGTCAG
0.0156644364164597 GCAGGCATCATTTCAATACCCCTGTCCTTTTGGGAAGCCTCCTCAAGTTCTCCAAAAACCTTCTAAACTGCAACCACTCAAACCAGTCACCTTGCACTCTGACAGGAGTAAAAGAAGAGGCGGAACTAAATGAGCCACGTCATGCTTCTTCTACAATGACTCTGGACGTTAGGTCTTTGCCGGGTGACTGGGAGCCGACCTTGTATGGCTCCAACACCACCCACCCTCCACTCACTGCCTCTGGATTAAGGTGTCCGTATCACAAAGGAAAGAAATGGACATTTCCAAGTACCTTCTATGTGGGCTTTCAGAAGAATGAAACGTCTGAAATGTCACCTTGAGTGGGTGACAATGACATGCAGATTTTAACATGACAGAAGGGAGAACTTCCAAACAATCCAACAATACAAGGGGCTGCCTCAAGTGGAAATGAGTTGGCTGCCTTGGCAGCTGTTTAAGCTGAGGCTGCTGTGGACTATGACTAACTGGGAT
0.3509543306313013 GGATAGTAATCAGGTTAGATATATCTAGGATATAAGTGACTATCCGTATTGTTAAATATAAGAAGGGAAAACATGCCTAAACATGTTTGTGGTTCACCCATCACTAATCTCCTTAACACTGAGTCCTGAGACTCCAGTGAGTGCTTTGAGGAATGTTTTGAGCATCAGTAGGCCTTTGTACTTGACTCTTCAGCTAACTCTCTGGGTCGATGACAGCTGCTCTTGCAATTAGCCCTTCCCCTGACCTCATGGTCAACCACAATAGCCTTGGAGATTTCAGGAAGGGAAACTATTGCTTTTTAGGTATCTGGACAAGACCTGCATGTGTGCAAATTAATAGGGG
1 AGATCCCATCTCTAAAAGATGGGGAAAAATGTGCAAAAGTTTCAAAATCCAACAGAAAAGTCTTAGCAGCAACTTTTAATGTTGGGCAAGCACAAGGGCATGATCACTGGGGATTGACAGGAAACACGTCTGGCAGTGGACAGCTGGACTCTCAAGATAAGCTGCAACAGAGGCATGTTCTGCATTTTAGGGCTTGCCCAGGACTGGGGACAAGCCAGAGTTCAGGAACCTGTGGGAGGAGAGAGGCCTGATGGAAGTGTGGTCAAGACAATGAAGAGGGTAGGGA
0.8103976871464385 AATAAATAAAAGCAACAGCGGCTTCCCTTTGGTCCAGATGGTGCCCTCTTGTGTAAATAGTGTTGTTAAATGAATGCCCATCAGCTGGAGGACACTCGATGACACACTGGAATGTGGAAAGAGCAGGGCAGATGAAAGAATCACCAAACACCTTCTGAATGAGCACTCACATCAGTCAACAGGAAGCCTCCACTGTACTGTGATCAGTTTTCGCTTTCAAGTGATTGACTATTATGTTAATAGATTATGAAATGGAAGTGATCAAAAAAAATGGAGGCATCAGCCTTGTATTTGAAGTAAGTTTTGTAAGTAAAT
0.8724339389036072 AATGGTGGTCCCATTTGTAATAAAGAGAAGATGAATCTGTTTTTAAATACATTTGAGTTTGAGATAATGGGAGTCCAATAGGAGGCTTGTACTGAAGGTTGATAAGGTTGACCTGTGAAAGATGAGGGTGAACACCATTGATTACAGAGGAGTGTAATGACAATGTAATCTACAATACAAAGTGCCTCTCTGCAGGACTTGGGTGTTTGTGAAGTAGTGGAGTGAGAAGCCCCAGTTGCTGTGACGGGAGCCAGGGAGTGAGATTTACAACAGTTTATTTCCCTGTAGGGGTGGTGTTATAGCTGCTTTTTCTTCACA
0.2339595057030917 CTGGAAACTTGCTTTCCTAGGTGCTGCCCCTCCTCCCTCCCTGCCTTCAGGAACAGGATTGAAAGCAGCATTAGCCTGAAGAAGTCGTTCTATTTAGGGAGCTAGAGCAGAGGGCCAGTGATTAGGCCCTTATCTGCAGCGGGGCCTTTTTGAGTGGTGTGGGGCAGGGCTGCAGTGTCTGTCCTGACACCCACAGAGGCTGGACTTTTCTGTCCCCTGGTTGGGTTAGAACTGTGAAGAACCAATAGAAGGGCTGGGCCAGCTGAATGAAAAAGCCCTTCATTGTGTTTCTTCAACATTCCAG
0.3182939844940242 TTCTCTGCAACATGCTTTTCTCATGCACCTCTCAGGCACAGCCTGTTCTAAACAAGCCTCTGCCTCTACCACCACCTCCTCCCATTGGCTGCAAGCAGTTGCCACATGGCAGATATCACATATGTGCCACTCATCACAGTCTCTTCTCACACACTAGCAGGATGATTAGATGCCATTTCAACAAGGCCCTGGAATAGGGTCATTAAGAGCTGTCATTCCCTTTTTCTAAGCCAATTTATCTGTATCAGTTGTTGTCAACCATTAGAGCCTTGCAGACTCACAAAGAGGTGTCTGAGTCGGAAATCATTTGGCATATGGTGAGCACGTGTGTACTTACGAGCTGTGCCTCATCCCTGATTGAGATCTGTCATCCCTCAGCCAAGGCCCTGGACTCCGCAATTTGCAAATCCCAGACTTTCACAGTTTGTCTCCTCCCCAGGGTGATTCCTAAAACCAGCTTTGCCTGGAA
0.3495919665807751 CCGTGCTAGTGACAACATGTGGGGACCTCTCATCCCAAAGTTTTGGGACAAAGTCTCCCGTCCCTTATCATTTGTTTTCACTGAGGCTAAATGTATCTGTTCAGTACATGGATAGATTTTTAAGCTCCTCTCACAAAGTCTTGTGCTTGAGACAAAATCAGCCCAGGTTCTGCACTTTGTCTATATTTCAGCAGCTCTCCTGCTTGATATTAAAAATAGCCTTGTCTAGTCCATCGAGATCAGACCCAGGAGACAGGCGCCTGCTATTCTAATCTCTGCTTCACAAATAGCTCTCTATGGGCTCAAGCATCTATCAACACTTCCAGGGGTCTCCAGTTATAAAACAGGGCCAGGCCTAGTCACCTATAAAGGTAGGCTCTGCTTAACTCCCCTGAGCTGTCCATGAGGTTAGCATGAGGCCTACAACAATCACATTTCTACCATGGACCAGAGACTTCCAATGGTGACTCAAAACTGAGAAGCAGTTAAGAGCATCCCCCACACTCAGGGTATCCTGCATTTCCCAGGCCAGAACCTACAAAAGGTTCCCTTGAGACTCAAACTCAAGCAG
1 AAGTATTTAAAAAGTGACCCATCAGTATGGATTCTCAAAGAAGGAAGGACTTGAGTTATATCTCAAAGTATGAGAGGGACCAGGTCATAAATACAGCATGAGTGCACACAGGCAACATTGAAAGGACCAAGATGGCTGCTGAGAGAAGAGGCAAAAAGTGGCTTGTAAATTTGCTTAAGTAGGTGAAGAAAGACAAAGAAGGGCTTTCAGTGCCAGTAGGATGAGTTGCATGCAGTCTAAGATAAGAACTTCTGTTCACGGCCACCCAGGGCCAGTGTTTACAAAGCTGAGCCACAAGAAGGATGGGTTAGGCAGGAAGTCTTGCACATGCACACCAATCACAGAAGCTGGTTATTACCAC
0.2141313393155321 ATATTGATTATATAGTACTTTTATAATAATTGTTTTTAGGACCTCAGATGTCTAACCAAGGCTGGGAATCTGATGAGAGAGCCACTCTCCATGAAGCTGAAACAGGGAGATTCACCACCACTTACGTGAGCTGAATGTGAGACTGTCCAGCTCCTTCTCTACTGAAGGGGCTGTGGAAAATGATAAGAGGGACGATGCCTTGCTGTTGAGCAGAGTGAGGAGTGACAATGTGCGAGAGAATTTTCAGTCAACACTTGTCATTACAGGAGAACTGCACCTCAAATACGTAAGACCCGGATTATCCAAATATCTTAAACCATACATTTAAGTGACAAGGGTTACAC
0.3491357909266366 CTGAAAGTGGGGAACAAAAATCAAAAGGCTAATGAATAGAAGATAGCCTCCCAATGATACAGAACTACCACTTGTCTTCACTAAGCTCTCCCTTAACCCAAGGAGCTCCAAGTGGCAATCCTGAGAGTACACTTGTTCTCCTCAGTAGGTGATGACAACGAGATAATCATTGCCAACAAAAGTAATGCAACTTAAATGAACAGAAACCCTCTCAGACTACATTGAATGGGAATGATTCTTTCCTTATAAAGTAAGAAACATTAATAATTCACA
0.3259663887346378 GGCCCATTCTCTGTGCCTCTGTTTCCTCATCTGCATAATAGAAACAATTTCTCAGTTGATTTCCATTGAAAAAGTTAAAAATCCCATTAGGACCCACCCGAGCACATGGCATATGTTTTCCTTTAAACACGTTGCTGTGATGACACTCAGAAGAGCCTGGGCCACCTGGAAAGCATGGCCTCCTGGCTTCTCTGAATGTCATGCCATTTCCCAGGCCTCGCCTCTGTGTCCTTTCCCTCCCTCACCTCTGACAGTAATTGTGCTGACGAGAGAAGATGGGACCTGCTAGGCCCTGCATGAGGAGTGGCATGGATTAACTCATTTACCCCTTACGGTCCTCTGACAGGTGTCATCAAGTCCGAGTGACTGTCCCCTCTCAGCCTCTCCAGTCCACATGTCTCTCTCCACCCTCCTGCCGCTACCCTGGCACAGTCTGTCGGCGTTTTCCCCTGGCAGCATGCCACAGCCGTCTGGCTGTGTCTGCCTCCTGTCTTCCTCTCGCCAGCCCATTCCCCACATAAAAGTGCAGCTCTGTCCCTTCCCTGCTCAGAGCCCTCTGGACAGAATCCAGCCTGCAGCAAGGCTT
0.7064358815026943 ATTGTTCTTCTAAGAGCTTTACAATCAGAGTCTTTTCCTCCTTGATATTGTAAGTTCCACTTGGCATCTGTTTCCAAACCAGATCGATTTTCACTATAACAAAAATATTTTGGGTAGGTATCCCCACTTCAGGATGAGTGCCACTTGTGTTGTGAGGAGTTTTCTAGCAAGCAATTTGTAGATGCAGGTTGGCCACCCAACTGAGGTGGCAAATGGAAGCCGGATTGCAGCCTTGTTCTAATCACTAAGCCTTGTTCCCCTGTATGGGACGGAGTCTACCAACAGAGAACCGCTGCCCCATCTGTGTTGGACATGTCACCACTGACTTTTGCTTGTGATGGATGTGTCACCACTCACTTTTGCTTGTGATGGACATGTCACCAGTGACTTTTGCATTATGCAGATCTGAAAAGACCTAGGCACCTACAAGTGTGGCTGGCCACCCTAGTGCCTGGCTACTTTTACCATGCTGAAGCTTTGGATAATC
1 ATGAGGTATTGAGCAAAGGGACTGCTCTGAAGGTTAAAAACCAAAACAACAGCAACAACAAAAACATTGTTAATGTGGCCTCGTACCTTTCAATTACACCCATTGCCTGCGTACAAAGATTTCTCCATTTGGCAGGCCACAAGTGCTGAAATAAATGAGTGTCTTAAGTATTCCACTTTTGATAAGAAATAAAGATTATTTGTAATTTCACTGAAGGGACTGCTTTTTTTCTTTCACTGTGACTTCACAGAATGTGAAGTTGAACATTGAAATAGTATCTTGATAATATTACTT
1 ATAATATAGAAGAAATAACAGCTGGGCCTTCCTCTGCATGGAGTTTCCGCTCCCACGAGCATGTCCGTGTTTAGCATCGGCAGCCACCTGGCCATGCTGGACTCGGTGTGGCTGTGTCTGCAGTCGCATAGACATTTATGGTATTTCCAGTGGCCTGTCAACAGTGCCTGGTGTTCTCTAACAAGTGCTGTGGACTCCAAGGGCCTGACCACCTGCAGGGCTTGAGAACCACAGTTCAAGCAAGGTGAGACAGGGTCGGCAAGGCTGGCCTTGGCGTCTCCACAGGTCAGTTGGTCCTCAGCCAGGCATGCCACCC
1 CCTCACTCTTCCTGGCTTGCAGGTGGCCACGAGCTGCTTTTTCTCTGCGTTCTCATATGGCCTTTCCTCTGTGCATGCAGAGAGAAAGTACGCTCTGTTGGCTCTTCCTCTTCTTATAAGAACACCAGCCCTGTAGGATTAGGGCCCCACTCATGACTTACTTAACCTTAATGACCTCCTTGAAAGCCTTATCTCCAAATACAGTCACACCGGGGTAAGGCCTTCAACACATATATTTTGTGGAGACACAGTTTAGTCCATAACAGCAGGCACATGGGGTCTGAGGATCGTCTG
0.6341283295214127 CTAGGATCGCTGGAGATTCGCCTCATGTTGCAGACCTAACCTGCACTCTGGGTTGTCTTGTTAATTTCTGAAGTACCCCTCCACATACATCTATCTGTGTGACCGCATGCCTGGTCTGATCTTTATACGGTCAGTAGGTGTTGAGTTTTACCACTCTAGGTTGTCTTGTTAATTTCTGAAATACCCCTCCACATAGACGTATCTGTGTGACCACGTCCCTGGTCTGATCTTTATATAGTCAGTAGGTGTTGAGTGTTACTGATTTTTGGTCCCCGAGCTGGGTACATTCAGGAACACACATATGCCCAGGTTTATGGGCCGTT
0.8046517560008623 CAGAAAGGTATTTCTGAGACAGGGAGAGGAATTGGTAAAGAACTGAAGTAAATTAGCAGCATACAGACCCAGTCTGACTTCCCTTTGGTGTGTAGAAGATCCTTGAATGTTATCAAGTGCGTATGAAGCTGTGTCAAGGGGTTCAAGGGCTTTGCTTTTTAATTTTAAAGTGCTGACCCTAATCAGCTGAGCGAGGAAAGGTAGTTGATTGGGATGGAGCCTGACATTGGAAAAGCTTAGCATCTCTTCAAAAAGCATGTGCTATTTAATTGGAACATTCACACCCGCTAATAGTAGCTGTTTAAAATGACACATCAACAAAGAGAGCCACTGTTTTGGGGGTTTCCAAAGACGAAAAT
1 GAAAACATGATGGGGTCAGATAATCTGGAAAGTGAGTACTCCGCATATAGAAGACACCTCCACTCAGCCCAGGCTAAGTGATGCCATAAGGGCCCTCTATTACCAGACTCTTATTTTTCAAGGGAAGTTAGAAATCTTTATTTAATGTAAATTTTCCTGATTTTTAAGTTAGTAATTAATCCAAGTATAAAATTATTTTGCAGACTAAAATGCTTAAGGAAAACAAAACACATCTATGGTTTAGATTCAGCCCAAGATGATTGCTGTATAATCAGTCCATGAATTCCAATTACAACTCAACACTCAATACAACTCAACACTGCTTGATTGAAAGCAGTGGCTGGTTGATAAGATAGGAGAAAGAGGTAGTGTTTGTAGTGCTACAGAGAACAGCATATGGAAAATAAATGTAGGGGCAGGACAGAAGGAAATAAGACTGAGGCACATTTTGAAGGCCAGTAATCTAAG
0.7625309054108688 AGGAAGGATGGCACATCCTACATGTGCCAGAACTGGGCAGTACACACATCTGAGAAGATTTAGAATTGAAGGGCTTGGTCATGATACACAGGCATTCTAGTCAAGTAGAGAGGGATCATATTCCAAGGGGTCCTTCAGCTTATTGTTGCAGATTGGGTTGTTGACAGATTGAAGTGGAGCTGCCATGAAGAGTACTTAGAGAACTTGTTTAAAGGTATGGGAAAGGAAGAACTGCATTAGAAAGCTAACTGGTGTGGGTGCACAAATGCTTTGGCCAGTCCCAAGACAGCACTGGCATGCATGTGGCCCATCAGTTACTCCATG
0.5691204312432339 AGACTCTGCCTCCAAAAAAAAAAAAAAAATTTAGTCCAGTCTCCCTTTCTATCATGTTGGTCATGTCTTTGACAAAGATGCTCTCAAACTTTATTCCTTATGTACTCTGTGAGCAAAGTCCCTGGGTTCTTTTGGTTGTATCTCAAGTGGAGTGGTTGCTATGTCCTTTGCATTCCTGTCATTCTTCTCTCAAGTGCTTAGGAGGCCTGGCCAGGTGGAATACAGTAAGATGGTTGTCCTGTTTGATTACAGCAGCATTTCCCTTCATTCTCAGACTGCATGCATGTCTTAGGAGTTGTCATCAATACCAAT
0.6269786749958652 ATGCCATTGGCTTTCCTGCTTAATGCAGCAAACTGGATTGATACCAGAGGGATGGAGAACTCTTCTTGGAGTCTCCAAGTCTCAGCTGGGCTGCCCCAAGAGCCAAAACAGAACTGGAAGGATGAAGGCCACGGAAGGGACAGATTCTCACGCCCCCATCCATAGGGTCTCACAGAAACGACTCCTTGCCCTGAAGGACGCTGGGGAGTTAGGACAGAGGTCCTTGACAAAGGAGTGAGTCAGGTCCCTGTTGTGAGCACCCCAAGTGCTAGCACAAGTCACTTAAGCTAAATTGCTCTTGTCAAAACAAGCCCTCTGCCAGCACTCACGAGGCTGGGCCCGGCTTTCATCACCGACACTTGCTGAGCTGTGGAATTTAGCCAACAGGCCAGAAGCATCACGCC
0.3796375436508473 CAAACTATGCAATTCTTTTCTGGTAAATGCTATTAAACTGCTGGCTTTCATCCTCCACAGCCTTTTTCACCAGTGCTGTATTCAGGCATTTCCACTGCAGCTGGTGTAAAAGATGCAGGCTGGAATTGTTCTGGTCGAGTCTGAGTGGTCCTCTTTTAGAAACTGGGCCCTCGGGCCTCAGCAGCCTTTAATCAGCTGTAACTGGAGTGAAGCTGTCAGCTCCTGCTTGTTTCCTGTCAGCTTTAGTACCATTTAGAGCATCCCTGATAAATGTACAGTACAAATTTAACAGTCGACCTGTGAAAAAGAAAAACCAAACATCTCTAACACACTGGAAGAAACTTTCTTTAGCCATATCACAAA
0.5581452787978227 GTATTTCTCACTCTTGGATGTGTATGGGAATCCCCTGGGGAGTTTGCTAAACTGCACCCCCCAGGTAGCTGCTTCAAAATATCTCAAGTGGAGTCTGAGCTACTATCTGCATTTTTGACAAGCACCTTGGGTGATAATGACACAAACCAGAGTCTGAGAACCACTCCACTGTATCAGTACCTCTCAGCCTGTGATGTGCATCACAGGCACCTGAAGAGGTTTTTCAATATACACCTGCTGGCCTAACTCCTGGAAATACGAATTCAGCGGGTGGCTAGGACCAGGAACAGGGTGCTTTAATAGT
0.9124874024302669 CTGCTTGGCAAAACAAAACAGAGCAATATTCTGGACAGTTCTTCAATATCTAAGGCTTCATGGTGGATGCTGCGATGTGGCATTCAGACCCTCCTGGAGAAATGAAGGATTTATTCTCCCAGCAGCTTGGAGTGCTGATTGCAGAGCACTCTATGCTATCAGCTGTCTTTGGGAACAGCTGCAGCTGAAGAGCATCGCCTGGCCTAGGAGAACACCCCTTTTCCAGGGCAGCCTGTAACCACTGATGGATAAACGTGAGGGCTTAGTGGCTTGGCCTCCTCATGCCAACTTCTCACT
0.8803780713383665 AGGGCAGTTGCTACAAACCTTCAATTGGTAAAAAACGCAATACCTGTGAAGCTCAATAAAGTGAAGCCCAATGAAACGAGGTCTGTCTGGATAAGCTTGATGAAGGGACTCTTGAGTTGCCACATGAATGTATCGCAAGTGCTGCAGTAAGAGTGGTGGTAACTCAGGGGAAAGCACTTCCAGCTGATGTCGGGGTGAGGGTGAGAAGAGTGGCCGGTCCCTTCATGAAACAGTTAAGGAGAGTATGAAAACAGAATGGTATGATATAAAGAAGACAATACAGATAAGCATTGATCCTGCTCT
0.1199647850020936 TGTGCTCTAGCTGGTTGTAGTGGCTTATACTCTGGCCAGGAGGTCAGAAAACTGTCACAGAACCAACTCTACTCATTATTTGCTGTGTGCTTTGGCCAAGTCTCCTAACTCATTGGAGTCTGTATTTCTTTATCTCTGAAATGACAGCAACACTCAACACACGTTGACTGAGGACAGACTGTATGCTAGTCTGAACTATGTGTGAGTGAACACATAGTCATCACTTCCATGAGAGTGGAATAGTCGATATAAAACTCAGTACCACATGTGAGTGACTCCAAATATTACAGCATCCTCATTTGCTAAATGAACTCTTAAGAAAAGGTTT
0.724234168766777 TATACTAAAATTTTATCTGTTTACCTGAAATTCAAATTTAACCAGGCATGCTGTATTTTTATTTGCTAAATCTGGCAACCCTAAATCCAAGATTGTAAGTAACCCCGGTGACCTGGGAGAATAGTTGGGTGACCAGCAGAAGAGAATCCTGGAGTGGTTCAAGTGCTGCAAGGGTGTCGTGTGAGAATTCGAGCTTCCGTCTCTTCATTTGTACAGGGGAGAATGATACTGTGCAGAGCTGCTGCTGTAAGGATTATCTGTGAAGTCATAAATCACATAAATGTCTGTCACATTTCCTGTATGCAGGAAATAGCAGTCACTATTGGTATGTAGAGGGCCTATAGCCAACGAGCGGCAAACAATAAGCCCTTAATATAAATTGGTTCTTATCTCTAAAAGAAAGAGAGCTGTTAGGTAAGAGTGGCCA
0.739198177531298 CTGGTCCCCTGAGCCAATTCATCAGCATCGCCTGTAAGCCATATTTAAGATCAAAAGGATAGACAAGGTTACCAATGATGAGGTTCTGGAATGTTGCCAGCGCATCAGCACTAACATGATACTTGCCACGACTTAACTCTGAGGGCCTGGGGATGTGTGAAGGATGGATATCAGCAGGCTCTCTAAGCAGATTCTGAATGCATGGTGTGGTGAAACAGAACAGTTACAAGTATGGTGGCCAGAAGAAAAGCTCAATGTGAGACCCTTAGTGGCAAATTCAAGCCTTGTGGTAAAACTCA
0.448027037720921 CGTCTGAACCTTGGAGGGGTTAAATGAGCTAACCAAGTTCACACAGCTTCAAAATGGTAGAGCTGAGATTCTGACCCAGGACTGCTCGACACCTGAGCAAGAGCACTTAATCACTGCTTAAGGCTCACTCATGTCAGAACAAGAGAGTTTGTAAGTGGACAGGCTTTGCAAACTGTCAAGCACAAGGTAAATGCTGGTGATGAGGAGCAAGTCATTTGTACAACAAGGAAGGCAGCGGTATCATCTGGACGTATGTTTGCCTTCAGGGAGGGATGAATGCCTGGGATT
0.6089878990888776 CCTTAGCCAAAGGCTCTAGGCTGCTCTGGAGGCAGACACCTGGCTTGCCTTACTGGGATCGTACTTGAATGGAACATAGCCAGCTCCTAGGCCTCCTGATTCTGTTTGTCCTGCCCGCATTCCACAGCCCTCTGTCTCCACTTCACACACACTCAGGCTCAAGTACCAGCCAGGGGCAGCTGGGATTACTCTGAAGCAAGTCTATTTCATGGGACAAGCTGTTCAGGAAGCAAGGAAGCCCTAGAATCCATGCTAGAGGCTGCCTCACTCATTCTTCTTTTATCGATCACCACTTACCCCAGAACAACTGCAAGTGAGAATATTAAG
0.1120139675118842 GGCTTGCAGCCTACAGCTCTGAGGGGTAGGTGATGACTCTTATGGCAGCCCTAGGCGTGAGAGGGGCTTGGCAGCATGAAGCTGGCTGCGAGGCCATGTTGTCATGAGAAGGTGAACAGTGCCTTTCCCGGGCCCTCTCCACTTCTCGATGGGAATCTGTCCTGAGATTTCCTCTTCCTAAGTGGAGAAAGGGGGTGGGGTGATGAGCCTGACAGCCTGAAGAGGGGCTAACACTCTGCAGGTCCCCGGCAGGAAATGCATGCTGGTTCCCATAGCAACCAGGCTGGCCTGGCCTCTGCCCCCTCCCCCACTGGCTCAAAAGAGCTAGGGTGGAATATCACCTTCGTGAGGGCAGATGAAACCCCAGAAAAGGGCAAGCCCTAGCGCTGGGCGTTCTCCCCTATGGGTGTCCCCCTCCACAGGCAGTCATATGGAGAGGCAGTGACCCACTTTAGTGTCTAGGAGGGTCTTGGTTTATGCCCATTATCCTAACAC
0.09928553955666297 ATGAGGCCTTTGTTTTCCCCTAGTGTGCTAACTGGGGAATTGATTCAAATCCTGAGGGTGATGGCTATGATAGGGGCTGCTACATAGGGCCTGGAGGAATGTAGGTAACAGCAAATGATAGCATTTGAGAGGGCCACTCCATCTTGCTCTAAGACTAGCTGGGTGGTCTCGTCGATGCAGGATGTGGTTCAGAGGAAGACTTCTATCAGGGATTTGCAGTTCCATAGCAACACACGCTTTTTTTTTTCTATTCTCACATATCTTTCCATCATGTAGTTTAAGGTGGAAGAAACACTCTCTCGTACCAGGAAAAGTTTGGAAGCCTCAAAGTTGTAAGCAGAAACGTCTCTGTCTTTCCCGATGACAGCCACAGTCTGATGGCTCTATCCTGCTGAGCATCTTGTCATCACCCCTGCCAAGTCTCTTAGCCAGGGGGCCCCTCTCTCTCGCTCACCCACTAGCAGGAAGGACAAGGCTAAGTGGGGATCCAGGAAGCATGGGTTCACTTAAGGCTCTGTCGCTATGCTAAGTGAGGCCAGAGACATCTTGCAGCATTGATGAAGAATCTGGCATCCAGTGACTGTCATTCTTTCCTCTGGTTCTGACATTCTCCAGATGTCCATGAGCAGGA
