svm_type c_svc
kernel_type gkm_esttrunc
L 11
k 7
d 3
norc 0
nr_class 2
total_sv 912
rho -0.159141
label 1 -1
nr_sv 453 459
SV
0.6809453323744608 ACATCACTGTCACTGTCATGTCACATCACATGTCACTGTCACATCACCTGCCACATCACCACTGTCCATCACCTGTTACATATCACCCATCACCTGTCACATCTGTGACACCTGCCACATCACCTGTCACCTGTCACTGCCATGTCACTTATGTCACTGTCACATCACATGTCACTGTCACGTCACATTTCACTGTCATGTCACCTGTCACATCACCTGTCACATTTCCCTGTCACATATCACCTGTCACATCACCTGCTGTCACATCATCTGCCATGTCACTGTCACCTGTCAATGCCATGTCATCACCTGTCAAGTTAGTCACCTGTCACCTGTCACGTCATTGTCACCTGTCACGTCATTGTCACCTGTCACGTCATGTCACTCATCTGTCACTGTCAACCTGTCACCTGACTCATGCCACCTGTCAGTCACCTGTTACATGTCAATGTCACCTGTCATTGTCAACCTGTCACCTGTGACTCATCACCTGTTGTTACCCATCACTCTGACGTCACCTGTCTAATCTGTCACCTGTTCTGTCCTGTCACATTTTGCAAGAATGCTACATGTAGTTAGCATATTAGCTTGGTGCAATTCACAAGAATGCCTCCT
0.5472737664383527 TGACCCTTGCCACACATATAAATCGCAGCAGGCTGGCCAAGGGCCTTTGTCTGGCCAGGAGAGTTCAGGATTATCTGGCCCTCTTTGCTGATGTATGGAGTCACCGGCTGTCGGAGTGTTTACTAACGGTTATCACCTCAATGCTGTGGCCATTATCAGAGGCAGGACCGCCTGCCGAGGCTGGGGCTCGCACCCTCTCTATTACCACCTGTCATTGGCAGGGAGTGTGTGCTGACACTGCCCAGCCCTCACTGCCTGGCGAAGATAGTTTCTGACGGCTGATCAAAGAGGAGAAGCAAGGCCTGATAAAGAGTGCGTGTTTCGTGTACTTTTAACTTTGGGAAACGTTGGCATTTGCATTTTTTCCCCATCTTCCCGATGCTGGCAGGAACCAAGCCCAATAAATGCAGTGGATTCAGTTACCTAATCGCTGGGGAAATGGTATGTGCTTAAAGCAACAGAGCGTGACTATAATCTCCTTCCGAGAGAGAGTGGATGAAATAAGCTTTCAC
0.9062834230187572 CCCCTCTTACCTCCTTAGAGACCTTATTCTATCAACTTCTTTCTTTCTCTTCTTTTTCTCATCCTTCCTCCCCCCATGTCCAACCTACTCCCCTCCTCTTCTACATACAAACATTCTCATGACTCTTATATTTACAAAAAAGTTCCCAATCACTCACTATCCTCTTTAGCTACCACTCTCTCCTCTCTTATCACAAAACCACTGAAAAGAGTACTTGGCTTGCTGTCTTCACTCCTTCTCCACTCATCCTCAATCCCCCACAGTCTGGTTTCTGTCACCAACACGCACTAAAAATATGCCTTTGATGTTTTACACAGGGCTGCCTAATTTGCAAGCCCAGTGGATTTTTCTCAGTCCTCCTCATGATCTCTTCAGGCTGACACTGCTAATCTCCTGCCCTTCCTCCTTGAAACCCTTTACCATCTTGACTTCTATGATGACATGCTGTCCTGGTCTCCTGCCACCACCCGAACACTCACTCTCAGCCCCTTTACAGCCTCTACCTCCCTTCATGGCCATTCCATCCTAAGTTCTTTTCTCTCCAAGCCCTCT
0.9071128762989911 GCAGGAGTCAGAATTGTGCCTTTTGATCCAGGGCTGGTGTTTTGACCCCTGCCCTGTGCAGCCTCCTTACCAGGCCACCTGGTGTCCCCCTTTGTCTTCCTGACACCTGCACCCACAGCAGTCCCTGCTGACAGCTCTTCCTTCCCACCTCATCTCCAGGTGTCACCTCCCATTTTCCCCTCTGCACAGGAGGAATGACAGGTGCTGGAGCATGACACAGTGCCTCAGGGCTGAGGCTGCACAACTTCTCAGCTCTCGGTGCTGACAGGAGGGAAGTGGGTGCTGAGGTGTCAGTCAGCTGGCTCAGTGTAAGACCTGCTCTTATTGATCTTTGCTGAGAGATGACTAGTTGAGGGGCCTGGGCTACCACATTCTGCCTGTGACCTCTGACCTCCTAAACTTTAGTGTTCTTTGGCCTATAAGTTGAGGGTGTGCATGGTTTAGAAAGCGCATTTATGTACATTGCTTCATCTTGTCCTCATAATGCCATAGA
0.4779722331763481 GGCCCGGCCGGCGACTGAGAGTCGGCGGCGAAGAGAAGATGGCGGCCATTTTGTGTGGGTTTGCTGCTCCGCCGCCGCCGCAGGCAGCAGAGGGAGCGGGCCTGACGGTGGGTCGGACAGGGGAGTTAACACGTACCGACTCCTCTTCCTTCTCCATTCCGGTGGGCATCTGCGGCACGGCCCTGTTTATCGAGGCGTATTCGTGCAGGTCGGGCAGATCCTCACAGCGGAAAACCGGCAGCGGCTTCGAGGCGTCTAGCGCCCGCGCCCGAAACGACAGTTTACTCATCTCAGGCGCAGCAGATACCTCTCCGCTCTGGGGAAACGGCCCCGGCCAGCGGGATCATGGAGAACCGGGGGTTCGGTCCCCACTCGCCAACCGCTGCCGGGGACTTGAGGGGCGGAGCGCAGAGCCCGCCGTCCGGGCACTAACACCAGCCGGGAGGGTGGGAGGCTGTGCCGCTCCGCTCCTCTCTCGCTCGCTCTCTTCAATACGCCATGGCCAACATGGCGGACATTAAAACTCCACTGTGCGCTCTTCAGCCAACCCCAGCCATTCCCCA
0.976182884986961 GGTCATTCATACCCCGGCAGAGAAAAAGCTGCATACTTCATGCCCTTTGCCCTTCACCATCTCATCTGATCCTCCCAGCAGCCAGCAAGGACACGGGGCAAGGCACTGGAGGCAACAGAGGCTCAGCAGCAAGACAGGGTACGTGCAGAGAGCTGCGGGACAGACGTGGCCTCACCAGCAGGACCCGTGATTAAACAGCAGCTGTGGTTCACTAAGTGCTTTCTGCTTATTATGTGCCAAGTACTTCACATGTGGCTGCTTTGTGTCATTCTCACATCAAACCTGATGGGTGGTTACTATAATTATCTCCTTTTACAGATAAGGAAACTGAAGCCCAGAGGGGTGGAGTAACTAGTCCAGCAAAAGTAAGCCATGTAACTGGGATTCAAATTCAGCTTGAACATCTCAGCACTCATCTGTTTTCGATCACATAACACTCCCTCTAGGCATTCACAGGAGCTCAAGGATAGGAGTAGGGAGGGGAAAGCTAGGAGTCCGAAGACTTGAGGGGCCAGGCATGGTGGCATGCACCTGTAATCCCAGCATTT
0.8630923928920696 AGGTTTAACTCACCCAGCTGGTCTGCACAGGCCAAAGCTTGGGGAGCCCCAGCTTCCCTGGCTCAGGCCCTGTGCAAACCAGTCTCTCGCCCTGTCAGAGGGAGGGACTGCTCCCTGGAGCCCACCCAGCTGGCTGGGAGCTCTCTGCGTGCCTGCCACTGTGTGACAGTCATGCGATGAGAGGGAAGCTCAGCACATGTCCCCAGCCACCATCAGTTGGCGGTTCCTTGAGTGGAGGGATGTCAGAGGCACGTCAACACTTTGGCGGCTGCTATTCCAGGCGGGCGAGGCAGGCAGAGGGCCTGTGGGCGCCTGAGTCTGCAGAGCCAGCCCTCGGGGGAAAGGAGCCAAGACACAGAAGGGGCTCAAGCTGCCCTGCCCCTCACCCCACAGCCTTTGGGGGGCTGGGGAGAAAGTCGGGGATCAGAGAACTATTTTTTCCTGGGTTTTTCTGCCCA
0.4401269878927321 CTGAATTGAGACACCAACCCTCCTAGAAGACAACAATTTCCACTCAAACAACTGGTCCTCCTTGCCTTCTTGTCAGCACCACACGCTGAGGGAGGCTGTGTTTGGTCTCTTAATCAGGCCTTGCTGACGGGCTGACATCACTGCAAACGTTTTCACTTACTCTTTGGCAACAGTTAAATCCTTGCCAAAGGCCAGTCAGTAAGTCGGAAAGTGTTGTGAGAGAGAGGCTGGGGGAGTCGGAGTGTGAGTGTCAGCTAGCAGTCTGTGGTGATGACAGCAGGGAGATCTAGGTGCTGAAACCATTTTAAAGGTCACTCTGTGGCAGAACAAAAGACCTCTGATTTAGAAAAGGAAACAGAACTCTGGGCCATTGAAGCCCTGGGATGCCGCCCTCTGAGCACTCTGCAAATTCATCATCTGCTCCCTGATTGTGAAGACTGGGGAGGAACTGTTACTTTACAACCCAGTACAGCTTCTGCCAGCAACTGTGTGGCTTAGCAGTGGTACAGAATA
0.8535204359434969 ATCTTAATAATAATACCTTATATCTAAAAAGTGCATTATCACTCAAAGTGCTTTCAGATATAGATCTGATCTTCACAACATCTCTCCCCACAATGGTGGTATCCCCCAGGGTTCTGTCCGTAGCTATTCTCCTTTCACTTTTCACAGTTGCCCTGGGAAATGTTATCCACACCTGTGATTTCAACTGCCACTTACATAGTGATGATGGCCAGATGTCTATTTCCAGCTTGCTATTCACACCAGAGATGCAGACTGGCATGTATAGCTGTCCACTGAATGCCTCTCAGGGCTTACCCATAGTACTCAACACGTGCAAACTGTTATTTTCTTCTCCAGGTCTGTGCTGAAATTCTCTAGGATAGCTAACAACACCATAATCTTTTCCGCTATCCAAGCTGAATGTATGAGTCTCAGCTTCTCCCTCTCT
1 CCAAGCATTTCAGCAAAACAAAGCCACACTGAAAAATATTGACAAGTTTGTATGCATAAAACTGTAAATCTTGTTTATGGGAAAAAATGCAATAAGCAGAGTTAAAATTTAAATGACAAGCCAGGAAAAAATATTTGTGATTGTGTATGACAAACAAGAAGTTAATATTACTTGATGGGATCTGAGCTCTGCACTGTTTCTCTAGCACTGGGCAGCTGTTGAAACCTCTTGTCAGTGCTTGCTTTCCTCTGGATTCCTTGGAGTCTTGCCCTGTACTGGTGCAGCTTAGGAGTCAGCCAAGAATTCGAGACGAGTTATATACAGATTTGGGGGTTCTCCCTCTGTTGGTCTCTTCTTTCTGGAATTCCTCCCCACCTCCTCAATTTCAGCTGCTCTGGAAGCCCTGATTCTGGCCTGATTCTTCATCCCAGCCTGTTGGCCTCTTTCTGCTGGAGTTGTATCCACACCTCACCCCACTCCCACCTACACCACTCCAGACCCCCAGCACCGCAGAGTCTTGGGGGTAACCTCAGTTACT
1 TCTGGGTCTTGAAGGAGAAGGAAGCAGAGGGCCCAGACTCCTGGGTCCTTAGGAGAAAATGGGGCTGGAGATGTGGACTCCTGGGTCCTGGGGAGGAGGGTGTCAGGGAGGAAGGTAGACAGGTTCCTTCGTACTAGGTTCGGTAAAGGAGGGAGCCGGGGGCCTGGACTCTTAGGTCCAGGAATTGGAGAGGCTGGGGACCCAGGATTCTGGATCCGAGCGAGGGCACTGGCTTGGGGGGACCCGAATTCGTATGTGAGAGCTTGAGACCAGGACTAGTCTGGGAGACCGACTCTTGGATCCGAGGAAGGAAGAATCAGACTCCTGAGTCGGAGGGAGGAGGGAAATAGGAGTCTGGACACTGCTCTGAGTGAGAGGATTCGGAATTCAGACTTCTCTGTACTGAACGAGGCGGCTATGGGGTCGGGCTTCTAGGTTCTAAGTTTATTTTTATTTGTTTATTTTTGAGACGGAGTTTCCGTCTTGTAGCCCATGCTGGAGTGCAATGGCGCGATCTTGGCCCACTGCAACCTCCGCTTCCCGGGTTCAAGCGATTCTCCTACCTCAGCCTCCCGAGTAGCTGGGATTACAGGCGTTAGCCACCACGCCAGGCTAATTTTTGTATTTTTAGTAGAGACTGGGTTTCACCATGTTGGTCAGGCTGGTCTTGAACTCCTGATATCAGATGATCCGCCTGCTTCGGCCTCCCAAAGTGCTGGGATTACAGACGTGAGCCACCGCGCCTGGCCTATTTTTATTTTTTTAGAGGCGGGGTCTCCCTATATTGCCTAGGCTGGCTTCTAACTTCTAGGCTCAAGCCATCCTTCCGCCTCAGTCTCCCGAGTGGGACTACGGTGTGCGCCACTGCATCCCGTCTGGTTCTAAATTTAGGGGGGCCTAGAGGATCTGGATTCTGAG
0.6807499253187896 CCCCTGCCCTCCCAAATCCTACCCCAGGCCCTAGAGGCCAACTGGGGAGGAAAGAAGAGGCCTCCTTTCTCTCCTCCCTGCCATCCCTGCTGGAGCAGGAAGCCCTCCACCTTCCCCACGTGACTGTCCCACTCTAAAGGCACAGCCTCATCCCTCCTAGTGGGCGGCGGACTCCAGTTTCAAGCACTAGCCTTTTCTCACCTTGGACTGCTGAGCCATTGTCAACACTTCTTCCGGGGGACGTCTCGAAGCTCCTCCCAGGCTGAGAGTGAGAGTGTGAGTTCCAGGGGCACTGGGTGCTTTGCCTTCTTGTAATAAATGTTTCCTGCACTCCTACTGTGTGCAGAATGTGGTGCTGACAGTCAGTTTCTGCCTTGGGGCTGCTCCAAGAGAGAGCGACGGTGAAACTGGACCCCTAGATGTAAAGG
0.9890112846230625 GGGCGTGGCGGGAGGGGCACACTTAAGCTCGGAGGGCTCCTGATGGGAATGGGGTATATATTTTTTCGGTTTCGGAATCACCTCTGCGCTGACCTCCGCGTAGGCCGCACGGCCTAGGCCTCGGAGGGCCGCTCGCCGCCTGCTTTCTCCGCAGCCCACCCTTGCGGTCACTCGCTCACTGGCGCGGGGCCCTCATAGGGGCGAGAGCCCCCCCCCCACGCACCCCCGGGGGGCGGGACACCCGGGAGACACGGACACTGGTGGGTGGTTGGGTGTAATTAGCGCGGGCCGCGCGCGATGGAGCAAGCGAAGGGTAAGGGGAGAAGAGGAGAGCGAGCGAGGGGGGTGGGGGGTTAAAAAGAAAAAAAGGATTTGAGGGAGAGAGGGAACGGGCCGCGGAGACGGGCCGACTGTCTCCCTTCTCTGCCCGCCCTGGGTGCCCCGGCTGCCCGGCCCCCGCCGCAATCAGGAATTGACACAAAATGGCGGCTCGG
0.9636075714685306 ACGTCAGATGTACTCTCTGATGTCCCAGAGTATAGTTGGGAGGGCGAGTCATATCTCACAACCTCCATGACCCAGTGCTCTGTTGTATGGGAAGGGAAAGTCAGTGGGGTGGATGGAAAGTGTTGGAAGGAATGAGCATGGGGGCTTAGAATGGCAGGGTCTAAGTAGGTGCCAGGGAAAGGAAGCAGAAAGTGCATGTTTGAAAAGCCAGAGGTGTTTCCCTTTGAAAGCTTAGCTGCTACACAGAGCAGCTCTATCCATGCCTTGACAGCTCCCAGACCCAGCTGTCAGAGGGCACCTTTCACTCTCTTTAACCAGCTGAAGTGCCCTGGCTGTCCTGAACTCAACACCTCCACACTCTCAGCTCTCCTGCCTGAGCCCGACATGGGAGGCAGAGCAA
0.849517994568977 TCTTGGAGCCCTGGGCATACTATGGTGGCCAGGTGGCCAGGCTGCCGGCGGGGAGCAGCAGGGTGCCTGGTCCTCACCTTGGCGGGCGGTGGGGCTGTGCGCGGGGGCACGGACGAAGGGGGCGCGGGGAAGGGGACACTAACCGGGGACGGTGGGCTTGGCTCCATCGCCTGCCCTTCAGGGCACGCCGCCTCGGCGAACAGCGCAGGCGGGTCGCGCGGCTCGGGTGCAGCTCGGGCTCCGGGGCAGGCAGGCGGGGATCCCCAGGACGCCCCGGCGCGGACGGCGGATACCAGGCCCAGCCCGCGCCCCTGCCCCTGCCCCTCAGCCTGCGTCCGTGTCTGCATCTGCGCGGGGCAGTCGTCGGGGCACAGCGGGCAGCCCCGAGGGGACCCCGCGTCACCGCGCTGCCGGCACCGGCGCTGGAGACTCTCCTCGCTGAGGCCTAGCACGGCCGACAGGTGGCCGATATAGCGGATAGCCAGGCGCAGCGTCTCGATCTTGGTCAGGCTCTGGCCCGCGGGCGCCACGGACGGCGGTAGAAAGCGGCGCAGCTCGTGCAGGGCGCGGGCCAGCGTGCGCATGCGCAGTTTCTCCCGCTCACTGGCGCTCTGCCTCTGCCCGCTGCCCAGGCGGCTGCTGCGCGCGCCGCGCCTACCTACGGAGGGGGCGCGGGGGTCCCGGAGGGTGCCTGGCCGCGCGGGGCTCGCCACGGGGCTGTCGGCTGGGGTGCTGCCCCA
0.7875245493252799 CGTTCCTCACGCTTACTTGATCTACCATGACCTTTTCACGTGGACCTCTTAGAGTTGTAAGCCCTTAAAAGGGCTAGGAATTTCTTTTTCCGGGAGCTCGGCTCTTGAGACGTGAGTCTGCCGACGCTCCCAGCTGAATAAAAACCTCTTCCTTCTTTAATCCGGTGTCTGAGGAGTTTTGTCTGCGACTTGTCCTGCTACACTATGTGTAACTAATTCAAGTACCTTGTCATCAGTTCTGCCTTGCCGGTGATCTAAATGGACTCCCCGCAGGGAACAGCACTCATACTGCAGAAGGTCTTTTCTTTTGCCTTTGGGTAACTGGCTTTTTACACTTTATTGAAATAATTCCTAAGTTGTGATTTGCTTAGAAAAAT
0.8230842869066209 GGGTCATTGTCCCCTGAGAAGCAGGGCCTGGGTGCAAGGGCAGATTACCCAGGAGGCTGGAGGAGGATGGAGACTATTGGGGGTTCCATCCAGGAAGGCAGAAAAAGAACTGGCAAGGCACGGCTATTTTAATTTGATAAATGATTGTACACCTTTAAGAGTGTTTTAACAATCAGGATACACTCCAGCAAGTTGATAGGATGTTCGCTGTCAACTTACATATGTCATCAGAGCTGGCTGTGAGCATAAATAATGTGCGAGCGCTTGGGACAGCTGCAGTCTCTCCTGGAGGCTGAGGCGTGGCAGGTAGCACCTCTGTCCCCTGGCGGGCACCTTTGTTCTCCTTCTCTCTGTGTGTCTGGAGGCAGGGACCGGAGAACAGTCGTGGGGAATCACTGAATGCTGCTTTCATCCTGGGTGGTTTGGTTG
0.9993167926866623 CAAGACCAAATAGGCCCGCAGGCCCTAAACTACCAGACCTGCGTTAAACATTTCGGTTGGGGCGACCTCGGAGTATAACCTAACCTCCGAGCAACATATGCTGAGACTATACCAGTCAAGGCGAATATCCACATACAATTGACCCAATAATTTGACCAACGGAACAAGTTACCCTAGTGATAACAGTACAATCCTATTCTAGGGTCCACATCGACAGTAGCATTAACGACCTCGATGTTGGATCAGGACATCCCAATGGTGCAGCCGCTATTAAAGGTTCGTTTGTTCAACGATTAGAGTCCTATGTGATCTGAGTTCAGACCGGAGTAATCCAGGTTGGTTTCTATCTATTCTACATTTCTTCCAGTACGAAAGGATAAGAGAAATGGGGCCCACTTCATAAAGTGCCCCTGCCCCATAGATGATATTATCTCAGCATTTTACTGTACCCACACCCACCCAAGAACAGGGTTTGTTAAGATGGCAGACCCCAGCAATTGCATAAAATTTAAAACTTT
0.8192455084459956 TAGAAATCGCTGTCGCCTTAATCCAAGCCTACGTTTTTACACTTCTAGTAAGCCTCTACCTGCACGACAACACATAATGACCCACCAATCACATGCCTATCATATAGTAAAACCCAGCCCATGGCCCCTAACAGGGGCCCTCTCAGCCCTCCTAATGACCTCCGGCCTAGCCATGTGATTTCACTTCCACTCCACAACCCTCCTCATACTAGGCCTACTAACCAACACACTAACCATATACCAATGATGGCGCGATGTAACACGAGAAAGCACATACCAAGGCCACCACACACCACCTGTCCAGAAAGGCCTTCGATACGGGATAATCCTATTTATTACCTCAGAAGTTTTTTTCTTCGCAGGATTTTTCTGAGCCTTTTACCACTCCAGCCTAGCTCCCACCCCCCAACTAGGGGGACACTGGCCCCCAACAGGCATCACCCCGCTAAATCCCCTAGAAGTCCCACTCCTAAACACATCCGTATTACTCGCATCAGGGGTAT
0.6570614204517431 CAGTAGGAATAGACGTAGACACACGAGCATATTTCACCTCCGCTACCATAATCATCGCTATCCCCACCGGCGTCAAAGTATTTAGCTGACTCGCCACACTCCACGGAAGCAATATGAAATGATCTGCTGCAGTGCTCTGAGCCCTAGGATTTATTTTTCTTTTCACCGTAGGTGGCCTGACTGGCATTGTATTAGCAAACTCATCACTAGACATCGTACTACACGACACGTACTACGTTGTAGCCCACTTCCACTATGTCCTATCAATAGGAGCTGTATTTGCCATCATAGGAGGCTTCATTCACTGATTTCCCCTATTCTCAGGCTACACCCTAGACCAAACCTACGCCAAAATCCATTTCGCTATCATATTCATCGGCGTAAATCTAACTTTCTTCCCACAACACTTTCTCGGCCTATCCGGAATGCCCCGACGTTACTCGGACTATCCCGATGCATACACCACATGAAATATCCTATCATCTGTAGGCTCA
1 GAGGTCATGTCCCACAGCTCCATGGCCTTCCTTGTTCTGTCTTCCACATCTGAGAGCAGGGATTGCCCTTATCCGCAGTGAGCATTTTGTTTAAGTAGCAGTGAGTTCACTCCAGGCAATGCTTTGACACTATAAATAGACGTGTATTTGACATTCACACACGTGTCTGTTGAGCTAATACAGACAATCATTTGATGAACCTGCTAGTTAGGAAGTAGCTGTGATGTGAGAAGAGACAGTGCTGGCTGTAGATATACACCAAATTTCCTCACTTGGCTGTTGATACAAGGAAAGCATCTTGATACTAATAGGAGTAGAATGCAAATGATACTTCTCTACCTCCGATCATTGGATTACATTCCTTTTCTCTGGGGTGAATCTTTAAAATGCTAATGGCCTGAGTGCACCAACATGAAGCACACAGTACCATCTGATTAGTTGCTTTATGCATCCAGAGAGGGTATTTCTAAATCTCAAAGTATGATTGAGTGTCAAAAATCCATTTGGGGG
0.7246934274216188 AACTGTACTCAAGAGGTGGCAGTGAGCGGTCACTGCAGCCTTGGAAAGGCCCTGCCTGGCACACATCGCACTCACTTAGGATGCCTCCACATCCCCAGTCCCAGAAGAGGTGAGGAGAGAAGGCAGCTGCTGACAGGAGGAACTGGGACGGTGTCACCGCTGGTGGTGATTGATGCCCCTGTCCTCGCTTGCTCATTCCCTGCCGTTGCTGCTTCCTCAGCAGGGGAGGTGCCCTTCCTAGCAGGTCCACCCTCCCAGCACGGCCTCTCCCAGGGCCTCTCACCAGTTCATCAGCCCTCACCACTCTCCCTCCAAACCCTGGAGTGCTGACAGGTGCCCAGGAGAGAAAGGCATGGGGACGGATTCTGGGAGCTGACTCTCATGGTTGTTTACACTGAGATG
0.2573157713673658 CCAAATCGACATGAATGGAATCATCATTGAATAGAATCGAATGGAATGATTGAATGGGCTAGAATGGAATCAAATTGAATCATCATCGAATGGAATCGAATGGAAATGTCAACCAATTGAATCAAATACAATCATCATGGAATTGAATCGAATGGCTCACTGTCGAATCAAATCAAATGGAATCATCATCGTATGGAATTGAATGGAAACATTGCAAGGAATTGAATGGAATCATCATTGAATGGAATCGAATGAAATCATCAACGAATGGAATCCAATGTAATCATCATAGAATTGAAACCAATGGATTCATTAAATGGACTCGAATGGAATCATCGAATGGACTCGAATGGAATCATCATCAAATGAAATAGAATGCAATCATCAAATGGAATCGAATGGAATCATCATCGAACGGAATCTAATGGATTAATAGAATGAACTCGAATGGAAACATCGAATGGAGTTGAATGG
1 GCCAGGCATCTGTCACAGCATGAGAGAGAGAGCAGACTCAGCAAGCAATCTACTTATCCCCATTGTTTAGCTGTGCTTAAAGCTGATTGAATGGTGTCCCACCCACATTGAGAGTCCAGCTGGACATGTGGGCTGGTTCCTCTCACAGTCCACTCACTCACATGTCAGTCTTCTCTGGCAACACCCTCACAGACGTACCCAGGAACATTGCCTCAGCCATATAGCTATTCCTCTGTCCAGTCAAGTTGACACCTAATATTAACCATCACAGCCCTTAACATTTTTTTTGGTATAAATATAGGTATCAAAATAATCCTGGAC
0.8887751652043988 CTCTGATGTTATAGCTCAAAAGCAGTCACATACAAGACATTAACAAATGGGTATGGCTTTGTTCCAATAGTTTACAAACCCCTGTTCTAGAGGGAAGACAGATATTCAAAGAAACCATTGCAATACAGTGTGGTAAGTGTTACCACACTTAGATAGAGGAAGTGGGGAATGATCTAGCCTGTCACCACTCATTGTGCAGTCTTTAGACAAGCTGCATTGACATCACCAGGGAGCCTGTGAGGAATGCAGATCCTCACACCTCATCCCAGAACTGTGGAATCAGAGTCTGCATTTAACAGACTGAATTTTTTGCCCAGTCCCATTGGTAGCCATTTTCCATATGA
1 TCCAATCTTCAAATAAGCCAAAGTATGTTGCTGATACTAGCCGGAATTTATTGAGTGATAGGATATTTGTAATGTACTTTGAGACTGAACTTAGAGCCCTGAAGATTAGGCAATTAATTCGTAGGGAAATATTTTTGCCATTTAGAAAAAAAAAAAAAACTTCGGACTAATTGAAAGTCTATATTGGAATGTCCCATTTTTATAAGGCTATTTTAGACCTCTGGTTTTTAATTAGGTGTGAGGTGTTCATTTAGTGCTGACAATGTGAAGTAGGCTGATGCCTAAATTTGCTTCTGATAAACCTCTCATTGATGTCAGCACTTGAATACTTAACTGCTACATTGAACATCGTATTCAAAGATAGTGTGGGTGAAAGCTAACTGCTTATGAGCCTGATTTTTGCTAAGAGACCTTACGTCACATCCTG
0.9488578854881996 TCCAATTACAAAAAAGTTTAAATCCCCTACAAACAGCCATGTGTTAACTTTTAACAGTACCCAGTTATTTGGGATAAAACTCATAACTGCTTGAAACCCAAAATGCTGGAGGCACCAGCCACTGCTGACAGCCGAGAGAGAGTGTTGAAAAGCTTTGAGCAGGAGAGTGATGCAGTGGTGTCGGATTTCACAAAAAGCATTCAGGCAGCAGCTGAACACCACCATTTCTGTGACTGAACTGATGCCCTTTCTGGGGGGCAGCCATGTGCTTTGGCCATTGAAAACACAGAGGGTGTGATGGAGAAAAGAGAATGCCCACTGTTGTTAGTTTTGCTTTTCACTCCTGCCATCTCTCATTCCATTTGGAGAAAGCCTACAGCTG
0.6785899667717771 GAGCCGCCTGTTTCGGGTGCCGCCATGTTGGTGAGGAGAAATCACCGTTACGGCCACTGTCCAAATCCCCGCGTCGCTGCACGCCGCCCGCCCGCTCCCACGCCACAGCCACCGGCGGCGAATAGAGACTAGAGCGGCAGCGCCGGCAGCGCGGGGCCGTTGCCCAGTGTTTGCAGTTAGAGCCCCATCTCTCTGGCGTGGTTGTTAATAGACTGGAAAGTCTGTGTCTGTGTCGCTCACTAGTAACCGTGAGTTTTTACCACTTCGTCACCTGTCGGCGGCGGCCGGGAGCAGGTTCCCGCAGGCGGCGCGGGGGGTCTTCCCCGCGCCCCGCCGCCGCCGGCCTCGCAGACCTG
0.7068885927965313 GAGGAAGGAAGGAAAGAGAGCCGCCGCCATTAGCAAAGCAGCCCTGCCCGGCTGGGCCCGCCTGCCAGACCAGCCCGGCCCAGCCGCGACGGGCTCGAAGCCTGTAAAGAAAACTGGTGTTTGGGAGGAGGAGCGAGCGCGGCCGGGAGGACAGCAGCTCCGGGCTGCGGGCGGAGATGCTGCGTCATGGTGCCAACATGGACGCCGGCCTTTTGTCCTCCTTCGCGTTGCCAGCGCAGGCGCGCCCCGGAGCCCCGAGAAGCCGGCTTCGGGGTGCGGAATCCTCACGATCGAAAGGAAAGTGGGCCCAAGGCTGGGCGATGAGGCTCCCTAGTGTTTTAAGCCCCCCCGTCTCCAAAGCACTTCAATTTCTTCTCCCCATCCAGGTTCAGACCTGGGAAGAGCGAGGGGGCGAAGGCAGGCGGCTCCATGGACCCCCGAGGGTCGCTGCGAAGCCCGTCTTCTCGCCCTTGGGGCAGAAGAGGCACAGGGGTCCGAAGAGCCCTTCGTGTCCCAACCCCCCGCCCACTGCCCGCTCCGGCTGCCAAATACAATGCTCCAGAATCCTCCTTCTCCTCTCAGCTCCCAAACACTTGCAGCCCTTGCTTGGCCTGCAAAAGGGTTTCCTCGAAGGGGCAAAAGGCACTTTTTATCTTTCTTACTTACCCGCTCAGCCCGGTGCCATGGAGTCTAGAAGATCAAGCTGGGCGGTGGTTTTGGAGACGTTATTGTAAAAACATATATATTTTTTGATTTAGTTGGGAAATTTGGGGGTTATGGTGGTGTCTTTGTTCTTATTACCTTTTTGTAAGTTACACCCTCACGTTCTGCTCCTTCCACTTCTGCAAACTTTCCAGGGTTGGGTAGGCAAAAAGGCGGCTTCGCTGAGGACTGTTTACTGCTCTGGATATAGCAATGGTGTGATCGTCATTAAGAGACAAAAGGCGAAAATACAGTCAAATCAAACAAAAGGCACAAGACGCACCAGCCGCCCAACCACCATAGAAAATACCCCCCACTTAACGTTGGTGTTTGCTGGAACCAGCTAGGACTTGTTTTCCAGTTTTAATCTAGTTTCCTGTGACGGCTTTAGTCTCTCTACACAAAGAAAAGGTCTTCCTTTCCCTCACCCACCAGCTCCCCCCAACCCCCAA
0.9469536282292704 AGACTAACTCTGATAGGTGTCTGTGTGCCTTCGTGCAGATGGGGCTGGCCCTGGCTTCAGGGGCCCTGGGCAGAGGCTCCCAGATGCTGCCCTTGATGAAACTTGCAGCCCTGTGGCCCTGCTGGGAAAAGATAAGAGGGCAGATTTGAGAATCACTGGCTTTGTAGTGTCAGCGTAAGGGTGTTGGGGGATGGCTGAGGCTGTCACAGACACTGCCCATTGTACAGCTGTCTGGCACGTCGGCCCTCTAGCTTTCTACAAGTCAGAATCACCAGGCTGCTCTTGACAGCATTCCAGCTGAGCTGTGCCCTGGCTGTACTCCCATGGGCATGGTGCAGGGATGTTGGTACCCCCCCAAGTCCCCTTTGCTGGATGGGTGCAGCCCATCCCCCAGCCCCTGTGTGTGTTGGCCACTAAAGCCCCCAGCTGCCCCTTCTCTGGATAATTCACCTGAGCTGAGTAGGAGCTGC
0.7818337077385548 AGTGCCCCGGGTTTCGCGAATCTGTATTTCATAGCGTGGCTTTGGACAAGGGCTGACCCCGAGGGGCTGGGGCGAAGGTTCCGGCTTCAGGGTGCCACTAGGGCTGCTCGCTCACGGCCCCCCAGGATTGGGATTGGAGGGAGCCGCCAGGCCGCCGCGGGGTGGGGCGGGTTAGCTCGGCAGGCCTCCCAGCACCTGCATTTCCCTACGGCAACTGTCGGGAGGCAGCCCCCGACGCAGAGGTTTAAGGGGCCCGGCTTTTCAGAACCGCCTCAGGACGCGGTCGTGTCTGGATCCCTCCGCGGAAAAGAAGGCGAAACCGCTTCTCTGAGCCCTGACCGTTAGGCCCCTTCCCACCTCCGTCTAGAACAGATTCGGCTTCTTGGCTCAGTCCTTCCCCAACTAGCCCAAGCCCTACATTTCCCCGTTGTTTATAAAATAAACAGGTTTAAATGGTGGCGAGTGTGTTCTTGGTTAGGTGAACCAGGCATTAGGAATCATAGGTTCCAGTAGCCGTGCGTCCTTGATTTAGACTTTCTGAACGTTTGTATTTTCAGTAACATGAGGTGATATCTTTCCTGGTTTGACTTTCATCAAAAATTAAACGACAGACCATACCGACGCTTTGAAAACGTGACTGAGCTGGTGCACAAAACAATGGTGCCTAGAATTTTGAATTGTGCAATGTTGTGCATGGCCGCGGATATGTGGGGCCTTGTGGTTCCAAGAGCCTGTCTCAGGTACCTTGAACACTCCCTGTATCCTTTCAAGCAGGCGAGGTAGCTGTTATTCCTATTTAGTAGATAAATAGGCACCGATGGGGGAAAAGATTTTTTAAGGCTACACCAAAAGAACTTTTAGTAGCAGGGCTGGAATTAGAAGGTCTCTAGACTGCGAAAAAGGCTGTCAGAAGAGCGAGGACATCTTGTCCTTGTCAAAGCCAGTAAAGGGTAGAGACAGACTCAAACATATGAAGAATTTCCTTTTCATATTTTCCTTTTGGGGAGGAATGTTGGCTT
0.6603245032460819 GAAACTTTGCCGCCCTGGTCCCCTGGATGTAGGCTGGCAAATCTCAGGCCTGTCATCTCCGCCTTCGGTTTACCTTTCCGAATTCGCCCTGGGGAATCACCAGGTCGGGGCAGCCTGTAGACGCGAGGACAGGCTGTTGGGAGGGAAGTGGAAGGGCCCTGAAAAGTCCCCAGTGTTCCCCGTGGTGGCTGCGCACGTTGTGGTCTCCGTCCGTGGGCTGTTTTTTCCCATTTACTGCAGTTCCTGGGTCCCAGGTGTCAGTGTTGCAGTCTCCAAATGTTAGCTCCTTTTCTTTCTTTCAGAATTAGGAACTTAGCTGCGTATTTGATTTTGCGAATTAGGTGATTTGTAACTTCAGCGCTTACTGATGACTAAGTGTTTATGCAAGTTCCATTTTGTCCTGAGTAACAGGAATGGCAAAAGAGCCATCTCTGGAGGTTTTTTGAAATGACCGCTTGCCTAGGCGTGTTACGCAGTTTCATTGCAGCCTGCGTGGGTCTGACTTGCGGGTCACTCATATTCTGCGAGGTCGATTGACCCACGCTGAAACATCAAGTGAATACTGGCCAACAATTGGTCCCCAGACTAAAAGCCGCTGCTGTTACTCAGTTTCTTTACCTGTAAAATAAAAGGTCGGCTTTCTTCCACAGGTACATTGGAAAGGTGTTAAAATGTTATCATTGATTGAGAGTGAAGCCAGGCCTTTGAGGGAGTTGTACTCACCCCACCTCTCCCAGAGAAATCAGTTTTGATGTTATTAGGAGAAATTTATCCTACTAATTTGACTTACCAATTTGGTCAAAGGCAGTAAAGTCTAGTGGACTTTTGAGCCTGATTGTCCAGGTTCATGTCTCACCTCCATCCATTTAACTAGCTGTGTCATACTGGGTAAGTTACTTAACCTGTCTGTGCCTGTTTCTTCTGTTAAAATGGCCATAATAGTAGTA
1 AGTTGTAAGTCTGGGTCTCCCACCAACAGCATAAAAGGCAAGAGGGACAAATGTCCTCAGGACCTAGCCCTGCACTGAGGACTGGGATCAGAAGGAGTGGGAGAGCAGAGCCGCCCCAAGGTGAAGCCACCTGCCTGGCCCTCTCTGTCTGGAAAGTGCCAGTCGGTATCAGAGGTGCTAACATCCACTGCTCCTGACAGCCTGGCTTGTCAGCAGCCACAGACCATCTGGGGGCTGACACTTGAGCTCACTGACAGGAATCACAGTTTGCTTCCATATCTCTCTGTCTCCAGCCCCAGGCAGCTGCAGGCAGATGGCAACAGTCCATCTGCAAACAGGGCTGCAGGCTGATGGGGTCCCTGTCCAGCGGACCAGCATCAGAAAAGCCAGTGCCCATAGGCCAA
0.6509559693509928 GTGCGGGGCCTCGCCGCCATACCCAGGCCGAATGGGGGTGGGGAGGGAAGCTGGCAGAGCTCGGCCTCAGGATCCGCGCCCCTGTGGAAAGACCGCAGAGGGAAGCCGTTTCACCAGCCTCTCCCCTTCTGGGGTCTCGGGAAACACGCGGTAATTACCGAAGAACCCCGCACTCTGTGAGAGGCGAGGCTGCGGGGCTGCCGGGACGGTTTGAGGACCGGGCTCGGCCGAGGAGACTCCAACCTTCACCCTCCCTGGCCCCCGGTCCCACTTCCCGCCGTCTCCCGGCGCCGCCACTTCAGGTAGCCCACTCGGCCCGGCCTCTCCCCGCGCCCGGACCACCCCCCACGGGGTGCTCTCACTGCGCAGCGAGTCCCTCCGCTGCCTCCTCCCAGCCCAA
0.9849511271111743 GTAATGCCAGATAGACCAGTTAACTAAAACCCTACCCCACAGATGCTGTTTTTTGTTTTGTTTTGTGGTAGTGAGGAGCCTCAAACTGGCGTGTGTATGGGGGGTGGGAAGGATGGATTTTGCTGATAAAACCAAAGCTGGGTCTTGGAAAGCTCTGACTAAGCATCTGGCTTGATAAAGCTGTCATCATGGTATTGTGTGAAGTGACTGACCTCAACAGCAGGAGTTCAGAGATCAGGATAATTTGGACAGATATTTCCCAGAATACCATATTACCATCATAATCAGAAAACCTAGAGGGCACTGGAGGATAGCGTGGCACATATAACTTTGAAGGAAACAGATTCCTTAAAGAAAAACTGCTGGTGTTATAATTTAACTGCTTACTCAAAACTATTTTGATTTTACAGGCAATACTTCGTAAGGGCAACAACAAAAGCAT
0.7297490860568145 CTGACATTTTAACTGAGAGCGTTTCTCTTTCGGGGAACCCCTAGGAGGCAGCCCTGGGGTCTCCTTGCAGGTGGTCAGGCCCACAGACACCTGGAGAGGGAGGTATTTCCACATGGCTGTCTCTTGTGCCCGCTGCTCCCAAAGCCCGTTCCCTGCCTGGCTGCGGGCAGGGACCTTCCCCCACAGCCCTGCCCAACCACGATGCAGCACCCCAGGGACACGGGCAGCTGAGGACAGCCGCCCAGATAAGCTCAAGTGTCCACTGAGAGGCTGGCAGGTGGTGACGCTGGGAGTCTCAGTCGGGAGGAGGCCCTGCCCCGGCGCACCTGGCCTGGCTCTGGCTCTTTGGGGCTGCTGTGGCTGTTCAGCCTCACCAGGTGGCCCCGGCTCAGAATAGA
0.7784558227174567 TCAGCTTCCTTCCTTCTCTCTTTCCTCCAAGTGAAATGAGTGCTTGATCTCTTCAGATCTAGGTTGTGGCTTACTTGCAGCTGTCCCTTCATATCACTTTCCTTTGCAAACTGCTGAAATGCTGAGTCTCAGTGATTAAGTGTGCCCTGCCAACCAGACAGACAAGGCTGAATTCTCCCTAATGAGGCAAAGAGGGATCTGTCCCCCTGCCTGAGGGCTTCTCTCTAACCTTTGTTCTCTGCCAAGGGGGCTCAGGACTGTCAACACTCCCAAGTGTTAGCCAAGTAAAGGCCAGGCAGGCTGACAAAAAATGAAACCTGCTGCTTCCTAGACTTCTCTCACTCAAGGCAATATTTCTGTTCTCAGTTTACAGCTTCAGAAGAAAACCCTTTGGATTAGTGCAGAAGTCAATATTTGATTGGAAAGGGTAAGCACCTTTCCAACCAAGTGGGAGGAACCAGAGGACCCTCTGGAGTTCTGTTTGTTGAT
0.4261762989291081 TTCTTCTTACCTCCCGCCTGCTGCTGGCCCTGCCTCGCCCCGGGCGGCGCCACCGTCACCGCGAACAGCGAGGTGGGGCCGCTGCTCTTCCCCGCGGCCTCCTTGGCGGCCCCGCGCTGCTGTTGGGGCTGTTGCTGCTGCGTCGCCGGCGGTTGAGGCTGCTGCTCCCCGTGCCCGTTCTCGTCGCCCGCGCCTTCCTCTTCGTCCCCGAGCTCATCTTCCCCTTCCTGGAAACCCTGATCGTCGCCGTTCTCGTCTTCCGAGGCGGCCTCCTCCTCCTCCATCGGGCCCGAGTCGGCCGCCCCCGCGGCCCCGTTCTCCTCTCCTAGCTCCATCTGGTCGCCGTCCAGAGCGGAGATTCCTTCCTCCTCCTCTTCCTCTTCCTCCTCCTCTTCATCGCCGCCGGCCGCGGCCTCCTGCTCGAGGCCTGCTCCCGAGCGCCCAGCGGAATCCCCGCCCAGGTCTAGGCTGCCGTTCCCGGGCTCCATGGCGGGGCGGCCCCCGGCCTCCTCGTCGTCCAGCGCAGCCTGGAGTCGCTCCATGAGCTCGGCCTTGAGACCCTTGTCAGAAAGGCGTCGCTTCTTGAGCTCCTCTTTCAGCTCCGACACCTTCAGCTTTTTTACATTAACAGGCGAGGAACTCATGGTGAGGGCCCCGATTCACCGCTAGGCGCTGCCTCAAACTCGGCTCCGCTCACTCGGCCACTGGTGGCGGCTGCTGCGGCTGCTCCTC
0.8133644720863455 CCTGGTCTGCTCCCACCCTCTGCAAGACACAGCCCACCTGCGGCCCCTCCACGCAGCACAGAACCTCTCCTGATCTTTGCAGAAGGGGCCCCAACACCTGCCCCTCCCGCCTTACTCCCAGCGATAGCGTAGCAGTTGTCACACTGCTGGAACGCAGCAGCTCTCAGCTGGGGACAACAGTGTCCCCCTGATGCTGGGCAATGTCTGCGACACTTCTGGTTGTCACACAGGTTGCTGCTGGCAGTCGGTGGGCAGAGGCCAGGGCTGCTGCTCAGCATCCAACGCTACACAGGGCAGTGCCCCCCACAAAGAGGTACCCGGCCCTGAGTGTGCACAGCTCTGAGGTGAGAAACCCT
1 CTTTCAAAACCAAAGAGCAAGGATTCTCCCAGATGTACCCCCAGTCTTGACCTTCTTATGTGCTATAGGAATTTCCTTTTTGAGTGACTGAGGCTTGGCAGTAATATAACAATGGCTCTGCTGGCCCTGTCAGACCTCTGCAAGGATATCAGCCTTTTATATTTATTCTAGTCTGGGAGATGATTTCCTGTATTGGGTAGAGGGCACTGGTATTACTTTAAATAGAATTTCCTATCTGCTTTTTCTCCCCACCACCTCATCACTCTTAAAATGACTGCCAAAATTGTTCCTGCTCTATTTTAAGTCAACACCATTTGACCCTTTGCTTTACTGGAAGTGCTTTCTAACTCCTAAGCTGTAAGGATTGTACTGTTTGCTGTTTGCCTATTTTAAACTTTCTGGTAGTGTAGTCTGTTTGGGTAAACTCTGAAATCCTGGTCATTTTCCTGACAACGTTTTAACTGCCTCAGTGCATTCTCATCCCAAATATTGTATCAAGCACTAAAATATTATTTATCAATAAT
0.8937939437704288 GCCGCAATATTTCTCTCTCTAAAAGGAACTGAATGAAGCACTTGGGTTATGATCTTGTTTACAATTTTGAAGGAAAAAAAGAGCTGCAGCTACACAACACTCATTTCTGTACTCAGCCCTCTCCAGTGTCTGTGGCCTGGGAGAAGGCTGAAGGGGATAATTAGGATGCCTGCCACACCCTCATGGCGGTGACAGGAATGCTGAGTGCTTACACTGAGTAAAGTGCCATTATAACTGAGTGCCTGTGGAATGTCTCTGCTTGGCTGTCCCCCCGGCACTGTATACTCATCTGTGACACCACCCAGTCACCCAAGCCAGGAACCTGGGCGTCCTCAACACGTCTTCCTTTCTGATCCTCCATGACTGGCACTAGGCCCGAGGGCCACTTTTCTGTGGGCCCTCCCTGCCA
0.7725035245916257 GCTTGGCCCAGGCTGCCCCGGACCGGGCCACATCCTTGGCCGCCCCGCACCTGACGTGAGAAGAGGCTACGTATCATAGATTCCTCCATCAGTAGTAAGGAGCCTGAGTTTCTGTCTCAGGTCAGCTTGTGTGGCTTTGAATGAGAGGCTCTGGTCTGCAGTTTTCACATCTGCATCGTCTAAAGGCAAGGGCACAGACTTTACTGCCTGGTAGACATGGGGTAGGCCCTCCTTTATTGGCAGTGTGACCCTGGGCAAATTACTTGTCTTAATCTCCAATTCCACACCTGTGAAACCCCACCTCCAAGGTTGTGGGAACCCAAAAGAATGTATGTAAAGCACCTGTTGCATTGTAGGAATCTACTTAATATTACTGTAGGAGGTTGAACTAAATGGCTCTTGAGGTCTCCTCGGTTACTCCCATTCTCCATGTCACCAAGAGGTCTTGTCTGGGTAGTTTCAACTCCTTACCCAGCTTCTTTCTAAGTCCACTCTATGCAGGGCAGGGCTGGAATAGCAAGGTCAGATGATGTCATGGCATGCCAACCTGACTCTGAATGGCAGTTCATGGCACCCTGAACTGAAAGTGAGGGAACAGGAAGGAAAAGGCTAGCCCAGGGAAACTGCGGAGCACTTTACTCGGACTACACCTACCTTTCCTTCCCCAGGGGGCTGCCAGGAAACAGTTGTCACACAGCTGGAGTGGGACCCCCAGAGGCACTTAGTGGTCACCAGGCAGGTGGGTATTTGAACCACCCAGAGCAGAACAGGCAGCTTCTTCAATATTTCCAGGGCCAATGGCCCCAAAAGGGCTCATTCCAAGATCGAAATAATCATCTGAGTCTGAAATAGCTCTGCCTATGTCCTGTGGAAGTTTCTCCTGGTTTGTGGAGGTGCCTTTCCTTATAGTCATCTTTCTGCAGACATAAGCAAACCCAGTGTTGTTCTTTTCACAGAAACCTCCCCAGCATTAAGGCAAGAAAGGTGTCTCTGTTTTTTCCGAAGTGTGCCTGCTTGACTCCTTTGATTTTTCTCTGGGATTCTTCATCCT
0.7273414832890485 GATGGTCCATGGAATTTCCAAACTAGAGGTTGTGATATGCAGAAAATCAACAAGATTGCATTGCTAGGGAGCACGTTTGTGAAGCTGGCGTCTTCCACAGAAGCTGTCATCAGCGAGGAGGGGCTGTTGAGGGGACACATTTGTGAAGCCAGCATCTTTCACAGAAGCTGTCATCAGCGAGGAGGTGCCGTTGAGGGGACTCCGGGTGATGCTTTCGTCGTTTGGAAAGTAGCACTGCTGTGCAGAATGGCCTCTTTTTAGCCATCCTCCTAGTTCCATGTGGAGCCCTCAGAATGGGTTTTACTCCGGGCAGATTCCAACACACCCTCATGCTATCCCGGGAGAACTGCGGACCAGGAAGGCAGAGGCCCCTTCCTCCCACCCCCATGGAAGCCAGACCACACGAGCTGGGCCACCCAGCTGTCCCAG
0.9484507396112208 CCTGGGCCCATTCTCTGTGCCTCTGTTTCCTCATCTGCATAATAGAAACAATTTCTCAGTTGATTTCCATTGAAAAAGTTAAAAATCCCATTAGGACCCACCCGAGCACATGGCATATGTTTTCCTTTAAACACGTTGCTGTGATGACACTCAGAAGAGCCTGGGCCACCTGGAAAGCATGGCCTCCTGGCTTCTCTGAATGTCATGCCATTTCCCAGGCCTCGCCTCTGTGTCCTTTCCCTCCCTCACCTCTGACAGTAATTGTGCTGACGAGAGAAGATGGGACCTGCTAGGCCCTGCATGAGGAGTGGCATGGATTAACTCATTTACCCCTTACGGTCCTCTGACAGGTGTCATCAAGTCCGAGTGACTGTCCCCTCTCAGCCTCTCCAGTCCACATGTCTCTCTCCACCCTCCTGCCGCTACCCTGGCACAGTCTGTCGGCGTTTTCCCCTGGCAGCATGCCACAGCCGTCTGGCT
0.8710106186053567 TTTTAAGCTCCTCTCACAAAGTCTTGTGCTTGAGACAAAATCAGCCCAGGTTCTGCACTTTGTCTATATTTCAGCAGCTCTCCTGCTTGATATTAAAAATAGCCTTGTCTAGTCCATCGAGATCAGACCCAGGAGACAGGCGCCTGCTATTCTAATCTCTGCTTCACAAATAGCTCTCTATGGGCTCAAGCATCTATCAACACTTCCAGGGGTCTCCAGTTATAAAACAGGGCCAGGCCTAGTCACCTATAAAGGTAGGCTCTGCTTAACTCCCCTGAGCTGTCCATGAGGTTAGCATGAGGCCTACAACAATCACATTTCTACCATGGACCAGAGACTTCCAATGGTGACTCAAAACTGAGAAGCAGTTAAGAGCATCCCCC
0.496170315423715 ATTTTCTCGACGCTGCCATTTTGAGCTCCTCCGCCGGGCGGGGTAACAAAGGCGCCGCCGCCATGTCCGAGGCCGGCATTTTGTACTCGCGACTCAGCCACATGGCTGATGCCGGCCGCCCTCCTACCCCAACAGCACCAGGGCTTTGGAAGTGGTCCCCTCGCTCCCACAGAATGCCCGGCCACCCCAAAAACACCTCCCGAAACGCCGCACCTAACAGATGTTCCTTCGTCTGCCTCGAAGCGTCCCGCTTTCATCCGCACAATACGCTCCCTCTCAACTCCCTCAACAGCTACCAAATGGCAGCCGCCCCGACAGCTCCCCAATCCCCACACAAAAAGCAAGCTTGAAGACACTACACCGTCAAATCTCTTCCA
0.5867299533642552 TAACTTATCTCATTCCTTAAATTAAACAGAGGTTTCTAAATGCTTTGGTACTGTGGGGACCCAAATTATCCCTTGATACTGCCCCCCTATTATCCACTATTAAGCTTTAAAAAGGCGAGAGATTAAATATTGTGCCCACATTTTACAGTCATTCGCGTTCCCGTTTCAAATTAAAGGGAGGAAAACGCGTTAAAATTAGGCCTCCGACCTTCAGACCAGCCTGTGGGCTTTTTTAAGTCATAAAACTCGCGGAGGTGGAAGGCCCCGGGGAGGAAGAGGGGTGCATTCTAGAGCTTTCGGGCCGACCCCAATTTCTCGTTGGCGACGAATGCTAACCACGTGTCGCCATTTTGTGTTCAGGAAACATGGCGGCCGCCCCAAGGGTAAGGAACAGGGGAGGCGGAGTAGCGCCACGTTAGCCGCTTTCCCTGAGAGATTGTGAAGCACGTTGCGCACGGGGCCCTTTCTGGTCTGGCTTAGCCCAAGGAGGAAGGGGAAAAGGCAGAAATCACAACTCATAGGCCAGCGTCTTGAGCGACACTTCCTCAGCGGGAAGAACCGGCAAAAAAGGCCTTCCAAGATGGCGGGCCCTGACGGGGCCGCCCCCCTTGAGCCTGGCGCAGTGGCTGCGCCCATGGGCCCGAAAAGCAGCCGCGGGAGCCCAGGCCGCGCGGGGAAAGCCGCAGAAACGTCCTGAAGCCCTGGCCGGCAGCCCCTGAACAAACGAGGCCTCCACAGGCGTACACTATTGTTTCTAATGTCGGAAAAGGGTGCCGCGGTGGAAACGACACAAGGGCAGGAGGTGGGGTTTCTGTGGCTTTAACCGAAAGAAACTTGCGAAACGCAAACAAAGCATTATGTA
0.6940648731555936 GGTGACTTCTCTCCCTGCTTCCCATCCCGTCTGCTAAACTAGCGTTGCCCAGTGACATCTCACAGCCAACCCAAGAACATCTTCAGGGCCCTGGCAAGGAGGGTAGGACAGAGCCTTGGGGAGTCGTCACCTTTTGAGGTATCTGGCGTCCTCCCCTTGCATGGCGGCAGCGGCAGCGGCGTGGAGAGGATGGGGTATCTTGAGAGGCAGGCGCGGTTATTTCCGGGGACGGTGGCCAAAGTACCCTCACACCCAGAGGCGATGACAGTCCTGAGGCCTGCAAGGCGGGGCAGCAGCGGCGCTGTGGTTACCACGGTGAAGCCTCCAGCTCCTCCCACAGCTTCTGTGCCCCAAAACACTGGAGCGGCCCAGACCCGCCCAGAGTCGCCTAAGCCGGGCCGTCACGACGCATGCGCTTGCTCTGCACCTCTTGTATGCGCAGGCTCAG
0.6130143697415257 CCTGCCGCCCGCACCGCCGCCGCGTCGCCGCCCCCGGTGAGCCGCCTGGACCCCGCCCGGGCACGGTGGAAGGATACGAAAAGAAGGCCGCGGCCTCGACGGCGGAGGGACACCGTGCGGCGCAGCTGCCACAGTGTGCGCGCGCCTCCCGCCAGGCCCAGCCGCCGCGGCGCTTCCACGGGGCTCTGTGCGGGACGCGGGCACGCGCGGGGAGCGAGTTCTGTGCCGGGCGCTCCCGACGGCGGAGGGACAAAGGGCGATTCAGAGCGAGCCGTCGCCTCCCCTCGTGGCGGAGGGATTCGCGGCCGGCCGGTAGGCGGCTGGGATCCCTCCGCCCTCGCTGCCCTTTAAATCGCGGCTGAGGCGGCGTCGCCCGCGCCCCGCGGGCGCCACGTTAGGGTCCCCTGCGGCCCTTACGCGACCGCATTCCGGTCCCGGTCCCCGCGGGACCGCGGCAGCTGTCCCGGGCCCTGGGTCTTTGCACACCTGCCCCTACCAGGGACGGCTCTAGAGCCAGCCTCTCGGACTGCAGCC
0.8095726040183098 ATGTTTCCTGAATTCATTGTTCATGAAGTTAATGCCCTCATTATATGAAATATTGAAATCCATCCTCACAGTCCTTGCTTTCTGGCTGAGGACACACATGATCCATAAATCTAAAATGGGCTTTAGAACAGTTACAAAGTAGTCTGCCGATGAAGTGAGTGTGAGTGAAGAGAGCGCTGAGTAAATGGCTGATAAGGGAGGCGTGGGGAGAGGAGTGACGAGTCCGAGTCCTTGCAGCCAGAGGTAGGGCACAGGCGGGAGACAAGCTGCGGGTGGGGGACAGCAGGCACCCCAGCAGCAGTGAGAACTCAAAACTAGAGCAGACGGCTGTGAAGACTGGGAGCAAAGGTTCAGTTTGGCAGGAGGAATAAAT
1 GAGCCCGCGGGAGGGGCGCAGGGACGCGGCATGGGTAGTTTTGGGGGGACGCCGCTAGGGAAGGGGGGGCCTTTGTTCAAGCAGCGAGTCCCGGGGCGCCCCGAACGGGCAGCCTGGGCCGGAGAGCACGGCGAGCTGCAAGGTCGCGTGGCCCCCAAGACGCCAGGGCTTGATCCCCGTCTGCAGGGATATCGGCTTGGAGGACCTTCTCCGAGCGAGCCGGGGGCCTGGGAGCACATTTTCAGACCTTCGGTGGGCGCCTGAGGGGCCCGCAAGTATTTTAAAATAATTTTTGAAAGTGCGGCGTGGTGCCCTTGCGAGAGGGAAACGCCGCCCGCGCCCAGGGGGAAGGGGGGGCCCCGGAGTTTGAATTCCTGGGGCTCCCCCCGGAGCCTGTAACGAACTCCCAACCCCCGGCCTGGGTAAAGGGTCGCCCGAGGGTCATTTTCAGGGTTTTTTTATGCACTTAGTTATTTTTTTAATATTTTTAAATATTTTTTGAAAAGATGACGTCTGGGGAAATGCGGCGCGGCGGCCTGGGACGCCACCTTTGTGTCTCGCAGGCGCGGCGCCCAACCCCGCGGCCCGTTCCGCGGCCCCGCACCCCAGTTGGTGTCGACCCCC
0.9760442546250316 GAGTGCTACTTTGGCTTTCTTACCAGGTGAACTTGAGCATATATCTGGGCAGTTCTAGAATTTCGATGTGGGAGGGACTTAGGGATGAAAAAAATAAAATGTGGATGGTAGATGGCATTTGGGGCAGGGGATTGGAGGCTTGTCTTGTAGCTGTTTCTGCTTAGTAAGCTCCCTGTTCTGGCTTAGAGACATATTTATTGGGGAGCTTGCTGATGGGAATTATGGACGGGGCCAACTCCTCTCCCAGCACCCTGTGGTGCTGACATCTGAGGTGATCACTTCCCATGGAGTGGAGAAAAGCATGCTGCTCTATATTTGTTCCCTACAACAGGAAGCGTGAAAACAGGATTTGCTGCCACATGTCAAGTACTCATGTGCCTGTAGAAGAAAGGGGCCATTGCTGCTGATGATAACAATGATAGCATCTAAGGTTTTATAGTTCCCCAAATAATTTCACATACACTGTGATTTGATGCTTATAACAACCGTGTG
0.9013207466219929 AATAGAATGAAAAGAATAAACCTCTCTGCTATTTTTTTTTAAGGTTGGCATTTTAAATTTGACATGAGAGTCTTTTACTATATTTTTTTTCTTGGACAGGATGAAAAAGCCTCACAGCTTGCGGTGTTGACAGTATTCTAGAAGACCCTACACCCCTGTGGCTTCTCGATGACTAATGTGGAGCCAGCATCTGTCAGCACAAACTCAGAGTGATTACCCAGAAATAGGTGCTTGGCAACAATCCCAATTCATTACCCATGTCCTAGCCCAGAGTGTGGAGGAAAAGTGATACCATCAATTTCTTGGCAATTATCCCATGACGGATCATTCAAGTATTTTAAATAAAATATCAATTC
0.9250732638857182 TGTCCTTGGGTCAGGAATTATTCTTTTAAACTGGAATATCTTTATAATTCAGCCAAACTAATGGATCTTTCCTATTATACCATGGCATTATCATCTAGGTACACAAAAGCTGTTAACACATGGCATACTTAATCACCATTACTACAAGCTGCCAACAGATGCATCAGTCAACAAATCTATTCTAATTGTGTCCTGGAAAGAAGTGTTTCACACCTTTGGAGGTTGACATCTGCACCAGGCAGAAGTGCAAAAAAGTGTTTAAGGTCCACATTTATGGATACCTGATAGGTGCATTTGAGAAAATATGAACGTTGCTCAACGGATGTTTTAAAGAACACAGAACACATG
0.7724169610152514 ACATTAAAAGGCTGAGTGGATTGTTCAGGTTCCTGTAACTTCCTAGTGGCAAAACCAAGGATAAAACCTGTAGTGGCTGCTGTGGTGCACTGCTCAGATGCCTCCTCCACAGCCCTCCTCCCCACCACAGTTTTATGTCTGAGACACTCATTCCATCTGTCGACAGCTGGGAGTGTTAGTTGCTGAGACAAACAGCCAATTTCCTCTCCAGGAATTATCTTCTTTCTCTGGGCACTGTCCTCTGCCAAAGGGAGTTGCCTTGCCTAAGTTTATACCTCCTCCCTAGGCTAGGGGCAGCCTCTGTGGAAGGGGAAATTAGAAAAATCAGCCTCTTTACCTCAATTCAGGACAACCCTGAAGGGTCATTTCAGCTCCAGAGCTCCCTCAGATAGCAGCTGAGGTCTTCATTTCAATTACATCACCGTTCAATTTCTCCTGTTCACTCACTTCTGGTTTCATTACTCTGTCACAGGT
1 GGAGAAAAAGGGGTACTATGAATTAAAGAATAAAAGATGGATCAGATTATTTGAAGAGAAACCTCATCATATCCCACAACGGGAACAGGAAAAAAAAAACACACAATACATTTTAGAGAAGTGGCAAGACAAAGGAAAGCAGGTTTAGGCTCCCAAAGGAGGGACCTCTGAGAAGGTAAGTGCATGGGAGTAAACTGATGGCATAAGGTTTGTAAAAGTTGTCTCCAGTAAAGAATTTATAACCTGCCTTTCGGCGGAAAGAGGGGAGCTCTTCCTCTGTTTGCTGCTTTTTAACTACCTTAGCTAAAAAATATTCAAAATTATCGTGTCAAAGAGGCATATTTGGGGGTAACACATTCTGGTTTCTTTCATGGACTTGTATGTAGGTTGCAAGGGGCCGGGCATGATGCCTCATGTCTGTAATCCCAGCACTTTGGGAGGGGAGTGACCAGGTTGGCCAACATGGCGAAAACCTGTCTCTACTAAAAATACAAAAACTAGCTGGGCACAGTGGCTCACTCCTGTAATCCTAGC
0.8035419729107854 GCAATAGAAGGCACATATGATATGGAATGAGCAGAGCTGAGGCTCTGAAGGACCATCAAAAGTTGCCACTCTGCCCACTGGAAAGATATTTCCCAAAATAAAAGACATGCCATTCACTGACACTTGCATGGTGTTGAAACCATGCTTGTTCTGCCTTGTGCCAAAAGAGTTTGGGAGAAGAGGGAGCGACTGCTCCCAGCTCTGTCGGCAGCCGCTTCTGAAGCTACCATAGCAACAAGTATAGACTAAAAGCGATCCTTCCATATTAGGTGTGAACTGACTCCAGACAAGGAAAATAGCTTGCAGAGAAGAAGCCAACTTTGCTGGGAAACCCACAGGGAGTAATA
0.8135535667715105 GAATGGGTTTGGGGCTAGGTTTGGCTCAGAGCGGTCAAGTTGAGTTGAAATCTCCTAAGTGTAAGTTGGGTGCTTTGTGTTAAGCTACACTCTGGTTCGTCCAAGTGCACTTTCCAGTACACTTACCATGTTACGACTTATCTCCTCTATATAAATGCGTAGGGGTTTTAGTTAAGTGTCCTTTGAAGTATACTTGAGGAGGGTGACGGGCGGTGTGTACGCGCTTCAGGGCCCTGTTCAACTAAGCACTCTACTCTTAGTTTACTGCTAAATCCACCTTCGACCCTTAAATTTCATCAGGGTTATCGTAGTTTTCTGAAGTAGAAAATGTAGCCCATTTCTTGCCACCTCATGGGCTACACCTTGACCTAACGTCTTTACGTGGGTACTTGCGCTTACTTTGCGGCCTTCGTCAGGGTTTGCTGAAGGTGGCGGTATATAGGCTGAGCAAGAGGTGGTGAGGTTGATCGGGGTTTATCGATTACAGAACAGGCTCCTC
0.9171737603990632 CTCCCTGGCTCCTGGCAGACCCTAGATGTACCTCGAAAATGTACTGATGTGTGAATGAATGAGCGGATGATGTGTTCCAGGCGTCTCACCAGCCTTCCTTTATCTGCACACTCTTCACTTTGCTAGGGTCCCTCTCAAAAACACAACCGGATCAGGAGTAGGGGGAGGGAGGAGAAGGGAGCTGCTGTAAAGCAACACACTGCTGTCAACATTTTTAAATGCGCATAACCCAAGAGAACATGCACAGTATATTTTGCGAAGTCAACTGGAAAGTGTCAGGGCCACACCTTACTGTAGTTGAAATTCAATGGCATTGAGCTCTTGATATTATAGATAGTAATTTTCTAGAGTACACACAATGGTGTGTGAACATATGACTGGGCTGGAATCTATCAAAGTACTTGCATGGACTATTACAGATCATTGATGCATTACAGTAAGCCATTTGTGGATATTTTATGATATGTACACAGACTAACATCACTGGGATAGCAAAGGCTATCAGAATTTCACCTGCGTAATAACAGTCATT
0.9567260185846994 GTAACTGGGATGGGGGCTCAAGAGAGGTATGTAAAGCCCGTAAGTGGCTCTCCCCGGCTCTTTAGAAAGCTGCTTATCAGGGAATGAAACACTGGCCCAAGCTTGCCATGACAGCAGGAGCTGCCTGAGAAGAGAGGCTGAGATAAATGAAGTATCCTTCATCCCCATCAGTGTGGGCCAGACAGAAACCAGGTGCGAGGCAGTGAGCCTTCATCTTCTGTAAACAATCTTCCATCGCCCACTGCAGCAGCTTGAGCCTGAGATGAGGATTAGAAGAACAGCTTCTGCAGGCCTGGGGCCTCTCAGCTGGACAGAGA
0.7392005856987047 TTATAGATTTAACTAATAAGATTTTTGACTTCTGCGTACCTTCACTGTTAATCCAACAGAATATTCTCTGAATTATAAAAATACCACGAAAAGAAACCCAGCTAGTTATCAGAGTTGTCAAGAGAATGATTGGTCACAGCCAGCACCAGGGAAAGAGAGTCTCCCAATAGACAGAAAACACCTGGAGCTGGTGACAGCGGCTTCCTGATAAGATCTCCGGAGCTGGGTGAGCAGGCTCAAGCATGCGCACTAAGAGGCAAAATGGTGGATGTATGACCTTCTTCAGGGAGCATTTGACTGGTAAAGGAAAATAGCCCCTAGAGAGCAGGTGCACAACCTTAGTAAAGGCACTACACATGTGGCCCCTCCTAAGTGCTGACAGGCCACTATGCATGCAGATAGCCTGCCCCCAAGAGAAGAATCAAGGGAGG
0.9271678470921793 GTGTTGGACTGATGCACCAACTACCTCCTTAAAGTCCAGAACATCTTCCCTTCAGTGGCTGGACTAGGCTGGGAGGATGGGAAAGGTGAGCCCTCCCTGCAACTGAAATTCCACTTGCATGCCTCTCAACACCTCTAGGTGTTGGAGAACTCACTGCATTCATTTTGAATAAAAAGAGACCGGCTCTGGGTTTGAACAAACATGTTTTTATTCAAGGTTTAAACATTTATTTTATGGCTCCCCTGCTGGGTTTCTGATTGTTTCCCTTTCCTCGGAGCATGAATGATTGTTTATTAAACACAATAATAATAATAAAGTGGAGGTAGGGTCTCTTAGCTGGCATTAGTTCAGATTCTAATTTAATCCTTCCCCAGCCTCACTTCATTACAACTCTATTCCGTTGCGTATTTCATAACCAGCATGTGTCACGGTGAATGAAGTCAAGCTTCAGAATAACATGTCAGTAAGATGATTGTTCATGGAACACACAGTACCCCTAGTCTATGATTAAAAAAGAAAGCAACCTGGCTCAAAAAATAAGAAATTTGCTTCACTACATAGAACCCAGGAGCAAAGGCCTCTTTCCTGCCTTTTTCCTGTTCCCTGAATATCAGGGCAGGGAGTGATGTTTCCTGGCCTCCTAGGGGTGAGAGGACTCTTCTGGACAGAAGGGCATGTACCTTTGA
1 TGGCAAGAGAGTCCTCTGGCTTCCCCACCCCAGAAACCGTTCTTTCCACTGTAAGCCCTGAGCCCTCCACAGACGCTGGCTGTTCCCTGCCAGGGGAAGAAGCTGTGGACAGTGCAGATGCCCGCAGCCATCCTGACCATGAACCTCCTGGAGCAGCATTCCCGGGGCCTGCAGGCCGTCATGGCTGGGCTGGCCAATGGAGAGGTCCGCATTTATCGTGACAAGGCCCTGCTCAATGTCATCCACACCCCGGTGAGCCCCATCTCCGGCATCTGCCACTCACTCCTCCTTGCCCTCGTCTCACCTCTGGGGCTTCTTAGCTGCCTCTTCCGACCACACATTGATGCATTTCAAAAACATTTGTTGAGGCCAGGCACAGTGGCTCATGCCTGTAATCCCAGCACTTTGGGAGGCCAAGGTGGGCAGATCACCTGAGGTAAGGAGTTCA
0.8838812674948262 CCCGTTGGCCTCTCCCAGGAACCCTGAGCAGAGGCCTGAGCCCAAGCAGACGCTGCAAGGCTGCTCTTCTCCCTCCCAGTCTGGGCAGCATGGTTTCTGCTCTGAGAAGCCGCCGGGAGCAGTTGAGATGAGCTGGGTGCCTGGTTAGTGTCTGCACCACCTTTCGGGGCCTGACATGTGGCGTCTCGCCTGTAGGCTGCGGCCAGCATCTAAGCGGAGCACTTGGATCTAGCAGTTATTCACATCTGCGGCTCCGTGTGTCCCCCTCCTAGAACCTCCCCACAACCCCCAAATTAATTGGATTGTGTAAGGTTTTCGTCACAGTGGATGTCAAGTGCTGGCCGTGTTAGGCACAATATAATATAAGCCTTGTATCTATTTCTTGTCTGAACCTAACTAAATAAAA
0.9191838862187328 GTTGGATTAGAAAGTCTCATAGTGGGATTATATTTCAACTTTATGGGTTGCAAAATAGTCGTACAAAATAAAAGACTATCTGGATATAAGGAGCAATCAAAGAATGGGTGCCTGCCAGGGCTCAAAGAGTATGTTTGCTAGTCTCTTGAGGAGTGTGAATTAGCCCACAGGACCCCAAAGTTTGTTCTCAGTCAGTTGGTGACTTTGGAGTGTTGACAGATTTGAAAGGGAAACATTTCACCAAGTGAATGTGTAAGATACTTTTAAATAGATCTATAAAACTCAAAGTGCACCACAAGAAGAAAAAATGAGGAAAAAACCTGGGCATTTAATATTCAATAGCAATAAAATTTCAGAAAAAAAGCATATTTTGGTGCATTTTCTGGAAAACACAAAAAGGCC
0.8541326822547742 CTGCCAGCATCAATGCTGGTGTGTGGAATGGTCTTTGCCTTGCGGGTGCCAAGGCTAGTGTAGCCCATCTCAGCATACAGAATGCTTTCTTCTGGGTGTCAACGTGATGCGTACTAGGTTGCCCCCTGGTGGTGGAGATAAGTGCAGCTGTCAACTCCTGAAGGTGTTGGCTTCTTTTGAATTGCCCTGTGTTTTCCTGTTTGTCATAATTCTCTGGGAAGAGAACTTACTGCGTTACTAGCAGAGAGAAGCTTTTATTGCTGTGATTATTGAATTGGTGTGCTGAGATCTCATTGGAGAACTCAGCTGAGGAAGCCAATCAAGCAGCAGCTCTCATACAGTATT
1 CTCCTGGGGGAAATACATGGTTAGGTCCCCTGTAAGTCTCTAGTTACACTATTTTCATTAGCTTATTAGCATACATCCTTGTTTTATGTGTGTTACTGTTTAAAAACTCTCATTCTCTCTCTCACACACGTGCACACACACACACACACACAGAGACAGAGAGAGAGAGAGAGAGAAAGAGAGATTAACATTGCACTTACAGCCAGTGGCACTCAACCAACACTCTAACTCGTCTGAGTGAAGCTTATCTGACATGCATATTTTCTTATAAGGCTCATCACTGCCTTCTGCTTAGGGACATTAGACAGCAGTTCAGCACTACAGCTGGGGGCCATTTTAAACAGTGAAATCACCAAGGAAAAGCACAAAAATGCAAAAGAATTTATATATGGCACTAAATAGACCATGAAAGGGGCACTTGTTTAAGTGTGACAATTGAAACAAGGCAAAGCATTGCTTTGTTTGTCCTCAGCTGGGAACATGTGTATCAGATGACT
0.7118257755127663 GGGAGATCTGAGCCAGTTCTTCTCCACATGACAGCTCTCTAAGTCTGTGTGCATCTAGTAAGCCTTCCGCAGAGCTGAGCAGCTCTCAAGCTCATTGGTCTTAGCCAAAGAACAATCTTGTTTCCAAGATATGTTTGCTGGCAATTCAGATTACACCTTCCACTTGAAGAAAGAAGCTGGGACAGATGCCAAGCCCACTGCAAGCCACTCTGGTTCTTATAATGGCACTTACAGGGGCTGTAGAAAATATAAACTGGATCATTCACTCAAGACAGAAGAGCAGTCATAACCATAAAATTCTCATTCAGGTCAATTCAATCAATAGAAACCAAAAGATTAATCTTTGCCGGTTCTGCCACCA
1 CAAAGAGGACTTTGTATGTTCGTGAGAAATACTGAGTCTTAAAAGTGTGTAGATAACTGCCTGGTGAAGGGGGTTGGAGAAGATTATCATTGTCATGGGAAGCAGCATAAGAAAAGCCATAGCTCCATTATGCTTAGCAAACTAACGCAGGAGCAGAAAACCAAATACCACATGTCATCACTTATAAGTGGGAGGTAAATGATGAGAACACATGGACACATAGAGGGGAACAACACACACTGGGGCCTCCCAGAGAGTGGAGGGTGAAAGGAGGGAAAGGAACAGGAAAAATATAACTAATTAGTACTAGGCTTGATACCTGGGTGACAAAATAATATTACAACAAAGCCCCATAACAAAAGTTCACCTATGTAACAAACCTGCACATGTATGCCTGAAATTAAAAGGTAAACACA
0.8193750972542638 CCTCCACAAATATGCTTCTGCCTTTGTTTCAGAGATACCTAAATTGCAAATACCTTAAATGAAAGCAAGTTCATGCCCTGGGATCCCCCTAAACACGGTGATGAAGCCTATTCTCAAAACCAGACTCAGATATCACACTCGTAAATGTCAAGAATCGTGGACTGTGAAAAGATAAAGCCCAGACACTACCGCTCAGAAAGAAGAGTGGTGCTGGCAACCCTGGTCTAGATGAGAGGTAGTTAATTTGAGATGACTGGCTGTAAGTATGTGTCAACAGAGGTAGCAGTTAGAAGTGGTGAGATGTATTTACTTATTTTTATAACACA
0.8733376449939054 TAGGTCTGTCAACACCTTGATTTTCACATAGTGAGATCCATGTTGTACTTCTGACCTCCAGAATGGTAAGATGGTAGATCTGTGTTGTTTTATGTCACAGAGTTTGTGATGATTTGTTACTGCAACAATAGAAAGTAATACCTATGGTCATAATGCATGCATTGCATCAGGCCTTTGCTGAAAGCTTTACATGCCTGGTCTTGTTCAATCTTCACTACAGTCCTGTTAGGTAACTATTGCTGTCGTCACCTCCATTATATGGAAGGGGAGTGTATTCATTTGCTAGGGCTGTCATAGCAAACGACTGCAGACCTTGTCTCCAAGTACAGCTACATTCTGAGGTACTGGGGGTTAAGACTTCAACATATGGATTTG
0.9737334771853228 CAGTGCTACAGGTTCTCTGGAACCATTACAAGCCACTGAGCTCTCTTTGCAGCTTTCTTTTCTGTTCTCTGTGGCCCTCAGGAATCCAAAACATGTCAGTTCTGTCAGCACTCCAAGTCAGGAGAGACAGTAACCAGACACTTGGGTAGCCATCTGAAAATCTGGAATACTGGACACATGTTCTGCCCTTCTCTTACCCTCCTGTGGGAGAAACTGAGTTGGTCACTTTAACCCAAATGTGGCAAGCTCTGCTGGCCTCCATCTTTATTATTGCCAGTTTTCAGGCATTGTAATAAGCTTCTAAACTTTCTATTTTTCTTTGTAACTTGTAGGCATCCAAAGTATGTCAGGACCCTGTCTGCACTCCAAGTCTGATGAGATACAAACCAGTCCCTTTAGTCATTG
1 AACTAGCTGGGACATTTTGGTAGGCTTCATGCACTCAAGGGCTTCCTGCGGGCTTAACTGTTAAGCCGAGCTCATGGAGGTGGTGTTATCAGAATGCTTAATGGGGACCGAGGGAACGTGCTGGCTGATGAGGTTCTGCACATATCAAGTAATGTCAACTCTGTGCCACTCAGCAGCTGCCTGTCAGCTAGAGCAGCACCTTTGATAAGTGGGTCCTGGGTAGAGATCTGGCAGTCCCAGGCTGGGATTTTTCTTTTAATAAAACATCCGTAGGTTGCTGTGCTGACGACAAATGACCTTGAAGGAGGTGACACAGTGGAGCAGGGGGATTTTTTTTTTTTTGGTATAGCATTAACATCTAAAAGGAAAACATGCCTTTCCTCACAATTTTCCAATTTTCATATGGAAATTCTCAAATCCTTTACC
1 TCCTTCCCCCACCCCTGAGAATGGATGTTTCCTGGCAATGGAGAAACTGGGCATCGTGCCACCATGGAGGTGCCTGGACTGTTTGTAACAAACAGTTTCATTAGATTACCCACAATTTCTCGAGAGGTAATTCCATTAGACAGTGTTTATCAGTCATCATATGCTCTGCTTGTCATGACTCCCCTGTTCAGTAGCAGTAACACCCCCAGAACAATACTGTGTGTGTGTGTGTGTGTGTGTGTGTGTGTGTGTAAAAACAAAACTGTCTGGGATGCCTTACAGAAGAGGTATCTTCTGTGTAGTAATGAACATAAAATAGAAAGAGACTGAGTAGGCAGCATTAAAATGTAGGTACCCCACAAATAAACATATTATTGTGCTTTTAATTCA
0.7471662705414641 GGGGCTGGGATAGAAACTCGGGGGATTGGCGTTCAGATGCTGACCACTTCCCTCTTCTCTGAGCAGTGTGACTTCACCGAAGACCAGACCGCAGGTAGGTTATCTCTGATCCCTACCGAGGTCACCCTTAGGGAGAGGGACACCCTCCCCCCAGCACCTATCCTCTAATCTTAATCTGTCATCTCTTTAGCACCCCCATGAGATTACCCCCTGGATTATTTTCTCTTCTTCTGGATCCTCCATTTTCTTTTCTCACTTTCTTCCTCCCTCCCCTTCCACTCTAGATCTGATCCCAAGCACTGGGTGAGTTTTAGGTGGTGTGGGTATGTGAAAAAACTTGGTCACTTAATGCCTGCTGTGTGTGGGGTCTCGGGAGGGTGTATAAAGCTGCCTGCTTTCCTTTGTCCTTTAATCAGCTACTTCTGCCTCTTTTCTCCTCTTGTGATAACTGTCCCCGCCCTCCCAGCTTGCAGTTGTGAAGATTGTAGAGCAGTGACCTGATATTCTGTGCAGATGGGGACAAGACAGGGGAGTTTGCTAAGGATATGACTGTAGCTATA
0.8496753363078114 TGGGGAGACCTTTCGGTTGCTCACTGCCCTGAGCCGAGCTCTGCCCTCCTCCTAGGCTACCAGTTAGGGATCGGCAGGGACCACTTCCTGACTAAGGAGCTGCAGCGATACATCGAAGGGCTCAAGAAGCGCCGGAGCAAGAGGCTGTACGTGAATTAAAAACGCCACCTTGGGCTCGAGCAGCGACCCGAACCAGCCCCGTGCCAGCCCGGTCCCCAGACCCAAGCCTGACCCCATCCGAGTGGAATTTGAGTCCTAAAGAAATAAAAGAGTCGATGCATGGTCCGTGAGTCAGTGCAGGACAGCCCGCGTGAGGCGGACGCACGTGGCCCCGCCCTTCCCCGTGACCTTCATTCGGTCACCGCAGTGACCTTCATTCGGTCACCGCAGTGACCTTGAGCTTTCTCCGTCCGGGCCCTATCGGCCCTACCTTCCG
0.8974888536744524 TAAATAAGGTATTAAATACTATGAGAAAACTGAAGTATAAAAACAGAAGAAAGACCTAAATCCAGTGCTAAGGAATTGCAGCTCCTTCAGTGACTCCTTGCCTGAGTGGGGCTGTTTACACATACAAGGACTCTGTCTTCTGTTTTACACAGGGAAAGACTGCTGACAACTAGCATTGTGGGGTATGTTTGCATGGCTCTTTCCAGAGTTCAAATCAGAGCACTGTAATTCAGCCACATGATGTTAACCACTTGTCCCTAATTTCGAAATTATTATGGCATCATTTTCTTTCAGAATTATCGATTACTGTTTATTTATTGATCAAGACTAGTAATAAGACCCAGAATGGTAAAGAGCCGACTCT
0.7527240760618223 TGGAGGCGGAGGGCCGCCCGTTGCTTAAAATGAATCCCTCCGCCCATCTGAGCCCGCCCCCCGGGAGCGCGGGGCCCAATCCCGTTACAAGGACCACGGACTTCCGTTTCGTTCCGCCTGTAAGTCCCGCCTGGTCCCGCCTCCTCCTGAAAAGAGCTCAGTTGTCAAGGAACTATTTTTCTTGCCGTCGTCCCAGAGATGCCTTTGGAAAAGCGGAAGGGCACGGAGGGTTCTGGAGTTCGTTGCTGGCACCTGCGTGGTGTCATGAGAACGTGGCGGGGCGGTGAGTGACGTGAGGGGGCGTGACGGCCAGGCCGGGAGTAGTTGCCCGCGCGGGAGAACAGGGGCTGCGCAGGGAAAGCGGCTTTGAAAAAGAGCTTCTTGGCGT
1 CAAGCCTTTTCTTTGCCTACTTGTCCTCCATCTTGTGGCTATTCTCGGCCTAGAGTTTCATGTTGTCTGTCTTCTAGAAAGGTGTGCTGCTGGGCCCAGCTCACTCACGCCTGTAATCTCAACACTTTGGGAGGCCGAGGCGGGTGGATCACGAGGTCAGGAGTTCAAGACCAGCTTGTCCAAGATGGTGAAACCCCGTCTCTACTAAAAATACAAAAGATTTAGTCGGGCGCGGTGGCAGGCGCCTGTAATCCTAGCTAGTCGGGAGACTGAGGCAGGCGAATCGCATGAACCCGGCGGCAAAGGTTACAGTGAGCCGAGATCGCGCCACTGCACCCCACCCTGGGTGACAGAGTGAGACTGTCTCAAGAAAAAAAAGAAAGGTGTGCTGTTTTCTGAGCCCTTCCCCACGTTTCGCCCGGATTATTGTGGCTTACTTTGGGTATAGCATTGAACATTAAATGGGACAGTGGGTCTTTTACGCTTTTGTAATTTCCTGCAGCACACAAATAGATGTCTCATATTTTCTCGCTTATTAGCT
0.8569773542315434 GTCAGGCCCCCCTGCAAAGCTCCTCTCCTGTCAGCCCCATCAAGCAGCCTTAGCCACCTGGCGGAGACAAGCTTTAGTGTTTTTAAAGTGTGTGCTGCGTGAATGTTTCACATTTTTGGTAAAGATGTGGGGTCATGTTGCAACACTTAAGTGCTTCTGCGTAAACCTTGCGCAATTCCGACAGGCACTGGGTTCCTAGCATCAGTGGCATCCTCTGCTCACATACGGCTTATGTAATGTGTGATCAGGCCCCCCAGGTTTCTCCTTGTAGCCTTTGAAAAAAATTTCAGGCTCTGAACTTGGCCCTGGTTTCCGGCAGTTCTTTGCTCCGAAGGTGCGTGGAATGGCTCAGCTGTCAGCACCTGCTGGTGAGATACAGAAAAGTGCCACGGGTTGATCTTTCTCTGGCACCAGTACACAGGAGGCTGGCGATGCTCCCCAGATGGGCTTGGCCCGCCCTGA
0.9516453457390427 AAGAGAGAGATAACCAAAGGAGGAAGCTTGCAGGCGCCTCCTCCCAGGCCAGCTGCAGGATGTGGGCAGGAGAGTCTGGGCTCTCAGTCCCGGTGGAGACAGGCCCTGTGTGCAGTGAGTGCTGCAGGAGATGGTCTGCTTACAAGCATGTGCTTCCTGTCATCAGTGCAAGCTGTTAAGTGTGAGAAAAAATGACCGGCAGTGAAGCAGAAACTCACTAAAAGTATTAATAGCCGGTGGCTGTCACCACTTGCTTGCTGTCCTTTACACCAACACTCCCCTAGCCCTCTCCCAAATGCCCAGGCTCATTTACTCCACTATGCAGGACCCCACAGGATGCTGCGGTGTGTTCCGCTTCTCCTCTGGTC
0.8460182735391738 CCAGAGCGGCTTCAGCTTCAGCTGCAGCGGACCTCGGAGGGGGGCCGCGGCGCAATGTCAGAGCAGACGCCGGCCGAGGCCGGTGCTGCGGGGGCCCGGGAGGACGCCTGTCGGGATTATCAGTCATCGCTCGAAGACCTGACCTTCAATAGCAAGCCGCACATCAATATGCTGACCATTCTAGCCGAGGAGAACCTGCCCTTCGCCAAGGAGATCGTCTCTCTCATCGAGGCCCAAACCGCCAAGGTTTTTATACACCCCGCAGCCTCCTATTACTTCTAATACTCCCTGATTTTAGTGTCAGCCTCATCCCAGGTCTCGCTTCCATCCCAAGGGGGACAGTGTTCCTTCTCTCCAACCCCCCCACCCCCCTCCAACTCAGGCTCGGTCTTTGGCCCAGGCTTCGAGCATGGGCCTCTGGGGGGGAGGGAGTGGGGAGGATAAAGGGTGGAGTCCCACTTCCGCTTTCCAACTCCCTTTTTAGGCCACCGCATTGTATATCCCGACACACACACGCTTTGAATAGAGCCCTTTGGGGTGGGGGAGACTTAAAGGCAGTTTGTGGTTTGGGGAAGTAAGAGTTAACATAAGCCATTTTAATTCCCTGGGAAGTGGGA
0.9408551213304492 AAGGAAGCGACACGTTTGTCAAGTGCTGAAAGAAAAGAGCTGTCCATCCAGAATTTTATATCCAGAAAAATATCTTTCAGCAATGACACAGAAATAAAGAAAGAGCCTCAGATACAAACAAACAAAGGGGCTGTATTACCAGCAGTCTCACTCTGAAGGAATAGCTGCACAGTGTTCTTCAGACAGAGACGTGTTGATGGAACGGAGAGGTGATGATGGATGGAGGTGATGGTGGATGGAGGTGATGGTGGATGGAGGTGATGATAGAGTGACTCTTGGGCACCAGGGAAGGCTGAAGGCAGAAGGAGGGGTGCAGGCAGGTGTAAGTGTGAACAACTGTGTTTTCCTCTGGGGAGCTGAGAGTTCAGCCCTTTGTGTGTCTTTCCAGAGTCCATGACTTTCACCACGCCTCACTGCCTCTCCACATTGCTGTATTTTATTTGGGGACTTTTATAAATTTATTGTCTCCTAAATCTTT
0.9100597625897694 GAGCAGAAATTGTTGGGGTCGGGGAATAAGAACCAGGAAATCGTTTTTAAGGTTCAAACCCAGTTCTGCTGAGGTCTCAGCTCGAATCTCGGACCACGGGGCCCCGCCTTTCCCGCCACCCTGGCTTGAGGGCAGAGGGGATTTCTGCTGCGGGTTCCGCCTGTGGTCATTGCGTCCCCATTCCGGGCCGTCCGGTCCCAGTCCAATCGGCTCTGGGAGCAGAAGAACACGTGAAAGCTGAACATGGGTTTTCCCTAAATATTGCCTGAGAGCGGGGCGACCCCCAGGCCTGGGCAGGTTCGCGGACCCCAAAGCACCTTCTCTTTCCCCCTCCTCCTGGCCGCTGGCTTCCGCCCCCTCCTACCCTCCCACCGGGTTGCCTCTGATTCCTCCTGGACTCCGATCTTTTCACGCTCTTGTTGGTTTCACTGACATGTTCTTGTCAATTTCAAACGCTTTGTGATTGTAAAAAAAAAAAAATCGAACCGATACGGTCCTACCACTCGCCCTAGTTTCGGAGCCCGGAGCTGTCCTGCGTGTGCGTCCATGTGGAGTGTCCGGGGCTGCGGGCTCGGGCGCACGGTGCCAGCCGAGGGCTGCCCTCCGCTTTTGTGTTAACCGGCGGGCTTCTCGCGGTCCCCGCCGCAGAGGTCACACCCGGCGGGTAACGGCGTGGATACACCGAAGGGTGACTTTGGACACCTTCCC
0.6483217298914297 CCAGGGGCGTCCCCGGAAGTGACGTAGGACGCGCCCTCCATTTTGTGGAGCGCCAGAGCTGCTAAGTGCGTCAGTTGTGGAGTGGCGTAGACGAGTTAAGTCCTGGTCTGCGTGGAGGTCGACGACTCCGTCGCAGACTACGGACCTGTCTGGGTCTCAGCCGCCAAAGACCCCGTCCGGTAGGTGAGTGGCTCACTTTGAGGGCAAGCCTTCTCGGATCGAGGCTTCTTCATGGCCGCTCAGATCGTGAGCGGCCGGGGCTGCTCTCTTTGCGGAGGATGGCGTCTAATGAGCGCAGTTGATTCGAGGTGGGCGCTGGGGCACGTCTCCCTTTTGGCATACTGTTTGAGGGGTACTGAGGTGAAAGGGCGGTCACTGTTCGGGTCGTTTTTACACAGCGGTTGTGCGCCCGTCCCTGCCAGTCTTAATGTCTTCATCTCCTGGACACGTAGAATAGTGGGCCGGGATCTCCCTGACTTTGCTGGCGATGCGGCTGGGCCTTTTGTAGGGCGGCCGCAGTGACCCCCGAGAAGG
0.963115812163933 TAATGGAAAATCTCTCCTGCTGAGGTGGTAGTTTCTGATTGCCCAATATTGTGTTCCCTTTCCAGGGCTGCAGGAGCCCAAACACTCTTTTGAAAACCTCTCTCCCTACTAGAAACACAGGCTGTTCATTTAGCAATTATAGCTGTCAGCACAGCAAGCTGGCAGGAGAGAGAACAGCATCTGTTTCTGGGCAGCGAGCCCTTGGCAGAGCCAGGAGTTGAGGGCCTGGGGAAACAGGTAGGACAGTGGCTCTAATTTGTCACTTCCCCAGCACTTGTGTATTTGCATCTTGTATCCTGAAAAGTGATACATGTATTAATTTCACCTATATGCTGGGGAGGAAAATTAGAAAATATGGGAAGTAGATAAGAACAGGAATGGTCTGTGGGTCTCCAAGGTCTTGTACATAGTGATACTGCCTCATCCATTCATCTCTTCATTCAACACCCAC
0.7782657863422362 TCATATGCCTTTCCCTCCGCTGTACTGATTTTACCTTACAGAAGCTCTCCTTAGTGCTTCATCAGACACTCCCTCTTTTCCAAAGAAAAGACAGCCGCATTCCATGGTCATCTGGTTGAGCTCGAGGTGAGCCCCAGGGATCATGTGCCTCCCACCAGGCTGACACCCCAGTGGTGAGGAGTTGCCCCTTGGCTTTTTCGAGGCCAAGCAACTCAGAGGTGTGGCAGGATTGCATGTCACAGTGGCACTTCCAAGGCCCTGGAGAGTGACTCAACGCCTCTGTTATTAAGATGTCACACAGGCTGTGCAGCAACAACTCTAGGGACACCCTTCACACTGA
0.1925678813730504 TCATCCAATGTAATAGAATGGAATCACCATCGAAGAGAATCGAATAGAATCATCGAATGAACTCAAATGGAATCATCATCGAATGGAATCAAATTGTCAATGAACGGAATGGAATGGAATCATAGAACGGAATCCAATGTAATCATCATTGAATTGAACCCAATGGAATCATTAAATGGACTCGAATGGAATCTTCGAATGGACTCGAATGCAATCATCATCAAATGGAATAGAATGGAATCATCGAATGGAATCGAATGGAATCATCATCGAATGAAATCAAATGGAATCATCATATGG
0.7426592032363003 GTCACTATGTTAGCTGCCATGGTGGATAAAGCTAATATACCTTGCAGTTTTTCCCCTTAGGATCTGACAACCTAGTTTTGTTTCTTTGGCATTGTCTAGTAACACCCAACACAGTCTGTAGCTTTCAGCTGACACTCAGTGAGTGCTCATTATCTAACAGGGATGAATGAGTGGACTGGTTCCCAATGCTCAGCCAATCTTCATGAAATTTCCCTGCTGGCTCAGTGACAAAGAGGAGATATGGCATATGTCAACGGCCTGCAAGTGTCCCAGAAATAGGAGGCAAAAGAAAATACAGCACATAGAGTCTTAAAATAGGAAGACAGTGGAACCCGTCTAGTACAAGCTTGAG
0.7347742281692983 TTCCTGGGAAAATGGTTTCTCTGGGGGGGGGTACAGATGTGTCCACAGCACCATTCCCCATGGCCAAGTGCCAAGTGACGAAAGTGTCGGGCCTTTTGAAATTGTCAGAGAAACTGATTTTCTTGTCAAGTCTCATCCTGTACAGTTGGAGGGCCAAATTCTACTTTCATGTTAGCTGCCACAGAGATCAAAGGCTGCTGACAAGGAGCTGAAGGGTTTGTGCCTGGTCTGCTTCAACCTTTCCTCAGTCCAGCATGGGGAATGCTCTTGGCTTTCGGCTTTCTTGAACTCTTATCGATCCTCCTTTGTGGGCCAACAGATGAAGGGCCTGGGAAATAATTTGAGG
1 GAGCAACTAGGGCTGGAAGTTTACGAAGTTTACGTAGTTTAAGTGAGTGAAGAATGTAGTCACCTCTTGAGAACTCCCTTTGCCTATATGCTTTTGAAAACGCCAAACCATTCCAGCTGTTTGTAAATTGTGAAACGTTCTACAAATGCATTAGCATTGGCATTTATAAAGAAAATGACGAAGTTGAGAGGTTATAGTTGGTTACTGCAGTGACTTAGAGATGCTCATTTTATAGTTATTAAAGCACAACGTGAACCAAGTTGGCAGAGAGATAACAAGGTAAAAATAGCATAAGGATATGTCCTAACAAAATGTCCTTGGTGAAGACACAGGTAGAGAAAAGAAGCCATAATAAAGAAATTAGTTCCCTGACCAA
0.9452723334184548 GAAGGGCGTGAGAAGGTCCCGGAGAGTGAGAGGTTGAGGAAGACTTCCTCATTTCTCCCCTGGTCCCAGTCTTTGACTTTCTTTCATGTCTGCTCCAAGACCTGTTCACCCTTTCCAAAGCCTTCTCTTCCTATTAGGACTGTCTCCCTCTCTCCCATAGATGGTACCACCCACAAGGCATGGCTTGATCCAGGTCACTGTGGCATCTCTCTCATCTCCTCCAGTAAGAAATGCACTTCTGCATTATATTATGTTTTAGAGAGGCAGATGACTGAACTCAAACATTGGGCTGGGCATTAGCGATGCAAAATTTGGTCTGACTTTCCATTTACCCGTTGTGTGGGACCTGGGGATAGTCTTGGTCCCTTCCTGGGCTTTAGGTTCATAATCTGCAAGCATAGTTTTCTGACTCCTTGCCTTGCCTGCCTTGAAGAATTATACAGGTCAGATGAGATCATGCATGTCAA
0.8719310549501915 GTTGTGTCAGGCACTCCAGAGATTTCCATACTTTTGCTGAAAACTGGTGACTACATTGCAAGAGAGGTATTATCATTATTCTAGTACGGTGGACACTGAGACACAGGAAGAGGAGGTCACCAGCTTGAAGTCAGACAGCAGCTCATTTGATAAAGACTGAATCACCATTCAAGCTATGGGGAACGTGGCTAAGAAGCCCTTGCTCTCCCTATGACCTCAATCCACCTTGCAATGAAAAATGCTGAATCAGAATATTCATGTAGAAGGTGTTGTCAGCCACCTGAAAAAACAGGAAGAACCCATCACAACCCAAGTCAACTCAGCAAGACCTCATTGAGCAAAGAGCATCCCTTTCACATTAACAGTGCAATACATGCTGAATGCAGGAGATTAAAACAAAGTTATTAGGCGGAGAAAGGCATGCCAATGACTTGAGCACTTAATGAGATGCCCATCGTATCTAGAAG
1 CAGGAGGACACAACATCAGCAGAAGGAGGAAGTGGGGGAGGAGAGAGTGTCTTTCTCTGGGGCTAATGATTATGACTGGCCACCGCTCCAACTCCATCTGGGATTCCTCATTGCCTCTTAGAGAAACAGTCATCATCTAGCCTTATCTTTCTCTTTATTACTGCAAAGATATCCCAGGTCAGGTAAACTAAATTACATATCCTAAGATTTTTCCCATTCGACACTGTGTATTGCTGTGGCCTCCATATGTAATCTTCTCTTCCACCCTAAAGACTGTCCCCATTTCTCAAGGATCTACTCCAGTTTACCTTCTCTGTGGAGCTCTGAGCTATCTCAGTCCTCTATGAGCTGTTTTCTCCGTAAGATATTATCTCACTTTTTTGAATTACCTCTTACCTTATAGAGGATTTATTATGTTCTTATATTCTTTCCTCCAGAGTATATATCCGAGTTTTTATATTTGCTAGA
1 GAGAAATAGTTGCTGATGTGTGAAAAGATATATGTACAAGGATGTTCAACGTAGTATTGTTGATAATAAAAAAAAATTGGAAGCAACTTAAATATCTCAGGAAACTTATAGTACATCTATATGACAGAAAAATTTTAGCCCTTAATAATCATGTGGTAAAAGACTATTCGTTGATATGAAATATTTAGAATATTTTGCCAAGTTAAAAAAAGGTTATAAGACAGTATGCACCACCTGCTCTCAATTATGTAACTATTTATCATGATGACATTTACTGAACACTTGCCATGTGCCAGCCGTGGCTCTAAGCAGTTTAAACATATTTGATTGTGCAACAAGTTTATGAAGAAGATTTCTTATTATCTCTATTTTACACATAAGGAGACTGAGACACAGAGTGTTTAAGTAATTTGTCTAAAATCACAGCAGTAAGTGGCAAAACCTGCACGTGAACAAAGCATTCTAGCT
0.7967756068766271 ATTTCCTCCTATTGTTTGTGCTTTCTCTCTGCTTTGTCACCATCATATTCATTATTGGAATTTTGTTAATGTGCCATTTCTCCCCTGGAAACAAAAGAGAAGAGCTGTCAAAGCAAAGCAGGAAAGACGTGTGGCTTACTCCTAAGTGAGTAATTATCATGTGTCTTGGAATGGTTGGCTGCTTCCAGTTGAAGATGTTTGAGCTAAAAAGGAAGACACATAAGCATCCAGTGAAGTGAAAGATGGGGGAATCCACCTGGCTGCGGGAGGTGGCTTAGAGCCCACAGTAAGGCATGGGGAGGGCTGAATATGACTTGGGAACTAGAACACCTGAGCTCAAATCCTGATTGCACTCTGTACAAGCTGTATGACCTTGAGCAAGGTACTTACCATCTCTGAACTTCACCAAGTTCATCACATAGACAGGAATTCTGTCTATGTGTTGTGTGTTCTTGTGAAAATGAAATA
1 GGTGTGGTGGCGGGCGCCTGTAGTCCCAGCTACTCGGGAGGCTGAGGCAGGAGAATGGCCTGAACCCAGGAGGCGGAGCTTGCAGTGAGCTGAGATCCTGCCACTGCACTCCAGCCTGGGTGACACAGCGAGACTCCGTCTCAAAAAAAAAAAAAAAAAAAGAATCCAAGGGAGAATTCTCCTATATTTACTGAACAATTGCTTTGACCTCGGTCCCTACACTACGATGCACAAATATGATGCAGAGAATATGGCATCACACATGGTCCAAGGTCCTTGGACTTTCATCACCCTGTGATGGGGATTCAATGTCTCCTTACAGAGTTTGGGGAAGGAGCCACGAAATACTGTATGAAAAGCATCTCACTTAAGCCTGGTCTATGGCAGATACTCAACGTACATTATTCATCTGTCCTCTCCCACAACACTCATAAAAAACACAAGGAATGTGTAGTTGCACAAAGTAGA
0.92165005072957 GTTTTTGTTTTTCTTTCTTGCTGATTTGTTTGAGTTCCCTGTAGATTCTGGATATTAGTCCTTTGTTGGATGTATAGTTTGCAAATATTTTCCCCCATTCAGTGGGTTGTCTGTTTGCTGATTATTTCTTTTGCTGTGCAGAAGCTTTTTAGTTTAATTAGATCCTATCTATTTATTTTTGTTTTTGTTTCATTTGCTTTTGCATTCTTGGTCATGATCTCTTTGCCAAGCCAACATCCGGAAGAGTTTTACCAATGCCATCTTCATCATTTTTATGGTTTCAGGTCTTAGATTTAAGTCTTCAATCCATCTTGAGCTGATTTTTGTATAAGGTGAGAAATGAGGATCCAGTTTTATTATTCTGCATGTGGCTTGCCAATTATCCCAGCACCATTTGTTGAATAGGGTGCCCTTTCCCCATTTTATGTTTCTGTTTGCTTTGTCAAAGATCAGTTGGCTGTAAGCATT
1 GGCGGGCGCCTGTAGTCCCAGCTACTCGGGAGGCTGAGGCAGGAGAATGGCGTGAACCCGGGAAGCGGAGCTTGCAGTGAGCCGAGATTGTGCCACTGCACTCCAGCCTGGGCGACAGAGCAAGACTCCGTCTCAAAAAAATAAATAAATAAATAAATAAATAAATAAATAAATAAATAAATAACATGGGACAATTTTATCTGCCTCATAGAATTGTTGAGGGAGTCAAGCAAGCTACTGCATGTATTTCAGAGCCTGGTTTGTAAGAGGTCTCAATAATGAATGCTAGCCATTATTATTGCTCTTGTTACTGCTCTTATTGTTAGGGACTTGATCTTACCAAGCCCTAATGACCCCATCTCCAGAACAGTCTGACCCAAGAACGCTCTGCAGAGAAAGTCTGAGCACCGCCAAGCACACTTCCCAAGACTGGTGTGTCTTCCTAGCCTGCGTTTCCTTCACATTTCA
0.9947257376198534 GAGAAATGGGCCTTTTAACAACTGCAGTTCAGTGATGAGAAAGCGATGGGACTCCATCACCATCACTCAGACCCTCCTCCAAGCCCTTTGCACTTACTAGGTGAAACGGAAAACATTTTGATTAGGCCTAACTGGATGATAGATACGGCAGTCCGGCCCATACAGACACTAAATCCATTTCCTGCTGCAGATGAATGGGCAGGCGGCCTGCAGCCTGATCAAAATTTTCTTTGGCTAGAAGCGGAAATGAAGGCCCCTGTGCCATCACCCACTGAACTCCTCACAATAGCTATTTATTCAGCTTCTATGAGAGGATCCTGTCCTCTGCCTAGGGTCCTCATATTGTATTTGCAACGGTGATGTGTGCCGGTGCTCGTTATTTCATAATATTGTGGAATCAGAGCTGTAAAAATGACTTTGAGGGTCATTAAGTCAGTCGGGTTCAATTTGCTTTTGTTTTATAGCAGCA
1 CTCTGTGGGTACCTGCATCTGCTGGTCTCTCTGTCCTTGAATCTGAGATTGAAACCTGGGCTGGTACCAGTGTATTGTCTGGTTAGGGGAGAAGGTGCTGAGAAATGAGGAAGAAGAGAGAAAAAGCTAACAGAGTCAAATATTTAAATTAAATGCTCAATGACCACAACCTCTGCATGTTTTCCAGAGGGAGGCTTCTGTGCATGGCATTTTACTCACAGAGAGAAAAGTCCATTTCCCCAACTTCCTGAGACACACATCCACACTTCCCAAAAGCAGATTCTATCAACACGCAGTGCATCAGAGACTCCTTTTAGATTGTGGGTGGTTTTTAAAAAGGTATTTAAGACAGGGTTATACACACTCTCCATGTGGTTTTCTAAGGAGTAATCCCCCATAATTCTGGCCATTCTCTCTCTCTCTCTCTCTCTCTCTCTCTCTCTCTCTGTGTGTGTGTGTGTGTGTTTCA
1 TTCTGAGCCCCTCTTTCCTTCCTCTTCCAATAAAGCACTCTGTTTCGTTAGTTTTATTTATTACCCTTTTGGATACACTTTCTTTACAACAAAAGATTCAGAGCCTATAAAATGTTTGTTAATTACAGCTTTAGATCTTAGCAGGACTTACTTAGCAGAGCCTTTGCTCCTCTGTCTAACCATGGCACAGCCCTCCCAGCTGAAACCTAGTGTAGCTCTTAGCACATCACCACCCAGAGCTCCCCACATGTGTCCCATTAAATAATTAATAATAACATGTTTAATTTATTCACTGATTGCATTTTGTCTTTACAATGATAACCCTGTGAACTAGGCAGTATTAGCGTCATTTTGTTGATTAAGAAACTGAAGCTTAGAAAAGTTAAGCAACATCCACAAGATCACAGAGATGGCAAATCACAGACATGAGATCCATCAATGTGATATCATTACCAGGCATTACAGGCCA
0.9397643345621088 CCCAGGGCAGCTCTCATCTGCTCTCCACCAAACTCATATCGCATTACATTTAATACATGTGTATAATGAATGCCGCACACATTTGGCAGTGCTTCTGTGCACCGTGTCATTATAAGCTGTATTGACAGCAAACAAGTCACATATTCTCCCTGCGAACACTACAGGAAGAAAGAACATATAATTTTGTTGTTGTTTGTATGTTTTTCTCCAAGTCACATTGGACACCATTTGCCTTTCATTAGAAACACCATGCTGACAGTAAAATCACATATCCCCAACACACAAAGAGGAGAAAAACAAGCTGTTTGGGCCCCCTGTGAAGGGGAGGAGCAAGGACATGGCCTCTGGGGAGGGGCTAGGGGTAACAGAACTGGGTGATTTCCAGGGCTTTAGTGGCTCTGATCCCCCTAGAGAGAGTTGATGCTCTCTTGCCCCGCAGGGTCTGTCTGTATCATCATGCCCTGCAGTTT
0.879178269243057 GAAAATGGCAGCAAAGACTATTTTCAATATCTGGCATGTCAAGTAAAATAACTTGACTCGAGAATCCCTTGGGTAAGCCACTCGTCATCCTATCTCCTTCTCTCTGGTGGTACTCTTCTTTTCAGGATGGCTCTCTGCCTCCACTCACTCTGGTTCAAAAGCTTCTATGCTCACTCTTTCGGAGATGAGGGAAGGAGAGATGGAGGGAACCAGGGGCTGACTCATTCAGAATCCATTTTCATAAATGTGAACCTTTTTGCAGTGAAATAAATTTCCCACCTATGGTATCTCCGCATCTCATTCGGCATCCGCCATCTCTTGATTATCACTGTGGGTTGTAATGTACACTCTATTAAATGGGCAATAAACACAGCAAGGGTTATTGCCACACATAATAGCTAACAGAGATCGTATCTTTTTTCCTATTTCAGAGCCTTCCACACCTTTCTCCTGACACCCTTCCTATCTCC
1 GTTTTCTTGCATGAATAGTTGTTCAATCTGGTGTTCCTGCAGGAAACAATCACACGAGGGCTCTATTTGTCCATCTGGTTCCACTTCCTCCTAAGGAATCATGCAGTTTTATCAAATCTGGAAAAGTTTTGTTATTAATTCTTTGAATATTTTTTATTCCAATTTTTTCTATTCTCTTTTCCTGAAAAATACCATTAAAATAAATTAGAACATTTGGTCCTATTCTCCCTATCTACTTTTAAAGTCTTTTTAAATATTCTTTACTTCCTTATTTCTCTTTGTGAACTCCAGATATTTCTGTATTCCAGTTCACTAGTTATATTTCCAACTATATCTGAATTACTATTTAATCCAGTCATGGAGTTTATTTTAATGACTATAGTTTACATTGGTAGAAATTCCATTTGGTAATTTCAAAGATATTTTTCTTTTCCTTTTCCATGCTTTCTTATTCATTGCTTAAAAATTTC
1 ACCGGACAAAATACTAAACCTCTCTCGTTCTCAGTTTCATAATCTGTAAGATAAAGATGGTGGCACTGACCTCATTGAATTGTGGTGAGATATACATGAAATCATTTATGTGTGAAATACACGAAATATTTATACACAACTATAATAATATGGTCCTATATACCACATTATATATTATATAACATATACTATATAATAAATCTAATATATTATTATATAATATATATTATATGTGTTAGATTAATTATTATGTATTTTCAGGTTATTTTATTTGAAAATAGAACACATGGCTCATTTAGGAAGATTATTAAAATATCTTCTGCTGCTTTTGCTAAGTTTCTGAGAAATAGGCCGTCTTAGCCTGAGCTGCTATAACAACATACCATAGACTGGGCAGCTTAAACAGGAATTTATTTCTCATAGTTTTTGAGGCTGGGAAGTCCAAGATCAAGATGCCAGCAGATTTGGTTC
1 GGTTTACTATGCCAAGTTCTGACTTCTGTTCTTTAGATGCTCAGATGACTTATAGTGAATGCGGTTCCTGTTCATTCTCATTTTATACTCACAGAGCCCATTCTCAACCATCTTGAAAGGGGAGTTATAATTCACAATAGCAAAGACATGGAATCAACCTAACTGCCCATCAGTGACAAACTGGATAAAGAAAATATGGTACATATATACCATGGCATACTATGCAGTCATAAAAAAGAATGAGATCATGTCTTCTGTGGGAACATGGATGGAACTGGAGGCTATTATACTTAGAAAACTAACACAGGAACAGAAAACCAAATACTGCATGTTTTCACTTTTAAGTGGGAGCTAAATGATGAGAACCCCTGAACACAAAGAAATGAACAACAGACCCCGGGGTCTACTTGAGGATGGAGGGTGGGAGGAGGGACAGGATCAGAAAAAATAACTATTGGGTGCTGGGCTTAG
1 ATGGCTGTGGACAGTCACTTTCTTCCGGTATCCTCACATTGTAAAGAGGGAGCTCCAGTCTCTCTTTCTTTTCTTATATGGCCACTAATCCCATCATGAGAGTACCATCCTCAGACCTCATCGAATCCTCATCACCTCCCAATGTCCCTGCCTCCAAATACCATCACACTGGGGGCTTAGGGCTTCAACACAGGAATCTAGGGGTACACAAACCCACAGTGCTGTTCAGTGTTTTCATACACAGAGCACTATTATTTATTTATTTATTTATTTTTTGAGACAGGTTTGCACTCTGTTGCCTGGATTGGAGTGCAGTGGCACAATCTTGGTTCATCGCAGCCTCAACCTCCCAGGCTCAAGTGATTCTCTGGCATCAGCCCCCTGAGTATCTGGGACTACAGGCGTGTGACCTCACACTTGGCTAATTTTTTTTATTTTTTGTAGTGATGGGGGTCTTACTATGTTCCCCAG
0.9253911249526071 ATAATTTATTTTAAAAAGGAAGATCAACTAGTGTTTACCTTAAAAAACCCACACAGAGACTTCAGCAAGGGCAGCAGGACTGCCTCTTCCAGAGGCACAGGCCACATAGGGCCTGTCCCAGAGAGAGGTGCAAACACCTGGAGAGAAGCAGTGTTTTGTCACCTTTACTTAAAGGGCTTGTTGGGAGGTGGCAGCTGGCTTGTCTTCTGATGGAAAACTATCACACTGGGGGAAATGTAACCATAGCCATGTCAACTGTGAGTAAGGAAGAAGACCGCGGGCTATGCACGGGTCATTTCTTCTAAATCTTCTGGTACAAGAACAATTCTGACTACAGGGAAATCACGGATCATCTGCAGGGAAATGAAGATGTTTGGGGAATAAAACTGTTACTACCAAAGATTCAGCAGCATGAAAAGTCAAGATGATGGGCGTTGAAGTCAGAAGTCCGAGGCCCAACTGCAACCCCAT
1 ATAATCATAAGCATAAAAGGCATTGCTTTTATTTATTAGTGATTTAGAATACAATAAAATTAGGGTAGGCCTTATGCAAAACAGCTATTTGTTTTCTCTTATTTTCTTTTTAAATGAGGCTATGAACGCAAGGAAACTTATTTGTATACGGTGCCTCCATCCAGTTTAACCAGAAAGGAAAATAATTAGTCATTAGGAAATACCCATTAGTTAAAAAAAAAAAAAAAAACAGAAAAAACTGGATGGGTATGAGCATGTTTCCTTGCTCCAAGGCTGTTTATCTTTTCTAGATGGGAATGTGAGCATCAACTTCAGTGGAAATACATTGCTTGGTCATATCTGAGAGTGGGCCCTCAAAGACCAACGGAGTCACTGGACTGTCCCCCCAGAGTTCCAAGGAAAGACTCCCTTCTTGGATAGGGATACTCACCGCCTGGGCTGTTTTTATGGCCACAAATCTGTGATTCCCTT
0.8803668708328922 AAAAGAGCAACTTTGACCACCAGGGCTGTCTAGAAATGTTGGTATAGATCAGTTTTTCCCAAAGTGCATTTCTTGAAACATGAATCCCATGAGATGGTAGCAGATGTTATGAGAAAAGGAACTTCTGTGGTCAAGAAAGTGTGACAAATGTTGCATCAAAATAGGTGGAGAGGTCATTTTATTGGAGTACATTCGTGAAACTTTGAGAGTGGAATCTATTATGTGTTTTCCTAACTTATTTAATGATTAAGCCCTTTTATGTTTGAGGAACAGTGGAAAGTACTTCTGAGACCATTTTTATGCAGGAAGGTACCTCTGATTTTGACAAGACTGAGGCCACACTGTAAAAATTTACATGGTGTACCACGTGTCCTCTTGCAAGTACATGGACTGGTAATCAAGCCCTGGCTCCACCACTGCAATCTGTGTGACCTACAGCCATTCACTTAACCCAACAAGTGCCATGTCATA
0.970953414119211 GCTTCTGCACTTTCTGTCCCTAGTATCTATTTTCAAAACAGTAGTCAGATGATCCTTTTAAAATGTAAGCTGGATTGCGTCATTGCCTGGTCCACAATGCCCAGGTGGCTCTCCATTTCGCTCAGAGGAAATGCTTGAGTTTCAACAATGGCCTCCAGGGCCCTATATCATCTGACCCCACTCTCTGAACACTCCTTCACTTCCTCCAGCTCCAGTCATTCCTTGAAACACCCACGACCTTCTGCCTCAGGGCGTTTATATCTGCTGTTACTTCTCTGTAGAATGTTCTTCTCTAAGATATCCACACAGCCCATTAATTCCTATACCTTTTCCAAGTTTCTGCTCAAATGCCACCTTCCATTGACACCTTTCTTGAAATGGTCTCATTGAAAATAGCAGTCCCTCTTCCTGCCTGACCATCCTTATACCCTTCCCTGCTTTGTGTATCTACATTGCAGTTACTGCCATTTGA
1 CGGGAGGTTGAGGCAGGAGAATTTCTTGAACCCAGGAGGTGGGGTGCGCAGTGAGCCGAGAGCATGGCCGCTGCACTCCAGCCTGAGTGGCAGAGCAAGACTCTGTCTCAAACAAAAGAAAAAAAGTAACTAATTTTAACGTCTCCAAAACTTGGTTTGGTAAAATTGTGTATAGGGGTGTAAGTTGTAGTTTTTGGGAAAAAAATTTATTTTATCAAATAAAGCTAATTTTTTTTCTTAGTTTTTAATGTGCCCAGCTTTGGATGCCTAGAAACACAGACACACAGACACACACACACACACACACACACACACACACACACACACTCTTAATTTTTCATGATGGGAATTGTTTAACATTTACAAAAGTAACGCGGTGAAACCCCATGCATGTCTTATTCACCTTCAACAGTAGTCAATTCATTGTTTTATCTACGCCAGATTATTTTGAAGCAAATCTCAACATTATCTT
1 GAGAAGCAAGAAATTGAAAGGTTTGGTTAGGGTTAGATTCTGAAGAGTCTCAAATATGCTGAGAAATGGATTCTGTAGTCAACAAGGGGTCAGAAAGTCCTGTTCTGAAGAGACAGGCCTATGTGATCGGGATTGTAGTAGTAACAAATGACCCTGTAGACTCACTGCATAAAGAATACACGGGGGAGGAGAGACTATCAACCTAGAAATAAAATCTGTAAAGACATTTTTTCAGATCTGGGTAAATGATAGCATGTGCCTAAAATGCAGTCGAAAAAGGAAGAATGGAGAAAAGAGAGCAAATTCAGACACAACAAAAAAAATATTCATTGTACAAACAAGAGCTTGCAGTTGCAAAATATTTTTCTATACCTGTGGGATACTATACCATTTGGTCTCAAAAGCTCTGTGAGGTAGGCAGGGAACAAATCATCATCCCCATTTTATCATTCACAAAATAGAAAACATTTGC
1 AAACGTGGTGGGACCAGGACTCCCATGGAGAAGTGAGGAGAGCAGAGGGGATCAGTACCCAGTTCTGCCTGCAGGAGGTGGGCAGGTCTGGCGGGCCCCTCTCTAGGTGTGTATGGTTCCATCCCCCTGCACAGGGTTCCTGCAGATGGGGCTCCCAGCTGTGCAGGGAAGGGCATGGGGTAGGGGCACTCCCACAAGCACAAATGACATATGTTTCGTATTATATGCACATTCTTTGTGGGAGCCCCAGTGAAAAATACACATGGCTAACCATCCCTTTCTCAGAAGGAGGGGCCCCAGGAAAGGAGATTTTGACTGCTGGCTTTATCAAGAGTCAGAAAGAGTGAACACTCTGAGTCTGTTAGAAAAACAAACTGACTGTGCTTGGGCTTTTAATTTTAAGGATCAGGAGAAGGTCTGGATGTCAGCGGATACCTTGAAGAGCCCACCTGGGTCTCAAGACAGTGGTGGA
0.9286935625096751 TCCATGTCACATTTTGGTAATCCTCACAATATTTCAAACATTTACATTATTATATGTTTTATGGTGATCTGTGATCAACGCTCTGTGATCAGATGTTACTGCTGTGGTTATTTGGGGGTGCCACGAACCACATCCAAGATGGTGAACTTAATTGATAAATGTGCATGTTATGACTACTCCAACCACTGGCCATTCTCCCTTCTCTCTCCCTCTCCTCAGGCCTCCCTATTCCTTGAGATGCAACAATATTAAAATTAGGCCAATTAATAACTCTACAATGGCCTCTTAAGTGTTCAAATAAAAGAAGAGTCACACATCACATCTCTCACTTTAAATCAAAGACTAGAAATGATTAAGCTTAGTGAGGTAAGAATGTCAAAAACCAAGATGGGGCCAAAGTCTAGGTCTCTTGTGCCAAAGAGTTAGCCACGTTGTGAATGCAAAAGAAAAGTTCTTAAAGAAAACTAAAAAT
1 ATTCAGCTTTACCCTTTACATTTGTTCTTTTTCCAATTTACTATTAAAAAGTGTAGAGTATAAACTGTTGCAGTAAGTAAAACTTATGCTAGGTTTTATAGTGGGTAAACAATATTCTTATATGATTTTCTCATTTAATCCTCATAGCAATCCATTAAAATATACTCTATCTTCCCATCTCATACATGGAGATGCTGAAGCACAGACCTTGGAAATGATCTGTACAAAACCACATGGTCAGAAACTGGTGGCATCAGATTGTTTGCATGGGTTAAAATCATGCTAGATTAAAACTTGTATGAGTAGCACCAAATCTGCATCCACAAATCTGCTAAATCCCAGGGCCTAGCATATACAAATTATTTTTTGAGTGAGTGAATGAATTTACTAAAGAACTAAAGCATCACATTTGTTCTTTTTAGGCATCTTTGGCTAGTCATTATGAACTTCCTGAGAGCTTCTGGAATTACAA
1 TAAGTATGGCAATAAAGTTCACTCATAGGAGGTGCACCCTAAAGTGAGAAAGATTTTGCAATTATGTCCAGAATAGAAAGAAGTAATTTATTTGCAATGTCTGCCAAGGACACAGCAAAGGATCAGTGTGGCACATGTACCATATTCGTGGTGTCTCTGACTTAGTCCAACCTTTTATTTTTCATATTGTTAAGGTGGGGCCTAAATAGGGTAAGGAGTTTTATTCTTTCATATATTTATTAACCCAATAAATACTAAGTAGGTATTCACTATGTGCCAGTTCTTGAGTGAGGCTCAAAGAAAGAAAAGATAAATTAAGACACAGTCCAGCTCTTAAGGAAAAAACAGTCTAGTAGGAAAGATTGACAAATAAGGGATGATTATTTGAATTAACACCAGTGATATGCACAGGCCACAGCAGGAAGACAAAGGAAAGATATTCTATCCAGCCTAGGGATTCAAGAAACACTTT
1 TATCTTTTATATCTTTAGTCATTTTAAAGATTGTACCTTTAATCATATTAAACATACCTAATAGTTTCTATCTATTATCTAAAGTTCTTAGAGGCCTGTTGCTATTGCTTTGCTACCTTTCCCTAGTGATTGTTACTTCAGGAACTATGTAATTTTTCTTTGTGAGCTAATTTTCAATGAGGTTTTAACTTGGGAAACATTTTGTAAACTTGTTTGAAGGTATGGCCCATCAAATGGATTTGTGCTTGCTTCTTCTTGGAGCCCCCAAAATAATAGCTGTGTGTATCCCTTTTATGTTAATTTCTCAGCTTGTAGTTTTCCAGATCATTCATACAGCATTGATTCACTACTGTTGCTGTTGCAAAGATTGTCACACTCCAGTCTTAAGTGGCAAAAGTCTTTTGTAATAAATCACTAGAAATGAAAATTTTAATTTTGTGGCCAGGTTGACAAACAAATTTTATTTGTGCCTT
1 TCTCCAGAATAGACAGTAAGTTAGGCCACAAAATAAGTCTTCAATAAGTTTGAGACAAATCTCTTACATATAAGGTATCTTTTCCAATCACAAAGGAATAAAACTAGAAGAAGGAAGGAACATTGAATATCAGCATGCAGAAGAATTGAGTTTGGATACTTACACTATATGTAAGAATTAACCCAAAATGGCTCAAAGACCTAAACACAGAAACTAAAGTTGTAAAACATAGGGTAAAAGCTTCATAACACTGGATTAGGTAACGTTTTATTGGATATAACACCAAAAACACAGGCAACAAATATAAAGATAGATTGGACTGTATCAGAATTAAAAACTTGCGAGCACCAAAGGACTTAATCGTCAGAATAAAAAGGCAACTCATGGCATGGGAAGACATTTGAAAATCATATCTGATAAAGGGCTAATATGTAGAATATATAAAGAGCTCTTACATCTCAGTACCCTATTCA
1 CTGAAAAGAATACTCAGAACTTACAGATAATTTTAATTTTTGTGTGTCTTTATCCAAGTGGTTCCAAAATCCACCCCACTCCCCAGCACCATTGCTGTTTAAAAGGCAAACAAACTTACTCTATGTGACCTTAGGAAGGTCATCTTACAGATGAGGAAACTGGTGCTCAGAGAAGCCAGGTTATTAGGTTGTGGTGAAGATTAAATGAGATCATGAATATGAAGCAAGGAGCACAGTGGCTGGCACATACAAAGCGCTCAATAAATGTCAGTCCCAACATTCTTCATTCTCCCCGAAGAGCAGAAGACTTTGTTTGCTTCCTGTCAAAAGAATCACTGAGCACAGGGAGTGGTAGTTCAGGGGTGAGGTAAACAATTCCTGATCCTCTTATCCCAACTGCAGCCCTGTATAAAATCTCATTTTTGTTTTTTGTGAGGTACCTCAGACTGGAGCAAGTATTGTTTTTCTAGCCT
1 TCAATAACTATTTGTTGAATAAATGATCAAACAATAGGCCTCTTAATTGTTGCAGATGTTAGCCATCTTTACAGTCAAATACTTCTCTATTGCTACATAAAAATTCAATAACTCTTCCTAATTCTTCCCCTTGCCTCATTGTTTTACTTGGCCATGTACTCTGCACAGTGATGAAGGCTTTAAATGTTTTAACTTCTTCATTTTCCTGCTCCCTTGTGGAATCTGACCCCACAACCCACCCCTTCTCTCTCACACATGTATACTTTCTGGGTTTTGCTGAGTAAATTCAGAATGTTGATGCTATTATCCCATATTTTCTTAATATGCCTCTTCTGTTTTAATAATCCTTACTTAACTCATATTACAATTCCCAGTCAAGCATTCATCATTCTCTTATATTTAACTATGAAATACCACAAGATTTATTGCTCACCATTCTTTCTTGTATTTGTCATCTTCCCTATCTTGAGATT
0.9263729595690667 GGCTTGCCAATTATCCCAGCACAAATTTGTTGAATAGGGTATCCTTTCCCCACTTTATGTTTTTGTGTGCTTTGTTGAAGATCAGTTGGCTGTAAGTATTTGGGTTTATTTCTGGGTTCTCTATTCTGTTCTGTTGGTTTATATGTACCTATTTTTATACCAGTACCATGCTGTTTTAGTGACGATGGCCTCATAGTATAGTTTGAAGTCAGGTAATGTGATGTCTCCAGATTTGTTCCTTTTGCTTAGTCTTTCTTTGGCTATGCGGGCCCTTTTTTGGTTCCATATGAATTTTAGAATTGTTTTTTCTGGTTCTGTGAAGAATGATGGTGGTATTTTGATGGGAATTACATTAAATTTGTAGATTGCTTTCGGCAGTATGGTCATTTTCACAATATTGGTTTTACCCATCAATGAGCATGAGGTGAGTTTCAATTTGTTTGTGTTGTCTATGATTTCTTTCAGCAGTGTTT
0.8159673404287496 GAGTGGGCACGTGCGGTAGTTGCTGTGGCACCATCTCCATTGACATGCTGCTTCATCCCCTCTGCAGAGGGTGAGTCTCACTGTTTCCGCTATATTTTTCCAATTTCTTTTTAAAATAAAAGCCATTTCAGAGCCTCTTTTGGTCTCATAAATTCTGGAGCCATTCTTGCCGAGGGCTTAGTGAGGGTCCTGTAAGGATGCAGAGGGACAGCCGTGGGCCCCGCTGCGTTGTGCATGTGTCTCTGGCTGGCAGCTCCTATAAAGCTGTTCCCTGGGGAAAGCACTCTTTGCCATCCTCACTGACTTCATACGCCCCTAAATAATCCTTGTGGGTGTAAGTGCTCCCATGGGGCCTCTCGGGAGAAAAGAACGTTCCTGAAACCGAAACTGGGCTGACGTTCATGCATCTCAAGCTCCTCAGTCATGCTGACGAGGGGACCATTTCCTGCTTGCCCATCCAGGCGGTCATCACT
1 TGAAGTCAGATGTGCTTGGTTGGGAATTCATACACTTCTTGTTCTTTTTAAGGTACACTCTGTTTACATATATAAAATCTGGAATTTCTAAAGACCTTAATATTAGTTAGCAGCTGGGGTATTTATGCTAAATTCTCTTCCACATAGCAAGGCATGAGCAAAGAGCATGTGTTTAAAACCCAATCCTGACCCTGATTATTAAAGTATTAATGTTTATTATTAAAATATTAAAAAGTCCAATCACTTTGCCTCTTTATGTCTTAGTGTTTCAACTATGAAATTAATGATATTTATATGCTTAATAAACTGAAGGAACATTAGCTGTTTCTAAAGGTTTTAATATACAGAATGGAGAAATATGTAAACAGCCATCCTATTTCACCTAAAACTCTTGCAGGATTACCTTGACATCTAAAGAAAGCATTTAACATTTAGAAATTACAGAAATTGGCTAGGTACAGTGGCTCATGCCTG
0.6757666147174543 AATTTACCCTCCTCTGCTTAAAACCTGCCCTTAGCTCTCCACCTTCCCGGAGAAAAGCCAGAGTCCCCAGAATGGTTGGCGAGCTCCCCCAGGTCTGCCCCCACACCAGCCTCCAGCCCAGCTCTTCCTTGCAGGCTCCTTCCCATCTCTGGGCTGTTCCAGTCTGGGGCAGCACTTCTCCACTGTGTCCACGGCCCGTCCTCTCAGCTCCTTTCCTCCAGTGTTCTCTTTGCACACCGCCCTGTTTTAAAGTGCCAGGTCTCCCACCCTCTTCTCTTTTCCTTTTCCTCCATGGCACTCATCACCATCTCACACAGTACATGTTTGATTTGTCGTCTGTTCCGCCCTACTAGAGGGAGGGCTGCACAGGGGCAGGGATTCTATGGATCTTGTTCACTGCCATACCCAGCATCTAGAACAGTCCCTGGTACATAATAGGTGTTCAGTAATTAACTCAGTCATTAAACATACATG
1 AAAAATTAGCCGGGTGTGGTGACGGGCGACTGTAGTCCCAGCTACTTGGGAGGCTGAGGCAGGAGAATGGTGTGAACCCGGGAGGCAGAGCTTGCAGTGAGCAGAGATGATGCCACTGCACTCCACCTGGGTAACAGTGCAAGACTCTGTCTCAAAAAACAAAACAAAACAAAACAAAAACAAAAAACAAGAATTAACTGTAGTGAAAGGAAAAGATCTTGGGGCCCCAAGATCACTAAGCTACAAGGAAAACTCAAGCTGGAAATTGCTCAGGACAAAACCTGCCTCCCGTTCTATTCAAAGTTATCTCTGTTCACTGAGATAAATGCATATGTGATTGCCTCCTTTGGAAAGGCTAATCAGAAACTCAAAAGAATGCAACTATTTGTCTCTCCCCTATGAGTGACCTGGAAGCTCCCTCCCACTTTCACTTAGAGTCTTCCTGCCTTTGCTTCAAGTTGTCCCGCCTTTCCA
0.7968520623261146 TTTACTCAGTTCAACATCCAAAACTAAGTCTGTCTTATATGCCAAGTACACTGTGGGCCATGGGGCCAAATGAGTTGTGGTTCCTGCTATGAAGAACCCAGAGTTGAGTGGGGGCAATGGACATGCAAAGAGAAGGAAAGAAATGCAACACAGTGGGACAAAATGCCCAAGAGCTCTCCATGCGTGAAAGGGAGTGATTAATGAGAGCTGAAAGGATGTGCAAGACTTCCTGGAGGAGGTGCCTTTGAGCAGACCATTTGGGGTAGAAATGACAGGAAAAAAGCCAGTGGAGGAAAAGGGTGGACAAAGGCACCAAGGTTAAGGCAGTGTGGGAGCAGAGATGAGGGGTAAAGTAACAGGTAGGGTTGGTGCTCACAGGACATGGAAGAGGCCCAACTCCAGACCGAAGATGACACAGCTCTTGCACAGGTCCGTGTTCCAGGACAGAGCACTGAACGAGGCTGGTCTGGTTCA
0.8027588671810328 GATATATTTTTGTTGCTGGGAGGGAAAAAAAAGGTCCTAACATCAGGAAACAAAACCAAAGGGGAAAAAAAAAGATGGGCCCCACAGTCATGAAACCACCTCAGAACACGGAGAACTACTTCTTACCATGACCTTAATTCACCCAGGCTGCTACTCTGGAGAGGTGCTGTTTCCCAAGTGGGTGATGAATCACTGCTTCTCCATCACCTCTACTGCTGTGCTTTGTTGGTGACAGGGAGATCAGGGCCGTGAATTCTTGTTTCCAAAAGAAAAAGAACTTGGGTTCCAGCCCAGACTGAACCCTCAGCTCTTGTTTGGTTTCTGATATGTACTATTGGCCTCATATCATTAAGAT
1 AGTTCTGGGATTACAGGCGTGAGCCCCTGCACCCAGCTGCACTCCCTGTTTCTTGCATTTTCTTTTCTCTTCCCCAGCTCTCTCATCTCCCTGGCCCTTCCCCCACCACCACTGTGTGGTTCTGTCCTCACCCCTTGCCAAAAGAAATTAAAAACAAAACAAAAACTACAAACAAAGAAGAGAGAAAAATAATGAAATAACACAAACGGGCTTTGGACATTTACTGTGTGCCAGGTGCTATACTAGACATTAGAAATTGGCAGAGAACAAGGCAGATGCAGTTTCTGCATCAGTGGAGCTCATTGGCTAGTGGGGAAGCCAGATACCGTGAGCCAAGAGACGGGAAGGAACAAGGTGGCCTGAGAACTTTCAGGTGGCCCCCACCTGTCTAGGGGACCTGGAAGGCTCTTAGCATTTGAGCTGAAACCTGAAAGGGTGAAGCAGCAGTCATTAGCTGGGGAAGGGGAGTGGAGA
1 CCAGCACTTTGGGAGGCTGAGGCAGGTGGATCACGAGGTCAAGAGATCGAGACCATCCTGGGCAACATGGTGAAACCCCATCTCTACTAAAAATACAAAAAAAAAAAAAAAAATTAGCCAGGCGTGGTGGTGTGTGCCTGTAGTCCCAACTACTTGGGAGGCTGAGGCAGAAGAATCGCTTGAACTCAGGAAGTGGAGGTTGCAGTGAGCCAAGATGGCACCACTGCACTCCAGCCTGGGCGACAGAGCGAGACTCTTGTCTCAAAAAAAAAAAAAAGAAAAGAAAAGAAAAGAAAAGAAAAAGACTATGTAAAATTAAAATTAGTAAGAAAGAACAACTAGCCCAGTCAAAATAAATAAATAAATAAAAAGGCGGGGTTGGGGGGGAAACATGACCAAACAGTTCTTAGAAGAGAAAATGTGAACATGTATAGTCAATAAACTTCTGAAGAGATGCTCATCTTACTAGTAATC
1 TCCAGCCTGGGTGACAGAGTGAGACTCCATCTCAGAAAAAAAAAAAAAAAAAAAAAAAAAACAACCCCATTACCCCAGCGAATCAAAAACAAACAGTCATGATTGTCTATTTGCTCTAAGAGCTCCCAGCAACATGTATTAAAGAAGTTTATGTGAATAGTCTAATGCACTTGTGCCGTGGTCAGAATTATTACCAAGCTAAAAAAGATTAATTTTTCTAAATACTCTAAACCCTCAGACACTATTATAAAGGCTACAGCTAGTGCCACATTTCTGTTATCTTGGCTGACAGATCCCCAAGTACACACACCTCCCTGCCACTTCTCCCTGTTAAGGCTTAAACACACACACACTCACATACAGAGGCAGGGAAGTCATGGGAAGGGGGCCAGGCACCCTTGACTAGGGTTCCCCACTCGAGACCCTGCCTCCCTCACAAAATAGAGACGACCTAAGGAACTGTGGGGAGAGCTGG
0.8956477969115055 GAAGCAACAGGATGGAGCAGGGGAAGAACCAGGACTCTGGGAGACACAGATGTGGGAGGTCGGGCCCACAGTCACACGGGCAGGTGCAACAATACCTGGCAAACTTGACGGAAAATGAGAAGCAGCTCTGTGGTGCTGCTGGAAAAGCCCCAGATTCATGGGGCTTGGAGCTCGGCCTATAGCTCCCTCTGAAACTGACTTATCTCCCTTGTAAAATGTGGTCACCCTACCTGCCTCACAGAGAACTGTCTAACTATCAGGAGTCAAGTACTTAGTTCAGCCCTTACCAAGGGTAGCTCTTAATACACCAAGCTGTGGCTCGGAATCTGCCCCGCCTCGTGGAATCCTTCAGGAACCTCCTTTCTTTGGCTCAGCCCTCCTTATTACCTCACACAGCCTTCCTTATTAGCCCACGGAGCTACCCCTCTTGCCTACAACACGTAAGCTGTCCTAATCTGAGCTGCTCTTGGGGTTGG
1 GGCCCGGATCACCCAGTGGCACTCCATGCTGTTCGGGTAGTTGTTGGGATACTCAGGACTGGTGAGGACCCCTGACAGGCCAGTCAGGACGCCGCCACACACATCTGCAAGGGAGCCCACTTGAGCTGACCTTTCTTTCTCCTTGTGGCTCCCAGTTTCCTCCCTTGGGAACAAGACACTCCAACATGCTGCCCCCACAGGTATCTCATTAGGGCCTCATTACCATCCAGCAAGCACCTGCTACCCAAGTAGCAAGTGTAGCACGTGCTCAGGCCCAGCATTTGGCACCTATGCTGCCTGTTCAAATCCTCAGAGTAGCCGCACAAGGACTGTGCTGCAGTTTCTCTGATTTTATAATTAAGAAAAGGGAGGCAAAGACAAGTTCAGTAGCTTACTTGAGTTTGAGTTCACCCAGGCAGACCTTGAGATAAGGATTTGAGTGCAAGGAGTTTACTTGGGAGATCCAGGGGCCCCCA
0.7081502240896228 AGGGGAAGAGGAAGTGTAGGGACTGGGGGGCTGAGAAGAGGCTCGTAACCCATCCTGGGGGTCTAGGAAGGCATCCTGGAGGAGGTGACATCAGAGCTGGGTCCTCTCAATAATCATGTCACAGATGTGCAAATGGAGGCTCAGAAACAGGTATAGTCAGTGTGTGTGCAGGTGTCTGTGTGTGTCTGTGCATGCACCTTAAGGAATTAGTCCAAAGTCACCTGGTGGAGAAGCCAGGCAGGTCGGGGCTCCCTCATCTCTCTGTGCCCTCCCATGCCCTCCCCGCCGGGTCTGACCCACCCTCTCTTGGCCGCCCTGACCTGGGGTGCATGATGGGAGTCCAAGAATGGTGACCAAGGCGATGAGGGCCGCCACAGTTGCCAGGAGGAGCAGCAGAGAGGCAGAGAGGCAGGCCCCGCGACGTGAGCAGCAGAGGTGGCCGCCGCCTGCTGTGTGGGGGGGAAACAAGCCCGGGG
0.9281053353889621 CTACTTTTTCATCCAATACTACCGTTCCTCCCCGGAGAAGCCTTTCATGACCCACCCCCCGCCACCCCACCCCCAGCATCCTGTGTGCTTTTCTAAAGACCCAAGTCCTTAACACAGTTGATAAAGCCCTGGGTGATTTGTCACCTGCCTCCTCCTAAGCCTCACCTTGTGTCAGCTTTCCCCACCATCCGTGATCTGGAACACAAGTGTTCTCCCAATCCTTTAGGAAAAAAATTAAACTTCCTCACTCCACAGGGGCTTTTGCGAGGGCCACTGTCTTTAAACTTTCTTGCACTGCACTCCTAGATAGGATGGCTGAGGAGGGTCTCTCTAATGAGGAGAGATTTGAACAGAGCAAAGAAGCAAGCCATAAGGCTATCTGAAGGGAGAATGTCCCACACAGAAAGATGGCACAAACATCCCAAGCTGTGAATGTACTTGGTGCATAGGAAGAACCGTGACAGCCCATGCAGCTT
1 TTCTGGGGTCTAGAGGATTGTGGCCCTCTTCTCACAGCTTCACTAGGCAGTGCCCCACTAGGGACTCTGTGTGGGGCCTCCAACCCCACATTTTCCTTCTGCACTTCCTGAGCAGAGGTTCTTCATGAGGGCCCAACGCCTGCAGCAACCTTCTGCCTTGGCATCCAGGTGTTTCCATACCTCCTCTGAAATCTGGGTGGAGATTCCCAAACCTTAATTCTTGACTTCTGTGCACCCACAAGCTTAACACCATGTGGAAGCTGCCAAGGTTTGGGGCTTCCACTGTCTGAAGCAACAGCTTGCATTGTACCTTGGCCCCGTTTAGTCATGGCTGGAGTAGCTGGGATGCAGGCACCAAGTCCCTAGACTGCACATAGCAGAGGGAGCCTAAGCCTGGCTCACGAAACCATTTTTTCCTTCTAAATCTCCAGGCCTGTGATGGGAGGGGCTGCCACAAAGATCTCTGACATGCCCTG
0.938344043587251 CATATGAAATATCTGAAGGAAGGATGCACTTTTATATGGGGTGTTCAGGGAAGGCCTCACTGAGAAGTGTAACGGGTAATGACCTGAAGCAGGTGAGGGATTGAGTCATATGAGTGTCTGGGTCTCGGGGGAGGGCATTTCAGGCAGAGGGAACAGCCAGTGCCAAGGCCCTGAGGGAGCAGCAGACCTTACTAATGGCCAGGATCAGCAAGAAGCCAGTGGGCTGGTGTGGAGCAAGCCATAGAGCAAGAAAAAAAGGAGAGACAGGGGAATAAAAGAGAGGTGTGTGAATGAGTGTGAGGGATGTGTGAATGAGTGTGACTAAGGGGCGTGTGAATGAGTGTGACTGAGACCGGGGGAGTAAGAGAGAGGTGTGTGAATGAGTGTGCGGGATGTGTGAATGAGTGTGACTGAGGGGTGTGTGAATGAATGTGACTGAGGGGTGTGTGAATGAGTGTGACTGAGGGGTGTGTGACT
1 CGCCCGATTCTGCAAGGGGCAAGACAGTCTGAAGGGTGAAGGTGGAGGCTCCGGAGCCCGATGCCCGGGTTTGAACCCAGCTCTACCACTCACAGGCTGTGTCACGTGGGCAAGTTCCTTAACTTCACTGTCCCTCTTTTTTTTTTTTTTTTTTTTTTTGAGATGGAGTCTTGCTCTGTCACCCAGGCTGGAGTGCAGTGGCGCGATCTCGGCTCACTGCAACCTCCGCCTCTCGGGTTCATGCCATTCTCCTGCCTCAGCCTCCAGAATGGCTGGGATTACAGGCGACCGCCACCATCCCTGGTTAATTTTTTGTATTTTTAGTAGAGACAGGGTTTCACCATGTTGGCCAGGCTGCTCTTGAACTCCTGACCTCAGGTGATCCACCCGCCTTGGCCTCCCAAAGTGCTGGGATTACAGGCGTGAGCCACCGCGCTGGGCGCACTGTCCCTCAGTTTCCGTGCCTGTAGGATGGGA
0.6907746278113238 CTGTATCTACCTAGGGGTGGTTGTGGGGAGTATCACAAGACACTTTGGGGTGTGACATCTCCCTTTCTCCTATCTTGTCCGGGCGGGAAAGCCGGCTTCCTCTGTGGCATCCCCGGTCCCCCTCCCCCAGCACCTCCCCGCTCCTCAGCTCCTCACTAAACCTGCCTTCAAGCAAGGATGGGAAGGAGAGCGGCAGGAAAGCGCCCTGGCTGCTGCCTCCCCTTGGGGCACAAAGCACTGCCCCTCCGGGAAGGGGCGAGAGGGAGCAATCCAGGCGGAGGATGAAGGCAGGTAAATCTCAGGTGGAAATTTAGGTAGCAGTTGACAGGAGAGCCGGAAGTACTCACTGAATTGTGTTCCTGGCAAGGAAAAGGGCTCTGTTAACTGTGGAGTGCTGGACCAATACAAGCCATTATTATTGTTATGCCTTTTGTCTGTTTAATCCTCAGAATAATACAGTAAAGTGGGAGTGGCCAC
0.8795519847644442 AGCTGTGACCTTGGTTCCCCCGGCAAGACAAAAAGCTCCTTGAGGGCAGGGGCTGGGTCTTCCGGTTCTCTGGTCTCCCCAAGACAGGGCTCTGCCCACAGTGGGCGATCAAAGCTGCTGATTGCCTGACAGGGGGATGGCACTGTGGATGACCTCTGAGGTCACACTCAGCCCCCTGACTGTGCTGTATAACAGTGACACCTGCTGTGCCACTTTGTGGTCCTCATTCCCCCAAAAAGCCATGCTGTGTTGTACCTTCAAGCCTTTGCACATGCCTCTATCTGGAATGCCATTTCCCTCCTTCTCTCCCGGGAAAACTGCTATTAATCTTTCAAGGACATAGTCCATCTGTCACCTTCTCTGTGAGGCATTCCTTGCCTGATTCCCCAGACAGAATTAATAGCTCCCTTGTTGATGTTTCCATGGCATCTGTTCAACAAATATTTGTTGGGAGTCAGCCATGCCGTGCTAGGCATC
0.9106683383478369 GGGGCTGGGGGGCAGGTGCTGTGTGGTCCGGAGCGGAGCAGACCTGGGAATGCTGGGGATGATGGGAAAAGCCCTAGGGCTCTCAGCTCAGCACCAGGAATAACTTTCTGGCAGAGCTGTCCTGCTCTGGCAGGAACTACCTTGAGAAGTGGTGACCTCCCAGTCACTGGAGGTGTGCAAGCAACTTGCTAAAGTCACACAATAAGTGGGTTCAAGCCCTAGTCTGCTGGCATGACAGCATCCAGTCACAACCTCCTGGCAGTGGGAGGACCTGAGGGACAGTGAGGAGCCCCAAGCCCTGCAGCCAAGTCCTTGGGCTCTGGCCTTGGCTGACCTAGCCACAGAGGCTCTCCCCAGCTGGCCCTGGGATGCAGCTGCAGGAAGTCTACCAGACAGGCCGCAGGAAGGAGGCTTCGGGGGTCTGCGGGCAAGAGGGGTCCCTTCAGTCCATCTGAGCATCATGGCTTACTCTTCTTT
0.9696794692040154 GCTCTAGCCTCTGGGGTGCATTCCATCCTTTCAGCCTGCAACTAGCAGAGAAAAAAAGTTACATATTTTCTTGCCCCATGCATACCTTGAGGCGAGCAAAAAAATTAAAATAAATTTTAACCATGAGGGAAATCGTGCACATCCAGGCCTGTCAGTGTGGCAACCGGATGGGTGCCAAGTGCTGGGATGTGATCAGTGATGAACGTGAAATCGACCCCACCAGCACCTAACATGGGGACAGCGACCTGCAGCTGGACTGTGTCTCCATGTACTACAGTGAAGCCATAGATGGCAAATATGTTCCTTGTGCTAACCTGGTGGATCTAGAACCTGGGACCATGGACTCTGCTAGCTCAGGCCCTTTTGGCCAGGTGCTTAAACCAGACAACTTTGTTTTTGGTCAATCTGGGGCAGGCAACAACTGGGCCAAAGGCCACTACATAGAGGGGGCCAAGCTGGTTGATTCAGTTGTAGATG
1 CAGCATTTTAGCATTGTCTACTACTCAGATTACAAATTGCTACCACTCTGGAAACTCCCTTTCTTTTTCAGACCTATCATAGTAGAAACTGAATGATAAATACATTTTTTCTTAGATTTGCTCATCTTTATGTAAATTCTGTGTATTTTGCTTACGTTCTTATTTGCATACTCTCCTATCCCCTGCCTGGTCTTCTCTCTGCCAAATGCTCTTGGTTTTCATAGCTGAGGATTTAAAAGTCCAAGACTGTTTTCATTATAGGATTACTTGGGGAATGCCAAATGATTTCTTCTGTGTAGTTTCACAAACTTTATATATAATTGTGAGAAAAATAAATACTGCTTTTCAGGTTTGATGCTGCCAAGTTTGTCATGAGATGGCTCTGTAAGCATGAAAACCCCAAGATGCAAACAATGGCAGTGAGTGTCACCTCTATTCTGGCTCTGCAGGTTTGTGATTTCTTAAAGGCAAGATGTCT
1 TTATATTTTTAGTAGAGATGTGGTTTCACCATGTTGGCCGGGCTGGTCTTGAACTCCTGACCTCAAGTGATCTGCCTGCCTCAGCCTCCCAAAGTGCTGGTATTACAGGCATGAGCCACGCTCCTGGCCCTTGTTTTAAAGGTATTTTCATGGATGTCCCATTTATTCCTCATTACTATTTTGTGGGATAGTCAAGAGGTTTAGCTTCAATTTTTCAGATAAGGAAACTGAGAAGTTAATTGACTTTCCTAAGGTCACACAGCTAGTAAGTAGCAGAGCCAGAACTGACTGTGCAAGCCCAGTGTTCTTTCCATTATTAACCCCACTTCTCTGTTTACCTTATTATATTTCAAAACTCCTGGTTATTGTAGGTAACAGGAAAATAGTGCTAAAGTATCTCTTTGAGTGGACAATTCCTGTGATCTGCTCAATGGCCACTGACCTGAATTTTTGTTTTGTTTCCTAGAATAGCTTTATC
0.9487207900069398 CTAAGTGTTCCTTCGTTCTCAGTGTCAATGTCTCTCCCTTCTCTATCCACCCCTTCCCTGTTGGTCTTCCATGGGGTTCTAGTCTGATCTAGTTTCTCACCCCATATACCGTTCTGTAGCCAGCTCATTTTTTCCCATGGTTTTGACCACCATCTACACCCTGCTGACACCCAAATCTCTATATCCATGCAGGACTCCCATCCACCTGCCTCCTGGGCATCTCTACAGATACCTCAATTCAACATGGCCAGAACTAAATTCACCCTCATCTTTCCCCAACACATCTGCTCTCCCTTCCATTCTGCCTTGGCAGCCCCTGGAGCTTTCTCTTTCACACACCACTTACTTATCACACTCTATTCCCATCACTTAAGAAACTGCCCTCCCTTCCCTCTCCTGAGCACAGTGCTAGGCCCTTAATAGATGAAATTAAATTATGTCATAAGCCTTTGGAGTACCAACTCCATGCCTGCTCCTG
0.9976931714389807 ATTTCATTTTTGTAGCACTAAGCTCTAGCAGATATTATTATTTATGTATTTCTTTACTGTTTGACTCTTCCAGAAGTATGTGAGCACCATGAAAGCAGGACTCTGTATGTCCTGTTAGATGTTCCCAGCCTCTAGAACAGTGTCTGACACACAGAAGGCATTTAACGAATGTTTGCTGAATGCATGGATTTGTTCAGATTTTGCTTTCATCTTTCAATAATATAATTTCTTCTTATATCTTTGTTATTAAATCTCTTCCTTAGTGTTTTATAATTTATGTTGCTGTCATAAAGGTACACATTTTTCCCCATTTCCATTCTAACAGGCTATTTTTATGGCAGAGAATGGCCATTCACTTTTGTATATTTATCTTGTATTTAGTTATCTTACTAAATTCTCTTATTAATCCTAGTAGTTTTTTACTAGGGTTTTCTAGGTGTACAATCATATCATTCGCACAAAGAGATAATTTTATACT
0.8203160634436807 GATCAACAGGTCTGCCAGATCGGGCCTGGATGATCTGAGCCTCAAGCCATTTGGCTACCCGCAGATAGGCTTTGGCCTGCTCCAGGTCCTGGCTGCGCTTGGCCTGCAGGGCTGCCCGCTGATACTGCAGTTTCCGTGCCTCCAGCAGTGCCAGCTGCTCCCGCACTGAAGGGAGAAGGCCACTGGTTAGGGCCACACCTGCCCTCTCTAGGCCCTCAGTTCTTCACCCTGCTTGTCCCCAACTCACCAGATGGACTCGGTGACTCCTTAGAACTTGAGGCCCTGGGCTCAGGCAGGCGCTGGGATGAAGGGACTGTGGGCCGTGCAGGTTTCTTGGCCACTGGGGCCTGTGCTGGGGGCTCACCCTGCAGGTGCCCAGGAGGCTGTTAGGAGGGGATGTGTTCCCTAGCATAGTCATGGCGGCTCCCAGACTTGGGCTGTCTTCCTAACACTGTACTACATCGCTGTGTGACCTGAG
1 GGCCTCCCAAAGTGCTGGGATTACAGGCGTGAGCCTCCGCGCCCTGCCTAGGCTCACAGACACTTTGAAGGGTGAGGGGGAAGGCAAAAAGGAAAAAACTCAGCAAAGCGAGAGGGGTTCCTGTTAACAGGCTCCCATCTCACAGATTGAATCCCATGTTACCACACAGGAACAGGAGAGGCAAACGGAGTGAACTTCCCAAGGCCCCACCCCGTCCTCCCAGTGTGCAGTGCGCAGGTGGGCATCCAGAAAGAATCAGTCAAACAGGGAGGTGAACAACACACACCAGGGCCTGTTGCGGGGGTGGGGATCGTACTTAGAGGATGAGTCAGTAGGTGCAGCAGACCACCACAGCACACATATACCTATGTAATCTGCATGTTCTGCACATGTATCCTGGAACTTAAAAAAAAAAAAAAAAAGAATCAGTTGGAAAAGGGCAGGCTTCATCCAGGATGGGCAATTTGGTTTTTCAGCC
0.999237115900602 ATCCATCTGTCTTGTCCCTGAGAACATCATGTTTTTTAAGTCATCTGCAAAATCTCTCTTGGTCATGCCCTCCTGGCTACCCATTCTGACATTAAGTCCACCCTTTTTTCAATGGTTAAGTGCTGCCACTTGATCTCTGCTATTCTGAGATCTATCCCCATTGCTACTTGGGAGCCCATCTCCCACCATTAGTCCTGACTTAGAGGATAGTTGCTGTAATCTTCATGATGCTGGTACCTCCCCTAACTAGTGCATTCCTTGTTTCCTTGGTAAATGGCATGTCCTCAAGGCCCTTCCAAGGGTGGGCCTTGGAAATCAACTGGTGGATTACAGGTGTGAGCCATGGCGCCTGGCCTCTCTGAGTCTTTTGATTCCCTTTACCATAGTTTGCTGTGGCAGTTCTAGCATCTCTACTTTAATGTGAATGTAGGCTGTCCCTTTTCTCAGGCTTCAAAGATCCATTCCAGCAGTGTACAGA
1 TTCCATCACTTTAGGACAGAAGCAGCCTTCGCATGGTCCATTATGGATGACTATAAAGGCAATCCTTTCCTACCTCACAAGCAATTAAAGACTCAAGCGGGGGAAATAGGTTATGACACAATCAGAAAGCAGTAATCAAAACTGTTGTGGAAAATAAAAAAAAAATGAGTTGCATTGTATCATGCTGGTTGTAAACATTCCACACATACATACCTTATCTAGAATTTGGGATTCATAAAATGCTGTTCTTATATAAGTTTAAAGCACTTCTGCCATACATAGCTAGGTGTGTGCAAATGTATGTATATTTATAAGTATGTTGTTTTGATGAAATTATGCAGAAGGTTAATTCATGTGTTTTCTACCTGAGTCAGGTTGATAGTACTGTATGCTAAAAGTATAAAACTCTTAGAAGGAAACATAAGAGTAAATCTTTGTGACTTTGGGTCAGGCAGTGGTTTTTAGATATGACACTAAAA
1 GACCGAGAATCTGAACTCTATTCTCTTGTCTAAAGCACTTTTTTTCAAGTTGTACATATACATTAAATATACTGTTCTATGCATGACGTTTCATGGTTTTTAAAAGTATTTACTACTTGCCTACCTCTGCGTCCCTCTAAATTTCCTTAGGCTTTCAGCAGTGTTGCTTTGGCAAGTGATAACCGGGGACCAAATGCTAGGAAACTCCCTAACATAACAATAGGAAGCATTCCAAAATACAGCCCAGCAAACAGTGGATACACCACATGCCTCCTGCTAGATTTCAAAGATGTATGTGTTAATTACAACAGGTATTGCAAGTTGGATATTTTTATTCTTTTTTGCTAAATCCCCTGATTAGTGAGACTCAAATTGAAATTAAGATATATATGAATTTGGGGTTGGTATAAACATATTTTTAGATGTAACATGGAGAAAAAAATAACTAGTGAAATAAAAACAAACTCCACCTCCAAACC
0.8416508186839005 TGTGCGAAGAGTTTTACCGTCATCACCACAGTAACTCTCAACAATATTCCTATGACGAGAGTGCTTTGCTTTTCCTTTGTCTGCACTTTGGGAAGCTGATGCTTATGGGTGGGATGGCTTTATAATTTATTGTCCAAACAGAAAAGGAGCACTGTGCATACTTACCTTGGAACAACATGTGCAACTGGGAAAGCCAGGACACATGGTCTTACTAGTTGGTGTAAAATTTGCCAAAGTCCACAAAATTAGCAAGTGACACAGCAGAGCTTTAAATTATAATATTTTAGAACACACACTCTTAATAGTTATAATGATACTCTCTTGGTAGTGGGTTATGAGTTTGGTTAATGACTAGACCTCTCTGAGTGGTATGTTCCTCGTGGATACAAATGGTGTTGCTGAGATATTGATTACTAAAGCACTTAACTAATAAGATGATGGTTAGTAAAACAACATGGCTGGGGGTGTTGGCTCACACC
1 AGCGTTTTGTACTTTTGCTTTTCAGAAAATAATTGTTTTAGCTTAATGGAGTGTAAGAATAACTTAAGTAAAAGAATGCCATAGTTCCATTTGGAGGTCTCTTCTAAATTAGTTTATTCTATTTTGCTTTTGCAGTATCACTAAAGTGCCCTGTATACAGTACTTTGAAGCTTATTGAAAATACATTTCTCATATACAAATTATATTGTCTTCAAGAGAAATGCTGATTTCCTTTAAGAGGGTAATACCCTATACTGAGAAAAACAAAAAACAAAAAACTAGACCTAGTTTTCAGTTCCAATTACTAACTGATTGTTGGTTATTAAATATTCGCTTTCTTATTAGACTTTACCAGTTCCAGCAACTGGTTTACCTTAGCCTCCTGTCCATCATGGCCATTACTGATTATGAAACTAATTAGTGTTGAGTGCATGCCTGTTGAGTGTAGGCTCTCAAACTGCTGATTGAATAGATTTGGA
1 AGCTTCTATTTTCTTCTTTGGATGTGATCTAAAAGGTTCTCTCCTCAACCCCCCATAGAGAGGGAATCTGAAAACAAATTCTTTCTCCACTGGGCAAGGGGAAATTAAAAACCTCTATTACCCTATATTGTTCTTGGTTAGTTTCTGTAGTAGATGATGGAATATTATGCTTCAATGTCATCTAATAAATCATACCTCCATATAAATTATAAAGAAATTATGCCAGTGATAAGAGCAAGCATTTATTAAGCATTTGCTATGTGCAGGGCACTGTGTTAAGAATTTTACCTGCTTTATCTCACTTAATTTTGACAATCATCCAATGAAATAGGTGCTTTTATTGTATCTATTTCACTGAGGCAAAGAGAAGTTAAGCAATTTGCCCAAGGTCATAAGGCCAGTAAGGAACAGAAAAGAGAACCAGAACTAAACTTTTGGTCTATCTTTAGATGATTTATAAATTTTTTAACCTCTGTGTG
1 TAAGGGGAGGGAGAGCATTAGGAAAAATAACTAATGCATTCTGGCCATACCTAGGTGATGGGTTGATGAAAATGAAATATGTTTGCCTTAATACCTAGGTGATGGGTTGATAGGTGCAGCAAATCACCATGGCACACATTTACCTACGTAACAAACCTGCACATCCTGCACATGTACCCTGGAACTTAAAATAAAAAATTAAAATTAAAGAAAAATAAGGGTTTCTAGGCTAGGGGTTAGCCACACTGAAACAGTCTGGTAGGAGGGAGGAAGTGGAAATGGAGCCACATAGCTAGTTATGAGATAGATGCCCTATAAATACATGGACCAGGGGCCATGGAACTTGTGTCAGAATTCTCAATGGGAAGCATCTCCCTGGATTGTGTAAAATGAGATGCTTACATGCAGCGCTGCCATTAACTGGGTAGTCAAGGATATTGGTTCTTTTATTCTAAAGTAGTTATCATTAGTCTTAATTG
1 TGAGGCAATAATTAATAGCTTACCAACCAAAAAAAGTCCAGGACCAGATGGATTCACAGCCGAATTCTACCAGAGGTACAAGGAGGAGCTGGTACCATTCCTTCTGAAACTATTCTAATCAATGGAAAAAGAGGGAATCCTCCCAAACTCATTTTATAAGGCCAGCATCATCCTGATACCAAAGCCTGGCAGAGACACAACAAAAAAAAGAGAATTTTAGACCAATATCCTTGATGAACACTGATGCAAAAATCCTCAATAAAATACTGGCAAAACGAATCCAGCAACACATCAAAAAGCTTATCCAACATGATCAAGTGGGCTTCATCCCTGGGATGCAAGGCTGGTTCAACATACGAAAATCGATAAACGTAATCCAGCATATAAACAGAACCAACGACAAAAACCACATGACTATCTCAATAGATGCAGAAAAGGCCTTTGACAAAATTCAACAACGCTTCATGCTAAATACTCTCA
0.9311619567571282 TCCCAGCTCCTGCTATCCAATGCTAAGTTGAAGGTGAAACAATGATGAGCGCCTCTTGGAAGAGCAGTCCTGGGCTTGTAGCGTCTCTCTTGGTATGTGATGTCTCTGCAGCCAGCTACAGTTTTTTTTTTTTTTCCTACAGATATTTTATCCTTTTAAGGCAAACAGCGTGAGCTCAGGCTGAGGAGTACTTTCCGAGGAGACTTCAGAGAAAGCAGAACTAGCACATCAACCTTTCAGCCCCCTTTCCAGGAGGCTTGGTTTAAGTGGACAGATCTGGGCATTGCTGGCAGTTGAGAGGTCGGAGACGACACCTGCAATAAAAGATCTTGGTGTGTCCCTCATGAAGACTTCCAGGGGAAATGAGAATTCCTAAACCCTGTGGTCAGACCTCACTGCTGCCCCTATTGCCAGCTCTGTGTGTCTTTCCTGCCCTCTGTCCCCTTAGATCCTTGTTACAAAGTCCTCAAGGTGTTGCTA
1 GTGAACTATCCTCAATCCTGAATTTATCTCCCAACAATTAGATTATATTTAAGCCTTTAGGAGAAGATGTGCCAATGGACACCTTTTCAAAATAAACATTTCTTATAAAATATTAACTAATCTTGCCTTACATTAAATTAAAATTAGTTGTCAACTAAATTGTTTTGGGTGAATAAGGTCCTAGTTTCAAGAACAATAAGAATGATTATAAAAGTGGCAATGTTTTATGTTTTATCAAACAACTATTAACCTATAACCATGAGACCATTTTTTGCCCTCAAGATATGTAGAAAAGTCCGTGTTTTGGATAGAATATATACACTGTAATTCATCTCATTCAAAACACATGAGTGTTCCAGATACAACTTTTTAGTCTCTTGAAAATTCAGGATTATGGATAGCTTATACGATCCTAATAAGATCAAATAGGGACAAAAACACTTGCTTTATAATACTAGAATTAAAATAATATTTAAAAAA
0.9592239614332564 AGGCCACATTTGGCTCTTAGAACAACACTCATTGGGTGAAGGTAGTCACTTAAGGTAAGATAGCACAAGGGAGATAGGAAAATTATGGATTTAGGGCCCAGATATAGAATCTGACTCCACAGAACATTAAGAAGGTTACTAGGAAGAGCATTTACTGCTGCTGGAATCTGTGTTGTTAATTAGGCTAGGTACCACAATTGAGATGTTCAAAAAATGGTGTTTGGGCAAAGGTGGGTGGGACTCAGGCATCCTTAATTTGTTCTCTGTCCCTCACACTTGGTCAAGGCTTAGATCAGCTGTGTTCCCTCTTAATCCTCTTTCACAACATGAATAAATTGGGAATCTGGAGACATTTTCAAAAAGTCCTAATTAAGAAGACAGATGACAAGCAATGGAAGAGTCTATAATGAGAATTTTAATTCTTCTGTAAAGGGTAGTTGTTCTCCATGGCTACATATATTTTTGTATTACTATGAACAC
1 AAGGAGCAGTGAGCCCCCTTCCACCTCCACCAGGAAACGTCCCCAGGACAGACAGCTGCCGACCTCTTTCTGGAAGCGCTGGGCCTCAGAAGATTGCTGTTTCCTGCCTACTTGCTCCCAAGGCATATTCTTGATCAGAAAGGAGGGAAGAAGTGCGTAGGCATGGGGAGGAGGGGCAGGGAAGAAGTCACAGGAATGCCCACAGCAGAGGTCTGTGGAGATGCTGGGCTATCCCTGGTGGCAACACTCTTGGGGCTGGCGCTGGGTGAGGATGGCCTCCAAAGCACCCTATGCTGTGACTCCAGCCCCCAGGATCCTCCTCAGGGTACAGAGAAGGAGCTCAGGTGAGCTCTGGGTGGATGATACCATCTTTTCCCATTGAAATCACAGAATTTTACAACTAAAGAGAACTTCCAGATGATTTGAGTCAACCGCACTCTTTTGGGGGCTGGAAGCAGAGATGAAAAGATTTAGACAAAA
1 AAAGCTGGAAATATCACACTTCCTGATCTCAAAATATATTATGAAGCTACAGTAATGAAAACATTATGGTACTGGCATAAAGATAAACATACAGATCAATAGAACAGAATAAACAATGCAGAAATAAACCCATGTACATATAGCCAATTGATCTTCAAGAAAGGTGCCAAGAACACACAATGGGGCAAGGATAGTCTCTTCAATAAAGGGTTCTGGGAAAGCTGGATATCTATATCCAAAAGAATGGAATTGAACCATGTCTTACATCATATACAAAAATTTACTCAAAATGGATTAAGGATTTGTACATAAGATCTGAAACTATACAATTCTTAGAAGAAAACACAGGGGGGAAGCTTCTTGATATTAGATTTGGCAATGATTCCTTGGATATAACACCAAAAGCACAGGTAAGAAAAGCAAAAATAGATATGGTATACAGCAAAGAAAAGAATCAACGGAGTGAAAAGGCAACCTATG
1 CAACATGTGATGTCTCCCCCAGACACCCAGCTTTAAAATTTCTCCCTTTTGTATTCTTTCCCTGTATTTCTCAAACAGGCCAACACTTAGGGAAAATAGAAAAGGACCCATATCGAATATCAGGGGCTGGTTTCCCCCGATACACAAAAAGACATACAATAATGTTCACAGTAGTTATATTCATAACAGCCAAAAACTGTAGACCATCCAAATGTCTATCAATAGGTGAATAACTTCATGCAATAGAATACTACTCAATAGCATGATACATGCAGTAAGAGTATGAATCTATAAAACACCAGCAAGTGGAGCAAAAGACACCAGGAGCATAAGCACACTCAGTATAACTACATATCTGAAGTTCTGAAAGAGGCAAAATCTACTGATAGAATCACACTCGCACACGTGTTTGCCTCTGGGATGGCACACCTGACTGAAAGTGGACACAAGAGAACTTTTTGGGATGATAGAGATGTTGGTTC
1 ACCAGCCCCTCCTTCCCTCCATCAAAAAAAACTTTTAAATTTTGTTGTAGTCTCTAACCGGAAGACTTATCAAAGGCTTGATAAAATCTTAAATAAAGGTCAGCTATGGATTTCTATTACCCATATTCTTATTTGTCACATTAAAGAAATCCAGCATTTCAGTCAGGCAAGATTTCCCTTTAACAAAATCACATCTCCTTTAAGTGTTGGAGGATCCTTCAGTCTACCTGGTCAGGAAGTGAGATTTGCCACCAAAAAAAAAAAAAAAAAAAATTGCCCTTGGCTTTTTAGTTTGAAAAATTATAAATGTGAAAAAGTAGCAAGTGAGCACCTGTAGACACTTCATTTTGGCTCATTAATTATCAAGATTGTATCACATTTTCTTCTCCTTTCTCTCACTTTTTTTCCTGGGTCCCTTGGGAAGAAGTCGAATAAATTAAAACACCTCACATCTAAACACAGTAACAAGGGCATTCTCTTCT
1 CTGCTTGTGTAGTTATAAGTATATTTTAAGGAAGTTATACAAGTATACATTAATTTTATTAATAGATATATTACATATGTATATAGTTTATCATACATATGATAAAAACAAAAAAGTCTAAAATGCTTTATTAAAAAACTCTTAACAGCTATTACCTCTGGAAAGCAGGTTTGTGGGTAGAAGAGCACTTATATATTCTATTTTCTACACTTCTATATTGTTTTAACATTGGGCATGTATTTTGAATGTCATTTTTTAGGTTTAATAAATAAATGCTCTATTAGCACCAGTAGTAAATAATAGGGAAATGGCCAATGCAAGATAAAGTAAAGCACATGCACCAGGACTCCAAGCCAGGAGAGTATACACCTGGGGATCTGTGACCGTTCCACAACAGTACAGGTAGGACCAGAGATAGTAGTGTAGAGGAGGAGGAGAGAGCCAAAAAGAGAAGAAGAAGCCAAAGACACACATCCTTCAGT
1 AGAACTACTAGTTATTAAGCTAAAGAAGAGATACTGCCACTTAGCCTTTAGGCTGCTCCTTCAAAATCGTAACAGCTGTTTAAAATAATAATCATAATCATGATGCAGTAAGTTATAAAGCAAAAGATGTGCTGGAACAAATAATACACAAGATTTACTTCAAATCTAAATAAAAATGCATTCTTTAATAAGAATGTAACCACAAGAATATAAAAAGCAAAATATTAAGATATAAAAATTGTCTGTTACTAGAGAAATATTTTTATTTATTTATTTACTTTTTTTATTTTTGAGGAATTTTGTTCTTGTTGCCCAGGCTGCAGTGCAATGGGGTGATCTCGCCTCACTGTAACCTCCGCCTTCTGGGTTCTAGCAATTCTCCTGCCTCAGCCTCCCGAGTAGCTGGGATTACAGGCACCTGCCATCATGCCTGGCTAATTTTTATATTTGGTAGAGATTGGATTTCACCATGTTGGCCAGGC
1 GATACTCACTAAATTGCAATGTAAGAATCTTAGCATCCTAAGTCACAGGATCTTTCTTATTTACCTACCTCTCCTAAAACACCATATGGAGCAAAACAGATGCAGGCTCAAATATACAAAAATCAATGGTTTATTTTTCATTGAAATAATGGCATAATCGAAATACATTTCAGATGGGGAGAATTTTATACCAGAAAAATATTCAATTGCTATATAATCTTTACCTTCCACAAAATACTTATAATCCAGCTAGTAAAAATCTTTGATTAATGTTTCAAAAATAGTTTAATAGTTTCTATCACAAAAAAGTAATCACGCATAGTGATTTCTTATTGTTAAACACCATTACTTCCACGATTTTATTTAGCTTTCTGCAGCAGATCAGGCTTCAGAGAAAAAATGAGCTTCAGTCAGAGGGAGTAAGAGGATAAACCATTTGATTCTGAAACTTTTTCTATAGTTCTGTATTCTCTATTTATTTT
1 TTTTTGTTTCATTGAGTCTCTCTTGATGTTTGTTTTTCATTTTCATTGATTTCTGCTCTTTATTTTGTTGAATTATGCTCACTTTGGGCTTCTTTTACTCTTTTTACCAGTTTCTTGAGGTGGGAGCTTAGGTTACCGATTTGCGAGTTTTCCTCTTTGTGTATGCACTTACTACTATAACTTTCCCATTCAGCACTGCTTTAACTGCATCCCACACATTTTGATATGTTTTCATTTTCACTCAGTTCAACATATATTTCAGAATTTTCCCTTGAGACTTCCTCTTTTATGCATTTATTATTTTAAAGTATGCCGTTTACTTTCCAAGTCTTTAGAGATTTTTCTTTTATCTTTCTGTTATTGATTTCTAGTTGATCCACTGTGCCAGAGAACACATTTATATGATTTCAACTTTTAAAAATCTGTTTCATGGCCCAGGATATAGTCTATCTTGGCATATGTTCCACGAGCACTTGAAAAGG
1 CCTTAATTACCTCTTTAAGCACCTGTAGTCACATTGGGAGTTAGGGCTTCCATATATGAAGTTGGGGGAAGGGGGGCAACAATTCAATTCCTAGCAGTGTTGCATGGTGATGTTTAAAATGTTTTGTAGTTTTGGCTAAGAAGACAGCCTAAATAAGTGACTTTTCTCTTCCTCCCCCTCTGATGAGCCACACCTACCCACCCTCACCTCATAATCTACCTTTAGTTTATGTTCACTGTCTCTAAAAATAACGTGGGTAAAACATATATTTAAAATGTTGCCATTTTAACCATGTTAAGCATACAATTCAGTGACATTAATTATCTTTACAATGTTGTGGAACCATCACTATTCTCTCTTTTTAAAATTTTTCAACACCCCAGACAGAAACTGTATTCCTTAAGCAACAACACCCTATCCCTCTGTGTCCAGAATTTATTCCTTCTGGTGGGTTCATGGTCTCGCTGACTTCAAGAATGAAGC
1 TAATTCCAGATAAAATATGTAGAAAGAAAATATAATCATATAATCTGTATTAGTCAGGGTTCTCTAGAAAGATGGAACCAATAGGATAGAGACAGAGAGATAGAGATGAAGATAGAGATAGAGATAGATAGAGATAGAGATAGAGATAGAGATGATAGAGATAGGTAGAGATAGAGATAGGGATGGGGGAGGGATATGGGCAGGGATAGAGATAGAGATAGCTGAGATAGAGATAGAAATAGAGATAGAGACATAGAGATAGAGATAGAGATGATAAAGACAGAGCTAGGGATAGAGATAGAGATGTATGAGAAGGGATTTACTAGGGGAATGGGTTCATGTGATTATGGAGGCTAAAAAGTCACACAACAGACCATCTGCAAGCTGAAGACCCTGGGATAGGTCTAAATCCTAAAGCCTAAGAACCTGGGAAGCCAATGGTTTAACTCTCAGTCTGAGGCCAAAGGCCTGAAAACCCAGGAG
1 CTGACATTTTTTAAGAATTCAGGCCAGATTCTTTTATACAGCACTGTTTTTAAACAAATGGTATCACATTGCAAATCCTGCTCCACAAGTTTTTTCTCACTTAGCTGTATATGTGTGAGGTATTTCTGCATCAGTAAATAAATGGCCACTGTGTCCCCTTGAAACTGCACCTCAGTGTATAAATAAATACAGCACTCAGGACTGTGACTAAACCATCGTCACATTGTTCCTGCCCAGATAGATTATAGGTTGCCACAATTTGAAATGACATGCCTGTGTATGTGCCTCTTTGTCAGAATTTAAATAGATACAGCAAAATGATCAGTTTACATTTCCATCAACAGAAAGCACCCCTTTCCAACATGGAGAACAGCATCCATTTTTGGCTATTTTTCCCACATAATGGTTCATAGGCACCTCCGCTGTGGCTGAGTTGGGTCATTTGACTCTGCAGCCAAGATTCTGTGTCTGCACCTGATACTG
0.6036952343522864 CGGGAGCCCATTGGTGTTGGGGCTAAGGTTCTTGGTGTGCTGGATGGGCCTCGGGGACCACGTACCCGGAACCGTGTACATGTGTGACTTTGTCCTTAGGTGTCATCTGTCAGGGATCTCTGCTCCCACATGGCTGAGTGCACAGATGTGCCCAGGCCACTGCGCTGTCAAATGGGTGACCCCATGGTCCCAGGTTTTCAGCATTCAGGGCTGAGGGAGGCTGGCTTTCTTAGCTCCCCCAGCGCTGGGCCAGGCAGGGTCACACCAGCTGTAACAAAGAGAAAAACTGGTGACTGAGACGTTCTGGCCTGTGGGCTCTGCGAGCATGTGTGTCCCCAAAACAAAGCCCGCCACAGGCTGCCTGTTCTTACACACCCTGGGAGGGCCCCCACCAGACTCCCACAGGGTATGCTTGACTGAGTCTAAAATTACCTCTTTTATTTTCTGGTGGAGAAGAATTGAACATTGAGAACGGCAGTGGTC
1 GGCATATTCTGTAATTGTCACAGTGATGTTTTGTATAGTTACCACAGGAATTTCCTAGAAAAATCATGAAACATTTTTGTAATAAAATTAAACACTACCTACTTCATGAATTATGTAAATTTAGGTCTCCATTGTTTGTTTTCTTCAAATATAAGATAGCTGTGTAGAAAAAAGAACTGAGCGCCTTTACATTTTATTTTAAATAGAGACATCATGGTTTTGAGGACTGGTAGTGAGAAATTTGAGTTTCAGCCCTGATTCTCTTATGCTGCCACATGCTAGCTACATAATCCTGGGGAAATTACTTGATTCTCTAAACCTTGGTTAACCTATCTGTAACATGAGAAGATAAGTAAATATGTCTTCTCCCTAGTTGCTATGACTTCAAAGAAGATAGGACATATAAAAAGTTTCTCAAAAAAAAAGTAAATACTATGCAAACAACATACATTATTGTTTTTATGGTTGATAAAAATATATAGA
1 TCTCCTGGATAATATCCTGCAGAGTGTTTTCCAACTTGGTTCCATACTCCCCATCACTTTCATCACCAATCAGACATAGATTTGGTCTTTTCACATTGTCCCATATTTCTTGGAGGCTTTGTTCACTTCTTTTTACTCTTTTCTCTCTAAACTTCTCTTCTCACTTCATTTCATTCATTTGTTCTTCAATCACTGGTACCCTTTCTTCCAGTTGATCAAATTGGCTACTGAAGATTGTGCATTCATCACGTAGTTCTCCTGCCATGGTTTTCACCTCCATCAGGTCATTTAAGGACTTCTCTACATTGGTTTTTCTAGTTAGCCATTCATCTAATCTTTTTTCAAGGTTTTTAGCTTCTTTGCAATGGATTCGAATTTCCTCCTTTAGCTTGGAGAAGTTTGATCGTCTGAAGACTTCTTCTCTCAACTTGTCAAAATCATTCTCCATCCAGCTTTGTTCCATTGCTGGTGAGGATCTGCATT
1 CTGTCTACTTTTTATGTGAAAATATTTCCTTATCTACCATAGGCCTCAAAGCACTCCAAATATCCACTTGCAGTTTCTACAAAAAGAATGTTTCAAAAATGCTCTATCAAAAGGAAGGTTCAAATCTGTGAGTTGAATGCACACATAACAAAGGTGTTCCTGAGAATGCTTCTGTCTCATTTGCATGTGAAGATATTCCCCTTTCCATCGAAGGCCTCAAAGCAGTCCCAATGTACACTTGCACATTCTACAAAAAGAGTTTTTCAAAACTGCTCTATCAAAAGGAAGGTTCAACTCTGTGAGCTGAATGCACACATAACAAAGAAGTTTCTGAGAATGACTCTGTCTAGTTTTTATGTGTAGATATTTCCGTTTCCAATGAAGGCCTCAAAGGAGTCCAAATATCCACTTGCATATTCTACAAAAAGATTGTTTAAAAACTGCTCTATCAAAAGGAAGGTTCAAGTCTGTGAGTTGAATGGAC
1 GAAAGAAAGCTTCAACTGTTTGAGATGAATGTACACATCCCAAAGGAGTTTCTCAGAATGCTTCTGTCTAGTTTTTATGTGAAGATATTCCCCTTTTCACCATAGGCCTTAAACCACTCACAAATATGCCTCTGTAGATACTACAAAAGGATGGTTTCCACACTGCTCCATCAAAAGAAACGTTCAACTCTGTGAGATGAATGCACACATCACAAAGATGTTTCTGAGAATGTTGCTGTCTAATTTTTATGTGAAGATACTTCCTTTTCCACCATAGGCTTCAAAGTGCTCCAAATATCTACTTGCAGAATCTAGAAAAAGAGTGTTTCCAAACTGCTCAATCAAAAGAAAGTTTCATCTCTGTGAGATGAATGCACACATCACAAACAAGTTTCTGAGAATGCTGCTATCTAATTTTTATGTGAAGATATTTCCTTTTCCACCTTAGGCCTCAAAGTGTAGATTCTACAAAAAGAGTGTTAAA
0.7429746040570591 AGAAAGAAGCTTTCTGAGAAACTGCTTTGTGGTGTGTTCATTCATCTCACAGAGTTAAACCTTCCTTTGTATTCAGTAGTTTGGAAGCACTGTTCTTGTCCATGCTATGAATGGACATTTGGGATCTCATTGAGGCCAATGGTGAGAAAGTGAATATCCCAGGACAAAAATTAGAAGAAATTGTTTGAGAAACTGATTCATGATGTGTGCATTGATATCACAGAGTTAAACCTTTCATTTCTTTCAGTAGTTTGTAAACACTCATTTCTTAGAATCTGCTAAGAGATATTTGGCAGTGCATTGAGGCCTATGGTGAAAAAGGAAATATCTTCATATAAAAACTAGAAAGAAGCTTTATGAGAAACTGGTTTGGGTTGTGTGCATTCATCTCACAGAGTTAAACCATTCTTCAGATTCAGCAGTTTGATAACACAGTTGTGTCCATTCTGTGAATGGACATTTTGGAGCACATTGGTGAAAAAGC
1 TTTTAAATATTTATTTTTGAAAACTTTTGTAGTTATTAGTGTAGGGATCTTACATCATCTGTTCCTATTTATGTGTTCAGATGCTTTCACAGGTTTTTAATTAATAAAAATTTCATCAGTGATTGCTGTTAGTATATATAAATGCAATTGAATTTTTTGTCATTTGAGTCTTATAAACGTGCTAAATTTGCCACTTCTTTCTAGCCATCTCTGTAGAATCTTTAGAATTTTCTGAGATACTATTGTATTATCTATAAACAAGAATAGTTCATTACTTAGAGGGATAGAGGAGTGTTTAGGTTTTCAATTTGTTTTGGGGTCATTTTCTGAAAGTTGCATTTTCCCTACATTTTACTGTTTTATCTGTGCTGCCAAATTAATTAAAATAATGTTTTTCATAACAACTCTTTTCTATCCCTTTAAAGTCTAAAGGATCTATTTGAAGATGATTTTGTAAAAATGTCTGATATTGGTAATTTGAATT
1 ATGAAAAAATTCTCATCATCACTGGCCATCAGAGAAATGCAAACCAAAACCACAATGAGATAGCATCTCACAGCAGTTAGAATGGCAATCATTAAAAAGTCAGGAAACAAGAGGTGCTGGAGAGGATGTGGAGAAATAGGAACACTTTTACACTGTTGGTGGGACTGTAAAGTAGTTAAACCATTGTGAAAGTCAGTGTGGTGATTCCTCAGGGATCTAGAACTAGAAATACCATTTCACCCAGCCATCCCATTACTGGGTATACACCCAAAGGATTATAAATCATGCTGCCATAAAGACACATGGACACGTATGTTTATTGTGGCACTATTCACAATAGCAAAGACTTGGAACCAAGCTAAATGTCCAACAATGATAGACTGGATTAAGAAAATGTGGCACATATACACCATGGAATACTATGCAGCCATAAAAAATGATGAGTTCATGTCCTTTGTAGGGACATGGATGAATCTGGAAACCA
1 ATGTTTATTGGCCATTTGCATATCTTCATTTGAGAATTATCCATTCATGTCCTTAGCCCACTTATTGATTGGATTATTTGCTTTTTCTTGCTGATTTGAGTGTCTCGCAGATTCTGGATATTAGCCCTTTGTCAGATGCAAAGTTTACAAATATTTTTTCCCATTCTATGGGTTGTCTGTTTACTCTGTGGATTATTTCTTCTGCTGTGCAGAAGCTTTTTAGTTGAATTAAGTCCCATCTACTTATTTTTGTTTTTGTTGCATTTGCTTTTGGGTTCTTGGTCGTGAACTCTTTGCCTAAGCCTACATCTAGAAGAGTTTTACTGATGTTATCTTCTAGAATTTTTTATGGTTTTAGGCCTTAGATTTAAGTCTCTGATCCATCTTGAGTTGATTTTTGTGTAAGGTCACAGATGAGGATCCAGTTATATTCTTCTACATGTGGCTTGCCAGTTATCTCAGCACCATTTGTTGAATAGGGTGT
1 GCTTTGTTCTTTTGGCTTAGGATTGTCTTGGCAGTGCAGGCTTGTAAAGAGCCTATTTCTAAATAAGATCCCACTCATAGGTATTGGGGGCGAGAAATCCAACATATCTTTTTGGGGCACAGTTTAACCCATATCACCTCTACATTTCCACTTTGTTCTTTTGCTACCAAAACACCACGGGTTTGGTCTAGGTCCTGCTCCTCACCTTTACAGAAAGCCAATCACTGAGATGACAAATATTGCCGGGGAAGAAAGCTTTAATCGGGTGCTGCAGCCAAGGAGATGGGAGCTGAATCTCAAATCCATCTCGCTGACTGACTAAAACCAGGGGTTTATACAGCAGGAAAGAAATGTAACAATGTGTAAGAAAACAGGAACTAGGGGCTGGGCATGGTGGCTCACGCCTGTAATCCCAGCACTTTGGGAGGCCAAGGTGGGTGGATCACGAGGTCAGGAGATCGAGACCATCCTGGCTAACATGGTG
0.7291646854613862 GCCACCAGGGGACATAACACCTGCCATAGGGTCAGAATAGGTGGGTGTTAGTCACCATCCAGATGGTCAGATACCGGAATTGCCACAGAAATGAACATGACATGCAGAGCAGGCAGAGCAGGTGCCAAAAGTTGGTATCAAGGAGGCGAAGGTCAAGTTCTTTGCCCACCAGAAAGCCTTCTGTTCCTTGTCTCCTTCCCTTCCTGCACCTCCAAGGACTCTCCACTGCTCCCTACAGCTTAAGTCCAAATTTCCCTGTCTGGCATTCAAGGTCTTCCATACCTTCCTTACAAGTGCCCTTTAGGCGCTCTAAATGGCGCGTCAGCTCCTATGTGTGGCCTCAGCTTAGCAGTCCAGTGTTCCCTCCCCCTGAATCCCTCCAGACTGCCCAGGCTGCATCTGCCTCAGACAGCCGGGTGTTCCCAAGACATGCTGCACTTTCTTCCCTCTCTGATTTGCTCATGCTGCTCCTCTTCCTGGAATGC
1 AAAAAAAAAAAAGAAAAAACTCTCAGCAAGCTAGGAATAAAGGGAAACTTCCTTAACTTAAATAAGAACATCTATAGGCCGGGCACAGTGGCTCATGCCTGTAATCCTAGCACTTTGGGAGGTTGAGGCGTAGGATTACTTGAGGTCAGGAGTTTGAGATCAGCCTGGCTAACATGGTGAAACCCTGTCTCTACTAAAAATACAAAAATTAGCCAGGCATGGTGGGGGGCAATTCCAGCTACTCGGGAGGCTGAGGTAGGAGACTTGCTTGAACCCTGGAGGCGGAGTTTGTAGTGAACCAAATGTGCCACTGCACTCCAGCCTGGGCAACAGAGTGAGACTCAATCTCAAAAATTAAATAAATAAATAAATAAATAAATAAATAAATAAATAAATAAGTAAATAAAAGAACATCTCTAAAAACCCCCCAACCAGCATCATACTGAGTGGTGAAAAACTTGAAACTTTCCTGCTAAGATCAGGAA
1 AGTAGAGACGGGGTTTCACCGTGTTGGCCAGGATGGTCTCGATCTCCTGATCTCGTGATCCACCTGCCTTGGTCTCCCAAAGTGCTGCGATTACAGGCCTGAGCCACTGCGCCAGGCCAAGAATTTGCTGTTTTAAAGCTGTTAGCAGGCTGGGCGCAGTGGCTCATGCCTGTAATGCCAGCACTTTGGGAGGCCGACGTGGGCGGATCACAAGGTCAGGAGATCGAGATCATCCTGGCCAACACGGTGAAACCCCGTCTCTACTAAAAAAAATACAAAAAATTAGCCGGGCACGGTGGCGGGCGCCTGTAGTCCCAGCTACTGGGGAGGCTGAGGCAGGAGAATGGCGTGAACCCGGGAGGCAGAGTTTGCAGTGAACCAAGATCGCACCACTGCACTCCAGCCTGGGCAGTAGAGCGAGACTCCGTCTCAAAAAAAAAAAAGCTGTTAGCAATTTTCTAATTTATTTAATGAGGAAAGACAGT
1 TGCCTCAGCCTCCCTAGTAGCTGGGATTACACGCACACGCCACCACGCCCGGCTAATTTTTGTCTATTTAGTAGAGACGGGGTTTCACGATGTTGGCCGGGCTGGTCTCAAACTCCTGACCTCGTGATTCACCCGCCTTGGCCTCCCAAAGTGCTGGGATTACAGGAGTGAGGAGCCATCGCGCCTGGCCACCTCCCTCTTATTTTCTCCCACATTGTGCCCCGTCGTAGCATTATCACTGAAATTATGTCTCCTCCACTGGAATGAAAGCTCCATGAGTTCAGGAACCGTGACAGCCTCTGTTCACGGTTGTGTTTTCAGTGCCCAGCACATACGAGGTGCTCAATAAATATTTATTGCACAAGTGAACAAATACTTCAGTGCCTACCAGTCTACAGGCTATCAGAGGCAAAAGTGAAAAAGGCATTGTCCCTGCTCCTTCAGCCCCAGCTCACGTGTTCTATCAAACAACATTTGGTGAATCT
1 AACCACTGGGACTTGGACTTTCTTGAGTCACAGTGCTGTATTTGGTAAAATAAGGCAGCTTGTAAAATGCCTTTTATTGGGAAACTCAAAATATTACTTTGCCTCTCTTTATTATTTACTTATTTATTTTTTTTTAGATAGAGTCTTGCTCTGTCACCCAGGCTAGAGGGTAGTGGTGCAATCTTGGCTCCCTGCAACCTCTGCCTCCCGGGTTCAACATGGTGAAACCCTATCTCTACTAAAAATACAAAAATTAGCTGGGCATGGTGGCAGGCGCCTGTAATCCCAGCTACTTGGGAGGCTACGGCAGGAAGAATTGCTTGAACCCAGGAGGTGAACTGAAATCATGTCACTGCACTCCAGCCTGGGTGACAGAGCAAGACTCTGTCTCAAAATAAAAAATAAAAATAAAAAGAGAGAGAGAAAAGGACTGAATGGCCCATGGACCACAAATGTTTTTTGAATTGGTCAAGATCATAATAAGT
0.8492020194963232 CCCCAAGTTTTGTTGACAGCACTGGGCTGGCTCTTCAGTGCATTAAGGCCTTCAACAATGATTGACTCGGGGCCTCTGCATGCCAGGCAGCCCAAACAGGCAGGGCCCTTCATCCCCGCCCTCATGGGCCTGCTCTTCAGCAGGGCAAGACCCACGATGAACTCATGATAGCGAGTGTTCATTGCATGTTGGAAGGTGACACTCGCCATAGGAACAAGGGCATGCAGCTGGATAAGGGGCTTGCGGTAGGGGATGGAGTGGGCGGGGACAGTTTGCAGCATTCACGAGAGCAGGCAGGGCAGGCTTCACCAAGAGAGGTGCATCCGGCAAACCCTGGAAGCAAGTGAGGGAGCGAGCCAAGCAGATGTCTGGGAGAAGAATTCCGGGCAGAGGGACTAGTCAGTGCCAATGCCCCAGGCAGGAGCGTGAGCCAGAGATGGCAAGGAGGCCTATGGGGGCACAGCCAGTGGCAGAAGCTCAGACAG
1 TACTCAAGAGACTGAGGCAGGAGAATCACTTGAACACGGGAGGTGGAGGTTGCAGTGTGCCAAGATCATGCCACTGCACTCCAGCCTGAGCAAGTGTGAGACTCTGTTTCAAAAAAAAAAAATCTTCTTGCCTTTACCCAGTGCTGTCTGCTTTTCTGGAGCCCCAAACCACCCCCTTTGCCCCATCCTTCCCTCCTGTCTTTCCCCCACCCCCTTGCCCCATCCTTTCCCCATCTGCTCCCTTCCTCATATTTGGCCCTGTCCTTAGGTGTCCTGTCAGAAGAACAGATCCGCCTGAAGAAACTGAAGCGGCAAGAGGAGGAACAGGCTCATGCCACATCCTTGCCCCCCAGGGCTTCCTCACCCCCCCAAATCCTGCCCCAGCTCAGCCCGGAACAACTGGGCATGATCGAGAAGCTCGTCGCTGCCCAGCAACAGTGTAACCGGCGCTCCTTTTCTGACCGGCTTCGAGTCACGGTACTTGAC
0.9434116041451268 GCTGCTGTGCTGGAGCCTCAGTCTTCCCTGTTGACAGTAATTAGAACTTTTCAGACTCGGTTTCTTACATGGAAAATCTCAATTCACTTGAATTGTCTCCTTGATCCAGTTCAACTGGAGCTATTTAGTTCCTGCAGTTAGTTTGGAGGGGAAAACAAGCTCTTAAGCCTCACACATTATAGCTGATAAGATCAAGGTGCTGACAGTGTTAGCTGGGTAGGCTTTGGAGCCAGACTGCCTGGGTTTGAATTCCAGTTCTACCTCTTAAGTGTGCACAATCTGAGTTTTTGTGTCTGTGAAATGAGGATAATAGTCGTGAAGATTAGTGAGGTGACATATGTAAACCCCTTAGAACAGTGCCTCCCCAAGACCAAGTGCTCAATAAATGTTAGCTGTGTTATTGTTAAGCCCCTCCTGCCATCAGCCTCCCTTCTCTCCCTCCCACCCTGAGATCTTGCTCAGGGAAGACAGGTCCCCTTCCTCTCC
1 ATCCATAATATAACTGCCAAAATCAAGAACTTAACATTAATTCAAAACTATTAACTAATCTATACGTCTTATTTACATTTTCACCTCATTTTTGAAGGGCAGTTTTTTTCCTGAGATAAATTCTAGGTTGGCAGCTGTTTTACCATTCCATTATCTTTTGGTTTCTACTGACTTTGTTGAGAAGTTGCTCTCAGTTTTATTCTTGCTTCTTTGAAAATAATCTTTTTTTAAATCTCTGGATGGTTTTTGGATATTTCTACTTGGTCTTTGGTTTTTGATAGTTTTAGTGTAATGTGTCTAGTTTTGCTTTTCTTTATATTTAAACTATTCGGTGTTCTTAGTGCTTCTTGAACCTATAGCTTGATATCATTTATCAGTCCTGGAAAACTCTCAATAATTAGCTCTTCAAATTTACTTCTGTTCTACTCTCTCTCTGTCTCTGTCTCTTTTTTTTTTTTGAGGCAGGATCTCTGTCTGTCACCCAGG
0.7922397838783202 GGCCTCTCCCCAGGCCCGTCCCCTTTTCTAAAAGCCGTGAGTCTCTCCCCTGGGCCTCTAGAAGCAGCAGGACTCATGGTTTCTCAGACCACATTGGAGCCCATCTGCAAGGAAGGAAGAGAGCCATTGCCCCCTCCCAGAGAGGCTGCATCTAGATCTGTGATGCTTTCACTCACCTGGTGAGCAGGTCTTGCCATCAGACAGCAGGTTGATGCCTGTGGGGCAGGTACAGCTGAATCCGCTTGGATTTGGGGACCTAAGACACAGGTGGCTACAGCCGCCATTCTCCATAGCACATGGTGTAGACACTGGGTAGAGAGGAGGGGATGTTCAATGGGGAGAGCTAGGGCATAGGAGGGCCACGGAGAAGCCAATGCGAGCCAAGGGCTGCTCACCTGGGGGCCGGCGGCGGTGGAAGACATGGATGTCCATTAGGTTTTCCAGGTTCTCCTGCAGAGTCTCCCGGTCCAGCCCTGTCAGCCGGTC
1 CCTCAGAGACCAGTTGCGATTCTTACTCACCTTGGGCCCTTTTAATTTGCATAAGGTGTGTAGCAGGGTCTTTAGGGTCCTTATGGGAAATTCACTTTTGCATTGCTTCAGTTTCTCTTTGGGGAAGACCTTCATGAAAATGTGGATATCCAGAAGAATTCTGTCTAGGTTAATGCTATTGATGGTATCAGGCAACAGTCGAACCATTCTCCAGAGACACTATTGAAAAAAGAATAAAAGAGTTAGGAGTGACTGAAGAATGAGGATAATTTGTCACCATTCATCTTCCCTAAGCTTTGAGCTCACTTCTAAAAGATGGCCAGGGCTATAAATGTGGCACATCATATCTTTCAAGTTCAGCTGCTAAAACATGAAAATTTTTAATCACTTCTACCATGACACCAGCTGAAGTGTGTCCAGTCATTCATCTAATCATCCATCTCTACTCCTTCCCACTCCCCAGAGCTAGGGGCCATCATTTAACCTG
1 ATATTTACACATTCTTATTCTTTTTTTTTTTTCTGAACCCTTCAGAGATGTTACTTATATCTCATGAATAAGAATGTGGACCAAAATGTAATTTTATCAAATTCAGGAATTTTTTTTTTTTTTGAGATGGAGTCTCGCTGTCACCCAGGCTGGAGTACAGTGGCGCAATCTCGGCTCCCTGCAACCTCCACCTCCTGGGTTCAAACGATTCTCCTGCCTCAGCCTCCTGAGTAGCTGGGACTACAGGCATGCGTCACCACACCTGGCTCATTTTTGTATTTTACTAGAGAAAGGGTTTCGCCATGTTGGCCAGGCTGGTCTCGAACTCTTGACCTCAAGTGTTTACACTCCTCAGCCTGCCAAAGTGCTGGGATTACAAAGGTGAGCCACCACAACCAGCCAAATTCAGGAAATTTAATATTGATGCAATACTGTTACCTAGTATACAGTTGGGTTCAAATGTTGCCAGTTGTTTCAGTACTGTCCT
1 CATTACAGAGCTGACAATTTGCTCCTGCAAGATCCAAAGATTCACCTCCTTCTGGACAACAAACACGAATCTATCTCTCGTTAGAAGGGCTGAAGAGCAGGGAAGGAGAAGCCAGTGCACTGGACAGTACTGAGCAGTTGCCAGTGCCCAAAGGTAACACAGAGCTTGGTGAAAGAACACAAGAAGACAACAGAGAAAAAGGGGCAAACCCCAGGGCTGGGGAAAATGTGGGCCCGTACAACGTAGGTCACAAGCATCTTTTTGTTGCTATTAAAACCTAAATATAATTTCTTTCTGATTCAGTTTATCCCTTCATTTAAAAAAAAAAAAAAAAGGGAAGGGGGCTGGGTGTGGTGCCTCATGCCTGTAATCCCGGCACTTTGGGAGGCTGAGGCGGGCAGATCACTTGAAGTTAGAAGTTCGAGACCAGCCTGGTCAACATGGTGAAACCTCATCTCTACTAAAAATACAAAAATTAGCCAGACGTG
1 GATGCACACCTGTAATCCCAGCTACTCGGGAGGTGGAGGTTGCAGTGAGCCGAGATCGCACCACTGCACTCCAGCCTGGGCAACAGAGCGAGACTCTGTCTCAAAAAACAAAAACAAAAAAAAAACAACGAGCAAACCATGGTCCCATGTTAGTGGGGGAGACGGACCCAAAGCTCCCAACCTCCCCCTCATCCTGGGTCCTGGGTGGAAGAAGGAAAGATCCCTCTGGCTAGTGAGGAGGAGGCAGAGAGGCAGGAGGGCTTCTCACAGGAGGTGTCTCGTGTTTCAAGGACTCTCGTGACGATTTGGGGGTATCCCCACCTTGTGAGGATGACTCTGGGTTGTCCTGGAGGGAGTGACCACATACCTGACCCCGAAGGGAGGTTCTGACATTTTGGTGGTCACTGCCATGTTTCACAGATAAATTTCCGCTGTAAGCCGTCCTTCCGTGAATCAGGCTCCAGGAATGTCCGCGAGGTAAGTGCCCA
1 CTCAGCTCACCGCAACCTCAGCCTCCTGGGTTCAAGGGATTCTCCTGCCTCAGCCTCCCGAGTAGCTGGGATTACAGGCATGCACCACCACACCCGGCTAATTTTGCATTTTTAGTAGAGACAGGGTTTCTTCATTTTGGTCAGGCTGGTCTCGAACTCCCGACCTTAGATGATCCGCCCACCTCCCAAGTGCTGGGATTACAGGCATGAGCCACCATGCCTGACCAGACACATCTGACATTCTATCAGCTCCGGGCAGCTTCCTGAGACCATACCTGCTGACTTTAGAACCCCACCTTGGGGGTACCCATTTGGCAGGTTTGGATCCTGATGGACCTTCAGGAGCAGAACTTGGGAATGTTCTAGCTCCAGGACCTGCCAATGCCGTCCCATCCTTTCCTAGTTGGCTTTCCTTCCATTCATAAGAACACTGTGACAACTGAAATAATTCAGGTCATATTTATGAAACATCTATTACAATGAGAATC
1 AAGCTGATAAGTTTGAGCTAGAATTTACATATATACAGTTGCTACACACCCTCCTATTTTCTGCAAGTCTGTGGAAGGAGGCTGGGAAAGAACTAAGTGCAATCTGCATCAGGAGGCCTAACACAGGTGGTGGGTTATTTTCAGGCAACAGCACCTTCACAAACATGTTTTGGAATATAGTCCAAGAAATTCCTAACAAGGAAAGATAAGCTGGCACACAAATTTAACGCAATCCAGCTAAAAATCATCTGCAACACATGCTACTACATTTCACCATAAAAGTGACGGGCTACTATAAAGGATTTGAAGCTTCGTCAATACAACATACTGTCCATAAGGCCAGAGATAGCAGTTGCCATGGTTACTATACCCACTTTTATCAGGAAATTACTGTCATTACCCCAAAGTTTTGGGTACTTATTTAAAATTTAAAAAAAACACACACAATTTAGGGTTCTGACTGTTAATTGAGTGAAATAATCAACTAC
1 TTTCAATCACTTGATTTTTAACATCTAATCATTTTAATGCTAGTTCAATCTATGTTTGGCTATTTTTTTTTTAATGACAACTGCCAAAAAGAAAGTACAATATCAAAGCGAATGCTACCTGTTGCCTTTTAATCTCAGAAATCAAATATATTAGGATATATATCCCTGTGGAAATCTAGGTACATCCCAGATTTCTTATACCTCTATGGTGGTTCAGGGCCATAATTATGAATGCGTAAAAGAGATGCCCAATTTAAATGTAACCTGGGCCAAGCACAGTGGCTCATGCCTGTAGTCCCAGCTACTTGGGAGGCTGAGACAGGAAGATCCCTTAAGCCCAGCAGTTTGAAGCTTCAGTGAGCTATAATCATGCCACTACACTCCAGCCTGGGCAACAGAGCGAGACTGTATCATAAATAAATGTATGTATGTATGTATGTATGTATGTATGTAACCTGACCCATCAAAGACCCTAGACGCAGTAAATA
1 CATGCATGGTGGGACATGCCTGTAGTCCCAATTACTGAAGAGGCTGAGGTTGGAGGATCACTTGAGCCCAGGGGCTTGAGGCTGCCATGAGCTGTGATCATGCCACGTCACTCCAGCCTGGGTGACAGAGCAAGATCCTGTGTCAAAAAAAAAAAAAAAAGAGTTCCCAGGTTCTATGACTATCTGGGTTTCCAGGCCATGTTGCTTGGTGGCGGGGAGGGCTCTAGAGATCCCTGCAGGGAGCTGCTAACTACAGAGGAGCCTCCTCCCCTGGTGACAGCCTCTGTGCTTTCAGAGATTCTAGGAGGAAATCCTCTCCTCCCCTTCCCTGCCATGCCAGAGCTGTCACCCTCCTGCTGCTGCTGCTGCTGTTGCTGCTGCTGCCAAGCCAGCAGCCGCCGCCGCTCCCCACCCCCACTTCCCAACCCAGTGCTGGCTGCCAAGAAGCCAGGTCACACAGCTGTGCACGTGAGCCGGGCCCTCAGGAG
1 GGGTATGGTGGCTCATGCCTGTAATCCCAGCACTTTGAGAGGCGGAGGCAGGCAGATCACTTGAGGTCAGGAGTTCGAGACCAGCCTGGCCAACATGGTGAAACCCTCTCTCTACTAAAAATACAAAAATTAGCCAGGCATGGTGGGGAGTGTCTGTAATCCCAGCTCCTCAGGAGGCTGAGGTGGGAGAATCACTTGAACCCGGGAAGTGGAGGTTGCAGCGAGCCGAGATCATGCCACTGCACTCCAGCCTGGGCCACAGAGCGAGACTGTGTCTCAAAAAAAAAGAAAAGAGGTTTCATTGGCTCACAGTTCCACAGGCTGTACAGGAAGCATGGCAGCATCTGCTTTTGGGGAGACCTCAGGGAACTTATAATCATGGCAGAAGGCAAAGCCAGAGCAGGCATTCACATGGCCAGAGCAGGAGGAAGAGAGAGAGGGTGGAGGTGCTACACACTTTTAAACAACCAGATCTCATGAGAACCCTAT
1 TAAATGCGATATAATCTTATGTTTATTCCTCTTTGTTTTTTATTGCCAGAATTCCTGGATCCAAACACTGGTGCCTCAGCTCTGTTAAATCAAATTTAGCCTAAAGGTGACTCCTTACTTAAGTTCAGCCTAAAGGTTTCTCTGTACCTCGCGAATTATAACAAGTGGAGGTGTAACCAGACCATAGCCTACATTTGTGCCAATCACCGAGTTTTGGCCAATCAAATGTAGCCAACTGTTCAAACTGTGTTTCAATAAGGCAAACGCCAAGCTGTAACCAATGCGGCTGTTTCTGTACCTCATTTCTGTTTTCTGTACATCACTTTCCTTCTTCTGTCCATAAATCTTTCATCGCATGGCTGCACTGGAGTCTCTGAGCCTACTCAGGTTCAGGAGGCTGCCCAATTTGCCAATCGTTCACTGCCCAATTAAACCTTTTTAAATTTAATGTGGTGGAAGATTTTCTTTTATCAGCTCTGATCCAGAAAA
