svm_type c_svc
kernel_type gkm_esttrunc
L 11
k 7
d 3
norc 0
nr_class 2
total_sv 198
rho -0.0995035
label 1 -1
nr_sv 99 99
SV
0.6235687726343937 ACAATTCTAATTCTACTGACTATCCTAGAAATCGCTGTCGCCTTAATCCAAGCCTACGTTTTTACACTTCTAGTAAGCCTCTACCTGCACGACAACACATAATGACCCACCAATCACATGCCTATCATATAGTAAAACCCAGCCCATGGCCCCTAACAGGGGCCCTCTCAGCCCTCCTAATGACCTCCGGCCTAGCCATGTGATTTCACTTCCACTCCACAACCCTCCTCATACTAGGCCTACTAACCAACACACTAACCATATACCAATGATGGCGCGATGTAACACGAGAAAGCACATACCAAGGCCACCACACACCACCTGTCCAGAAAGGCCTTCGATACGGGATAATCCTATTTATTACCTCAGAAGTTTTTTTCTTCGCAGGATTTTTCTGAGCCTTTTACCACTCCAGCCTAGCTCCCACCCCCCAACTAGGGGGACACTGGCCCCCAACAGGCATCACCCCGCTAAATCCCCTAGAAGTCCCACTCCTAAACACATCCGTATTACTCGCATCAGGGGTATCAATCACCTG
0.8981834267004161 ACAGCCCTGTCCACACCCCCAGCTGTTGTGACTGAGGGACTTGTTCCCTGGTCAGGTTTCTTAATCTTGAAACTGCTGACATTTGTGGTCAGATAATTCTGTTGTGGGGAGCTGTTCTGTGCAGTGGGGGGTGCTCACAACATCTCTGCCTCTGCCCAGTAGACAACAGTGACAACCAGAGCTATCTCCTTGGTCGTGGGCCAGGGGCTTTGATGACAGGGCCCTGCCTGTGTCAGCCTTCCTGGGGGAGGTCTAGCAGCATGCGCGGAGCTTTCGTCACTCGCCTGGCAGCCGGGGCTCTTAGGAAAGCAGGTGGGAAGCAGGCGGAGACCCTGTGGGTTCAAAGGGCACGGGGCCCTGTGCTGCCAGCCGAGGGGTCCTGTCTGGGCTGCTGCAGTGGATGCGGCTC
0.9424278669850438 AGTCAGATAGGAGACCGCCTTGAAACTAGATGACGCCACTAAGCACAGTCCCGCCGTCACTTGTACTGCGGTGGGGAATGGTGAAAGAAGGAATCGCCCTTATTTTAGTTCCGATAGACACAGCACCACTTTGAATGTCACTTGTAGGGGAAAAAGAGCCCTCCCTTGGAGGCCATTTTTTCCTCAGTGGAAGGTAGGCTTTGCTCAGTTTTAGAAAAGACCCCTATTTCACCACCAGGACTGCTGCTTTGCAGAGAACACTTGGGTTTGTGCTGTTTTCCAGCCCCCCTACACCGGTGGGCCTTTGAGAACGCATTCCTGAGGAAGGCGCCCGCCCACGTGGGTCCCAGAGCAGGCCACGCGCATGGGAGCTGGCTATCA
0.9147989031498789 CTCAGCCACACGGGCCCCTCTCCGGGGGGCTTTTTCTTAAAGGGGCAACCGCTGGAAGAAACGGAGCACCGCCGCCCGGGACGCCCCTCAGGCCCGGGGTTACTACGGTTTCCCCAACTCGCAGCGTTAGCGTCAGGCCACCAAAGTGAAGATGGGTGGTGAAAGGACCACAGAGCCCGATAGAAGAGAAAACCTAGGAAAAATTAGTGAAAGACGCCCCCAACCAATGCTTTGGCGGCCACGCTGAGTCCTAACGTACTGAGCCCACTCGACGGGGCCCGTGCGCACAGGCGGCTCCAAAGGGCGGGTTTCGGCTTTCCTTCCACCTCGCAAAAGTCCAGTGAGCGCTCTAGGTTTCTCATGGCTACCCCCTGCCCTCTCCCCGTGCTGGGGAGTCTCGGGGGCTGAGCAGTGGCAGAGGGAGGAGCGGCTGCCGCGGTCCCTGTGCTTTTTCTCTGGCGTGAGGGTCTCAGTGGCCTTGGGCTCTGCTTGGGCCGTGGCTTGAAGGTTGGAGGTGTCGCGGTGCGC
0.8493924526933506 ACAGCTGGGAGGGTGGAGGGGCTCTTCCCATGTTACGGACGGGGAAGCGAAGCCTCTTGGAAAGGGCGGGGCTCGCAGTTGCGTAAGTGGCAGAGCTGGGATTCGAACCTAGATGTGTTGGACCCAAAGCCCTTCAGAGGCCGAGGTGGTTTGAACATGTGCCTATGGAGACAGGCTGGCCCGGAAGAGCCAGAGAAGCCCCTCCCTACCCACCTGCTTGCTCAGCAAAGCTGGGACTGACCTTGCCCTGGGCCAGGGTGGAGGCCATTCTGAGAGGCGGCCAGGCCCTCTGCTCTGCCCAGGTTGCAGTTAAGGGCCTCTGCTGTCCTCTCCAAATCCGTCCCTTCCGTCCCAGATCAGCTCCAATGCCTCCTCCCCCAGGGAGGCCTCTCTGACTGCTCCTGCTCACATGGGCCCACACCCAGTCCAGATGCCCCCAGCACTGACTGTCTTTGTCCTCCCACAGCACCTGGCAGTGTGACATAGTCTTCCTGTGTGCTGTGACTCTCTG
1 AGACCAGTTAACTAAAACCCTACCCCACAGATGCTGTTTTTTGTTTTGTTTTGTGGTAGTGAGGAGCCTCAAACTGGCGTGTGTATGGGGGGTGGGAAGGATGGATTTTGCTGATAAAACCAAAGCTGGGTCTTGGAAAGCTCTGACTAAGCATCTGGCTTGATAAAGCTGTCATCATGGTATTGTGTGAAGTGACTGACCTCAACAGCAGGAGTTCAGAGATCAGGATAATTTGGACAGATATTTCCCAGAATACCATATTACCATCATAATCAGAAAACCTAGAGGGCACTGGAGGATAGCGTGGCACATATAACTTTGAAGGAAACAGATTCCTTAAAGAAAAACTGCTGGTGTTATAATTTAACTGCTTACTCAAAACTATTTTGATTTTACAGGCAATACTTCGTAAGGGCAACAACAAAAGCAT
1 AGGAGAAAAAGGGGTACTATGAATTAAAGAATAAAAGATGGATCAGATTATTTGAAGAGAAACCTCATCATATCCCACAACGGGAACAGGAAAAAAAAAACACACAATACATTTTAGAGAAGTGGCAAGACAAAGGAAAGCAGGTTTAGGCTCCCAAAGGAGGGACCTCTGAGAAGGTAAGTGCATGGGAGTAAACTGATGGCATAAGGTTTGTAAAAGTTGTCTCCAGTAAAGAATTTATAACCTGCCTTTCGGCGGAAAGAGGGGAGCTCTTCCTCTGTTTGCTGCTTTTTAACTACCTTAGCTAAAAAATATTCAAAATTATCGTGTCAAAGAGGCATATTTGGGGGTAACACATTCTGGTTTCTTTCATGGACTTGTATGTAGGTTGCAAGGGGCCGGGCATGATGCCTCATGTCTGTAATCCCAGCACTTTGGGAGGGGAGTGACCAGGTTGGCCAACATGGCGAAAACCTGTCTCTACTAAAAATACAAAAACTAGCTGGGCACAGTGGCTCACTCCTGTAATCCTAGCACTTTCAA
1 GTGGTCATTCATACCCCGGCAGAGAAAAAGCTGCATACTTCATGCCCTTTGCCCTTCACCATCTCATCTGATCCTCCCAGCAGCCAGCAAGGACACGGGGCAAGGCACTGGAGGCAACAGAGGCTCAGCAGCAAGACAGGGTACGTGCAGAGAGCTGCGGGACAGACGTGGCCTCACCAGCAGGACCCGTGATTAAACAGCAGCTGTGGTTCACTAAGTGCTTTCTGCTTATTATGTGCCAAGTACTTCACATGTGGCTGCTTTGTGTCATTCTCACATCAAACCTGATGGGTGGTTACTATAATTATCTCCTTTTACAGATAAGGAAACTGAAGCCCAGAGGGGTGGAGTAACTAGTCCAGCAAAAGTAAGCCATGTAACTGGGATTCAAATTCAGCTTGAACATCTCAGCACTCATCTGTTTTCGATCACATAACACTCCCTCTAGGCATTCACAGGAGCTCAAGGATAGGAGTAGGGAGGGGAAAGCTAGGAGTCCGAAGACTTGAGGGGCCAGGCATGGTGGCATGCACCTGTAATCCCAGCAT
0.822354791657215 AGGTGACTGCAGGCGGCGGGGTCGGAGTCGGGCCTGGCCCGGACCCTGGCGGGGCCCCCGAGGTTGGTGGAGTGGCGGGCGGGGCCGAGCTGGAGGCTGGTGGTGCGCTGCCTACTCCGGGAGCGGGGCCGGGTCCCTGAGCAACGACGGGCTTGGAAGAGTCCTGCGGCGGTGGCGGCGGCTGCTGCTGCTGATGCGGCTGTGGATGCGGCGGCGGCTGATGCGGTGGCGGCTGCTGCGGCGGTGGCTGCTGCGGTGGTGGCTGTTGCTGCTGTTGGTGTGGAGGCGGTGGCGGGATCGGAGGCTTAGGGCCGCTCTGGCCCGGGCCAGGACCCATGGGGCCGCGATTCTGATTGAGGCCCATGCCGGGCGGCGGAGAACGGAAGTCGTGGAGGCCGCCGCGGCCGCCGCCTCCTCCACGCCTGTGGAAGCCACCACCGCCACCGCCACGACTCCGGAACCGATCCCGAGACATGTCTGTGGTCAAGGGGCGGTCGAGGCAAAAGCGAAGAAGACGCTCAGGAAACGTGGAGGCCACCTTGCTTCTCACAAAATGGCGGATGACACAGGCGGCGCGCCGCCTTTGTCCTCGTCTTATATAGGCCAGCTGGCACGGCCCCGCCTACTCCACGATCGACAGCTCCAATAGCCAATTGCAATTACTATGCTTGATGACACTA
0.9850576644033429 AGGAAGCCAGGCATCTGTCACAGCATGAGAGAGAGAGCAGACTCAGCAAGCAATCTACTTATCCCCATTGTTTAGCTGTGCTTAAAGCTGATTGAATGGTGTCCCACCCACATTGAGAGTCCAGCTGGACATGTGGGCTGGTTCCTCTCACAGTCCACTCACTCACATGTCAGTCTTCTCTGGCAACACCCTCACAGACGTACCCAGGAACATTGCCTCAGCCATATAGCTATTCCTCTGTCCAGTCAAGTTGACACCTAATATTAACCATCACAGCCCTTAACATTTTTTTTGGTATAAATATAGGTATCAAAATAATCCTGGACATATT
0.8823517378514432 TGTCACAGTCGTTCAGCTGAAGGGGCGGGAACTGTGGCACTTGCCAATTTTTTCTAGAAATAAATCTTTGTGGGAGGATAATGACCGGTTGGAGAGTGTGAGTCTTGAGGGAACAAAGATCGGATCTCCCGGCCCAAGGAGTACGGAAGCGAAGCCTCCCCTGCGCGCGGCAGCCACCGTGCGTAACCTCCCCTGAACCGAGTAGCAGCCGCCTGAGCCCACCCAGCCCTGGGCGAGGCTGCCTCAGAAGCCGGATTTCAGCAGAGTGGGTGCAGGATCTGCTTTAATTCTGCTCATCTTATTCTCGGGGACCACACCCTGCGCGCCGGGAGGAAGGGCTCCAAAACCACAGGGCGGAGGCTTCCGCGCGGCCCCAGACTTGACCATCTATGGTCACAGAACACACCGACCAAACAGG
1 GTGTTGATTTAGTTCTTTAAAATGATGTGAGCAAAGTGCTTTCCATTTTTCCGTATTAAATATTTAAAATCCTGCAGTTTGTGAATAGGAAAGTTAAGAGTATAGGCACCCTATCTTTTGCCCTTGATATGTATATATTTTTCTCTTTATGGATATAAAGCTAATGTAGGTTGCTAATCAGTAACCAGCCAGTTCTCATGAACAGTGAAATCTTCAATCCCACATACTAAGATCTATAATACACCTGATTTTAAAATGCAATTCTTTGTTTTCTTTTTATTTGCAAATATGGAATGAAGGTCATTGGAACATTTCTGCAGCAGACTCAGTGTGGAGCCGTCAGCCAGCAGCACTTAGTCTCTGGGTACGGAAAAGGAGCAGGCCCTATTAGAGGAGAAGTTTCGAGGGTGTCGATTTGCCTTCCCTAGCTTCCCCTCTAATAAAGGATTTACCTTAGAGGACTGATAGGATTTAGATTCGGGGCTCTTGGAGTTGTAATGATATAGCAAGTCAAAGTTCCTGGATGCAGGCCTCT
0.9414939249838852 GGGATTATATTTCAACTTTATGGGTTGCAAAATAGTCGTACAAAATAAAAGACTATCTGGATATAAGGAGCAATCAAAGAATGGGTGCCTGCCAGGGCTCAAAGAGTATGTTTGCTAGTCTCTTGAGGAGTGTGAATTAGCCCACAGGACCCCAAAGTTTGTTCTCAGTCAGTTGGTGACTTTGGAGTGTTGACAGATTTGAAAGGGAAACATTTCACCAAGTGAATGTGTAAGATACTTTTAAATAGATCTATAAAACTCAAAGTGCACCACAAGAAGAAAAAATGAGGAAAAAACCTGGGCATTTAATATTCAATAGCAATAAAATTTCAGAAAAAAAGCATATTTTGGTGCATTTTCTGGAAAACACA
0.849261937038038 GGCAATAGAAGGCACATATGATATGGAATGAGCAGAGCTGAGGCTCTGAAGGACCATCAAAAGTTGCCACTCTGCCCACTGGAAAGATATTTCCCAAAATAAAAGACATGCCATTCACTGACACTTGCATGGTGTTGAAACCATGCTTGTTCTGCCTTGTGCCAAAAGAGTTTGGGAGAAGAGGGAGCGACTGCTCCCAGCTCTGTCGGCAGCCGCTTCTGAAGCTACCATAGCAACAAGTATAGACTAAAAGCGATCCTTCCATATTAGGTGTGAACTGACTCCAGACAAGGAAAATAGCTTGCAGAGAAGAAGCCAACTTTGCTGGGAAACCCACAGGGAGTAATAC
0.8413897700587432 CAGGAGCAGCCCGCACGCCGCGCTCTCTCCCTGGGCGACCTGCAGTTTGCAATATGACTTTGGAGGAATTCTCGGCTGGAGAGCAGAAGACCGAAAGGTGAGTCGGCCTGCGGACTCTTCCGGCCCGAACTTCTCTTACCTACCCCGCGCTCCCCGGTGCAGCCGGGCTGTGGAAGGCTTGCAGGGGAGGAAGCTAAAAAGTTTGCACAGGGCAACTCCCGCCCTTGCTCCCTCGGGACTCTCCGTGGAGCTCCCACGGACTGAAAGAGCGTGCCCCCCAACCCGAACGAGCCCCGCCGGGGCCTTTGCAAAGGGCAGCAGTGGCCGTCGCTGCCCGTGCGGCTCCCGTGGCTGGCAGCCTGTGGCAGGGGCACTCTCGGGACTTCTCACGGGACGCCCGGTCCTTGGGCGTGCAGGGGTCATGGGGGGTGACGG
0.8584629920017068 AGCAACCCGGGCCGGCTGGCGGAGCTCCTGCTCTTGGAGACCGACGCTGGCCCCGCGGCGAGCGAGGGCGCCGAGCAGCCCCCGGACCTGCACTGCGTGCTGGTGACGGTAAGGGACTGGGGGACTGCAGCCTGCAGGGTAGAGCCCCGGAAGGACGGGAGTCAGGGCTGGGTTGCCTGATTGTGGATCTGTGGTAGGTGGGGGTCAGGAGGGTGGCTGCCTTTGTCCGACTAGAGTGTGGCTGGACTTTCAGCCGAGATGTGCTAGTTTCATCACCAGGATTTTCTGTGGTACAGAACATGTCTAAGCAT
1 CACCCCTGAGAATGGATGTTTCCTGGCAATGGAGAAACTGGGCATCGTGCCACCATGGAGGTGCCTGGACTGTTTGTAACAAACAGTTTCATTAGATTACCCACAATTTCTCGAGAGGTAATTCCATTAGACAGTGTTTATCAGTCATCATATGCTCTGCTTGTCATGACTCCCCTGTTCAGTAGCAGTAACACCCCCAGAACAATACTGTGTGTGTGTGTGTGTGTGTGTGTGTGTGTGTGTAAAAACAAAACTGTCTGGGATGCCTTACAGAAGAGGTATCTTCTGTGTAGTAATGAACATAAAATAGAAAGAGACTGAGTAGGCAGCATTAAAATGTAGGTACCCCACAAATAAACATATTATTGT
0.9680166456490833 CTAGGGCTGGAAGTTTACGAAGTTTACGTAGTTTAAGTGAGTGAAGAATGTAGTCACCTCTTGAGAACTCCCTTTGCCTATATGCTTTTGAAAACGCCAAACCATTCCAGCTGTTTGTAAATTGTGAAACGTTCTACAAATGCATTAGCATTGGCATTTATAAAGAAAATGACGAAGTTGAGAGGTTATAGTTGGTTACTGCAGTGACTTAGAGATGCTCATTTTATAGTTATTAAAGCACAACGTGAACCAAGTTGGCAGAGAGATAACAAGGTAAAAATAGCATAAGGATATGTCCTAACAAAATGTCCTTGGTGAAGACACAGGTAGAGAAAAGAAGCCATAATAAAGAAATTAGTTCCCTGACCAAAACAACGGGA
0.8412140807629386 ATGGCTCCAGGACAGACCCTAGTTCTTTCCCAAACTCATTACCAGAACCTTCCATTAAATTGTGTGAAACTAACTGCGCTTTATCCCCTGGAAGAGGATCTTTATCTAAACTAGCTCACTGGAGACACGCGAGTGCCGCAGAAGCGGGAGAAAGACTTCAGGCCTTCTTTGCGTAGCACGCGTCGGGGTTCTAAGTGGATTAGGCACCAAGAACACAAAACTGGGTTCTGGTCTCTAATCGTTATTACCAACATGGGGAAACGTGTCTCTTCACATTTCAGCCCGGAAGAACACCTCTTTCCTCTTCCTCATGCGCTTAAGGGTAGCGGCCTACTCAGTCAGCGGCCAATTACCGTGAGCTTTCGGGATTCC
1 TCCTTGGGTCAGGAATTATTCTTTTAAACTGGAATATCTTTATAATTCAGCCAAACTAATGGATCTTTCCTATTATACCATGGCATTATCATCTAGGTACACAAAAGCTGTTAACACATGGCATACTTAATCACCATTACTACAAGCTGCCAACAGATGCATCAGTCAACAAATCTATTCTAATTGTGTCCTGGAAAGAAGTGTTTCACACCTTTGGAGGTTGACATCTGCACCAGGCAGAAGTGCAAAAAAGTGTTTAAGGTCCACATTTATGGATACCTGATAGGTGCATTTGAGAAAATATGAACGTTGCTCAACGGATGTTTTAAAGAACACAGAACAC
0.9594404187762001 AAGGAAAGTGGCTGAGTATGATTGTCTTCCTAATACGCAAGTTCTCATTTCCTACTTCCAGCATCAGCCTTTCTGGCCTTGTCGGTTTTCTGTTTCCCTGGAGTATAAGGGGAACTTACATGCTGCCTCCTGGGTTTTATCCTAGATAGCTCTGGCTTTCTTGCTGCCCACAGAGGCCTGGGGCAGGAGAGTTGCTAAGATGCCATGGAGTGCCCATTTAGTCACTTGCAGTCTGGGCAGGTTGCCCCTTTCTGGGTTTGTGGTGATGGAGGGGAGGTCAAGAGGCACAGACCGAGTCCCCGGGTG
0.8400334631907675 CTCAAGAGGTGGCAGTGAGCGGTCACTGCAGCCTTGGAAAGGCCCTGCCTGGCACACATCGCACTCACTTAGGATGCCTCCACATCCCCAGTCCCAGAAGAGGTGAGGAGAGAAGGCAGCTGCTGACAGGAGGAACTGGGACGGTGTCACCGCTGGTGGTGATTGATGCCCCTGTCCTCGCTTGCTCATTCCCTGCCGTTGCTGCTTCCTCAGCAGGGGAGGTGCCCTTCCTAGCAGGTCCACCCTCCCAGCACGGCCTCTCCCAGGGCCTCTCACCAGTTCATCAGCCCTCACCACTCTCCCTCCAAACCCTGGAGTGCTGACAGGTGCCCAGGAGAGAAAGGCATGGGGACGGATTCTGGGAGCTGACTCTCATGGTTGTTTACACT
0.8849546342436709 AACCGGGACCGAGAAGATTTCGAAGGTGGAGGAGCGTGTCTCAAGATTGGGGCTACCTGTTCTTTCGTGGGGCAGGGAAGGGGCGGACAGCAGCGCCTATTCTGGAGGAACTGGACTGAGATGTGACCCCGAAGTGTTACCGCTTCCAAACGAAATGAGGGTCACCTTTCACACCGCCCCCCCCCCGGGGTTGGAAAAGCCACCGATCGTTCCAGCTGCCGAGCAGCTCTTAAAGCTTTGGATTCGGCTGTCGTGGAGATAACGGGCACCAGAAAAACTTGTAGGAGTAGCAACAGCT
0.9253757481497726 GAAAAGTAACGTCAGATGTACTCTCTGATGTCCCAGAGTATAGTTGGGAGGGCGAGTCATATCTCACAACCTCCATGACCCAGTGCTCTGTTGTATGGGAAGGGAAAGTCAGTGGGGTGGATGGAAAGTGTTGGAAGGAATGAGCATGGGGGCTTAGAATGGCAGGGTCTAAGTAGGTGCCAGGGAAAGGAAGCAGAAAGTGCATGTTTGAAAAGCCAGAGGTGTTTCCCTTTGAAAGCTTAGCTGCTACACAGAGCAGCTCTATCCATGCCTTGACAGCTCCCAGACCCAGCTGTCAGAGGGCACCTTTCACTCTCTTTAACCAGCTGAAGTGCCCTGGCTGTCCTGAACTCAACACCTCCACACTCTCAGCTCTCCTGCCTGAGCCCGACATGGGAGGCAG
0.8909135450138463 GGGTGCGGGACGTGAGTTCTTCCCCATGCCAGGCGAATGGTGTGGCCTTGAGCTGGTCCAGGAGCCGGCTCGACGTGTCTGAGGGAGGCCCCGGAGGGGGCGGGGAGGTGGCCCACAGAACGCGGGTTCTGTAAAGAGACGTTGGGAAGATTCGATTCCGAGAAGAGGAAGAACCGGATTGAAAGAGAGCCAGGCCGCTGAGGGGGAGGGGGCTGCTAAGATGGCGTCGGCCTCCTCCGGGCCGTCGTCTTCGGTCGGTTTTTCATCCTTTGATCCCGCGGTCCCTTCCTGTACCTTGTCCTCAGGTAAGCCCGGCAGGGCGTGGGTAGGGAGCTGGTGAGGAATATGCGATGGGAGGAAGAGCGAGACCTAAGAGGGTACC
0.906286878477691 CCCAGATTCCGGCTCTCAGGAATGTTTCAGGGTAAAACTTGGGGCAAAGCAAGGCCGTTATGATGGGGGTGGATCTAAGAAGCCAGCAGCAGGGAGGCGTGGGGTCTGTGCTCTAGCGTTAAAGGGAGGGTTCTAGACTAACGAGGGCGGGTCGGCCCGACTAAGTGACTTAAACTCCCACCTACTCCTGGAATAAGGAGTCAAAGCCCGGATAGGCGCAGGTGAGTGGGTGGAGAATGCAGACGGGGTACAGCTCAAAAGGAGGGTCTCTACTGGGTAAGATGCGACAGCAGGAATGGGGTGGGGTAATCTCCTCACCAGGCTCCCGTAGGCCATCACCAGCACGACATTCACCCCGGAGAGCCAGTTACTGCCGGACGCCATGGCCTCCCTACCTCGCGCAGAATTGTTCGGGTTTACCCCGCTGTCCTGGCT
0.9566811359640212 CCTCTGCCTCTGGCTTACAAAGCCAGAGAAGGCAGGATGCCTACTCAAAGAGAAAAAGACAACATGCTCTTGACTCTTTCACCGCCAAAATGTGGCCAAGGCTCTGAGGGTCGTCTTCTCATGCAAATATCCGTGTTCTATAAAGCCTGAGCTAAATGAAAACCCCAAACTCTACTCTGTAGTAGAAGGCACAAAACTCAGTTTCCACGCTTCATCCTATTTTGACCCAGTTGCGGAGCCCATGTTCCAGTTGACCTACCCAACAAATTCTCCACCTTTGATGGGAAGAGCTCATTCGGGCCTGTTGCCAACAGAGGGCTGAAGGGCTGAAGATGTGACTTGTGGAGCGTGGGTGGCATTATGGAAATCAGAAACCAGGAACGGAAGTTGCCTGGCAAGAGACTACAGTCATGAGGCTGGGAGGAAGGCAGGACTCAGGAGTCCCCAGGTGCCCGGAATTGCCTCCCAAATCCCAAGAACGCTCTGGACACAAAAGTCGTTCGTGACCCTTCCAGGC
0.9626915801252872 CCCAGGAAGACCCTCAAGTCTAACTTCCATCTGTCCTGCTGCAGGACCCATCCTGGAACTTAGCTCTCCCCTGTGGGTGGGGCTGGGGGTCCAGTTGGGACCCAGGAGCCTGTGCCCAAGCCCAGAGTCGTCTCAGGTTTCCTGGGCTTAGGTGGGCTTTTTTTCCATCCCCTCTCCCTTCCATGGGCAGCCTTAGAGAGCACATTCCAGCTGAAATTAAATCACATTCCTCTCTCCCTGCTTCATGAGGATGGCATTGCTGACAGCAGCTGTGACACCACAGGGTCAAGTGGCAGCAGCTGGTTCCCCAGGGAGGGGCTGAGAAGGGGGCAGGGAGGGAAGTGGAGGACCAGGGCCTGTCTTTG
0.8783813929673679 ATAATAGTCACTATGTTAGCTGCCATGGTGGATAAAGCTAATATACCTTGCAGTTTTTCCCCTTAGGATCTGACAACCTAGTTTTGTTTCTTTGGCATTGTCTAGTAACACCCAACACAGTCTGTAGCTTTCAGCTGACACTCAGTGAGTGCTCATTATCTAACAGGGATGAATGAGTGGACTGGTTCCCAATGCTCAGCCAATCTTCATGAAATTTCCCTGCTGGCTCAGTGACAAAGAGGAGATATGGCATATGTCAACGGCCTGCAAGTGTCCCAGAAATAGGAGGCAAAAGAAAATACAGCACATAGAGTCTTAAAATAGGAAGACAGTGGAACCCGTCTAGTACAAGCT
1 AATTAGCGATCTGAATTTCCACCCTCTCTGCTCTCCCCTTGCCTTGCATCTTTTCCCTGGTGGAGTGGGTTGGGAGCGTCTAAGCGAGGCCCGACCTATTTATGTGTAACTCAGGAAAATTCTCAAGGTCAACCCTTCCTCCATTCCTTCCTTTCCTCTCCTGCTGTCCCCGGGCTCTGCAGTCTGGGGGCACCTTTCTGCCTTCCGGAGACCACCCGACCTTGCCCTCTGCTGTTCCGGCGCAGAGGATGGCGAGCCGGACACTGCCGGGGGAGTGGTTGTGCAGGCCTGATCAGTAACACTGGTTTCAGAAGTGGCCTGTGAGCAATGCACCCGCTGCGGTGGGGATGTGTTGCTAGGGACGGTCGGGAGAGCCTCTGAAGGAATTGTGTTTGTTTTCCTCCTGCCTCTTAGAATCGTTTGTCCATTTGTACTGGGAAGGTGGTCATTTCCTACCGCTGACTTAGAGCAAGAGACGCCTCTAGGCGGGTGGGGGACTCTTCAGGTTCTTCCTTGGATTTCAGAAAATGCCCCTTCTTTATGTGGGGTGGCAGCACGGAGCCGTAGGGCTACAGTAGTGGGGCAGTTGCAGGGCGGTGGAAGGCGCTGGAGACTCCTTAGTGAGTCATTCCCCGAAGTTGTGGCTTCTGCTGATACTTTCCTTGAGAGTCACGAGTTTACAAGCTACATAATAGCGTCGGGGGCAAGTAAGTGTGGAAGACGAGGTAAAGGAAAAGCAGATACTAGGATGGGTAGAAGGAGAGGCAGGGGTTAGAACTTTAATTCCTTCCCTGGGGACAGGAGATGCCCTGGAGGGGAAGGCGCTTCCGGCTCTGCAGGTATGTGCTGTTGGGCCTAGGTGTGGTCCTGCGGAATTGCTGCAGATTTTAGATTGCTGGTGGGTAGGAGCTGCAGC
1 ATGATGGCTGGGACCAGCTGCTGGTATCCTTCATGTCCTTTAATAGGCTCCAGGATGACGCCTGAGCCAAAGGCCCTACCTCCTGTGGCCTTGGTTAGAGACACCGAAGGCCAGCTGTGTCTTCCCCAGCAGAGACAAAGGTGTGCGCATGGGCATAGGTGAGGGGCGTGTGTGTATGCACATCCTATAATTTCAACTGAAAAATCTTGCTGGTCCAGGGAAGTCATTGTTCTTCAACTTTTTGAGCTGAGATCAGGTAACCTGCTGGCTCCTCTGCCTGCTCCCTTGCTGACATCTGTGGAAGGAGCCACACTGGCACTTCAATATTGTCACTTC
0.9850971271163769 GGATGCGGAAAGCAGAAAGAGACTGGAAATCAACATCTCAATTCAGCCTTCCAAAAAGTAGAATCCACCACTTCTTTCCCCTTCATCATTTCAAAAGCCCATGGCAATGAACCCCAAACTGAGGCCTGAGGGCGGATGCACCAGACTTTATTCCCAGGCTCTCATGGGATTTATCTATTATGGGAAAATGGAGAGTCTGGGAAGAGGCGAAAAAAAAAACAAAAGACGCGGTTTACCTTGCCCTACCTCCCTCTCCCCCTGGAATAAGGTGATGTAGCGAAGAAACCATCTTTCAATGCTGTCAGGGCTCCGCCGAGTCAGGTCA
0.8615601121345238 TCCCTCTCCTTTCGGTGACTTCTCTCCCTGCTTCCCATCCCGTCTGCTAAACTAGCGTTGCCCAGTGACATCTCACAGCCAACCCAAGAACATCTTCAGGGCCCTGGCAAGGAGGGTAGGACAGAGCCTTGGGGAGTCGTCACCTTTTGAGGTATCTGGCGTCCTCCCCTTGCATGGCGGCAGCGGCAGCGGCGTGGAGAGGATGGGGTATCTTGAGAGGCAGGCGCGGTTATTTCCGGGGACGGTGGCCAAAGTACCCTCACACCCAGAGGCGATGACAGTCCTGAGGCCTGCAAGGCGGGGCAGCAGCGGCGCTGTGGTTACCACGGTGAAGCCTCCAGCTCCTCCCACAGCTTCTGTGCCCCAAAACACTGGAGCGGCCCAGACCCGCCCAGAGTCGCCTAAGCCGGGCCGTCACGACGCATGCGCTTGCTCTGCACCTCTTGTATGCGCAGGCT
0.90732113656901 GAGCGGCTAGACTTAGGACAGGCAAGTTGCCCTGCCATCCTTCTATCGCCCCCACCCCTCCTTTACTTAAGGGCGATGGCAGAGACGTCCTCCTCCCCCTTCTCCTCCTCTTTGGTGCCTCCAGCCAGGAGGCGGGAGCGATCCACAGCAGCTGACCCAGCTCAGGCACTGCCTCTCTCACAGCCCTCAAGACACACCATGGGCCCAGAGGCAGGTTTGCTACACAGCAGCGACGACGCAGGCGGCGGCCCCAGCGACTCGCAACTGCCTCCCTGACCACAGCGGCCACCGCCCAACA
0.8971697823272919 ATGCAGGAGTCAGAATTGTGCCTTTTGATCCAGGGCTGGTGTTTTGACCCCTGCCCTGTGCAGCCTCCTTACCAGGCCACCTGGTGTCCCCCTTTGTCTTCCTGACACCTGCACCCACAGCAGTCCCTGCTGACAGCTCTTCCTTCCCACCTCATCTCCAGGTGTCACCTCCCATTTTCCCCTCTGCACAGGAGGAATGACAGGTGCTGGAGCATGACACAGTGCCTCAGGGCTGAGGCTGCACAACTTCTCAGCTCTCGGTGCTGACAGGAGGGAAGTGGGTGCTGAGGTGTCAGTCAGCTGGCTCAGTGTAAGACCTGCTCTTATTGATCTTTGCTGAGAGATGACTAGTTGAGGGGCCTGGGCTACCACATTCTGCCTGTGACCTCTGACCTCCTAAACTTTAGTGTTCTTTGGCCTATAAGTTGAGGGTGTGCATGGTTTAGAAAGCGCATTTATGTACATTGCTTCATCTTGTCCTCATAATGCCATAGAAAAGACCT
1 TCCTCCAAGAGGACCCCCAGTATCTACTGCTGCTTCTCAGAGCCAGGAGCTCTGAGCAGGAGCAGTCAAGAGGGGTTGCCGGTCTGCCCTCCTCTGCTCTTGTGCTACACTACAGAGGGATAGGCAAAGGGAGCTAACAGCGTCGCTCAGAGACAAAGAACACAGAAGCAAGATGGTTTCCTTGGCCAGCAGGGAGCTCTGGCCCTGCCTTCTAGGCTCCCTGGGAGTCCTGCGCGTCAGGCACCCTCCTTCTCTTCCGCTGCAGGCATTGCTGACTTTGAGCACTCACCCTGGCTCTCTGATCCCAGGGCCA
0.9552749380987632 CATCTGGGTTCACAACAGACCACACCCTAACACATACATACACATACACACCACACTCTAACACATAATGTGAATAAATAGAAACTAGTAAATAGAGCTATTTCTGCAGTGCCCCTGGCATATACTCACATGAAGTGCATGTGCAAAGTACATCTGTGTGTGGTTAATTCACCATCAGATTTTAGGGTAGTAAAGGCAATCACCTATTTTCAGGGCATGTCAGAAATCTAGCTGAATTCCTAAACCTGCTAGATTCCCCATCTCCTTCTTCTGTCCTTGGCCCTCAAGTGAAATGACCTAACTTCAAATGGACTCAGGGGCTGGGGGGTTATTCCAGCTCAGAACAGGAGATCCTTGAACATGGACCCTTGAAAGGGCCCATGGAGGCTAGGCAATGTCTACTATG
0.891059946019864 GTTCAAACCCAGTTCTGCTGAGGTCTCAGCTCGAATCTCGGACCACGGGGCCCCGCCTTTCCCGCCACCCTGGCTTGAGGGCAGAGGGGATTTCTGCTGCGGGTTCCGCCTGTGGTCATTGCGTCCCCATTCCGGGCCGTCCGGTCCCAGTCCAATCGGCTCTGGGAGCAGAAGAACACGTGAAAGCTGAACATGGGTTTTCCCTAAATATTGCCTGAGAGCGGGGCGACCCCCAGGCCTGGGCAGGTTCGCGGACCCCAAAGCACCTTCTCTTTCCCCCTCCTCCTGGCCGCTGGCTTCCGCCCCCTCCTACCCTCCCACCGGGTTGCCTCTGATTCCTCCTGGACTCCGATCTTTTCACGCTCTTGTTGGTTTCACTGACATGTTCTTGTCAATTTCAAACGCTTTGTGATTGTAAAAAAAAAAAAATCGAACCGATACGGTCCTACCACTCGCCCTAGTTTCGGAGCCCGGAGCTGTCCTGCGTGTGCGTCCATGTGGAGTGTCCGGGGCTGCGGGCTCGGGCGCACGGTGCCAGCCGAGGGCTGCCCTCCGCTTTTGTGTTAACCGGCGGGCTTCTCGCGGTCCCCGCCGCAGAGGTCACACCCGGCGGGTAACGGCGTGGATACACCGAAGGGTGACTTTGGACA
1 CTACTTTGGCTTTCTTACCAGGTGAACTTGAGCATATATCTGGGCAGTTCTAGAATTTCGATGTGGGAGGGACTTAGGGATGAAAAAAATAAAATGTGGATGGTAGATGGCATTTGGGGCAGGGGATTGGAGGCTTGTCTTGTAGCTGTTTCTGCTTAGTAAGCTCCCTGTTCTGGCTTAGAGACATATTTATTGGGGAGCTTGCTGATGGGAATTATGGACGGGGCCAACTCCTCTCCCAGCACCCTGTGGTGCTGACATCTGAGGTGATCACTTCCCATGGAGTGGAGAAAAGCATGCTGCTCTATATTTGTTCCCTACAACAGGAAGCGTGAAAACAGGATTTGCTGCCACATGTCAAGTACTCATGTGCCTGTAGAAGAAAGGGGCCATTGCTGCTGATGATAACAATGATAGCATCTAAGGTTTTATAGTTCCCCAAATAATTTCACATACACTGTGATTTGATGCTTATAACAACCGTG
0.9722660888922211 ACTTCCACGGGTGAGGGGGGTGATAGAATAATGGCTTTATTTTCCCAGTCTGAAAAAAATAATATAGAAGAAATAACAGCTGGGCCTTCCTCTGCATGGAGTTTCCGCTCCCACGAGCATGTCCGTGTTTAGCATCGGCAGCCACCTGGCCATGCTGGACTCGGTGTGGCTGTGTCTGCAGTCGCATAGACATTTATGGTATTTCCAGTGGCCTGTCAACAGTGCCTGGTGTTCTCTAACAAGTGCTGTGGACTCCAAGGGCCTGACCACCTGCAGGGCTTGAGAACCACAGTTCAAGCAAGGTGA
0.8514826247405355 TTGACCACCGCATGCTGCCTACGTGGTAGACTCTCAATACGCATGGAACTGAACCTCTTACAGGATTTGTAACTCACTTCTGTGGTATCTAGTAAACTGGAACACGCGCTTTCCCTGGGCTGCTCTGTCATCCCAGGTTTCAGCACTCGGAAATCGCTTGGGCCCCCGCCCAGAGGCGGGGCTTGGGTGGGCTGACCACTCCTCTGGCCTCCAATACTGTCGCTGACATTCTCGTCTATGCTCCAGCAGCCGTACCTCACTCCGGTGGAGGCGGGACTTCCTACAGCACTTCCGGCCAGAGCCTCAAGCTTCGCTGCTGGGCAGTTGGCTGGAGGGGCTGCTGCTGGGAACACCTGGAGTCTCCGCGGG
1 ATTTTGGTAGGCTTCATGCACTCAAGGGCTTCCTGCGGGCTTAACTGTTAAGCCGAGCTCATGGAGGTGGTGTTATCAGAATGCTTAATGGGGACCGAGGGAACGTGCTGGCTGATGAGGTTCTGCACATATCAAGTAATGTCAACTCTGTGCCACTCAGCAGCTGCCTGTCAGCTAGAGCAGCACCTTTGATAAGTGGGTCCTGGGTAGAGATCTGGCAGTCCCAGGCTGGGATTTTTCTTTTAATAAAACATCCGTAGGTTGCTGTGCTGACGACAAATGACCTTGAAGGAGGTGACACAGTGGAGCAGGGGGATTTTTTTTTTTTTGGTATAGCATTAACATCTAAAAGGAAAACATGCCTTTCCTCACAATTTTCCAATTTTCATATGGAAATTCTCAAATCCTTTACCGGCTTCTC
0.8746821870143154 ATTTTAGTCAACCCATCCAGGAAGTGCTCATTGAGCGGACTGATGGAGGAGTGGACTACTCCTTTGAATGTATTAGGAATGTCAAGGTCGTGAGAGCAGCACTTGAGGCATGTCAGCAGGGCTGGGGCGTCAGTGTGGTGGTTGGAGTAGCTGCTTCAGGTCAAGAAATTGCCACTCATCCATTCCAGCTGGTAACAGGTCGCACATGGAAAGGCACTGCCTTTGGAGGGTGAAAGAGTGTAGAAAGTGTCCCAAAGTTGGTATCTGAATATGTGTCTAAAAAGATAAAAGTTGATGAATTTGTGACTCACAATCTGTCTTTTGATGAAATTAACAAAGCCTTTGAACTGTTGCATTCTGGAAAAAGCA
0.9753078741581815 GAAATAGAATGAAAAGAATAAACCTCTCTGCTATTTTTTTTTAAGGTTGGCATTTTAAATTTGACATGAGAGTCTTTTACTATATTTTTTTTCTTGGACAGGATGAAAAAGCCTCACAGCTTGCGGTGTTGACAGTATTCTAGAAGACCCTACACCCCTGTGGCTTCTCGATGACTAATGTGGAGCCAGCATCTGTCAGCACAAACTCAGAGTGATTACCCAGAAATAGGTGCTTGGCAACAATCCCAATTCATTACCCATGTCCTAGCCCAGAGTGTGGAGGAAAAGTGATACCATCAATTTCTTGGCAATTATCCCATGACGGATCATTCAAGTATTTT
0.6043366790625082 CCGCCTTCTTCTTACCTCCCGCCTGCTGCTGGCCCTGCCTCGCCCCGGGCGGCGCCACCGTCACCGCGAACAGCGAGGTGGGGCCGCTGCTCTTCCCCGCGGCCTCCTTGGCGGCCCCGCGCTGCTGTTGGGGCTGTTGCTGCTGCGTCGCCGGCGGTTGAGGCTGCTGCTCCCCGTGCCCGTTCTCGTCGCCCGCGCCTTCCTCTTCGTCCCCGAGCTCATCTTCCCCTTCCTGGAAACCCTGATCGTCGCCGTTCTCGTCTTCCGAGGCGGCCTCCTCCTCCTCCATCGGGCCCGAGTCGGCCGCCCCCGCGGCCCCGTTCTCCTCTCCTAGCTCCATCTGGTCGCCGTCCAGAGCGGAGATTCCTTCCTCCTCCTCTTCCTCTTCCTCCTCCTCTTCATCGCCGCCGGCCGCGGCCTCCTGCTCGAGGCCTGCTCCCGAGCGCCCAGCGGAATCCCCGCCCAGGTCTAGGCTGCCGTTCCCGGGCTCCATGGCGGGGCGGCCCCCGGCCTCCTCGTCGTCCAGCGCAGCCTGGAGTCGCTCCATGAGCTCGGCCTTGAGACCCTTGTCAGAAAGGCGTCGCTTCTTGAGCTCCTCTTTCAGCTCCGACACCTTCAGCTTTTTTACATTAACAGGCGAGGAACTCATGGTGAGGGCCCCGATTCACCGCTAGGCGCTGCCTCAAACTCGGCTCCGCTCACTCGGCCACTGGTGGCGGCTGCTGCGGCTGCTCCTCGG
0.9867651234986162 TATTTTTGTTGCTGGGAGGGAAAAAAAAGGTCCTAACATCAGGAAACAAAACCAAAGGGGAAAAAAAAAGATGGGCCCCACAGTCATGAAACCACCTCAGAACACGGAGAACTACTTCTTACCATGACCTTAATTCACCCAGGCTGCTACTCTGGAGAGGTGCTGTTTCCCAAGTGGGTGATGAATCACTGCTTCTCCATCACCTCTACTGCTGTGCTTTGTTGGTGACAGGGAGATCAGGGCCGTGAATTCTTGTTTCCAAAAGAAAAAGAACTTGGGTTCCAGCCCAGACTGAACCCTCAGCTCTTGTTTGGTTTCTGATATGTACTATTGGCCTCATATCAT
0.9901655673220092 AGAGTCAAAGAGGACTTTGTATGTTCGTGAGAAATACTGAGTCTTAAAAGTGTGTAGATAACTGCCTGGTGAAGGGGGTTGGAGAAGATTATCATTGTCATGGGAAGCAGCATAAGAAAAGCCATAGCTCCATTATGCTTAGCAAACTAACGCAGGAGCAGAAAACCAAATACCACATGTCATCACTTATAAGTGGGAGGTAAATGATGAGAACACATGGACACATAGAGGGGAACAACACACACTGGGGCCTCCCAGAGAGTGGAGGGTGAAAGGAGGGAAAGGAACAGGAAAAATATAACTAATTAGTACTAGGCTTGATACCTGGGTGACAAAATAATATTACAACAAAGCCCCATAACAAAAGTTCACCTATGTAACAAACCTGCACATGTATGCCTGAAATTAAAAGGTA
0.9938882480507795 TGCTGAAAGAAAAGAGCTGTCCATCCAGAATTTTATATCCAGAAAAATATCTTTCAGCAATGACACAGAAATAAAGAAAGAGCCTCAGATACAAACAAACAAAGGGGCTGTATTACCAGCAGTCTCACTCTGAAGGAATAGCTGCACAGTGTTCTTCAGACAGAGACGTGTTGATGGAACGGAGAGGTGATGATGGATGGAGGTGATGGTGGATGGAGGTGATGGTGGATGGAGGTGATGATAGAGTGACTCTTGGGCACCAGGGAAGGCTGAAGGCAGAAGGAGGGGTGCAGGCAGGTGTAAGTGTGAACAACTGTGTTTTCCTCTGGGGAGCTGAGAGTTCAGCCCTTTGTGTGTCTTTCCAGAGTCCATGACTTTCACCACGCCTCACTGCCTCTCCACATTGCTGTATTTTATTTGGGGACTTTTATAAATTTATTGTCTCCTAAATCTTTCAGATTT
1 TTTTGTGTTTGGCAGGAGTTCACAGACTTTGCTAACAATTTTAACAGATATGCTTTAATTTAATAACTACAATTTGGTAATTAGCTGGAGTCGCATTTCAAAATGCAATTGATATGATTTGGCTGGATTTATCTGTATTCTAGAAAATACAGGACAGTCGTATAGATACTGGTGTTGTTACTCTGTTCATATTCACACTTTTACCTTGCATCATTCCTGAGACACAGAATTTTTGATATTCTGCCACAATCTATTCCCAAAACATCACTGATGACAAAACGATAATAATCTTTGGAAACATTTCCTCTCAAGTTCCAAAGTTTTCAGTCAGTAGAAAAAAAAGAAAGAAGACAAAATTTTAAAGGTGCTGAGAAAAGCCCAGGGCTCACAGCTGGTTTCAGCAACTTCAACTTGCGTAAGACCCCGTGTTTGTGAAAACAACCCAAGAATCTTTGAACAGGATGTAATCAACCTCCGAACTGCTGAGAAATATTGCAAAAATGACTTCAGCTGCCAAAAATAATGTCGTTTACAAGCAGCTCTTCCTATGTCTAAGGAAGAACTAGTCACACATGCGAGTTTTTGCTGGCTTGAGAACAAGCAAGGAAAAAGACAAATCCCACCTACCCTAGCCTAAAATACACAGTGAGTCTCAGAACCCCGCGGAAGCTGTGGCTCATTTCTAAAGGTGCTGGCAATATCGAGGAAGACTTGTATCCACAAAATTCCAAATGGTAAGTGACCCAGGACAGAGGGATTTTATTTGGCAGCA
0.9305046569015768 TGCAGTTCCTTTCAAAACCAAAGAGCAAGGATTCTCCCAGATGTACCCCCAGTCTTGACCTTCTTATGTGCTATAGGAATTTCCTTTTTGAGTGACTGAGGCTTGGCAGTAATATAACAATGGCTCTGCTGGCCCTGTCAGACCTCTGCAAGGATATCAGCCTTTTATATTTATTCTAGTCTGGGAGATGATTTCCTGTATTGGGTAGAGGGCACTGGTATTACTTTAAATAGAATTTCCTATCTGCTTTTTCTCCCCACCACCTCATCACTCTTAAAATGACTGCCAAAATTGTTCCTGCTCTATTTTAAGTCAACACCATTTGACCCTTTGCTTTACTGGAAGTGCTTTCTAACTCCTAAGCTGTAAGGATTGTACTGTTTGCTGTTTGCCTATTTTAAACTTTCTGGTAGTGTAGTCTGTTTGGGTAAACTCTGAAATCCTGGTCATTTTCCTGACAACGTTTTAACTGCCTCAGTGCATTCTCATCCCAAATATTGTATCAAGCACTAAAATATTATTTATCAA
0.9876778468002501 GCTAACACCCCTTCAAAGCAGCACCAACCCAATTGTGAACAAGCTAGGAGTAAAAGACGTAAATGAATTGGTCACCCCAATGCAGGGGATACAGACTTGTTTTAATATAAAAAAGAAGTGGCCTTAACCGTGCAGGGCTTGCAGGCCTTTGTAGGCATGGGAGCATGCTGTGATCCCTGGTTCTGTGCTAAACACTCAAAAGGGCTCTCTGACTCAAGTGGAGGTGATAAACCTTTTCAATAGTAACAGGAGAGAGTGTGATATCAAAGTGCCAGAAGTCCTCACGGACCAACATTTAGC
0.7292249083240681 GGGCCCTAAACCCAAGCTGTGCCCCAACCAGAGGCACTATCCCCTATTCTACAGTTCCGATAACCTTACCGTCGGACTCTGCCCGAACCAGCAGCGACATCCCCTTGAGCTCCTCCACGTAAGTGGAGGAGACGTGCCCGGTGCCTCGGTCGTCCCATTGCCGGTCTTCGTTCAGGGTATAGACCTTCACTCGCCGCCGCGTATCCGACATGGTGGCTGCTGTCTCCACCGCTCTAGCCGCCGCCTCCTCGCTTACCTCGTCCGCGCTCCTCACTCTTAGGAGACGGTAAAGGCAGTAGTGGCGGTGGCGGCGGCGGCGGCTTCGGAGAGGCCCGAATTCACCATGGCTCCAAAGGTTCAGCCGCGAG
0.8098551174830239 ATCTCATTCCTTAAATTAAACAGAGGTTTCTAAATGCTTTGGTACTGTGGGGACCCAAATTATCCCTTGATACTGCCCCCCTATTATCCACTATTAAGCTTTAAAAAGGCGAGAGATTAAATATTGTGCCCACATTTTACAGTCATTCGCGTTCCCGTTTCAAATTAAAGGGAGGAAAACGCGTTAAAATTAGGCCTCCGACCTTCAGACCAGCCTGTGGGCTTTTTTAAGTCATAAAACTCGCGGAGGTGGAAGGCCCCGGGGAGGAAGAGGGGTGCATTCTAGAGCTTTCGGGCCGACCCCAATTTCTCGTTGGCGACGAATGCTAACCACGTGTCGCCATTTTGTGTTCAGGAAACATGGCGGCCGCCCCAAGGGTAAGGAACAGGGGAGGCGGAGTAGCGCCACGTTAGCCGCTTTCCCTGAGAGATTGTGAAGCACGTTGCGCACGGGGCCCTTTCTGGTCTGGCTTAGCCCAAGGAGGAAGGGGAAAAGGCAGAAATCACAACTCATAGGCCAGCGTCTTGAGCGACACTTCCTCAGCGGGAAGAACCGGCAAAAAAGGCCTTCCAAGATGGCGGGCCCTGACGGGGCCGCCCCCCTTGAGCCTGGCGCAGTGGCTGCGCCCATGGGCCCGAAAAGCAGCCGCGGGAGCCCAGGCCGCGCGGGGAAAGCCGCAGAAACGTCCTGAAGCCCTGGCCGGCAGCCCCTGAACAAACGAGGCCTCCACAGGCGTACACTATTGTTTCTAATGTCGGAAAAGGGTGCCGCGGTGGAAACGACACAAGGGCAGGAGGTGGGGTTTCTGTGGCTTTAACCGAAAGAAACTTGCGAAACGCAAACAAAGCATTATGTAA
0.9698355150083744 AGATTCCGGGAAGGGGCAGCAAGAGGAGAAAGAAGCGAAGGGCGCCCCAAGGTAATGTGTGCCCTACACAGGGCTCCTAGCCATAAGCACTTATGCAAGTGCGGGGCACAGAGAAAATTCTGGTAACACTCCTCCCCTCAATTCTGATCAGGTCCCAGGCTCAACTAATCAGTTCAGGGATGGGCCCTTTGCCACCTTTTTCCTAACCAAAGCCACTCTCAAGGGGAAACTTCTATTAACGGCCAGTAAGCAAGACACACAACGCTTTTTGTTTGAAGGACTACCCAGGCGTTAGTGCCCTTCCAGACCGGCTCTAGTGACTGGCGGGGAAGAAGGGGAA
0.9172678178225804 GAAAATCTCTCCTGCTGAGGTGGTAGTTTCTGATTGCCCAATATTGTGTTCCCTTTCCAGGGCTGCAGGAGCCCAAACACTCTTTTGAAAACCTCTCTCCCTACTAGAAACACAGGCTGTTCATTTAGCAATTATAGCTGTCAGCACAGCAAGCTGGCAGGAGAGAGAACAGCATCTGTTTCTGGGCAGCGAGCCCTTGGCAGAGCCAGGAGTTGAGGGCCTGGGGAAACAGGTAGGACAGTGGCTCTAATTTGTCACTTCCCCAGCACTTGTGTATTTGCATCTTGTATCCTGAAAAGTGATACATGTATTAATTTCACCTATATGCTGGGGAGGAAAATTAGAAAATATGGGAAGTAGATAAGAACAGGAATGGTCTGTGGGTCTCCAAGGTCTTGTACATAGTGATACTGCCTCATCCATTCA
0.804716673474533 GAATTTATTGTGTGCCGCTTGATAATGTTAGGAGCCTTCCTGTGATTTTATGTTTGCTATGAAAAGCATGGCTCTATCTCAAGGGCTCTTAGTATGAACTGATGAGGGTGGGCAAGCCTGTTATATGGGGTGATGATGGAATGGGGTGGGGTGGACAGATCAACTTTTGTGATAGGTGTGGCCTGACAGCTAACTCTCCAAATTGTCAACAGTGAAGTGTGCTGCCAACCTAAGCCTGATTCTAGCCAGCATCTATCCCCAGGGCTGAATGGTCATGCCGTTCACATTCATCTATGCTCA
0.8660280822043832 GCTGGGACGTGGAGCGCGTCGCCGAGTGGCCCTGGCTCTCCGGGACCATTCGAGCTGTTTCCCACACCGACGTTACCAAGAAGGATCTGAAGGTACAGGCGGCTCCGGGCCTCTGCCACCGGACGTTTCGCAGTTACCGTGGTAACGCGACCATCGGTTCCCTCCTTCCGTTTTCTGAAAACGGAGACCAGAAAGTTGGCATATGATCTGAAGGTGCAGGAAGCTAGATCTTGAAAGTCTTTGGAATGGTTGTATAGAGCCGAGTTGTGTTTGGCCCACAGCTCCTGGCTGCCTGGCTTTAATAATGGGCTTAGGGTTGTTCAGACACGCTTCATTAATGCCGGTGCTGTGTCCCA
0.9271561133227854 CATAGGTCTGTCAACACCTTGATTTTCACATAGTGAGATCCATGTTGTACTTCTGACCTCCAGAATGGTAAGATGGTAGATCTGTGTTGTTTTATGTCACAGAGTTTGTGATGATTTGTTACTGCAACAATAGAAAGTAATACCTATGGTCATAATGCATGCATTGCATCAGGCCTTTGCTGAAAGCTTTACATGCCTGGTCTTGTTCAATCTTCACTACAGTCCTGTTAGGTAACTATTGCTGTCGTCACCTCCATTATATGGAAGGGGAGTGTATTCATTTGCTAGGGCTGTCATAGCAAACGACTGCAGACCTTGTCTCCAAGTACAGCTACATTCTGAGGTACTGGGGGTTAAGACTTCAACATATGGATTTGGGAG
0.7456226202578833 TTTCTCGAGCCGCCTGTTTCGGGTGCCGCCATGTTGGTGAGGAGAAATCACCGTTACGGCCACTGTCCAAATCCCCGCGTCGCTGCACGCCGCCCGCCCGCTCCCACGCCACAGCCACCGGCGGCGAATAGAGACTAGAGCGGCAGCGCCGGCAGCGCGGGGCCGTTGCCCAGTGTTTGCAGTTAGAGCCCCATCTCTCTGGCGTGGTTGTTAATAGACTGGAAAGTCTGTGTCTGTGTCGCTCACTAGTAACCGTGAGTTTTTACCACTTCGTCACCTGTCGGCGGCGGCCGGGAGCAGGTTCCCGCAGGCGGCGCGGGGGGTCTTCCCCGCGCCCCGCCGCCGCCGGCCTCGCAG
0.9366674064374891 TGGTACTATGCAAAATATAGGGTGTTCTTTAAATAACAACATTATATGTTAGTGTTGGTTCCACTCTTACAAAGAGTGTAAACATTCATTTAGAATTACAAGGCTCAGTACATGCTCAGCAAATGACTAACAGTAAAGGATTTAGCTTCTTCATGTACATGGTACATATGAACTGTCAACACTGCACAAGTGAGACAAGTGAGACTCCAGACCTACGCCTGGTTTTCCAGTATCTGAAAGTCAGTGATAGAGGGTGGCCCCCCTGCCAAGCACACCCAGTAGTCTTGCTTTGTGGCAATAAACAAGTTTGGATGGGCAACTGATGTGAAATAGTTCTTAGTGCCGTGAGTTTCCCAGAAGAAGAGGAGGTTGGTCTC
0.95335786767526 AGTCACTGGAGACACTGGAGAGTGTCAGGAAAGTCTGGCTTCCCAGTATATCTCATCCTTCCTTCTAGTGAGTTTCTTCTACTTCCTGCCAGAAATGCAGGTATTCTTCTCTCCTCCCTGAAGGTACAGCAGCCATTATATGACCATGAGGACAGAAGCCACACATTCAGGCAAAAGAGAGGAATCTGGAATATGGCAACATCTTGGAACTTTGCTCCAGCTCTTTTTGTAATATGCAACAAATAAATTCCTGTCTGGTGAAACCAGTGTATCAGGCTCCTGCCACACACTGCAAAACGCATTCCTAAGTGATGAGAGCACAGCCGACAACGCTTGTTTCTCACCACTCACCTGACACCACCAAGTGCTAAATAAGCATTCTTTGAATGAATGCTTTTCATTTCACACCAACTCCATAAAATAGATGTCAAAACTGAGGCCTTGTTCAAGATCAGTCTGTCTAATTTAAAAGCCTGGGTTCTGTTTATTTTTCTTTCCCGCTGTCTTTCTTTTCAAA
0.9095460135703446 AAGAGAGAGATAACCAAAGGAGGAAGCTTGCAGGCGCCTCCTCCCAGGCCAGCTGCAGGATGTGGGCAGGAGAGTCTGGGCTCTCAGTCCCGGTGGAGACAGGCCCTGTGTGCAGTGAGTGCTGCAGGAGATGGTCTGCTTACAAGCATGTGCTTCCTGTCATCAGTGCAAGCTGTTAAGTGTGAGAAAAAATGACCGGCAGTGAAGCAGAAACTCACTAAAAGTATTAATAGCCGGTGGCTGTCACCACTTGCTTGCTGTCCTTTACACCAACACTCCCCTAGCCCTCTCCCAAATGCCCAGGCTCATTTACTCCACTATGCAGGACCCCACAGGATGCTGCGGTGTGT
0.7902787757413686 CCGAAGGGAGCGATGCTGTGGTTCCAGGGCGCCATTCCGGCCGCCATCGCGACGGCCAAAAGGAGCGGCGCGGTCTTCGTGGTGTTCGTGGCAGGTGAAGGAGGCAGGGGTTCGAGAGGCGGCCGGGACACCCCTCCGGCCTACCTTCATCCTCTTGTATACCTCAGCCGCCGGCCCGCCCTCCCCGAGACGCGGGCTCCTGTCGGCTCGCACAATTGCCACTACTACCCCGCGCCCCAGGGACGGCTGCGACTCCGCCGCCAGATCCCCCAGAGGGGCCATGCAGACCCTCAGCGCCCTGCTCCTTCAGGCCCCGGGCGCCCCCAGCCTTTCCTCAGTGTCTGCGAGGCCCGGGCTGCCGGCCCGTGGCTGTTCAGCGCCTCCCCGGTTCGTTTGAGATACAGTGGGCCTGGCCCCACCGCTG
0.9442534751268412 AGGTAAGATTATTTAAAGACAAAAATGTCCCTTTGAATTAAATATCAGGAATAAACCACAGAGTTTACTTTACATGGCAGTGTGTGTGTGCTGACAGGACACTGATAAAACATGCCAGAGAGATGTAGATGCCTCCTTCAGACCCCTCTAGTCTCATTTAATTTAAGGATTTCTTCCATTAAAAGCAATAGTGTTTGAATAAGAGAGCACTAAGAAAATACATAGAATGGCATGTTACAAAGATTTTTCACAACATCTTTGTTTTTGTTTTTCTAATTAACATTCTTTTTTTGGAGTC
1 TAATAAACTTATTTTCATAAAGATAAAATTTCTCCAATAAATCTCTTGCATTTGTAATTCCATTTAGGTGTCTGCTTCCCAGAAGACCAAACTGATATAACTATCCTTATAAGATTGTTCCAAAAATTGGAAATAATAACATAGTTCCCGGCTTTTGATAGCTAGACAACAAAGATTATCTTCCTTCAACTGTGAAACATTAGAAGGTCAGGGCTGGGCAATACATTCCTCTGTCTGTTCAGTGCCTTAATCATACATTCCACTGTGTAATTGGGCTTCACTAACAGGCAGCGTGAAGTGAAACTTAACAGAGCACGCCATGCTCCAAGCTA
0.8656811452624519 GGTGAAAAACGGGACTCCCGCCTCCACTCCCTGGCTTTCCTCATTCCAGCCACTATAGAGGGGAAAATACGTAGACCACAGAGCAACGGCCACACCCTCTTTCCTCTCCTCCAACCCCAGAATTCCACTTCAGTCTCAGAGCTTTCAGCTAGGTGGGGTTTATCCCCAAACATGCCACAACCCCTCTAGTTATATGGGAGCGGTAACTGTGAACCACCATCGCTGGCTTGATCCTCCCTTTTCCGTGGATTGGTGCTCCTGAGTATGTTTACCGGTTTCAGTACATAACACAGCCAGATAGAGGGCCGCGGACTTCAGCGGCGAGAAGCTACAACAAAAATAGGGTGAACAAAAACGAAGGTGCCCAGGAGCCTGAATTGCATTTCTTT
0.9850055312638434 TTTCACCAGGTGTTAAATTTCTCTTTGAGCATGTTATATTTAGATTTCTGAGTAAGATGACAGTAATATTTAGTTCAATGCCCCTCATTTACCCCCATAGAGGTCAAAGGGCAGGACATATTTTGAGGCCAATTACTCTGTCTCTTTGGTTTAGAAGGACATTAGTTATGCACTCTTCAAAACACAAAAGGTAAAGTAGTTTTCCTGCATCCAAAATTACCGACAGCACATAGTAAGAGATTCCAGCCCCACTGAGTTACTTTTTCACATGGTGTGACATGACAAAGCACAGACACAAATTCCCCGGACAAAAGATAGCTGGAGTGTTGATAGTTGTCTTTAGCTGACTTTTTCTTCCTGGAGCCAGAGGGGGGACTTAGACATAGCATGCGT
0.9594346860901423 GCCTGGGCGACAGAGCGAGACTCCAAGAAAAGAAAAAAGCTCCAACTGCTAACCCAAGAGGAGTGGCTGAAACGCCATCGCATAAAATTCTCGGTCACCTGACTTCTGTCACAACGCTCCTTCAAATACACCCCAGCATTTCTCTTTCCTTGGGTTCCTAAATCTGGTTTTTGTTAACACCACTGAGGACAAAGCCACTCGCGATGTTTACGCCGACACTTTCATCATTAGACATTAACTGTAACCCCTACGGGTTCCGTCTCTTTCTCCACTTACTCCAGACAACGTTTCCCCACAGCTGCTTGGCTCACGCACATTCTGGAA
0.7799380312305758 CAGGCGGCGCCGCTTCCTCAGCGGAGGGCAGAAGCTCCAAGAGGGCGGCCGGCCTAGCAAACACCGTAACTACCCCCGCAGGCCGGATCCGGCGGCGACAGGCTCGGCCGCGCAGGAAAGAGGGGCGCGCCGCCACTGTGCAGCCTGGGAGTGAAGGGAGCAGGCAGTCGTCGCGCCGGGGACGGCGGGCAGCAAACAAGCAGGAAAAGGGGGCATCGCCAGGCGCCCGCGAGGCTCACAGGAACGGCCCTGTCACCTAGTCCGCTCCCTCCTGCGTCTTACCGTCCTGGACAAAGACTCCAAGTCGAAGGAGACAAAG
0.9591620175732606 TTGTACAACCTTGTGACTCTACTATAAAACATGAATTGTACACTTTTAAATGGTGAATTTATTAAATTATATCTTAATAAAAATACATCTAGTCACAGGTTGGGAGCTCTATGCAGTGATCTCTGTCAGCAGCTCAGCTGAAATTAAAAAAGAGCTGAACTTTCAGGTGTCAGGGAGCTGATGAAAGCCACAAGTCGAAAATGAAAGTTAAGCCTTTAATCACTTACTGCTATGCTGTAAGCATGATTCAAACCAGAGAAATCTCTGACAGCTCAGATATGGGGGTGGTCTCAGTGTCGAGAAAGCACCAAACAAAAAGGCTCTAGTAGTTTTATGAGCCTTAGATTAGGGATGGGGAGCAGAAGAGGCTAGGAATGGAAAAGTGAAGTACAGGCTACTGAGTCAGAGTGGTGAAAAGTGTCTTCGAGATGTGCCACACTTCACAGTGAGGAGGTCTCAGCAGAGACACATGGGCTAGG
0.9841551138713848 GTCCCCTCTTACCTCCTTAGAGACCTTATTCTATCAACTTCTTTCTTTCTCTTCTTTTTCTCATCCTTCCTCCCCCCATGTCCAACCTACTCCCCTCCTCTTCTACATACAAACATTCTCATGACTCTTATATTTACAAAAAAGTTCCCAATCACTCACTATCCTCTTTAGCTACCACTCTCTCCTCTCTTATCACAAAACCACTGAAAAGAGTACTTGGCTTGCTGTCTTCACTCCTTCTCCACTCATCCTCAATCCCCCACAGTCTGGTTTCTGTCACCAACACGCACTAAAAATATGCCTTTGATGTTTTACACAGGGCTGCCTAATTTGCAAGCCCAGTGGATTTTTCTCAGTCCTCCTCATGATCTCTTCAGGCTGACACTGCTAATCTCCTGCCCTTCCTCCTTGAAACCCTTTACCATCTTGACTTCTATGATGACATGCTGTCCTGGTCTCCTGCCACCACCCGAACACTCACTCTCAGCCCCTTTACAGCCTCTACCTCCCTTCATGGCCATTCCATCCTAAGTTCTTTTCTCTCCAAGCCCTCT
0.939405921681164 CAGTGGTTCCAGGCAGCCCTCCAGACACCACCTCTTCTCAGCCTGCCAGGTCCCGAGTGCCCAGACAGTGACTCAGGTGCCTCAGGGGCAGGGAGTGGGTGACGCTTCACAATGCCCTGCCCAGGCTCTGGGAAGGAGGGCATCGATGTAGAGGGGAGAGTCCCAGCTTCTGGGTCTGAATGGGGGTAGAGGCTTCTTTGGGGCCAGATTTTGGGGCTATCAGTGCCCTTTGGAAAACATCCCCCAACATCTCCTAGGAGGTGGTGAGGGCCTGGGAGAGGCCAGGATTGGGGGTGGG
0.9296343381925503 AAGTGCGGTGGCGATAAGGCCAGCGTAGCCTGTTGTTCTCGGATCGCCCACGTGAGCTAGATCGCTACGTCACGCCACGCTTGCCGAGCCCGGCGCCATCTTGAGTGTGGCGTTTTGATGCTCCCCTTTCTCGGGGCTCCGCATGGTTCTCTAAATGGTCCCCCAAATTTCAGGTAGTCCCCAAAGATTAGCCCAACTGGCTCCAGAGACGATGATTTTTCCCGAGGAACTCTGTAATGTTCATGTGCCCATCGCAGTCCAGCAGTGGGGTGGGAGAAGGGTAGACTCGATGGCCCGGCAGGCCCCTGGAGGAGGCTGCCCTGAGGCTGTCGCGACGGCAGTGACCGCTCGGGACAGACCCTAACTAGAAACCTAGAATGAGGGGACCGCTATGCCGTGCGGGGCCCGCGGGCTGTCCCACTCGAGGGCTGGAGCCGGCATCGCGCATCGAGTCCGCTTGATACATGAATCCGTGTGTGCTTGGGACGGTGCCCGCTTGTCGACTGACTTGGCCGACGGACGCCGGACCTGATGGTGGGCAATCGAGGTCGCCTGCCCACAGGACTAGGGGTGCCCTGCCCTGGGAGGG
1 CACTGAACTGCTTACTTTATATTATCCCATTTAATGTTACCTGAAGGATAAATATTATTATTTCCATTTTCTTGTGAGGAAGCTGAGGTACAGAGAGGTCATTCCAAGGTCATAAAGTTAGGAGGTGGTGAGGCTGGGTTGTACCAGCCCCTGGAACCACAAGGCACTGACTGCGGGTCCTGCTGCCCCCGAATCCTCCTATGGTCTAGGTGGTTTTAGGTCATATTTTGTGTAATGACAGATTTCCTTTCCTTTTCTTTTCTTTTTTCTTTTTTGAGAAAAAAGGGTTTCGCTCTGTTGCCCAGGCTGGAGTACAGTGGCACA
0.9203241938538067 CAGCCCTCATGCCCTGGGTCAGGAAGATGCCCGCTCTGCCCAACTCACAGCGCCCTATACCATAAAGGAGGCACCAGGGTCCACACCGGCCTGGGGAGAGACAGCCCACAGCAGCTCCAGCTCAGAGACGGAGACGGCAGAGTGGTACCCTGCAGAGCAAGCCGCTCTATCTCCTTGTCCCTCCACTTGAGAGGTTCATCGGGGTCCCCTATCTGGTCCAGAGAGGGTGGCCCCTGTGCAGTGCAGTGCCCCATCTCATCCAGTGGAAGCTGGAACGGAACTTGGGGGCTGGACAGTGTGGCCGGTACCCTCCCTCACCCTGGCTAGCTAGACTGGGGGTCCGCCTA
0.9960547277553994 TGAACTAAATAAAAACAAGCAAGTTCACCAAAACTCCTCCAAATATGAATTAAACCAGGGTATATATTCTTTTCACACTAATATATTGCTATTGAATGAGCTAGTTATAACAATGATCTCTTCATGATTGTATTTACATACTATTTTATAACAGTTTTGTTCTGACTTTGTTTCTGAACAAAACTATGAGCCCTTTAAAGTTATTATTTATATTAGTATAGCGCATATGTTAAGAGCACAGACTCAAATTCACAAGTGAATAGTGCTCAGGTCTTAATTTAACAAGGTGTCTGATGGATGACATGGAGACATCAATGCCACTGAAAGAAATGTTTAATGTCATTCACACTTTGAGAAGCAAGAGGCATGGCATACCATGCAGGGCATACCATGCAGGGCCACAGGAAGAGGCAGCAGATTTGGACAGGAGACAGAAACAGGGCTGTAGGGGAAGCCTAGGCCAGACGTTTTATCGGGGTTTCTGTAGGAAAGGCAAGGTGGAGTAGAATAACCTGTTCAGGATTGAC
1 AATACTTACTGAATCGCCATCATCTTTTTTAGAATCCCTTTTCAATGGCTCATTCATATCTTCTTGGCTACGGAAGCTGAAATTCTGGATTGCTTCAGTGACACCTCTAAGAGAGCTATAAATATCTTCAGAGTTCATATTTTCTGTGTCATAATCAAATGCACTATGAAAAAGACGACACTAATTTTTACTTAGGTGTAGTTTTAAAATACAAACACATCTGAGGAGATTATATAAGGATATTTATAAAGACAGGATTAGAGAATGTATATTCTCAGAGCATAATTAGCAAAATAAAAAATAGCAGCTATATATCATTAAAGTACATGTCTCTTTGTCCTTCCACCAAGGACACCTTACAGTTACTCTAGAATGCACAGACCTTAA
0.9087530409870511 TCCAGAAAAAGAAAAGGAAGGTAATGGTCATTTTTCACAACTTTTTGACATTGATTGAAGCTTTCATTCTTTGGTGATAAAGTCTGCCGAAGTAAGTTGCATCATCAGGGATCTACATGACTAAAAACCTCTGCCATGAATTCAAAGGTATTCCTCTCGGCTGTAGGCATGATGACTGTCCTGTCAACAGCATGGAGTGGTGGAAACACCACTTGTCACTGATGCAGCTGCTGGTTCCAGCATTTCTGTTAATTAGCTGGTTATCCTGGCCATGCCATATATACTTTTGAACCTTAGT
0.9530547186696813 CTCTTTGGTGTCTCTTAATTGTCCAGGGCAGAGCAATCCTTGGAGCAAGGCAGCCTGCTGCGGTGGTTTGCAGAAGAGGCACAGTGGGGCGGGCTGGAGGCCGCAGGGGCAGAGTGGGCCGAGGGCCTCTGATGAGGTGTGAATGAGGGAGGCAGAGCAGGGCTGGTGTGGACAGCCCTGTCCCAGCCCTATCTCCCGTCTGCGACACCCTCTCCACACCCCAGTGCTGATAAGCGGGTGTGAGCCACGGCCGCCTTGTGACAGGCCCTTCGGCAGGGAGGGTGATGGTGGGGGTCCACTCCACTTCTGAATTCAGACGTCAGCATCTTTTTCCCCCAACCCCCATTGCCCTGTCAGACTAGACAGGCCCTAGCAACCAGGCACCCTCCCTGACAGTCCCTGGCTTGGAGATTTGTTTCTGCTCCATGTGGCCTCAGCCTTCTCAGAGATGGTAGGAGACAGACCTCCCTCAGTCC
0.9904667095910338 GGAAGAACAGGTTGTCATTCCTGGCTCCCTGAGAGCTCTCTCCACCAGGAAGCCTACTGAGATTAGGGTCTCTGGGCTCCTGGCAAAGGCTCCCTGCCCTTTACCTGCAACCTGGGGATGGGGGAAGAGGGCGCATGAGGGGTCTCATTGTCCCCACCTCTCAGAAGGAAGTCTGTGCCAACCTAAGGCCTGGCGAGAAAGGACAATGCCACTATGGGCCGTGGCTGTGGTCACAGCCTCACCATGAGGCCTGCAGAATGCAAGCCTGGGACCTGGGTGGCCAACTCCAGGTGCATATACTCTGAATGGTTCCCAGCAGCCCTGCAAGAGGGGACTTGCTGTTCTGTTTCACAGCTGAGGAAACCACGCCTCAGAGCAGCGAAGAACTTGGCAACTAAAATGGAGCAGAGTTGGGATTTGAACCCTTGCCTCAAAGGACATGGTAGGTGTCTCTGGGAAGGGCTCATGAACAGGAGGCAAGACTTCACCGATGGAATGTAGGTCCTGCTGGGCATGCAGGGATGGCGAGGGTTCCACAGGGCTCCTGAGGAGGCAGCCAGGGCAGCAGTGGTCCCAGCCAAGAACAGGGAGCAGGCAGGACACAGGGTACGTGCTGCTATGCAGATACCACAGGTGGGAGTCATGGCTCCCTCCAAGTTTAGACTCTGAGAAAGACTTTGCAGTTGGGGAAGGGCTCCTGGGGCCACTGGTCATAGCTCCATGACCAGCTTCCTGCACAGCTTTCAGAATGTCCCCAGCCAGCTGATGCTTCAAGTTCCCTACCTAAAAGCTGAGGCCTGGAAGTGCTCTACCAGCTCTGGGCTCGGTGATTTGAACGAGACCCAGCCTGGACAGGGGCCCTGCTTCTTCTTACTCCCTATCTCATCCACGCTGGGAGCGTGTATGGACTTGGGACCCCTCAGCTGAACAAGGAAAATCCCTGCCTGGCTCCAGCTGACTCCAGGATTCCCCAAGGATGAGAAGTCCAGGAAGAAGGGCAAGGGAGAGTCCATTTCCAAAACCACTAAAAAGACAGTCCAGACTCAAACCCCAGTCTAGACTCCACCTTAGTTCTCAGCAGCACCAGAGGAGTCCTGCAGAACGTCTGACCACCATCCCTCCTGCTGCAGCCCTTCTGATGC
0.9047487949115894 AACACTGCAATGCTATGCAACCAGGGAGAGAGAATCGAGAGGCCCTGGGGAGCAATACTGTAACAGGACCAGAGAAGGCAAAGGAGAAAAGGGGGTTTCCAGTAGAAAGCTGGGTAACACTAACCTTCGCGAGGAACACGTATTTCATCCGAGCTTGGGTCCTAAAGCACAAACCTAAAGGTAATCAATCACTGCCTCTTCCCCAAAGCAGCAAATGCATTTAATTTACCCGTTCCTGGAAGTGAGCAAAACCCTCACAACTCCTCCACAGGACAATTTCACCAAAGGGATCTAACTCACACCGGCGGAGAACTTGTTCCATGTGCTAAATCACAATCTCTGTTCTGGGTAATGTTTCCAACTGCCTCTCCTAGTCCCTGTACCCTCCCCACCCCCACCCTAATGTGACCCTTTCGCACTCCCACTGCCAGACACACGCTTTAGTCCCCACACAGTGTCGGGGCCTTTGCAAGGGGGAAGAGCCCCGCCTAGGGCCCGGTTCTCCAGACCACCCCTCAGCCCCACCCATAA
0.8854383245313152 AATGGCATTCAACACTCAAAATGGCTGCACATCTGCCGACCCCAGGTAACAGTACCTGAGGCGCTGAGCTGACTCCCTATCCAAAGATCCGGGAAGACCCCTCCACCCGCCAAATATCTGGGGAGATCGTGGCCGCCAATGACCTGGGGAGACCCCTCAATGACACCGTAGATCTTGCGCTTCCCAAGACCCGGGGAGATCTCAATGACCAGGAAAGATCCTGCCCTCCCCCAAACCCGGGAGACCCCCTCCAATGACCGGGGAGGATGCTGGACCCCCAAAACCACGGAAATCCCTCCCCCAATGATCAGAAGAAAAACCCTCCTCCCAAATGACCCAGGGAAATCGAATCCACAGGGACCCCGGGAGATTTCCCCCACAATGACCACGGAAGAAGTCTTTCCCAAATAACCTGGGAGACTCCAATGATCAGAGATCCCGTTTCCCAGT
0.9375617573317726 TACCCCATTTTGATGGGTCACATTCAGAAACCTTAAAGGCACCTCTATCTGGGCAATAGTTCCTTTTGGACTAAAAACAATTAGGCTGTGTAATTTTGTGCTGAATCCCTTCAGATAACTGTGTACGCACAGCCAGGCCACTTTCTCACTGGCATGGAGGCCAGGGCTGTCAGGCCCACTCCTCTGGTTAATGTCAGTAGCACTATGTATAAAAGGTGACTCCAGTGTGTACAAATGTTGATCTTTAGAGAAGTCATGCCTAGACTCACACACACATCCACTCTTTTGCCCAGTAGGTCAACAGCAGGAACAGAGGGCAGCCCAGGAAGGGACTTGCCAAGAGCA
0.7049549972129707 GTTTACGTATCTCGGATGGGTGTGGGAAGAGGAGATAGAAAGATTCTAATGAAAAGATGGAGGGGAGAGAGAGAGGGGGTTGAGAAGAAGGGGAGGCACCACCTTTCTTTTCTCTGCTCTTCCTGGGGATCTGAAAACTCCTCCTAACAGGCCTTTCGGGCTCTTCGGGGCCTCTGGGCAGGGCGGCCGCGCCCGCCTCAGAGGAGTCCTGAGGCTGCTCGTGGCTGAGGCTCTGGGCGGCCTCGGCCCCCGCGTTCTCCTCACGCCCAGCGCCGCCGCTGGGCTCAGCGATGTTGAGGCCGCCGCCGCCGCCATTTTGTTGGGAGGACTCAAGCTCCGGAAGCGCCTGCTTCATCTCGTCGTCTCCGCCGCCGCCACTTTCCCAACTCGCATCCGTCGGCTGACAGGCCTCCGTCTCCACA
1 ACTTCTATTTTGGGGGTTACAGTACCTTTAAAATCTCTTATGATGTTTAATATTTCCTTAATTTTTGGCATCTCAGTTTGATTTAAACAAAATTAATGACTTTTGTGAATGTAGAATCTTCTTATATTTTATGAGTAGTCCAGTAATTGCCCAAAGTAGTTTATTGTGTTAATTCTGTTACAGTTGTCAGAGAAGAAAAGTGAGTTTTAAAGCACCATATTGTCAAGTCACTTTTATACATAGGGAAATTAGGCAAATAAATTTGGTGGCATGTGTTTATCATAGTAGAACTTTCATTAGACTATACCAGTATAAAATTTAAAACTAGATTCACAGTCCTTTTGGCCAATTAAAACATTGAGTTACAAAAGTTTGAGATACTTAATTTTAGTACATTCTATTTTATTAAAGT
0.9564868606535281 TGTTCTCCCTCCTAAAACTAATTTAGTTTTTTTCCAGTACTAACTAGAAAATGTTTAGTAGCTGAGGACTGAAGGTATATAAACTTTATGTGAGGTCAGGTGGAAGAGAAATCACTGGTTACATATGTGAGGAAACACGTACAGTATGCTGTTTACGCTTCTGATGATGGGGGCTGTCAACAGCTCTTTATGTAACACATACCAATGTGCTGTGGACTCTATTGAGACAAAACAAATGGGGGTTCTAACCTCAGAGAGCTAAAAGTTTTGCATAGACTATCGAAGCTAAGACTCAAGGCCAAGTGTTAGTCTTGTCAAGACCTTGCT
1 AAAGTATTGAGAGAGAATTATCTAGTCGGGAATAAAGACACACAGGTGAATGTTATAAGAAATGCATTCAGTGAAACCTTTGAAATAGCTGTGTGCTCTCTATGCCAAGTCATGGATTTAAAAAAAAAAAAGGTCTGCACAATGTTAGGATCAGAATACAATGGTATGACACTTAAGAGTACTTCCAGGTTGCTTGCTTCCTGATATTACAAAAGCACGCTCAGTCATCTCTGTCCTCTATCACCAAGCACTCAGTCCTGTGATGAAAGGATGCTGGCATTCTATTTACATCAGCTAAATTTACAAAGAAACTGACTTTCTGTTGATGGCCTGTTGAGAGGAACAAATTAAAATAACTCTAAATCATGTCTGTAATTTTCTGAAGAGATACGCTTAT
0.8902508903261117 ATGGAGAAGCTGGCTTCTATCACATCTCACCCCTCCCTTCATCAGCAGCTGCAGCTGTGCCAATGGTTGGCACAAGGGCAAGGTGACCACATGTTAACCAAGTGGCTGATGACAGCCATATTAACTGTTTGGAATGATGTTGGAGAGATACCAGAAATTGTGAGTAAATGGCAATCATCTACTGACTTGGTGCAGGTACTCTGGGAGATGGGTATGCAGCAGGCTATGTTTGATCTGAATACTCAGGGGCCAGATAATGAATGTTTTACCTCTCACATGAGGGATCTTGCACTGGGCCCAGTGCCCCCAAGTGCTTTTGGCTCTGTGGCTGCTGTTCTCACCCTATATGTGGGGTGCCAT
0.9811231203653469 CGCCAGGGCCTCGCGTCCTCCCTGTCCTCCTGGGCAGGCTCCAGTCCCAGCCCTGGCCACGCGGGCACACCCGGCATCGCTCAGGCCCCCGGAGCAGGCCAAGACCCCACCCGGCTTGGAGAGGTCGGAGGTCGTCGGGCGTGACCTCTGGCCGGGTTGCCCGCCCCGGCCACCCGTCTCGGACGCTCTGTTTACTGTTGGCCTGGATCTCAGAGACCCGAGAGGGTTCCTTGACTTGGGCGGCCCTGCGCCGCGGCAGGACGCGCTGGCCAGTGGAGTTCCTTAGCGCGGCGAGCAGGAGGGTGTC
0.9659277130048055 CTTTCAGACATCAAACGCCTGGGCCTTTACAAAAACCTGCTTCCGCGCCCCCGGCCGCGAACCTCTGCTGCACTCGCCCGCTGCGCTCTCTGAAGGCCGCCTTTCTAAGCCAGCGCGCGTCTCCAGCCTTGGCCTGGGCTCCTGCTCGCCTAAGGAACCAAAGACAGTCTCCAAGCTAGGAGGTTCTGGCACCCCAGCCAGGGCTCCCGCCCCACCACGAGCCCGGGCGGACCTGGAGCACCGGTGGCCGCTGGTACGCCTGGGGCGAGCCGGTGAGGGTAGCCCGAGGCCCGGAGAGGTCTTTAAGCATCGCGGGTCCGCCTCCC
0.9594013568097238 GTGGGAGGATTGGAATGTCCCTGCCGCCCTCCGGGGAGCCTGGAGCCGGGATGGAACCCGAGCAGGTGGCTGGAAGTAGAGAGGGTGCGCCAGTGACCCGAAAAAAGCCACCCACCTTCCCACCAACTAGATCTGGGCGAGGGATGGAGACCCCCTGCCTCTAGCTAAGGGAAGAAGGTCAAGTCTGGCGAAACAGCTGCGGGAAGTAGGAGGAGGCCTTGCCCTTCAGAGCAGCTCAATTTCTTTTCTCTCTGGTTGCCTCTCCACTGAGGGGAAAGGGTGGGGGGAGATGGCGAGGTAA
0.9698656824036271 CCTATGACACAAGAGTGTGTAGAAGGGGGTAGATGTGAACAGTGAGTGCCAAAAGAGCATGTCTGGCTTATCTCTAAGCTGTCAGACATTCTCAATACCTTTTTTGATGGCTCTCCTGCTTATGTATTTTTCTATAGCCAATTAAAAACTATTGTTGTACAGTTATTATGTGCTAACACTGTGTTAGGCACTTCAGAATGTACAGAATGATAGCATGGTTTGGATCACCTGACACCTCATCCACTCAAAAAACTTATGTTTAATGTCTATCAGGTACTCAGAAAACCATCAATAGCTCCTCGTTATCTATCAAACAAAGTCCAAGGGCCTTAATTTAAACCTAACAGACTCTCCATGTTTTCATGACCTCAACTCATGTTTTAAACCTTATCTCTCATTTCTCTGCTTATTGAGCTCTTGTGGACCAGGAAAACTGGATGATTTTCTCTT
0.8865392383817534 GGCCGGCCCGGGGCCGGAGCACTGACCTGCGGCAGCCGGAGGAGAATGCCGGCGGCCTGGATGAGCTCGCAGCCCAGGATGCGTAAGTCCGTCTCACTGGGCAGGTCGAGCCCATCCTGCATGGATGGGGTGGGCGAGAGCCTCTCCTCCGGAATCAGAGAGTGGTCGATGGTAAGTGAAACTTCCGAGTACAGGCGATCGCCGATCAGGATCCCTCCCGTCGTGGTCGTCGTCGTGGTCGTCGTCCCGGAGCTGGAGCCGCCCGCGCTTGGGGCGGCCGATGAGGCGGCTGCGGCAGCAGTAGCTGT
0.8976078255235487 GCCCGGGGGCCCGCGCGGCTGGGAGCGGAGCGTGTGCTGGGGAGAGTTGGGGAGTGCGCGCGCGCGAGTGTGTGTGTGTGTCGCTCTCCGTCTCCTGTCTGGGCTCCAGCGCGCTCGCGGGCCCCCCGGTCGCCTCTTTCCCGGTTCTCAACCCTGGCCCCCACCGAGTTGAGACAGGGCACCTCGTAAAAAGGTGCTTCTGGCCGAGCGGGAGGCGGGGGGACGGGCGGCGGAAAGCCCCCAGCCCCGAGTTCTTCTCAATAAAATCGGACAAAAAATTCAGAGAAAAATAGGAGCGCTTGAGAGAGCAAGCGAGAGGGGACTGAGGTTCGGGAAAGGACCGAGGGGATGTGCCGTCGTGCGAGGG
0.8109569271207158 CTGCTTCAAGGCTCAGGGCTAAAAGGGAGCCAGGGCCCTTCCTGGAGGCGGGAACCCAAGTGGGAGGCAGAGCGCCTGGGCCCGCTCCTCGATCTGCTGAGTGACGACCCTGTACAAGTCATTTCTCTTCCGAGAGCTTCAGTTTCCTCACGTGCCAAGCGGACGGGTTGGAAGTTGGTCTTTGCCAGCTCTGACACCTTGTAAGTTTTGAGTCTTGCTGGGAATCCAGGGCGGGGCTCACGAGGAAAATCTTGGAAGGGGATTTCATGGCTGGATCTCTTCCACTCAAGCTCAGTGCCCTAATTTGACGCCTTAATAGTAGACGCAGGCTTTTCCATTTTCCAGGAGCCCCCTGACGCGGCCGCTTCCTCCTACGTCTCCTTCCTCTTCCTCTAGCAGGGGCAAAGTCTCCACAT
1 TAACTCAATATTAATATAGTAAATTTTGCTGTATAGATTATGAAACATCTTCTTAAAGTCCTATTTTGTATATGGTGTATAAAACATCGATGACATAAATTCCACTCAAAATTCTCTGTGTGCAGAGACATCTGCTGCCTGGCCAATATCTATTCTCACTTCCTCCTTATTAACACAATCTCTGTATTGTTGATAGCAACAATGTGCCCAGCTACATATCCTAGCCACCCTTGTAGATAGGTGTTAAAATTTAAACAATTTTAAGAGGGACTTCAGAGAAGCAGAAAGCATTCCATTGACAGGCCTTTCTTTTTTTCTACATCTCTATTTCTAAAACTCAGATGTGATGGTTGGAGCTGCAATAGACAGACAGAC
0.8965293299977206 TCTGTCACAAATGTCTGCTTGTATAAATAGGAGGGGGTACAAGCATGTGTCCACACACGCACACACGCCTCTCTCCGGATAAAGAGGTCTCGGGGTGAGGATTCTGGAACCCGTCCTTCCACACCTACTGCGTCTGGTCACTGTCTCCGAGGCTGACATTCCTCACGCCGAGGGATGGGCAGGCAGAAGGCTGCAGGCAGTGCGCCAGCCAGGTCAGCTTACAGCGAGCTGTCAACCCAGTCACTGACGCCTCAGCGAGGCCATAAATAACAGCGGTGAAGCTGCAGCAGGCCACCCGGGCCTCCCCCAAACCACTCCTCTGCCATCAATCTCGCCTGATGACTGCTTGGCGTTCAGGCTTCC
0.8566681869704713 AGCCGCCGCCGAGGGCTCCGGGGCCAGCCTGAGGGAGACCGGGCCGCCGCCGGGGGCTCCGGGGCCAGCCTGAGGGAGGCCGGGCCGCCGCTGATGGCTCCGGGGCCAGCCTAAGGGAGACCGGGCCGCTGTTGATGGCTCCGGGGCCAGCCGAGGGAGGCCTGACCGGCCCCGATCCTGGTGGTGCCCGGGCGTGCGGGTGAGCTGTGGGCCCTGGGACCCCCGCCCCGACCCCAGGACGCCGGGACACCAGCTTGCGGCTCTTGCGCCCGGGTGGGCTGTGGACGATGAGTCCGCACAATGGGTTGCCGTTGGCTGCCTCCTGCCTGGGGCAGGTGTCGCCGCGCCGGGGCGGCTCTTC
0.4518197533495539 TAATTCTACTGACTATCCTAGAAATCGCTGTCGCCTTAATCCAAGCCTACGTTTTCACACTTCTAGTAAGCCTCTACCTGCACGACAACACATAATGACCCACCAATCACATGCCTATCATATAGTAAAACCCAGCCCATGACCCCTAACAGGGGCCCTCTCAGCCCTCCTAATGACCTCCGGCCTAGCCATGTGATTTCACTTCCACTCCATAACGCTCCTCATACTAGGCCTACTAACCAACACACTAACCATATACCAATGATGGCGCGATGTAACACGAGAAAGCACATACCAAGGCCACCACACACCACCTGTCCAAAAAGGCCTTCGATACGGGATAATCCTATTTATTACCTCAGAAGTTTTTTTCTTCGCAGGATTTTTCTGAGCCTTTTACCACTCCAGCCTAGCCCCTACCCCCCAATTAGGAGGGCACTGGCCCCCAACAGGCATCACCCCGCTAAATCCCCTAGAAGTCCCACTCCTAAACACATCCGTATTACTCGCATCAGGAGTATCAATCACCTGAGC
-0.5177682556998547 GTATCTAATTTAATCCTCAAAAGGATCTGAGATGAACCAATGGTCTTCTATTTCTGATGAGGTGACAACCTCAGAGAGGTCAGGATGCCAAAGCTGCACAACTAGGAACTGCAGCCTTGAGTATGAACTCACGTCTGTCTGGTGTCAGAGGTCACAATCCTGCCATGATTCTAGTAGGTGTGGGATCTCTCAAAATAAAACACTCAATTAAGTTGATTTTCATCAACTTGGTGTTTTTTTCCCTATGTTAGTGAACCTTGATGGGAAAAATAGCTCCTGGACAGGTGCAGTGGCTCACGCCTGTAATCCCAAACACTTTGGGAGGCCAAGGCAGGCAGATCACTTGAGGTCGGGAGGTTCAAGACCAGCCTGGCTAACATGGTGAAACCCTATCTCTACTAAAAATATCAAAAATTAGCCAGGTGTGGTGGCGTGCACTTGTAAGCGCAGCTACTTGGGAGGCTGAAGCACAAGAATCGCTTGAACCCGGGAGGCAGAGGTTGCAGTGAGCTGAGATCGCACCACTGCAGT
-1 GCCCCTGCCACATCCATGCTCACTGTCTCTTTGAACGCAATGGTGCAGTGTCCTGCCAGGTGAGCTAGGCTTCAGGCGTGGAAGGAAAAGGGAGGGTCTGGGGAAAGGAGTAGGGCTATGTTTAGGGCCTGGGTTGGGGGTCTTCATAGGAGAGAGGTGGGCCTGGGCCCAGGAACTGTTTGGTGGGGAGAATAGGACCTGAAGCAGGGAAAATATAGGGAGGAGGGGAGCCAGACCAAACTGCTAGCTCCTACCCTTTGTGTTGCCCTAGTGTAACGTGGGCTGGGCTGGGAATGGGAACGTGTGTGGGACTGACACAGACATCGATGGCTACCCAGACCAAGCACTGCCCTGCATGGACAACAACAAACACTGCAAACAGGTGCAGGGAGCAGGCGGGCAAGGGGGCGTAGTGG
-0.1474330905004644 TGGTGAAACCCCATCTCTACTAAAATTACAAAAATTAGCCGGGCGTGGGCTGGGCACGGTGGCTCACACCTGTAATCCCAGCACTTTGGGAGGCCGAGACAGGCAGATCACGAGGTCAGAAGACCGAGACCATCCTGGCTAACAAGGTGAAACCCTATCTCTACTAAAAATATAAAAAATTAGCTGGGCATGGTGGCGGGCGCCTGTAGTCCCAGCTACTCGGGAGGCTAAGGCAAGAGAATGGCGTGAACCCGGGAGGTGGAGTTTGCAGTGAGCCGAGATGGCGCCACTGCATTCCATCCTGGGCAACAGAACAAGGGTCTGTTTCAAAAAGAAAAAAAAAAAAAATTAGCCGGGAGTGGTGGCAGGCGCCTGTAATCT
-1 GGGGCCAGGTTTTTTTCCCCCCGGAGCCGCGCAGTCTCGGGGCTGTTGTTCTCAGCAATCGCAGGGCCTCGTGTTAGCAGGAAGCACAGCCAAGTAGGGTTTCCTGCGTGTTGGAGAGAGGAAGCTCCGTAATGTTCTGGGAGGCGATGGTTAAAAATAACTCCGGTATATAAAGACAGCGGAGGGTCCCCTTGTTCGCTCACTCGGGCGCCGGCCGGCTGGACGCAGGGCCGAGCAGGTGGTTTGGGGCCTCGGGAAGGCCAAACCCCCGCCTCTGGGCCCCTGGCTGGGGAAGACACCAGCCAAGTTCAGAGCCCCAAGTCGGCCTCACTTCCACAACTCAGCGTCAGGGACACCGTGGGCGTTTCTGTTTCAAAACGCTTTTCTCCAGCAAAGAACGTAACCTCAAGCTGCTGTCAGGGTAGAGGAATCCCTGCCCCCCGCCGCCACCCAGATAGGTTGGGCCGTGATTTTGGCTGTGCCTGGCAGTGACGATGTAGCGCACCCAGGCTGGGGGGCGCTGGCAGCCAG
-1 CTTCTAGGACAAAACCCCAACATTCCTCTCAGTTCAGCTGCTCACTGAAGACCTCTTCAGTCCCTCACAACCACTCAGACAGGGTCCCAATTCCTCTAAGGAGTCCCTCAGAAGCTGCCCCTACAGCCCTGCACATCCTTACCACACATTCCTCTTCCATCTCAGCACTGCCCCAGCCTCGGGACTGGCGCTCCCTCGGCCTGGGGAACCCATGACACTTGTCTATCTTGCCCGCTTCTGTCTCCCTTGGCTCTCTCGGCACAAGGCTCTGTAGCATCTTGGCTTGGCCTTCTCTGACGCCTGCCCAGCCTTCCCCTAGGGCCAAGGCCCCCCACACTCTGCCCTGAGTACAGATCCAATGCCCCCAGAGATAGTCAGGGCCTGCACAGCCCAGCAATGCCAGGAAGGGGCAGTATTGGTGACCTCAGCCCGTGTGCACCCCACCTCATCTGCCAATGGGGTCAGAGCTCCCCCACCCACCTTCTGGGCTCCTCATCACCCTCCTCCAGGCTGACAG
-0.9392023243599643 CTTCAAAGCTGCTCTCTGAAAGGGAATGTTCAACTCTATGAGTTGAATGCAAACATCACAAAGACGTTTCTGAGAATGCTTCTGTCTAGATTTGATATGAAGATATTCCCGTTTCCAACGAAATCTTCAAATCTATCCAAATGTCCGCTTGCAGATTCAACAAAACGTGTTTTTCAGAACTGCTCTATCAAAAGAAAGATGCCACGTCTCTAAGCTGAGTTCACACATCACAAACAAGTTTATGAGAATGCTTCTGTCTAGTTTTTATTTGAAGATATTGCCTTTCTCACCATCGACCTGAAAGCTGTCCTAATGTTCACTTCCAGATACTACAGAAAGAGTGTTTCAAAACTGCTGTACGAAAGGGAATGTTCAACTCTGTGACTTGAATGCACACATCACAAAGAAGTTTCTGAGGATGCTGCT
-1 GCCTGTTTCACAGCCTCGAGGGCCAGGACAGCCAACGAAGTCCCGGATGAGCGCTGTGGCGGCTGAAATAAAGCAGATCCGAGCCAGAAGGAAAACAGCCCGGATGTTGATGATTGTGCTTTTGGTATTTGCAATTTGCTATCTACCAATTAGCATCCTCAATGTGCTAAAGAGGTAAAACTTATCTGTTATTTGAAAATGAAATAGCCTGCCTTTTCTTGATTCTTAATTAACTTTTTTTTTTTTTTTAACTAAGCCAGAGAAAAATCTAAACTTTCTGCTTAGATACCTTGTCAGGCCAGATGACTCAGTTATGTTGTTACCAGCAGGTAAGGCGAACAGCCTTTAAGAGTGCTCAGACATGTGCTTTTGTCATGCGTATTCTCAGTTGCATGGCAGACATAAAACAGATGTTTCTCCAATCTCTTCAAGCTAGTTGCTAAACCTTAGATGCAGACAAAGTTCTAATGCGTAACAACTCATTTACAGCTTGCAGTTCTTTCTTGATGAGAACAAACGGGTTTTTCAAAACTTCGTTTCCAAAAACA
-0.592106099749513 TAAAATTGCTTAACTTCACTCTGGGGCCTAGAGCCTGAAGGAGAAAAAGTGACCTTTTCTCTTTCCTGGAAAGGTTGAAGTCAGGTATTTGTTTTGTTTTGTTTTGAGGCGAGTTTCACTCTGTTGCCCAGGATGGAGCGCAGTGGTGCGATCTCAGCTCACTGCAACCTCCGCTTCCCGGGTTCAAGCTATTCTCCTGCCTCAGCCTCCTGAGAAGCTGGGATTACAAGCACGTACCACCACGCCTGGCTACTTTTTCTATTTTTAGTAGAGACGGGGTTTCACCCATGTTGGTCAGGCTGGTCTCGAACTGAAGTCAGGAGTTTTCTAGCTCCCTTTGATGAGGTGGCAGCTCTACCTGGGTCTCCACTTTAGGCAGTTCCAACTCCTTGGAGTTGGTCCATATCCCCTTTCTGCCTTAGTTTCATTTTACCTAGCATTTGTGTGTGTGCATCCATGCACATGAATGTTCATACACTGTCTTGTTTTGGTGTGAGGGGCCCAGTAGTTCAGTTCACCATGTTGCCAGAAGGAGGTG
-1 TCCCCTGGGACGAGACTCCGCTGGTACCAAGAGAAACTTGCTTTCTAAACTAAGCTCTCCAACCGCATCGCTCCGGGTCCCCGGAGGCACCAGCCACGCCACCCGATGGAGCAGAGCGTTACAGGGCTCCGCCGCGCCAGGCTCCCCAGACTCTGCCACCCCCACGGCCGCCCCTGTAGGCCAGGCCCCGCGAGCTGGGAGCGCGGGTGAAGTTACAAGGCGACCTCCCTGCAGGCTTCCGGCTGGAAACGGCCTTTTGCGAGAACACCACGTGCATGTCCTCCCAAAAGCGATGGTGCCGGGTGGCCCAGAGGGCGCAGAGCCACCGCCGGGCAGGGAGCGGGCGCACGGACCTAACAGGTGAGCACCCGGTAGCCTCCACCGGCGGGGGAAGCAGAGGCCAAGCAGCTGGGAGCTGGACATCCCGAAGCCCCGAGGCAGTCCACTGGGACTCAAATCCTCCCGATATTCTACCTAACAGCCCATGCCCGCGCCCGCCCGGCAGAGCCGCGCGCCCGAAGCCGTCTTACCTCCTGCGGCGCCTCTTGGCGGAGCCTACAAAGTCAGCGTGTCCAACACGTCCCTGCCCTCAGAGCCACCTCCGGTGCCGGCGGAGCCCCGAGGTCGCCGCACTCTCGGAGGAGCCTGGGATCCAGTGCGCGCCCTCGGAGCTAGCGACC
-0.9906867468445576 TCAAATTCCACTTTGTTTTGAAACCGGGACTATTTTCACTCTGCTAAAACATCATGAAAATCATGAGATCAGAAATATGGCCAAAGGGCTATCTTATACACCAGGATTGTCAAATCGCAGAGGTCAGAAAGTGTTTTCTTAGAGCAAGGCAATTCAAACTATGCTTCCTTCAGCCACAGTGCCCCGATCAAAGACCACCACACCGTCTCCCACACAGCCCAAAGGGAAGGAGGCTAGCAGTATCCCCACCCTGCTCCAAGAAGAGCAGATTTGCTCTAAGTGTTTGACATACAGAGCTTCTGACTAAAATTTCATTTAAAGAAAGG
-1 CATCCAGGAGGGTCAGTGTTAACTGAAGGTGGGAATCAGATGAGCCCAGGAGAGTGGCCATCTGGGTCCAGAAATGGCCAGGCAGGACTCCACGGGAGCTGCCACCACAGAGCCCCATGGAGATGCCACGGGGCCCGTGAAACCTTTGAGCAGAGGCCAGGGAGGGTGAAAGGGGGAGGCCAGGCACACGGGTGTGTGCACACACACACACGCACGCAGTCACACACTCACATGCGCACACGTTCAGAGGAACCTATCCACACACACATTCATTCACACACACACTTCCACAATCACATTCACAGACACACATGCCACCACACACTCGCTCACAGCATCAGACGGACGCAGACATTCACACATTCCACACTCACACTCATCCACAGAGCTGCTGTCACACGCACAGCCACACACAG
-1 TCAATTAGGGAACCAAAGTTGCACTATCTGGGCCCAGATTGTCTGGTTGGCAAGAGCAAAGTTTCCGTTGATGAAACAGACATCCCACAACAAAAACCCAAGTTTTCTGTGCTACATGTGCAATATTTGTTATGAATGTTATCACAAGTCATTCATCAAGTTATCTTTATAATCACTGTAGTTAGATGTTTCATGTCCATTCAAGTGACTTTTATTCTGAGTGCAATATTTCAATAGCCTTGTAGTGATAACTAGTGTTGCTTTTGTTTTAGATGATCTATGTGCAGGGCAATGCAATGAAGTTGAAAACCCTTGTAAATAGGAGAGGTTGCAAACCAAATCAAGAGTATTTATTACTATTACTGCTATTATTATTAGGCCTGCCTTTAATTTTCAGTGTAAGTGTTCAGTATGCCGCATCCTGCCTCAGTATTGATCTTGTGTTCTTTGTGCCAATATGAAAAGGAGAGGGTTGGTTCTTTCCTTTATTGTTGAATGCTCCCATTTAATGCTTTATGGCTTTTACTG
-1 CACCATTCAATGAATCAGATGTCCTTTCCCCATTGTTTATTTTTATCGACTTTGTCAAAGATCAGTTGATTATAAGCACGTGGCCTTATTTCTTGGTTCTCTATTCTGTTCCATTAATCTATGTGTCTACTTTTGTACTAGTACCATGCTATTTTAGTTGGTGTAGCCATGTAGTATAATTTGAAGTCAGGCAATATGATGCCTCCAGATTTGTTCTTTTTGCTTAGGAATATGTTCACTATTCGGGCTCTTTTTTGGTTTCTTATGAACTTTAGGATTGTTTTTTATAGTTCTGTGAAAAATGACTTTGGTAATTCAATAGACATTGCATTGAATTTGTGGGTTGCTTTGGGCATTGTGGTAATTTTA
-0.8821798518723253 TCTGCCCCTGCAATGGCACAGTCATCTTAAGTCACTTCACTGTTGTGGAAGAGACTGTGGGGAAAACCTAAATGATGGTTTAGTTGGTAATTCTACTGACTATTGGCATTTTAAAATTTGGGGTTTAAAAAAATTGTTTGTGGAAATGGGGTCTTGCTGTGTTGCCCAGTCTGGCTCCAAACTCCTGGGCTCAAACAATCCTTCCTCAGCCTCCCAAAAGTCTGGGATTACAGGCATCAGCCATTATGCCTGGCTCTATTGGCACTTTAGAAGCATTCATAAAGTAGGGGGATCCAAAAAGGTGTCTCTCTGGTGACAGTTTCAGGGATCAGGATGCTGGATG
-1 CTTATTTGCAAACCATAGGGAAAGCTGCCTGACCCACCTAGAGAGTTGTGGGTAAGGCCGTGTGCAAACAGGCCTGTACGGGGCATGGTGGGTCACGGGGGCTGTTGGGGAGGAGGGCCGGTGGCACACAGCCTGGTCCTGAGGCCTGAGCTCCATCCCCCTTCTGCCACAGTGGCCAGGGTGTGAGGAGGGTCCCAGTGCCGGGGCTGCCCCGCCACGCCTGGCGTTCACCGTGCCATCTCTGTCGCGCAGGGCCGAGAACTACTGGTGGCGTGGCCAGAACACACGGACGCTGTGTGTGGGGCCCTTCCCTCGCAACGTGGTGACCTCCGTGGCCGGCCTGTCGGCCCAGGACATCAGCCAGCCCCTGCAGAACAGCTTCATCCACACAGGGCATGGCGACAGTGACCCCCGCCACTGCTGGGGCTTCCCGGA
-1 GACATGGGGTGGAAGATGGAGAGGAGGAGGAAGCTGGGTGGGCTGGGAGTGGGATGGCAAGGCCTGAGCTGGGACCGCAGGGGTGGGGATAGAGAGAAGGGGCTGGAGTTGGGAGACAGCTAGAATCATGAGGACGTGGGAACTGACAGGCTGTGCAGGCTGTGAGCGTGCTGAGGACTGTCTGAGGTTTCCGGTGTGGGGTGTGGAGGGGGATGAGGTCTCAGAGGAGCATCAGTTCTAGGGGAAGCAGGTGCTCTCAGATGGGCCGTGTGGGAGTGAGATGCCTGGGGGCCATCCAGGTGGAGGTGCTC
-0.5099916027136731 CCTTAGATTTATCAATATAGCGTATTGTATAAATAGATTTCCTAATGTTGAGCCAACTTGTATCCTTTAAATATATGCTATTTCGTCATATTGTATTATTATTATTATTATTATTATTATTATGTATATATTTTTTGAGACAGAGTCTCTCTCTGTTGCCAGGCTGGAGTGTAGTGGTGCCATCTCAGGTCACTGCAATCTCCTCTTCCTGGGTTCAAGTGATTCCCTAGCCTCAGCCTCCCGAGTAGCTGGGACTACAGGGGCACGCCACCACATTCAGCTAATTTTATTTGTATTTTAATAGAGAACGGGGTTTCACCCTGTTGGCCAGGATGGTCTCGATTTCCTGACCTCATGATCCACCCACCTTGGCCT
-1 AGAACATGAGATGGGGAGGCCTGTTTGGAGGAAGTGGAGAAAGAAAAAGACAACAAATTATTATTATTCAGTGCGTTCATTTGATACCTTGATAAATCAAACAGGAAATCAATAGTCACCATAAGCCTCTCAAATCTACTTTTCTTTTGTCAATTGGGGACGTTACTTCTGTTTCCCAATCCTAGTAACTACAAAGCCCAATATTTCATTATGCCCCATCTCCGCTATTACAAGATTTAATTTGGGGAAAATGCAAACTGCTTTTTAACCATCTCTCTCTCAATGTTAAAAAATGGCTTTTATATTCAAATCGATCTGATAGAAAATATTTTAAAAGCTTGTCATTGCCCATTGCAAATGCTTGCTAGGACACTC
-1 TGATCAGGAAAGTTCTCCCATCCCACGCCAGTGGTCGGGAAGAGAGACAGAGCAGATCTATGGAGGGTCTCATAGGCCACAATAAAGGGTTTGTATTTTAACAATGAGAAGCCAGCAGAAAGTCTTAAACAGAAGGATAGCATGATGTATTTTGAATTCACAAGTCACCCTGTTTTCCTGCTATGAAGGAAATAGGGGGATTGGGACAAAGATGGAAATGTGAAGTCAGTAAGGGAGGCTACTGCGCTCTTGCAGCCAACTGAAGGCAAGAAGCATCCAGGCAGGAGACAGCAGTAGCCTGGACTAGGGTGACAGCAGTGGGTTTGGAGAAAAGGGGTAAGACTGCCAGGAATTGCTTATGGATTGGGCTGA
-1 GTGACATCTCAAATACACTGAGACGGGGGAAATACCTCATTATACTACATGTAAAAGAAGCCAGATTATAACTTCCATGTTTATTATTGATTATCCTGAGGTCCAGGATAGAAAAAATAAATAAGTTCCAAATCTGTAACAGAAATATGATGAAACTGGAATATTTAAAATTTATAAGAGGGTCTATGGAGGGTAAACTTAAATATCTACAAATGTCAGAGTGTGTGAGGAGTGCATTTATTCACTTAAAAGAAAACAGATGGATGGTAATACCATTGGCCAACAACAGCATTTAGAAAGTACAGGGAAGTAAGCAACAGTGTCCTCAGAGAGAGGAGAGCTGGA
-0.2292838719199123 CTTACATTAACTATAAAAGTACACATGCTACTCTCCAAACTGATCTATGATGCAATCTCAATAAAAATCTCAGCTGCCTGGCCAGGCATGGTGGCTCATGCCTGTAATCCCAGCACTTTGGGAGGCCAAGGCAAGCGGATCACCTGAGGTCCGGAGTTCGAGACCAGCCTGACCAACATGGAGAAACCCCATCTGTACTAAAAATACAAAATTAGCCGGGCGTGGTGGCGCATGCCTGTAATCCCAGCTACTCCAGAGGCTGAGACAGGAGAATGGCTTGAACTCGGGAGGTGGAGGTTGCTGTGA
-1 CATGCCCCCACCAGGCTCCCCTTCTGGTGGCGCAGGGAGTCCTGGAGGCCTGGGTCTTGAGAGCCTGTCACCGGAGTTTTTTACCTCAGTGGTGCAGGGTGTGCTCAGCTCCCTGCTGGGCTCCCTGGGGGCTCGGGCTGGCAGCAGTGAAAGTATTGCTGCCTTCATACAACGCCTCAGTGGATCCAGCAACATCTTTGAGCCTGGAGCTGATGGGGCCCTTGGTGAGCAAAAAGGATGCTTTGGCTTGCTCCAGGAAGGGGCAGCCAGAGGAATGTAGATGGCCTTGGTTTAGGGGTGTTGCCAAGGTGGGATGAGGTTGATGATCTGGTTGTGGGTGGGCAGGCCAGGTGGTAAAGGCCATTGCTAACATCTGCCCTTG
-1 ACAAGCTGCTGGTGGTGGAGAGCAGCACCTCAGCAGAAGAGCACACCAACACCACCAGCACTCCAGCTGGCCATCGGCCAAGTGGAGTTTGGCCAGGGCAGTTGGAGGAGAGCCAGGGCTGTGGGGCTGCTAAACAGCCCAACTCCAGAGGAAGACCATCTCCCTTCTGGCTCCCCCATCAGCTGATAGCTACTTCAACTCAATAAAACTTTGCACTCATTCTCCAAGCCCATGTGTGATCTGATTCTTCTGGTACACCAACGCAAGAACCTGGGATACAGAAAGCCCTCTGTCCTTG
-1 CCCAGAGATAGGCTAGGAGTTCCATCGGAGACGACAGGCCCTCTGGATGCTGCCAACCTCCTTTCTGCTCCTTTCCACAAGGCCCTGTTGCCTCCTGGGGAAAGGATGGCCCATGTTAGGCTTGAGAAGCCAGAATGGCCCTGAGCTCCTGTTCTGTTGGAATTTCAAAAGTGAACCCCAAGAGGGAATTAGAGATACAAGAGAACTATTGGGGAAAATTCCCAAAAGAGTAACGGGAGAAGGAGCAAAAGTAGGCAGGGAGAGCCTTTAGACAGAGATGCAGATCCAGCACCTATAAAAGGAAGGGGGAAGGAAAAAGGATCCAGGAGGTTGAACCTTAGACCGTAACATAGAAAGTTCTGAGGAAGTCTTGGCAAGGCCAATGGGGAGACCCAGGGCAAAAGTT
-1 GTTCTGCCATCCCCTACCATGGCCTGGACCGCCAACCGCTCATGTCTCTGCCAAGGCAGAATTAGGATGCGTAGCTCCTGCAGAGAGGGCGGATTTAACCAAGGCTCCCGCTGGCTGTCCTGCCCGGGCCCTTCCAAGTGGCTGACAGGAGGTCGAGGAGAGGGAACCCATGGCCGGTGTCCACGACATTCCGGACAACAAGGACATCGTCTCTGGGCTGGCTGCTTGCTCCCCCATACTGGGAGTAGCTGGAGGCTGGCAGGCACCATGCTGTCCTCCAGGCTGGCTCAGAGTGAGCACTTCATAAATGTCACTGACTGAGTGAGCGGGGAAGGTGGGGGGACTTCAGGAACACTCTTCCCTGGACAGGGAGCTTGGTGGGAGCTGTG
-1 CCACAGCCTTGATCGCATGGCTCATTGCTCCACTCCCTTCCTCAGCAACACCCTCAGCTCCTTTGCATCTCCTTTGGTCCACACCAGGAGACTCCCAGCAGATCCGTAGCCCTCGATCAGCCACATGGGGTTTACCACCCCTGCTGGAGAAAATCGCCTGTCATCAGACTGCGGTCCCCTTCATGGTCCCCAGCTGTGGGAGGCCCTCGGAGCCACACCACAGCCTTATTTTTCTTTCTCTCTGTCCCCTCACACGCTCATTCCATCCTGTGTCCTCTTTGCTCTCTGCGGGCACTTCACTGAGAAAGTAGACTCAGCATTCCTGAGTCGGTCTACAGTTTTCTGTCCTCTTACCCCAAGCCTGACCTCCTCAGAGCCCACCTCCTCCTGTGCTCAGAGTGTAGTGTCCTTCCTCTGCCTCTCGTCTGCT
-0.8742623089982616 GTTTCACCATGTTGGCCAGGCTGGTCTCAAACTCCTGACCTCAGGTGATCTGTGCACCTCGGCCTCCCAAAGTACTGGGATTACAGACGTGAGCCACCGCACCTAGCCAGGTCTTACAACTATTGAAGGGCACAGTGTGGCTCTAAAGTCACGTCTTCCATACTCCAAAGCCCATGTCCTTTCTTCATATCTCAGGTACATGCTCAGCCATACCCACTTCTCAGAGCTCTGAGCTGCTTCTAAGAGCTGCCTGGATTCTGTGAGCCCTTCCTTCCCAGGGTTCTAGCTATATTCACTGGGCCAACTCTGTTGATCTTTTCACTGCCTCTGTCTTCCTCTAAAGACGAATGTAGAATTAGCATTTGTGGCATCTCCTGAGGGTGTCTGTGTTTGAGAGCAGGATTCTGTGATCAACTCACGTCCAGTGCCACCTCTCCAATGAAGCCTTTCTGACCTCCTTGATAGAATGCACCAGGCCATAGCACTTATTTGTTTGTAGATTTTCTTCTACAGGTCTTTAAGCCCCA
-0.7871927244198473 TAGTCCCAGCTCCTCGGGAGGCTGAGGCAGGAGAGTCGCTTGAACCCAAGAGGCAGAGGTTGCAGTGAGCCAATGTCATGCCACTGCACTACAGCCTGAGGACAGAGCAAGACTGTCTCAAAAAAAAAAAGGAAAAGGTCCCCTGAGCCTTCACCTGGCCCTGGCCTCAGGGCACTATTCACCCGGGGCTGCCACTGAGGCAGTGGCATCTGTGCTGCTCTAGGCTTTCATTGGTCTGAGCAGCTTTGGGGACCCATCGGGGCCTCCTGTGTCCTCAGTGCCATACAGACAGCAAGTGCTCAACCAGTGCCTGATCTCACGATGGTGGTTATGCGATTCGAAAGACCCCAGTCCCTATGCAGCCTTCCGAA
-0.7410767659420797 ATGTACATTAAGGGACAGATTTGGCTTTAACTGGTCGCTTTATTGTCTGCTCTTCAGCAATAATTGGCATGTGCTGATAGACCACTGTATTGTTTCATAACATAAAACACTCACAATTCTGATTTTTGTTTTCTTTGCATTTTCTTCTTCTTCCTTTTTTTTTTTTTTTTTTTTTTTTGGCATCTTGCTCTGTTGCTCAGGCTGGAGTGCAATGGTGTGATCTCAGCTCACCGCAACCTCCACATCCCAGGTTCAAGCAATTCTCTTGCCTCAGCCTCCTGAGTAGCTGGGATTACAGGCATGCGCCACCACGCCCAGCTAATTTTTGTATTTTTAGTAGAGACAGGGTTTCAC
-1 ACTAAGAGAGTGACAGGACTGGGGTTCCAACCCATAGCGGTGAGTACTAAAGCCACCCTCCTTCCCCTCCGCCAGGCCAGCAGATGAGTCGTTGGCAGGATCACTGCATCTGTCATCCCCTCGCCCTCACTCCAGCCTTTTTTTCCCTCCACAGTCCTCACTGGGCTTTGTGGCCCTCGTGCTGAGCACACTGCACACGCTCACCTACGGCTGGACCCGCGCCTTCGAGGAGAGCCGCTACAAGTTCTACCTGCCTCCCACCTTCACGCTCACGCTGCTGGTGCCCTGCGTCGTCATCCTGGCCAAAGCCCTGTTTCTCCTGCCCTGCATCAGCCGCAGACTCGCCAGGATCCGGAGAGGCTGGGAGAGGGAGAGCACCATCAAGTTCACGCTGCCCACAGACCACGCCCTGGCCGAGAAGACGAGCCACGTATGAGGTGCCTGCCCTGGGCTCTGGACCCCGGGCACACGAGGGACGGTGCCCTGAGCCCGTTAGGTTTTCTTTTCTTGGTGGTGCAAAGTGGTATAACTGTGTGCAAATAGGAGGTTTGAGGTCCAAATTCCTGGGACTCAAATGTATGCAGTACTATTCAGAATGATATACACACATATGTGTATATGTATTTACATATATTCCACATATATAACAGGATTTGCAATTATACATAGCTAGCTAAAAAGTTGGGTCTCTGAGATTTCAACTTGTAGATTTAAAAACAAGTGCCGTACGTTAAGAGAAGAGCAGATCATGCTATTGTGACATTTGCAGAGATATACACACACTTTTTGTACAGAAGAGGCTTGTGCTGTGGTGGGTTCGATTTATCCCTGCCCACCCCACCCCCACAACTTCCCTTTTGCTACTTCCCCAAGGCTCTTGCAGAGCTAGGGCTCTGAAGGGGAGGGAAGGCAACGG
-1 AGCACCTGGAGAAGCAGGTCAGACTGCTCAACATCCGTCTCAACCGGGTGCTCGAGAGCCTGGACCGCTCCAAGGACAAGTGAAGGTCAGCCGGCCGGGCGGGTCCACAGTTACCAGCACGCTGTCTCAGAAAACGAAAACGGAGGAAAAAAACCCCAAACCCCAAACAATCTTAATAAACACGACTGAGCAAGAAAGTGGCGCTGTGTAGGGCTATTTCCACCCACCCGGCAGCTCTTAGGACACATTCCCAGAAGAGCGGAAAGATCATTGACGTGGAACTACACACGAAGTGTAATTAGTGGGGGAAAAAATATTTTTTAAACAAAGGATATAACCAT
-1 GTTCACGATGTACAGAGAAACCTTTAGTCCAAATTTAAAATATGTAAGGGGGAAGCTTTAGGCTAAACTTGATTTCACAATTTTAATCACCTCTTTAAAGGCGCCTTCTCCAGATGTGATCCCATTCTGAGGCGCTGGGGGTTCCGGCTTCAACATAGAAGAACAGAGTTGGGCCGTAACAGTGGTATCTGTTACCTGCAACCAAGGAGCCCTGGCCCATGCAGATTATTACAGAGTGCTGTCACCACTGTGTGAGATAAGGCAATTCTGCTGTGGGAGGCAAGAAAACAAAGTGGATTTTGGGAAACTGGAGGTATGTCAGGTGC
-1 CAGGCAGGAGAGTAGGGGTTGCAGGCCCTGCAAGGCAGAGCTAGAAGGCAGGTGGCTGCTTGGCAAGGAGCTCCACAGAGCTTGCGGTGGCTGAGGTCATACTAACACATGCAGCCAGCACCCACGGGTACAGTCCACAGCCAGTGCTGACCTATGTCCACGCCTTCCTCCCCACAGCTCCAGGGTGTGGGCTCTAGGGGACCCCATTACACAGATGAGCAGACTGAGGCTCCAGGGTCTAACTCACTCCTATGGCATCCCAGAAGCACTGGTATCCACGCCCTGACCACCAAGCTGTGTGCCTTTCCACGGTGACCACAGACAAGAAGCTGAGCTCAGAGAGGCACAACAGCTCTCTCACGCTTACACACCAGGGGCTTCCGGTGGAGGGAGGATTTGCGCCTGGGCCTGGGCCGTGCCTGGCATTCTTGCTCACTGTCCGCGCCCCACCCTCCTGG
-1 AGGCAGGAGGGCAGGAAAGAGTTTCGGGAGCTCGGGGCTCCACAGGCTGCAGGAGAGTGCAGGACACTGGGTGAGAGGAGAGGCTGGCCGGGCTGCTGGGCTGCTGGGCTGCCACAAGTGCTCTGGAGAGGGGCCTGGGCCTGACTGAGCCCCTAACAGGCAGCGGTGGGCGCACTTGCCCTGACCACATAAGCACCATCGCCCCTTTCCAACACCTGATGCCCTCAGCATTTCAAAGCACTGGAATCAAACTGAACCAAGCCTGGACCAGCCTATTCAGGACCAGCGCAGGGCTCTC
-1 GAAGAACCAAGTCCTAAAAAGGGGGTCCTGTCCATTGTCCATTGAGTATCAGGATGAACTCAGCCACTCTGTCTGGTTCTCACAGGGAATGGCTGTGAGAGGGTGAAGGAGAGTATGTGAGTCTCCTAGGGCTGTTATAACAAATGACCACAAAGCCGCCAGGATGCAGCCTCTGAGACGTGCTCTCTCCATTAGCAACGTGCATGCTCCCCCCTTCCCCACCTTCCAGACTCATGGGCCTGTCGTTGGTCCATACATCCTGCTCTCTCCTGCTCAGGACCTCTGTCTGAAACACCATCCTGCTCCACACTCCTAACGGCACAGCCATCAACAAGCAGCCCAGTCCAGCAGGAAAAAGTGCTTTCTCTTACTCAAACTTCCTTAATTCAGAACAAAGTCACGGTACCCGGGCGTGCCCTTCTGCTAATCATGCCCCTAGAATCGAATCCAATTTTCCTTTCCCTGGAAGGTAATAGGAGGATCTAGAAACTGGCATAATCCAC
-1 TCAACATCACAGTCATTTTTGCTCCTACAAATCTCTTGGACCCTCCACCTCCCTCTCCTCCGTGCAGCTTCAGTGACCCTTGGAGGCATCTCATCCCTCAGAGGTTCTCCCCTTCCTCTGCCAGGGCTCTGTCCCCTCACTGCCTTTATACCTGCCGCGGTCTGGTACCCAGGTGTGCACGCACTCCTCCCTAGAATCCCCACCCTCCCTGGATCATCCCCCATTTCCTGCCATCCTATCACCTGGGTGCTGGACTGGGGCATTAAGCACATTTGCAACAACGGCAGGAGCCGAAGTTAGTCTCCTGTGCCAGACCAGG
-1 AGTTTCATTCCGTGACTAGCCCTCCCCCACCTGCCCAGCAATTTATTCTTAAAAAGGTGGCTGGAGCTAAAGGCATAGTCAAGGTTAATGCTCCTTTTTATTTATCCCAAATCAGATAGCGTTTAGGCTTTTTCATCAAATATAAAAACCCTGCCCAGTTCATGGCTCGTTCGGCAGCAACCCTGAGACTCTTTACAGCCCTAGACCCTGAAAGGTCAAAAGGCCATCTTATTCTCAATATACATTGTATTACCCAATCTGCTCCCGACATTAAATAAAACTCCAAAAATTAAATTCTGGCCCTCAAACCCCACAACAGGATTTAATTAACCTCGCCTTCAAGGTGTACAATAATAGAAAAAAGTTGCAATTCCTTGCCTCCACTGTGAGACAAACCCCAGCC
-1 CTTGATGGTGCGCTTTTTTTTTTAAGGTAATTTTAGAACTTTATTTGATGTATTTGAGGATCAGCAGTTAGTTCTCATCCACACTAACTGTAGATTTTTGAAAGTGGTTACCCGTGATGGAAGTGACCACTGCCATCATTCTGGCTGCAGGAGAGAGGCGGGGCTGGGGCTGGACACTCCATGGAGCCGGTGGGAGCCCCGCCCCTTCTCAGTTGGGATGAGAGCTCCCCGGGTGACGCTGCAGCCACCCGAAACACAGCTGCAGACCCAGGTGTCTTGCTCTATGGAGGAGGCAGGAGTCCCATCCTCCTGGGCGGGCTACAACCACCCAAACTGCAGCCACGGCTCCGAGCCTCCCTGTGTTCTCATGGGAGGGGCAGGAGCAGGCAGGATCTGCCCCGCTACCGGTGCTGCTGCGGCCACCCTCCCAGGCGGAGGAGCCGGGCGTCTCTGCAGCCGGCACTCTCAATGGCCCCAGGAAGGATGCCCCGCCATCCCTGCAGGTTCAGGGGTGTCTGCTCCCACTGTCTGGCCTCTCTCCACTTCTGGTGCCTGCTCCAATCTCCTAGCAGGGCTTGGGCTGAGCCACAGGGCCTTGACTGGCAGCGGGAGGCAGACAGAGTCCTGGGATGAAGGGGGCAGGTCCCCAG
-1 GGTCTTTGTTTATTTGCAGAAGCTTCAATGTAGAGTTGACAAGGACTCCAATCTTTGACCAAACCTTAGTAGTTTCCTCTGAGCCCTTTTCTCTGTTACTTCTTGGCCTGCCAAGTCCAGCTTTAGGAAAGAATCCTGTTGAGTCTAGTTTAGCAAGAGTCCTCGCAACCACCTTTGATAGCTAATCAAGTTCCTCTTAGTAATTTTCCATCCACTGACTTTCTTATCTTGCCAATTGGCTATAATCCTCAACTCCTCCTGCTGTATTTGAGGTTGAGCCCAGTTCTCTGGGCTCAACCTCAAATACACGTGTCCAGTGCAGCCCCTCAGAAACTACCTTTGCAAAATTATGACAATCAGAGAAAGCTGACATGGCTGACTCCATCTTGGTTCTAGCCTCACAGGCTTGCTGTCTTTGCTCATTCCTGTGCAATTTCTCCCAAGCTATCTTTGGGAAAAATTGAGTTTATAGTTTA
-1 TGTCTCAGCTCAGAAGAGGGCCTCAGGGCCGGCCCAGACCTCTGAGGATGTCAGCTGGTACTAATGTTACCTAACTGAGGTGTGACAAAGCTGTCTGCAGGTGTTGGAAAAATGCAGCCTGGATTCAGCTGCTGCCAAGGGAAGGAATTGCAGCTGCCAAAGTGAAGAAGTATGTCTATACCTAGACTCTAGGTCAGTGGTTCTAAACCAGGGGTGATTTTGCCCTCCAGGGAACATCTGGCAATGTCTGAAGACAGTCTTAATTGTCACAATTAGGGGATTGGTACTACAATTTAGGACAGGGTG
-1 ACGAAAAGGCCTAGGGTGGAGCTGCCATCTGTAAAACCCAGGCAGAAGAGTCCACGCGGGTTAAACACACAAATAAAGAAAAGGAAACAACTGATCAAAAGAGCAACAATCTGGCCCAACCAGAATCTCCAGAGGTTTTCTGGGCAATGAAGGAGTGGGAAACAGAGGGACGGAGGTAGAGCGGGCCTCAGAGAGCGGGGTGGGGGCGGGGGGAGCGGAGAGAAGCCACGCTCCTTCCGTACCGTGGGCGGGCGGCCAGAGCGTCCTGTGCGCCGCCTAGACTTCAAAAACGTTGACCGCTAGATGACGACCGATGACAACGCATGGAAGTGTCAGCCCGGCACCCTCCCAGGAGCTCCCAACAACTAA
-0.4218816489764106 TCACTTTTAATTTAGCTACACTAATTTAGCAGGAGCTGATTTCTGTTATTAAAAGAGAAAGTCCTATTTCTAATCTTACATGTTTCTTTTTGTTTTCGAGACAGAGTCCTACTCTATCTCCCAGGCTGGAGTGCCATGTGTGTTCATAGCTCACTGCAACCTCAAACTCCTAGGCTCCAGTGATCCTCCTGCCTCAGCCTCCCAAGTAGCCAGAACTACAGGTGCATGACACCATGCCTGGCTATTTTTCAAAAATTTTTGTAGAGATGGAGTCTTGCTATGTTGCCCAGGCTGGTCTTGAACTCCTGGCTTCAAGCAATCCTCCTGTCTCAGCCTCCCAAAGTATTGGGATTACAGGCATGAGCCACCATGCCTAGCCTTATATGTTCTTTTTCTGAATATAGGCCTGTATGCTTCTATCCTT
-1 ACTTGATTATGATCCTGCAGCAGTGATTCTCACAGTGGGCTTCCTGGACCTGCAGCATCAGCATCTCCTGGGAACTAACTAGACATGCAGATTCTCAGGCCCCACCACAGACCTACTGAGTCAGAAACCCCAGAGTGTGGCTCATCCTCCAGGAGATGATGGTACACACTCCACTTTGAGAACCATTGCCTCTTTAAGCCAGTGTCTTTGGATAGCAGCTGGAGCCATATTGCCATCACTATTTTTGCCATATCTGTGTTATTCCTGCACTGTTATTTACTAAAGGATTTTTCTTTAAGGGGGCATTTATTCAACTTAAATAAACATATTAACAAAAAGAATTTAGTAGTACTACCGTAAGTGGAAA
-1 AAGCTAAGAACCATGATAAAAGATTACAGGAGGTATTAGCTAAAATAACCAGTTTAGAAAGGAACATAAATGACCTGATGAAGCTGAAAAACACAGCACAAGAACTTTATGATGCAAACACAAGCATCTGTAGCCAAAACAACCAAGTGGAAGAGAAGATATCAGACCTTGAAGACTATCTTGCTGAAATAAGGCAGGCAGACAAAATTAGAGAAAAAAGAACGAAAAGGAACAAACAAAACCTATGAGAACTATGGGAGTATGTAAAAAGATGGAACCTATGACTGATTGGAGTACCTGAAAGAGTTGGGGAGAATGGAACCGAGTTGGAAAACGCACTTCA
-1 ACTCCATCAGGGGGGCTGGACTCACCTTCCCGACAGAGCCCCATGACTTCGCGGTTTTTCCCAAACTCCTTGAAACTTTCGTCCAATTCTGTCCCTAGGAGATATACACACACAGGAGGAGGGGAGAGGCAGGTCAGTGGCCAGGAGTGTGACGCACACTCACGCACGCACGGGGTAGGTGTGGGCACCTCCGCGTTCCGCAACCCAGCAAACGATAGCATCTCTGCCCCTCGAGGGGGCGGGTCACAGGAGGGGGGCAGGGGGGAGGGGAGGAGAGAGGAGGGGGTCGCGAGGGGGTGAAGGGGGGAGGAGGGCGTGGACACTCACCGTCCTTCCCAGGAAGTTTGGAAGCCTCAACCCACAGATTCCACGACTGTCCCAGCATCACTTCAGGACTGGGCAGAGGCCTGCGCTCCCCGACCGTCGCCATTGCGGCGGCCGAGGTGGAGGCGGCGCCGGGCCCGCCGTCCTCCGGCCGTGTGCGCCGTGGCGGCGGTGGCGGGTGCTGCTGCCGCTGGGGCTGCGGAGGCGGCGGCTGCTGCTGCTGCTGCTGCTGCTGCTGCTGCCGGGCGGCCGCGGCCGCTGCTCCGCCCGCCGCCGCCGCCGCGCGGCGCGGCTCCCCCCTGACGTCATCCGCGGCCCGCTCCGACATTCTTTCCGCTCCTACAATGTAACAAAAAAAAGGGGGAAAGAGTCGCGCGGGGGCCGTTTTTTAAGGAGGCGCCAGGGAGTTCCGGCG
-1 TCAGCATGTGTATTAGTCTGTTTTTACGCTACTGATAAAGACATACCTGAGACTGGGAAGAAAAAGAGGTTTAATTGGACTTACAGTTCCACATGGCTAGGAAGGCCTCAGAGTCATGGCAGGAGATGAAAGGCACGTCTTACATGGTGGTGGCAAGAGAAAATGAGAAAAAAGCAAAAGTGGAAACCCCTGATAAGCCCATAAGATCTCATGAGACTTATTAACTGTCACAAGAATAGCATGGGAAAGACCAGAACTCATGATTCAATTACCCCCACCTGGGTCCCTCCCACAAGACATGGGAATTCTGGGAGATACAATTCAAGTTGAGATTTGGGTG
-1 GTACAAATGGTACCTATCAGTGTACTAGGGAAAATGTACAATACACTTAAGTTGTTTAACTTGAATAGAATATAATAAAAGAGCAATTAAAAAGCTGTGGATAGTGTATAGATAAACCAAAAGGGATAATTCTGTATGTACCCTGCAACTGTTACCTTCTCTAGGTCTGAAGGGATGAAGGGCAGTATTAGTTATTGAAACTTGGAGACAAAAAGGGCGTGTGGAGATAACCACCTTCAAGACAGTGATCCAGGACATTGGTGAGAGATAAAAGCATATGGCTTAGAGAAGGAAGTTCTAGAAAGATTATCAGTGGAGACAAGACAAGTCAGTGGGGAAGGAAAATGGTGAAAACAAAGAGCAGGGAAGAGGACAATAGTATGTATGATGAGTCCAATCAGGCACTGGGGAAAGGGAA
-0.9936555566375415 ACTGTGTACATACATTTCATAGGTTTTTTGGTAAAATCCAAATAAGTAACGGTAATCAAGAAGATGTAAAAAGTATCAGAAGCACATTCTTCTAGAAGGATGCACACTGTAATGGCCAGATGGGTTCTTCCTGTGCAGTGCACAGAAAAAAACAATTCACTGTGCTATTGCAGTGGAGAGAGTTTCATTAAATCTGGGTCGGCCACATAGAAGATGGAGTTATTACTCAACCCGTCTCTCTGAAGGCTCAGAGGTTAGGACAATTTGGTGGGCAAGGGACTAGGGAATTGTGCAGCTGATGGGTTGGGGATGCAATCACAGAGGTGTGGAAAACGGTCCTCATGCACTGAGCCCATCTCGGTGGGAGACTGACCACAGGACCATTTGAGTCGTAAGTCCAGATGGAATTGGTCTGAAAAATATCTCAAAAGACCAGTCTTAGGTTCTACAATACTGAT
-1 AAAATATGTGTAAAAAACTAGGTGAAAGTAACTTAAGTTACTTGAAATAATGAATTTCTAATAAATATTGGAAGCCCTGCACCAGAAAGCTTATAGAGGTAGAGTTTGTCACTGTGATTTTGACATGCAGAGCCTATATACCTCTGAATAGTTTTGTTTTGTTTTCAAATTGTACGTAATAAATTACTTCTGTAAGTTGTAATTCAATTACTTTGAATAAGACTTACAAAATCAAGGACAAAAATCATACAAGCTGTAACTGTTCAGAAAACATGTTCACTTAGATTCCCAAGTACTTGCTTCTAAGTGGAAAAATGAATCTGCAAAATACTGAGAATATAATAGTTTCTGCTTTTTATTTCTGTTTTTTACCAAAGACTGACTTCTAAAATTCCACTTTTATTTGCTTTTACAGAGCACGTGCATTGTTCTGTAGCCACCAGAGAGAGATTTAAACCTGATTAATAGATCCAGGACAACTTGCTTGAGTGAACATAACTTTTGCAGTATAATCAATGTCAGCCTTCACTTCTTAAAACCAGCTGATCAGGATCAGAGGTCCTCTGAAAAACACGCCTCAGAGCACCAATCAATCAACAGCAATCCCCCTGAAGTAGCCAGGCCTCAACAGATGATGGAACCCATTCATACCTCTGAAAGTCCTCCAATCCCTCAACTCCAAGCTTCCCACAAACCCCTTATGCTAATCAGCACTCCATTCTGCTTAGTGGGATGGTGCCTGGTCAGCATTGCTCTGACTTGCTGTAATAAG
-1 AATATCAGATCTAGAGGGAATCTTAGAAATCAATTCACCCTGAGAAATGAGACCACCAAGAGTTTCAAAGTACAGAAACTTGTTCCAGTTCTCACACATGCTGACATTAGTCAAGAGCTTTTTCTTTTAGACCACATTTTAGTCTGTTTTTAAAAAAATTGTTTAATATCTATAAATTTTTGTGTGTCTGGTGGTTAAAACGGTATAGCAGAAATCTTGTTGGCTATTCTTGGCTCATCCGCAAATTTGCTGGCAGCCGTGGCACGTCTCATTCACTTCATCCAAGGTTCCAGAAACTCCATGTTCCCATGTGCGGAGTAGGAGTCTTATTAATCTTCATTCAGAATTTTAAAGGGACTGGATCATGAGTTAATTTGTGTAAAGCACTCTGAGATTCTGGGATAAAATCCACTGCATAGGCCAAGAAAAGGGGCTATTTTTTTTCTGAATTATCAACCAATATTTGGAGAATGGTGGAGTCTAGATTCAACAAGGAATGCAAATGTTCTTCCTCGAAATCTTGCAGTCAAT
-0.5037089251691672 GATTAGCATTGTCAAATTACAATGTCAAAGGAAAAACTTTTTAAGTATTTTTTTGTTTTTTGTTTTTTGTTTGTGTGCTTTTGAGATAGCAGTCTAGTCACCCAGGCTGGAGTGCAGTGGTGCGATCTCAGCTCACTGCAACCGCCGCCTCCTGGGTTCAAGCGATTCTCATGTCTTAGCCTCCCAAGTAGCTATTACAGGCATGTGCCCCCATGCCAGGCTAATTTTTTTTGTATTTTTAGTAGCGACAAGGTTTTGCCATGTTGGCCAGGCTGGTCTCAAACTCCTGAACTCAACTGATCCTCC
-1 CTCCAGATGCACAGCCCTCAAACTGGAACACTGGCTCCCCCCCGGGTCTCCAGCTGCATGGCCTTAAACTGGAACATCAGCTCCTAGGCCCTCAAACAGGAACATCAGCTCCCCACAGGGTCTCCAGCTGCACGGCCCTCAAATTGCAACATCAGTTCCCCTACTGGGTCTCCAGCTGCACCACCTCAAACTGCAACATCAGCTCCCTGCTAGGTCTCCAGCAGCATGGCCCTCAACCTGGAACATCAGCTCCCACCCACCCGGGTCTCCAGCTCCACGGCCCTCAACCGGCAACACTGGCTCCCCACCGGTCCTCCAGATGCACGGCCCTCAAACTGGAACATCAGCTCCACCCCGGGTATCCAGC
-0.6819557251736414 CTTTGAAAAGGGGCTCCAGCCTGGCACAGTGGCTCATGGCTATAAATCCCAGAGCTTTGGGAGGCTGAGGCAGGAGGATCACTCAAGGCCTGTGCAACATAGGGTGACCTCATCTCTGTAAAATATTTTTTAAAAAATTAGCTGGGCATCGTGATGCATGCCTATAGTCCTAGCTACTCAGAGGCTGAGGCAGGAGTTCAAGGCTGGAGTGAGCTATGATTATGCCACTGCACTCCGGCTTGGGCAACAGAATGAGATACCATCTCTGAAAAAAAAAAAAAAGAAGAAAATGATTTTGTGATTCCCCCAGACTCAATGTTGATGTGACAGGGAGAACTCCCATCAGGAGAGGATAAATTCAGAACTCCCGCTTGAGAGAAAGCTGCCGACCGTGCTGGCCTTGCTGGCCAAAGCAGGGCTAAGACAGAGTGACCCTGGGACCCCCAACTTCATACAAAAGGCTATCCTGGGCTACAGTCTGTGCGGGGGGCCAGGCCCCAGCCTCAAGGGGGCAGCACCTGCTGAAGTCCAGGCTCCAGAGCCCCACTCTATGGCATTCCACTTCCACTCCTACAGGGGCCCACCAAGGCCGGCCTCCACCTGTCCCACTCAGACCACCCACCCACACACGTGTCGGCCTCACCAAGCAGCTCTCTGCCACCCTCCCCTTGCTCACAGCTCCGTGCCTTTGTACTCTGCCTACAATCCCCATTTTCTGTCTGGGACCCTCCTACACATCCTTCAAGACATAATTCAATTGTCACCTCCTCCATGAAGCTTTTCCTGCTATCTCTAAACTGCCCCAACAGAACAGTCTGCTTACGGCCTTATCGTGCTGTGAACACCATCTATTACGT
-1 GAATGCCTGGGTCAACCAGGTGTCTCTAACCATAGAATGCCTGGCGTTGCTCAGGAGTCTCTATCACTGAAACGCCTGGGGTCATCCAGGGGTCTCTGTTATTAGAATGCCTGAGGTGGCACAGATGTCTCTGTCATTAGCATGTCTGTGGTAACCCAGAAGTCTCTACCATTAGAATGTCTGGGATTGGCCAGGATTCTCTCTCGTTAGAATGCTGGGGCAAGCCAGGTGTCTGTATCCTTAGAATGCCTGAGGTCGTCCAGGTGTCTCTATCATTAGAATGCCAGGGGTCAGCCAGAAGTTTCCATCAGTTCAATGCCTTGGGTCAGCCAGGAC
-1 TCAGGTGATACAGAGAGTGTCATCACAGGCCCAACACACAGGTGAGACTGTTTACCTTGTGTGCACACCCCACCAATTATTAGGATTATTGCATTCACACAAGGACACAGAGTACTGGTGAGTTCTTGAACTTCATACATGGATGCAGCTTACAGTTGGAATTGTGACTGTCATATGTAAACATCTGACCACAACTGAGATGGTGACTCATTTCTAAAACCATCTCATAGGCAGCAGAGTAATCTCCTCTCTGGACCAAGTCAATTAAAGAGATGTTGACTCTCATACATGGGCTTAGGGCCATGAGTACAATCATGGGTTCATACCAGCATGGAGGTCTCAGAGCAAATTCTGACTCTTGTGAATAGCATATAAAGCCCTTGAATAGTAGAGAGACTGTCCTCATAGGGCCCAGCACACAGGT
-1 CAGCACCCAGCACAGTGCAAGGTACACCGTGCTGCTCTGCTAATTTCTGAGTCCTGGCACTCCCAGACACTTATTCCTCATGATCTTTGTCCTTGTTTGACAGTGAGGGAAGCTGGGGTCACCTCTACCAGCTAGAGGGTGGTAAAGTTGAGATGGGAAAGCAGGTGATGTGTCTGTTAAGGCTGGGCTCCTATGTTCTGTGCTACTCTGGACTGAGCAGCCAGGAAAACCATGTGGATGTTGATATTTAAAACAAAGTTAAATAATAAAAGAAAAAAGTGTAAACTGCTTAGAAGGATATAAAAT
-1 GCTCTTCCTCTCCTGTCCTTAGGCAGCTCGTGGCTCACATGCTCCCACCCCAGTTCTTGACAGCAAACTGCTCCTCCTTTAAGATGCAGCTCACAGGCTGCCCATACTGTAGCTTCCAAGCCCTAATTCCCAGGGACTCCTGAACAGACCACAAACCAGTTCCTCTTCTTGGGTCACGTGTATGATGGTGGAGAGGAAGGATGGGTGACACAGCCACCCAAAGGAGCCTTGCTACACAGCAGCTTCTTAGATGTGTACCAGAGAGCACAGGCAGACGTGCTGCAGAGCTGAGTCCACACAAAAGCAGGAAAACCAACTGCCCTCAGGGCAGCACTTTACAACCCAAGAA
-0.442776353508827 AATTTTGAAGCCTTACTAGGTTTGTCTTACTCTGTGTTAAGTCATATAAGTTCTTTAAAACATTAACTTTTCAGTTTGAGTTTAACCCTGCCATTTTATTTTCTAGTTTATAAAAATAACCCACACTTAGGCCGGGTGTGGTAGCTCATGCCTGTAATCCCAGCACCTTGGGAGGTGGGATGCGCCTGTAATCCCAGCTACTCGGGAGGCTAAAGCAGGAGAATCACTTGAATCTGGGAGGTGGAGGTTGCAGTGAGCAGAGGTCGTGCCACTGCACTCCAACCTGGGCAACACAGTGAGACTCCAACTCAGTAATAATAATAATAATAATAATAACCCACACTTATAAAAAACTTTTATTGGAAAATAAAACCTATAAAAA
-0.8979776590772526 GTGAGGTCCAGGGTCCACAGTGGCCCTTGTGGTTCCTGATGGCCCACAGTGAGGCAGCCCGCAGAAGGCGGAGGCACCCCAATGGCCCCTCCCAGGCCCTGCCTCTGCTCCACCCCACTACCCCCTTCCCCCAGGAGGAGCCGTGGGGCTCCCCCAGGCTACTTGGCCCTCAAGCCCCAGGCTCAGGGGCAGAGGCCCCATTTGACAGAAGGAAACCAAGGCCCACAGAGGGCAATGAGTAGCCCAGAGTCACACAGCTGGGCTGTGCCAAAGATTGGACTCAAGCCCAGGACATCTTGGCTGGGTGCAGTGGCTCACCCCTGTAATCCCAGCACTTTGGGAGGCCAAAGCGGG
-1 GCAAAGGTTGGAACAGTTTGGGGGGCTCAGAAGAAGACAGGAAAATGTGGGAAAGTTTGGAACTTTCGAGGGACTTGTTGAATGGCTTTGACAAAAACCATGATGATAATATGGACAATGAAATCCAGGCTGAGAAGGTCTCATATGGAGATGAGAAACTTGTTGGGAACTGGAGTAAAGGTTACTCTTGCTATGTTTTAGCAAAGAGACTGGCAGCATTTTGCCCCCATCCTAGATATTTGTGGAACCTTGAACTTGAGAGAGATTATTTAGGGTATCTGGTGGAAGAAATTTCTAGGCAGCAAAATATTCAAGAGGTGACTTGAATGCTGTTAAAAGCACTCAGTTTTAAAAGGGAAACATAAAAGTTTGGAAAA
-1 TTTACCTCTTCAGTGGTGCTGGAGAAGGGCTGAGTAGTCGACAAAACCCATGATGTGTCTGTAATTCCAGTCATGTGCAGATTGGGATGCTGCCTCTCGCTGCTGTTTTGGCTGTAGTTTTCTGCAGCATTTCTGATGAAGGCCTCTGTGGTATTCCTAATAAGGAATACCAGGCCATCTGGAACTGCATTAAAGGTAGTGAGAATCTGGGGTGGAGCCGTGTTTCTAGTGCTCCTCACCGAAACTTCTGCTCCCAGGCCAGCTGAGGTAAAGAAAAGATAGTTGCAAAGATTATTCTCATGTTTTATGAATTCTTCACATAAAATCAATTTTACTTAGCAAAAGAGGGCCTTTTCAATAATGGGCATGTGGATAAGCTTCAGTTATATGAAAAAGCAAATATACTTTGAGTGTGTGACAATGTTCATTTGTCCTGTCCAATTCACCCATCCTTTATCTATCTATCAATTTTATAACCTGGAAGGAAAGTTGTAGAAACTGTGCTACCAAA
-0.6893725938585279 CTGGTCTCAAATTCCTAACCTCATGATCCACATGCCTCAGCCTCCCAAAGTCCTGGGATTACAGGTGTGAGCCACTGCGCCCAGCTGTCCTGCTTCTTTCTCAGTGGGGATCTGCTCCCCACACATTCTCCTCTGTGTTCCTCAGACCACGAATATCTCTGAGGTCCATCAGTGTGAGGTCTCTTGCAGGTGCCATTCCTTCCTTTCTCTCAGGACTTTTTTTATTGGTGTGTCTCTGTGCCATAAGGAATGTGTGCCTGTGAAGAACAGGCTAGACTCTGCAGCAGGACACAGAGGCCCTGGAGAGGCAGACAGTGGAGCAAGCAGGGGCTGAAGTTACCTCGTTTTT
-1 CCAGGCCTCGTCCAACTGGGGCTGCAGCCTGCGGAGGCTGCCCGTGGCCGGCGTCTGCCCCTCAGCATGGAGGACGCTGACCACTGCAGTGCCGCGTGGGCTCCTCCAGGCTGTCCTAGGGACGGCCACACAGGCCCACTCTGGCCCTCTGAGCCCCCGGCGGACCCAGGGCATTCAAGGAGCGGCTCTGGGCTGCCAGCGCAGGCCTCCGCGCAAACACAGCAGGCTGGAAGTGGCGCTCATCACCGGCACGTCTTCCCAGCCCGGCAGGTCCCGACACAGGGCCCGGCGCCCCCCACCGCGCAAAGCCAGGATAGGAACACACAGGCGAGCGCACGCGGACAGCCCCCCAGTCTGGGCACATGGCGGCACCTACTTGGAAAAGATGACCATCAGCTTCCTCCGGCTCCGCCGCGGCTCCGCGTCCTCA
-1 CCAAATTGGGTACAGTAAATCTTTCTTTTGGCTTTGAATATATATTTAGAATAGTTTCCCAATGTGAATTGTGAGTTCTATTTCTAGATATTATTAGTAGGTATAAAATGAAAGATGGGATTTTTGGCCAAATAAATTTGGGGAGACCCTTGGTAATAAAAAAGATTATTTACTCTTAGGCTTGACACGGCATTTAACAGGTTAATGTGAAATTTTAGAATTCAGATACAGCAGGAGTTTACAAGATAATTTTTAAGCAAAAAGGTTTGTGTGTGTGTGTGTGTAACTTGAAGATTTCAGA
-1 CCATACCCATTAGGAGGCCTAAATAAAAAGACAAACGATGATAAGTGTAAGTGAGAATGGAGAAACTGGAATCCTTATATACTGCTGGTAGGATGGTTTTGGAACAGGCTCGCAGTTCCTCATACGCTTAAATGTGGAATTGCCATATGATCAGCAATTTCACTCCTACATATATATCCAAAAGAAATGAAAACATATGTCCAAAGAAAAACCTGTCCATGAATGTTCACAGCAGCATTATTCAGAATAGTGAAAAAGTGGAAAGAACGCAAATGTCAATCAACTAGTGAATGAATAAAATGTGATATAGTCATACAATAGAATATTATTC
-1 GAACACAGAGCCTAAAACTTGAGATATTCTGTGAAAGTGACTTGTCAAGGGAGGACTCTCAGGGAAGAGGCAGTGGGATCTGGATAGGGAAGGAAAAATGAACTAAGCAAGGATGTAACCTTTGCTGGAGTCTAGCTTCTGCCCAATTTCACAGGGTGCTCCAGAGTATGGATTGTACTGAGAGTTGGTCCCATACTGAGGCAAGGGGCCAGTGTTTTGTACTCCATTCAGTTAGTGATTTGCTGCTGGCTGCCCAGAGTGGGGATGGTGGGGAGGCCAGGGCATAACATCCAGGGCACAGTGGCTCCTGTTTGGTCAAGGGCAATTTCTCAGAGAAGGATATAACAGTGAGCAATTAACAGGGGATGTAGCAGGGACACCA
-0.9943265973404709 CTGGTGTGAGGTGTCAATTGCACTCACCCTGTATCCTGCACTCCTGCCTTCTTCACCTCTATCCCACTCAGGAGAAATACACACATGGGTTGAGATATGCTATGCTACACTGGGGTGAAGTTGAGATTGAGAGACTAGGGATCTGAGGAAATTCTCTCAAGAGGAAGTATTCTAATGATTATAAGTGCTCAGAAAAATGCTTGCTTGAAGTTTCTCAGAGATGCAAATTAAGATGCAATTCAGATGTGGGGCACCTTTCCTTTTTCTTCATGACTAGTAATGTGAATGGCTCTTCAGAATGATATGAGAGACACTATTTACAATGAACCTTGATTTATATGAAAACTTAAAAAAATTTACCTGTCTTCTCTAAGTAACAAATTCAAT
-1 GGCATTACTGAAGTCCCAGGAGTTCTTCGGCTTATGGAGAAATTCAGGTAGCGGTCATGTCCCAAGATCTCTGGGTTTTGAAGCAGGAGAATATATTGCGCAGCTGTTGCTCATCCCCTGTAAATTGTACCCTTCTCTACGTAAGAAGCGAGGAGGTCAGGCATCTGCAAGTACAGCTGGGAGAAAGCTATCACAACCCACAGCATCTAACAGACCCGCCTGTGTAAGTGCAAATGGAAGGTTTAAGGATTGCTTTTTTGCTACACTGTTGCACGAGAAGGATAAGCCTCAACTTGTTTTCTCTGTGCCTTCTGTTCAT
-1 AACTCCTGACCTCGTGATCCACCGGCCTCGGCCTCCCACAGTGCTGGATGACAGGCGTGAGCCCCCGCGCCCGGTCCGTGCATTTACAGCACAAGTTCACGCTTATCTACAAAGCATCCACCTCTCACCGCACCTTCCGGGACCACGGGATTTAACGCCTCACCGCCCGATGACAGCACGAGGTGGAAAGGGCAGCGACAATGCTCGCGCGTCCCCTCCCGGCGATCCGGAGCACGGCAGCCCCGGAGCGCGCGGCCACTCCTCGCTCCCCTCAGGAGCTCGTAAGAGCCCCGCGCGGGGCCGAGGCGCGAGA
-0.8510708000551941 CCTAGCACAGATGCTGGGTTTACTGTAGAATTCTTTGTCTCCCATAGTTAATTGATTGTAACTATACATTATCCCACCTACATCTCCATAATCAAGTGTTTCATATACACTTTGTCTGCCACCACCCCCCACCCACCTTGCTTTTAGATGACTGCAGTACCCTTTCTCAGGTCCTCCTTCTACAGATTGTGGTCAATTCTGAATGCTAAGATTCTTATTAGAGCATTCTCTCCTCCAACAAGAGATAATACCAGGCCATGGGAAAAGATCAAGATCTGGAGTAAACAGACTTGGATTAAAATTCTTCTGCCCATCACTAGTTGTGTGATCATGGACAATTTACTTAACTTCTTTGATCCTTACCCATAGAAAGAAAATGATAATGATCATACTTACTTTGCTAGATTCTTGTGAAGATTAAATAAGATAAATATATAGGGCAGGCACAGTGGCTCATGCCTGTAATCTCAGCACTTTGGGAGGCT
-1 TCTCAGGTTGTCTCAGGAAGTTTCACTTGAACTGGGATTGTATCATGTGAAGCTTTGACTGGGGCTGGATAATCTGATTCCAAGAGAGGCTGTTGGCACGTGGACCACTCCAAGGGAGACTCTGAGTGTTTTCAAGGCATGGCAGCTGGCTTCCCCAGGGCGTGCACATTGTGATGTTGGGTAATAAAAGATACCATGACTTTGTATCACCTAATCTTGGATGTGACTTTTTATCTTCCCTATCATACTCTGTTGGTCATCCATGCAAACTCTAGTGCAATGCCAGAGGAGCATACACACAGGAGTTAATACAGGGAGGCAGGGACATTAGGTTCCCTCATAGGAGCTAAATACCACATTTTCCAGCACTGTCTCTGAGCTTCCTGCCACCTTCCTTTTCTCTAACTTACTTCAGTCTAGCCAAGTGGTTGTATTATAATTTTATTTCAGTCAATGTCCAACTTATACCACTATGGCTACAGGAGTAAATGTTTTGAGACATCACATGTCTGAGAATATCCAAACTAACTCAGTGTGCCTGGGTATAG
-1 CAGTGGGTGTCAGATGGGCACTGCAGAGGACTCGGCCCAAAAACCCGCTCCTGATCGTCAGCCCTACCTCTGCTCCCTTGCCACCCCATCTCAGCTGCTCAAGCCAAAACCTTGGAGCCTGGCTCCATCCCTCCCTCTCCCTTCCTCCCCACCTCAGGACTCAAGCTAGCGGTGTCTCCAGGTCTCCTGCATAGGACCATTTCTCACCACCTCCAGTCATGGCACCTGGTCTCGGCACCATCAGCTTACCCGGACAATGGCAGCAGCCTCCGAGGCTCCCTACTTTGCCTCCAAAGTCTT
-1 CCCCACTGTGCATTCACCCGGCGTTCTTCCTCCCCTGCGTTCACCAGAAGTTCTTCCCAGGGAGCGTTCACGTGGCGTTCTGCCTCCTGTGCTTTCACCCGGGGTTTTCCACCCTGTGCGTTCACGAGGCATTCTCCCCCGTGTGCGTTCACGAGGCATTCTCCCCCGTGTGTGTTCACGTGGCATTCTCCTCTCTGTGCGTTCACCAGGCCTTGTCCATTCTTTTTGCGTTCACCTGGCGTCCTCCCCCATATGCGTTCAAGTGGCGTTCTCCACACCCCCCGCCGCCCCGCCACCCAGTGCATTCACCGGCGTTCTCCCTACTCTGTTACTCTGTGGTTCAACCGGCATTCTCCCCCTCTATGAGCGTTCACCTGGCGTTCTCCCCGTTGTGTGCGTTCAACCCGCGTTCTCCCCGCTGTGTGCGTTCACCCGGCGTTCGCCCACCTGTGTGCATGCATCGCCCTGTGTACGTTCACCAGGCGTTCTCCCCTCTGTGTGCGATCACCTGGAGTTCTCCCCGCTGAGTACGTTCATCCGGTGTTCTCCCCTCTGTGCGTTCACTGGGCGTTCTCCCCACTGTGCGCGT
-1 TCTTTTTAATTCTGACAGACGCCTATAGAAGAACAGTGAAACACTACAAGACTTGGGTTTCTTTGTGTTTGTTTGGTTCTCTCTGCAAAGTGGTCTGGCTGAATATAATCAATGTTATTCCTCTGCTTTGTTGAATGAGCTTCGAGTAATGATGTGCAGATGCCAAATGTGACATGTCTGGGGACAAGGTAGTTTAATTCTAGTCTCATTTGCAGAGATGACTTGCTATCATTAGGGGCTTTGTCTCCAAGAAGCCAGCTGACAGAAAGAGAAAGCCAGCCACTGCTCGGCAATGAGGCAAATGCATGCTATAAAAATG
-1 GCTGTTCATCTTTAACCTAGGGAAATTCTGACTTTGTATTTTCAAAGAGTCCTCCTCCAGCGACCTGTTCTCCCTGGGGTGAACAGGAGGATGCCCACACCTCCCCAGGCTCCAAGACCCTGCCCCCACCACTGTGTGTTCTGGGGAAACCCCACCACCACCCGTGTCCAGCTCTGGCCCCTTCCCCGGGGCACCTCTGAGCCTCTGGGTGGTTCTTCCTGGGCCTCTGCCCTGCCCCGGCCCCTCTGTGCATGCCTAGTCCACCTCTTCTTGCTGGCATAGGTGGGCACTTTGCTTCTTTCTCTTCCAGGGCTGCGCACCTGCCATGCCAGCCGCCTCCCCCTG
-0.9215512119286174 TATGCCTTTGCATCCTCATAGCTTAGCTCCTACTTACAAGTGAGAACATGTATTTGATTTTTTATTCTTTAGTTACTTCACTTAGAATAATGGCCTCCAGCTCCATCCAATTTTTTATTGTTGAGTTACTTCCCTTAGAATAATGGCCTCCAGCTCCATCCAAGTTGCATCCAAAAGACATCATTTTGTTCCTTTTTTATGCCTGTGTAGTATTCTATGGTATATGTATATCACATTTTCTTTATCCATTAATTGGTTGGTGGGCACTTAGTTTGGTTGCTTCCATTTCTTTGCAATTGTGAGTTGTGCTGCTATAAGCATGCACGTGCATCTGCCTCTTTCATATAATGACATCTTTTCCTTTTACATATCCAGTAGTGGGATTGCTGGATCAAATAGTAGTTCTACCTTTAGTTCTTCAAGGATTCGAGGTGGTAATTTACATTCCCACCAGCAGTGTAAATTGTTCCCTTTTTACCACCTCCACAACAACATCTATTGTTTTTTTGACTTTTTATAATAACCAT
-1 TATTTCTCCTTTGTTTCTTAAAGGCATTCCTTTTTCTTTCTGAGTATGGAGTTCTGAATATACATTTTTTTCCGCCATTTCATTTTCTTCATTTGTATGGTTTCTGATGAGAAACTTACTATAATTCTTATCTTTATTTTTCCATAAGTAAGGTATCATTTTTCTCGGGCTTCTCAAGATTTTTCTTTGTCTTTGGTTTCAAGTTGTTTGAATATGACATGCTTAGTTTGTTTCATTTTTTTCCCTGTTTCGTGTCATAACAATCATTAATTTTGAAAAATTCTCAGCCCTTATTTTTCCAACTATTTCTTCAGACCTATAGTCTCTCTTTTCACTTTTTGAGAGTCCTATACATATGCTATACTTTTTGACAGTGTCCCATAGCTCTT
-1 CACCCCACTACTGGCTTGATCAGAGATCCTGGTGCCTCCTTGGTGGCCCCATGGGGCCTTGTTCTTATTGTTGATGTCTCACTTGTCACCTTAGTTTAAGGTCCGTTGTTTATGTGCCTGCCTTCTTGACTAGGCACCCTGATGGAAGAGAGGTTGAATTGTTATGTAGATATGCAACTATGAATGCAAAAGCATCTATAACCATCCTTGAAAACAATTAGTATTATCTCTTAGTACTATTTTTAATTCATTTTTCTATTATAAACATCATAATCACACTAGAAAGTCTGGGGGTAAA
-1 GCATTTTGCTGGTCGGCACAGTATCGTATCGGAATCTGATTTCTTCGGGTCTGGGAGACGGACTCCGTTTGCGGGGGTTCATGGGAAAGGACTGCAGCGCGTTTGTCGGTCATTAAGCACGTTTTTGAGATCGACTCTGCAGATATGAACTTGCACTTTCAGCGCATTCATCAAAGCCTCGGGAGAGCTGACCCAGTCCCTACCCCCAGTCTCCCGAGCCCGCGGCGCTTCGGCTCCGGGACGCCCCCATCCTCCCCTGTCGCCCACCCGGGCGCCCCCGGCCTCGTTTTCTCGAGACGTGTCACTGCTTGTTGACCGCAGCCAGTCACGAAAACGGTCCTTTTCTTCAGTCTCCGGCCAGGGTTTCACTCCTGCAGGGAACAGCGGGTGGGGACAGAGTGCGGGGCTCCGTGCTGGACGGTGTCTGGAGGGGCCCCAAGGGAACAACCCTTCACCGGGAGAACACCAAGGCCAGA
-0.9003981702142699 CCCACCAGGGGGAGGCTCAGAGTCTGTGGAGACACTGCCAGTGTCTCAGGGAGCTTTTACCTCAAATAAAGGTCAGAGTCCACAGAGACACTACTGGTTTCCCAGTGAGCTCCCACCTCAGTGCAGACTCACTGGAAAGACAGCCCAGGGGGCTCCCACCTCAGTGGAGTTCAGAGTCCTTACAGACACTGCTGTGTCCCAGAGAGTGTGACTTCAGTGGGAAGTCAGAGTCGTGAAGACACTGCCGTGTCCCAGGGAGCACCACACCATGGAAGCTCAGAGTCCTTAAAGGCACTCCTTGCATCCCAGGAGGCTCCCACCTCAGCGGGCGGTTCATAGACCCTGGAGACCCTGCCCGCTACCCAGGGAGCTCCTGTCTCATGGGGAGCACAGAGTCTGTGAGACACTGTGCTTGTCTCAGGGAGCTCCCACCTCAGTAAAGAGCTCAGAATCCATGGAAACACCGCCTGTGTACCAGGGAGAAACTGCTGTGTTCCAGGGAGCTCCCACTGCACTGGGGAGCTGAGAGTTGGTGGGGACCATGTCTGTGCTGCAGGGAACTCCTAACTCAGTGGGGAGCTCCAAGTCCCTAGAGACACTGCTCCAGTCATAGGGTGCTCCCAGTTCAGTGGGGGAGTTCGGAGTCTGTGGAAACACTGTCTGTGAACCAGAGGACACAGTGGGCAGGCCACAGTTTGCAAACACACCGCTGGCGTGCCAGGGAGCTCCACTTCAGTGTCAAGCTCTGAGACTGCAGAGACACTGTTTGTTTCCAGGGAGCTCCCACCTCAGTGGGGTGTCAAAGCTTGTGGAGACAGTCCCTGGGCGCGCCTATCTCACAGAGGTGCTCAGAGTCAATGCCCGTGTCCCCAGGAGCACCACTTCAGTGTTGAGCTCTGATACCACTAGAGACACTGCCTGTAATCCCAGGGGAAGCCCACCTCGTGGGGAGCTTATTGTTCACAGAGACACTTATGGGTCCCAGAGAGCCCTCATCTGGAGGTGTCTCAGATAAAGGGGACATCCTGCTTTTGTTCCCTGCAAGTCACACCCTCTTGTTTGTGGGGTGTGGGGTACTGGTTGGGGTGAGTGTGGTGGGGAGTGAGGACGATGGGCTAGGTGGGGTTGAGTGGGCAGAGAGG
-1 AGCTGGGAAGCTTTTGCAACCCAGGGATGCACAGGCCACAACCCCCAGAGATGCTGACTCGGTTGGTCTAGGGCAGGGCCTGGGCTGAATATTGTTTGAAATGCTTCCTGAGTGAGTATAACCTAACAGTCCAAGCTGGGAACCCTTGCCCTAGTCCGGTGGTTCTCCAAGAGCTATCCCCAGAGAAGGAACACAGCATTAATTAAAAGCTTGCAAATGTCAGGACCCGTTCCAAGCTTACAGAACCTGACACCCTGGGGGTGGATTCCCAGTCTGCTCTCCGGGTGCCCTCCAGGTGATACTTGAGCTTGTGAAACACTGACCTAATCCCTAAATGAGAATCTCCAAGGAGTAGAACCCAGGATTCTGTACTTTTTACCAGGTCCCACGTGATTTCTATGTGTGTTGCCCAGAAGGCTGGTTGGTAGCCACTGCTGTAAGGGAACCCCTAGACCACTGTGAGCATTACTTTGAGCAGGCAATAGTTACCATAAGCCTATGTAGGACAATCTCTCTCTAGTCACACTG
-1 AGCGCCAGGTAGGGCATCATGGGAAAGGATCTTGCTGGTCATTCCTTGGCCTCTGGGGAACTGGCTTTGAGCCATGACCTGAACTAACCTGTACCCACTTCTGCAGTCCCCTAGATCATCAGCCAGAGCCTGTAGCTCAATCCCCTGCAGTACTTCTCCAGGGAGGGAGGCCATTAGAGAGTGAACAGAGAGGAGGCCAGGTGAGCAGTCTGGGGCTGGGGACTGAGAGGCGGTTGATTCCTGGAGTTGTGCCCCACATGGAGAAACCAAGCCTCAGGGAGGTGACTGCAGTGAGCAATCCCACGCCATCCATGGGCTGGCGGAGAAATGGCCATCAAAGAACTGTAACACCCACATTTTAGGATTGGGGCACCTTCAGCCGCCTAAGAGGAGTAAGTGTCTAAGGTCAGTGGGTGAGAAGCAAGGCTCAAGTGGTAGCTGTCTCATCAT
-1 AGTGGTGAGTGTGGGTGGGTTAATCCCTTTAATCTCAGAGACTGGTGAGGGTGGGAGTGGGAAAAGAGGAAAATGTCTCTGCCTCTGCCAGTTCTCCTGTCCCACTAAAGGATAGGCCCTGGGCTGAAGGAAATGTTGTTCAGCAGAGCGTTTTAGAGTCTTTGCATGGGCAAAGGTAGTTCCTGGACCTGAGAAAAGGCTAGGGAGTTAAACTGCTTTGTATCATAAAGCAAGAGGAATTGCTATTGACCATGGAGCCAAAGAAGAGTTCTTCAAAATAGAGAAGCAGAGGAGACTGGGAGAAGCCTAAAGGACTTTCAAAGACACATATACCTAATATCCATCTTTT
-1 TGCTCCTGGCTTGGCCACATCTGTGCTTGGGGTTTGGGGTGCAGGCTCTGTGTAAGGCCCCCCAATGCAGGCCCCAGTGAGCAGGTGCCCAGGGCCGGGCAGCAGCATCGTGGACACAGGCAGTGGGAGGGGAGGGGATGCTGCCTTGATGCTGATCATGAGCACGTGGTGCCGTCCCTGGCTCTCCAGGACGCCGGAGTCCTGCAGCGTCTCAGGGGCCTCAACGCCTCCCCCCTTTAAAATCCTGCCCCTGGCTGAGCCCGTAGGTGAATGACCAGCTCGGCGGGCGCAGAGCCCCTGCCGATGAGCCCCCTCCAGGAGCCTCAGAGTTTGGAGAAGTCCTTGATGGGTGGGAGGGATGGGTGGAAAAGTGTGGAAGATAATTCTCATTATTTCCTGGAAGTAGAGGAGAGGGGCT
-1 TATCTTATCTCCTCGGTTAGCTTATTAGCTATGATTCTTTGACTATGTTTTATTATTACTTAAGTGCGTGCTTTTGAATTTATAGCATAACTCTTTATCAGTCTACCTTCAAGTGGTACTTTACCACTACATACATAGTATAAGAACTTTACATAGCATACTTCCATTTCTCACTTGTTGGTCTTGTCATTGTTATCACATATTATTATTGCCACATATTTTACATATGTCATTAACCATATACTACATTGTTAATATTTTTTAAAGTCAACTATCTTCTTAAAATATTAAATAAGAAGAAAAACTCTGGGGTTTTTTTTTGCTTATAACATTTGTATTCTTCATTCCTATTTAAAGAACGATATTTTCATCTTTTTTTTTTTCTATTTGGAAGACTCCTTTTAACATT
-0.7852429624295005 ATATTGATTCTTCCTACCCATGAGCATGGAATGTTCTTCCATTTGTTTGTATCCTCTTTTATTTCATTGAGCAGTGGTTTGTAGTTCTCCTTGAAGAGGTCCTTCACGTCCCTTGTAAGGTGGATTCTTAGGTATCTTATTCTCTTTGAAGCAATTGTGAATGGGAGTTCACTCATGATTTGGCTCTCTGTTTGTCTGTTATTGGTGTATAAGAATGCTTGTGATTTTTGTACATTGATTTTGTATCCTGAGACTTAAACAACCCCATCAAAAAGTGGGCGAAGGACATGAACAGACACTTCTCAAAAGAAGACATTTATGCAGCCAAAAA
-0.9504939748522213 GGATACAGAATCAATGTGCAAAAATCACAAGCATTCCTTTACACCAACAATAGACAAGCAGAGAGCCAAATCATGAATGAACTCCCATTCATAATCGCTAAAAAGAAAATAAAATACCTAGGAATACAGCTAACAAGGGATGTGAAGGACCTCTTCAAGGAGAACTCTAAACCACTGCTCAAGGAAATAAGAGAGGACACAAACAAATGGAAAAATATTCCATCCTCATGAATAGGAAGAATCAATATGGTGAAAATGGCCATACTACCCAAAATAATTTATAAATTCAATGCTATTCCCATCAAACTACCATTGACATTCTTCACAAAATTAGAAAAAACTACTTTAAATTTCATATGGAATCAAAGAAGACCCCGTATAGCCAAGACAATC
-0.4914704875713786 TTGAACCACATGGTAGATTTCCCTCTCATTTTGAATTTATTTATTCTTTGTTAAATGCCCTTTCTTTTCTTTCTCACTCTGTCGCCCATGCTGGAGTGCAGTGGTGTAAATGCAGCTCACTGCAGCCTCAACCTCCCGGGCTCAAGTGATCATCCTACCTTAGTCTCCCGAGTAGCTGAGACCACAGGTGTACACCACCGTGCCTGGCTAATTTTTTTGTTAATTTTTGTAGAGACAGAGTGTTACTATGTTGCTCAGGCTGGTCTCAAACTCCAGGGCTCAAGCAATCCTCCTGCCTTGGCCTCCCAAAGTTCTGGGATTGCAGGTATGAGCCACCACGCCCAGCCACTTTGTTTA
-1 GGCTGCAGGTCCTGAGCCCTGCCCTGTGGGAAGGCAGCTAAGGCCCGGCGAGAAATCGAGCGCAGCGCCGGTGGGCCAGCACTGCTGGGGGACTCAGTACACCCTCCGCAGCCACTGGCCCCGGTGCTAAGTCCCCCATTGCCCGGGGCCAGCAGGGCTGGCTGGCTGCTCTGAGTGCGGGGCCCACCAAGCCCACGCCCACCCGGAACTCCAGCTGGCCTGCAAGTGCCGCACGCAGCCCTGGTTCCCGCTCGTGCCTCTCCCTCCACACCTCCCTGCAAGCTGAGGGAGTGGGCTCTGGCCTTGGCCAGCC
-1 TCCGCTCCCGCGCGCCTGCCGCTGGCCGCTTTCTCCACCTCCCCCCGCCCCGCCCTTCTCTGATACCTTGGCGAGGCCGGCGCACGGGCCTGGGGACGGGGAATCCAGAAGGCTTCTAGAGGCTGAGAATTCCTATCCCTCACCCTTATGAACCTCTTCTGTCTCCAAAGGTAAGTGGACCCTTGTTCCTGTCCGCGCTCTCCCAGCCTAGCGAGCCCCGGGGTTGGTAGTCCATTCCCCACCCCCACCTGCCTCCTGGTGGGGCCCATTGCTCCCACCCCAATCTGCCCAAGCCCCTTCCTCTGCCCGGAACTGGGGCCCCAG
-0.4502611338615607 CTCTGTCACCCAGGCTGGAGTGCAGTGGCGCAATCTCGGCTCACTGCAAGCTCCGCTTCCCGAGTTCATGCCATTCTCCTGCCTCAGCCTCCCGAGTAGCTGGGACTACAGGCGCCCGCCACCACGCCCGGCTAATTTTTTATATTTTTAGTAGAGACGGGGTTTCACCGTGTTAGCCAGGATGGTCTCGATCTCCTGACCTTGTGATCCGCCCACCTTGGCCTCCCAGAGTGCTAGGATTACAGGTGTGAGTTACCCCGCCCGGCCGGCCTAGGCTTTCATCACAACAGACGCACTG
-0.9157327881999144 GCAGTTTGGAAACACTGTTTTTGTAGTATCTGCCAAGGGATATTTGGGAACGCATTGAGTCCTATGATGAAAAAGGAAATATCTTCATATAAAAACTAGAAAGAAGCTTTCTGCAAAATTGCTTTGCGATGTGTGCATTCATCTCACAGAGTTAAACTTTTCTTGGGATTCATCAGTTTGGAAACACTGTTTTTGTAGCACCTGCAAAAGGATATTTGATAGCTCATTGAGACCAGAGCTGAAAAAGTGAATATCCCAGGATAAATACTAGAAGGAAGCTATCTGAGAAACTGCTATGTTATGTGTGCATTCACCTCACAAATTTAAACTCTTATTTTCATTCAGAAGTTTCGAAAAAGTGTTTTGGTAGCAACTGCGAAGGGATATTTGGGAGTCCTTTGAGGCCTATGGTGAAAAAGGAAATATCTTCAGAAAAAACTAGAAAGAAGC
-1 GCCCCGCCCCACTCTCTTGCCCCGTCTCGCCCCGCCCCTCCTTGCGCTCTCGCCCCGCCGCGCCCCGCCCCGCCCCGCCCCGCCGTCCTGGAGCCAGTGCCCTGCATCTCGCGCAGGTGCCGCCGCAGGACTGCAGGACTGGTTCCTGCCGCGGCCACCGGGACAGTGGTGCCCCAAGGCCGGCTGACCATTTGAAGCCCCTGTACTTGGGTTGATTCCGCGATTCAACTCGAGTTCAGGGATGGAGAAGAAAGGCAAACTTGCCAACTCTCTTGATTAACCTCGCATTAGTGAGCCTTCTTAGGGAC
-1 AGGGAATAGCGCTGGGTTGTGGCCGAGCCCCCAAGCCCTGCTCTTGAGAGGCACTGGCTACACACTCGGCCCCTACCCAGACAGGACCCCAATTCCTCCCTGGCCCCTCTGTGTTCCTGCATCTTCCCAGCCCCTCACCTCCTCTGGCGTGGCCTCACCTCCAGCCGGGATGCCCCATTAGCTGCTCACCCAAGCTGCTAGAACCTCAGGCTAATGGCCCTGTCACCCGCCCTCCTCCCCTTCCGGCTCACTGCCCATCCCGGGCATCCTCCATCAGCCCGCTGAGGGGACTGCTGAGCCTCAGAGACATCTGGCAGCACCAGGAGGTGGGTCCCTCTCTCTGTGGCTCCTCTCTTCACCTGACTGTTC
-1 CAGGGCTGGCCTGTGGGAAAGCTGAGTGTAGGTCTGGTGGTGGAAGGTCAAACAGGTTGTGTGGGCTTAGAGGAGGGAGGGAGCGGTTTGATGGACTTCCTGGAGGAGGAGGCATGCCCTGAGCACAATGGAGTTAATAATCCCAGGTCATTATATGAAAAAAAGCCCCTAGCAGAATGTTTGGCACATAGTGAGCGCTTAGCAAGTGGTAGCTGTTGTCCCAGGGAGAAGTGCTGAGAGCTGGGTGAAGGCGCGGTTGTGAGGATGGGCTCCAGGTTAACTGGGCACTGCTGTATGGAGAGTTTGGGGAGCTGCAGACCTTCTCCAGTGATGAGGATGCGAGTAGGGTGGTGGTCATTCAGTACCCACTTACTAAAGCCCCTTCTGTGCTGGGAACTGCTGGCGGCATGGAGAG
-0.9743869374901898 TTGGGGCTCATGATAATTTCCTTTGATTAGTTTTGCCTAAGTATAAGTTGTCTGCCTTGTTGCCTTCTGGCTTTGTCCAGTTATTTTAAGTCTACTCATTTATATGTTAGAAGCTAGATTATTTTCTTAAGTTAAAAAGAACTGCGTCACGTTTTTGTTTGTTTGTTTTTTTTCATTAGTTTCCCATGTTGGGAGTTGTAATTGCAGAGTATTCCCTTCTACTCCAAAATAAACAACCTTTTAATCCAGTGTGTGAGAATCAGAATGATTGCTCTGGAGGAGTACAAAGAGACAATAATCAAGCAGTTAACACTTATTAAATACCTACTGTGTACATAAACTACCTTGAAAGTATGTTTAAAGGGAGAATTTAATCTGAACA
-1 CTCCCTGTGCGTGTAGCTGCTGTGCTGTTAATATGTTTCCCTTATGACGGGGCCCTGCTCAGAGTGGGCACCACGGCAGACACTGTGGATGGCGCACTGAAGCCACAGCAACGCAATGGCTCACACTTGCTGAGCACTCACTATGTGCCAGGTGCTGCGCTAAGTGATTTTCTGCCAGCCTTCCCCCTCCCCGGGATCACAATCAAAAGAGAATACAAAATACTAAGCCGTTTGTGCAGGGTGTTTTGGGAACACAGAGGGAGGACTGATGCATGGGGAGGGCTCAGAGGGCCTGCGGGAGGGAGGGGCACAAGGCTCTGTTTGAGCTTCACAGTCCCCAGGAAGGAGCAGAGGAGC
-1 CTCCGGAACCGCCCCCGGCCCTCCCTGGGGACCCGTGCCTCAGCGCGTCCAGGCTTTGTGGTGTCCTGAGTCGCCATGGAAACCCGAGGGAACGCGGAGCCGGGTGCTAGGGGGGTCGGTGAGTTCTCCGGCCGCGCCCTCCGTCCGCTCTCGGACCCCGGCCCTGCAGCAGGGCCTGCCGGGAGTTGTAGTCCCCAGGCGGCGGCGGCGCGCGGCGCCAAGGATGCGGGACGCCGCCTGTCCCCGCCTCCCCTTAACCTGCTAGCTGAGGTGGGGAGCGGCGGGAGGAGCCGGCCGCGCGGTGATTGGCGGAGGCCGCTCCCAGCCCCCGACACGCGCCCCTCCCCCGCTCCCCACTCTG
-0.4406078541856231 CATGGTGATGTGTGCCTGTAGTCCCAGTTACTCAGGAGGCAGAGGCCACCCTGGGCAACATAATGATATGCCGTCTCTAAAATAAATAAACAATGAAGAAGGCAGTGTGAACGACCAACTGTGTCAAACACCGCTGAGAGGTCATGTAAGACAAGGACTAAGAATGGACCATTGGATTTTTTTGTGGGGTAAAATATACACAAAACTTACCATTTAGCCATTTTTAGGTGTACAGTTCAGTAGCATTAAATACATTCACACTGTTGTGCAACCATCACCACCAACCATCTCCAGAAGTTCTCACCTTTCCCAATAAAAAGTGCAGTGGCGCAATCTTGGCTCACTGCAACCTCCACCTCCTGGGTTCAAGCGATTCTCCCACCTCAGCCTCACGAGTAGCTGGGATTACACGCACATGCCACCACACCCAGCTAATTTTTGTATTTTTAGTAGAAATGGGGTTTCACCACGTTGGCCAGGCTGATCTCAAACTCCTGACCTCAGGTGTTCCACCCGCCTTGGCCTCCCAAAGTGCTGGGTTTA
