svm_type c_svc
kernel_type gkm_esttrunc
L 11
k 7
d 3
norc 0
nr_class 2
total_sv 1797
rho 0.155436
label 1 -1
nr_sv 973 824
SV
0.2715073333733345 TTTGTCAGCAACAAACCACAGCCTCGCCCTGCCCCACCTCCGTCCGCATAGTGCCCATGGCCAGGCTGTCTGGGCGCAGCATTCCTGGGCCTGCTCTCTGGCTCCCAGTGAGGGTCCCCGCCCCACGGGAGATAAGATAGAGCTGGTGTCAGGGAGGAGGTGTGGACGGGGCCGCACCGGCACGCTGTGAGTGATAAAAGGGGCTTTGGAAAGGTGCTGACGTGGCACCGTGCTTAATGAGGTCATCGCCGAAGCTGCTGCCCCGATAACCTGGAGGTCAGGCTCCCAGCAAGTGGCCATGGCGGGAAGCAGGGCTGTCTGCACTGCCCGTCTCCACCCAGCACCCAGTCGGCG
0.2064854812345005 GGTTTTCCTTTTGCAGCACACTGGGCAGTCTCCCTATAAAACAAAAACCCCACCTTCTGTGCCTTCTGCTTTAGAGCAGAGCTCCCCCTCCCATTTCCTCAGTCTTCCCTGCAAAATCTGTCCACCGGGGAAGGCAGCAGGAACCCTGGGCAGCGGGTGTTCTGGGAAGGCTAGTGACAGCAGATGTCATCCAGGAACAGCCACACACGGTTCTCCAGGCCGCCGTCAGCAGCTCAAGGTGGGGTATGAGTGAGAAGCTGAGGATCTCGCAGCTTGTTGCTGAGCAAGGTGCAACCGGGCTCATGCTGTCATCAGCACAAGACGGGATGGCAAGGGCTTTCAGACGCATTTCCAAGAGTCCAGCAAGCCAGGGGGAAGATGATCCCTTTGCCGAAGTGTACCCTCTAGCCAACTTTTGGGAGCGCTTCTGTTTGCAAAGCGCTGGGGATGTGCCTGTCTCTGTGTGACCCACGAACGGGAAGGGAGAGCACTGGAGTAATGACACTTCTGCTGCTGCTTTGATTCTCAAGGCTGATCTTTAAAACCCTCGCCTTGCTGACAGGTGCTTTAAAGGCAGTCTGCATCTTTTCTTCCCTTGGTGTGGGAGAGGTAAACACTTTGATTTGCTGAAAGCTGTATGGAGTATATTTGAACAGCTAGTAGTTAGCTTTGAAAGTGGAAGTGTGAACAGACACTACTTGTGTCGCTTTGGGTCCTTCACTTTACCCCCACAGAAGTCTAGAGGCGTCTGTTATAAAGC
1 AGGACACGGGGCAAGGCACTGGAGGCAACAGAGGCTCAGCAGCAAGACAGGGTACGTGCAGAGAGCTGCGGGACAGACGTGGCCTCACCAGCAGGACCCGTGATTAAACAGCAGCTGTGGTTCACTAAGTGCTTTCTGCTTATTATGTGCCAAGTACTTCACATGTGGCTGCTTTGTGTCATTCTCACATCAAACCTGATGGGTGGTTACTATAATTATCTCCTTTTACAGATAAGGAAACTGAAGCCCAGAGGGGTGGAGTAACTAGTCCAGCAAAAGTAAGCCATGTAACTGGGATTCAAATTCAGCTTGAACATCTCAGCACTCATCTGTTTTCGATCACATAACACTCCCTCTAGGCATTCACAGGAGCTCAAGGATAGGAGTAGGGAGGGGAAAGCTAGGAGTCCGAAGACTTGAGGGGCCAGGCATGGTGGCATGCACCTGTAATCCCAGCATTTTAGGAGGCTGAGGTGGGAGGATGGCTTGAGCCCAAGAGATCAAGGTTGCAGTGAGCCGTGATCGTGCCACTGCACTCCAGCCTG
0.7117912462234307 AGAGTCCAAAGGCTGAAGAACCTGGAGTCTGATGTCTAAGGGCAGGAGGAGAGGAAGCCAGGCATCTGTCACAGCATGAGAGAGAGAGCAGACTCAGCAAGCAATCTACTTATCCCCATTGTTTAGCTGTGCTTAAAGCTGATTGAATGGTGTCCCACCCACATTGAGAGTCCAGCTGGACATGTGGGCTGGTTCCTCTCACAGTCCACTCACTCACATGTCAGTCTTCTCTGGCAACACCCTCACAGACGTACCCAGGAACATTGCCTCAGCCATATAGCTATTCCTCTGTCCAGTCAAGTTGACACCTAATATTAACCATCACAGCCCTTAACATTTTTTTTGGTATAAATATAGGTATCAAAATAATCCTGGACATATTTTGGATTTTTTTTTTCTTGTGTATATTTTGGATACTTCTAGAAGTCAGCACCTGCACCGCTTCAAAAA
0.6003133913011525 AGCCCCATGTGTTTCCAACCTTGCAGGTCTCCAGTGGATCAAATGAAACAATGGTTCTGAAGTGCCCCGTAAGCCCTAGGAGGTGTGCACTGATTTGGGACGTCAGCAGCAGAACAAACACCAAAGCCCTTAATGCTACCGCAGCATTGCAGAAGCTTGGGTCTCAAAGGGCCCTTTCTAATCCCCTCTACAAATCTCAGCCTCATCTCCCCACCTGCTGCTCCAGGACAAGCAGCTTGCCACCTCCCCAGGCCTATTCTCCACTGTGTGTACAGCCCAGCTGACTAGAGAGGTCTTCCAGATGGAGTTCTTTTCCAGGACTGCAGCCGCCTCTCCCATCCAAGAGAAAGGCCTGCATCTCAGAACAAGAGCAGAAGCCTGGTATGTCTCAGCACGGAGTGGGGTGAGAGGAGATGATAAGCAGGTGCTCACTCCATAGAGCCCTCTTGACATGCAGTACGCAGCGCTGAGCTGGGAGGCTCCAAGTGCACTATCCTGCCGCTCCTGACCCTGCCTGGCCTTCAGGAGCCTCTC
0.909121771710154 TCCCTTCCTTCCCCCACCCCTGAGAATGGATGTTTCCTGGCAATGGAGAAACTGGGCATCGTGCCACCATGGAGGTGCCTGGACTGTTTGTAACAAACAGTTTCATTAGATTACCCACAATTTCTCGAGAGGTAATTCCATTAGACAGTGTTTATCAGTCATCATATGCTCTGCTTGTCATGACTCCCCTGTTCAGTAGCAGTAACACCCCCAGAACAATACTGTGTGTGTGTGTGTGTGTGTGTGTGTGTGTGTGTAAAAACAAAACTGTCTGGGATGCCTTACAGAAGAGGTATCTTCTGTGTAGTAATGAACATAAAATAGAAAGAGACTGAGTAGGCAGCATTAAAATGTAGGTACCCCACAAATAAACATATTATTGTGCTTTTA
0.7453511113537584 TTTAAACTGGAATATCTTTATAATTCAGCCAAACTAATGGATCTTTCCTATTATACCATGGCATTATCATCTAGGTACACAAAAGCTGTTAACACATGGCATACTTAATCACCATTACTACAAGCTGCCAACAGATGCATCAGTCAACAAATCTATTCTAATTGTGTCCTGGAAAGAAGTGTTTCACACCTTTGGAGGTTGACATCTGCACCAGGCAGAAGTGCAAAAAAGTGTTTAAGGTCCACATTTATGGATACCTGATAGGTGCATTTGAGAAAATATGAACGTTGCTCAACGGATGTTTTAAAGAACACAGAACACATGTTAATAACTATGACTGTTAACATTTTAAAGTTTAACAACAGATTAATTTGGCTGATAAGTACATATGTGACTGAATCATAAATTTCACAAGTGCTGGAACCATGTCTTAAACATATTTGCATGCCCCATAGTGCCTGGCAC
0.06627489767936802 TAGATAATAAAAACAATGCATGAGTGGATGAATTTTCCCAGCAATATTCCTTGGCTCCCCCATTGACCAAAAATGGTACCATGAAAGACAAACCTGTAACCCTGCCCCTGTCTCAGTCATTTGTGTCATTGTAAGGGTTTTGTTTTGCTCTGTTTGGAACAATTCTTTGGACACAGACAATTCAACTCGAGCAAACTGTACTCAAGAGGTGGCAGTGAGCGGTCACTGCAGCCTTGGAAAGGCCCTGCCTGGCACACATCGCACTCACTTAGGATGCCTCCACATCCCCAGTCCCAGAAGAGGTGAGGAGAGAAGGCAGCTGCTGACAGGAGGAACTGGGACGGTGTCACCGCTGGTGGTGATTGATGCCCCTGTCCTCGCTTGCTCATTCCCTGCCGTTGCTGCTTCCTCAGCAGGGGAGGTGCCCTTCCTAGCAGGTCCACCCTCCCAGCACGGCCTCTCCCAGGGCCTCTCACCAGTTCATCAGCCCTCACCACTCTCCCTCCAAACCCTGGAGTGCTGACAGGTGCCCAGGAGAGAAAGGCATGGGGACGGATTCTGGGAGCTGACTCTCATGGTTGTTTACACTGAGATGAGAGTGCGGGGGTCCCAACCAAGCTGTGAACAAGCCCCTGCTAGGAAGATAAGCCCTGAGGGAGATACATACACACACACACAGATACACACACACACACACACAGATACACACACACACAGATACACACACAC
0.4234985280747571 CACTTGAAGGTTTGCTTTGGCTTTTCACATTTATTCCCTGGGCAGTACCACCTACACACTCATTTCATCCAGCTCTCACCCACCCAAACCTCAGACACTTCTTGCTGGCAAGAGGCCACCCTCTTCAAAGGCAGGCATGAAAGAAGCTGGGCACTTACTCCTCCACTTAAAACTGTCACTACCACAGAGTGTGAAGGGAGCTGGTTTGTCCTACATTGAAATCTCCTGTAGAGGCCATTTCTGGTCTCTTGTCATGACTGTGATGCTCCTAAAAGGGCTATGACTACCCAACTAGCCCCTCTGCATTAGGAATGGCCCCAGAGC
0.4656681487016264 CTTATCAAGAAAAGCTCCAGAGAGGACAATGCCAGCAATGCCGGCTGTCTCCCAAGTCTGAAGGGTTTTCCTCTGGGTATTAGGAGTTGAGGTGTTCGGTTAGAGAAGAAACAGGATGCACGGGAGATCACACACAGAGTAAGAGGTGCCTCTCAAATGCCTTTCCCACGTGTCTAACTCTGCTTTGTTTAAAGCACAGTCAGACCCGCCATCTGCACTTTTACCTGCTGCCTGACGAAAACCAGATGCCAAAGCCAAAGGCCTCCCAGCACTCACAAGGCCCTTTGCCCTTAGGAAAACACCATGATTCAGCCAGGCAAGATTGATGCAACACTGTAACAAAGCGTGTGCAAAG
0.4208879130578332 GGCAACAGAAAAGTAACGTCAGATGTACTCTCTGATGTCCCAGAGTATAGTTGGGAGGGCGAGTCATATCTCACAACCTCCATGACCCAGTGCTCTGTTGTATGGGAAGGGAAAGTCAGTGGGGTGGATGGAAAGTGTTGGAAGGAATGAGCATGGGGGCTTAGAATGGCAGGGTCTAAGTAGGTGCCAGGGAAAGGAAGCAGAAAGTGCATGTTTGAAAAGCCAGAGGTGTTTCCCTTTGAAAGCTTAGCTGCTACACAGAGCAGCTCTATCCATGCCTTGACAGCTCCCAGACCCAGCTGTCAGAGGGCACCTTTCACTCTCTTTAACCAGCTGAAGTGCCCTGGCTGTCCTGAACTCAACACCTCCACACTCTCAGCTCTCCTGCCTGAGCCCGACATGGGAGGCAGAGCAAAAGGCCACCATCATTTTAGCTGCCCCCTCCCACTCCCACAGAACCCACTGGGTTAAAGG
0.6867858535907314 GGATAATAGTCACTATGTTAGCTGCCATGGTGGATAAAGCTAATATACCTTGCAGTTTTTCCCCTTAGGATCTGACAACCTAGTTTTGTTTCTTTGGCATTGTCTAGTAACACCCAACACAGTCTGTAGCTTTCAGCTGACACTCAGTGAGTGCTCATTATCTAACAGGGATGAATGAGTGGACTGGTTCCCAATGCTCAGCCAATCTTCATGAAATTTCCCTGCTGGCTCAGTGACAAAGAGGAGATATGGCATATGTCAACGGCCTGCAAGTGTCCCAGAAATAGGAGGCAAAAGAAAATACAGCACATAGAGTCTTAAAATAGGAAGACAGTGGAACCCGTCTAGTACAAGCTTGAGCAAACATCTTTGGCTTCTTTATCTCACCTATGAAATGGGAATACCTCTATTTGCCAATTTCATTACAATAATGAGCCACTGCTTCAAATTATCCTCAATAAA
0.1959523971205292 CAAGCAAGCAAGAAAGGTCAGCCACCTGTCATCTGTCCCTCCTAAGTGCAAGTGTCGCATGCTGGGCTTCCCTGCCATCACACTTACTGTCCACTGGGGCTGGCAATGACTGTTGAAGTGTCTCTGCCCTGCCAGGTGTTGAAAGGCTGCGTCTCCTTCACTGTTGCATCCCTAGGGTCCATGGTTGTCTCACTGAGTGTTTGCTGAATAGAGAGGTGAGTGATGATGAGGAGGGCCCTGTGAGAGGCCCCTGGGGTTGGCCTGTACCTACACGATGTTCTCCTTCTCAGGGCCTTGCCCCTGCTGGCTGAGGAAGGGATGGGATTTATTCTGC
0.1999302384057695 AGGGAATTCCAAGATGAGAAAGTGTAAGAGATCCCGGGACCAGCTTATACTTTGTGGCAGAGGGAAGGACAGTCTGAGAATAAACGTTTGCTAAGGAATGATCTGTAAAGAATCCCCAGACAGTCATTAAGATATGAATGCTGAAAGAAAGAAGTGTTGGAGCTGGTTAGCAACCCCAGACACTCCCTGTCATCAGTCCGACATGCTGCGTCCTGCCTTTGTTGCTGGGGAGTGTCTTCCACACCTACTCTCCTTGCTTCCAGCCCAGACCTCATTCAGAGGAACGAATGAGGTGTCTGCAGCGTGGCTGCTTCATCTGACCTTCTGGAATCTAGGGACAGCAACCAAGTGCCTAGCAAACTGACCATGGTCTCCTCCTTGCTGTGACCCAGAGCTGCTCTTCTTGCAAATTGGAAGATATCAGGTGCCTTGTTGGTCTCTAGT
0.8997995479818212 TATCAACACTATATTCTTCTCTTTGACCACCGCATGCTGCCTACGTGGTAGACTCTCAATACGCATGGAACTGAACCTCTTACAGGATTTGTAACTCACTTCTGTGGTATCTAGTAAACTGGAACACGCGCTTTCCCTGGGCTGCTCTGTCATCCCAGGTTTCAGCACTCGGAAATCGCTTGGGCCCCCGCCCAGAGGCGGGGCTTGGGTGGGCTGACCACTCCTCTGGCCTCCAATACTGTCGCTGACATTCTCGTCTATGCTCCAGCAGCCGTACCTCACTCCGGTGGAGGCGGGACTTCCTACAGCACTTCCGGCCAGAGCCTCAAGCTTCGCTGCTGGGCAGTTGGCTGGAGGGGCTGCTGCTGGGAACACCTGGAGTC
0.1686472168561198 TTAAAACTAGCTGGGACATTTTGGTAGGCTTCATGCACTCAAGGGCTTCCTGCGGGCTTAACTGTTAAGCCGAGCTCATGGAGGTGGTGTTATCAGAATGCTTAATGGGGACCGAGGGAACGTGCTGGCTGATGAGGTTCTGCACATATCAAGTAATGTCAACTCTGTGCCACTCAGCAGCTGCCTGTCAGCTAGAGCAGCACCTTTGATAAGTGGGTCCTGGGTAGAGATCTGGCAGTCCCAGGCTGGGATTTTTCTTTTAATAAAACATCCGTAGGTTGCTGTGCTGACGACAAATGACCTTGAAGGAGGTGACACAGTGGAGC
0.8519142833183224 GATTCCAGAGTGGACAGAGATCCCATGGGCAGATAGGGGAGGAGTCCAAGGCAAATTGCCTGGAGGAGGAACCTGAACTCAGCCTCCAAACACCCCTCTGCCCTGGCAGGTTCAGGGCTAGGTCATGGTGTGAGCTTGGGTGGCAACAGTAATGACAGGAACAGCAGTCATCAGTAAGTACTTGCTGAGTGCCAAGCACCTTTTATCCTCCAGACTTTCCCAGGAAGCAAGAACTGCTCTTTGCATCATTTTACAAATGAGGAGACTTGGAGCAATGTGGTAACTTGTAGCATAGGGGTCACATGGTGGTAAAGTTGCTGTGGCTAGATCCAAGCCCAGGTCTGCCCTGCTTAAAGCCCTTGTCTTTAGGATTGCA
0.7728511742914494 GACTTTGGCTTCTACTCTGAGTGCAAAGGAAGAAATCACAGGGTTTTGGGCAGACGCTTACTGTTTGTACAGTCATTTAGGTGCTGTGTTGAGAATAGACAGCAGGGGGCGGGAGAGGTGGCAGGGGGCCAGCCAGGGGCTGTCGCTGAGTCAAGGGTGTCTGGGACCAGGGTGGTGAGAGGCGGTCAGCCTCTGGAGGTGTTTCGAAGTGGAGCCAGTGAGGTTTCCTGACTGACTGGCCGTGGGGTTGAGAAGGGCGAAGTGAAGGAGGAGTCCCGGGTTCTGGCCTGTGTACCTGGGAGGTTGGAGTTGCCACTGAGATGGGCAGGCTTATGGACGCAGCAGGTTTGGGGTGTG
0.9383161589297466 TTTCATAATTTCATAGACTGCCCAAGCATTTCAGCAAAACAAAGCCACACTGAAAAATATTGACAAGTTTGTATGCATAAAACTGTAAATCTTGTTTATGGGAAAAAATGCAATAAGCAGAGTTAAAATTTAAATGACAAGCCAGGAAAAAATATTTGTGATTGTGTATGACAAACAAGAAGTTAATATTACTTGATGGGATCTGAGCTCTGCACTGTTTCTCTAGCACTGGGCAGCTGTTGAAACCTCTTGTCAGTGCTTGCTTTCCTCTGGATTCCTTGGAGTCTTGCCCTGTACTGGTGCAGCTTAGGAGTCAGCCAAGAATTCGAGACGAGTTATATACAGATTTGGGGGTTCTCCCTCTGTTGGTCTCTTCTTTCTGGAATTCCTCCCCACCTCCTCA
0.3044324207232066 TCGTGTGCACAGGCTCCCAAGCAGCCCTTCGCCCCAGCTGACAGCTCCCCATCTGCCCCTCCTGTCACACCCACACAACACCCTCAGCTCAGCTCCTGGGCTCTCTCCAGCTTCCCTAGCTAGTCCAAGGCCAAAGGCACATTCCTGCCTGCCTTTCTTCCTGAGTGCTGTGCCCCTGTGCATCCAAGAACGAAAGCCCTGGGCTGTACCTGCAGTCGGGGAGCCTCAGCCTCCCTCAGCATTCCCCCCGGGGGCCCCGCACCCTGTCCTGGAGCCCAGGCACTGTGCATGCCATAAACGCCAGGACAAAGGCCTGGCAGTGACCCCCAGGCTGGCCAGGCACTGATGAAAGACACAGTGCCTGTCTTGGAGGGATAGGCTCAGGGGGGTTGCTGGGCAGCCATCAACAATCACCAAACACATGTGATAAGCGCTGCCATTGAGGTGTGAGCACGCAGGGTACTGAAAGCAGAGGCAAGTCCCTGAGGTTCCCCAGGAAGATAGAGGTGAAGCAGGGATCTGCAGGCAGCAGGGGTGGGGAGTGGGGGGAGCACTGAGCTGTCCAGGATGAGGATACAGCCTGTGTGACTGTGCAAACACAGGGGCACAGGGGAGG
0.2406008470683027 CACTGCTTATTACTCTTTTTTTCAAGCAAGAAACAAAAAGAAGGAGCGGGACATGCTCAGTAGCTAAAACAGATGACCTTCGTGACATATGAGAGAGGCCTAATCCTGACAGCAGGAATGTGTCTTTCAGACACTGGCAACCCACTTGGCATAGATATGCCAACACTCACTTCACCAAGATGGTCAAAACAAAGTCTGGAATATGTTCTATTGTGTGAACAAAACAGAATGGGAGTATTTTAATAATAAATCACTTAAACAAGTGAAGGCAGCTGTCAGCAAGGTATGAGCTTCCAACATGAAGCACAAAGAAAAACATGCACTACCCTTTATAATCAGACCAAGACTAAAGGCCAATCGGTTTTGTGTCTGG
0.2624528718633479 CACTTTGATAGTACTGATAGGAACCAGGACTCCCGTGACTACCAGGAAAGGTGTTGCTGGTCTTATAACTACCCACTGGGGTGTGGGATACAGCCTCTCAAGTCGGGTCATACCTTCTGCACCAAACACCTCTCCGCAGTGAGAGCAGAAGAAGTGCTCTGGGTGCCAGGTCTGGTTCATTGCTGTCAGCACTTTCTGGAAAGGGAACACACAGATATTATAATGATGCAGAAGTTGTAAAGCATGACTCTGGTTCTAAGTGAGTGACTGAAAGCTGGAGAGGAGCGGGGATTTACTTAC
0.6398403932828646 TCTTACAAAGGCTTCTTTTACCTTAGCATTTGAAATGTTTTTATAAAGTATCTGCTTACAGATTTTCACAATGCCTCTGAGGTTAAAATGGCAATTATTCTTCTGCTTCAATGCATCATGTGGTAGCACTTATCTCTATCCCCTTACAGAAGCCGAATATCTTAATAATAATACCTTATATCTAAAAAGTGCATTATCACTCAAAGTGCTTTCAGATATAGATCTGATCTTCACAACATCTCTCCCCACAATGGTGGTATCCCCCAGGGTTCTGTCCGTAGCTATTCTCCTTTCACTTTTCACAGTTGCCCTGGGAAATGTTATCCACACCTGTGATTTCAACTGCCACTTACATAGTGATGATGGCCAGATGTCTATTTCCAGCTTGCTATTCACACCAGAGATGCAGACTGGCATGTATAGCTGTCCACTGAATGCCTCTCAGGGCTTACCCATAGTACTCAACACGTGCAAACTGTTATTTTCTTCTCCAGGTCTGTGCTGAAATTCTCTAGGATAGCTAACAACACCATAATCTTTTCCGCTATCCAAGCTGAATGTATGAGTCTCAGCTTCTCCCTCTCTGCCACTCCCGTAACT
0.4723487452550982 ACAATCTATCACTGGGGAACTGACAGCTCTCGCTCGCTTCCCTCTGCCAGAAAGAATTAAGATTGTTCCTAATTTAATCTCTCTTCCGCATCGAAGGCGGATATTTGTGTTTCAGCAGCAAACTTGTATTAAAGGCTCTTGGGTAGGAGGCTTTGGATCGTCACAGACTAACTCTGATAGGTGTCTGTGTGCCTTCGTGCAGATGGGGCTGGCCCTGGCTTCAGGGGCCCTGGGCAGAGGCTCCCAGATGCTGCCCTTGATGAAACTTGCAGCCCTGTGGCCCTGCTGGGAAAAGATAAGAGGGCAGATTTGAGAATCACTGGCTTTGTAGTGTCAGCGTAAGGGTGTTGGGGGATGGCTGAGGCTGTCACAGACACTGCCCATTGTACAGCTGTCTGGCACGTCGGCCCTCTAGCTTTCTACAAGTCAGAATCACCAGGCTGCTCTTGACAGCATTCCAGCTGAGCTGTGCCCTGGCTGTACTCCCATGGGCATGGTGCAGGGATGTTGGTACCCCCCCAAGTCCCCTTTGCTGGATGGGTGCAGCCCATCCCCCAGCCCCTGTGTGTGTTGGCCACTAAAGCCCCCAGCTGCCCCTTCTCTGGATAATTCACCTGAGCTGAGTAGG
0.8812451968088458 GTCCCCAGCTGGTGTTCAGAACATGCTGTCTCCAAAACACACGTTCCTGAACACAAAACTTTCTTCTTTTTTCCCCATGAACTCACTGCCTTCAGGAACTCTTTCTAAATTAAGAGGAAAAAGATATCTAAAGCAAAGAACTCAGGGAGAAATTGTAGGGGTATTTTTGTATGCGTGCTTTCTTTAAAATGCAGCTTCCTTGGAGATATTAACGATTTCGCCAATGTTATCCAGGCTTGGCATATTTGTAGAGTCCCAACACAGTTTCTCCTCACCAAGGGATGGAATATCAGACAGTATGTCACTAACAGAGAGGGTGTTAGGGATAGAGGACAGACCTCAGAATCTCCTGTCTCTAATCACTAGGCACCTTTCCAACTGGGCTATAAAAGCCGTAGCACTCTCAGTTGTCTGATGCATTCTGACACAGTAAAGAACGGCCATAAGCAGGACCCTGCCGCACCGTCCTTGGACTGGCCTGGAGGCAGCCACGCTCTTCCTTCTACAGCAATTTCTC
0.7529788418758999 ATCCAAAGAGAAAATGTATTTGAAAGCACTTTGGAAACAGGGAGACATGATAGAGATATTAATTGTAACTACAATCAGAGATGGGCTTAGATAGCCCAAAACACCTAGCAGCTCCATTTTGATAAATGGAGGAAAACAGCCTCTTAGTAGAATATACTGGGTTACACAGTCTGATTGAATCTGCTATTGTGTTTAGAAGTCAACAGTCAAATCAGATCTGTTAGGAGCCTGCCGTATCGTTTCCCTCTATAAACAGGTCGCTCATGTCAACACCTATGAGTGGGTGTCTGTGCATGGAGAACATGCCGGTGCTTTGCAACTGCCTGCCATCCTCGGTAAAAGCAGCCACAGAAAGACTCACCTAGTTCTTTCCTGTATTCCTTTATGTCTTATTTTTCAACAGAAAGTGAAA
0.3388474739477603 AGCAAGTGGAACTACATCCATGCCCTACTGTGTTAGAACCATCCCCACCCCTCAGGGAAAATGCAGAGGCAACCAAGGCTTTGCAGATAAGTAGCAAGTTGTAAGTCTGGGTCTCCCACCAACAGCATAAAAGGCAAGAGGGACAAATGTCCTCAGGACCTAGCCCTGCACTGAGGACTGGGATCAGAAGGAGTGGGAGAGCAGAGCCGCCCCAAGGTGAAGCCACCTGCCTGGCCCTCTCTGTCTGGAAAGTGCCAGTCGGTATCAGAGGTGCTAACATCCACTGCTCCTGACAGCCTGGCTTGTCAGCAGCCACAGACCATCTGGGGGCTGACACTTGAGCTCACTGACAGGAATCACAGTTTGCTTCCATATCTCTCTGTCTCCAGCCCCAGGCAGCTGCAGGCAGATGGCAACAGTCCATCTGCAAACAGGGCTGCAGGCTGATGGGGTCCCTGTCCAGCGGACCAGCATCAGAAAAGCCAGTGCCCATAGGCCAAAGGCTATTAGATGGGGCTCCTGGAGTTCCAGCTGTCCAAGGCTGACAT
1 GTATTTTGGGGGCAGAGAGTTTGTCCCTGTGCTCCAGAAACCACTCCACCATCTGCCTCCGTGCACAGGCCCCACCCATCCCGGAAAAAGAGGGGTCCTCTCCTCCCACTTCAGGGCTCTGTCCCGGGAGGCCTGGTCTGTCTCACCAGGCACTTCCTACAAGTACACAGTTTGGTCATCTGCCAGCAGTCTGTCTGTCTAAAGTGTTTATTTACTTTAAAATAAGACTCAATTATTATATAATTTTTTTTTGCTGTAAAAAATAAAATAACATAAAAGTATCAGTAAAATGTGAGGCCCCATTCCTATGCCCCTCTCCCAGCCCCAGGGACCCTCCCAGGGGAAATCACAGG
0.4553755939504233 GCCTCCCTGGCTCCTGGCAGACCCTAGATGTACCTCGAAAATGTACTGATGTGTGAATGAATGAGCGGATGATGTGTTCCAGGCGTCTCACCAGCCTTCCTTTATCTGCACACTCTTCACTTTGCTAGGGTCCCTCTCAAAAACACAACCGGATCAGGAGTAGGGGGAGGGAGGAGAAGGGAGCTGCTGTAAAGCAACACACTGCTGTCAACATTTTTAAATGCGCATAACCCAAGAGAACATGCACAGTATATTTTGCGAAGTCAACTGGAAAGTGTCAGGGCCACACCTTACTGTAGTTGAAATTCAATGGCATTGAGCTCTTGATATTATAGATAGTAATTTTCTAGAGTACACACAATGGTGTGTGAACATATGACTGGGCTGGAATCTATCAAAGTACTTGCATGGACTATTACAGATCATTGATGCATTACAGTAAGCCATTTGTGGATATTTTATGATATGTACACAGACTA
0.8153731712903662 AAAAACATTAAAAGGCTGAGTGGATTGTTCAGGTTCCTGTAACTTCCTAGTGGCAAAACCAAGGATAAAACCTGTAGTGGCTGCTGTGGTGCACTGCTCAGATGCCTCCTCCACAGCCCTCCTCCCCACCACAGTTTTATGTCTGAGACACTCATTCCATCTGTCGACAGCTGGGAGTGTTAGTTGCTGAGACAAACAGCCAATTTCCTCTCCAGGAATTATCTTCTTTCTCTGGGCACTGTCCTCTGCCAAAGGGAGTTGCCTTGCCTAAGTTTATACCTCCTCCCTAGGCTAGGGGCAGCCTCTGTGGAAGGGGAAATTAGAAAAATCAGCCTCTTTACCTCAATTCAGGACAACCCTGAAGGGTCATTTCAGCTCCAGAGCTCCCTC
0.6110518847305069 TCTATGTTTCCTGAATTCATTGTTCATGAAGTTAATGCCCTCATTATATGAAATATTGAAATCCATCCTCACAGTCCTTGCTTTCTGGCTGAGGACACACATGATCCATAAATCTAAAATGGGCTTTAGAACAGTTACAAAGTAGTCTGCCGATGAAGTGAGTGTGAGTGAAGAGAGCGCTGAGTAAATGGCTGATAAGGGAGGCGTGGGGAGAGGAGTGACGAGTCCGAGTCCTTGCAGCCAGAGGTAGGGCACAGGCGGGAGACAAGCTGCGGGTGGGGGACAGCAGGCACCCCAGCAGCAGTGAGAACTCAAAACTAGAGCAGACGGCTGTGAAGACTGGGAGCAAAGGTTCAGTTTGGCAGGAGGAATAAATTCTGAAAATATATTGTAGAGCATGGTGGCTGTAG
0.5271575262248952 AAAAACAGACACACAAAACAGCCTAACCCAAGATAGATAGAAATCTGTCAACAGTTGAACTATTATGGTTTCTATTATCGGATCATGCAATGAAAACACTTTAACCCTTCTTCACTTAACCAACTCACTCAATTAATATAGGTCTCTGTTTCCTCTCTAAAACACACTGACCTGTCACCAGACACCCACTGAAGGGATGCCGCGGGAAGGGTCTTGATTTGCATGTCTGAGTGCTTCTGTTCCTATCTGCTGAACTGTATGCTTTCCAGTTCCAGTGGAGATTGTGCCCACTCCCATTGATGTCCATTGTTATTATCATTTTACAATTTAATTAAATATTACATAAGTGCTGAAATA
0.7187609138370417 CCCGTTGGCCTCTCCCAGGAACCCTGAGCAGAGGCCTGAGCCCAAGCAGACGCTGCAAGGCTGCTCTTCTCCCTCCCAGTCTGGGCAGCATGGTTTCTGCTCTGAGAAGCCGCCGGGAGCAGTTGAGATGAGCTGGGTGCCTGGTTAGTGTCTGCACCACCTTTCGGGGCCTGACATGTGGCGTCTCGCCTGTAGGCTGCGGCCAGCATCTAAGCGGAGCACTTGGATCTAGCAGTTATTCACATCTGCGGCTCCGTGTGTCCCCCTCCTAGAACCTCCCCACAACCCCCAAATTAATTGGATTGTGTAAGGTTTTCGTCACAGTGGATGTCAAGTGCTGGCCGTGTTAGGCACAATATAATATAAGCCTTGTATCTATTTCTTGTCTGAACCTAACTAAATAAAAACATCATGTTTCCCTGCTCAGTTGAGATAT
0.4894437814540469 AGTCTATGTGCACCGGCCTCAGTCCCTGGCCATGATGGAATCAGGTGGCCCATCTGAGCCCCTGCCCAAACACCATCCAGTCTTCCTTGTGCCCTCCAGTGATTTGGGTCCTGGGCCCATTCTCTGTGCCTCTGTTTCCTCATCTGCATAATAGAAACAATTTCTCAGTTGATTTCCATTGAAAAAGTTAAAAATCCCATTAGGACCCACCCGAGCACATGGCATATGTTTTCCTTTAAACACGTTGCTGTGATGACACTCAGAAGAGCCTGGGCCACCTGGAAAGCATGGCCTCCTGGCTTCTCTGAATGTCATGCCATTTCCCAGGCCTCGCCTCTGTGTCCTTTCCCTCCCTCACCTCTGACAGTAATTGTGCTGACGAGAGAAGATGGGACCTGCTAGGCCCTGCATGAGGAGTGGCATGGATTAACTCATTTACCCCTTACGGTCCTCTGACAGGTGTCATCAAGTCCGAGTGACTGTCCCCTCTCAGCCTCTCCAGTCCACATGTCTCTCTCCACCCTCCTGCCGCTACCCTGGCACAGTCTGTCGGCGTTTTCCCCTGGCAGCATGCCACAGCCGTCTGGCTGTGTCTGCCTCCTGTCTTCCTCTCGCCA
0.1986187191845431 TTCTGAGGGAGACATTTGATGGGCACATTTTATTTTGATTCAAAATATGATAATGGCATGCACAGTCCCCATGCTTTCTTGCTGGCACCTTTGCATGAATTGCTGCCAACAGAACTCTTCGAAGCAGTGCCTTCCCTGGCTCTGGGACTCCTCCGCCTGCCCCGGCAGACTCAGGAGGATCCCACTTGGTGACTGTTGAGTGCTGACATGTCTCGATAGAAGGTGTGACTGACTGCTGAGCGGGATTTGCTCTCAGTAGTTTAGTTATGAAGTTCTTGTGTGTGAGTCTGTGTGGTGGTTTTAGCTAACAAATACGTACAGCACAGCCAGGTACAGTGGCTCA
0.4329730074759254 CTCCGAACTGCTAGGCCTGATATGTACTGTATTAATTATTTATTGCTGTGCAATGAGTTACTCCAAAACTTAGCAGCTGAAAGCAGTAACATTCATTATGTCATGCTTTCTGTAGGTCAGGAATCCAGGAATGTTAAGTAGGTGCTTCTGACTCAGGTTCTCTCATGAGGTTGCAATTAAGGTGTTGATCAAAGCCAGTGTCACTTCAACACTCAACAGGGGAGAACCCACTTCCAAGATCACTCACGTAGTTGTTCTCAGGCCTAAAAAAATCCGCTTCCAAACTCAGTCACATGGGCCTTATGACATGGTAGCCAGCTGGCCTCCTTCACAAGAAAGAACTGGA
0.3976689050515257 GTGTGGTTGATTCCCTGCCATATGCTCTGAGTTTTATCAGGCTCAATGAGAAATACCAGTGCTTGCTACACAGAGATTTCTAATGCACCCTCACTTCTGGCAATAGTCTGGAATTTACTTCAGTTGATTTAAAGAATTTGTGAACAAGAATTTTATCTGAATTGTCATCACCTTGGAGCAACTGGTCAGGCTGAAAAGGTGTCCTGAATGGGGCTAGACACGTCAGCGAGACCTGCCAGGTGTCTCGTCACTCAGCACGGCCACTTCCTAATAGTAACAGGATCAGCCCTGGGGACTTGCTGATGGGCAGCATGGCAGGATGACCCCAGCCATCTCCACATGCACTCTGATAAGGACTGGCAGGTTAAATAAGGGCATATGCTGCATGCTGCTCCATCAGCACCTCCACTTGGCTCCTTCTCAG
0.5338370613521466 AGAATAAATTTCTCTGTATGCGCATATTGGTAAGGGGTGAGAAGCAGGCCAGCTAATCCTAGAAATAGATTCCATGGCAAAGGGAGCTTGTTGCTTGACAGAGGGCCAAACTTTGAATGACTGGGATCTGAAGTATTCCCATTGTGTTGTCATCCTTTCACTTAATATCCTTTCACACTCTTGCTACTTGAACTGACAGCCCTAACCTGTTATCACTAGGTAGTGCAGCTCCATGACATAAAATATACAGCTAATTACAATGCACTTCACAGTGGCATATGACAGCAAGGGTGCTAGAAGAAGACCCGCCCAAGCAAGAAGCCACTAGATGCATTTAAGAGCTGCTTCCCAGGACAGTGACAGTAGAGAAATGCTCTGTGTTTATGTGTATA
0.4813775485008678 CATGGCCTTCCTTGTTCTGTCTTCCACATCTGAGAGCAGGGATTGCCCTTATCCGCAGTGAGCATTTTGTTTAAGTAGCAGTGAGTTCACTCCAGGCAATGCTTTGACACTATAAATAGACGTGTATTTGACATTCACACACGTGTCTGTTGAGCTAATACAGACAATCATTTGATGAACCTGCTAGTTAGGAAGTAGCTGTGATGTGAGAAGAGACAGTGCTGGCTGTAGATATACACCAAATTTCCTCACTTGGCTGTTGATACAAGGAAAGCATCTTGATACTAATAGGAGTAGAATGCAAATGATACTTCTCTACCTCCGATCATTGGATTACATTCCTTTTCTCTGGGGTGAATCTTTAAAATGCTAATGGCCTGAGTGCACCAACATGAAGCACACAGTACCATCTGATTAGTTGCTTTATGCATCCAGAGAGGGTATTTCTAAATCTCAAAGTATGATTGAGTGTCAAAAATCCATTTGGGGGAGGGGCAACTCCTGTGTTGTGCTGCTTCTATAACAGCACAAAAAAGTCTTCCAGTATGTTCCTGCCAGCAAGGAGTTGGCAGGGCGGGGAGAAACAAAGGCTGTCGCCTTTCCAGTGATGAGTGCCTGTAATATGAAGCCGGGAGTCCTGACTCAGCACCTACAGCAAACCTGGGTTACCCAGGGCTTGCCACTTGTTTTGAG
1 AACCCTATTACATCTTCTTCACTGTTTGGCTTCAAATGGCCCTGGTGTGGAATAGAGGTAACTCAGAATTAGAAACTTGCCTTGGGTAACTGAGAGTTCTTAATATAACAAATATGGTGAGAGTATTCCCTCTCCCATCATACCCAGTAATGTGCTAGGGGAGGCTGAACTAAAAAAAAATCTTAACCTTCTTGTTAATTAAAGGGTCAACTTTAGAACTTCAACACAGTACTAGATGAGAGAGCAAAACCAAACAGAATGATGACCACGCTGGAAATTCCTCCCTGTGTGCTGCTGGCGCTGACATCCTGATAGAGTTCAGGCGCCTGGTGAAGCTACACAGACGGTGCCTGGTCTCCAGACCACATGCTTTTCATCTACGTCATAAACATGAAATTTCTGAATTGTTCCATTGGCATTTTCATCTCTGTTTAGATAGAGATGTTATAAACTTTAGTTATATAATTGGGACCCATATCATGCCAAAGTAAAAAATTTAAACATTTCCATTCACTTGCCTGAGACCTCCTTCTCCTAATTTTGCAAAGCTGACTTGGTCATTTCAGTAA
1 AGGACAACTCCTTGTATATGTAGGACATATATAAGTATATCAATATTTTATTACCCTCTAAATCTTACATATGAACCAAACTTTTTCTTCTTTATTTATGGCTGCCTTCATTACAGAAGATCAAAGGATTGTATCTGAAGCTTACAAAATTTGCCTGACGTAGGTGTCAGAAACAAGTGCTAAAATGGAAAATGTGGAATCACTAGCCTTCAATGATAACATTCCGAATAATTCATACTAACATGCAAGGAAGCTCCATTCCCTAGCTCTCCCACCACTTGGTATGTGTTGAAAAGGTGCTGTGATGAACAATAGACAGGCTTTTGTCAGATTTAGTTTGCCGTATTGCATGTACATGAAGCCAAAGAGTGACTGGGAAGAATCCCAGCAGAGCACGAGAGAGCAACAAACTATAAAAGAAAAAATGAGAACGGAAAGAGGGGAAAAGGTGAGAACTCAAGAGAACATGCTAAAATGAAGCCAGAGGGAAATGTTGAAAAGGGAGAGAAACACTATAGAGGAGGGAAAAAAGAAGAAGTAAAGTGAACAGTCTGCAGGCAGAATCGTTGTAGAACTGAACATATCTG
0.6764916793811809 CTCCCGTCCCTTATCATTTGTTTTCACTGAGGCTAAATGTATCTGTTCAGTACATGGATAGATTTTTAAGCTCCTCTCACAAAGTCTTGTGCTTGAGACAAAATCAGCCCAGGTTCTGCACTTTGTCTATATTTCAGCAGCTCTCCTGCTTGATATTAAAAATAGCCTTGTCTAGTCCATCGAGATCAGACCCAGGAGACAGGCGCCTGCTATTCTAATCTCTGCTTCACAAATAGCTCTCTATGGGCTCAAGCATCTATCAACACTTCCAGGGGTCTCCAGTTATAAAACAGGGCCAGGCCTAGTCACCTATAAAGGTAGGCTCTGCTTAACTCCCCTGAGCTGTCCATGAGGTTAGCATGAGGCCTACAACAATCACATTTCTACCATGGACCAGAGACTTCCAATG
0.7992993159617079 TAAAGGAAGGGTTGGCAAACTTTTTCCATTAAGAGCCAGATGGTAAATATTTCAGACTTTGTGGGCCATATGGTCTCTCTTGCAACTGCTCAACTCTGATGTTATAGCTCAAAAGCAGTCACATACAAGACATTAACAAATGGGTATGGCTTTGTTCCAATAGTTTACAAACCCCTGTTCTAGAGGGAAGACAGATATTCAAAGAAACCATTGCAATACAGTGTGGTAAGTGTTACCACACTTAGATAGAGGAAGTGGGGAATGATCTAGCCTGTCACCACTCATTGTGCAGTCTTTAGACAAGCTGCATTGACATCACCAGGGAGCCTGTGAGGAATGCAGATCCTCACACCTCATCCCAGAACTGTGGAATCAGAGTCTGCATTTAACAGACTGAATTTTTTGCCCAGTCCCATTGGTAGCCATTTTCCATATGATGCAAAAACTCTTGATAAATATAGTAATCAATACGCACACTAGGATCACAAT
0.7172284777883028 CAGCGGCTCAGGAGCCAGGGCAGCCAGTGCGGTTGCTAGGGACTCCCCAGACAGGAAGGAGAAGACCGACGGGAGGGAGGGTGAGGAAGTGCAGGCGACGCTGTGGCCCTGGACCAGGGCCCCTTCCCTCCTGCGTCTCCACCCCTTAGAGGAGGTGTCTGTCAGACACTGTCCCGTGTGCCTGTGCCATCAGCAACACCCCAGACATGAGTGTGCAGTGATAACTGGAGTGTCACTTCCCTCCTTGTCAGAGCCCCAGCCACTGCGGTCACATTATTTAAAAAGCTGGGCTGGCATCTCCACCACTCGAGAGCCTCCCCAGGAAAGGAGGAAAAGAGCTTCATCCTTCCCTCCTTACCCAGCCCTACCCCCTTCCCTTCACA
0.4842579693644753 CTCCTCTTTCCTCAGGGTAGGAGCGAGTGGGTTGTGGTCAGAACGTCGGCAAGTGGCACTGAGCAATGTGGGGTTCAGCATTGAGAGGCTGAACAGCCTACGGTCCCTGGTTTCTAGATATTAAAAAAAAAAGAAAACTCCTTAGCACCCTGATCTAATGAGAGCTCTGGGGTGTGAGTGTTTCCCTGTCACCGGGTTTGTGGATGGAGAGGCTGTTATTTCAACAGCTAGAGCTGCTCCTGCACGTCAGCCACGAAGTCCTCATAGTGATGAGAGTCTGGCCTGGCCCCACTGCTGTGTGTGAACTATGGACTGTTGCCTGCACGTGAGCGGCAGAGGAAATTGGGCTCCTTGGGAAGAGAGGAAGATGTCGC
0.1348737284453607 ACTCAAAGGTACCCTGACCTGGCTACCTAGGTTATGAAGACAGACCCGGCCGGGGTCCCTAACTGAATGCTGTCTGAACAAAGTGACATACTGCACAGGGCTTTAAAGCAAGTGTGCAGTGATGGGCAGCTCTGTGGCTCTAGCGAAGCCCTAACAGGCCTCTAAAGCTGTTAACAGGCTAACAAATCACAGCTCACCCCACACCATCAACACTGGCAAAGACCCTTCTTCCAAGACACACACACACACTCATTCCTACAGAAAAGCAATACAGAAGTCAAGTGCTCTGTTTGTGGGTGTTAAGTGGCACCCGCTCAAGCCTGCTGATTTTAGCAAGCTACTCCCCGCAGTCAACAAGTCATTCGTGGTAGCAGTGGCAGCAGCAACGGCAGTAGCAGCAACAAACCCAGTAGCTAAACTATCAGAGAAGGGCACGCCATAAACCTGAA
0.8700986670632104 CGCTTACTTGATCTACCATGACCTTTTCACGTGGACCTCTTAGAGTTGTAAGCCCTTAAAAGGGCTAGGAATTTCTTTTTCCGGGAGCTCGGCTCTTGAGACGTGAGTCTGCCGACGCTCCCAGCTGAATAAAAACCTCTTCCTTCTTTAATCCGGTGTCTGAGGAGTTTTGTCTGCGACTTGTCCTGCTACACTATGTGTAACTAATTCAAGTACCTTGTCATCAGTTCTGCCTTGCCGGTGATCTAAATGGACTCCCCGCAGGGAACAGCACTCATACTGCAGAAGGTCTTTTCTTTTGCCTTTGGGTAACTGGCTTTTTACACTTTATTGAAATAATTCCTAAGTTGTGATTTGCTTAGAAAAATTGAGATTAAAATGTTTTTAAATTA
0.4735799607851403 ACTCCTCGTCAGCTATAAGCTTATGCATCCTGCATGGTAAAATGCCCAGCCCTGTGAGATTCCTGATGCTGAGGCCAGGGCTGGGGGTGGCGCGCGGGGGTGATTGGGTGATGGACGTCATTTCTCTCTTGTCTTTTCATTCACACACCCACTCTGCGGAAGGCGGCTTTTCCTTTGTTTAGAGAGCTTAATCTGTCTGCACCATGAAGGTGGGTGTGGAGTGAGGAGGCAGCTGTCCCCATGTCACTGAAGGCAGCGCAGTCACCACACTGCATACCCCGAGGATGTCAACCCCACAGTCAGCCTATTCACTGCATTTCCCCTTG
0.9515830592804895 CAATAAAATAATTGGTAAAGGAAAACCAAGCTACTGTTATCTAAGACAATTTTCTCATTTAGTTCCAAACTAAAACAAACAGCAATGAAAGGTCATTAGTCTCACAGACTAAAATTGTTTTGATGAAGGCCAGCTTTCCATTCTGTTGACAAGCGTCTCAATTCTTTTCAACAGCTCTAGGTGTTCACACTGGAAGAATGTGGGGCAGCTTTGGGGCAGTCATCAGCCTCAGGGAACCAATGGCTCCTGGTGACAATTTGCAGAGCTGCCACTAGTCAAACTGTTCCTCCTCCCCTATTTTTTTTATCGAGATTGGGAAAATTAATAATGGAAATTTGTTCTTAGTGGCAGATTTGAATACA
0.4597809624331726 GTCTGCACAGGCCAAAGCTTGGGGAGCCCCAGCTTCCCTGGCTCAGGCCCTGTGCAAACCAGTCTCTCGCCCTGTCAGAGGGAGGGACTGCTCCCTGGAGCCCACCCAGCTGGCTGGGAGCTCTCTGCGTGCCTGCCACTGTGTGACAGTCATGCGATGAGAGGGAAGCTCAGCACATGTCCCCAGCCACCATCAGTTGGCGGTTCCTTGAGTGGAGGGATGTCAGAGGCACGTCAACACTTTGGCGGCTGCTATTCCAGGCGGGCGAGGCAGGCAGAGGGCCTGTGGGCGCCTGAGTCTGCAGAGCCAGCCCTCGGGGGAAAGGAGCCAAGACACAGAAGGGGCTCAAGCTGCCCTGCCCCTCACCCCACAGCCTTTGGGGGGCTGGGGAGAAAGTCGGGGATCAGAGAACTATTTTTTCCTGGGTTTTTCTGCCCATTAAACACTTTATAATTTGGTCTCATTTCTTTCTTGATAACTCTA
0.548066632680408 CCAGGGTGGAGGCTTGGAGACATAGGCAGAGGTGAGTGAGATAGGGGCCCATCACACTAGCACACTAGCCCACCACATACTCCTGGAAGGGCAGGAGGCTCAGAACAGTTGGAGGTTTGGAGAGGTCGGAGGGAAACTTCTTGATGAAGCAGGCAAGCTGCTGATGAGTGGAGGAGGATGGATGGGAGGTGCCAGCGATGAGATGACAGAGATGGAACGCAGAAGGTGATGATGTGGTTGAGGGCTGGGCTGTGGCTGATGCGTACCCGAGTACAAGGGACTGAGATGGATGGGCTGAAGAAGACAGATGTGAGGCCAGGCCTTGGGGCGGTGACGGGGCTGGCATAGCTGGAAGGGAACTGGGTGGGAGTCAGGGACTTAGGTTTTAACAAACCTGTTGCTAAGTCTTTGTTTGGCCTTGGCCAGGTCACTTGGGTTT
0.5584151306475387 TATTTCCACATGGCTGTCTCTTGTGCCCGCTGCTCCCAAAGCCCGTTCCCTGCCTGGCTGCGGGCAGGGACCTTCCCCCACAGCCCTGCCCAACCACGATGCAGCACCCCAGGGACACGGGCAGCTGAGGACAGCCGCCCAGATAAGCTCAAGTGTCCACTGAGAGGCTGGCAGGTGGTGACGCTGGGAGTCTCAGTCGGGAGGAGGCCCTGCCCCGGCGCACCTGGCCTGGCTCTGGCTCTTTGGGGCTGCTGTGGCTGTTCAGCCTCACCAGGTGGCCCCGGCTCAGAATAGAGGCCCCCGGCCCTTGGTGGCCCTCTTGCCCACCAGAAAGTGCTGCAAGCCCCCCGCCTCCGG
0.8244436778744627 AGCCCCTGCCCTTGGACAAGCAGTTTGCCCTGCAGCCAGCTTTTAAAATAACTTGTCTTTTCTCTTGTGGAGCAAGAGGACCTTTCTAAGCACCCAGCTCCAGGAAGCAATAGACACGTCCCTGCACTCATGACGGGTGTTGGGCATGGAGGTGGTGACACATGGCTTCCTGGTGTGATAGCGGGTGTGTCAGAGACAGACGCCATCTGGAGTAGAGGGGAGGGGGGCTGAGATTGAGCTGGCCACACCCGGTCCCTTCAGCACCTACTCCCATCCAGGGACACTTCTAGGGCCTCTCTGTCCCAGTCTCCTCAAATCTGTCTTTCTGGGGGGACACTCCCCCTGACGCTAACACACAAATTAAGCCTTTGAGGATGAGGTCATCTTCTTGATCCCCAACTAAGCCCAAAT
0.3893981204005097 CCAACTGGGGAGGAAAGAAGAGGCCTCCTTTCTCTCCTCCCTGCCATCCCTGCTGGAGCAGGAAGCCCTCCACCTTCCCCACGTGACTGTCCCACTCTAAAGGCACAGCCTCATCCCTCCTAGTGGGCGGCGGACTCCAGTTTCAAGCACTAGCCTTTTCTCACCTTGGACTGCTGAGCCATTGTCAACACTTCTTCCGGGGGACGTCTCGAAGCTCCTCCCAGGCTGAGAGTGAGAGTGTGAGTTCCAGGGGCACTGGGTGCTTTGCCTTCTTGTAATAAATGTTTCCTGCACTCCTACTGTGTGCAGAATGTGGTGCTGACAGTCAGTTTCTGCCTTGGGGCTGCTCCAAGAGAGAGCGACGGTGAAACTGGACCCCTA
0.7919303588056175 TCCGCCCATCTGAGCCCGCCCCCCGGGAGCGCGGGGCCCAATCCCGTTACAAGGACCACGGACTTCCGTTTCGTTCCGCCTGTAAGTCCCGCCTGGTCCCGCCTCCTCCTGAAAAGAGCTCAGTTGTCAAGGAACTATTTTTCTTGCCGTCGTCCCAGAGATGCCTTTGGAAAAGCGGAAGGGCACGGAGGGTTCTGGAGTTCGTTGCTGGCACCTGCGTGGTGTCATGAGAACGTGGCGGGGCGGTGAGTGACGTGAGGGGGCGTGACGGCCAGGCCGGGAGTAGTTGCCCGCGCGGGAGAACAGGGGCTGCGCAGGGAAAGCGGCTTTGAAAAAGAGCTTCTTGGCGTCGGGCGGACGCCCAACACATGCTTGTC
0.4686196607055791 CTCTGATTGTGGACAGATAAGCCTAAAGGTCTTTCTTTAATATGCCACAACATGAGGCCTCTAATGTCACAAGTTTCCAAATAACTGTCCTGTCCTGACAGCTGAAGGATGAAGGCCATAAGTGTTTCCAAGGCATTTAAGAGCACCAAGAATAACTGTCATGAGGACTTCTGGATTTGAGTTCAAATGGTATTGATTTCAAAGTTTCCCCTGTACTGACAGCCCTAGTAAGCGTGGATTCACTGGGTTTATTCCCTGCCCACAGTGCATGATGTCAGTAAATTTGGAGAATTCATCTAGACAGCCAAATGAATCAAGGTGACATAAAAAATAGGCCCTGCAATGGGAGTGATGACATTTTAAATACTTGGTGTCAGGAAAACCAGAAACCTGTCACCAAGCATTTAGCATCGCCTCTCTTTTTGGTCTTATCTTCTGGGGCCTCAAACAATGAAACTGTGTTAATGGGAGGTCCTCACAGAGCGAATATGCACTGGCCGGTTTTGGAGACATGTAGTCAAGTGGTGGAAAACGGAACTGGAAAGGTGGTATGGGTTAGAGTTAGGAGGCTTAAACAAAGACATCTAGCTTTGAT
0.924065117029347 AAAGAACAGATTACGGTTCTATGGAGCAATGTACTTATCATCTGGGTCTAGGCTCTATCCTGGTCAGAAATTATTTGCATCTCTATGGGATAAAAGTAACAGGCACTCCATCACCCTCAGCAAACTGACAAAGGACCAGATAACGAAACACCACATGTTCTCACTTATGAGTGGGAGCTGAACAATGAGAACACATGGACACAGGGAGGTAATGACACACACTGGGGCCTGCTGGGAGGCAGGGTTGTGGGAGAGAGAGGATTAGGAAAAATAGTTAATCCATGCTGGGCTTAATACCTAGGTGATGGGTTGATAGGTTCAGCAAACCACCATGGCACACTTTTACCTGTGTAACAAACCCACACATCCTGCACATGTACCCTGGAACTTAAATATAAAAATTAAAAAAATTGAAAAGTAATTGGCACTCTTATTAGTTTCTCCAAGTTAACATCTACCTTTACAGAACTGGGCCAATATATAAGTTGCACAGCAAGCAAAGTCACATTTTCTCAGAGAGTCAGGTTGTCCTTACGTGGGCTTTTAGACAATGTTCTGGCATTGTTTACACGATACTAAAAACATTACACATGTATTTTTTGCCTTGGTTCCAAATTTTGGTTAATTTTTTCATAACAATTACCAGGGTAGAGATTGCTAAGTGACCAGGAAACTCTTTTCCACCAAGCCTAGATATGGCCTCCGACTCTTTCAGCATCGTGCCCACCCAGCCACCAGCAGTTGATGACAACTTGTGTGAGAAAGGAAACTGATTTGCCATCCAGCTCTTGATGACAACAGGGTTTAGATGTTCCAGGCAGCTTCTTTCACGGCTGGCCGAGGCTATTTCTGATGACTCGCTCAGAGCTCCAACTTAGCCACCAGGAGAGACCAAGAGAAGCATCAGTTCTCACTGAAGAGCGGTGACAGGTCAAAGGAAGCTCTCTCTTTTCTATCCTAGATGGAAGTTCACTTTCTCTTTCTAAGTCAGGATTTCATGTATAAACTGCATGGTTTCAGAGCCCTTTATCTCACATGTTGATGGGTTATTTTAATTAAGGTGTAGAGGGTTGACATTAAATG
0.4526759633863245 GTGTCATTAACAGAAAAAGAGGGCATTCTATGTATCAGTTTCTAAACTGTCTTCTTTGACCACAGAGGGTTTTGAACGAGATGGAGGCTTCCTGAGACACACATGGCCGCTGTGTCCACTGCCCTTATAGACCCACCTCTCTGCTCCAGGTGCCTGCCAGCATCAATGCTGGTGTGTGGAATGGTCTTTGCCTTGCGGGTGCCAAGGCTAGTGTAGCCCATCTCAGCATACAGAATGCTTTCTTCTGGGTGTCAACGTGATGCGTACTAGGTTGCCCCCTGGTGGTGGAGATAAGTGCAGCTGTCAACTCCTGAAGGTGTTGGCTTCTTTTGAATTGCCCTGTGTTTTCCTGTTTGTCATAATTCTCTGGGAAGAGAACTTACTGCGTTACTAGCAGAGAGAAGCTTTTATTGCTGTGATTATTGAATTGGTGTGCTGAGATCTCATTGGAGAACTCAGCTGAGGAAGCCAATCAAGCAGCAGCTCTCATACAGTATT
0.9091958180222629 TGATTCAATTTCTCTCCTGCAGCTGCTACCTTCCTCTGTGTTCTTATGTGGTGCATTCTTTCCCTAATTCTATATTTCTTTGGTCATTTCAACTGGAGTTTTGCAGGGAGGAGAGTTAAAAGAGTCATCTTGCCATCTCCAAATTGAATGCAGTTAAAAAAAAAAATGCCGTAAATGGGGATAATCAAGTGAAGTGTAGGTCGTATAGTTATTCCCACGCTGCCTCGTGGCTGTCCAGGAGCTGGAGCTTGTCTGGGGACAGATCTGTCAGTAAAGAATGTGCTGTAGAAGGATTCCATCTCCCTGTAAAAGTCATGTGTGACATTACCTCTCACTAGAAACTTCCCAGCAAGGCCTCCAAGCACAGACTGTTCACCCTTGCCTCCTCCAAGCAAATGTAAGATCTTGTGGGATAGGGCATTTGCATGGATCTGGCAGAGTCCAAATTCAAACGCCTGG
0.4205765396430297 AGTGCTGGGATTACAGACATGAGCCAACTGCGCCCAGCCCAGACACCTTTTGAAGGCAGACACCGAGTCTCTCACCCGTGTACAGAGAAGGCAGTCAGTCAACATTTATCAGGTTAAACTGAATTCAGTTCTCACAGTTACTAAGCATCCTTATTTTCCTACTTCAGAGAACAGAGGAAAGATGGCCACTTAGGCTGTCAACAGACTGAAGTGACAGTGACAAAGGAGGGGTGCTGGAAGGCTGACCCAGCTGAGAATACTCCCTAGAGAAGATGTGGCAAGCCTCAGGAGGTCTGGCCACTCTTGGAGTGCTTAACCTGAAGCCTGAGAGCAGCACTGAGGGTGGGGGAGGCTGCCCCCTCTTAAAGCTGCCTTTTCAGAAAGCAAAGTGATGCAGCGGTGTGAGCACACTCTGAGGGCCTGTCACAGGAGCTAGCTGGTTAATGGCCAAGTGGTCAGTTCACTGGAAGCCTTCTTTTCCTGCCTGTGGC
0.01378738345302268 CTCCCGGCCCAGTCTAGTGGTGAGGGTTGGGATGAGAGTGTGGAATGAAGTGGCTCCTATCCAGAAGGCTCCCTGTTCTCAACCAGAGGCTGTCTGTGCAGCTCTGGTCCCCTGGGTTTCAAGCACCCTCTTGTGGGTCTGCTGCAGTGGCTGGAATGTAATTTGTCACTTGTTTGAGGGCCAGGCTGACAGAGGCCAGACAGGGCTGGGTGTCGGACAGGAGGGGTGATGAAGTCTTGATGCAATTTGCAGGCATCTGTAGAGCCTGGGAGACAGATTGAAATGTCAGCTCTGTTCTTGAGGGCTGTCTTCCATACCCATAGCCAGTGACAGGAGGGGACCTGGGGGCCAGGCAGGGGGAAGACAAAAGCAGAGGGAGCTGAGGACAATTCCTCCAGGACCCTGGGCTGTCTAACACTGCCCTGCTTCCA
0.7111060819912003 GGTCCCCATCCCAGACCATTTTTAATCATTACCAGTCATTACAATTTGTAAAACTTCTCCAAATGAGTAGCTTCTAGCATGCCTCTTGCTTGCCCTCCATACCTGCACAACTTTGCATGCCTTAGACTCCAACGTGGCCATCTGCTTAGCCCATCTGCCTGTCATCCCCCCAAACAGCAAGTGCCTGCTGACAGGTGGCATGGAGTAACAGTGGGCCCACTGAACTTTCACGTCAACACAGTCTAGCTGTTTCTCTTTGGACAAACCATCAGGCCTCTCTGAGACTCATTTTCCTTATTTTAAAAAGGAACCCAATTACCTATCTTAAAG
1 ATTGCTAAGTAGTCCATCATATGGACTAGTTTATCTATTTACTTACTGAATTTTGGGTTGTTTCCAGTTTTGGGCTTTTATGAATAAAGTTGCTATGAACTCCTGTGTAAAATATCACCTTACATTCCCACCAGCAGTGTACGAGGAATCCTGCTGCACTGCATCCTCTCACCAGCACTTGGTATTGTCAGTAGTTTTTATTTTTAGCCATTGTATCTAATGGTGGTTTTTAATCACTTTCCTTAATGGCTAACGATTTAGAACATCTTTTCACCTGCTTATTTACCATCCATATACTCTCTTTGGTGAAATGTCCATTCAATTGTTTTACTTATTTTCTAATTGAACTGATTTTTCTTTTATTACTGAGAGAGTTCTTTATATAGTCTAGATA
0.5895295686300882 GCAGCCCTCACCCCATCCAGCCCTGCTGCCCCTGGTAACTGGGATGGGGGCTCAAGAGAGGTATGTAAAGCCCGTAAGTGGCTCTCCCCGGCTCTTTAGAAAGCTGCTTATCAGGGAATGAAACACTGGCCCAAGCTTGCCATGACAGCAGGAGCTGCCTGAGAAGAGAGGCTGAGATAAATGAAGTATCCTTCATCCCCATCAGTGTGGGCCAGACAGAAACCAGGTGCGAGGCAGTGAGCCTTCATCTTCTGTAAACAATCTTCCATCGCCCACTGCAGCAGCTTGAGCCTGAGATGAGGATTAGAAGAACAGCTTCTGCAGGCCTGGGGCCTCTCAGCTGGACAGAGA
0.4945923450407773 GACCCTTGCCACACATATAAATCGCAGCAGGCTGGCCAAGGGCCTTTGTCTGGCCAGGAGAGTTCAGGATTATCTGGCCCTCTTTGCTGATGTATGGAGTCACCGGCTGTCGGAGTGTTTACTAACGGTTATCACCTCAATGCTGTGGCCATTATCAGAGGCAGGACCGCCTGCCGAGGCTGGGGCTCGCACCCTCTCTATTACCACCTGTCATTGGCAGGGAGTGTGTGCTGACACTGCCCAGCCCTCACTGCCTGGCGAAGATAGTTTCTGACGGCTGATCAAAGAGGAGAAGCAAGGCCTGATAAAGAGTGCGTGTTTCGTGTACTTTTAACTTTGGGAAACGTTGGCATTTGCATTTTTTCCCCATCTTCCCGATGCTGGCAGGAACCAAGCCCAATAAATGCAGTGGATTCAGTTACCTAATCGCTGGGGAAATGGTATGTGCTTAAAGCAACAGAGCGTGACTATAATCTCCTTCCGAGAGAGAGTGGATGAAATAAGCTTTCACAGAAGA
0.2060573766382513 CTCTCTAAAAGGAACTGAATGAAGCACTTGGGTTATGATCTTGTTTACAATTTTGAAGGAAAAAAAGAGCTGCAGCTACACAACACTCATTTCTGTACTCAGCCCTCTCCAGTGTCTGTGGCCTGGGAGAAGGCTGAAGGGGATAATTAGGATGCCTGCCACACCCTCATGGCGGTGACAGGAATGCTGAGTGCTTACACTGAGTAAAGTGCCATTATAACTGAGTGCCTGTGGAATGTCTCTGCTTGGCTGTCCCCCCGGCACTGTATACTCATCTGTGACACCACCCAGTCACCCAAGCCAGGAACCTGGGCGTCCTCAACACGTCTTCCTTTCTGATCCTCCATGACTGGCACTAGGCCCGAGGGCCACTTTTCTGTGGGCCCTCCCTGCCATGCCCGGTAGTCT
0.4422492690869639 AACGGCAAAAATGTCACCTAGCGTTCCCCCTGCTCATCTAACATAGTTTAATTGCCTTGATGGTCCATGGAATTTCCAAACTAGAGGTTGTGATATGCAGAAAATCAACAAGATTGCATTGCTAGGGAGCACGTTTGTGAAGCTGGCGTCTTCCACAGAAGCTGTCATCAGCGAGGAGGGGCTGTTGAGGGGACACATTTGTGAAGCCAGCATCTTTCACAGAAGCTGTCATCAGCGAGGAGGTGCCGTTGAGGGGACTCCGGGTGATGCTTTCGTCGTTTGGAAAGTAGCACTGCTGTGCAGAATGGCCTCTTTTTAGCCATCCTCCTAGTTCCATGTGGAGCCCTCAGAATGGGTTTTACTCCGGGCAGATTCCAACACACCCTCATGCTATCCCGGGAGAACTGCGGACCAGGAAGGCAGAGGCCCCTTCCTCCCACCC
1 GGCTTCTGGCGTTTGTCACTTCTTGGCGATTAGTGGTCTTGCCCTGGCCTGGGCCAGAGTGGGGAGGGGATGCCGAGGCTGGGGCTCCTGGCAGCAGGGTCATTGTCCCCTGAGAAGCAGGGCCTGGGTGCAAGGGCAGATTACCCAGGAGGCTGGAGGAGGATGGAGACTATTGGGGGTTCCATCCAGGAAGGCAGAAAAAGAACTGGCAAGGCACGGCTATTTTAATTTGATAAATGATTGTACACCTTTAAGAGTGTTTTAACAATCAGGATACACTCCAGCAAGTTGATAGGATGTTCGCTGTCAACTTACATATGTCATCAGAGCTGGCTGTGAGCATAAATAATGTGCGAGCGCTTGGGACAGCTGCAGTCTCTCCTGGAGGCTGAGGCGTGGCAGGTAGCACCTCTGTCCCCTGGCGGGCACCTTTGTTCTCCTTCTCTCTGTGTGTCTGGAGGCAGGGACCGGAGAACAGTCGTGGGGAATCACTGAATGCTGCTTTCATCCTGGGTGGTTTGGTTGGGGTGCCTCCTCTCTGCGGACT
0.6730291210174949 ACTCATGCTATAATGTAGGTGTTTTCTTCTCCTTCTCCCCTGGTGGAGGAGAACAGCTGCTTGCTAACCTTCTGTGTACCTACACTCTTACATTGTTATTATTAGAATGCTGTGCAGGGGGGTATCCACTTAAAGCTGGGTGTGACTGAGAAGTATTCCAGACATTATGTGACATACTGGCATGTAGTGATTAAGGAGACATGGTCTCACATAAAGACACCAGCATGGGCCTGTGGCTCAGGGGGCCTTGTGGCTTGGGAAGTGCCTCATTCCCATCTCCACTTAGCACTCCTCTATCTGATGGGATTGTTCCC
0.8781355219035933 ACTGTATCTTTTCTAATTCTCCCCTAGCTGGAGCGGGAGGACAAGGGTATACCCTAGGAGCCAGCGGTAGAACAGAAAGTTTATTGCCCCAGATTGAAGAAGACATCTAAGTCAATGGGGGGAAACACCACTAACAGCTGAGGTGATGGCTGATGAGTGGAGGGATTTTAAGTGGACGGAAGGAGTATGGAATGTCAGGGTCAGGAGCAATGGGGATCATCAGGGCAGTGCTGCCTCAGACTCGGGGGTCTGTTCATTGTCTTATGTCAGCTCCTTGGGATGAGTGGCTGAGCTGTGCCCAAGGCTGGGCAGACAGGTCCAGGGATAAAGAAGGGTTCAAATCTGATGAAGATAGGCAGTGGTGAGTGCCAGGCCATAATGAGACTTGTCATCTCAGCCACGAGGATCTGGAGAGGCTGGCTGAATTTATCCAACATGCTGGATGAAAGAGGCTGCCCACCA
0.7916567720209632 ATATTGATTATATAGTACTTTTATAATAATTGTTTTTAGGACCTCAGATGTCTAACCAAGGCTGGGAATCTGATGAGAGAGCCACTCTCCATGAAGCTGAAACAGGGAGATTCACCACCACTTACGTGAGCTGAATGTGAGACTGTCCAGCTCCTTCTCTACTGAAGGGGCTGTGGAAAATGATAAGAGGGACGATGCCTTGCTGTTGAGCAGAGTGAGGAGTGACAATGTGCGAGAGAATTTTCAGTCAACACTTGTCATTACAGGAGAACTGCACCTCAAATACGTAAGACCCGGATTATCCAAATATCTTAAACCATACATTTAAGTGACAAGGGTTACACGGATTATGCATGGGCTGCAATAAATACAACTACTTTCTGCAGGAATATAACTTCATTCTAGGCCCGAAACAATTCCCCCAAATAATTTTCCAAAGAAAATGAGTTGTTTACAGCAAAAAGTTAATCACAGGCGCA
0.7206525093862122 AAGTGAAACTTAATGTATAGAACAGTTGGACATCTTAAATATACTAGTTGGGTGGAACATCTCGTGTTGCGCTGAATGTATAAAATGCTTAAGAAATGTTTGTTCCCTTCTCCTGAAAGACCACCTAAATACTCCTCTAAAGTCTCACACCATATTCTCTAATCAGGGATTCATCTTTTCTTTAGGTTGGGTAACACATCTCTGAGAATACCTCATTAAAACCACAATGAACACCAGTATACACCCACTGGGATAGCCAAATTAAAGAGAACGCACCACCGCCGAGTGCTGACAGCGACATGAAGCAACCGGAACACTGGTAAGTGTGAACTGACAGAACCGTTGAGAGATTCTTCTCGAGAGAAGCAGAAGCCAATAGCTGCATTTGCCCTCTTCACCTTCACCCTGTTCCTCAAATTACTTTCTATTATAGTTTTTGCAAGCTGCTGGGAG
0.7181731494931325 AGATTGCAGTGAGTCAAGATCACGCCATTGCATTCCGGCCTGGGCAGCAGAATGAGACTCTGCCTCAAAAATAAATAAATACATAAATAAAAATAATAGCAACAGCAGAAACAGGCAGTGACGGTGGAGGGTGTGTGTGTGAATGACCTCAGCTAGTGGCAGTTCGTCATTGCCACTAAGGCCAGCCACACAGGTGACACTGACAGTGTGCAGAGAGGCCATCAAGGGTGTCGAGCTCAGATCACACCCTTCCCTCCCCACCAGGGGGCCTGCTCAGCGTCCACTACAAAACCTCCGACACCTTCAGGAAGCAGAACTGAGCCTCGGGGGTCTTGCCCCTTGCTGGCCTATTTTTCAGCTAACTTTATTGAGCACCTACTGTGTACCAGGCTCTACTA
0.7457570560445144 TCTCCTGGGACCCTGCTCATATGTGTCTTTTGCTAGACAGAAGGCTCCTGAGGAGCCAGGATTCTCACCTTTTTTTTTTTTTTTCTCCATCCCCATCAGGCCACAAAATGCATGGCACAGGGAAGGGTTTGACAACTTTTTGATGGATGAACAAAGAAGATTCAAGCCACTTGTCAACAAGCTCAAAGTGATTGAAAGTGGAAGCATTTACCCACACGCTCATGCAGAAAATGACAGGAAATCATCCAGAGACACTTGTGACAGAGATGAGAACTGTCACTGTTGAGAGGTGCTGCGGAGATGGGTGTCCACGGATGACCGTTCGGAGGCCGACTTCGGGGATGTGGCCCCATTAGCTCAAGAGTGGGTGACTCCCTACCACACTGATGGCGTTGGCCAGGACAGGACAAGCCTACTGCAGTGACACAGTGTCACTGATCCCTGATGCCCACGTGGGTGTTTTACTTTAGCTAATGCTGCAGAGATAATGCAGACAGAGAAATGAGGCCCC
0.7333683208888954 CATCGAACTAGAGGGAGAGTTTGTAAGGACTCCAAAGGGAAAGAGAACACGGGAGGGAAGGAGGGTTGGGGAGGGTCAGGTAGGATGCTTAAGGTGGATTGAGTTTGAAATATACAAGCTAAGAAAAATGTCAGATGGTTCTTGTTTATTGTCTAAAGAGTAGAGGGGAGAAAAACAGAAAACAGACGTTTATGTTGTTGAGTGTTAGACAAAAGGCCCCACGTCCCCTGCTTCTGAGTGAGAATGACGATGTGCTGTAGGATGACAGGGCCCTTTGGAGGTTCTGTCTGCAAGATAATCTGTTTGCAGATGAGCTCCAGGCACGGGGAAGGTGCGTGGTGTCAGTGTGGCTTGCTGAACTCACAGCAAGCCATTTCAGGGATGCTGGGACGGAAGCCGCCCTCCCTTTCCTGCCTCTGCTTCCAAGTTCTTTCT
0.02688509745704393 ACCCCTTCATAGTTACAGGAATCTGAGCTATGAAGACACTAGCCAGGCAACAAGGCCCTGGGCTCAGACACAGATGAAGTTTCTCTGGAAGAGAAATCTGGCCTGTTACAGACCTGGGAAGTGCCAAGGCTTAGCTCCTGAGAAGGATTGCTGGTGCTGACAGCTGGGAGTCAGGACTCCAGGGCCACTTGTATGGAAGCTGGTGCCCGTGGTGCAGGAGGATGGGGGCTCTGGATTCTGCACCACCCCCCATAGACTGGCCCCTCAGAGGGCTCCTGTGGTGTCAGAGCCCTCTCACAAGCGCCTGCCGTGGTTATCAGCTGAAGCTGAGTGCTTGTGGAGTGTGGACAGAGGGCAGAGGGAGAGAAGCAGCCATGGGCTTCCTGCCAGGAAGCTCAGCAGCTCCGAGGAGACTGGAGAGTCATGGGACACAGTGCGTCCTCCCCAGAACAGCCTCCAGCCTGCCAGTTCAGAGCACACGCTTGGAGGCAGGAAGGCTG
0.7342668089767055 GGGGGAGTTTGTCTGCAGAGGAAAGTTTGGAGGAAGCAGGGGAGTCAGTTGGAAGGGATGAGTCCCAGAGCAGTGCTCTCTGGGGATGTGCATTCCTTGGAGGATGAGAGACAATACGGTCTTTCACTTTGCACTGATGACAAGGATGAGAGGCTGGGAATTGACTGCCCAAAGGAATCCAAGTGGATGCATGCTTAAAGTCATCTGTTTCAGCACTAGCTCAGGCCCCAGATGGTTCTGGCGGCCTGAAGGAGTGTTAGCAGCCAGGCAATGGAGGCTTTGCTCAGATTTTCAAGTAGAAGGTTAGTCCAGACATCGTTGGTGTTTGTTCTTTGTGTGCTCTGGGGAGAGGATTTAATAGTCAACCTCCCATTGTGTTCTCATTTGTGGTTATATATAAAAGCTTCCCTAAACTAAATTCCCTAAACTTAGGGCCAGAACCCTGTGTATCCCCAGCCGCAATCCAGCTTAGTACCTGCTGCATGTACACACTCGGTAAACAGCTACAAAATCATTACGTGTTCATAAACAAGCTGATTCATTGTTCCAAAGCATCTATTTTCTGAGGCAGTTGGAAATTCCACTCTGAAGTGGGAATAACCTATGTTGCTAAACTAAAACTTATTCTCCACTTCCCAGCCCAGTTCTCCTTTCCACAGCGTGATGTGCCAGTTTCCCTTCCTCCTTTTCCAAACTAGTCCTTCATGCAGCTCTCACTCCCATCCTGTCTTACTCTCTAAAGCCATCCTACCAGCCGTGAAAGCAGATGCCATTGTCTTCCCCTAGACCTACGGAAGTGAAGGCAGGGAGCCTTCCGTTCCTGGGACTTGGCCAGCTCTCGATGTGTGATATCGGATTGTTGAGCTGGACTGAGTGGCCCAGGATTTCTGCCAGATCCCAGCTGTAACATTTCAACAGGGGCACGGGCCCTGCGATTACTTTCAGCTGTGTTTCTGCTGTGTCTGTCTCCACCCCCCCACCACCCACCGCTGGGGTTGAGTCCCTTCAAAACTAACCCTGATTTTTTTTTTTTTTAGCCACTCACGTCAAGGTAGTAATTTGTGAAA
0.7524212435104694 AATATAACAATGGCTCTGCTGGCCCTGTCAGACCTCTGCAAGGATATCAGCCTTTTATATTTATTCTAGTCTGGGAGATGATTTCCTGTATTGGGTAGAGGGCACTGGTATTACTTTAAATAGAATTTCCTATCTGCTTTTTCTCCCCACCACCTCATCACTCTTAAAATGACTGCCAAAATTGTTCCTGCTCTATTTTAAGTCAACACCATTTGACCCTTTGCTTTACTGGAAGTGCTTTCTAACTCCTAAGCTGTAAGGATTGTACTGTTTGCTGTTTGCCTATTTTAAACTTTCTGGTAGTGTAGTCTGTTTGGGTAAACTCTGAAATCCTGGTCATTTTCCTGACAACGTTTTAACTGCCTCAGTG
1 GAATTGATGTAGTTTATTGAATCGGGTCACGGAGGAAACAGCAACTACATAATTTCCCTTTAGCATGTCCTTGGAATTTCAGACATTTCTCACTGCAGCCAGCTATTGCATGCCAGTGCCCTCAAAAAAAAAAAAAAAAGATTTATGAACCTCTTCTGAAAGTGTTTTTTAAATGATAACATGTCTAAGCCAAGCAAAACATGCTGGACGAGGTGTTGGTGCTCTGTATGCCAGTAGAGTGTCTGTGATGCTAGCCAGCACTTCTGGTCCTGCTGCAGAGGAGGAGAGTGAGCTCCACGTATTACTGTAATTCACCTTCTTCTGCATCCGTGAGCCTTACATCCAGGATGGTGCAATCCTGTATGAATGATGCAGACTTCTGCAAAGATGACCTTATTGACTTTCAAAGATACAGGA
0.3465003942053882 GTAATGGAAAATCTCTCCTGCTGAGGTGGTAGTTTCTGATTGCCCAATATTGTGTTCCCTTTCCAGGGCTGCAGGAGCCCAAACACTCTTTTGAAAACCTCTCTCCCTACTAGAAACACAGGCTGTTCATTTAGCAATTATAGCTGTCAGCACAGCAAGCTGGCAGGAGAGAGAACAGCATCTGTTTCTGGGCAGCGAGCCCTTGGCAGAGCCAGGAGTTGAGGGCCTGGGGAAACAGGTAGGACAGTGGCTCTAATTTGTCACTTCCCCAGCACTTGTGTATTTGCATCTTGTATCCTGAAAAGTGATACATGTATTAATT
0.6233102200500774 CAACCACACGGAACTGAGTTCTGCAAATAACCCAGATAAACAAGGAAAGAGATTCTCCCCTAGAGTCTCCAGAAAGAAACATAGGTCTGTCAACACCTTGATTTTCACATAGTGAGATCCATGTTGTACTTCTGACCTCCAGAATGGTAAGATGGTAGATCTGTGTTGTTTTATGTCACAGAGTTTGTGATGATTTGTTACTGCAACAATAGAAAGTAATACCTATGGTCATAATGCATGCATTGCATCAGGCCTTTGCTGAAAGCTTTACATGCCTGGTCTTGTTCAATCTTCACTACAGTCCTGTTAGGTAACTATTGCTGTCGTCACCTCCATTATATGGAAGGGGAGTGTATTCATTTGCTAGGGCTGTCATAGCAAACGACTGCAGACCTTGTCTCCAAGTACAGCTACATTCTGAGGTACTGGGGGTTA
0.5331505064156142 CACACCGGGTCCAGGCTGACGGCATCCCAAGATGTGAGACAGAAGTCACAGACGCGCACACTCTACCTGCACATGGCAAACTCCTATGCATCCTTCAAAACCTCACTCAGGTGACATCACTGTGAACTGTCCCTGATCTCTCCTTTCCTCAAAACACTCTGTACCACTTAGAGCTTTCCTCACTGCTATGTGATGTGCCTGTGTGCCTCACACCCTCACCCTGAAGGAACAGCTTGAGGTCAGGGACACTGTTCCAGTCATCTCTGTGTCCCCAACACCCACACAGGGCTAAGCACAGGACAGACACACAAGATATTCTCAGCGGC
1 ATTGTCAAATCTGCTACATAAAGGGTGTTCTCTCTTTTTCATAAGAGCAAAAACCTACTACAGTTTTGTCTCTACAGGGATTCTTCTAAGAACTGTGACAGTTTAGGTAAGATTATTTAAAGACAAAAATGTCCCTTTGAATTAAATATCAGGAATAAACCACAGAGTTTACTTTACATGGCAGTGTGTGTGTGCTGACAGGACACTGATAAAACATGCCAGAGAGATGTAGATGCCTCCTTCAGACCCCTCTAGTCTCATTTAATTTAAGGATTTCTTCCATTAAAAGCAATAGTGTTTGAATAAGAGAGCACTAAGAAAATACATAGAATGGCATGTTACAAAGATTTTTCACAACATCTTTGTTTTTGTTTTTCTAATTAACATTCTTTTTTTGGAGTCAGGGTGTCACTCTGTTGCCCAGGCTGGAGTGCAGTGG
0.3443208880343929 TTCTGCAAGACTCAGTTTAATGGCATTCTCTAGCATTTTCCGACCTTCCCTGGCTGAGCTGAGTGCTGTCTCTGCACTCTGCCCATGGCATCCTGTCCACGCAGCATCTTGGTGCAGCAATCAGCACACTGCTACATTATCTGCATGGCTGTCATCCCCATTAGGTGTGTGCCCTTGGACTGTGTGTTTTCCTCCTCGTATATGAGGCCTCAGCATAGTGCCTGAAAATAATAAACATTTGACATTCAGAAGAAAGGAGTGGAGGAATAAATAAATAAGACAGCCTGTTTTCATGAAGTGTTTTCTACATTGAATGCAATTATTCTAAACATCTCCTTTAACCTGGT
0.5670854522276643 TTCTAATTTCATGAAGAGGTATCTCACCTCCTGGTTGAGCCTAATTTACCTACATGGGCTCCTAGGCCTGTCCCCTCTTACCTCCTTAGAGACCTTATTCTATCAACTTCTTTCTTTCTCTTCTTTTTCTCATCCTTCCTCCCCCCATGTCCAACCTACTCCCCTCCTCTTCTACATACAAACATTCTCATGACTCTTATATTTACAAAAAAGTTCCCAATCACTCACTATCCTCTTTAGCTACCACTCTCTCCTCTCTTATCACAAAACCACTGAAAAGAGTACTTGGCTTGCTGTCTTCACTCCTTCTCCACTCATCCTCAATCCCCCACAGTCTGGTTTCTGTCACCAACACGCACTAAAAATATGCCTTTGATGTTTTACACAGGGCTGCCTAATTTGCAAGCCCAGTGGATTTTTCTCAGTCCTCCTCATGATCTCTTCAGGCTGACACTGCTAATCTCCTGCCCTTCCTCCTTGAAACCCTTTACCATCTTGACTTCTATGATGACATGCTGTCCTGGTCTCCTGCCACCACCCGAACACTCACTCTCAGCCCCTTTACAGCCTCTACCTCCCTTCATGGCCATTCCATCCTAAGTTCTTT
1 TGTACAAGTTTTAAATCTCTTGGGTATATACATAGAAATGGAATTGCTGGATCATGTGGGAAGTCTATACTTAGCTTTCTGAGGACTTGTCAAACTCTTTTTCAAAGTGACTGCACAATTTTACACTCTTATCAGTAATGTTTGAAGGTTTCAATGTCTCCACATCTTCACTAACACTTATTGCATTATTGCATGTCACTTTGATTAAAGGCAGTCCTGTGGACATAAGGTGATATCTCATTGCAGTTTTGATTTGTATTTCCCTAGTGACTAATGATATTGAGCATCTTTTCATGTGCTCATAGGCCATTTCTATA
0.1647194119778196 AGCCTTCCTCAGAGAGTGACTGCTAAACTGAGAATGGAAATGTAAGAATTTGCCCGGAAAACCAATCACAAAGGGGCATACAGCTACGGAAACACCCCGCACAGAGGCAGGCGATTGTGACACTGTGTGTCCAGTCCTGGGTGTCAATGATAGGCTGGCACCTCTCTGTGGCACCTCCCTTTGCCTCTTCAAGCCTTGGGGTGATGACAGCTTCCTTTGTTTCTACACCCAGGGCACAAGATAACCCTGGCAACCTACAGCCTGATGAAAAGGGAGGAGAATCTAAATGACTTACTGCTGTGTACTTGGCCATGAGAGAATAACCGTGATAATAACTCAGGTAAAAGGCTCAGAATGAGAAGTAGGTTT
0.3654476370794661 TGTGACCTATCCTAGTCCCGTGCCTTTCTCTGGCTGACTTTTCTTTTATCTCATCTGATTGTGGGATCAATTTATTTAAAGGAAACCATTTAATGAAATCTTAAGGAAGCCCTCACCTTTATATTTGGTTTAACAGTTGAGTTTTTGGGGTACAGCTGAGGTCTCTATCATTGCAATGTCTAGGGTGTCCCTGAAGTTCAGGTGGGAATCTGAAGACACTTTCCTGATCCACGCAGGCGACTTCAGACAATGTCCTACACTTAGCCACGGGTAAATCATGCTTTTAATATGCTCAATGGCAGAACTGGTCAAAGCCACTCTGAGCTGCTGAGAGCACTTCAGATTATTTTCCACACCAGCAGGCGATAGAAGTGGCATTCAGGGACTGCTGTCATTGCTGCTGAGATCCAAGACTCCTCTTGGTGCACTGTGATTTGCAGGGAAAGCTGTGTCTCTCTGACTTGCAGGCCAGAGGTTCTGAAGATTGCTTGAGGTTGCAAGTACCTCCAAGCTTGAGCAGCAGTTTTGAAGTGTGGAGATGGGAGGTGAGTTATTCACATCTCTAACAAAGGAGCTGCTGCTTCTGGCTTCAGGAGGGGCTGAGAGGCCCCTGATTCACTATCTCATCA
0.4094398982153089 TACTTAAGATTTCGTGTAATAGTGTCCAATTCGATTGAATCAGTGGTGTCCTTTAAAAGCTCATTATATAAACAGGCCGATGTGAAATGCTAAGCTGGTGACAGGGCAGCCCCAACCTCATTAGTCAGTTAGATCACCGGCAAGTCTGCCTGCTGACAGGCCATGCCACAAAGGCCCACTACAGAGATAGATTGCACTCCTCCATGAACAATGTATTCAGTCGATTCACAATCTAATGAGAGCCAGGCTTCCTTTTAATAGTCCCACAACATTTCACCCTTTGGCACTAAAGAGAAATTTAACTGCAATGCACTGACTTTTGTGGCTGCTTTCTACAGAGAGAGAAAGGATACAATGCCTTTTAAAGCCTCAGAAGTTTCCATTTTTAGTTATAAGAGCTAGATCCTCTGTGGACAGACACCTCTCTCATGCAGGACCCAAAAGATCCAAAAAGCTTTTGAGGCCACAGTAATACCTGGTCTTTTTCAGGGCAAAACACGAGAGAATGTGTAAAGCTAGTGGGTAAAACTTCACAGTCTTCAATTCA
0.4819372546094562 ACACACGAGCCCTGTGTGCCACTGGGCATGAAAGTTTTCATCTTTTCCTGAAAACAATTGCTGGAGGTGAGCGCTGGTTCCTTCAGCTCTGAACTCCTCTTTTTCTGCCTTGTCTTTACTTCTTTGGTACAGCATTACTTGTCAGATGCAGGCAGGAAGAATAGACATTTAGACACACTTCACACTCGGCTGTGAGCCTGGCGCTCCTCCTAAACATGCTATTCAAAGTGCTTGGCTGCCTGTCTCTGGCCCACACCTGCCAGCGTTGACAAGTGCCACTGAGTTCATGTCAACTCAGGCGCTTGTCAGAGGGAATCTAGACCAGGCTGGGGCTGAGACAGGTGGGCGATCCTCATCCCACTGCCTCCCACTAAGACATAACATTGTGTGGAACAAGGAAGGACTGGTTCAAAGCCACAGAGCTGGTTACAGGCAAAGCCGGAAGCAGAACCTCTAACTTCAGGCTCACGTCAAAAATGCCCATAGAGT
0.4742774340154163 GAAAGCAGCCAGGGAGGACACGGAGGCCCTTGAAGCTCTGGCCTCTTCTGAGGCCTCCAGGACCTGACAGTGAGTGGGAGCAGCCCTGGCAGAACCCCTCCCCTCCTCTCGGCCGCCCTGACACCTCATCCCCGACACTCAGAGCTCATCCTCCTTCCCAGCTGTTTCCAATTTCAAAGTGAACTCGACCTTGTGGCTCCAGGAGATGCAGCAGGGACAGTGTTAAATCGGCTTTCACCAGCCCACACGGCCAGGCATCCTCCTCGGCCCTCCTGGGCACTGGGTGGACACCACTGGCTGTGGCCTGGCCCTGGCCTTCTCCAGACAGCCCTGTCCACCCCAAAGCCCAGCCACCCTGGGCCTGCAGCAGGCCTGTGGAGTTCTCAGTTGCGTGGGGACCAGAGGGTGCTGGAGAAACAAACCAGACGCAGCTGAAGGCAGTCAGGGCAGGGCGCAATCAGCGATAAGAGCTGCATAGGGGCCACAGCGTAACCTGAGCTCCAGTCGGTGGAAAGAAAAGGCAGAGACGTTGCAGAGGCCAGGTCTGCTCAGGGGAAGACAGTTCTGGG
0.5388492641326943 CTGGACTAGAGGGCTGCAGTCCGGCCACCGGGCACAGGCTGGCTAATTGCCGACGCGCAGCGCTGCCCTGGACTATGACACAGGCCCCTGACAGACATGATTTATGAGGGCCCTCGGCAAAGCGGAACCCACTCAATTGCCTATTACCTCACTTAGCAGACACCTTGTCACCGCCCGAGAGCCGGGTGTTAAAAATACAAACCAGGCGGCCAGTCGGCCCCGAGTGTGGCCCCTCCACCTGCTCCGCACCAGATAACCAGCCTTCCAGCCAGCCAGCTGATCTCTGCTCGGCTGAACTGGGGAGAAGACGCTGAGAGTGGATTAATGAAGTAGATGTCATCAGGT
0.9383682368404388 TACTGCAAATCCTATGTTGAGATTTTTAAATAAAACTTTTGTTATTATAGAAATTAAATAGATCCACTAGAGAAAAAAAGGATATGCAAAAACATAAAGGTCCAAAAATTGAATCCCACTACAAATACTTTTGCAACCAGTATCAAATTGTTCCTATGTACGTATATTTCTTTAAATCATATTCCATTTACGTGTCATTAAAGATTAGTGGGCAGTAGTATTGTTAAAGCTTATGCTTATTCTTTTAAAACTGTAATTGAATAGATTACTACTGCTGCCTTCTCTTTATTCTCAGATAAATAAGAGGACCTAGTCATCACGCGACACTCTTCACCTGACAGCAATAGAGGACACACACATAGGACAGAAGGAGGACCTAGTCATCACGTGACACTCTTCACCTCCTAGTCAAGGAGGACCTAGTCATCACGCGACACTCTTCACCTGACAGCAATAGAGGACACACACATAGGACAGAAATGAACCACCCATGGAGCACTGACATTATGATCCTCACATAACATAATGGAACAATCAATGGCTTGCAGGTGGGCAGAGTCATCAGCGAGGTACACACACGGGTGCCATTTTGTGTCCAAAGGCAAGGATAAAAATAAAAGCACCAGTGTGATGAAAGCTCTCATCTATGCACAGTCATTTATGAAGATCACTGTGGGCAGAGGCCCCAACCTAGCTGCCATGGGGAGTTTCCATGGGAGCCAAAGCACACTTATTTTCAAGAGGGTAACACTTTT
0.2298219768291778 CTAAAGTACAGGTGTTGTATGTCTGCCGCATCTGAAAGGCTGCCCCGGAAATCAGAGCCTATCTAGCGGGAATGTCTGGGCAGTCACCCCCATCCTGCGCGCAGATAGCAAAGGGCTGCTGGCAGGTGTCAGACACACGGTACCGCAACAGCAGTCCCGAGGTCTGAGATTCTGAATGTCAGCAGGTGGCTGGAGAGTATCACCAGAGCCACTCAGGAACCAGCCATGCGGAATGGCTGGGTTTCTTATTGAACATGAAATGCTTCCTCTTTGGCCTGGACTGTTTTGCTAAAATTGTTAGTGGGTTTTGGGGCAGGCCAGTG
0.856523748127291 TTACCCCTCCCTTGAGCTCTCACAGCCATTCCTCTGTGTTTGCATCCATTACACTGTATTATGGTTGCTATTTAAGTGCCTGTGTTCTCCACTTCACCACTCAAAGGTGTATTTTACCCCCTGCTCCCTTTTTGCGTGTGCGTCTTCAGTAACTGACTAAGTGTCTGCACATAATAAATGCCTAAATATTTGTTGAATTCAAATGAACTAAATAAAAACAAGCAAGTTCACCAAAACTCCTCCAAATATGAATTAAACCAGGGTATATATTCTTTTCACACTAATATATTGCTATTGAATGAGCTAGTTATAACAATGATCTCTTCATGATTGTATTTACATACTATTTTATAACAGTTTTGTTCTGACTTTGTTTCTGAACAAAACTATGAGCCCTTTAAAGTTATTATTTATATTAGTATAGCGCATATGTTAAGAGCACAGACTCAAATTCACAAGTGAATAGTGCTCAGGTCTTAATTTAACAAGGTGTCTGATGGATGACATGGAGACATCAATGCCACTGAAAGAAATGTTTAATGTCATTCACACTTTGAGAAGCAAGAGGCATGGCATACCATGCAGGGCATACCATGCAGGGCCACAGGAAGAGGCAGCAGATTTGGACAGGAGACAGAAACAGGGCTGTAGGGGAAGCCTAGGCCAGACGTTTTATCGGGGTTTCTGTAGGAAAGGCAAGGTGGAGTAGAATAACCTGTTCAGGATTGACTAGTTTGAATAATCCCGATGGG
0.5424721127992039 GAGTTCTGACCTCCTTGCATTCTCTTCTGAAGTGTCACAGATGCTGTAACTCACTGGCTGGCCTCTTGGAGCAGTAAAGACTTCATTTCCCCACATTGCTGCTTTGGCACCAGTTCAGATATTTTTTACTGAGCAGATGGGCAGGGACTCAGCACTCACCTCACACCTCATGACTGACACCTTCTCAGTCACTGTCCATTTTGTTCTTGGCACTCATGGGAGGGTGCACTGAGTTACTGAGGGTCACAAGCTTTATCTTTACTTTAGTATTGATTCATTCAAATCTCTTTTCTTCTCCTATATGAAAAGCTTTTACCTGCCTTTTCTCTTTGGTGGAAACTTCCCAAATATTGTACTCTCTTTATAATTCTTTATTCTAAGGTTAACCCCCTTCTGTTTTCCTGGCATGACAGTATTCATGACTTAAGTGTGAATTCTGAAGGAGCTACAGGGGAATAAAATGAAAGGGATTACTGAAAATCCACAG
0.5921334874930825 GGTGTCTCTTAATTGTCCAGGGCAGAGCAATCCTTGGAGCAAGGCAGCCTGCTGCGGTGGTTTGCAGAAGAGGCACAGTGGGGCGGGCTGGAGGCCGCAGGGGCAGAGTGGGCCGAGGGCCTCTGATGAGGTGTGAATGAGGGAGGCAGAGCAGGGCTGGTGTGGACAGCCCTGTCCCAGCCCTATCTCCCGTCTGCGACACCCTCTCCACACCCCAGTGCTGATAAGCGGGTGTGAGCCACGGCCGCCTTGTGACAGGCCCTTCGGCAGGGAGGGTGATGGTGGGGGTCCACTCCACTTCTGAATTCAGACGTCAGCATCTTTTTCCCCCAACCCCCATTGCCCTGTCAGACTAGACAGGCCCTAGCAACCAGGCACCCTCCCTGACAGTCCCTGGCTTGGAGATTTGTTTCTGCTCCATGTGGCC
0.5048015568831195 TATCTGGGCAATAGTTCCTTTTGGACTAAAAACAATTAGGCTGTGTAATTTTGTGCTGAATCCCTTCAGATAACTGTGTACGCACAGCCAGGCCACTTTCTCACTGGCATGGAGGCCAGGGCTGTCAGGCCCACTCCTCTGGTTAATGTCAGTAGCACTATGTATAAAAGGTGACTCCAGTGTGTACAAATGTTGATCTTTAGAGAAGTCATGCCTAGACTCACACACACATCCACTCTTTTGCCCAGTAGGTCAACAGCAGGAACAGAGGGCAGCCCAGGAAGGGACTTGCCAAGAGCAGAGGCTTATTTGTTAGGTTACATAGCCCTCGGGGACTTTCTTGCCTGAGATTAATCCATAATCCTGTTTCGTGTTTAAAAATTCAGGTTCTAAAAGCCTTGCCTATGAGACATTTTCAGAGGTGATGGAGAAATGTTCTCATGTACAGCAACAAATTAAGTGCCAGTGCAAGTGAGCACTGACAAGAAAGGAACTGTGTGGAATAGG
0.3826650895975073 ACACATAAGGGATTTGAACCTGTGCTTGGCTGGTGCAGAGCCTGCCTCTCTCCCCAGCATCAGGGATGGTTTCACGGCATGTGGCCTCTCCCTGCTGCCATGCCTCCATCAACTCTCCCTTTCTCATATCAGAAGATCACAAGCATTTAACAGCCTTGCACTTGTCTGACCCGAGCTTGCTGTATCTGCCCAAGAGGGCTGGGAAGATAAGATGAAACAATCCCTGTGAAATACTGATCACTAGTCAGCACTCAAGAGGTACCAGTACATCACCATTCATCACATATTCATTTAGGACCTAATACATGCCGGGCCTTGGGATAGGCGTTCTCATCACCTTCATCACTTACTGTTACTACGTTTAACACCCTCCACTCCCAGCAACATGCAGAGTGCTTCACACAATACACACTCAGTAAATGTGGGTTCAGTAAGTAAATGGTGATG
0.46254266817069 ACTTGTCACCTGTTTTCCAGAAATGGACATGTCTTTCCCCTCATCACGTGACTTCAGAGATTCCTTTTATACTTTTCAGTGTCTGCATGCTTGACACCAAATGTTGTCACCTCCTGCCATTATCTTTTAGTTGTACTGAAAAAGAAAAACCAGATCCAAGGCCCATGAGTTTCTTGCTAGCCTATCAGGATGCTCCCTCTTCTCCAACTGAACTGACAGTATCAAAGGTTTTGCCCTCGTCCATTTCCCGGGTAGGTCTCTGACAATAGTATCTTGTTCCCTGGCTACCACAATGAGAAGTGACAAGGACATTTTCCTGGCATTGCAGGTCATAGCTCAGCAGGAGCTGACATGGAGAACACACAGACCCCAGACAGGTCTCCCCGCTGGGTGACAGATACCAGGCCCATCAAACTCAGAAAATCTCTTCCTTTACTTCTCTTCTACATCAGTCAAGTCAAATTTAGTTATAAGCAACAGATTCCAAATCTGGCTGGCCTATGAAAAAGAGAAGTACTGCCTGGAAGAAGACAAAGACAGCTCA
0.7501979329823883 AAGATCCCATTCACCACCCTTTCATCATTGCCATGGATCACCTCTACAGCCTTTCCCAAATCCCTACCCTTTCCTTGTTTTCCCCCTGGGGCCTGGACAAGTCACTGGCCGTGACTCTTTCATGGACTCTCATTAATACATCCTGAATCATGTGAGGCTTTTAAGAACAGCACTTCACTGCTGACACAAGCATCAGTGTGAAAGGAGAAGCACCAGACAACTCCACTTGACTGAAGATCTGAAAGAGAAAAACGAGCAGGACCACGTTGGCATGTGGGTGCTTGAGCAAGACACAAAAGATATCTCAGGAGTCACTCTCCTGAATGAGAATTTGGACCCAGGGATGTTTGAGGCCTGTC
1 CACATTATATGGCTGATTTGAAGATTTCCATCTCTAATTAATGTATTAATTATCATAAGCAATTTCTCAAATTTGAATATGGAAAATCAAAAAGGCAATAAATTTCCCTTATCAAGTGCTCTGGGTCCAACGTGCATATAGACACTCACATGTGTTAAAAGTTCAGAGTGCCTCCTTCACCACTGCTTGAGTGATTTCCCTTATCAAGTGCTCTGGGTCCAACGTGCATATAGACACTCCCATGTGTGAAAAGTTCCGAGAGCCCCCTTCACCACTGCTTGAGTGCAAGGAATAGTCTTGGGTATTTCCTTCATTGAGCTTTACTTTCATTGGGCATTCACTATCTGTTTCATCTTGGAAGATATGCT
0.6371716131895444 GACTTACTAAGCGTGTAATTAATGTTATTAAGAAACATTGCAGTTGCATATTAAAATTCCGTTAACTAAGCAACCCTTCAGCATCAGTACATTTGTTCCTTGGTTTCAAGTTTTTCTTTTTCTTTTTCTTTTTTTTTTTTTCTGATTGGCATCTTCATGCAATCTTTCTCTAAAAAATGAGATAATGGGATGTGATCAGCCCTCGTGGTTTAGCTGGAGTGCTGACATGACAGTTCTGGCAAGTTGACAGGTTAAGTGAGTGAAAATGGATGTCTTGTCTCACCATTTACTTGAAGAGCCATTTTAAGCTATAGTTTCCCTCTCTTTACTCCCACACTTACAACTCCTTCTATCCCAGGTATGAGAAGTCAAGTTTTCCCAATTTAGGAATTTAGGATCTTGAAAGAAGTTTTT
0.851424745923637 CTAGTTAATTATCTTCATGTTAATATCATTGGGAAATAAAGGTGGGAAAAGGTAGAAAACAGTACAAAAATGAGAATCAGTTTTAAAAAGACAGTACAATCTTATAGTTCTACTCATGCACACTGTGATACTTAATGGGACATTATAACAAGTTCTCCCAAAGTCAGATGAGAGCAAACACTACAGCTTCTCACTTACAGCATAAGGTGATGACATTAGTGGTAAGAGGGTGGTAGTAAGAAGGCCTGAAGGCAAGAGCAGATCAGCTGTTGGAGGATGGAGAGACACGAGTAGAGTAATTGCTTGTTGACTAATTGAAGTGCCTCTTCACCATTTTATCATTCATGAGAACAAATGTCAAAAAGTATTGATGACTACTTGAAGGATGATACAAAAGAGATCACTTAATAGTGAGGAAATATAAAGATAAATAAGTTGCAAAAGAAACGGGATAGGTAGAATTAA
0.5936589704154253 GAAGGATCTTATTTCCTGGACTTCACCTCAAACCCTGGCAGCAAGGGAGCCTGAGAAATGTAGTTGTTAGCCTTCCAGCCCCTATGACACAAGAGTGTGTAGAAGGGGGTAGATGTGAACAGTGAGTGCCAAAAGAGCATGTCTGGCTTATCTCTAAGCTGTCAGACATTCTCAATACCTTTTTTGATGGCTCTCCTGCTTATGTATTTTTCTATAGCCAATTAAAAACTATTGTTGTACAGTTATTATGTGCTAACACTGTGTTAGGCACTTCAGAATGTACAGAATGATAGCATGGTTTGGATCACCTGACACCTCATCCACTCAAAAAACTTATGTTTAATGTCTATCAGGTACTCAGAAAACCATCAATAGCTCCTCGTTATCTATCAAACAAAGTCCAAGGGCCTTAATTTAAACCTAACAGACTCTCCATGTTTTCATGACCTCAACTCATGTTTTAAACCTTATCTCTCATTTCTCTGCTTATTGAGCTCTTGTGGACCAGGAAAACTGGATGATTTTCTCTTCTTTATACATGAGCCTCTTTTCTGCCATCAGCACTTTAGTTACAATGTTTT
1 AGGAGTAATAACTCAATATTAATATAGTAAATTTTGCTGTATAGATTATGAAACATCTTCTTAAAGTCCTATTTTGTATATGGTGTATAAAACATCGATGACATAAATTCCACTCAAAATTCTCTGTGTGCAGAGACATCTGCTGCCTGGCCAATATCTATTCTCACTTCCTCCTTATTAACACAATCTCTGTATTGTTGATAGCAACAATGTGCCCAGCTACATATCCTAGCCACCCTTGTAGATAGGTGTTAAAATTTAAACAATTTTAAGAGGGACTTCAGAGAAGCAGAAAGCATTCCATTGACAGGCCTTTCTTTTTTTCTACATCTCTATTTCTAAAACTCAGATGTGATGGTTGGAGCTGCAATAGACAGACAGACATCTTTAGACCATGACTTGACCTTGAGGATGGAAGCTACAGAATAGGAACGCAGAATAGAAGGATTGAGAAAA
0.6160906727092714 CAACTGCATCCCCCAGGAACTGCTTTGGGATTTTACTTATTATTTGGGATTATTTGTGCTCATTTCCCCTGTACCAAAAGTCAGAATCAAGTTAGCTGCGCTGTGTCTCTGTCACAAATGTCTGCTTGTATAAATAGGAGGGGGTACAAGCATGTGTCCACACACGCACACACGCCTCTCTCCGGATAAAGAGGTCTCGGGGTGAGGATTCTGGAACCCGTCCTTCCACACCTACTGCGTCTGGTCACTGTCTCCGAGGCTGACATTCCTCACGCCGAGGGATGGGCAGGCAGAAGGCTGCAGGCAGTGCGCCAGCCAGGTCAGCTTACAGCGAGCTGTCAACCCAGTCACTGACGCCTCAGCGAGGCCATAAATAACAGCGGTGAAGCTGCAGCAGGCCACCCGGGCCTCCCCCAAACCACTCCTCTGCCATCAATCTCGCCTGATGACTGCTTGGCGTTCAGGCTTCCGCGTGACCCGACCACGGCCCCAAGCGTTCTTTGGGGCGCAGTGT
0.2901523033381707 CTAGTTAATGCTCCTGTGTTTATTAGCCCCGTCACCTCCAACCCACTCCCAACACAGGCCATAAACTCCTAGAGAGCAGAATGCATTGTGTAATGGACCAAAGGGTGTGCTCAGGACTAACCAGGCACCCAACACAACTAGCTCGTGGAGTATCTGCATATCATCCCATGGAAATATCAGCATGAAGACAAGTGAGTACAAGCTAAAGGTGTAGCTTTCAACACCTCCAAGACCCTGTCACCATCATTGCCGTCACGGCCCTGGCAGCACTCCTCAGGAGCTCCTGGCTGTCCAGGGGACTATTTTCAGGGCTGAGAACACCTATGTCTTCTGCCTGGGTTTGAGGCCTGGCTGGCGGCCGATGCTTCCGTAC
0.6274344103017867 TGCATGCAACAGAAAATACACACAACCATGGCTTAAACTAGTAAAAAATTTTATTTCTTCCTATAACAGGAAGTCAGGGGGTCCCTGGCACTGGTTCAGCTGCTCATTAAAGACATTAGGGAATGAAGCTGTTTCCCTCGTTCCACTGTTTCATCCTGAACATGTTGTCTTTCATCCTCGCACTTGTGTCGAATGACAGCAGGCGGGCTCTACACTTGACATTGCATCTGTGTCAGAGGCAAGCAGAGTAGGACACAGGGATGTGCTGATTGGATCTGTGTCCTTTCATCAGGAAAGCAAAAGCCTTTTCAGAATTTCCCATAAGGTGCCTGCTCATGCCTTATCAGCAAGACTCCTGTCAGATGCCTCCCAAGCCCTCCCACA
0.9147651143881972 ATCTATTTACTATTTATAAAATAGAATGTCACTGTTACAAAATATTTAGAAATGTGCCTATTACCTGCATCAGCATGGTTGTTTGTATCTACATCAGGGCATTGATTTAGATAAACTAAAAGTAATCTGAATGTGATTTCAATTTGGAAGAAACAACAAGAGGTATAATATGAAGCTTAGAGGTTATAGTTCTTGAGGCAGAGAAAGTGCATACTGTTGACAGAAACATAACATGGGAATGTGAAGGCAGAGATTAAACAGGAACATGACACGAGCTTTGCTTAGTATGTGTAAACTGATAAAATACAGATGTGTGCCCCCTCCAAAAAGCAAATTAGGTATGGATACAAAATATGCATACATAACATATAATTCTCAAAGGAGGTGGAAATACACATGTGTAATTCACATTTCTGTCAAAACATATTAAGAATAGCACCACTGCTGCTGGTAGAGTTTCCACAGGTCTCAGCAGCCTATGGGGCACTATTAACAGTAATAACTTACATTCCTCTGGCCCTTTTCTTCACT
0.8072850546065344 GAGAAAAAACGCTTACAGAGGAAAATAAAAACTTGAAAGAGCCATTGTGATCATTGAATTCTGCATACTCACCGCCACATTTGTCTCTTGCTCAGTTTCTGGCACGTAAGGGTAATGGTTATAAAACATATCATTTCGCACCATCTTTTTCCTCATCCTGCAGGGCCCTTCTGTCATCTCCAGCATCCACTTGTCGAGGTGGGAGCCGATGGGAGGGCCCCACAGCCCCCGCTCCCTCAACAGCTCGCACTCGATCTGACACCACTCTTCTGTCACGTACTTCAGGGCATTCTGCTGACGCTGACAGGAAAGAGTCCAGGTCGGTTTTCAAGCAAAAGCAGGAGTAACAGTAACAAGTCTACAAGTCACTGAAAATCAAGTTATTATTTGGAAACAAACACAATCCACACCATTTCAGTTAACATTATAAAAGTAAAATTACATTTGTTTATGGTTAAAGTAAGAGGTTTTGTTGTAGAAGGTGGACTTCTTAAAGCATCAAGTAAATGACAGACATGGATAGGGTAGAGTGTGCAATATAGTGAAACAGAGAGTTGAAAGAAGTTTGTTTCTCTGGCACAGGAAAGATGGTAATATTACTATGAATTATATTGAAATGGTTAGCCCTATGTGCGTTAATAAATATATATGGTAATTTAAGGATACACCAAA
0.8656536917724517 TCTATACTATGTTTAAAGATTTAGTTGGCAAGTGTTGCTCTTAATAATACTCATGTATTCAAATTCAGCCCAATGAGTTTTTGTTTCCTCCTGGTCATTTGAATAATCCCTCAGATAAAGTCTTTTACATTATGGAAAGATGTCCGGTTCCACATGACCACTGCCTATCTCACTCTATCATTTCTTGGGATTCTCAGCTGCACTTCATCATATATCATCACCTTTTAGCCTGTTCTGGTCACTCTATCTCACACTTCATCGCTTCTTGCATTCTTTGTGAGCTCTCAACTCTGTCACGGAATCTATCTCTGTTGTACACGAACTCATTATTTCCAAACCAAATATACAGTAATTAGGCCTTATTGGTATCTAGCACAGTTCTTTTTAGTTGATTAAAACATGAACTATTCAGTTCACTATCAAAA
0.4941571500119136 CCTGACCACTCAGTGGCACTGCCTGCCACTGGCCAGTCCCACATCTGGCTCATTGGTTGTTTCCCTTATGGGTGCAGGGCTGGCCCTGCCTTCTCAGTCCCTGCTTAGCTTCATCATCACCTCCTGGCGGAGATCAATGCTAACTAGCAAATGCAGGAGCTTGCTGGGCTGTCTCTGCGCATCTGCTGTGTCTGCTCACCGTCACCTTCCTGGCATCTTACTGACTGCTCTGTTTATTATCTGCTGTCCCCACTAGAACGTAAGGTCCAGCAGGGCAGGTGATGCCTATGTGTTCACCAGTTTCCTTCCCAGTGTTTCAAATGAACTCCACAAATAGTAAAGATTCAGTAGATAGTAGCAACTTCATGAAAAAAAA
0.9892042910702178 GTGCTGGTATTAGAGGCGTGAGCCACCGTGCCCGGCCTGGTATATTTTTACCCAAGGACTAGATTATTAGTTGCTAGTGGGTAAGGAAAACAACTTAAAATTCCTTTGCAAGTTGTCTTTCAGCACATGGAGAGGTGGGAGTGCAGCCCATACTTACCGTAGGAGATAAGCCAGATGTCTGGCACTGAAATGAAACATCTGTCAGCATTTGATTGTGTCATAGACAATGCCCTTGCCACACCCATACATTAATGCTCGAAGAAAAACTGTGGCATGTATATAATGGAATGTAGGTGGGCCAAATGAAAACAAAGATTTAAGGATTCTGGAGATCATATTTATACTTTTGTTACTATTTCTTTTTTTGAAATGTGCGTGAAGGAATTAACAATTATATAGTAATATAAAAATT
0.9212843095246026 CAAAAATACATTGCATTTCTCAGAGGGCCTCTACCTGAACAATGAGTGACCTGTCCCTTCACTGAGCATGGCTGCAAATTATACTCTCTTGACTGTCTCCTCTGAAAGCATGATGGTGCTGAGTGCCTGTTACCACCTAATCAATCATTCTGTATAGCAATATCTTCATAGTAAGAAAGTCTTTGAGAGCAGTGAGGGATCTGAATGATTGGCCATCCCAGTGGCTTTTGAGTGAACTTTGAGCCTAGATCAGAGGCCCCCACTAGAGACAGAGTTAAGAGGGCTCCATGGAAACACTGTCAATTTTCATGTTGGAGGGAAGAAGAATTTTATCACAGTGTAGCAGCCCTCCTGGCAGCTCTTAGGAGGGTGTTGATGTGTCCCTGAGGTGAGTTTCAATGCCAATATTATGTCAGTTGGGGTGTTGGTGAATTGTTCCAGAGCAGGTCAAGCTATGCACACTTAGCATTATTTTTTACTATTAGGAGCAACCCAACAAAAAGAAAATTTTCTCTCATCCAGGGACATAACACAAGGGGAAAAGAAGACGGAAAGAGGTAGAGAAGCAAACCAACAGCTCCAGTACCATGGCGAATGACAAGAACACAAAGCTCCAAAAACACTCTCTTGGGTTATATACTTTAAATAATAACTGTGTCTGGGAGAGAGAACTATCAAGGGCCACATG
0.9097647567509302 GAAAATCTCTATTCTAAACATTTTGGTAAATATGCTACCAGATTTTTATCTATGCAAATGTGTATCTGTATTTTTCCTCACTTGTATAGTGGACATCTTTTCATATTAATAAATAAGTTAGCATCATTACTTTTGATAGCTTCATGGTGTGAAATTATAAAATTAGACCTACCACACTCTATTTTAACTATCTCTCTTGCTGGGTACTTAAGCTATTCCCAATATCACAGAAGCCTTTTTACACATGCATCCTTGTACATGCATCAGATTCTTTAAGATTGCCAAAGGTGAAATGGTTGGGTCCCAGGGTGCAACTATTTTTTAGCATTTCAATACATAATACCAAAGTGCAATCCAGAACCATTGTACCAATTAATGCTCCCGCCAGCAGCACATTGCAGTGTTGATTTCCTCCTGGCCTCACCAGCACGCTGTCAACACTGGGTACTGGTGTGTCGTGTACATGACATTACATGCCAGGCACTGAGAGTGAAATAAAACAGTTCATGTTGGGAATGGGGCAAGAGAGGGAGATAAACAAGGGAGGTGACATCTACAGACCGGTTAGCTGAGATTACAGTACATTGGGGCTCCAAGTGCACAGAATCTGAACATCATGTTCATCCTAGGACAAGTGTTGCAGAGGCTTCCTGAAGAGGTTCATTCTGAGGCTTACCTTGAAGGATCATCAGGAATTAATGATGA
0.4538900387969743 CGTGCCCTTGCCCTGCTTCAGCCCCACAGCCCCGCCTGGGTTGCTGGTCTGACCCGGCTGGGCAGGGTGGCTGTGAGCTGCCGGTGTGGCCCCAGGCACCTCAAAGGGTCCTCGGTGTTCAACAACAGGAAGTGCTGGCAGGCTTCCCTCGCTAGGGAACTGAAAGTGGTGACAACAGAGGATGTGTTCTTCAGGCTATCAGATAAAGCCCTCTGCACTGAGAACTGCTTCTGACGAGGAACAGAGACTTCACTGGTCTCTTCCCCATGCCTTGCCCTTGCCCTAACTAACTTCTGAATTTATATCACCTGTGAGTTCTGCTCTAATTCAGGGACTTGGGCGGAGAGGTTTCGGACAGTGGCCAAAAGCAAGAGACTGTCTGCATGACCCTTTAGAAACACCCGTGACCTGGTGCAGAGCTGAGCCAGCTTT
0.8363799995761588 AATAAGGCCATCCAGAATTCTATGCTGAATAGCGTTTCAGGGTGACTTTGTATTTTGGCAACATATCCCAGACAGTTAGTGGAAATGAGAGAACATGTTTTATTTAATTTGTACTTTGGTACCTTTTATGTGAACGAGGCATGTTTAAGCACTTAATGTTGTCACCAGCCTTTTAAAACTATCTTTTTTTCCCGCTGCCCAACTGTAGTTTCCCTTCAGTGTTGAGTGGTCGTAATCTAAACACATTAAGTTTTTGTCTTGTTCTTTCTGCAGAGATAGAAAGCTGGGTCTGAAAATAAAAGCAGAGCTTTTATACAAGGAGGTCAGTGTTTGTACTCAGAAAAGAAAGTATGTAAACCAGATTTC
0.5212820580256369 CTGAAAAAAATAAATAAAAGAAACAGTTGGGGAAGTGAATGTGTAATAAGCACCACGATGAGAATGTGCTGAGTGTGTCTGATGCGTATCATTAATATCAGCTATTCCACTTGAGCGACGCTGCCCTTGTCCTAATCACTCACCCTCGTAGGCGCCTGTTCCCTCTCGCCACTCGCTTCACACTCAGCTCGGCTCCGGATCTGCACAGTGTCACTGGATCTTCAGCCCTTGCTGTCACACCCCTGTCCACCTTCCCCTGGTGCCCCGCCTCCCTCCCTTATCATGCTGGATGCCCCTCACCTCCCTCTCTCTCATGCCTTAATCGCTTCTGCCCTCACTTCCCTTCGTTGTT
0.5629741308405065 TCTATTTGCAGATTCAAAGCTGAAGATGCCATCTTCTCTGGGGTCAAGGGCAGGTCAGTGTTATTTAGGTGGCATTTATTCAATAGCACATGGTACCCAAGGGGTTTTCCAAAGCTGGGACTTTGCAGGTGGCAAAACCAAATAAATTGACTCTGTGAGAAGTGAGAATTCCTGCCCAAATCCTATCGGCTGTTAGGTCTGTCATTCAGGTGCTTGGGAACATTTTGCTTTTGTGACTTGGAGTCCGACTTTTAGCAAGTGACTTGCGGAGTTTGTGCGTACTGCCTGACAGCTCTGGTCAGTGTCACCAACACCTCGGTTTCATCCTGACAGCAAGCCTTCACGAAGAATGCCACAAACCAGACCCTGTTGCTAACGGAACCCCTTTCAGTGCTTTAAAACCTTGACTACCCTGACCGAAGCATGAACATTTGCATGTGTTCCAATTTATCTAATTGTGGATATATTAACATTTTTTCTCCTTCCAGATGGTGATGTGAAAAAGGGCAACCGTTGGAACTCAGTCACCCAAGTTAATATCGTGTCTA
0.1083239743430961 AGAGCCCTGACCTTGGGTTAACAGACCTGTCTTAGTTGAGTCAGCCACTCTGACTTAAAGTCCTGGGCATGGTCCTTGGCTTTCCACATCCTCCAGCTGGAGGTGATGAGAGCTTCACTGCATGTAACTGAAGAGTCCCTGTGGCTTGCATTCCTGGCTTTCAGTTGCCTGTTGTTCATCTTCAGCTGTGCATTATCTTTTTGGAGAGGATCAATGACACTTAGCAATAGCCATCCAATCCCACTCTCTTAATGTCTGCACCTTCTTAAGTGTCAAGCGTCCTGTAGATTTCTCTCACTAGTTCGTTCCCTTCTACTAACACACCATCCCAATTCGCAACTAATGAAAGTGTTAACAACAGGACCACCACCTGGTGCAGGGGCTGTCAGTACTCCACCTATCACCAGAAAAACAGGCCCTAATTGCCAGGCAGGTGGTGAGTGATTCAACTTCAAACTCTGTCTTATCTCCACCAGCTTTCTCAGCCCCCCTCTCACTGCCAAGTGTTGCAAGGCTGGCTGTCTAGAAGCAGTCACTGACACAGAGTTTGGGGAGCACAATACTTATTAGAGATTAATACCCATAAAAGGAAGAGAGAAGAGACAGGATTGGTCAGAGGAAGAAGGTGATCAGCAACACAGACCCACAAAGCTTTG
0.9609423690663974 CATTTCATACTGGTGACTATGCTTAAAAGACTTCCTCATCTTCAGTAGAAGGTATGCTGTGTCTGGCAGAGTTGCTAAATTTGCATTTTCTTAGGCAAGATATGCATCACGTAGTTGAGAAATTTTTTGGAGATTAGTTACTTTCATTACTAGTCAAGGCACAAAATGCTAAACCTTAGAGCACTGATTCTGAGCCCTTGCATACCTCAACCCGTAATAATAAGAGAAAGTTCCTGTATACATTCCTTGCAGAGTGTGATTTGAGAAAAAGCAGGGGGATGAAATTCAGGTTCTAGTCTTTAATGACTTGAACACAGATGTTGCTGTTGACAGGCGGAGATATGTTGAGTGTTGTTTCTCCATTTGCTTAGCAAGATTTGACATGTGGTGAGCCAGAATAGAAATCTGAAGAGTTGAATCAAGATGTGTTGAGAGAACTTTGGGTGTAAGAAGTGATAAAAGAAGCAGGTCTGGATATACAACATTAGGTGGCAGATGGAAACTTTTTCAAAAAATATCTTTCCAGGATTGCCTGCTTGGATAAACTGATTGGTAAATTTAGTTGTCCTTAGAAAAGAATTTTTAAAATACAGAGGATACACAGCCAGTATATCATCACTCTAAACAAACAGTGCTCATTGT
0.9001713786278052 ATATGAACAACTTTAATACAGAAGAGCAAAAATATAATTCTTAGGGATCAGACAGATTCTGCTTACTTCCTATTCCTCCTCTATCCTTCACTACAGTGTCTGCAATCACAAAGCTTCCCCTCCAAGCAAGTACACTGGCTGGGTGAGAGGGGTGAGCAGGCCAGTATTTCTGAGTGGCAAAAGAGAGTGACCAGACATGCCTGTCCTTTGTCACTAACCACCTTTCAAGCTTCCCCTTCTGCTGAGCCATCTGCAGGAAAATGTCAACATGTGCTGCAGGGAAAAAATGTATTTGTTAATTTATGTGCTGGGTAAATTCACTTATTCAGTAGAATAATAAAAATGTGACTGCTTACCACCTTTCCCTTCTAGAGTAAAGACATCTTTATTAATGATTTTAAAGCCTGAAGAAACAGGAATGCTTGCTCTGTTTACATTTCCCCATATTAAATGGAAGACATTCACTTGCTGGGGG
0.7987268648198931 ATTACTAGGTGTTATGATAACAGGTAATTTAACGTTTCTACTTTTATGCTTCTCTTTATTTCCAAATGTTTTGCAATGCACTATGATACTAAGAGAAAAATGTTAAGGGCAACAAGTCAGAGTTGAGGGAGCAAGTAAATCTGCTATGTGGGTTGGGAGGTATCATCACACAGGAGGTGTCGTCTGAGTTGGGACTTGAGAATGCATGGGAGCTGTTATCAGGAAGAGTTGTCAGTAAAGCAGGATTCAGGGAAGTGCTGAGTGCCTTTGGGGGCCAAGAAATAGCTCAATGAGGCTCAAGCAGTTGCAGAGGGGATTTGCAGCTCTCCACCAAATTTAGTTTACAGAGAACAACCTATTTACTTTCTCAAAAGAAAACAAAGTTTCATATGGACAGTGACATTCTTTTTTAATAAAAATCAGAATTTACCTATGCATGATGGGCCATCCATGCTCTACCAGGCGCATTTTGAAAAGCCACAGACAGCTTTCCTGCTGCATAAAGAATAATACAAATAAATAGAAATTATAACGTTTCACTTTGGCTGATTATGAGATAACATCAGATGGGAGAAGGAGGAGGATATATCTTTATATCTTAGACCCAAAGCTCCCAGTGCCAGAATTCTAGAAGCAGGCCTAATCCCATGGTCTGGCTCTCATCAGTGGCCAAGAAGACTGAATGAGCAGTGAAATACCTCTTTGATGCTTGTTCATCACTCAGCACCAGCACAGAAATTTCAAAGGCCATGTTAAGTGACTTGACAATCTGGAGACAGATGATAAAGTCTCAGCTTCTGATCACTAAACACAATAAATCCCTTGCGAACAGGTGCTACTAATTTTTTTTAAAAAGATCCATCTTGTGCTGTCAGTCATTTTCAGATCAACTACAAGTG
0.9859919688972677 GACAATATCTGGGCTGTAAAGATCTTAACTGCCTAACCTCACCCCACCAACACACACACAAACACATACATACATACACACACACACACACACACACACACACACACGTAGGCATTACTGGAAGACCTCCCAGGTTATCTTGTTTACCCTCCCAGCCTTTAGACTGGTGCCAACTAACATATTCCAGAGTGCTGTCAACTCTACGTTCACACAGCTGTACTTTCATGATTTTTTATTCCAGTGCAAAGAATCAGTGTTAGGAAGTTCCTTGAATCTATCTCAAATGTTGTTTCACACTAAAATCTAAAACG
0.9388952772063408 GACTGGACCTGAGATTCTGCATTTCTAACAGTTCCCAGATGATGCAATGCTTCTGTTCCCGGACCACACTGGAGTAGCAAGACCCTAGAGTGTTATCATCTGTCAAAGCTGTGACTGCCACATTCAGGTTCTAACCTGCAGGGAAGAGAGAAGGCTGGGGTTGGGGGACAGCGAGGAGGCCCCCTTGATGTCTTCAATCCCAGACCTGGTGATGGTACATAACACTTCCGCTTACATTATTTGGGTGAAAACCTGGTTATATGGTTACACCTAACTGCAAGGACATCTGAGAAATGTAATCTTGCCTGACAACCACATACAAAGCTACAATTCTATTACTTTCAAAGAGCGGGGAGCAGATGTTGGCAGACAAATCACAGTCCCTGCCACATTACTCTATCTAAAGTCCCCTCACACACCTCCCAGAGACTCCTGGTGGCCACCCAATCAGGTGAAGCGTACTCAGAAGTGTCCAGGAGGCTTTCCAGATCTGAACTTCACAGCATTCTTCCCTTCAGCATGTACTTGAAAAATTCTGCTCCCAGAATTTCCTGAGTATTTATTTATTTATTTATTTATTTAGGGGAGAATGTACAAGTCGACTTTTTCTTTCCACTTTTGTGACTTTGGAAGTGAACGAGATGACCAGATTATGTCTCTTTAAAATCGACTTGTTTAATTCTTCCTGTTTTGGTGAGAAGAAATTGATGCTTCAATCCCAGTCTCACATTATTCCAGCCAAGACAATCTTGCTGGGCTGAATCACTGTGCTGCAGATTTTCCTGTCCGAT
0.5759132769526146 AATGCATCCATGAAACATCTGAGTGGCAGGCATGTGTTCTACAAAACAGGATGCAATACAGGTTGAGCCAACCCCCTGACAGCAGAGATAGAGACTCCAGAGGGTAGGGAAAGGACAGGTCAGATATGCAACAGAAAGATTGACAGTGACAAATGGGGTGTGAACTCTGGGAGAATGAAAAGCCCAGTGCACTTCACACTCTATCCTGATGAAAGCAACCCTCAGAGACCCTTAAAGAAATGAATCTGTTAAACAGATGCCTTCAATGTGTCACTTGCAGACAAAGCTTCCTTTGCTAAAACCCCTCTTAGACGATGAATAAGTCTGGTGAGAGGAATAATTTGTCAAACTAATTTATTATAGTCCAAGGAGGTCTCTGAATAATAGGAGACACTAGGGAATAGAAGGTAGTCATCTAGTGGATTGTTAGTAACTCTCTT
0.8552604866405431 GGTGCTGGGCTCCATTGACCTAATCCACTCTGAAGTGCCAGATCTGTCCACACGTCCTCGGGATTAGGCCAGCATGGCCAGCTCACCCTGACTTTGCCTAAGGGATGGTGCAGTGGACTTGGACCTCCCCCAAGCCAGGTTCATCTGATTGGTTTCCCTTTTGCGCTCTTCTTCCCCTGGGAGAGGATATCCTCAGCATGGACTGGGGCCCACAGAGCATGGAAGCTGAAACACCGATTCTTCCTCAATGAGCTGAAGTTCTCCAGATGGCAGCAAGCGCTCGTCATGCAAATTCTTGGCAGCAGGGAGCCTGTCAAGTGGCTACTGCTGCTTATTGTTACCAACACTCCCCCACCCCCTCCACACAAATGCAGAAGAAACACCATCTGTCGCCTGTGGGGCTGAGCGGTTCTTTCCAAGTCCCTTCTAGTCAGTGCCGCTCAGCAGCCCTGCGCTGTGCGCACGGTCCAAACAGGAGTTGCCTCTCCTTGAGCCAGGGAGGACCCCGTCCGGTGCTGGCAGTTCTCTTCTTCCACGCCTCCTGGGCCTGGCCCCTCATCCAGGGCCGAGCCGGGGCGTTTTGCTAGCAGATT
0.4966582271967322 TCCGATTTTCATGGAATAGCATGGATTTTTTGTTTTATTTTTAAATCTGATAAGTATAAGCTTACAGGTGTACCTGTTTCCTGCTGTTCTGAAAACGTGACCAGGCTCTCTCTGTGACAGGATCACACCACAGCTCGTAGCCACTCTGTGCAATAATCTGCAGATGATAACGCCTTTGCAGAGCAGACCTGCACGTGTACTTGCAGAAAGGTCTCTGTCAGACACAGCGGGTGCCTGTGATATCTGAGAGTGGGTCAGCAGGACTGGCACGTTCAGCAGCTCAGGAAGCCAACTTCCAACGGCAGGAGCAGGACCCTCTGCATGTGACTCTGATGGGGCAGATGGTCCTTGGGGCTTCCCTAAAGCCA
0.5872361646593429 CCTTGAAGTAATATGTATCAGGAAAAGAAGAGCTCATCGTCTCCTCTAAAAGGGAATTAATTATCTTTTATCCAGTATACGTATGGAGCCAATCAGTGAGTGAGATATATACAGGCCCTCTGACAATTGTCAGAAGGTCTTGACATAGCTGCTAATGATCTGTTGACAGGAACAGCTGGTGATAGGAACAGAGGTGAGTGTTACTAGAGAAGAAGGCATGAAGATCTCACTGCAATGGTGCAGTGAGAGAACAGTAGACACGGTGCCAGCCAGAGCCCCATTAACTGGCCCTTAGTAAATTCCAGGATCCAAACTTTATGGTCTCTACTTGGCATGGAATAAAGATAAAAAAGGATTCTGTTTGATCATCTCCTTAATA
0.6437923314006666 TTTTAAAGAACCTTGTTTTGTCATATTACCATAATTGTTTTTCTGGTTTCTTCTCATTTGGGTAGAGCATGTCAGAGGGAAGATCTGGGAATCAGTGGCTGCTGTCCTGATTCTTTTGTCCCATGAAATGCTTCCTTGATGTAGTGCTCTCCTCCTTCCCCTAGGGATGGGGCTTCCTGAGAGCTGAACTGCAGTGATTATTATTTATCTTCTGAAGCTAGCCATCCAGCACAGCTACTGGGTGCTGAGCGGGTACTGGGAAGTGTCTGCAAAGAGTCCTGTGATGTGATGTGATCTGTCTTCAGGTCTCTCAGCTGTGGATACCAGCACCTGCTCTGGTGGAAGTAACAGGGGAGTGAAGCGGCCTCTGTGAGAGTCCTTGGTTGTATTTTGGTTAAGTTCGCTGGTTTTCTGTTGGTTGGCCCCCAGCCAGGAGATGGTGCTTACAAGAGAGCATCAGCTGCAGTAGCATAGAGAGGATTAGGCGGCAGGCAGGGCCATAGAGCTCCTAAGAAATTATCTTCTTTGTCTTTGGCTACTGGGGCGAGTAGAGAAAGACCATCAGGTTGGGCAGGGTTAGGTGCT
0.6266354410142924 AATATGGTCTGATCAGCTGGCAGCCTGTGATTGACTGAAGTCTGGCTGCTGTGATTGGCTGAGACTCAGCTATTTATACAAAAGTAGACTCCCGGCTTTCAGTTTAAGCACTATTATAAGTTAGGTTGCAGTTCTTCACATAGGGACTCAAAGTACAGAGGCATCCTCAGGCCAAATTTAGTTTAGCTTAGCACACTTGTCATCACTTCGCTAGCACCACACTTGATAACCCTGGTGAGATCACAGCTGGCCATAGACAGTGACTGCCACAGGGAGCAAACACCACACTTTCCCATTCTGCTTCACTCCCACGTTTAGAGCCAGACCTTTCCTTTGTTCCTTGCTGCACAGCTGGAATAAGGCAGTGGCTTTTAGTGAGGCTTCAATGAGGGATCAGAATAATGGAAACAGTGTCTTTTCATCCACTGGACACTGGGAATAGCACCTAAGCTGCTTTCAGGTCCACCAGACATCTTTGAGATGTGAAAAACACAGTA
0.9702026307453369 GCAAGCTGGATCTGTGAGCAGCTACAAATAGAAGCACAAGACAAAGTAATCTATAGGCTGGCACTCACATTCATTTACTAAATAAGGTCGTGAGCAATATTAGGCACATTTTTCTGACACCTTTCCCAGTTGACTAGAAGTTGAGTGCATTTAGTAAAGGAAGTACACAGTGAACTGTTGTTAGTATTTATCAGGAAACGTGATGAGTGGCCCTGAAATAGAGCATCTTACCATCCAAATTTCTCAGTAGCCTTAATAAAGAATAGTCAGTAGCCTTAGTGCAGACTAGCTGGAGTAGATCTAAGCAGTATTAATGTGGCAGTCCGCCTCAGCATGAAAGTGGAGCTTTGCAAAAGGACGAGAAATGGATTTGGATGGGCAAGGTT
0.2660586291023742 ATTCCAACCTGAAAAAACGCTCCAACATGAAAACCTAACCATGTGTGAAATACCAGCTCCTATTAGCCGCTGAAAGGGACTGCAGTGAGCAGCGGGCACCTTGCCATTCCCAGAGTCCCCACTGTGCTGACAGGTGCCATGCCCTGTCAGCTCCCTGGGGCGCCAGTGAGTTTCTCCCAGACTGGGGTGAGTGGGAGCACGGACGGCTCTTTGAGAGAACGTGGCTGCACAGCAGTGAAGGGAGTCACGTTCCCTGCTGCCGTGGCAGCTCTCTCCTCGGCGCCTCCCTCTCG
0.5916753298763872 TTTGAAGAAATCTCAGTAATTCACTGAGATCAGAGTCTATCACACAAACATCCGAAATTGTAGCACACCGGGGAGCCTGCCAGGAAGGCCTATAATCAGATAACACATTCCAGCCCGGAGACCTTTCCAGAGGAAGGGTTAAGCTCCCAAGGTAGTTAGTGGAAATCAAAGAACTGCATGCTCTCATTATCTCATAACAAACATACCAGGTTAATAGCTGTCGCTGCCGCTCTAAACCACGTGTGTTGTGTTTTGTGAGTGCTGACATGGGGCGTTCTTTCTCCCACCATATCTGCAACTTGACAGTGTCATCGTGGTTGGGTGCTGGAGTCTCCTAAAGTGTTTTGCATACTGTCTCCTGCACGTTGCCTCGAAGGATTTTTAAATAATTGCTGTGTTTAATGGGAACTCCTTCCCCTCTCTAATCCCCTCCAGTAGAAAAGCTGGCCAGTGTGCCAGTGTGCCCGGGGGGCATTTATTTATAGCAGGAACGAAAGTGGAGCGTCCCAAAAGACTGTCTGCTTGTCCTGAGCTGG
0.3850927642406001 TAAGATTTTCATTCTGCCTTAGCTAGAAAATCCAAATAGGTTGAGGAGGAATTAAAGAAAAACATCTAAGAAGAACACAGGCCCCTTAGAGAGGCTTGGCAGAAACCCTGGCGCTGATAGAACTTTTGTGACGACAGCTGATGGGAGTGTCTGGGATCCAAGGCCTGAAAGCACACTTGTACAGGCCCATACATTTCAGCACAGGAAGGGACACAGCTGAGTGTCCTTGAGTTCTCAAGTGGTATATAGAAGAACTGAGAGGCCTGGGGGACTAGAAACGGCCCGACACTAGGAGAGAAAACCTCTAAATGCATCAGATCTGGCACCACAGATAGCAGCAGCAGATGTCAGCTCAT
0.7763347028165143 CAAGACTTTGTAGTATCATCATGAGCATGTCAAATGAGACTATGTATATCAAAATATTTTGTAATCTGTTAAGTAATATAGAAGTGGTTAGATCAGCCAGATACCAGAGCATTAAGACTCTCTGCAGAGTTGTTGAGGCTATACAGTCTGATGTCAGAGCAGGAGTCTCAGCTGACACCCTGAGCAGTTGACAGCGAATCACTTGAGGGACTAAATATGCAAAGCTGCTTCAAGCTCCAGGTGGCCCAGTGCCCATAGGCACGTTTGGATCCATTGCCTTGGAATGCCATCCCTCCCAAGAGGGATTGGGATCATCCAGTAGCCCTATCTAGTTGAAAAGATCTACAGAAGACTACCAATGAAAAGCCACTATCACACCCACAC
0.3186808088805333 CACAGGACGGGTAAGAGCCCCTTGCTGCTATCCACGTCCATTTCATGGGAAGGGCCTTCACAGAAGCCGAACAGTGATGATGGCCCAGGGCATCCTGTGTGGGCAGGACGGCCATCAGAGCCACTTCCCAGAGGAGACGGCAGGCGCTGACAGCGCTGTCCGGGCAGGGTGTCGGTGACATTAGCACACACATTAGCCTGCGATGAACATTCACTCTTTCTGCTGACACCCCCAACCTTATCTAAGCTTATCAAATCCTCACATTTAACGGAGGCTGTTTTCACCTGGTTTCCCCCATCCCTGACCTAGTCAGCATTGCTTTATCGCTTTCATCAAACATCCTCAAATTCTTAACATTAGCTTGT
0.5526989048272116 ACAAAAGCCATAACTTTTAAGAAATACTCATTTTTTTCAGGACAAAAAGAGCCAAGTGAACGTAATCACAATAATATTTCTTCCCTTGCTCATATTAAAACAACATGTGAAAATAATCCTACGTGTCTCTCCCATTCTATTCATACATTTTCTACAGGCCTCCATAAGCTGTATCCATGGCTTTCAAATATGACAGCTTTGTACTTGCACCAGCAAGTGGTAAAATGTGCTGTCATTCCTGTCACTGACACCAATATCAACTCCCTGCCACTATCAAACCCCGAAGCATCAAGTAAGATAAGGGAGGTGAGCTAAGTCTGTCTGGGATTGAGGTCATTTTCATCACCCTGCTTCCATGAGAGCAATATGTCATATTTTTCTCAGAGGTATTAAGCAAGGCAGACTACCAAAGCACATCAACCAATTTCTCAGGATGAAGAGAGAAAGTGGCTAG
0.2022623188060932 CTCTATCTGCAGCACAATTCTAAACAAGGAATGGCTCCATGAGAGCTGATCATGTGAAAGGAATTCCCTTAACAGCGGCCCTGCCAATCACAAGTCTGTGTCCACAGGCTTGAATTGTCATCACAGATAGGCATGGCTCTGATTCAACACTGGCTCCTTCAGTGAACTCATTCTTGTGGCTTTCCTATGCAGATGGCCCTCACCCTACAGCTCTCAGCACCCAGCAGGTGGCTGGGCTCTGCTTCTCTATTTCCAGCCATCAATGGGACATTTCCATGGACTGGCCAGCTGTCATCTCTAATTCATCTTGTCCCAAACAGATCATCACCACCCACACTGACTTCTTATCCTCAGCTCTGCTGTTTCTGCCAGTAGATTTAAAATTCTTCTCATGGTATAGGTGAGACATCACCTTCTCTTTCCTTTATCCCAATACTCAGCTTTTAC
0.6266076552029167 AACTCTGGAATTCAAGAGGGAAACTATTTTGAATGCATGACCCAAGAAAGACAGGAAATCAATTCCTGTCATTGTGCCCAATTCTTTCCCTCATGGGCTATAGTTCTAGAGGTGGCCTTATTTGCTGCTACCACTACAGTGACCCCTTGTTTTGTCTCATGCCCATCACCCAGGAGTTTGAGATAGGGTGCAATCTGCTTATTATTCATCAGGTGTTTCTTAGCATCTGTTTTATGTCCAGCACAGTTCTAAGCATAGTGGGGAATGCAAGAGGAGTGGATACCACAGATCCTGCCCTTGCCTTGTCTTCACCATAGATGAGAGTTTGCTGAGGTGGCAGGGGAATTCTGTCAGCTCCTTTACTCTAGACCAGTTTCATTAGTGGCTGCCTAGCCAGGGAATGGCAAGCACTCATATTTGTGTGAGTGATAAGTAAGAGCACAGAGAGAAAAGAAGTCTTATGCATTCCTGTTCTTTTTCTCCTCCCCTGGCAGCAACAGCCA
0.2136851485367708 CCTCCACCCTGCTAAGTCTTGGGCTATTTGAAAAGCACACTGTGTGGCTCTCTTTCCTGGAGACTAGTGACAGCACATTAGTCTGTCTGACTCTGTTGGAAGGAGCTGGCACTTTGAATTATCAAGTGTCTCTATGAATAGGAGAGGACAGGGGCTCTCACACTTGGCATTTGTAGTGGCAAATCATGTCTTGGCAAGCTGTCAGGATTCTCAGCACTGACAAAGTGCTGGGGAAAGAAGACCAGCCAGCTATCATTTATTTATGCTTTCAAAGGGCTCTGGAAGCACAGGTAATGATGGGGGTGAAGGACAAGCCCTGTCATGTATTAATAAATAGGAAGCTGTTCACTTGGAGGAGGGCTTTCCTTTTGGATG
0.6752069368874156 GCAGTAATCATCTTTACTTGCATTCTTCTACAGCTCACTCCATATCTTTCTTTCATTGGTAAACTGGGATCCAGCTGACAATGGATTCTGGGAAATATGAGTTCTAGGATTCTAGTTTCTGTGACACAGAGAAGGTCAATCAACAGAATAATGAATGCTGCTTGGCAAAACAAAACAGAGCAATATTCTGGACAGTTCTTCAATATCTAAGGCTTCATGGTGGATGCTGCGATGTGGCATTCAGACCCTCCTGGAGAAATGAAGGATTTATTCTCCCAGCAGCTTGGAGTGCTGATTGCAGAGCACTCTATGCTATCAGCTGTCTTTGGGAACAGCTGCAGCTGAAGAGCATCGCCTGGCCTAGGAGAACACCCCTTTTCCAGGGCAGCCTGTAACCACTGATGGATAAACGTGAGGGCTTAGTGGCTTGGCCTCCTCATGCCAACTTCTCACTCATTCCTTCCCTATAAGGTCAACTGAGGCTT
0.8011195314098203 CCTTCCTCCTAGAAAGTTCCCTGCCGCCCACCACACTCCGTGACTTCCCCACTTACTCACTGATGCTTGAAATCCCCCTCTGAGGACCTCATTCCTTCAACAAACAACTCAAGGTGCTGATCGCTGTGAAAAATGAGACACCCCTAGAGAGAGAGGGAGCACTTTAAACTGTCACCGCGTTCACTCTTTACTGAGATTGCATTTTAAATTGTTATGAGAGCAGGTCCTAGTGGGAAGAGAGTTAAAGAAAGATTTCCTAGAAGAGCTGGTGC
0.532947174292844 TTTAGGAACTAAATATGTATAATTTGCCTTGGATTTATTACAGCATCAAAGTGCAACTGGAAATATACGGAGTTTGAAATTAGAATTGTCAACTGTTCACATGGAGATCAATAGCCTTGGAAAGGGTGACTGTGGGCCCTGCCAGGCAAGCTCAGTGACAGCCTCACAGCCAGTCAAGAATGTCAGCAAGACAGGCTGTGGGCAGAGTGATGAAATGCAGCCCCACGTATGAGGGTGTTAGGTGATCACATTTTAAATTTAATGGTGTAGGCTTCTGCCAAGGGGGTACTAGAGGTTACTCCAGTGCACAATAAAATAAAGGGAATATCTTTTGAGTCTTCAGTTTTTAGCCACTTTCAACTCATTGGGTTTTCTCAGCCTTAAACTAAGGTCATTAGCTTTCACAAGTTCTCCCTACAAACAAAACAAATGCTGGGTGTCACCACCGCATTCTTTCCATGGGGGATGTTAGACACCACTGACCCGGATGATTACGCAGACAGCACACCCAAATAGAGACATCTAGATTGGGAAGAGCCCTCAAAAGCTGGCTGACAACCAGGATCCCTGCTCACGGGCCTATTTTA
0.9946567748447248 CATTCAGTGTGGCTTAGAATACACTTTTCCAAATGGTTACAAACATTTAATATTGAAGTTTATATTTCTAATATAGATTGAACATCTTGGGTTAGACCTGGTTGTGTGCTATTTCAGTTCCCAGTCTTAAATGCAAATTGTAATAGATTGGGTAAAACTAAGCTTTATTGTACTCTAGATAATTACTAAAGAGATTGAAGCAAATGAATGGAAGAAGAAATACGAAGAGACCCGGCAAGAAGTTTTGGAGATGAGGTTAGACTGGAGGTTTTGGGGAGGGGCTGGATACTTTTATGCACTGTTAGATTTGATACAGATGAAGTGATGACAGTGTTTGCTTGCCACAGAACCAAGTGTTGAGAGCTTGAGGGCTTTGCTGTTTGCACCTTGCTTTGTGATTGAGAATGTTATTTCAGGAGTTATTGCTAACCAGTTATTATATTCAAATACTGTAGTTTATCTTGGGTTGTTCAGAACATATAACATGTAAACAGAACCCACATAATTCTTATCTTCTTAGAACTGACAGAAATTTGTATCAAAATATCCATTTGGAATACAGAAAAATAAGATTTATCCAATGATAGAGACACTGAAATTCAT
1 TCATTTGCTTCACTATAGAAACCCATATGTCTATATGTATCCCACAACATCAAGTTGTAAACCTCAAATATACACAATATTTACTTTAAAAACAAAACATTGTTAGCAAATTAAAAAAAAAAAAAGAAAATACAATCCATAAATCTGGGCCCAGGCTCCATCCATCAGACACCAAAGGCCACACCTGCCATCATCAATCATGGGGCTAATCCTGCTGTCAGCACCAGGAAGTGAGGACAGGGATGCAGGCCCAGCAACTCAGGGACACAAGCTTTGGCAGCTTGCCTTTGGATACTCAAATAGAGTGTCTAAGAAACAAAGAGGGCTGGGCGTGGTGGCTCACGCCTGTAATCACAGCACTTTAGGAGTCCGAGGCCGGAGGATTAGTTGAGCCCGGGAGTTTGAGACCAGCCTGCGCAACATAGGGA
0.6209434833222183 TTCATTCCCTCCACCTTCTCTGTAGCACCTCCCACTTCTCCTCTTTTTATAGCAGTCCTTTCTCTCTGAAAATCTCAGGTTACTTGACTGGGAGTTCTCAGACCTCCAGTTTCAGCCCTGCCCTCAGCCTCCAATCCGTAAGAGACACCCAGCCCCAGCAATTGGATTGGGCAGCCCGTCTTGACACACCACTGTGCTGAGTGCTTGAGGACGTGTTTCAACAGATGGTTGGGGTTAGTGTGTGTCATCACATTCGAGTGGGGATTAAGAGAAGGAAGGCTGCCTTGCTGGAGCTGTGTGGTCTTCTCCAAGTGAGAGTCGCAGGCAATAGAACTACTTTGCTTTTGGAGGAAAAGGAGGAATTCATTTTCAGCAGACACAAGAAAAGCAGTTTTTTTTTCAGGTAAAGTAAAAGACATTGAATGCTTCTCTCCCCCTCTCTCTTTTAGCATAGTTTTGAATGGAATGCTAGCACGGCACACTTGTCAAAGCCAGTTGTTGCTGTCCTATCAATGCTGCTATTGTACGGCTGACAGATGA
0.4836861139224092 TTGTACTTTCTCTTTATTTTCTATTCACATTTGCTTCCTTTACTATAGCTTTGTTTCAGTGTCACATAGCACTGGAGTTCATGGTAAAGTCAGCAATTCACCATGGGCCTCCCTGCAGCAAATTCTATTAGTAGCATCCATTGCTTTATCTCAATTCAGTGTTGAAAGGTCATTAGAATACCAACTGAGGAGACAACACTCTTGAAACACCTTTGCTAGTGTTGAAATCAGAAAACTCACCACTCACAAATCAGTCCCTTCATGACCAACCCACTGGATACCCAATAGCTAAAGTGCAGCCTTAATACACAGCAGGATGTATGTCTTATTCTTCTACCAGATGAGAAGAGAATGCACAGAGACAAATACCATCCATACTGATCCACATTCATTCCATAAACTGTTGGCAGATATTTTTTTTAACATATATTTGACCTCAGACACCATTCAAATGACTTTCCACATACTCAAGTGGAGAATATATATTTTAAATATCAGTCCACTTACGAATGTTAGCCTTCTCCTACCTTACAATCAGTGTTGTAAAAGTCAACACAACTTAA
1 AACCAACCTCAGCAACAAGGGAATAAATAGCTTCCCACTTATGTTGCAGCTGAGGGAAGAGGTACAGCAGCAAATACAAGTCTCCCTAAATAAAGGCAAATATTTCTGTCATGCCAAGGAGGGAGGGAAAAAGGGAGGCTTGCCAGAGTCGGCTGGGAGATAACAGTGGGAACTGCTGGTCCATCTGGTTTTCATTCTGCTAACACTCACACGGAACTGTTAGAGAAGGCAGTCCAGATACACAGATTTGAAGCACGTGGTTGCACAGACAGAGAAAGGAAGAGCAGGAGGGGGAGGGGAAGTGGGAGTAACAAAAAAATAAATAAAGCAATAGGAGGAAAAAGAAGAGGAGGAAAAAGAACAAAATAGAGAGACAAGAGCCTGATGGGGGAGTAAGTTACCCTCAACAGCTTCCTTTACCCTCAGTGTCTACAAGCTGGACCTTAATGTGCACAGCCCCCTACCTGACTCAA
0.964904004068679 ATATTACCTTACTCAGAGAGGTGAAAATGAAAGAAAAGGAAGCACATATTTTTCCTATTCTAGGGATCCTACAGCCACAATTCTGTCTGAAGTGATTCCACTGACAACCCTTAATGGTCTACTGATCCGTGCCCTTCTTGATCTCCATTTAGAGGCTGAACCTGCTGACGTGTGAGGTGAGGAAGTGGCAGGTCAGAGAGTGCCATACGAAACTAAGCATGGAACTATTTTTCTATACGTGAATGACATTTCATTATTTTCTCTATGACCTAGAAAGTTGTTCTCTCAATGTATTTTTTAAAAGAGTCTCAGATACAAAGAACTGGATTAATCATAATTCTTGGTTTTTGACATTCTGTCATCATTGGCCCAT
1 AGAAAATGTAAGGAGAGAGAGGCTCACGCCAATAGGAAGACCGACTGGCTGAGACAAGCCTCCCTGTTCTTCAAAGGGAATTCTTGCATTTCATCTGAGAGCAGCACACAGCTGTACACTGAATGGGAAGGAAGTAGTTATGTGCTCCTCTCATGTCATCAGGAAAAGGTGCCTGTAAGTTGTAACAGGACCATGTGGGTCTTACATTCTTCTTTTTGATACAGCTAATATCCTCATGTCCCAGTGAAAGGACAGCAGCCTCTGTAAAATATCTAACTCCTAAAAATATAGATGTTTACATTTCTATAATGGAAAATGTCCTGGTGTTTCCTTGCCAAGGTTTCAGCAATAAGTCTTATAATAAGTTTGTGTTGCTCTCCTTTCTTTTTATAAAATACAAAATACATTACAGAATAAAGATTCAAAGGCATTTGCAGAGTATATACAGTAAGACATGAAGAATGGGAAGCAG
0.4393359383193788 TAGTCCTGATTACTCCACTCCTCAGAGACCCATGAATCTTCTTAACAAAGAAGAGTCTTCCAGGCCTCATACATTAGCCAGGCATTTTCTCCCAGGCCTTCCAAGCTTCCAGCTCCCTGCAGGGCCTCAGCTGACACTCTTCACAGGCACCTACTTTGCAAGGCCCTTGGTCTCCCGACAAGACAAGCAACACAAGCCAGATAACCACTCAAAGGGAGGCAGTGGAGATGGCTCTCATTCCCTGCCAGGAGGATCGCCATAACAAGGTGGCTGGAAGAACCTTCCGTGGCATGGGAACAGACAGCTGTAGACCCTGTATCTAAGTCTCTTCT
0.7978429737550007 CATCTAATTCCTCCTGCCCTGCCCCCACCCGTCACCATTGCCACAACATATCTACCCAGGAGAATGCCTTCTCGGGGGGTGTCATGTTGTGATTTTAAAACACAAAGGAGCAATTCCTGCTCCCACCCCCTCAAAAAAGATCTACCCTTGATGAACTGAGGCAGAATCTGTTAACAGCCCTGTCAGAAGACCCCACAAAGCTAAAAGCATCCTTTTTGGTTTTGATGTCTTGTCAAGATGCTTCCTTTGAAAGCTCCCAGACAGCCCTGTTATTTCTCCTGACAGCCCTAGTGAAAAGCTCTGCGATGAGACGTGGCATCCCTGTCAAAGCCCGGAGGTGTGATTCCCTGAGAGCGAGCAGCTCTTGAGCATTCCCTGGGCTCAGAGCACTGCTGCCCTCTGGGTAGACCCCTGGGATCCCGGCTCTGCAGCTCCCTCTGGCCTCTGAACCCCCG
0.09448817641968352 TTGTTATTATTATAATTATTAATTATTATTCTTTATTTTGTATAATTCAAGGCTAGAAATTGGATGCAACTGTCCATTCTTTTGGGAAGGCTGTTTCAGACATCCTCAGTGATGAGTGTCACTTATCATTAGCACTTGTGACAACAGGTGTACAGAGTTGTCCGTGCTAGCAGCCTGCTGTTGACAGAACAATTTGTTCTCAGTGCTGTGTGCTGTTTATTCAGAGGAGGCCCCAGGACAGGCTTGTCATGTCATGATCAGTTGCTGCTGAGAAACAGGCAAATCATTTCTGATAGCTGATGTTCAGTAGGGATGGGGAACTTAGATCC
0.5758637021231842 AAATGGCAAAATCCAAATCATCGACACTTTTTCTAAATTGAAGTCCCACAAAGCATTTACTATTGCATTGCTTTTCAAACAAACCGTTATCTAACAACCCACTGTTAATGGGGTAGACTGTGGAGGGTCTGATTCTGCCCTATCAGCACATCCGCAGGAAACACCTGCAGAAATCATCACCAGGGAGATGCCGGGGGCAGGGGTGATGGTCGAGTGTGTGTGGACATGTCTGTATTCTGAGTGTGGCAGTGGCTTTCCAGAGGGACACTTCTGCCACAACTCATCCAATGGTCACTGTCAACGAGTACAGTTTATCACGTGTAGATAATGTGTCTGTAAAGTTCACTTCTCACAAAGTGCTCCTGTGTGACTCCAGAGCCCAGGAGAATGGGAAGCTCTTCTGGCTCTTGGCCAAGGGTTT
0.4222749872066967 CCAGGAAGACTTCCAAGATGCCCCTAGTCAGACTTACTTTCTTTCTCCCTCGCTTTGTCTTCTGCCACACCTCTGTACATCACAGTACTTCCCTACTGTCCTGTCTCCTTGTCTGGACTGTGAGCTCAGAGGCTGACATGTCTTTGTCTCCTCACCCAGCTGACAGCCCAGGGCACGATAAGAGCTCAGTGGTGAAAGCCATGCTGCTGACTTGTCTATAAGCTCCGCCCTGAAAGCCTGTGCTTAAAACGTGGCAGGGTGATCTCCAAGCTGCCTGAGGCCATAAGCAGAGTGTGGATTTTCCAAAAGAAATGGCAAAAATAAAATTAAAA
0.8641692735678035 CCTGCTGAAAGTCCAGCTCTTGTTGATTGATGGTGTTCTCAAGGCACTGATTCCTGCACTTCTGCCTGCCTAGAGAGAGGGCAAGCATGGCCTGTGGCCAGAGAATACTTTCAGGCAGAGTAATACAGGAAGAGGGGTCAGGATGGGGGGGCATTCAGAGAGACTGATGCAATACAAGCAGGCTGTCAACAGCATCTGGTGCAACTGTTATTTTTGTTCTTTTATAAATTAAGAAAATGCCTAATGGCACATGAGCAGCTAGTGGAGGAGCCCAGTTTTGAAGCCAGGCAGTCTGGCCCCAGAGTCTACACTGTATCTTGAAATGAAGATGTAGTCAAAATTTCATTAGGATCTCT
0.5369502677440836 ATAGTAAACACTCCATAGATAGTTCTTACTGTTCGGTGTCTTGCAGGGACTGATTGGGCCTGGCCACCTTATACAGCATTTACAATGGCACAGCACGCACACTTGTGTGAGATTCTTCTAACAGAGGCAGACTCCTGGAACAGAAGTCGGAGTTTGCATTGATCCAGGAATGCCTGTTGCAGGTTATGTCTGGCAGGGCTGGGGATTGTGGAAGGTGGGTATGTTAGCTGGCCTTGTGGAGCCAGGAGGGCCTGTCAGCGGCTGGAAGTGGAGGTTGAAAAGCTGCTCACAGGAACGAGAGCTAGAAGGCTGGGAGGGAGAGTCCCAGGTCTGTGTTTTCAGAGCTGAGCTGTTCCCGATGAAGCTGCAACTAGGTGTGATTGCCTAGGGGTGGTGATACTGCTGCCTGGCTGCCCCCTGAAATCCCTGG
0.7875402845748716 GGGCTCCTCCTCTGTGCTCCCCCCGTTAGGGTGCTTACAAGACAGATTGTTGTGGCCTTTGACTTCTTTTACTCACTCATTCATTCAACTGCCTCTGTGCCAGGGCCGCTAACTGGGCCGTTCTATGATTTCCTTCCCTGCCTAAAGTATGGCTGGGTTTGATATACAAAGCTCTGTGTCAGCAGCCAAGTCCCTGTCATGCACTCTTCTGGAGCCCGTCGGGAGACACCTTGCCCCGAGCAGCTCAGGGCTGCATCATCAGACTGTGTAGCATTAAGGTCCCCTGGCGGGCGAGGCTGGGGCTGGCGTGGCAGAGAGGTCATCCGTCTCCCCTCTGCAACTCCCACACCCCTGCCCTATCTTGCACCCTCCTCCCACCCAAGCCCCTCCCTGGTGGGAAGGCAGAGGGCACCGAAATGG
0.7483442700756733 TGGAATGGAATTGAATGGAAAGTAATGCAATGGAATAGAATGGAACGAAATTTCACGGAATGGAATCAAACTGAATGGAATCAAATCAATGGAATCAAATCAAATGGAATGGAAAGGAATTGAATGGAGTAGATTGGATTGGATGGGATTGGAATGAAATGTACTGGAAAGGACTCGAATTTCATGAAACGGAATGGAATGAATTGGAACGGAATGGACTCGAATGGAATGGAATGTCATGGGATGGCATCAAATGGAATGACATCAAA
1 AAATAAATAAATAAATAAATAAATAAAAGCAACAGCGGCTTCCCTTTGGTCCAGATGGTGCCCTCTTGTGTAAATAGTGTTGTTAAATGAATGCCCATCAGCTGGAGGACACTCGATGACACACTGGAATGTGGAAAGAGCAGGGCAGATGAAAGAATCACCAAACACCTTCTGAATGAGCACTCACATCAGTCAACAGGAAGCCTCCACTGTACTGTGATCAGTTTTCGCTTTCAAGTGATTGACTATTATGTTAATAGATTATGAAATGGAAGTGATCAAAAAAAATGGAGGCATCAGCCTTGTATTTGAAGTAAGTTTTGTAAGTAAATCTTATAAAGGAAAATGACAGAATCAGAGTTCTGGAGTAACGGATGCTCCAAAATGTGATTGTTGGCCTGTAAAT
0.4491609821133437 CACATGTGATAGTTTCTTCCCTGCCTCTGTGTGACCACAAGCAGCTTAGAAATGCTTCGCCTTGGTTTATACATGTGAAAAATGAGAATGGGAATGGCTTCCCCCTCTGTGAGATTTCCAGTGCATTGCTAACTTCAGTCTGTGGGACAGATTGTATTTTTCTAAACATAGCCACAATGTCATCACCCATCCCACACCTTCTCCTAGGCACCTCCTTATCAAGAGGTAAAGTTGAATGCCTGTCTCTTGAGTCTGAGTGGGTTTGTGTCTCACTTGTACCCAATAGAATGCAGCAGAAATAATACTGCATTACTTCTGAGGATAATTTGGAAAGAAAAAGATAGTGCAATTTCCACCTTGCTGTCTGGTACATTCTTGCTGGAGTGCTGAGCTGCCATGCAAGCAGTTAGACTGTTCTGAGGCTACCATGCTATGAGGAAACCCAA
0.3352877468470387 CTTTATTGTTTCTTCCATGCTGTAATGCTGGGTGGGGCCTGAGTTGGGCCTATAGCCCAAGGAAAATCCAGCCTGCTCGCCTGCTCATCTCCTTCAACTCCCATATCTAAGACAGGTCTTTGTGTTCTCTCAGCAGCCCGTGGTGACATGAGTGAGTGCCTCTGTACACGCTGCACTGTCTCTCTGGTTATCATCTGACAGTCAGCCTTCCCATCGCTCTTCCTGTCTTTACAGTTCTAGTGAACGGAAACTTGTTAACCTTGACAGTGCCTCTCTTGCAGCATTAGCCATCCTGAGAGCGTCCTTCAGTTTCTGTG
0.8676893277714611 AACACTGGGGCACAAAGAAGTGAGAGGTAACTCGCCCAAAGTTATATAGCTAGTCAGGGACTTCCTCTTCGGAGACAAAGGAAATCAGAATAGTGATTCTTCTGATTCACCGTCCCTCGACAAACAGTCCACAAAGTGCTTGGAGGTTATTAAAAGGCACCCCAGAAAAGTAAGGCTGGCATTTTCCTGGAAGCCCCTGAGTGTACAACCCCTGAGGCTCAGTATTTGGCTATAAAAACAGGTCTGGAGTTGCTTTGGCCTCCGTTTTAATCCCTAAAGCTGCCTGGAGGCTGGAGCTCTGATAGCTACCTGTCATCACTCCCCAGCCAGTCCGCGGACACCGCAGCCAGGAACTGTCAGAGGTGACAAGGGAATCCCGTCATAATGCCAAGGACCAAGGAGCAGTGGCCAGGTTCCTGGGATTAAGCAAGGCAATTATGGCTGAGTTAAAGCTAGGATGGGTAGGACAGGGGGATCTGAGGTGGAAAAGGCCGGTAAGAAGAGGGAA
0.1805806686139156 GGGAGCTTCCAGAGCCAGGCCTGTGACTCCCTCTTTGGGCCCCTGTGGTTGCTGGCATTTCTAAGCTTCTGGGTGCTATCACACTCCCTGGTGACAGCTGGGGAAGCAGCTTGTGGTGTGCCTGGTCCAGCTGCAGCCTCACAGAGAGCTAACACCCATGCTGGCACCTGGAGGTGTCTACCCTGTGGCAGGAGCCAGCATGTCTGACTGTGGAGTGGCCTGATCCAACACTCACTCACACACCCTTTGTCACTCCACACCTGACTTCAGTTTCCCTTCGAGGTGTGGGATCCGGGCCAGTAGCATGAGCTCAGTGCAACCTGCCAGGCCGAGTGGGCAGAATGAGCCCAGCAGGCCCAAGGAAAACTCAGGCAAAGG
0.2249717005054879 GTTAAAAGGATTTGTAGCTAGACCATCTGGGTCAAAACACTGACAGCTCAGCAAGATGATTTAGCCTCTGTAAGCTTCTGTCTGCGTGTATGTCTGGTGAAACCTGTACTGGTCACTTCTCCAAATGGTTGTGAAGGTGAAATGATATAACATACTTGCTGTGCTTAACATGGTGTTAAGTGTTCAGTAAGTGTTGACTCTCACCATTATCACTGGATTACTTTTCTATGGAGGCTGTTGAAGTGTCCTGGGAGTATTCAGAACGACATTTGTATTGCTATCAGTGATAACCGCATGCATTTTTTCAGCATATTCTATGTCACTTAAAATAAATGCAGAGTTGAAGTAAGAAACTGTGACTTTATTGT
1 GTAGAGTATGAGTTCTTCCTTTCCTAAAGATTATAATTATAAAAGGAAAAGGAAACAAAGTTACCATATTTCGCTGCACTAAGTTATCTATGTCCCTCTTTACTATGTGCAGGTGCTCTTTGATGTCAATGAAGTGCTGTGTTGTCTCATAGACGCCTCCAGCAGAGCCAGGGTGCTGCATTCCACTGACCAGTCTGACGGTTTCACTCATGGAATTTCTGAAACAGAAAGTCTCTTGATACAATAAAATCACTATAAAGTTTTTTTTTTTCAGTCACAGATCTCCAATACTTTTACTTTTCAAGTCTAATATATTACATC
0.1155841537899984 GAAGAGTGGTTTGGATAACAGCCGATTTGTCACCAAAACTGTGCAGGCCAGAAGGAAGCGACACGTTTGTCAAGTGCTGAAAGAAAAGAGCTGTCCATCCAGAATTTTATATCCAGAAAAATATCTTTCAGCAATGACACAGAAATAAAGAAAGAGCCTCAGATACAAACAAACAAAGGGGCTGTATTACCAGCAGTCTCACTCTGAAGGAATAGCTGCACAGTGTTCTTCAGACAGAGACGTGTTGATGGAACGGAGAGGTGATGATGGATGGAGGTGATGGTGGATGGAGGTGATGGTGGATGGAGGTGATGATAGAGTGACTCTTGGGCACCAGGGAAGGCTGAAGGCAGAAGGAGGGGTGCAGGCAGGTGTAAGTGTGAACAACTGTGTTTTCCTCTGGGGAGCTGAGAGTTCAGCCCTTTGTGTGTCTTTCCAGAGTCCATGACTTTCACCACGCCTCACTGCCTCTCCACATTGCTGTATTTTATTTG
0.9913913177124093 AGGCTGGGGGTAGCGGTGACCTCTAACAACCCAGGAAGCATGCCTCTCCCCTGCCCTGGGGGAGGGAGCAGCCCACAGTGTGACCCGAAATTTCCCCAAGTTAAAGACCATCTGCCTGTCTGTCTATCCATCCCCCCAGGGCCCAGGGGGCTGGTGAGTGTGGACAGACAGACACAGGCTGTGGGAAGCTGCAGTGATTAATGAGTGATGAAAACCAGACTTCGTCAGGATGGGGGTGGGGACATAGAAGCAGAGAGAGGTTGTCTGTTTTATGCTTGGCTCAGCTCTAAGCCCACAGCTCAGGGGAGGAGGGTGGAGGCAGCT
0.8885636266379382 TACAGAAACATTCATTTTTTGTTTGTTTACATTTGGCTCCATAGAAATGAATGGGTGTGTGGCTGCCACTACTTTGAGGAGTGAGCTGCGATTCTCCATTTATACCCTCAGTCCAGGAAGGTGCTAATCATGAGCACTTTGGTCAGGCTGACAGCTCAAGTGGAAGTTATATCTATGACTGCTGGGGGTGCGGACGAAGCGCTAAAGGCTGATTTGATTCCACTTATGCTCAGCTGTCATCTGGGGCCACAGCTTGAAGGAGAATGGGATGCTATTCTCTTCCCTCTGCTGTGTGACAAGCAACCTTTGTGTCTTTTTTTTTTTTTAACCTGCCTCTTTCTCCTTCACACCTATGATAAAGGCCTCTTTGCCTGCAAAGAAAG
0.7176125693031127 AAAGAGAGCGTTTATGTTTTTATGAAGGTAATATTTTCAGTGGCAAAATGAGCTTTATCAGACCTCAGGAACTTGTGACTTCCAGAAAACAAGAATGGTTCTGACCTGGGATCGTGAGAATGTCTTTATCCTAGACATGCCAATCCACACTTAGCCAGTGTGAAGGGAAGAGTCTGCACTTAGCCAGCATGAAGGGAAGAGTGGCAGAGAGGGGACTATCTGAGTCCTGTCACGGCCTGTCAGGAGAGTGACAGGTGAGGGTGGGCAGGAGGTCTCCGAATGAACTGCTTTGCTGGTAGGCTGTGTTTCTGTGTTTAGCTGAGGAGAGGGCGGGAGAGAGACCCAGGCTGGGAGGTGGGGGTGCCTG
0.3401715156477861 TTTGCTCCGCTCGTGGGCACCGACTCTTCGTTTCCCGTCAAGGGTACTGAGCTCTCAGCCCACCTCTTACTGCTTATAGTCCCTGTCTCTTCGCTTTCCTCATCTGTCCTGTCCTGTGTTATTTTTCTCCATAAGTAGGTGACTGAGACGTTCTCCAGTGTTGATGAAAGCTGGCTCATCACCTGCATTCCCACACCTCATGAATCTGGCTCTTCACAGTTGCCTTGGTAGTCAGCTTGTGTCTACAGGATGCCTTTTTTTTCTGTCGCCAAGATTGAATTTGATCAGGTACACAGGGGTCTCACATGCAGAACTCCTAACAGGCTGTGCCAGGCGGAAGCGGGGAATCTCAGCCTCC
0.8636347613410363 GCTCTCTAGTCCCCTCCCTTGAACTCTGAACTTCCACGGGTGAGGGGGGTGATAGAATAATGGCTTTATTTTCCCAGTCTGAAAAAAATAATATAGAAGAAATAACAGCTGGGCCTTCCTCTGCATGGAGTTTCCGCTCCCACGAGCATGTCCGTGTTTAGCATCGGCAGCCACCTGGCCATGCTGGACTCGGTGTGGCTGTGTCTGCAGTCGCATAGACATTTATGGTATTTCCAGTGGCCTGTCAACAGTGCCTGGTGTTCTCTAACAAGTGCTGTGGACTCCAAGGGCCTGACCACCTGCAGGGCTTGAGAACCACAGTTCAAGCAAGGTGAGACAGGGTCGGCAAGGCTGGCCTTGGCGTCTCCACAGGTCAGTTGGTCCTCAGCCAGGCATGCCACCCTGTGGGCTTTGGGGCTGCTTTCCCTCTGGAGTCTAACTCA
0.5225863212610153 CGAGATGGCCACTGGGAAGCACTCAGTGTGGAATGAAATCCTGATGAAGGTTCCATGCCTGTCAGATTCCTTTCCTTCCTTCCTCTTGCTGTCTTCTCTAGACTCATACCTGTCTTTGCCTGTTTTAACTCAGAGTTTGCTTGTTGCCTCACATTGGGTGTGAGAAGCATGTAACATTTCATCCACACTTCAAGGCAGCTGTTGTCACTCTACTCTCTCCTTCTGTTCGCAGGTCAAATGCATTCTTTCCCCAGTCCTTCCGTCCCCCCAGGCCGTGCCACAGATATCCCCCACATGGATTCTTTTCCTCTTTAGGTGTAAGTTCCTGGTAAAAGCAGAGATGAAGTGTTTGGCTAAGCAAAATGCTGAGAGTAGCTGGCACAGTCTTTCCTTA
1 AAAAATTAATTATCAATCATGATGAATATGAAAGACACAGATAAGGTCCTAAGACAGGAATAAGAAAGGAGGAATAAAGGAACATCTGCTTCCATTTGGGTGGGAGGGGCCCTCTCTGAGGGGCTGACGTTTAAGTAGGGACATGAAGATAAAAGGTGTGGGAGATGAATTCAAGCCCACGGTTTGTCAAGTACAAGGGCCCTTTGTCAGCAAGGTAGGTGCCGTGTTCAGGGAATTGTAAGCAGACCAGTTGGCAGGAGAGTGAGTGGAAGAGTGAACAAAATAAGGCTGAAGACCAAAGCAAGGGGGACTGTATGTGAGAAGTTAGTGATTTGCA
1 TTCTTACTGTCTCCCTGCCAGGAGATTAACTCCTGAACCTTTGCAAGGGTGGCCTTTCATTGGAATGAGCCCGGTACACACACCCTGCCTACATTCTCCTCCTCTGGTGTTGAGTTGTTTTTCTCCATTGCACAAACCTGTCTGTCCTTTCTCCTCAGGGTCCTTTGCAAAACACATTGCCACATTGCCTCTTAAAAAAAAAAAAAAAAATCAGACCCAATAGGATGGAAGTTTGAATGCCTGGCTTTTGTCTGTGAATACCTAAAGGTGTTCGCTTGGTGATGTCTGGAGGTTGTTCAGGCTGTCATCAATTACAGTGCATGCCAGGCTCCTGTGGGGCTTTGGCAGGAGAGGAAGCTTATTTTAGATGCTTGCAGAGCACTCATAAAACCTCCTTCTTTGATCATCTTTAGGGATTG
0.7588598743284559 ATGTTATAAGAAATGCATTCAGTGAAACCTTTGAAATAGCTGTGTGCTCTCTATGCCAAGTCATGGATTTAAAAAAAAAAAAGGTCTGCACAATGTTAGGATCAGAATACAATGGTATGACACTTAAGAGTACTTCCAGGTTGCTTGCTTCCTGATATTACAAAAGCACGCTCAGTCATCTCTGTCCTCTATCACCAAGCACTCAGTCCTGTGATGAAAGGATGCTGGCATTCTATTTACATCAGCTAAATTTACAAAGAAACTGACTTTCTGTTGATGGCCTGTTGAGAGGAACAAATTAAAATAACTCTAAATCATGTCTGTAATTTTCTGAAGAGATACGCTTATCACACCCCACTTAGAACACCAGGTCAGATGTTATCTCGGTCTCTCCTGATATAGATTTTCTACTCCTTTGAACTTACAAGATACAGTTCTGCCTATTCATTAGGAAGGTACATAAGAAATTGGCTTACAAACTACAGTGAATCA
0.3460384144565563 TGTTCCTATGCCTGGGGATTTCCATTCAAGGGAGATAATATGTTGATGATTTGCTGCACAGTGATGGCATTTAAAAAAAAAAAGAGTTGCCTGTTACTTGCCTGATTCAACAAATGGCTCTGTACCAAGCTCTGTGCAAGCTCAAGAACACTCCTGCTGCCCGAGAGCGCCCCTACACCTCAGGGAGACCAACAGGCAAACAGGTGTCAACTGCCTGCTGACAGGATGGGCAGCAGGCCAGTGGAGAGAAGGCACAACAGAAACAAGTGCTGGAGTGTAGAGAGCATAGAGTGTGGTGGGGAGTGTTGAGGAATCCCAGACAACAGAGGAGAAGCTACATGGGGTGGCTCGGGGGACACACACTGATGAAGGGTGGGGC
0.2945566201217183 CTTTCTGCCTGTCACTGATAATTAACGTAAAACCAGGATGAGTTTTGCAAACCAGAAGCAAGATTTCTTTGTGCGAGGAGTGACTGTCATCTCTAAAACTGGAGTTTGTGTCCTTGTGTGTATTTGCCTGCTCAGCTTAATAGCTTTAGGCATGCAGTCATCTTAGCATAACTTGATATAAGCCGATTCTGAGAGTGGGTGCTGACATATGGAAGTGTTTTTGACAGTCCACGTTGTGAAGGTCAGGAGGTTTGCTACAGGAAAGAAATCCAAGAAGGGCAGTGGCCCACTGGTGTTGGGTCCTCTGAGAGTGAGCTGTGTTCTACTCTTCCCACTCACGTCACAAAGTCGAGAGAAA
0.1414393070538123 GAGCTGTCACTGCCATGAGCTTGGGCTCCCAAAGAACTTGCCTTTGGCTGGATGTTCCTGGGACTCACCTGGAAGAAAATAATTAAAATCCTAAACTGTAAAGGGGGACCCATCACTTCACTTGGCTGTCAGACAACATGACACTGTCCAGATCCTGAATTAGGCCATGAGAGTGAGAGCTGATCCCCGTCTAATGAAAGTTGTTAAACTCCCTGTCACCTGTTTATCAGGTAGCAAGTGAACAAGACAAATGCCAGCATTCATCACAGCTCAGCTGCCAGCAGGAATGTCCTGGGCATGAGAGCTGGTGGCAAGCACAGGGTGCTTGGGTCCTTCCCTCAACATCAGAGAAAAGAAAACTGGGCAAAGAAGACATCTCTCT
0.6531806595784525 GTCCTGAGCTGCTTCCTGCTAAAAAGATACACAGCAGGCAGAACTTGGCTGAAGGTTTGTGTGTGAATTCTGTTTCAGAGGCCTCAGACTGTTGAACAGAGCACTCTGTTCAACTGCCAAGGTTCCCAACACAGACCCCTGAGAGGCAGGGTGGCTGGGCAGGGTGAACTGGATGAAGGCCAGGCTAGGAGATGGACTATTCCATGAGGGGGCTGGGTAGTGAGGTGTCCCAGATAGGAGCCAGGAGCTGCCATGGAAGCATGAGAGTATCGGGCATTGTACAGAGGCCTTTCACCCGAGCAAAAGTCAGGAGAAAAATTGATGTGTGACACAGGCACCCTCTTCTGCCTCAACACTGGATTGCAGGAAGGGAAGGGAGCTGTAA
0.5096437651269492 AGGTTGTTGGCTCTTTATGATTGCTGCCTCTGTGAGTTTCTGTGAAGAGTCTGTTAGCTAGCCTGTGGTCACAGTTACTTGTCAGAAGCGAATACAGAGCAGGGAAGAATGAGAACAAACAGGAACTCTCCTGCATCTCTTCTCATTGGTTAGAAATGGCATTTGTCTCTCGCCACCTCTAACCAATGACGACTTTCATTACATCTTGACAGTTGTCACTGGTTAGAGGTGGCGAGAGACAAATGAAGATGCTGCTTCAGTATTGCCTCCTAAGTCTCAGGTAACTTCAATTTTGTCTGTCTGGAAGCATATACAAAAGGGGATTTGGGGAAACATAGTTTCCAGCATAACCATGTTGCCTATAGAACAATCTAGTATGATGACCATACCTTGTCTGCAAAGTATGGGATTTGTTTCTCTAGTCGCTGTCAGACAGGTCAGATGACGACTCATCCTGGA
0.7091887711287559 ATGCATGTGTGGTTTTGAAAGAGTCATTTGTGAAATGAGTGAGGTTAATGTGGCCGCTGGAACCAACCTCAAGCACAGCAGATCCAATGGCACAGGCCATGGGGTTCCCTCCAAAGGTGTTGAAGTGCTGCAGGCATTTCGCCAAAGATTTGGCAATCTCTAGAGGGAGAAAATAGAAGGTGTGGAAAGAGGGACACATTCCTGTCCACAATCTCTCATCGCGCCATTTGGACTACAGTTACTTCGTGTTGTAAATGGCATCCAATCCAATTCATCCTTCATTCAACTGATAGTAGATGTTAGGGACTGAATTGTATCGCCTCAAAATTTATATGGCTGAAGCCTTAA
1 TAATAAAAGGCAGTAGCTTGGAGAAGTCATTTAATTAATCAGAGCTTTAGTTTCTTAACCTGTGTATTTAAAGAGTTTCCCTACATTTTCTGTAAGTTTCTTACAACATTAAAATTCTTTGTCTCTGTAACTAACAGAATAGGTATGCTGTAAGAAAAAAATATATACATTGAGGTAAACTTAAGTGTCTCTAGAGCATAACATTATCAAACTTTTTTTGTAGGTCCTGTGTAAGTGAGAATAAAAGCTCCACACAGTCCTTGACTTCATTCTAAATAGGTTGACACGGGTGTGAAATGACATTCTCCAGTCTTAGGGATGTGTGAAGGGCACTTAACATTTCTGACAAGCTGAGTCATTTGACATTATTCCCTGTGTAACTTATCCATTAAAATTTTATCTGTTGTGAACATAATTTTTAACAACTACATAAAATTTAAATACTCTGAAGAAA
0.7155877111121793 AGGGCCTTGATCTTGCTTTTGCCTAGATCGTCCTCTCTTTTCCCCTCCCCCAAGCCAGTGATACCTTCTCAAGAACGTGGCGATAGCCTGGAATCCTGCCAAACAGCTCTGGAGTAAGTGCCATCTGTGTTGTCAACTCAGAGAGAGTAAGTGCTGCTGATGGATCCAGGCAGAGCCCTCGGAGGGAAGCCAATGCAGAGCTTGAGAGTCTTTACTAACAGCCGACATGAGCCAAGCACTAACTACGCGCCAAGCTATATCACCACCAGG
0.9001703664045216 GGAACCTGGTTAACACTGTTCCTAGAAAAGTATTTGAGTGCAGCCTATATTCAGACCCTACTGGGACTGCCTCTAAACAGGAAGTTAACACACATCACATACGGTCAGGGAAGGCAAACCACAGTGTCATAAAGATGGATGCTGCTGTCAACTACAAATCACTCTCACCTCATGGAGAGTGTTCTCAAGTAAGGAATAATAGGCAGGACAAAAGTCTGTAAGCCTCACCTCTACTCAAACTGGGTCACTCAGCCTATAGATTCAGCCTTCTGATTCCTGCTGATTAGTACTTTTCTACCTTGTTCCATGATGACTATCACTGCCACTGGACTAAAAAAACTCTATTCCCCTAAAAAGTGAAGACAGCCTTACCATCAACTAGTTATTCATATAAGCTATCTGCTTATATGAATCCGATCCTTGACCCAGTCCATTCCCAAATGGCCAGGGACTAGATATCCGT
0.84438937134516 CACACAGAGCTTATGAATTTTATCTTCCTATTTGTGCTGCCTTCAATTACTTTTAAAACACATTTTATTTCTTTCCATAAGTTGTACACTCACATTTGTGACCTAGATGCCAGACTCTGTGGCTACTACAAAGAAGGTCAGGAACTTTAAGTGCTCCTGTCCGCTGTCAATATCACAGCTGCCCAACACCATGAAGTTAGTGACAGAAATGGAGGGCTGGAATCCAGCCACGGCAAACATGCACACATGAGAAAGTCCACCCTTCAATCAGGGAAAAAAATGGCCTCCAGTGACTTTCTGCCTTCAAAAACTTGTAGGACTATATTAAACTATGGAATTTAAA
0.5601410016173836 GAAAATCGGGGTGGATAACAGTGAAAAACCAGCAGCTGAGAAAGAAGTGATCACCGGAGGAGGAACATCAGTATATGCTTGGAGGTGAAGCAGACATTTCCTCTGGTGACCTCTAAACAACTTGTACAGGAGCCAATGAGATAAAGTTTGCTTTTCACACTTCCTACACTTGACAGCTTAAACATATCCCATGACAGTGTCAGCTGAGTGAGAACTTTCCTGTGCCCTCTTGCTAAGCTCCTAAATTGTGCTTCAACACTGAGGTATCAGAAACAGAAGAGAGCAAAATGGCAGTGCAGGGGAGCAAGTTCAAGGTGGGGAAGGACGGAGGATGCCCCCCACCCCAATATACACCACCCCTCCAGCAAG
1 CTATGAATTTTAATCTGCCTATCAATCTACATCCATCAAAAGATAGTATCAATTCCATCTGCAGATAAAGAATCTGAGGCTCAGAAGGGGCAATGTACTTGTCAGGACATATAGTTACAAATAGAAAATGTTTAAACTTCCAGTTCTATTTGAATGTAAAGCCTGCACTCTTTCCTCTTATGCTGTTGTCACTTGCCAAGGCCACTCATCAAGTGTAAGTGTTTTTAATATGTAGAGTATAATAACAGCATCCCTTTACCCTACAAAAAACAGGATCATATCATGCTTAGGGCTGCAGGCTCTGCAACTGCAATGCCTGGGATTAAGGCCAGGTTCTGAAGTTTACTAGCCAGGCCAACCTATGCAAATTAATCACTCAATAGCTCAGTCT
0.8268951772116306 CTGGAATAAACTCATACGCACCCTATCACTTGAGAGATGAATCTTGCATTACACCAAGAACTGCTTCATCTGTACAAACAGACTTTCTATAGAACTGTAACTGAACACTACAGGCAATGAGCCAACACTTTTAAATTTCATCAAGCTCTAGTGCCAGGTGACAACTGTTTGCTGTGACATGATTTATGCAACACATTTCATCTAGTTATCTCAGAATCAAAGGAATTTTACCAAAGGGTTCTCATTCAGATAAACAGGAAGAATTTCTACCCCAATCACATCTGTGAAAAGTGGAAGACACATGGTAAGTTTCAGGACAAGATCCTACTGATTAAATTCTGAGAATAA
0.4746294910293335 ATGAGATCCGTCCATGTCGTGTGTACTGGTCACTTGTTCTTTTTTATTGCTGTGTAGTAGTCCATTCAATGAACATACCGCAATTTATCATTCTCCTGTTGATGGACATTGGCTGTTCACCATTTGTGCTAGTACCTAGAAACATTCTAACGTTTGCCTTTCAGAAGTTCACTCCAATTACAAAAAAGTTTAAATCCCCTACAAACAGCCATGTGTTAACTTTTAACAGTACCCAGTTATTTGGGATAAAACTCATAACTGCTTGAAACCCAAAATGCTGGAGGCACCAGCCACTGCTGACAGCCGAGAGAGAGTGTTGAAAAGCTTTGAGCAGGAGAGTGATGCAGTGGTGTCGGATTTCACAAAAAGCATTCAGGCAGCAGCTGAACACCACCATTTCTGTGACTGAACTGATGCCCTTTCTGGGGGGCAGCCATGTGC
0.5835753022360749 ATACATGCTTCCAAATATTTGTGGGTAGTTTCTACAACAGGTTCTAAGCACAGGGTCTTAGAGAGGAAAAAGTATCCTTAGTATCTCTCCTCAGCTAATGTAGCCAAGTACATTCCACAACTCTCCCAATCAGTATGTTAAGCAGATGTGGTCTTTGTCCACCTAGTAAGTTGCGTTAGACCTTTCAACACACTGCAGTCTTTTTATCACTCAGCTGCCAAGTTCCCTAGGGTAATCATAGACAGCTTGTCAATTTAATTGCAAAGAAACAGGCTTTCTCGTGACCATTCCAATTTTAGCTGCTACTTCAAATTGTACATGATAGTTCTTCCATGCTGTCTGCCCTTTAAAGAGTGTGGACCTCTGCAAGCCTCTTAATGGTG
0.8826825125191587 ATTGTTCTGTGGAATGTATTATTAGGCAATTTCGTCACTGTGCAAACATCACAGAATACACTTGCACAAACCTAGATAGTAGAGCCTACCACAAAACTAGGCTAAATGGTACAGCTTATTGCTCCCAGGCTGAAAACCTGCACAGCATGTTACTGTACTGAATACTGTAGGTGATTGTAACACAATGGTAAGTAAATATTTGTATATCTAAACATTAAAAAGGCACAGTAACAGCACAGTATAGAAGGAAAAACATGCTATATCTGTATAGGGCACTTAGCATGAAGTGAGCTTTCAGCACTGGAAGTTGCTCTGGGTGAGTCAATGAGTGAGTGGTGAGTGAATGTGAAGGCCTAGGACATTACCGTACACTACTGTAGACTTTATAAACTCTGTACATTTAGGCAGCATTAAAGTTATAAAAATAAAAGGAATTGTGCTACCGCCCACTGTCTCATATGTGGTCCATCACTGACCAAAACTTTAATATGTGGCATGTGACTGTATTCTCTCCATCTCACTTCCC
0.6852579831985808 ACAAAGAGGCAGCACCACACCATGGGGCGCTCTGACCTCATCCACCCGGACTCACCGGCTCCTAACTGCAGTGGAGCCCTGTGCACAGGATTCTCTGAACAGGGCTGAGCATAGTTTCCCTGAAGGAACTCCTCCCCGCCACTTGGGCTGCATGACAGGAAGTGACAGGGGCCATCAGTTACAAGTGTCAGAGGCTGAGAGCCGCACCAGTCAAGAGCTCCCCACCTCTCCTGCTACTGCTGCTTTTGCAGAGCACTCTTTGGGCATTCAAAGGTACACCAGAAGTTCAGT
0.3736233747989972 ATTCCGGCTGCCAGTAAATTCTGCAGGTGCTTTTGTGGGTATTTAAGTGATAAATATTGAGGGTCTGGCACAATGCTTTGCCCACAAGTAGCTGCCGTGCTGTTATCAAATCAGCACTCACTGGGCTTTAGTTCTCTCACCTTTGCAGCATAACAAACGTCTGTCCTATTCTTTCAACAACTGATAGCTGAGGTGACAGGTATGTGCCAAGTGCTTTGTAAACACCTACATGAAGTTAACATGCGGAACCCAGGAAGATGATCCCAGAGTATAGTAATGGTACATCTACTACCAGATACTCAGACCGTCCCAGCTCTAGG
0.5698883477389017 GCTATTTTTAAACCAGAAGTTCTGAAGTGGATACTGAAGAAGGAGATTTCCTTTGTCCTCATTACATTATTATTGGTGACAGGTGGACATGGCAATACATTGGCCAGAGCCACCAGATACTCACATTCCTTCTCTGCGAGTGTCATGGAGAATGATAAAAACCGAGACAACTGAAATGCTCTAGCAACACGTTGTGGAGCTGACAAGGAATGAGAGGTAACATCGCTCACAAATCTAGACCAGCATCGCCTGTCTTAGAAGTGTCCTGGGAACAGTTTCTCATCACTGGTCCAGGATAATTCAACTGCTTTTTAGGAGAAAATTTAAGAGAGA
0.7534316536910786 CTATGATTGTGTGATTTAAACAACAATCCCTCAAGGTCAGCTGACTTCTTTGGCTCGACCCCATATCCACTAAATAGACTTTTCCTTATTTATACTCACTCTGAGCCAGCCTCTCCCATATGTGCCGAGAGATACAAGGTGAGAAATAAATGCTCCCTGTCATCACCCCAGTGGAGGAACAGGCATACCTACAAACAGCACAAGGCTAGCAAAGGGAATTCCTTTCAATATTTATATCTGCAGAGTTTCTGAGCTGAGCTTAAAGCCCCTGAAACATCTGAACTCTGAGCCAATGAGATTCAATAAAGGAATTTGATCAAAACAGAGGCTATGGGGTTAGGACTTTGTAATATGCTAGTATATTCTCGGGGCATTGATATATTGTCGTATACAAGTGATGACATCATGATAAGGTGCAGTGGGGCTATTGCACTGCACTGTCAT
0.6206029242174993 TTCATCAGAACAATAGGTGCTGTCAACCAGACAGAGATACTGTAAGGAGTAGCCTCAGACATGCTACAAGCCGAGGTCAGGAGACGCACCTCCTCCCCGTCGGAGTCTAGGGTAGGCATATCTACACCAAGCCTCTGCTTCCATCCAATTCACAGAAGCTGCATGAATGGTAAGAAGATCTCTTTAAGTTCTGCTTCAATATTTATCCCTTTCACTTGTACTGCTGTCACCACTACAAGCTGGAAGCAGAGAACTCCCAGGCCCAGAGAGGCCCATGGGGACACTGAGAGCTGCTGATTTTCTTTTCCCTTTGGCCATTTTATGAGGGAGACACCACGCACATTCTAACAGATTCATGCACAAGGGGTTATAGTATGCTCTATATTCTTGGCCTTGAAAATTTT
0.9517083457521793 TCCACGTGATTTATAATCCTAATTCAAAAAAAGCAAAGCTTATGTGAGTCCTTGGCAAAACGCACAAAATACAAACTAAAATGAACAACAAATGGCAACTCGATATTGAACTGGGAATTACATTTTGTGCTGTTTCATTAACTTTTCCAAGTATTTCTTTCTAAAATGCACTCCTGGCTACCCCCGACACACACACGAGATAAAGGAAGAGTGCACACAGATGGCTCCCGTCCAGGCCACTCAGCGGCTCAAAGTGAATGTGATTCCTGTGTTCTCTCCATGCAGATCGTCAATGATGAAGCATGCAGTAAATAACCCTCCCTCCCTGGAAGTGAAGACAGCCTGTGGGGGAGAACTGGCTCCATTAAAGGCTTCAAGCCACAGGAGTTGTTTTCTCCGGAGATGATGAACGTGGGCTGGAAAAAGAGACAAGAGTCACCTACTTCGTGCAGCTTTTTCC
0.6264664509176563 GCTTCTCTGCATTGTAAATGGGAGTTGTTGCAAGGGTGAAATAAGACGTAAGGTGTTTGGTGCAAGGTCTTGTGACAACTAGCACTAAGGAATGGTGCCTATGACCTTTATTAGGCAGGAAGGAGTCAACAGAGTGAGCTGCTGCTGCAGGGGGTTGGGAGCTCTTGCAACGGTGGCATCGAGAAGGTTGTCAACACAGCCCTGTCAACGGCTGAGGGTGGCAGAGTCCATATTGCAAAGGAGCACGGCATAAGTGGCGAGGCAAGAAGTAGATGGATGTTCTATTTTTTCCTTTCTCTATCTGGACAAAGGTCTTTTTCCTTCCAAGGTGTAGCTGGATTTTCTCTCTATAGAGCTTCCCTGGGGCGGTTCCATTTTCTAGTGTCTCCATGAGTCTTTGTTCTTTATATGAGGTCCCAATGATGCCATCCACTCATTTGCTTTCTCACAGGCATGTTTTCCACCAGCCACCCACGCTGATTAGCTTGAGAGTGACTCAAGGCAGGAACGATGCCCTTGTCGTAGAACAGCCTCTGATCGAGTGCTTGCTGAACA
0.9774286891854491 TCTGCCTCTCCCTTGCCATTGGCTTCTGTCCTATTTGTTCCCAGCTTGCAGGCGCTGGCCCATGTCTGTCTCCAAGTCTTACTCGTTCTTACTTTGAAACATTTCTCACAGCACTAGAGAAAACACAGTGTGGTTGGACAAGACCTTGGGAACATGGGAGCTGGGATCAGAATGTGTCTGTGTTTGGATGTCGGAGTTGGGCAACCTCTTGGCTCGGATATTTTTCTGTTCGTTTTGTTTAATAATCTTTAAAATAAGCATGACAACTAATAACATTTATTGGATATGTTTGTATGCTGGACACTGTCCTAAATCATTTCCATGCATTATTTAAGGATCATGAGACAGCTAGAGGTGTTTGTGAGCATTTCCAGAGAGCATGCCTGTGAAGCTCGCTGAACAATGCCCAGCTCTCAACATGACCCTGTTATATAAGAATAATTCTTTTTCTCTCCATTCCCACTTAGTTCAGGCCCTCAATCATCAACAAGCATCCTCCTTAAAGTTCTCCCTGACTCTCCACCTAATTAATCCTGTCATTTTATTTTTTTCTTTTCATTTATTTATTTTTATTTTCTTTGCCACTTCTGTATCTTCTTTGGAGATAATCCTGTCACTACTTTTAAAAACCTTAAGTGCAACTTAACATATTGCTTCCCTGTTCACGTCTTTCTCATTCGCTGTCACCTCAAACCCAAACTCCTTGGCTTGCTTTTAACACTGT
1 TTTTTCTAGAGAGAAATGGGCCCCAATATTTGCCTTATAATACTTTGTACCTTGTCCTACATTTCCCCCTTAGAACAATGTACAGAACAGTCAACATGACAATCAGATCAAGTTTCACCTTCTGCACTTAGGTCTCTTACTTAGCTATCACTAGTCTGGAGGTGTTGGGAACATAACTTAAACTCTTTGAACTATAGTGTTCTGTAATGTGGCATTAATAAATCTGAAGTCAAAAGATATAAAATATGTAAAAGCGCTTAGGAGAATATCTGGCACATAATGCATGGTAGT
0.9815845208771953 GTTTTCATTGAACTTTGTACTCTTTGAAGCAGATACTCAAGTGAAAGGAATATGTGTGTGATGGTGGGGGAGGGGGAGAGGAGGAGGAGGTTGGTTTAAATGAAACACATGTGAGCAGGAGGCTTGAGGTCTGCAGCTGACACAGCTATCACACCCCAGAGGTGAGTCTGACACTAACCAGGACTTTAAGATGACACATTGTGAGACTGGACATACCACGCAAACATGCATTCCATTTTCTTCATGTTATTTTCATTTCCCCCCGCCAAAATTAAGAAATAATAAAATAATTTCTAATTGCAAATAACTATTTTAGACAGAAGCTAGATACAGTAAGTTGGGATGTTACTATATGATCAAAGAGTCCTGGTTGCATCACTGGATTAACCTACC
0.441554244518688 CCCACCTGCGGCCCCTCCACGCAGCACAGAACCTCTCCTGATCTTTGCAGAAGGGGCCCCAACACCTGCCCCTCCCGCCTTACTCCCAGCGATAGCGTAGCAGTTGTCACACTGCTGGAACGCAGCAGCTCTCAGCTGGGGACAACAGTGTCCCCCTGATGCTGGGCAATGTCTGCGACACTTCTGGTTGTCACACAGGTTGCTGCTGGCAGTCGGTGGGCAGAGGCCAGGGCTGCTGCTCAGCATCCAACGCTACACAGGGCAGTGCCCCCCACAAAGAGGTACCCGGCCCTGAGTGTGCACAGCTCTGAGGTGAGAAACCCTCCTATACAATACACACCACACCTGCGAGAAAACCAAGCT
0.8861010243683226 AGCTACGTGGTGATGCTACTCTTCCTGACTCCCTCGAAGTTAGGAGTGTCCATGTGACTAATTCTGAATACTGGGTTGTGGCCAACCAGACATGTATCACTACTGGCTGGAGCTAGTATGAAACTCTCCAGCTCCCCTTCTCCTTATTGTGGTGACCACAGATATCTCAGATGGTTGAGGCCCTGTCAGCAGGTCCCTGGGTGTGGATGATAGGAGCAGGGCGCCCTGCCAAACTGGGGTGGGCCTGGAGCAAGAGTGAGGAATAACCTGTATTATGTGAAGCCGCTGAAGGGTGAGGGTTGTCAGCACTGCATAATCTAGCCTGTCCTAACTAATATACGTCCCTTGCTTGGAAAATGCAGAGTCCAGGTCATGAGTTTTAACAAAGATACAGAAACGAAATATGCTGGGTGGCACAGTGAAATTTATTTGTCTTTATGATTT
0.5410798489886821 GGCCTTGAACTCTGGGAACACACTTCCCATTCCCAGCTGGGCTGTGCTTTCCCCCTCCCCCTCTTCCAGGGGGGCTGGGCATGTGACTCAGGGAAAACATATTTGTGGACAGTGATTTTCCATTTCCTCTTTCTGGCATTTATCAGAGGCACCTCTCCATTCTGGACAAGGCCATTGATAGATGTCACCACTCAACACCTGCCCCCTGTCCAGTTCTGTGCCAGGCACTGTGAGAGCCACGGCTAAAGGTGGCTCACCTTCATTCCCCGCTAGGTGTGCCCTTGATGGGTCAGCCAGCATGCATTGCAGGAGAGCCTGCT
0.967591987769562 GTCTTATAAAACATTTAAAATCGAGTTTAAAAAAAGCCACATGCTTACCAGCTGCGACTCCAAAAGTAATGAAGAGATAATGCACGTTTGCAGCATAGGCACTCAACACCCAGCCCAGGGAGTTGACGAGCCCTCCAATGATCGCAGTCTGGCGGCACCCACAGGTGTTAATGAACAAGCCGATGAAAGGGCCTGTCACAGAGCATTGGAAAAGGAATTGACTAAAGGTGCTTCCGTTTTATTCTTTCTCATAAATCTTCATGTGAAGACAAAGAATAAAATGTCACTAGAGCTGTTAAATGACACAAAAAGCCCCCATTGCTTTATATGCCAAACATTTTTAGCATGCAAAGATGATTTTAAGTAATTTCATCAGAGAGCACAAGGTTCTGGATTTTCAGGAAAGGCAGACCTGAAATAAATAGACATTCATTC
0.2035556571792387 CGGGGTAGGAGGAAATGATTCCTTGTGCTCTAGCTGGTTGTAGTGGCTTATACTCTGGCCAGGAGGTCAGAAAACTGTCACAGAACCAACTCTACTCATTATTTGCTGTGTGCTTTGGCCAAGTCTCCTAACTCATTGGAGTCTGTATTTCTTTATCTCTGAAATGACAGCAACACTCAACACACGTTGACTGAGGACAGACTGTATGCTAGTCTGAACTATGTGTGAGTGAACACATAGTCATCACTTCCATGAGAGTGGAATAGTCGATATAAAACTCAGTACCACATGTGAGTGACTCCAAATATTACAGCATCCTCATTTGCTAAATGAACTCTTAAG
0.5334045722407774 CAGGCAGCACTAACTCATCATGCAATGCTTCCTATGGAACTTGGATGTGGCCCGCTTCCAGAGCCACTACCAGTGGGATGCTCACGCTTCTCATTGTAAGGGTCCCATGAGATAAGACCTATTTGCCAACACTACGTCCCTGCTGCAGATGACAGTGTCCTTGATGTTCCTGAGCTGACGGCAGAGGTGTGGATGCTGGGTGTTTACAGTTTGAATGGTGGAGCCTGAGAAGATAGACAAGTAAAGATAACATGTAGAAGTGGCTTTTGCCTATGATGTGACAGTACGCTAGTACAGTTCACGAAGCAACATTTCACAGCCTATTGGATGGTGCTGTGTCATTGGAT
0.4022641881347126 TGTAATAGCCTTATTTTGATATCATGTAGCAGTGGAAAGTTCTGTCCATGCAGGACTTAGCCAGATTCCAGAGAGTACTTTCTAGCATAGAGAACGTAGATTCACTCCCTGGCTTTGGGGATCAGCTTTCTAGTTAGTCTGTAAAGTGTCATCACACCTCATTCTTCAGATTGTCAGCAGGCTGGATTGTTTTCAGGTTTCTCTTTATCTGTATGTGTAGAGAACTTGCACCCAACTAGGAGGAGTGAGATGAAAAGCAAGCCTAAGACTGTCCAGGACGTTATGAGGCCAAAG
0.7946347140862504 CCAAGCCCTCGGGCTCTAGTGCAGGAAAGATGCTGGCAGAGAAAGGCAGGAGCTCCCCAAATCTTCATCTCCCTGCTTCCAACAGAGGGCAGTGGCTCCAGGGAAAGGCTCTCCAAACAATATCATGGTTCATTGTCATCAGCCTCTCAGGATCTCACAGGCACCTGGAGCTTCTGGCCCTGCATTCTCCAGACCTGGCCTGTGGCTCTGCCCCTGGGCCCATGGATGATGTCTCTGCCTGCGGGTGACTGAGGCTGGGGCTGGAGAGGACGCCATTCTGATCATGGAGAAGGCACCATTTCAGAGGGAGCAGGTGGCCCAGCCCTGATGGG
0.5529152073118843 CTAATCAATCCAAAAGCATTCCTGCCTGCTGCTGTCTGCATTCTACCATCTGATTCTTAAATGAATGCTTTTATCCTGAAGCCACTCAGTGCCAAAAAGAGCCTGACAGATCTCCAATCCTGTCAGAACTTCCCTGTGTCATTGAAGTTTCCCTGACTCCCACCAATAGAGCACTTAATAGAAATCTAACTCACAGGTTCTCTTAGTTCTGACTCCTCATAGCAGAAGAGTGAGCTGGACTCAGCAGAAGGCTTGGTGGTATTGAGAT
0.4556587678891594 AAACAGGTGAGGAAGGTGTAGGTGTGTGTGTATGTGTGTATCACTATTCTGACTTCCAGCTTTCCTGACAAGAAGACAGCTTGGTGTAAATGGGAGTAAAGAGGGTAAAAAATGAACGACTCAGTTCTGCAATTACCCATATGCAGATCAACTGTCAAACAAACTATTTCTGTATCTGTGACTGCCTTTCTTCTGCCCTCGCCAACACCTAGCACAGTACCCAAATCCTCTCCAACCCAGACAGTTGCTGACAGAAAGGCCTCTGGGACTGTCAACACCCCAGTGTGATTCAGAGCTCCCAGGGAGTCTGAGGCAGTCCCCTTGTTTATGGATTCACTGATTGATTGGGCCCTAAAAGCTCCTGGCCCAGAAGACTAAATGGGTTGTAATCAATCATTAACAATAGTGTTGATGTTAAAAATTGGGAGATGCACCGGGTCTTTGGCCATGTGGATAAGCTGGGTGATCA
0.7248343284655345 AACATTCCACACCAGTGGACAAAATTACTCTGGCCCCTGTTAGAACTGACAGCTGTGGGGATTCTGGGCCAAATGTCACTTTGCTTGTGGGCCAAGAGCTGGAAACTTGGAACAGAAAGAAGAAGCTGGTTTGTATCAGGCTGATGTTTAGAACACCCTTCACTCCTCCTGTCATCACAGGGACTTTTCTGGGTCTGAAGTGTACTCCCTGAATATACTGCATTCAGTCAGCCAGCAGCAAACTTGGACAATTAGCAATTTTTTCCTTGATTACTTTTCATTTTTTGTTTTTGCTAATTTGCCCCATTTTGCAA
