svm_type c_svc
kernel_type gkm_esttrunc
L 11
k 7
d 3
norc 0
nr_class 2
total_sv 1825
rho 0.0280868
label 1 -1
nr_sv 985 840
SV
0.2542219552718789 AAGCCAGGAGTCAATGCATTTCTGCACGATTTTGTCAGCAACAAACCACAGCCTCGCCCTGCCCCACCTCCGTCCGCATAGTGCCCATGGCCAGGCTGTCTGGGCGCAGCATTCCTGGGCCTGCTCTCTGGCTCCCAGTGAGGGTCCCCGCCCCACGGGAGATAAGATAGAGCTGGTGTCAGGGAGGAGGTGTGGACGGGGCCGCACCGGCACGCTGTGAGTGATAAAAGGGGCTTTGGAAAGGTGCTGACGTGGCACCGTGCTTAATGAGGTCATCGCCGAAGCTGCTGCCCCGATAACCTGGAGGTCAGGCTCCCAGCAAGTGGCCATGGCGGGAAGCAGGGCTGTCTGCACTGCCCGTCTCCACCCAGCACCCAGTCGGCGCAGCCACTGGGTGCCCATGGGGCTTGGCTCCGAGC
0.2019082112615486 CTGGGCCCATCTCCTCCTCCCTCTCCTCCCTGCCATCTCTCCTCTCCTCAAATGTCCCTGCAGTGTGAACCCCGGCCTTGAGGCTGGGAGCAGGGAGGCCAAGAGAGGAAGCTGTACTCCGCCTAGCTCCTGGCTGTCAGCACCCATGGCTGGCAGGATTGCCACAAACTCTGGCGCTCTAAAGGCTGATAAAGCCCCACAGCCTGCACGTCTGGAGCCTGGGCCTCCAGCCCTGATAAGCTGGACCTGTCAGCACCATGGCCACACCTGCTGTAGGCAGTGAGCGCCACCCGCCTCCCCTGGCCACTCCCACTCACGGCTTCCTGTTCCCTGTGCACAGCCAAGCCCTGGCCACCATGCCTAGGCCACCCCTCCCTGGATGAAGAACAAAGTGGAGTGGCCATGGGCAAGCAGATTTGCCCATTACATTTCATCTCTGCATCCCCCCAACCCCATCCCGCTCTTAAGCACCAGCGCTGGGGATCAGAAGACCTGGGAGATTCAGGATAGGGGTGCTGGAGCCCACCAGGCACACAGTTCCCTGAGGAAGTCACATGGGCCGATCACACGCAGAGCATGAAGTGCTGTCAGCAGCTCCAACACATTCCTGGGATTCTCCAGCCCACCCCATGTGGCCCTGAGGGGAGTGTGCA
0.6135017508602649 AGGCATCACAGCAGCTTTTGCACAGCATCTGCTCAGGCAGTCTGTGGCTCTTCTTTCCCCGAAAGATTGAGAATACATCTGGTGAGAAGCCGTTGCCAGTCCCAGCCCCTGCTTTGAGTCTGGTATTGGTCTTTAATCTCTCATTCTGTGTGTTGTAAAGAAACAGGTTGTGGAAGGCTCTTGTCAGATCCCAGGAACATGAAAGAAATAGCACACCCTACGGTAGTGACATGGCCCTGTCACCACCCCTCATTGAACCATAAAAGCTATTCAGAGGGGCCAGCAGCTGGGGAGCGACTGTACTTAGATCCTGGGTGCTGATGGGTGTTTTGTAGTTTCCAAGGGAAGTTGCTGAAAGTTTTCTTATCTTGACACTCCAAGGGCAAGAGGTCTTTCTTCAAAGAGAAGCGCTTGTTTCAGAAAAAGATGTGGAAAGGACGTAAAATCACAGGTTCTTCCCCAGTTCTGAAAAAGAAATAGGAAGGGGCAACGTGGCAGTCAGTGTGAAAAGAAACCACGCATTTGCAGGAAGCAAGAAGGGGTTCC
0.5831801116813369 AGTTTCCTGGTCTATCAAATGGGATTGATCACAGTCCCTGCCACGCAGAAAGGCGGTGTGGATTCCGCTCGCATGTCTGATAAAGCGCTTGCTTGGCTCAGCGCCTGCCCCTCGGACGACACCCGTCTACGGTAGCGACTGTCATCACTTCCAGCAGCAGCATGGCCAGGGGCTGCTGAGAGAAGTCTAGAGGTATAAAGAGGAGCCAGCCGGGCGTTCCTGGCATCTCGCGCACCGGCACCCAGCCACACTGAAAGGAATTTTGGTGGGAGGATCCCGAGGAGGAACAATCCGGCAGTAGGTGACTAGCGATTGACAGGGTTCCACGAACTAAGTCGGAAATTTCGCTCTTGGAAACTTGTCCTCCTGCTGGGCTGATCTTCCCAACAGGGGGCTGCTCGGCTCTCTGCAAACAAAATCTGCCAGAACCCTGACCCCCCACCTCTAGAGGAGGGAAGGCTGCCCCGCTTCCTGGAGAGACACCCCCACCCCAACCGTCCAC
0.903419832204599 CAGCTCCACAGGCAGTATACCAGTCCTTCACACACAAAACTGGCCTTGAGGGCAAAGTAATGCCAGATAGACCAGTTAACTAAAACCCTACCCCACAGATGCTGTTTTTTGTTTTGTTTTGTGGTAGTGAGGAGCCTCAAACTGGCGTGTGTATGGGGGGTGGGAAGGATGGATTTTGCTGATAAAACCAAAGCTGGGTCTTGGAAAGCTCTGACTAAGCATCTGGCTTGATAAAGCTGTCATCATGGTATTGTGTGAAGTGACTGACCTCAACAGCAGGAGTTCAGAGATCAGGATAATTTGGACAGATATTTCCCAGAATACCATATTACCATCATAATCAGAAAACCTAGAGGGCACTGGAGGATAGCGTGGCACATATAACTTTGAAGGAAACAGATTCCTTAAAGAAAAACTGCTGGTGTTATAATTTAACTGCTTACTCAAAACTA
1 CCCAACAAAGAATTATCTGGCCGAAAATGTAAATAGAGCCAAGGTTGAGAAGCCTTGGACATGGTTCTGTTGCAGCAACAACCCTCAAATCTCAGTGGCTTGCAACAACAGAGGTCTCACCGCCTGTCCATTGTGAGTCTGACAGGGATCTGCTTTATGTCATCCTCACTCAGGGGCCCAGGCTAAGGGAGGTGCCATTCCCATGCTTGTAAGATCTTCGAGGCAAGTAGAGAATATTAATATATTATTAACATTAATTATAATAATAAAAAATAATATTAATTACAATATTGATATAACTGTTAAGTTTTGTCTAGAAGTGACATCTATCATTGCCATCATATTGCATTGGCTGCACCTTAATTCATGGGGT
1 CCATCTCATCTGATCCTCCCAGCAGCCAGCAAGGACACGGGGCAAGGCACTGGAGGCAACAGAGGCTCAGCAGCAAGACAGGGTACGTGCAGAGAGCTGCGGGACAGACGTGGCCTCACCAGCAGGACCCGTGATTAAACAGCAGCTGTGGTTCACTAAGTGCTTTCTGCTTATTATGTGCCAAGTACTTCACATGTGGCTGCTTTGTGTCATTCTCACATCAAACCTGATGGGTGGTTACTATAATTATCTCCTTTTACAGATAAGGAAACTGAAGCCCAGAGGGGTGGAGTAACTAGTCCAGCAAAAGTAAGCCATGTAACTGGGATTCAAATTCAGCTTGAACATCTCAGCACTCATCTGTTTTCGATCACATAACACTCCCTCTAGGCATTCACAGGAGCTCAAGGATAGGAGTAGGGAGGGGAAAGCTAGGAGTCCGAAGACTTGAGGGGCCAGGCATGGTGGCATGCACCTGTAATCCCAGCATTTTAGGAGGCTGAGGTGGGAGGATGGCTTGAGCCCAAGAGATCAAGGTTGCAGTGAGCCGTGATCGTGCCACTGCACTCCAGCCTGGGAAACAGAGAAAGACTATGTCTTGGAAATGGTAGAGGACCTT
0.3630257531599349 GTGAGGTCGGAGAAGTAGGTGGGAGCCAGATTGTATAGGGCCTTGTGGGTCACAGTAAAGAGTTTAGATTGTATTTCATTTGCACTGGGAAGCTATTAGAGGGAGTGATGCAATCTGAATCCCATTTTTAAAAGATCGCTGACAGCTGAATAGTCCATTGAAGTGTCAGTGAAAAGCAGGGCGAAGGCTGTTGCAGAGTCTGGGACAGCCTGGACTTGAGTGTTGGCAACAAAGACAGGGAAAAGTAGTCAGGGATACATTTGGAGATAGGGCTGACTGAATTGCTGACAAATTAAGTATTGGAGATGATAAGGAAAAGAAACTCAAGTTTTATTGCTTGGCTTAATCATTTAGTAGAATGAGAAAATCTGGGAGAGTAGCAGAGTTGGGGATATGGAA
0.4249970426703884 TCAACTCTGGTTCAAGTGAAGTGCCCCTGGCAGAGCCGGAAAGGTGTTACAGGGTTTGTTTGTGTGGATGGAAGAGGCTGACCTGTCCCGCAGCCTGAAAACAGGAGGTGGGAGGGGGTGGGCAATGGAGCCCTCTCTCTGCATGGAGACACTTCAACGAAGATAAGGGAAAGCTTATCAGGCAGCATTCACGGTGTCAACAGCAGACAAGAAATGTTTCTAACACTTCAGCCTTGCCAACACTCCCTATTTATCTCAAGAAACACAAGTGTTTTTCTTTCTTTCTTTTTTTTGTTTCCGTTCTCTCCTGCTATAAAATGCTCAGAGTCTCACAGTGCAAGATGAAGGGTTGACACGCGGTGAAAACTCATTTTTAGATTCCATCAAGTTCCATCAGTCGCACTCCCCTTGCAGCAGAACCCAGCAGACC
0.6119993296752451 GGAGTCTGATGTCTAAGGGCAGGAGGAGAGGAAGCCAGGCATCTGTCACAGCATGAGAGAGAGAGCAGACTCAGCAAGCAATCTACTTATCCCCATTGTTTAGCTGTGCTTAAAGCTGATTGAATGGTGTCCCACCCACATTGAGAGTCCAGCTGGACATGTGGGCTGGTTCCTCTCACAGTCCACTCACTCACATGTCAGTCTTCTCTGGCAACACCCTCACAGACGTACCCAGGAACATTGCCTCAGCCATATAGCTATTCCTCTGTCCAGTCAAGTTGACACCTAATATTAACCATCACAGCCCTTAACATTTTTTTTGGTATAAATATAGGTATCAAAATAATCCTGGACATATTTTGGATTTTTTTTTTCTTGTGTATATTTTGGATACTTCTAGAAGTCAGCACCTGCACCGCTTCAAAAATTAA
0.5384982626581696 GTGCCAGTTAATAGCGAGGTGGGGCCACGGCTGGCTCATGCGATGGTTGTTGCTCCGGACTGGGACACTCACACTTTGCGGTCATTGAGGAGCATGCCATTCATCTTCTCGATGGCCTTGTCGGCAGCCTCTTGGGTCTCGAAGTGGACAAAGGCATAACCCTTAGAGCCGTTCTCATCACACACCACCTGTCAAAGACAAGGCGGACCACTTTAGCAGAACTGGCCAGCTCCTGAGACATGAGAACCTCAGGGTATCTTGTGCCTGAGGAGACTCTAGCCCATCCATGGCCAATGGTGGTCAAGTA
0.459345827989251 ACTGACATTTCCACTGAGCCTGCTCCAGAAATCTGGACAGAACAGAGGCCACCAGTATAGGAGCTGGCTGTCATCCTCCTTCCCACCCACTGCACATGCCATGCACAGCTTTGGCAGGCTGTTCAGACTTCACACATCAGCTGCCTTCATTCTCTCAATTTATCTTTGTACTGCCCATTTTGGGGGCAAGGTGTCAGCTTATTTTCCTTCAGCACCTGTTAACACCCAAAGGAATTAAAGATAAAAATAGCAGACCTTTCTATTAATGTGCTAATGGACTTCCCTTATGCTCAGAGGATTTCCAGAGGATTTGACTGGAAATCGTTAAATGCAGTGGAAATTCTAATTTCAGTGTTTGG
0.4761173680928517 AGTCATAAGAATAAAAAAACACCTCTAAGGAGACAGAAGACATACCTGGGTTATTCCAGTAGCTTCAGTCACAAATACTTGGCGTATACACTACCACTTGCCTCTCTTGTGCCCTTAAAAGGCTTGAATAATAAACACAATGCTGTCATCATGACTTAAGCTTAGCACCCTCTCAAACTTCTCAACACGGTATTCCCAGCAGTGAATACCCATTGATTAGATAAGGAATGTGAGAGTGAAGCCTATTTTTAATCTCTGGATAGCCTGAGAAGTGGTCCCAATGAGTTTATCCAATCTCATGTCCAATGTGATATAATACATAATATCTTTGCATAATTTTGCAATGTCATTTCACACCTGCCTTTCCAATTGAGGGGATTGGAGCACTCATACGTGACTGATGGGCAAGAAAGAGTTCT
0.6350324797835594 GAGTGTGGGGTGGGGAGCAGGCAATAGAAGGCACATATGATATGGAATGAGCAGAGCTGAGGCTCTGAAGGACCATCAAAAGTTGCCACTCTGCCCACTGGAAAGATATTTCCCAAAATAAAAGACATGCCATTCACTGACACTTGCATGGTGTTGAAACCATGCTTGTTCTGCCTTGTGCCAAAAGAGTTTGGGAGAAGAGGGAGCGACTGCTCCCAGCTCTGTCGGCAGCCGCTTCTGAAGCTACCATAGCAACAAGTATAGACTAAAAGCGATCCTTCCATATTAGGTGTGAACTGACTCCAGACAAGGAAAATAGCTTG
1 AGACAGAGGGGAAAATCAGCAGACCTTGCTAACCAGATCCCTTCCTTCCCCCACCCCTGAGAATGGATGTTTCCTGGCAATGGAGAAACTGGGCATCGTGCCACCATGGAGGTGCCTGGACTGTTTGTAACAAACAGTTTCATTAGATTACCCACAATTTCTCGAGAGGTAATTCCATTAGACAGTGTTTATCAGTCATCATATGCTCTGCTTGTCATGACTCCCCTGTTCAGTAGCAGTAACACCCCCAGAACAATACTGTGTGTGTGTGTGTGTGTGTGTGTGTGTGTGTGTAAAAACAAAACTGTCTGGGATGCCTTACAGAAGAGGTATCTTCTGTGTAGTAATGAACATAAAATAGAAAGAGACTGAGTAGGCAGCATTAAAATGTAGGTACCCCACAAATAAACATATTATTGTGCTTTTAATTCAGGAATGAGATCTGCAGCAATAACCAGAAAGCACCTGAAAACATCAGACGTGGATTATTTAGGCTGTTTAGGTGACCTAAATTATGCAGTATCTTGTAAGTCTTCTGAGGGAAATTTTTTTTTATACTATTTGATTAT
0.6358140748661345 AGAATTTGTATGTCCTTGGGTCAGGAATTATTCTTTTAAACTGGAATATCTTTATAATTCAGCCAAACTAATGGATCTTTCCTATTATACCATGGCATTATCATCTAGGTACACAAAAGCTGTTAACACATGGCATACTTAATCACCATTACTACAAGCTGCCAACAGATGCATCAGTCAACAAATCTATTCTAATTGTGTCCTGGAAAGAAGTGTTTCACACCTTTGGAGGTTGACATCTGCACCAGGCAGAAGTGCAAAAAAGTGTTTAAGGTCCACATTTATGGATACCTGATAGGTGCATTTGAGAAAATATGAACGTTGCTCAACGGATGTTTTAAAGAACACAGAACACATGTTAATAACTATGACTGTTAACATTTTAAAGTTTAACAACAGATTAATTTGGCTGATAAGTACATATGTGACTGAATCATAAATTTCACAAGTGCTGGAACCATGTCTTAAACATATTTGCATGCCCCATAGTGCCTGGCACAG
0.5951529519035754 TTATCATTTGGACAGCTCCATCTGCATCGTTAATAATTAATTCAGTTCAGTAAGAGTTCAGCTCACACACTCATTTAGAAGTCTTCTTCAGAGAACACCTCTCTGGCTGCTAGTCCCAGGGAGAAATAGGTTTCTGCTTGGCTAACAGCAAAGATCTGGAGATACAAGTATAGCTTTAGAGTTGCATTTGCCAGGTAGCAAAAGCTCCAGGGAGGACAAAAAGGGTCAGAACGTGCACAGTTCAGCTAGGTTACTTCAGAGTGATGTTTCTGTTCTTCTGTCTTATCATATCCATGTCAGCACTGCAAGCTGTGGAATGAATTTTAAGCTGCTAAGCTCAGACGGATGTGATTCAATTGAGCAGGTTGATGACCATAAAACAAACTGTGCACTCCTATAATCTGTGGTACCTTTTTCTTTCTTAAAATTTCTTTGTATTTTTATGTTCATCAATATGGGTGATGTTTAGCTGTGTCATATCATTAAGCAGTTTGAATTTT
0.4990623126051931 CCCTCTTCACAGGTGTTTGAACAAAATGAATAACAGAATGGAGACTTGTATTCTAATGCTTGTTGCTCATGTAAACTCATGTTCTGCATTTTAGAATCTGTTGAAGCCATAGCTTCTGCTTTGGGAATAAGCCCCATTAATCAGGTCATTCCTTTAGGTGTATTCTGAAGTAGCTACTTTTGGTGATTAAACTTCACGTATTATATTAGGTAACACAGCATGCTGTTAACAGCATGTTATCAGTAAAGGCAAGAGAAAGCATTTATTTTAGATAAGGCAGGCTAATGTCTGTCAACTATAACACTGCTCTCTGATATCAAGGTAAGAGTAAGCTACAGAATGCCATCAGCAATAGCAAACATATGCTGAGTGCCTACTATGTGCTGGGCAATATATCAGATGCTGAGAAGAGTTATATTATAATTCATAAGGGATACA
0.4396685853264764 ATTAAACACGGCGTGGGCTCTTCTAAGTATGATGTCCTGAACAACGAACTGCACAGGTCACATGCCCTTGAAGCTGATCTGTAGAAAGCTTTATCTGGTGGAGGCAACCGGGAGTGCAAGTGGGAAGAATGCAGAGGTAGCTAGTGTGGTCTGGTAATGAGTGACTGGTTCAAAGTGTAGACAAGTCACAAGCTGCTGCTGTGACTGAGTTGAAGTGTTATTAAAGATAGAAGAGTGTAGACGTGAAAGATGAAGAGAAGAAAGAAATAAGATTAACAATGTGACTTTATACTTTATCTGCCAACATTCAGTCATGAGTCATGCCCAGAAGCTGTGAGTGTCAATTCTTATTTATTAACATCTCTTTCTTTTAATCAAAATTGATAACAGCCACAATTGTTGAGCTCACTCAGCAATAAGAGCTTCCCTAAATACTAGTAGGTGTACTGCATGAATGATGGTGTGAAAAAGCGTTAGAGACTCCAAAGCAAAACAAAACATCATGGATATCTGA
1 CACACAGATTCAGGTTTGGGAAGTCCTGCTGTAGCTCACACGTTCTCTCTCTCTCTCTCTTTCTCTCTCTCTCCTTTCTTGCTTTGGCTTCTTTATTCACCATAGAGAATAGTGTTGAGTATTTCTGATGAGGAAATATCCTTGCAAAAAAGGCTCTGGGTCTTTATTTCTCTTCAGATTCCAATTTCCTTAATTTTTTTTTTTTTTTTTTTTTAGCTGCCAAACATAGTTTGAGTTTCTAATACCTGTCTCAACTTACAAGCACCCACTTCAAGTCTGCTGATAGATGTACACTGGGCCTCTTATGTAGCGTCTAAAAATATTCTTTCTAGGGCCGGTGCAAATGCCTTGATGGGGCCAGCTTTGGCCTATTGATGAGACAGGGTCGACGTTTGATAGAGGATCTTTGGTACATCACAGCGGTGAGACCAAATT
0.6368699024601376 GTGGGTAGTTTCTACAACAGGTTCTAAGCACAGGGTCTTAGAGAGGAAAAAGTATCCTTAGTATCTCTCCTCAGCTAATGTAGCCAAGTACATTCCACAACTCTCCCAATCAGTATGTTAAGCAGATGTGGTCTTTGTCCACCTAGTAAGTTGCGTTAGACCTTTCAACACACTGCAGTCTTTTTATCACTCAGCTGCCAAGTTCCCTAGGGTAATCATAGACAGCTTGTCAATTTAATTGCAAAGAAACAGGCTTTCTCGTGACCATTCCAATTTTAGCTGCTACTTCAAATTGTACATGATAGTTCTTCCATGCTGTCTGCCCTTTAAAGAGTGTGGACCTCTGCAAGCCTCTTAATGGTGATGGGAAGAAGAGGCAAGGCTGAAATTTTGGCTTACTGATAAAGCCTATAACATGCCTTTTA
0.09168379651041651 AACCTGTAACCCTGCCCCTGTCTCAGTCATTTGTGTCATTGTAAGGGTTTTGTTTTGCTCTGTTTGGAACAATTCTTTGGACACAGACAATTCAACTCGAGCAAACTGTACTCAAGAGGTGGCAGTGAGCGGTCACTGCAGCCTTGGAAAGGCCCTGCCTGGCACACATCGCACTCACTTAGGATGCCTCCACATCCCCAGTCCCAGAAGAGGTGAGGAGAGAAGGCAGCTGCTGACAGGAGGAACTGGGACGGTGTCACCGCTGGTGGTGATTGATGCCCCTGTCCTCGCTTGCTCATTCCCTGCCGTTGCTGCTTCCTCAGCAGGGGAGGTGCCCTTCCTAGCAGGTCCACCCTCCCAGCACGGCCTCTCCCAGGGCCTCTCACCAGTTCATCAGCCCTCACCACTCTCCCTCCAAACCCTGGAGTGCTGACAGGTGCCCAGGAGAGAAAGGCATGGGGACGGATTCTGGGAGCTGACTCTCATGGTTGTTTACACTGAGATGAGAGTGCGGGGGTCCCAACCAAGCTGTGAACAAGCCCCTGCTAGGAAGATAAG
0.5836380552536331 TCTTTGCTGTGCACTTGAAGGTTTGCTTTGGCTTTTCACATTTATTCCCTGGGCAGTACCACCTACACACTCATTTCATCCAGCTCTCACCCACCCAAACCTCAGACACTTCTTGCTGGCAAGAGGCCACCCTCTTCAAAGGCAGGCATGAAAGAAGCTGGGCACTTACTCCTCCACTTAAAACTGTCACTACCACAGAGTGTGAAGGGAGCTGGTTTGTCCTACATTGAAATCTCCTGTAGAGGCCATTTCTGGTCTCTTGTCATGACTGTGATGCTCCTAAAAGGGCTATGACTACCCAACTAGCCCCTCTGCATTAGGAATGGCCCCAGAGCTCATGGGTAGGGAGCTGTGAGGTTTCTCCTTCCCAGGCTAGGGCCAATTCAAGTCAGCAATGAGCATCTACCTGGGCATTGGAAATACTAAGATGCATAAAACAAATTCCTGCCCCCACCCACGGCTGCAGACATTTGTCCTCAATCTTGACTTTCAGTTGTGCCATCACATGTCAATCGGTTGTGAA
0.5302406172354437 GCCAAACATGACAGCATGATAGGGAGGGAATTAAGGCCCTTGTGCTATCATATCTCGCTGGGCAAGCACAAGGCAGGAGGTGTGCTAGAGGCTGCTCTTGCTGGGAACAGCCCAGCACGTAAAGTTAACCTTGAGATCAACACCGTCAGTGAGATGAGTTACAGGACTTCATGGCAGAGCATCACAGAAACTCAGGAACATATCAAAGCATTCGTCACTCTGGTGGCAGGAAATAAGATGAAAGAATTTAGAGAATTGCAATCACACATAATAGCGTTATCACTGGTGACTAGAATTTGAATTATGTGCACATAGACTTCTCCCCCAGTAGGTACTGCTCACAAGCACTTAAGGAAAAGGGGGTTCTGGATAAAATCAATTAGAGACCAGTTACATGAAGTTGGGCAAATGCTATAGAGTATAAACAGTAGGACAG
0.4767442551383928 TTATACTCTGGCCAGGAGGTCAGAAAACTGTCACAGAACCAACTCTACTCATTATTTGCTGTGTGCTTTGGCCAAGTCTCCTAACTCATTGGAGTCTGTATTTCTTTATCTCTGAAATGACAGCAACACTCAACACACGTTGACTGAGGACAGACTGTATGCTAGTCTGAACTATGTGTGAGTGAACACATAGTCATCACTTCCATGAGAGTGGAATAGTCGATATAAAACTCAGTACCACATGTGAGTGACTCCAAATATTACAGCATCCTCATTTGCTAAATGAACTCTTAAGAAAAGGTTTTTACTTTTATAT
0.7715033350618024 TCTAGTTTCACATGTAAGGAGTTTGGAAATTACCACTCTGTCCTAAAAACAAGTGAAAAGCTGAACACACTGAAAAATCAACTCTTTTTGTTTCCATAAGAAAGGTGAGGACACAGGGCAAACAGCCATCTCCAAGATTAGAGATACAGACAGGCGAATACAGGGAGCTACAGCTGAGTGAAGTGGAGACTCAGCAGCAGGAAGTGCCACAGGAGCCAGTGTCAGAATAGAAAAACTCGAATCTGGCCAGAGGCTCAGAGTAGACAAGTCTTTGCTTTAAAAGCTCCAAGGCAATCCAGTCATAAGGGGGTTCCCACCATATTGTGAGATTTTCCTCCAGGAATTTGATGAGGATCCCACAGTAAATATTGAAGAAAAATCTCATTATACTTCCTGCAGTGGGAGGGGAAAAGGAACCATTTTGATATATGCCAGACCAGAGCACTCTTCTTGTTAACAAGGCCTGCCATCAGCAGAAACTACTTCAGCTGCTGGGATATTATCAGAGCCTAACTGACCCACAGGAAAGAAAATATACAACTTCAG
0.8481257862691252 TGTTTACCTGAAATTCAAATTTAACCAGGCATGCTGTATTTTTATTTGCTAAATCTGGCAACCCTAAATCCAAGATTGTAAGTAACCCCGGTGACCTGGGAGAATAGTTGGGTGACCAGCAGAAGAGAATCCTGGAGTGGTTCAAGTGCTGCAAGGGTGTCGTGTGAGAATTCGAGCTTCCGTCTCTTCATTTGTACAGGGGAGAATGATACTGTGCAGAGCTGCTGCTGTAAGGATTATCTGTGAAGTCATAAATCACATAAATGTCTGTCACATTTCCTGTATGCAGGAAATAGCAGTCACTATTGGTATGTAGAGGGCCTATAGCCAACGAGCGGCAAACAATAAGCCCTTAATATAAATTGGTTCTTATCTCTAA
0.4392079314400793 AACTTATCAAGAAAAGCTCCAGAGAGGACAATGCCAGCAATGCCGGCTGTCTCCCAAGTCTGAAGGGTTTTCCTCTGGGTATTAGGAGTTGAGGTGTTCGGTTAGAGAAGAAACAGGATGCACGGGAGATCACACACAGAGTAAGAGGTGCCTCTCAAATGCCTTTCCCACGTGTCTAACTCTGCTTTGTTTAAAGCACAGTCAGACCCGCCATCTGCACTTTTACCTGCTGCCTGACGAAAACCAGATGCCAAAGCCAAAGGCCTCCCAGCACTCACAAGGCCCTTTGCCCTTAGGAAAACACCATGATTCAGCCAGGCAAGATTGATGCAACACTGTAACAAAGCGTGTGCAAAGTGCCTAGCTCCGGACTGCTTGCAGAAAAGGCACATTTTGACTCTTCT
0.3251780842713144 AGAAAAGTAACGTCAGATGTACTCTCTGATGTCCCAGAGTATAGTTGGGAGGGCGAGTCATATCTCACAACCTCCATGACCCAGTGCTCTGTTGTATGGGAAGGGAAAGTCAGTGGGGTGGATGGAAAGTGTTGGAAGGAATGAGCATGGGGGCTTAGAATGGCAGGGTCTAAGTAGGTGCCAGGGAAAGGAAGCAGAAAGTGCATGTTTGAAAAGCCAGAGGTGTTTCCCTTTGAAAGCTTAGCTGCTACACAGAGCAGCTCTATCCATGCCTTGACAGCTCCCAGACCCAGCTGTCAGAGGGCACCTTTCACTCTCTTTAACCAGCTGAAGTGCCCTGGCTGTCCTGAACTCAACACCTCCACACTCTCAGCTCTCCTGCCTGAGCCCGACATGGGAGGCAGAGCAAAAGGCCACCATCATTTTAGCTGCCCCCTCCCACTCCCACAGAACCCACTGGGTTAAAGGC
0.9777187017289165 GCACAGCAGTAAAAGTTACTGCCAGAATTTAGATTTGAAGGGCTGATCAGGGAACCTGGTTAACACTGTTCCTAGAAAAGTATTTGAGTGCAGCCTATATTCAGACCCTACTGGGACTGCCTCTAAACAGGAAGTTAACACACATCACATACGGTCAGGGAAGGCAAACCACAGTGTCATAAAGATGGATGCTGCTGTCAACTACAAATCACTCTCACCTCATGGAGAGTGTTCTCAAGTAAGGAATAATAGGCAGGACAAAAGTCTGTAAGCCTCACCTCTACTCAAACTGGGTCACTCAGCCTATAGATTCAGCCTTCTGATTCCTGCTGATTAGTACTTTTCTACCTTGTTCCATGATGACTATCACTGCCACTGGACTAAAAAAACTCTATTCCCCTAAAAAGTGAAGACAGCCTTACCATCAACTAGTTATTCATATAAGCTATCTGCTTATATGAATCCGATCCTTGACCCAGTCCATTCCCAAATGGCCAGGGACTAGATATCCGTCACAAAAAAAGCAGCACGATCCAACAAGTGTGGGCCTTCCCTCAAAATATACTGAACTCCTC
0.8052070693559702 GACAAGGATTCTTTTTTTTTTTAATCAGTCAACAAATGTGGGTTGAACATTTAGCGGATAATAGTCACTATGTTAGCTGCCATGGTGGATAAAGCTAATATACCTTGCAGTTTTTCCCCTTAGGATCTGACAACCTAGTTTTGTTTCTTTGGCATTGTCTAGTAACACCCAACACAGTCTGTAGCTTTCAGCTGACACTCAGTGAGTGCTCATTATCTAACAGGGATGAATGAGTGGACTGGTTCCCAATGCTCAGCCAATCTTCATGAAATTTCCCTGCTGGCTCAGTGACAAAGAGGAGATATGGCATATGTCAACGGCCTGCAAGTGTCCCAGAAATAGGAGGCAAAAGAAAATACAGCACATAGAGTCTTAAAATAGGAAGACAGTGGAACCCGTCTAGTACAAGCTTGAGCAAACATCTTTGGCTTCTTTATCTCACCTATGAAATGGGAATACCTCTATTTGCCAATTTCATTACAATAATGAGCCACTGCTTCAAATT
1 CTCATGGGATTTATCTATTATGGGAAAATGGAGAGTCTGGGAAGAGGCGAAAAAAAAAACAAAAGACGCGGTTTACCTTGCCCTACCTCCCTCTCCCCCTGGAATAAGGTGATGTAGCGAAGAAACCATCTTTCAATGCTGTCAGGGCTCCGCCGAGTCAGGTCAAAGGACTTTGAAACCCCCCCAGAGCTCTCCTTTTTTCTCCACTTCACCTTTTCCCTCTCCTTTCGGTGACTTCTCTCCCTGCTTCCCATCCCGTCTGCTAAACTAGCGTTGCCCAGTGACATCTCACAGCCAACCCAAGAACATCTTCAGGGCCCTGGCAAGGAGGGTAGGACAGAGCCTTGGGGAGTCGTCACCTTTTGAGGTATCTGGCGTCCTCCCCTTGCATGGCGGCAGCGGCAGCGGCGTGGAGAGGATGGGGTATCTTGAGAGGCAGGCGCGGTTATTTCCGGGGACGGTGGCCAAAGTACCCTCACACCCAGAGGCGATGACAGTCCTGAGGCCTGCAAGGCGGGGCAGCAGCGGCGCTGTGGTTACCACGGTGAAGCCTCCAGCTCCTCCCACAGCTTCTGTGCCCCAAAACACTGGAGCGGCCCAGACCCGCCCAGAGTCGCCTAAGCCGGGCCGTCACGACGCATGCGCTTGCTCTGCACCTCTTGTATGCGCAGGCTCAGTCTGAGGCGGTGGCCTCAGAGTTTGACGCACCGGGGAGCCGAGCAGGGAAGTTTTGGTGC
0.529680812728978 ATCTACTTGGAAATGCATTTTTTTCTTCCAGGCAACATAAAAGCCGTTGGTCTGTGCACAGGGGTTTGGCTGGGGGCATTTCCCAAGAAAGCATGTGCACATCAACCTAAGTCAAGGAATGCAGGCTCTGGGGAAACATTCTCGCACTGAGCCATGCCAGCCTGGCACTCCACAATGTTCACACTCCTGCAATTAAGCTGTTCAGTTCTCAATCATCTGGAGCTGCTGCCAACTGCTGGCTGCTGATAGTCAGAGTGGCTGCTGCCTGGAATGTCAGCAATTCTGCTTTCTGCCTCTCCTGGACTGGCTTCACTGTACTCTCCCAGCCTCCCCAAGACAGTTAGGTGCTCATGTCCCTTTACCTAGGTGATTTTGAGAGAGAGGCCTGGGAAGGTGCAGTGGG
0.009080112157418951 TGTGATACCAACCAGGGAGGCAGGCAAAGTGGACTTTAGAGATGAGTCATCTGGTACTCAAAGAGGGTAAGTTATTCACCCAAGATCACACCTGCCTCTTAATGGCAGATGCAGGAGTCAGAATTGTGCCTTTTGATCCAGGGCTGGTGTTTTGACCCCTGCCCTGTGCAGCCTCCTTACCAGGCCACCTGGTGTCCCCCTTTGTCTTCCTGACACCTGCACCCACAGCAGTCCCTGCTGACAGCTCTTCCTTCCCACCTCATCTCCAGGTGTCACCTCCCATTTTCCCCTCTGCACAGGAGGAATGACAGGTGCTGGAGCATGACACAGTGCCTCAGGGCTGAGGCTGCACAACTTCTCAGCTCTCGGTGCTGACAGGAGGGAAGTGGGTGCTGAGGTGTCAGTCAGCTGGCTCAGTGTAAGACCTGCTCTTATTGATCTTTGCTGAGAGATGACTAGTTGAGGGGCCTGGGCTACCACATTCTGCCTGTGACCTCTGACCTCCTAAACTTTAGTGTTCTTTGGCCTATAAGTTGAGGGTGTGCATGGTTTAGAAAGCGCATTTATGTACATTGCTTCATCTTGTCCTCATAATGCCATAGAA
1 AGTGAACATAGGTGGAGAAAATTAAGAAGTAATAAAAGCAAGTTGGTGAAAGTCTAGAATACTTATTATTAGATACAGGAGGCAGTGGGAAGTAATAACTTTGATTGGTACTGCCTTTTTGTTATAGGTGTCCTGGAATTCTTTGGGAAGGTGCAGACAGAGCGAGGTCATGGAAGTCATAAGTATTTGGAATGAAATGGGGAACAATGCTAGTGGAGCAGTTGCCACTTATAACTGCTAGAAGGTGTGCCCTGAATCTGTCAGCGAGATTTCTGACTGGGTTGAGTTGGATAAACAGCAGGGCAAGGAGATCAAACCTAACTTACTTTTACTCTGAGTCTTCATCGGCCCCTGGAGAAAGTGACAATCTCATTTACATTATTTTTTATTATGATGTTTTGGTTTTAATTCTGCTGAACTTATT
0.4575124816747762 GGGAGACAGGAACAAAGCTCTGACCTAGTCCCTGCCCTCTTTGACTGCTCACCCTCTTCCAGCCCCTCTACCCAGCCTCAATCTCTCATTCTTCCTCTACTTTGAAGTCTGGCTTCTGTCTTGGCCCCTGTGGGTTTGATGACAAAGGGCAGTTCAGGAATGACACTATCTACACATACATGGCCATATGGACAATTTCAGGTGGTGGGACTTGCAGCAGCTGGGGTTCCCAGGACTGCTGACATTCTGCTGAGTGTTATTAGAAGATCAGGGACAGAGCTTATCATCTGGCTGTCACTGCCCCTTTCCAAGCCACAGCGAGCCTCCACAGAGGGGCCCTGGGGGATAGCCAGCTGCCCTGTGCTCATGCTGGAGTGAACTTTCCTCTGATCTTCCCTGTTTTCTGGATTTAGCCAGG
0.8548893074299243 TAGATGGTGTCTACTAAGAGTTAAAGCAATGAGATTTAGAGCCTTGAATAAAAGAGTCTATTTTCTTTTTTCCGTATTTCTGTTGCTAAACACGGCTGTTGCCAACACCATCTCACTTCATTTTCCAGAGATAAGGGCATTTGTCATGCGTTTCTCAGCCCACCACTTAACAGTTCAGGAGTGGAAGCTTAAAGTGTTTCCCCCTCCCCCTCAGGACACGTGCATTTAGAAGAAAGGACAAGAATCCATTTCCTTATGTAGCAGAACCTCTGATAGTTCTATCCCAGTTCCCAGCCACTTCAGAGTGAAGACAGTCACCCAACACCTGCTACTAAAAGCCCTTATCAGCCATGTTTTTGCGGTTAATCTCCTTCTGATAAAGTGGTTCATTTTTCAGAGCTGTGAATATTGGTGACATGTAGGAGGGACCAAAATTTTCAGCCCTCATTCAACCCTCCCTTGTTTTTTATCAGTTGATTTTCCCATGTTAGAA
0.7377353479547503 CCCAACAGAATTGAACTCACAGCTCCTCCTAATTAGGGGAGAAAGAAAGACAAGAATGATAGCAGAAGAATTTCTTCCTGCTTCTGACTGCAAGCTCTTCAGGGACAGCCCATTAAGCCCCCAGCCTCCAACTTCTGTTTCCTGACTCATATCTGGAGTACCTAACACGGTGCCAGGTTCTCCCTGGGACTATAGCCCCGAGTGTGACAAGAGTGATGAACAGGGGCTGGTTTGAAGAGCCAGTCCCTGCTCTGGGGGCCTGTCTCTGGTATACTGTGAGGCAATGCCAAGTGGCGGCCCAGGGGGGATCTGGGAGGCCTCAAGCCAGACAGGTGAAGGCTGGTCCAGGGCCTTG
0.8586740585863396 CAAAGTTCAGAGCTTAAAGGAGGCAGCCTGGTGTGGCGGAAATAGTTCTGGTTTAGGCATTAGGCATTGAGGGACGTTAGTCCTGCTCAGCTGCTAATTAGCTGTGTGACCTCTGGTAACTCATTTTGCTTTTTCAGACATCAGCTCCCCATCTGCCCACACACAGGGCTGCTGAGAGGCCAGGGTAACATAATAAATGTGACCATTTATCAAATGCTTTCTAAGTGCCACGTGCAGTTTCAAGCACTGCACATACTTTATCTCATTTAACCCTCACAGGCCCTATCTGAGGTAGAGATTAACATAATGTATAATCAAAAGTAGAGATGAGGAGGCTGAGGTCATGTTGATGGAACTCATGTGCTC
0.7758613817407044 TTAACGTCATGTTTCCCCAGATCTGCTTGCTTGTGGCTTGCTTGAAGCCTCCATCTGGCCTGGCCTGTTTAATTTGAGCTCCTTTCTGCCTCCTGACCTGAGAGCCTGAAGGGCAGGACAAGGCATGCCTCATGTCACCCTCACTCTGCTCAGTCCTGCCACTGATGTTTTGCAGACACTCCAGAATAATGAACAAGAGAATGTCAAGGGCTTTGTGGAGGAATGTCTTGTGTATACAGATTGGACACTTAGATCATGAGAATTCACTATATATGTTCCTTGCTAATTGTTATTTTTTTGAAGCAGCTGTTATGGA
0.5514165592795752 TGGCAGAGCCCCCAAAGAACAGCCTCTCCCATTGGGAGTTCTCCAAGATCATTGTCTTTCTCATTTTGGAGTTTGTGTTTCCTACAGGATCTATTCTGACAAAGCTGTCCTGTGGCCTCACAATCACGTCTGTCAGGGTAGCATGGTTGTCCAGGACAAGTGTGTATATCAGTGGCTCCTGGCAGGTGATGATTACATAAGCATCCTGCCAGCCACCCGAGTGGAAACGATGGTCCCAGCACTTCTGAGAGAAGAGAACATGACGGGGGTGCAGCATGCGGCTGGGGTGCACAGGCTTTCTGGCCTGGCAGAGATCTTTTCCAGTGAAGTGATTTTTCACATTGCAGGAGGAAACACGAGAAAAGGCTTCTTCATCTGCCAGACTC
0.5257153257757163 CTGCCCCTCGGCCAACACCAACTTCCCTTTCAGCAAGCCAGTGTCGGCACTACAGTGGTTTGGAATACTTTCAATATCACTCCCTGTTAACAAGCCTATCCTTGGACTGGCTGAGAAAAGAAATGGAACGGGGCAAAGTAACAAAACAAAGAGGCAAGACAGAGCCAAATGTCTCCTATGGTTACCTAAATCACAATTTAGACAAGCACTGGTGATTCTTGCACATAGAGAACCACCACTGAACTGTACAGGGGAAACTGGTTTCTGCCCCAGAGATGTGTTGGGGAAATGACATACTGACCACCATGACTACATCCTCGGAAGACTGAGTGGCAGAGTGCTACTTTGGCTTTCTTACCAGGTGAACTTGAGCATATATCTGGGCAGTTCTAGAATTTCGATGTGGGAGGGACTTAGGGATGAAAAAAATAAAATGTGGATGGTAGATGGCATTTGGGGCAGGGGATTGGAGGCTTGTCTTGTAGCTGTTTCTGCTTAGTAAGCTCCCTGTTCTGGCTTAGAGACATATTTATTGGGGAGCTTGCTGATGGGAATTATGGACGGGGCCAACTCCTCTCCCAGCACCCTGTGGTGCTGACATCTGAGGTGATCACTTCCCATGGAGTGGAGAAAAGCATGCTGCTCTATATTTGTTCCCTACAACAGGAAGCGTGAAAACAGGATTTGCTGCCACATGTCAAGTACTCATGTGCCTGTAGAAGAAAGGGGCCATTGCTGCTGATGATAACAATGATAGCATCTAAGGTTTTATAGTTCCCCAAATAATTTCACATACACTGTGATTTGATGCTTATAACAACCGTGTGAACTATGCAAAGTAGGTATTATTTCCCCATTTTAAGAGATGGGAGAATGGATAGTTAGTATTTTGAAAATTGCCAGACCCCACACTTATAAGACTACATGTATTATTAGTAAAATTACTACTAGGGGACCCCAGCTATGAAAACCTCTCTGGGAGATAGCACTGGTGGGTGAGGGGCAGCAGCTTCGGCTCTTGCCTCCTGGCAAGGGTGGGATGTAATACCCTAAGCTCCAACAGACTGGGGAAAGAGAAGGGGCTTAGAAAACTGTCTGGGCTGCTGGATTTCTTTCCGGAGTTTCCCTCTCTCCTTCTACTGTCAGCACGTCCCATCTTTTGCAACACCAGGGAGAAGCCTTTCCATGCCTCTTCAGCTCTTGGAATCCCTCCAGAAGCCCC
0.7564850842358171 GAGGGGGGTGATAGAATAATGGCTTTATTTTCCCAGTCTGAAAAAAATAATATAGAAGAAATAACAGCTGGGCCTTCCTCTGCATGGAGTTTCCGCTCCCACGAGCATGTCCGTGTTTAGCATCGGCAGCCACCTGGCCATGCTGGACTCGGTGTGGCTGTGTCTGCAGTCGCATAGACATTTATGGTATTTCCAGTGGCCTGTCAACAGTGCCTGGTGTTCTCTAACAAGTGCTGTGGACTCCAAGGGCCTGACCACCTGCAGGGCTTGAGAACCACAGTTCAAGCAAGGTGAGACAGGGTCGGCAAGGCTGGCCTTGGCGTCTCCACAGGTCAGTTGGTCCTCAGCCAGGCATGCCACCCTGTGGGCTTTG
0.8521659413791111 CACTGCATTTACTTTCATTCTGCCTTATGCTTTAACTAGGTAATTTTTTTTTTTTTTTTAGTTTTGGCGGTATCAACACTATATTCTTCTCTTTGACCACCGCATGCTGCCTACGTGGTAGACTCTCAATACGCATGGAACTGAACCTCTTACAGGATTTGTAACTCACTTCTGTGGTATCTAGTAAACTGGAACACGCGCTTTCCCTGGGCTGCTCTGTCATCCCAGGTTTCAGCACTCGGAAATCGCTTGGGCCCCCGCCCAGAGGCGGGGCTTGGGTGGGCTGACCACTCCTCTGGCCTCCAATACTGTCGCTGACATTCTCGTCTATGCTCCAGCAGCCGTACCTCACTCCGGTGGAGGCGGGACTTCCTACAGCACTTCCGGCCAGAGCCTCAAGCTTCGCTGCTGGGCAGTTGGCTGGAGGGGCTGCTGCTGGGAACACCTGGAGTCTCCGCGG
0.5155903832054979 CTATTTTATTCAGGTGGACAAATACGGTTGCTGTATAATTTTTCAATCAATTCGTATCAAACTCTGTGGGGTTAAAACTAGCTGGGACATTTTGGTAGGCTTCATGCACTCAAGGGCTTCCTGCGGGCTTAACTGTTAAGCCGAGCTCATGGAGGTGGTGTTATCAGAATGCTTAATGGGGACCGAGGGAACGTGCTGGCTGATGAGGTTCTGCACATATCAAGTAATGTCAACTCTGTGCCACTCAGCAGCTGCCTGTCAGCTAGAGCAGCACCTTTGATAAGTGGGTCCTGGGTAGAGATCTGGCAGTCCCAGGCTGGGATTTTTCTTTTAATAAAACATCCGTAGGTTGCTGTGCTGACGACAAATGACCTTGAAGGAGGTGACACAGTGGAGCAGGGGGATTTTTTTTTTTTTGGTATAGCATTAACATCTAAAAGGAAAACATGCCTTTCCTCACAATTTTCCAATTTTCATA
0.549899384200386 CACTGTCAAGGTGGGGCCTGGCTCTGTTTGGGCCGTCTTTGGCCTGGGAGGAGTTGGATTGACAGTTATCGTGGGCGGTAAAGTGGCTGGTGCATCCCGGATCATTGGTGTGGACATCCATCAAGATAAATTTCCAAGGGCTAAAGAGTTTGGAGCCACTGAATGTATGAACCGTCAGGATTTTAGTCAACCCATCCAGGAAGTGCTCATTGAGCGGACTGATGGAGGAGTGGACTACTCCTTTGAATGTATTAGGAATGTCAAGGTCGTGAGAGCAGCACTTGAGGCATGTCAGCAGGGCTGGGGCGTCAGTGTGGTGGTTGGAGTAGCTGCTTCAGGTCAAGAAATTGCCACTCATCCATTCCAGCTGGTAACAGGTCGCACATGGAAAGGCACTGCCTTTGGAGGGTGAAAGAGTGTAGAAAGTGTCCCAAAGTTGGTATCTGAATATGTGTCTAAAAAGATAAAAGTT
1 AGGAAACAAAACCAAAGGGGAAAAAAAAAGATGGGCCCCACAGTCATGAAACCACCTCAGAACACGGAGAACTACTTCTTACCATGACCTTAATTCACCCAGGCTGCTACTCTGGAGAGGTGCTGTTTCCCAAGTGGGTGATGAATCACTGCTTCTCCATCACCTCTACTGCTGTGCTTTGTTGGTGACAGGGAGATCAGGGCCGTGAATTCTTGTTTCCAAAAGAAAAAGAACTTGGGTTCCAGCCCAGACTGAACCCTCAGCTCTTGTTTGGTTTCTGATATGTACTATTGGCCTCATATCATTAAGATGGATCTGCACTCCCCCATCTCTATGTGAGTAACAGAAAGAAAATTC
1 TGAGAGAGGAGTGCTAATCAGAGTCAAAGAGGACTTTGTATGTTCGTGAGAAATACTGAGTCTTAAAAGTGTGTAGATAACTGCCTGGTGAAGGGGGTTGGAGAAGATTATCATTGTCATGGGAAGCAGCATAAGAAAAGCCATAGCTCCATTATGCTTAGCAAACTAACGCAGGAGCAGAAAACCAAATACCACATGTCATCACTTATAAGTGGGAGGTAAATGATGAGAACACATGGACACATAGAGGGGAACAACACACACTGGGGCCTCCCAGAGAGTGGAGGGTGAAAGGAGGGAAAGGAACAGGAAAAATATAACTAATTAGTACTAGGCTTGATACCTGGGTGACAAAATAATATTACAACAAAGCCCCATAACAAAAGTTCACCTATGTAACAAACCTGCACATGTATGCCTGAAATTAAAAGGTAAACACACACACACACACACACACACACACACACACACACACACACGGCATAGCTGAATGTAAGGGCTCAGCTTGCTTTCTGCCATCTTCTCTAAATGTGTTTGTGATCATTCTCTTCTCTATACTTGTACTAATATGTATATTTT
0.6002618216770372 CCCCTGGAATCCTGTCCATTGTTAGACCTAAAAGGAGAGGCCACAGGCCATGGGTAATGGAGGACTTTAAAAGGCCAGGAACAGAGATACAGGGAGGAGAAGGAGGAAGGACAAAAGAGAAGGGATGAAGACAAAACCGAAAAACGTCGTGTGATTTATATCAGCGCAAGGCAGTGAATTCTGAGCTGAACACAGCCGCCATCATGACGCTGACAGAGCCTATCAGCTCCCCTCTCTGTTTGGAGAGATGTCAGATAGCTGGCACTCTCATTGTTACATTAGTTATTAATAAACTCCTTAACAATGGGAGGAAGTGCTAGCATTCAGAGAATGGGAGTGTGTCAACAGCTGAGGACTGAATGTGGACGGATCCCAGGCAATGCCAGGCCCATGTTTAGCACAACCTGTTTTCTCCCAGAACAGAAAGTGTCAGAGCCAGGGTACAATGACAGACTGCAAGTTTTGTTTCATTTCTCGTTTTTTAAACCCAAGATCCATCACCAGATTCTTCGCAATCTTGCTGATC
0.7556664210374605 TACCTGATGGGAAAGAAGGTATTACATACCCAGCTTGGAGTTGGAAGAGGAAATATTTCAGGGATGTAAGAGGATCCTGGGAAGTACTGAGTACCCTTTGAGATCTGCAGTTACAGATTTATAGTGAGACTGTTCAGCAGGGCCATGTGTTTTTCTTCAGCAACACTTGGCTACTCAGGGACAGGCACAGCACAGACAGATGGTTGGTCTTAACCAGATTGGGGCTTTGCCAAAGTACAGCGGAGGAGAGAGACAAGAAGGAAGTTAATGAGGGTTGCAAAGCGTGCATTGGTGAAAGGTAGAAAGAGAATATTAGGGTGCAGACAGGGTTGGGTCCTTGTTGATGAAAAGGTCGTTGTCATAACAGTGGGTATCTGAAGTGGGTTAAGGAAGAGATATTTGGAGGCAAGAAGTCAAGGGACTG
0.76170125476549 TTCACTTGATTATTGTCTGGTGTGGCATTTTCCCAGAAACAAAGCACTGATCTCATATTTGGAGGTACTTCCAATTTTCAAAGCTTTCTCCTGCAACTCCCTGATGTAGGTAGAACAGCTGTTCTGTCCCCATCGCTTTTCAGTAGAGCTGAAGTGCAGAAAGGCTAAGTGACTTGTCAAGGTCGCGTCATCAGCAACCAAACAGATCTTGCAGTTAATCTACAGCTACCCCTACAACCACAGAGCGTGGCAAGCCCTCCTGCCCCTAGAATGCTGACTCAGGAGGCAGGAGCCTTGTATGACCCATTCCCTGCTGAACCCCAGGACCCAATACATGCCAGCCCTGTCCAGTGAGTGAGTGGATGGGGTGAGGCACAGGTCCAGAAGATCAGGAC
0.3977218757599514 ACAGGAGGGGGAGCACGCGCCCTGCTGACCGCACGCCCACGTGATATCGCCTTCTGCCATCGCAGAAAGCAGCGGTTCAGCCTCTCTGCCTGCACACTTGCGTGATGGGGAGCTCACAAGCAGTCCACTGCATTGCTGTCAACGCTGACCATTAGAAACAGCTTCCTTATGTTGAGCCCTTTGTCGCTCACTCCATTTGTCCTACCTCTGCCCTCCAGGTCTCGCCTGCAAAGGGCTTAGCTTCTCATGACAGCACTTAAAGCATTTCAACACAGCATTAGCACCACCTAACCCCAGTTCTTCTGCTCTGCCCAAACCTCCCCGGGCCCTCCAATCATTGTGGTATGATGTAGCGTCACCATTCAGATGACTCACGTTAGGACACAAACCATCTACAGAGTCCCTTCTCCACTGTGGTGCCCAGGAGTACACCTGAGCCTGCAGGTAGGGTCTGCCCACTGCACAGGAC
0.3554212705149973 AGAGCCTCTGCCCCTGACTGTCCTGAGGGGCCTTTCCCTGGGAAAGGAACCAGGTTTGATTTTCAGTCTCTTTTGTTATCACCATGCTGACAGCTTTGCTTGTCATATGCCTTTCCCTCCGCTGTACTGATTTTACCTTACAGAAGCTCTCCTTAGTGCTTCATCAGACACTCCCTCTTTTCCAAAGAAAAGACAGCCGCATTCCATGGTCATCTGGTTGAGCTCGAGGTGAGCCCCAGGGATCATGTGCCTCCCACCAGGCTGACACCCCAGTGGTGAGGAGTTGCCCCTTGGCTTTTTCGAGGCCAAGCAACTCAGAGGTGTGGCAGGATTGCATGTCACAGTGGCACTTCCAAGGCCCTGGAGAGTGACTCAACGCCTCTGTTATTAAGATGTCACACAGGCTGTGCAGCAACAACTCTAGGGACACCCTTCACACTGACAGAGTTGGCAAGCTTTTCCTATAAAGGGGCACACAGTGAATACTGTAGGCTTTGTAGGCCATACTATCTGTCCCAACAATTCAACTTTGCCCACTGTAGCTGTGAATCAACCG
0.2114161410164008 AAAATAGAAAAAAAAATAATTGTCTGTTATCTTAATTGCTTTTGGTATTATGTGCCCTCTCTCTCCCCTGGAGCTATTTCAGTGTGGTCAGAGAAAATGCTGTCAGCTGATATGTTACCCAGTGGTATCAACTTGAATGCTGACACTTTCCTCATGCATTCCATCCAGCTCTGCATACTCAACAGGAAACGCAGGGAAATGCTGGCACAACCTGACTTATGCTGTCAGAGCCTACCAGTGTGAAGTCCATTGCTACTAATGATCATGCCACGAACTGCCAGCACGACATTATTAACGACACTGTCTGAGTTCTGCAAACCTCTGGTGTCTCAATTAGCAAAAGTACACACTGTTGGTTTAACCTGAAGATTAAATATCTAAAACAAAGAAAAAATTAATATGAGGTGCATGACAAT
0.4347493514371386 TTAATGTTCAACCAGGTACAGTGATGGGTATAAAGCACAGAGGGCAAGACAGATCTGTTTGACATGTTCACCACTCCAGCCTATTGAAGAAGGCATGTACTTGCCTTGTATGTTGCCTTGTCTAATTAGCTGCTGAGCTGTTCCCTGGCTCCCTGCTCCTGACTGAGACTTAGCGGGAAAACTGTCACAAGGCATGATGAAGTGGCGCTTGATTGTGCTACAAGATGTCCTGTGGATGCAGTCCAGACTGTTTCGACTAATCATCAACTTTGCAGATTCCAACACCAGGGCTTGTCTGCCAGGGCAAGGGCTTTGCAAAAGTCAGAGTAAATGATCTGTAGCTGCAGAAAGAATATAAGGAATTGCTTTGTTTATATATTTTTTAAAGGACTGACTTCAATAGGCAGCTCCATG
0.6100263358657069 GTAGGAGGGCCGTGTCCCTGGACCATGAAGAAAGGCAGACTTGGAGCTTATCTGCTTTCTCTCTTTGCTTTCTCCTGGTCCCGCCAGCCTTACCCCTTTCCCTAATTAGGACTCCACAGTTATGAGGTGCCGACGGGGCGGTATGAGGGCTTGCAGTGAGGGGTGGTTAGGCAGGGACTCCATGAGAAGGTGGTGTTGAACAGACCTGAAGGAGGAGCTGTGCTGGCATCCGGGGGAAGAATGGTTCAGACAGAGGGTGTGGCTTGCGTGCAGTCCCCGAGGTGGGAGCTGTGTGTTTGAGGAGCAGAGCTAGGGAACTGGAGGGCAGGAGAGGAGGGTAGAGGTTATGGGGACAGGAGGCAGACTGTGGGGCCTTTTCTGGGATTGCTGGGACTTTGGCTTCTACTCTGAGTGCAAAGGAAGAAATCACAGGGTTTTGGGCAGACGCTTACTGTTTGTACAGTCATTTAGGTGCTGTGTTGAGAATAGACAGCAGGGGGCGGGAGAGGTGGCAGGGGGCCAGCCAGGGGCTGTCGCTGAGTCAAGGGTGTCTGGGACCAGGGTGGTGAGAGGCGGTCAGCCTCTGGAGGTGTTTCGAAGTGGAGCCAGTGAGGTTTCCTGACTGACTGGCCGTGGGGTTGAGAAGGGCGAAGTGAAGGAGGAGTCCCGGGTTCTGGCCTGTGTACCTGGGAGGTTGGAGTTGCCACTGAGATGGGCAGGCTTATGGACGCAGCAGGTTTGGGGTGTGCTCAGGAGGTTCACTGGGACATGCTTTGTGGGTTTGGGCTGCCTGACCCTTATCCATGCGGAGCACTTGAGCTGCTGGCATGTCCAGTCTGCA
0.4154095474512657 AAAAAAACTTACCCTGCTAAGTCCTCAGCTTCCTTCCTTCTCTCTTTCCTCCAAGTGAAATGAGTGCTTGATCTCTTCAGATCTAGGTTGTGGCTTACTTGCAGCTGTCCCTTCATATCACTTTCCTTTGCAAACTGCTGAAATGCTGAGTCTCAGTGATTAAGTGTGCCCTGCCAACCAGACAGACAAGGCTGAATTCTCCCTAATGAGGCAAAGAGGGATCTGTCCCCCTGCCTGAGGGCTTCTCTCTAACCTTTGTTCTCTGCCAAGGGGGCTCAGGACTGTCAACACTCCCAAGTGTTAGCCAAGTAAAGGCCAGGCAGGCTGACAAAAAATGAAACCTGCTGCTTCCTAGACTTCTCTCACTCAAGGCAATATTTCTGTTCTCAGTTTACAGCTTCAGAAGAAAACCCTTTGGATTAGTGCAGAAGTCAATATTTGATTGGAAAGGGTAAGCACCTTTCCAACCAAGTGGGAGGAACCAGAGGACCCTCTGGAGTTC
0.06369861493350575 CAGCTAGCCGCTCTGCCTGCCATAGCGATGTACACTGTGCAGATTTCTACCCAGCCAGGAATGAGCCGGGCCTGGAGAGGCCTGCCAGACGGTGGGCTGCATGCTACCAATTTCTTTCAGCACCTCCTATTTTGCCATTCATAGACTCTTGCCATTAAGCAGACAGAACAGCTCATATCCTGTGGACAGATGATAGATATGTCATATCACTGAAAAATTGTTTGTCTTCCACAGGTGTATGGGCTTCTTCTAAAGCAGGCAGCTCACATGACACTTTTCAACACTCTGTCCTGTACCAGCTTGGCATCCGGCGTCTATCAAAAGGGGAATCTTTCATATGCAATTATGGCAGAAAATAAAGGTGATGAAGTGTTGTGTACCAAGAAGGGATAAGATCAAAGGGCGGTAATGAATACCGATTACAATAGAAGGGCAGCTTCAACTGCAGAAGTTGTGTGTGACTGTGTAGAGGCTGGCGCTGCTTGGGGGCATGCACTGGCACACACCAGAGTACATGCAGAAATAATACAGTAAAATCATAG
0.3819448014248013 CTGCCCCGGCACACACATGCGTGCACACACACAGAGGGCTCTGCTTTTGAGCCAGGCAGTGGCGCATTTGTGAGTGTGCCCAGATGCCCCCTGGGCCATCCAGAGCTCCCTACGTGCTCCATGCCCCTCCTCCCACATCTCCGGTCAGACACAGCTCAGTGCTGACATCTGTCTGCTCCACAGCTGCCCTAGAAGTCAGCCTCGGCTGGCTGGGGACTGTTGATTCTCAGGCATCCTGTAACCTAATCAGAAGAGAAAGGCAAGCATGTGTGCACGAGCTGAGATGACGAGCTGTGCAGACCTCAGGCTGGTAGGGGCTCACCTCTCCACACAGCCTTCCCTTCCTGCCCTCACCTTGGTTGTAGCCTTTGCTGGCGTTCACCAACCCCCACCCTCTGCACCCTGCTGCCCATGTCC
0.9536588954158945 ACAAACCTGTTACTTCATTTTTTTGCCACTACCAATTACCTTTTCCCATGCCTTAAGCCACTCTACTTCTCTAGGCTATAAATATCCCTAAGCCTTATCTTCAGCTAGGTGGATTTGGGAGCTGTTCGTCAACCTCCTCACCCAGTGCCGTTGACAATAAATCTTTTCTCTCTTGTAAATTCCATGTCACAGTGATTGATTTATTGCATGCAGGCAGAATGGACCTGGACTTAGTCAGTAACAATACAGCAGTCTAGCCAGGAGTTTTAGTCCATACCTTTTGCTGGTGGTTCAGTTGCCCTGTGCTGCTGCTGGAATCTTACAGGTACATTCAGGCAGC
1 CATGTGGTTAATCTCCTTAGTTCCAGATGAATTTTGCACATTTTCCTCATGGAGAATCAGAGTATATCCAAGTACTTGTGAGAGAGAGAAGAGCCCTCTTTCAATTCAATTCATCAGGTGGTAAGCGTGTTGGACTGATGCACCAACTACCTCCTTAAAGTCCAGAACATCTTCCCTTCAGTGGCTGGACTAGGCTGGGAGGATGGGAAAGGTGAGCCCTCCCTGCAACTGAAATTCCACTTGCATGCCTCTCAACACCTCTAGGTGTTGGAGAACTCACTGCATTCATTTTGAATAAAAAGAGACCGGCTCTGGGTTTGAACAAACATGTTTTTATTCAAGGTTTAAACATTTATTTTATGGCTCCCCTGCTGGGTTTCTGATTGTTTCCCTTTCCTCGGAGCATGAATGATTGTTTATTAAACACAATAATAATAATAAAGTGGAGGTAGGGTCTCTTAGCTGGCATTAGTTCAGATTCTAATTTAATCCTTCCCCAGCCTCACTTCATTACAACTCTATTCCGTTGCGTATTTCATAACCAGCATGTGTCACGGTGAATGAAGTCAAGCTTCAGAATAACATGTCAGTAAGATGATTGTTCATGGAACACACAGTACCCCTAGTCTATGATTAAAAAAGAAAGCAACCTGGCTCAAAAAATAAGAAATTTGCTTCACTACATAGAACCCAGGAGCAAAGGCCTCTTTCCTGCCTTTTTCCTGTTCCCTGAATATCAGGGCAGGGAGTGATGTTTCCTGGCCTCCTAGGGGTGAGAGGACTCTTCTGGACAGAAGGGCATGTACCTTTGATTCTTATCTT
0.4798891988271884 GCCTCTGAACCAAGGCCAGCCACTTATGTCTCCAGTTGCTGAGGATGGAATAAGAGCTGTCAGATTTCCCTAGTCAAGGGCCCCATGAGCCATGACCAGGGTTGGAATGGGCAGTCCGGGATGAGATCATCCAGTTTACAAATGAGTATGCAGAGACAGCCAGACCTGGTTAGCATCCGCAAAATAACTTGCTTATTTCCTCTTTCCCATTCTTCTTCCGCTATCACCCAGCCGTCTGGTGCAAACGACCCATTTAAACACCTCAGAAGTGATGATAAGAAGCAAGATAATAAGGTAGCCAGCCCCCAGTTCCCCAGGCAGCAATCACGGTGTGTAGGATAGAGTGCAGGGGCCTCTCTGTCGCTCTCATCTGTCACACATCAAGTGAGAAAAGATCTATTTTTTCCCTAGGCAGCATGCCTACAACTTCAATTGGCCTAAAATAAGCTTGGCTAAATTTTCTTGTGAGACGCTCTAAATGGTACACAGTGATCCATGCAAAGTCACTGCGAGGAGCCTCACCATGACGTGGATGGTGCCGGGGCTCCATAAGATGAGCAGATCTGAGCCAGGTGAG
1 CAAAACCAAACCTACCAATCAAGAAATTATAGAGTCTATTTTCATAATTTCATAGACTGCCCAAGCATTTCAGCAAAACAAAGCCACACTGAAAAATATTGACAAGTTTGTATGCATAAAACTGTAAATCTTGTTTATGGGAAAAAATGCAATAAGCAGAGTTAAAATTTAAATGACAAGCCAGGAAAAAATATTTGTGATTGTGTATGACAAACAAGAAGTTAATATTACTTGATGGGATCTGAGCTCTGCACTGTTTCTCTAGCACTGGGCAGCTGTTGAAACCTCTTGTCAGTGCTTGCTTTCCTCTGGATTCCTTGGAGTCTTGCCCTGTACTGGTGCAGCTTAGGAGTCAGCCAAGAATTCGAGACGAGTTATATACAGATTTGGGGGTTCTCCCTCTGTTGGTCTCTTCTTTCTGGAATTCCTCCCCACCTCCTCAATTTCAGCTGCTCTGGAAGCCCTGATTCTGGCCTGATTCTTCATCCCAGCCTGTTG
0.2818767208860832 AAGTGCCTATGGAACGGAATGTTGATGGCGATTAGAGAAGGCCATATTCTGGAACACTGGAAATGTCGTGTGCACAGGCTCCCAAGCAGCCCTTCGCCCCAGCTGACAGCTCCCCATCTGCCCCTCCTGTCACACCCACACAACACCCTCAGCTCAGCTCCTGGGCTCTCTCCAGCTTCCCTAGCTAGTCCAAGGCCAAAGGCACATTCCTGCCTGCCTTTCTTCCTGAGTGCTGTGCCCCTGTGCATCCAAGAACGAAAGCCCTGGGCTGTACCTGCAGTCGGGGAGCCTCAGCCTCCCTCAGCATTCCCCCCGGGGGCCCCGCACCCTGTCCTGGAGCCCAGGCACTGTGCATGCCATAAACGCCAGGACAAAGGCCTGGCAGTGACCCCCAGGCTGGCCAGGCACTGATGAAAGACACAGTGCCTGTCTTGGAGGGATAGGCTCAGGGGGGTTGCTGGGCAGCCATCAACAATCACCAAACACATGTGATAAGCGCTGCCATTGAGGTGTGAGCACGCAGGGTACTGAAAGCAGAGGCAAGTCCCTGAGGTTCCCCAGGAAGATAGAGGTGAAGCAGGGATCTGCAGGCAGCAGGGGTGGGGAGTGGGGGGAGCACTGAGCTGTCCAGGATGAGGATACAGCCTGTGTGAC
0.6673404918836007 CATTGGAGTGTGAAGCTGGAGTTGGCTGATGCTTGGTGTGGTGTGATGGTTGGGATAGGATTTGGCTCTGTGATCCTGTGCTTTCTACATGGCTTAGTTTATCAGCCAGAGCACAGTGTGAGTCCCAGAAAACCTGGCCAAAACAATCCTAACCCATGTAGCAAGGGGCTACGGTATTTATTCAGGGGCTTTCTCAGAAGGCTTTCCAAATAGTCCATTGGAAGGTCTATTTTCAAACCTCAGTCCAAGACCAAACCACTTAGAGTTATGTCAGCAGCTTTGCCCTAGGTGTCCCTGAGCTGTTGTCAGCAGGTTTCTAAAAGAATCACACTAGCTTGGGACTCGCACTGTGTCTCTGAAGGAAAGTCCTGAGAGGAGGGTCAATAAGAAACTTTCCCTTACATCTCTGCATCAGGAAATTTATCAAAGTAGGGTTGAGGGATGCTTCTATGGTGTAGCAGATACTGTGTGGTGTGCTGTCCTGACCCATCTCAGGACAAAAGCACA
0.9102100835754959 TTGTAATGTCTTCCCTGTTGACTCAAAGGATTTTATTTCAAGTTTTCATTTCTAAGAAGTCACTGTTCTTTCCTATTCCTGTATGCCTGAGTCACCCCACCCCCACCCCCTTTGCTCCCTGTAATATAACAGGGACAGATTTAGACAACTCAAGTACAGGGTACTTTTAGAAACAAGCTGCTACTGAAATTTAGTCCTCCTGATGAGAATCAAAACACCATATCCTATTTGAAGACAAAGCTTCTCATCTAGTGACTACTGATAAGGCAGCATGCTGTTTACACGTCATGAATTATGGGTGTTGAAAACTTAAGTGGGATCCAATAGTTTCTTGTTGAAACTTTCTAGACCCACTATAAACCTATTCAGGTCATTGGTAACAACAGATTAGATAGACAGATTTAGTTTATATGTTTGGATATTTTCTTGGTAATCTACTGTGC
0.5938791999266013 AACTAAATGAGCCACGTCATGCTTCTTCTACAATGACTCTGGACGTTAGGTCTTTGCCGGGTGACTGGGAGCCGACCTTGTATGGCTCCAACACCACCCACCCTCCACTCACTGCCTCTGGATTAAGGTGTCCGTATCACAAAGGAAAGAAATGGACATTTCCAAGTACCTTCTATGTGGGCTTTCAGAAGAATGAAACGTCTGAAATGTCACCTTGAGTGGGTGACAATGACATGCAGATTTTAACATGACAGAAGGGAGAACTTCCAAACAATCCAACAATACAAGGGGCTGCCTCAAGTGGAAATGAGTTGGCTGCCTTGGCAGCTGTTTAAGCTGAGGCTGCTGTGGACTATGACTAACTGGGATATTGTAGAGCCATCCTTCTT
0.6637770212844429 ACTTTCTCTGAGTGGCCTTATCCAAACCTATGACTTCAGTGGAAACAATCTTCTAGTGACTCTCAATTCTTCACATCCAGCCCAGAACACTCTCCTGAGTCTGTCATGTGAATTTCCAACCAGACTCTCCTGGATACCTCAAAGTAAACCTCTTCCCCATTTCTCCTTTCTAAGTCAGGATGAATGTCAGGATGAATGTCACCACCACCTGCCTTTTGTCGAAGTCAGAAACCTGGAATGTTTCAAGGACACCTCCCTCTGTTTCACCCTACAATGTAATTAGTCATGAAGACCTGTCAGTTCTGTTTTCTAAATGCGTTTTCGTAACTCAGCCTCTCTTCCCTGTTCCCACTGCCATAACCTGAGCCCAGGCTTTTGTCATTTATTGCCTGGGTTACTGACACTACCTTCCAACTAGTTTCTTTGCCTTTAGCCTGGCTTTCTTCCAATTCATCATCTGTGCCACTGTCAAGGTGAGCCTT
0.8090545115280905 CAGGACAGCCCCCAGCATAAAAATCTGACTGCCCCCAAATGACCATAATGCCAAGGATAAGAAACCCTGCAGCAAGATTAGGTTTCCTGGTTCATGATGAGCTAATGAGAGCATGTCAGTTCTAAAGAGGAAAGCCATGCTAAGCAGGCAGGGAGCTCTTTCTTCTGGAGGAAGCAATGAGCAGATGGTTAAGCTCATTGTTGCGTGATAACTGCTGACATTTGAAGGGCCTCCGAAGGCTTCCTTCTGCAGGCTGCAGAGGCACGTGTAACGGCCTGAGAGGGAGAGGGTTGGTGTTTGTGGGCCTTGACGACGGGATAGGCTGAGGCTCGTGCTTCCTCCTGCCAAGGCCCATTTGAAAGCACCTG
0.231255182984712 CAGTGATCGTGGTGGAGAATGTGTGTGACAGTTGCCCCTGTGTACAGTGCATGATGGTTTTCTTGCCCGTCACCTTTGTGAACATTGCTGAGAGCCCACTCCTGGATGGAGAGTGGGGTCAGATTAGAAGTTTAGAGGAACATGCAGGCGGTAGGCGTAACTCCCTCTGCCCGTGTTGTGTGCTAATCTTTGCCTGTTCTGGGTCTTCCCTGCTGGTCTCCCTAAGAAGGTGATTTCATTTGTGCAGACTTGCTCCCCTGAGTTCTGTCATTTAAGTGATTTCTCCGCCCCTACACTCCGCCTCACACTCACTGTTTTTAATCCTGCACTGACACGTTTCTGAGCAGCTGACCTGCTGCTGGCAGAAGGAATGAATCAGTCACCTCGGGCTGGTGACAGTTGGCACTTGGCTGGCCAGGAGGGCTGCCAGGAAACAACTGTGACTGAGGCCCCGCCTCCAGCCCAAGGGGAAGTCACCTTCAGAACTTGACCGTCTCACTCCCTGATCCATGCAGACTGCCCGTAAACGCGGTAGAGCTTAGGTGAACAGACCTGCTT
0.6616531838701906 TGCCACTGTGTGACTGTGTGACATTGGGCATAGCCCTTTCCCTCTCTGTGTCTCAGGCTGTCATCATTAAAATGAATGATTTGAACCAACTCAGTGCTTTGTAAGAGTCCTTAAGTTCTGTATTTGAGTTTGGACAAATCACTTCTCTTTTGGGGGGGTCTTAGTTTCCTCATCTGTAAAACTAAGTATGTTGGCTTGAATAATTTACAAAGGCATATATAAACCTGAATATTTTCTCCTCATTCTTAGTGTTTTTTTTTTTTTTTCTTTCTGCCTTGTATTACTTTCTGGAACATTTCTGTGACAGTTAACAGCTGTGGACAGGAAACCCTTGAACACTTCTAACTTGGCAAATGTTGCTGCTCCTCTGAACCTCATCCCAGCCCATTTCCTGTGTTTACAGCTTTTGGGTTTTGCACTTAGTGACAGGCCTGACAGGTCATATTGTAGTTTTCTCTTCATAGCCTGGTACAGGGTAGACCAAAGTGAGCACCAATTTGAGTGTCAGAAGACAGAGTTTCAGTCTCTGCTCAGCT
0.4909359863023885 ATATTATCTCTTTTAAGGATGAAGGAACTGTGGTGTAGTAACAAGCTCCACTCTCCTCCCTGTCTATAGTGCTATTCAGCCTGTGTGGACACTTCCCCATATCGCCCTTGGTCTTGGCCTCCTCTTTGCCTCTTCCCTTGGCTCTCAGCTTATCTGCCACTCTGGAAGCCTTTCCCGACCCAAGTCTGGTATGAGACCACATTCCTGTGCTTCACTAGCACCCCATTTCTCAGGGTAGCACTTAGCAGGTTGCATTCTTGTTCCTTCTTCACTTGTCTGCCCTGTTAGTCATCAGACTGGGTCTCAGTCTCACTGTATATCATACAGGCCAGGCACAAAGGAGACAGTCAACACTCGTGGAGTGGGTGAGTGAGTGGGTACATGAAAAACATGCGTAAATGACTGGCATTCCCAAATGAATGGAATCATAGTCGGACAAGTGAAAGAGCTGGTCTGTCAGACTCCAAAACCCAAGCTCTTTCCGTAGTGCAAATGGCTATAATCCTGAGGCTGTAACAT
0.692098119081748 ATATAAAAATAAAGCCATTGACTTTGGGAATCAGAATCTGGTTTCAGAGATATCACGCTCATATGACCAGTCTAAGGTATGATGTGGTGAAAGCCAGCTCAGGGGAGTTCAGATAAGAAAAAATACAGGAATTCAGAATGGGGAGAGGTTGTCAGGGAAGTCATTCCTGGAGGAGGTGGTGCCTGGCACCTAAGCTGTTTTTGATGCGGTGACAGGCTTTTGAGAGGTGGTGAGGAGAAGCTCGTGTGCAGGTTGGGGATGGGGTTGTGGGCAGTTCTCTGAGCAAAGGTCTAGGGGTGGGATTCTTTCATCAGAAGGTGTTCACTTCTGGCCTGAGCCAAGGATTTATAGAGGAGAAAGTTTGGAAGTCGGTTCAGAGATGAA
0.7324030081121859 CACCTGCACTCTCCCTCCTCCCCATCATCCCAGAGGCCCTCTCAGAAATCCTAATGGTTGAGGAAAGGGGGCTGGCCTGGCAAGAGGCTGGGCCTCCATTCCTATTTCCCCTGCTCATTGCCTGAGGCTTTCAAACAGTTCCCGCTCCTATCTGGTTTTTGCTGGCGGCACAGGCAAGTTGCTGAGTTCTTGTGATAAGGCTGGCTGATACATAAGGATAATTACGTCTGTGGGTTTGGAATCACTCAAAACCAAAGGTGAAATGACTCAACACAGAGGAGGGCTTTCCCCAGAGAGGTGACTCATGCGCTGGTGGTGGATATGGCTAGAAAGGAGGTGCATTTCTCAAATGTG
0.4608211774854664 GCCTGAGCCCTCCCCTGTACCCAGCCTGTCAGGGAGGCCTCCCTGGGTGGTTTCTGAGCTGGCTGCTTTGCAGGGCTAGAAGGCCCATCCCTCCTCACCTGCCTGTGTCTGTGGGAGGCTCTTGGCAAGGGTGCTGTGTCAGGCGGCCCAAGTGCTTTCAGCACTTGGGGGTGGCAGGCTAATTTACTGGCCTGCTGAGCAGCTGGTGGATGACTGGGGATTGTCTGAAGTCTGCCTAGAACCATGGCCTGGGGCAGGGCTCCTTCCAGCAACTTCCCTGGAGAGCTGGCTGCAAGGCAGGGCCAAACCAGCCATCATGATAGTGTGAAGG
0.2978659633429812 AACTTTACTACCCAATTACTGGGTTAAAGCCACTGCTTATTACTCTTTTTTTCAAGCAAGAAACAAAAAGAAGGAGCGGGACATGCTCAGTAGCTAAAACAGATGACCTTCGTGACATATGAGAGAGGCCTAATCCTGACAGCAGGAATGTGTCTTTCAGACACTGGCAACCCACTTGGCATAGATATGCCAACACTCACTTCACCAAGATGGTCAAAACAAAGTCTGGAATATGTTCTATTGTGTGAACAAAACAGAATGGGAGTATTTTAATAATAAATCACTTAAACAAGTGAAGGCAGCTGTCAGCAAGGTATGAGCTTCCAACATGAAGCACAAAGAAAAACATGCACTACCCTTTATAATCAGACCAAGACTAAAGGCCAATCGGTTTTGTGTCTGGTTCATGTGCTGTCTAGTATTCTACCTCACACAAAGAATGTGCCAAGGACATGGGAAGCTCTGCC
0.9704669364919446 TCCAAAGTTGGATAGTTCAAAACTGAAAACATAATTGATAAATGCGTGTGTGTAATCAGATTGTTCTCAGCATCCTTCATTCTACTGTTCCTCTAATCTATTGAGTCACTTTCTTGGCCTCATTGCTCCAATCTTCAAATAAGCCAAAGTATGTTGCTGATACTAGCCGGAATTTATTGAGTGATAGGATATTTGTAATGTACTTTGAGACTGAACTTAGAGCCCTGAAGATTAGGCAATTAATTCGTAGGGAAATATTTTTGCCATTTAGAAAAAAAAAAAAAACTTCGGACTAATTGAAAGTCTATATTGGAATGTCCCATTTTTATAAGGCTATTTTAGACCTCTGGTTTTTAATTAGGTGTGAGGTGTTCATTTAGTGCTGACAATGTGAAGTAGGCTGATGCCTAAATTTGCTTCTGATAAACCTCTCATTGATGTCAGCACTTGAATACTTAACTGCTACATTGAACATCGTATTCAAAGATAGTGTGGGTGAAAGCTAACTGCTTATGAGCCTGATTTTTGCTAAGAGACCTTACGTCACATCCTGGTAGCATTCTCTAAATTGACACTAAAAAAAAAAAAAAAAACCTTAGGACATGGCCTCCAGTTCTTTAGCACAGAATTACCAAAACATGACATTATTGAATGACTACCCAAGGCCTTTCTCAGTTCACTTTTTCCTTGTCATCTTCCCACTACAGATACTGAAAAACTCCA
0.7567536230983115 TATTTCTTTGTGCAACACAGAAGTGTAGTAGGGATATCTTAAAATAGACAGGGGACAGTGGCCAGAAATTGTTGACTACTATAGATGGTGAGGCTGTCTAACTCTTGCAGTGATACAAGCCAGAAGTACGTGCTAAGGGCATTGATTTGCTTAAGGTCAGCATGTTCTAAATTGAGCTGCTTGAGTATGGTTTCTGTCAAGAACACGTAGGGCTCTTAAACGTGTAAAAGGCTTTAGCGGCAGAAGGTGCTGTATTTATGAGGTGTGGTGGCAACATTTAGGTCATGAATTTCTTTTTCTTTTTCTTTCTTTCTTTTTAAATATAGAATTTTAGCCTGCGATTCTAAGTCATTTCAGAACACAGAGACAGGAAAGTGGGCTGTAAAAATAACCTGTGTAGCAGTTATATTCTTTGCTACT
0.4118611156051497 AACCCAGAACTCCCTTGTGAAGGACAAGTCACGAGGCAAGATACAGCTTGAAGGCATGAGCCCCACATTTCACCACTGCAAAAAGATAACGCAGTCTCCCAGGCGTGCATGGAAAGAGGGCTAGGCAATCCACAACACTGACTCCCAGGGCTCCACAGCATTAGTGAGAGAAAGTCACCCAGGCTTTTCAGCAGCACTAAGTGCCAGCAGCCTTGGCATGTATGTTTCAACTGCTTCCCTGAATAGACCCTGGTGCTGGAAAAACCGTATCTACAGGAGAACATATTTCACTGTAAGTATCTGCCTGGCTAAGGGAACAAACACTCCATTTCCTTCACTGCTGATATACGCATCCACCTCACCCTAGAGTGGACAGAAGGGAGAAGGAACAAGCTGACAGTCAGAAGGTAGCTCTGCT
1 GGCTGTTCCCTGCCAGGGGAAGAAGCTGTGGACAGTGCAGATGCCCGCAGCCATCCTGACCATGAACCTCCTGGAGCAGCATTCCCGGGGCCTGCAGGCCGTCATGGCTGGGCTGGCCAATGGAGAGGTCCGCATTTATCGTGACAAGGCCCTGCTCAATGTCATCCACACCCCGGTGAGCCCCATCTCCGGCATCTGCCACTCACTCCTCCTTGCCCTCGTCTCACCTCTGGGGCTTCTTAGCTGCCTCTTCCGACCACACATTGATGCATTTCAAAAACATTTGTTGAGGCCAGGCACAGTGGCTCATGCCTGTAATCCCAGCACTTTGGGAGGCCAAGGT
0.5068960545831984 ACACAGCCCACCTGCGGCCCCTCCACGCAGCACAGAACCTCTCCTGATCTTTGCAGAAGGGGCCCCAACACCTGCCCCTCCCGCCTTACTCCCAGCGATAGCGTAGCAGTTGTCACACTGCTGGAACGCAGCAGCTCTCAGCTGGGGACAACAGTGTCCCCCTGATGCTGGGCAATGTCTGCGACACTTCTGGTTGTCACACAGGTTGCTGCTGGCAGTCGGTGGGCAGAGGCCAGGGCTGCTGCTCAGCATCCAACGCTACACAGGGCAGTGCCCCCCACAAAGAGGTACCCGGCCCTGAGTGTGCACAGCTCTGAGGTGAGAAACCCTCCTATACAATACACACCACA
0.7310252371971721 GGAAAACATAAGCAAATCATTTGCTGATTACTTCTGTAACACAGACTGAATCAGGTGAGGCTTTTGTTTTTTAAGTTCTTGTTGTGTGTATACATGTTTTAATCTATATACTGGTGAGCTGGCATGAATCATTGGCTGAATAATGTCTGAATGTCTCCAGAGAACACAGAATGTGTGACTGATACAATCAACATATAATGGATGGGTTTAGAAATATGAAGAGTCTCTTCAAAGAGAATGAATAGTTCCCAAGCCAGAACAAGACTTGACTCATTGATATCAGCTGAGCTAAAGAAGAAAAATATGTTAAGAGAAAATAGGTTGTCAGCAACAGCAGCTGAGAAAAATGCAGAGAGAGGAAAACCAATGTTTGCAATGCGTATCTGGACAGTGTCTAAGGAAAGAAAAATTGAATCTGGGTGATGTGAGCATTGTCTCAGAGGAGCTTAGTGTCCCTCTGCAGTCCAATCCTCTCATATTACATATGCTCCTTTTGAGGAAGAGGCCTGCTACTAGAGG
0.5303707819706555 GCAATTATTCTTCTGCTTCAATGCATCATGTGGTAGCACTTATCTCTATCCCCTTACAGAAGCCGAATATCTTAATAATAATACCTTATATCTAAAAAGTGCATTATCACTCAAAGTGCTTTCAGATATAGATCTGATCTTCACAACATCTCTCCCCACAATGGTGGTATCCCCCAGGGTTCTGTCCGTAGCTATTCTCCTTTCACTTTTCACAGTTGCCCTGGGAAATGTTATCCACACCTGTGATTTCAACTGCCACTTACATAGTGATGATGGCCAGATGTCTATTTCCAGCTTGCTATTCACACCAGAGATGCAGACTGGCATGTATAGCTGTCCACTGAATGCCTCTCAGGGCTTACCCATAGTACTCAACACGTGCAAACTGTTATTTTCTTCTCCAGGTCTGTGCTGAAATTCTCTAGGATAGCTAACAACACCATAATCTTTTCCGCTATCCAAGCTGAATGTATGAGTCTCAGCTTCTCCCTCTCTGCCACTCCCGTAACTCACATAATAGCTCAC
0.6149194456456916 ATGATTGTGAAGATCATATAATTTCTATTTTAAAGATTGCAATTTGTCCTGGAGAGTCAAGATTATTCTCTGGGTACAGCTTTAGTTTATCCATGCCTTGCAATTTTAAACATGATGACTCTCTCTGTTCCCAGAAATTGTGGCTCTGACAAGCTCCTGCTGCAGTCACTTCATTAATCTTACTCTACCAGGGCACCTGTTCACTATTGTGCGGTGTCGGCTGATATCATATGGTAATTATGTTGTTAATTCATGGGCTGATGTTTTCCAGGCTGAAGCATGGCTTCTTACAGGTAGTGATCTGGGCAATCAAACTGAGCAGACAAGAAAAACACTGACAATTGTCT
1 TTCCTTGAAGCCTTGTTGCAACGGCAATTTTCTACCATGTTCCTTTTTTTTTTTTTTTTTCTGTCAGGCATCTGTGCCTTCTCACTACTAAACATGCATCTCACATTCCCCACCCTGGCCTTAAAGGCCACCAACACCTCATTGAAAACCCTTGTTCCTCACAGGAGGTGCTGCTGATCCCTGACAGACCCGCCTGTTTGTACCCCTCTCCTGTGGTTGGTTGTCACCAGGGCTGTTATTAAAGCCAGAAATAGGATGCAGAGCTCTAGTCCTCCTCCAGACTTCTCACCCGGGAAGTTCCCACATGGCTGT
0.539311172734891 CTATCACTGGGGAACTGACAGCTCTCGCTCGCTTCCCTCTGCCAGAAAGAATTAAGATTGTTCCTAATTTAATCTCTCTTCCGCATCGAAGGCGGATATTTGTGTTTCAGCAGCAAACTTGTATTAAAGGCTCTTGGGTAGGAGGCTTTGGATCGTCACAGACTAACTCTGATAGGTGTCTGTGTGCCTTCGTGCAGATGGGGCTGGCCCTGGCTTCAGGGGCCCTGGGCAGAGGCTCCCAGATGCTGCCCTTGATGAAACTTGCAGCCCTGTGGCCCTGCTGGGAAAAGATAAGAGGGCAGATTTGAGAATCACTGGCTTTGTAGTGTCAGCGTAAGGGTGTTGGGGGATGGCTGAGGCTGTCACAGACACTGCCCATTGTACAGCTGTCTGGCACGTCGGCCCTCTAGCTTTCTACAAGTCAGAATCACCAGGCTGCTCTTGACAGCATTCCAGCTGAGCTGTGCCCTGGCTGTACTCCCATGGGCATGGTGCAGGGATGTTGGTACCCCCCCAAGTCCCCTTTGCTGGATGGGTGCAGCCCATCCCCCAGCCCCTGTGTGTGTTGGCCACTAAAGCCCCCAGCTGCCCCTTCTCTGGATAATTCACCTGAGCTGAGTAGGAGCTGCCTGCCAT
0.5916823858422495 TCGCACTTCTCTTCCCTGCTGGAGATCTGAATCAATTAAGTAACATGACAAGGCGACCTCACATGAAAGATCAACATACCCACTTTATTACTGATGAAGTCAATACTGCAGAAAACATCTTTCTGCACACAAGGGCACTTCCTCACTGTGAACTCCAGAACAAGATAAGCACATGTTCCCTGTCAGCAGCCCATTCCCATCAACAAGAGGAGAGCGGAATCAGGCACACTTAGGTTATTCTTGGATTTACTAATCAGAATTCACTCTCCTCTCGCCACTGTGAGCAGAAGTAAAGAGAGAGAGGGAAGGAGTTGAAAGGGGAGCTCCCTCCGTGTGAAAATGCGCCACGACAGTGGGGAAGGAGTGTCCGGGGAACACCCTTCACGCTGC
0.9666357904543166 ACTTTCTTCTTTTTTCCCCATGAACTCACTGCCTTCAGGAACTCTTTCTAAATTAAGAGGAAAAAGATATCTAAAGCAAAGAACTCAGGGAGAAATTGTAGGGGTATTTTTGTATGCGTGCTTTCTTTAAAATGCAGCTTCCTTGGAGATATTAACGATTTCGCCAATGTTATCCAGGCTTGGCATATTTGTAGAGTCCCAACACAGTTTCTCCTCACCAAGGGATGGAATATCAGACAGTATGTCACTAACAGAGAGGGTGTTAGGGATAGAGGACAGACCTCAGAATCTCCTGTCTCTAATCACTAGGCACCTTTCCAACTGGGCTATAAAAGCCGTAGCACTCTCAGTTGTCTGATGCATTCTGACACAGTAAAGAACGGCCATAAGCAGGACCCTGCCGCACCGTCCTTGGACTGGCCTGGAGGCAGCCACGCTCTTCCTTCTAC
0.6888574922957367 CTAGCAGCTCCATTTTGATAAATGGAGGAAAACAGCCTCTTAGTAGAATATACTGGGTTACACAGTCTGATTGAATCTGCTATTGTGTTTAGAAGTCAACAGTCAAATCAGATCTGTTAGGAGCCTGCCGTATCGTTTCCCTCTATAAACAGGTCGCTCATGTCAACACCTATGAGTGGGTGTCTGTGCATGGAGAACATGCCGGTGCTTTGCAACTGCCTGCCATCCTCGGTAAAAGCAGCCACAGAAAGACTCACCTAGTTCTTTCCTGTATTCCTTTATGTCTTATTTTTCAACAGAAAGTGAAAAGAAGGAATAAAGATAACATTTTTGAGCACAGAGAAATCTAGTTTG
0.1585931874822976 CCACCAACAGCATAAAAGGCAAGAGGGACAAATGTCCTCAGGACCTAGCCCTGCACTGAGGACTGGGATCAGAAGGAGTGGGAGAGCAGAGCCGCCCCAAGGTGAAGCCACCTGCCTGGCCCTCTCTGTCTGGAAAGTGCCAGTCGGTATCAGAGGTGCTAACATCCACTGCTCCTGACAGCCTGGCTTGTCAGCAGCCACAGACCATCTGGGGGCTGACACTTGAGCTCACTGACAGGAATCACAGTTTGCTTCCATATCTCTCTGTCTCCAGCCCCAGGCAGCTGCAGGCAGATGGCAACAGTCCATCTGCAAACAGGGCTGCAGGCTGATGGGGTCCCTGTCCAGCGGACCAGCATCAGAAAAGCCAGTGCCCATAGGCCAAAGGCTATTAGATGGGGCTCCTGGAGTTCCAGCTGTCCAAGG
0.237713099402905 ATGACAGTCCCTAGGTTCTCTGGCTCCTGTTTCTGGATTCAGTGCTGTGAGGGCCTCTCACCATCATGTGGTCTGTGTGAACCAACCATCAGGGCAGTTTAGGTACTGCAGGGTGTTGGGGCCCCAGTCCTTAGCAGGGTTCAAGCAGCGGGTGCCATGCCTAGATCTTACAATTCCCGGCAGCATCTCCCTTCACCTCCTGCTTGCTGAGAGCACTTTGGTGGGCAGAAATAGCCCTGTCACTCATGCCCAGCTGCACACACGTCAACAACCTGGGGCTGTGCGCTCTCCTGATGCAAGGTCCTTTCTGCTAGTCATGACTACTAAGACCTGCTGCCCAGGACTGAGTGCTGATTCACCTACTAGGTTGGTCAGAGGGTTGGGGGCAACTCTGATTGCAGAAGCTCTCTGGATGGGCAGTGCTAGCGGAGTTCCATAGAGCTGGTCTTAAAAGCAGGGGCCTTTTGGCTGAGCTCCGAGTCCCTGGAGGGACAGTGTCTGCTGTGAACAGATGTCACGGAGGGAGCAGTGCAGTGTCACCAGTCTGGCTTCTCGCCCCAGGTCCCTTGGGCACGTCTTATCTTATCGTGCAGCTGGGCTGGGGGTGCTGCCAGACTTTGTGGGAGCTGGCTGCAAGGGCCAAGGGTGTTTC
1 TGAGCAGATGCGTGAGGTATTTTGGGGGCAGAGAGTTTGTCCCTGTGCTCCAGAAACCACTCCACCATCTGCCTCCGTGCACAGGCCCCACCCATCCCGGAAAAAGAGGGGTCCTCTCCTCCCACTTCAGGGCTCTGTCCCGGGAGGCCTGGTCTGTCTCACCAGGCACTTCCTACAAGTACACAGTTTGGTCATCTGCCAGCAGTCTGTCTGTCTAAAGTGTTTATTTACTTTAAAATAAGACTCAATTATTATATAATTTTTTTTTGCTGTAAAAAATAAAATAACATAAAAGTATCAGTAAAATGTGAGGCCCCATTCCTATGCCCCTCTCCCAGCCCCAGGGACCCTCCCAGGGGAAAT
0.1324366626647533 AGCATGAACTAAAAGGGCAAAGATATCAGCAGCTAACTCCCTGCAGCACGGTAAGAGCACTAGCTGTGTTCTGCAAAAGAAGAGAGCTGTTTTGTGGCCTTGGAGTCAGCTGCCACTCTCTTACCCACACAGGCCAGGGGTTGAGTATTCCATATGGTGTCTGCTGAGCTGATAGAAAGTCATGAGACCCGAGATCCTCTTTCAACAGCCTGTTGTGACAGTGATGGAATTGCATGCCAACCAGAAATGCCTATGTTCTGACAGCGTTCTCTTTCAACATATGTCCCTGTGCATCCAGTTGGAAGGCAGATGCCTAAGCTTGATTACTCTACACTGAGAAAGGAAAGAGCTTATCATCTACTGACTGAAATTCAC
0.6458199784235101 ATTTGTTGTACGGATTATTTCATCACCCGGGCATTAAGCCCAGTATATAATAGTTATCTTTTCTGCTTCTCTCCCTCCTCTCACGGCTCAAGTGGACCTCAGCCTCTGCTGTTTTCTTCTTTGTGTTCATAAGTTCTTATCATTTAGCTCCCACTTATAAGTGATAACATGCGGTATTTGGTTTTCTGTTCAACTTCAGGTGCTTTTTGACTTGACACGTTAGACTCTTCATTCTCGCCTTTGTCGTCAGCATTTATGGAGCTAGGCACTGTGTGAGTGAGGACAAGCATAGTGTACCTCTGCACTCAAGGCGTTCACAACAGAGCCCAGGACGGTGAGAAATTGGCCTATGTGAGGACTTAGGGGTGTGTGTTGCAGTTATTTTGTGTAAGTGGGTAGTTGGAAGGGTTCTTTAGGAGAACGCTCCTATGGTTATTTACAGTTGTGGAAATTGTCCTAGGCCAAGTACAGACACAATGGCTGAGTGTAAAACCGAATACTCCAAGCTCCTGGTTTAGTTATCT
0.6193687270458085 CCTGTCAAGAAGTACACACTTGAAAAATATTAGTTCTTCTCCTCACTCTACAACACTTTAAACCCAAACCTCTGTCATCGTCAAGAGATGGAAAGATGAGGAAATCATGAGCAAGAACACACGTCTTTCTAGCCAGTCAGATGCCTGGTTCTATCAGTCCCTGTGTCCTTGGCTGTCAGTCCCCAGAGCTGCTGGAGACAGAGCCCAGAGTGAGCAGGTTTCCCACCACCATCCACCACCCACAACATTTTGCTTCAGCCTCCTCCATTCACCAGTCCCCTTCCCTGTTCTTATCTCCCCCAACACACCACCCCCACCAGCACTGGCCCGGACCTGTTCCCAAAGGACTAGT
0.1269478801653619 GAGAAACTTGAGTTGCTGCTACATAATGGGGACAAAGATATGTCTGCAATTCAGTGATAGTTTTAATATCTCTTTAAGCTCTTATACCCAGTGATAAGTTTTGCCAGACAATTGCCACAACCACAGCTCAACAAGGACAAAGCAACTACAGGCTCATGAGAAGTGACAGTCAGCATCACTCTATCAAGCCAGCAAAACAGACCAGTTGAAGTGTTGGCTGAGGTGAGTGTATTCTAGGATCAGTGTTAGAGGAGTAGTTGATGACTTACAGTTATGGCCTGGGGATCAGCTTCAGCAGTGAAGGCTGAACATTCTTGCTATAAGTATTTAATTGATTGAAGCTGGCTACTATTTTAAACTTATTGTGCACTTTGTGACTCATTGGGCTTGAATCTCCCCTCTTATGTTCTCACGAAAACACAGGCTTCATATTGCAATGTGGAATCTGGATATAATGAAGGGCATGGATAATCTGAGTGATGCAAGGTTTTGATTATATCAAACACGTACTATGCATCTATTCAGATCATCTCTTATTCACTTGTCCCTTCTTCAAGCTGTCAGTATAGCAATTAGATCTGTATGGACTCTGATTAACTTCACATAGTCACCACCTAATGCAGACAACTCTGCTCAAACTTTCTGCCTT
0.7331163311958399 ATCATTCTAAGTGTTTTGGTTTTAAGTTCTCATTTTAGTTTATACATGTGGCTAGGTTAAAGAGCTTTAAAATAGGTGATATTTATTCTTCTGTGAAGAATGCAGAGGACATTTTTGCCAAAAGAAACAACAGCGCTGTTTGACAGATTGACGTTTTCTGGGACATGGGCCATACCAACTTATCTTACCTCATGCCACACATGAACTACAAAGCTTTTGAGTGGGAAAGCTTCACCACAGGGGTGAGAACAGCTATAGTGGTGACAGAAAAATCTGGAGTTTCTATGGTTCACAGGGCAGTTAGCCAAACATTGGTCTCCCAATAATCTGAAAGCCAGAAACATGAGAAACAGAATGAATATGGCTTGAGGTGGTGCTGACTTTCCAAGTCCTTTAAACCAGAAAAACACATTAGAAGAACTGTCATTTCAGCAAA
0.6472596323681137 ATTATTTTATCTGACTCCTCCACAGAACTGTGGACTTTGCAGTAGGAACTATTTTATTCTCTTCTTGCCTCCCTGGCTCCTGGCAGACCCTAGATGTACCTCGAAAATGTACTGATGTGTGAATGAATGAGCGGATGATGTGTTCCAGGCGTCTCACCAGCCTTCCTTTATCTGCACACTCTTCACTTTGCTAGGGTCCCTCTCAAAAACACAACCGGATCAGGAGTAGGGGGAGGGAGGAGAAGGGAGCTGCTGTAAAGCAACACACTGCTGTCAACATTTTTAAATGCGCATAACCCAAGAGAACATGCACAGTATATTTTGCGAAGTCAACTGGAAAGTGTCAGGGCCACACCTTACTGTAGTTGAAATTCAATGGCATTGAGCTCTTGATATTATAGATAGTAATTTTCTAGAGTACACACAATGGTGTGTGAACATATGACTGGGCTGGAATCTATCAAAGTACTTGCATGGACTATTACAGATCATTGATGCATTACAGTAAGCCATTTGTGGATATTTTATGATATGTACACAGACTAACATCACTGGGATAGCAAAGGCTATCAGAATTTCACCTGCGTAATAACAGTCATTT
0.4032112621175027 ATAATAAAGGTACCTAGAAGAGCAAAGGCATATCTATAATTCTATGTCAGGGAGGCAATGAATGAAGAACTGGGAATAATAACCTAATCAATCCAAAAGCATTCCTGCCTGCTGCTGTCTGCATTCTACCATCTGATTCTTAAATGAATGCTTTTATCCTGAAGCCACTCAGTGCCAAAAAGAGCCTGACAGATCTCCAATCCTGTCAGAACTTCCCTGTGTCATTGAAGTTTCCCTGACTCCCACCAATAGAGCACTTAATAGAAATCTAACTCACAGGTTCTCTTAGTTCTGACTCCTCATAGCAGAAGAGTGAGCTGGACTCAGCAGAAGGCTTGGTGGTATTGAGATCACTTCACAGCACTTCATTTCTGTTCCCGTTCGGGTTTTCACTTACAACCTTTATCT
1 TAAGAACTTAGCTCTCTCATTGTCCTTGCATCCAAATAAGGAAACAAAAACATTAAAAGGCTGAGTGGATTGTTCAGGTTCCTGTAACTTCCTAGTGGCAAAACCAAGGATAAAACCTGTAGTGGCTGCTGTGGTGCACTGCTCAGATGCCTCCTCCACAGCCCTCCTCCCCACCACAGTTTTATGTCTGAGACACTCATTCCATCTGTCGACAGCTGGGAGTGTTAGTTGCTGAGACAAACAGCCAATTTCCTCTCCAGGAATTATCTTCTTTCTCTGGGCACTGTCCTCTGCCAAAGGGAGTTGCCTTGCCTAAGTTTATACCTCCTCCCTAGGCTAGGGGCAGCCTCTGTGGAAGGGGAAATTAGAAAAATCAGCCTCTTTACCTCAATTCAGGACAACCCTGAAGGGTCATTTCAGCTCCAGAGCTCCCTCAGATAGCAGCTGAGGTCTTCATTTCAATTACATCACCGTTCAATTTCTCCTGTTCACTCACTTCTGGTTTCATTACTCTGTCACAGGTTTGTCCTGTTGGTACTTCCCAAAAAACTTCCTGCATGCAATCTACATCTGAGTCTGTTTTCTAGGGAGCTGGACCTCAGTTAGTCAGTGCCAGGAACGCTCTGAGGTTTTGGAGCTAGATTATTCATT
0.4224336879997105 AAAATTGTAATATATGGATACTTACTTGTGCCAGGCACTGCACAATCTATGTTTCCTGAATTCATTGTTCATGAAGTTAATGCCCTCATTATATGAAATATTGAAATCCATCCTCACAGTCCTTGCTTTCTGGCTGAGGACACACATGATCCATAAATCTAAAATGGGCTTTAGAACAGTTACAAAGTAGTCTGCCGATGAAGTGAGTGTGAGTGAAGAGAGCGCTGAGTAAATGGCTGATAAGGGAGGCGTGGGGAGAGGAGTGACGAGTCCGAGTCCTTGCAGCCAGAGGTAGGGCACAGGCGGGAGACAAGCTGCGGGTGGGGGACAGCAGGCACCCCAGCAGCAGTGAGAACTCAAAACTAGAGCAGACGGCTGTGAAGACTGGGAGCAAAGGTTCAGTTTGGCAGGAGGAATAAATTCTG
1 TTCTGTAAGGAATGTTCTTCTCTTGCTGGTTCAGGGTAGACACCTTTCTCATGGGAAATTTTATGGCCTGTTTAGGTTAAAAAAAAATGTGGAGGGGAGGGGTGGTCAGAAAGCCCTTCCTGCATCTGCTGTTTCTCAAGTGCCTTCAGCTCAAAGTCATCAATCTGCCAAAGTGGCCTATTTTGGGGTGGCATGTCCTGAGCTCCTTTAGAACAGATGACAGGCACAATGCTGGTGCCATCGTCAGCACCAGAACACTGCTGAGTTCTGTTTCAGACTTGTTGAGTGTGAGGTGATCATGGAATTCTCAAATAGAAATTTAAAACAGGCATCTACTTTCAGAAGAAAGGTCAGGATTTCTTTTTCTTTTTTTTCTTTTTTTTCTTTTTTTTTTGTTTGAGATGGAGTCTCGCTCTGTCACCC
0.5538512576155908 AAGTACATTTTATCAGAGGCTTGGGCTGCCCAGGGCTATTGGGGTACAAAGTACTGCGTGTTCAGCTCCCTGGGCCAAGAGCTACAGTAAGTCAGGCCCCCCTGCAAAGCTCCTCTCCTGTCAGCCCCATCAAGCAGCCTTAGCCACCTGGCGGAGACAAGCTTTAGTGTTTTTAAAGTGTGTGCTGCGTGAATGTTTCACATTTTTGGTAAAGATGTGGGGTCATGTTGCAACACTTAAGTGCTTCTGCGTAAACCTTGCGCAATTCCGACAGGCACTGGGTTCCTAGCATCAGTGGCATCCTCTGCTCACATACGGCTTATGTAATGTGTGATCAGGCCCCCCAGGTTTCTCCTTGTAGCCTTTGAAAAAAATTTCAGGCTCTGAACTTGGCCCTGGTTTCCGGCAGTTCTTTGCTCCGAAGGTGCGTGGAATGGCTCAGCTGTCAGCACCTGCTGGTGAGATACAGAAAAGTGCCACGGGTTGATCTTTCTCTGGCACCAGTACACAGGAGGCTGGCGATGCTCCCCAGATGGGCTTGGCCCGCCCTGAGGCACCCTATAGGGAAGGAGAGTGAGGGCGGTTCATCTAAGGAAGAGTAGGTCGGAGGATTGAACGGGGGCTGCTAC
0.5896067371801144 AAATTCCATCTCAGAAAAAACAGACACACAAAACAGCCTAACCCAAGATAGATAGAAATCTGTCAACAGTTGAACTATTATGGTTTCTATTATCGGATCATGCAATGAAAACACTTTAACCCTTCTTCACTTAACCAACTCACTCAATTAATATAGGTCTCTGTTTCCTCTCTAAAACACACTGACCTGTCACCAGACACCCACTGAAGGGATGCCGCGGGAAGGGTCTTGATTTGCATGTCTGAGTGCTTCTGTTCCTATCTGCTGAACTGTATGCTTTCCAGTTCCAGTGGAGATTGTGCCCACTCCCATTGATGTCCATTGTTATTATCATTTTACAATTTAATTAAATATTAC
0.5400880545299639 TCCATGTGTCTCATTCTGGGGCAGCAGCTTCCTGGCAGCATAGCACAGGAGGAAAAGTGCCAACTTATGATGCCTCCAAGACCCCAACTCGGCAATGGGATGCTGTCACTTTCCCGTGTCAGTCTCCTGGCCAAATGCAATCACATGGCAAAGCCCCAATGTCAGCACTCCTCCCACAGCCACTCCAGTGCAGGGCTACACAGTCACCTAAGGAGAGGGCAGTTGAGAACATTTAACAAGTCTGCCATATGGGTTCTCATAAGTCATGCCCAGAACATGGTCTCTGACACATGGGGTTGGATTGCAATGAAAAGTGATTCTGTGATGCACAAGAAGCTCCGAGGAGGCCAGGCAGGTGGAAATGCTAAG
0.6703232288734027 AGGTTCCTGCCTCGGGTCTTGCTGACAAGTGCGCAGGGCCAGCAGCTTCCCGTTGGCCTCTCCCAGGAACCCTGAGCAGAGGCCTGAGCCCAAGCAGACGCTGCAAGGCTGCTCTTCTCCCTCCCAGTCTGGGCAGCATGGTTTCTGCTCTGAGAAGCCGCCGGGAGCAGTTGAGATGAGCTGGGTGCCTGGTTAGTGTCTGCACCACCTTTCGGGGCCTGACATGTGGCGTCTCGCCTGTAGGCTGCGGCCAGCATCTAAGCGGAGCACTTGGATCTAGCAGTTATTCACATCTGCGGCTCCGTGTGTCCCCCTCCTAGAACCTCCCCACAACCCCCAAATTAATTGGATTGTGTAAGGTTTTCGTCACAGTGGATGTCAAGTGCTGGCCGTGTTAGGCACAATATAATATAAGCCTTGTATCTATTTCTTGTCTGAACCTAACTAAATAAAAACATCATGTTTCCCTGCTCAGTTGAGATATGTAAACCAGATGTAATTCTGCCTGCTGTGCAACTGATCATGTTACCCAGAACTTTGGACAAAGCTAGCAGAATATGCG
0.6431984778263158 CATTGTTCTCTCTGTCTGGAAACAGTCTATGTGCACCGGCCTCAGTCCCTGGCCATGATGGAATCAGGTGGCCCATCTGAGCCCCTGCCCAAACACCATCCAGTCTTCCTTGTGCCCTCCAGTGATTTGGGTCCTGGGCCCATTCTCTGTGCCTCTGTTTCCTCATCTGCATAATAGAAACAATTTCTCAGTTGATTTCCATTGAAAAAGTTAAAAATCCCATTAGGACCCACCCGAGCACATGGCATATGTTTTCCTTTAAACACGTTGCTGTGATGACACTCAGAAGAGCCTGGGCCACCTGGAAAGCATGGCCTCCTGGCTTCTCTGAATGTCATGCCATTTCCCAGGCCTCGCCTCTGTGTCCTTTCCCTCCCTCACCTCTGACAGTAATTGTGCTGACGAGAGAAGATGGGACCTGCTAGGCCCTGCATGAGGAGTGGCATGGATTAACTCATTTACCCCTTACGGTCCTCTGACAGGTGTCATCAAGTCCGAGTGACTGTCCCCTCTCAGCCTCTCCAGTCCACATGTCTCTCTCCACCCTCCTGCCGCTACCCTGGCACAGTCTGTCGGCGTTTTCCCCTGGCAGCATGCCACAGCCGTCTGGCTGTGTCTGCCTCCTGTCTTCCTCTCGCCAGCCCATTCCCCACA
0.7037416256810652 GGCTCCCATTCCCCAAGTTAGTCCCAGAAGCTGGACCCTCCCTGATTTGGTCCTCATTCTCCCAGAGAAGCGTGTTCCGTGATTGACTGTGTCCCCTCCCTCTGTCCTCTGTGCCTCTGCACTAAGTACCAGGAGGCCCTCGTCCTGTCCACACTCAGCCATCGCTCGGCCGGAGATACACATGCAGCTCCTCTAATCTTTCCCGGCAGCTCAGCCACCCCGCTCCCCTCACCCCCCATTCCATCCCTTGTTCCCCTTCCTCCTTAATCAAATTAAGGGAAAGAAGAGGATTTAGATAGGGTTGCTAAATATATTTCTGTTCAGGGGAGGGAGAAAAAGAGAAGAGTTTGGAGGAGGAGATAGAGTGTGAAATTCCTTAATAGAATGTGCTCTGAGAGCCTACTTTCTCCAGAATAAGCCGTGCAATCACCTATCTGGATAGAGTTTTCTCTTTGGCAAAGTGCTTTCACATACATTATCTCATTAAGATATGGGCCGGGGTGGCAGAGTGCCCACTCCCCGGAAAGGTCTGCCGAGGCCACTGGGCCTCGTGAGCTGGCCTGACCCTGGTCTATATATTTCACAGGACACCCTGGCCCCAAAGGGGTGACTCGGCTTTCTGTGGAGCATGACACCAGCAGCCGGG
0.8126402101048289 GGCACAGGAAAGTGTCACATAAGTGCCCACCATGATCTCCAATGGAAGCAAGTAGCACAGCGGGTTAACTTGCCTTGGGGTGTAAGGCCCCTTTAAAGAGGGCGGTGAAGTCAGCCACCTCTTGATAGAACAAAGGCATACCAGGCCCTGCCAGCCCAAAGCCGGGTGGCTGATGGCTTTTGTCACCAAGTGATAGCCTATCTCCTCGTGTCAGGGCCCCCAGGCGTCAGTGAGAGCCACCAAGTGGGGAGGGTGGCTTCTCTTGGGAGTCAGATTCAGGTGGACCAGGCCTGTGCCCAGCAAAGATGGGTGAGCCACATAACGGGGCACCCCCTGTGTACACAGCACCACTGGGACAAGCAGCATCAGCTCCCCGTGCCTCAGTTTCCTCATATGTGAAATGGGAACATGTAATAGAGGTCCTTCAAAAAGTTATCATGAGGTTTAAA
0.7633602209054333 AAATCTCAGAGATTTGATTGACACATAAAAATCCCCCACATTATGGAAGTCAGGCAGTGCCATAGTCCAAAGCTGCTTCTGGAAAATGCTTCAGTGTTCAGCCTCCACCTACGAATCCCCACTCAGAGAGATATCTCGGTGCTTGAGTCCCCCCGCCTTATCAGCAGGCATGACATAGATTTCACACAACACCTGGGCCCTAGAGATGGTTGCATAACCCACTAAACAAGCCACAATGCCTGGGCCTTAGAGGTTGCTACACACGCCATGGTGACATGCAGCGTAATTTTAAATGGACAGTCACTTTCACTCTTCCTTGTTTATGATGTGTTCATTTCAATAGTGCATTAGGAAAACTCTAACAAGGCGTT
0.7514362844127455 TACTGGAAGTGTATGATTAACTTAAGAAGCTGCCAAACTGTTTTCCAGTGTAGTTATGTGATTTCACATTCCCTCCAGCTGTGTGTGAGTTCCAGGCCCTCTGAATTCTCCCAGTGCTGGAGGGCATCAGTCTTTTTCATTTCAGTCATGCTAGCTGCTGCTGGAGTATTGCATTTTGATTTTGGACTGTGAGATCTCTAAGGTTCGGAATATTCATTCATGCTTTCAACAAATATTTGTTGAGGACCCATGAAGCACTGGGCACTGTGCCAGGAGCAAAAACAAGCATAGTCGCTGCTCCTCTGGTATGTCCAGGTTCAGGGGTGAGACTGACATTTAACAGCTGTGGGGTTACAGGGCCTTTCAGTGCATGAGAGGCCAGGAAACTGTGAGGCAGAAAAGCGTGACCTGTTCTTGTGGAGAGAGAATCAGGGCAGGCTCCCCTGAGTAAATGACTTTTTAAGAACTAGCTGGTTGGCTGG
0.5618997565717589 AGATCACTTGACAAAATCTTGTCAAGATTTACAGTAACAAAGACCTAGAAGCAGAGATGTTATTGATTCTGAGGAAATATCAGATTGTGCATTAGCATCAGTGTGTTTGCTTCTGAGGGAGACATTTGATGGGCACATTTTATTTTGATTCAAAATATGATAATGGCATGCACAGTCCCCATGCTTTCTTGCTGGCACCTTTGCATGAATTGCTGCCAACAGAACTCTTCGAAGCAGTGCCTTCCCTGGCTCTGGGACTCCTCCGCCTGCCCCGGCAGACTCAGGAGGATCCCACTTGGTGACTGTTGAGTGCTGACATGTCTCGATAGAAGGTGTGACTGACTGCTGAGCGGGATTTGCTCTCAGTAGTTTAGTTATGAAGTTCTTGTGTGTGAGTCTGTGTGGTGGTTTTAGCTAACAAATACGTACAGCACAGCCAGGTACAGTGGCTCACACCTATAATCCCAGCAC
0.908724994363502 ACTTAAATATTAAGATCTTATATCTAGAGATGTGGAGATATAATTTTGCTGACTAGAGCTACCATTTGGCCTCCAACCCAAAACAAAACCCAACAAATGTCTGGCCTCAGAGCACTGCTTAGCTTACCTCTAAGTGATTCTCTCCAACACTCCTGTGTAATCAGGTTCTCTGTCTTCTGGAATGATTTGATGTTGCCAGTTACTCTGAGCACACCCTTGCCTGGGGACAGGTAGAATGGGGATAAGTGAACTTATAACTTGCAGAATCTATGTCAGGATATAAATAGCAATATGAATATACCAATAATTATTACTCATATCTGTTCTATTTCAAAGAAGTGTGCACTTCATGAAAGGATTAGTGCTTACCCGACTAAACCTAGCAAAGTAAATTCTTGAATAAAGATATCAGTCTGTCAGAGATGGTGACAGTGTACAGACAGGCATATGAAAGCTTCTCAACCCCCAAGCCCTACCCAGTCTGGTCCGGTCTTTGCCAGTAGA
0.3826531712104194 CAGATGAGGATAAACCAACTGAAAGATAGATGAATGAGCTTTGATTATCTGTTCTCTCCGAACTGCTAGGCCTGATATGTACTGTATTAATTATTTATTGCTGTGCAATGAGTTACTCCAAAACTTAGCAGCTGAAAGCAGTAACATTCATTATGTCATGCTTTCTGTAGGTCAGGAATCCAGGAATGTTAAGTAGGTGCTTCTGACTCAGGTTCTCTCATGAGGTTGCAATTAAGGTGTTGATCAAAGCCAGTGTCACTTCAACACTCAACAGGGGAGAACCCACTTCCAAGATCACTCACGTAGTTGTTCTCAGGCCTAAAAAAATCCGCTTCCAAACTCAGTCACATGGGCCTTATGACATGGTAGCCAGCTGGCCTCCTTCACAAGAAAGAACTGGA
0.4069222712263886 TTAGAAGAGTAAGTTTGCAAATTAACACTTTAGCAAGACTCTGAATCAATCTCAAAGAAGGCTCTACTTAAGGATGGTTCTAATACATCTCAAGTCCAATGTGTGGTTGATTCCCTGCCATATGCTCTGAGTTTTATCAGGCTCAATGAGAAATACCAGTGCTTGCTACACAGAGATTTCTAATGCACCCTCACTTCTGGCAATAGTCTGGAATTTACTTCAGTTGATTTAAAGAATTTGTGAACAAGAATTTTATCTGAATTGTCATCACCTTGGAGCAACTGGTCAGGCTGAAAAGGTGTCCTGAATGGGGCTAGACACGTCAGCGAGACCTGCCAGGTGTCTCGTCACTCAGCACGGCCACTTCCTAATAGTAACAGGATCAGCCCTGGGGACTTGCTGATGGGCAGCATGGCAGGATGACCCCAGCCATCTCCACATGCACTCTGATAAGGACTGGCAGGTTAAATAAGGGCATATGCTGCATGCTGCTCCATCAGCACCTCCACTTGGCTCCTTCTCAGCCCAGGAGTTAGAATTTGTTGATGTAACCCACACCATGGGAAGAATGAAAACTCAAG
0.91672192592886 AAATTAAACTAATTTCATCATGGAACAGAAGAATGGGAATTGAGAATTCTCACTAAAAGGATGAAAAGGATATCCCAGCTGCAAGTTATCATAAGCTAGTTGGCCCATCATCTGCCCGGCTGCAGCTGTATCCAACTCTCAGCTCACCCAAAGAGATTCACGCTCTCATGGTGCCAAAATGAATGTCTCTCTTAAAAAAAAAAAAATTGCCCAATTGAAAATAACTCTCTAATCTGCATCCTTTCAATAGAACTGAAGTGCACTTCACCAACACAGAGCACAGGCATCTTGAATTAGCAGAGAACTATTTTTAACACATGAAGGATACGATATGAAATTAGTTTCACGGGGAATGAGAACCTTGGAGATTATTTACTTTGCCTTAATTACTCTGACTCACCATTAATTTAGCTTTCCTAGGGCACTAAATATTTCACGCTAAGATTTTCAGTATAAAGAGACAGGAGCAAAAATTTGGAGCACTGGAAGTTTGCAGTGGCATCTTCAACAATGAAACACAG
0.3254247683861235 TCTGTGTTTTACCATAATTCAACAGGTGCTCGCTAGGTCCTTTGAGAAGACATGTAATAGATATGATAAAGGCAGAGCACATCCCACAGTCATGTCGTCTGTGTTTCTCCAGGGAGGCATAGAGACTTTTCGTGGCAATTAATTATTCACATTTTCTGTCCTTCCCCTCAAATGCTTGGTTTCCTATCCAGCTCCACAGAGGCATGTTTCTCGTGGGGTGGGGGGGGGTGTAACTCTAACACCTGATGACAGCTTGAAGCTGCGTTCTGTGTTCTTTGCTTGTGTTTTCAGGTCATGTGCAGCGGGTACGTGCTAGTGATGGCCAGAGCATGCTAATGCCACTGCTCATTCTCCTTAGCTCTTCTGGGGCAGGGTCTTAGCCACTTACATGTCCCTGGTTCAGGCAGTGCAGAGGGGGCTCTGGGGGTCGGGTCTTCGTCATCCTGGCTCGCCTGCTCTTGGCTGCCTCCCAAACTGCCAGGCGAGCTGGTACTTGGTGGAATGCCTTTCAGCTCACCCCCCTGCTCTGAGGCCGGGCATTTCGCCCTTCTGCAGAGCTGTAAACATTCACTCATCCATGCAGACTTCAGCATGGTCTTTGTTACTGCTCTCAGGGAAACCTTTGTGTAACTGATAGAGATGGCACAGGGCTGAGCGCCCTGACAGCTCCACTGGAGAGTCTCAGAAGCCACCTTCTCCCGGGCCTCTTCACACCCAAGCCTCTCACGCCATGCTATAGGCTTTCTTGGGTGACTGTTATGCATTCCTTTCACTTGTGCACCCACCTGTGGTGCTGGCCTGTTTGAGTTGCCCTCGAGGGCACTGCTGAGATGTGAAGACCTGGGCATGTGCCAACAGGGAGGGCAGTTTCTAGCTTATTCTTCCTCCAAGACCTGGGGCCAGAGGAAAGAAATGTAAGTGGGTGT
0.7819577190252405 ATTTTGCAGTTTGCATTCTATAGAGAATATATTTTTCTCCTGATTGTAATAGGATCATATCTAAGCAGACAAAAGGGGAACTGGATCTATTTTTAAAGCCATCTAGTTAACATACCTTCACAATGGATGTGTAGGAAAAGTCATCCCTTACACAACACCTTCCAATTGCTGACACCTTACAGCCATTTTGCTCATTATATCTCAAGTGAAAGCTGTGCGTGAAAGCTCAAAGCATAGAAAAAGTGTCAGGGAAGTTCCTAATAGCTGAAAATATTCCATTTGTCAGAGCCTTGCCTGGGCTAAAAGGACAGAGATTCAAGGTATTGCTGAGACTGTAGTTGGGTATGCTCACGAGTGTAG
0.6262650177651109 TCCACAGCATGATATGAAGGTTCTTAATAATTTGTCCCCAATCTGACTCCTGTATTTACATTCAACCAATATTTTTGAACACATACTGTATGCCAAGCACAGTTCTAGAAATTGGGCATAAAGGGGCAAACAATACAATCAAAGAATTGGGGGCTATTGGGAGTAAGTCTATGGTTGGGAATTGAATTTACAGTTTTAAGTAGGCTTACCAGGGAATGAAGCTCTGAAGGTGATGGGGAAGTGGGCTATGTAGGTGCTGAAGTGAAGAGAGCTGTAGTTATGAGGAAACAGCAAGTGAAGAGGTACTGAGATTTGACTGTGCCTGGAATGTCTGAGGAACAATAAGCAGGCCAGTGTCACTGGATTAGAGTGAAACAACTAGTAGAACAAAAGGTCAGAGAGGTGATGACAGCCAGTTCTGATGGGGACTTTGTAGGTCCTTCTAAGGCTTTTGGTTCTCATTCTCACATAGGAAGACACTACAGGATTCTGAAGAGACAATGATGCAATCTGTTGTACATTTTAAGAGAATCACTGCCACACTCAGAACAGAACAAATGGGGTGAGGACAGACGTAGAACACAAGTTGGGAGGCTACTGTAATAATACAAATGAGAATGGCTGTGGCATGACCCAACCTGATAGCAGTGGCAGTTTTCAGAAGTGGTTAGATACGGGATTTATTTTGAAAGTGGAAACGATAATATTTGCTCCCGAAGTGGATGTG
0.2530448932397847 GGTCCCCTGTAAGTCTCTAGTTACACTATTTTCATTAGCTTATTAGCATACATCCTTGTTTTATGTGTGTTACTGTTTAAAAACTCTCATTCTCTCTCTCACACACGTGCACACACACACACACACACAGAGACAGAGAGAGAGAGAGAGAGAAAGAGAGATTAACATTGCACTTACAGCCAGTGGCACTCAACCAACACTCTAACTCGTCTGAGTGAAGCTTATCTGACATGCATATTTTCTTATAAGGCTCATCACTGCCTTCTGCTTAGGGACATTAGACAGCAGTTCAGCACTACAGCTGGGGGCCATTTTAAACAGTGAAATCACCAAGGAAAAGCACAAAAATGCAAAAGAATTTATATATGGCACTAAATAGACCATGAAAGGGGCACTTGTTTAAGTGTGACAATTGAAACAAGGCAAAGCATTGCTTTGTTT
0.4105949397229455 GGTGGCTGCGCATAGATGTGGAATTAGCCGGACTCAGGGTGAAGCCATGATTCTGCTAGTGTGGTCTTGTAACCTGGGACATCTATCTGAGCGCCCTGTCAGCGCTTCTCTGCATTGTAAATGGGAGTTGTTGCAAGGGTGAAATAAGACGTAAGGTGTTTGGTGCAAGGTCTTGTGACAACTAGCACTAAGGAATGGTGCCTATGACCTTTATTAGGCAGGAAGGAGTCAACAGAGTGAGCTGCTGCTGCAGGGGGTTGGGAGCTCTTGCAACGGTGGCATCGAGAAGGTTGTCAACACAGCCCTGTCAACGGCTGAGGGTGGCAGAGTCCATATTGCAAAGGAGCACGGCATAAGTGGCGAGGCAAGAAGTAGATGGATGTTCTATTTTTTCCTTTCTCTATCTGGACAAAGGTCTTTTTCCTTCCAAGGTGTAGCTGGATTTTCTCTCTATAGAGCTTCCCTGGGGCGGTTCCATTTTCTAGTGTCTCCATGAGTCTTTGTTCTTTATATGAGGTCCCAATGATGCCATCCACTCATTTGCTTTCTCACAGGCATGTTTTCCACCAGCCACCCACGCTGATTAGCTTGAGAGTGACTCAAGGCAGGAACGATGCCCTTGTCGTAGAACAGCCTCTGATCGAGTGCTTGCTGAACAGCTGGCTAGCTCTGAGCATGAAGCAAAATGCAGGAAGCTGGGGTGTGTGAGGAGGAGCAGGG
0.8395431157131586 ATGTCCCACAGCTCCATGGCCTTCCTTGTTCTGTCTTCCACATCTGAGAGCAGGGATTGCCCTTATCCGCAGTGAGCATTTTGTTTAAGTAGCAGTGAGTTCACTCCAGGCAATGCTTTGACACTATAAATAGACGTGTATTTGACATTCACACACGTGTCTGTTGAGCTAATACAGACAATCATTTGATGAACCTGCTAGTTAGGAAGTAGCTGTGATGTGAGAAGAGACAGTGCTGGCTGTAGATATACACCAAATTTCCTCACTTGGCTGTTGATACAAGGAAAGCATCTTGATACTAATAGGAGTAGAATGCAAATGATACTTCTCTACCTCCGATCATTGGATTACATTCCTTTTCTCTGGGGTGAATCTTTAAAATGCTAATGGCCTGAGTGCACCAACATGAAGCACACAGTACCATCTGATTAGTTGCTTTATGCATCCAGAGAGGGTATTTCTAAATCTCAAAGTATGATTGAGTGTCAAAAATCCATTTGGGGGAGGGGCAACTCCTGTGTTGTGCTGCTTCTATAACAGCACAAAAAAGTCTTCCAGTATGTTCCTGCCAGCAAGGAGTTGGCAGGGCGGGGAGAAACAAAGGCTGTCGCCTTTCCAGTGATGAGTGCCTGTAATATGAAGCCGGGAGTCCTGACTCAGCACCTACAGCAAACCTGGGTTACCCAGGGCTTGCCACTTGTTTTGAGAGGTTCTTAAATTCTTAATTTTAAAAACAAAGTAAATTGCAGTATGACTCATATGAATAGTA
0.9992634609389125 CATACCCAGTAATGTGCTAGGGGAGGCTGAACTAAAAAAAAATCTTAACCTTCTTGTTAATTAAAGGGTCAACTTTAGAACTTCAACACAGTACTAGATGAGAGAGCAAAACCAAACAGAATGATGACCACGCTGGAAATTCCTCCCTGTGTGCTGCTGGCGCTGACATCCTGATAGAGTTCAGGCGCCTGGTGAAGCTACACAGACGGTGCCTGGTCTCCAGACCACATGCTTTTCATCTACGTCATAAACATGAAATTTCTGAATTGTTCCATTGGCATTTTCATCTCTGTTTAGATAGAGATGTTATAAACTTTAGTTATATAATTGGGACCCATATCATGCCAAAGTAAAAAATTTAAACATTTCCATTCACTTGCCTGAGACCTCCTTCTCCTAATTTTGCAAAGCTGACTTGGTCATTTCAGTAACTCACAATTATTTACTCTGACATTTTGGGATTACATCAGACATTCTATG
0.9200687103658173 AAAAATCTAAGTTTGAGTCTGAGCTTCGCCAGTTATGCATTTTGTGACATCAAGCAAGTCACTGAAACATTCTTAATCTTACTTTGCTCATTTCTAAAATAGAAATAATAGCTCCACCCGTATCTAATCCTGGGATTGTTTTGAGAAGAACATGAGATAACATAAATGAAAGAACTCTGGGAACTACAGAGTAACACACAATGCAAAGACATTATTATTGTTATCTTGGCATGTGCCTGTTGATGGTCATGACAGAAGCAAGGGTCTGATGTTTGCCATGAGATGTGTCGCTAATGCTCCGCAGTTAATAAACGTGATTATCATAATTGCAAATTAATTTGTGTTCGGATTCAGTTACTTGCAAGGCTGAAATGTTTGTTTTGACACCAAGTGAACAACTTATATCAATTTAAATAG
0.6035133469891182 CCAAAGTTTTGGGACAAAGTCTCCCGTCCCTTATCATTTGTTTTCACTGAGGCTAAATGTATCTGTTCAGTACATGGATAGATTTTTAAGCTCCTCTCACAAAGTCTTGTGCTTGAGACAAAATCAGCCCAGGTTCTGCACTTTGTCTATATTTCAGCAGCTCTCCTGCTTGATATTAAAAATAGCCTTGTCTAGTCCATCGAGATCAGACCCAGGAGACAGGCGCCTGCTATTCTAATCTCTGCTTCACAAATAGCTCTCTATGGGCTCAAGCATCTATCAACACTTCCAGGGGTCTCCAGTTATAAAACAGGGCCAGGCCTAGTCACCTATAAAGGTAGGCTCTGCTTAACTCCCCTGAGCTGTCCATGAGGTTAGCATGAGGCCTACAACAATCACATTTCTACCATGGACCAGAGACTTCCAATGGTGACTCAAAACTGAGAAGCAGTTAAGAGCATCCCCCACACTC
0.7506998791199767 TTGGCAAACTTTTTCCATTAAGAGCCAGATGGTAAATATTTCAGACTTTGTGGGCCATATGGTCTCTCTTGCAACTGCTCAACTCTGATGTTATAGCTCAAAAGCAGTCACATACAAGACATTAACAAATGGGTATGGCTTTGTTCCAATAGTTTACAAACCCCTGTTCTAGAGGGAAGACAGATATTCAAAGAAACCATTGCAATACAGTGTGGTAAGTGTTACCACACTTAGATAGAGGAAGTGGGGAATGATCTAGCCTGTCACCACTCATTGTGCAGTCTTTAGACAAGCTGCATTGACATCACCAGGGAGCCTGTGAGGAATGCAGATCCTCACACCTCATCCCAGAACTGTGGAATCAGAGTCTGCATTTAACAGACTGAATTTTTTGCCCAGTCCCATTGGTAGCCATTTTCCATATGATGCAAAAACTCTTGATAAAT
0.7573347699647823 CGTCAGCGGCTCAGGAGCCAGGGCAGCCAGTGCGGTTGCTAGGGACTCCCCAGACAGGAAGGAGAAGACCGACGGGAGGGAGGGTGAGGAAGTGCAGGCGACGCTGTGGCCCTGGACCAGGGCCCCTTCCCTCCTGCGTCTCCACCCCTTAGAGGAGGTGTCTGTCAGACACTGTCCCGTGTGCCTGTGCCATCAGCAACACCCCAGACATGAGTGTGCAGTGATAACTGGAGTGTCACTTCCCTCCTTGTCAGAGCCCCAGCCACTGCGGTCACATTATTTAAAAAGCTGGGCTGGCATCTCCACCACTCGAGAGCCTCCCCAGGAAAGGAGGAAAAGAGCTTCATCCTTCCCTCCTTACCCAGCCCTA
0.4559107665254058 GGCAAGTGGCACTGAGCAATGTGGGGTTCAGCATTGAGAGGCTGAACAGCCTACGGTCCCTGGTTTCTAGATATTAAAAAAAAAAGAAAACTCCTTAGCACCCTGATCTAATGAGAGCTCTGGGGTGTGAGTGTTTCCCTGTCACCGGGTTTGTGGATGGAGAGGCTGTTATTTCAACAGCTAGAGCTGCTCCTGCACGTCAGCCACGAAGTCCTCATAGTGATGAGAGTCTGGCCTGGCCCCACTGCTGTGTGTGAACTATGGACTGTTGCCTGCACGTGAGCGGCAGAGGAAATTGGGCTCC
0.6314567299395279 CTGGAGTCAGACTCCAAGGCCAACTGGGCTGGGGCAGCTAAGTCCAGAGAAGGACCTCAGGAGTCTGCCCTTAATCCTGTACCCAGGACGGGGCGGGTGAGAGGCACATGCTCAGATTTGTTCCTGACATGTAACTTCAAGAGCAGTGCTACATATTTTGCTTATCTATCCAGAAGACTGACTGCATACAGATGAGATAGGGCGTGGGGGGCCAAGTGGGAGGGAGCTCCAGGAGGTGCCTCCAGACATGGACCAGGGACAAGAGGACAGCTTAAAGAAAGGTTGTGGGAATTGAGTGCAACATTTCGGGTCTCAGCTTAGATGTCACTTGGCTGGGTAGCCTTTCCTATCTTGGCAGTTCTGGGTGACGTACCATTTTCCTAAGGGATCTTACAGCACCAAGACATCTTGAATCAGAGCTCTTAACACCTGTATCTATAGATTAGCTGAACAAATTCATTAA
0.04908828725024115 CACAGGGCCCTGCTATGAGAGGGAAAGCCACTCAAAGGTACCCTGACCTGGCTACCTAGGTTATGAAGACAGACCCGGCCGGGGTCCCTAACTGAATGCTGTCTGAACAAAGTGACATACTGCACAGGGCTTTAAAGCAAGTGTGCAGTGATGGGCAGCTCTGTGGCTCTAGCGAAGCCCTAACAGGCCTCTAAAGCTGTTAACAGGCTAACAAATCACAGCTCACCCCACACCATCAACACTGGCAAAGACCCTTCTTCCAAGACACACACACACACTCATTCCTACAGAAAAGCAATACAGAAGTCAAGTGCTCTGTTTGTGGGTGTTAAGTGGCACCCGCTCAAGCCTGCTGATTTTAGCAAGCTACTCCCCGCAGTCAACAAGTCATTCGTGGTAGCAGTGGCAGCAGCAACGGCAGTAGCAGCAACAAACCCAGTAGCTAAACTATCAGAGAAGGGCACGCCATAAACCTGAACCTGCCCCAATCGGTTTTCTTTTCTTT
0.9011525075785161 GTAGCCCCCAGTCACGTTCCTCACGCTTACTTGATCTACCATGACCTTTTCACGTGGACCTCTTAGAGTTGTAAGCCCTTAAAAGGGCTAGGAATTTCTTTTTCCGGGAGCTCGGCTCTTGAGACGTGAGTCTGCCGACGCTCCCAGCTGAATAAAAACCTCTTCCTTCTTTAATCCGGTGTCTGAGGAGTTTTGTCTGCGACTTGTCCTGCTACACTATGTGTAACTAATTCAAGTACCTTGTCATCAGTTCTGCCTTGCCGGTGATCTAAATGGACTCCCCGCAGGGAACAGCACTCATACTGCAGAAGGTCTTTTCTTTTGCCTTTGGGTAACTGGCTTTTTACACTTTATTGAAATAATTCCTAAGTTGTGATTTGCTTAGAAAAATTGAGATTAAAATGTTTTTAAATTAAAGTTATTACATCTGTGTAATTTTCTGTACGTGCTTTTAAAATCCTTATGCCATTAAGTTACAGG
0.4459724924242027 AAAAGAGTGAGGGTGAGGAGGCAATGAAGAATGATCCTGAGTGCCTGGTTTAGGTGGAACCATCTGGCACTTGTCAGAGAAGAAAAGAATCAAAAGGCAGAGTCACAGGTGTGGGAGATAACAGGCTGAGCATTGAGTTCTGGGGCCCGTGGGACTGCACGTGGATGGCTTGCAGGCTCAGCTTTGGCCTAGGGAGTCAGACCCTGCCTGCTTCTGGGCCCCAGAGCCACCCCCATCCACTTGTGATCTGGGAAAGTCATTTAACACCAGGACCCTTGTTTTCTTATCTGTAACATGGAGATGCTGGTAACTCGTGCCTCATAAAATCACTTGATGTGGGTGAGAGAGAAAGCTAAGTGTTGATGACAGTGTGGGCCTGACCGTGCCTGAGTAAGCCCCATGGGAACACAGCCGTGGTGGGAAGCAGCTTCCCAGCAGCCCTCCCCGCCATCGGGAGAATCCCCTGAG
0.2525208209873351 AATGGTGCAGGTTAGAGCAAGAAGCCCACCCAAGTCAGCCCCGTTGCCTCCCACAGGGACTGGGAGCAAAGCCAGAGTGAGAGCCTCTGGAAGTTCGCATTGCAGAGGCAGCTCCCAGGACCTTGTGGAGACAGTTCTGGGTGGTGGCAGATTTACATTCTCAAGGGGCAGCGAAAGCCTTCACAGTTGCAAGCTTTCTGAAGTGGCTGCTCAACGAGAGGGTTCAGGGGCCTATCCACCTGTCACCAGGTTGTGGCTGTGACAAACAGTAAATTCTCCTGGCAGCACTGCGCTCTCTCGGGCAGGCCCCTGAGGGTGACTTGGGGCATCATCCTAGGGACACGCCTGTTAACAGCTATGCTGGTATTTTTATAAGTCTCTTAGTGATGGGTGGGGGGTGCAGAGGGACAAAGTCATTTGCGCTGAGAGTCTGCAGTTTTTATAGACCAAAGGTGACGCTGAGTGGAGAAGAGGGCTCAGTAGAGGCTGACTGGTTTGGTCAAGGAGAGATT
0.9408898575609368 AAATGGGTGAATGGCTCTGACAGGGAAAAGTGGGAGCTTCCCTGACTAATAGCTGAGATGCAAAGTATTTGAAAAAGAAATTAGAAGAATGCATTATCTAGAGACATTTCCTGCCACCAAAACACTCCCTCTTAGGCCGATGACTGAGGAATCCCAGAAGGCATTCTCCCCTGGATGTGGCCTACATCAATGGCACATTTCTGAATTGTCAGGCTGAAAGCCCATCAATAGTCGTAAGGAAAAGGATGTGTCCTCATTGGGGGTGTGTTGATGGATCTGATCCAGAACATGAGAGGTGATTCCTGGGTTACTTGGATGCTGGACGTATTTGGGTCTGGTGACGGTGCTTATGATTCTAAATCAAAACCATTCTCCCTGCTTCATTCAGCGCATTACATAATACGAGTCGGGCTGTCTACATGCATAATTATC
0.6074494937838298 TGGTAAAGGAAAACCAAGCTACTGTTATCTAAGACAATTTTCTCATTTAGTTCCAAACTAAAACAAACAGCAATGAAAGGTCATTAGTCTCACAGACTAAAATTGTTTTGATGAAGGCCAGCTTTCCATTCTGTTGACAAGCGTCTCAATTCTTTTCAACAGCTCTAGGTGTTCACACTGGAAGAATGTGGGGCAGCTTTGGGGCAGTCATCAGCCTCAGGGAACCAATGGCTCCTGGTGACAATTTGCAGAGCTGCCACTAGTCAAACTGTTCCTCCTCCCCTATTTTTTTTATCGAGATTGGGAAAATTAATAATGGAAATTTGTTCTTAGTGGCAGATTTGAATACAAACACTGCTTGAATTTCT
1 TTAGGGCTATGGAACTAAGCAATTGGCTGTTTTTCAAAGTGTCCTGAGTTTTCTGTTCCAATCTATTAAATAAATAAGGTATTAAATACTATGAGAAAACTGAAGTATAAAAACAGAAGAAAGACCTAAATCCAGTGCTAAGGAATTGCAGCTCCTTCAGTGACTCCTTGCCTGAGTGGGGCTGTTTACACATACAAGGACTCTGTCTTCTGTTTTACACAGGGAAAGACTGCTGACAACTAGCATTGTGGGGTATGTTTGCATGGCTCTTTCCAGAGTTCAAATCAGAGCACTGTAATTCAGCCACATGATGTTAACCACTTGTCCCTAATTTCGAAATTATTATGGCATCATTTTCTTTCAGAATTATCGATTACTGTTTATTTATTGATCAAGACTAGTAATAAGACCCAGAATGGTAAAGAGCCGACTCTGTCCTTGAAAATGTTCAGAAGAAGCACCAGTGG
0.5409075140456616 TCTTGGAAAATTCCATCAGCGCTCATATTTTCTGTGTTTGCTGTCGATTATCTAGCATTCAAAGCCCCGCTAACGTTCAGAGCTTCTTGTTGTGTGACATTCGCAGGTTTCCTTTTGGGACAGGTTTGGATTGACTTCCTTCCTCTGCCAAGAGGGCAACCAGCTGATGACAGTTTGGAGAGTTTGTGTTGGCATCAGACGGGTGCTGGTGATGTGCCTGAAAGTCACTCCTGAGATTCTCGTTTATTTCTGTCCCAGGCTGGAGTTTCACAGGCAGTGGATGTTAGTGGGTGGCCCGAACCACCCTCATCCTAGCTGTAGACAGAGGCAGCTTCACTCAGCAGGGAGCCTTTTATCCTCAAGA
0.5261839227496622 GAAGAGAAAGCCAAAAGAAGAAAGGAAAAGGAAAAAGGAAGAAAGCATCTTGGCTGTGAGTCTCAGAGAGCATTTGTTGAAAACAAGATATTGTCCCTTTAAGCATATAAAAACAAGGCCCTTGAGCACGCAGTTCTCACTCTGGTACACAATTATGGGTGCTTTCAGCTGTCTAGCACTACTTCAAGTGCTCTCTTAAACCAGACTGTCAATGGCATGTTGAAAGCTATTTTGCTGGCTGCTATCATTAATAGCAAAGTGGAGAGCTGGGCTGATGAGAATTAAATATGGGGGAGGGGGCGGGTCATAACCAGTCATTACAGAATTACCAATATGAGAAA
0.635866148874444 CACCCGGAATGTAACGCGGCAGAAACCGGTCTCACTGCCTGCCACCAAGCAAACGTGGCCTGTTCTGATGGCTCAGTGGCCAATGTCTTCCTGTCACCAAGCTCCTCCAAATCGCGGGGGAGATTGTTTTGACATTTGATTAGCCACAGAGTGTAACTTGTGAGTGCTTGAGCAAGCCGACTCTCAAGCAATGGCATCGCTGAGTGCTTTAGCCTGTTAGAGATACCATGTATCAGGGAAAGCGATGGCGGGCAGGGCTCCAAGAGGGAAGATAAGTGGGCTGTTGGGAGAAATTAATACGAAGAAAGGAAGCGGCGAATGAAGTCAAACGAAAACAGGGTCCTGTGATATCCATGACTCATAAATTTCATTGATAC
0.7305484510485357 GCACTCAGGCCCAGCCATTAAGGAATTCATTAATCAGAATCCTGTTTACAGCTCTCTGGCAAGCGATCATAATTTACTGGCTCAAGCCAGACCCTGGGCCTTCCTGCAAACTGCTGTGACATTTGGTAAAAATATCAGCTGGGGACTGGGCCAGGCCGGGAGGTGTGTATGCAATTCATGCTGACTTGTGAAACAGAGGTGCTGTGTGGGTCACAGGCACTAGGGAAGGCTGGAGGACAGGCTGTCACTGGTTCCAGGTGTCACCTTGGACAAGTCACTTCCCTGTCATCTCACATCTGTATTGCAAGAGGTTTGGAGTAAGTCAGATGGCAAGTCTGTCAGCCCACAGACTCGCCCCTTGTGCTCTGCACAGGATCCACTAGCATGGGTTTTTTTTTTTTTTTTTAAATAAAACAATAGAAAATGGAAT
0.4564698637589556 TGCCCCACATAAGAATGCAGGGCAAGACTGGGCGCTTGCAGAGGTTTAACTCACCCAGCTGGTCTGCACAGGCCAAAGCTTGGGGAGCCCCAGCTTCCCTGGCTCAGGCCCTGTGCAAACCAGTCTCTCGCCCTGTCAGAGGGAGGGACTGCTCCCTGGAGCCCACCCAGCTGGCTGGGAGCTCTCTGCGTGCCTGCCACTGTGTGACAGTCATGCGATGAGAGGGAAGCTCAGCACATGTCCCCAGCCACCATCAGTTGGCGGTTCCTTGAGTGGAGGGATGTCAGAGGCACGTCAACACTTTGGCGGCTGCTATTCCAGGCGGGCGAGGCAGGCAGAGGGCCTGTGGGCGCCTGAGTCTGCAGAGCCAGCCCTCGGGGGAAAGGAGCCAAGACACAGAAGGGGCTCAAGCTGCCCTGCCCCTCACCCCACAGCCTTTGGGGGGCTGGGGAGAAAGTCGGGGATCAGAGAACTATTTTTTC
0.7426497022748945 TATTATTTCTATGTTTTATGGTACATAATGTGCTTAGAACTTTAAATTCTGAAGAAAACCATCATATCCTTGAATAAAAACAAGTACTGCGATTTTAAATTTGCAGATAATTTCATAGAATTATAGATTTAACTAATAAGATTTTTGACTTCTGCGTACCTTCACTGTTAATCCAACAGAATATTCTCTGAATTATAAAAATACCACGAAAAGAAACCCAGCTAGTTATCAGAGTTGTCAAGAGAATGATTGGTCACAGCCAGCACCAGGGAAAGAGAGTCTCCCAATAGACAGAAAACACCTGGAGCTGGTGACAGCGGCTTCCTGATAAGATCTCCGGAGCTGGGTGAGCAGGCTCAAGCATGCGCACTAAGAGGCAAAATGGTGGATGTATGACCTTCTTCAGGGAGCATTTGACTGGTAAAGGAAAATAGCCCCTAGAGAGCAGGTGCACAACCTTAGTAAAGGCACTACACATGTGGCCCCTCCTAAGTGCTGACAGGCCACTATGCATGCAGATAGCCTGCCCCCAAGAGAAGAATCAAGGGAGGAGAAATGCAAACCCCAAAACCAAGCCAGTGCATAAAAATCCCAAGCCAAGGGC
0.7018268297408858 CTGTTGGAGCTCCATCCCCCTGGAGGGTTTAGGATGGGATGGATCTGGCTGGCTTGGTACGGGGGCCTCTGCCCTACCCAGGACCCACCAGAAGCGAGCCTCCATCCTGGAACCAGGCGCTCGGCCTGGCTGACCCAGCTAATCCGGGCATGGGCAGCTCAGCCAGGTCAGGAGCATATGGCCTCCCTCCTTTGCCACTTCGTGCTGCTGATTAGGCCTCCTCCACAAGGAGATAAACCTGCTGGAGGAATTTGTTTTCTCTGGCAGCCCACACTCTGTCCAACAGAACTGCAGGCTGACTCACTGGCGCTGGTTTCCTCTGAGCCCCCGCCCATGCACGGCCTGTCCGGGCTTCTCCCTTTCAGGAGGCACTTCCTGGCTTGACCTACGTGTCCTGGGAGTTTCTGTCTTGTGATTCGGGCCCAGCTGCCACCACA
0.6598015734270102 CTGCCCTAGGTGGGACCCTGTCCCCGCCGTCCCGGCCTGCGCCAGCACAGCCCCCAGGACCCAGGCACACACAAGCCCGTGGCTGGCCACGCTCCCAGCAGCTGCGGGCCGGCTTCAGGGAGGAATGAGCCCCTGTCGGCACCTCGTCCAGCTGTCCCCCAGCACCCCGGCCTGGCAGCTCCCGCCTCCTCGGGGCCATTGTCCCTGGCATGCGGTGGCAGCTGTCTCTGGCACCCGCAGGAAGCCAGTGTGGGCCCGAAGATAATCGTGCACCCTTCATTTACCCCAATTTTTCATGTCCTGAAGTCTGGGTATGGAAGGGGGGCCCAGGACCCG
0.6317396607330563 CACAGACACCTGGAGAGGGAGGTATTTCCACATGGCTGTCTCTTGTGCCCGCTGCTCCCAAAGCCCGTTCCCTGCCTGGCTGCGGGCAGGGACCTTCCCCCACAGCCCTGCCCAACCACGATGCAGCACCCCAGGGACACGGGCAGCTGAGGACAGCCGCCCAGATAAGCTCAAGTGTCCACTGAGAGGCTGGCAGGTGGTGACGCTGGGAGTCTCAGTCGGGAGGAGGCCCTGCCCCGGCGCACCTGGCCTGGCTCTGGCTCTTTGGGGCTGCTGTGGCTGTTCAGCCTCACCAGGTGGCCCCGGCTCAGAATAGAG
0.9274601557470802 CGTGTGTGCATATATATATGCACACACACACACATATATTTTAGAAAGACACTTGCAAGCTCTCAAAAATGAGTTGCTGCAATACCATTCCCTCTGCCAATCATATGGGTTAAGGCTGATTTTATTGCCAGTCATATCGTACTCAAGTTGAAGTGCTAAGAATGCTGTCTTATCCCTCAGCTAGATTAGTTTTAAAAGGTGATCCTGAAGTCCTGACAAGCACAGAGTGAGGATTTACGAAGTGACAAACAGATGCCGACGACATTTACTGTGAGATTTCTCATAGCTGAATTCCCAGTCCTGGCCAAGGAGAAATATGCAACAGGGGAGAGTGAAAGGGGCATTTTAAGTTGGGATTTATAAACAATCAATTCTC
0.5431347609461773 GGGCACTGCTGGGACTGGGTCTTGTGGCTCTATTTTCAAGACCTTTATTTTTGGTTATCAGTGTTGAAACCTGGAAATACACTTTCTGTTTTCCGTTTAAACACAAATCAAGCAACGTTACCAACACACATTCTCTGTCAAACATGTCAGTTACTCCCGGGGCTGTGGACAGCTTGCAAGCGATGTCTTCTATTGTTACTGTGGTGGTGTGTTATTTCTCCCTCTACAGCTCTGCATTTGTTTTGGCGAGCAGTGTAAACACTGAGGGGCCTGCTCTCGGGGAGGTTTTGACAGAACATGTGAAATTGACATGGACCGTCCGATGACCATCTTAATAAGGCTGTTCGGGCAGCCCTGTA
0.352930935379534 GACAGTACACCCCCAAATTCATGATCACAGCAGCTGGAATGTCAGCTCTTTTTGCAGATTTCACAGCCGACACTCCCCATCAGGCAGGTTCTTAAGCACACTGGGTCATGACAGGAAAGGCCTCACAAGAGCAACACGGAATTCACTGGTTAAGCACGTACACATTCATGACAGCCTACAACCGTGATGAGTGTCAATGTCAACAGGCAGTTAGATTAAAAAGGGGAAAAAACCACAGCCACAAAAATAAAACCTGTTTTCTCCCCCCCAGGAGACAACTTGGTTTCCAACCCCTCCCATACCACATTTGATTAAGTTAAATACAGTGCGGCTTCCAAATGTGCCAGCCGGCTCTTGCTCACAGCGACAGCACCAGCGGTTTGCTGCCCTCAGGTCTTGGTTACCATGTGTCAGGAACTTCAAAGAGTGTGGCAGGGCTGTT
0.9528810379060862 GTCAAGAGCCCCTGCCCTTGGACAAGCAGTTTGCCCTGCAGCCAGCTTTTAAAATAACTTGTCTTTTCTCTTGTGGAGCAAGAGGACCTTTCTAAGCACCCAGCTCCAGGAAGCAATAGACACGTCCCTGCACTCATGACGGGTGTTGGGCATGGAGGTGGTGACACATGGCTTCCTGGTGTGATAGCGGGTGTGTCAGAGACAGACGCCATCTGGAGTAGAGGGGAGGGGGGCTGAGATTGAGCTGGCCACACCCGGTCCCTTCAGCACCTACTCCCATCCAGGGACACTTCTAGGGCCTCTCTGTCCCAGTCTCCTCAAATCTGTCTTTCTGGGGGGACACTCCCCCTGACGCTAACACACAAATTAAGCCTTTGAGGATGAGGTCATCTTCTTGATCCCCAACTAAGCCCAAATTCTGAATCTTCCTCCCTC
0.62191014378566 TCCCCCTGCCCTCCCAAATCCTACCCCAGGCCCTAGAGGCCAACTGGGGAGGAAAGAAGAGGCCTCCTTTCTCTCCTCCCTGCCATCCCTGCTGGAGCAGGAAGCCCTCCACCTTCCCCACGTGACTGTCCCACTCTAAAGGCACAGCCTCATCCCTCCTAGTGGGCGGCGGACTCCAGTTTCAAGCACTAGCCTTTTCTCACCTTGGACTGCTGAGCCATTGTCAACACTTCTTCCGGGGGACGTCTCGAAGCTCCTCCCAGGCTGAGAGTGAGAGTGTGAGTTCCAGGGGCACTGGGTGCTTTGCCTTCTTGTAATAAATGTTTCCTGCACTCCTACTGTGTGCAGAATGTGGTGCTGACAGTCAGTTTCTGCCTTGGGGCTGCTCCAAGAGAGAGCGACGGTGAAACTGGACCCCTAGATGTAAAGGGAGAGGCTCCAGTGGAATCTAAACATAGGGCCAGTCATTCATTTGCCTATTTTTGAAAGCGCTGAGTATGCATCAG
0.7799836863592435 CTGCGAGCTCAGAACGGAAACCACAGCAACTACCGTCCGCGCCGCGGTATTTCCCCGCCTTCAATGGAGGCGGAGGGCCGCCCGTTGCTTAAAATGAATCCCTCCGCCCATCTGAGCCCGCCCCCCGGGAGCGCGGGGCCCAATCCCGTTACAAGGACCACGGACTTCCGTTTCGTTCCGCCTGTAAGTCCCGCCTGGTCCCGCCTCCTCCTGAAAAGAGCTCAGTTGTCAAGGAACTATTTTTCTTGCCGTCGTCCCAGAGATGCCTTTGGAAAAGCGGAAGGGCACGGAGGGTTCTGGAGTTCGTTGCTGGCACCTGCGTGGTGTCATGAGAACGTGGCGGGGCGGTGAGTGACGTGAGGGGGCGTGACGGCCAGGCCGGGAGTAGTTGCCCGCGCGGGAGAACAGGGGCTGCGCAGGGAAAGCGGCTTTGAAAAAGAGCTTCTTGGCGTCGGGCGGACGCCCAACACATGCTTGTCGGCCAAGTACAGGATAAGGTTAAAGGGAACTAACCAATATTCAGCACTAACTGT
0.3964666967616423 GATAAGCCTAAAGGTCTTTCTTTAATATGCCACAACATGAGGCCTCTAATGTCACAAGTTTCCAAATAACTGTCCTGTCCTGACAGCTGAAGGATGAAGGCCATAAGTGTTTCCAAGGCATTTAAGAGCACCAAGAATAACTGTCATGAGGACTTCTGGATTTGAGTTCAAATGGTATTGATTTCAAAGTTTCCCCTGTACTGACAGCCCTAGTAAGCGTGGATTCACTGGGTTTATTCCCTGCCCACAGTGCATGATGTCAGTAAATTTGGAGAATTCATCTAGACAGCCAAATGAATCAAGGTGACATAAAAAATAGGCCCTGCAATGGGAGTGATGACATTTTAAATACTTGGTGTCAGGAAAACCAGAAACCTGTCACCAAGCATTTAGCATCGCCTCTCTTTTTGGTCTTATCTTCTGGGGCCTCAAACAATGAAACTGTGTTAATGGGAGGTCCTCACAGAGCGAATATGCACTGGCCGGTTTTGGAGACATGTAGTCAAGTGGTGGAAAACGGAACTGGAAAGGTGGTATGGGTTAGAGTTAGGAGGCTTAAACAAAGACATCTAGCTTTGATGTGGTAGGCAGCAAGCAG
0.4501380678867984 TTTCCTTTACTTATCATCGTGTTTATGAGATCCGTCCATGTCGTGTGTACTGGTCACTTGTTCTTTTTTATTGCTGTGTAGTAGTCCATTCAATGAACATACCGCAATTTATCATTCTCCTGTTGATGGACATTGGCTGTTCACCATTTGTGCTAGTACCTAGAAACATTCTAACGTTTGCCTTTCAGAAGTTCACTCCAATTACAAAAAAGTTTAAATCCCCTACAAACAGCCATGTGTTAACTTTTAACAGTACCCAGTTATTTGGGATAAAACTCATAACTGCTTGAAACCCAAAATGCTGGAGGCACCAGCCACTGCTGACAGCCGAGAGAGAGTGTTGAAAAGCTTTGAGCAGGAGAGTGATGCAGTGGTGTCGGATTTCACAAAAAGCATTCAGGCAGCAGCTGAACACCACCATTTCTGTGACTGAACTGATGCCCTTTCTGGGGGGCAGCCATGTGCTTTGGCCATTGAAAACA
0.2887182257489233 GACACACATGGCCGCTGTGTCCACTGCCCTTATAGACCCACCTCTCTGCTCCAGGTGCCTGCCAGCATCAATGCTGGTGTGTGGAATGGTCTTTGCCTTGCGGGTGCCAAGGCTAGTGTAGCCCATCTCAGCATACAGAATGCTTTCTTCTGGGTGTCAACGTGATGCGTACTAGGTTGCCCCCTGGTGGTGGAGATAAGTGCAGCTGTCAACTCCTGAAGGTGTTGGCTTCTTTTGAATTGCCCTGTGTTTTCCTGTTTGTCATAATTCTCTGGGAAGAGAACTTACTGCGTTACTAGCAGAGAGAAGCTTTTATTGCTGTGATTATTGAATTGGTGTGCTGAGATCTCATTGGAGAACTCAGCTGAGGAAGCCAATCAAGCAGCAGCTCTCATACAGTATTGGGCATGAGACTTACCTAGGAGCCTCTGAACTTTGCGGCCCTAGGGCCGTTCCTGCACTGGCCTTTGTACTGCAGTGAACAGACTTTGGGAAGTGCTGCACCAGAATGTCTTTTTGTTCTTTTGTTCTGCCCTCAGGTAGCAGTT
0.6243265577691612 TCAGGTTGTATGAAGTTCTCACACCTTACACTGTGTGGACCTGACTCCTGATTTCCTCACCACAAATAACTGGACTAACTGGACTAAGGATTGGGAGCAAATCAAAGCCCACTGTGCTATGACCATATGCGAAGACAGCTCCGTGCACAGCACCTTCTTAAGTGCACAGTCCCCACCAGTATCTGAAGAGGCCTGACACCGCAATGCAAGGAATGAAGGAAGGTGTCACACGCGACCACTGCAAAATGTCAGCAAATACCTAGGATCACTGGGACCGCTGCTGGGTTCCAGGGCACTCAGAGGGCCCCTGTGGTCTTTCCCTGGGCTCCGCCTGGGCTGCACGACATGAGACCCAGAAACTCCGTGGGCGCCGAGACTCCGGCACTACCATCACAGGCACCAGCAACCTCCAAACCTCAGCAGCTGAGGATTTTCCTTACATTTTCAAATGAAAAACGCACAGCGTAACAACTGCTTGTCACAACACAGTCTCCCAAACCAA
0.5933105882994274 AAAAGAGATAAAAATGGAAATATCAAGGCAGCAACTTCTCTTCTGATTACAAAGCAGGCAGCGGGAAGCAGCGGGAGCCCATGAGGACGCAGCTGCACAGCCGGGCGGGCCTGATAAGGCCTCGTAGCCTGCGCGGGCGAGATAAAGCCAGCACGCGCCTGTCCTCAATCCCGGCCGCCATCAACATGCAGACAGCCTGAGCGACTGGCATTCCAGATAGAATAAGCACGCACGGCCGCGCTATTACTGAGACCTTATTAATCCGCCTGCAGGCGTTTAAATGCCGTGGGAAATATGGAGTTTACCAGCGCAGCTGACGGGGACTTGACACTTCATCACGTTGTTCCCTCTCAGCCTCTCTCCTTGGCCATCGTCTCTGGGCCCCAAGTTTCAGTTGGAAGGGAAGTTTTCAGGTGCAGGTGGAGGGGCCAGGAGGAGGGGGCCTCCAAGCACCTGG
0.8156023283030027 ATTTCTCTCCTGCAGCTGCTACCTTCCTCTGTGTTCTTATGTGGTGCATTCTTTCCCTAATTCTATATTTCTTTGGTCATTTCAACTGGAGTTTTGCAGGGAGGAGAGTTAAAAGAGTCATCTTGCCATCTCCAAATTGAATGCAGTTAAAAAAAAAAATGCCGTAAATGGGGATAATCAAGTGAAGTGTAGGTCGTATAGTTATTCCCACGCTGCCTCGTGGCTGTCCAGGAGCTGGAGCTTGTCTGGGGACAGATCTGTCAGTAAAGAATGTGCTGTAGAAGGATTCCATCTCCCTGTAAAAGTCATGTGTGACATTACCTCTCACTAGAAACTTCCCAGCAAGGCCTCCAAGCACAGACTGTTCACCCTTGCCTCCTCCAAGCAAATGTAAGATCTTGTGGGATAGGGCATTTGCATGGATCTGGCAGAGTCCA
0.501922078518249 CGGTCCTGAGCCACACCTCAATGTCGTCCATGACAGATGGCTGCGCAACGGGGATCTATGGAGGCGGCAAGCAGCGGGCCAGGCAGCCCCCACACAGCCAGCGAGGGGAGACAGAACACCGGAACAAAGGAAATCATCAACAGCAACCCCAAATAAAACCAAAATGTACACAGAGCAAAAAAACACAATTGGCACAGCACACAGGGGCAACACAGGGCAGCCACGTGTGAGATGGCAGGTGAGGAAAGCAATGAGGTGCAAATGATAAGAAGCAGGCTCCCGGCAGGGCCGGCGGTAAGGAAGGTGGCTGTACGCGTTCTTGAAATGGAGAACTTTTTGACTATGAGTGTCCACTCTCACATTGCGGGGCCTCTCAGCCCGGGGCTGCAAAACACCTTCTAACTTCAGGAAGGCGCTGCCACGCAGGCTGATTTTGAACTCAGCCACTATGACAGTCCGCTGTCAAGCCCAACCCAGGGAAGGCCAAGTGACAGCCTGCCCAGAGCGGGGTACAGGT
0.05824765174602479 AGCCCAGACACCTTTTGAAGGCAGACACCGAGTCTCTCACCCGTGTACAGAGAAGGCAGTCAGTCAACATTTATCAGGTTAAACTGAATTCAGTTCTCACAGTTACTAAGCATCCTTATTTTCCTACTTCAGAGAACAGAGGAAAGATGGCCACTTAGGCTGTCAACAGACTGAAGTGACAGTGACAAAGGAGGGGTGCTGGAAGGCTGACCCAGCTGAGAATACTCCCTAGAGAAGATGTGGCAAGCCTCAGGAGGTCTGGCCACTCTTGGAGTGCTTAACCTGAAGCCTGAGAGCAGCACTGAGGGTGGGGGAGGCTGCCCCCTCTTAAAGCTGCCTTTTCAGAAAGCAAAGTGATGCAGCGGTGTGAGCACACTCTGAGGGCCTGTCACAGGAGCTAGCTGGTTAATGGCCAAGTGGTCAGTTCA
0.6104215371698803 TCAATATGTATGATTTTGCTCTGTGTTGGTGAAGATATCCTTAAATTATACTTACCCAAGTGGAAACGGGGTAAGAATAGTAATATGTGCTACAGTGCTATTTGTTATAGCAAAATGTTAGCAATGCTCTAGATGTCTGTCACTAGAGGCCTAGCTCGAGGATGTTGTCAGTACTCAAAAGCGCCTAATGCAAAGTGGCTGTTGAAAGTAGCAAGGTGTCTCCTCCAGTCTGTCCCGGTGGACGCTCAGAATAATGGTTCAAGAACACAAATCTGTTCACATGTATCCCTGCTTAAAATAGTTTATGGCTCCACTGACATGCAGCAAAAATCCAAAAATCTGCCACATGGCCCTCCATCATCTG
0.0390077894163874 TGGCCCTTTCAAGCTGGCCTGGCTCCCGGCCCAGTCTAGTGGTGAGGGTTGGGATGAGAGTGTGGAATGAAGTGGCTCCTATCCAGAAGGCTCCCTGTTCTCAACCAGAGGCTGTCTGTGCAGCTCTGGTCCCCTGGGTTTCAAGCACCCTCTTGTGGGTCTGCTGCAGTGGCTGGAATGTAATTTGTCACTTGTTTGAGGGCCAGGCTGACAGAGGCCAGACAGGGCTGGGTGTCGGACAGGAGGGGTGATGAAGTCTTGATGCAATTTGCAGGCATCTGTAGAGCCTGGGAGACAGATTGAAATGTCAGCTCTGTTCTTGAGGGCTGTCTTCCATACCCATAGCCAGTGACAGGAGGGGACCTGGGGGCCAGGCAGGGGGAAGACAAAAGCAGAGGGAGCTGAGGACAATTCCTCCAGGACCCTGGGCTGTCTAACACTGCCCTGCTTCCAGCAGAC
1 TCATTCCCAGGAGCCTCCTCATGCCTACATCTTGGAGGAGGTTCTCAAGATGTCTCCAGAGCGAAGGAAGAATTGGCTCAGCCTTACTGAGCATCTGGGCCTGGCATGGCAGGTGGTTGGGGGTGGGGGGAGTCACTTGGTTCCCTACATTGATGTCAGCGCCTCCTGGGAAATCGCCTTCTCACCTCTCCTGGGCCTAAAATAGAGCGGGGGGTGGGGGTGTCACAAGCTAGAGGCAGTTCCCTCATCCCCAGCAGAGGCCCTGGGTCCTTGCGGAAGCAGAGGACCCAGGAAGGGGTTTCCTGCCTCCAATCTTGTTCTTCAGCAACCTGTGGTCCCCTAGCATGGGTACCAAAAAGGTCA
1 CTTTATTGCTAAGTAGTCCATCATATGGACTAGTTTATCTATTTACTTACTGAATTTTGGGTTGTTTCCAGTTTTGGGCTTTTATGAATAAAGTTGCTATGAACTCCTGTGTAAAATATCACCTTACATTCCCACCAGCAGTGTACGAGGAATCCTGCTGCACTGCATCCTCTCACCAGCACTTGGTATTGTCAGTAGTTTTTATTTTTAGCCATTGTATCTAATGGTGGTTTTTAATCACTTTCCTTAATGGCTAACGATTTAGAACATCTTTTCACCTGCTTATTTACCATCCATATACTCTCTTTGGTGAAATGTCCATTCAATTGTTTTACTTATTTTCTAATTGAACTGATTT
0.4258549692093858 TCAGCAGCCCTCACCCCATCCAGCCCTGCTGCCCCTGGTAACTGGGATGGGGGCTCAAGAGAGGTATGTAAAGCCCGTAAGTGGCTCTCCCCGGCTCTTTAGAAAGCTGCTTATCAGGGAATGAAACACTGGCCCAAGCTTGCCATGACAGCAGGAGCTGCCTGAGAAGAGAGGCTGAGATAAATGAAGTATCCTTCATCCCCATCAGTGTGGGCCAGACAGAAACCAGGTGCGAGGCAGTGAGCCTTCATCTTCTGTAAACAATCTTCCATCGCCCACTGCAGCAGCTTGAGCCTGAGATGAGGATTAGAAGAACAGCTTCTGCAGGCCTGGGGCCTCTCAGCTGGACAGAGAGTTAAAGGGCGCACAAGATAGCTCACTGCTGGGAAGGATGCTTGAGGAAACACAGCCATTCGT
0.7041769105300342 GCAGCTCCTGCCAGCCACGGTTCCCTCAGAAAAATTCCCGTGCAACTCTGTGGAGGGAAATGGAAAACACCGCGGGCCTATTCCCCTCCCCTCCTCTGCCACTCAGCCGCCAAGGCAGTCTGGAGGTGCCCAGCACAGATGGCCCCCTCCCCAGCACTCAGCCCTTTCAGCAAACACCTTGTTAACTTGAGTGCAGCTGAGCGGCCTGGTTGCTAGGCAACAGCAAAGCCAGAGTGTGGGAATGAGCGCAGCCTGGCCCTGGGGCGGCCTGGTCACTCTGGCCCTGCTGGGGGCCTGGGACTGCCCCAGTGTGAGGGCTCAACAAGGCCCACGCAGCCACACCCTCCCCA
0.2521657661727882 AATTCAGGAGCCAGTAGTGACCCTTGCCACACATATAAATCGCAGCAGGCTGGCCAAGGGCCTTTGTCTGGCCAGGAGAGTTCAGGATTATCTGGCCCTCTTTGCTGATGTATGGAGTCACCGGCTGTCGGAGTGTTTACTAACGGTTATCACCTCAATGCTGTGGCCATTATCAGAGGCAGGACCGCCTGCCGAGGCTGGGGCTCGCACCCTCTCTATTACCACCTGTCATTGGCAGGGAGTGTGTGCTGACACTGCCCAGCCCTCACTGCCTGGCGAAGATAGTTTCTGACGGCTGATCAAAGAGGAGAAGCAAGGCCTGATAAAGAGTGCGTGTTTCGTGTACTTTTAACTTTGGGAAACGTTGGCATTTGCATTTTTTCCCCATCTTCCCGATGCTGGCAGGAACCAAGCCCAATAAATGCAGTGGATTCAGTTACCTAATCGCTGGGGAAATGGTATGTGCTTAAAGCAACAGAGCGTGACTATAATCTCCTTCCGAGAGAGAGTGGATGAAATAAGCTTTCACAG
0.445491426026547 AGAGAGACAGGGAGGCTGAGATGGAGAGAGACACACACAGAGAAACAGAGTCAGAGAAAGAGACAAAGAGAGACAGGGGACAGAGACAGAGAGGTAAAGCCCTCTCCCCATGTAGGACACAGCCAGAGGCCGGGTAGTTGGGAGCAGGCTGGCCAGGGAGGGTGATGTCAGCTGCACCCTGTGGTGAGGACAGCCAGGGCACCTCAGGAACAGCAATGTCTGTTTTTCTATTTTAAGCAGTTTCTGTCCTGTGCTGTAATTCCCCTCCCACATCTTCGGTGAGAGTTGGTGACAGGCACAGCCTGTTCTGTGGATGGTACTTGGGGAAGGATGCTGTGCTCCTGGCTGGGAGGCTACAGGGCCGCCATTTGAAGGGGAGGCAGCAGCCTCAGGA
0.409018298533088 GCCCGGCCGCAATATTTCTCTCTCTAAAAGGAACTGAATGAAGCACTTGGGTTATGATCTTGTTTACAATTTTGAAGGAAAAAAAGAGCTGCAGCTACACAACACTCATTTCTGTACTCAGCCCTCTCCAGTGTCTGTGGCCTGGGAGAAGGCTGAAGGGGATAATTAGGATGCCTGCCACACCCTCATGGCGGTGACAGGAATGCTGAGTGCTTACACTGAGTAAAGTGCCATTATAACTGAGTGCCTGTGGAATGTCTCTGCTTGGCTGTCCCCCCGGCACTGTATACTCATCTGTGACACCACCCAGTCACCCAAGCCAGGAACCTGGGCGTCCTCAACACGTCTTCCTTTCTGATCCTCCATGACTGGCACTAGGCCCGAGGGCCACTTTTCTGTGGGCCCTCCCTGCCATGCCCGGTAGTCTTGCCCACAGTCCCTCCCCTGCACCATT
0.4526134227330613 TTGCCAGTTAGGGACCCTTCAGGAGTAGTCAGGAACGCGCCTGTGCCCACAGTTGGGTGAGTCCCAGGAACGGCAAAAATGTCACCTAGCGTTCCCCCTGCTCATCTAACATAGTTTAATTGCCTTGATGGTCCATGGAATTTCCAAACTAGAGGTTGTGATATGCAGAAAATCAACAAGATTGCATTGCTAGGGAGCACGTTTGTGAAGCTGGCGTCTTCCACAGAAGCTGTCATCAGCGAGGAGGGGCTGTTGAGGGGACACATTTGTGAAGCCAGCATCTTTCACAGAAGCTGTCATCAGCGAGGAGGTGCCGTTGAGGGGACTCCGGGTGATGCTTTCGTCGTTTGGAAAGTAGCACTGCTGTGCAGAATGGCCTCTTTTTAGCCATCCTCCTAGTTCCATGTGGAGCCCTCAGAATGGGTTTTACTCCGGGCAGATTCCAACACACCCTCATGCTATCCCGGGAGAACTGCGGACCAGGAAGGCAGAGGCCCC
0.8971663864764853 CCCTGAGAAGCAGGGCCTGGGTGCAAGGGCAGATTACCCAGGAGGCTGGAGGAGGATGGAGACTATTGGGGGTTCCATCCAGGAAGGCAGAAAAAGAACTGGCAAGGCACGGCTATTTTAATTTGATAAATGATTGTACACCTTTAAGAGTGTTTTAACAATCAGGATACACTCCAGCAAGTTGATAGGATGTTCGCTGTCAACTTACATATGTCATCAGAGCTGGCTGTGAGCATAAATAATGTGCGAGCGCTTGGGACAGCTGCAGTCTCTCCTGGAGGCTGAGGCGTGGCAGGTAGCACCTCTGTCCCCTGGCGGGCACCTTTGTTCTCCTTCTCTCTGTGTGTCTGGAGGCAGGGACCGGAGAACAGTCGTGGGGAATCACTGAATGCTGCTTTCATCCTGGGTGGTTTGGTTGGGGTGCCTCCTCTCTGCGGACTTTTTAGGTCTCCCCACGA
1 CTCTATTTACTATGAGGATATTCTTGAATATATCTATTTTGAGTGACTCATGCTATAATGTAGGTGTTTTCTTCTCCTTCTCCCCTGGTGGAGGAGAACAGCTGCTTGCTAACCTTCTGTGTACCTACACTCTTACATTGTTATTATTAGAATGCTGTGCAGGGGGGTATCCACTTAAAGCTGGGTGTGACTGAGAAGTATTCCAGACATTATGTGACATACTGGCATGTAGTGATTAAGGAGACATGGTCTCACATAAAGACACCAGCATGGGCCTGTGGCTCAGGGGGCCTTGTGGCTTGGGAAGTGCCTCATTCCCATCTCCACTTAGCACTCCTCTATCTGATGGGATTGTTCCCCACCACAAAGCTGCTTTTGGCTCCTTCTCTTTGTGACTTCCATGGAACATGCCACCTACACAAAGAAGGAAGAAGAAAGAAGGCTGTGGTACCA
0.6034461723318183 CACAAACTGTATCTTTTCTAATTCTCCCCTAGCTGGAGCGGGAGGACAAGGGTATACCCTAGGAGCCAGCGGTAGAACAGAAAGTTTATTGCCCCAGATTGAAGAAGACATCTAAGTCAATGGGGGGAAACACCACTAACAGCTGAGGTGATGGCTGATGAGTGGAGGGATTTTAAGTGGACGGAAGGAGTATGGAATGTCAGGGTCAGGAGCAATGGGGATCATCAGGGCAGTGCTGCCTCAGACTCGGGGGTCTGTTCATTGTCTTATGTCAGCTCCTTGGGATGAGTGGCTGAGCTGTGCCCAAGGCTGGGCAGACAGGTCCAGGGATAAAGAAGGGTTCAAATCTGATGAAGATAGGCAGTGGTGAGTGCCAGGCCATAATGAGACTTGTCATCTCAGCCACGAGGATCTGGAGAGGCTGGCTGAATTTATCCAACATGCTGGATGAAAGAGGCTGCCCACCAGCGAGCGGGAGGCTAAGACTGTACCTGAATGGA
0.8749921764234003 GTCCCCAATATTTTAGTAGAGAAAACAAAATTTGGAGAGTATACAGAAACATTCATTTTTTGTTTGTTTACATTTGGCTCCATAGAAATGAATGGGTGTGTGGCTGCCACTACTTTGAGGAGTGAGCTGCGATTCTCCATTTATACCCTCAGTCCAGGAAGGTGCTAATCATGAGCACTTTGGTCAGGCTGACAGCTCAAGTGGAAGTTATATCTATGACTGCTGGGGGTGCGGACGAAGCGCTAAAGGCTGATTTGATTCCACTTATGCTCAGCTGTCATCTGGGGCCACAGCTTGAAGGAGAATGGGATGCTATTCTCTTCCCTCTGCTGTGTGACAAGCAACCTTTGTGTCTTTTTTTTTTTTTAACCTGCCTCTTTCTCCTTCACACCTATGATAAAGGCCTCTTTGCCTGCAAAGAAAGAATTCTCCAAATTCAAAAGCAGCTTCCATTGCCTCCTAGTGAGTGACTCTTGGACTCCTCAAGCCCTCCTT
0.4179684257463868 CATCTACTGCTATAGACTTTGCATGACCGGTTTTGCAGTGAGCACACAATCCTGGTTTACATAATGTAGACCGGGTTTGCATCTCTATCTTAAGCCTTTGGGACAAGGCCAAAGAGATCACTGGAGCACCCACTTAGCCTGAAATTGAAGGATAGGAACTCAAGAGTCTCTCATTGGTTGTCTCCTGCTCTGAAAATACACAGACCTCTGTATTAGCCCTTTGCCACTTAACACTTACAGCCTTGAGATGTCATTTTTCATAGCTGTGTATTCTACAGGCTTCTGAGCAGTGACGTGGCCTAGCCCAGTGACACGGAACAAGTGCTCTCTAAGTGACTGTTGACTGGCCCTTGATTTACTGAGGGAATTTTTGCTGGGGCCTCTTGTGTGGAAGCTGCTAGAACTTCCCAAGGTGTTGATAGCCACTGGCTCCTCAAAGAGGTTCAGGGCAGCCGGGAAGTATTTCTCACTTTTGAATGTCTTGGCTGAACTCTTG
0.1629757062321482 TAAAATACAAAATCTTTTGGCATAGCTTATGATCCAGCCCCAACACTGCCATCAAAATTATCTTATGCCACACTCTCCAGCATTCATTACACAGTGGTTTCCTTTTAAATTCTAGGACATGCCAAGCTGTTTCAACCTCTGTGCCTGAGAACCTGCTGTTTCTTCTTATCTGCACATTTCCCTACTTGTCATATGGCTGGCTCCTTGTCATCACTCAGATCTCACAGTAAGTTCCACCTCTTCAGAAAGGCTGCTGCTTAAAATCCTTTCTCCACCAGTGCTTCCTTCACTTCTGCTGTGATTTTCTATTGCTGAAACTTGTATAGCACTGATTAGAATCTAAAATTTATATTCTTATTTTTAGAGCTTGATTTTTGTTTGTCTCTCTCTCTCTCTCTCTCTCTCTAGGAGGTAAGCAC
0.8032035054201199 CGCTGAATGTATAAAATGCTTAAGAAATGTTTGTTCCCTTCTCCTGAAAGACCACCTAAATACTCCTCTAAAGTCTCACACCATATTCTCTAATCAGGGATTCATCTTTTCTTTAGGTTGGGTAACACATCTCTGAGAATACCTCATTAAAACCACAATGAACACCAGTATACACCCACTGGGATAGCCAAATTAAAGAGAACGCACCACCGCCGAGTGCTGACAGCGACATGAAGCAACCGGAACACTGGTAAGTGTGAACTGACAGAACCGTTGAGAGATTCTTCTCGAGAGAAGCAGAAGCCAATAGCTGCATTTGCCCTCTTCACCTTCACCCTGTTCCTCAAATTACTTTCTATTATAGTTTTTGCAAGCTGCTGGGAGCCAAAGCTGAAGAAAATAAGGTTTGATGCTTTTA
0.8164420184327614 GCAGAATGAGACTCTGCCTCAAAAATAAATAAATACATAAATAAAAATAATAGCAACAGCAGAAACAGGCAGTGACGGTGGAGGGTGTGTGTGTGAATGACCTCAGCTAGTGGCAGTTCGTCATTGCCACTAAGGCCAGCCACACAGGTGACACTGACAGTGTGCAGAGAGGCCATCAAGGGTGTCGAGCTCAGATCACACCCTTCCCTCCCCACCAGGGGGCCTGCTCAGCGTCCACTACAAAACCTCCGACACCTTCAGGAAGCAGAACTGAGCCTCGGGGGTCTTGCCCCTTGCTGGCCTATTTTTCAGCTAACTTTATTGAGCAC
0.4992810956242095 CCATAAAGGCTCTCAAACCCTCACTTCTGACACACACTGCAGCTGCTCCCTGCAGGCCCTGAACCAGAAAGCCAAGGAGAAACAAAGCCAGCCGCCCGCCCTGTGTGTTTACTTTCCACCTCACTCCCCAGTGGCAGAAAGGACTCTAGGGCCATGTGGACACTGTCCTCCGACAGCGAAGCAAACACGCTCCTCCTGCTCCTGGCCTCAGCACAGAGGTTTCCCACATGCCTCTTCAGCGACGGTGCCACAGAAGTGCGAGTGACAGAAGTGGGCAGCCCAACTCCCAAGGCTGGAGGGCAGTTATTTTTAGAAGTCCATTTAGAATTGGCTGTGAGCCAATATTTTGATAAGAACTATACTTGGCATTTTATTTTTAATTTTTATTTTTAA
0.8785867249515907 GAGATACACAAACATCAACTGCTTCTTTATATACCAGTAATGCACAATTACAAGCAACCACAGCATCTACCACACTGTAATGCTGTGGCCGCATTTGTTCCCCTTCTTCCAAGTGCATATTGGCATGGATAGTATCTAGTGAGTGCTTCGCAGGTTGACAGGCCTCAATGTGTGTTTGAAGAAAGCCAGAGATTAGCCACGATGGTCAGCCACACAAGGCCCAAAGCCTGAGGCAGAGGCTAGCACATGATGTCCGCAGACCAGCCAGTGTGTCTTTAGAGAGCAGTGGCGCGGAGAGTAAACTATGGCCGCTGAAGTGGACAGGG
1 GTTGATTTTCTCTTGAACAAAAATTATATGTATTATTAATATACATAAAATATGTTTGTTCACATTTTGAATACATTGAAAAAGAGAGAGAGCAAAAAAGATATAGAATTTTCCCATGCTCTGGGGTGGGCCTGGCTCAGCTCAGGGAGGAAGCCCTGCCCGATAAGGCTGCAGCTTAGGCTGTCACTCTTTCTTCAGCCTAGGGTGTGATCACATCTTCTATCACTCAGGGTCTGAGTAGGCGGGGCCTTAAACGTTATCCAACTAGGGACGTTGGGCTGGGAACTGTCCAATCAGGCACACAGCTGGACTGGACAAAGCGGCTTCCGGGATATGGCGGGGCCTTTGTCTCTCGCTGTCGCCGGAGTCCCAGGTC
0.5983670000764399 GACAGCGAGAGAAGACGCGCGGAGCCTTGCGGCAGGAGGTCGAGGAAAGAACAGCCCCTCTCACCTGGCGTCGGTGGCAGCTGAACCCTGGGCCCGACTGTGCGATTTAAGGGGTGCCCTGGGGGTGAGACCGCCCCCCCACCCAACTGCCTTATCTGGCCAGACCCGGCTCTGTGAGCTAAATCGGGCAGCAGCTGTCACCACCAGGGGGTGTGGGACAGCTGTCCCCCTCCCCCCGCACCTGCCCTGCGCCTGCCTCTTGACCACAGCCCCTCCCTCTCCCTTTCTGCAGCCTGGGGGTGTGGAGAGGCCACTGGCATCTGTGCGGGGCGCCCCAGCCCCCTCAGCTCTGGGACAGGCCTGGCCGGGTGCCCTGGGGCAAGCGGTAGCCCTCTGAGTCCTGAGGCGCTCCCCTGGGAAGAGCAGTCCCAGCGGGTGGGGGCACAG
0.2843235990637732 CAGTTACCTTGAAGTTATCACTTCCACTTAAATAGAATCTGAGCTAAAAATAGGTGTACCGAAGTGGGTTTCCACCTGTCTCATCTTGCTTCCCGACACCTGCGGTCCTCTCCTTTTCAACGCAAAATAAAGCTGTGTGCGACACATCAACACCCACCAGCAAACGCAGGTCCATTTAGGCGAATGGACATCAGCGAACAGACACTTTTATCTTGCCTGTCTCCCCTTCATTTTTCAGAAAGCTAGGGAACAGAAGTATCAGAAATGCCAAGCTACTTTTTTGGCTATAGCTCTGAAGAAAGAAGGCTCTGAAAAGTGGTCGGCCTGTAACATAAAGATGTGGGCTGGATGTGCTGCCTTTTGAAATGTCAGGGTTTTTGTTGAATAGGCATTGAGTTGGATTGGAAAGGTCAAAGCTGACAGACTCAACTCATACTCAGAAAATCAGCTCACAGCTCCTTTTCTTCTCATCACCTCCCAAGTGGTAGGTTGCTAACGTCACCCTGGCTTTCGGCACAGCAATTAATGGCTTATGAGCACAAGCCAAAACATAAAAAATAAACCAGATTAAGAAACTGCTCTGTAAAATGTAATAGCTGTTT
0.657947000395023 AGCGTGAAACAGGATTACAGAATTTAATATAGGCAGAGTTTTGAAAATAAATGTACTTTAAACACATTCATTAAAAAAAAAAAACTCTCAAATTGGGTTAACAATATACAACTTCTTGGATATTATGGCAGCAGCCTGGTCATGCCTGACTTACCTTTCATCACTTTCAGTTAAACACTCCAAAGTGTCCAGCCCGAGATAAAAGCTGACAGCAACACAGCTGGTTGATGAAAAGAGAAGCCCATATTCAAATTCCAGTACTAAGCCCGCTGGCAGGACGTTTGATGAGATGTTCCCAGAAGCACAAACTTGACCAGAGAACAGTCTTCTCTCTGGAAAGAAATTGATTGTGAAAGTCACCTTCCACCTTCCACTACCTGGCTGTCTCCCATCCC
0.5554317653170937 CTAAAAGCAGCTGCAGTGACCTTCGTGAGTACCCTGTCCTATTATTCATTCATCCCGGCACTCGCTGCTGCATACAGGGATCCTGCTATCTGTTGCTTCTCTGAATGTCAACACCAGGACACAGCTTAGTACCACCACACTCCTGTGTGTCAGCGGGTCTGTGTTTCTGTCTGAGGGAAATCCACTAACACACTGGTACGTGAGCCAGGAGGTCACTGGAGAGCGTCACCCCACCACCCACTTTAGCCACGCTGAAATTCCCAAACAGGAAGATCTCTCATGCCCTAGGGCCTTTGCACCTGCCACTCCGTCTTCCTAGCATTGTCATTTCCTCTCTTTCCTGCCCACAAAAACTCCTGTTCATCCTACAAC
0.2592096052273446 TTCTTTCTTTTCTGTGATACTGTTGACACATTCTCAGTCCAGCACAGTATAACCATGCAATAGGAAACACAGTTCTTTGGAGAGCTCAGTTAAGTGAGATGAAAATACCTATCGTGATTCTGTGTCTCATGGCCAGGCAGGATGCAATGACATGGGAATGCAGGGGGCCTAGGGTCTGCCTAATCTCAGCCCTGTATGTGCTTCTGTGAGTGAGGGAACAAAGTACCTGCCTAGCAAGCTGTGGCCTGGGTGGTGACAGCTACATTTTGCTTGCTTCCCTCTCCTAAGTGAGCAGTATACTTGCTGCTGTGGCTCCGCAACTCAAGGGCGTCCTATCACAAATAATGAAAAATATGGGTCCTTTCAGCATACAGATGACTTAGTGGTAATAGTCCCTTCGAACCTTGAGTGCTTGCTTATAAAGTCAAGGCCCAGCCAATCCAGCAGCCACTTCACTGAGCTCTGGAGTTTGAGTTATCAAAAAGCTGTCACCTCTTACACTTCCTGTCTAGCACCTTTTAAAGGTAACATCACTGCCTCCACTTCCAAAAAAGAATTTCT
0.6320209125650172 TAAAAGCACTTATAATTTAAATAATCATGAGTAGGACATTTTGTTCCAGTCGGCGTTACTAATTAACCACTAAGCAGCAGCTCAGTATGGCGAATGCACTTGGAGGAGGCAGAAGTCCAGATGGTGGGCTGTGATCCAGAAGTTTGAGTGTCAGTCAAGACTGCAAGGTGATTACAAGGTGACCAAGAGGGAGGTGACAGCTGGCATTTGCAGAAAGGTATCTTTGTTGGTACCTGCTGGTGGTGACTACTTACTTAATGTATTGAGTAGTGTGAGATAATAGTTTAATATATTCACAAAGAATCATGATGTAGAATGTATTCATATTGCATAGCTTAGCTTTGATTCTCAGTTATGCTCAAAATGAGCTTTTATAC
0.7141029230101902 AAATTCAAGGCATATTTGACATCAAGTGGGAGACATTCGCAGGCTGACCTTAAACCTATCTCTAGAGTAGCTCTACTCAAAAGTGGTACTCTACTCTGTCTTTTACAAAATGATGCAATTAGATATTATAGTATCTTAGTTGTCATAGGTACTATGGTTCATGTACAGATCTTTTCACACAAGTACAGATAGAAAAGCCAAAGTGGCTCTGGCCAGCTTCCAAGAACATTTCAGTGCTCTTCAAAGACACTTGGAAATGGACTTCAGGAATGCAAATGTTAAGTTATCTGCGACTAGAACTCAGCAAGATAAATACACCCTTTAAGCAGCAACTAATCGAATTGACTTCCTTTTCCTTTCTGCTTCATGAGAGGCCTGTTCTCCAAGGCTGCATGGCTCCCAGGTGCCTTTGTCTCTGTTTTGTGGTCAACTCTAAATACCTACATTTGCTCTACAGTGACATTAAATGGGTCTTTAGGTGTGCGGTGTGTCCATCTAGACAATTTATCATCCTGATATGGAAGACCCTACAAGATCAG
0.2548372359784445 CATCTGGACATAGAGGAAGGCAGCACTGCAGCCTTCATCTGAGTGTAGTTACCAGGGTCTTCTCTTTGCTGCTTGGCTGCGTGTTGCCTTTGTCTATTAAAAGGATGTGTGTAAGTATGTATGTCAACTGGGGACTTCAGCCTCTGTAGGCCAAGTGTTGAAAAGGGTGAGAGGGCTGCTCTGGTAGAAGTGTCAGAGCTGGGATGTCTGTACACCTCCCTCTCCATAGCTAGTCCTGGAGATAAGTAAGAGCAGATTCTGGGACTGAGCTGTCGCATACACCCTGGTGGTGATAACAGCAAACACAGCAATGGGCTATGTAGAGGGAGCCCTGAATAATCTCCATGAGCTGCAGAGATAGGGCCAGTGAGTGGCAAATCCTTTTATAGTGTGGAGGAGAGGAGGTGGGGAGCAGCTGCAGGAGAAGGTGGGGAGCAGCTGCAGAAGGAGAAGGTGGAGCAG
0.6639191728277692 AAGAGCAAGGATTCTCCCAGATGTACCCCCAGTCTTGACCTTCTTATGTGCTATAGGAATTTCCTTTTTGAGTGACTGAGGCTTGGCAGTAATATAACAATGGCTCTGCTGGCCCTGTCAGACCTCTGCAAGGATATCAGCCTTTTATATTTATTCTAGTCTGGGAGATGATTTCCTGTATTGGGTAGAGGGCACTGGTATTACTTTAAATAGAATTTCCTATCTGCTTTTTCTCCCCACCACCTCATCACTCTTAAAATGACTGCCAAAATTGTTCCTGCTCTATTTTAAGTCAACACCATTTGACCCTTTGCTTTACTGGAAGTGCTTTCTAACTCCTAAGCTGTAAGGATTGTACTGTTTGCTGTTTGCCTATTTTAAACTTTCTGGTAGTGTAGTCTGTTTGGGTAAACTCTGAAATCCTGGTCATTTTCCTGACAACGTTTTAACTGCCTCAGTGCATTCTCATCCCAAATATTGTATCAAG
0.6055018435134792 AGAAAGGCACCTATAAAGAATCTCAACCCACTTCCCACTCAAAAGCACTGTGTATTTCTCATGGCCTGCCTGGGAGCCCCCATCTCCAGCCTGCTGTGCTGGCTACTTCTGGCACTTATAGCCCTTGAGATAGTACCGCCAGCAGCTCCCTGTGAAGTGCTAACACCCCTTCAAAGCAGCACCAACCCAATTGTGAACAAGCTAGGAGTAAAAGACGTAAATGAATTGGTCACCCCAATGCAGGGGATACAGACTTGTTTTAATATAAAAAAGAAGTGGCCTTAACCGTGCAGGGCTTGCAGGCCTTTGTAGGCATGGGAGCATGCTGTGATCCCTGGTTCTGTGCTAAACACTCAAAAGGGCTCTCTGACTCAAGTGGAGGTGATAAACCTTTTCAATAGTAACAGGAGAGAGTGTGATATCAAAGTGCCAGAAGTCCTCACGGACCAACATTTAGCACAGACATTCAAACTGCTGAAAGAACCAAACAGAACTCAACTGAAAAAAACAGACCTTTTAAGAAAAGCAATAGATCTTAATTTGGTGGCAAGATCCCTGGTTTACCTTTTGAAGTCAAAATGTTCAATACATCACCCGA
0.9516236482222105 GGTCACGGAGGAAACAGCAACTACATAATTTCCCTTTAGCATGTCCTTGGAATTTCAGACATTTCTCACTGCAGCCAGCTATTGCATGCCAGTGCCCTCAAAAAAAAAAAAAAAAGATTTATGAACCTCTTCTGAAAGTGTTTTTTAAATGATAACATGTCTAAGCCAAGCAAAACATGCTGGACGAGGTGTTGGTGCTCTGTATGCCAGTAGAGTGTCTGTGATGCTAGCCAGCACTTCTGGTCCTGCTGCAGAGGAGGAGAGTGAGCTCCACGTATTACTGTAATTCACCTTCTTCTGCATCCGTGAGCCTTACATCCAGGATGGTGCAATCCTGTATGAATGATGCAGACTTCTGCAAAGA
0.7647096040204536 CAATGATCACAAGTGTCCCACTATACTCTGGGAACCAAAATTCCAAGAATACTTCCAGGTTCCAAATTTACCCCTCCTGTAATGGAAAATCTCTCCTGCTGAGGTGGTAGTTTCTGATTGCCCAATATTGTGTTCCCTTTCCAGGGCTGCAGGAGCCCAAACACTCTTTTGAAAACCTCTCTCCCTACTAGAAACACAGGCTGTTCATTTAGCAATTATAGCTGTCAGCACAGCAAGCTGGCAGGAGAGAGAACAGCATCTGTTTCTGGGCAGCGAGCCCTTGGCAGAGCCAGGAGTTGAGGGCCTGGGGAAACAGGTAGGACAGTGGCTCTAATTTGTCACTTCCCCAGCACTTGTGTATTTGCATCTTGTATCCTGAAAAGTGATACATGTATTAATTTCACCTATATGCTGGGGAGGAAAATTAGAAAATATGGGAAGTAGATAAGAACAGGAATGGTCTGTGGGTCTCCAAGGTCTTGTACA
0.7005692175337088 TGGGACTATTTCAATCTTTTTAAGTCAAGCCCAAAACTGGGACTTGGGCCAACAGCTGAAGGAAGCCAGCAGCCTGTTGGATCAGGATGCACGAACACTTCCCAAATGCCTCTTCAAATGGCCTTGTTTTCAGAAGCCGTCCTCTTGTTGGACATTGACACCAGCCGGTGCTTTGAAAGCTGCTGTTGATGGCTGGTTGGCTGGTATCCTTCAGGAAACACTTCCAGGATGGAAATATTCATGTTTTACCAAAGCCAAGGAGCTTAAATAAATAGATTGTGATTTCTTCTCTCAGCGGAGGAATTTAATGTGCTAGAGGTTATTGTTGGCCGGCCACGGTGGCTCATGCCTGTAATCCTAG
0.9355196008176954 AATCAGCCAATATCAGTTCATTATAGAATCTACAGAGACACCATAATCTTCCTATTTTAAGACACAATTTTAATTGTAATTTTGCTAAACTCTCTCCTAAGACAAGCAGCAGCTTTTTATCGCCTGTTATCTAGGGTGTTGCTTTCACAAATCCACACCCTCTGGGCCCGTCACAGGCAGCCAGATCCTGGGACTTCTCAGTCAGTTGCTTTGCTGACGGTTCTTCAGAGGTGATGAGCTGTGTGTGAAGGCCCCCTTCAGACCATGGTCCCACGAGGGCATTACACATCAGGCATATGTGCAGAGATTAGAAACTTCTCAAGGATTTCATGTTCTATTCCAAGAAGTAAGGTCTAAAAATGAAAACCCATTTTAAGCTCTTTTGTGGTTATACTTTTGGCAACATGGAAGGAGGACAAAC
0.3213538008136453 ACTGGCAGCACTAGTCCTCAGACATGAAGGAATCTGACATTAGGGAGGGCTGCCAAGTTTCTGGTGACTCCAAGGACACACCAGCCCCTCCTCCTGGCAGTCGTCCACACCCTGTGAGATGTGCTCGGAGTGTGTCCCAGCAGCTGTGAGGAGCTGTCAGGTACAAAATGCACCAGGGCATGACTGGGTATACTCAGCCTCCCCCGACTTTATCACAGGCTCTTCAGATACACCCCAAACTCATGTCAGTACCTACGGGTGACAGTGACGGGAGTAGCACCTGGGACAACACATATCTGAGTGTGTTCAGCATTGCCCTGTGCCTGCACACCATGGGGCTTGGTAAAGACTTGCAGAGCTGAATTATGCACAAAGACAACCCCTTGGGGACTGGTGTCAGGAATATTGGCAGCACCAAACAATTCTTAAAAAGTTGGCTCTCTG
0.868948829448668 AAATGGAGAATTCAGTCCTACAACCACACGGAACTGAGTTCTGCAAATAACCCAGATAAACAAGGAAAGAGATTCTCCCCTAGAGTCTCCAGAAAGAAACATAGGTCTGTCAACACCTTGATTTTCACATAGTGAGATCCATGTTGTACTTCTGACCTCCAGAATGGTAAGATGGTAGATCTGTGTTGTTTTATGTCACAGAGTTTGTGATGATTTGTTACTGCAACAATAGAAAGTAATACCTATGGTCATAATGCATGCATTGCATCAGGCCTTTGCTGAAAGCTTTACATGCCTGGTCTTGTTCAATCTTCACTACAGTCCTGTTAGGTAACTATTGCTGTCGTCACCTCCATTATATGGAAGGGGAGTGTATTCATTTGCTAGGGCTGTCATAGCAAACGACTGCAGACCTTGTCTCCAAGTACAGCTACATTCTGAGGTACTGGGGGTTAAGACTTCAACATATGGATTTGGGAGGATACAATTCAGCCCATAACAGGG
0.4868533734110994 ATTATATGACCATGAGGACAGAAGCCACACATTCAGGCAAAAGAGAGGAATCTGGAATATGGCAACATCTTGGAACTTTGCTCCAGCTCTTTTTGTAATATGCAACAAATAAATTCCTGTCTGGTGAAACCAGTGTATCAGGCTCCTGCCACACACTGCAAAACGCATTCCTAAGTGATGAGAGCACAGCCGACAACGCTTGTTTCTCACCACTCACCTGACACCACCAAGTGCTAAATAAGCATTCTTTGAATGAATGCTTTTCATTTCACACCAACTCCATAAAATAGATGTCAAAACTGAGGCCTTGTTCAAGATCAGTCTGTCTAATTTAAAAGCCTGGGTTCTGTTTATTTTTCTTTCCCGCTGTCTTTCTTTTCAAATGGAAGAAAAATCATATAACATAACACTAACCATTAACCATTTAAAGTGTACAATTTAGTGGTTTAGTACCTTCATAATAAA
0.5621233872386014 ACAAATAGCCTATGAAAGTCACTATTTCCCTGCGTCCTCACTCACACTGCATTTTTTATCTTGGCCAAACTGAGAGGTAAAACAACAAAACAAACGCTGTCACTTTGGAATGAGCCTCTGTAATTAAGTGAGACTGAGCATGTTTTCTTACTTCCATAAGAGGTTGTATTACTTTTCGGGGAAGTGTCGGTTGATGCTTTTGTCCATTTCCTGTCAGCACCCCACCCCCGTGAGGAAACGTGCCCCAGAAGTGAAAGGACATGTCCTCATCACATGACGAGTGAGGGGCAGAGCAGAGGCCAGAGCAACATCCGTGCTGTGGAGTCAGCCCTGGGTTTGACTGCCCTCCAATGTTCACCAGCTTTGGGAGAGAGAGGAAATACC
0.1548102780599534 GAGAGAGATAACCAAAGGAGGAAGCTTGCAGGCGCCTCCTCCCAGGCCAGCTGCAGGATGTGGGCAGGAGAGTCTGGGCTCTCAGTCCCGGTGGAGACAGGCCCTGTGTGCAGTGAGTGCTGCAGGAGATGGTCTGCTTACAAGCATGTGCTTCCTGTCATCAGTGCAAGCTGTTAAGTGTGAGAAAAAATGACCGGCAGTGAAGCAGAAACTCACTAAAAGTATTAATAGCCGGTGGCTGTCACCACTTGCTTGCTGTCCTTTACACCAACACTCCCCTAGCCCTCTCCCAAATGCCCAGGCTCATTTACTCCACTATGCAGGACCCCACAGGATGCTGCGGTGTGTTCCGCTTCTCCTCTGGTCTGAACTGTACCTGCACACAGGGCAAGTCCCAAGGGAACCAGAAGCCACCTGGAACAGGAAGCAAATAATAGCACC
0.4023466831822131 AACTCAATATATGCTTACTTGAACTAGACAGAAATGCCCTTGCACCATCTCCCACTCTTGCACGAAGGAAAGTACTAGCATTTCCCATTCCTCTCAGCCTTTGGCAGCACCTAGGGCTGTAGTGACCAGCTGTATGCTGGTTGGCTGCAGAAGAAGTCCTGTCACCACAGACAGCTGAGCCTAACATTGCAAAGAAGGGGACAGAAATAGAATAAGTTCAAGTGCTAAAGATTAAAACATGGAGCCCATTTAACACTTGAATTGCCTCATTCCTCAAAGAGCAGAGCTGTGGTCTAAGTGTCTCAAGAACTACCCTGCCTAGAGCTGTAATCTTAGTGCAGACACAAGCACCCCTAACAGATCTATCACAT
0.4548416497648721 ACATGAAGACAGATGAAGCGCAGGGTTCTTATAAATGATATTACAGCCCAGCCATGAAAAGGAATGAAAAACCTCGCACAGTATCGCAGGAATTATTTGTTCGCAGTGTCATGTTCTCTTGCAGCCTTCTAAGCCAGCTGAGGTGCAAAATCAAAAGTTTCATAACAGAGTGGTTCTGTAAATACCAAAGACTGTAAAACAGCCCTGCTAGATTACCACTTGTCATCAGGTAAGCAGTGCCAGAGGATGACATGCCATCCACAGGCCAGGCCACTGCTGGCAACCCAGAGCAAGCAGAGGGAGGGGTGCTGGTTATGCACTTGCTGGCCATTCGAGAACAGCTTTTAGTTGAGAGTTGTTATGTGGCCTTCCTTCTACACCCAGGTTTAGGGAG
1 TCCTAAAATAGAATCACAATATTTTAGGTCATTTACATTGTCAAATCTGCTACATAAAGGGTGTTCTCTCTTTTTCATAAGAGCAAAAACCTACTACAGTTTTGTCTCTACAGGGATTCTTCTAAGAACTGTGACAGTTTAGGTAAGATTATTTAAAGACAAAAATGTCCCTTTGAATTAAATATCAGGAATAAACCACAGAGTTTACTTTACATGGCAGTGTGTGTGTGCTGACAGGACACTGATAAAACATGCCAGAGAGATGTAGATGCCTCCTTCAGACCCCTCTAGTCTCATTTAATTTAAGGATTTCTTCCATTAAAAGCAATAGTGTTTGAATAAGAGAGCACTAAGAAAATACATAGAATGGCATGTTACAAAGATTTTTCACAACATCTTTGTTTTTGTTTTTCTAATTAACATTCTTTTTTTGGAGTCAGGGTGTCACTCTGTTGCCCAGGCTGGAGTGCAGTGGCGTGATCATAGCTCACTGCAGCCTTAAACACT
0.4498510480063717 TCCAGATGTGTTACTGGAACAAAGTACAACCCAATGTCCTCACACCCGCATTGCTGACCAGCAATGCTGCAATCTGAATCCAAAAGAGAAGTCCCCTCTCCCTGCAGTGTTGAAAGGTTAACAACACACATGTTCACTGTAAATGGGAAATACTTGACAGAATCCCATACATCATTGCAGAGAAAGTACTGAAGTGTGAATGTGGTGCTGAGAGGCAATACACTGATTACTGGAGCAGCTTTTCTCTTCAATTATTTTGGAATCAATCCTACTGATCAGTTGGTCAAGTTTCAAATATATTTGTAGAAAATTTAAAGGCCTTGGATTCAGGATTAATAATAACTATTGTTCAAAGTGGCCTTGGCTCTGTACCTGTGACAAAAGAAAGTCTGAATCTCTA
0.7565190667398306 CCTGCCCTGCTCCACCTTAATTTCCTGCCCTTTAAGATTTTCCTTCACCAGGGAAATTTAGCATCTTTCTGCAAGACTCAGTTTAATGGCATTCTCTAGCATTTTCCGACCTTCCCTGGCTGAGCTGAGTGCTGTCTCTGCACTCTGCCCATGGCATCCTGTCCACGCAGCATCTTGGTGCAGCAATCAGCACACTGCTACATTATCTGCATGGCTGTCATCCCCATTAGGTGTGTGCCCTTGGACTGTGTGTTTTCCTCCTCGTATATGAGGCCTCAGCATAGTGCCTGAAAATAATAAACATTTGACATTCAGAAGAAAGGAGTGGAGGAATAAATAAATAAGACAGCCTGTTTTCATGAAGTGTTTTCTACATTGAATGCAATTATTCTAAACATCTCCTTTAACCTGGTCTTCTGAGCTCTTTCAGAAGAGAGTAAGCACCATAAACAAAGAGCTAGAA
0.7537754682695331 TGTAGAAAAATTATAGCTGCACTACAAGCCATCATTGTAACAGTGGATATCTGTTAGTATTAAGATTATGGTTTTTTTTCTATTTTCTCTCTGTATTTTCTAATGTTTCAACAGTGAGGTTAAATCACTTTGACAGAGACAGAGAGTAGAGATATAAGTCCTTGTTGAAGTGGTGAAATCCTGTATCAGCATGTGACTGATGAAGTGTCTTCTGATATCATACAGGCCTTACAATCTCAACCCATGACCCAAGGTTTGGAAAAAAGAATTAAATGTGCTGTGGGACCAGTGTAAGTATGAAGCTGCTTCCAATGTGTAGAGAAAGATAGCAGAAAAATACATCAGCATAATTGCAAGGTTTTATAAGTATTTTGTCATGTG
