svm_type c_svc
kernel_type gkm_esttrunc
L 11
k 7
d 3
norc 0
nr_class 2
total_sv 1244
rho 0.0649121
label 1 -1
nr_sv 655 589
SV
0.3878338527234628 CCAGCCTCCCCCCCTCCCACCCTGGCAGCGGGGCCCTTTCCCGGCTCAGGAACAGCAGCAGCCCGGGCCGCGCCGGCAGGAAGCGAGGCCCATGTTGCTGCTGTTCCCTGGCGCGCCTCCCCGCCCTCCGGGGGCCGCCACGGCTCTTCCGCGCTCCCGGGCACCCCCCTCCGCGCCTGCGCTGTGCCCCACGGGGGCGGGGCTCAGATTCCTGTCAGCGGCGGCGGCGGTGGCGGCGACCGTCAGTTTTCGCTGAGGAGAAACACGAAACGGACCCTTTGGCTCTCCCCCTTCCCCTTCCCCGTCCT
0.7499159712249371 ATAATTCATGAAAGGCCAGCTCGTTCGGCCACCCAGAGGTCCCAGTGCGTGTGCGGTACAGCCGAAGCCCCGCCCACTGACCAATGAGGAGAGCAGCTAGGAGAAAGGGCGGAGCCAAGAGGAGACTGATACGCCCCTGTGCTGGCTGTTCCGACAGTTCGGTGCTCCTCCCTCCGCCACAGCGAGGGAAGAGCCGAGGACTTGGGCACAGAAGCCCGGGGGGAGGGAGGGAAGATGACCGGAATGTCCTGCTGAAAACTCAGCTGAGTTCCTGGCAGTGCGTGACGTCAAGGCACTTTAAATGCCCCTGATACAGCTCCCTCCTGCCCGCTCTCCCTTTTCCCGGCCCTTGGCACCACGTGG
0.5506505368397687 CCCTGGTAACTGGGATGGGGGCTCAAGAGAGGTATGTAAAGCCCGTAAGTGGCTCTCCCCGGCTCTTTAGAAAGCTGCTTATCAGGGAATGAAACACTGGCCCAAGCTTGCCATGACAGCAGGAGCTGCCTGAGAAGAGAGGCTGAGATAAATGAAGTATCCTTCATCCCCATCAGTGTGGGCCAGACAGAAACCAGGTGCGAGGCAGTGAGCCTTCATCTTCTGTAAACAATCTTCCATCGCCCACTGCAGCAGCTTGAGCCTGAGATGAGGATTAGAAGAACAGCTTCTGCAGGCCTGGGGCCTCTCAGCTGGACAGAGAGTTAAAGGGCGCACAAGATAGCTCACTGCTGGGAAGGATGCTTGAGGAAACAC
0.3231616255186978 CGACTCAACCGCCACGGCTCCCACAATGCTCGCGTAGCCGGGCTTCGGTTCCTGTGGCGGCGACGGCGGCGGCTCCAAGATGGCGCAGGCGATCTTTGAGGCCCTGGAGGGTGAGCGGCGGCGGGGCCGGCGGAGGCGGCTGTTCCGCGCTGCGCCCCCTCCCGCCGCGCCCTCGCAGCGCCCGGCCTAGGGCGCGCAGCGGCCGCGGGGCGGAGGGCGCCGGGGCTGGAACAGCCGCGGGGCGGGAGGGGCGCGGGCGGGAACAGCGCGGGAGCCGAGGCCCGGCGGGGGAGCTCCGGGGCCGGAACAGCCGGGGAGAGCCAGGCCGGCGGGGAGGGGGCTCGGGTCCGGAACAGCGCCAGCCTGGGCGGCCTTGGGCGGGCGCGGGAGGGGCTCCCTGCAGGGAACTGCGCGGGAGGCGACGGCGGGGCGGTCTGGAACAGCCGCGGCCAGGGAGGCGGCTTGGCGGCGCGCGG
0.1222688428868508 TGAAATGAAATGGAATGGAATTGAATGGAAAGTAATGCAATGGAATAGAATGGAACGAAATTTCACGGAATGGAATCAAACTGAATGGAATCAAATCAATGGAATCAAATCAAATGGAATGGAAAGGAATTGAATGGAGTAGATTGGATTGGATGGGATTGGAATGAAATGTACTGGAAAGGACTCGAATTTCATGAAACGGAATGGAATGAATTGGAACGGAATGGACTCGAATGGAATGGAATGTCATGGGATGGCATCAAATGGAATGACATCAAATGGAATGGAATCGAATGCAATGGAATGCTATGGAATGGAATGGAATGCATTGGAATGGAATGTCCTCTAATGGAATGGATTCGAGTGGAATGGAATTGAATATAATGGAGTCGAATGAAATGGAATTGAAAGGAATGGGATCGAATACAATGGAATATACAGGAATGTAACGTAATGAACTCGAATGTAATTGACTGGAATGGA
0.7260602327487649 AGGACACTCGGGCCCTTCCGTGGCTCTCCCAGTGCAGCCCTGGGCTCAGCACTGCCCTCCCAATGTCCCGGAAGGAGGCCGCTGTGGCCCTGGCTCCGAGGCCCAGGCCCAATCCATCTTCCCAGCCAGTGACTCGCTCTGACAACAGGGCCGAGCTGCCGTGGCATTTGCCTCTGATCTCCGCTGGCCAGGCATTTGTCAGGCAGCCTGCTAGGAATGAAGAATGGGCGCTTGGTGAGGCACAGATTACCCGCCCCAGAGGCCCCTGATGAATTGCAGTTCAGAGCTCAGCTGCCTGGGGCCATGGATCA
1 CTCCCAGGGCAACAGTCACATCCCTCTGACTATCCAACCTGACACCTCTGCAACAGACATGATTGTTTCTGACAAACTCATTTCTTGTTCAATTTGATATGAAAATGAAAGTTGGATTAGCACAATTTCTCACATTTGAGAGCATGTGCATGAATAGCATTTTCAATGTTGCCTTATAGTAAACCCAAATGAGCTTTGAAAGGAGATGCAACAATGCAGGTAGAGTTGATATTTTCAAGATCTCTCTGCTTTGCATCCAAATCAGCCCTGCAAGGTGAAAGCATGCTTAGTGGGCCAAGCTGACACAATCAATGTCACTCTCTTAGAAGCAGACCATCTTCAGAAAGAAATGTTAATCGAATTGTTTCCCATGCAAATGTAAAAACAGGGGAAACAATACTATAGATAATA
0.4863749433778494 CAGGAGAGTTCAGGATTATCTGGCCCTCTTTGCTGATGTATGGAGTCACCGGCTGTCGGAGTGTTTACTAACGGTTATCACCTCAATGCTGTGGCCATTATCAGAGGCAGGACCGCCTGCCGAGGCTGGGGCTCGCACCCTCTCTATTACCACCTGTCATTGGCAGGGAGTGTGTGCTGACACTGCCCAGCCCTCACTGCCTGGCGAAGATAGTTTCTGACGGCTGATCAAAGAGGAGAAGCAAGGCCTGATAAAGAGTGCGTGTTTCGTGTACTTTTAACTTTGGGAAACGTTGGCATTTGCATTTTTTCCCCATCTTCCCGATGCTGGCAGGAACCAAGCCCAATAAATGCAGTGGATTCAGTTACCTAAT
0.9315256219553316 AAGAATCGAGGCATTCCCCTGCCCACCGTTCGGGACCCGAGTGTCAGCCCCACCGCGGATTCCCAGGATCGGGGAGGGCCGCTGGGCATCTGAAGGCGCAGGGCTGGGGGAGCGGCGACTCCGGGAAGAGCGGGGCCGCAGACAATGGACGCGGCGGTAGGAGGGGCGGCGGCTGTGGGAACAGCCGGGAGGCGGCACCCGGGAGCTCGCGCTCCCCCGCCCCCTGCACCCCCCACCCTCATCCCCTCCCCCTCCGCCCCCTCCCCCCTGCGCCGCCGGCTCCCG
0.2466364156479342 AGCTTGGAATGAGCAGTGGCACCAGGAGCTCCCTCCAGCCTGTTCAGAAATAGTTTCCGGGAACTGTGGTGCTTTCCCCGCCCCTGCTCTAGGGCCAGCGGGGAGATGAAGCTGCCCGCATCGCTTGTCTTGGCTGCCTCTCAGCTGACACTGCTGACAGGCTGCTTTGATCTCAGGTTATCAGGGCTAACCCTGTGCCCTGGGCCTGCTCTGCCAGCCCCGCCCACGCTCCCCTCTGCTGAAAGGGCATTCAGTAAGGCCACCAACTGTTGGGAGGGAGGCCCAGTCCGCGTGCCTGGTTGGCCTTGGAGCCTGGGT
0.8415058212409616 AACGGCCCCTCGGCTACTTACCGGGAGGAAGGACAGCCGAGATCCCGGGGCCCCGGGCCGGACCGCGGAGATGCCCCAAACTGACACGGCCGCCATCTTGGAGACAGTGAGCTCCAGCCGGGGGGAGGGGAGGCAAGGCGGCGGAACAGCCGCGGGGGGAGGGGAGCGTCGCGAGGGAACGGCGGCCTGGGGGAGGGAGCTGGAAGAGCCTGGGCGGGCGGCGAGGGGAGGCGGAGGCCCGGCAGCGCGGGTGGGGGGCGGCCGAGAGCGGGAAGAGCTGGGCCGAGAGCCGGGAAAGGCCGGAGGGCGGGGCGGGGCAGCAGGGAAGAGCCGGCCGGCGGGGTCACGTGGGGCCGGTACAAAAGGCCAAAGCCAGGGGAGGAGGAGGACTTGGTGG
0.4660599386216381 ATTTACAAAAAAGTTCCCAATCACTCACTATCCTCTTTAGCTACCACTCTCTCCTCTCTTATCACAAAACCACTGAAAAGAGTACTTGGCTTGCTGTCTTCACTCCTTCTCCACTCATCCTCAATCCCCCACAGTCTGGTTTCTGTCACCAACACGCACTAAAAATATGCCTTTGATGTTTTACACAGGGCTGCCTAATTTGCAAGCCCAGTGGATTTTTCTCAGTCCTCCTCATGATCTCTTCAGGCTGACACTGCTAATCTCCTGCCCTTCCTCCTTGAAACCCTTTACCATCTTGACTTCT
0.8876496184941424 TCATCTTGCCATCTCCAAATTGAATGCAGTTAAAAAAAAAAATGCCGTAAATGGGGATAATCAAGTGAAGTGTAGGTCGTATAGTTATTCCCACGCTGCCTCGTGGCTGTCCAGGAGCTGGAGCTTGTCTGGGGACAGATCTGTCAGTAAAGAATGTGCTGTAGAAGGATTCCATCTCCCTGTAAAAGTCATGTGTGACATTACCTCTCACTAGAAACTTCCCAGCAAGGCCTCCAAGCACAGACTGTTCACCCTTGCCTCCTCCAAGCAAATGTAAGATCTTGTGGG
0.1361742446477542 TGGAATGGAATGTCATGGGATGGCATCAAATGGAATGACATCAAATGGAATGGAATCGAATGCAATGGAATGCTATGGAATGGAATGGAATGCATTGGAATGGAATGTCCGCTAATGGAATGGATTCGAGTGGAATGGAATCGAATATAATGGAGTCGAATGAAATGGAATTGAAAGGAATGGGATCGAATACAATGGAATATACTGGAATGTAACGTAATGAACTGGAATGTAATTGACTGGAATGGAATGTACATGAATGGAATGTAATCGAATGGAAAGTAATC
0.7805733395803792 CACACATTTGTGGGCCGGATTCTGCCTGCTCAGCATCTGACCTGGTCTCTTGGCTTAGAAAAGAGCACGGCTTTGGGGTCAGATGAACTGTGTGTGTATCTTATCTGCCACTTTCTGCCTGCAGGGCCCCAGACAAGTTATTTAATCTCGGAGCCTCTGTTTTCTTATCTGCAAGATGTGGATAAGAATGGCTCTCTCCAAGGGTTGTGGTGGGATTAAAGATAACACGTGCAAGAGTCCCCTACAGGGAACTAGCAACTAGCACGTAGTAAGTCATCGACAAACAGGTCTGTCTGTCTTCAG
0.8030010631637139 TACAAGGACCACGGACTTCCGTTTCGTTCCGCCTGTAAGTCCCGCCTGGTCCCGCCTCCTCCTGAAAAGAGCTCAGTTGTCAAGGAACTATTTTTCTTGCCGTCGTCCCAGAGATGCCTTTGGAAAAGCGGAAGGGCACGGAGGGTTCTGGAGTTCGTTGCTGGCACCTGCGTGGTGTCATGAGAACGTGGCGGGGCGGTGAGTGACGTGAGGGGGCGTGACGGCCAGGCCGGGAGTAGTTGCCCGCGCGGGAGAACAGGGGCTGCGCAGGGAAAGCGGCTTTGAAAAAGAGC
0.8385710169679718 CCTAAAACTGAGTGGCTTAAAAAGCACAGTGATTTATTATCTCTAAGGATCCTTGGGCTGGAAATCTGGGTGGTTCTGTTACTTGTCTTGCCTGGGCTCACTTACTGGCTGTCGTCACCTGGGAGTTTGGGGCTGAGGGTCTAAGATGGTATCACTTACTGTCAGCAGATGGTGCTGACTGTGAGATGGGGTGTCTCTGTTCTTTTTCACACAGTCTCTTATCTTCCAATAGACCAGAATGGACTTCTTCACAGCATGGTGGTCTCAGGGTCCTAAGACCTAGCCTCTAGAACT
0.3277196956205959 TTTGATGATGTTTCTCTTGTATTCCATTGGATAATTCCTTTCAGTTCCCTACGATGATTATTCTTTCGAGTCAATTCGATGATTCTATTCCATTCCCTTCGATGATGATTCCATTTCACTCCATTTGATGATTCCATTCGACTCAATTTGGTGATGATTCAATTCGATGACATTCGATGACTCCATTCAATTTCATTTGATGATGATTACATTCGAGTCCATTTGATGATTGTATTCCTTTCCTTTTGATGATTATTCCATTCGTGTCTATTCAAAGGTTCCATTCTATTCCATTCAATGATGATTGCATTTGATTCCATTCAAAGATTCCTTTCGAGTCCATTCCATAATTCTATTGGATTCCACTAGGTGATGATTC
0.02870190127500827 CGAGCAAACTGTACTCAAGAGGTGGCAGTGAGCGGTCACTGCAGCCTTGGAAAGGCCCTGCCTGGCACACATCGCACTCACTTAGGATGCCTCCACATCCCCAGTCCCAGAAGAGGTGAGGAGAGAAGGCAGCTGCTGACAGGAGGAACTGGGACGGTGTCACCGCTGGTGGTGATTGATGCCCCTGTCCTCGCTTGCTCATTCCCTGCCGTTGCTGCTTCCTCAGCAGGGGAGGTGCCCTTCCTAGCAGGTCCACCCTCCCAGCACGGCCTCTCCCAGGGCCTCTCACCAGTTCATCAGCCCTCACCACTCTCCCTCCAAACCCTGGAGTGCTGACAGGTGCCCAGGAGAGAAA
0.476263861441851 AAAGACGGTTTCACTCTTTTTGCTTTTTAATGCCAGGCTTCCTCGATAGCCTGAGGGTACAGGAAATGTGACATTACCAAGAAGAAGGGCGAAGACAGCTGGAAAGGAGGAGAAGGACCATAACTGCTGGGTTCTTCCCCAGCACAGAGCACGTGTGAACAGCACTGTCAACACTCACACAGTGTGACTCTGGCATAGATTCTGGCTGAGACGAACAGCAGAGTGACACACTGCCCAGGATGTGAATGTTAGCACGTGTACTCACAGTAGAAAGGAAGAAGAAGCCTACAGAAAGCAGAGTAAGGGA
0.4784508419201052 GGGGTACAAGCATGTGTCCACACACGCACACACGCCTCTCTCCGGATAAAGAGGTCTCGGGGTGAGGATTCTGGAACCCGTCCTTCCACACCTACTGCGTCTGGTCACTGTCTCCGAGGCTGACATTCCTCACGCCGAGGGATGGGCAGGCAGAAGGCTGCAGGCAGTGCGCCAGCCAGGTCAGCTTACAGCGAGCTGTCAACCCAGTCACTGACGCCTCAGCGAGGCCATAAATAACAGCGGTGAAGCTGCAGCAGGCCACCCGGGCCTCCCCCAAACCACTCCTCTGCCATCAATCTCGCCTGATGACTGCTTGGCGTTCAGGCTTCCGCGTGACCCGACC
0.5015290145355032 TCCCAGAGTATAGTTGGGAGGGCGAGTCATATCTCACAACCTCCATGACCCAGTGCTCTGTTGTATGGGAAGGGAAAGTCAGTGGGGTGGATGGAAAGTGTTGGAAGGAATGAGCATGGGGGCTTAGAATGGCAGGGTCTAAGTAGGTGCCAGGGAAAGGAAGCAGAAAGTGCATGTTTGAAAAGCCAGAGGTGTTTCCCTTTGAAAGCTTAGCTGCTACACAGAGCAGCTCTATCCATGCCTTGACAGCTCCCAGACCCAGCTGTCAGAGGGCACCTTTCACTCTCTTTAACCAGCTGAAGTGCCCTGGCTGTCCTGAACT
0.8972284935666588 CACTGGACACAGGTATGGAGACAGCAAAATGAACCGTCTTTGAAGGATCTATTTTGCAAGTGAACCAGTAGGGGGAACTGTCAGGGGATTTAACTGGGAGTGGAATGCCCACTTGGGTCTGCTCAGCTTCAAGGGCAGGTTGTCTGTGAAGAAAGCTAGGAATCAGAGAAATCTCAGCCTGGCATTCATTTTAAGTTGTCAACAACCAGAGGAGAAGAAAGTCTACAGTGTTGGATTCTGGGTGGACCAAAATGATGAGTGGCGATCATTAGGGTTTAGGGAGG
0.8792646862185572 ATGTGTTCATTCAAAATAACAAAGTCCAATCAAACTATACAGATAAAACACAACTGGGTAATACAATACCACCATCCCTAAGCAGGAAGAGAAAAGCCACGGGGCTGCAGGACCAGGAGAAAGAGACACATGATCAAAGGGAGCCCGAGCCTGAGCTCGGATGTGTGTCAACACCGTGGCTCCCAGGGCCATGACCTTATCCATTCATCAATATGGAGAAAAGGGCTCTCTGCGCTTAAGAGGAAGGCAGTGGAAGAGAGGAGGCCCTTCTTTGTTCTTTTGGGCCTGACAAGAAGCAGGCACAACC
0.5484401658385456 CCATGGCCTTTTCAAAGTCCTGCTGTGGAAGATGTCTCTCTCTGTCACTCACCATCACCCGTTCTTCAAATATGAGCTGCTCATTCATCAGGCTTGTGTTGGATGGTCACTCTGAGCAAGGCGCCAGAGACAAAATGCAGAGCCACTCCAAGTCCTTATCATGGAGGAATTGACAGGTCTTGAAGCAGCTTTCTCTCTCTCTCTCTTTCTCTTCCTCTCCTCCCTCAAATGTTCAGAACTCAAATGATGATTATTTCTTTTCTTTCTCACTT
0.6867107276596619 CCCATTCGCTCTTTATTTTACCCTGGTTCCAGGAATCATTTGTTACACATAGTTGTGCCTGGGCTGCTGAGGACTGGATTCTTCCTTGCATAGCATGCAGTTTGTGTGCCTGCTTAGCGTGCCTTCACAGACACGTCAGTGCCCTCTGTGCTCAGGCACTTTTGTTTATTTGAATGCTCATTCCCGGCCCATAGAGCTGTGAGGTGAGAGAAAGCAGGGCCAGGACCTTGAGTATGTCTGGGTAAATTCCACACCGTAGAACCACTGGAGACCAGAGGAGAGTGAGACAGTGAGGATGTGTAGGAAGCCCCCTCCCTGGCAACTT
0.9583042318202651 TTCCATCCTCCTGTGAACATTTGGTGTCACACTGGTCTCATTCCTCGGGTGGTCCCAGATGGCAGTGGGGGGCTGGGGAACTGGGAGGTCTTGCAGAGGAACAACTCCTCACTGCCTCTGGCACTCATCGCTGGCAGTTCTGTCTCTCAGGTTGCAGATAACAACTGTCAGATGGTCTCACTGTGAAGCAATAAGCTTCCCTAAAACAAGGAGGCAGGCCAAGCGCCAGAAAGCTGCAGTCTGGACAAAACACACAGCCTGGAAAGAATTAAAAGTTCATGTGCAA
0.6683808842463018 AACGGGACAACTGTGCTTTCTCTATCACCCCAAGCCCCTGTTTCCAAGCTGTACCCTCTCCTTGATTCTTATCCCTCCCCCATCCCACCCACACCAAGCAGCTTATTGATCAAAGAGGTATGGTGCTAGACACAGAGTAGGTGCTGAGGAGATGATGCAGGACAGGACAGTCAACGCTGTCAGGTTGTGACCATTATCCTTTCATCTCACCCATCCAGAAAAGCTACAGCACACTTCCCTATCTCTTGCAGGCTTTTTAAGCTCTAAATAACTGATAGATGTGAGTAGGAGAAAGAGCAAAATAACACTAGG
0.7510604162951138 CCCAGCAAGAGTAAATCTATTAACATTTTCTTATTGACTCTCAGATGCCTCACTGTGATCTGTCTCCATGAGCTGAAACAAAACAAAATTTCTGATCAAAGGGATTTGTCTCATGGGGGATCAACTTTGTCAGTAGATAACTCATCACTCGGCTGGCAGGGAGTTGTTGCTTATCTGAGGACAGCCAGAAATGGCAGCATGACTCTCAGAAAGGATTTGTAGTCAAAACCAGTAACTCTCTGGGTGTCAGATATGAACAAGGGCTGCTCAGTCCCC
0.9007436832921049 TTAACGTCATGTTTCCCCAGATCTGCTTGCTTGTGGCTTGCTTGAAGCCTCCATCTGGCCTGGCCTGTTTAATTTGAGCTCCTTTCTGCCTCCTGACCTGAGAGCCTGAAGGGCAGGACAAGGCATGCCTCATGTCACCCTCACTCTGCTCAGTCCTGCCACTGATGTTTTGCAGACACTCCAGAATAATGAACAAGAGAATGTCAAGGGCTTTGTGGAGGAATGTCTTGTGTATACAGATTGGACACTTAGATCATGAGAATTCACTATATATGTTCCTTG
0.8161674894358197 CACACGGCCAGGCATCCTCCTCGGCCCTCCTGGGCACTGGGTGGACACCACTGGCTGTGGCCTGGCCCTGGCCTTCTCCAGACAGCCCTGTCCACCCCAAAGCCCAGCCACCCTGGGCCTGCAGCAGGCCTGTGGAGTTCTCAGTTGCGTGGGGACCAGAGGGTGCTGGAGAAACAAACCAGACGCAGCTGAAGGCAGTCAGGGCAGGGCGCAATCAGCGATAAGAGCTGCATAGGGGCCACAGCGTAACCTGAGCTCCAGTCGGTGGAAAGAAAAGGCAGAGACGTTGCAGAGGCCAGGT
1 AGACTCTGCCTCAAAAATAAATAAATACATAAATAAAAATAATAGCAACAGCAGAAACAGGCAGTGACGGTGGAGGGTGTGTGTGTGAATGACCTCAGCTAGTGGCAGTTCGTCATTGCCACTAAGGCCAGCCACACAGGTGACACTGACAGTGTGCAGAGAGGCCATCAAGGGTGTCGAGCTCAGATCACACCCTTCCCTCCCCACCAGGGGGCCTGCTCAGCGTCCACTACAAAACCTCCGACACCTTCAGGAAGCAGAACTGAGCCTCGGGGGTCTTGCCCCTTGCTGG
0.8973189977519301 GGCCTGAGCCCAAGCAGACGCTGCAAGGCTGCTCTTCTCCCTCCCAGTCTGGGCAGCATGGTTTCTGCTCTGAGAAGCCGCCGGGAGCAGTTGAGATGAGCTGGGTGCCTGGTTAGTGTCTGCACCACCTTTCGGGGCCTGACATGTGGCGTCTCGCCTGTAGGCTGCGGCCAGCATCTAAGCGGAGCACTTGGATCTAGCAGTTATTCACATCTGCGGCTCCGTGTGTCCCCCTCCTAGAACCTCCCCACAACCCCCAAATTAATTGGATTGTGT
0.7135462532066901 CTTGGGAGCCTCAGGGCAAAGCCAGGAGAGCCATTGAGGCAGGGCGGTGAGTGGAAATGGAGGGAGCTGTCAGCGACCCAGAACTGGCTGACATTTCCCAGGCTCTGAAGCTCTGGTCTGCCTCACTGCACACCAGGAAGTGTGTATCCCTCTGCATTGGTTTCTTCTCTTGACACAGCACTCCTGCCTGTCGAGTTGCAGGATTCAGCCTTATCTCATCTTACTTTGGGCAAAACTGGAAGCCCTGGCTCCCGACACGCGCCAGCGTAGCCTTTGCCTATTTCTCTGACTTAA
0.7777592008690084 AGGCTCCAGGGGAACACGGAAATGGCATTAAATAACGCTGAATCACACAGTAAGAAAGTTCCCCTTCCCTTCTCCTCCGTGCCTGCTGATTACTCATGGAGAAAGTCTCTGTTTCCTGCCAGCATGTCTCTAACACCTCTCTGACAGCCCCTAATCTCCCTTTTCAATTGGGAAAAGCAGACTTCAAGCTCAGAACCTGCTAGGGAGCTGGAATGCCAGGACATCATCTTGTTTTCATCATGAATAGTTTAGCTTATATATTTTTATTTAACAA
0.8150800449084044 AGGGATCAGACAGATTCTGCTTACTTCCTATTCCTCCTCTATCCTTCACTACAGTGTCTGCAATCACAAAGCTTCCCCTCCAAGCAAGTACACTGGCTGGGTGAGAGGGGTGAGCAGGCCAGTATTTCTGAGTGGCAAAAGAGAGTGACCAGACATGCCTGTCCTTTGTCACTAACCACCTTTCAAGCTTCCCCTTCTGCTGAGCCATCTGCAGGAAAATGTCAACATGTGCTGCAGGGAAAAAATGTATTTGTTAATTTATGTGCTGGGTAAATTCACTTATTCAGTAGA
0.7687921497459753 GTGTTAGAGTCATTTTTAAGGTCTGTGACCTAACTTGGAAAGCCAGTTGTAAAGGGTGAGATGGGTGTTTAGGTCCAGGGTGGCAAGTCTGAGCCTGGTACAGGCTGCTGGGCTACATATCCAAGCTGCGCTTATCTTCTCCTGTCAAACCATCTCCCTCCACCTCCCCTTATCTCACTCTAGATAAGGGCTGGTTCCTGGAGCTCCCACGCCTATCCAGCCCTCAGCACCACCTTTAGCTCTTTTTCCACTGGAGCCCGAAGACGAAGTTGTTCATTCTTCTTCTAGGGGAGGAGGGGTGGCCATT
0.373435740921461 CAGGCCTTGCTGACGGGCTGACATCACTGCAAACGTTTTCACTTACTCTTTGGCAACAGTTAAATCCTTGCCAAAGGCCAGTCAGTAAGTCGGAAAGTGTTGTGAGAGAGAGGCTGGGGGAGTCGGAGTGTGAGTGTCAGCTAGCAGTCTGTGGTGATGACAGCAGGGAGATCTAGGTGCTGAAACCATTTTAAAGGTCACTCTGTGGCAGAACAAAAGACCTCTGATTTAGAAAAGGAAACAGAACTCTGGGCCATTGAAGCCCTGGGATGCCGCCCTCTGAGCACTCTGCAAATTCATCATCTGCTCCCTGATTGTGAAGACTGGGGA
1 AGGACAGAAGTGGCCACTGGTCATTTCCACATAATACACATGTTAAAACTGTACTTTGCTCTATGGCTGCTGCTGCTGCTATTTGTAAAACTCAGCTCTGCTTGAATCCCTGCCTCATAGTCACAAAGCCTGCCAGACTCCTTTGATCACAAAGTTACCCCATGCCTGCAGCCATGCTCTAAGTTGGTCTGTCTGTTTCTCTTCTTTCTAAGCAGTGATATTAGAGGTTGTGGCTCAGTATGTGTATAAAGTATTTCTTCTT
0.968484066643335 CCGGAGACCTTTCCAGAGGAAGGGTTAAGCTCCCAAGGTAGTTAGTGGAAATCAAAGAACTGCATGCTCTCATTATCTCATAACAAACATACCAGGTTAATAGCTGTCGCTGCCGCTCTAAACCACGTGTGTTGTGTTTTGTGAGTGCTGACATGGGGCGTTCTTTCTCCCACCATATCTGCAACTTGACAGTGTCATCGTGGTTGGGTGCTGGAGTCTCCTAAAGTGTTTTGCATACTGTCTCCTGCACGTTGCCT
0.8707137844416368 GGCCCGCGCGAGGCCGCCCCTGAGCCTCACCTGTGCGCGGAGCGGTGACTCACCTGCCCTCGCGCAGCCCTCTCCGCCCGCGGGCTGTTCCAGGAGTCACCGCTCCTCCTCCCTCTCAGGGGTCACTCCCGGCCTAAGCTCCCACTAGGGGCCGGGGAGGAAGGAATTCTGAGGTGGGCGGCGGGGAGGAAGAGGTCCCTCGGGGGTCCCGGTCCGGCGTTGCCAGACTCTCTTCGCGGTGGGGGCCTTCCCTTTCCCCAAAAGCGGAGGCCGGAACGGCCGGGAGGAGCGGGCGGGGCGGCGGCGGGAGGCGCCGGGAAGAGCGAGTCGGAGGGAGGTGCCAGGAAGGGCGGGCGGGGCCGGGACAGGGGCGGGGGCCGCGGGCGGGGGGCGGGCCGGGGGCGGGGGCGTGGGGCGGCCCATTT
0.9554075378529349 CCAAATCTGAAGCTTTGAAATGAGCGGCTATTTACTCAATTTAACTGCAGGATATTTGAATCCTTTGTCACTTCATTCCTTCTAACCTTTCCCCAAACACCTCAGCCCCTGATAAGAGGCTGATGCCCATGACTGCCTTAGATTAAATCAACTGAATTGAGAGTCTGTGTTTGAGCTAATGGCTAGGCAACTTGGGGAATGTGGCTGGTGAGTTGGAGAGTGGATAGAAGGCAGGTGTTTGCTTCTAAATGTCAGATTTCTGAGGCATGGAAACCACCCTGTAG
0.8471085210776925 GTGCAACTGGAAATATACGGAGTTTGAAATTAGAATTGTCAACTGTTCACATGGAGATCAATAGCCTTGGAAAGGGTGACTGTGGGCCCTGCCAGGCAAGCTCAGTGACAGCCTCACAGCCAGTCAAGAATGTCAGCAAGACAGGCTGTGGGCAGAGTGATGAAATGCAGCCCCACGTATGAGGGTGTTAGGTGATCACATTTTAAATTTAATGGTGTAGGCTTCTGCCAAGGGGGTACTAGAGGTTACTCCAGTGCACAATAAAATAAA
0.5029722284708392 GCCTCGCCCTGCCCCACCTCCGTCCGCATAGTGCCCATGGCCAGGCTGTCTGGGCGCAGCATTCCTGGGCCTGCTCTCTGGCTCCCAGTGAGGGTCCCCGCCCCACGGGAGATAAGATAGAGCTGGTGTCAGGGAGGAGGTGTGGACGGGGCCGCACCGGCACGCTGTGAGTGATAAAAGGGGCTTTGGAAAGGTGCTGACGTGGCACCGTGCTTAATGAGGTCATCGCCGAAGCTGCTGCCCCGATAACCTGGAGGTCAGGCTCCCAGCAAGTGGCCATGGCGGGAAGC
0.6661781867126564 CAGCTTCCCTGGCTCAGGCCCTGTGCAAACCAGTCTCTCGCCCTGTCAGAGGGAGGGACTGCTCCCTGGAGCCCACCCAGCTGGCTGGGAGCTCTCTGCGTGCCTGCCACTGTGTGACAGTCATGCGATGAGAGGGAAGCTCAGCACATGTCCCCAGCCACCATCAGTTGGCGGTTCCTTGAGTGGAGGGATGTCAGAGGCACGTCAACACTTTGGCGGCTGCTATTCCAGGCGGGCGAGGCAGGCAGAGGGCCTGTGGGCGCCTGAGTCTGCAGAGCCAGCCCTCGGGGGAAAGGAGCCAAGACACAGAAGGGGCTCAAG
0.9764227671978731 AAACAGCAGCTGTGGTTCACTAAGTGCTTTCTGCTTATTATGTGCCAAGTACTTCACATGTGGCTGCTTTGTGTCATTCTCACATCAAACCTGATGGGTGGTTACTATAATTATCTCCTTTTACAGATAAGGAAACTGAAGCCCAGAGGGGTGGAGTAACTAGTCCAGCAAAAGTAAGCCATGTAACTGGGATTCAAATTCAGCTTGAACATCTCAGCACTCATCTGTTTTCGATCACATAACACTCCCTCTAGGCATTCACAGGAGCTCAAGGATAGGAGTAGGGAGGGGAAAGCTAGGAGTCCGAAGACTTGAGGGGCCAGGCATGGTGGCATGCACCTGTAATCCCAGCAT
0.8532134416990258 AAGCTTCTAAACAGCTGAGCAAGGATGTAAATCAGGGATATCTGAATACATTAGCCCATGCCCCAGTTGATAAGGCAGCAGTAACTGAACTGGAAGCCAACCCTGTATGTTATCAAGATCTACCAGCCATCTACAGCTGGCCTCCTGGGAGGCCTGATACAGGGTATCTGTCAATGATATGGAAGCCTGATAAGCTGCTGGGCTTGAGAGGGAGCAGCCCTGGGCTTGAATTCTGGTTCTGCAACTTAATACCTCTGTATCTCCGGACATGGTGTTT
0.6718355868852272 CAGCTGAGGTGATGGCTGATGAGTGGAGGGATTTTAAGTGGACGGAAGGAGTATGGAATGTCAGGGTCAGGAGCAATGGGGATCATCAGGGCAGTGCTGCCTCAGACTCGGGGGTCTGTTCATTGTCTTATGTCAGCTCCTTGGGATGAGTGGCTGAGCTGTGCCCAAGGCTGGGCAGACAGGTCCAGGGATAAAGAAGGGTTCAAATCTGATGAAGATAGGCAGTGGTGAGTGCCAGGCCATAATGAGACTTGTCATCTCAGCCACGAGGATCTGGAGAG
0.5028667965089705 GAAGTAATATGTATCAGGAAAAGAAGAGCTCATCGTCTCCTCTAAAAGGGAATTAATTATCTTTTATCCAGTATACGTATGGAGCCAATCAGTGAGTGAGATATATACAGGCCCTCTGACAATTGTCAGAAGGTCTTGACATAGCTGCTAATGATCTGTTGACAGGAACAGCTGGTGATAGGAACAGAGGTGAGTGTTACTAGAGAAGAAGGCATGAAGATCTCACTGCAATGGTGCAGTGAGAGAACAGTAGACACGGTGCCAGCCAGAGCCCCATTAACTGGCCCTTAGTAAATTCC
0.6724526198144997 AGGGTGGCTGTGAGCTGCCGGTGTGGCCCCAGGCACCTCAAAGGGTCCTCGGTGTTCAACAACAGGAAGTGCTGGCAGGCTTCCCTCGCTAGGGAACTGAAAGTGGTGACAACAGAGGATGTGTTCTTCAGGCTATCAGATAAAGCCCTCTGCACTGAGAACTGCTTCTGACGAGGAACAGAGACTTCACTGGTCTCTTCCCCATGCCTTGCCCTTGCCCTAACTAACTTCTGAATTTATATCACCTGTGAGTTCTGCTCTAATTCAGGGACTTGGGCGGAGAGGTTTCGGACA
0.3102290586563145 ACTCCTCAGAGACCCATGAATCTTCTTAACAAAGAAGAGTCTTCCAGGCCTCATACATTAGCCAGGCATTTTCTCCCAGGCCTTCCAAGCTTCCAGCTCCCTGCAGGGCCTCAGCTGACACTCTTCACAGGCACCTACTTTGCAAGGCCCTTGGTCTCCCGACAAGACAAGCAACACAAGCCAGATAACCACTCAAAGGGAGGCAGTGGAGATGGCTCTCATTCCCTGCCAGGAGGATCGCCATAACAAGGTGGCTGGAAGAACCTTCCGTGGCATGGGAACAG
0.7835674663514393 CAGCTCACGTTCCCTATTAGTGGGTGAACAATCCAACGCTTGGTGAATTCTGCTTCACAATGATAGGAAGAGCCGACATCGAAGGATCAAAAAGCGACGTCGCTATGAACGCTTGGCCGCCACAAGCCAGTTATCCCTGTGGTAACTTTTCTGACACCTCCTGCTTAAAACCCAAAAGGTCAGAAGGATCGTGAGGCCCCGCTTTCACGGTCTGTATTCGTACTGAAAATCAAGATCAAGCGAGCTTTTGCCCTTCTGCTCCACGGGAGGTTTCTGTCCTCCCTGAGCTCGCCTTAGGACACCTGCGTTACCGTTTGACAGGTGTACAGCCCCAGTCAAACTCCCC
0.7834226617660323 TTTCCTTTCTTTGTATTCACTGTAGGTGTGAAATGTTTGACAATTTGACAGTCTGTGACATGGTTCACAGATGTGGTTCCTGCATGTTATCAGGGCTTGGCCAGGTTCAGGCAGGCCTGCAGGCTGTCCCTACAACGGGCAGATTGAAGTGTGCACAGATGTCCGTGACAGGGCTGTGACCAGCCTGTGATCAGGCTGTGACCAGGTTGCTGCCTGGACCAGGCAGAGCTTTGTCCCATAATAGGGGTGCTGCCAGGGAGTCTGGCACCTGGAGCACAGCCACTGGCTTGGACATGAGCCATCAAACAGCATGGAATA
0.5310224741347603 CCCATGGCCCATGGCTCATGCTGCCCCTTATCTGCTCCTCTCCTCCATCACCCGGCTCCCAGAAGGCACCTTTTCATCTTCCCCATTCTCTTATCTTGCCCTTATCCCAGGGTCCCCTGTATCTGCTTCCTTTTGCTCTCTGGCCCCTTATCAGATGTCCCTCTCTCCATCACACTTCCCTTATCTGCTCATCCCCTTGCCCACACGCACCGTTATTTTTATTGCCTTCTGGAAAGAGGCCCACAATAAACAGCAAGAGC
0.6341084249619099 CTAACCGGGTGGCTTTGAGTGAGTTCCTTATCCTTTCCTCAGCCTCCATCTCCTTATCTGTAATAATAATGATAGCAACCCTGGGCCTGGTGTTGTTCTAAGTGTCTTGTGTACTCTGCAGCAATTCATTCCATCGTGATAATACCTTATCCGGCAGCACTGTTATCAGTTACTCCCCCGTTTTACAGATGAGAAAACAGATCATCCGGCCAGTGAGTGGTGAAAATGGGATTTTTGTTTAACACGCTGTCACCTCGGGGAGTCGAGGGGAAGATTAAATGAGATAATGAACATGTATAGTTTACCCACGATGCGTGTGTAACAAATGA
1 AACTCCTTTGTGATGTGTGCATTCAATTCAAAGAGTGAAACCTCTCTTTTCACAGAGCAGTTTTGAAACACTGTTTTTGTAGGATTTCCAAGGGGATATTTATAGCGCATTGAGCCTACGGCGGAAAAAGAAACATCTTCCTATAAAAACTAGACAGAATACTTCTCAGAATCTGCTTTGCGATGTGTGCGTTCAACTCACAGAGTAAAACTTTTCTTTTGATAGAGCAGTTTTGAAACACTCTGTTTGTAAAG
0.9012104591998589 GCTAGGCTCAGCCCCAAAGTTCACTCTGCAATTCCCCAGGCAAGGGGTTGATGCCTGTTTGCACTCCAGCTCGGGCTTGTGGATTTGCTGTTGAGTTTGGCACTGATTTGCAATCTGCAAGTTGATGGATGCTGAGGCTGCTGGCAGCTGGGCGAGTGAGAAGTGACTCTGAGATAAGAGAACCCCTCCTGATATTTACAGCAGGGCTCTGAGAGTCCAGACAGTTTTCTGAGGCCTCAGCCAGATCTGG
0.3409749254992305 CTTCTGCTGTCTGGTCTGCTCAGCCGGCTCCCTGCAAGCATGACCAGGGACTGCTGGGTGCTCAATGCAGGGCTGGGTTAGCCCGGCTCCCTCCCGAGAGAAGCCCACAGCCCTAGGTCAAGATAAGCCAGTGCCCAGCTGCCTGTGATATGAAGCAGGAGGCAGATGCGATAAGAGGTGTCAGGGCGGGCCCGGGAACTTTTGAACTTAAGGGGTGGGAGGGCCAGGAAGGCATCAGGGAGGAGGTTTCGTAGGAGCCTGAATGTGG
0.71813593236788 AGAGATAGCTTGAGGGGCTCCCATGGGGTTGCTGGCAGAGCGCTCCGCAGAGCCAGCCTCACCCTCCAGACACTGGTTTCTGGGGGTTTTCCAAAGGCAGCCTCTGGAGGCCTCCGCCTGCCCCACACATCACCGACGCCTGGGTGCTGCCCGAGGCATCACTGATGACCACAGGGCTGGGTCCCCTGCTTCTCGTCTGTCATCACTATTCCAGCCGCTCCGTGTTCAAGTGGACCGGCCCTCATCTCCCCCACCTTCCTTCTTCCTCCCCGACACTGCCTCCTCCC
0.5999290698420606 CTGTGCATGCCATAAACGCCAGGACAAAGGCCTGGCAGTGACCCCCAGGCTGGCCAGGCACTGATGAAAGACACAGTGCCTGTCTTGGAGGGATAGGCTCAGGGGGGTTGCTGGGCAGCCATCAACAATCACCAAACACATGTGATAAGCGCTGCCATTGAGGTGTGAGCACGCAGGGTACTGAAAGCAGAGGCAAGTCCCTGAGGTTCCCCAGGAAGATAGAGGTGAAGCAGGGATCTGCAGGCAGCAGGGGTGGGGAGTGGGGGGAGCACTGAGCTG
1 ATGAATTTTTTTTTATTCACTGAGGCTTTATGTCATATAAAAATATGTGACGTATTACTGCTCTGCTGCCCATCTATTTAAGGCATTCTTCAGTAGACTTGTCAGGGCTTATCTAAATCTTAGCACCACTTACGTGTGGCTGATTGCTTGGCAGGAGGAGGTTCCTGCATTTTCTTCCTCCTGTGTATTAGTGAATTGAAATCAAGGGAAAAACTGCTTGGCTTTCTGCTTCCTTCCATGGTAGGTAGACTTTTCTACATATTTTCCAACAG
0.7932323426907977 CCCTCTTCTCCAACTGAACTGACAGTATCAAAGGTTTTGCCCTCGTCCATTTCCCGGGTAGGTCTCTGACAATAGTATCTTGTTCCCTGGCTACCACAATGAGAAGTGACAAGGACATTTTCCTGGCATTGCAGGTCATAGCTCAGCAGGAGCTGACATGGAGAACACACAGACCCCAGACAGGTCTCCCCGCTGGGTGACAGATACCAGGCCCATCAAACTCAGAAAATCTCTTCCTTTACTTCTCTTCTACATCAGTCAAGTCAAATTTAGTTATAAGCAACAGATTCCAAATCTGGCTGGCCTATGAAAAAGAGAAGTA
0.5044069702760515 CTAACTTGCACCTTTCCCTTCACAAGCAAACTCCTGGAAGAGCTGTCAGCGTTCCTTGGCTCCATTTCCTCAACTACTCTTCACCTTTCATGCCCTACAGTCTGGTTTCTATCCTCAGCACCTCACTGAAACTGCTCTTCCAAGCTCACCTACCACCACCTTATCTTCTTTGATACTAACAACCAAGCCCAATTCCCTTCTCTGTGTCTGTTCCTCTTCAGTTTTCATGCCAGGCTTCTCTTCTCCTTAAATGC
0.3787956368816029 AAAGTACCATTCACCTCTAGTGGTCACTCATCAGTCCTTATCTTACCCAAACTCTTTTTTGACACAGCTGATCTCTCTTCCCTTGAAGCTTTCTTCACTTGGCTTAAAGGCCACAGCATTCTGGTTTGCCTCCTCTGACACCTCACTGACGCCGCTCACACTCCTTCACTAGCTTCTGGTTACTTATCTGGCTTCTTAATGCCAGTGTGTCCCAAGACTTAGTCCTCAATCTTCTTCACCTATCTACAGTTACTCCCTTATTGAGCCC
0.7139292976649222 AGCAGGTGCTGGGGCAGGGCAGATGTGGGAACAGGAACCCCTTGGCTCTCAGCGCCCACCCCAGCGTGTTGTAGAATCCAGAGCAGACTCTCCCTGCAGCCCGAGGCTGCCTGGACTCACTCTCACCTCACAAAGCTGTCCCTGAAATGGGCAGAGAGCTGACTCTGACACAACACAGGCTGCATTCTTGGCCTGTCTGTAATCAGATTTCTCTTTTGTAAGATTCAACATTTTCTGAGCACCTACTGTGTGCCAGGCACTTTTGTACACAGGCTCTC
0.8737655470074669 TCCCCTGCCCTGGGGGAGGGAGCAGCCCACAGTGTGACCCGAAATTTCCCCAAGTTAAAGACCATCTGCCTGTCTGTCTATCCATCCCCCCAGGGCCCAGGGGGCTGGTGAGTGTGGACAGACAGACACAGGCTGTGGGAAGCTGCAGTGATTAATGAGTGATGAAAACCAGACTTCGTCAGGATGGGGGTGGGGACATAGAAGCAGAGAGAGGTTGTCTGTTTTATGCTTGGCTCAGCTCTAA
0.9784982983136074 AGCTGAGATGCAAAGTATTTGAAAAAGAAATTAGAAGAATGCATTATCTAGAGACATTTCCTGCCACCAAAACACTCCCTCTTAGGCCGATGACTGAGGAATCCCAGAAGGCATTCTCCCCTGGATGTGGCCTACATCAATGGCACATTTCTGAATTGTCAGGCTGAAAGCCCATCAATAGTCGTAAGGAAAAGGATGTGTCCTCATTGGGGGTGTGTTGATGGATCTGATCCAGAACATGAGAGGTGATTCCTGGGTTACTTGGATG
0.350005206778235 CTTTGGTCGCTCGCTCCTCTCCTACTTGGATAACTGTGGTAATTCTAGAGCTAATACATGCCGACGGGCGCTGACCCCCTTCGCGGGGGGGATGCGTGCATTTATCAGATCAAAACCAACCCGGTCAGCCCCTCTCCGGCCCCGGCCGGGGGGCGGGCGCCGGCGGCTTTGGTGACTCTAGATAACCTCGGGCCGATCGCACGCCCCCCGTGGCGGCGACGACCCATTCGAACGTCTGCCCTATCAACTTTCGATGGTAGTCGCCGTGCCTACCATGGTGACCACGGGTGACGGGGAATCAGGGTT
0.4289208350915912 AGCTTTATCAGACCTCAGGAACTTGTGACTTCCAGAAAACAAGAATGGTTCTGACCTGGGATCGTGAGAATGTCTTTATCCTAGACATGCCAATCCACACTTAGCCAGTGTGAAGGGAAGAGTCTGCACTTAGCCAGCATGAAGGGAAGAGTGGCAGAGAGGGGACTATCTGAGTCCTGTCACGGCCTGTCAGGAGAGTGACAGGTGAGGGTGGGCAGGAGGTCTCCGAATGAACTGCTTTGCTGGTAGGCTGTGTTTCTGTGTTTAGCT
0.006900163678020576 AATCAAAGGCAATCATGGTCGAATGGAATCAAATGGAAACATCATTGAATAGAATTGAATGGAATCATCACATGGAATCGAATGGAATCATCGTAAATGGAATCAAGTGGAATCATCGAATGGAATCTAAGGGAATCATCGAATGGGATTGAATGTAATCTTTGAATGGATTCGATTGGAATAATCATCGAATGGACTTGAATTGAATTATCGAATGGATTTGAATGGAATCATC
0.356299933479627 CTCTCTTAAGGTAGCCAAATGCCTCGTCATCTAATTAGTGACGCGCATGAATGGATGAACGAGATTCCCACTGTCCCTACCTACTATCCAGCGAAACCACAGCCAAGGGAACGGGCTTGGCGGAATCAGCGGGGAAAGAAGACCCTGTTGAGCTTGACTCTAGTCTGGCACGGTGAAGAGACATGAGAGGTGTAGAATAAGTGGGAGGCCCCCGGCGCCCCCCCGGTGTCCCCGCGAGGGGCCCGGGGCGGGGTCCGCCGGCCCTGCGGGCCGCCGGTGAAATACCACTACTCTGATCGTTTTTTCACTGACCCGGTGAGGCGGGGGGGCGAGCCCCGAGGGGCTCTCGCTTCTGGCGCCAAGCGCCCGGCCGCGCGCCGGCCGGGCGCGACCCGCTCCGGGGACAGTGCCAGGTGGGGAGTTTGACTGGGGCGGTACACCTGTCAAACGGTAACGCAGGTGTCCTAAGGCGAGCTCAGGGAGGACAGAAACCTCCCGTGGAGCAGAAGGGCAAAAGCTCGCTTGATCTTGATTTTCAGTACGAATACAGACCGTGAAAGCGGGGCCTCACGATCCTTCTGACCTTTTGGGTTTTAAGCAGGAGGTGTCAGAAAAGTTACCACAGGGATAACTGGCTTGTGGCGGCCAAGCGTTCATAGCGACGTCGCTTTTTGATCCTTCGATGTCGGCTCTTCCTATCATTGTGAAGCAGAATT
1 TCTCTTATACTAGTATCCTTAATCATTTTTATTGCCACAACTAACCTCCTCGGACTCCTGCCTCACTCATTTACACCAACCACCCAACTATCTATAAACCTAGCCATGGCCATCCCCTTATGAGCGGGCGCAGTGATTATAGGCTTTCGCTCTAAGATTAAAAATGCCCTAGCCCACTTCTTACCACAAGGCACACCTACACCCCTTATCCCTATACTAGTTATTATCGAAACCATCAGCCTACTCATTCA
1 ATTATTGCCTCAATTTCAGAGCCTGTTATTGGTCTATTCAGGCATTCAACTTCTTCCTGGTTTACTCTGGGGAGGTTGCATGTGTCCAGGAATTTATTCATTTCTTCTAGATTTTCGAGTTTGTTTGCCTAGAGGTGTTGACAGTATTCTCTCATGGTAGTTTGTACTTCTGTGGGATCAGTGGTGATATCCCCTTTATCATTTTTTATTGCATCTGCTTGATTCTTCTTCCTTTCATTC
0.6706879983624526 CAGATCAACTGTCAAACAAACTATTTCTGTATCTGTGACTGCCTTTCTTCTGCCCTCGCCAACACCTAGCACAGTACCCAAATCCTCTCCAACCCAGACAGTTGCTGACAGAAAGGCCTCTGGGACTGTCAACACCCCAGTGTGATTCAGAGCTCCCAGGGAGTCTGAGGCAGTCCCCTTGTTTATGGATTCACTGATTGATTGGGCCCTAAAAGCTCCTGGCCCAGAAGACTAAATGGGTTGTAATCAATCATTAACAATA
0.3888178205300707 GGAAACACATCTGCCTCTGATGTGAGCTGCACTGCACATCATCACTGAAATGTGATCAAGATAACTGGGGGCTTTTGCTCATTCTCTGGGAGTGGTGAAAGATCTAATGACTCCGTGATCAAAGAGGTGTGGCAAGAAGTTATCTGAAGATTTCAGACCTGCCACCTTCTGATTCTGAAGGATTAGCTGAGAGATAAAGAAAAATATCTGGCTCCCATCAGGACATTAAGTCCACTTCATTGATACACAGTGGCCACAATGTTTCTTTAC
0.8755376955845769 TGTAGGGCCTTCTGTATTCCTTACAACTTTCAATTATTTAAAACGTGACACCCTTTCTTTGTTCCCCTGCATGGAGCAGCCCTGGGGCCTGCCCAGTGTCTGCAGCACTCAGCCAAAGGGAAGGAGGGAGGGACCCTCCGCCGTCTGGTCGCTCTGGGCTGCCACCATTTCCCAGACGAATAGGAGCTGTAAAACTTGTGGCTTACATAACCCAGTGAGCATTCTCCAGCTAATCTACAATCTGGGCTTTGAAGATCACAAGAAAGCAAAGGTCACGACCCAGAGATCAAAGTGACAGAAGCCCA
1 TATTTACATTAGCTAAGTGCTATTCTTAATAATAAACGCCCTCTATGGATATCTCTCGCAGGCAAACATGAGACAGTTGGAGGGCAGCTCTTGCAATCTTATCAGAAGCTGAGGTGAGTGTTACAAAGGACAGACCGTCCCTGGCCCTCCGGGGCAGGAGCGCAGAGGACACTCTGCAAGAACTTATAGGTCTCTTGACTTTCACATGTCACTGCTTTGGAATGTGACTCTTTTTTTTTTTTTTCTTTTAAAGATAAAGTTCCTGAAAAAGA
0.8026643488284796 CATTTGAACAAAGAGGAATTTAACAAAGCCTACTTCTTAGGGTTCTTGTGAGGATTATAAGAGTTATCTACACTGAATAGTAGAATATCTCATCCTGAGGATATCAGTCATGCTATCTGGGTCCCAGCTCTGCCTCTCTGGCTCTCTCTCTGTAAGATAACATGATCCGACTATCTCTGCAAGATAACATTTCTCAAGCTGTGATCCTTGGTCACAGAGCTCTACCATACAGGCCATGGCTTTCTGAGAGGCCATTCT
0.6710341779171871 TCAGCGGCTATCTTCTCTGTGTGGCCCATATGTTTCTGAGCTGATACTGTCCGGATTATTCTGTTCGGGAAAACGATAACGGCTGTTTATAACCTTGGCAAAGACTGAGGCCTAATCAGGCTGGAGCACATTTTCACCGACTGGCTGATAACAGGCTGTTAGCAGCCTTATCGCTCGGGAGAGATAGGCCAAAATAAGCAGATCTGTGAGCACAGGAGCCCAATCGAGTGGTACACACTCTGGCCCTGGCTTTATTTTTAGA
1 CTTCGTATGTTAATACTATAGAAGTCTTATAGAAATAAAGTCAAAATACTAATAATATAGCCACTATCTGCTTTAATGACAACTTTCTCTCGTCATCACCCTTTAAACTATTCTTGGTTTTACTCCCCAGGCACCCTCTTATCTATTAAGTGAATTCCTTTTGATCCTTGGAAACTCATCTTGGTGTCACTTTGGTTAAGCTTTCCCTGGTCTTTTTAAACATAATTAAGGCATTTTATACATGGACTCGTCATAG
0.9971149929156512 AAGGGAGGTGGCGAAGCTTGAGGCTGGTTTAACCTTGATGAAACAGTGATTTCACCAAGGATGATGTTGCCCCATCCATCTTCATCCATCAAGGCACTGCTGAAATATGCTAATGAAGCCCAAAGATAGGAGCACAGAGCAGTTAAATGGGGCGTTGCAGACGCTCTCCCTACCCCCGTGACAGGGTGATGCCATTTACTCTCCAGATTTAGTATAGGAAAGAGAGCAATGCTGACGTGGTGTCGTGGTGGAAGATAGAATGGAGGCTCCACCTAATAAAAA
0.4611960870809177 GGAGGTGTACCTTTTTGTTTGCTTGCTCTATGTGCCTGAGGATATAGGCTATGGTGATTGTCCTCTCAAACTACTATCTCTGATATCACCAGTCACCAGGCAGCTAGAGTATGTCAGTTCCTGTCAGCACTCCAAGAAACACAAGCCAAAGCCAGTCTTCTGAAGACTATGCAGGGAAGTTGCAGTGTTTGATGTATGGTCTCTTTCCCTTCTCAGAGTGAAGCAGGGATTTTGGGAGT
1 GAAACGGGATGCAATATAAAACGTACACAGCAGCATACTCAGAAAATACTTTGCCATATTTCCATTCAAGTCACAGAGTGGAACATTCCCATTCATAGAGCAGGTTGGAAACAGTCTTTTTGGAGTATCTGGAAGTGGACATTTGGAGCGCTTTCTGAACTATGGTGAAAAAGGAAATATCTTCCAATGAAAACAAGACAGAAGCATTCTGAGAAACTTAT
0.4228627116816266 GGCTGAAGTTGGGGACACAGGTTGCGTGCTTAGGAAATCAAAAGATGTTGTGGGTCAAAGGCAGGGCAGGCAAGGATGCTGTCTGGTGCTGGAGTCAATTCAGAAGCTAAAAACCAGAGCCAGGCAAGCTGTTAGGTGAATGGAGGCAGACACAACTTGCCAGAGATAAGGGGTCTTGAAAGGAAAGCAAAGGTCTGCCTCAGACAGGAAACCTCTCATTCCCTCCTCTGTCACTGTTGCGGCTGGAT
0.5622781516790182 CCTCCTCCATTTCCAATCAGCAGCTTGGCCCCTGGGCCACCAGGCCCCTGTGGGCTGCAGAGGCTGACAGGGGCTGATGGGAGCCAGCCCCAGGGGGGTTGAAGGCTGATTACTGAGGACTGATGAGGTGAAGAGGGACTGCTGCCTAGAGCTGACAGCCTTGCCTGGGAGGAAGGACAGGCAGGAGGGCAAGGAGAACACTCCAGTCTCAGCCTGACATCTCTGGAAGGGCTAGGGGTCCATCTAGGGGCATCTCTGTTGGTGCCTTCT
0.4852378299385655 GGCAGAGGCTCCCAGATGCTGCCCTTGATGAAACTTGCAGCCCTGTGGCCCTGCTGGGAAAAGATAAGAGGGCAGATTTGAGAATCACTGGCTTTGTAGTGTCAGCGTAAGGGTGTTGGGGGATGGCTGAGGCTGTCACAGACACTGCCCATTGTACAGCTGTCTGGCACGTCGGCCCTCTAGCTTTCTACAAGTCAGAATCACCAGGCTGCTCTTGACAGCATTCCAGCTGAGCTGTGCCCTGGCTGTACTCCCATGGGCATGGTGCAGGGATGTTGGTACCCCCCCAAGTCCCCT
0.5801772828331053 ACTCAGATAGAGTAGAATGTAATGGAATGGAGTGCAGTGCAATGGAATGGAATGGAATGGAATGCAATGGAATGGAATGGAATGGAATGGAATGGAATGGAATGGAATGGAATGGGATGGAATGGGATGGAATGGTATGGAATGGATAGTAATGGACTGGAGTGAAATGGACTGGAAAGGAATGGACTCAAATTGAAAGGTCTCGAAAGGAATGG
0.7158936190004439 ATTAAAAGCATAGACTCCCTCTGAAGAAAGGATATTTTTCACTTAAGTGTCTTCTAATCAACAGCCAGTGCTAAGTGGCTCCTCTTTAAATAACAGAAGGCAACGTCTTAGAAGCTTTATCATGGACTCTTCTCAGTGACAAATGGTTTTTAAGGGTGCTTTGTGAAAATAACCAGTCATAGTGAGAGTAACAGATAAGAGCTTAAACCTTAGATGTCAACACAGCCCAATCTGCCTGTTTTGTTAGAAATACATCTGTTAGCAACCAGCAATCCTTTATTAGC
0.5866725439452484 CTGAGAGGTAAAACAACAAAACAAACGCTGTCACTTTGGAATGAGCCTCTGTAATTAAGTGAGACTGAGCATGTTTTCTTACTTCCATAAGAGGTTGTATTACTTTTCGGGGAAGTGTCGGTTGATGCTTTTGTCCATTTCCTGTCAGCACCCCACCCCCGTGAGGAAACGTGCCCCAGAAGTGAAAGGACATGTCCTCATCACATGACGAGTGAGGGGCAGAGCAGAGGCCAGAGCAACATCCGTGCTGTGGAGTCAGCCCTGGGTTTG
0.7435309179561924 GATCATTGGCCGAAGCGAGACACAAACCTCCAATGCAGCCCTGGTTGGCTCCCGTCTCCAATCGGCTGTTTGGTTGGACAGAAAATGGCTGCGAAGGAACCAGTCCCAGCGCGGAGCTCCGCTTCCAGGACTCGGCCTCCCCTCCCTCCGCCGCGGGCCGCTTCCCTCGGCGCGACACCCTCCCTCCGCGCCGCCCGCGCGCCCGCCCGCCGCGGCCCCGCCCCGCCC
0.5225360914937354 CCCTCAGTCCTCCTGGGGCGTCTGTCTTAGAGAGCAGGTCTCAAGGTCTTGCCTGGCAGTAAATCTGCCCCTGTCCACTACTGAGTGTGACAGGCGTGGAAAGGTAGGGGCCTGACCAAGTGGTGGGGCCTTTTGATCAACCCCTCTAACACCGCCCTCTCCTGCCCTCTGGGCTGATTGACGCAGAGCTGTCTTATCAGTGATGCTGTCTTACTCCTGTGATGGTTTTCTTCTGT
0.6296378565975644 AGGGGTGGGGGACAGGTGGCCAAGCAATTAAGCAACTTACTGCTCAGACAAGAGAAAAGAGAGCAAAGGACATCAGGCAATGAGGAGAGGGCCTCCTCTTGCAGGACTGGTCTGCGTTCCTGTCGCCCCACTGAAATGCCTGTCCTTTTTGATAGGGCCCAATCTTGTCATTGTGCAGCCCAACTGCTCGTGGAATGCCGGGGCCAGAGCAGATGCCCAATAGGCATTTGCCAGCCGACGAAAACCAGATAATTACTGAGTTTGAAGAACTGCTCACTGACTGAACTCTAA
0.2956489870789193 GAGTAGAAAGCCCTTTGAGGATTCCAAATTAGCTTTCCCTCCTGTTGAAAGATCTTGATAGTTGCTTTCTGCCCACCTTTAACTGGGAGGCTGTGTCTGACATTCCGACAGCTCAGGGTGCCCTTATCTGCTGTTGGACATGTGGCACTGTCCAGGGACAGCGCTGAGGCTTAAGCCTTCATTCCTCCGGTGCTGCGGTTGAAGGTTCCCTGCCAGCTGTCAGCCGGCTTGTCCAGCTCCACGTTG
0.63071947398703 GCTCCCACTTCTGACAGCTTCCAGATACAGTGAGTCAAACTTCACTGGAAGCAAACTATCACACCAACTGTCAAAGGCAGAAAACATTGCCTGATTGCTGTCCTACATCAACGCCAGCATATAAATCCTTCCTTAACAAGACAGCTCAAAATAAACAAAAACGCAACTCTAATGTGTATACAGCTCTCTGGGGAAACTATTTGTGCAAGCCTTTAGAGTTATCACAAGGAGACCCTTGTCTGCTTTAGCTAA
0.329179890543584 CTTGTGCTCACCCTCCCGCCAGGAGCCAAAGCACTGGCCTTTCCAGAGCAGGGCCTCCTGCCCCCGCCCTCACCCTGCCAGGCCACTCTGCTAGAGGCTCCAAGGCCCTGCTGCCCGCACCTCCCGGAGGCGGCTGTGACAAAGTCCAGGCCTCCTGTTAGAGCCAGCATCACAGCCAGCAAGAATAGGGCCCAGCTGTGTAAGCAAATGGCCTGGGAGCACTTAAGACGGACCAGAGGCCCTTCCTACTGAAAGACAGTGAACTGACCGTC
0.6839091558264908 TGGAGCAGTGTAATTTTCCATGTTGAGGGTTCTCTGTAGTTGTATAGTTTTTAACTTGAGGACAGAAAGCTGAAATGGGCCTGAAGCAGATCCTTATCTGTACTTGGCTTGCCTGGTGCCGATGACATTTCCGTTCTCCCTGCTACACAGCTGGCCAGCTGAGGAGGTGTGGGTGTGCTTTGATCTCCTCCTGAAAGCTGGGGGCAGGGACATGCTGAGCTTAGAAGCAGAAAATGCAGAGCAGCCCTCTGCCGTTACCATATTTCTGG
0.5478759363309758 TAATTGTCCAGGGCAGAGCAATCCTTGGAGCAAGGCAGCCTGCTGCGGTGGTTTGCAGAAGAGGCACAGTGGGGCGGGCTGGAGGCCGCAGGGGCAGAGTGGGCCGAGGGCCTCTGATGAGGTGTGAATGAGGGAGGCAGAGCAGGGCTGGTGTGGACAGCCCTGTCCCAGCCCTATCTCCCGTCTGCGACACCCTCTCCACACCCCAGTGCTGATAAGCGGGTGTGAGCCACGGCCGCCTTGTGACAGGCCCTTCGGCAGGGAGGGTGATGGTGGGGGTCCACTCCACTTCTGAATTCAGACGTCAGCATCTTTTTCCCCCAACCCCCATTGCCCTGT
0.04794744851803424 CGTTGGAAGAAGGCCTGCTTGGAGGGGGCTGGGTTAAGAAACAGGAGCTCCAAGTGGGCCTGGCTGTCCTTGGCCTGAAGGACTGCTGACAGGAAGCAGCTGGTTTCCAGTGACAGGCGGGCCGGGGGTGGTGGCACCTGTCATCATTTCTGCCCTGCCTGCTGAGCAGAGCTCAAGTGTCTGTGCCTGGGAGGGGCTGGGCCGGAATGAGCACTGCTCAAACCTG
1 CCCAGGACTTCTTATATACACTTACCAATGTTATCGCCTTTGCCAGACCACTTTTCCTTTTTTCTTGTACTATTTCTATCAGTAAGCTGATGACTTCAGCTGTCACCCTTGTAGTACAAGGCCATGGCTTTTGTCTGCCAGCACCTCCTCTGACCCTTTTTGGTAACAGATCCACCCCTGAGGTAGAGAACCCATGATGCAGGCTGGGCCTGTGAGATTACTCCTGGCTCCAGCCACTATGTTTGGTCCAAGGAGTGAGCACTAAG
0.2034122267821049 ATGAACTTTAATGGAATGTACTCGAATGGATTCGACTGGAATGGAATGTTCTGGAAGTGAATGGACTCCAATGGAATGGATTCAAAAGGAATGGAATCGTACGGAATGGAATCTAATGGAATGCAATTAAATGGAAATGAATCAAATTGAATAGCACGGAATTGAATTGAATGGAATGGAATGCAATGGAATCTAATGAAACGGAAAGGAAAGGAATGGAATGGAATGGAATGGGCTG
0.6763675215401854 TCAAAGACTCCTTCTTTGAGTTGTGTCTCTAGATCAGTGGTTTTTAAGGGAAGTTAGGGAAGCGCAAATGATGATCAAAGCATTCTTTGCAACAGCAGCTATGCGCGCAGCCCCAGGCAGGCAGTTCATCACTGCTGTCTTGGTGAGTGTCTTGTGACCTTTTGCAGGCACAGCCAGAGTCTTCTTATCTGGTGGTAGAAAACTGCCAGGCAGCCTGCTCCCGGGATTGTTAGCGCATTTCTCTCTCACCTATGCTCAAGGTCCTCTTTTCTTG
0.2667164775476676 TCCCTGGGCATTTTCCTCGACCCTCGCCTTCTCCATCCTTCCTCCTTATCTCTCTCCGCCACAGCCTCTCCTGTTCCTTTTCTCACTCACTTCACTTGCTTATCTCTCTGCCTTGGCTTTTCTCCCTCTGCTCTGTTTTCTCTTCCCCGACACCTCGGTTCCTCTTCTCCCTGGTGGGAGGCTCGTGCCACCCCACACCCTGGATCTTCTGGTCCTCCTGGCAGGTCTTCATTGAGCTTGGTGCCAGGCCCCATGCTGGCTGCTGGGGAATCA
0.5329664038976726 TGCTTTCTACCATGGCCACACTTTTGGGGGCTGCCACCCCTGGCTGGGAACCTGCCCTGACCTAGGGAGCCACTGAGCAGGGTGTCACTCAGCGTCCCCAACACCCTGGCCTGTCAGGCTGAGTCCAGTTCCTCCTGCTCAGCACCAGACACCTCCAGACCCTGGAGTCGGGAGGCAACTTAAACAAAGGCGTTTATCTCACCCGGGCTCTCCTGCTGCTCTGCTGGACTGCTCAGCCAGGCTCTGGACA
0.377053037421487 CTTAGCTCCTGAGAAGGATTGCTGGTGCTGACAGCTGGGAGTCAGGACTCCAGGGCCACTTGTATGGAAGCTGGTGCCCGTGGTGCAGGAGGATGGGGGCTCTGGATTCTGCACCACCCCCCATAGACTGGCCCCTCAGAGGGCTCCTGTGGTGTCAGAGCCCTCTCACAAGCGCCTGCCGTGGTTATCAGCTGAAGCTGAGTGCTTGTGGAGTGTGGACAGAGGGCAGAGGGAGAGAAGCAGCCATGGGCTTCCTGCCAGGAAGCTCAGCAGCTCCGAGGAGACTGGAGA
0.603199653993751 TCCTGCGGGCTTAACTGTTAAGCCGAGCTCATGGAGGTGGTGTTATCAGAATGCTTAATGGGGACCGAGGGAACGTGCTGGCTGATGAGGTTCTGCACATATCAAGTAATGTCAACTCTGTGCCACTCAGCAGCTGCCTGTCAGCTAGAGCAGCACCTTTGATAAGTGGGTCCTGGGTAGAGATCTGGCAGTCCCAGGCTGGGATTTTTCTTTTAATAAAACATCCGTAGGTTGCTGTGCTGACGACAAATGACCTTG
1 TGCAGCCCTAGCAACACTCCACCTCCTATTCTTGCACGAAACGGGATCAAACAACCCCCTAGGAATCACCTCCCATTCCGATAAAATCACCTTCCACCCTTACTACACAATCAAAGACGCCCTCGGCTTACTTCTCTTCCTTCTCTCCTTAATGACATTAACACTATTCTCACCAGACCTCCTAGGCGACCCAGACAATTATACCCTAGCCAACCCCTTAAACACCCCTCCCCACATCAAGCCCGAATGATATTTCCTATTCGCCTACACAATTCTCCGATCCGTCCCTAACAAACTAGGAGGCGTCCTTGCCCTATTACTATCCATCCTCATCCTAGCAATAATCCCCATCCTCCATATATCCAAACAACAAAGCATAATATTTCGCCCACTAAGCCAATCACTTTATTGACTCCTAGCCGCAGACCTCCTCATTCTAACCTGAATCGGAGGACAACCAGTAAGCTACCCTTTTACCATCATTGGACAAGTAGCATCCGTACTATACTTCACAACAATCCTAATCCTAATACCAACTATCTCCCTAATTGAAAACAAAATACTCAAATGGGCCTGTCCTTGTAGTATAAACTAATACACCAGTCTTGTAAACCGGAGATGAAAACCTTTTTCCAAGGACAAATCAGAGAAAAAGTCTTTAACTCCACCATTAGCACCCAAAGCTAAGATTCTAATTTAAACTATTCTCTGTTCTTTCATGGGGAAGCAGATTTGGGTACCACCCAAGTATTGACTCACCCATCAACAACCGCTATGTATTTCGTACATTACTGCCAGCCACCATGAATATTGTACGGTACCATAAATACTTGACCACCTGTAGTACATAAAAACCCAATCCACATCAAAACCCCCTCCCCATGCTTACAAGCAAGTACAGCAATCAACCCTCAACTATCACACATCAACTGCAACTCCAAAGCCACCCCTCACCCACTAGGATACCAACAAACCTACCCACCCTTAACAGTACATAGTACATAAAGCCATTTACCGTACATAGCACATTACAGTCAAATCCCTTCTCGTCCCCATGGATGACCCCCCTCAGATAGGGGTCCCTTGACCACCATCCTCCGTGAAATCAATATCCCGCACAAGAGTGCTACTCTCCTCGCTCCGGGCCCATAACACTTGGGGGTAGC
0.3783498717219497 GTCACATCTGTCCTTACCTTACCTGACCACTCAGTGGCACTGCCTGCCACTGGCCAGTCCCACATCTGGCTCATTGGTTGTTTCCCTTATGGGTGCAGGGCTGGCCCTGCCTTCTCAGTCCCTGCTTAGCTTCATCATCACCTCCTGGCGGAGATCAATGCTAACTAGCAAATGCAGGAGCTTGCTGGGCTGTCTCTGCGCATCTGCTGTGTCTGCTCACCGTCACCTTCCTGGCATCTTACTGACTGCTCTGTTTATTATCTGCTGTCCCCACTAGAA
0.06551221901437278 AGAATCTGTTGAAGCCATAGCTTCTGCTTTGGGAATAAGCCCCATTAATCAGGTCATTCCTTTAGGTGTATTCTGAAGTAGCTACTTTTGGTGATTAAACTTCACGTATTATATTAGGTAACACAGCATGCTGTTAACAGCATGTTATCAGTAAAGGCAAGAGAAAGCATTTATTTTAGATAAGGCAGGCTAATGTCTGTCAACTATAACACTGCTCTCTGATATCAA
0.7769564307760721 AGAAGAAACAGGATGCACGGGAGATCACACACAGAGTAAGAGGTGCCTCTCAAATGCCTTTCCCACGTGTCTAACTCTGCTTTGTTTAAAGCACAGTCAGACCCGCCATCTGCACTTTTACCTGCTGCCTGACGAAAACCAGATGCCAAAGCCAAAGGCCTCCCAGCACTCACAAGGCCCTTTGCCCTTAGGAAAACACCATGATTCAGCCAGGCAAGATTGATGCAACACTGTAACAAAGCGTGTGCA
0.6007051718558689 CTCTAAGCCCATCTCCCACCTCCAGCCTATAGATAAGATGAGGAATGTTGGGGATAAGAATCACTTTTGGAAATAGTTATTAGAACACCATGCATTGAAATCTTTCTATCCCACCCCCAGCTTTAGTGAGATAAGGAGCTCTAACAGACCATTTCAGAGAGCTTGCCATATCTCTGCAGGTATTTGGAGGACACAGAGACTAACTTGCTCCCAGATAAGACTAAAGATAAGAGCTGCCCCTGATAATAGAGTGAGGAGTGAAGGCTATAGTGGAAAGAGCAAGCATTTTCAGAATTCAGTGGTG
1 CTTAAAAAAGTAGGGTTTGTAATTTTCCTTCAGATTACAAGCTGACATTTTGAAAAAGAAAAAAAAAGTTGCGGGGAATGCAGCACTTCTGTGTGGTGGCAGCTGATAATTACCATAGTGTGAGTGGGGCTCGATATAACCCAGGCATTTAAGAAACATGGCTGATTACAGTGCGTTAAGAGTAACTCAATTCGGGAATTTTGCTTTGTTAGGCAAATTGAACTGTCTTGCTTCACCAATCTC
0.8584411270908858 GAATGAGATGTGGTAAAGAGAGGAAATGACAATGTACTGAAAAGACTGGGCTGTAAGTCATCACAGCGGCGCCCTGAAACCCGATATGTCAGGCAAGCTGGTGGGATCCTGGGATCCCTCATGTAACGGCACTCATTCTGACAGAAGCAGAGATAAAACAGACTAAGTACACAGAGGAGTTTAAGGTTTCGTGAATGTAAGTGCTGAGTACAGAATGGTGCTCAATAAAAGCTTGTTAATTGATGGACC
0.7127321901866808 ACTGGACCAGAAGAAGAGTTTGCTATCATTTACTGAGCAGACAAAAATGCCAGTCTTTGCTTATCATCCACTCAGCCTGTCTTATCTAATCAACAAAACACCCTCCCAGGCAGATAACAGTATCCCTGTTTTCCAGATTAAGATACCAGAATCCAGAAAGATGATGTAATAATAGAACTGGGATTCAAACCATCCCTCTGATTCCAAACCATTAAGTAATGCATAAAGAAACAGATGAGGAAAAA
1 AGCAGGAGCCTTGAAGTTGCAGGAAAAGCCAGGGGGGCAGGCTGAGGAGACTAGCTTCTATTTTAAAGACGTTTTCCTCTTTGGAATAAGCTCCATCCTCCAACGGTGCAGACAGGGTAAAGGTTGTGACTGACATTGTGTTGCTGGACATTAAACAGCCTCCGAGGTCACCCGGCAGCTGGTGGGTATGTCCTGACGGACGGCTCTTAATCGGGCTCACCCCTGCCCCTGGGAACCTTGAGGTCCTGGGGGTGGGGCAAGGAAAGGGAGGCCA
0.6168498269292015 CCTGTTTTCACCATTCAGACCCCTGAAGCCCAGTGTTCAGAGCCTGGGCCCACCATCCTTCATTTCTGATTTCTCTCCTCCAAGGAGATAAGGACGAGCCAGGGCCTCTCGGTGTGTTTTACATCAAAGGCCACTGAAGGGTCTTGACAGGCTGGATGTCAGTGCTGTAAATAAACCATTAATCACTCTGCCATTTCATGGACACACTCTTCCCAGAGGGCATGAACTTTCTCCAGGGCACTAATATAAACCACATCTTTCCTGAGCC
0.3084541045036092 AGGGAGGGGCAGGCAGGAGTGACCCCGTCATCAGGTTCTGCTGGCGAGCCCAGGGTGGTGACAGGCGCACGTCTTTTGCCGGGAGCTGAAGACGTTCATGGGCTTTCAAGCAGGACAAAGCTTCAATGTCATCACCAGGTAGCAGGCAGAGCAAGGGTGCTGACAGCCTGCAGAAGCCTGTGCTTATCTCTCCATCGGAGCTAAAGCCCATGTTTGCTTAGGGAACAGCCTGAAATTCCACCCCAGCTGCTGGG
1 CTTGGTGAGGAGAGCTCTCAGGAATGGCCTTTTATAAAAGAGATCCCAGCCCCGGGGGATGGGGGGGAAAGGCCTCGTACCTGAGTGGCTAGGCCCAGAGGGGGCTGGGCCTAACCCGTCACCTGCCACCTCCGGGCAGGACTCAGGTGGGGGCAGCAGAGAGCTGCCGCCACCCAAGGGCCCGTTCCAACCCTGGAGCCCACTCCAGCACCACCCCCAGAAACCCAGGAAAAG
0.9108130506017557 TGGTGGGAACTGAAGCCCTGGGCCCTGCCCCCAGGGAAGCCTCTGTCTCCAGCGGACCCCTCCTCAATCCGGGGCCTGCTTCTCATCTCCCAGCGCCATGGGCAGGATCCCGCTATCCTGTGAAAGCCGAGGAGGGAGGAATGTCCCATGAAAGGTGCCTGAGGAGGCCTGGCCAATATCAGGCCACCAAATGGCAGGTGCCAGGTGGTTAGCATTAATGGAGTTGTCGCAAGGGAAAAGGTT
0.6070024103867654 TTATTGGTGACAGGTGGACATGGCAATACATTGGCCAGAGCCACCAGATACTCACATTCCTTCTCTGCGAGTGTCATGGAGAATGATAAAAACCGAGACAACTGAAATGCTCTAGCAACACGTTGTGGAGCTGACAAGGAATGAGAGGTAACATCGCTCACAAATCTAGACCAGCATCGCCTGTCTTAGAAGTGTCCTGGGAACAGTTTCTCATCACTGGTCCAGGATAATTCAACTGCTTTTTAGGAGAAAAT
0.5526813644703163 TTAGTGGGGGAAAGGACATCTTTTGTTGCTTTTCACATACAAAAGGGAGAGAGGGACATAAAACCAGCCTGCAAAAGGCCCCCTCTAATCAGCAAGAGTCAACAGGCGCCGGCTGTTTCTCCCTCCACACCTTTCTGCATGTCCAGCTGTCAGCATCCAACAGCGTGGCAGCCACAGGACCTCCAGAGTTACTGCCACGGTGTTTCCCATCTGACCAGGAACAACCACAAAGCTGTAAACAG
0.1974182014084678 CCTAAATAGTGACAGCTGGAAATCACGAGGGAGCATTCTGTTTGGGAGTCATGACCCTTCCCGTCACATTTCTGCATTCTGGCAGGCTGTTGGAGAGATCTGTGTGACAGCCTCACCTTTCAGCACGCCTCAGTCACACCAGGGAGACAGCAGGAGTGAGGAGGAAGGAGAGAGAAGAGAGCTTGCGCCTGCTTCCTAAACAGTTCCTTCTCTCTGGGTCAGGACCAGGTTACAGAGGTCACCAGTCA
0.44196626170324 CATCAGTTCTAATTTTTAAAACTTATCCTTTCAGTCAACACTAGAAAAAGGCCCATTCCAACTTTTATCTTTGCTACAAAGTGCTGTTATCTTGGCTTGATGTCAGGAGCTCTATCTCTCTTTCTGCTGACAAGCAGAGACGAGAAAGATAAGATTGGAAACGAATCTCACTTCTCTGAGTAAATAAATAATCAATACTCATCTAAATGTAAATGAGAAGGTAGCCCCCTCTGATAACAGCACTCTTATCAGAGAGCCAATTTTCTTCAG
1 TACAAGTCTCCCTAAATAAAGGCAAATATTTCTGTCATGCCAAGGAGGGAGGGAAAAAGGGAGGCTTGCCAGAGTCGGCTGGGAGATAACAGTGGGAACTGCTGGTCCATCTGGTTTTCATTCTGCTAACACTCACACGGAACTGTTAGAGAAGGCAGTCCAGATACACAGATTTGAAGCACGTGGTTGCACAGACAGAGAAAGGAAGAGCAGGAGGGGGAGGGGAAGTGGGAGTAACAAAAAAATAAATAAAGCAAT
0.3509312472621549 CCCTCCCGTCCGCCCGTCCGCGGCCCGTCCGTCCGTCCGTCCGTCGTCCTCCTCGCTTGCGGGGCGCCGGGCCCGTCCTCGCGAGGCCCCCCGGCCGGCCGTCCGGCCGCGTCGGGGCCTCGCCGCGCTCTACCTACCTACCTGGTTGATCCTGCCAGTAGCATATGCTTGTCTCAAAGATTAAGCCATGCATGTCTAAGTACGCACGGCCGGTACAGTGAAACTGCGAATGGCTCATTAAATCAGTTATGGTTCCTTTGGTCGCTCGCTCCTCTCCTACTTGGATAACTGTGGTAATTCTAGAGCTAATACATGCCGACGGGCGCTGACCCCCTTCGCGGGGGGGATGCGTGCATTTATCAGATCAAAACCAACCCGGTCAGCCCCTCTCCGGCCCCGGCCGGGGGGCGGGCGCCGGCGGCTTTGGTGACTCTAGATAACCTCGGGCTGATCGCACGCCCCCCGTGGCGGCGACGACCCATTCGAACGTCTGCCCTATCAACTTTCGATGGTAGTCGCCGTGCCTACCATGGTGACCACGGGTGACGGGGAATCAGGGTTCGATTCCGGAGAGGGAGCCTGAGAAACGGCTACCACATCCAAGGAAGGCAGCAGGCGCGCAAATTACCCACTCCCGACCCGGGGA
0.5974285200796157 CCGTCGCCCCGGCCTCGCCCGTGGTCTCTCGTCTTCTCCCGGCCCGCTCTTCCGAACCGGGTCGGCGCGTCCCCCGGGTGCGCCTCGCTTCCCGGGCCTGCCGCGGCCCTTCCCCGAGGCGTCCGTCCCGGGCGTCGGCGTCGGGGAGAGCCCGTCCTCCCCGCGTGGCGTCGCCCCGTTCGGCGCGCGCGTGCGCCCGAGCGCGGCCCGGTGGTCCCTCCCGGACAGGCGTTCGTGCGACGTGTGGCGTGGGTCGACCTCCGCCTTGCCGGTCGCTCGCCCTCTCCCCGGGTCGGGGGGTGGGGCCCGGGCCGGGGCCTCGGCCCCGGTCGCGGTCCCCCGTCCCGGGCGGGGGCGGGCGCGCCGGCCGG
0.3675628640698982 AGAGCTCTACATCTGCCTCTGTGATCAGAGTCAGCGGTTTGAATGAGTTTCATCCACATTTGATGTAGACAGAGTGCTTTTCCTGCTAGATGGGCATCCAGAAACACAAGAAAAACTGTGACGGTGAGGCAGAGCAGGCGTCGTGCTGACAGCTGAGATGCTTGTGATACCTTCGCTGGCCCGGTGGTCTTGTTATTTGGTTGTGTTGACATCAAAAGAGCACCGTGAGATTCATCAGATTGACAGCGTGGTTGACACATAGCTACAGCTTTTGT
1 CAACTTTAGAACTTCAACACAGTACTAGATGAGAGAGCAAAACCAAACAGAATGATGACCACGCTGGAAATTCCTCCCTGTGTGCTGCTGGCGCTGACATCCTGATAGAGTTCAGGCGCCTGGTGAAGCTACACAGACGGTGCCTGGTCTCCAGACCACATGCTTTTCATCTACGTCATAAACATGAAATTTCTGAATTGTTCCATTGGCATTTTCATCTCTGTTTAGATAGAGATGTTATAAACT
0.565091434046544 AGCCAAAGCTGTTTCACAAGCCAGCAGCCTCGTAAATATTTCAGCAGTGTCTGTGTAGTCGAGGCTGTGAAGCCTGTCCTCTGGAGCACTTGTGACAGCGAGATCTGGGAGATGTCTCAGGGCCTGTTGCAAGCGTTTGATCAGCTGCATTTTCAAAAAGACCTTTCCCTGAGCAGCTGACAGTCTCTGGGGTGAAAGAGATTTGCAGACTTTTTCTGGAGAGAGGCCAGAGCATGAGCCGACCCAGGGGCCCAGTTGGAGCCTTTTGG
0.7552030942279051 AGAATAAAAACAAAGCCTCAGGACTTTCAGCCTAGACTGTTTTCCATTACACAGTAACTTCTTATCAGCTTGCGACAAGTTCCTTATCCCTCCTTTTTTATAGCTCAGTGAGGAAGACTGGCCATATGTGAAATTCCAAAGAGGCAGGAAAGAGGTGCAAGGGAAAGAAGCCAGGCTCTCTAGTACTAATATATTGGCATATGGCTTTGGCATTCTCTCTCAGCTGTTATTAAGTTAAAAGTGGTAGT
0.3218067369610228 CATCCGACTGCTGGGAGGACAGGATGGAATGAGGTGTATGGTCCTATGCTGCCACTGGGGACAGCATGCTGCCGGCCCCTGCGGCATTCCTTCAGCTGGAGTCCGCTGATAAAGGGAAGGAACAGGGAAGAGGAAGAGCTGGGAGGTGGCAAGTGATAGCTGTGGTGACAACAGAGGAGGCCCTTGTGGCAAACTTATCAGCAGAAGTCAT
0.4686823517328635 CTTGAACATATGATTTCTGAAAACATTCAGTGGCAAAATATATGAGGTGGGAAAAGCTGGGGCAGATAAGACTCAGTGGATAGCTGTGGCTCCTGTCAGGATGGTAATTATCAGAAGAGATTAGCAAGCATCTAAGAAAGATAGCAGGGGTGAAAGCCCCAGCAGAGAGAAGACAAATGTCAAGAAACTTAGAAACAAAGGGTAAAATCTAATGTTATCTTATCACTAGAGTTGATAAAAGACAGCCATAGTGTACCTATAAAGAAGCTTCCGGAACTGGAGTACTTCAAAGAGGTACATGAGGAAGCCTGCAAAA
0.6278733370955829 AAGTCCTTGCTGGAGCCCTTTGAAGGAGGCATCAGCATCCTCAATTACAGATGAGGAGACTAACAGGGAAACAGCATGTGACCTGTCCAGTGATTCAAAAGTGCCTTCTCCACCGTGGTGCCAGACTGACCTCCGAGAAGACACTGACCAGAAGGCATAGCAAGGTTGACAGCTGACGGGTGCAGCTGGAGGCCAGGCAGGCTGGAGCAGGGGCCTGGAGAGGGGATGTGGAGTGGCAGGGAGAGCCTCTGCTGAGGCCTT
0.7127269414132936 AATATTTATTGATGTTCAGCAATGTGCTGTGTCCAATTCCTCCAGGTAGCCTTCCCAGACTGCCCACAGCAGGGCATGATCCGTCTGAGCAGCCAGTCTGGCCTGCCTTGTCTCCTGTAGCACTTTGCGCCCCACCCCACTGGGAGTCCTTATCTTATCTCCATTCCTGCTCCCTGGCTGGGAGGGCTGCTAGGGTAAGTTGCCTGAGGAAGCAATTGATTGAAGTCTTGCAAATTCCAGCTTTGAC
1 AAAAACAGAAGAAAGACCTAAATCCAGTGCTAAGGAATTGCAGCTCCTTCAGTGACTCCTTGCCTGAGTGGGGCTGTTTACACATACAAGGACTCTGTCTTCTGTTTTACACAGGGAAAGACTGCTGACAACTAGCATTGTGGGGTATGTTTGCATGGCTCTTTCCAGAGTTCAAATCAGAGCACTGTAATTCAGCCACATGATGTTAACCACTTGTCCCTAATTTCGAAATTATTATGGCATCATTTTC
0.6759039147787387 TATTTCCCTTCCTTCTGTCCCTCATGTTCTCCATCTTTATCTCATCTCCTCTCATTCTATTCCTAACTTTATCTGCTCTAATCACATTGGCCTCTTTCCTCAAACACACTAAACCAATCACGGTATCAGATATGCTGGCAGGAGATGCTGTTATAGGACTGGGCTCTCTGATACCAGTGGAATGATATCTGAGTCCTGAAATTAGAGAAGCCATGTGGCAGCTTTTAA
0.7353255828298249 CATTCCTCTTTATCCCTGAAGCTCTCCTGAGCAACTCTAGCTCTGCCTCGGCCCTCACTCCACCAACATTCACAGGGTTTGATGTCCCTGTCACTTGTCTCTGCTTTCACTCACCAGACACCACCATACAGATTTCCACCTGACAAAAAAAAGTACCACAAGAGCCTACAGGAGGGGTATGGCTTTGAGGAGTTGGTGAAAGAGTCACAAAATGGGAGACATTTGAACCAGTCCTGAAATAGAGATA
0.7142030176401598 GTCATCAGCCTCCAACACTCCCAGGCATGAGGAGGCATTTTAAGCCCACCTGGGGCTTTTGTCAGTACTTTATCTGTGTCACCCATATCTCCTCAAAGTATGGGAAAACAAAACCACAGTGGCTTATCAGGAGTCGTAATTCCTTACATCTCCCTTATCACCTAAGATTACCCAATCCTACCAGAGCTTTCAGGGATCTGTGTGGAGGATAACAAAACCTCTCAGTAGCAAGTGGTCTTATCACCCTAGCAGCCCTTGAAGGGTCGAGAGA
0.5624659813439414 AAATCTTGTTCTGTACCTTTTAAGCCAGTGTCTGTGGCGAGGGTGACTGGCAAGTCAGCTGATGAGTTCTGCCTTCTGAGAGCACTGAGTGAGCAAGGCCTTTCATCAGTGTTTTGGCCTTCTCATTGGGTGAGGAAGACATTGAACCAACAGCCAACGAGATATGAACCTGTAAGAAAAAAGTCCTAGAATATAGTATTTTTCCCCAGGCCAGCAAAGTGAAGAAATACAGTGGTGACAGATGAGAAAGGCCATGTTCAAGAGATCTGAAAAGTACATTCCTGCCTTATCAGAAAATGTGTCAGACAGGTTTTATGTCAGCCTCAGTGCTCCTGCGGTGTCGACGCTCTGATAAGGACCATGTTCCAGTTAGAA
0.5568020447206981 GGCGCAGCGGGCGCCAGGCCGGGCAGAGGCGGGGGCGGCCGGCCGGGGGCTGACCCCGAGCGCCGCCGAGTTTGCGCCGCCCGCCGCCCCGCGCTCGCCTCCAGCCGCCTGGGGTTCCGCGGCGGCCGTCAGCGCGCACCTCATCAATAAGGCCTGCCAGGCGCCGGCCCCGCGGCCATCCATCACCCGGGCTGCACCCCCGGCCGCGCACCGAGGCTTCTGCCAGCGCCTGCGGGGCCTCTGCGTGGAGTGGGCCGGCAGCGTTTTTCTACCCGGCAA
1 GTTACCCGAGGCAGGGGTCAGGGAGGGACTGGAGAGATGATAGTCTCATGATACAAAATTTCAGAGAGGAATGGTTCTAGAGATCTATTGAACAGCCTGGCATCTACAGTGTATAACTATGTATTGTATACTTGAAAATTGCTATAAGAGTAGATTTTAGACATGTCCTCATCACATTAAAATCAGTATGTGAGGAAACGAGTGTGTTAATTAGCTTGATTTTGTCATTCCA
0.8999940846078779 TTTTAAATCAGCGAGATTTAAATAAGCATGGCGAGCACAGCTGGGAGGCCCCGCCAGGAATTCCGAAGGTTGAAAGGGGCCCTGTCCGCTCCCCCATCCTGGAAATAGTGTCCATGGAGCTGCGGAGTCCGGGTGGGCGCCGGGGACGAGCTTTCAACAGCTCACCCGGCCCCAACATTCCGTCCACACATTCCACGGCCAAGACAGTCACCCCCTGCCAGGGATTAACCGAGGGCCACGCTTAGTGGCAGGAA
1 CAGCACTTCATTTACCCAATTAGCCAAATTTGAAGCCTTCTGTTTCCCTAAGTCTACATTCCCTACATTCCTCTCTGTATCTGATGAGTTACCATGTCCATTGGATTCCATCTTTTCTTTATCTCCTGTCAATGACATGACCCAGGTTCATTCTTTCTATAGCTTTTTAAGCTTCCTGTTCTCCCTTTTTCTGGATTCTTTTCTGCCAAAGCAACCTCCTTATTGACATTTGAGTGAATTCTCTAAAACCATCCT
0.7725473122200209 AAATATAAATCTAAATATGAAATGAAATGAAAGGTTATCATTAGATCACAGCTAGTCACTGTTGCTTGCTGAAGGTTCTTATCCTGATGCCAGCGCTTTGTTGACAATTGAACTTTGCCAGAGTGAGAGGGCTGTTAAATGTCTACTAACACCAAGCAGACAGTTGCTCCTTAATGTGACAGGCAGCACTGAAAGAGAATCAAAAGAAAAAGACAATTTTTTTACTATGCAGTCAATGTTTTTGGATGCTCTCTCTGTATCCTACTCAAAGCATCT
0.8109251551125832 ACATCTCTCTTGCAAAAAGAGCCAGAGGTGTGGCAAGTTTGGGCCTTGCTCATGGCTTGGGGAGAGCTGGGGTTTTCAGCAGTTAGGGGCAGGGAGCCGGCCCAGCTTCAAAGGCAGAGGCTGGCTCTCCACACACCCTGAGGCGCTATTGAGCAAAGACAGCAACTGTGTTCCTATCTGGGGCCCCAGCCCTCTGTCTGCCCTTCAAGGTTCCCTGCTGCCTGAGGAAACATGTGAAATATTTCCGTG
0.6870766016702468 AAACACCGATTCTTCCTCAATGAGCTGAAGTTCTCCAGATGGCAGCAAGCGCTCGTCATGCAAATTCTTGGCAGCAGGGAGCCTGTCAAGTGGCTACTGCTGCTTATTGTTACCAACACTCCCCCACCCCCTCCACACAAATGCAGAAGAAACACCATCTGTCGCCTGTGGGGCTGAGCGGTTCTTTCCAAGTCCCTTCTAGTCAGTGCCGCTCAGCAGCCCTGCGCTGTG
0.9045557938579251 CCCTCACCCTTCCAAGTAGCTGCGTGCCTAATCTTTCCTTGTCATGTGACAAGAACCCGGATTTTCCTACAACAAAGATAACCCCTCACCCTTCAAAGTGTCTGCGTGCCTAATCTTTCCTGGTCATGTGATAAGAACCTGGATTTTCCTACAACAAAGATAGCGGAATCTAAAGATAATGAAATGTTGAGGGATAGCCAAAGAACCATCCAG
0.8905554304574966 TAACACAATTTAAAAGCAGCATTGATACCATGGGCCATGGTGTTGATGGCCATATGGGTGAAAGAGCAGTTGCACTGCCCTACAAGTAGCTAGAGATAGTAGCACTAGAGATAGTAGCGCTAGAGATAGTAGCGCTAGAGATAGTAGTGCTAGAGATAGTAGTGCTAGAGATAGCAGTGCTAGAGATAGCTAGTAGTGCTAGAGATAGTAGGGCTAGAGATAGTAGTGCTAGAGATAGTGC
0.9617957179505339 CTTGCCTAGAAGAGACCCACAGCTGGCCATTACTGCTGATAAGGGAGTTATCAAGTAGAGAGTATGGTGACCAGGCCAACTTTCTCAAGTCAGAAGAAAGTGTTTAGGGCATGGCATGCCTGGGTGACTTGACAGGCTGTGAGATTATGTGAACCAGCTGTTAGGGGTAGCCAGTTTTCTCAGGAACTTATTTTTTTTTTCCTCTATTTGTTCCCAGAGTGGATCTTTGTGGCTATTCTAGTTAGACTCCAGTCATCCAATCTAGTACACAG
0.5197691062239491 GGAAACGGGATTTCTTCGTATAAATCCAGACAGAAGAATTCTCCGAAACTTCTTTGGTTGTGTGCATTCAAGTCACAGAGTGGAACCTTCCTTTGGATAGAGCAGTTTGAAACGCAGTGGTTGTAGTATTTCCAAGCGGATATTAGAGCGCCTTGAGGCCTATGGTAGAAAAGGAAATATCTTCCCATAAAACCTAGACGGAAGCAATCTCAGAAACTACTGTGTGATGGC
0.5124399605420904 TCCCTTGTAGGCCCACCGAGGGCATGTGCACTGCTGGCTGCTCCCCATATCAGAAACCTGAGACCCAAGGGGCTACTATCTTGGGAACAGGCGGTCAGCCAACCCTGATAAGAGGTTCCTGCCCGGAGTGTCTCACAAACACCCTGTCATCAGAGGGCTGTGCTGGGTCACGAGGCAGCCAAACCACTGCCCTGCAGGACTGGGGGTTGTCCAGCAGCCGCTCATAACAGCCACTGCTGCCCTGAGGATGATGGTG
0.8994615254643343 CCGCAGCCAAGGGGTTTTATGTTCTGCGACTCTTTTCTGAGGGAGAATAAGGCAGAAAGTCCATATCTCAGAACCTGAGAGGTGATGAGAAGCTGTCTTGGGACACCTCTGAGGAAGATGGGGAGGCCAGTGAAGAGTGGGAGGGGCCTCCCATTCTTCGGTGTTCCAGGAGGATCACAGGGCAATCAGTCTTCAAGGCTCAGGGAAGGCTGAGTCCAAGCCTTTGTTTATATGG
0.1304846862763784 AATGGAATTGAATGAAATCATTGAATGGACTCAAAAGGAATCATCATCGAATGGTATTGAATGGAATCGTTGAGTTTACTCTAATGGGATAATCATTGAATGGAATTGAATGCAATCATTGAATGGAATAGAATGGAATCATCATTGAATGGAATCAAATGGAATCCTCAATGAATGGAATCGAAT
0.312427924618035 CAGCGCCGGCTCCCTGAGGAGGCCCCTCTGCACTCTGTCCCTCCTCAGGGGACAGGAGGGGGAGGGTGCAGATAAGGCACCGGGCCCCGGGTTATCTGGCTTGACCTTTGGAGAAGCCGAGAGGGGAGTGTTGTCACCCAGAGGAGATAGAGGGTCGCCTGGTGGGAGCAGCTTCCAGCCTTCCTGAGTGGTCAGGGGCAGGGCCCTGCGAAGACAGCCTGGACTGGGGCACTGGCCTGGCCTGTCAGCGCCATCCCTGCGCGGCTCCCAGACACCCAGCTGTGCCGGCCTGGGGCATGCATGAGCGCTCACGTGCCTTTGCTTCTGAAAGGAACTTGCAG
0.7774044164041304 CCACTCAGCCTTGCTTTCCTCCACTCCTGTCTCTCTCCCATTTTCACGCTTTGGCATTTTTTGCTGCCCGTTTCCCGCCGCCTGCAGTTAATGATGACTGGGTTTTATCCAGTCACACTTTACAGCAGTGTCAGCTGCACCCTGTGGTGGTGTCAGATGGCGGCTGGAACAAACCCAGTACCATGCTCAGAAATGAATGTTTTCACCTCAGAGAAAATAGATGAGGGCAGGGGCCTTGGTGGTGGAGAT
0.7342098739837095 CTCTTGAGCCCTTTATAGGGCTCAGCAGAGTATTGTTAAGCACATGCATGTTAGGGAACCACCCAAAGCTGGGGAAAGAACTACTCAAAAAGATAAGAAAGAACAGAACTCGCCACTCACACAGGGTCAGAAACATTGTCTGTCATCACCAGTCAGACAGAAAAATCTCACAGTTCAGAGGTTATCAGGTAGAGTACTCAGAATGGTCTTACCTAAGAGTAGAGAACAATTAGTCTTA
0.8365266857044427 AATACAGAGCAGGGAAGAATGAGAACAAACAGGAACTCTCCTGCATCTCTTCTCATTGGTTAGAAATGGCATTTGTCTCTCGCCACCTCTAACCAATGACGACTTTCATTACATCTTGACAGTTGTCACTGGTTAGAGGTGGCGAGAGACAAATGAAGATGCTGCTTCAGTATTGCCTCCTAAGTCTCAGGTAACTTCAATTTTGTCTGTCTGGAAGCATAT
0.6318015628773197 TAGTCCCTGCCCTCTTTGACTGCTCACCCTCTTCCAGCCCCTCTACCCAGCCTCAATCTCTCATTCTTCCTCTACTTTGAAGTCTGGCTTCTGTCTTGGCCCCTGTGGGTTTGATGACAAAGGGCAGTTCAGGAATGACACTATCTACACATACATGGCCATATGGACAATTTCAGGTGGTGGGACTTGCAGCAGCTGGGGTTCCCAGGACTGCTGACATTCTGCTGAGTGTTATTAGAAGATCAGGGACAGAGCTTATCATCTGGCTGTCACTGCCCCTTTCCAAGCCACAGCGAGCCTCCACAGAGGGGCCCTGGGGGATA
0.8995063034860964 GAAACAGCAATTACCCTTTTCTGATAAATTCTCTGGCCCCTACAACTCATAGCTCCACGGTGAACAGACAGCAGGAGAGCTGGCTGTGGGATCCCGTTGCCATGGCAACTCCTGCAGGTGTTCCTGAAAGTAATGACAAGGCCACGGGGTTGGGGTTGCTTTTCTCTCCCTTTCGGCAAGCCTGGAAGTGAGAAAGGTCACAGGGTGAGAGAGGCCTCCTAATG
0.8725997089807012 AAACTTTCTCAGAGCCCCTGAGTTCCAGAGCAGGGTGTGGATTTGGCAATAGTAAAGAAACAGGCCACGCCAGGAATGTCTGGGGAGCTAATGAATGCCCCTGAAGTGGTTGACGTTCCTATCTCTGCTTTGGATCCCTGCCACCTTGACTCGAATGTCAGACGGTGTTTAATTGGCAAACAGGGCTTCAAAGGGTTGCTGGGCCCTGCTCCCAGGGCCCTGGGGCTGTTAATGTTTAATTGTCATGTGCAAGGGCCCACTA
0.3446234911539362 GAGAGATCCTCTAGCAGAAACACATGTGAAGACAAGGAGAAAAACTGTTCCTTGGAGCCAGGTGTCATGGGCTTCAGCAATCACATTCCAAGAGACAGCAGTAGCTGCCACAGTGTTGCTGACAGGTGCTGCTGAGTCTCTGGGATGTGATAGACCCCAGTGGCATGTATCAGGTTCTACTAAGAACTAGTTCTGAGAATGTTATTTTGTTACATTAAC
0.4513303255499183 CAAATTACCCTCCAGAGGAATTAAGCCTCTCACCATCTGTCAGCCCCTTCACAGGCCCCATCCCCTGGTGACACCTCCACCCCTGCCCCCAGCCCTTTTTCAAGGGCAGCACATCTGTCCCGAGGAGAAAGGGCTGGGATCTGGTTAGTGTCGGCTCACTGCTGAGAAGTTCGACGTGGAGGACTCATTTATCTTCCAGTCTGTGTGTGTGAAAGTATGCATGAGTGTGTCAAGAACCTGCAGATATAAACAGCTCTGCCTCAGAGAAGGAAGCATACTCTCATTTTTCCTCAGTGGAC
0.3769979121422974 AGGCTCTTGGGCAGGCCTAGTGGTTTAGGGATAGCAGCTTAACAGTGTGGTGATCACAACTTCAGGAGGCAGGTCCCAAGGCAACAAGTGCTAGTGACAGAGAGCAGGCCTGCTGACCTGGCTGGCAGCTCGTGCCTCCTGCTCACTCTCCCCGCAACCTGGGAACCAGAAGGAAGAGTGTGACAGGCAGGGCTCAGGCAGCACCTGCGAAATCCCTGGAGAACTGGGGACAGAGAAGACAAAGAGCAGGGCCTGCTCACACACATAAA
0.8059763988239593 CAAACAAAATAATTCAAGTGTATGTGTTTGGGGACCACAGAGCTCTATGTCATCTCACTAGTAAATTAGCACTAATCTTTGGAAGATATCCTTTTCTTGTCTGAACTACTGCAGTCTGTTACTGAACAGGGAGGAGTGATGAAAGAAGTGCTTGAGGAGCCCCAGATGACCTGTCACACAGCAGCTGGGATGCTATCTTCACTTGAGGCTTATGACATCCCTGTTGCTACAGGCATCCATTTGGTTGGAAGTGCCAAATCTCT
0.4995550807840354 CCCCATAAGAATGACACAAACAGAAGAGCTTGCAGCTGCTAACAAATGACAGATATGTTCTGTCACACCCCGGCCAGTCCAAAGGGTAATGCAGCTAACCTGATAGTCCCCGGGAATAGCAGCTGTCAGGAAGGTGCTGCTACATGTCAGATCCAGCTCCTTAAGAGCAACTGATAAGAAAAAGATGAAGAAGAAAACAGCTTAATGTCAGTGTAAAATCTGAAATTCACTTAATCATGGGATT
0.9326634126922538 AAACGTCTTCTGATGGATGAGATACCGGATGACAGCGTATCTTTTTCTTCTCAACATAAGCCTGTATTGTAAGGAAGGTAGAATCTTATCATTGCACCTTCTCAGATAGGAAGTTGAGAATCAGAATGCCTGGACAGCGTCACTATACACCCACAGCTAGTGAGTAGAGGGATCAGGTTTATTATGTCTTTACAGCATAATTATGTCTCCATATATTTCATTGATATGAAA
0.769786504280532 CAAATTATATTATTTCCCTTCCCTGTTCTCTCTTATTACTGGCACCGTCACTTACTCAGTAACTGAGGCCAGAAATGTGGCAGTAATTCTTATCTCTAGTGCCCTTTATCCTCCACACCCAGAGCTGATGACACTGAGTGAGGCGAGGGGAAGACAGAGACCAGAAAAGGGAAACAGTCCTCAAGGAGTTCACAGTTTCCCTCTGGCCTGAGTGTTTGTTGTTGTTTGTTTGTTGAAGGAGTGG
1 TCATAAGAACACTTAGAACACTTACATGGCAATGTTAACAAATTGCTGTAATCTGAGTATGGACTATCTTGAGAGTGATAATCCCTTAAGAGCTTCAGTATTAGAGGGGCCTGCCACATTCACGGCCTTTATCTACAGTTATCTCACCAGATACTCACAGTGAAGATGCCCTTGTAGCTCTGGCTGGGGCGGAGGAAGAGCAATCCTTGTGAATTACCTCCAGAGTATGCTCTGTAAAACAGG
0.2789779908838361 CCCTGACCTCAACCTGTCCCCCCACTCTCCGCACACTGTCACCAAGTGCCCTGCGTGGATGGGAGATGGAAGCCAGACAGAGCCTCATTCCCAGCTGGGCTCTGGCATCTCCTTGTCCATCAATCCGTCTGCACCTACTTATTGGGTGTGCTGACAGCCGCGTGCCGGGTACCGCGATGAGGCAGGGGTGGGGCAGACAGGGGAGTCAAAGACTGGAGGAGATAAGGCCAGGCAGCTGTGTTAGGTACCAGGGAGGG
0.7476988527087017 AACCTCAGCAAAGTATTTGCAAAATAGCAATCAAGTGACTGCTCTCATTTGCTTTGGGGGTCAGAAGCTGTCCACTTACCTCCAAACCTCACTCCTCACTAATTGCAGGGATGGACGAGTGGAAGGCAGGGTGTTGGATGAGTGCTGACAGCTGTCCCGAATGTGGCATCTTGTTTCCTACGGGCCCAGGTCTGCTTAGCATTACACAGTGCTTAGCTTCGTTCAGGATGTGGTCAGT
0.1109625295605403 AGCATGTTTCAGAGCTGACAGGAAGAGCTGAAAGGTTAGGAGGCGGGGGCTGATGGATGTCTCAGGTGTCTGATAGGAGGGGAGGGGTGGAATCCTCATCTAGAGAGTGGCTGGAGAGAAAAGACAGACGCCTCTTCCGCGGCGAGTGGCAGGAGGAGCAGTGGGCAGAAGGGCAGCTGTGGATGGGGGCGGATGTGCTGGCAGGCAGGAGGGCGTTCT
0.8657545871980541 CCTTAATCCCGCCTACCGCGCCGCAGCGCCGCTCTAGATCACGGACTCCCCGCCCTCCGCGGTCTATTCAAGCCCGCGGCCTGTGCCGCTCCCGCTTCCGCTTCTGCCAGCCCACTTTCATTCCCGAGCGCCCCACTGTCCCTTGACATGGGTCCCTCCCTGCCCTCCGCGCACCACCGCGATTCATTTCCTCCTAGCACCGCGGCTGTTCCCAGTGTTTCTCCCCCTCCCCTTTACTCATCCCCTCGCCCAACTCCGCAGTGGCGTTCGCGCCAGCCCCTTGAG
0.9654498811708169 CTGCGACAAGGGTCAGGTTACAGTTTTTGCGTTGTTAGGGGGGCACATGAGACTCAGCAGCTACAGGCCTTGTTAATGTCTGCAAACACTCAGTGCTAATGTGGAGACTCAAGCCAGGCTTGAAAGTGATAAAATCAGGATGGGAATGTTGGCTTTGCTGCCCATCAACTGTTAGACTGGAGACAAGTTACAGGCATTTCCTTTTTTGTGGGGTAACTGAGACCAGG
0.1306497332397388 GCGAGGCCCCCCGGCCGGCCGTCCGGCCGCGTCGGGGCCTCGCCGCGCTCTACCTACCTACCTGGTTGATCCTGCCAGTAGCATATGCTTGTCTCAAAGATTAAGCCATGCATGTCTAAGTACGCACGGCCGGTACAGTGAAACTGCGAATGGCTCATTAAATCAGTTATGGTTCCTTTGGTCGCTCGCTCCTCTCCTACTTGGATAACTGTGGTAATTCTAGAGCTAATACATGCCGACGGGCGCTGACCCCCTTCGCGGGGGGGATGCGTGCATTTATCAGATCAAAACCAACCCGGTCAGCCCCTCTCCGGCCCCGGCCGGGGGGCGGGCGCCGGCGGCTTTGGTGACTCTAGATAACCTCGGGCCGATCGCACGCCCCCCGTGGCGGCGACGACCCATTCGAACGTCTGCCCTATCAACTTTCGATGGTAGTCGCCGTGCCTACCATGGTGACCACGGGTGACGGGGAATCAGGGTTCGATTCCGGAGAGGGAGCCTGAGAAACGGCTACCACATCCAAGGAAGGCAGCAGGCGCGCAAATTACCCACTCCCGACCCGGGGAGGTAGTGA
0.7700981540393655 GGTTACTAAAAGCACATCCATGAGCACCAAGACTCCCCTGCTTATCATCTGCTATCATAGAGAATCCTTATCCTTTGAGATGATCAAAGGCAAATCCGGTTACAATCTAATCTTGTAGATGGCTATGAAGAAAAACAAGTGGAGTAGGATTTCTAGTTAATATCTAAGATGTAGCTGCAAAGATAAGGATGCCTTTTCTTGTGTGGCAGGTACTGGTTCCTGCAGGC
0.7643936172217504 AGCCATCCTGACCATGAACCTCCTGGAGCAGCATTCCCGGGGCCTGCAGGCCGTCATGGCTGGGCTGGCCAATGGAGAGGTCCGCATTTATCGTGACAAGGCCCTGCTCAATGTCATCCACACCCCGGTGAGCCCCATCTCCGGCATCTGCCACTCACTCCTCCTTGCCCTCGTCTCACCTCTGGGGCTTCTTAGCTGCCTCTTCCGACCACACATTGATGCATTTCAAAAACATTTGTTGAGGCCAGGCACAGT
0.8370436779670674 TCTAGGAGCAAAGTCCCACCAAGACCTGAACTCTAGCTGCAAGAATTCAAGACGTGTTCAATTCACTTCCAGGTTCTCCTCCCACCCACCACCAGCCCTCTATCCCCCAGAGCTAGGCAGCAGCTGCTGTTAGGAGATCCTATCCAGCCCTGGCTTGACATTTCAACAGCCCGAGACCCAGAGATAAAAGTTGTCACTGAACAAAGTTCATCCCCCTCTCCCGCTCCCTTCCTGGAGCCTCGATAGGCATCAGAAT
0.7826262342162758 GGGTGACGACATCCTTCTCCTCAGGTCTTCTGGGTGGGGCCCCTGATGGGAGCCCTCCTGGCCTCACTGATCTACAACTTCGTCCTGTTCCCCGACACCAAGACCCTGGCGCAGCGGCTGGCTATCCTCACAGGCACCGTAGAGGTGGGGACAGGGGCAGGGGCAGGGGCGGAGCCCCTGAAGAAGGAATCCCAGCCGGGTTCGGGAGCCGTGGAGATGGAGAGTGTGTGAAACAGCCTACGCCTGGCCGCGCCCTTGGG
0.9569964319927609 AAATGTAAATGTTTGGTTGTTCATGCCAGTAATCAAGGCTAGAGAATTCAACCCTTCCCAAGTTAGGGAGAGAGAAAGTCTGCTGTGCATCTTGTAGCACAACTGTCACCATCCGGGCTTGGAAGCTCTGTGTTCCTTTATCTCACTACAGTACAGTAATCCCCCTTATCCACGGGGCATACGTTCCAAGACCGCCAGTGGATGCCTGAAACCACAGACAGTCCA
0.1030857391230924 CGAAAGGTAACATGACACAATAAATGAAAAAGAGAGATAAGACAGGATACAGTAAGTGAACTGGAGTGATAAGACAGGATGCATGTAGTAAATGAGCAGGAAAGATAAGACAGGATGAAATAACTAAATAGGAAAGATAAGACAAGCAGGAGTAACTGGTCAGAAGAGATAAGACAGGATGCAGTAAGTGAAATGGAAAGATAAGATAGGATGCAATAAAAGGGCAGGAGAAATAAGAAAGAGTGGAATA
0.4736229928966617 GGATTGTGAACTATTATCTTACCTTGTTATCTGAGCCGCTGGTGCACAAGGAAGTTTCCTTTGCTAATGGTTGAACTGCTCTTCAGATAAAGGCCTCCCCTAGATCTCTGCAGCACTAATTAATCAGCTGTTAAAACAGTAGTTGATAAAGACAGGCTTACTTAAAGTTCGAATTGCCTCAATCAGAGATAACGGGCGAGTCCCTTTTGGCAGTGAGATATGAAAACAGGAGAATGATCTGTTATCAGAGTGAACATGGCACTCAAAT
0.7789223787094441 AGCATGCCTCAGAGTTATCCACTGCTGAGGGACAAGGAGGCTGCGTTTTTAATCCCCTAACCCTCATCTGTCATGGGCTACAGCCTGCCCTCAGTGGCACTTCAGACCTGTCAAGATAAAACGCCTAGGAGGAGCATAGCAGTATCTTGCAGTAGACACCATTGATGTGTAATGGAACAGTGGGAGTTGAAAGAATATGGGCAGGCCACAACAGCATCTGCCA
0.7433143631679217 GAGGAGACCCAAGCAGGGAGGGGGCAGACAGGAGGCTGTGGACACCTCTAGAGATTTCCCCAGGGCAGTCCTGACAGGGGAGGTTCTGGAACAGTTCAGTCTGTCAGCAATCACCAGCCACCTAATGGGGGCCTGAAGCAATGAAAAGTGGGAGAAGCCAGTGGGAGCCCCAGGGTGCTCACACACCATGCTGGGGGTGCAGGAGAGGCACCACAGTGGGCTCCATCTGGGGTCC
0.7715157766196898 CCACTCCACAGGCACTGTTCCCATCAGACTCAACACGACCTCATCTTGCCAAATCCAGTGGTCACTTCTCTGTCTCTGTCTTTCTTCAGCAAACACTCAGGGCTTTCAAAAAAGCTGACCACTTCCTCATTGAAATACTCTCTCCACCAAGCTTCTGCAACACTACACTCTCCTGTTTCCCTTCTAAGTTCTGCCTTCATGTTTTCAGGCCCCTCCTCCTC
0.2298325046492617 CATCCTCCAGCTGGAGGTGATGAGAGCTTCACTGCATGTAACTGAAGAGTCCCTGTGGCTTGCATTCCTGGCTTTCAGTTGCCTGTTGTTCATCTTCAGCTGTGCATTATCTTTTTGGAGAGGATCAATGACACTTAGCAATAGCCATCCAATCCCACTCTCTTAATGTCTGCACCTTCTTAAGTGTCAAGCGTCCTGTAGATTTCTCTCACTAGTTCGTTCCCTTCTACTAACACACCATCCCAATTCGCAACTAATGAAAGTGTTAACAACAGGACCACCACCTGGTGCAGGGGCTGTCAGTACTCCACCTATCACCAGAAAAACAGGCCCTAATTGCCAGGCAGGTGGTGAGTGATTCAACTTCAAACTCTGTCTTATCTCCACCAGCTTTCTCAGCCCCCCTCTCACTGCCAAGTGTTGCAAGGCTGGCTGTCTAGAAGCAGTCACTGAC
0.7965585447833546 CACTTCTCCTTTCTCCTGGGAAGGAGTGAGAAATGGTCAGGCATGCTCAATCATGGACCTGTCAGTGCTGTTCAATGGCTCTATCTTGAGGGGCTCTTTCCTGATAGTTTCCTTTCATCTTCCTCCATCCATCCTCCTGCGACACAGCACTCTGTCACTGTGTCTTCACTCCCACACCTTAGCTCAGGCGCACACACACATCCACAACTCTGACCTCTTCCCAGGGATGTCTCTTCAAGGGTC
1 AGCAATGGCAAGCTTTCCATGGCCTTGCAGCCACCCCCCACCTCCTGGGGACAGGCTCTTCCACCTTCGGCATCAAGGGCTCCAGCGAGGTGCTGAGTGCTGGAAGCAGGGACTGAGGTGCTGGGAAATTTAATTAGCTTGTGTGAAACAAAACAGGCCTATGGCTTAAAGCCACTTCAGAAGTGTGAAGAATAATGATTGCTTTTTGAGAACTCCCAT
0.6379076849400643 CTGGCACCTTTGCATGAATTGCTGCCAACAGAACTCTTCGAAGCAGTGCCTTCCCTGGCTCTGGGACTCCTCCGCCTGCCCCGGCAGACTCAGGAGGATCCCACTTGGTGACTGTTGAGTGCTGACATGTCTCGATAGAAGGTGTGACTGACTGCTGAGCGGGATTTGCTCTCAGTAGTTTAGTTATGAAGTTCTTGTGTGTGAGTCTG
0.8457297239975746 GCATAGTGGTTAAGGGACAGACTTAGCAGCGAATGTGCCTGGGTTCACATGCCGGCCCATCTGCTCCGCAGCGTTGGAGAAGCCACTTGACAGCTCTGGACAATAGCTGAACCTCCATCAACCCGGTGACATGAGGATTAAGGGATTAACTCCTATAAAGTGCTGAAAGCAAAGCCTGGCACACAGTAAGACTAAATCAATAGTTCTCAGCCCTGGCT
0.8828937083637663 GGTCCATGTCAAAAATAGCCTTGAACTGTATCTCACTGGAGATTTATCACTAAAGTGCACCCCTTTGAGATATATTAACCAGATGTCCAGAATGCCACTTTGGTCCTTTCATCTTATCCTAACACTGTCAGAAGAATTGGGAAAGGGATAAGATTAGGTGCTGAGCAACTATAAAACAGGAAAAAGGGACAAAACTTCAAAGCCCCTGAGGCCAATGAGGGAAG
0.7859109994577566 CAAAGGAGAAGATGAGGGGCTGTGGGTGTTTCTGTCTGATCTGTAATCCGATGGAGGCTCTTCTTTCCTGTCAGCCACTTCAGGGCGCACTTCTCTGACACCTCAGACAGAGGCAGGCTGAGTGCCTGGAGGCAAACAGCTGATTAAACCAAGTTGGCTGGATGCAGTTTTTGTTTTTTTTTTGTCTTGTTTTAAGCAAATGAAATTCACATCTT
0.8209222831860737 CTTCAGCAAATTCCTCCCGGTGGGCCTTGACTTGAACTTTTCGGGTCTGGACTATTTCTTCCACAGCTCCCTGACACTCCTGTTACCCCAAGGGTGAGAGGAAGCGATGTGAGTGAAAAGGGGCCCCTTTCTCCTGAGGTTAGTGCGGGAGACACCTCATAGTCACTTGTCACTTTGCAATTCCCCTCTCCCAGGAGTGTGGAGAAGGATTACAGAAACCTGGCAGATA
0.8734152135029191 CAGACACTTAGGCTCTCTGAGCATCATTTCATTATCTGTAATCTTTCCAGTACCTTGATTGTCAGTCCCCTAGGCAGGTATAACCTCTTAAAAAATGGAGTAGAAAAGTGAAATCTCCATTTCTTTATAACTGTAATGAGTTTTCCCAGGAATCCTTTTCTGACCACTCTGCTATAATTTAGTTTAAGTGGTACGCTTCAGAAAACTGAAACATGCTATACTTTGCAAGCAAGTAGCAATCAAAGGGATACATTCTTTCACCTTTTAAAGTAGAGTGAAATCACTTCCAATCTTATCTTTGCAACCCAAATGCCTGCTGATAATGTGAGCATAAACACATTAGGCACCAAAGAGGAATGGCATCTGGGTGCGAAGATGTGATCAACAAAGCCAGAGTCAACACAAGCTGCCATCAGGGAA
0.7546331547338021 GATTTCCTTCCCTGCCTAAAGTATGGCTGGGTTTGATATACAAAGCTCTGTGTCAGCAGCCAAGTCCCTGTCATGCACTCTTCTGGAGCCCGTCGGGAGACACCTTGCCCCGAGCAGCTCAGGGCTGCATCATCAGACTGTGTAGCATTAAGGTCCCCTGGCGGGCGAGGCTGGGGCTGGCGTGGCAGAGAGGTCATCCGTCTCCC
0.5976764971378529 AGTAATCCAATGGAATAGAATCTAATGCAATAAAATCGACTCAGATAGAGTAGAATGTAATGGAATGGAGTGCAGTGCAATGGAATGGAATGGAATGGAATGCAATGGAATGGAATGGAATGGAATGGAATGGAATGGAATGGGATGGAATGGTATGGAATGGATAGTAATGG
0.93449414846078 CACCCCCTACCCAAAACTCCACCTCTGGGCCTTCTCCAGGCCTCTAGGCTCTGGCCGCCACCATTGAAATCTGATATGTAGCCATCTGGTGCAGGGTGTCGATGGCAGCATGGTGGCTGGGGATGGATCACAGGAGGCAGTGGCCCTGTTGCTGTGGGCATTGCTAAGGCAACAGGCACTTCCTCCCACACGGCACATGCCTCGGATGAAAGTGTCCATGTCGAGTTGATCCG
0.6427831089630405 CAAACACTGGCTTAATTATCCCCATCAGTCTCAGAGACAAGGCGCTTAAGAGTTCTAGCTGCTGTAAACACTCCCCTGATAGCAGATAAGGAATCTGCTGAAAGGCAGTTTTGTCTGGGAAACCTCAGGGGCACACCAGTTAATCATTAGTGCAATATTGTATATGCATTACTACATCAAAGGAAACAGAACCCAATATTCTATTGTGAAGATTGTCTGTGTTTTCTTAAAGGTAAG
0.5258614181157214 GTCTGTCATTCAGGTGCTTGGGAACATTTTGCTTTTGTGACTTGGAGTCCGACTTTTAGCAAGTGACTTGCGGAGTTTGTGCGTACTGCCTGACAGCTCTGGTCAGTGTCACCAACACCTCGGTTTCATCCTGACAGCAAGCCTTCACGAAGAATGCCACAAACCAGACCCTGTTGCTAACGGAACCCCTTTCAGTGCTTTAAAACCTTGACTACCCTGACCGAAG
0.9478806137462681 GAAAAAATGCAATAAGCAGAGTTAAAATTTAAATGACAAGCCAGGAAAAAATATTTGTGATTGTGTATGACAAACAAGAAGTTAATATTACTTGATGGGATCTGAGCTCTGCACTGTTTCTCTAGCACTGGGCAGCTGTTGAAACCTCTTGTCAGTGCTTGCTTTCCTCTGGATTCCTTGGAGTCTTGCCCTGTACTGGTGCAGCTTAGGAGTCAGCCAAGAATTCGA
0.5874924273252745 CAAGGGCTGAGACCTCTTGCCTGTCTGGAGTTTAGCTGACACATGCTTGCTTGCCAGCTGTTTTCCACAGGGATCTGGTTTCCATCCCAGGTCAGCTCATTTGCAATGAATTGTTTGGGTGAGGAGTGACGAGTAGTCATGCCTGCCCACCTACTACTGGCCATTGACAGCTCTAAGGTCCAGGAACCATTCTAGAAGGACATGTGGC
1 ACCCTATGTCGCAGTATCTGTCTTTGATTCCTGCCTCATCCTATTATTTATCGCACCTACGTTCAATATTACAGGCGAACATACTTACTAAAGTGTGTTAATTAATTAATGCTTGTAGGACATAATAATAACAATTGAATGTCTGCACAGCCACTTTCCACACAGACATCATAACAAAAAATTTCCACCAAACCCCCCCTCCCCCGCTTCTGGCCACAGCACTTAAACACATCTCTGCC
1 CATGGTTTGCTCTCCCTCCCTCCTCCTTCCTTTTTGTTTTTCTCTCCCATCCAGGATGAAGACGAGCTAGCTCTGCGCATGTGTGCGTGTGGGAGAAAGGCCAGTTGCAGTCAGTGTCACGGTGCTGTTTTTGAAACTCTGCAGGTCCCTCATAGGCCGGCTGATATCACCCATGCCAGGATTGCTTGGCCTTGACAGAGCCTGTGTTAGAAGGGACTATCATGAAGGTATCCAAGATACTAAAGGGCTGAA
0.9665712118314985 TGTTTAGGAAAAGTCACTCAAAGAGCTGTGGGGTGCTGGGATGGTAGATGATTGGCTGTGTTATCTTACCCCACAATGCATTAAAACAGGTCTGTTAATGACCTGTCTGCAGTAGAAGTGTGTGGAGTGAGTCCAGACAGACTCAGCGGAGAGTGCACCAACTAAATACCATGGGCCCCAAGAAACAGATCAATGCACAAAATAGAAAA
0.8452706229152215 CTCATTATTTCTCAATTGGATCTGAATGCACTCCTAGCCTGTCTTTTTTCCAGTCTCACCTCTGATCCATCCTCTGCGTAGCTGCCCAAGGGATCTGTCAACACACACATCAACATGCTGATTCCCTGCTTAATCCCTTCCCCACCAGTTTCACTCTGGATAATGTTGAAATTCTTCAGGTGTCATCCAGAGCCCCTAATCTGGTCATGACC
0.02883544339958734 TGGGCCAGGCTGGGAATGATCTAGGGGGAGGCCCACCCGCCCTGTGTCAAGGCCGTGTGTAAGTGTTTTATTGTTTGCCCGCAGAGGTGTGAATGAAGTAATGGGCCTTCTCCAGCACTCCATCCGTCTCAGGCTGACAGCCGCGCTCCGAGCCCAGGCTGCTCTGTGTAAACGCTGTCACCCTGCCATCCCCGAGCAGGCAGCTTCCTCCGGGAAACTGTAATCAGGGCCTCCCGCACCCGCAGCTGGCCCTGTCCGCAGCTCATAAATCACGCTGCCTTCCCGGAAAGCAGAGGGAGAGACAGACAGGGTGACGGGAGACAGACGAGGCCGGGCGAGGAAGAGACGA
0.5174758558383306 TCAGCATCGTGATCTAAGTCTCTTGTGCTCTTTTCTCCTCTTTTTTGCTCCCTCTTATCTGCCTTCTCTCTTTCTTATCTAGGTAGTCTCACTCTCCTTATCAGAGGACTGGGGCACTGTTTCTTGACATGTAATTTACATCTAATGAAAGCCTGGAGTTACTCTGTATCAAACCTTCCTCCTCATCTTATAGATAAGAGCTACCAATCAGGATAAGGCTTTAGTTCTTACCTTGTACTATTAAAGTTTA
0.5758551319982538 TAGCAGTAGTGATTATGGTGTCCTTGTGGAAGCAGGGTTGGGGGTGGAGACCATGGTCGAGGTGGCCTGGGCAGCAGTGGCTGTGGTGATGACAGGAGGAGGCGGCAGTGAAGTGCTGATGGAGGAGGTGAAGGTGATGGGGTCTGCGGGGGCAGTGAAGGCCGGCTACAAGAACACCCACTGCCCAGCTCCCAGCAGGGCTTTGCAGCTGCTGCTATGAG
0.4149683807397255 CCCATTCTTCTTCCGCTATCACCCAGCCGTCTGGTGCAAACGACCCATTTAAACACCTCAGAAGTGATGATAAGAAGCAAGATAATAAGGTAGCCAGCCCCCAGTTCCCCAGGCAGCAATCACGGTGTGTAGGATAGAGTGCAGGGGCCTCTCTGTCGCTCTCATCTGTCACACATCAAGTGAGAAAAGATCTATTTTTTCCCTAGGCAGCATGCCTACAACTTCAATTGGCCTA
0.009488826583719141 CCACGCCACAGTCAGCCTGCGGCAGAGGCATGGGTTAAAGGGGAAGCCAGATAACCCTGAAGCAGATAGAGACCAGCTGGCCTTTCACTCACTACTCACACCTCACCCCTTCCCGGGAACCTTCAGGGTCTGGTTTGTGCTGACAGTTGGAATTTCTGCTTCCTCTCCCTCCTCTGCTCTCTGATCTCCACCCCATTCTTGCCCTTTCTCTGCTGATAACCTATCTTGACAACTTGCAAGCCCAGAGA
0.4920327509394551 CTTTGAACATCTCAGAGGTAGTGGGTACTTCAGGTAAAGCTGGATCCAGACCATTAGAGATCTGTCTCTCTCTGTCTCTGGGTTCTGCTGTCATCTGTGCTGGCTTCATTCTCAGGCAGGCTGTCCCCATGCTGTGAGGAGATGGCTGTCACCTCCTGGCTTATATCTACCTCACTTGGTGTTGCTAACAGAAAGACAGCATCTCTGCTAATTAACTTGCCACAAAAGTCCTGGGATTCAATGTCCATGGCCCCAGCTGGAGT
0.5534344661110694 CTAATTGCCGACGCGCAGCGCTGCCCTGGACTATGACACAGGCCCCTGACAGACATGATTTATGAGGGCCCTCGGCAAAGCGGAACCCACTCAATTGCCTATTACCTCACTTAGCAGACACCTTGTCACCGCCCGAGAGCCGGGTGTTAAAAATACAAACCAGGCGGCCAGTCGGCCCCGAGTGTGGCCCCTCCACCTGCTCCGCACCAGATAACCAGCCTTCCAGCCAGCCAGCTGATCTCTGCTCGGCTGAACTGGGGAGAAGACG
0.9127381193546166 CGTACCTGATTCACCACGTCCATGTCCGCCAGCAGCAGCATCAGCAATGCAGGGGGCGGGAGGCTCGGCTAGCAAGGGCGGCGCGGGGCGCGGCGGGGGCGGCGCGCGCTCGTTGGAACAGCCCAGGCGGCTGCAGCCCCGCCCCTCGCGCCCCCTCCTTGCCCGCCACGCGCCTGCGCACAGCGGGTTGTACCACAGTCTCACCGG
0.586561854546409 GATGAAGGGAGAAAACGGCTTGGAGCCATGAGAATGGTCTTTCCACTGTTTTGTGTGCAAAATCTGGTAGAAGTGGGCGGACCCTCCCGCCCCTAGCTGGGTGTTGGAGAACAGCTGTCAGCATTGACTGAAGGCTGCGAGGCGCGCGTCGGCAGGAGGCGCTGCACGCGGGCGCTCGTCGGTCTGATCGGTTATAACTCGTTTGTAAC
0.8724804695249074 TAAAAAAACAAGTGAACAAACTTGGAGAACCAATGATTTGCCCATTGGATGTTATTATCTTCTTTAAGTGTCCATTGATTGATTCTGCTTATCAGGCTGGGTTGGATTTGTGGTTGTGTTTGTGAGGGAGGATGGATTTGCTTATCTTTTCAAGATAGATGGAGTTTCTGGTAATGCTGATAAGGGGACAGGAAGATCCCCCTGGACTGGCATAT
0.398765462033387 TCATAAATTTAAGCATAGAAAAAAGGCATGTGTGAAGGCTCAAAAGTAGGAGAAAGGAAGTGATATCAGAAAGTGCCACAATCACTCCTTTGTCCTGGTGTCAGGTGAGATCTCTGAGTAGCTGTCATCACCCTCTCAGAAACCAACCTGATGCCTTTGCCTTTCAAACTCAGATAAGCCACTGTGACTGTAAGGACCCTCA
0.6273167525856397 CGCTTGCTTGGCTCAGCGCCTGCCCCTCGGACGACACCCGTCTACGGTAGCGACTGTCATCACTTCCAGCAGCAGCATGGCCAGGGGCTGCTGAGAGAAGTCTAGAGGTATAAAGAGGAGCCAGCCGGGCGTTCCTGGCATCTCGCGCACCGGCACCCAGCCACACTGAAAGGAATTTTGGTGGGAGGATCCCGAGGAGGAACAATCCGGCAGTAGGTGACTAGCGATTG
0.7501629445984416 AAGGGTCTAGTTGTGAGGGAGAGAGGTGAAAGCAAAAGGGAAATGCTAAATGACATGGCACAGCAAGCAAGGTCTAGGCAGCTGCGCCTTTGATAACAAGCTGCTTGAAGAGAAAGACCAGATCGGCTGAGTGAAAGCACTGTCCATCCTCCCCACCCCTTCCTTCCTGCTTCCTCCTCTTCCCATCTCCTCCAGCTTCTC
0.6393357856847844 GACTTCCTGGACATAAGACCCTGTCCGGGCACTCACCACCATCATGCTTGAGGCCCTGCCCTGGTGTCAGTCTTTCCACGATGCTGACTGGCAGTGTGTCGGGACAGTCCCCAGGCAGGCCTCCCGGATACCTGTCTAGATTATCTCTGTGGTGGATGTAGCCTTTGCCCCAGCATTCACCAGTGACAAGAGAAGAATGTACTTTCATTCTTCCCAGGCTCTACCTGGGTGTGGTGGATGCTGCTGTCACTAGAAGGCTACTGTAAATAAAGCCTGCTTAATCTCCTTAGCCGGATGGCTGTGTCAGCCGGGTTGGAGCCGCCAGAAAAGCAGCCCATGCTTTAGATTCCCCAAATTGTT
0.7437644482224073 TTCTCTAGATAAAAATGATTGCTATAGAAAGTGAGGCAAGAAACTAACACCTACTATGTGCCAGGGGCTTAGCATGCACACTCTTACTTAATCCTCCAGAAGGCGGGCTTGACAGGCTGCTATTGATGTCTGGCAGGCTCTCATTAATTAACACAGCAGGAGCTCCAGAGGAGCCACACCAGAAGCTACAAGGCCTATTGAGTTGCCCAACGTCACTTATGCCATATTCTATTGCT
1 CTCATTCTGCCCCAGTAAGCTTAGCCATTGTTTATAGTCTGTTAGGGCCTCAATACCATACTGTGTTGATGTGTTGACATACTGGATGCCTGTGAAGCATTTCCTGACACCAGGATGAAGATACTGGAGGCATAGCAGAGAAACAAGAATCTGTTCATGGATTAGGTCTGAGCCAGTGTCTGACTACTGCAGTATTTCACCAAAAGGAGCTAGATGCCATGAAAAAGAAGCTTTACGAATCTTTGG
0.7124624355645152 AAGACGGGGTCCAGTGAGATGAGAGATCAACATGCCATTAGTGACATGCCTGCTGTGCCTGTGGATCTTTGCAGGCCAGGGAAGGGCTGAAGTATTTGTGGAAGGTCAGCAGAGGTGCTGTCTGACAACCTGCAGGCCCACTCCAAGGTGTATCTTGCTCTTTGGGTCTGGCTTGCTCTTTTGCTGCCTCCATTTTCTCTTGTGGAGAATCAA
0.771457962146165 TACAGGGGCATTTTGACATATCTCTGCACTGTTAACCGAGGTGATGTAACTCTTGTCTAGGCTGTGCCCACAGGGGGATTGAGACATATCTCTGCACTGATCCCGAGGTGATCCAACTCTTGCCTGGTCTCTGCCTACTGGGGACATTGTGACATATCTCTGCACTGATCTCCCAGGTGCTGTAACTTTTGTCTAGGCTCTGGCTACACAGCATTGTGACATATGACTGCACTGATCACCCAGGTGATATAACTCTTGTCTAGGCTCTGCCTACAGGGGGCTTGTGACATATCTCTGCACTGATCACCCAGGTGATATAACTCTTCTCTAGGATCTGCCTACAGGGTGCTT
0.8915400484501995 GAGACAGAGCTGTCTCCCTCTGCCTTATCCTCCTCCTCTGCCCCTTCTGTAGAGCTCAGTAGTGGGAAAGTGGCCTTGGGAAGGGGCCTCTGGGGCTCGTCCACAGACACCTGACCATGCCCAGGCGGCATCCCTTCAGCTGTCAGAATTCCTGGGGTGGGTGGGTAGGAAGCAGCCAGGCCCTTCCAGCCTCAGTCTGGCTCTATCCAAGACCTCCCTGGACACTAGAGAA
1 TTCTCTAATATCTCCCACCCTGGGCTACACATCCCTTGGGGGCAGAACAATGCCCTTTACATTCTTATACCCTCAGCCCCTAGCACAATGTCTGATGCATAGTGGATTCATAATTTAGATTTAATGAATGACTATAGGCCAAGGTTTTCCAAGAAGGTCAACATTTTCTCTGCCCAGATATAGGGCTGAAGTTATCCAAGATCTCAGAGGAATTTCCCTTTAGTTCTGTGCAGCAAGAGCTCTGAGGCCTTTGAACTTAGGCCTAGTAATCTGGTTTCCAGTGATAAGGGTGGGTAGCACCACTGATAGTGGGGTGAAAGATAGGGTTTGGACATTTGCTTGTTTTCTCCCTTCGTTTGTACCCTAATGCAGACATTGTGGTCATAT
0.7596706659998435 TGAAGCCATAGCTTCTGCTTTGGGAATAAGCCACATTAATCAGGTCATTCCTTTAGGTGTATTCTGAAGTAGCTACTTTTGGTGATTAAACTTCACATATTATATTAGGTAACACAGCATGCTGTTAACAGCATGTTATCAGTAAAGGCAAGAGAAAGCATTTATTTTAGATAAAGCAGGCTAACGTCTGTCAACTATAACAC
0.6034871862978434 CTCTAGGGAAGTTGGAAAAACTATCTTTCCGAGACAGCTGCTCTATGTCCCTCTATCTGTCACCCTTATCACTGCCACCTGTCTAAATCCTTCATGGTTCTTGTTATCTTATCCTAAGCCATGCTGGCAGCTGATTAGATGGTGCCCACCCAGATTGAAGTTTGGTCTGCCTCTTCCAGTCCACTGACTCAAATGTTAACCTCCTTTGGCAACACCCTCGCAGAC
0.668868992938544 GGAATGGAGTGAAATGCAAACGCATCGAATGGAATGGATTCAAATGGAATGCAATTGAATGGAATAGAAAGGAAGAGAATGGAATTGAGAGTAATGGAAAGATATCGATTGGAATGAAATGGAATGGAAAGGAATTGAATGGAAAGGAATGGACTCGAAAGAAATGGATTGCAATGGAATGGTCTCCA
1 TATACTTCAGGAGAGGAAAACTGAAATTCTAAATTTGGAAATTTGTTTGGATTAGCTAATCAACGGGCACCTTCTCTTCTAAGAGAAGGAGATAAGTCTAATCTCCACAATGTAAACAACTTCTTGAGAAGAGAAATGAAAACTCCCTGGGTTCCTAATCTTTTGACTGTAAGTAAGTATCTCTAGGAAGAAGATAAGACATCATTTCAATTTATAATTCTGAAAATTTATCTATGGTTCTGGGCTTTATCTCCCTTTAAAATTTAAACACTTAT
0.5411654873433916 AGCTAAACCAAAATCATGACTGCAGTGAGACTGGCTCTCTGATGACAGGCTTCTAGGGACTCATGAAAGTAAACCAGAGGCCTTCTGGTTGTTTTAGCATGACAGGCAGAGAGAGAGATAAAAGTAGGTCCTCACCTGCTTACACCAAGAATGCAAGATAAAAAGTCCCATGTGCTGCTGTTTAAGCAGGGCTCTCCCGCAGGAATGCAGGGTGACAATAGTGTGAAGAACGAACAAGGACCCTG
0.6111552116818946 CTTTTCCCTGAGTTGAGAGTGAAGAGTATCTGTCATGAAGGGAGAAGTCACAGTCAGCTGGAATAAGGAGGCCGTCAGCAAGACAGGCTGTCAGGCTCTCCTGGGTTTTCTCTGGAAGACTTCAGCCCACACCTCCCCTCCTGGACACTGAGTGGGAATAACGAGAATCAGAGGCCACCCCGAACAACAGAGCTCCAAGTGGAGCTTGGGGGTCAACTCAGAGTCCTGCTCTTTCTCCCCCTCATTTGACCCCAAAGAGCAGCAGAGTACAGTGCAG
0.5891780889125665 CTGGAACTGCCGAATCAAAGCAATGCACATCTTAACTTTTAGCAGCTATTTGGGCTTGTGGAGTTTAAGCATCTGCTTCTGAAGCTCAGATGAGTGAACCTGATTACTGATGGGAAGCAGACGGCAGACCCTGTCATCACCAGCTCCTGCCCAGTGTGATTGAGAGTGGGACTTTGTGGGGAAGGGGCAAGATGAAAGGTGACGCAGCAGGAGGTTTCC
0.9389056557356124 CATGGATGAAATACCTTCCATAGCAGATGGGAAAAGACGCCAGGCCACAGAGGGTCATGGAAGTTTTCTGAGTAGAGCGGTGACATGATCAAAGCGCTGTGGCAGGAAGATTGATCTGGTGGTGCTGCAGGGCAGGGGCAGGGAAGCCCCGCTGGAAACCAGCTCCAGTGCCTCTAAACTCCTGTGACTCTTTGTTTACGCTCCCCAGGAAACATTTATCTG
0.07639051197985286 ATTGCTTATTTGGAAAATCCAAAACTATTTACAGGTAAATTATGTATAAAGAAAAGCAAAAGGCCAAGAGGAGATAAGACACCCCAGACAAGATAAGATAAGATAAGACAAGATAAGATAAGATAAGGTAAGGTAAGATGAGATAAGGTGAGAATGGGATAAGATAAGGAGAATATCAAGATAGAAAAACACATCCTACTAGATACGGCTGTAGTAAAATGTAATAGTGTAGATTGGTACAGAAA
0.6558648142785102 TAACTTCCATTCAAATTGATGATTAGTCTGAACCCTAAATCTCTCTCTAATCTGGCCACTTCTCTGCATCTCCCCTGATATTACCCTAGTTCAGGTCTCTATCTCTCACTTAGATTACTGCAACACGTTATCATTGGTCTGTTTCCTGTCAGTCTCACCTCCCTCTCTTTCTCCACTCAGCACAACAGGGACATCTTTCTAATACATGAGTCTGACCATGTTATCTATTG
0.9220673285176026 GTAATGCACAATTACAAGCAACCACAGCATCTACCACACTGTAATGCTGTGGCCGCATTTGTTCCCCTTCTTCCAAGTGCATATTGGCATGGATAGTATCTAGTGAGTGCTTCGCAGGTTGACAGGCCTCAATGTGTGTTTGAAGAAAGCCAGAGATTAGCCACGATGGTCAGCCACACAAGGCCCAAAGCCTGAGGCAGAGGCTAGCACATGATGTCCGCAGACCAGCCAGTGTGTCTTTAG
0.6838728534794477 TGCTTTTTTACAAATTTCACATATACTCATAGGAAGAAAACAAGCTATCCAGGGGTGTCAGAGATAGGTAGCTGACAGGCAGACAGATGCCAAGAATTTGCTCCACAATTTAAAGGGCTACAATCAGGATAACAGAAGTGTGAGAAACAGACTCAGACAGCTTAAGGGTTTTTGTTGCCCAGAAGGAATACCAA
0.9225893844843384 CTGGCAAGAGGCTGGGCCTCCATTCCTATTTCCCCTGCTCATTGCCTGAGGCTTTCAAACAGTTCCCGCTCCTATCTGGTTTTTGCTGGCGGCACAGGCAAGTTGCTGAGTTCTTGTGATAAGGCTGGCTGATACATAAGGATAATTACGTCTGTGGGTTTGGAATCACTCAAAACCAAAGGTGAAATGACTCAACACAGAGGAGGGCTTTCCC
0.4443748363178994 CATGGGTGCCCCTCTGTCAGCCTTAATGACAACTCAGGCCTCCAACAGGGCAAGATAACAGGAAGCATTCCAGGGAGCCAAAGGATAAGACATGCGCAGGGTGTGATGTGGAAGAGTGAAAGGTGGAGATAGAGGGGAGGAGACAGGCAGAGCACAGAAAGTGGGAGGGAAAGGGCACTTTGGAAGCAGCTGT
0.7733756527368003 TTTGTAACTCACTTCTGTGGTATCTAGTAAACTGGAACACGCGCTTTCCCTGGGCTGCTCTGTCATCCCAGGTTTCAGCACTCGGAAATCGCTTGGGCCCCCGCCCAGAGGCGGGGCTTGGGTGGGCTGACCACTCCTCTGGCCTCCAATACTGTCGCTGACATTCTCGTCTATGCTCCAGCAGCCGTACCTCACTCCGGTGGAGGCGGGACTTCCT
0.7065581241006889 AGTAAGATTTGGCTCATTCCACTCTGGATTTTTGTTCTTTTCCCTGTTCTCTTTTCGTCTCCTGTCTTGAAAAAATGCTCCCTGGCCACTGCTCACAGAAGGCGCTGTCGCTTCAGAGTGCTGGATGAGACAGAGCAGACACCTAGCACAGAGAGGGCATACATATTGCCCCAATGAACGATCTAGCCTTGTCAGCGCTGGGCCACAGTGATAGCGTCTCCTGAG
0.8577368978134792 CCAGGTCTGGACTGTGTCTCTGTGTCCTTCTGGGGCTCCAGGACGTCTGGGCCACCTGGACTCAGAGCCAGGCCAGAGAGGGAGGCACTGGGAGGGGGAGGCCCTGAGGTGCCAGCTGAGCAGAGCTGCCAAGAAATAAGTACCACAGACTCCTCTGTTCGAAGTCTGGAATTCACGATATATCAGGGATGAAGTG
0.9247571648475515 GTAGAACTGAGTCATCTCAGTCTTACTATAAGAGGCTGTGGGAGGGACACCTCCCCCTCTGCTGGGGACAGCATTCAGAGAAGATGGTGCCACAAGACAAGAAGCAGTTGTTCAGTGACTGGCAGGACTTGGTTGAGAAGTTATTCCGATCGTGATTGATTGACTGTAATGACTATGAGGACATTTAAAATGAACACCGA
1 GGGCCAGACTGACCTCTGGGCCTCCGGCTTCAAGAGCCCTAATCGCTGGGGCTGGAAAAAGTTTAAAAATATCCTCATGTTTACATTCTTTCCAAGCTGCCTCCTGATCCTCCGTGCTGGGTCCCTTTGATCTGGCCCAGTGCCTCTGGAAGGGGCCTGGGAGAAGGGGAGCATGAGGCCTCTGCTGGGGCCCACCCCTCAACCCCCTCCAGCTCCAGCCCAGAACCCTGTGAGACCC
0.5430790694099497 AGAGCCAACATTGAAATTCTCAGTAGATGGAGTCATTTAAAACATTTTTTTAGTTTAACCAGACTGAAGATCAAAAGGGGGTTGGTGGCACCTGAGAAGAACAAGAAGCTGTCACCACCCCTTGCCCCGGGAGCAGAAGAGAGATGAATGACAGCGCTGTCTGCTTTCAGCACTTCAGCGTGGCGTCAGCTGTGTCTCTCTGGCCATTGGTCAATTGCATCCTGCAGTAG
0.6913485327381467 CGCGGCCCAGGAGGGGCGGTCAGCGGCGAGTCAGGGCACCTCGGACCGGCTCCCGGCTCCCGGTCCGGCTGCCTGCCAGCGGCCGCTCAGGACAGAAGCGAGATGCCTGCCTAGGCGTTTCTGGTTACAATCACCTCACACACCGGCCTGCATTCCGCCTCCCCAACCCCCATCCTTACCACGAAGTCTGAAGTCACACCTTCTCCCTGGCTGGGAAGCTTTGCCAGGGTGGGGGCGA
0.5211732972104897 AAGGTTCCCATACCTTAGGAGTGCCCAGCCTGCCCAGAGAGTGGCTGTGACTCCTTGTGGAAATTGTCAGCAATGACAGCTGTTGATGACAAGAGGTGTAGTAGTCACCTTTGTCAAAGCCCAGTCATGGTTCAGCAGGCAGAAGTCTGCATGCCTTCAAACCAGCTTTAGTTTCAGCTCAAGGCAGCAAACAAGGCAATTTCTTCCTAGGAATGCTGCCTGGCCCTGTCCATCCTGCCCAGGGAAACTTTGCAGGCCTTGCCACTTCTCAGGGTGAGGCAGTTGAGAGTTTATCACCATAAGCCATTGTTTTCACAGCAGTGAGA
0.1307947295229164 CCCCGAGCGGCTCACCGGCTTCACGTCCGTTGGTGGCCCCGCCTGGGACCGAACCCGGCACCGCCTCGTGGGGCGCCGCCGCCGGCCACTGATCGGCCCGGCGTCCGCGTCCCCCGGCGCGCGCCTTGGGGACCGGGTCGGTGGCGCCCCGCGTGGGGCCCGGTGGGCTTCCCGGAGGGTTCCGGGGGTCGGCCTG
0.4613106976576759 ACGATGAGAATGTGCTGAGTGTGTCTGATGCGTATCATTAATATCAGCTATTCCACTTGAGCGACGCTGCCCTTGTCCTAATCACTCACCCTCGTAGGCGCCTGTTCCCTCTCGCCACTCGCTTCACACTCAGCTCGGCTCCGGATCTGCACAGTGTCACTGGATCTTCAGCCCTTGCTGTCACACCCCTGTCCACCTTCCCCTGGTGCCCCGCCTCCCTCCCTTATCATGCTGGAT
0.8310003748294117 CATGCACTTGGGATGCTGTCAAATTGGCCTCCCAGACACCAGAAGTGTCAGAGAAAGTCCAGATGTCCTTTGAGCTTAGAATGTTGGCATCTTGAGGTGCTTGAATGACATGACTCAGATTTCCTCCCTCCACTGTCTGGATGGGAAACCAGCTCTGTTGGAGATGGCCTGAGTAAATCCAGAATCCCAGCCCTGGAAAATCCAGCTGCCAAGACCAGATATGG
0.674726316772847 TTGTTGAAAAGCACTTAAGAACACGTTTTAGGGATCCTCAGAAATCTACATTCCAGCCTGACTCCACATCTACCAAGCAGAATCTGAAGGAGTTCAGTCTGCTTTCTCTCCTCCACACTCAACTGATAATGCAAAAATGTCGGAGTTGAAGCAGCTGTGGCATGCCTCTATCAAGCTGTCTCGGAATTGGAAAGTGGGAAGAGGCATTTCAGAGAGTCAAGATAT
0.9222033885910138 AAAATACGTAGAATTCTGATAACATTTATACACTCTTCGCAGTGAGTATCTTTTAGCACCACAGTCTCCGATGTTTCGGATGTGGCAGTCCTTGGCTGCTCTGTTTTACGTCTGCCACACTTCCTCACTTCTTTCCTTCCCAGAGTGGTGGGTTAATGGAAGCCACACACTCAGAGGCCATTCTACCTAGTTTTCTCTAGAGTCACA
0.7560809582791822 TTTTGGAAAGTGGCTTAATTCTACCTCTCCTCCAAATTCCTGTCATTGTGCTTCTGGTGTCCCTGACAGGAACCAGAGAAGCCTGTCATTCCAGAATCATGACACTTTCCTGCAACTAATTAAGGTTCTTCCAACTGTTCATCTGTTTTTAGCCCGAATCTTCTTAAAATCTAAAGATT
0.7396968599280066 TTCCTGTAACTTCCTAGTGGCAAAACCAAGGATAAAACCTGTAGTGGCTGCTGTGGTGCACTGCTCAGATGCCTCCTCCACAGCCCTCCTCCCCACCACAGTTTTATGTCTGAGACACTCATTCCATCTGTCGACAGCTGGGAGTGTTAGTTGCTGAGACAAACAGCCAATTTCCTCTCCAGGAATTATCTTCTTTCTCTGGGCACTGTCCTCTGCCAAAGGGAGTTG
0.6413460959073662 CCCTGACCCTTTGCCTCAAGCCTCCTGTTCAGCTTATCAGTAAGCCCTGTAGGTTCTATATCCAAAATATGTCTTAAGTTTATCTAACTCTTGTCATCTCCTCTTGAGTATCACCTCTTATCTGCAATTGCCTCCCTACTGGCCTCCTTCTTTCCATCCTTATCTCCTATAGTCTCTTCTCCACACAGCATCCAAAGCCATCTTTTGAAAGCACAAACATGGTCACTCCCATGTTGAAAAC
0.6201860685303331 GTCTGACCTTTCCCTGGTTAGAGTGTCTCGCCAAGCAAAGATGTCATCACCAGCTCACCACAAGGCCAACGCTGAAGGCCATCTGGACACCTCAGGACAGGGCCGTTCAGCTGCAATCTCTGCAGGGCCTGGGACAGGCTGCCTTGACAAGGAGACAAGGACACTACCCAGTGCCTCCAGCAGCCACATGGCACAGCCCGAGCTTCAGACTTGCGAGGCCTCCCCACATTTCCTGCA
0.9624357768044706 TTGGTGGAAATCAAATTTTTCTTTTCCTTTTTGGTTAGCGGTGGAAAGGCCCAGATAGAAAAAATAATGGGAAAAGGGCAAGAAATTGGCTGGAACTATTTCCTAAGTAGCAGGGAGTGGCAGGAGGTGTGAGCTGACAGACAGCAGAGACTGTCCTTGGATAGCCACCCTCTCTTTCATGCTCTGCTCTTCTACTCTCCCTCTGTCATTTTCTCTTTCTAAGATGTGCTGATCTGTTGAATAG
0.5885862115339016 GGAGCCCCACACAGGCCATGGGAAGAGCATGGGAAGGCTGTCAGAGAGCAAAGGCACAGCCTGCTCTGGCTTTCATCACTTTGCTTGCTGAGAATGTGGAGAGGGAAGGGTGCTAGTGAGGCCTGCCATGAGGCTACTAAAATGGTCCAAGCTCAAGAAGGTGATGGCTTGGCCAGTGTGGTAGTGGTGAGAGGCAGAAGCAGTTAGACTGAGTTATGTTT
0.4940789513223865 TTAAATTCTAGGACATGCCAAGCTGTTTCAACCTCTGTGCCTGAGAACCTGCTGTTTCTTCTTATCTGCACATTTCCCTACTTGTCATATGGCTGGCTCCTTGTCATCACTCAGATCTCACAGTAAGTTCCACCTCTTCAGAAAGGCTGCTGCTTAAAATCCTTTCTCCACCAGTGCTTCCTTCACTTCTGCTGTGATTTTCTATTGCTGAAACTTGTATAGCACTGATTAGAAT
0.7216529285274468 TGTAGAGTCCCAACACAGTTTCTCCTCACCAAGGGATGGAATATCAGACAGTATGTCACTAACAGAGAGGGTGTTAGGGATAGAGGACAGACCTCAGAATCTCCTGTCTCTAATCACTAGGCACCTTTCCAACTGGGCTATAAAAGCCGTAGCACTCTCAGTTGTCTGATGCATTCTGACACAGTAAAGAACGGCCATAAGCAGGACCCTGCCGCACCGTCCTTGGACTGG
0.9297693588342754 TCTTTTCCCTCTGTGACATCTAGATGGTATATTGATTCCCAGTGTATCTGTTACAGAGCAGACTAAAAGGACTGGCATTCATCAGAAACAGCACTTAAAACTTAAAGAGATAAAGAAGTGCTGTCTGATCAACAACAGTTAAATGTCGGTAGTCAATTCCAGGTCAAGATGCATGCTGTATATTAAATGTGTGTGTTAAACAGAAATATCTCACACATAAAAATATACATCCAAATGGTAGGAGATACATGAAGG
0.7198119803306227 GGCGGCTGCTCTGCGGCCTGGAGTGGATTTCGGCCGCCATGTTCGCGCGGCGACTGCTGCGGCCTCCTCGGCAGGCAGCCCATCAGCTGACGCCTGGGCGGGCGGGGGACGCGCCGGTTTCCCTTCGGCTGCTGGGGCCTCTTGGGCGCCGCGCCGCCGTAAGCCCCCGAGTGCTGCCGCCGCACCGCCCGTATTGCC
0.6732419361500078 AGGCCATCAATGTCACCGCGTCCAGTGCTTCCTCCTACCTCTCAGCTGGTCCCGGTGGGAGGTGGACCGGGCTCATGAGGAGGCGGGAAGGAGAAAAGGGCCTTGACTAGTGTTTTCCTGTTTATCTTCACAGCCACCCTTCTGGGCTGTTGGACTCCATTTGATGACTGAATTGTTTTGAAGGCTGGCAGGTCCCTCAGGCATCTGTGTTGGATCTCAGGGCTGGAACTCA
0.897949062717083 TGCAGGAATTCGGCAATCAGAAAGTTGATTTCCACCATTGTGACAGCCACTGTTTTTTAACGTTTCATTCCCATTCTTGAAGCAATGGTGGGAAGCAGCTCCTCTGGAATTTGTCACGTAGCACTTCAGCTCTTCCACGACAACTGGTATGCACAGAAGATTGCAGAATATGCCTTCCTCCCGTGCCAAGGCATCACTCTCCTCCCTTTCTCCTTGTTAGTCATTTGTCGGGTTCTGTAAAACTGCATT
0.5342899181616315 TGACCACATTGTTTAGAATATAGCTTATCTCATTGGAATGTTGAAGCATCAAGCAAAGCCAGAGCCAGACGTGGCTGACGTGGCTCAGCCTCACCTCAGGGGCCAGGGCACAAGCCGCAGCTGCTCCTGGCCCTGTCATTCCTCCCTTCCCCATTAAGTACTTTTGATGCCTTCATCCTTATCTTCCTTTGCT
0.4394727139241842 TGATGATCCTGGCAGCCTTTTGGCAGTGCTTGATGAGAGCCAGCTCATGGCTGAATTATCTGACAAGTGCCTGAAGTGCTGCTGTGCTGTGTCGTTGATTAAAGACAGATCCGTATGCTTCCAATGCCAGATGTGCTGGCGTCAGAGCTGACATTCTGCTGCAGAGACACTTCTAATTTAGGCCTTTACAGCACCTA
0.9639885239821584 AAATCGTCTCTAGAATCGCACGGGGTTCCTCCTCTCTCTCCCTGCAGCTGCAGATAGGAGCCGCGGCCTGGCCCTGGGCTGCCTGGAAACCGTCACAAACAGCTCTGGGAGGAAGGGAATTCAGGGAGAAGGGACAACATTCTGATCTCAGGTTTCAGTCTTGCCTTCCGCCTGCATCTGTCGTCCTCCCTCCCTCCCTCCCTCGCGGG
0.762849381233783 CAGGGGAGGTTAGATAAAAAGGCCTGGAATTCATAAAGGAGGCCTAAACCAGAGATTGTAATGCTTGAGACTTTCTTTGTAGGAGATAAAACTGTCAGTGTGGGTGAGTTGCCTGGGGAAAGAGAACAGACAAGAAGGTGACCTAGGTTTCGTTGTGAAGTACAAGGCAAGAGCTTCTGCTGAGAGTTATCAAGGAGGTGAGAGGGAGAGGGGCTTAG
0.4812836560072475 CTTGGCTGGTGCAGAGCCTGCCTCTCTCCCCAGCATCAGGGATGGTTTCACGGCATGTGGCCTCTCCCTGCTGCCATGCCTCCATCAACTCTCCCTTTCTCATATCAGAAGATCACAAGCATTTAACAGCCTTGCACTTGTCTGACCCGAGCTTGCTGTATCTGCCCAAGAGGGCTGGGAAGATAAGATGAAACAATCCCTGTGAAATACTGATCACTAGTCAGCACTCAAGAGGTACCAGTACATCACCATTCATCACATATTCATTTAG
0.1429185498486633 AACTGAAGCAGTTCTCACATAAGCAGAGTTTGTTCTATTCTACTTAGCATAAGTCCGCGTTAGCAGATCAGCAGGCTGTGATGACAGCTGTCAGCAGTCAGGTCTCACTGAGGCTGCTGTATCCATGGGCCAGGCCACTGATAACGGAAACATCAGGAGAGAAGCCATCCACAGAAATCAACTTTCCTACAAACA
0.7280022300295602 TTCCATTGTGTGAACAAGTCCAGGCTGGGTTCCATGAAGATGACACACCAAGTAGAAAAACAGGCCTCTTAGGGGAGACATTCCATCAGTCTCAGCCATTTCAGATATCAGCGTTAGGCCCCAAGTGTCAGTGACACCCTCCAGAAGCAGCTACACCTCCTTTAGACCCTAACTGACCACAGTGAGCCTGGGCCACTCTACAGGGAGCAAGAAATAGATCCTCTTGAGCCC
1 TGGGGAGGAAATGATTTGGGAGGTAGGAGGAATCTGTAGTCTTATTTTGGTTCTGTTAAAGTTGAGATATCTTATCATCCAATGGAAGATGTTGAATAGTCAGGTAATCTGGAGCTCAGGATAGGGATCAAGATAAGAGTCAGGGCTAGAGATAAGATTTGGGAGTTACCTGATAACATACATACACACATTCATGTATATGTGTGTGTGTGTGTGTGTGTGTGTGTATCT
0.7268145009568197 TAACAGAAGCATCCATTCAGAATAAAATCACAACAACCAGGGCCTCAGGATTCTATCCCTGCCTTCCCCTCCTACCTCGTCTCTCACCTGTCATCACTCACAGAACACAGCGCACAAAGCTGCCTCGGAGTTCTCATCCTCGCTTACTGCTCCCTCTGCCTGAAATGCCCTAGCTCCCAATTTTACTTGGATGATTCTCTTCCTTCAGTCTTGGCT
0.5428113300730875 GTTGTCATGTAAGGACTAATAGTTAAAGCCTGGTATCATGTTCTATCTCGGCATCTGGTGAAACTGGAAGGGCTATAAAGGCATAACTGCATATTTATCTCCCTCCTCTGCTCCTGAAGATAAGGTCCCCACTAAACAGCTCTGCTTATCAAGGAGACCAGATACAGTTCCTGCTTATCTCTCAACAGTGGGTTTCAGTTCCCTGG
1 TCCCTTCCCTCTGTGCTTATGTTACTGAAGGAAATCACATTTGGAACTCTGAGGACTGAAGAAGGGCAAAGCTGCCCCTGGGGTTTTGTGATCTGCAAGCTGAGTGGCGACGGGTCCCTATTTCCAGGGTGGGTGTTCCGCGAGGCAAACCAGACCCCGACGCAGGATATCTACCCCCATTCAAGGAATATGTTGAGCCTGTGATACAGGAGCTGGAGAGAAG
0.4073253018945167 TGCCCCACACCCACCGCCAATCTGCCCCTTAACCCAATGGTATCAGAGCATCTTAAAAGCACAACCACTAGACTCTGATAGCTGCTGTGTCAGATAAGAAGCAGGCCCCGTGGTGACAGACCACACACGGACGCAGCTGGCTCCTGGCTGCCTCACAGTCCGCCTCTCTCCTCACAGTTCAGCACTTTATTCGGAAGA
0.5240590222104629 TCCGCGAGCCCCTTAGGAGTGAGGGGTCAGCAGAGCAGGGCTGTCCCAGCCAGCATCCCAAGGACGTGGGAGGAGTGACAACCCAGGGGCACTTGTCGGCCTGGCGTCTCTGACAAACTCCAGTGATGGGTGGGTGTGGCACACGGCAGCTGAGGACAGACGAGCACAGCAAGAAGCCTGCACAGCCCCGGAGTGGGAGGGCCTGGCGTGTGGCCTGCAGGCTCTGG
1 GAGAATGCTTCTGTGTAGCTTCCATGTGAAGGTATCTCCTTTTCCACCATAGGCCTCGTATCGCTCCAAATATCCACTTGGGTGATAGTGCAAAAACACTGCTTCAGAACTGCTCTCCCAAAGGAAGGTTCAACTCTGTGAGTTGAATGCAGACATCACAAAAAAGTT
0.8439824726483608 AGCTTGGGGTGCGGGGGCCGACTCTGCCCGGGCTGGGTGGATAGTTGTTATCGGGAGCTCCCAGGCCCGCGCGGCTCACGTGGGCCGCAGCTCGCGGCGCCTCCCGCGTCCCAGGGCCGCGAGGCGCTCCGGGAGATAAGCCAGGCCCCGTGCGAGTCCAGCGCGGACCCGGCCGGCCCCCAGCCCGCCCCTCACCG
1 CAAAAAAGAAAAAGAGTCAAAGGGAAGAAAATTTGAGGCAAAGAAAACATCCTTGAAGTGGGAAAGAGCCTGGCATGTTATAGGAACTAAGAGAAAAACAGTATGGCCGGAGTGTGTTGACAAGGTGCCAGGTGGCAAGTGATGAGGAGCAGAAAAGACAGTGGAAACTGGGGCTAGATCATGCGGGTTCTCATCGGCTATGGTAAGGAGTTTGGATTTGACTCTGATGGGAAGTCACTATAAAGTT
0.8609357653858525 ATTTTTTTTTCAAGAGAAAAAAAAAACAGAGCCAGCATTGTGTCAGCTTCCTTTTAGGACTCCAGAGTGACACGTGTCCCCTGTCACCCTGGGCTGGGGAGGGGGAGTAACTGCCTGCTGAACCGAGTTGCAGATGTTCCAATTATGGAAGCTGCTAATGACAAAAACCAGACACCAAACGCAAATTGGGATCTTGTGTGGACCAGATTATAAATCAACATAGCACATAGTGACTTCTT
1 CCAGTAAAGGGAAGATTGATTTTACCCTACTAGTAAGTGAAAGCAGGATTGCAAGGAATTTAAGTATTATCTACCAGATGTTGATTCCACTAAGCCAGCTTTCTAGCTCGTGTTAGGGGCTTTTGATCACAGTTTGCTTGAGGTAAACAAATGGCAAGCTAAGTCGGTGGCTCTAATCCCAGCAAATGAGCACTGCTGGTTCAAGGAAG
0.7696010684278159 CATTCCTTCTTTATCTTGCCCTTCCTGCTCTTATCTTCCACAGAGCTTTATCTTACCAGGACCTTAATACAAACAAAAGAAGCCCAATGCTGAAAGTCAATGGAGATAAAGTAAAATAGAAGATAACCAATTAATCAGTGACAACCTACTCCTCCAATCTGGGACCACCTAGCTGTGAACAAAAGAAAAAAGATTTGTTTA
0.9446762686054465 GTAAGGCCCCTTTAAAGAGGGCGGTGAAGTCAGCCACCTCTTGATAGAACAAAGGCATACCAGGCCCTGCCAGCCCAAAGCCGGGTGGCTGATGGCTTTTGTCACCAAGTGATAGCCTATCTCCTCGTGTCAGGGCCCCCAGGCGTCAGTGAGAGCCACCAAGTGGGGAGGGTGGCTTCTCTTGGGAGTCAGATTCAGGTGGACCAGGCCTGTGCCCAGCAAAGATGGGTGAGCCACATAACGGGGCACCCCCTGTGTACACAGCACCACTGGGACAAG
0.6968915821098989 TTCACAGGAAACATATTAGTATAAATCAAGAAACAGGGCAATAAAGGGAATAGCCAGTGATCCAGCATAAGTGAGATAAGAAAATCCCAAGGATGACTAGGAAAAGAGAGACTAGGATAAGAGGCGTGTACAGACACAAAACAGCAAGCAATCCAGATGCAGGAATGTGATCATGAGACTTATCTGTTTAGGGCTGTCATTGATAAAATCCTCACTG
0.4945477708615728 CTTATAAAAAAGAGCAACTCTCCCTTTCCCTAATTACACCTGTCAGTTGACTGAGTCTCTGATGTGTTCCAGGATCTATGCCTGACACTGGGATAGGATAATAAAGATGGTCTCTACCCGGAAGAGATGAGAAAGAAGAAGATAAGTAAAAGTTAAGGCTGCTCTGATAACTACAAGTTAAGAAAACAGATAAGTCTGT
0.870529854083009 GTCAGCTCCCTGGAGTCCACGCATCTGGATATCGTCCACATGCCTGGAACTTTGTCACTGTTCCGGTGGCTGGGTTGACACACCGTGATTAAAGGGCTCTGGTCAATTTCTGTGCCACGCAGCCCCTATGCTAATGGTCAGATCTAATGTTCTGACCATTAGGTCAGTGTATCTTTTCCCTCCTGGGCAGTTAGGTTAGTGG
0.3762411319444515 GTCAGGAGTGAGGGGGAGAGCAGCAAATCAGGGGAGTGTAGTGTCATGGAAACCAAGAGAAGAAAGAGCTTCAGGGAGGTGGTGAGGACATCTGTGTTGAATGCTGAAGTGAAGACAAGATAAGAACAGAGGTGTAAACATTAGACTCAGCAATGTGGAGGTGATTAGAGGCACTGACCGGAACAGTATCTTGGTATAGTGGGGACAAAATCCATCTAGAGTAAG
1 CAGATGATTTTGTTATAATGTTCTGCAGACACAGGCAAAGGAGGTATGTAGAATGTCTGTAAGGAATCCAGGATTCTCAGCTAGCTGATAACGACTTCATGCTGCTGCTTTATTTCATTTGACACCTTCCATTCTCGTATCAGCTACTGCGTGCAAACCAAACCTCCCAAGAATGGTGACCCTGTCCTCTTCAGTTCACCTAACACCCTGGCCAAGAAGTAAATTAAAATGCAATGTATTTCAGCTCCTATAAATGTTACCTACTTACTCTATTTAACTCAACTCTC
1 TCCCAGGTTATCTTGTTTACCCTCCCAGCCTTTAGACTGGTGCCAACTAACATATTCCAGAGTGCTGTCAACTCTACGTTCACACAGCTGTACTTTCATGATTTTTTATTCCAGTGCAAAGAATCAGTGTTAGGAAGTTCCTTGAATCTATCTCAAATGTTGTTTCACAC
0.2738557323618434 GCTGTACTCCGCCTAGCTCCTGGCTGTCAGCACCCATGGCTGGCAGGATTGCCACAAACTCTGGCGCTCTAAAGGCTGATAAAGCCCCACAGCCTGCACGTCTGGAGCCTGGGCCTCCAGCCCTGATAAGCTGGACCTGTCAGCACCATGGCCACACCTGCTGTAGGCAGTGAGCGCCACCCGCCTCCCCTGGCCACTCCCACTCACGGCTTCCTGTTCCCTGTGCACAGCCAAGCCCTGGCCACCATG
0.2789864934022287 TCTCCAAGCTTTGACTTTCTTATCTGTAAGATGCAAGATAAGAGTACCTGCCTCATAGCGTGTGTGGATGATATGAGGTGATTATACAGCACTCAGCACAGTGCCTGTGTCAATAAATGTCAACTCTTATCAGTGTTCCATTTTTCCCACCTTTTGATTAGATAGATTCCTGTTTCGGATTAGATCTCTCCCTGCTGATAGATGT
0.4485146819745873 CTTCTAATTAAGTAACTTATGCCTGAGACTGGCAACAGCTTATCTGTTCCCCGCACCTCCCTTCCATTAACATATGCTCGCCTCGCCTGCCTTTTCCTGCCTGTCAGGGTGGCAGCACCTTGTGTTGTCAGGAGGCCAAAAGCAGCTCCTTGGTAGCAAGTTGAGAAGATCCATATGTCAGTGGAAACATAGCAGAGACAGACAGGGAAAAGACCAGAAAGA
0.5611242255586413 CACCAAGGCCAGCAATCAATAAGTTGATTCTCCATCTGCCTTTGACAGAGGAATCACCAGGCTGACACCAGCTAGTCTGGGATCAGCTGTTTCCCTGCCTTTGATCTCCTCAGTTAGGGCTGTCCAAACTCCCATGGGCGTCTGTTTCAGCTTAGATACAGGCCACATCATGCTGATAACTCCTCCAAG
0.835407779011389 AGGTGCAAAATCAAAAGTTTCATAACAGAGTGGTTCTGTAAATACCAAAGACTGTAAAACAGCCCTGCTAGATTACCACTTGTCATCAGGTAAGCAGTGCCAGAGGATGACATGCCATCCACAGGCCAGGCCACTGCTGGCAACCCAGAGCAAGCAGAGGGAGGGGTGCTGGTTATGCACTTGCTGGCCATTCGAGAAC
0.5541466117505742 TGAGGTTCTTGATGTCCTGGGTGGTTGACACTCAGTACTTTTGCTTATTAGTTTCTAAGCAGGCTATTCCTTTGGATGATGAAGCCCAAGCAGTTGGAGACATCTTCCCTGGAGATTGTCTGCCACACACCTGTCTCTGTCACAGCTGGCAGTGGAATGCGCCTTTCTCTTATCCAGAGGACTCATTCCCTCTGGATCTCTCACTGAGTTCCTGCTTCTGATCTGAGAGACTCTTGTAATTCACAGTCCATTTACACAGCTG
0.6938327343804866 TAATGCAGAGTACAGGAGTGGAGTGCGGTGGACTGGAGTGGAGTGGAGTTGAGTGGAGTGGATTGGATTGAAATAGAGCGGAGCAGAGTGGAATGGAATTGAATCACATGGTATTGAATCAAATCGAATGGAATTAAATCGAATCAAAAAATGGAATCAAAAGCAAACGAATGGAGTCAAACCTCATTGGTTAAACTGACATCGAAAAATATCAAATGAAATGTGGTGAAGTGGAGTGGAGTGTAATGAAATGGGGTGGAATGAAATTGAATGGAGTGGAGTGTATTGGAGTCTACTGGAGTGGAATGGAACGGAATGC
0.4502133832611132 GTACAAAGAGTGATCCTCAGAGCCCTCCTTATCTCCAGCCTGCACAGTTTCCCTGTCATGGAACACTCACTAAACAGGTGTCTGTGCTTCCGGAAAGGCTTCCAGAGGCAGGTCTGAGGTGTCTGGGACAAGGCCCCTGCTGACAAGGAGCTTGGGGTCACGGGCAAGGAAGACTGACAGCCGTGGGTACAGGAAATCGCCACAAGCAGCACTCAC
0.4089375018226708 CAGCCTCTTTGAACGCTTTCTTGTCCCTCTGCCTGCACTTTGGTTCCCATCACGTCAGCCTTGAAGGTGGAGTGGCCTGTCAGCACCACAGGCTTGTGACTGGAGCCACAGGATCTCCTTTATCTCCTCAGCTTCAGGCTCTGTTGTGTGAATCCAGGCTAAGAGCAGTTCAATGACTCAGGGTTAAGAGGACACACCGCCATCTCTTGACTCAGCCAGGAGATCCTTCCTCTTTGGCAATAAAAGGA
0.1401466244050061 CATTAAATCAGTTATGGTTCCTTTGGTCGCTCGCTCCTCTCCTACTTGGATAACTGTGGTAATTCTAGAGCTAATACATGCCGACGGGCGCTGACCCCCTTCGCGGGGGGGATGCGTGCATTTATCAGATCAAAACCAACCCGGTCAGCCCCTCTCCGGCCCCGGCCGGGGGGCGGGCGCCGGCGGCTTTGGTGACTCTAGATAACCTCGGGCCGATCGCACGCCCCCCGTGGCGGCGACGACCCATTCGAACGTCTGCCCTATCAACTTTCGATGGTAGTCGCCGTGCCTACCATGGTGACCACGGGTGACGGGGAATCAGGGTTCGATTCCGGAGAGGGAGCCTGAGAAACGGCTACCACATCCAAGGAAGGCAGCAGGCGCGCAAATTACCCACTCCCGACCCGGGGAGGTAGTGACGAAAAATAACAATAC
0.8260474368070427 CAGACCTGGCCCCGGCCCCTGGAGGGGCCCACACCCCAGGCAGAGCGAGTCTCTTCCTCTGGCCTCCCTGGCCTTTGCTCCTTCCATGCTGCCCTGATACCTAGGCCTGTTTCTCGTCAGCAGCAGCTCAGGCAGGGCAGCTTGCTCTAGAGGGCAGGCAGGCTTTGTTTACCTCTCCCCTGTGCTGACCTGTGCGAGATGTGGCCAGGAC
0.9386964192237128 TTGAAGCATTTTATTAGCAAAAATAAAAGGGGCAAACATTATCAAGCATTCCAAGCTTATCAGCTTTCCGTATAGGGCAAATCACTGGGAAGAACAGTAAATGTCATCACTCTGCAGGTGGCCAGGAATCGGAGTACTCCAGCCAGCCACAGCCACTGGAGTTCCAAGCCTTCCCAAAATAGCTATG
0.6488698420822075 CTCAACAGAGGACTCAAGGACCATAAAATGAGCAAGATTTCATCACCTAGACCCTGCCGTCTTGACAGACCCTGTCTTGCTGTCACTTGGGATCAGCACCCAGCATCTGCCGCTGAAGGCTCTGCCCAAATCAAAGACTCTTCCTTGCAAGATGTTAATGACTATCCGGATTAGACCAGGACTGATTCATTAACCC
0.575195063962332 TGTACAAAAGCATCTGATGTAAACACTTGTGGGGTGGGTCAGAGATTCTCCAGGAATCTCTTTTTATCTGCCTAGGCATTTGGCTGTCTCATTCTCTGCTTGAAAGATGTACATCTAACTGCCATTAGAATAAGGATAAGGATAAGGATAAGGATAAGGATAAGGATAAGGATAAGGATAAGGATAAGGATAAGGATAAGGATAAGGATAAAGACTGATCTTAACAGCTCCCTGCCAACAG
0.8144307610536499 CTGAATCCCTTCAGATAACTGTGTACGCACAGCCAGGCCACTTTCTCACTGGCATGGAGGCCAGGGCTGTCAGGCCCACTCCTCTGGTTAATGTCAGTAGCACTATGTATAAAAGGTGACTCCAGTGTGTACAAATGTTGATCTTTAGAGAAGTCATGCCTAGACTCACACACACATCCACTCTTTTGCCCAGTAGGTCAACAGCAGGAACAG
0.7227328017174489 GACGCGGGGAGGGGAGGGGAAGGGACGCAGCCTCTCCGCCGAGGCCTCCTTCCTCCCCTAGTGGGGGGGAGGGGCTGTGCGGGGGCAGGGGCGGGCGATGCGGGGGCCCAAGGTGGCCCTTGGACTAGGCGCCGGAGCTGTCAACGGGGCGAGGTGTGGCGGGCGGCCGGGGGAGGGGACGCGGTGCCGAGTGGCCTCCTGCACAGCCGCTCAGCATTCCCCGGCTGCAGGCGCAAATAAAGCGGAGGGGGCGCGCGGAG
0.9681279331489252 ACAGAGTGGAACCTTCCTTTGGATAGAGCAGTTTGAAACGCAGTGGTTGTAGTATTTCCAAGCGGATATTAGAGCGCCTTGAGGCCTATGGTAGAAAAGGAAATATCTTCCCATAAAACCTAGACGGAAGCAATCTCAGAAACTACTGTGTGATGGCTGCATTCCCCACA
1 TTCCCGCACTTGTTGATGGGGTTGTTTGGTTTTTCTTGTAACTCTGTTTGAGTTCTTAGTAGATTCTGGATATTAGCCCTTTGTCAGATGAGTAGATTGCAAAAATGTTCTCCCTTTCTGTAGCATGCCTGTTCACTCTGATGGGAGTTTCTTTAGCTGTGCAGAAACT
0.8574520262781201 GAAACCATTTCTGGACGGCTAAAGACCTCACCGAGGAGATTAGATCATTAACATCAGAGAGAGAAGGGCTGGAGGGACTCCTCAGCAAGCTGTTGGTGTTGAGTTCCAGGAATGTCAAAAAGCTGGGAAGTGTTAAAGAAGATTACAACAGACTGAGAAGAGAAGTGGAGCACCAGGAGACTGCCTATGGTAGGTAGTGCACAACTGTTCCCC
0.8507961965131449 AGTCCCTGTTGAAGGGAAGCAGTCAGTCCACAGGATCTGACAGTGAAAGAACCAAGGAGGTAAACACATCAGCCACACCTACTCCTGCATTCCAAGTCTCAGAGGTAATTGAACCCAATGGGAGCCCAACTGATGCAGTCCATAAATGTTTTCAGCCTCCCAGGTCAGAGAACA
0.6611838430697252 TTTCAGCGCTAGGTGGCAGAGGAGAGTCGCCTATGCGTCCAGGCTGTCCTGGACAGCTGTGGTTGACGCTAACGCCTGGCTGCTCTCACTTTCACCTTCTCTCTGGTGTCAAAGAGAAGCCTTGAGGCCGTCCCGACGGCCTCTTCCTTACAGGGGAAACTGCTGTGAGCTGAACACATACCGCTCTTTCAAACC
0.9508975686543303 AACATAGGTTCAGTATAAGCCCTAGTTTTCACTTGACCTCTTGTTGCTATATTTTTCTTCCTAAAGATAAATCAGCTACTAAGCCCAGACAGAAACCATGTCTGGGAAACATCAGGAACAGCTCTGATCCACACTTTGAAGTAGATAAGGTGGCTTTCAATAGTCCTCATTTCCCTTTTTGTCCTAGTCTTCCTAT
0.7015863907294673 CACAGTAGGTGTTTGATAAATATTTGTTTCTATTGAATATATGTCTTGGACTGCGTCTCAAGGAAGACAACAGGAACTAGATAGAACTGTGAGGGACAGTGACATATTTGGGGACTGGTGAGTGTTATGTGGCTGGCACAGGGTGTGAACGGGAAGCAGCAGGAGACAATGAAGCTGATAAGGAGAAATGGAATCAGCTGAGAAAGGGCTTAAGTC
0.5332004171448916 ATATGCTAAAAACAGCAGCTGGAAGTGCTCATCTGTCCAGGCTGAAGGCTGGCTTTCAAGATATGCTTTCAAGCAGTGCCACGAGGAGCAGCCTGGGCTGTCATTGGAGTTGCTGTCAGCGCGAAGCCTTGGTGTTGCAGGGCCTCTGCCATATGGAGCATCAAACCTTGGATCTGAATGATGATACAACCTGAC
0.9787880821264757 CTTTCAAAGAGCGGGGAGCAGATGTTGGCAGACAAATCACAGTCCCTGCCACATTACTCTATCTAAAGTCCCCTCACACACCTCCCAGAGACTCCTGGTGGCCACCCAATCAGGTGAAGCGTACTCAGAAGTGTCCAGGAGGCTTTCCAGATCTGAACTTCACAGCATTCTTCCCTTCAGCATGTACTTGAAAAATTCTGCTCCCAGAATTTCCTGAGTATT
0.6162220812280808 AGGCGTGTCAGACAGGCTTATCTGTGTGGTGCCTGAGTCCTCACTCTGCTTTCTTTTCCCTCTCTCGCAGAGAGAGATAGAGGAGCGAACCAGAGGAGGTGGGAGGTGAAAATGCCCAGATCCCTATATGGTCCACAAAGCAGGGGACCCAGCATTGAAAGGCTTAGAACAAAGAGAGCGAGTGGAGGGAAGAGGATAAGGGCACT
0.7952897644705612 AGCAGTGAGTTCACTCCAGGCAATGCTTTGACACTATAAATAGACGTGTATTTGACATTCACACACGTGTCTGTTGAGCTAATACAGACAATCATTTGATGAACCTGCTAGTTAGGAAGTAGCTGTGATGTGAGAAGAGACAGTGCTGGCTGTAGATATACACCAAATTTCCTCACTTGGCTGTTGATACAAGGAA
0.263978223779589 CTAAAACAACAGAAGTGGCTCCAGCTGCCCAACAGCTGGAGGGGGTGTCTGCTTTCCCTCAGCAGCGTGAAAAGCCCTTTAATCGGGCATGCTGCTGTCAGGCTCTGTCGCAGAGGTGTGTGGAGGAAGAGCAGATGCTGCTGTTGCTGGCAGGCCTCTCTTTCCCTTTGACCTCCCTTATCTTCCCTCTTCCATCTTCACGGAGCCCCCCTCTGA
0.5295531656590904 GCGTGATTGCCGACAAGAATAGCAACTGTGTTGGGCCTTGGTCCTGAGGGAACACATGACAATGAGAAGTGGCTCTTTTCCCCTGGCTGGAGAAGTGACAAATAACAGGATCCAGGAGCAGATGTTAAGTGCTGATGATGAGGTAGAGCAGATAGTCATTTGTGGCAGGAATTGATGGCATGTGGTCCCTGAGAGCCAGGGCCATCTGGATGTCTTTCTGTTTG
0.9252488236669387 ACAGGAGTTCCAGGCAAGGGCAAAGCCCATTAAAGGAATAGAAAGGAGAGCGAATAGGAGGCGGCTCTTATTATCACCCGCATCTCACACATGAGGAATGTGCTGCTGAGAGAAGCCAGGTAACCTGTCTAAGACTTTACACAGCTTAGCCAGTAGGGAAGGGGCTAGAATTAATTCAACCCTGGG
0.2855020672742715 TAATGTGAAAATGATAAGCAAAGCTGAAGGACTGCTGTGACAACAGCAGATAAGATAAACTGAATGAGATAAACTGTCCAAACATACCTAATACAGTGCCTGGCAATAGTAGCTGCTGAAGCTGGCTTAGTTTAGTCTCCTATCACCCTTATCTCCTGCTCAGCCAGGCCAGTTTCTTTTACCCCTAATTC
0.6239836662638498 AAGAGAGCTGTTTTGTGGCCTTGGAGTCAGCTGCCACTCTCTTACCCACACAGGCCAGGGGTTGAGTATTCCATATGGTGTCTGCTGAGCTGATAGAAAGTCATGAGACCCGAGATCCTCTTTCAACAGCCTGTTGTGACAGTGATGGAATTGCATGCCAACCAGAAATGCCTATGTTCTGACAGCGTTCTCTTTCAACATATGTCCCTGTGCATCCAGTTGGAAGGCAGATGCC
1 TTCAATAACACTAATTGCCCTTTTTTTCCTTGCTGCTCCTAGCCATATTTCTTGGAAAACAACAGCTGTGTTTATTCAAATAGCAGCATACTGATGACTTGATGATAGGGTAATCTGCTGGAATTCCAAGTGTGACAGTCCCAGAGATAACTTCTCGGCACACCAGAAAAGTATCCTTTGCATAGTACAAAGCTTTGGAAAGGAATCCCCACTTTGTTAGCAC
0.6831951764311393 TTTCCTATTCCTGAATCCTGTAATCTTAAGAGTAACTTCCTCGATCGTTAGAAACAATCAGGCTTTCACTGTCTTTATCCTCTGGGTGACTCAGCCTTCAAAGTAGTGCAGATGCAATGTTATCTGAGAACTGATTAGAACTTTAAGGGAGGAAAGAGATAGGAAACTGTTATCTTCTGGCCTCCAGCCATATTCTGGTTCCTGTTACTAAT
0.6111549336216521 CAAAGGCATTCCTGAGTGAATAGGTTCAGGTCAGAGCAGGAGAGGTTATCACCCAGGCTGTGCCTTGAAGCTTTGCTGAGTACAAGAAAGGTAAGGAAGAGATAAGCAAGAGGTGAGAATGACGGCAGGGCTGGCAAGTGAGATCACGAGCTTTTCCTCAAACATCTGGCTAAGAATAGAAGCTTTGGGAAATTCCACAA
0.5685182479703116 ATGATGAGCTAATGAGAGCATGTCAGTTCTAAAGAGGAAAGCCATGCTAAGCAGGCAGGGAGCTCTTTCTTCTGGAGGAAGCAATGAGCAGATGGTTAAGCTCATTGTTGCGTGATAACTGCTGACATTTGAAGGGCCTCCGAAGGCTTCCTTCTGCAGGCTGCAGAGGCACGTGTAACGGCCTGAGAGGGAGAGGGTTGGTGTTTGTG
0.502449785348689 CCCCAGAGGCCCTGAGAGCTTCTCTGGAAGGTCTGGACAGAGCCCTCCTGGGGAGAAGGAGGCCTGGCCCAGCCCTGACTTTCTGAGTGATAAGGCCAGCTGTCTTCTTAGCTGTCAGGGAGGTGGGACCAAGTGATGCTGTCGTCACTTCTGGCCCTGATTTCCTTTAATCCCCAATTCTGGCTATAATTGTTTATA
0.2842384450487456 GGAGGTCTCTCAGATTAGATTGACATCTTGTTTTCTGGTCTTCACCAGTTCTCCCAAGGCTGTCCATCCTCCATCCCCCTCCTGTTCTGTTATCAGCCTCGGGTTGGGGGCTGATATTGGAAGGGCTCTGATAACACTCCTTAAGTGGCAGCAAGCTGTAAACATTCCCACTGATGCCATTTGATTAGCTGGCTGGGAAAATGCCTGAAGAAGGTCCTGGCTTGTCACTGAGAGACAGGCAAAGGTGTCACATGGAGCTGTTGAAAAGCAAGCAGGTTGGGGCCACCACTGTGGCATTATATAAAGCACTTGGCTCCAAGACAGACCTCTAT
0.4536701324098165 ATTTGGCGGCATTATGCTGAGAGGGCGGGCCTGCTCCTGACAGGAGGGGGTTAAATGAGATTGCAAGCTTTGGAGGCTGTCAGCAGCCACTGCTGCCCGGGGATGTTAAATTGCGATTTAATGGTCAGCTTTATCTGGATGGTATCAGTGCAAATCTGCTGTTTTCAGCAACTTAATTGGCACAGTGTTTGCAGGAGTTTT
0.5707145050769638 GGAGTTGCTTTGGCCTCCGTTTTAATCCCTAAAGCTGCCTGGAGGCTGGAGCTCTGATAGCTACCTGTCATCACTCCCCAGCCAGTCCGCGGACACCGCAGCCAGGAACTGTCAGAGGTGACAAGGGAATCCCGTCATAATGCCAAGGACCAAGGAGCAGTGGCCAGGTTCCTGGGATTAAGCAAGGCAATTATGGCTG
0.2138984910235553 CACTCAAGTTATCTTCCAACATTCCACTTATCAGGCAGGCTTCTCTTATCAGTTAACCTTTTAGTTATCAGCCTACACTTTAGTTGTCAGCTAACACCTAAGTTATCAGCTAACACTTTACTTATCAGCTAACACCTCAGCTAGCATCTTTGTCAGAAAATTTCAGGACAAGCTGAAAAATGGAGAACTGAGCCTCAGAAAGCAGGA
0.8463250480821344 CAGTCCTGGGGCTTTGCACCCTGGCAGATTGGGACCAGAGGCTTCACTGCCACATGGCACTGTCTGGGTGTCTCTTGACTCTTCCCAGACCCCCTCTCAGGCTCACTGGGGGCCTGGAAGAGCTCACTGTCACAGTCCGCGTGGCATGCATGCCCTGCAGAGCTAGGAATGCATGGCTCATGGCCTGGTGCCAGTGCCTCTTGTCCCACT
0.8470445201831843 ATTCCTTTCCTTCCTTCCTCTTGCTGTCTTCTCTAGACTCATACCTGTCTTTGCCTGTTTTAACTCAGAGTTTGCTTGTTGCCTCACATTGGGTGTGAGAAGCATGTAACATTTCATCCACACTTCAAGGCAGCTGTTGTCACTCTACTCTCTCCTTCTGTTCGCAGGTCAAATGCATTCTTTCCCCAGTCCTTCCGTCCCCCCAGGCCGTGCCACAGAT
0.9618968676693355 CAGAAGCTCACGCCAGTGCACTGGGGCTGCTAAAAACACCCCGAGGGCCCACCCCTCCCAGGGCGATGCCAGACCAGAGGATGGAGCCCTGGGTCTCTTCACTTTGCGCCACATTATCACAGAAAGGTGGATTAGAAGTTATCTCCGCTCTGCTTTCTCTCAGAGCTCCTTGGCAACACAGCCACCTCGATATAAATATACACCAGCAACGTGCGCAAC
1 ATACAAGATACCGTTCTATTAACTCAATATAGTGTTGCTAAGTTCGTACTTGTGCTTGGTTTATTTTATTTTATAAATAGGTATCACTCGCATGGTTCCAAATGCGGTAGGCACAGAGAGAGTATATGATGGAATTACATCCTCCTTCCCTGCACTCAGCAACCGAGATCTTCCCGCTACGGGCACTCAAAGGTTTCATTGTCTGAAATATCAGCCTAAACGTAGTTTATGTTTAGGAAGCAACAACCGCAAATCGTCCCACATCCAAACGGAGTGGATTTAGGTTTCACTTTTTCAAGGAAAAACCATCAAAGAATTTTTCCACATACTAAAAAACCATCCCACGTTTTTTGTGTCTCTATCTCCTTCAGTCCTGCTCAGATCTTAGTTATTTCTTGCCTTCTGCTAGCTTTTGAATGTGTTTGCCCTTGCTTCTCTCATTCTTTTAATGGTGATGTTAGGGTATGCATTTTTGATCTTT
0.340104574198179 ATGGAATCGAATGGAAAGGAATCGAATGGAAGGGAATGAAATTGAATCAACACGAATGGAAGGGAATAGAATAGACTGTAATGGAATGGACTCGAATAGAATGGACACGAATGCTCAAATTGAATGGACTCGAATGGAATGGAAACGAAAGGAATGTCACCGAATGGAATTGAATCGATTGGAATGAAATCGCATAGAATGGAGTGGAATCAAATGGAATTGA
0.9361010278161673 ACTGCAGAACCAGCTTTTTACTGACCACCTGGGTATCTGTGGCTTTCAGCGGAAGCCGACCAAGAGATGCAGAGAACGTCCGCCAGCTCTCTGGGAGAAGCGAGCAGGCGGCTGGTGACACTTTCCAGGGCAGAAATAATGCACCTGTCCCTTAGATAACCTTTTGCACCCATCGAGTTTGCCGTGCTCACGATAAA
0.1962363635928946 ACATCAGGCGACTGTCTGCTCAGTGAAAGCAAATGACAGCACAGAGCTATCACTGTCTAGCTTCCCTGCTGTGGCTGTGACATTGATGATAATCCCTTAGCGGGGAGACGGAACCCCATTCATCTCCTCTCTGAAGCATGGCTCTCCCGATGGAAGGGAAGTGTCTGGTGATGGGAAGAAGACAGTTTGGAGGGAGGCAAAAAAGGAGAGGTCTCTGCTGAATGCTGCAGTGGAAGTGGCACCC
0.6927791893499686 CCTTGGTGCCCTCCCTTGCAGAGCCCTTCCCGTTAACGAGCGCTCCTGCAATCACAGCGTCTCATTTGCATCTGTTTTTCATCAGAGGCAGAAGTGTCAGCCCTTTTCCACTGGGGCCAGCAGGTCACTTTGCCTGGGAACAGAGCCGTCAGGGACACCCAGCAATCTTTCCTCCTAATTACAGTGTCTGCGCT
0.6619048808406676 AATGACACTCTGTGTTTCTGGAGCTGACCTTGTTGGCAGGCTGTGGGCAAATAAAAGGATGCAGTAAAACAAAACAGGAGGGCTGTGTTTCCTCAACTGACAGGCATCACTGCCTCCTTGTCATGCATCCTCAGGCTCTGGGGAGGCCTTTCCAGGCTTACCACATGGACAGTGAGCAATCCAAAGGTGTTCTTTTACGAAAGCAAAGACCATGAACGTGG
0.2798396128983988 AGTGGAGTGAAGTCCAGTTGAGTGGAATGGAATGGAGTGGAGCAGAGTGGAATTCAAAAGAATGAAGTGGATTGGTATGGAATGGAATGGCGTGGAATGGCGTGGAATAGAATGGAATGGAATCGCATGGAATGATATGAAATCAAATCGAATTGAACGGAAAATTATGAATCCAATGGAATCGAAAGGATTCTAAAGGAATGGATTCGAAAGGCATTGAATGGAATGGAAAGGAATGCAGTGAAGTGGAGTGGAGTGGAGTGGAATGTTTTAGAGT
0.7530793647561009 GAATCAAATGGTATCGAAGTGAATCGAATCTAATGAAATTGATCGGAAAAAATGGAATGGAGTAGAATCGAATAAGATGGATTCAAAGGCAACAAATAGAATTGAATGGAATGCGGTGAGGTGGAGGGCATTGGAATGGAGTTGAATGGAATGGGGTATAATTGAATTGAATGGAGTGGAGTGGATTGTAGTGGACTGGAGTGGAATGGAACGGAATGGGCA
0.6081197460549429 ATTTGAAGCATTTTCTCCACCAGGCCTAAGGCTGAAGGAATGTAGTTTGCTGCCCTTCAGTCTATGACAAGGAGGTCTGTTTCCTCCAACGCCTGCCTTTTAGACAGAGTGTTGATTCACAGGGAACAGAGGCAGACCTGGGGCTGACACTGAATGAATGCTACTCACAGCAGTAAGGGGAAAAGTGGGAAAGTCTTGTTTATGCTGTG
0.2498058711275273 TAAAACCTGTTTGCATAAGCTTTCTTCCCTTCTCAGCATTTGCTCAGATACCCTGATGGGCCTGGAAGAGTTGAAATCTTTAAGTGATGACAGCTCTGTCCTGTTAGGTGACAGCTCTCAGGATCTGACAGACAATCCAATTGGTGTAACAGTGATCAGACTCTTAAGAAGCTAAAATCACCTTCAAATCACAATGAAATATAATGG
0.6239261225722991 CACTAAGGAGGCCCTCACTCTAGGGGATCTAAGAAAACACAGGACCTGTCAGTGAGCGCAGACCTATCTCTGGCCATACTCTCAGCCACCCTAAAAGTAAAGCCTTGTTGTTAGCCTACTTTCCAGATAAAAGAGCAAAGCCTCCAGACCCCAGGCAGTGAGGAGCAGAGCCAGCCTGAGCAAGGCCAGCCCTACCAGACA
1 CTAGAAGACAGATGCTTGTACATTAGTGGAGATTGCTGCCTTAAGCTTGAATGCTACAAATGAGACTGACTCATGGGTGCAGTGTTGAGAATTCAAATACCAGGCGTGTTGACATCAGTGACTTTGAAATGTTGACAGCTCAGGGTAAACATTTTGAATAAAGCAAAGTACTGTCTTTCCTTAAGTTACATGATAGTTGCATTCCTAGAAAATTCAGTGTA
0.9713708135887031 TTCTGTGCAGTGACTGGACTCAGTGAATGGTTCTTCTCATGGTGTCACTTGGGGTCTCTTGTGGCTGGTTTCCTTCACGTGTCGCCTTCACTGTGGTCAGATGATAGGCTGAATATCTCTCTTTTTGTGTAGTCTCAGAGCTGCTCTCCATCTCCACGACCCCCTCCATAAGATCACCTTGTGATCTGGCAGGATAG
0.8891768397639885 CTACTTTATCCTCCCCCTAAGTAAAACTCCTTAAAACCGCGTTCCTGGAGCCGTCTGTTTTCCCTCCCCTGACGACACCTGGCTGCCTTCCTCCAGCCTGCGCCCCCTAGTCTCCCTCTTATCTAAATCCCAAGCCCTCCTGTCTCTCTTTGGGAGATAAGGGTTCCCTGCAGATTACCTTAGTTACATCCTAGGTGCTCACTGCCTGATGCATAGAATAACTCTGGCAC
0.6754751468706844 TGCCTGAAGTTCCCATCACTAGAAGCTCTTCTGCAGGAGTTGTTTCCAGAGACACTTATTGACATGTAAACGTATGACATGGGTTTTGGTGTTTTACTGCTTTCACTCCACTATCAGCTTATCTGTACCCACTCAGGCTGAGTGAGTGTCAGGAGACAGGTAGCTGTTGCGTAGGGGAGACAGGTGTTGACTTAACCCTCACCCTCTCCCACGTAGTTTCTGA
0.7014951056360255 TAAAACAGAGTTGGTAGATCTGTTTCCAAGTGACAACACCCCTTGTCTGTCCCCACCAGAGGCTCTTGAAATAAAACCCTGAGTTGGTAGGTCTGTTGCTTGCTGCTGAAATGCAAGCTCAGGGCTCCCTGGGTTTTGAACACCATTTGGGGCTCTGAGTACCTGTGGGGGAAGGGAAGCCTTCACTATCAGCATGGCCTCTTCACCCCGCCTGCCCGTCTGCTGACACCTCTGCGGGTGTCTCCTCCTTCTCTGCAGAGGGAGAGATAAGCATCTTTCTAAAGGAGGCAACTGGTCACCTTCTGGCACAAATTAAACCGCAGAGGCTCCTGA
0.7231053272467584 TCTTCTAATGGAATCGAAAGGAATCATCAAATACACTCGAATGGAATCATCCTCGAATGGAATCGTGTGGAATCGTCGAATGAACTGGAAATGAATCATAATCAAATGCAATTAAAATGAATCATCATCGAAAGGAATCACATGGAATCATCATCGAATGGAA
0.7479337263522309 GTGCGGGCCAGGCTGGAGGAAATGGGGCCAAGACCCGTCTGGCCAGCAGACTCTCCTGGGACTGCTAATATCCCAAGTGCTGGTGACAAGACACAGCCCCGGGTGGCAGGGGGCTGGGGGCCTGAGACTCCGTAAACAGCCCTGGCTCGTAAAGCTGATCAAAGCAGCAGGCCTGTCCCAGCCCTGGCCACTTCC
0.6689960044207469 CTAGCACTATTCAAAACACCTTCATGCATTACCTCATTTAATTATAGTAAGCCCTGTGAGGTGTTAACAGTTACTGTTACTGTCACCATCATGGCCACTTACAGATTAGATAACTAGGACCTAAAGCTGTCAGATAACTTACCAAAGATAACACAGTAACAGTAGACCTGGAATCCAAACACAGG
1 GTAAATGTTACGTCACATAGCAAATGAGGTTTTGCAGATGTGATTGAGAATCTTGAGATGGGGAGATTATCTTCAATTATCTGAGTGAATCCAATGATGTAATCACAAATGTCCTGATAAGAGTAAGGTAGAAGAGGAGCAGGTGATATGATGACAGAAGTAGAGATTAGAATGTTGTGCTTCAAAGATGGAAGAAGGGGCCAC
1 GAGACCTCATCTCCGTGCACAGAGCCATCCTTGGAAATGAGGTGATGTCTGTTCTTCCTGTGACCCTCTTTCACTTGGGGTCAGCTGAGACAAGACCTGCAGGACATGGATGGATGGAGAGGCAGGTGACAGAACACAGACTTAGTCCCGGCAGGGAGGGCAAGGAAGGGAT
0.8208941037997023 TCAGCCAGCCAGAGTTGAGAGGTTTCCTGCTGGGAAGAACTGTTGACAGGTATGCTAAGAGTGAAGTGAAAGGCTGCCCTCCCTGCCCCTTCCCCCAACCAGGGGTGAGTAGCCTGGGTCCTGTCTGCCACCAGCTTGGGGAACTTGACCTCAGGAAGGAAGCCATTCACCAGCCCCCCTTTCCCTTACTAGTGCTGAA
0.5016072420018399 TGCTTATACAAAAACATTTGCCTGACACACTGTCTCACAAGCCCAATCCTATGAAACAGCCTGCTGTAGCTAAGATTACAAGTTTTATCTAGCAACTGCCACCACTCACCAATCACAGCTTGCCAGCTCCCAAAAGACATTCTGACACCAGTAAGCTTATCTTTTCCCAGTGAAATCCTGTTTATCCTTTGTTCTCCAGAC
0.776479944793918 CCCAAACCAATCTGGATCGCTGTGCCGTGCCCCTGGCCAAATCTCTTGCAGTATGAGTACATGACACATGTCTTATCTTTTGTGTTCTAGAGCTTTGATATCTGAGGCCTTGCTGACCCTAGAGGCACTAGCCCTCCCAGGGTTAGCCAGTGATAACCTAGCGATAAGCAGACAAGTCACCC
0.7251573445694958 AATAACTTGTCTTTTCTCTTGTGGAGCAAGAGGACCTTTCTAAGCACCCAGCTCCAGGAAGCAATAGACACGTCCCTGCACTCATGACGGGTGTTGGGCATGGAGGTGGTGACACATGGCTTCCTGGTGTGATAGCGGGTGTGTCAGAGACAGACGCCATCTGGAGTAGAGGGGAGGGGGGCTGAGATTGAGCTG
0.8178196282216379 TTCATATGCATCAGATTCTCCCTCCTATCATCACTGCTAGGCTGTGGCTGTATAACTGTTATGCACTACCCCGAGATAAGTCAGGAGACCTCAGACTCAAGAGAGAATGTGTTTGGAGTTTCTTCTTATCTAACTAAGATAAGTTACAGTCCCAAAGGTATAGAGATGCACTGGTCATGCCCTATTGACTCTCATATAGAAGGAGCCATT
0.6020459870504599 CTCAACTCTGTTGTATCTCTCTCCCCAACCCTCAACCCCACATAATCCCATACTGCATCTGGCTCACTGCTTTTCATCCCTCAGAACTCTCCAGGCACTCATCACTTCATTCAGGAAAGTGCCACTGACTGGTCTGATTGCGATGGCATTCCTTGGTGTTACCATCCCACTGTATCCCTCTGAGCTCTG
0.5253640599386289 TGCTTATTGCTTAAGCTGCAATATTGTTAACACTTTCAGCATCAGTAGTAATCGTGTTTGTTTTACAGTCATTATTGATCTCCCTGTTGGAAGTCTCCCCTGACACCTCAGAGGAAGAGTGGGCACTGTGAGGGCTGCCTAGAATGCCGTGAGATAAAGGATGTTCTGTTCAACATCATGCTTCAGGAAATATTTCTGCCTTATCATTCCTGAAATGCCTCCCCATCTACTCTGGCTCTTGT
0.7827111955455537 AATATGTGTGTGATGGTGGGGGAGGGGGAGAGGAGGAGGAGGTTGGTTTAAATGAAACACATGTGAGCAGGAGGCTTGAGGTCTGCAGCTGACACAGCTATCACACCCCAGAGGTGAGTCTGACACTAACCAGGACTTTAAGATGACACATTGTGAGACTGGACATACCACGCAAACATGCATTCCATTTTCTTCATGTTATTTTCATTTCCCCCCGCCAAAAT
