svm_type c_svc
kernel_type gkm_esttrunc
L 11
k 7
d 3
norc 0
nr_class 2
total_sv 1837
rho 0.062724
label 1 -1
nr_sv 991 846
SV
0.5267816470378219 GCCCTCAGAACCCATACCTACATGTGGCCCCAAAGCCGTATGAGAGATCTGGAACAGTATCCTTCAGAGGCAGACCCCAGAAACTGGGGTTCTGACATCCTTAGTCCCAGAAAATGCCCAGTCTGCAGGTCATTCTGAATCACATTTGTTGAAGAAATAAATCTGAGTTCTGGCCTGGCCTTTGCACTGTGCAACCTTGGACAAAACGCTTCTCTCTGGGCCTCGGTTTCTCCATATGGACAATGAGGCACTTATCGAACTTTATGGGCTTAGTGACACCCTCTCCCCACTTCAGCCCTGTCACCTTCTGTTCCTAGGTATTTCGAGCTGTGTGCCCCACATAAGAATGCAGGGCAAGACTGGGCGCTTGCAGAGGTTTAACTCACCCAGCTGGTCTGCACAGGCCAAAGCTTGGGGAGCCCCAGCTTCCCTGGCTCAGGCCCTGTGCAAACCAGTCTCTCGCCCTGTCAGAGGGAGGGACTGCTCCCTGGAGCCCACCCAGCTGGCTGGGAGCTCTCTGCGTGCCTGCCACTGTGTGACAGTCATGCGATGAGAGGGAAGCTCAGCACATGTCCCCAGCCACCATCAGTTGGCGGTTCCTTGAGTGGAGGGATGTCAGAGGCACGTCAACACTTTGGCGGCTGCTATTCCAGGCGGGCGAGGCAGGCAGAGGGCCTGTGGGCGCCTGAGTCTGCAGAGCCAGCCCTCGGGGGAAAGGAGCCAAGACACAGAAGGGGCTCAAGCTGCCCTGCCCCTCACCCCACAGCCTTTGGGGGGCTGGGGAGAAAGTCGGGGATCAGAGAACTATTTTTTCCTGGGTTTTTCTGCCCATTAAACACTTTATAATTTGGTCTCATTTCTTTCTTGATAACTCTACAAGGTAGATACTATACCATTGCCCCCATTTTTCAGAAGAGGCTCAGTGAGGTGGCATGTCCTGCCCAAGGTCACTCAGTCCTCGAGAGCACAGAACTTTCTGGATGACAGCCACAAGCTACTGAACACCACACTCTCAATAAACCCAGTGTTCTGGACTGCGCGTTCACGTCTTCCCCAAATTCCTATGTTGAAACCCTAACCCCCAATGGGATGGCGTTAGGAGGCAAGGGCTCCAGGAAGTAGCTGGGTTCAGATGAGGTCGTGAGGGTGGAGCCCACATGATAGGATCAGTGTCCTTAGAAGAAGAGAAAGAGATAAGGGTGCACTCTCTGCCTGCACAGACCAGGGAAAGCCACGTGAGGACACGGGCAGGAAGAGGACCCTCACCAGAGCCCAGCCATGCTGGCACCCTCATCTCCAGCCTCCAGAGCTTCGAGAAATAAGTTGTCATCTAAGCCCTCTGGTTTGTGTTATTCCTTTACAGCAGCCTGAACTGACCAAGACATCTAGGAAGTAGGTGTCACCCATCCACTTGCTCAACACCC
0.6103870174455169 AAGTTTCCTCATCTTTTGTTCCTGTAAAGATTTGGTGCAGGAAATAGAAAAGGGTTTAGGTATCTCGAGTAGAAGGGAATTTAATACAGGGAATGGGGTGCTGCAAAATTGTTGGAAGAGCCGTAGAAATGCATGTGAAGAGGTCCTATTAGACTTACAGATCATGCTGATGCTAGGTTATAAGGTTATAACCCTGAAGCTATGAACCAGAGGTCAGGAAATCATTGTCAACACGCATAGGTCAAGAAACTGCTGCCAGTTTCACAGTTGCTTCACATTCATGAAGCTGGTCACTATAGGGTGATTGTGAAGTCTGTCCACTACAAAATGCATTTCTGCCAGGGCTTACCACTGCCATAGAAATAAAAACGGGCTCCACCAGCATTTCACTTTCCAAATCTCATGGGAAGGATCTTATTTCCTGGACTTCACCTCAAACCCTGGCAGCAAGGGAGCCTGAGAAATGTAGTTGTTAGCCTTCCAGCCCCTATGACACAAGAGTGTGTAGAAGGGGGTAGATGTGAACAGTGAGTGCCAAAAGAGCATGTCTGGCTTATCTCTAAGCTGTCAGACATTCTCAATACCTTTTTTGATGGCTCTCCTGCTTATGTATTTTTCTATAGCCAATTAAAAACTATTGTTGTACAGTTATTATGTGCTAACACTGTGTTAGGCACTTCAGAATGTACAGAATGATAGCATGGTTTGGATCACCTGACACCTCATCCACTCAAAAAACTTATGTTTAATGTCTATCAGGTACTCAGAAAACCATCAATAGCTCCTCGTTATCTATCAAACAAAGTCCAAGGGCCTTAATTTAAACCTAACAGACTCTCCATGTTTTCATGACCTCAACTCATGTTTTAAACCTTATCTCTCATTTCTCTGCTTATTGAGCTCTTGTGGACCAGGAAAACTGGATGATTTTCTCTTCTTTATACATGAGCCTCTTTTCTGCCATCAGCACTTTAGTTACAATGTTTTTCCTCCCCAGAATGTCCTTCTTTCCATCTCCCTATGGTAAAGTGCTGCTGGCCCCTTAATGTCCAGCTCACATGTCACATCCACTGTGAAGCCTTTCCTGACGCAGGACAGCTGGAGATACTCCTTTCTTCCCAGAATCTTGGGAACTTGTTTTAATCTCCTGTGTGAGATTTAGAACGGTCTATCCTCAATTACGGTTTTTTGTTGTTTTTTTTTTGTATAAACATTATTTCTTCCAAAGTAGACCCTGGTCCACAGAGGA
0.4112770346016315 GAAGCAGTGCTTATTCAATGATAATTAAATAAATGTAATATCTATCTCCAGTGTTACAGAAAGGCCACCAAAGTGCCCCTTACCTTTCAAAGGCTTAGAGTCTAAATGGCTATTTTCCCACCAAAACCCCAGAGCTATTTCCTCCTTTACCCTGTGTCTCTGTACTGAATGCATCTTTTACTTCTGATCAGTGTCCGTGACCATGAATGAGCTTCCACCTTAGACTTCCCACGACTGCATATGTCCACCGTGGCTGACAGATGTGGGGCTCCCTCTTTGGGGCTAACGCTATTTCTCCTTCTTTCTTTCTCCTTACACAAAACAGATATTCTGAATTTTATGCCATAAATAAAGGCATGTTATATGTAACATATTGTCCTTTACATATACTTAAGATTTCGTGTAATAGTGTCCAATTCGATTGAATCAGTGGTGTCCTTTAAAAGCTCATTATATAAACAGGCCGATGTGAAATGCTAAGCTGGTGACAGGGCAGCCCCAACCTCATTAGTCAGTTAGATCACCGGCAAGTCTGCCTGCTGACAGGCCATGCCACAAAGGCCCACTACAGAGATAGATTGCACTCCTCCATGAACAATGTATTCAGTCGATTCACAATCTAATGAGAGCCAGGCTTCCTTTTAATAGTCCCACAACATTTCACCCTTTGGCACTAAAGAGAAATTTAACTGCAATGCACTGACTTTTGTGGCTGCTTTCTACAGAGAGAGAAAGGATACAATGCCTTTTAAAGCCTCAGAAGTTTCCATTTTTAGTTATAAGAGCTAGATCCTCTGTGGACAGACACCTCTCTCATGCAGGACCCAAAAGATCCAAAAAGCTTTTGAGGCCACAGTAATACCTGGTCTTTTTCAGGGCAAAACACGAGAGAATGTGTAAAGCTAGTGGGTAAAACTTCACAGTCTTCAATTCAAGACAGAGTGAGTCAGCATTCCATTTGTAGAGTGGCGGGAATGCGTGTGGGGTTATGGCTTGCTGAGCGTCTTTATTCTACAATGTGTGTGATGCTCGCAGGGGGTGGATGTGCTTACAAAGACCAATGACACCACCTCCCACACTCCTCGGCCTGCACTTTCTATGCAGCTAAACAGTCATATCACGCTGCCCGCTGGAAACACAACTCATTGGCTGCGGTTGAGAAACGCTGACACAAAGGGGCTCGCTGCATTAACGCCCGTAATACCAAAGGTGGTATCCGCCCCAACAATGAAAATCCATTTTTGTTACAGAGGCTGGTCATCTTATGAAAGAACCCATACTAGAAGGAAAACAAACAAACAATCAAACAAACAAACAGATGCAATGGTTAGAAGAGGTGTGTGATGTGAAGACCTTATTGTAGTTGTT
0.5905803683740121 TTGGGATTATAAAATAGTAATGGACTTAAAATGGCTAATGATATCTTATCTGTTCAGCAAACTGTGAACCAATTCTTGTAAGAGCCAATTAAGGCATATGTTAACTTTTAGGGACCCTACCAACATTTCCTATTCACTTAGGTCTTCTTTCTATTCCTTGGGTCAGCTGTTCTCCTGGTACAGATTTTCTTATGAATAATTCTACTCCATTATTTAAACTAAATCAGTAATATTTAAAAGCTGTGTATGTCCCACAATATCAACTTCCTCTATCCTGAGATATCAAAGCATAGAAACTCTCAGGCAACTCTTCTATCATCTCGCCAAATGAAGTGGCATTACTGACACTTCCTTTGGACCTTGTTAGGAAATGCCCCCGTGTACATGATGAATGAATAGGAGACGCTGAATCAAGAGGCTGCTAAAGACAAAGCTGCCAGAAGTGTCAGCACTTGCCAGCAGCTAGCACTAAATATAGTAAGGGTGGAGGAGGTGAAGGTGAATGGGATCCTGCAGAAGTTTTCTAAGTTATTTGTGAACAAACTAGTCAGTGTTATCTCCTTAATTTATTTAAAATCTTTGTAAGTTAAAAGTATTCCTGAAGCAAAAACAAGCAAACAAAAAAAGCCGGTATCTATAATCTGGCACCAATATTTTGTCACTGTTCATCACTTGTAATTTCAGGATAATTTTGATAAAAGAAGAATACATATTAAATCGGGACAAAAGTAAATATAGGTCTGGTGGTATGCTGGTAAATGTTTAACAACCAGCTCTCTGAAAAAAATGTTTCTTGAGAAGCCCCAATTTTTAGCACTTGCTGATTTTTCTGTGATAAGTACTCCCAGCACGGCTGACTGCAGGCCACCGCTATGACCTTACTGAACATGCCTTTGGAAAGAGAGATTCACAGTCTGCTCTGGTGAGCAAGTCAGTCACTCATCCTCTCATTGACGCTAATAACAGTACTTACTCTAATGACCATAACAGGCTTAGCACAATACACAAGGAAGTGATTGGTAGTTGTAGGAGAACCAATATGTGACTATATCATCTTATATTGAGAATCATTCTCAATGTGAGATTAGTTTACAAAATTCATCTTGAAAACGTTGACAGCTCTAGGCTCTGCTGTCCCCACATTCTTTTCTTTCTCTGTTCTAGAGTCCTTTCTTGGAAATATTCCCCCAAAAAATCTACCCTACTCTAACTCTGAGGCTTTCCCCAACATAATCAAGTCAAAAACATTCCAAAGTATAAATTTTAAAACTCCAAAAATGCATGTATTAGAAG
0.3394701951209477 GATGCCGGTGTGATCGTAGTCATGGCGGCAGTTCTGAAGCACACACAGATCTACCTTATCTTCCAAGGGCTGTTCCTGAAAGGCTGGCAAAGCCAACTTTCCCCATTGTACTTGAAAGCTCCTTGCAATGAGATCTGAGCTGCGGAAGTCACAGTGCAGAGGCAGGTGCTGTTGAAGGCTGTGAAACCTGAGTCATTTGAAGAAGGAGACGCGGGGAGAAGTGTCCCAGTTCAACCTCGGTGGATGGGAACTGGGTTTGAAGAGAACACCAGCCATGGCTCCAGGTGGGCCAATCACCGAGGAGACACACACGAGCCCTGTGTGCCACTGGGCATGAAAGTTTTCATCTTTTCCTGAAAACAATTGCTGGAGGTGAGCGCTGGTTCCTTCAGCTCTGAACTCCTCTTTTTCTGCCTTGTCTTTACTTCTTTGGTACAGCATTACTTGTCAGATGCAGGCAGGAAGAATAGACATTTAGACACACTTCACACTCGGCTGTGAGCCTGGCGCTCCTCCTAAACATGCTATTCAAAGTGCTTGGCTGCCTGTCTCTGGCCCACACCTGCCAGCGTTGACAAGTGCCACTGAGTTCATGTCAACTCAGGCGCTTGTCAGAGGGAATCTAGACCAGGCTGGGGCTGAGACAGGTGGGCGATCCTCATCCCACTGCCTCCCACTAAGACATAACATTGTGTGGAACAAGGAAGGACTGGTTCAAAGCCACAGAGCTGGTTACAGGCAAAGCCGGAAGCAGAACCTCTAACTTCAGGCTCACGTCAAAAATGCCCATAGAGTGCATTTTTTTCTGTTAAGATTTTAGAACTTTTTTCATTGAATTTAATCATTTCTGATATATTTGGGCTTATGCCTACCATTTTACTATTTGTTTTCCATTTGTCCACTATGTTCTGTACCATTTTTTCTCCTTTTTGCCTTCTTTAGGATTTTCAAGTATTTCTTATGACCATTTTGATAGACAGATAGATGATAGATAGATAGATTAGATAGATAGATAGATAGATAGATAGATAGATAGATAGATGATAGATAAATAGATAGATGCAT
1 AACCCGGGAGGCAGAGGTTGCAGTGAGCTGAGATGGCGCCATTGCACTCCAGCCTGGGCAACAGGAGCAAAATTCCATCTCAGAAAAAACAGACACACAAAACAGCCTAACCCAAGATAGATAGAAATCTGTCAACAGTTGAACTATTATGGTTTCTATTATCGGATCATGCAATGAAAACACTTTAACCCTTCTTCACTTAACCAACTCACTCAATTAATATAGGTCTCTGTTTCCTCTCTAAAACACACTGACCTGTCACCAGACACCCACTGAAGGGATGCCGCGGGAAGGGTCTTGATTTGCATGTCTGAGTGCTTCTGTTCCTATCTGCTGAACTGTATGCTTTCCAGTTCCAGTGGAGATTGTGCCCACTCCCATTGATGTCCATTGTTATTATCATTTTACAATTTAATTAAATATTACATAAGTGCTGAAATAGGAATGCAAAACAAGAGTTGTTATTTTTGTAAAAATTAAGTTGAATGTTTTGGGGAAAGTTGATAGAATAAATCATTAAAAATATTGTCATACAGGTGCAAGCTAATCAACTCTAAAAGTTTAGGGCAGAAAAGCCTACTAAGATTCTGCCCTCAAAACCAGAAAATGTAACTCGGACACGGTGGCTCATGCCTGTAATC
0.471703820114422 TGGTTGAGTGTTGGCTCTGAGCTTGGCACTGCCAGTGCACAGCTCTAGCACAGTTCAGGCCTTGGGAGAATTATCTGACACCCAGCCGTGCACCCCCATTTTCCAGAGCCTAGCTTACCAGATCTACAGCCTGACCCTACTTGATGGAGAGGTGGCAGAGGGAGCTCCCCATTCTCAAGTCCTACCTGACAAGCTGATCCCAAGCAACCCACTCCTAAGGTGGGCCTCTTCTTGGGGAGATGCCCTTATAGATGCTGCCCATTCTCCCAGTGCCAGGAATCTTCCCTACAATTAGGTACGAGATAAATCAAAGCCAAACTTGGCTGACGAAATTCAGGAGCCAGTAGTGACCCTTGCCACACATATAAATCGCAGCAGGCTGGCCAAGGGCCTTTGTCTGGCCAGGAGAGTTCAGGATTATCTGGCCCTCTTTGCTGATGTATGGAGTCACCGGCTGTCGGAGTGTTTACTAACGGTTATCACCTCAATGCTGTGGCCATTATCAGAGGCAGGACCGCCTGCCGAGGCTGGGGCTCGCACCCTCTCTATTACCACCTGTCATTGGCAGGGAGTGTGTGCTGACACTGCCCAGCCCTCACTGCCTGGCGAAGATAGTTTCTGACGGCTGATCAAAGAGGAGAAGCAAGGCCTGATAAAGAGTGCGTGTTTCGTGTACTTTTAACTTTGGGAAACGTTGGCATTTGCATTTTTTCCCCATCTTCCCGATGCTGGCAGGAACCAAGCCCAATAAATGCAGTGGATTCAGTTACCTAATCGCTGGGGAAATGGTATGTGCTTAAAGCAACAGAGCGTGACTATAATCTCCTTCCGAGAGAGAGTGGATGAAATAAGCTTTCACAGAAGACTTGCTGTATAATAAAGTAGAATAATTCAAGTTCGGACTTTGAAGTGATCTCACATGTAAGATCTAATCTTAGCGTTCAGCAGAACACCACAGACGTTTTGGAATTGGGGAGCAGCTTTGGCTTAAGGACAGACCCTTGCCGAAGATGCTATCACCCACCTCCTTGCTGGTATCCCCCAAAGTAATTCCCTGGTTGTTCATATGCCCTTGGGTAGCTGGGAGACCAGGTAGTGAAGTAGAACGTGTTCTCAACTGAGGCATCAGGAGAGCGAGTTCTTGGACCTCGTCTGCCACAGACTTGCTCTTCCATCTTGGGCCATAACTTCTCTGAGCTCCAACTATAAAATGAGGAAGTTGGTTATAGGTTATAGAATATAATGGTTAAGAAAGCTTTAAAAACATTAGGCTATATAACCCCTTCTTTAAATGAAAATTTATTTATTTATTTATTTATTTATTTGTAGAGACAGGGTCTCGCGCTGTTGCCCAGGCTGGTCTCAAAGTCCTGGCCTCAAGCAATCTTCCCGCGTTGGCCTCTCAAAGTGTTGGGATTGCAGGTGTAAGGCACCACTCCCCGCCCTAAATGAAATTGTAGATGGAATCCCATTGTATCAAAAAGAGGAA
0.1852527923257185 GCAAAGATTTCAGCTAAAAGAAAACTAAAACATTTCTAACAGAGCTACCTAATGATAGGCTGGGCTGTATTGGGAAATGGCATAAGCATATCTAATATTTATTCAGCAATCACTTTATTAAGCTATTATACTAAGTGCTTTACATGCCTTGCTTCATTTAATCTTCACAGTAATCCTATGTGTTAGATGCTTTTACAGATGAGGAAACAAGCTCAAAGAGGTTAAGTAGCAAGGCTAAGATCTGACCCAAAGATCCATGAAACCAGGCCGAGTCCACTTAACCACTCTGCTGCTTTGCCAGTGGAAATGCTCAGAAGAAGGTGGAAGACCATTGGCAGGCAGTGGAGAGATCATAGCAGCAATTAGGTTAGGCTAGATGACTGCTCAGCCCTGAGGTTCTAGGACTCTTGCTCCTTCCAGGCTCAGTTTCCTGGAAAATAAGAGTTAAATGTGATTGCTAGGGGCTCCTCACCATTATAAAATCCTGTGACTCATGTGCTAGGGACAGAGGGCAACAGAAAAGTAACGTCAGATGTACTCTCTGATGTCCCAGAGTATAGTTGGGAGGGCGAGTCATATCTCACAACCTCCATGACCCAGTGCTCTGTTGTATGGGAAGGGAAAGTCAGTGGGGTGGATGGAAAGTGTTGGAAGGAATGAGCATGGGGGCTTAGAATGGCAGGGTCTAAGTAGGTGCCAGGGAAAGGAAGCAGAAAGTGCATGTTTGAAAAGCCAGAGGTGTTTCCCTTTGAAAGCTTAGCTGCTACACAGAGCAGCTCTATCCATGCCTTGACAGCTCCCAGACCCAGCTGTCAGAGGGCACCTTTCACTCTCTTTAACCAGCTGAAGTGCCCTGGCTGTCCTGAACTCAACACCTCCACACTCTCAGCTCTCCTGCCTGAGCCCGACATGGGAGGCAGAGCAAAAGGCCACCATCATTTTAGCTGCCCCCTCCCACTCCCACAGAACCCACTGGGTTAAAGGCTGCTATACATATTAAAATAGGGACCCCAACATGTGTGAGTATGTGTGTAGTAATTTTTTATTTTCCTAAAATCTTGAGACTATTTTAGGGGGCAGGGAAGAAGACAGACAAGTTAGTGACAGGGAAGTCCTTGATTAACTGTTTCTTTCCACATTTTAATTTCCTTTCTGATAGAAAATTCAAATAAAACTGGGGGGCTGTCACAGTTTGTCAGTGGTGGTGGGGGATGGGAGGCAGGATGTCTTGGAAACATAGGAGGACATAGGGACATGATAGTAGCAACAAGCTTGGATATTTCCCAAGCAGGGCCTTCAGAGCCACTGTCTGGAGAGGAGAGCTCTTTGGATAAACCGTTGTGTCTGTTGGAAAGTGGTCATGCTTTCATGCTCAG
1 GTCTCAAAATAAATAAATATTAAAAATTGACAAAAATTATATGTATTTATCATGTATAACATGATATTTGGAATATGTACAGATCCTTTCTGTAGGAGATGAAAGAAAATAAAAGAAATATGTATACATTGTAAAATGGCTAAATTGAGCTAATAAACTTTTATATTACCTCATATACTTATCATCTTTTTTTGGTGAGAACACCTAGAATCTATTCTCTTAGTGATTTTCAAGAATATAATACTGTACTTTGTGACTAACTATAGTCTCCACATTGTAAATAGATCTCTTGAACTGCTTCCACCTGTCTAACTGAAACTTTGCCTCCTTTGATAACCATGTTCCTTACCCCCACGTCCACCTCCCAAGATCATCTAATGTGAATTGATCATTCAATAAATGTTGTTAAACACTTAAAGAGCTGATTCTGATCTATTTTTATAAGAGATATCACTTTCGCCAAAATCTCGGATATTAACTTAGAGCAAAGATTTAATAGTTTTAAAAAATCAGCCATAACAAAATAACAAAAACAATAATATAAACAAAACCAAACCTACCAATCAAGAAATTATAGAGTCTATTTTCATAATTTCATAGACTGCCCAAGCATTTCAGCAAAACAAAGCCACACTGAAAAATATTGACAAGTTTGTATGCATAAAACTGTAAATCTTGTTTATGGGAAAAAATGCAATAAGCAGAGTTAAAATTTAAATGACAAGCCAGGAAAAAATATTTGTGATTGTGTATGACAAACAAGAAGTTAATATTACTTGATGGGATCTGAGCTCTGCACTGTTTCTCTAGCACTGGGCAGCTGTTGAAACCTCTTGTCAGTGCTTGCTTTCCTCTGGATTCCTTGGAGTCTTGCCCTGTACTGGTGCAGCTTAGGAGTCAGCCAAGAATTCGAGACGAGTTATATACAGATTTGGGGGTTCTCCCTCTGTTGGTCTCTTCTTTCTGGAATTCCTCCCCACCTCCTCAATTTCAGCTGCTCTGGAAGCCCTGATTCTGGCCTGATTCTTCATCCCAGCCTGTTGGCCTCTTTCTGCTGGAGTTGTATCCACACCTCACCCCACTCCCACCTACACCACTCCAGACCCCCAGCACCGCAGAGTCTTGGGGGTAACCTCAGTTACTGATCAAAATCAGTTCTTTAAATGTTTAACATTTATTGAATAATCAATCCTTTATTCACAGTTTAAAAGTGTAGCTCTATCATATTTAGGTGACTAGATGTGCTGATTTGTTTCTGATGTCTGTTCGTTCTGTTCCCTTAATCTGTTTATTTATCCTTCTGCTAGTCTCACAATGTTTTATTACAGTAATTTTCTTGAAGGAAAATTTGTATTATTTTAATTATT
0.3125340202474211 TCTAGCCCATAAGAAGGCCAGAATAAATTAAAAGTAAGGCCTAAAAATATTTCCAGTGGGATATCCCCCATTGGCTATGGAATCCCACCTTTCCCCTCCACCTTGATTAACACTCCACAAACATGGGGAATATCTGCTCAGGCTCTGAATTGAGACACCAACCCTCCTAGAAGACAACAATTTCCACTCAAACAACTGGTCCTCCTTGCCTTCTTGTCAGCACCACACGCTGAGGGAGGCTGTGTTTGGTCTCTTAATCAGGCCTTGCTGACGGGCTGACATCACTGCAAACGTTTTCACTTACTCTTTGGCAACAGTTAAATCCTTGCCAAAGGCCAGTCAGTAAGTCGGAAAGTGTTGTGAGAGAGAGGCTGGGGGAGTCGGAGTGTGAGTGTCAGCTAGCAGTCTGTGGTGATGACAGCAGGGAGATCTAGGTGCTGAAACCATTTTAAAGGTCACTCTGTGGCAGAACAAAAGACCTCTGATTTAGAAAAGGAAACAGAACTCTGGGCCATTGAAGCCCTGGGATGCCGCCCTCTGAGCACTCTGCAAATTCATCATCTGCTCCCTGATTGTGAAGACTGGGGAGGAACTGTTACTTTACAACCCAGTACAGCTTCTGCCAGCAACTGTGTGGCTTAGCAGTGGTACAGAATAATCTGGTAAGATAGAAATGCCAAATAATGTATCCATGGTCCAACTGCCTGTTGTTTTTAAAACTATTGAAATAAGTCACTGCCTGTTCTTCTTCGGTATTCTTTCTCCTTACCCTTCATCCTTTAATTTTCAAACTTGAATTGCTAAATAATCTAAATTTAAAGTTCTTAGCTACATAGCATAATGTTTCTGTAAAAAGAGATTACATATACTTGATGACTAAAAATTTATGAATATTCATATGTGGAAG
1 TCTTGAACTCCTGACTTTGTGATCTGCCCGCCTTGGCCTCCCAAAGTGCTGGTATTAGAGGCGTGAGCCACCGTGCCCGGCCTGGTATATTTTTACCCAAGGACTAGATTATTAGTTGCTAGTGGGTAAGGAAAACAACTTAAAATTCCTTTGCAAGTTGTCTTTCAGCACATGGAGAGGTGGGAGTGCAGCCCATACTTACCGTAGGAGATAAGCCAGATGTCTGGCACTGAAATGAAACATCTGTCAGCATTTGATTGTGTCATAGACAATGCCCTTGCCACACCCATACATTAATGCTCGAAGAAAAACTGTGGCATGTATATAATGGAATGTAGGTGGGCCAAATGAAAACAAAGATTTAAGGATTCTGGAGATCATATTTATACTTTTGTTACTATTTCTTTTTTTGAAATGTGCGTGAAGGAATTAACAATTATATAGTAATATAAAAATTATCCTGTGAATGAACCCGGTAATATGACATGTAACTTGACAACGAGTGGTGATAAATAATTGCTCTAGGCTTCTTCAGTTTTTTTTTTTCTTAGATTCCCTTCCTACCAATATGCTCTGTCTGTGAGACACCAGATCTTCTATAAGGCTGTGGTCTATGGTTGCACTTCCCCAGTGGATTATTCTTCTCAGAACTCTAGTGTCTCATGAAATGATATGTTAATAGTTATTTCACGAAAAAAGGAGATATGCATGCATGCAGACGATCTCTGACTTTTGATGGTTTGACTTAATTTTTGTACTTTACAGTGGGTTTATGAAGGTATTAAATGCATTTTTGACTCAATGTTATTTTCAATTTATGATTGGCTTAATTTATGATTGGCTTAAT
0.8034985483574943 GAGGCAGAGATTGGAGGGAGAGATTCCTGCAAGCCAGGAACTTACTAAGGATTGCTGACAAACTACCAAAGCTGGAAGAGGTAACGAAGCATGTTCCCCCACAGGTTTCAAAGGGAGCATGGCCCTGCTGACACCTTAATTTTGGATTTCTAGCCTCCACAACCGTAAGACAGTAACTATTAGTTGTTTTAAGCTACCCAGGTTGTGGTACTGTGTTACAGCAGTCTTAACAAATGAATAAAACTCCAGCCAGCTTGCCTGTATATCGCTATACAGGTCCCTGTCCTGCCCTGCTCCACCTTAATTTCCTGCCCTTTAAGATTTTCCTTCACCAGGGAAATTTAGCATCTTTCTGCAAGACTCAGTTTAATGGCATTCTCTAGCATTTTCCGACCTTCCCTGGCTGAGCTGAGTGCTGTCTCTGCACTCTGCCCATGGCATCCTGTCCACGCAGCATCTTGGTGCAGCAATCAGCACACTGCTACATTATCTGCATGGCTGTCATCCCCATTAGGTGTGTGCCCTTGGACTGTGTGTTTTCCTCCTCGTATATGAGGCCTCAGCATAGTGCCTGAAAATAATAAACATTTGACATTCAGAAGAAAGGAGTGGAGGAATAAATAAATAAGACAGCCTGTTTTCATGAAGTGTTTTCTACATTGAATGCAATTATTCTAAACATCTCCTTTAACCTGGTCTTCTGAGCTCTTTCAGAAGAGAGTAAGCACCATAAACAAAGAGCTAGAAATCACATCCTACAAGGAAGGAACAGTTGAAGTTCTTACCGATGCTTACCTAGAAAAGGAAAGACTATAAAGCAGGCCTTTCCAAGAACTGGAGTCGAGTGTTTGCAGTCACTAGAAGTTTTCTAGCAGAACTAGCCTGGGTCAGGGAGGGTGCTGCAGAGCAGGGTTTCACAAAAACTAACCTGGGGAAAGATGATCACCACTGTGTCAGCAGAAAAATAGGTGCCATGGATTTGTCAAAAAATTAAGTTCGATTATGTACTTCTAATTTTTTTGATAGTGAAATGGTCTTTCTTTTTAAGAAAGAGTGATAAAAGATGGTGGTTGTTGGAGTTTGTGTTCTTTTTGACTCTATGCTGGATCCCTAACCCTAATTATTTTTGTTTAGTTTACTGGTCCTTAAAATCTAAAAATCTAGGAAACTACTAAAATATGGTGGGTTGGGGATAGAGGCTTTGATATCCCTGCTTTGAAAGAGGACTGGACTTCTTGTTGATACAAGATGAATGTCAGTAAATATAATGATTACATGTACAGAATTACTGAGTAAAAGAATAGCGGCAAAGATACCTTTTAAAAACCACACCTCACAGCATTCAATTTATTTTAATTTCAAGTTATAAACTGG
0.6209547795607065 TATGGTTGGCAAGGGGGTGGTGAAGAAGAGAGGAGGGAATGTATGTTCACATGCTTAGAGGAAGGCAGTAGCAAGCACATTCATCTTCAAGCTTCTCTCTGGTTTTGGATTTCTTTTGGCTCCCTTCTCAGGGCTACCTTTAATCCTTCCCTGAGCCATACAAATACCACCATCTTGGGGTATCAAGTGAGTGGTGTATAAATCCAGCAAGTGGAACTACATCCATGCCCTACTGTGTTAGAACCATCCCCACCCCTCAGGGAAAATGCAGAGGCAACCAAGGCTTTGCAGATAAGTAGCAAGTTGTAAGTCTGGGTCTCCCACCAACAGCATAAAAGGCAAGAGGGACAAATGTCCTCAGGACCTAGCCCTGCACTGAGGACTGGGATCAGAAGGAGTGGGAGAGCAGAGCCGCCCCAAGGTGAAGCCACCTGCCTGGCCCTCTCTGTCTGGAAAGTGCCAGTCGGTATCAGAGGTGCTAACATCCACTGCTCCTGACAGCCTGGCTTGTCAGCAGCCACAGACCATCTGGGGGCTGACACTTGAGCTCACTGACAGGAATCACAGTTTGCTTCCATATCTCTCTGTCTCCAGCCCCAGGCAGCTGCAGGCAGATGGCAACAGTCCATCTGCAAACAGGGCTGCAGGCTGATGGGGTCCCTGTCCAGCGGACCAGCATCAGAAAAGCCAGTGCCCATAGGCCAAAGGCTATTAGATGGGGCTCCTGGAGTTCCAGCTGTCCAAGGCTGACATACAAGTCCATGTATCTAGCACCCCACCAAATATACCACAAAGCAACGTTTTGAGAGACCAAAGGTGCCATGTCTGTTGCCTTAGTTTTCTACAGCAGAAAAACTAAGACCTAAAAGCTCAAAGTCAGAATGCATATTTTATTGGGGGTCAAAAAGAAGAAAAAGCTTAACAATTTCCTGTTTTACTCGATTAATGATTTTTGAGGCAGGAGAATATCTTAATACATTGTTTAATCAGAACGTATATAAAGTCTTGTTCAATAAATGAAGGAGTAGATTGTCTTTTACTAATTTTCATCACTGTGACAAAGACATACATATATGGTCAGTATGATTCTACCTTATCTTCTCCCATTTTTAACAATATGGAATGTCCTCTCCCCTTCTCCAACATGCGAGTTGCCTTCTCTCTTTACCCTATTCCTAGAGGACCAGGATGAGTTTTTTTATAATAAAAATTTAGAAGTGTTTATTTGTTATCATCTAACCTAGGTGTTCAGCTACTCTGTGCAGTTGGAAACAAGGTTCATACATGGCTGGAACCCATTCTACAGATTGGTAAACTGAGACTTAGAGAATGCCTTGAACCAACCAAATAAGCCTCAAAGAGCCACTAATCAAAGAGATCACTCTCAGCTTTCAGCATACTTAGAGGTTTGGGTGGAGTC
0.9529749497293561 GGAGCAGGATGTGTGCCTGGCACACCCTGAGTGCCCAGTCAGTGCCACCTGGTGTCACTGGTCCAGCCTTTCCAGCCTCTCCACCCTCAGTCAGCGCCACCTGGCATTACCGGCCCCGCCTCTCCACTTGGCTTGTCCTCAGCGTCATCTGTGTATTTTTCCCGATTGCTGGGGTTTTCTTCTGCATGTTGTGGGAGTGGCTGGGAGTTGAGTGAGTGTTCACACCCCGTGGTTGAATGTTGAGGAAGGGGACAGCCGGAAGATGGTGAGCAGGGTTCTAACAGCTCTCTGCCTTGTGAAGTGGATGGGTGAAGAGGTCCCTTCTCTGAATTGTGCGTCTTCCCAGCCTGCTGCAGTCTCTCGGGTCTGGAGGTTTCCTTCAGCATTCTCTCTTCCCCGAGCAGAACAGAATACTGGGAAGTGTGAAGAGAACATTGATATAATAGTGATGAAACTGTTTTGACTCAGAAAAAGATGATTTCTTGATGTTACAATAAATTTTGTGTAAAAATAGAGTGATTCAAAACACTTTTCATGCCTCAAAATAACACAGCTTTCTGTCACCAGGGGGCATCCTAGTGTCATTAACAGAAAAAGAGGGCATTCTATGTATCAGTTTCTAAACTGTCTTCTTTGACCACAGAGGGTTTTGAACGAGATGGAGGCTTCCTGAGACACACATGGCCGCTGTGTCCACTGCCCTTATAGACCCACCTCTCTGCTCCAGGTGCCTGCCAGCATCAATGCTGGTGTGTGGAATGGTCTTTGCCTTGCGGGTGCCAAGGCTAGTGTAGCCCATCTCAGCATACAGAATGCTTTCTTCTGGGTGTCAACGTGATGCGTACTAGGTTGCCCCCTGGTGGTGGAGATAAGTGCAGCTGTCAACTCCTGAAGGTGTTGGCTTCTTTTGAATTGCCCTGTGTTTTCCTGTTTGTCATAATTCTCTGGGAAGAGAACTTACTGCGTTACTAGCAGAGAGAAGCTTTTATTGCTGTGATTATTGAATTGGTGTGCTGAGATCTCATTGGAGAACTCAGCTGAGGAAGCCAATCAAGCAGCAGCTCTCATACAGTATTGGGCATGAGACTTACCTAGGAGCCTCTGAACTTTGCGGCCCTAGGGCCGTTCCTGCACTGGCCTTTGTACTGCAGTGAACAGACTTTGGGAAGTGCTGCACCAGAATGTCTTTTTGTTCTTTTGTTCTGCCCTCAGGTAGCAGTTTATCTCTCTGCTTACCTTACCCCTTTTCTTCCTAAACCTTTTTTTTTTTTTTGAGACAGAGTCTTGTGCTGTTGCCCAGGCTGGAGTGCAGTGGCACTATCTCGGCTCACTGCAAGCTCCGCCTCCCGGGTTCACGCCATTCTCCTGCCTCAGCCTCCTGAG
0.6508996533489522 AGGGAGAGAGAGAGACGGAGAGAGAGACAGGGAGAGAGAGAGACAGAGGGAGAGAGGGAGACAGAGGGAGAGAGAGACAGGGAGAGAGGGAGACGGAGAGAGAGAGGGAGAGAGAGACGGAGGGAGACAGCGAGAGAAGACGCGCGGAGCCTTGCGGCAGGAGGTCGAGGAAAGAACAGCCCCTCTCACCTGGCGTCGGTGGCAGCTGAACCCTGGGCCCGACTGTGCGATTTAAGGGGTGCCCTGGGGGTGAGACCGCCCCCCCACCCAACTGCCTTATCTGGCCAGACCCGGCTCTGTGAGCTAAATCGGGCAGCAGCTGTCACCACCAGGGGGTGTGGGACAGCTGTCCCCCTCCCCCCGCACCTGCCCTGCGCCTGCCTCTTGACCACAGCCCCTCCCTCTCCCTTTCTGCAGCCTGGGGGTGTGGAGAGGCCACTGGCATCTGTGCGGGGCGCCCCAGCCCCCTCAGCTCTGGGACAGGCCTGGCCGGGTGCCCTGGGGCAAGCGGTAGCCCTCTGAGTCCTGAGGCGCTCCCCTGGGAAGAGCAGTCCCAGCGGGTGGGGGCACAGGCGCTCTGCACTGTGAGGGGCAGACAGTAAGTGCTTAGTTGATGCAATGACCTGGTCTGTCCTGCCCGCTCTCACCTGCCAGAATATGGGGGTTGGGGCAGGAGGGAGTGGGAGCAGGAGGAGGTC
0.4702651173822722 ACGATGGGCTCAGTGAAGAAGCCGCAGCTGTTCTGAAATTAGGCTCCTTTCCCCGTGAATGTGCAGCTATGCGGGTGTGTGGATCAGGTGCACAGGGCTTTGAGGAATGTGGCGGAGACTCAGTGGCAAGAACAGTTGTCTGTGATTGCTGGGCCTTGTTTTGACCCAGTCCCTCACCCCACATAAGCCTCTCAGCGAGGAACATGGAAGGGTCAGGCCTCTCACGTTTCCTCCCCTGTGAGATTGGATCGCCACTGTGATGGCATTTCTCCCCATCTTCAGTTGCTGGGCAGACCCTGCGTGTGTGCGCACATGTCCATGAGCCCACAACCCTTGCATATTTGCAACAAAAGTCTCTGGGGAGAATGAATTTAAATGGACTCTTGACTATTTGTTCTGGAGCGGCACGTGTTTACTTAAGTCACCAGCCTCCTTCCTAAATGCAGTCACGAGCTCTCCCAAACTCCACAGACACCCAAACAACCAAATATTCAGAGAGCCCGTGCCCTTGCCCTGCTTCAGCCCCACAGCCCCGCCTGGGTTGCTGGTCTGACCCGGCTGGGCAGGGTGGCTGTGAGCTGCCGGTGTGGCCCCAGGCACCTCAAAGGGTCCTCGGTGTTCAACAACAGGAAGTGCTGGCAGGCTTCCCTCGCTAGGGAACTGAAAGTGGTGACAACAGAGGATGTGTTCTTCAGGCTATCAGATAAAGCCCTCTGCACTGAGAACTGCTTCTGACGAGGAACAGAGACTTCACTGGTCTCTTCCCCATGCCTTGCCCTTGCCCTAACTAACTTCTGAATTTATATCACCTGTGAGTTCTGCTCTAATTCAGGGACTTGGGCGGAGAGGTTTCGGACAGTGGCCAAAAGCAAGAGACTGTCTGCATGACCCTTTAGAAACACCCGTGACCTGGTGCAGAGCTGAGCCAGCTTTGGCCACACTGTTTGGGATGCTGACTCAACGCAGCTCATTATATCTGATTGAATTTATCTTTCATTACTATGCAATCAAATTAAAGGGCAAGAAGGGATTTTTCTCTGTTTTCTGAAAGTGGTTGCAGCAAAACCCACTATGAAGCATTTATTTCTTGTATTGTTTAGACTGGGCAGAATCAGAGGGAGGTAGGTGTGTGACTTCATTTAGGAGAAGGTGAGCACTGATGGCAATATTTTCTTCAAATGCCACACATGAAGTGGGAGAGGTGACAGCCAAGCCTGCAGGGACTCTGTCTCTGAAAATGTGAGTGGAACAAAGCACCTCTGGGCTCTGGATCATTTTCTTGTGTGCTCCTGGGGTCTAGTTGGTTTAAACTCTTGAAGGCTGCAGTGTGTTTTTTGATATACCCCCATGTGAAGGGACATTTATTTAGCATAAACTATGGGCTGGGCACTGTTCTAAGGGCTTTGCATGTATTCACTTAGATTTACAAATTACTGAATATTGTTAAGAACAAAACCTAAGGAGCACAGGAGTGTGCACG
0.9562587914463677 GCGATTAAAATGTTCTGGAAGTAGATAATGGTGATGGTTGTACAACATTGTAAATATACAAAATGCCCTTGGATTGTACATTTTAAAATGATTAAAATGGTGAATTTTATGCTATGTATATTTTACCACAATAACATTGAGTCATTTTGGTCTCTGGGAAGGCAAGGGAAATTGTGAAGCCTTTTTTGAAGAAGGTGGGCTTCTGAGAACAAAGGAAATTTGAATTTGAATCCGAATTTGAATTTGCAGCAAAGGATAAAGGTGCCCCACGTAAAGGTAAAGATAGAAACTTGAGCAGCCTGGCTTGTGTAACAAGTGGGGATCAGGTGGAATTGTTGAGGAATGTCTCTTTAGAGTCTACAAATTTGATCGAAGTAAGGATTAATTTAAAGCACAAAATATATTTTCAGCAGAGACCAAATGTTCCCCAACTATTAAATTTAACTATCAATAAGTAAACACATCAAGTAGAACATTATATTCTTGATATTATTATTAAATACTATTTTCCTGTGCCTTTAAGAAAAGAAGCAGACACTCCTTGGGATCACTCACAGCTCAATTTTTATGGCATTTGTTTTACAAATACTGCGTTACTGTGGAGGAAAGAAGTGGGGACATGCACAGCATATTTATTTTTTCTATATCCAAAGTAAATCCATACATCATTACTTTAGGAACTAAATATGTATAATTTGCCTTGGATTTATTACAGCATCAAAGTGCAACTGGAAATATACGGAGTTTGAAATTAGAATTGTCAACTGTTCACATGGAGATCAATAGCCTTGGAAAGGGTGACTGTGGGCCCTGCCAGGCAAGCTCAGTGACAGCCTCACAGCCAGTCAAGAATGTCAGCAAGACAGGCTGTGGGCAGAGTGATGAAATGCAGCCCCACGTATGAGGGTGTTAGGTGATCACATTTTAAATTTAATGGTGTAGGCTTCTGCCAAGGGGGTACTAGAGGTTACTCCAGTGCACAATAAAATAAAGGGAATATCTTTTGAGTCTTCAGTTTTTAGCCACTTTCAACTCATTGGGTTTTCTCAGCCTTAAACTAAGGTCATTAGCTTTCACAAGTTCTCCCTACAAACAAAACAAATGCTGGGTGTCACCACCGCATTCTTTCCATGGGGGATGTTAGACACCACTGACCCGGATGATTACGCAGACAGCACACCCAAATAGAGACATCTAGATTGGGAAGAGCCCTCAAAAGCTGGCTGACAACCAGGATCCCTGCTCACGGGCCTATTTTACTCAACAGGAAAAATTGCTTCCAAAGGTTTTCTTTTCTTTTTTTTTTTTTTGTTTTGAGACGGAGCCTTGCTCTGTCACCCAGGCTGGA
0.6571531945112217 CAAAAATAAATGACATGGATGTGGACTGCAGCCTTGTTTCTAATACCAAAAATCAGTAAACAACCTAAAAATCTGTATCCATGAGGATTTAAAGAAATCCTGCATGAGTTAGAAAGAATAAGGTAGATGCCTGGGTTCTAACATAGAAAATATCAAACTGGTTGTTAGATGAAAAAAGCAAGTTGCAAAGTGAGGTAATGTGTAAATGCAGTAAGCAAAATACATCATATATATAGTACTTTCTATGTATTTACCTATATGAGCGTGATGCCTCCAACTGCATAGCTGTGGCTCCGGGAGCAGGACCTTGTAACAGAGCCTCTGCCCCTGACTGTCCTGAGGGGCCTTTCCCTGGGAAAGGAACCAGGTTTGATTTTCAGTCTCTTTTGTTATCACCATGCTGACAGCTTTGCTTGTCATATGCCTTTCCCTCCGCTGTACTGATTTTACCTTACAGAAGCTCTCCTTAGTGCTTCATCAGACACTCCCTCTTTTCCAAAGAAAAGACAGCCGCATTCCATGGTCATCTGGTTGAGCTCGAGGTGAGCCCCAGGGATCATGTGCCTCCCACCAGGCTGACACCCCAGTGGTGAGGAGTTGCCCCTTGGCTTTTTCGAGGCCAAGCAACTCAGAGGTGTGGCAGGATTGCATGTCACAGTGGCACTTCCAAGGCCCTGGAGAGTGACTCAACGCCTCTGTTATTAAGATGTCACACAGGCTGTGCAGCAACAACTCTAGGGACACCCTTCACACTGACAGAGTTGGCAAGCTTTTCCTATAAAGGGGCACACAGTGAATACTGTAGGCTTTGTAGGCCATACTATCTGTCCCAACAATTCAACTTTGCCCACTGTAGCTGTGAATCAACCGTAGATAATATTAAGTGAATGTGCACTGCTGTTTGCTAATAGTTTATTGACAAAAACAGCTGCTTTTGAGCAGTTTGCTACCCCGACAGAGACTGTGGGGAGTCCCTGGTGGCAGCGAGCTACAGGCAGCCAGTACCCCATCAGTGTGGCTGGTTCCATCCTCTCAAGCCTGCCTGCACCCAGACACTGTCGAGTGTGTCTTCAGAAAAACTCCTAAAATTCCCCAAAAGCACAGTG
1 CCACCATGCTCAGCCTTGGTCCTTTATACTACAAGCCTGGGCAACATAGTGGGTACACACTACTGTCCCATGGCCACCAGTGATGCTGGGTACAGGAAAACCACATTGTTCTATGGACTCCTGACCATGGTACTCATCCTTCCACTGGCCACTCCTGCTAAGACATGGCTTTTCCATCCTGTAATTGCCCTTAAACATTGGGCAACAATTTCCAGGTCTCTCTGGGTCAGTCCCTTCGGGGGAAGGAAGACAGAGGAATCATGTGGCCAGGTGGGAAGAGCTCTGGGCCAGCTTCCACTCAGCCTTGCTGTGTGACCTTGAGGAAGTCCCTGCTCCTCTCTGGGCCACAGTTTCCTCCTTTTTGAATGCAGAAGGTTGTATTAACATATCTGAGGATGCTTTGGGGTTTTCTTAGTTCACTTCTGTCCAGAGAAGATGATGAAATTTTAGGAGCAGCCTCACTTCCAACACACCGGGTCTTGCGTGGTCATTCATACCCCGGCAGAGAAAAAGCTGCATACTTCATGCCCTTTGCCCTTCACCATCTCATCTGATCCTCCCAGCAGCCAGCAAGGACACGGGGCAAGGCACTGGAGGCAACAGAGGCTCAGCAGCAAGACAGGGTACGTGCAGAGAGCTGCGGGACAGACGTGGCCTCACCAGCAGGACCCGTGATTAAACAGCAGCTGTGGTTCACTAAGTGCTTTCTGCTTATTATGTGCCAAGTACTTCACATGTGGCTGCTTTGTGTCATTCTCACATCAAACCTGATGGGTGGTTACTATAATTATCTCCTTTTACAGATAAGGAAACTGAAGCCCAGAGGGGTGGAGTAACTAGTCCAGCAAAAGTAAGCCATGTAACTGGGATTCAAATTCAGCTTGAACATCTCAGCACTCATCTGTTTTCGATCACATAACACTCCCTCTAGGCATTCACAGGAGCTCAAGGATAGGAGTAGGGAGGGGAAAGCTAGGAGTCCGAAGACTTGAGGGGCCAGGCATGGTGGCATGCACCTGTAATCCCAGCATTTTAGGAGGCTGAGGTGGGAGGATGGCTTGAGCCCAAGAGATCAAGGTTGCAGTGAGCCGTGATCGTGCCACTGCACTCCAGCCTGGGAAACAGAGAAAGACTATGTCTTGGAAATGGTAGAGGACCTTTAAAAAATAAAGAATAAAAAAGTACAAAACCAAAGACTTGCGCAGATGCGGTGGCTCACGCCTGTAATCCCAGCACATCAAGAGGTCGAGGCGAATGGATCACCTGAGGTCAGGAGTTTGAGACCAGCCTGGCCAACCTTGCGAAACCTCGTCTCTACTAAGAATACCAA
0.3215116301694674 AATGAAACTCTCTCAATAAGTAAATAAATAAATCAAATAAAGTGAGGATTGAACAATTGAAGGGTCACTGATAATCACTGTAAGGATTTAGCGCCAGGGCTTGGCAGTACTCAGGTGAGTAAACGTTAGTTATTGCTAATATTATTCATTTATCTTATTATTGTTATAATTGAGTTAGTTCTGTGTTCTGATCCATGAGTGAATTGGCCTCCTGGAAGCTGCCCTCAAATCCCTCCTCTTTTACACAGTGATTGATGGTCCATGTCGCCTCCTTGTAGTTACAGATTAATAATAGGCCCTCCTCCTGGAAACAGGCCAAACGCCAAACCCCATGCAAGCTGGCCTGGAGAAAGCACTTCTGAAACTTCATCACCAGCAGGCAGCTAGACGACTGTTGAATGGGAGGGGGGGTGGTTTTGAAGGGTGGAATGGTGACAGAATTAGTCACCAAGTAAACAAGCAACACCTTCGATCAATGCAATGGAATGTAGGTAACCCAGGGGCCCTCCTCACTGCTCAGCTGAGGGTGACGCCAACATGGCCAGGCTGGCACACCCAGCAGAACCAGCCCTCTGCCCCCAACATCAGTAAAGACCTTGCAGGAGGAAAGAACAACCCCGCTTTGCCTGCCCCACAGTCCTGCAGCTCCATGTGTGTGCCCGCACAGTGCTAGGAACACGGCAGCTATTATCAGGAGTGCCAGGTACAGTGCTACAGGTTGCCTCCTGTACAAGGGGACACAGGGAACTGAAATCCAGTCCTCACTGAACTGCCCAAGCCCTGATTCCTGGTATGGGACTTTGTGGGTCCAGGGGCAGGGGTGCCTTGATCAAAATCACCTTGGATGTTTTAGGGCTGCTTGGTGATTGATGTTTTGCTTTCGGAGTACTTAATTATGTTTGCACAAACGGATGGTAATCCTAAAAATCTTAGAGCTCGCTCTCATAGTCTTATTATTGCACCAAACATTGTTAAGTGCATGATAATCGCAGGTAATTTTAATTGGAGGCTTACTATGTGCCAGGCAGCACCAGGGTGAGCATAGCAGGACACAAAATATAGGAAGGCAACCATCTCTGGTGCAGAATCGGCAGCAGAGAGTGAGCGCCTCCCTGCATTTTATCCCCCAGGTGCTCACTGGCTTCACCCTTGCCCTGACCCTGGTGCCAGGCAC
0.7288730845695659 CCAATTAATGTTTGTTTGTTTTTAAGTCAAAATAGCCACCATGGGGAAAAACTCCGAACATGCCAGGATGTTCTCACGCTAGCTGGACTATTAAGTACTGTTTTTATCTTTCGTTTGCTGTCAGGTGGTGACAGCCAGCATCTTTTCAGTCTTTGGGGCTTTTAAAGATTTCAATCCAGCCCTGCTGGAGGCATATTTTAATTCGTTTCTTCTGCAGGGGCTTTTTGCACTTTAGCTCCTGGAATTCAAGTCTTAAGCCATTACATCCCATATTGTAAGGGAGAAAGGGAAAGGCTTCTCTACATGTTTGTCTTATAAAACTCTTCAGCGGATCACATAAGTATGCATGCTAATATCAGTAGCTTACAGAGTTAATCTAGTAATGTATTAATATTTAGGACAGAGCCTGGCACAGGAAAGTGTCACATAAGTGCCCACCATGATCTCCAATGGAAGCAAGTAGCACAGCGGGTTAACTTGCCTTGGGGTGTAAGGCCCCTTTAAAGAGGGCGGTGAAGTCAGCCACCTCTTGATAGAACAAAGGCATACCAGGCCCTGCCAGCCCAAAGCCGGGTGGCTGATGGCTTTTGTCACCAAGTGATAGCCTATCTCCTCGTGTCAGGGCCCCCAGGCGTCAGTGAGAGCCACCAAGTGGGGAGGGTGGCTTCTCTTGGGAGTCAGATTCAGGTGGACCAGGCCTGTGCCCAGCAAAGATGGGTGAGCCACATAACGGGGCACCCCCTGTGTACACAGCACCACTGGGACAAGCAGCATCAGCTCCCCGTGCCTCAGTTTCCTCATATGTGAAATGGGAACATGTAATAGAGGTCCTTCAAAAAGTTATCATGAGGTTTAAATGAGTTAATTACTGCTTCTAAAGTTCTAGAATACTGCTGGGCATGGTGATGTTCAGTGAATGCCAGCTCTTATTCCAGAGAACTGGCTAGGCACCCATGTCAGTGGAAATGGAGGTAAAAGAAATAACGTGTTCCAGCTGGGCGTGGTGGCTCACGCCTGTAATCCCAGCACTTTGGGAGGCCAAGGCGGGCAGATCATGAGGTCAAGAGATCGAGACC
0.3795443482195351 TCAAAAGGTGTGTGATTCTCCTTTGAGCATAACATGGTTTAGCTGCAGAGCGTCAGAAGCCTGCATTGTTATTCTCCCACCAGGGTTTGCTATACACTTGATCTTAGCCAAAAGGCTGAGAAGCGATACTGGGGTTTGCCATAAATTCTTTGGAGTCATCCACCCAGATGTCCTTATTCCATGGGTCAAGGTCCCAAGTTTTCCCAACCAGAGCCCTGACCTTGGGTTAACAGACCTGTCTTAGTTGAGTCAGCCACTCTGACTTAAAGTCCTGGGCATGGTCCTTGGCTTTCCACATCCTCCAGCTGGAGGTGATGAGAGCTTCACTGCATGTAACTGAAGAGTCCCTGTGGCTTGCATTCCTGGCTTTCAGTTGCCTGTTGTTCATCTTCAGCTGTGCATTATCTTTTTGGAGAGGATCAATGACACTTAGCAATAGCCATCCAATCCCACTCTCTTAATGTCTGCACCTTCTTAAGTGTCAAGCGTCCTGTAGATTTCTCTCACTAGTTCGTTCCCTTCTACTAACACACCATCCCAATTCGCAACTAATGAAAGTGTTAACAACAGGACCACCACCTGGTGCAGGGGCTGTCAGTACTCCACCTATCACCAGAAAAACAGGCCCTAATTGCCAGGCAGGTGGTGAGTGATTCAACTTCAAACTCTGTCTTATCTCCACCAGCTTTCTCAGCCCCCCTCTCACTGCCAAGTGTTGCAAGGCTGGCTGTCTAGAAGCAGTCACTGACACAGAGTTTGGGGAGCACAATACTTATTAGAGATTAATACCCATAAAAGGAAGAGAGAAGAGACAGGATTGGTCAGAGGAAGAAGGTGATCAGCAACACAGACCCACAAAGCTTTGGCTAACCTGGCAGGGCATTCTGGAATGAATATTCCCTATCAGAGTCTCTTGCAGGCTGCCCTGGAGGAGCAAGACCAGCGAAATGGCTTCTGCAGCTGAAGCTGATGCTGGAGCTGATACTGGCTGCTAGCTTCACTCACTCTCTGCAGCTGGCCCTACGTCCCTCTGGGAAGGGGGGTCTGCACAGCACATTTCCACAACGCCCACCTTCCCTCTCCTCAGACAACTCAGAAGACCTCATGAAACAGGGCAGTGGCATTGCACAGGATCCGATGTGGTCATTCCCTCCACCTAGGAGGACAAACTGAGCCCTCTGTGTTCCCACTATGTGGTAAGGGGGAAGATGGCAGGG
0.8210825916625856 GGCTGTGGAGGTCTCTGTGTGACTATGGAGGTCATGTCCCACAGCTCCATGGCCTTCCTTGTTCTGTCTTCCACATCTGAGAGCAGGGATTGCCCTTATCCGCAGTGAGCATTTTGTTTAAGTAGCAGTGAGTTCACTCCAGGCAATGCTTTGACACTATAAATAGACGTGTATTTGACATTCACACACGTGTCTGTTGAGCTAATACAGACAATCATTTGATGAACCTGCTAGTTAGGAAGTAGCTGTGATGTGAGAAGAGACAGTGCTGGCTGTAGATATACACCAAATTTCCTCACTTGGCTGTTGATACAAGGAAAGCATCTTGATACTAATAGGAGTAGAATGCAAATGATACTTCTCTACCTCCGATCATTGGATTACATTCCTTTTCTCTGGGGTGAATCTTTAAAATGCTAATGGCCTGAGTGCACCAACATGAAGCACACAGTACCATCTGATTAGTTGCTTTATGCATCCAGAGAGGGTATTTCTAAATCTCAAAGTATGATTGAGTGTCAAAAATCCATTTGGGGGAGGGGCAACTCCTGTGTTGTGCTGCTTCTATAACAGCACAAAAAAGTCTTCCAGTATGTTCCTGCCAGCAAGGAGTTGGCAGGGCGGGGAGAAACAAAGGCTGTCGCCTTTCCAGTGATGAGTGCCTGTAATATGAAGCCGGGAGTCCTGACTCAGCACCTACAGCAAACCTGGGTTACCCAGGGCTTGCCACTTGTTTTGAGAGGTTCTTAAATTCTTAATTTTAAAAACAAAGTAAATTGCAGTATGACTCATATGAATAGTAAATGTGCACCAAATAGGACACATAGGAGGCAGAGTGGGTTATAAAATATTTAGTCATTTGCCACAACCAGGAAAAGATGGTTTTAAGGATATTGGTTCTTGGTCTAGGAATTAAAACATCCAGAAAATGGTCCTAAGTTACTGTTGATTTTTGCTGAAGAAAATACATTTTCTTCATGTGTTATATAAAAAACTTACTTTGTAATAATTATGTTTGTGGGATTCACTAATGTTTAACTACTGGAGCAAAACCTTTGTCGTAAAGTTCTCTTGGTTGTTTGAGGAGACAAAAGGATGGCAGATCTTTGACCAAATTATGAAGATATGGAATTCAAAGGGATGGAA
1 ACTTATAGAGTAGCTTGTTTTATTAGAATTTACAGATAATTATTAACTGGTGAGTCTTGAGGTTCTTCAGGTGCCAGCTTGAAGGCTTTTCATACCTATGTGATTTAGTTTTTTGAATTATTATTTATAAATTATTTATCTCTATTTTACCAGTAAAATAAGAAATTTGTAAAAGGCAATAGTGACATCTTTCTCCAAAGCATTTCTAGCTTTTCTAAATAGGTTTCAAAAACTCACAGGTGATCCATATTGCCATACAAAAGTAGAAATCCATAAAGAATACAATTAGTTCAATATAATTTAAATAGTTTGCGGATTTTAAATTTTTTTGTGAAAGTTAGATCTCAGGTAGCTCCGTGTGAATTTAGAGGGAACCACACAAAGCGTTGAAGACACAAGTAGAGTTCAGCATAGTGCCTCATAGTTCTTTTCAAGTGTTACATTGTTTTAATGGAATCTTGGAGTGGGAGCTTTAGCCCATTGAAATGTGCTTAAAGAACAGGTTCTTCTGTCACTAGCCGAAGCTGTGTGGATGAAATGATAACAATAGGGTGTCGTGATGCATTTTTAAAGTGTGAGAAATCAGGTTGTCTAGACTGAGAGTGTGCCTACAGGGACTAGGAATTTTAGAGCCTCTGTACCCTTTAGGTGTCAAGTATATGAGAGATGCCAAGCCTCTTTATTCTGTCTTTGGCAGCAGCTCAATTGGGCTGTAGTACCTTACATGTCTTCTGCATGCAAAAACTGATTCTGTGTCATGACAACTTGGGTTCCCAAAATCAGAAACCCACTTGTTCAAATGCCAACTTTAAATTAGGGTAAGATACCAATAAATAATTGCTGTAATTCGAGAAGACATGGAAGATTGGTAGTTATGAGTTCAAAATATAAATAGCTTAGCAACATTGTGTAGACACTTTTTAAAAAAGGTTTTCTATATACTGTCCTTTCTACTTTGTAGCTCAAATACTGTTTTATAGTATAAATCAAGAAATACTATTTCAATTTTTTTCAAAACTTGAAAAAGTTTAAAATCTTAAGTTTTTTAATCACTTTGGCATATATGCATCACAGTATAGAAGTAGGTAAAGTAAAAGTGTTTCCTCTAATCTTCCTGAGGTAACCAGTGTTAAGAGTTTAATGTGTTTCCTTTCATATAGTTTTAAAAATAGACATAACTTACAGCTCCAGCTTTTATGAGCTCAGCTCAGAACAGAGGGGATGCTTTGGAATTTGGAAAAGATGCCCCACCCCATAATTCTATAACATGCTTATAGTGTTTGTTTATACCCAGCTTAAGCTGTAGCTGAGGAAACGAGACAGATTAA
1 CAAATGTGAAGGATGAGTAAGTATATCTTTTAGTACCTGCTGTCTAGCAAAATGTCATGCCACTCAGTACAGACAGATCTGAAGAATAAAGTTGTCCTTAGTTAAGAATCTACAAACTGATCTGTGGAGTTTTAATAGGCCAACAAGTCCTGGCCTCACACACCTCCCCTCGAAAACCTTATGTTCAAATGTAGTTTTAAAATTAGTTTTCTCCTTAATGATGAAATTGAATTAGATTCACCAAGCACACCTATACATGGCATATGTCAACAGTTTTCAAAATCCCACATTTTCCTTGGGAAGGAAAGGAGAGTAAAAACTAAAAGTTTTAGGCTTTCTAGTTAATTATCTTCATGTTAATATCATTGGGAAATAAAGGTGGGAAAAGGTAGAAAACAGTACAAAAATGAGAATCAGTTTTAAAAAGACAGTACAATCTTATAGTTCTACTCATGCACACTGTGATACTTAATGGGACATTATAACAAGTTCTCCCAAAGTCAGATGAGAGCAAACACTACAGCTTCTCACTTACAGCATAAGGTGATGACATTAGTGGTAAGAGGGTGGTAGTAAGAAGGCCTGAAGGCAAGAGCAGATCAGCTGTTGGAGGATGGAGAGACACGAGTAGAGTAATTGCTTGTTGACTAATTGAAGTGCCTCTTCACCATTTTATCATTCATGAGAACAAATGTCAAAAAGTATTGATGACTACTTGAAGGATGATACAAAAGAGATCACTTAATAGTGAGGAAATATAAAGATAAATAAGTTGCAAAAGAAACGGGATAGGTAGAATTAAGCAACAATTCATGGAAGCTGCTTGACAGTGTATACGATTTGGATACTCAGCCTTGAATGAGCTTCTGGGCAGGTCTGACCATTACCCTGGCTTCCTTTGATGTAGCCATGATAAAATATCATAGAAATGCAAAGTTAGCACCAATACAACATTCTAGGCAAGCTTGTATGGTTGGCACAACAAGAAAAATAAGAAAATCTGATTATCACCAAAATATTACCAAGTTCATTCTTTCATTCAAAAATATTATCTAAGTACCCACTATGCACCAGTTAGTGAACGACACAAACAAGCCTCTGCCTCTTGAAATATATCCTGTTCAGAAAGACAAATAATGCACATAATATATCAGGAGGTGATTACTGCAAAGAAGAAAAACAAAGCAGGATAAAGAAATAAAGTGTGAGAAGATGCTATGCTAGATAGGATGGCCAGAAGATTTCTTTGAGAAGGTCACTTTTGAACAGAACTGAATAGGGAGAATAATGAACCAGATCCAGTTGCCTAGAGGGAGAGCCATCCAGGGAGAGG
0.8691121080592323 TCTTGCTTTAAACACACAAAATCTTAGCAGCTGGAAGCCTGTTATGTGTTTAATTAAATGGCCCACACATGTGTTTGTAATGCACAGCACTGTGGTCTGTGAACGGAATCCTGGAATCCCCGGGGTGTATGGTCAGCCTTTTGCCTCACTGAACTCTCCTCTGGAGGCCATGGGAAACAGGGTACTTGTTTGAGTTTTCTCCTCGGGTCCACATTTCCTCTATCGACTACTGCTGTGTAAACAGACTCATGTTCAAAAGGTGCTGGGCTCCATTGACCTAATCCACTCTGAAGTGCCAGATCTGTCCACACGTCCTCGGGATTAGGCCAGCATGGCCAGCTCACCCTGACTTTGCCTAAGGGATGGTGCAGTGGACTTGGACCTCCCCCAAGCCAGGTTCATCTGATTGGTTTCCCTTTTGCGCTCTTCTTCCCCTGGGAGAGGATATCCTCAGCATGGACTGGGGCCCACAGAGCATGGAAGCTGAAACACCGATTCTTCCTCAATGAGCTGAAGTTCTCCAGATGGCAGCAAGCGCTCGTCATGCAAATTCTTGGCAGCAGGGAGCCTGTCAAGTGGCTACTGCTGCTTATTGTTACCAACACTCCCCCACCCCCTCCACACAAATGCAGAAGAAACACCATCTGTCGCCTGTGGGGCTGAGCGGTTCTTTCCAAGTCCCTTCTAGTCAGTGCCGCTCAGCAGCCCTGCGCTGTGCGCACGGTCCAAACAGGAGTTGCCTCTCCTTGAGCCAGGGAGGACCCCGTCCGGTGCTGGCAGTTCTCTTCTTCCACGCCTCCTGGGCCTGGCCCCTCATCCAGGGCCGAGCCGGGGCGTTTTGCTAGCAGATTTCTCATAAGATAGTTATGTAACAAGAATAGGAAAACGATTGTGTTTCTCCCTTTAGATTCTGGGAAAGAAACAAGATGAACTGAGTTAGCAACGTGTCTCCATCACTAGTGAGAAATGTGAATAGAAGATAACTGGTTAAGGAGCACACTCCGGATGTGAAAAGCACAGCCTTGAAGTTAAAAGGTCGCCCATAACATCAGCGTGATTTCGGGTTTGTGTTCTCTTCTCTCCCACTGATGTTATGTCTCCTGATTAATGATGAACTCTCATAAGACCTAAAAACGTTCTGTACAAACGAAAGCTGTCGCCAAAAGACTCTAAGCTCTGGAGAAGGCTCAATATCTTGTCCATCTTTGAACTCCGAGACCATCCGTGCAGTCATTCAATAACTATTTTTTCTTGTTGTTGCTGTTGGATTTTTGTGGGATAGTTATATATACAAATACAAATGCAAGCAATAATAATATGCC
0.7405345526368241 AAACTAGACTTTTTTGAAAGGTATATGGATCAGCATGTATAAGAAAGACTAGGCTAACTTCCCAAAGAAAGTAGGTAGAACTAGGGGGTAGGAAGAGAGGATGCAATGAGGAGAAAACAGAACACTGAATGAGAGAACACCATTCAATGGTCTATTTCCTTTAATTTACACTTGCTAACAGGAAGACAACATTTAAACCCCACTGTGTTTTATTTGTATACACACATCTACCTCTTCTCAGCCCTTCAGAGGTCCCTCAACCTCTGGTCTCTTCACTGTACTATTAGCAAGCTGAGAAACTTAGAATTGCAGTGTGTATTTCAGAGCACGTGTACTGTCCCCTTCCCACACCACCACCATCACCACACATACACTGGACACAGGTATGGAGACAGCAAAATGAACCGTCTTTGAAGGATCTATTTTGCAAGTGAACCAGTAGGGGGAACTGTCAGGGGATTTAACTGGGAGTGGAATGCCCACTTGGGTCTGCTCAGCTTCAAGGGCAGGTTGTCTGTGAAGAAAGCTAGGAATCAGAGAAATCTCAGCCTGGCATTCATTTTAAGTTGTCAACAACCAGAGGAGAAGAAAGTCTACAGTGTTGGATTCTGGGTGGACCAAAATGATGAGTGGCGATCATTAGGGTTTAGGGAGGCAAGCGGGAGACACATCTATAAATCAGAGAAATGTGAAGAACAGAAATCTTGGTTCTCTTAAGATATCAAATTTCTCCCAGGAAAGGGATTCAGCTGAGCCCGTGCTTTATAAGGTATTGTTAATAAAACCTACCCAGAAAACTGGGAAAGCTTTATGTAGATATAAAGCCCCATGACATGGAAAATATGAATTAGAGAGTGGTGAAGACAAAAAATACAGGCTAATGTTC
0.6751632275324727 AGTTGATTTAGAGCTTAGCTTTGGTTTTATTTTTGCTAGGGAAGCATTTAAAGAGAATCTAAAATATGCTATCCAGCTAACTAAGATATAGGGAGTTTTAACAGAAAATTGATTGGCCCACAAATAGGTAAATTAGTTCGGTGCAAAAGTGTATCAATACAGTATACGATGAACTTACTAAGCACAGTGTAAGTTGCTAGGAATAAGGCCATCCAGAATTCTATGCTGAATAGCGTTTCAGGGTGACTTTGTATTTTGGCAACATATCCCAGACAGTTAGTGGAAATGAGAGAACATGTTTTATTTAATTTGTACTTTGGTACCTTTTATGTGAACGAGGCATGTTTAAGCACTTAATGTTGTCACCAGCCTTTTAAAACTATCTTTTTTTCCCGCTGCCCAACTGTAGTTTCCCTTCAGTGTTGAGTGGTCGTAATCTAAACACATTAAGTTTTTGTCTTGTTCTTTCTGCAGAGATAGAAAGCTGGGTCTGAAAATAAAAGCAGAGCTTTTATACAAGGAGGTCAGTGTTTGTACTCAGAAAAGAAAGTATGTAAACCAGATTTCTAATGGTTTTTATAACTGTTCTGAATGACATTGGCATTTAGAGATTGGAAGCTTTTAAAATTCTTTGCTTAATATTTTTCCTCTGCAAATATTTTTCTTCATTACCTGTCCTCATGTCAGTTTTCTTCCTGTCATGATCATTACAAAGTCCATTTTGGTATCCATGTGAATTGGTATAATTGGAGCCGGTGAAATTCAGATTAGGCATCAGGAAGAACTTTCTGAAAAGCCAGAACTGTGGGAATACTAAGAAGATGGGC
0.9045883960875889 GTGATTATGAGTTACGGAGCATTCTTTTGCTAATGTATATGAAGTGTTTAAAGTATTGTGATGTCTGCCATCTAATAAACACATTTGAAGGAAGAACATTTTACATATCATCTCCAAATCCTTCAGTCACTACTGACACAAAAATTCCTTTATTTCATAATTTATAAAAATGATATGAGCATAAAGAATAAAGAAACTTAAGTACAGCATTTGCAGACAAATATGCTGTTTGTTAGAATTAAACTCATTAAAAATGCAAAAAATTAATAAAACAATCCATTATTTTAGCAGTTAACTTCTAGTCAATATGTTTAGTATTCCCACCTAAACTTTTAACTTTACTACCCAATTACTGGGTTAAAGCCACTGCTTATTACTCTTTTTTTCAAGCAAGAAACAAAAAGAAGGAGCGGGACATGCTCAGTAGCTAAAACAGATGACCTTCGTGACATATGAGAGAGGCCTAATCCTGACAGCAGGAATGTGTCTTTCAGACACTGGCAACCCACTTGGCATAGATATGCCAACACTCACTTCACCAAGATGGTCAAAACAAAGTCTGGAATATGTTCTATTGTGTGAACAAAACAGAATGGGAGTATTTTAATAATAAATCACTTAAACAAGTGAAGGCAGCTGTCAGCAAGGTATGAGCTTCCAACATGAAGCACAAAGAAAAACATGCACTACCCTTTATAATCAGACCAAGACTAAAGGCCAATCGGTTTTGTGTCTGGTTCATGTGCTGTCTAGTATTCTACCTCACACAAAGAATGTGCCAAGGACATGGGAAGCTCTGCCTTAGAGAGGGTTAGAAGGAGAGGAGGCAAAACGACCCCTTAAAATATATCCTGATTAAGGCTTTATCACTGAAAAAATGTAAGAGAACATTATTCATTTCTTAATGTTACAAATCACTACTTTAAAGAATAAGTTTGCAGTTTTGTAACTACTGCTTTTAAGAAATACAAATGTGGAGAATGACAGTACATTTGTAGCATCTCCATAGGAACATGACATGTTTATAATATAATCTTCTGGAAAATAGTAATTTGAAAGAAAAATAATTTTTACACATTTCTATTTCTGTCAAAAGGAGTATAATATTTGCTTCTGCAAACCATATTTATGTAAGCCACACAACATAAAAACCAAC
0.5305822996326295 TACAGGGGTTCTCAGTGACTCCATCACTGACCTTGAGAGCCCAGATCTCATAGGGTGTAGGTATAAGAATCTCAGGTCCTCAGTTTCTCCTCCATCCCCTGTGTTCTGGCAGCACCTCCCATTACCTTTATGAATCCACGTATTTTATTATACTGCCATTATTTTATCTGACTCCTCCACAGAACTGTGGACTTTGCAGTAGGAACTATTTTATTCTCTTCTTGCCTCCCTGGCTCCTGGCAGACCCTAGATGTACCTCGAAAATGTACTGATGTGTGAATGAATGAGCGGATGATGTGTTCCAGGCGTCTCACCAGCCTTCCTTTATCTGCACACTCTTCACTTTGCTAGGGTCCCTCTCAAAAACACAACCGGATCAGGAGTAGGGGGAGGGAGGAGAAGGGAGCTGCTGTAAAGCAACACACTGCTGTCAACATTTTTAAATGCGCATAACCCAAGAGAACATGCACAGTATATTTTGCGAAGTCAACTGGAAAGTGTCAGGGCCACACCTTACTGTAGTTGAAATTCAATGGCATTGAGCTCTTGATATTATAGATAGTAATTTTCTAGAGTACACACAATGGTGTGTGAACATATGACTGGGCTGGAATCTATCAAAGTACTTGCATGGACTATTACAGATCATTGATGCATTACAGTAAGCCATTTGTGGATATTTTATGATATGTACACAGACTAACATCACTGGGATAGCAAAGGCTATCAGAATTTCACCTGCGTAATAACAGTCATTTGCAAGGAAAAATCTTATCAAAAATAAATTGATGATCTGTAGTAATGGACTGGGTTTTTGGTGGTTACTCATTATTTGGGGGACCAGTAGAGTTCATAGCATACTGACTAAATAGTGACTTTAGATCAGGATGTCTGGATTCCCATCCCAGCTCTGTGACTTCATTCAAGTTACCGTCTTTGAGCCTCACTTTTCTTATCTGTAAAATG
1 TTGAATGCTAATAATAGAGATAGTAACTACAGAATTGGATCCCATCATTTATTGGTGGTGACTGGGGCTAATGGCTACTTTGGAATGCAGAGAATATTTATTCAATGTTGATTGAATAGACATTAAAACAGAAACATTTTTAATTGATCAATATTGCTTATATGCCTCAATTTTCTCAAATGTTTTATTGTATTCTTCCAAACAGATAGTACTCAAAATTCCTATGAAGCATTTTTTTTCATTTAAGAAAGGAGAAAAAAGAAAGGGGCTGATTAACACAAAATTCAGAATAATCTTATCTATGCAGGAAAAGAGGGAAGAGGGATGGACTGAAGAGGGGTTCAAGGTTCCAAAGATACTGGTTAGCGTTTCATTTCTTAAGTTGGATACGAGATACACAGATGTCCACCTTATTTATTTACTTACTCGTGTTTTTGCATGTAAGCTACAAATGTTATTTTGTGTCTGTTTAATATCTGATAACATTATTTAAAGCAGATAATTGTAAGACATGGTACAAGTAATGGTAATGACATAATTATTTAAAAAAATAATGACACTGCTGACATCCTTTAGGGCTATTAGGGCTATGGAACTAAGCAATTGGCTGTTTTTCAAAGTGTCCTGAGTTTTCTGTTCCAATCTATTAAATAAATAAGGTATTAAATACTATGAGAAAACTGAAGTATAAAAACAGAAGAAAGACCTAAATCCAGTGCTAAGGAATTGCAGCTCCTTCAGTGACTCCTTGCCTGAGTGGGGCTGTTTACACATACAAGGACTCTGTCTTCTGTTTTACACAGGGAAAGACTGCTGACAACTAGCATTGTGGGGTATGTTTGCATGGCTCTTTCCAGAGTTCAAATCAGAGCACTGTAATTCAGCCACATGATGTTAACCACTTGTCCCTAATTTCGAAATTATTATGGCATCATTTTCTTTCAGAATTATCGATTACTGTTTATTTATTGATCAAGACTAGTAATAAGACCCAGAATGGTAAAGAGCCGACTCTGTCCTTGAAAATGTTCAGAAGAAGCACCAGTGGTGTGTATTTCCTCAGGAATTCAGCTTACTGAGCATTACTCTGTGTTTGTTTCTATCCTTCCTGTTCAATCTTTGTTTTTCTTTTGTCAACCCTATTTGCTCTGAATAGTTGAAAAAAACATCCTAGGGTTTGTTATAAAGTGGGATCCTAACTCATGCTGAATTAAAAGTAAACTACATGCCCTGGGTACATTCATGACCTTAGTTCTCTTAAAACTGAAATGGAGTGGAA
1 TGCGGGCCAGGGTGGTCTTGGGAAAGCAACATTTGAGCGAGAAGGCAGGAGTGCCTGTCCTCACCCAGGTCCGTGGGCACAGGCCCCGGGTGGAGCCCTCACCAGGGACCCGCCTTTCTCTACCCAGCACTTCCCTGCCTCCTCCTGTATCAATTCCTTACTCAGAAAAGTGTGCTTTCAGACTTTTTACTTTTGGATTTCTGGCCCCAATCAGCCAATATCAGTTCATTATAGAATCTACAGAGACACCATAATCTTCCTATTTTAAGACACAATTTTAATTGTAATTTTGCTAAACTCTCTCCTAAGACAAGCAGCAGCTTTTTATCGCCTGTTATCTAGGGTGTTGCTTTCACAAATCCACACCCTCTGGGCCCGTCACAGGCAGCCAGATCCTGGGACTTCTCAGTCAGTTGCTTTGCTGACGGTTCTTCAGAGGTGATGAGCTGTGTGTGAAGGCCCCCTTCAGACCATGGTCCCACGAGGGCATTACACATCAGGCATATGTGCAGAGATTAGAAACTTCTCAAGGATTTCATGTTCTATTCCAAGAAGTAAGGTCTAAAAATGAAAACCCATTTTAAGCTCTTTTGTGGTTATACTTTTGGCAACATGGAAGGAGGACAAACCTACACAGTTTTGTGTTGCTTTGTGTTTTTTGTTTGTTTTGTTTTGTTTTGTTTTTTGAGACGAAGTCTCAC
0.6755298823795488 TCACCGCAAGTCAAGGAATTGGAGATTCAGTGAGGGTACTTTTCTTAGATTATATAGCTAGAAAATGGCTGAGCTGGGATTCAAGTCCAATTTATCCGATCCCTTTGTTATAGCAAAACTGCCATGCTCCTACAAGTCAGAAACATTGATTTTTCTTCCTTTCCTTTCATTTTCTGACCTCATATCCTTTACTGTGCCAGTTTGCTTTTGACACTTTTAGGTAGCAATAATTTAATTCACTTTTTTTTTTTTCAGGCACAAAGCCACTGCAATAGCTGGGGAAGTTCCAAATCCCAGGAAATCTGAATGGTGGTTCAGTCCCAGTACTTCTGTGACTACGGCCCACACTTAGGATGTTTCTCATGGCTGAGATGACTTAGGAGACACATGGGGATGGATAGAGAGATATAGGAATTTGAGAGTGGGCCAGAATTTGAGAGGGATCTGGGAAGAAAAATTCTCACACTTCCATTATGTGTCTGGATAAGACCTGTGTTTTAAAATAGCTCCCCATTTCAGAATCAGGCAAAACATTCCTAGAGTTTAAATGATGCTTTGACCACGCTGGGCAATTTAAATGCACTTAGAGGTGACAGTACCTGCGTGTTCAGCCTTTGCTGAGAGGAAAGTATCGTTTATCGAAATGGCTTCCAAACTGCTCTGTTTTGTGTAAGCACCGTCTGCAGGTACTCATCAGTGTCGGGGCTGAGTGGTGCGGGGAATGTTTCCCAGAGCAGCCACAAGGAAAAGTGTGTGCTTGGCTTTCCTTTAAAGCCCCAGAATAACTTTTTGGCGATGAACACACTGAGCATAGAGCCTAGCACAAATAAGTGTTCAATATACAGTGTTATTGAGTTTTAATGGTGTAGGAGCTGTTTGAATGCTACTTGTTGGTAAATGGAGCACCTTATGTGTTGTGATCCTTTAGGGGTGGGGGACTGAGGCTTTTTAATCTCAGCCCCCAGCATGCTTTAGAAGAAAACAATTAATTTCCCGACTGTTGCGCAGTTGTTGTAGGATTTTTT
0.5339465068087236 TAAGCGCCATGCTGAGCTAGAATACTCTGATTTTTTTAACTTGGCCTCCTTGTCTGCAGCTCTAGGATGCAGTCCCTTTTCCCTTGCTTGGAGGCAGTTGGGAAGGTTTTTGCTGACTTTTGTCCTCATCTGTTGGAGAGAAGATTTGTGATCCAGCGTCACTCTCCTCGTATCATTATCCCATTTCATTTAACATCAAAGCCCTCACTAGTCAGAACTGGGCCGCACGCGTGTATATTTAGAAGTGCCTGACATCCTTCCAGGGCTGCATTCTCCTGCATTATCATATCAATTGGAGCCCTGCTCCTGTGCAGGTGAGGTGGGGCTGGGGGTTATCTTGCAAGATCAGAGACATAAGAACTTTATTTTGTGCTATATATAAAATCTCAGTTAGGAAATTAAATTCTGCACGGGGGAAAGATGTCAAGGTTGCTTTGATCACATGGAAAAGCAGCAGAGGCGCAGCAAGAGAGAGATAACCAAAGGAGGAAGCTTGCAGGCGCCTCCTCCCAGGCCAGCTGCAGGATGTGGGCAGGAGAGTCTGGGCTCTCAGTCCCGGTGGAGACAGGCCCTGTGTGCAGTGAGTGCTGCAGGAGATGGTCTGCTTACAAGCATGTGCTTCCTGTCATCAGTGCAAGCTGTTAAGTGTGAGAAAAAATGACCGGCAGTGAAGCAGAAACTCACTAAAAGTATTAATAGCCGGTGGCTGTCACCACTTGCTTGCTGTCCTTTACACCAACACTCCCCTAGCCCTCTCCCAAATGCCCAGGCTCATTTACTCCACTATGCAGGACCCCACAGGATGCTGCGGTGTGTTCCGCTTCTCCTCTGGTCTGAACTGTACCTGCACACAGGGCAAGTCCCAAGGGAACCAGAAGCCACCTGGAACAGGAAGCAAATAATAGCACCATCACCACCACCAGGATAGCTGACATCAATTACTGATTGTCTACTAGGAGTCAAGAACTGTGTTATTGTTTTACAGACATTATTTCCTATAAGTTGATCTCATAGTACAGATACAGAAATGGAAGAAAAAAAGATGTTAGGCTATGTATACACATCATATGGCTAGAAAATGCCAGAGAACTTTTTCCTAAGTTTGTTTCTGAAATGCAACATATATTAACTTTTTCCATCTCTTCACCTGACCCCCAAAGATAAAAAGACCTAGAAATCAATCCCACAGTCAGTCTGGGTGGAGTCCGTTTCCCTGTGACGGGAAAGCATATTAACGGGAAAGCATATTAAAGCTGAGGTCCTGCAATTCAACCCACATCCCTGACCCTCGGCCCTGGAGACTCTGGGGGGCAGTGAGCTGTGCACCCCAAAGAGACAGA
0.4900305465274536 AGCATATGTGAATTTTTTGTAGACAGTTTGTTGTTTTATCAGAGGCTAACAGAAGTATGGGACTCCTAAAAAGTTTAAGAACCACTAGTTAGACAAAGCATTTAAGCTGCTCCTGGTAATCTGTAGTCATGGAGAGTTATGCAGGGATGGAGTAGGGCAATGCCCTTGAAAGCTATCTGGATGTACAAGGCTTTCCTGTCCCTACGTCAAGTAACACTTAGTAAGCACTTACTAAATGCAGAGCTCTACATGGATTATCTCATTAAATCCCTCAACACTCATTGAAGAAAGAACGATAACATGAAGTCCATTATGCCCATTACAGACAGAGATAGTAATTAGGTCGAGGTCACATAGCTACCAAGGAGTGAGGCCAGATACCTATCTGGCTATGCTGGCTCCAAGCTGGCTCTCTATTATTGTGAGAAGTGGATTGAAACAAAAAGTAAATGGACTCTGACTGAGGATTCCTCTAAGAAGAGCATGTTATCAGGCCAGGCATGGTGGCTCGCACCTGTAATCCTAGCACT
0.01535464126712502 AACTCACAGGACTTTGCTCCTGCTCCTCCTCCAGACCTGCTGCTTAGCCCTCTTCTCAGCATGGACCGTTCCCTTTCTCCTCAATTCATGGGTGAATGTGCTCCAGGCAAAGAGCTTGGTCCTCTTGAGATCCCTGCTGAGGGGCTGAGGGTTGCGGTTCTATCCCACAGGAATGCATGATCATATTTAGTCTTACAGTCACATGATGCTCTCATCTACCACATTGTGTGGCTCTAAGATGCACGTTTTTCATGCTGGAACATTGCTGAAATCAGCCTGTGTCTTACAATAATGGCATGATATAGTTTAATTGACAGCATGTTTTTCTTTCTTAGTGCTACATAAAATTACGGGGCATCTTACAATTGTTGGGGTTGTAGATTCAATGACATGTGATACCAACCAGGGAGGCAGGCAAAGTGGACTTTAGAGATGAGTCATCTGGTACTCAAAGAGGGTAAGTTATTCACCCAAGATCACACCTGCCTCTTAATGGCAGATGCAGGAGTCAGAATTGTGCCTTTTGATCCAGGGCTGGTGTTTTGACCCCTGCCCTGTGCAGCCTCCTTACCAGGCCACCTGGTGTCCCCCTTTGTCTTCCTGACACCTGCACCCACAGCAGTCCCTGCTGACAGCTCTTCCTTCCCACCTCATCTCCAGGTGTCACCTCCCATTTTCCCCTCTGCACAGGAGGAATGACAGGTGCTGGAGCATGACACAGTGCCTCAGGGCTGAGGCTGCACAACTTCTCAGCTCTCGGTGCTGACAGGAGGGAAGTGGGTGCTGAGGTGTCAGTCAGCTGGCTCAGTGTAAGACCTGCTCTTATTGATCTTTGCTGAGAGATGACTAGTTGAGGGGCCTGGGCTACCACATTCTGCCTGTGACCTCTGACCTCCTAAACTTTAGTGTTCTTTGGCCTATAAGTTGAGGGTGTGCATGGTTTAGAAAGCGCATTTATGTACATTGCTTCATCTTGTCCTCATAATGCCATAGAAAAGACCTTGCTAGCCTCATTTTACAGATGAAGAAACCGAGGATCAGAGAGGGCACATGAATTGCTAGCAGGCACTAGATCCAGGACTTGAGACCACATCTCCTGGCTCCAAGTTCCTTCTTTCACTGACTTTTCCCCATACTGGCAGTTACTTCACAACCCCAAGGGCCCCATGGTTCTAAGGCTCTGTGGTTGCAGGTTCCTTTAGTCCCCGTGAGGCAGTGTGGGATGAGCTCAGGGAGGTATGATCAGGCAAATGTTCACTCTCAAAGGTGGGGCTTCACATGTGAGTTGAAGGGGACAGGGGCCCAATGTGTCCATCCTGAGACTTCTCTCTGTGGGCTTGGGATGAGACTCCCTGCTCTGTGGTAAAGAAGGCATGTCACTTTAACTGTCAGCATAGCATGGTTTGATGTGTAGAGAGTGGATCAGAGTTCCAGCTGATTTCTTCCTTAAATGGCTTGTTTGTTCACTCAT
0.5028553691475948 CACACACAGCAAAAACAAATCACAAAGACAAAAACGAAATCCCTTCAATGCCCATTTCCTGAATCAACTGCATCCCCCAGGAACTGCTTTGGGATTTTACTTATTATTTGGGATTATTTGTGCTCATTTCCCCTGTACCAAAAGTCAGAATCAAGTTAGCTGCGCTGTGTCTCTGTCACAAATGTCTGCTTGTATAAATAGGAGGGGGTACAAGCATGTGTCCACACACGCACACACGCCTCTCTCCGGATAAAGAGGTCTCGGGGTGAGGATTCTGGAACCCGTCCTTCCACACCTACTGCGTCTGGTCACTGTCTCCGAGGCTGACATTCCTCACGCCGAGGGATGGGCAGGCAGAAGGCTGCAGGCAGTGCGCCAGCCAGGTCAGCTTACAGCGAGCTGTCAACCCAGTCACTGACGCCTCAGCGAGGCCATAAATAACAGCGGTGAAGCTGCAGCAGGCCACCCGGGCCTCCCCCAAACCACTCCTCTGCCATCAATCTCGCCTGATGACTGCTTGGCGTTCAGGCTTCCGCGTGACCCGACCACGGCCCCAAGCGTTCTTTGGGGCGCAGTGTCCCTTCCCAGGCACGGAGTGGGTCAGCCAGGAGCACACTGCCTCGCAAGGTCCCCGTGTCCTGCCAATGTACTTTCTGGATGCTGGAGGCAGGCTGAAAAAGAC
0.8320483223962407 TTAATCAATATATATTTCTGATTATGAATGAGCAAGGCTTCTTGGCATGTTGGAGTGTCGGACGGATAACCATTAAGCAGCAATAACAAACATGTAGCTCTGGGCGGAGAGACTTGCCAAGAGTTCATTAAGCATTAAATACTGACAAATGGGGGTGCGGGGGTTTTCATTGTCTCCCTTTGAGAATCATTTGGTGGAATGTCAAACATACAGATCATTTCACATATGGAAAGAGATCAGAAAAAAGGGAGATATCTACTGCTGTCCCCAATATTTTAGTAGAGAAAACAAAATTTGGAGAGTATACAGAAACATTCATTTTTTGTTTGTTTACATTTGGCTCCATAGAAATGAATGGGTGTGTGGCTGCCACTACTTTGAGGAGTGAGCTGCGATTCTCCATTTATACCCTCAGTCCAGGAAGGTGCTAATCATGAGCACTTTGGTCAGGCTGACAGCTCAAGTGGAAGTTATATCTATGACTGCTGGGGGTGCGGACGAAGCGCTAAAGGCTGATTTGATTCCACTTATGCTCAGCTGTCATCTGGGGCCACAGCTTGAAGGAGAATGGGATGCTATTCTCTTCCCTCTGCTGTGTGACAAGCAACCTTTGTGTCTTTTTTTTTTTTTAACCTGCCTCTTTCTCCTTCACACCTATGATAAAGGCCTCTTTGCCTGCAAAGAAAGAATTCTCCAAATTCAAAAGCAGCTTCCATTGCCTCCTAGTGAGTGACTCTTGGACTCCTCAAGCCCTCCTTCCCCCAGCTGTTGCTGAGGGCTCCCTGTTCACAAGGATGGGTCAGGTCCTATTTTAGATGGGAAGGCAGACATGGGATCAGACAGGAAGAATAGGTCATAGGATATCAGATTAGCATGGCAGGGCTCATGCTATAGGCTTCAGCAACCTTGCAGATCATTTATTCTAGGCGGGGGTGTGTGTGTGCGTTCACATGTATGTTTTCCCTAAAAAGAGGTACTTCAGCCAGTGCATTTGGTTTGACACCAGTGTTTCTGCAGCTACCTCCTGTTCAGATAATGTTCCTGGCTCTCAGATAAGAGGCAGAGCTTGTCTCCTGCACACACTGGGGACAGGAAAGACTCTCAGAAATCATGAGATAACATATGAAGCAGTGAATGGAGGGGAGGGCACCAAATCTTGCCACATGTACCCAACATCAGTAACTTCACCACCTATGGCAGAGATGGAGCTGCCTCATCCTGCCTTCTCATTAGCATGGAATGGAAAATATTCAGTGATTTATCTCTTTGTCTGTAAGGAGATTCATTTGTTCACATATGAACTCAGAGGACATCTCTGACTTGGTAACATAGCCTCCACCATGAGAAAGATGTTCTGAGATGCAATTTATCAAAAGCAATCTCAGTGGAGTGTGATCCTTTGTCTGCCCTCTTGAGTCTAGGCCAGTTTTAGAGGCTACTAATGTAGCTCAGCCATGA
0.886668292803014 TATGCTCTAGTGAAGATTTATTATAGCCTGGGCCAATTGACATTGTAAGTAAAAATGCCTCATAAATGCTAAAGCACCATGAAATGTTGGTTGTGAGTCAGTACTGAAATGTAAGTCTGCATTGGCCCTGCCTAGCCAAACTGCAATTACTCCTGGATCCCTCGCTCTCCGAATGGTTTAAGTTTTTCTTTCCTCCAAGCAGATTCATTTGTTACAGTTTCCCCCCAACTGGCCTCTGTCTTCTAACAGAGTCTGCTTCCAAATGCAGCGAAAAATTTGCTCATGTCATTTTTCAAAGGAAGTCAGAAGAAAAAAAAAAAGTCCAAAGTTGGATAGTTCAAAACTGAAAACATAATTGATAAATGCGTGTGTGTAATCAGATTGTTCTCAGCATCCTTCATTCTACTGTTCCTCTAATCTATTGAGTCACTTTCTTGGCCTCATTGCTCCAATCTTCAAATAAGCCAAAGTATGTTGCTGATACTAGCCGGAATTTATTGAGTGATAGGATATTTGTAATGTACTTTGAGACTGAACTTAGAGCCCTGAAGATTAGGCAATTAATTCGTAGGGAAATATTTTTGCCATTTAGAAAAAAAAAAAAAACTTCGGACTAATTGAAAGTCTATATTGGAATGTCCCATTTTTATAAGGCTATTTTAGACCTCTGGTTTTTAATTAGGTGTGAGGTGTTCATTTAGTGCTGACAATGTGAAGTAGGCTGATGCCTAAATTTGCTTCTGATAAACCTCTCATTGATGTCAGCACTTGAATACTTAACTGCTACATTGAACATCGTATTCAAAGATAGTGTGGGTGAAAGCTAACTGCTTATGAGCCTGATTTTTGCTAAGAGACCTTACGTCACATCCTGGTAGCATTCTCTAAATTGACACTAAAAAAAAAAAAAAAAACCTTAGGACATGGCCTCCAGTTCTTTAGCACAGAATTACCAAAACATGACATTATTGAATGACTACCCAAGGCCTTTCTCAGTTCACTTTTTCCTTGTCATCTTCCCACTACAGATACTGAAAAACTCCAGGCATTCACTTTCCCAGCCTCCTCTATAGCTAGCAAGGGCCATATGATCCAGTTCAGGCCAATGGATGGAGGAGAGAGATGGCTGGAGGATTTCTGAGAAAAATTATCCCACCCCATTAGAGTCCAGATGCA
1 TGCCCATTAGACTGGGTCCTCGGGTGAGGACCCAGCTGATTCACAATGGGCATCTGGTGAAGGCAGTAAACATACCTTTTTTTCGTTAGGCCATTCAGATACAGAGGTTATTTGTTACTGCAGCACAACCTATCCTATTCAGACAGACTATAATTTCCTTGAGGGCAGGAGACATGCTTAACTCACCTTTCTATCCCCTATAGAACATAGTAGAAGATCTTGTGGATGTTCAATAACTATTGCTGATTATGTATACTGAGATAGGGTAAACTACATGAGACTGGAGAGTGGGACTTGGTCTCAGAACTTCAACTTGAGATCTCAGTCTCTAAAAAATCAAGATAAATATACAAGATGATTCTACCTGTATTCTAATAAGAGTCTCTGGAGCACAATTCTGAAAAACATTTTCTTTTGAAAAAACTTTTTTAAAAATGAAAGAAGATTCTTGCATACAGGGAGGCAGAATAGTGTAATCAAAGGAATCTGGGCTTTCAACCTTGGATAGACTTGGGTTTAAGTGCCAGCTCTGCCATGTCCATGGCTGCATGATCTCGGACAAGTTATTTAAGCTCTTTGAGTCTTGGTTTCTTATCTATAACAGGGATGATATCAACACCTACTCTACAGGATTACTGTGGGGTTGAAATGAGAGAATGTATGTAAAGTACTTGATACATTATGTGTGATCAACAAATGTCATTCTGTTAGGTCTTTGCTCCCACCAGGTGTGTGTGGGTTGGTGCAAACTCTTGCTTAATTCTCTGAGAACTCCCCTTCATTTACTCCTTCTGAGATCTTGGTTACATGCCCAGTCCCTGGATTTATTTAGCTTGGTCCAGGTCAGATCCTTAAGGTTTTGCATTTACTGCCCCAGGCACACTCTGGCCTGAGAAATTCCATCTACGACTGGCTGGAGTTGGCACTAGCCCTTGGCAAATAACTTCAATTGGGAGAGAAGTGTTTTTGAGACAGGCTCTTTGCTGCCAAAATTTTAAATAGGGCCTTCTGTGAGGGAGGTCTGGTCAGGGAAGTGAAGGGAGGTGATCTCCCCAGGGAAGAAAAAACTTAAGGCCAGGCATGGTGGCTCAGGCCTGTAATCCCAGCACTTTGGGAGGCCAAGGTAGAAAGAGCCCAGGAACTCCTCAAGACCAGGAGTTTGCTTGAGCTCAGGAGTTCGAGGCTAGCCTGGGTAACGTGGCAAAACCCCCGTCTCTACAAAAAACTAAAAAATTAGCTGA
0.9595903694216334 TGTGAACAGTGGCTAAGGTAAACATGGCTCAGGTCTCTTAGGAAGAAAAGTATTACATAAGTGCAAAGAAGAATTACTGCCCCAACTTCGGAAGCCTCCCAAACACATTATAAACTCTTCCTTATGCTATTGTAAATATTAAGGTTTGCATTAAACATTCAGGAGAGCAGCTCTGGGTATATAATTAGGGAGAGCAAATATTTGTTCAAATAAGCCTCAACGGGACCTCCTCCTTTCAACTAGCTAAAAAAAAAAAAAAAAAAAAAAAAATGTTCAAGCAGATGGATATAGGATACGAAGGCTTGGCCCAACATCTTCTCCTAGTCCTGATTACTCCACTCCTCAGAGACCCATGAATCTTCTTAACAAAGAAGAGTCTTCCAGGCCTCATACATTAGCCAGGCATTTTCTCCCAGGCCTTCCAAGCTTCCAGCTCCCTGCAGGGCCTCAGCTGACACTCTTCACAGGCACCTACTTTGCAAGGCCCTTGGTCTCCCGACAAGACAAGCAACACAAGCCAGATAACCACTCAAAGGGAGGCAGTGGAGATGGCTCTCATTCCCTGCCAGGAGGATCGCCATAACAAGGTGGCTGGAAGAACCTTCCGTGGCATGGGAACAGACAGCTGTAGACCCTGTATCTAAGTCTCTTCTTCCCGGAATTCTTATTCCACAGTGGTGACAGTGTCAAGCAGAAAAACACCACTTTTCACTACTTTACTGTCATCTTATAAATCTCAATATTTCAGCTTCACAGACAGCATCTTAGCTGATTTCACTTCATGTGCAAAAAACTCTTCCTTCCAACCAGAGGGACATATGAGTTCAGAACCCAAATTACATTCATTCTTTGAGAGGCAGATGTTTTCTGCAGATAACTTGTTGAACAATTTTTAAAAAGAAAGAGAGAGAAAAAGAAAGGGGAGGAGACATTTCTCCATTTTTACATTTCTTTCTTTTTCCTTCCTTTAGTAACTCATATGATTAAATGAACAGGGAGCTGTGATCTGCTCTATTTCATCTCCTGCTGGCTGATCAAGTTTTAAAAAAAAAGGAGAAATATGTATGCATTCATACTCACA
1 ATTCCGTCTCAAAAAAAAAAAAAAAAAAAAAAAAAGAATGAAGAATTCAAAAATTATCCTAGACATAGGCCAGAACACTAAAAAATTATTGCAATTAAAAAGAATCCTTAATGATGTGAAATTGTTCACAATATACTACTAAGTAAGAAACTATATAATATAGTTTTTAATTCTATATAAAAATAAATGTATTGGGAAAATGTATTAAAAATGTTAACAGAAATTACTAGGTGTTATGATAACAGGTAATTTAACGTTTCTACTTTTATGCTTCTCTTTATTTCCAAATGTTTTGCAATGCACTATGATACTAAGAGAAAAATGTTAAGGGCAACAAGTCAGAGTTGAGGGAGCAAGTAAATCTGCTATGTGGGTTGGGAGGTATCATCACACAGGAGGTGTCGTCTGAGTTGGGACTTGAGAATGCATGGGAGCTGTTATCAGGAAGAGTTGTCAGTAAAGCAGGATTCAGGGAAGTGCTGAGTGCCTTTGGGGGCCAAGAAATAGCTCAATGAGGCTCAAGCAGTTGCAGAGGGGATTTGCAGCTCTCCACCAAATTTAGTTTACAGAGAACAACCTATTTACTTTCTCAAAAGAAAACAAAGTTTCATATGGACAGTGACATTCTTTTTTAATAAAAATCAGAATTTACCTATGCATGATGGGCCATCCATGCTCTACCAGGCGCATTTTGAAAAGCCACAGACAGCTTTCCTGCTGCATAAAGAATAATACAAATAAATAGAAATTATAACGTTTCACTTTGGCTGATTATGAGATAACATCAGATGGGAGAAGGAGGAGGATATATCTTTATATCTTAGACCCAAAGCTCCCAGTGCCAGAATTCTAGAAGCAGGCCTAATCCCATGGTCTGGCTCTCATCAGTGGCCAAGAAGACTGAATGAGCAGTGAAATACCTCTTTGATGCTTGTTCATCACTCAGCACCAGCACAGAAATTTCAAAGGCCATGTTAAGTGACTTGACAATCTGGAGACAGATGATAAAGTCTCAGCTTCTGATCACTAAACACAATAAATCCCTTGCGAACAGGTGCTACTAATTTTTTTTAAAAAGATCCATCTTGTGCTGTCAGTCATTTTCAGATCAACTACAAGTGAGCCTGTTGACCTGAGGTATACTCAGATTGGGCTAAAATTCAGTAAAATATGAGTTTTGAGAAGGGTACATGTGATTTAAATAGATGGGATTGCCCCAGAGATGCCTTCCATAAGAGTTACAAACTCAAGTGTCAATAGAGCAGTGGCAGATGATGAGCTGTCTACCAATATCAGTCCTGCCCTTCTTGAACAATAAGAAAGTTTTAGCTGGGCACATGATTAGGTAGAACATTTGCTAGCTTCTCTTGCTATGACAGACATGTGAGAAACT
0.567760165857943 AATGTCCTTCCAAACCTCTTCAATTTTTGAAAAAAAAAAATTTCATTTAAGCATGTATATTTTTAAGGTTCTGTCATATTGAGTCTACAATACATAGTACCAGATCAAAACATGTGCCAGACAATTTTCCAAGCAACAACCTGGAAAGCCCACCAAATTATCTGAAATCACAATGATATATTACCTAGCATAGAATAATGTTCTCATGAAAAAATTATTTATATATCCCCTGAGTGTTTACAATGTTAAGATGAACTGATACAGCTTTTATTACAATCCCTCCACAATCTATCAGTAGGTTACATTAAAAAAGAGAAAGAGAAAAAAATTAAACTGGTTGATAGTAGCATGAACTAAAAGGGCAAAGATATCAGCAGCTAACTCCCTGCAGCACGGTAAGAGCACTAGCTGTGTTCTGCAAAAGAAGAGAGCTGTTTTGTGGCCTTGGAGTCAGCTGCCACTCTCTTACCCACACAGGCCAGGGGTTGAGTATTCCATATGGTGTCTGCTGAGCTGATAGAAAGTCATGAGACCCGAGATCCTCTTTCAACAGCCTGTTGTGACAGTGATGGAATTGCATGCCAACCAGAAATGCCTATGTTCTGACAGCGTTCTCTTTCAACATATGTCCCTGTGCATCCAGTTGGAAGGCAGATGCCTAAGCTTGATTACTCTACACTGAGAAAGGAAAGAGCTTATCATCTACTGACTGAAATTCACAGGGGATCAAATATTGCCAAGAACCGATACCCAATCAAGATGAAGCAGAATGAACCAGGGACTGTCAGCAGTTAGAAACTATCAACTGCTAAATGATGAGTTAATGGGTGCAGCACACCAACATGGCACATGTATACACATGTAACAAACCTGCACATTGTACACATGTACCCTAAAACTTAAAGTATAATAAAATAAAAGAAACTATCAACTGCTACCCATAAATTAAAAGGAATTTTTGCCTCCTTAGCATGTGATTTATTTAGAAGAAGCTTTTAGTGCTAACTTTTGAATGAAGCCAATAAGCACGTTGTTGAAATGATCCACTTTAGTGCTGAGCTCAGTTCAGGAACCAATGTGGAGTTCCAAGAAGCTTTCAGATGAACTCATAAAGGTACTTCCTGCTTTACCACATACTCTGGGTCTGGTTAAAAAGGGATAAGATCCTTCTCAATTAATGGTTAAGAAACAGTAACAGAAAAATCAAAAATCTTTCTTCAAATTCTCTAGCCATCAAAGAAAACACTTTTCTGGCAAGTTCTATATTTGAAAAAAAGCTACTTTAATGAGACCTGGGAAACCAGCTTGAGTAAGTAACCCACCAAAGAACATTAAAGGCACAGTAATGACACTATTCCAATAAACACAGTTCATAATTAAAAAGCCTTTTAACACTAACTGACAAAGTTTATTTTTGAAAATA
0.2038576694953701 GGGGGAAGGAAGGGGAGAGAGAGAGGAGGTGGTAGCAGGAGAAAGGGAAGGTAAGACAAGAACAGAACATTTTAAACTAACCCAGAACTCCCTTGTGAAGGACAAGTCACGAGGCAAGATACAGCTTGAAGGCATGAGCCCCACATTTCACCACTGCAAAAAGATAACGCAGTCTCCCAGGCGTGCATGGAAAGAGGGCTAGGCAATCCACAACACTGACTCCCAGGGCTCCACAGCATTAGTGAGAGAAAGTCACCCAGGCTTTTCAGCAGCACTAAGTGCCAGCAGCCTTGGCATGTATGTTTCAACTGCTTCCCTGAATAGACCCTGGTGCTGGAAAAACCGTATCTACAGGAGAACATATTTCACTGTAAGTATCTGCCTGGCTAAGGGAACAAACACTCCATTTCCTTCACTGCTGATATACGCATCCACCTCACCCTAGAGTGGACAGAAGGGAGAAGGAACAAGCTGACAGTCAGAAGGTAGCTCTGCTCTTCTCCTGCAGTTGACAAGAGAGAACCATGACCTCTGCTCCATTTGCCACACCACTGCTACTTCAGGCCATCCCTGCATTTCTTTCACATTTACATCTTTCTCAGACAAATAAACCTCCCACTTAGTTTTCCTTTTGCTTCTAAGAGCACAAATGCTAGTAGTGTGTTTAATGACAGCATCAGGAAGGCAAATTGGTACAAAGGTTGTTCTCACTTTCCTAGTCCTTTCTGGCAAAGAGATTTCTTAAACACACTAAAAAGCTTTGTTGCAAGATGACTTGTGAGGAACTAGCCATTCAGTTAAGGAAGAAAGCTGAGGGGGAGATGAGAACTCTTAAGGCCCCAGACCTGACCCGGCTATGTCAAGATGGAAGGTGGGGAGGAAATGACTGACAGGCTGTCCTCTTTCACAAATGCCAGTGAAGAAGGAGGAAGAAATAATGCTTAACCGCCCTTCTCTCTCTCTTGCTTTTATGTTTGACAATACCAAAATATAAGGAATCAAAATGAGCCAAATGTTCA
1 AAAAAAAGATTGTCAGGTTATCATGTTAAAATTAGCATCTTCTCTATATTAATAAATCAATTCTGTGATTAAAAGTCCAGAAATAAAATAACAAATAAATGTGCATTTTATTTAGCTATTTTTAGTGTGCTATTGGATTTGAAGCTAATTTGGCTAAGCACACGTTTGGATTTCCATCTTTTTTGGTATCACTTCCTAGGATTTTAGTGCAGTGGCTCCTAAAAAGAATGCTCAAATATTACTTATAATCCCCCAAGATATATCTTCTTTGCATGGAATAAAATGTGAACTAACTTGGAGAAAGGAACACTTTAGACATACATTTCATTAATGTAAATATCCACCTCAAACTATGTGGATTAGCATCTCTTAGAATTGATGTTACAATGCTAACAAGAGAAAAAGAAAACAAAGTACCGGTCTACAAAAATATTTGTCTAATGCCGAATGTTAGATTATTAAACAGAAAAGCACATTAGCTAATGTGAAATGATGTTTTTCTCCAAATTTATTACATTTTCCCCCTCTGTGTTAAATTTTCTTTAAAAGGAGATCTCACAGGAGTGGATAGGCAAGCTGGATCTGTGAGCAGCTACAAATAGAAGCACAAGACAAAGTAATCTATAGGCTGGCACTCACATTCATTTACTAAATAAGGTCGTGAGCAATATTAGGCACATTTTTCTGACACCTTTCCCAGTTGACTAGAAGTTGAGTGCATTTAGTAAAGGAAGTACACAGTGAACTGTTGTTAGTATTTATCAGGAAACGTGATGAGTGGCCCTGAAATAGAGCATCTTACCATCCAAATTTCTCAGTAGCCTTAATAAAGAATAGTCAGTAGCCTTAGTGCAGACTAGCTGGAGTAGATCTAAGCAGTATTAATGTGGCAGTCCGCCTCAGCATGAAAGTGGAGCTTTGCAAAAGGACGAGAAATGGATTTGGATGGGCAAGGTTGAAAGTAGTTGTAAGTTGATCTGGCATTTTATATTTCATTAATCAATTTCTAAATCTATAATTAAAAGAAAACTACATTGAGTGGTTGGGCATAAAGTAGAGATTGAATGATACCCACAACAAATAATTGTTAATATTGACAGGTTATGCTACAGGGATTGCCTAATTTCACAGATGAGGGTAACACAAAATGAGACAACTGCTACATAATGTTTATTCTAAAGGAATATTATGACATTACTGAGTTTTGAATTTTCCTTTGTATTGACTTTTTCATAATGCATGAAATAAGCATACATCAACCTAGTTAATACCTGAACAAGACAACATATCCAAGCCATAATTTGATGTAAAGCATGTGACACAAAGGAAATATCATATTGTAAATATCGTACTGTAAACTAACAACTGAAAACTTCCATATGTCTAAAGTACACAAACATATTCTTTATTTTACCTTCACATTCTTTCTTTTAAAGAAAGAAAAGCC
1 TGTTCTCCTGTCTTTTGTTTATCTTTTGAACTTGTCATTTAGTCAAATGAGCTGTTTTAATTTTCTCTTTGACTTCTATCATCTTTGCACCTATCACACTATCAAACGTTGTGGGTGTTCAATAAATATTAACTGATGACAAATTCTTATTTTTTTTTTTGGTTGATATTAGTCAGATCCCTGAAAATAAATATAATTTATCTGTTGTTTATTCCTTTTTGCAACTTTAAATATCCAGACACCTCTTATAATTTGTTATTGTCTGGACTGAATGTTATTTTACACTAAATGTTTTGGAAGGAAAAGAACCAAGAATTTAGTTCTGGGGGTGGAATAATTGGAGGTGAAAATTTTAACTAACTCTCTCTGCAGAAGGATATTTAAGACAAAGCTTTTGATGTAGAGAGTAATAAGTTGTTTCTATGCTGTATTTTCTTTTCTTTTTTCTTTTTGTTTCAGGGCTCCCCTCAAGAAAGACTTTTTCTTTACCTTCAACCTCTCTGTGCTATATTTTAGATTAATGTTCATTATTCTAATAAAAGCTTTTCTTATTTGAGTTGATTAATTTGTTTCTTTTTCTTCAAAGAAATAGGAATCAATAAATAATTCCTAAGGGGTTGGATTGGCATTTAGCCTTAAATTATTTTTCTTTCTTTTTCCTGGTAGAATTTCTCTGGCTATAATTAAGTTATTCTTAATTTATTACTGGAGTTTGTTTCTTTTTGGCCACATTCTGCTAGATCTTAGGTTTAGGTAATCTTGGAGATTTTTTTCCTACCTCTCTTTCCTATGCAGAGTTTGTGATAGTAAATGGAATTTTTCAGCATGTTATTGAGTATTCAAAGATGAATAAATCACAGTTCCTGCCACCAAGGAATTCACAGCATAGAGGAGATGACAGACATAACATGCACATTACTGAACTACATTCTGACACATGCCGTGTTGGAGGTGTAAGTGCAATGCCCTTGGACCGTGGATAGGCAGGCAGTCCTCTATTAATACCATGGAGAAGGCCTGGGCGGGTCAGGAAAGCTGTGTAGAGGAGGCAACTTGAGGTGGGACTTGAAGGGTAAGTGGGAATTCGTCAGGTAGGTGAGAAGAAGAGATCCCAGGCAGTGGGAGGAACACACACACAGACACAAAGTCTTGACCACATGTGTCAGGGCAGCATGACATAGGGAAAGAGGATGGCCTTTCAGGTCTTTCTTCTTTTTTTTTTTTTTT
0.9734294710230009 ACACATATATATATATATATTTTTAAATATTGGTGAATAATTATGCTACTTAGGTTTTCCCAATAAAATAATTGGTAAAGGAAAACCAAGCTACTGTTATCTAAGACAATTTTCTCATTTAGTTCCAAACTAAAACAAACAGCAATGAAAGGTCATTAGTCTCACAGACTAAAATTGTTTTGATGAAGGCCAGCTTTCCATTCTGTTGACAAGCGTCTCAATTCTTTTCAACAGCTCTAGGTGTTCACACTGGAAGAATGTGGGGCAGCTTTGGGGCAGTCATCAGCCTCAGGGAACCAATGGCTCCTGGTGACAATTTGCAGAGCTGCCACTAGTCAAACTGTTCCTCCTCCCCTATTTTTTTTATCGAGATTGGGAAAATTAATAATGGAAATTTGTTCTTAGTGGCAGATTTGAATACAAACACTGCTTGAATTTCTGCTGCTGTATATTGTTGTTTAGCAATAATGAAGTCTCATCATAATTACGTGTTTCTTCAGAGTAAAGTCAAGGAATTTAAAGGGATCTGCAAAACTTCCAAGATTTCCTCCAAGAAGGCACTGTTTCTTTCTTAGTAGGTCAAATATCATGGCCCAAAATGGAATCAGTAAACAAGAGACATGGAGCAGATGGAACGGAAATGGAACCTCTGAGGATGACCTGACTGTCTCATAACTTCTATGCTGGCTTAAGAGCTGAGGGCTGACCAGCCTTATGATTAAAGGCCAAGACCTAAACTGCATGATTTTGTCCCATTGTCTTCCCAGCTAAAAATAAGAATCACCATTTCTTAACCAGAAATGGGAGTAACTCTCCATATTACATACTTGCATTCAGGCCTCCCCTTACCATTTACTCTGAGAGGTTTTACTTGTCAAGTCCTCTAACCTTTCCAAAACTGGATGTCAAACAGAGCTGTGAATCACTGAAAGGG
0.4075118890795265 TCTCGAACTCCTGACCTCAGGTAATCCACCCACCTTGGCCTGCCAAAATGCTGGGATTACAGACGTGAGCCACCGCGCCCGGCCGCAATATTTCTCTCTCTAAAAGGAACTGAATGAAGCACTTGGGTTATGATCTTGTTTACAATTTTGAAGGAAAAAAAGAGCTGCAGCTACACAACACTCATTTCTGTACTCAGCCCTCTCCAGTGTCTGTGGCCTGGGAGAAGGCTGAAGGGGATAATTAGGATGCCTGCCACACCCTCATGGCGGTGACAGGAATGCTGAGTGCTTACACTGAGTAAAGTGCCATTATAACTGAGTGCCTGTGGAATGTCTCTGCTTGGCTGTCCCCCCGGCACTGTATACTCATCTGTGACACCACCCAGTCACCCAAGCCAGGAACCTGGGCGTCCTCAACACGTCTTCCTTTCTGATCCTCCATGACTGGCACTAGGCCCGAGGGCCACTTTTCTGTGGGCCCTCCCTGCCATGCCCGGTAGTCTTGCCCACAGTCCCTCCCCTGCACCATTGCCAGCTGCCTTCCCACACATCCTCTGTCCCACTCTTGCCCCCTCTGGTCCGGTCCCCACCCTGCAGACACAATGGGTTTTCTTTTGTTGTTGTTTTTTTTTTG
1 TCCTTGAGGCCAGGAGTTCAAGGCCAGCCTAGGCAACCCCATAGTAAGACCCCACCTCTACAATAAAAATAAAAAATAAAAAAAAGATAGAGCAGCAGAAGAGTTGGTCAGAGATGTAATGAGAAGGGCTCAACCCACCATTGTTGGCTTTGAAGATGGGGGAAGGAAGCCACAAGCCAAGAAATGTGATGGCCTCCAGAAGCTGGGAATGGCCCTCAGTCTACAGCGAGCAAGAAAATGGAGAATTCAGTCCTACAACCACACGGAACTGAGTTCTGCAAATAACCCAGATAAACAAGGAAAGAGATTCTCCCCTAGAGTCTCCAGAAAGAAACATAGGTCTGTCAACACCTTGATTTTCACATAGTGAGATCCATGTTGTACTTCTGACCTCCAGAATGGTAAGATGGTAGATCTGTGTTGTTTTATGTCACAGAGTTTGTGATGATTTGTTACTGCAACAATAGAAAGTAATACCTATGGTCATAATGCATGCATTGCATCAGGCCTTTGCTGAAAGCTTTACATGCCTGGTCTTGTTCAATCTTCACTACAGTCCTGTTAGGTAACTATTGCTGTCGTCACCTCCATTATATGGAAGGGGAGTGTATTCATTTGCTAGGGCTGTCATAGCAAACGACTGCAGACCTTGTCTCCAAGTACAGCTACATTCTGAGGTACTGGGGGTTAAGACTTCAACATATGGATTTGGGAGGATACAATTCAGCCCATAACAGGGATACAGTGTCATAGAGAAGCTGTGTCCCTTTTGCAAGTTCATACAGCCACAGTCCCTAAATGGAAAGTAGGGATTGGATCCCAAATTGGTTGGACCCCAGAGGTTGTCCATTAGCTACTATGCAATGATGCCTCCCCAGGTCCCCAGTCCCAGTACAGAGCCTCTGAATAACTCCTAGTCCCCTGAAGAACACACAGGCGTGCATGCACACACACACATTAGTAACATCCTGACCATCTTTTCCTACTCCATTTCCCTGCTGATCCAGGTGCCTTTTCACAGGAATGTCTGCTTGTGTTGTTTGATTATAAAGTCACTCATAATTTTTGGTTGTCTAGGTTCTTGTAACACTTGACATAAACTAGAAAAGCAAGTTTCCAAGTTCAGCAGCTACTCCAACAGGAAAAAACATCATGTGGAAGGTTGGTGTGCTGCTTAAGAAAGG
0.794126215981575 GTCACTGCACTCCAGCCTGGGCGACAGAGCAAGGCTCTGTCTGAAAAAAAAAAAAAAAAAAAGAAAAGAAAAGAGAAAAGTAAAGCAAAGCTATGGCCGGTCAGGTTGTATGAAGTTCTCACACCTTACACTGTGTGGACCTGACTCCTGATTTCCTCACCACAAATAACTGGACTAACTGGACTAAGGATTGGGAGCAAATCAAAGCCCACTGTGCTATGACCATATGCGAAGACAGCTCCGTGCACAGCACCTTCTTAAGTGCACAGTCCCCACCAGTATCTGAAGAGGCCTGACACCGCAATGCAAGGAATGAAGGAAGGTGTCACACGCGACCACTGCAAAATGTCAGCAAATACCTAGGATCACTGGGACCGCTGCTGGGTTCCAGGGCACTCAGAGGGCCCCTGTGGTCTTTCCCTGGGCTCCGCCTGGGCTGCACGACATGAGACCCAGAAACTCCGTGGGCGCCGAGACTCCGGCACTACCATCACAGGCACCAGCAACCTCCAAACCTCAGCAGCTGAGGATTTTCCTTACATTTTCAAATGAAAAACGCACAGCGTAACAACTGCTTGTCACAACACAGTCTCCCAAACCAAGTGGAGACTTGTCCCTTTAGTGGAAAAAGGATTTGAAGTATTTTTGTGTAGCTACACTCTTCAAAAAATTAGTAAGCTGCACAGATGAGTCATGCCAGATGCTCACAGGAGTTCTGTCTGGAGAGCACTCTCCAATGACGCTGGGAACCGACCTTCAAGAGCAGTCAGCACTCGATGCACATGTGGTCCAAGGAGAATGTCCCCCTGTCAGGGTTCCTGACAGAGCCCTGACTGGGAGCTCGGCACCATCAGCCGGGACACATTTCCCAGCCTTTTAGGCATCTAGGTGGGACCAAGAAATTAAATCTGGCCAACAAAATATAAGTGAAGTGTCTAGAGGCTGCTTTCAGGAATGTTCCTTAAGAGAAAGATTTCAAGCCTGCCTTTCTTCCTCCTGCTGCCCAGGATGAACGCGTGAGGACTGGTGCCCTGGCTAGCACCTTGGGCCGGGAGCAGAGGGCCACATCCTAGGGATGGCACAGAGTAGCCAGAGGGGGCCTGTACCCCTAAGGGCACCCTCAGGTTCTGATGGGGTACAGC
0.6176798443847079 AAGGATGCCATCCTGCACGGAAACTGAGCGGTGGGAGAAAGAGGCAATCAGCAATTCATTCCACCCTGCAAGGATAAGGAGGAGGTCTTGAGGGAAAACAGAACACATTCTTTCTTTACTTATAATCACCCAAGGCATGTACTATTATCCCACATAACACAAGCAGAATTGACAATCTAGGGAGGTTAAGAATTAGTTCAAGATGACACAGTTCATTAGCGAAGAAACAAAGGATAAGACTGGGGTCTCCTGACTTATGGCTCTGCACATCCCCCCACTCTCTCTCAGATGCAACCCAGAATGACAGCTTGAAGACAAGGATTCTTTTTTTTTTTAATCAGTCAACAAATGTGGGTTGAACATTTAGCGGATAATAGTCACTATGTTAGCTGCCATGGTGGATAAAGCTAATATACCTTGCAGTTTTTCCCCTTAGGATCTGACAACCTAGTTTTGTTTCTTTGGCATTGTCTAGTAACACCCAACACAGTCTGTAGCTTTCAGCTGACACTCAGTGAGTGCTCATTATCTAACAGGGATGAATGAGTGGACTGGTTCCCAATGCTCAGCCAATCTTCATGAAATTTCCCTGCTGGCTCAGTGACAAAGAGGAGATATGGCATATGTCAACGGCCTGCAAGTGTCCCAGAAATAGGAGGCAAAAGAAAATACAGCACATAGAGTCTTAAAATAGGAAGACAGTGGAACCCGTCTAGTACAAGCTTGAGCAAACATCTTTGGCTTCTTTATCTCACCTATGAAATGGGAATACCTCTATTTGCCAATTTCATTACAATAATGAGCCACTGCTTCAAATTATCCTCAATAAAATGATTTAATAGTCTTTTTAAAATTTATGCAAATTATAAAGCCGTGGTAAAATTTGCATGGGAAAAGAGTCCCACTTCTTCATTAACGATGCTTCCTTTGGGAATGAACAACCCCGCACAGGGTTATTTCATCATCAGCATGGTACATAGCTTGGACATGTTGCAGCTCCATCAGGCTACTTTTTTTAGGATCCCAAGAGCAATTTCAAAATTGTCCCAGGAAAAAAGGCAGCCAATGTGCTTTACCTGCCCGAAGCAAAATGACCTGGTCCTCCAAGGTGAGGTCAGAGAAGTGGGGAATACGCTTGGCCCATTCAACGAGGGTGAAAAGCTGCTTGTCAGCAGCATGACATATGTTGG
0.6617161952142575 TCATGTGGCACGTGAGCCATGGTGTGTTTCCACCTCACTCCAGGGCTGCTCTGGGGCCTGTGGCATCATGGGGTGCCTCCTCCTGAGGGAGAGCAAAGGCCTCCATTTCCCATCTTCCCTGTCCTCAGAGAATACAGTGTTTTTGGCTTCCCAGCAGAATTCCCCTCTGTGTACCTATGTTCCTGCTCTCATAAGTCCCTGGAGGCGTCCATCTCATCAACTCGAGTCAGTTTCTCGTCACTAACTTACCATACAGGCATGCCAGTCCATGAGACCTAGTGGTCAGCCTGAGGCATGTCCCTCCAAATCATCGGGCCGTGGTCAGTCTTGGCTCTGGCCTTTTGAAGATCACTTGACAAAATCTTGTCAAGATTTACAGTAACAAAGACCTAGAAGCAGAGATGTTATTGATTCTGAGGAAATATCAGATTGTGCATTAGCATCAGTGTGTTTGCTTCTGAGGGAGACATTTGATGGGCACATTTTATTTTGATTCAAAATATGATAATGGCATGCACAGTCCCCATGCTTTCTTGCTGGCACCTTTGCATGAATTGCTGCCAACAGAACTCTTCGAAGCAGTGCCTTCCCTGGCTCTGGGACTCCTCCGCCTGCCCCGGCAGACTCAGGAGGATCCCACTTGGTGACTGTTGAGTGCTGACATGTCTCGATAGAAGGTGTGACTGACTGCTGAGCGGGATTTGCTCTCAGTAGTTTAGTTATGAAGTTCTTGTGTGTGAGTCTGTGTGGTGGTTTTAGCTAACAAATACGTACAGCACAGCCAGGTACAGTGGCTCACACCTATAATCCCAGCACTTTGGGAGGCCGAGGCGGGCGGATCACTTGAGGTCAGGAGTTCGAG
0.1514528650293226 TCTAGTCCATGAACAAGGGCTCTTATTTCTTCCTAAAAAAATACCTCAAATCAGTCCTCTACTCTCCATTTCTACCATCTTCTCTCCTTGTGTTTTGTCTTGATAACAGCAATAACCTTTTACTACTTATCTACACTTACACTTCTGCTCCGCAGCAATCTGTTTTTCCCATCCAGCTAGAAAAATCTTTTAAAAACATAAATGCCATGCTTAAACACTCCAGTAGCTTCTTATTGCACTTTAAATAAAATACAAAATCTTTTGGCATAGCTTATGATCCAGCCCCAACACTGCCATCAAAATTATCTTATGCCACACTCTCCAGCATTCATTACACAGTGGTTTCCTTTTAAATTCTAGGACATGCCAAGCTGTTTCAACCTCTGTGCCTGAGAACCTGCTGTTTCTTCTTATCTGCACATTTCCCTACTTGTCATATGGCTGGCTCCTTGTCATCACTCAGATCTCACAGTAAGTTCCACCTCTTCAGAAAGGCTGCTGCTTAAAATCCTTTCTCCACCAGTGCTTCCTTCACTTCTGCTGTGATTTTCTATTGCTGAAACTTGTATAGCACTGATTAGAATCTAAAATTTATATTCTTATTTTTAGAGCTTGATTTTTGTTTGTCTCTCTCTCTCTCTCTCTCTCTCTAGGAGGTAAGCACCGTAAAGAGAGCTAGTGCTTGTTCCATTTACCAATGTGTATTCGGAAACTTGTAGAGTTCATGGCAGGTAGTAGATGGTCAGCAAATACATAACAAATAAATACGGTGAGAAACATAGTTGTTGAAGGAGTTCACCTGAGTAGGAAGCAAATAAATTCAGTTTTAGATATGTATAAGATGCTTTTAGTAAATAAGGGAGTGTCTGTGTAGTAGTAGTTAGTTATATGTGGGAATAGAATTCTGGAATTTGACTCTAGGGTAATATGTCAGCCAATTCCATAAGGGTGAAAGTAAAGTCAAAATAGTGAAGGAAATCACACCTAGTGAAATGTTGTAGACATGAGGACCCAAGGCAGAGTTCTCAAGTACAAAAGAAATTCAAACACTGGCAGAAGGAAAGAAG
0.8353555214711281 TTAAGCTCTTAGGCTTTGGTGTGATTTGTCTTGCAGCATTACTGTGGCAACAGACAGATCTATTTTCTTTCTCCACCAGCTAGAATATAAACTCCTCGGTGGCAGGAGTTTATCTGTTTTGTTCCCTGCTGTATCCTCAGGGCCTAGAATGCTGCTTAATAAATCTTACTAAATTAATCAATGAATTTGAATCAGACGACTCTAATTTACAAATCAGTTGGTCATTTTGAGGTATATATATATATATATATATAACATTTTTAAATCATCAGAAATTTGAGAATTTAAGCATTAATATATTATAATTCCTATAATTGATAAATAGTTCATTAAGGATATAAAATATGCAGTACATGAAGAAAATATTTTTAATTTACAATGTAATAGTCGATGCTATGACTGATGCTCAGATGAGGATAAACCAACTGAAAGATAGATGAATGAGCTTTGATTATCTGTTCTCTCCGAACTGCTAGGCCTGATATGTACTGTATTAATTATTTATTGCTGTGCAATGAGTTACTCCAAAACTTAGCAGCTGAAAGCAGTAACATTCATTATGTCATGCTTTCTGTAGGTCAGGAATCCAGGAATGTTAAGTAGGTGCTTCTGACTCAGGTTCTCTCATGAGGTTGCAATTAAGGTGTTGATCAAAGCCAGTGTCACTTCAACACTCAACAGGGGAGAACCCACTTCCAAGATCACTCACGTAGTTGTTCTCAGGCCTAAAAAAATCCGCTTCCAAACTCAGTCACATGGGCCTTATGACATGGTAGCCAGCTGGCCTCCTTCACAAGAAAGAACTGGAGAGAGCACCCAAGACATAAGCTACAGTCTTTCTCTCTCTCTCTCTCTTTCTTTTTTTTT
0.6913734398332211 CCTAGGAGGCAGCCCTGGGGTCTCCTTGCAGGTGGTCAGGCCCACAGACACCTGGAGAGGGAGGTATTTCCACATGGCTGTCTCTTGTGCCCGCTGCTCCCAAAGCCCGTTCCCTGCCTGGCTGCGGGCAGGGACCTTCCCCCACAGCCCTGCCCAACCACGATGCAGCACCCCAGGGACACGGGCAGCTGAGGACAGCCGCCCAGATAAGCTCAAGTGTCCACTGAGAGGCTGGCAGGTGGTGACGCTGGGAGTCTCAGTCGGGAGGAGGCCCTGCCCCGGCGCACCTGGCCTGGCTCTGGCTCTTTGGGGCTGCTGTGGCTGTTCAGCCTCACCAGGTGGCCCCGGCTCAGAATAGAGGCCCCCGGCCCTTGGTGGCCCTCTTGCCCACCAGAAAGTGCTGCAAGCCCCCCGCCTCCGGCACAGGCCCCCTGCAGGAGTCCCAAAGGGGCCTGGGATGGGGGCACACAGAGGGCAGGGCCAAGCCCTGGTTTCTGGACTGGCTGGGCCCGGCTGCGTGTGGCCTTAGGAGCCCCAAATCCTCTGGACAAAGCCGAGGAGGAGGCAGCCCCACCCCA
1 CATTGCGCAATAAAAAGCAAAAACACAGTTATAGAATAAGTACACAATTACGGAACGGTCCCAACGTAGAAAACTAATTTATATTATATAAGCCCTCAGAAACATTCAGCTTATTATTAAAATGTAAAAGTCTTGCTATTTCTAATTCTAATGGGTGAATAATATAGCCACCAGTGGTTATTTTGTTGACTATTTAATCACCTTCTTAACCATACGTTTGGATTGTAGTTTCCCATTCTTAGTTATCTAAATTATCATTTTCAACTTTTCTCCACCTAAAAGTTTATTTCTTCCACTTATTATCATTGTAGTCATGAACACAAAGACATATGTATACATATATGTATACACACACACACACACACACACACACACACACACACACACACAGAGCTTATGAATTTTATCTTCCTATTTGTGCTGCCTTCAATTACTTTTAAAACACATTTTATTTCTTTCCATAAGTTGTACACTCACATTTGTGACCTAGATGCCAGACTCTGTGGCTACTACAAAGAAGGTCAGGAACTTTAAGTGCTCCTGTCCGCTGTCAATATCACAGCTGCCCAACACCATGAAGTTAGTGACAGAAATGGAGGGCTGGAATCCAGCCACGGCAAACATGCACACATGAGAAAGTCCACCCTTCAATCAGGGAAAAAAATGGCCTCCAGTGACTTTCTGCCTTCAAAAACTTGTAGGACTATATTAAACTATGGAATTTAAATTCATTCAGACTATAATGGCAAGCCAGACATGGCCATGTAATTTTATCATTCCAATCCCTAAAAAGGGATGGGGACAGGAATGGCAGAAATTGATTCTCATTGTCAATAACAAGAATCCACGATTCCCTTTAAGGATGTTCTCAATATCCTTAAACCTTTTCTACTAATTATTAAAACCCATGATTTTGTTATTGCAAAAAATATCGTGATAACTTTCAGTTTTTGGTGATTAAGAATAAAGTTTCTTTTAGGAAGTCAATTCCACTCCTGACTTTTTAATACTATAAAAAGATCTAAGCAAGTAAGCAAATATGTACGCAAGTATTTTGCGCTGCTGTTTATAATAGTAAAGTACTGAAAAATCCCAAAAATTCATCAATTCAGAATTGGTTAAATAAACTCATGGTACAGCTATGAGTACATGA
0.432922398286473 CTGGAACGTGTTTTTGAACATCTCGCCGGCGGCCTTCTCCTAAGCCGCCCCCGGAGCCGACCTAGGCCCCGGAGTAGATACAGGCACCGAGCGTCGAGGGCACAGCAGCAGGCCGGCCCTGTTCCGAAGAAGGGTGGTTGAGCTCCTGGCCTCCGGATCTGCAGCCACTGATGGCCGGACTCGGACGCGGCAACGCTAAGTCCGCGATCTTCAGCTCCTAAGCTGCGAGCTCAGAACGGAAACCACAGCAACTACCGTCCGCGCCGCGGTATTTCCCCGCCTTCAATGGAGGCGGAGGGCCGCCCGTTGCTTAAAATGAATCCCTCCGCCCATCTGAGCCCGCCCCCCGGGAGCGCGGGGCCCAATCCCGTTACAAGGACCACGGACTTCCGTTTCGTTCCGCCTGTAAGTCCCGCCTGGTCCCGCCTCCTCCTGAAAAGAGCTCAGTTGTCAAGGAACTATTTTTCTTGCCGTCGTCCCAGAGATGCCTTTGGAAAAGCGGAAGGGCACGGAGGGTTCTGGAGTTCGTTGCTGGCACCTGCGTGGTGTCATGAGAACGTGGCGGGGCGGTGAGTGACGTGAGGGGGCGTGACGGCCAGGCCGGGAGTAGTTGCCCGCGCGGGAGAACAGGGGCTGCGCAGGGAAAGCGGCTTTGAAAAAGAGCTTCTTGGCGTCGGGCGGACGCCCAACACATGCTTGTCGGCCAAGTACAGGATAAGGTTAAAGGGAACTAACCAATATTCAGCACTAACTGTGATAAGCGCCTAATATACATCCCTGCCTGTCATTATTCACATTGTGGCATGCAGTCAAAGCGACACTCTGAGGAAAATGTATCGCC
0.549100779396968 ATAACAGGCTCTTGGATCATGCAAAGGAAGTAGAGTAATAAAGGACCTATGAGATTCATTGACATTGTGGTTGTCGAAGGAGGCACCTTCTAGCCAGAAAATGGAAGATTTCTTTCCAGTGATTCATATGTATTACCCAGAACACTTTGACTTCCTGGAATTTAAAATATAAACTCAAGTCTCTTGGCAATAACTTTTAAACACTGCAGATCACTGGCTTCTCCACTCCTCTCCCTTTTCCCCTAACCCCGATCCTTTAAATAGATAGCAGTATACGTACATGTTAGGTAGCTGTGATGACAAAAAAGTTCAAAATGATGCACAGAGTGTACCTTCTTTCTTTTCTGTGATACTGTTGACACATTCTCAGTCCAGCACAGTATAACCATGCAATAGGAAACACAGTTCTTTGGAGAGCTCAGTTAAGTGAGATGAAAATACCTATCGTGATTCTGTGTCTCATGGCCAGGCAGGATGCAATGACATGGGAATGCAGGGGGCCTAGGGTCTGCCTAATCTCAGCCCTGTATGTGCTTCTGTGAGTGAGGGAACAAAGTACCTGCCTAGCAAGCTGTGGCCTGGGTGGTGACAGCTACATTTTGCTTGCTTCCCTCTCCTAAGTGAGCAGTATACTTGCTGCTGTGGCTCCGCAACTCAAGGGCGTCCTATCACAAATAATGAAAAATATGGGTCCTTTCAGCATACAGATGACTTAGTGGTAATAGTCCCTTCGAACCTTGAGTGCTTGCTTATAAAGTCAAGGCCCAGCCAATCCAGCAGCCACTTCACTGAGCTCTGGAGTTTGAGTTATCAAAAAGCTGTCACCTCTTACACTTCCTGTCTAGCACCTTTTAAAGGTAACATCACTGCCTCCACTTCCAAAAAAGAATTTCTGTTCTCCATCTCTTCTATTTCTTATTCTTTGTGTCCAATTCATTCAACTCTTAAAATAATACTTTCAAATAATATCCAGAAAGTCTGGTGATTGTGCTTCTAACCCCCACCCTCCCCAAACCTAGTGAAGCTGCTTATTTCTCTGCCTCTTGGATCTATGGGTGGTCCCATTTAGGCTTCTTTAGTTTCCTATGTCATCATCTTCAGGATTATTAGAGAAGAATTCCCAGATTAAAAGTATGGAGAAAGATTTGATTCGGAGCTGGAAGGAAAGGAAAAGTAATGTTCACTGAGTACCTT
0.6555883157117761 TGGGACTTTTTCTTTCTTGTACAGCTTCTGAAATATTTAAATTGCTTTGTTTAAAAATATTTCTCCTTATTTTTCCTCTCATTTCTTCAAGAATATATAGCTATAATAAAACCATGATACCCAGAGTTCAAGAGGAAAAACAGCCTCATTATTTAAAATAAGTAATAATTATACATATATCGAAATGAATACCCCATTTTGATGGGTCACATTCAGAAACCTTAAAGGCACCTCTATCTGGGCAATAGTTCCTTTTGGACTAAAAACAATTAGGCTGTGTAATTTTGTGCTGAATCCCTTCAGATAACTGTGTACGCACAGCCAGGCCACTTTCTCACTGGCATGGAGGCCAGGGCTGTCAGGCCCACTCCTCTGGTTAATGTCAGTAGCACTATGTATAAAAGGTGACTCCAGTGTGTACAAATGTTGATCTTTAGAGAAGTCATGCCTAGACTCACACACACATCCACTCTTTTGCCCAGTAGGTCAACAGCAGGAACAGAGGGCAGCCCAGGAAGGGACTTGCCAAGAGCAGAGGCTTATTTGTTAGGTTACATAGCCCTCGGGGACTTTCTTGCCTGAGATTAATCCATAATCCTGTTTCGTGTTTAAAAATTCAGGTTCTAAAAGCCTTGCCTATGAGACATTTTCAGAGGTGATGGAGAAATGTTCTCATGTACAGCAACAAATTAAGTGCCAGTGCAAGTGAGCACTGACAAGAAAGGAACTGTGTGGAATAGGTGGCACAACATTTTTGCCCTCATCCAAAATCATTTCTTTAAAGTTCCAAAATGGATACAGATCATATTTTAATGGCCAGAGTACCATAGGTAAAAATAGAATAAACACACACACACAAGTTGAAACCATCTATGGCTTTTCTGATTGCTGCACAAGTAAAGC
0.2606638226185351 CTCTTTGAGTGTGAAACAAACCATGACAGTTTAACAAAATAATGGGCCAATGTAATAATATGTTGTGTTGCTGTAGTTTATTTTGAGACATATTTGATGGAAACGGATGTGAAAGGAATACAAAGGTAGTTGATCTGGAGTTCAGATTGCATTAAACATAGCATAATATTTACAGCCATGTTATGGTGATACAATTAATATAGTAGTATATTAGTCAAAATGTCATATTAGCAGGGGCCTAAGAGAAGCCCTTGGCCTTGCTTTAGCCTCATTTTTTGCAGTAGTTATGATCTGTAAACTAGCTGCACACTGGATTGCCAAATATTGAACTTTTGCTCCTGGGGGAAATACATGGTTAGGTCCCCTGTAAGTCTCTAGTTACACTATTTTCATTAGCTTATTAGCATACATCCTTGTTTTATGTGTGTTACTGTTTAAAAACTCTCATTCTCTCTCTCACACACGTGCACACACACACACACACACAGAGACAGAGAGAGAGAGAGAGAGAAAGAGAGATTAACATTGCACTTACAGCCAGTGGCACTCAACCAACACTCTAACTCGTCTGAGTGAAGCTTATCTGACATGCATATTTTCTTATAAGGCTCATCACTGCCTTCTGCTTAGGGACATTAGACAGCAGTTCAGCACTACAGCTGGGGGCCATTTTAAACAGTGAAATCACCAAGGAAAAGCACAAAAATGCAAAAGAATTTATATATGGCACTAAATAGACCATGAAAGGGGCACTTGTTTAAGTGTGACAATTGAAACAAGGCAAAGCATTGCTTTGTTTGTCCTCAGCTGGGAACATGTGTATCAGATGACTCAAACTGCTTGCTGCTCTGCACAGGTTAGTGAATGACTATGAAAGTGCTGTATTACTTTGGGACATAGGAATAAATTGTAGTGAATAAGAAGATTTGCAAAACAGGACCTGCAAACATTGAGGACTGCCTGTGTATCTATTATAAAATAGACTCGTTATTCCCATTCCTAAGATTTGGGCTATGTGCGTTTTTCTACTTTATCTCATTCTTCTCCTGTTGTTGTCATTGGATACAGTTATTGCTGCCGAGGTTATGTCCTGTGACCACTAGGCTTTGTTTGCTGTAAGCCATTTCTTCAGATAGGAGAAAGTTGTTTATTGGGTCTGGTTTGGTATGTTAGCATATCTGCACAGTTCAGAGCCCACTCCACCCCACTTCTATCATTAATGAAGTGAGAGAAA
0.5885348628487419 TGCACCCAGCCTCTCTGCATATTTTCTAAGTAGCTTGTTATTCTGCATTGCCCAGACTTGTTTCTCTGCCAACCCACCAGTCAGTAAGTAAATTAATTAGGTGATAAGTGATTCCTTGATCTTTTTATTATTACTATTTGGTTATGATGATTAAAGCAGATGGTCATCTGATTGGGCATAGGTCATGCATGCAAAGCAGCTGCAGTGGTATCTCAGGATTGTTTCCTTATCAGAGACCTGCCATCCAGGTGTTTCCTCATCTTAGGAGCCGCCCTCTAGGTTTCCTCAAATTGTGTCTTTCAGATGAGACCCACCCATCGGAGCCAGGCTTTGAAGGAACTGACCGCAGTGTGCATGAGGAAGTACTTCACGGTGATGACCCTCGCCACCCTCTCAGGAAAACACAGTGACCTCTCCCCCAACATCCCCTTCCCACTCCCAGGTCCCCCGGCAAAGGCAGAAGAACCAAGCAAGCCTTTCCACCAAAGCAGCCATGAACCCCATTCTCATCCTTTCCAAGAACTCTCTGCTATACCAGATAGGGGTTTGGGGTTCTGTTTTCCATTTTTTAAAAAAATCATTTCAAGACTCTTGAACAGTGTGTCGGTTTACACTATTCTATCTTCTTAAGCCACCATATCAACATATTCACTCTGCTTCCTTTCTTTTCATTTGGCAGATGCCACACTTTTAATGGCAGCAATAAAAGGTGTTTCTATCAATGCCAGGTGGGCAGCCCTGACCATCTAAAGCCTCGGAGAGGGTTATACCAAGTCTCCTGTACACCTCCGTGCTAGTGACAACATGTGGGGACCTCTCATCCCAAAGTTTTGGGACAAAGTCTCCCGTCCCTTATCATTTGTTTTCACTGAGGCTAAATGTATCTGTTCAGTACATGGATAGATTTTTAAGCTCCTCTCACAAAGTCTTGTGCTTGAGACAAAATCAGCCCAGGTTCTGCACTTTGTCTATATTTCAGCAGCTCTCCTGCTTGATATTAAAAATAGCCTTGTCTAGTCCATCGAGATCAGACCCAGGAGACAGGCGCCTGCTATTCTAATCTCTGCTTCACAAATAGCTCTCTATGGGCTCAAGCATCTATCAACACTTCCAGGGGTCTCCAGTTATAAAACAGGGCCAGGCCTAGTCACCTATAAAGGTAGGCTCTGCTTAACTCCCCTGAGCTGTCCATGAGGTTAGCATGAGGCCTACAACAATCACATTTCTACCATGGACCAGAGACTTCCAATGGTGACTCAAAACTGAGAAGCAGTTAAGAGCATCCCCCACACTCAGGGTATCCTGCATTTCCCAGGCCAGAACCTACAAAAGGTTCCCTTGAGACTCAAACTCAAGCAGCACTGGTAAACAGGCTGCCCCTCCCCGCTTCTTCCCTCCTCCTGCAAACCACCCCCC
0.5157396520567026 CATCCACAATGATTGTTTCATCACAGCTTAGTTCTTAATGAAAATGGCAAACCACGGTTCTAATGACATAATTTCATTTCAAGAATAGTGGCTTTCATGTTTAAAAAATAATTGGCTCTTTAGCACCCCCTTCAAGGTGAATTACTCCAACTAGAACTGAGAAGGCAACGCTCATATTGTGGGTCTGCCTTGTGATGATGATAATGACAATGGTAATGATGAGAAAACAAAGAATTACTGAATATTGGCTCTGTGCCAGGCCCTGTGCTAAACATTTGACACATAATTTATACATTTTAGCTTCACAACACTCCAATGAAGTGAAATAATCATAATTCCTCTTTCACTCATGACAAGAGGTTTAAGTGCCTAGTTAGTGGTGGAGCTGGATTCATAGTGGGTAATCTGGAGCTCTTAAGCACCATGTTACCACTGTTGACAGCAGCTATTACCTAGGCCAGTTGATAGAGAATATTCAAATGATTGCCTTTCATGAGGAGTTTTGTCTTTTATTGCTTATTTCCATATCTAGCTTTGGGTAGGAAAAGAGAAGTAGGACAGATTTTCACCAAACTGTTACAAAAGACATAATTGAAACAATTGTTTACTATGCTTGTATTCTAGATAATGGAGAGGCAATTGCCTAGCATAAAATTGCAAAGCCATAATGTATGTGGTTCATGAAACCATGGCTGTAATTGCATGGCTTGCCTTAGATATTAATTTAGCTGCATTTGTTATTACTTGCACAGAGAGTATTCATATTCACCCTCATTTAAGGCTATTATAGACACACTAGTGACTACCACAGTTCTTATCGTGTCCACTCTCTCACGTTGTGTTCACACTAGAGGAGAGGTCTGAAGAATAAAGGTTATGTGGAAATTACACTATCAAGGAGATGAATCCAACAGCCTGCAGCAGTGTTATCCAGCGAGCAATGGATTACATGTGTACGTGCAAGCTAAATAATGTATGATTTAAGACAATAAGGTAGTATGTATTCATTTTTGGATAGTAAAAGAGATGGCATGTCAGTCCCTTGGGAGATTTTATCCAGGGCTTTACCCTTGAGTGGATAAAAAGAGTACAAATTCTATTGCATAGGAGGTGAATAAAAACAAACTGGGGAGACCATCAGCAGAACAGACTGCTGTGTGATGGAGTCCAGAGCTACTCCAAAACCACCAGACCAACTGCCTCAGGATCCTGCCAGCAACCAGATGCCGGCAATAGAACTGACTGCAGTTTGGCATCAGGGCTCTGTGATTTCCAGCCAAGGGGAATTGCATGCAAAAAATATTTAAAATTCTCTTTGTAAAGAATTA
0.4320289638761399 TTCTATGGTTTTTACATAGATACAGATCTGTGTAATCCACTCACATAAAAATAAAGAATTTTCCCAGCACCTCAGAAGGCTCCCTTCCCTGTAAATGCACACACCTCCTACAGATGCAGTCACTGTTCCGACGTTGATCATCATAGATTAGTTTTCCTTCATCTTTCCTTTCATGTCAGTGGAACACACGGTGCATAGTCTGTCTGTCTGTTTTCCTTTACTTATCATCGTGTTTATGAGATCCGTCCATGTCGTGTGTACTGGTCACTTGTTCTTTTTTATTGCTGTGTAGTAGTCCATTCAATGAACATACCGCAATTTATCATTCTCCTGTTGATGGACATTGGCTGTTCACCATTTGTGCTAGTACCTAGAAACATTCTAACGTTTGCCTTTCAGAAGTTCACTCCAATTACAAAAAAGTTTAAATCCCCTACAAACAGCCATGTGTTAACTTTTAACAGTACCCAGTTATTTGGGATAAAACTCATAACTGCTTGAAACCCAAAATGCTGGAGGCACCAGCCACTGCTGACAGCCGAGAGAGAGTGTTGAAAAGCTTTGAGCAGGAGAGTGATGCAGTGGTGTCGGATTTCACAAAAAGCATTCAGGCAGCAGCTGAACACCACCATTTCTGTGACTGAACTGATGCCCTTTCTGGGGGGCAGCCATGTGCTTTGGCCATTGAAAACACAGAGGGTGTGATGGAGAAAAGAGAATGCCCACTGTTGTTAGTTTTGCTTTTCACTCCTGCCATCTCTCATTCCATTTGGAGAAAGCCTACAGCTGAAATTAAACTTTCAGCTCTAGGGGCAAATCTGTTTCTCCTTGTCCTGCGTCTGTCAGAAATGATATCCATTCCGCAGACTAATGTCCCTGTACCATGGTGCAAGCACTTCCCTGCCAGCTCCAAAGCCGGGCACCAGGGAGAGCACAGGGCACTGAGTTCTTGCTGTCCACACCCTGTGCAGATGACCAGGGATCAGCCACCTGCCGCTGTCTCCCAAGAAGAGAAGACAGAGCAATGATGGTTTCATCAAAGCCCCTGAAAGGGTGGGCAAAGCTGGCGTAGGCTTGGCGGCTAACAAATGTGAAATGGGAAGTTTTGGGGGCTGTCATTGGAGCCTTTTTTTTTTTTTTTTTTTCCTGAGAAGGAGTCTCACTGTGTCGCCCAGGCCGGAATACAGTGGTACGATGTCAGCTCA
0.3381611114015656 GGGATTACAGGCATGAACCACTGCACCCAGCCACATAGCCTAAGAAAATCATTTCAGGATAAATAATTCTCTTAAGATCACTTCAGAGGTCTTGTGGCCCCTTGCTTGATTTAGAAGACATCTATGGAAAGTAGATGAAACCAATAAACTATTCCAACCTGAAAAAACGCTCCAACATGAAAACCTAACCATGTGTGAAATACCAGCTCCTATTAGCCGCTGAAAGGGACTGCAGTGAGCAGCGGGCACCTTGCCATTCCCAGAGTCCCCACTGTGCTGACAGGTGCCATGCCCTGTCAGCTCCCTGGGGCGCCAGTGAGTTTCTCCCAGACTGGGGTGAGTGGGAGCACGGACGGCTCTTTGAGAGAACGTGGCTGCACAGCAGTGAAGGGAGTCACGTTCCCTGCTGCCGTGGCAGCTCTCTCCTCGGCGCCTCCCTCTCGCCCGCCGTTGCCCCGGGCACTCACACCCACTTTTCTCTCCCTGCTTCCTTCCCTGACAGGCGGCTGTGGTGCTTCAGGCAGCTTTCAGGGGACATCTCACGCGGACAAAGCTCTTAGCAAGCAAAGCACATGGCTCAGAGCCACCCAGCGTGCCAGGCCTCCCAGACCAGGTAATGTCGGGGTGCTGGACGTCCCAGTGGCCATCTGCAGAGCTGCTCGTCTCGCACTCCATCCATCGAGAAAGCGTAGGGCACCCCTCAGCCTCCACATCCCCGCCCGCCCAGCAGGCGTCCCCTGCGCTCCATCCCTGGCCACGCAGGCCATGCAGGCTTCTCTGCGCAGGCCCCTCTGCACAGGCCCCGGATGGATGTGGCGTTAGGGCCAGATTGCGTTAAGCTGCCGGAGAGTCAAGTAGCTCCATGAAGATGTAGCTAAAAACTACTAAAGACAGATGCAGGCCATTGCGGCCCCTCCTCTGTATTGAGGACCAGGT
0.4236356269958388 TTTAAGATGCCATTAGGAAAACCAAATTAAGGCACCTTGCAGGGAAATTGCACATGTAACATCCTGGCTTCTGGGATTTGAGAGGTGGCTGCAAAGAGAGAAAGGCAGTAAGGGATCTCCAGAGAAGGAGATCACACAGGAAGGAAGTGAGGGATGGGAAGTCATTGTTGGGAAGTTGAGGGTCAAGGACATTTAGAGAGCAGAGGGAGAAAGAAGGGGTGGCCATTGCACTAGCCAAAGAAAATGTTCAGCCACTCGCCCTGCAGGGAAGGCGAGGGGCAGGGTGGCTGCGCATAGATGTGGAATTAGCCGGACTCAGGGTGAAGCCATGATTCTGCTAGTGTGGTCTTGTAACCTGGGACATCTATCTGAGCGCCCTGTCAGCGCTTCTCTGCATTGTAAATGGGAGTTGTTGCAAGGGTGAAATAAGACGTAAGGTGTTTGGTGCAAGGTCTTGTGACAACTAGCACTAAGGAATGGTGCCTATGACCTTTATTAGGCAGGAAGGAGTCAACAGAGTGAGCTGCTGCTGCAGGGGGTTGGGAGCTCTTGCAACGGTGGCATCGAGAAGGTTGTCAACACAGCCCTGTCAACGGCTGAGGGTGGCAGAGTCCATATTGCAAAGGAGCACGGCATAAGTGGCGAGGCAAGAAGTAGATGGATGTTCTATTTTTTCCTTTCTCTATCTGGACAAAGGTCTTTTTCCTTCCAAGGTGTAGCTGGATTTTCTCTCTATAGAGCTTCCCTGGGGCGGTTCCATTTTCTAGTGTCTCCATGAGTCTTTGTTCTTTATATGAGGTCCCAATGATGCCATCCACTCATTTGCTTTCTCACAGGCATGTTTTCCACCAGCCACCCACGCTGATTAGCTTGAGAGTGACTCAAGGCAGGAACGATGCCCTTGTCGTAGAACAGCCTCTGATCGAGTGCTTGCTGAACAGCTGGCTAGCTCTGAGCATGAAGCAAAATGCAGGAAGCTGGGGTGTGTGAGGAGGAGCAGGGACAGCTTAAAGAAGAGAGGAGGGAGAGGAGGGGGACTCCTGCTTGGGGCACCCCACCTCCTGGATATGAGATCACTTGTGTGGAGCAGGCCTAGTAGCAGGTAAGTGGGCCGAAGGGGAGGGAGTGAAAAAGTCCATGTATTGAGTCACCTGAGGTGTCATTTAAAGAGACAGGAATAACAAAACATCAATGGGACCTAAGTTGAGATTAGAATTACCGACTTGACTTGTAGTGTCACCTGCCACCCAGGGTGAGGAATGTCCCTTACCACAAGGTCACCTGGGG
0.6798987359524952 CGGAGCAAGACTAGCAAGACTCTGTCTCAAAAACTAAATATATAAATAAAATAAAATTAACAGTCTGCCTCCTAGACAATGCCAATCGTTAAAAAGCTGCCTCTCACAGCTCTGCTAGCCTCATGAATGTATGTCAGGAGTCTCAAGTTTACCCCTCAGACACAGGTCAAAATTATCTCTCCACTGTCTCCCAATCCCCAACTTAGGAACTTCCCAGGATTCCTGACTTTTACTAGACACTCAGCTTCAGACCTAAATTAGAGAGATAACTTACCTGCTTTTCACGATACTTTTGATACAATCTCATTCCACCTTCCACTCCTCTTTGTGAAACATTGGCATCATTGAGCTTTGCACCGGTTAACATTTTCAAGGTTCAAGACTTTGTAGTATCATCATGAGCATGTCAAATGAGACTATGTATATCAAAATATTTTGTAATCTGTTAAGTAATATAGAAGTGGTTAGATCAGCCAGATACCAGAGCATTAAGACTCTCTGCAGAGTTGTTGAGGCTATACAGTCTGATGTCAGAGCAGGAGTCTCAGCTGACACCCTGAGCAGTTGACAGCGAATCACTTGAGGGACTAAATATGCAAAGCTGCTTCAAGCTCCAGGTGGCCCAGTGCCCATAGGCACGTTTGGATCCATTGCCTTGGAATGCCATCCCTCCCAAGAGGGATTGGGATCATCCAGTAGCCCTATCTAGTTGAAAAGATCTACAGAAGACTACCAATGAAAAGCCACTATCACACCCACACCCACGGGACCTTTGAGTAGGTCTAGGTAGGCGTACACTTTACCAAAAACCAGGATTTTTATGACACTAACCCTAATGATCTTCAACCTATAATAACTGAAGAACCAAATGTCAAACACAGGTCTGGTACTTATGAAACCATTCTAACTTTGAACCAAACTTGGTTAACAAAACTTCAATTCTGTATTGTCCAAGGGACCTACAGAGTGTCCACTATGTGCCATGAGCTTGATATTTAGCCAAGTACATTGCCTGCATTGTACTACATAAGACTACATCGAGTAGTTGGTCACAGCATTCATAAGCTAATGGCTACCTCAAGGCCAAACATAGGACACAAAATAATTACAAATCAGTGCAATAGGCTTCTGTTAGAAATGAACAGATGGCTCGAACAACCTGAATTTCAATGACAAAAAAGGCACAACTCCTGCATACAAGATAATTTCGTCTTTCTCTTCTAATTTTCTGCAAATACAAAATGAAGCAACTACATTTTCCATTTTAAATGATATTTAAATAAATGTTGGTAT
0.8603172014669282 TACCCTACTCTTTATTGATTGTCTCACACTGATTGATAATGGTCAGTTCCTCAGGCATACCATATGTCTTTAAAATATTATAAAAAACTTTGTAAAGTCTTTTGTTTTATAAACAGCTTATCTGGGCTAGGCCTGGAGCATATTCATAGACTGTCCCTTTATGCAATTCCTGGGCAAGTGCATGGCTTTGAAAAAGACTGGAGCTGAAAAGCATAATGTGTACTTTTGGCCTGGGGATTCTTTATAGAGAGTATGCAGATTTCCCCAAGGAAAACTGATTTTGCATGCAAAAGCTGTCTCTATAATTATAACAATTTCCTCTTGCCCTTTTTAAAAAAAAATTCAGCTTCTCAAATTGGTACGTATAAAATTTTACCCTTTCCACAAAAGCAGGCCTTGCTGAAGGAACTGACTGCTGAAAAATCTCATGCCAAGTCCCTAAAGCAGCTAAAGGGAGACATTATAAGTTTTGAAATGCAGCAGTCTAGGAGGTGAAGGAATGGCGGTCCTGTGAGCCTTGACATCAATTTATGTGAGTGTGTGTGCAAGGTGCCATCCCACAGCTTATACTTAGAAGAAAAATGGACTCTTTAAAGTAAAGCTTGTTAATTGAGTTTTTCTTTTTCTGAGGGTTGTGCTTACATGGTTTAAATTGTAATAAAAATTAAAATGCTTGAAATGTTTTAGAGTCGGAGCCCTTTGCTGCTTTAGCTCATGGGCACCTCCAAGAATGCTTCCTCAGATAGCAGCACAAAACACTGGCAGTTCTCCAAGAGAACATTCTTTGAGAACCTCACTGTGATTGGGAAAGGGAACTTCACATTCTGATTGTGCAGAAGTGCCCGCGGGATGTGTAGTCTACATTCTAAGGTTGCTTGTTGTCTTCCATGGAAAGTGTTATTTTATTATATCTTTCAGATATGTTATAGGTGGGAAAATCCGAATAACTGCTTTTATCTTGGTCAGGAAATACAGGGAATTGGTGTACTGGGGAAGATCACATATTACGAGACACACTTTAATTACCTTTGTGGAGTATTACTTTTCTAATAACCAAACTTGTTAAAATGCTAAATTTTATTTGTGTTTTAATAACCCAGATTGCTAAATTGCTAAATAATCTAATATACTAAATTGCTAAAATAATGCCAAACATAATTAAACTTTCATTTGGTTCTGAACAATTTTCAGTGTCCCCAAGTCATTATCAATATTGCATTAATGTAGAAATCTAGTCATTTGGCGTCCCTATTAATAGAATGCCAAACAAATTGAGTCAGACATATATACCTAGTGTTGTGTTGCATGCAGCAGGGTAGAAAGGGAGTGCCTAATCAAGCTCACAATGTGATTTTTGCTCAAGTTGTGATGTCTGGCCAGG
0.7977139709177965 CCTGTTCACCTCCCCTGGAAATGTCCTCAACCGTTAGCAAGCCCTGCAGGACTAACTTCCGTTGCAGGCATCATTTCAATACCCCTGTCCTTTTGGGAAGCCTCCTCAAGTTCTCCAAAAACCTTCTAAACTGCAACCACTCAAACCAGTCACCTTGCACTCTGACAGGAGTAAAAGAAGAGGCGGAACTAAATGAGCCACGTCATGCTTCTTCTACAATGACTCTGGACGTTAGGTCTTTGCCGGGTGACTGGGAGCCGACCTTGTATGGCTCCAACACCACCCACCCTCCACTCACTGCCTCTGGATTAAGGTGTCCGTATCACAAAGGAAAGAAATGGACATTTCCAAGTACCTTCTATGTGGGCTTTCAGAAGAATGAAACGTCTGAAATGTCACCTTGAGTGGGTGACAATGACATGCAGATTTTAACATGACAGAAGGGAGAACTTCCAAACAATCCAACAATACAAGGGGCTGCCTCAAGTGGAAATGAGTTGGCTGCCTTGGCAGCTGTTTAAGCTGAGGCTGCTGTGGACTATGACTAACTGGGATATTGTAGAGCCATCCTTCTTAGACTTTAATGTATATAGCTATTATTTGGGATCCTGTTAAAATGTGGACTCTGACTTGATACACCTGGGCTGTATTGTGAAATTCTGCATTTCTACTTGGTAGTGCTGACACTGCTGGTTCACAGACCAACTGTAGGCGGCAAGGGTGCAGAGGACCTCAACTGCCCTACACTGAGATTCTTTGGCTATAGTATGCCAAGACCGGTGGTCTGGGTCACACCTCATGAAAACAAAAGTTCTCATAAAAAACAAAATATTTCCAAATTCCAGCTGGTGGCCTCATGACCTC
0.7982892496309693 TAAATGCTTCCTATCTGTACTTCTCTGTGGTAGGTCTCTAATTCAACCCACCATCATTTGGCTTATCTTGGTCTTCAACCCACCCCACCACAGCCCACCACTCGACTGACATTGCTCTCCTAAGACTCACAATAACCTTAGCAGATTCAAATTCAATGAATACTTTTCTTTCCTTATCATTCTGTATCTTTTTTTTCTTGATGTACTAGTATTTGATGTTGATTTGATCATATTTTCTCTCAGTCCCACCTTGGCTTCCTGATGGGTTTTCTCACCTTTTAGGTTTTCCTCCTACTGCCTCTGTTTCTTCCTTCTCAGTGTCCTCTCCTGTTATCTCTTTTACATGTTGATGTTCCCCAAGGTTCAATCTCCTGCTCATTTCCCTTCTTACCCTATGTACTTTCTCTGAGTGGCCTTATCCAAACCTATGACTTCAGTGGAAACAATCTTCTAGTGACTCTCAATTCTTCACATCCAGCCCAGAACACTCTCCTGAGTCTGTCATGTGAATTTCCAACCAGACTCTCCTGGATACCTCAAAGTAAACCTCTTCCCCATTTCTCCTTTCTAAGTCAGGATGAATGTCAGGATGAATGTCACCACCACCTGCCTTTTGTCGAAGTCAGAAACCTGGAATGTTTCAAGGACACCTCCCTCTGTTTCACCCTACAATGTAATTAGTCATGAAGACCTGTCAGTTCTGTTTTCTAAATGCGTTTTCGTAACTCAGCCTCTCTTCCCTGTTCCCACTGCCATAACCTGAGCCCAGGCTTTTGTCATTTATTGCCTGGGTTACTGACACTACCTTCCAACTAGTTTCTTTGCCTTTAGCCTGGCTTTCTTCCAATTCATCATCTGTGCCACTGTCAAGGTGAGCCTTATAAAATGCAAATTAAACTATGTTACTCCCTTGTCTGAAATATTTCAATGGCTCTATGTGGTCTGCAGAATAATGTTCAAATCTCTTAGCATTTCCTACCAAGTTCCTCCTGGCCTGGCCTCTCCAGGCTCATCTCCCATCAGTCCCTCATAGCCATCCTACACTTCAGACCATCATCTCTCCAATGCTGTTCTGAAGAATACATCCTCAAAATATTGAAGAAAGTTTG
0.2590917506621278 ATTTGAGCTGAGACCTGAATTATGTGAAGGAGCCGGCCATCTCAAAATCTGGGGAAAGAGCCTTGCAGAAGAGGGAGTAGCAAGTACAAAGTCCTGAAAGTAGGAATGAGCTTGCCATGTGTCTAGAGCAGTGCTGTCCCATGGACCTTTCTGTGCTGATGGAAATCTTTCATTTTGTGATATCCAGTTCAGCAGCCAATAGCTGCTAAGCTAAGAACTTGAAATGTGGCTATGTGCCTGAGGAACGGAATTTTAATTCCAATTTAAATAGCCACATGTGGTGTGTAGCTCACATATCAGACAGCATAGGTCTAGATTCCAGAAAATGAAGGGGCGAGGAGTACAAAATAAGTGAGGTCGGAGAAGTAGGTGGGAGCCAGATTGTATAGGGCCTTGTGGGTCACAGTAAAGAGTTTAGATTGTATTTCATTTGCACTGGGAAGCTATTAGAGGGAGTGATGCAATCTGAATCCCATTTTTAAAAGATCGCTGACAGCTGAATAGTCCATTGAAGTGTCAGTGAAAAGCAGGGCGAAGGCTGTTGCAGAGTCTGGGACAGCCTGGACTTGAGTGTTGGCAACAAAGACAGGGAAAAGTAGTCAGGGATACATTTGGAGATAGGGCTGACTGAATTGCTGACAAATTAAGTATTGGAGATGATAAGGAAAAGAAACTCAAGTTTTATTGCTTGGCTTAATCATTTAGTAGAATGAGAAAATCTGGGAGAGTAGCAGAGTTGGGGATATGGAAAATAAAAACTCCTACTGTGGATAAGTTAAGTTTGAGGCATAATCATTTAATCTTCATGTCTTTGCCATATTCAGATAACAATATCAGGCATCTCCCTCCTTGTCCAGTAAATCACCTTACTTCTAGTTTACCTTATGTGTGGGGAATTATCTTTTTATCCCCATTTTTCAGGTGAGAAAACTGAGGTTGGAAAGTTTAAGTGACTTGTTCAGCATCTCACAGACAGTAAGTTGCAAACTATGACAAAAATCCAGGTCTGTCTGATAGCATGTTCCATGGCTTTCCTTGCTAAATGGAGTTTCATGGTTATATAGATACTATG
0.2795090546265732 CACTGAGGATTTTTAAAGCAGGTGAATGCCACATGAGCACAGCTGTGGTTCAGGAATACTCATCTAGAGGCCGTGGGAGGGAGGAAATAGAGGGCCTGGGGATCCCACTGCCTGTAAACTGGTCTGCTGGTGGCATGATGAGGAAGGCAGGGGTGAGGTAAGGAGGAGCCAGTCTTCGAGACATGAGTCAGGAGCTTCAGGATTTCAGGGTAAAAGGAGGATCTCAGAACCCCAGGGGCTGTGATTAGGAAGTCCCTCTCATCTTGCCCAGAGTGCTTCCCTTGTCGGTGTCCTGCAGCCAGTGCTGAAAGTCATGATGCTGACAGTGCTGCTTAGGCCACTCTGATTGTGGACAGATAAGCCTAAAGGTCTTTCTTTAATATGCCACAACATGAGGCCTCTAATGTCACAAGTTTCCAAATAACTGTCCTGTCCTGACAGCTGAAGGATGAAGGCCATAAGTGTTTCCAAGGCATTTAAGAGCACCAAGAATAACTGTCATGAGGACTTCTGGATTTGAGTTCAAATGGTATTGATTTCAAAGTTTCCCCTGTACTGACAGCCCTAGTAAGCGTGGATTCACTGGGTTTATTCCCTGCCCACAGTGCATGATGTCAGTAAATTTGGAGAATTCATCTAGACAGCCAAATGAATCAAGGTGACATAAAAAATAGGCCCTGCAATGGGAGTGATGACATTTTAAATACTTGGTGTCAGGAAAACCAGAAACCTGTCACCAAGCATTTAGCATCGCCTCTCTTTTTGGTCTTATCTTCTGGGGCCTCAAACAATGAAACTGTGTTAATGGGAGGTCCTCACAGAGCGAATATGCACTGGCCGGTTTTGGAGACATGTAGTCAAGTGGTGGAAAACGGAACTGGAAAGGTGGTATGGGTTAGAGTTAGGAGGCTTAAACAAAGACATCTAGCTTTGATGTGGTAGGCAGCAAGCAGCCAATGATTATTTCTGAGCACAGAAATGAAAGTAAGTTCTGTAAAAAAAATCACAAACAAAATAAAAATTTAAGTTGGTTCATGATGTGATGCTGGTTGCTGGGCATTTTGGCAAAGTTCTCCAAAGGTAACAACTTTCACAGGCAACAGTTTTTTGGATCTGATCTTTTTTTGGCAGCAACCATGATATCCTAGATTGACAGAAACCATACACAGGGCAAATATTTTCTATGACAGGAAGAGAGTGGGGCTGCCTAAACAGCTTTC
0.4575288968929306 CGGTGCCCAGCCAGCTGCTCACACCAGGTGGATCGGAGCAGTCATCCTCACCTTACTAAGAGGAAGTGAGTCTGGGTTTCCACTCTGTGGCCTGATGGGGTCAGGGTGATGTGGCCCACACAGCTCCTGTCCATTGAAACCCCGTCCATTGAAAGCCAAGGTGGGACCACCTTCAGTGGGAAGTCACCGCCTGTTCCTTGGGAGAGTCCTGTTTCCCAGGAGGAAGGAAAGCTGCAGCACAAGCCCAGCCAGTCTGTGTGGCCTTCGCAGTGGGCTCCAGAGCTGCAGGGACCCTGCCTGGGTCTCAGGCTCTGCTGAGCTTCTGGCCCAAGCACGGAGGAAGCGAGCCACCTGGGCAGCACTCCTCGCATACCCCAGGAACCTGGAGAAGCCAGATGCTTTCCAAACAGAAAGAGCCAGCAGCTGGGCCAAGCTGAGAGGGAGGTCTCAGGGCCAAACTCCTTTCACTCTCGAATAATCCATTGTTCTCTCTGTCTGGAAACAGTCTATGTGCACCGGCCTCAGTCCCTGGCCATGATGGAATCAGGTGGCCCATCTGAGCCCCTGCCCAAACACCATCCAGTCTTCCTTGTGCCCTCCAGTGATTTGGGTCCTGGGCCCATTCTCTGTGCCTCTGTTTCCTCATCTGCATAATAGAAACAATTTCTCAGTTGATTTCCATTGAAAAAGTTAAAAATCCCATTAGGACCCACCCGAGCACATGGCATATGTTTTCCTTTAAACACGTTGCTGTGATGACACTCAGAAGAGCCTGGGCCACCTGGAAAGCATGGCCTCCTGGCTTCTCTGAATGTCATGCCATTTCCCAGGCCTCGCCTCTGTGTCCTTTCCCTCCCTCACCTCTGACAGTAATTGTGCTGACGAGAGAAGATGGGACCTGCTAGGCCCTGCATGAGGAGTGGCATGGATTAACTCATTTACCCCTTACGGTCCTCTGACAGGTGTCATCAAGTCCGAGTGACTGTCCCCTCTCAGCCTCTCCAGTCCACATGTCTCTCTCCACCCTCCTGCCGCTACCCTGGCACAGTCTGTCGGCGTTTTCCCCTGGCAGCATGCCACAGCCGTCTGGCTGTGTCTGCCTCCTGTCTTCCTCTCGCCAGCCCATTCCCCACATAAAAGTGCAGCTCTGTCCCTTCCCTGCTCAGAGCCCTCTGGACAGAATCCAGCCTGCAGCAAGGCTTACGGGCCCTCCCTGACCTGGCCCTGCATCCTCATTGGACATAGCTTCCATTGCTT
0.6446279977329674 GGCTTCCCCTCCACTCCAGGTTCTATCGTGAGTGGGTGGGTGCTGCGTCTGTGGATGTCACGTGACCTTTCCTCTTTAGCCTATCATTGTAGTTGGGAGTTAGTTAGCCCGTTGAGCGTCATTGAATTTCCAGTGTTGAGCCAGCCCTGCGTGCCCGGGATAAACCCACCTGGCCGTGGTGTGTGGCCCTGTTTATGCACGTGGGCCCTGATTCGCTGATGCCTGCCTGAGGGTTTGCGCTTATCGGCGACATCAGCCTGCACTTTTCTTTTCTCGTGATCTCTCTGGTTCTGGCCTCAGGGTGACGTGGGCCTCGTAGGGTCCTGTGGTGGCTCCTCCCCAGACGGTGACATGGAGTGAGCCCATTCTCCCTCCTGGGAGTGGGTCACTCAGGCCACCAGAGCACCACAGGGAAAGCAGCCAGGGAGGACACGGAGGCCCTTGAAGCTCTGGCCTCTTCTGAGGCCTCCAGGACCTGACAGTGAGTGGGAGCAGCCCTGGCAGAACCCCTCCCCTCCTCTCGGCCGCCCTGACACCTCATCCCCGACACTCAGAGCTCATCCTCCTTCCCAGCTGTTTCCAATTTCAAAGTGAACTCGACCTTGTGGCTCCAGGAGATGCAGCAGGGACAGTGTTAAATCGGCTTTCACCAGCCCACACGGCCAGGCATCCTCCTCGGCCCTCCTGGGCACTGGGTGGACACCACTGGCTGTGGCCTGGCCCTGGCCTTCTCCAGACAGCCCTGTCCACCCCAAAGCCCAGCCACCCTGGGCCTGCAGCAGGCCTGTGGAGTTCTCAGTTGCGTGGGGACCAGAGGGTGCTGGAGAAACAAACCAGACGCAGCTGAAGGCAGTCAGGGCAGGGCGCAATCAGCGATAAGAGCTGCATAGGGGCCACAGCGTAACCTGAGCTCCAGTCGGTGGAAAGAAAAGGCAGAGACGTTGCAGAGGCCAGGTCTGCTCAGGGGAAGACAGTTCTGGGTGTAGAGGACTCACATCCCAGAGAGGCTGAGGAAGGGTTTACCACCGCAAGCTTTCTCAGGCGGGCTCTTGAGGGGTGGCTGGGGTCTTCCTGGCGACGGGCCTGCGGCACTGGAAGCCCTACTGGAGTTT
0.7801116001735645 CTCCTTTTCTTTGAAAATTACCCAGTGTCAGGTACTTCTTTACAGTAAGGCAAGAAAGGACTAATACAGAGAGTGAGTTCAGGTCTGACCCGAGTCCCACTTGATAATGTTAAAGGCTAGCTACTTTGTTGGTATAGTTATATTGGGTTTAGTCTGTGATCCCAGAGTTTGTTAAAACAAAATATGTATGAGAATGCCCAATGGAAAATGAAAAAGAGCTGCACTGAAACCACTTTAGTTTCTACCCAAGATGTCCTGGAAGACCAAGGAGACTCCAACAGAGAAAATCGGGGTGGATAACAGTGAAAAACCAGCAGCTGAGAAAGAAGTGATCACCGGAGGAGGAACATCAGTATATGCTTGGAGGTGAAGCAGACATTTCCTCTGGTGACCTCTAAACAACTTGTACAGGAGCCAATGAGATAAAGTTTGCTTTTCACACTTCCTACACTTGACAGCTTAAACATATCCCATGACAGTGTCAGCTGAGTGAGAACTTTCCTGTGCCCTCTTGCTAAGCTCCTAAATTGTGCTTCAACACTGAGGTATCAGAAACAGAAGAGAGCAAAATGGCAGTGCAGGGGAGCAAGTTCAAGGTGGGGAAGGACGGAGGATGCCCCCCACCCCAATATACACCACCCCTCCAGCAAGTGCCCAGCCTAATGCAGGCCCAGCAGGAGTACATGGCAAGCTTTTTATTTGTTTAGTTGGTTGTTTTCAAGAGACTGGACACTACTATGTACTGAAATAAAGCTGTAATTGAAACTTAAAGTTATCCATTTGGCCCTGGGAGAAAATCTATTAATATAACATGACATTTACCAAAGAATGTGTCAGCAGCATCCATGGCCTCAACAAAAATGCTATCTGCCAGGAGGACATGGAAACTCCTTTAGAGGAGACAAAAGAATCCTCAGTAAAAGGAACCACCACCAGATACAGCGTGATGGGTTGTGCAGTTGAAGCTACAAAAGGTTTGTCTTGGACATTAATATGGT
0.5508402449561981 TTTGCAAAGGCGGTTTCAACAGAAATTAACATGTCTAGGATAGTTGCTTTTTCTATTATTTTTTCTATCACTGCATTTACTTTCATTCTGCCTTATGCTTTAACTAGGTAATTTTTTTTTTTTTTTTAGTTTTGGCGGTATCAACACTATATTCTTCTCTTTGACCACCGCATGCTGCCTACGTGGTAGACTCTCAATACGCATGGAACTGAACCTCTTACAGGATTTGTAACTCACTTCTGTGGTATCTAGTAAACTGGAACACGCGCTTTCCCTGGGCTGCTCTGTCATCCCAGGTTTCAGCACTCGGAAATCGCTTGGGCCCCCGCCCAGAGGCGGGGCTTGGGTGGGCTGACCACTCCTCTGGCCTCCAATACTGTCGCTGACATTCTCGTCTATGCTCCAGCAGCCGTACCTCACTCCGGTGGAGGCGGGACTTCCTACAGCACTTCCGGCCAGAGCCTCAAGCTTCGCTGCTGGGCAGTTGGCTGGAGGGGCTGCTGCTGGGAACACCTGGAGTCTCCGCGGGCAGGTGAGCTTCAGAGGTTCGGGGAGCTTTCGGAACGAGCATTCCTGGCCGGTGCGTCACCCTGCAGTGCTCTTGGCCTTTTCTTCCTTTCCTGGAATCTTCCCAGATTGCCAGAGCCGGGCGTTGCCTGCTCCGTGCGCTGGGAGGCGGTCCAGCCGGCTGGGTTGGGGCCACCCTGCGCCTCCTGGAAGGCCTTATTTAGGAGTAGCCGCACGTGATCTCTAGCATTTTAAGCTTCTCTCAGAGAATTGGCATGTCACTTTGGAAGAGGTGAAAATGGTACAGGCGACCAACGACTTTTACAAGGTGTCACCTTAGAGGAACAGCCTCGTCCTTCCGAATCAGTTAACATTGGTGATGACAGAGAAATAACGTTAAATAGGTG
0.6489345876263164 ATGTTGTGACCTGAAGCTCGCAGAACCTCAGAGCATTCAAATGTGCGTGACAGGTTTGCTGAGTTGTTTGTGTATTAAATTAGCTGATGAAAAAGCTCAATGAATGGTAGCTATCACTACTTTTTAAAAATTAACTCTTAGTATGCTAGAAAATCAGAACACTGATGTGGTTTTTAATGTAAAATAGCTAAAAGAATTTTATTTGGCTCCCTTTGATCTGGTATCCCAGGAAGTTTGTGCCTGATGTGCCTCTTTTGCTTGAAGATGGTGTTGAATGTTTTTCTTGTCCTTTAAGGCCTTTCCAACTCTACTTGCAAAAAAACTTTGTGTTTCACAAAGAGAATTCCATCGTGCTCTGCTCCAGGATCCTGAGGCATGGGTAGGTAGGCCTGGGGCTGAGGGAATGACTTTAGTGTAACTGTAGGTTTTTCTTTCAGATTGTTATGCTCTTGTTCCAGACAGATATCCACTTTATATTTATGTTTTGACACATGGTACCATTTCTAATATCTTCTCATAAAAGTGATTCTGAATTTTATATGTTGGCAAAAATTAATTGTGATCTATATCATTACGTTGTGTTCTAGCCATCCACTAATCTGTGTAGACATTTCGTATTGATCTTAAGACAAACGTGTTGACACAGTTAGGTGTCTCTGAACCCTCACTTGTGGGGTGCAAGGGGATAGCTCCGTGACCAGTTGGGGCTTCTTGGTCACACTGTCTTCTGATGACAGCGAGAAGTGCCAACAAGGCTGTGAAAGAAGTTTGAGCCATCATCTGACTGCCACATGGAAAAGTGCTTTCTGTGTTCCTGACATTTTAAGCTCACCCATTATGTGAAGGAAACTGAATGTGTGATGTTAGCTTAACTAGAGCATGAGGAGACTAGACCTATTAGGTGTCTGTCTCTGTGACTCTTGTAGCTTCCCTGGTCAGGGCACCCAGATACTGGTGCTTCTGTAGGGAGATAGCACTTGGCAGGGCCAGGCCGTGCAGGAGAACTCTGAGCATCTGTCCAGCCAGGCTGAGGCCTTCTGTTGCCCTGCACCAGCAGGGCCCAGGCCCTCTTTGTTACACTATCAGAGACCCTCCCGGCTGTCTGTTCTCAGCCCTGTTGAGTTGGGGAGCAGATAGAAATGAAAAATTTACACATGCCAGATAGTTCTGCTGTGAATTTGATCTTTTCTTTTCTAAATTTAATGATTTATTTTCTTCCATTTTGGTTTATTTGCCTTTGCTCTTTCCTGTTGACACAGAAGTCAGTTTTTACTTAACGTTCTCTTTCTTTTCTCCTCCATAAAGGAAAACTCTACACCCCTGACAGTCAGGAACATGAGTGACACGTCATACCCTGGTATACTTGGTGTAAATGAACACCAATACATTTCCATCCTAGTCTCACCAACCTGCTGAAAGATGTAAAAAAAAATCATTCAGTGACTAGA
0.2362389498824349 TGCTTACAGCTGATCAGAACCCAGGACACTAGCACTTACTATCAAGGTTATAGGGAGGCTGATGCTTACAGCTGATCAGAATCCAGGACACTAGCACTCACTATCAAGGTTATAGGGAGGTGGCAGAGAAAAGAAGTTCAGCGAGAGTGGTGCCTCTTTTCAAAATGGTATGACAGTCCCTAGGTTCTCTGGCTCCTGTTTCTGGATTCAGTGCTGTGAGGGCCTCTCACCATCATGTGGTCTGTGTGAACCAACCATCAGGGCAGTTTAGGTACTGCAGGGTGTTGGGGCCCCAGTCCTTAGCAGGGTTCAAGCAGCGGGTGCCATGCCTAGATCTTACAATTCCCGGCAGCATCTCCCTTCACCTCCTGCTTGCTGAGAGCACTTTGGTGGGCAGAAATAGCCCTGTCACTCATGCCCAGCTGCACACACGTCAACAACCTGGGGCTGTGCGCTCTCCTGATGCAAGGTCCTTTCTGCTAGTCATGACTACTAAGACCTGCTGCCCAGGACTGAGTGCTGATTCACCTACTAGGTTGGTCAGAGGGTTGGGGGCAACTCTGATTGCAGAAGCTCTCTGGATGGGCAGTGCTAGCGGAGTTCCATAGAGCTGGTCTTAAAAGCAGGGGCCTTTTGGCTGAGCTCCGAGTCCCTGGAGGGACAGTGTCTGCTGTGAACAGATGTCACGGAGGGAGCAGTGCAGTGTCACCAGTCTGGCTTCTCGCCCCAGGTCCCTTGGGCACGTCTTATCTTATCGTGCAGCTGGGCTGGGGGTGCTGCCAGACTTTGTGGGAGCTGGCTGCAAGGGCCAAGGGTGTTTCTTTAGAGATATTTCTCAGGTTCTGGGCCTCATTAGAACAGGAAAGCCTTCTGAAAGAGTGACGTGGCCGGCGGCAGGTATGGTGTGTGACTTAACTAGTCAATTTTGAGCAAACAGAGGCCCCCAGGCGTTTTTCCCGGGTCACTCCCTTTGCCCCTCCTGCTCTGCTCATCCTTCCAACTGCTCCTTTAGCCTGAAGGCCTGGAGCCCCAGCCGCCAGGCTGTAGCCAAACGCATATCTTGTTTGCATTCTCGGTGAACTTACCATTAATCTGTGACAGATGAAAAATAGGAACTTTGAAGCCAGAATGGGGTCAAGTCTGGCTTTACTGCCTGCTGCTAGGTGACCTTGAACAAGCTAAGTTGTCTGAGCCATAGTGTCCCCAAGTGCAAAATGGGATAAAAGATAGTCCCTACCTCACTGGGCTGCTGCGACAACAGTAGGGCACACATAAAACAGTTAGGTGTCTCCTAGATAACATGAGGGAGTCATCGTCATTGCCGGAGGGATTCAGAGTGGACC
0.7148713761271814 GTCCGAAATAATCATTTTTCCATATTTCTCTGCCATTACTGTATCTATTCTCTTACTGGTACCAAAGCTTGTCAATTCAACCATATTCCCTATTGCTGGCTGGAATATTTCAACAACTAATTAGTCTTATCTCCATTCTCTCCTTCTTCTAACCCATATTCCACAAAGTTGAGGATTTTTGTATTTGTTTCATGACCCTTAGTACCCTTATAAAAATATCTTATCAGAATACTTTCTTAATCTAAAATTATTCCTTGGTTTCTCATCTCCTCCACAGCATGATATGAAGGTTCTTAATAATTTGTCCCCAATCTGACTCCTGTATTTACATTCAACCAATATTTTTGAACACATACTGTATGCCAAGCACAGTTCTAGAAATTGGGCATAAAGGGGCAAACAATACAATCAAAGAATTGGGGGCTATTGGGAGTAAGTCTATGGTTGGGAATTGAATTTACAGTTTTAAGTAGGCTTACCAGGGAATGAAGCTCTGAAGGTGATGGGGAAGTGGGCTATGTAGGTGCTGAAGTGAAGAGAGCTGTAGTTATGAGGAAACAGCAAGTGAAGAGGTACTGAGATTTGACTGTGCCTGGAATGTCTGAGGAACAATAAGCAGGCCAGTGTCACTGGATTAGAGTGAAACAACTAGTAGAACAAAAGGTCAGAGAGGTGATGACAGCCAGTTCTGATGGGGACTTTGTAGGTCCTTCTAAGGCTTTTGGTTCTCATTCTCACATAGGAAGACACTACAGGATTCTGAAGAGACAATGATGCAATCTGTTGTACATTTTAAGAGAATCACTGCCACACTCAGAACAGAACAAATGGGGTGAGGACAGACGTAGAACACAAGTTGGGAGGCTACTGTAATAATACAAATGAGAATGGCTGTGGCATGACCCAACCTGATAGCAGTGGCAGTTTTCAGAAGTGGTTAGATACGGGATTTATTTTGAAAGTGGAAACGATAATATTTGCTCCCGAAGTGGATGTGTGTAAAAGAAAGAGTAGAATCAAGGATGACTCCAAGATTTTTGGCCTGAGGAAACAGAAGAATGAAGTTAACTCCATGCTGAGTCAGTTAACTGGGATGGGGAAGAACATGAGGATAGCAGGTTTAGGCAGATCATCAGAAGCATAGTATTGAATATGTTACCTCCAAAATGCCTATCAGAGAGTCACGTGGAGACACAGCGTAGGCTGTTGTACATAT
0.8339613886290662 GTAAGCCGCTGTGCCCGGCAATCAATTTCTAATCACTTGATCCATGTCTCCCTCACCAGGCTGAGTCATGGGGACAATGGCAAAGGCTGCCCACTGCCATCCTTCTCTTCTTTCTTACTAGGAGGACCTGGTTTTGCTCCAGGTGGCTACATGCACAGCTATAAACTCAACCTGCAACATCCATTGCAGCTGGGGTGGCCATGCAGTCCTATTCCAGCTGATGAAGTATACACAGAAGTCACTGGAGACACTGGAGAGTGTCAGGAAAGTCTGGCTTCCCAGTATATCTCATCCTTCCTTCTAGTGAGTTTCTTCTACTTCCTGCCAGAAATGCAGGTATTCTTCTCTCCTCCCTGAAGGTACAGCAGCCATTATATGACCATGAGGACAGAAGCCACACATTCAGGCAAAAGAGAGGAATCTGGAATATGGCAACATCTTGGAACTTTGCTCCAGCTCTTTTTGTAATATGCAACAAATAAATTCCTGTCTGGTGAAACCAGTGTATCAGGCTCCTGCCACACACTGCAAAACGCATTCCTAAGTGATGAGAGCACAGCCGACAACGCTTGTTTCTCACCACTCACCTGACACCACCAAGTGCTAAATAAGCATTCTTTGAATGAATGCTTTTCATTTCACACCAACTCCATAAAATAGATGTCAAAACTGAGGCCTTGTTCAAGATCAGTCTGTCTAATTTAAAAGCCTGGGTTCTGTTTATTTTTCTTTCCCGCTGTCTTTCTTTTCAAATGGAAGAAAAATCATATAACATAACACTAACCATTAACCATTTAAAGTGTACAATTTAGTGGTTTAGTACCTTCATAATAAAATATTGTGGAAACATCACCTCTATCTAGTTCTAACACATTTTTACCAATTCCAAAAGGAAACCTGTACCCCTCAAGCAATCACTTCCCATTGTTCCTTCCTTCAGCCTTGGCAAGCACTAATCTAATTTGTCTCTACAGGTTTGGCTCATCTGCACATTTTATATCAGTGAAATCATACAGTGTGTTCCTTTATTTTACTTTTTTAATATTTATTTATTTATTTA
0.510935021658682 AAAAAAAAAAAATCTGGGTTCTGCATGGTACTGCTTTGGGGTGGAGAGGAAAGGGGGTCACTGACTCTTCGTGTCTGACTGCCAGAAGGATCCCTATATGCAGGTCACAAAGCAAGAGAATGTACACAGCTACATGTGTAAAATACGCTTTAAACAGCAGTGACTATTTTTAACTTCATTCTCTAGCCATGACAGTTTTCAAAGCAAAACAGAAGGTACTGAGTATGTAAAGATGGAATATAATTAAACTACTCTACTCAATGTCTTAAATTTCTTTTGTTATGAAGCCAAATTAAATTCCTCCCTCAAAGGCCTTGAACTGTGTAGAGTTCCATAGCTAAGCGATATTGGTGGAGGCGGAGCAGACACAGGGACTCTTTTCTACCACACCACATCAGTTGTCACATACTTAGCCTCAGTTGTGTTCTTTGAAAACCTGTCCTACTGCTGAGCCACAGATACTTAATCTGTTTCAAAAGTGCCGCTGACATCTTTCACTGCTCAGAGAGCTGTGTGTGCTTTAAATAGTGGCAGTAAATGATCAGTGTTTTCATATCTTGTTCATAAGAGTTCTCTGATTTCCTCTCATCCCATTTCCAAAGACACTTAAAGCACAAAAATAAGCCACAAAGAAAGGAGACCATCGTAAAGGCACTAAAAAAGCCTGTGTTCTTGGATTAATCCTTTGCACAAGGCCCTTTGTACAAAGCTGAATTCCTGAAAAGTTCCATGCAAATTCCATTTCTATCAATTAGATCTTGTTCCCAATCCCTTAAAAGTGAAAGTTTTTAAAAAGAAAGTTCAGTGGTAAATTCTGGATGTTGCTAAACATGGTTGCGCCTAC
0.547131215566685 AATCACAGTGACATTATTAAGATCGTGTTCTGAAATCTTTTTTATGTTCATCACTGAAAGTTGGTGTGTGTGTGTGTCTGTGTGTTTAAAGTGAATAGATGTGACTCATGATTACAAAATAAAGCAATTGATTCTACAGCACAGTAATGAAGCTAGGTGGCATGGTAAAACTCAGATACCTTGTGAAGATGCAGAGTGATGAGAGACTGTCAGAAATCCTTAGTTCATGGAAACTAAGTCCTGACTTTGAGGTTAGTTTAAGTGAAGCAGTACATTGGTAGAACCACCTGTTTTTATGAAAATCAGAAAAAATCCCCTTTGCCGTAGAAAATATCCTTTCAAAAACTAAATTTATAAGTAAAATAGGAAATTAGAATACTTCTTAAAACAAACAGAATCCAAAGTGTATCGGTAAGAACTTAGCTCTCTCATTGTCCTTGCATCCAAATAAGGAAACAAAAACATTAAAAGGCTGAGTGGATTGTTCAGGTTCCTGTAACTTCCTAGTGGCAAAACCAAGGATAAAACCTGTAGTGGCTGCTGTGGTGCACTGCTCAGATGCCTCCTCCACAGCCCTCCTCCCCACCACAGTTTTATGTCTGAGACACTCATTCCATCTGTCGACAGCTGGGAGTGTTAGTTGCTGAGACAAACAGCCAATTTCCTCTCCAGGAATTATCTTCTTTCTCTGGGCACTGTCCTCTGCCAAAGGGAGTTGCCTTGCCTAAGTTTATACCTCCTCCCTAGGCTAGGGGCAGCCTCTGTGGAAGGGGAAATTAGAAAAATCAGCCTCTTTACCTCAATTCAGGACAACCCTGAAGGGTCATTTCAGCTCCAGAGCTCCCTCAGATAGCAGCTGAGGTCTTCATTTCAATTACATCACCGTTCAATTTCTCCTGTTCACTCACTTCTGGTTTCATTACTCTGTCACAGGTTTGTCCTGTTGGTACTTCCCAAAAAACTTCCTGCATGCAATCTACATCTGAGTCTGTTTTCTAGGGAGCTGGACCTCAGTTAGTCAGTGCCAGGAACGCTCTGAGGTTTTGGAGCTAGATTATTCATTGGCCAGCTGGTAAAGAGGATGTCAACACTGTAGTAAGTGGAGGACTGAATGCCTCAAGGATGCTTTATTGGTCCAGTTAATATACTCACTGTTGGTGACTGGGAAGGGATACTACTGAAAGATAATGCAC
1 TTTCTAAGCATCTTTAACACAAATCATCATATACATACAACTCTCTCTTTCAGATTCAGAGAAGGAGTTAAAAATCAGCCAAAAAAGAAAGCAAAAAACAATGAAGATAAGGGAGGAGGGAGTGTATATGGAGCAAAAGGAGGAAGCCAGCTGGTTAGCTGGCCTTTTAAAAGGTATCAGGGAATTAGGCCCAAGGCCATTAATCCTACAGTTTTCACTCCTCTGCCAACTCTCACGGCTTACATTACCGAGCCATCATCCAGATTAAAAATGGGTTTCCATAAGGGTTTCTGCTTCCCCAGGAACCCTCCTCTCTACCCTCCCCACCTGCTGCCCCTTCACACAGCAGCAAAGTGAAATCCAAAAGAAAAATATTAAAATCAAACAAGGCTTTAGGGATTTGGGGAGGTGGATGGAGAACAGGTTCTTATCTAGGCTTTAGCACAATATTCCTTCTTCAAAGTCTTCTTAATTACATTGAGAGAAAGAACAAGCGACAAACAGAAGAGCTGCCTTCTAAATTCAGTGCCCCTCAATGAAGGGTTCAGGTTCACAGGTTCTAGCCCTAAGGGAGAATGATGATCTGTGCTCAGCTTCTTGCCACCCAGGGTCCCAGCCCCCCAGCCTCTGCCTCCATGTTTCCCTTCACCCCCACTTGCTCAGCTTCCTCCCTGCTCTAAGAAGTGCCCCTACTTGACAGCTATTCTGTCCATGGAATTTCCCTGCTGGGCACCTACATTTTATTTTTCAAGTGGAAAGAATGCAAGGTTAAGGACTGTGTTTCTAAGATCCCAAAGCTGCAGCCAGTTAAGAACTGAATAATTCAACCAGAACTAGTTGTTCTGTCCATACTAGCTGCATGTGGCTTTATCCCCTGTAACCTAGAGCTTGTAGAAATGAGAAAATTAAACCATATCCAGCAGGGCACAGAGCGTGCACATTGTCCTTCCGAGTAGATTCAAAAGGAGCTGGTAGTCATGCATCAGATGGTGTGGCAGTCTTACTGTTAAGGGACAAGCTAAGGGCTGACTGCTCTCCCCCACGAGTGGAAGTGCCAAAGTGGGTTTATCTTTACTGCAGGTCTCCTGTGTGCTGGAATCTGTGCTAGGCACTGTTCCTGCTTTATTTCAATGAACACTTGTAGCAATCTGAAAGGTCATATTGGCTAAGGACTTGAGCTCTGGATCTAAAGCAGGCCTTGTTTTCAATCTCAGATTCAGCACTTTCCAAGAGTGTCTTTGTAGCCCATTGCCGGGCTTCTTTTCTCTTTTTTTTTTTTTTTTTTTTTGAGACAGAGTCTCGCTCTGTCGACCAGGCTGGAGTCCAACGGCCCGATCTCGGTTCA
1 GATTATTGGCATGAGCCACTGCTCCCAGCCCATACTTCATTTCTTTTTTATGGCCAAGCAATATGATGTTGTATGAATATACCACATTTTGTTTATCTATTCATCTGTTGATGGATGGGTTGTTTCCTTTTTTTAGCTTGTGAGAGCAATGGTGCTATGAACATATGTGTACAAGTTTTAAATCTCTTGGGTATATACATAGAAATGGAATTGCTGGATCATGTGGGAAGTCTATACTTAGCTTTCTGAGGACTTGTCAAACTCTTTTTCAAAGTGACTGCACAATTTTACACTCTTATCAGTAATGTTTGAAGGTTTCAATGTCTCCACATCTTCACTAACACTTATTGCATTATTGCATGTCACTTTGATTAAAGGCAGTCCTGTGGACATAAGGTGATATCTCATTGCAGTTTTGATTTGTATTTCCCTAGTGACTAATGATATTGAGCATCTTTTCATGTGCTCATAGGCCATTTCTATATCTTCTTTTGAAAAATATCTATAAGACTCCTTTGCCCACTTTTTAATTGGGTCATTTGTCTTTTTATTACGGAATTGCAAGTATTGTTTATATATTTTAGATTCAAGTACTTTATGAGATATATGATTTGCAAATGTTACAAATGTCATTCATTTTGTTGGTTTTATTTTCTTTATAGTATCCTCTGAAGCATAAAACTTTCAATTTTGACGAAGTGTATTTTATCTGTTTGTTTTTCCCTTGGTTGATTGTGCTTTTAGTTAGTGTCATTTTAATAAATCATTTTCTAATGTAAGATCACAAAGATTTGTGCCTCTGTTTTGATTTTGGTTGTTGATCTATTTTGAGGTATTTTTTTCCTCTGATGCGAGAGAGGTTCAACTTTGTTTTTTTGCATATGAATATTCCGTTGTCCTTACACTGTTTATTGAAAAGACTACTCTTTCTCTATTTGAAAGACTTGATATCCTTGTAAAAAATCACT
0.7653378637096645 TGGACAAAGAACCATAATTTTTTTGTTCTTGTTGAAGAAACTGAAATAGGGAGAGGGAATGCCATTCCATTCCATTTTCTCATTAGTCACAACTAATAAATGGACAGAAACCCAGTTTAACCGAGGTGACAGGATTTATTGGTTCTGGTATTTGGAAGTGCAGGCAGTATCTTAGCCTCAGGAATGGCTGGATCATGGTGGCTCTCTCCACTTCTCAGCTCTGTTTTCCTCTAGGCTGACTTTATTTAGATTCAGGTTTACGTCACTGATGCTTCAGGAATCTCCAGTCTACAAAAGAGAAGTTTTCCAACAGCTGCAACATAAGTCCCAGAACTGAGTCCCCATGGTCTGTCTTGGGTCATGTCTCCATCCATGAACCTCTGTCACTATGGACAGAGGCTGACCAGACAGGCTTGGGCTCAGCCCTGGAGTTTGAGACAGCATTGGAGACACCCAAACACCCTGGATAAGTGCCAGAGAGTTACAGCTCTCCAAAAGCACACACCGTGCTGTCACCAGGGCAGGGAATGGTCGCTGGGCGGCAGAACAACATGTGATCAAAGCAGAGTGGTGATAGAGCCAAGAGTGGAATTGATGGCTTTCTGCGAGACAGAACTTTCAAAGCACTTGAGGTGGTGGAGGAGAGAGGCCAGGTTTCCAGCCTGAGCCTGGTCAGGAGCAGTGAGAACTGAAGGAAGGGAGGGAGTCTGAAGATAACCAGGAGGGACCTGGGAGGGACAGAGCAGTGGTCAGGCTATGACCAGTAGGGAGGTAGGACAGAGGGGGAGGCAAGCAAGATGGCCAATTGCCATCCAGATAGGATAGGTGGCATGAAGACCAGCCTTTGAGTGTGACTCTCATGCATGAGGCACTACCCTAAAAGCCAATTCTTTTCCTTCTTCCTTCATTAAAATCCTGGAATACCATCCCCTAGATTAAGGAACCTTCCTTATCCTCTTTGTTCATCCTAAAAGAGCCTGGTCTATAGAATCTGTCTCCTAACAGTCAACTAGTATTATTTTAGTACTATGATTAATCTCCTGATTGAGTAAAAAGAACAGAGAATTTGCAATCTATGAGATCTTGTCAAATCCCTGCCCCACCACTTGGCAGTCGTGTGAACTTGAGCAGGTCACTTCCCCCTCTGAGCTTCATCATTTTTGTAACGCATGTCAGCCGCTGGCCAAGAACCTGAATACAGCAAGCACTCAACTCCTGTTAGCAACTGTGACTGTAATTTTTGGT
0.09155046078693546 GGATTACAGACATGAGCCAACTGCGCCCAGCCCAGACACCTTTTGAAGGCAGACACCGAGTCTCTCACCCGTGTACAGAGAAGGCAGTCAGTCAACATTTATCAGGTTAAACTGAATTCAGTTCTCACAGTTACTAAGCATCCTTATTTTCCTACTTCAGAGAACAGAGGAAAGATGGCCACTTAGGCTGTCAACAGACTGAAGTGACAGTGACAAAGGAGGGGTGCTGGAAGGCTGACCCAGCTGAGAATACTCCCTAGAGAAGATGTGGCAAGCCTCAGGAGGTCTGGCCACTCTTGGAGTGCTTAACCTGAAGCCTGAGAGCAGCACTGAGGGTGGGGGAGGCTGCCCCCTCTTAAAGCTGCCTTTTCAGAAAGCAAAGTGATGCAGCGGTGTGAGCACACTCTGAGGGCCTGTCACAGGAGCTAGCTGGTTAATGGCCAAGTGGTCAGTTCACTGGAAGCCTTCTTTTCCTGCCTGTGGCTACAAGATTAGGGGCTTGGAAGACCCAGAGGAAGGTCTAATGAGGAGAAAAAAGGAAAGAGATCAATTCAGATCTCCTTCATTCCTTTGGACCGTATACAAAACCCCAGAATAAAACCAGAAACAAACATAAACCATAACCTATTCATTTCTGTATCCCTGAAAGTTTTGACAAAGCTTTGAATCATCAAATTTCAGACCAATAAACCATTGCTGATTTAAACTATGGGCTCTGGGATGCCTTTGGATAGAAGGGAGCTTCTGTCAGCTCCTGCTTATGCCCCAGACCAGACTTCCTATTCCCAGTGACAGGGTCCCCAGGGAGCTGCTGTCCACACAGAATCTGGCCAGAGCCCAGCTACCAGGCTCTGACGTCTTCAAAGAACACACACCTCCAGTTTCTCCTGTCCCCACTCCCATCCCCACCCCAATCAGTTCACTTTCTTCAGTGGAAAGTGCATATGGTTAGACTATTGCTGGGGCATGGGGAGGGGGGCTGGAG
1 CCGCCTCGGCCTCCCAAAGTGCTGGGATTACAGGCGTGAGCCACTGCGCCTGGCCTTGTTTTGTTTTTTCTAGAGAGAAATGGGCCCCAATATTTGCCTTATAATACTTTGTACCTTGTCCTACATTTCCCCCTTAGAACAATGTACAGAACAGTCAACATGACAATCAGATCAAGTTTCACCTTCTGCACTTAGGTCTCTTACTTAGCTATCACTAGTCTGGAGGTGTTGGGAACATAACTTAAACTCTTTGAACTATAGTGTTCTGTAATGTGGCATTAATAAATCTGAAGTCAAAAGATATAAAATATGTAAAAGCGCTTAGGAGAATATCTGGCACATAATGCATGGTAGTTTTTCCCTTCTAAGTCTGTAGGTTAAGATGAATATTTGAAGACTTTCAAACTGATTTTCTTCCAATTAAAATATTTGTAAATGATGTATAAAAAGTCTCCATTCTTTAACAAAGGCTGTTAAAGGCTCTGGTACTGTTTTGATTATATAAATTAAAAAATTATGTATTTCTTATAAAATATTGCATATTTTAAAAATGTTTTTAGCTCATTGAAAATATTCAGAAAACATATATTTTAATATCTTAGCCAAGAATTTGAAATTTTTCTATGAAGGTGCAAGGTTCTAAGACCAAATTGTCTCTGTAGAGCTGTGTAAAATTAAAAAAATAAAATTTCGAACTGGCAAGAAAATGTATTGTTCTTCCCAAATCTTGAGACAAAGGCACAAACCCTGTTTCATTCACACACAAAAAATAATTTTGATTTGCTTAGGGACATAAGATTTATGGCTCTGTGATGTCTGCTAGAGATATGTTTAAAGTGGACCACTCTATACAGCTTTATATAAAAAACATGGTATACACCTTACTGAACATTCTTTTCTTACATTTTCTTCCTATCGTGATTTTTTTTTTTTTTTTGAGATGGAGTCTTGCTCTGTCACCC
