svm_type c_svc
kernel_type gkm_esttrunc
L 11
k 7
d 3
norc 0
nr_class 2
total_sv 1819
rho 0.108442
label 1 -1
nr_sv 991 828
SV
0.2896534201740516 TACAGGTGTGAGCCTGTAACCCTGAGTTGGGGCTGTGGCGAGCTATGATTGGCCTAATCAGGACTTCCTTGGGTTCACATACGCCTTGCTCCTGGGAGGAGTGAGATGAATTCTTATCTGCTGTGGGATAGAGGAGGGGCACCAGAGCCTGTGTTTTTACACCAAGGACTGCGTGGGGCCCTACAGACCTGCCTTTCCCTGCCCAACCTCCTTCTCTGACCAAGACAAAACTGCAGGTTCACTGTGGCAGGTGATTACAACGGACAGAGGGTTTGTTCCCATACTCCATCTACCAGTGGTGACACTTCCTTTCCCTTCAGCTCACCTGCTCCCCCAACTCTTTGAAGAAATCTCAGTAATTCACTGAGATCAGAGTCTATCACACAAACATCCGAAATTGTAGCACACCGGGGAGCCTGCCAGGAAGGCCTATAATCAGATAACACATTCCAGCCCGGAGACCTTTCCAGAGGAAGGGTTAAGCTCCCAAGGTAGTTAGTGGAAATCAAAGAACTGCATGCTCTCATTATCTCATAACAAACATACCAGGTTAATAGCTGTCGCTGCCGCTCTAAACCACGTGTGTTGTGTTTTGTGAGTGCTGACATGGGGCGTTCTTTCTCCCACCATATCTGCAACTTGACAGTGTCATCGTGGTTGGGTGCTGGAGTCTCCTAAAGTGTTTTGCATACTGTCTCCTGCACGTTGCCTCGAAGGATTTTTAAATAATTGCTGTGTTTAATGGGAACTCCTTCCCCTCTCTAATCCCCTCCAGTAGAAAAGCTGGCCAGTGTGCCAGTGTGCCCGGGGGGCATTTATTTATAGCAGGAACGAAAGTGGAGCGTCCCAAAAGACTGTCTGCTTGTCCTGAGCTGGCAAGGAGCAAGGTTGGATGCCCAGCTGTCCTGGACCACCCCTTCCCATGGCTCCTCCAGCCTCCTCTCTCCTGCTTGCACCCTGGAGCTTCCTTCCAAGCAGGATGGGGGTGGGGGTGACAGAGACAGCCCCAGAAGGCAGGGACTGACTGTGGGGGACCCACAAGGCTTGTCAGGCCCCTCCCTTCCCATCAACCCCTGAGTGATGCCAGGGCCCCTGGGCAGGTGCTGCCAGGGCTTAGGACACAAGGACCTGTGTCCTGTGTGAATTTTGTGAATTCTGTGTGAATTTTGTGAATTCTGTGTGAATTTTGGCTGTCCATCTCAGGACCACTTTGTTCTTGGATAGGACAACGTGGTTGTGAGGACAGGTGTGAGCAAGGCAGCCAGTAGACCTGGAGGCAGGGGCTAGGCAGCCCCCTCGACAGAACCCCATGAAATTCTTGCACGTGGAGATTTATTTGCACTTGCCCTGAAATCCCACAA
1 ACAATAAGCTGTTATTATTATTATTGATGAGTTAACAGCAATATCAGGGTCTCCATTTCTGAATCTATACTTCTGGCTGAATAACAACGGATGTCCCTATAGTGAATAAAAGTGTTCTGAGTGAAAGGATGGTAGAGACACACATGAAGAGCATTTTCACCTTTATCTATTGTTAAAAACTTGTCTTCAGATTGCTACAACCAGTAAGTCACTTATTCTAGAAAAATACAGAAGTTAGGCAGGCTTAAAACCGCTTCTTCAACAGTTAAATTCATTTGCACATTCTACTCACCTCAACCAACCTCAGCAACAAGGGAATAAATAGCTTCCCACTTATGTTGCAGCTGAGGGAAGAGGTACAGCAGCAAATACAAGTCTCCCTAAATAAAGGCAAATATTTCTGTCATGCCAAGGAGGGAGGGAAAAAGGGAGGCTTGCCAGAGTCGGCTGGGAGATAACAGTGGGAACTGCTGGTCCATCTGGTTTTCATTCTGCTAACACTCACACGGAACTGTTAGAGAAGGCAGTCCAGATACACAGATTTGAAGCACGTGGTTGCACAGACAGAGAAAGGAAGAGCAGGAGGGGGAGGGGAAGTGGGAGTAACAAAAAAATAAATAAAGCAATAGGAGGAAAAAGAAGAGGAGGAAAAAGAACAAAATAGAGAGACAAGAGCCTGATGGGGGAGTAAGTTACCCTCAACAGCTTCCTTTACCCTCAGTGTCTACAAGCTGGACCTTAATGTGCACAGCCCCCTACCTGACTCAAGTTTATAGAGTTAAGGAGCAATATCTAAACTTAAACATATTTGAAGGCTATTTTTCTTTCCTAAAATAGACCACCCTAAAAAAAATAAACTATAAATTTGACAATAAGTTTCCTCCTCAATTTTAAGTTTGTATTTAAGATAATCTTTGTATTCCTATCTTCTTCCCAATTTTAGAAAGTTTTTGGTATATTCATAATTTTGATTTGAAAACATCTGAATATTGTCTTGGTCCACACTTGTAACGACTCCTATCCAGAACAGCAACATCATCATCCATAGATTATTTTTTTAATTCTTGAAATGTCAACAATAACTACAGAGACAATGTATAGGAAACACCACTACTTCTAATAGGAATATGAACATTCTAGCCAGAATATATGTATATGTGCATATATTCAGGGTTTTTACATTAGCCAAATTTCTGCAATGGTTAGCTTCACTCTGATCAA
0.9771013767141985 GGTCAGGCTGGTCTCGAACTCCTGACCTCAGGTAATCCACCCACCTTGGCCTGCCAAAATGCTGGGATTACAGACGTGAGCCACCGCGCCCGGCCGCAATATTTCTCTCTCTAAAAGGAACTGAATGAAGCACTTGGGTTATGATCTTGTTTACAATTTTGAAGGAAAAAAAGAGCTGCAGCTACACAACACTCATTTCTGTACTCAGCCCTCTCCAGTGTCTGTGGCCTGGGAGAAGGCTGAAGGGGATAATTAGGATGCCTGCCACACCCTCATGGCGGTGACAGGAATGCTGAGTGCTTACACTGAGTAAAGTGCCATTATAACTGAGTGCCTGTGGAATGTCTCTGCTTGGCTGTCCCCCCGGCACTGTATACTCATCTGTGACACCACCCAGTCACCCAAGCCAGGAACCTGGGCGTCCTCAACACGTCTTCCTTTCTGATCCTCCATGACTGGCACTAGGCCCGAGGGCCACTTTTCTGTGGGCCCTCCCTGCCATGCCCGGTAGTCTTGCCCACAGTCCCTCCCCTGCACCATTGCCAGCTGCCTTCCCACACATCCTCTGTCCCACTCTTGCCCCCTCTGGTCCGGTCCCCACCCTGCAGACACAATGGGTTTTCTTTTGTTGTTGTTTTTTTTTTGAGACGGAGTCTTGC
0.8115821677288187 TATAAACTTCTGATAATCTATACTTCCTTTCTTCTTTGGCTTCTGACCACCTTCCAAGGTTGGATTCCCCCACACTGCACCCCTTTTCCCCATCCCAACCCTCCAACATCCAGTGGATGGTCAGAGCATTTGTATTCTGAGGGTCCAGGTGAAAACCAAGGGAATACCCATACCTCTATCAGGGAGGCTCATTCCCACCTTTGGAGATGGAGGAAGAAGAGGTGAGGTGGGAGGAAAAGGGACAAATGACAGAATTGGAACAATGCTAACCATCTTCTGTTCCCCTTGCTGAATTCTGATGCCCCAGAGTCCTGCTGCAGCCCCTGCAGGCTCTCTGGGCACTGGTACCTTGAGGATCTGAATGGCTTACCTGCTGAGCAAAGGTCCTCCACCCTGCTAAGTCTTGGGCTATTTGAAAAGCACACTGTGTGGCTCTCTTTCCTGGAGACTAGTGACAGCACATTAGTCTGTCTGACTCTGTTGGAAGGAGCTGGCACTTTGAATTATCAAGTGTCTCTATGAATAGGAGAGGACAGGGGCTCTCACACTTGGCATTTGTAGTGGCAAATCATGTCTTGGCAAGCTGTCAGGATTCTCAGCACTGACAAAGTGCTGGGGAAAGAAGACCAGCCAGCTATCATTTATTTATGCTTTCAAAGGGCTCTGGAAGCACAGGTAATGATGGGGGTGAAGGACAAGCCCTGTCATGTATTAATAAATAGGAAGCTGTTCACTTGGAGGAGGGCTTTCCTTTTGGATGGGTCATATGGACTAATAAGGCTCCCTGTGGCTCTGGGCCTGGACCTCCTAATGACTTCTTAGTGAGAGGAAGAGAATAATATTTCTCCCCCAACCCCTTTTCAGCAAACTTTGTCTGAATAACTTGAAGGATTTTCATTAGCAAGTTTTTTAAAAGAAGGCAGATATGGTGTTACCTGGGAGGGACCCAGAACTTATGCCTAGGGACTGGATTTTAAAAATAAACTAAATGAATTAAAAACCTTTATTGGATGTCCATGAAATGCCAGACACTGAGCTAGGCACTGGGGACACAAAGATTGGAACAGTGGTCCCTGGCGTGAAGTTCGCTGTTGACCCAGGTATTCCGGGTCAAGGGCAACGTTTGTACAAAGCTACTGGATCAAGTCGTCTGTGAGTACTTTTAGAGTATTTGTGTACTCAGGGGAGATTGAAAATAAAAGTAATTCATAGCCCATTTTTCAAAAGGTGTATGG
1 GAGCTGAGATGGCGCCATTGCACTCCAGCCTGGGCAACAGGAGCAAAATTCCATCTCAGAAAAAACAGACACACAAAACAGCCTAACCCAAGATAGATAGAAATCTGTCAACAGTTGAACTATTATGGTTTCTATTATCGGATCATGCAATGAAAACACTTTAACCCTTCTTCACTTAACCAACTCACTCAATTAATATAGGTCTCTGTTTCCTCTCTAAAACACACTGACCTGTCACCAGACACCCACTGAAGGGATGCCGCGGGAAGGGTCTTGATTTGCATGTCTGAGTGCTTCTGTTCCTATCTGCTGAACTGTATGCTTTCCAGTTCCAGTGGAGATTGTGCCCACTCCCATTGATGTCCATTGTTATTATCATTTTACAATTTAATTAAATATTACATAAGTGCTGAAATAGGAATGCAAAACAAGAGTTGTTATTTTTGTAAAAATTAAGTTGAATGTTTTGGGGAAAGTTGATAGAATAAATCATTAAAAATATTGTCATACAGGTGCAAGCTAATCAACTCTAAAAGTTTAGGGCAGAAAAGCCTACTAAGATTCTGCCCTCAAAACCAGAAAATGTAACTCGGACACGGTGGCTCATGCCTGTAATCCCAGCACTTTGGGAGGTCAAGGTGGGCAGATCACTTGAGGTCAGGAGTTCAAGACCGGCCTGGCCAACATGGCAAAACACCATCTCTACTAAAAATACAAAAATTAGCTGGGCATGGTGGTGGGCACCTTTAATCCTACCTACTCGGGAGGCTGAAGTGGGAGAGTCACGTGAACCTGAGAGGCAGAGGTTGCAGTGAGCTCCAGCCTAGGTGATAAAGTGAGACTCAGTCTCAAAAAAAAAAAAATAAACAAATAAAATAAATTTTTTAAAATTAGGAAATGTGGATAATATTTTATGAAAATAGTTTGTGCAAAAAAAGACAGAGTAGAACCTGAATCAGCAGGTCCGTCTTGAAAGGAAAAGCCTTGAGGTCTAAACCAAAAATAGACAAATGAATCTATAGTATATGCTGTGAACTGTATAAAAATATTTAAGGCTTATAGGTATCATATCATATCTTTTTTTTTTTTTTTTTTTTGGTCTCACTCTGTCACCCAGGCTGGAGTGCAGTGGCACAATATCAGCTCACTGCAACCTCCACATCCTGTGCCCAAGTGATCCTCCCACCACAGCCTCCCAAGTAGCTGGGACTACAGGCATGCACCACCATGCCCAGCTAATTGTATGTGTGTGTGTGTAGAGATGGGGGTTTCACCATGTTGTTCAGGCTGGTCTTGAACTTCTGGACTAAAACAATCCTCCAGCCTGGCCTCCCAAAGTGCTGCAATTACAGGCATGAGCCACTGTGCCCGGCCTGTCATATCATTCTTTATGATTATAAACACTTCCAGAGTTTTTTTCAGTTTACTAATTTACTGGTTCCTGGTCT
0.87433137712541 GTCTTGAACTCCTGACTTTGTGATCTGCCCGCCTTGGCCTCCCAAAGTGCTGGTATTAGAGGCGTGAGCCACCGTGCCCGGCCTGGTATATTTTTACCCAAGGACTAGATTATTAGTTGCTAGTGGGTAAGGAAAACAACTTAAAATTCCTTTGCAAGTTGTCTTTCAGCACATGGAGAGGTGGGAGTGCAGCCCATACTTACCGTAGGAGATAAGCCAGATGTCTGGCACTGAAATGAAACATCTGTCAGCATTTGATTGTGTCATAGACAATGCCCTTGCCACACCCATACATTAATGCTCGAAGAAAAACTGTGGCATGTATATAATGGAATGTAGGTGGGCCAAATGAAAACAAAGATTTAAGGATTCTGGAGATCATATTTATACTTTTGTTACTATTTCTTTTTTTGAAATGTGCGTGAAGGAATTAACAATTATATAGTAATATAAAAATTATCCTGTGAATGAACCCGGTAATATGACATGTAACTTGACAACGAGTGGTGATAAATAATTGCTCTAGGCTTCTTCAGTTTTTTTTTTTCTTAGATTCCCTTCCTACCAATATGCTCTGTCTGTGAGACACCAGATCTTCTATAAGGCTGTGGTCTATGGTTGCACTTCCCCAGTGGATTATTCTTCTCAGAACTCTAGTGTCTCATGAAATGATATGTTAATAGTTATTTCACGAAAAAAGGAGATATGCATGCATGCAGACGATCTCTGACTTTTGATGGTTTGACTTAATTTTTGTACTTTACAGTGGGTTTATGAAGGTATTAAATGCATTTTTGACTCAATGTTATTTTCAATTTATGATTGGCTTAATTTATGATTGGCTTAATAGGACATAACCCTATCATCACTTCAAGAGCATCTCTCTCTCTCTCTCTCTGTGTATATATATGTATATGTGTGTGTGTGTGTATATATATGTATATGTGCGTGTGTGTGTGTGTGTGTGTATAAGTGTCTCACAAAAAGACTTATTATAAGGAATTGGCTTGTGTGATTATGGAGGCTAGCAAGTCCCAAATTTGTGATATGAGCTGGCAGGTTCAAGACTCAGGAGAGCCAATGGTGCAGATGAAGTTTGGAGGCAATTTATTGAAGAATTCCCTCTTGCTTTGGGAGGCCAGTCTTTTTGTTCTGTTCAGGCTGCTTGAATGAGACCCACCACATTATGGAGAGCCAGCGCTTACTCAAAGTTCACTGACTTAAATGTTAATCTCCTCCAAAAACACTCTTCAAATTGGCACATAAAATTAACCATCACACTGGCAAAAAACAAGGGGTGGTGGGAGTGGGAGGGAGAGAAACACGGCA
0.2493529923183097 ATATCACGTGATCACAGATCCCAGCTTAGGTGCAGTCATTCGAGCCACTGAGCCTGCTGTTCTGTTTAGTGAACATATGCCCCAGGAGCCAGAAGCCAGCCATCTGCCTGAGTCAGCCCTGGCCCCAATATGTGTGAATATGAGTCTAGTGCTTAGTGATACACACTTCCACACAACATGGTCCCTAAATGTAAGACAATCACTCCATTGCATGTGCACCCAAAATCACAGCATCTGTTCCCAAGCTGATGGAAACGCCAATTTGTCAGAGTCTTCAACATGGTACCTTCTGAAGGAAGAGTCAAGGGTGAGTCTGATCATACGTGATCTTTCCTTGTTTGCTGAATTTAGAGAGTAACTCTGCTTAAAATGTTACTCCCTATATGTGTAGGTTGCAGACACCCCTGGATTCTTTGGGGGCAGTTCCCCAGGTCCTGCTACATTTGCTGTTGACATTCCCTTATTTTCTTTCCATCCAGCTCCAGACCCTTGTCCCCAGGTTTTGACCCCACCCAGACCTTTGCCTGGGACGGAAAGCTGCTTCATTTCAGGAGACACCTGAAGTACCTGGGTTGGTTCAGAGACTACCAGAAGTTTTTGGACTTCTTCTAGTCCTTTAATGGCCAAAAGGACTCAAGGGCCTGGCATGTAATGGAAAAGGCATCACCTCTCTCATGGAACGCAGCTGGAAGGACCAACCCCTTCATAGTTACAGGAATCTGAGCTATGAAGACACTAGCCAGGCAACAAGGCCCTGGGCTCAGACACAGATGAAGTTTCTCTGGAAGAGAAATCTGGCCTGTTACAGACCTGGGAAGTGCCAAGGCTTAGCTCCTGAGAAGGATTGCTGGTGCTGACAGCTGGGAGTCAGGACTCCAGGGCCACTTGTATGGAAGCTGGTGCCCGTGGTGCAGGAGGATGGGGGCTCTGGATTCTGCACCACCCCCCATAGACTGGCCCCTCAGAGGGCTCCTGTGGTGTCAGAGCCCTCTCACAAGCGCCTGCCGTGGTTATCAGCTGAAGCTGAGTGCTTGTGGAGTGTGGACAGAGGGCAGAGGGAGAGAAGCAGCCATGGGCTTCCTGCCAGGAAGCTCAGCAGCTCCGAGGAGACTGGAGAGTCATGGGACACAGTGCGTCCTCCCCAGAACAGCCTCCAGCCTGCCAGTTCAGAGCACACGCTTGGAGGCAGGAAGGCTGAGGTCCAACCCCATTCCTGCTATGGGCCAGCTGAGAGCTGTGGACAAGTCATTCGGCTTCTCTGAGCCGCAGTCTTCTCACCTGTAAAGCGGGGGTAATAATACCCTCCTCACAAGGTTGTTGCAAGGCTTTGTGGGGAAAAATACAAAGTGCACAGAGTTGTTCAGTAAGGCGTGGGCCTGCGGGGAAAGGCGGGGCCATGAGCTGGCCAGGGGAGGAAAGGACAGATGGGGACTCCAGATAATGAAAGCATCTTTGCATCCTCAATGATATAATCTGGGTTTGTTGTTGTTGTTGTTG
1 ATGATCACACCTCTGCACTCTAGCCTGGGTAACAGAGCAAGACACTGTCTCAAAATAAATAAATATTAAAAATTGACAAAAATTATATGTATTTATCATGTATAACATGATATTTGGAATATGTACAGATCCTTTCTGTAGGAGATGAAAGAAAATAAAAGAAATATGTATACATTGTAAAATGGCTAAATTGAGCTAATAAACTTTTATATTACCTCATATACTTATCATCTTTTTTTGGTGAGAACACCTAGAATCTATTCTCTTAGTGATTTTCAAGAATATAATACTGTACTTTGTGACTAACTATAGTCTCCACATTGTAAATAGATCTCTTGAACTGCTTCCACCTGTCTAACTGAAACTTTGCCTCCTTTGATAACCATGTTCCTTACCCCCACGTCCACCTCCCAAGATCATCTAATGTGAATTGATCATTCAATAAATGTTGTTAAACACTTAAAGAGCTGATTCTGATCTATTTTTATAAGAGATATCACTTTCGCCAAAATCTCGGATATTAACTTAGAGCAAAGATTTAATAGTTTTAAAAAATCAGCCATAACAAAATAACAAAAACAATAATATAAACAAAACCAAACCTACCAATCAAGAAATTATAGAGTCTATTTTCATAATTTCATAGACTGCCCAAGCATTTCAGCAAAACAAAGCCACACTGAAAAATATTGACAAGTTTGTATGCATAAAACTGTAAATCTTGTTTATGGGAAAAAATGCAATAAGCAGAGTTAAAATTTAAATGACAAGCCAGGAAAAAATATTTGTGATTGTGTATGACAAACAAGAAGTTAATATTACTTGATGGGATCTGAGCTCTGCACTGTTTCTCTAGCACTGGGCAGCTGTTGAAACCTCTTGTCAGTGCTTGCTTTCCTCTGGATTCCTTGGAGTCTTGCCCTGTACTGGTGCAGCTTAGGAGTCAGCCAAGAATTCGAGACGAGTTATATACAGATTTGGGGGTTCTCCCTCTGTTGGTCTCTTCTTTCTGGAATTCCTCCCCACCTCCTCAATTTCAGCTGCTCTGGAAGCCCTGATTCTGGCCTGATTCTTCATCCCAGCCTGTTGGCCTCTTTCTGCTGGAGTTGTATCCACACCTCACCCCACTCCCACCTACACCACTCCAGACCCCCAGCACCGCAGAGTCTTGGGGGTAACCTCAGTTACTGATCAAAATCAGTTCTTTAAATGTTTAACATTTATTGAATAATCAATCCTTTATTCACAGTTTAAAAGTGTAGCTCTATCATATTTAGGTGACTAGATGTGCTGATTTGTTTCTGATGTCTGTTCGTTCTGTTCCCTTAATCTGTTTATTTATCCTTCTGCTAGTCTCACAATGTTTTATTACAGTAATTTTCTTGAAGGAAAATTTGTATTATTTTAATTATTTTTATG
0.6349225760254678 AAGGGAGAGGCTGGAGGACAAGGCCTGAATTGACACAGACTGAAAGGCACTTTGATGCCCTTTGTAGTATAAAAGAGCTTTGGACTTGAAGTATTTTTCTTCAGTCCCACATTGACTTGCCTTTGAATGGCTTTCACCTTCTGCCATGCAAGTTTCCTCATCTTTTGTTCCTGTAAAGATTTGGTGCAGGAAATAGAAAAGGGTTTAGGTATCTCGAGTAGAAGGGAATTTAATACAGGGAATGGGGTGCTGCAAAATTGTTGGAAGAGCCGTAGAAATGCATGTGAAGAGGTCCTATTAGACTTACAGATCATGCTGATGCTAGGTTATAAGGTTATAACCCTGAAGCTATGAACCAGAGGTCAGGAAATCATTGTCAACACGCATAGGTCAAGAAACTGCTGCCAGTTTCACAGTTGCTTCACATTCATGAAGCTGGTCACTATAGGGTGATTGTGAAGTCTGTCCACTACAAAATGCATTTCTGCCAGGGCTTACCACTGCCATAGAAATAAAAACGGGCTCCACCAGCATTTCACTTTCCAAATCTCATGGGAAGGATCTTATTTCCTGGACTTCACCTCAAACCCTGGCAGCAAGGGAGCCTGAGAAATGTAGTTGTTAGCCTTCCAGCCCCTATGACACAAGAGTGTGTAGAAGGGGGTAGATGTGAACAGTGAGTGCCAAAAGAGCATGTCTGGCTTATCTCTAAGCTGTCAGACATTCTCAATACCTTTTTTGATGGCTCTCCTGCTTATGTATTTTTCTATAGCCAATTAAAAACTATTGTTGTACAGTTATTATGTGCTAACACTGTGTTAGGCACTTCAGAATGTACAGAATGATAGCATGGTTTGGATCACCTGACACCTCATCCACTCAAAAAACTTATGTTTAATGTCTATCAGGTACTCAGAAAACCATCAATAGCTCCTCGTTATCTATCAAACAAAGTCCAAGGGCCTTAATTTAAACCTAACAGACTCTCCATGTTTTCATGACCTCAACTCATGTTTTAAACCTTATCTCTCATTTCTCTGCTTATTGAGCTCTTGTGGACCAGGAAAACTGGATGATTTTCTCTTCTTTATACATGAGCCTCTTTTCTGCCATCAGCACTTTAGTTACAATGTTTTTCCTCCCCAGAATGTCCTTCTTTCCATCTCCCTATGGTAAAGTGCTGCTGGCCCCTTAATGTCCAGCTCACATGTCACATCCACTGTGAAGCCTTTCCTGACGCAGGACAGCTGGAGATACTCCTTTCTTCCCAGAATCTTGGGAACTTGTTTTAATCTCCTGTGTGAGATTTAGAACGGTCTATCCTCAATTACGGTTTTTTGTTGTTTTTTTTTTGTATAAACATTATTTCTTCCAAAGTAGACCCTGGTCCACAGAGGAAAGGAAATTATTTCTTATTTATTTTTGATCCCCCACATAGTGCCATGGTGCTTATTGAATGAATAAATGTA
0.4878369752466778 AAAGTTGGTGTGTGTGTGTGTCTGTGTGTTTAAAGTGAATAGATGTGACTCATGATTACAAAATAAAGCAATTGATTCTACAGCACAGTAATGAAGCTAGGTGGCATGGTAAAACTCAGATACCTTGTGAAGATGCAGAGTGATGAGAGACTGTCAGAAATCCTTAGTTCATGGAAACTAAGTCCTGACTTTGAGGTTAGTTTAAGTGAAGCAGTACATTGGTAGAACCACCTGTTTTTATGAAAATCAGAAAAAATCCCCTTTGCCGTAGAAAATATCCTTTCAAAAACTAAATTTATAAGTAAAATAGGAAATTAGAATACTTCTTAAAACAAACAGAATCCAAAGTGTATCGGTAAGAACTTAGCTCTCTCATTGTCCTTGCATCCAAATAAGGAAACAAAAACATTAAAAGGCTGAGTGGATTGTTCAGGTTCCTGTAACTTCCTAGTGGCAAAACCAAGGATAAAACCTGTAGTGGCTGCTGTGGTGCACTGCTCAGATGCCTCCTCCACAGCCCTCCTCCCCACCACAGTTTTATGTCTGAGACACTCATTCCATCTGTCGACAGCTGGGAGTGTTAGTTGCTGAGACAAACAGCCAATTTCCTCTCCAGGAATTATCTTCTTTCTCTGGGCACTGTCCTCTGCCAAAGGGAGTTGCCTTGCCTAAGTTTATACCTCCTCCCTAGGCTAGGGGCAGCCTCTGTGGAAGGGGAAATTAGAAAAATCAGCCTCTTTACCTCAATTCAGGACAACCCTGAAGGGTCATTTCAGCTCCAGAGCTCCCTCAGATAGCAGCTGAGGTCTTCATTTCAATTACATCACCGTTCAATTTCTCCTGTTCACTCACTTCTGGTTTCATTACTCTGTCACAGGTTTGTCCTGTTGGTACTTCCCAAAAAACTTCCTGCATGCAATCTACATCTGAGTCTGTTTTCTAGGGAGCTGGACCTCAGTTAGTCAGTGCCAGGAACGCTCTGAGGTTTTGGAGCTAGATTATTCATTGGCCAGCTGGTAAAGAGGATGTCAACACTGTAGTAAGTGGAGGACTGAATGCCTCAAGGATGCTTTATTGGTCCAGTTAATATACTCACTGTTGGTGACTGGGAAGGGATACTACTGAAAGATAATGCACAGAGGGTTTTGGAGTAGTAATTATCGTAAGTCAATGAAATCAGATGATTCTTCGTGAGTGTTATCAGTGCATTGGAAAAAGACAAAGACTGAGGGTCGTTAAATTACCAACTTAAGGTCACTGTGGAAGTTAGAGTGTTTCTTAGGCAGGATATAAGGACTCTCTCCTTTTTTATGGCTATAGGAGAGGCATTGTTGAGGATCACATACAAAATTTAATTATAAGGCTAGTGAAATTTCAGAAAAAGTGGAATTCCAAACTCTGGCATGTCTATTCTACCAAGATCAGGGCCCTGAG
0.1791822773727257 GCTGGGCCTGCCTGACCTTATGATGTGGTGGGTCTACAGGACCCAAACCATGATGGGTGGTTCAGGCTGCATGGTCACTTAGTGTCTTGTGCTTACTGTGATCAACAGTCTCAGTTTGCACAGAACTGGGGGGTTTCTTGTGACATCAGACTTTCAATGCTAAAACCGGAAAAGCTGGGAAGATCTTGGGCAAACCGGGATACATTGGTCAGATGCTCTGTCTTTAGTGGGGCCTAGTTAATATGCCAGGAGTTCTATTTCAAAAGGTGTGTGATTCTCCTTTGAGCATAACATGGTTTAGCTGCAGAGCGTCAGAAGCCTGCATTGTTATTCTCCCACCAGGGTTTGCTATACACTTGATCTTAGCCAAAAGGCTGAGAAGCGATACTGGGGTTTGCCATAAATTCTTTGGAGTCATCCACCCAGATGTCCTTATTCCATGGGTCAAGGTCCCAAGTTTTCCCAACCAGAGCCCTGACCTTGGGTTAACAGACCTGTCTTAGTTGAGTCAGCCACTCTGACTTAAAGTCCTGGGCATGGTCCTTGGCTTTCCACATCCTCCAGCTGGAGGTGATGAGAGCTTCACTGCATGTAACTGAAGAGTCCCTGTGGCTTGCATTCCTGGCTTTCAGTTGCCTGTTGTTCATCTTCAGCTGTGCATTATCTTTTTGGAGAGGATCAATGACACTTAGCAATAGCCATCCAATCCCACTCTCTTAATGTCTGCACCTTCTTAAGTGTCAAGCGTCCTGTAGATTTCTCTCACTAGTTCGTTCCCTTCTACTAACACACCATCCCAATTCGCAACTAATGAAAGTGTTAACAACAGGACCACCACCTGGTGCAGGGGCTGTCAGTACTCCACCTATCACCAGAAAAACAGGCCCTAATTGCCAGGCAGGTGGTGAGTGATTCAACTTCAAACTCTGTCTTATCTCCACCAGCTTTCTCAGCCCCCCTCTCACTGCCAAGTGTTGCAAGGCTGGCTGTCTAGAAGCAGTCACTGACACAGAGTTTGGGGAGCACAATACTTATTAGAGATTAATACCCATAAAAGGAAGAGAGAAGAGACAGGATTGGTCAGAGGAAGAAGGTGATCAGCAACACAGACCCACAAAGCTTTGGCTAACCTGGCAGGGCATTCTGGAATGAATATTCCCTATCAGAGTCTCTTGCAGGCTGCCCTGGAGGAGCAAGACCAGCGAAATGGCTTCTGCAGCTGAAGCTGATGCTGGAGCTGATACTGGCTGCTAGCTTCACTCACTCTCTGCAGCTGGCCCTACGTCCCTCTGGGAAGGGGGGTCTGCACAGCACATTTCCACAACGCCCACCTTCCCTCTCCTCAGACAACTCAGAAGACCTCATGAAACAGGGCAGTGGCATTGCACAGGATCCGATGTGGTCATTCCCTCCACCTAGGAGGACAAACTGAGCCCTCTGTGTTCCCACT
0.614856307706666 CCAATTAATGTTTGTTTGTTTTTAAGTCAAAATAGCCACCATGGGGAAAAACTCCGAACATGCCAGGATGTTCTCACGCTAGCTGGACTATTAAGTACTGTTTTTATCTTTCGTTTGCTGTCAGGTGGTGACAGCCAGCATCTTTTCAGTCTTTGGGGCTTTTAAAGATTTCAATCCAGCCCTGCTGGAGGCATATTTTAATTCGTTTCTTCTGCAGGGGCTTTTTGCACTTTAGCTCCTGGAATTCAAGTCTTAAGCCATTACATCCCATATTGTAAGGGAGAAAGGGAAAGGCTTCTCTACATGTTTGTCTTATAAAACTCTTCAGCGGATCACATAAGTATGCATGCTAATATCAGTAGCTTACAGAGTTAATCTAGTAATGTATTAATATTTAGGACAGAGCCTGGCACAGGAAAGTGTCACATAAGTGCCCACCATGATCTCCAATGGAAGCAAGTAGCACAGCGGGTTAACTTGCCTTGGGGTGTAAGGCCCCTTTAAAGAGGGCGGTGAAGTCAGCCACCTCTTGATAGAACAAAGGCATACCAGGCCCTGCCAGCCCAAAGCCGGGTGGCTGATGGCTTTTGTCACCAAGTGATAGCCTATCTCCTCGTGTCAGGGCCCCCAGGCGTCAGTGAGAGCCACCAAGTGGGGAGGGTGGCTTCTCTTGGGAGTCAGATTCAGGTGGACCAGGCCTGTGCCCAGCAAAGATGGGTGAGCCACATAACGGGGCACCCCCTGTGTACACAGCACCACTGGGACAAGCAGCATCAGCTCCCCGTGCCTCAGTTTCCTCATATGTGAAATGGGAACATGTAATAGAGGTCCTTCAAAAAGTTATCATGAGGTTTAAATGAGTTAATTACTGCTTCTAAAGTTCTAGAATACTGCTGGGCATGGTGATGTTCAGTGAATGCCAGCTCTTATTCCAGAGAACTGGCTAGGCACCCATGTCAGTGGAAATGGAGGTAAAAGAAATAACGTGTTCCAGCTGGGCGTGGTGGCTCACGCCTGTAATCCCAGCACTTTGGGAGGCCAAGGCGGGCAGATCATGAGGTCAAGAGATCGAGACCATCCTAGC
0.8094549224992473 CTGTTGCAGATACAGCCATGGACAGAGGCAGGAAGGGATGCGCTTGGCGTGACCTCGTAGCGCCCTCCCAGGGGGAGCGGGGGGACTCCAGAGCAGGGCACAGAAGGCTTCGGGGCGGCGTTCAGTTGCCTGGCATAGGTGGTGGTGACACCTTGCTTCATTTTATTCTTGTTCTTTAAATTGTGTGTGTTTTCATGAAAAATATTCTGCTTTGAAAATAACAGGTATGTGTAAAGGAAAGAAAGCAAGCCAAGTCTGCCCAAGTAACTTTATTCGTGTCTTCTCAAACATTTCAGATCAAATAATGCCATTTTCTAATCTTGAAACCAGCAAGATTAGAAAGAGAATGAGGCCATCCTTTCACTCAGACTTTCCCAGTTACTCAAGATTGTATTCAGGAACGAAGTCAAACTCGGCCTCACTTCTTAATTAGAATAAACTAGAATCAGGTCCATTGCATAACTGCTAATTGTTTTGCACCAGGGAGCCACAAAGGAAGCTAAAACTAGCCTTTCTAAGTTATCCTAAGTTTTTACTATCTAACCAGCACTTCTGATTTTTTTTCCCTTAAAACTCTAAAGTACAGGTGTTGTATGTCTGCCGCATCTGAAAGGCTGCCCCGGAAATCAGAGCCTATCTAGCGGGAATGTCTGGGCAGTCACCCCCATCCTGCGCGCAGATAGCAAAGGGCTGCTGGCAGGTGTCAGACACACGGTACCGCAACAGCAGTCCCGAGGTCTGAGATTCTGAATGTCAGCAGGTGGCTGGAGAGTATCACCAGAGCCACTCAGGAACCAGCCATGCGGAATGGCTGGGTTTCTTATTGAACATGAAATGCTTCCTCTTTGGCCTGGACTGTTTTGCTAAAATTGTTAGTGGGTTTTGGGGCAGGCCAGTGTATGGGAAACTTTTTTTTTTGTTGGGGGGGGCGATGGAGTCTCCCTCTGTTTGCCCAGGCTGGAGTGCAGTGGCGC
0.9313638667817228 TTTGACCTTTATTACTTTTTTTATTCTCAATTCCTGGTATATTTTCTTTTTTAGTAATGCTTAGAGCCAATCATTTGTTCCACCTAGTCCTCCTAATTTCAGTCTTAACATTTTTCAATCCGGTCTCTCTAGAATGTACCTCTGATGCTGCCAACTTCTTCCGAAATATTCAGTTTCTCCTATAAATAACTCATAAAACTTGAAGTTCTAGATACATTTCCTAACATTAATTCAAGATCCATCTCCTAAGTTTTCTCTTGGAGTCAACAGCCCTGTCAGAACAAACTACCTCTCATCACCATAACATATTCCCTATGACACATAAATTGTGTATAACTACCAATTCAATTTTTGAGGATTTACTTTAAAGTAATAAAAGATATTGATTATATAGTACTTTTATAATAATTGTTTTTAGGACCTCAGATGTCTAACCAAGGCTGGGAATCTGATGAGAGAGCCACTCTCCATGAAGCTGAAACAGGGAGATTCACCACCACTTACGTGAGCTGAATGTGAGACTGTCCAGCTCCTTCTCTACTGAAGGGGCTGTGGAAAATGATAAGAGGGACGATGCCTTGCTGTTGAGCAGAGTGAGGAGTGACAATGTGCGAGAGAATTTTCAGTCAACACTTGTCATTACAGGAGAACTGCACCTCAAATACGTAAGACCCGGATTATCCAAATATCTTAAACCATACATTTAAGTGACAAGGGTTACACGGATTATGCATGGGCTGCAATAAATACAACTACTTTCTGCAGGAATATAACTTCATTCTAGGCCCGAAACAATTCCCCCAAATAATTTTCCAAAGAAAATGAGTTGTTTACAGCAAAAAGTTAATCACAGGCGCATAAGACCTGAGGGAAGAACAGTGAAAACGAAGAGAAGAAATGAATCTTGAAAGATTCCAAATAGTAGAACTACCATGCACAGACCATAAAAGAACAATGTTTATCATGTTTTAAGACATTACAAACCAGACTGAAAATATCTGCAGGGAATAGGAAACTACCAAAAAATACCTCAGTGTTTTTGAAAAATAACTAAATAAATGTAGAAATGAAAATCACAGTAATTGCAATAAAAAACTCAATAGACAGATTTAATAAGACTATAAAGGATGCACTCAAAGATACCCGAAGAAATTTCCAGTGCATTGCACAGACAGATGAAGAGTGAGAAAATAAAGGAGAAGTTAAAAGGCAAGACACAGTGAGACACTAATCTTATCAGGTTTCTAGAAAGGGAGCAGAAAATGAAGGGCATGAAATATTTAAAGAGATAATTATTTAGAGTTTTC
0.4435684024791207 CCATCATAACAATACTGTCAGAATCTTCTCCCTTCCTCCAATTCCAAACCACCTGGAAGACCAGCGGGAAAGGCAAAGCTAAAATCATGAAACCAGCCCAAAAATTCATGAAGTCATTGATGAAAATAAACTATGAACTCTTTTAACCTTGTCTACGTCAAATCATGCCTAAGTTTTTTTCTACAATAAGATAATCAGGTATGGGTAGAAGAGTGCTTTTAGGAAGTTCTCTTTTTCCATTTGATTTGAAAATGTTCGGTTTTAACGACCACTAGAAAAAGAATTTTGGTTTTGGTAAAGCCATACTTTCTCTGTAATGTGACTGTACTTCTAGCCCATAAGAAGGCCAGAATAAATTAAAAGTAAGGCCTAAAAATATTTCCAGTGGGATATCCCCCATTGGCTATGGAATCCCACCTTTCCCCTCCACCTTGATTAACACTCCACAAACATGGGGAATATCTGCTCAGGCTCTGAATTGAGACACCAACCCTCCTAGAAGACAACAATTTCCACTCAAACAACTGGTCCTCCTTGCCTTCTTGTCAGCACCACACGCTGAGGGAGGCTGTGTTTGGTCTCTTAATCAGGCCTTGCTGACGGGCTGACATCACTGCAAACGTTTTCACTTACTCTTTGGCAACAGTTAAATCCTTGCCAAAGGCCAGTCAGTAAGTCGGAAAGTGTTGTGAGAGAGAGGCTGGGGGAGTCGGAGTGTGAGTGTCAGCTAGCAGTCTGTGGTGATGACAGCAGGGAGATCTAGGTGCTGAAACCATTTTAAAGGTCACTCTGTGGCAGAACAAAAGACCTCTGATTTAGAAAAGGAAACAGAACTCTGGGCCATTGAAGCCCTGGGATGCCGCCCTCTGAGCACTCTGCAAATTCATCATCTGCTCCCTGATTGTGAAGACTGGGGAGGAACTGTTACTTTACAACCCAGTACAGCTTCTGCCAGCAACTGTGTGGCTTAGCAGTGGTACAGAATAATCTGGTAAGATAGAAATGCCAAATAATGTATCCATGGTCCAACTGCCTGTTGTTTTTAAAACTATTGAAATAAGTCACTGCCTGTTCTTCTTCGGTATTCTTTCTCCTTACCCTTCATCCTTTAATTTTCAAACTTGAATTGCTAAATAATCTAAATTTAAAGTTCTTAGCTACATAGCATAATGTTTCTGTAAAAAGAGATTACATATACTTGATGACTAAAAATTTATGAATATTCATATGTGGAAGCTAAAAAAGTTGATCTAATAGAAGCACAGAGTAGAATAATGGTTACTAGAGGCTGGGAAATGTAGTGAGAAGGGGAGAACGGTTAGAGGTGGATTAAAGGGCTG
0.7255780319191122 ACCATCAAGGGAAATAATGGTAGATTAAAAATTATTTTGCCCCTGGCTTTCATTAGTGCCTAAAAACCCAGGCCCAAGTGTCAACTGATGCATTACCATCAGATTATTTACTTCACAGATCAGTGACTAAGTTTATTTGAGTCCGATTTTCATGGAATAGCATGGATTTTTTGTTTTATTTTTAAATCTGATAAGTATAAGCTTACAGGTGTACCTGTTTCCTGCTGTTCTGAAAACGTGACCAGGCTCTCTCTGTGACAGGATCACACCACAGCTCGTAGCCACTCTGTGCAATAATCTGCAGATGATAACGCCTTTGCAGAGCAGACCTGCACGTGTACTTGCAGAAAGGTCTCTGTCAGACACAGCGGGTGCCTGTGATATCTGAGAGTGGGTCAGCAGGACTGGCACGTTCAGCAGCTCAGGAAGCCAACTTCCAACGGCAGGAGCAGGACCCTCTGCATGTGACTCTGATGGGGCAGATGGTCCTTGGGGCTTCCCTAAAGCCAATGGTACCAAATAAAAGAGAACATCATCTACCCTTGAGACTGCTAAGTGGCTTTAAGAGGCAGAAAAATGCCAAGCATGGACCTTAACCCCCAGATGACAGCAAAATGGGCAGAAAGCAAGCCATCTCAAAAATGTCAGTGGAAATAACTTTGAGACCCCTGGGAAGTGTTTCAACTTGGAATAAAACAAAAGAGTGTATTTGGCAAGTAAGCGTGGGGTGTGGAGTGTTAACTTCTGTTCCTGAGCTAGGATTCTTAAAGCATCGCACACACATGATCCCCTCACAGACAATGGATAAATGGGGAAGAATTTTCTTAGCTGGAATAAATAGCACTCATCTTTATAAAAGGAAGTTTCAAAGCCTGAGAGCTTATTTGGACAAAAACATGAAATACGTTCTTACATAAACCTGGCCCTGGGCCATTTATTCAGATAAATCATATTTTCTCACTTTAAACTCTTGAATTCTAAAGTTTGATATAGAGAGGGCTAAAGGAGCAAACTTAAGAAAGATTAAATAGCATAACCAGGTAGCGGAACTTGAATGCAAGTGCTCTGATTCCCAGGAAACTTGGGACTTCATTGATTTATTGTCTTAATATCATTATATGAAAAAGTAAGGTAATGTATACAACATTTTATGTTTTATTAAAATAACAGAAATATAATAAATACACCTTTGTCCTTACTGATATATGTAT
1 AATTAAGGTTGTTAATCAGCTGACAGAGTGATTACTCTGGATTACCTAGTGGGCCCAACTGAATCACCTGAGCTATTAAAAACAAAAGAGGGATCAGGCATGGTGGCTCCTGCCTGTAATCCCAGGGCCAAGGGAGGCCAAGGCAGAAGAATTCCTTGAGGCCAGGAGTTCAAGGCCAGCCTAGGCAACCCCATAGTAAGACCCCACCTCTACAATAAAAATAAAAAATAAAAAAAAGATAGAGCAGCAGAAGAGTTGGTCAGAGATGTAATGAGAAGGGCTCAACCCACCATTGTTGGCTTTGAAGATGGGGGAAGGAAGCCACAAGCCAAGAAATGTGATGGCCTCCAGAAGCTGGGAATGGCCCTCAGTCTACAGCGAGCAAGAAAATGGAGAATTCAGTCCTACAACCACACGGAACTGAGTTCTGCAAATAACCCAGATAAACAAGGAAAGAGATTCTCCCCTAGAGTCTCCAGAAAGAAACATAGGTCTGTCAACACCTTGATTTTCACATAGTGAGATCCATGTTGTACTTCTGACCTCCAGAATGGTAAGATGGTAGATCTGTGTTGTTTTATGTCACAGAGTTTGTGATGATTTGTTACTGCAACAATAGAAAGTAATACCTATGGTCATAATGCATGCATTGCATCAGGCCTTTGCTGAAAGCTTTACATGCCTGGTCTTGTTCAATCTTCACTACAGTCCTGTTAGGTAACTATTGCTGTCGTCACCTCCATTATATGGAAGGGGAGTGTATTCATTTGCTAGGGCTGTCATAGCAAACGACTGCAGACCTTGTCTCCAAGTACAGCTACATTCTGAGGTACTGGGGGTTAAGACTTCAACATATGGATTTGGGAGGATACAATTCAGCCCATAACAGGGATACAGTGTCATAGAGAAGCTGTGTCCCTTTTGCAAGTTCATACAGCCACAGTCCCTAAATGGAAAGTAGGGATTGGATCCCAAATTGGTTGGACCCCAGAGGTTGTCCATTAGCTACTATGCAATGATGCCTCCCCAGGTCCCCAGTCCCAGTACAGAG
0.9678371698870207 TATCTGTTGCCAAGAATGGCTAAAATCTGATCTGGATCTAAATGATAAAAAAAATAAATAATCTCCATATCAGCAACCCAATAGCACTTTGAATTTACATATGATTTTCTACAAGATATTTTATTTAAGCATAACAATAGCTCTGTCCTACTCTGGTATCTTGCCACAGATGGGCATTCAATGTATCTTTAAGAAGGGACACAACAAATGATAGCCGAGTTAAGGATTAGTCCCATTTTATAGATGAAAAGCAGAGGCTTACAGTGATTGAGGAAAAGTGACAGAGTCAGAAATGTTCAACGTGAAGCAGAAGAGAGGCTTCTTGAACGTAGTCCGTTCCTTTCCCCACACCACCCTGCATCACAGTTTGACAGACCTGTGTACCACTCCTTCCCTTACATGTAGAAACTGGTTATGGTTTTCGTATATTCAACAGAAAGAGTGTCCTCATGATATTTCTCTGATAAATGCTAGCTATGTATAGAAACCCACAGCTAATCAGCCACTTCTGACAGATCAGTGTGAAAAAAAAAATAGTCAACTAGATTGATGGACCACATTTTTTACTTTTCAGAGGAATGTGACAGTTTTCCCCCTCATTCCTTGGAGCAATGATAAAGAATCCTTCCAATTCTGTATTTGAGCACAAGGAACAAATTTTAGGAGTAATAACTCAATATTAATATAGTAAATTTTGCTGTATAGATTATGAAACATCTTCTTAAAGTCCTATTTTGTATATGGTGTATAAAACATCGATGACATAAATTCCACTCAAAATTCTCTGTGTGCAGAGACATCTGCTGCCTGGCCAATATCTATTCTCACTTCCTCCTTATTAACACAATCTCTGTATTGTTGATAGCAACAATGTGCCCAGCTACATATCCTAGCCACCCTTGTAGATAGGTGTTAAAATTTAAACAATTTTAAGAGGGACTTCAGAGAAGCAGAAAGCATTCCATTGACAGGCCTTTCTTTTTTTCTACATCTCTATTTCTAAAACTCAGATGTGATGGTTGGAGCTGCAATAGACAGACAGACATCTTTAGACCATGACTTGACCTTGAGGATGGAAGCTACAGAATAGGAACGCAGAATAGAAGGATTGAGAAAAACTGAGAGGCTGATGAAATCACAACATCACCATACCAGCCTCTTGACTTCTACATCAAGGGAAAATTAATTCTATTTAGTTTACAAGTATTACTTAGATTTCTGTTACTAGTTGACCCATTTAATCATAACTGATGAGTCCCCCAAAATATAAGTAAAATAAAGAGCTAGAAAATTTTGATTAGGACTATATTTTGAAATTAAAGAGCTACTGAGTAATAGATGGACGAGTGTCCCATGCTAATATGGCCTAGAAGAAGAAGATGATTTTCCCTAAATAAGGCAACCA
0.6523354328460252 TTCCCTGACGCTATGCACATGCAAACAAGGTATCATCAACACTATCATCTTTATTCTCTCACTCAGTTAGAAAACACTCATTGGGCAGCTAATACGAGTCAGACCCTGGACCTGACACTGGCATACAAATACAGAAAAACACCGCTTCGCTTCTGGAGTAATTTCTTAAGAGAGAGAAAGAAGGAGAAGGGAGAATGGATGGAGTGAAAAATTAGAGCAGAGTTCTTCACCAGGAGCCAGGGGACCACACAGACATTTTCATAACTATGTGCAGTTTTCTAAAGAGAATACTCAAAGATACACATGAACTCAGGAAGGCAGAGGGCTAGTGATGTAGTGAAACTATGAGAGGCCAAGTACCATGTTAAATTCTTAGTATGTGTGGGTGCTTGAAGAGTTTGTGCCCAAAACAGTCCACAAAGTGCGCATGGAAATATACACATAAGGGATTTGAACCTGTGCTTGGCTGGTGCAGAGCCTGCCTCTCTCCCCAGCATCAGGGATGGTTTCACGGCATGTGGCCTCTCCCTGCTGCCATGCCTCCATCAACTCTCCCTTTCTCATATCAGAAGATCACAAGCATTTAACAGCCTTGCACTTGTCTGACCCGAGCTTGCTGTATCTGCCCAAGAGGGCTGGGAAGATAAGATGAAACAATCCCTGTGAAATACTGATCACTAGTCAGCACTCAAGAGGTACCAGTACATCACCATTCATCACATATTCATTTAGGACCTAATACATGCCGGGCCTTGGGATAGGCGTTCTCATCACCTTCATCACTTACTGTTACTACGTTTAACACCCTCCACTCCCAGCAACATGCAGAGTGCTTCACACAATACACACTCAGTAAATGTGGGTTCAGTAAGTAAATGGTGATGATCTTGGTGGTAGATCAATTTATTCTTCAGCAAATATTTATGCCTTTCCCTGACATCCATGGCTTGATCCTGTGAGGTGAAAGAGACAGTGTACCAACTCTGAGCCTACATCTTACGAGACATCATGTGTTTCTGCTTGCTCCACAAGAGAAGAATATATACGTGAGTAGTACTGTCCAGAATGAACCCATGTAGGACAGACCACCCCAGCCAACTTGCGCACTTATAAGCATAAGAGTAAATGTTTGTTATTGTTTGCCACTGAGTTTCGGGGTAGCTGTTACTCAGCAAAAGCT
0.6689854608166432 AACAAATTTCCCAGATAGTTAACAAGAAAGGAAGGAAATACTTTAAAAGTAAAACTTAAGATTTAAGTGATTTTTTTTTTTGCACTTTGAAAATACATCTTGCTTTAAACACACAAAATCTTAGCAGCTGGAAGCCTGTTATGTGTTTAATTAAATGGCCCACACATGTGTTTGTAATGCACAGCACTGTGGTCTGTGAACGGAATCCTGGAATCCCCGGGGTGTATGGTCAGCCTTTTGCCTCACTGAACTCTCCTCTGGAGGCCATGGGAAACAGGGTACTTGTTTGAGTTTTCTCCTCGGGTCCACATTTCCTCTATCGACTACTGCTGTGTAAACAGACTCATGTTCAAAAGGTGCTGGGCTCCATTGACCTAATCCACTCTGAAGTGCCAGATCTGTCCACACGTCCTCGGGATTAGGCCAGCATGGCCAGCTCACCCTGACTTTGCCTAAGGGATGGTGCAGTGGACTTGGACCTCCCCCAAGCCAGGTTCATCTGATTGGTTTCCCTTTTGCGCTCTTCTTCCCCTGGGAGAGGATATCCTCAGCATGGACTGGGGCCCACAGAGCATGGAAGCTGAAACACCGATTCTTCCTCAATGAGCTGAAGTTCTCCAGATGGCAGCAAGCGCTCGTCATGCAAATTCTTGGCAGCAGGGAGCCTGTCAAGTGGCTACTGCTGCTTATTGTTACCAACACTCCCCCACCCCCTCCACACAAATGCAGAAGAAACACCATCTGTCGCCTGTGGGGCTGAGCGGTTCTTTCCAAGTCCCTTCTAGTCAGTGCCGCTCAGCAGCCCTGCGCTGTGCGCACGGTCCAAACAGGAGTTGCCTCTCCTTGAGCCAGGGAGGACCCCGTCCGGTGCTGGCAGTTCTCTTCTTCCACGCCTCCTGGGCCTGGCCCCTCATCCAGGGCCGAGCCGGGGCGTTTTGCTAGCAGATTTCTCATAAGATAGTTATGTAACAAGAATAGGAAAACGATTGTGTTTCTCCCTTTAGATTCTGGGAAAGAAACAAGATGAACTGAGTTAGCAACGTGTCTCCATCACTAGTGAGAAATGTGAATAGAAGATAACTGGTTAAGGAGCACACTCCGGATGTGAAAAGCACAGCCTTGA
0.7295509817791076 TAGGCTTTGGTGTGATTTGTCTTGCAGCATTACTGTGGCAACAGACAGATCTATTTTCTTTCTCCACCAGCTAGAATATAAACTCCTCGGTGGCAGGAGTTTATCTGTTTTGTTCCCTGCTGTATCCTCAGGGCCTAGAATGCTGCTTAATAAATCTTACTAAATTAATCAATGAATTTGAATCAGACGACTCTAATTTACAAATCAGTTGGTCATTTTGAGGTATATATATATATATATATATAACATTTTTAAATCATCAGAAATTTGAGAATTTAAGCATTAATATATTATAATTCCTATAATTGATAAATAGTTCATTAAGGATATAAAATATGCAGTACATGAAGAAAATATTTTTAATTTACAATGTAATAGTCGATGCTATGACTGATGCTCAGATGAGGATAAACCAACTGAAAGATAGATGAATGAGCTTTGATTATCTGTTCTCTCCGAACTGCTAGGCCTGATATGTACTGTATTAATTATTTATTGCTGTGCAATGAGTTACTCCAAAACTTAGCAGCTGAAAGCAGTAACATTCATTATGTCATGCTTTCTGTAGGTCAGGAATCCAGGAATGTTAAGTAGGTGCTTCTGACTCAGGTTCTCTCATGAGGTTGCAATTAAGGTGTTGATCAAAGCCAGTGTCACTTCAACACTCAACAGGGGAGAACCCACTTCCAAGATCACTCACGTAGTTGTTCTCAGGCCTAAAAAAATCCGCTTCCAAACTCAGTCACATGGGCCTTATGACATGGTAGCCAGCTGGCCTCCTTCACAAGAAAGAACTGGAGAGAGCACCCAAGACATAAGCTACAGTCTTTCTCTCTCTCTCTCTCTTTCTTTTTTTTTTTTTTT
0.3562162005412374 AAAACTGGGTGACATTTTACAAAACAGAGAGAGGCTCTGTCACTTCCAAGGGAAAACTGAACAGCCAGCTACCCTAGCCAAGTTGGGACCTTAGGGAGGAAGGACACTGCATACGGCCTTTCCTCTAATCTCCAACTTAAATGTCCTTGTTGCTTAAATGTCCTGTTGCTTCCCCATAACTTCCCCAGTTTTCTCCTCTCAAACATCTTAACATCTGAAGTCCTCCTCAACTGGCCCCTCCTCCAGGAAGACTTCCAAGATGCCCCTAGTCAGACTTACTTTCTTTCTCCCTCGCTTTGTCTTCTGCCACACCTCTGTACATCACAGTACTTCCCTACTGTCCTGTCTCCTTGTCTGGACTGTGAGCTCAGAGGCTGACATGTCTTTGTCTCCTCACCCAGCTGACAGCCCAGGGCACGATAAGAGCTCAGTGGTGAAAGCCATGCTGCTGACTTGTCTATAAGCTCCGCCCTGAAAGCCTGTGCTTAAAACGTGGCAGGGTGATCTCCAAGCTGCCTGAGGCCATAAGCAGAGTGTGGATTTTCCAAAAGAAATGGCAAAAATAAAATTAAAATTAAAAAATGGTTTTAATTAAAGCATTTGGAATAAGCTAGCTTTGCCAAACCCAATTGTTTCTGATATTCCTCTTGGGTGAAATAATCTTTAAAAAGATAAGAAAAAAAAAAAAAGCAAAGCATTATTAAAAGTGGCAAACACTCGTGCTGGAAGGAGGATGGAGGCTGCTCACAGGGGAGCTTCCTAGAGAAGAGCAGGTGAAAGACATAGACCCGCGGATGGAACAGCCTCTGCTCCAACAGAGGGCAAGGGCGCCTGCGTGCGAGTGTGCCGCATACACAACAAAACCTCATTTTATAGCCCTAGCATTTGAACTGCGGGAGCGAAGACAAGGGCTATAAAATTTGACATCTGATTTTATAAATCTGCCTCAAGGACTGACAATGTCTGTGGAGAAAATGAGAGAAGAATATACAGTGCTTACGGGGCTCCAAAGG
0.5726030791047909 AGATCTGGGTCTTGTGCACAACTGGTCCTTGTGCTTCTCTCCCAGGTTTCAATCCAGGTATCTTCAGCCAGGGTTGGGGCTTCATCTGAAGGTTCATCCAGGGAGGTATCTACTGCCAAGCTCAGGGGTTGCTGGGAGAATTCAGTTCCTTGAGGGCTGGACTGAGGGCCTCAGTTCCTGCTGGCCGTGGGCTGCAGGCCCCCCTCATTTCCTTTTCGCATGGGCTTCCAGTACAATAGGGAGAGTCTGTGAGCCAGAGAGAAGTCCCAGGCATTTGTAATCTCCTCACAGAAGGGATGGCCCATCACCATTGTTGTGGTTTTTGGTCAGAATCAAGTCACAGGGGCCCACACTCGAAAGGGGGAAATTACTCAAGGGCATGAAAAGCAGGGGGCAGCAGGAATTGAGGGTCTCCTGTCACAAACACATCTGAAATATAATATGGTGTAAATTCAACAACAAATGTTTATCTAAGGTCTGTTCGAAGGACATGAGACTCAAAGCAAAGGATGTCAAGGAAGCCTTCCTCAGAGAGTGACTGCTAAACTGAGAATGGAAATGTAAGAATTTGCCCGGAAAACCAATCACAAAGGGGCATACAGCTACGGAAACACCCCGCACAGAGGCAGGCGATTGTGACACTGTGTGTCCAGTCCTGGGTGTCAATGATAGGCTGGCACCTCTCTGTGGCACCTCCCTTTGCCTCTTCAAGCCTTGGGGTGATGACAGCTTCCTTTGTTTCTACACCCAGGGCACAAGATAACCCTGGCAACCTACAGCCTGATGAAAAGGGAGGAGAATCTAAATGACTTACTGCTGTGTACTTGGCCATGAGAGAATAACCGTGATAATAACTCAGGTAAAAGGCTCAGAATGAGAAGTAGGTTTAAAAAGTAGGTAATGAAGATTGGGATAGGCCAAGGAGAACCTGAAGGGCATATGGGACAGCCAGAAGGAAAGCCTGTAAGGCTGTGGGATGTAGGCATTTGGAGCCTGGAGTGTCCTGAGCTAGAGACACAGAAGCAGGAGGCATTCACTTGAAGGTTGTGTTTAAAAATATGGGAGAGGTAGGAGCTGTCTAAAGAGAGGAACTAGAGTGAGAGGGGCAAGACATTTTAGAAATAATTTAGAAGAAATAAAAACCCAATAGATCTTGAATAACACCATAGTATTTTATCAGTTTAAAACCTAGTATTTTATAGTATTTTATCATTACAATATAAATATTTCCCTCTCTCTTCTTCTTCTTTTTTTTTTTTTTTTTTTTTTTTTTTGTGCGTGT
0.7735923750161883 CCCGACCTCAGGTGATCCATCCACTTGGCCTCCCAAAGTGCTGGGATCACAGGTGTGAGTCACCACACCCAGCCTGGATGCATATTTTTACAAACTTCTTTCATATAATTGTTTATGTTAGATATTCCAGTGTAATATTGATTGTATAATATTTATGGTGATAATTATAGTCAATATTTATTGGCCACTCGCTTTGGATAGGCACCATGCTTATTTCTAAATGTGCATCATTTCATGCAGTTTTCACCACGACTCCATAAGGTTTAGATTGGATTCCCCTTGGAGAAGAGCTTTGGATGCAAAAAGATGATTTGAAAAGTGATAAGAAGAATTACAAGTGAAACAAGAAAAAGAAGGGAAAAGTGTAATAATGAGCATAATACCGCTGTGAGCGACTGGGGCTCAAATCCTTCGAGGACCCTCTGTAAGACTGTTTGAAACACAAGTCACACCTCCTCCATTAAGACAGGGGGTCTCCCTGCTGAAAGTCCAGCTCTTGTTGATTGATGGTGTTCTCAAGGCACTGATTCCTGCACTTCTGCCTGCCTAGAGAGAGGGCAAGCATGGCCTGTGGCCAGAGAATACTTTCAGGCAGAGTAATACAGGAAGAGGGGTCAGGATGGGGGGGCATTCAGAGAGACTGATGCAATACAAGCAGGCTGTCAACAGCATCTGGTGCAACTGTTATTTTTGTTCTTTTATAAATTAAGAAAATGCCTAATGGCACATGAGCAGCTAGTGGAGGAGCCCAGTTTTGAAGCCAGGCAGTCTGGCCCCAGAGTCTACACTGTATCTTGAAATGAAGATGTAGTCAAAATTTCATTAGGATCTCTAACAGGGTTGTAAATGCCTCACTTTGCAAGAGTTATAAGAATTTAAGCTTGTACTCATAATACCATTTTGGAAGGTTAAATGTCATTCTAAAATATTGAGTTTTAATCTTGGAGGTTTCATTCCCTCTGAAATACTTGCTGCAGGATTCTGACAGGTGAAAGCTTATTTTTTTTTTCTATCTCAGAAATACTCTTTTTTGAATCCAAGAAGACAATGCAAATCTTTATTCATCATTCATTAATTCCTCTTCTTTAAACCTCCTTTATTCACGGAACCTTATATGAACATTGTTCTACTCCAGTAAATACATACCCAGAGTATCATTTTTATTGGCTGTCATGCATATTTAGACTATTCTCAAGTTTCCTGTTACATAATTCCTATACTTTTGCATATGACTATTTGAGAGAAATATTACAGGAAAGCACTTCTATGAAGGGAAAAGACGTGAAAACAGATGTGACATTTACTTTCTTAACTTGCTTTCCTGTAAGCATTCTTGCTACTAGTTGCTGCAACTCGTCTGAGAGAGTCCCAAAATGTTGCTCTTCAACCCCAAATGTCTGGAGTCTCTGCCATCTGTTTTTCCTCCTGTATACTCT
1 GTGTATGTATATATATAAATATCAGCAAGTATAAAAGTATATACAGCAGAATGACCCTTGTTGACCCTTGGCCCCCAGCCACCTAGTTTTCCTCCCCACAAAAAAAACCATCATTTACTTCTTAGACATTCTTCCAGAAATTTGTTACAGTTCTTTAAGCAAATGATATTAGGCGTGTTAACAAGAACATTAAAAAAAATCTTTTTTTAAACAGATGCGATCCCAGGCTAAATCAATGGTGTAGGGGTGAACAGCTGAATTACCTTGCTGTAAGCACGTAGAACTCAGTGTCTCCTTAGTCATTCAATTTATAATAGTACAACAAAAGGAAGGAAGAAAAAATACACAAGAGAAGGCCAACATGAAACTAAATACAAGGATAGCAGTTAACATCTATAAATCACTACCAAGATAACAAAGAAATTTCAGCTGGCTAGGAAAATTCTTATATTTCCCATGTATGTGAGGTTTATTATATATTATTTCTTATCCAATACTTTCAGCACCCAAAGTAGGTCTTTAAAAAGGGAGAAGGCAGAATAATAAATGGAAATCTAACTTTAATGGATAAACTATGAATTAACTCTCCCCTTTAACAACTCAGCATGATAGAGTTCTGCTAATGCATGTGTGGTTTTGAAAGAGTCATTTGTGAAATGAGTGAGGTTAATGTGGCCGCTGGAACCAACCTCAAGCACAGCAGATCCAATGGCACAGGCCATGGGGTTCCCTCCAAAGGTGTTGAAGTGCTGCAGGCATTTCGCCAAAGATTTGGCAATCTCTAGAGGGAGAAAATAGAAGGTGTGGAAAGAGGGACACATTCCTGTCCACAATCTCTCATCGCGCCATTTGGACTACAGTTACTTCGTGTTGTAAATGGCATCCAATCCAATTCATCCTTCATTCAACTGATAGTAGATGTTAGGGACTGAATTGTATCGCCTCAAAATTTATATGGCTGAAGCCTTAACCCTGAATAAGACTGTATTTGGAGATAGTGCGTTTAAGTAGGTAATTAGGTTAAATAAGGTCATCAGGGTGGGGCCCTATCTAAGCCCAAGGAACTGGTTTTCTTATAAGAAGAGGAAGAGACACCAGAGCCCTCTCCCACCCCTCTCCTCTTTCCATCTTCTCTCCCTCTTCCATATACCTCAAAAGTGTGGTGGAACCCTGAGTTTCATCATAGGCATGGGAGAATTAGTCTTCCCTACAGGTAGATCAGAATGGGCTGGCTTTCGGATAGGGGTGCAGTGGCTCACGCCTGTAATCCCATCACTTTGGGAGGCCAAGGTCAAACACCTGAGGTCAGGA
0.6609263041030157 TAAACTATTAATGAGTCACGATTCATGGTGTGAAAAAATCTCTGGTTTATCCTACAAACCATAAAATGGGAAGAATTTATTGTTAAATGTCAGGGCATCTTTTTCACCACAATGAAAAGAGATAAAATGTCAATTAGCTGTTGAAGAAGAAGACGAAAGGGACGTGGCTAAGATTTTCATTCTGCCTTAGCTAGAAAATCCAAATAGGTTGAGGAGGAATTAAAGAAAAACATCTAAGAAGAACACAGGCCCCTTAGAGAGGCTTGGCAGAAACCCTGGCGCTGATAGAACTTTTGTGACGACAGCTGATGGGAGTGTCTGGGATCCAAGGCCTGAAAGCACACTTGTACAGGCCCATACATTTCAGCACAGGAAGGGACACAGCTGAGTGTCCTTGAGTTCTCAAGTGGTATATAGAAGAACTGAGAGGCCTGGGGGACTAGAAACGGCCCGACACTAGGAGAGAAAACCTCTAAATGCATCAGATCTGGCACCACAGATAGCAGCAGCAGATGTCAGCTCATGATACCCCAAGGCCAAGCAGGGGCAGCTAAGGCACAGCAAATGCCAAGTTAAGATACCAGGTGGGACACGACACATCTAAATGGGGCACAGCCCTTGGACCAGATATTCCCTATTCTCACCCTCAACATATAAATACACCAGGGTGATCATAAATCCCCAGGGGACTTAGTTCACTTTAGGGGAGAGAAGACAAGACCAAAGATGGGGAAGAAGAAAAGAAGGAAAGTGGTACTTTAAAAAACACTATCTGCCTGAAAGACGTGAAATTTTAAAGAAGAGTTAAAGATATTGAAAATGCAGGAATATGAGATTTCCACCATCATTTCTGTACATTTGAGTAATGACTGCCAATTTTAAACCTACTAAACACAGTTGCCAAAGTAATACATTATCCAATGGCTAGCGTCTTCCATCATCAGCAAAGGTTCTCTGAATGATACACATAACGATGAAAATTTTGTCATTCTTCTTGTTTACCTTAACAGAACATAGCCAGAGGGAGGCGATGCTGCAGCAGCCACTGATGGTGATCTCTTGAGGTAGCTGGGGCACTACAGCAGCCAGGCCAAGGCAGGGAAGAGCTGGAAGGCCGTCAGTGGGGATAATGT
0.9661473815249716 GGTGGCGTAGACTAACACTGATTTCACACATATATGCATTGCCCCAATAACTAAGCTATTTTGCTCAGAGTGAAAACATTCTACATTTTCTACCATATGTAATTTCTAGGAATCTGAATAAAATAATGTGTCTTGTCTCTTGATCTCTCTTTTTAAATTTTTTTCTTAATGTACCTTTTCATTGGTTTTTCTACATGCATGTTCCAAAAGTTGGTCTGTTTTAAACTATATTTCTGCATCTAGAGGCATCCTGTTCTAGGGAAATGGGAGATGTCTAATTTTTGAACAACTTTAAATAGCTAACTTAAACATTAGTGTTAATATTTGACACCATCCAACACTTTTGAAATGAAGTCTTCACTTGTAGTCAGAAATATAAGTGGAATCAGGGCTAGGCGACTTATGTGTATAATTTTAGAGGCTTCTCCGAAACTCAAGCCTAAGAATAAATTTCTCTGTATGCGCATATTGGTAAGGGGTGAGAAGCAGGCCAGCTAATCCTAGAAATAGATTCCATGGCAAAGGGAGCTTGTTGCTTGACAGAGGGCCAAACTTTGAATGACTGGGATCTGAAGTATTCCCATTGTGTTGTCATCCTTTCACTTAATATCCTTTCACACTCTTGCTACTTGAACTGACAGCCCTAACCTGTTATCACTAGGTAGTGCAGCTCCATGACATAAAATATACAGCTAATTACAATGCACTTCACAGTGGCATATGACAGCAAGGGTGCTAGAAGAAGACCCGCCCAAGCAAGAAGCCACTAGATGCATTTAAGAGCTGCTTCCCAGGACAGTGACAGTAGAGAAATGCTCTGTGTTTATGTGTATATAATACATATATAATGCATAGATTGCATATATGTGTATATGTGTATACACACACAACACAAACATATTTGTACACATTGTTAATTTTGTTCTTTAGCTTGCAGCAAAGATATAAAGTAAAAAAAGATCAATACATAAATTGAGTATTCAGAACACAGCAAACAGAAGTGACCTGTTTGGCAGGGCCTGGTTCTCTTAATCTGACAGTCTTCTATTTTTAACTGATAAGTATCATTTAGCTATTATTCTCTCTGCCATGATTTCAAAACAAACCAGTGAAAAGTGATATTTCAGGTTAAACTAATCATTTTGGCACTACGTGGCCCAGATATTGATTATTTTGCTTAAGTCAAGAGGATTTATGTGCAGATAGCTTATTCATCTCATTACCTCATTTGGGGTTTCTTGTCATATAAAATACAGAAATACGACTACTGGATGTGGAAGGAGTACTAACTTTTAAATATTTGGCATAGATATGTGAAATATCAAAGTCTGTATTGTATTTTGTTGCTTTATTCAAGTTTATATCATAAGCACATATTTATGGTTCTGATCAGCCATTTATATGGTGGGTTTCATGCCACCAGGATGTAGTATTTGTGTTAGATACTACATAGAAAATGAACCTGACATCATGAGCTAACA
0.9400370733152495 CTCTCTCTCTACAAATAAAGTCGTACAATTCCCCACTCTTAGAGAGCTGACCATCACCTGCAGCCCGCTAAAGCACAAAAGCCTTTAGAACTTCTTACTTGACCTGGCTGCCCCAAAGCCTCTCAGGGGCAGGTTTTACTGGTTGAATCATTGCCTTACATTACTGTCTGAGAGCTGTCCTCATTTACTATTTTCTAAATAGTTTAATAAGTTATCATTGGCCTATTTTTAAACTTAATTAATATCAATTTCTGCTTTTCTTGGTGTTTGCCATTTTGTGTCACATTATATGGCTGATTTGAAGATTTCCATCTCTAATTAATGTATTAATTATCATAAGCAATTTCTCAAATTTGAATATGGAAAATCAAAAAGGCAATAAATTTCCCTTATCAAGTGCTCTGGGTCCAACGTGCATATAGACACTCACATGTGTTAAAAGTTCAGAGTGCCTCCTTCACCACTGCTTGAGTGATTTCCCTTATCAAGTGCTCTGGGTCCAACGTGCATATAGACACTCCCATGTGTGAAAAGTTCCGAGAGCCCCCTTCACCACTGCTTGAGTGCAAGGAATAGTCTTGGGTATTTCCTTCATTGAGCTTTACTTTCATTGGGCATTCACTATCTGTTTCATCTTGGAAGATATGCTTCATCTCTCTGACCCTCACCTTTATCCTTTATAAAAGGGGATTCTAATACATCCCCCATGGAAGATTGTGAGAATAGAGGGTAGTAATGTGCAAAGCATCTGTACCCACAGCTAGGCACATCATTAATGACAGTCAACCCTGTTAAACATTGATATTAGTTTCCAGCATCAGTCCAGACTTAACAGCCTCAGAGCCACACAATCCCAATCCCATTAGAAAAGATTATGCATTTTTTTCATTCCCATGAGTTTAGGTTAATATAAATTTTAGATATAACCACTAGAACCATTAATATGCAAGGTAATTTGTCACAATTCCCTTCATAATTAACTTTAGCTCACAAACTCTATCAGAAGCATTTAAGCAGGAAATCAACAGTATATTAGACAAGGCTTTAAACCAGTTTTATTTTATATACTGAGCCTTACTTATAGCTATGCGATAAGGTAATATCAAGTCTATGCAGAAAATATTTTATCTTCTAGTAAGTTTTATTATTATGGATTTAAAATTTTAAATAAATACTGTTTTGCAGTTTAACCGATATGTTTACAAATTAGTGGTAGTTAAATATATTCTTAAAACAATTTTGGAG
0.6292686326492127 TTCCAAAGTGCTGGGATTACAGGCTTGAGCCCTTGTACCCAGCCAGCTCTGACATTTTAACTGAGAGCGTTTCTCTTTCGGGGAACCCCTAGGAGGCAGCCCTGGGGTCTCCTTGCAGGTGGTCAGGCCCACAGACACCTGGAGAGGGAGGTATTTCCACATGGCTGTCTCTTGTGCCCGCTGCTCCCAAAGCCCGTTCCCTGCCTGGCTGCGGGCAGGGACCTTCCCCCACAGCCCTGCCCAACCACGATGCAGCACCCCAGGGACACGGGCAGCTGAGGACAGCCGCCCAGATAAGCTCAAGTGTCCACTGAGAGGCTGGCAGGTGGTGACGCTGGGAGTCTCAGTCGGGAGGAGGCCCTGCCCCGGCGCACCTGGCCTGGCTCTGGCTCTTTGGGGCTGCTGTGGCTGTTCAGCCTCACCAGGTGGCCCCGGCTCAGAATAGAGGCCCCCGGCCCTTGGTGGCCCTCTTGCCCACCAGAAAGTGCTGCAAGCCCCCCGCCTCCGGCACAGGCCCCCTGCAGGAGTCCCAAAGGGGCCTGGGATGGGGGCACACAGAGGGCAGGGCCAAGCCCTGGTTTCTGGACTGGCTGGGCCCGGCTGCGTGTGGCCTTAGGAGCCCCAAATCCTCTGGACAAAGCCGAGGAGGAGGCAGCCCCACCCCAAACCCAGGGGTCTGT
0.3342334699989339 GGAGGGATATGATGGAGAGCCAGCCAGTGGGGCTGTCAGCAGTGGGGGGCTTTTTAAAAGAAAACTATTTTGATGAATATATTTAAAAAACCTTTTTTTATTGTGGAGCATAGGAATTGCCCCCCTCCAGGCTTCACCCTCCCTGCCTAAGCAGGGTGGGGGCAGAGCCATGACATTTTTGGTTTAAAGGAGCCTTCTCATCTCTGGCCGAGAACACTGCTGGGCTCCCAGGTAGCTGAAGGCCTCAGCCCACCCACTCCCTTCTTCCCTGTGTGGGGCTCAAGCCTGGTGCACTTAGTATAGAAGAGCTAACGTACTCAGGCTTGTGCCACGGGTGAGCACTGAGGCCCCAGGTGTCCTCCCTCCCCCACTGTCTGGGACACAGGACAGGTGTTGCGTCTGACTCTGTCTCCCCCTGTCCAAGAGCTATAGGCTGGTTGAGGCAAGTGGAACCTTATCAGTGACTTGGCCAACAAGGGAAGCCTTGGGGCCTCAGAATTCATTGAAGATTTGTTTTGGGACAACTGGAAGAATCAGCACCATGGATACTCGCCCGTGGGCAGGGCTGTGGTCAGCCAAGAATAGAGGTCATATAGTTGGGCCATGGGGCAATTGTTGGCAGCCATGACTGACGGCCCCTTGTGCAAGCTCATTCTTCAGTGGATCCTTCAGTGGAGTGGTGACACGTGCCAGCGGTCACTCTGCCACATCACTTCCTTCTTGAAAGCCTAAGAGTGCGTATGCGTGTGTGTGTGTGTGTGTGTGTGTACGTGAGGCAGAAGAATATGACAGATGTCAGCTTCTCCCTGTGTCAGATGATATGTCCTTGAAGCTGGCAGGGGATTCCCAGTCCAGGGAATATCCCTACATGATTTTTGTCATTCATGGGTCCTCCCTGGGCCTGACAACGGGAGTGGTGGGTGGGTGAGAACAGGTTCTGAGAGGGGGCTTCTAGGAAGGCCCCAGCCCTAGTCCTAGGCGACTTGAATAAAGTGGGAGGTCAAACATGGGCCTTCGGCATTGGGTTTCTAGGGAATATGGCTCAGTAGGGCCTGCCCCTTCAAGGGCAGCAAGAACGAAGCAGGATGTTGTCACTCCCGTCTGAATAAAGCTCCATGAGCTGGGTTGGAAAGCTGAACATTTATCTTGCTTTCTTCTTCCCACCTCTTTCCCTGGGGTCCCCAGGGGTGTCTTGCCTTTGTTAACCCCCATCGGAGACCTGAGGGTCTGGGGGTGGTTGGGCCTGCCTTTCTGCTGTTCCCAGCTGTTCCCCTGCTGACATCCCTAGGAGTGGTGGAATGCCAGGCTCCTGTCCTGTGGCCTGGGGGCCTGGGGCATCATTGGGCCTGCCTTCAGACTGAGGTTGCTCTATGTTCTCACTGCCTGAGGACAGTGTCCCGCCACCACCTGCCTTCCTGAGGACCACACTCAGGCTCG
0.6372167297277734 AAAAAGCAAGGTAGGGGAAAATATGTATAGTATGCTAGAATTTTTAAAAATACATGTATATGTATATGTGTTTACATAGACTCTCTGGGAGGGTATACAACAAACTAGTAACTGGTTGGCCAGGGACAGGGTATGAGTGGAGCTTGGGAAGCTGTGCGACAGGTTTGAGAGGACGATGTTCTAGGCTCATCTCAAAAGTATACTGTATATAGTTTTGTATCATTTGAGTTTCATATCACGTGAAGGGATTAACTATTCAAAAAGTAAGTAAAATAATTTTTTAAATGTTTAAGTAAGAATCCTGAGAGACAGAGACAGAATGATCTTTTTGCCCTGAGCACAGTCTAAATATTCAAGGGGTAGAGGCACATGAACCACGAGTCAGGAGAATTTTGATTGTGTGCTTCTTTAGAAATACGCCCTTATGGAATTAGGGAATTCCAAGATGAGAAAGTGTAAGAGATCCCGGGACCAGCTTATACTTTGTGGCAGAGGGAAGGACAGTCTGAGAATAAACGTTTGCTAAGGAATGATCTGTAAAGAATCCCCAGACAGTCATTAAGATATGAATGCTGAAAGAAAGAAGTGTTGGAGCTGGTTAGCAACCCCAGACACTCCCTGTCATCAGTCCGACATGCTGCGTCCTGCCTTTGTTGCTGGGGAGTGTCTTCCACACCTACTCTCCTTGCTTCCAGCCCAGACCTCATTCAGAGGAACGAATGAGGTGTCTGCAGCGTGGCTGCTTCATCTGACCTTCTGGAATCTAGGGACAGCAACCAAGTGCCTAGCAAACTGACCATGGTCTCCTCCTTGCTGTGACCCAGAGCTGCTCTTCTTGCAAATTGGAAGATATCAGGTGCCTTGTTGGTCTCTAGTCCTCCCTGGAGTATCAGGTATCCTTCCTGGAACCTTCCTATGCCTGAGTCAGAGGGACAGTCTATTTCCTGGATTCTAAGTTTCACTTTTAACTAACCCTAAAGTCCTATGACTGGTGATAAAAGCACTGGTGGTAATTGTGATTTCATTCATCTTTAAGGATTATCTGTCTGTCTATATATCTGTCCATCTATCCTCAAATCACAGCCCTCATTTGATCTCTACAGCAATCCTATAGGTAGATCTGATCTCTCATTTTTAAATGGCAGTAAAATATTTGTACGAAGATTTTGTTTTCCAAGTACTTTCCTCTGTGTTATCTCATTGCTGTCCCCTGACACTCTCATCTAGGTGAGGAAGGATTTATTAACCCAGATATATCAATGAGGGTATTGGAGAGTCAACTGTGTGGAATAGTGGGCCTTTGAGATAAGAACATGTGGGT
0.5664895444622984 GGTCATGTGTAGCTAACTGTTTGGGCTGCCCATCCTCCATCCCAGCACTACCCAGAGGTTCATGCCCACGTGAGAATTCATGTATGTACACATGTGTATACACACACACACACACACACACACACACATAATACACACAAATACTGGAAGCAGGAGAGAGACACCTGTCAAAGATGGAGCCGACCCCAGCACTGTGGGCACTGCTCCGGTGGACATGTAAACCCGTGGCCAGAAGGATGCCATCCTGCACGGAAACTGAGCGGTGGGAGAAAGAGGCAATCAGCAATTCATTCCACCCTGCAAGGATAAGGAGGAGGTCTTGAGGGAAAACAGAACACATTCTTTCTTTACTTATAATCACCCAAGGCATGTACTATTATCCCACATAACACAAGCAGAATTGACAATCTAGGGAGGTTAAGAATTAGTTCAAGATGACACAGTTCATTAGCGAAGAAACAAAGGATAAGACTGGGGTCTCCTGACTTATGGCTCTGCACATCCCCCCACTCTCTCTCAGATGCAACCCAGAATGACAGCTTGAAGACAAGGATTCTTTTTTTTTTTAATCAGTCAACAAATGTGGGTTGAACATTTAGCGGATAATAGTCACTATGTTAGCTGCCATGGTGGATAAAGCTAATATACCTTGCAGTTTTTCCCCTTAGGATCTGACAACCTAGTTTTGTTTCTTTGGCATTGTCTAGTAACACCCAACACAGTCTGTAGCTTTCAGCTGACACTCAGTGAGTGCTCATTATCTAACAGGGATGAATGAGTGGACTGGTTCCCAATGCTCAGCCAATCTTCATGAAATTTCCCTGCTGGCTCAGTGACAAAGAGGAGATATGGCATATGTCAACGGCCTGCAAGTGTCCCAGAAATAGGAGGCAAAAGAAAATACAGCACATAGAGTCTTAAAATAGGAAGACAGTGGAACCCGTCTAGTACAAGCTTGAGCAAACATCTTTGGCTTCTTTATCTCACCTATGAAATGGGAATACCTCTATTTGCCAATTTCATTACAATAATGAGCCACTGCTTCAAATTATCCTCAATAAAATGATTTAATAGTCTTTTTAAAATTTATGCAAATTATAAAGCCGTGGTAAAATTTGCATGGGAAAAGAGTCCCACTTCTTCATTAACGATGCTTCCTTTGGGAATGAACAACCCCGCACAGGGTTATTTCATCATCAGCATGGTACATAGCTTGGACATGTTGCAGCTCCATCAGGCTACTTTTTTTAGGATCCCAAGAGCAATTTCAAAATTGTCCCAGGAAAAAAGGCAGCCAATGTGCTTTACCTGCCC
1 GAGCGCAAGATTCCATTTCAAACAACAACAACAACAACAACTGTAAACTAAACCACAGAGCTTATTTGAATTTTAGCAGTTTTTACACGTTTATATAGAGAATATTATCACATTTACAAATTTCTATAACCACTACTACAATCAGGATATAAAACTGTTTTAATATCCCAAAGAAACCCCTAAATAGTTACATCCTCACCCTAACCCAACCTGAGAACCACTGATCTGTTCTCCTTCACTATAATTCTGTCAGATTAATGTTATATAAATGGAATTATAGAAACTTCTGAAATTGGCTTTTTTCACTTGCCATAATAACCTTGTAATCTATCTAAGTTACTATACATATCAATATAGTAGTTTGTTTCTCTTTATTGCTAAGTAGTCCATCATATGGACTAGTTTATCTATTTACTTACTGAATTTTGGGTTGTTTCCAGTTTTGGGCTTTTATGAATAAAGTTGCTATGAACTCCTGTGTAAAATATCACCTTACATTCCCACCAGCAGTGTACGAGGAATCCTGCTGCACTGCATCCTCTCACCAGCACTTGGTATTGTCAGTAGTTTTTATTTTTAGCCATTGTATCTAATGGTGGTTTTTAATCACTTTCCTTAATGGCTAACGATTTAGAACATCTTTTCACCTGCTTATTTACCATCCATATACTCTCTTTGGTGAAATGTCCATTCAATTGTTTTACTTATTTTCTAATTGAACTGATTTTTCTTTTATTACTGAGAGAGTTCTTTATATAGTCTAGATACAATCTGTGTTGTTTATGGGATTTGCAAATATTTTCTCCCAGGCTGTGACTTGTGTGTATTTTCATTAATGTCTTTTGCCAAGCAAAGAGTTTTAATTTTGATAAAATTTATCAACTTTTTATTTTATGTACTGTCATTTGGGTGTTATGTTTAAGAAGTCTTTGCCTAACCCTAGCTCATAAAGATTTTTTTCTAAAAGTTTAATAGTTTTATGTTTTACATTTAGATCCATGATTCATTTGAGTTAAATTTTTAATAAGGTATGGGGTTTAAGTCAATGCTCATTTCTCTGCCTATGGATATCCAATTGCACTGGCACCATTATTTGCTAAAAAGGATATCATTCCTCCATTAAATTGTTTTTCACCTTCT
0.3748725564658455 GCTCCTGCCATCCAGGGCTTTCAGCCATCCACAGATGGCCTCAGAGAGCCTCTGGGTGTCAGTGCACTATAATCTGGAAGCTCCCGGGAATGTCCATATGGGAATTCGGAAAACTGGCAACACTTAATTTGTGTTTTGCGTCCTGACATCAAGGCTGCCAGACCCCTCGTGTCTTCCCTGGGGAGAACTGTAATGAAACAGTTCCAAGTGGAGCTTGAAGGAAATCATGTTTGCCTGGGATGAATGGATGGGCTAACATGGCAGATTCAGAGCCCAGGACTCAGCTCCCTGGAGGCAGCGGCGGCCACGGCCAGGCTGGCTCCCCGGCACCAGGCGCTACCTACCGTCTGACAAGTCTGCGTTCTTGGACAGCTGCTCCAGCTCCCAGCCAAGGTGGGCAGATTCGTTCATGCTCTGCTTCTGTGCAATCTCAAGGACCATGTTTTCTTCCAGCAGCTCCTCAATTCGTTTCTTATCTGTGTCCCGGTCCTGGGGCAAGCAAGAAGAGGCAAGAAGTGAGGCTGCACAGCTGGAGATCCCCCTGGACAAGCCTCAGCCCCTGTATAGCTACCGTCATGTGCTGTGGATGAAGATGTACTGGCTCACTTCCAAATAAACAGAGCTGCACAGAAACATCCCAACACAGGGCCCTGCTATGAGAGGGAAAGCCACTCAAAGGTACCCTGACCTGGCTACCTAGGTTATGAAGACAGACCCGGCCGGGGTCCCTAACTGAATGCTGTCTGAACAAAGTGACATACTGCACAGGGCTTTAAAGCAAGTGTGCAGTGATGGGCAGCTCTGTGGCTCTAGCGAAGCCCTAACAGGCCTCTAAAGCTGTTAACAGGCTAACAAATCACAGCTCACCCCACACCATCAACACTGGCAAAGACCCTTCTTCCAAGACACACACACACACTCATTCCTACAGAAAAGCAATACAGAAGTCAAGTGCTCTGTTTGTGGGTGTTAAGTGGCACCCGCTCAAGCCTGCTGATTTTAGCAAGCTACTCCCCGCAGTCAACAAGTCATTCGTGGTAGCAGTGGCAGCAGCAACGGCAGTAGCAGCAACAAACCCAGTAGCTAAACTATCAGAGAAGGGCACGCCATAAACCTGAACCTGCCCCAATCGGTTTTCTTTTCTTTCTTTCTTTTTTTCTGAGACAAGGTCTTGCTCTATCACCCAGGCTGGAATGCAATGGTGTGATCACGGCTCACTGCAGCCTCAACCTCCCAGGCTCAAGCA
0.2935045654198329 AGCTACCACCTTTTAGGCTCCAGGGCTACCTTCTAGGTTCTGAGGCTACCTCGGGGAGCGAGAGAGTTCAATGGACTTAGGTTATAGTTAGGGAAATAGGGAACACATAAGACTACATGTAGATAAACTGCAAAAAATAATTTCTGTAAAAAAGTTGTTATGTAGTCATGGTGATGGGAAGTATTTGGAGGAGGCCATATTACACAGGGCTGCGAGGAAGGTCCCTCTGGGGAGGTGATGACTCTTGAGCTGAGACCTGAAGGGGAGGGCTCCAGTGAGAAGACCTGGAGAGGCATCCAGGCAGAGGCAGAGGCAGAGCAAGCACAGTTGTCCTCCCAGTGGACTGGGGAAAGAGGAAGCACCAGGCAGAGAATGGTGCAGGATGAGGTTGGGCAGGGTAGGTGAAGCCAGGTAGAAGCACGACCTTGAGGGATCAGGTAAGGAGTTAGATTCAACCTGGCTTGTTGATGGCTAGCTGCAGGACAACATGTGTGTGTGTGTGTGTGTGTGTGTGTGTGTGTGTGTGTGAAGAGAGAAATCAGAAAAGAAAGAGTCTTAGGTTTTTGGCTGGAGCAACTGGGTGGATTATGGCGGACCCTTTTCCTAGGATTGCTTTAGGGCCACCTTGGTGAGGACTCCCTAGATCTTATGCTTGAATCTCAGTTTCCCCACTTGTCAACTGAGTGGCTCTGAAAAGTTACATCACACCTCTGAGCCTTGGTTTTCTTATCTGTGAAAATGGCATATTACCTTTGAGGTAGGGCCGAGGCAGGGATGACACGAGATGGCCACTGGGAAGCACTCAGTGTGGAATGAAATCCTGATGAAGGTTCCATGCCTGTCAGATTCCTTTCCTTCCTTCCTCTTGCTGTCTTCTCTAGACTCATACCTGTCTTTGCCTGTTTTAACTCAGAGTTTGCTTGTTGCCTCACATTGGGTGTGAGAAGCATGTAACATTTCATCCACACTTCAAGGCAGCTGTTGTCACTCTACTCTCTCCTTCTGTTCGCAGGTCAAATGCATTCTTTCCCCAGTCCTTCCGTCCCCCCAGGCCGTGCCACAGATATCCCCCACATGGATTCTTTTCCTCTTTAGGTGTAAGTTCCTGGTAAAAGCAGAGATGAAGTGTTTGGCTAAGCAAAATGCTGAGAGTAGCTGGCACAGTCTTTCCTTAGATGACCTCTGAAATTCTTTCCAACTTCAGTATGTTAAGCTCCAGCTTGTCCTTGAAGAGCCCAAAGGCAATAATGGGACAAAGACCAGTCCCCCATGCCTTGTTTCCATGACAGCCATGAATATAACTACAGTTTTCTAACTGCTGGCTTCTGACCCATGCACAGAAGCAAAACCATCTAGAAATAACTTTTTTTCCCTCTTTTTCATTGAAAATTTTAATTAT
0.296481543536251 AAAAGGTCACATAGGGGTTAAGCAGTCTTGCTTTGCTGAGACAAGGCAGCTCCCTATCCTCCCAACTTCATGGGGGCATCTTCTGTAGAAATAACATCTAGACATCTTTATTCCCAAGCTCAGCACCCCCAGGTTTAGCAAGGAGGTGGGTCTTGGCTTGGCCTGGCTTTTTTAAGATGTTGGGATTTGAGTTCCCACCAGCCACCCTTGCTCCTAGCAGTCTGTAAAGCTGGGAAAACTGAGACTGAGACCTCTGGCCCCCTCTGGTCCAGGGGAGGCATGGCCCTTTCAAGCTGGCCTGGCTCCCGGCCCAGTCTAGTGGTGAGGGTTGGGATGAGAGTGTGGAATGAAGTGGCTCCTATCCAGAAGGCTCCCTGTTCTCAACCAGAGGCTGTCTGTGCAGCTCTGGTCCCCTGGGTTTCAAGCACCCTCTTGTGGGTCTGCTGCAGTGGCTGGAATGTAATTTGTCACTTGTTTGAGGGCCAGGCTGACAGAGGCCAGACAGGGCTGGGTGTCGGACAGGAGGGGTGATGAAGTCTTGATGCAATTTGCAGGCATCTGTAGAGCCTGGGAGACAGATTGAAATGTCAGCTCTGTTCTTGAGGGCTGTCTTCCATACCCATAGCCAGTGACAGGAGGGGACCTGGGGGCCAGGCAGGGGGAAGACAAAAGCAGAGGGAGCTGAGGACAATTCCTCCAGGACCCTGGGCTGTCTAACACTGCCCTGCTTCCAGCAGACCATGGAGTCAGCTCAAGGAGGAAATACAGCCACTTTGAGAGGCTGGCCCTTTCCAGGATGGGAGGTGGGAAGGATTCAGGTTGTCTTCTGCCAACCTCTAGCTCAACAGCCTCATCTGCCCTGTCTGTCCCCATAGAAGCTGTCAGTCAGGCCTCCAGCACGTGCCCTAATGGCGTAACCCACAGACGAGATGGCACTACAGTTTTTGTACTCATTTGCACCAGTACAACCCGGCATAGGCAGATGAGCTCAAAGATGACTCTTGTGTGCGATCCCCACCCCCAGATGCTGGCTACAGGTCTCCTAGGCTCTCTTGGTCACCATCACCTGTGTGTACTCGGACACAGGCCCACTTACACGCACACAGCCCCCTCAAACGTGTCATGGCACGTGCACTTCCACCCCCTGGCAGAAAATAACCCACCAATCCAAACTCTCACACTATGCCTAGGC
0.4975469717848731 GAAAGATAGCCACAAGGTCTCTTGTGTATTTCAGAAACATCATTCTGGCAGCAAACAGAGGAAAGATGGCAGAGGGTGTGGCTTGTGGTCAGGGACAGTTAGGAGACTACTGTCATGCTCCAGGTGCAAAGCGCAAGTGGTCTGAGTAGGTGGCCGCGGTGGAGAGAAGGGGACATCGAAAAGGTGGGATCTACCCCACCAGGTGCCTGAGGGTGTGAGTGCAGTAGAAAACCACTGGGAAGTTTTCAAGGCCCAGGCCCAGCTCTCAGTCTTCTCTGAACCATCGAACTAGAGGGAGAGTTTGTAAGGACTCCAAAGGGAAAGAGAACACGGGAGGGAAGGAGGGTTGGGGAGGGTCAGGTAGGATGCTTAAGGTGGATTGAGTTTGAAATATACAAGCTAAGAAAAATGTCAGATGGTTCTTGTTTATTGTCTAAAGAGTAGAGGGGAGAAAAACAGAAAACAGACGTTTATGTTGTTGAGTGTTAGACAAAAGGCCCCACGTCCCCTGCTTCTGAGTGAGAATGACGATGTGCTGTAGGATGACAGGGCCCTTTGGAGGTTCTGTCTGCAAGATAATCTGTTTGCAGATGAGCTCCAGGCACGGGGAAGGTGCGTGGTGTCAGTGTGGCTTGCTGAACTCACAGCAAGCCATTTCAGGGATGCTGGGACGGAAGCCGCCCTCCCTTTCCTGCCTCTGCTTCCAAGTTCTTTCTCTGCAGCCCTGTCAACGCGCCGCCTTTGCTTCATAGCACATCTCCTAATGGGCTCTGGCGGTGCTGAGGCAGCCTTCATATTCCATTTGTTCCTTGGATAATAAGCTTAGCCTCGAAGCCAAAAGAGAAAGCCCTGATGACTATTAAATACACATGCACGGGGCTGACTGCTCCCCAAAACCCCCAGCTGGACATCGCACCAGCTCAGCAAGGCCATTTGCATCCAGGCAAATGGCCCTCAGTGACTAATAGAAATCCACCTCTATCTTGGCAAGGAAGGCCTTCAGCATGCAGCATTAATTTGGTTTGCACAGTGGGATGGAACACATCTTTAGTTCCTTTTAGGGAACTGACTTACGCTTTCTCCAAAGGGTGCTTCCTGGGGGCTCCCAGACATTGGAAGTGCTGGGTGTAACTCGTCTCAGGGGCTCCCTAGTCCCAAGCACAATCTGCCTTATTTTTTTTTTCCA
0.8316484991426222 AAATATATAAATAAAATAAAATTAACAGTCTGCCTCCTAGACAATGCCAATCGTTAAAAAGCTGCCTCTCACAGCTCTGCTAGCCTCATGAATGTATGTCAGGAGTCTCAAGTTTACCCCTCAGACACAGGTCAAAATTATCTCTCCACTGTCTCCCAATCCCCAACTTAGGAACTTCCCAGGATTCCTGACTTTTACTAGACACTCAGCTTCAGACCTAAATTAGAGAGATAACTTACCTGCTTTTCACGATACTTTTGATACAATCTCATTCCACCTTCCACTCCTCTTTGTGAAACATTGGCATCATTGAGCTTTGCACCGGTTAACATTTTCAAGGTTCAAGACTTTGTAGTATCATCATGAGCATGTCAAATGAGACTATGTATATCAAAATATTTTGTAATCTGTTAAGTAATATAGAAGTGGTTAGATCAGCCAGATACCAGAGCATTAAGACTCTCTGCAGAGTTGTTGAGGCTATACAGTCTGATGTCAGAGCAGGAGTCTCAGCTGACACCCTGAGCAGTTGACAGCGAATCACTTGAGGGACTAAATATGCAAAGCTGCTTCAAGCTCCAGGTGGCCCAGTGCCCATAGGCACGTTTGGATCCATTGCCTTGGAATGCCATCCCTCCCAAGAGGGATTGGGATCATCCAGTAGCCCTATCTAGTTGAAAAGATCTACAGAAGACTACCAATGAAAAGCCACTATCACACCCACACCCACGGGACCTTTGAGTAGGTCTAGGTAGGCGTACACTTTACCAAAAACCAGGATTTTTATGACACTAACCCTAATGATCTTCAACCTATAATAACTGAAGAACCAAATGTCAAACACAGGTCTGGTACTTATGAAACCATTCTAACTTTGAACCAAACTTGGTTAACAAAACTTCAATTCTGTATTGTCCAAGGGACCTACAGAGTGTCCACTATGTGCCATGAGCTTGATATTTAGCCAAGTACATTGCCTGCATTGTACTACATAAGACTACATCGAGTAGTTGGTCACAGCATTCATAAGCTAATGGCTACCTCAAGGCCAAACATAGGACACAAAATAATTACAAATCAGTGCAATAGGCTTCTGTTAGAAATGAACAGATGGCTCGAACAACCTGAATTTCAATGACAAAAAAGGCACAACTCCTGCATACAAGATAATTTCGTCTTTCTCTTCTAATTTTCTGCAAATACAAAATGAAGCAACTACATTTTCCATTTTAAATGATATTTAAATAAATGTTGGTATGAGTTCCATGGAATTTTGCCCATTCTTTTAGGATGGTGAACCCACGTAACCCAGCTTTAATTACT
0.6898511628389775 TATCTGGTGATATTTGCCAGGAGGGGAGAATGAGTTGAAGGAGGACTGAGCAGCTCTATTAGGAGTCTGATTCCTCCCTCATTATCGAAAGCCTCTAAGTCAGGGAACACTGATACTTTGATGTCCACTTTGTCTAGAGTGAGGCTCAAGTTTCAAGGTTTTCTTCCTTTCCCTAACTTTATGGCCACTCTCAGGCCATAAAGATATCCAGCAGACCCTGGGTTTGTGGAAGACCTGAGCAGAGGCCCTCCCACCCCATCACACACATATATAGTCTCAAATAGAAAACCTCCTCTTCACGCTAGTACTGGCTCTACCCCACGTGCTTTACCACTTGTCACCTGTTTTCCAGAAATGGACATGTCTTTCCCCTCATCACGTGACTTCAGAGATTCCTTTTATACTTTTCAGTGTCTGCATGCTTGACACCAAATGTTGTCACCTCCTGCCATTATCTTTTAGTTGTACTGAAAAAGAAAAACCAGATCCAAGGCCCATGAGTTTCTTGCTAGCCTATCAGGATGCTCCCTCTTCTCCAACTGAACTGACAGTATCAAAGGTTTTGCCCTCGTCCATTTCCCGGGTAGGTCTCTGACAATAGTATCTTGTTCCCTGGCTACCACAATGAGAAGTGACAAGGACATTTTCCTGGCATTGCAGGTCATAGCTCAGCAGGAGCTGACATGGAGAACACACAGACCCCAGACAGGTCTCCCCGCTGGGTGACAGATACCAGGCCCATCAAACTCAGAAAATCTCTTCCTTTACTTCTCTTCTACATCAGTCAAGTCAAATTTAGTTATAAGCAACAGATTCCAAATCTGGCTGGCCTATGAAAAAGAGAAGTACTGCCTGGAAGAAGACAAAGACAGCTCACAGTATTGAGAAGGATGAAGAGCCTGGCCTCAGAAGGGACAGAATGGGACAGGTAGAGAGGTGTGTTAGCAGAAGGGCCACCACTGGGGTGTATCTGGCCCACACTGTACATGTTAAGATTCCCTGAAGATAGGCTGATGGGCCCAGTGAGGTCACAGGCCCACTGGAAAGTGGAATAATTCCCCAAAAGAAATCTAGGTATTGCCGCCAAAGAGGCAGTGAAGGTATAGGCAGAAAAGACGATGATGCTCACTGATAGGACAGCACCCAGCCCTCTCTGACATTCTCTGGAGCAGCTCAACCCACCCTCCAGATTGGGTTAACTGAGACTGGGGAAGGAACA
0.8693792545003179 AAGTATTCTAGCCTTGATGTTCAAAATTTAAACAGCAGAAGCATAAGCATATCTTTATGGGAAGCATTCAGCATTATTCAAAACTGTAGCTAAACAAGGATTAGAATGGTGATCACCAACCCCAAGCTCTGTGTTCGTTAGTCTATGTGGACTCTTTGTTTATTGAGTGATCGTACAGACAGTGTCAGGGAAGATAAAAGAGAGAAGGGTGTTTTTCACACACTTAGTGCCCTGAAACACATTGAAAGCTATTCTCCCCACTGCCATAGCCTAGAAGAGGCTTCTCTTTGTACTGGTGATATCCAATTAATTGAAAACTGTCTTATGCTGGGGAAGCAAACCTTCTCCAAAATTTGTGCAGAATGAAAGAAGGAAATCCAGGATTCAGGCCCAGAGAGCTTGTGCAGTGATTTCAGCACATACTCTGCCTGGACACTTAGCTCTTAGCCCTGTGAGATGTCTGTGACTTGGATGAAATGGAATCTGAGTTGGCTTTTGTCCTGGGGGCACCCCTCCCTTGAGGACAGTACTGTCAAGTGTGGAGGTGGTTTCTGATTAAGCCTGTCTTCCCATTGATCCTGCTAGAGAGACAAAATTGTTTGGTATGGAAAGGGCAGTGTGCATCTTACTCTTTTTCCTTAGCCATAGTGGAATGGTTGTGCATAGGCATTCCCTGGCCCAGCCTTACCTGCTTAGGATGCTGGACTAAAAGAGGCAGGTTTTGCACCAAGAAAGAAGGCTGTTGAGAAGAGGGGAATTGTCGCAGATTTTATTGTCTTTTTACTTAACAGATATCTTCTCTCCATATTTTCCCTCCAATTTAAATAACATTTATTGGACACTTCTTACAAGGTTCACTTAGACTAACGTTTTTTAAATACCGAGGGAGAAAAATGTGTTCCATGCTCAAGCGTAGGAGTTGGTAGGGATTGTTTTAAATGAAGGCTCGTTATGTGGGTGGATTTAATAAGGAACTTACACTGTGGTACTTGGCATCATTTAATGTACTTTTTTATGAGGCATTTGAGCACTTTTATGTG
0.6127280718092694 TTTTCCCCTGGAGTGGGGACACTCAGTGGCCTGGGCTCTCCTCCCACCACCCTGGCCAAACTCTACATTTTTCTGCCAGTCGACTGCCTGCGGGCACGCCAGTGCCTGTCAGTGTGCTACCAACCTCCTCTCGACAGCCAGCCGCTTGCGTGTTCCTCCGCCAGTGTGTTTCTCTTGACATCCAGCTGCTTGTGTCTTCTTTCCACCGATCCGCTCCTCTCAACGTCCAGCCACTTGTGTGTGTGCCCCCTTGGGTCTCAGGGTTTTAATAGGCACAGGATGGGGGTGTTGCGGGCCAGGGTGGTCTTGGGAAAGCAACATTTGAGCGAGAAGGCAGGAGTGCCTGTCCTCACCCAGGTCCGTGGGCACAGGCCCCGGGTGGAGCCCTCACCAGGGACCCGCCTTTCTCTACCCAGCACTTCCCTGCCTCCTCCTGTATCAATTCCTTACTCAGAAAAGTGTGCTTTCAGACTTTTTACTTTTGGATTTCTGGCCCCAATCAGCCAATATCAGTTCATTATAGAATCTACAGAGACACCATAATCTTCCTATTTTAAGACACAATTTTAATTGTAATTTTGCTAAACTCTCTCCTAAGACAAGCAGCAGCTTTTTATCGCCTGTTATCTAGGGTGTTGCTTTCACAAATCCACACCCTCTGGGCCCGTCACAGGCAGCCAGATCCTGGGACTTCTCAGTCAGTTGCTTTGCTGACGGTTCTTCAGAGGTGATGAGCTGTGTGTGAAGGCCCCCTTCAGACCATGGTCCCACGAGGGCATTACACATCAGGCATATGTGCAGAGATTAGAAACTTCTCAAGGATTTCATGTTCTATTCCAAGAAGTAAGGTCTAAAAATGAAAACCCATTTTAAGCTCTTTTGTGGTTATACTTTTGGCAACATGGAAGGAGGACAAACCTACACAGTTTTGTGTTGCTTTGTGTTTTTTGTTTGTTTTGTTTTGTTTTGTTTTTTGAGACGAAGTCTCACTCTGTCGCAATGGTGCAATC
0.7981933665037797 TATGTTTTCACCCATGGCACTCCTGGATTCCTGAGTCACTGGACAGTTGTGTTAGAACCCGTGTTCACAGAAGTGTTTATTGGACTGAAAGGATATTAATAGCACGTGCAGCATTTAAGCTGTACTCGTGATCTTTATCACATTATATTCAGATGATATAATTTAGATGATCTCTTTCTGCACTAATTGATTATACGCTTCTGGGAATGCTTCTGGGAAGCAGGATCCATACCTGAGTTAACTTTATGACTCCCTTTTACTCAAAGCTCTGCCCTCCAGGAGAGCCTAGAGCCAAGTAATACATGTTAAATGAATACAAGAATTAAAGAATCTTAAAATGGCCCTTATTCAAATGAGATAAAAAAATCTCTTCTTGCATATGGGCACCTATGTTTGTAGATGGTCACAAGTTACTGAATCAGAGACAAATAAAATAATTCTTACTGTCTCCCTGCCAGGAGATTAACTCCTGAACCTTTGCAAGGGTGGCCTTTCATTGGAATGAGCCCGGTACACACACCCTGCCTACATTCTCCTCCTCTGGTGTTGAGTTGTTTTTCTCCATTGCACAAACCTGTCTGTCCTTTCTCCTCAGGGTCCTTTGCAAAACACATTGCCACATTGCCTCTTAAAAAAAAAAAAAAAAATCAGACCCAATAGGATGGAAGTTTGAATGCCTGGCTTTTGTCTGTGAATACCTAAAGGTGTTCGCTTGGTGATGTCTGGAGGTTGTTCAGGCTGTCATCAATTACAGTGCATGCCAGGCTCCTGTGGGGCTTTGGCAGGAGAGGAAGCTTATTTTAGATGCTTGCAGAGCACTCATAAAACCTCCTTCTTTGATCATCTTTAGGGATTGAGGATTTTTTCTGGCTGAGGACAAAATAAGAGAAAAAGCATTGTCTTCACATAAAAACATTAGCGTGTTGAAAAAACAAGGAGACAAAATATGCTTGCATATGCAGAGAAAACTGGAAGGATGGGATCCTCCAGGAATTAAGAGTGCACCTCTGGAGAAGGAGATTGAAAGCTGAGGGGAGACAGGGCACGGAGGAGGAGGAGGGAAAATAAAGGAGGCAGGTTTCCCTTAATACGCTTCTGTACTATTTGAAAAAAGATTAATACTGTGTATTACCTTCTTAATATTAAAAACAAAATAAGAAAAGATGTG
0.3675738948332538 CTCAGCTTTGCCTTTTTCTTCTTGGCACCTTGTCTGACATACTATCATATTTGTTTTGTTGGTTACCCACTCCGAACTGGAAGGTCTTTGAAGTCAGGGATTTTGACCATTTTGTTAATGATGTTTTCTCCAGCGCTCAGCACACAGCCAAGCACATAGTATGGACTCAATGACTGTGGCATGCGTGAGTATATAGGTGGGAAGGAGGATTTCCTGGCGGGTTCTGATTTTAGAATTTACCTGGTACAGCTGAGCTTCACTGAGCTGCTACCCTGTGCCAGCCGCGGGCAGTGCCTGACATCTGCCATTTCACTTCATCTTCACAGAAGCCTTATGGATGGGAAAGCTAGGTCTTAGAGAGATTAAGAAACTTATCTGGTCACCAGCTTATAGGTAGGTGGTAGAGCCTGAGGACTGTGCTTTCTTCTCCTGGACAGAAAGTGCTGCCTGAGCCCTCCCCTGTACCCAGCCTGTCAGGGAGGCCTCCCTGGGTGGTTTCTGAGCTGGCTGCTTTGCAGGGCTAGAAGGCCCATCCCTCCTCACCTGCCTGTGTCTGTGGGAGGCTCTTGGCAAGGGTGCTGTGTCAGGCGGCCCAAGTGCTTTCAGCACTTGGGGGTGGCAGGCTAATTTACTGGCCTGCTGAGCAGCTGGTGGATGACTGGGGATTGTCTGAAGTCTGCCTAGAACCATGGCCTGGGGCAGGGCTCCTTCCAGCAACTTCCCTGGAGAGCTGGCTGCAAGGCAGGGCCAAACCAGCCATCATGATAGTGTGAAGGGCATTTTCTGTCAAAAGAGGATGTTGGACAAGAGTTGGAAAGACTTGAGTTCTGATCCTGGCTTTGCCACTAGCTAGTTGTATAAAACTGAGCAAGTTACTGAGCATTCCTGGTTCCCACTGCTTACAAAATGGGAGCAGTAATCATGCTTACCTCCCAAACTTGTTGGGAAAATATATGCAATGTGATTAGCCCAGGTGCAAAAATAAATGTTAGATATTTTATGTTTATTATGATTTATTATTAGCT
0.4182025933696336 AACAGTGGCTAAGGTAAACATGGCTCAGGTCTCTTAGGAAGAAAAGTATTACATAAGTGCAAAGAAGAATTACTGCCCCAACTTCGGAAGCCTCCCAAACACATTATAAACTCTTCCTTATGCTATTGTAAATATTAAGGTTTGCATTAAACATTCAGGAGAGCAGCTCTGGGTATATAATTAGGGAGAGCAAATATTTGTTCAAATAAGCCTCAACGGGACCTCCTCCTTTCAACTAGCTAAAAAAAAAAAAAAAAAAAAAAAAATGTTCAAGCAGATGGATATAGGATACGAAGGCTTGGCCCAACATCTTCTCCTAGTCCTGATTACTCCACTCCTCAGAGACCCATGAATCTTCTTAACAAAGAAGAGTCTTCCAGGCCTCATACATTAGCCAGGCATTTTCTCCCAGGCCTTCCAAGCTTCCAGCTCCCTGCAGGGCCTCAGCTGACACTCTTCACAGGCACCTACTTTGCAAGGCCCTTGGTCTCCCGACAAGACAAGCAACACAAGCCAGATAACCACTCAAAGGGAGGCAGTGGAGATGGCTCTCATTCCCTGCCAGGAGGATCGCCATAACAAGGTGGCTGGAAGAACCTTCCGTGGCATGGGAACAGACAGCTGTAGACCCTGTATCTAAGTCTCTTCTTCCCGGAATTCTTATTCCACAGTGGTGACAGTGTCAAGCAGAAAAACACCACTTTTCACTACTTTACTGTCATCTTATAAATCTCAATATTTCAGCTTCACAGACAGCATCTTAGCTGATTTCACTTCATGTGCAAAAAACTCTTCCTTCCAACCAGAGGGACATATGAGTTCAGAACCCAAATTACATTCATTCTTTGAGAGGCAGATGTTTTCTGCAGATAACTTGTTGAACAATTTTTAAAAAGAAAGAGAGAGAAAAAGAAAGGGGAGGAGACATTTCTCCATTTTTACATTTCTTTCTTTTTCCTTCCTTTAG
0.8486327525723774 CACAATATCACTGTAATTGTGATTATGAGTTACGGAGCATTCTTTTGCTAATGTATATGAAGTGTTTAAAGTATTGTGATGTCTGCCATCTAATAAACACATTTGAAGGAAGAACATTTTACATATCATCTCCAAATCCTTCAGTCACTACTGACACAAAAATTCCTTTATTTCATAATTTATAAAAATGATATGAGCATAAAGAATAAAGAAACTTAAGTACAGCATTTGCAGACAAATATGCTGTTTGTTAGAATTAAACTCATTAAAAATGCAAAAAATTAATAAAACAATCCATTATTTTAGCAGTTAACTTCTAGTCAATATGTTTAGTATTCCCACCTAAACTTTTAACTTTACTACCCAATTACTGGGTTAAAGCCACTGCTTATTACTCTTTTTTTCAAGCAAGAAACAAAAAGAAGGAGCGGGACATGCTCAGTAGCTAAAACAGATGACCTTCGTGACATATGAGAGAGGCCTAATCCTGACAGCAGGAATGTGTCTTTCAGACACTGGCAACCCACTTGGCATAGATATGCCAACACTCACTTCACCAAGATGGTCAAAACAAAGTCTGGAATATGTTCTATTGTGTGAACAAAACAGAATGGGAGTATTTTAATAATAAATCACTTAAACAAGTGAAGGCAGCTGTCAGCAAGGTATGAGCTTCCAACATGAAGCACAAAGAAAAACATGCACTACCCTTTATAATCAGACCAAGACTAAAGGCCAATCGGTTTTGTGTCTGGTTCATGTGCTGTCTAGTATTCTACCTCACACAAAGAATGTGCCAAGGACATGGGAAGCTCTGCCTTAGAGAGGGTTAGAAGGAGAGGAGGCAAAACGACCCCTTAAAATATATCCTGATTAAGGCTTTATCACTGAAAAAATGTAAGAGAACATTATTCATTTCTTAATGTTACAAATCACTACTTTAAAGAATAAGTTTGCAGTTTTGTAACTACTGCTTTTAAGAAATACAAATGTGGAGAATGACAGTACATTTGTAGCATCTCCATAGGAACATGACA
1 GGATTGCGCCACTGAACTCCAGCCTGGGCGACAGAGCAAGACTCTGTCTCAAAAAAAAAAAAAAAAAAAAAAAAAAAGGAAAAGAAAAAGAAAAAACTATCTCCCTGCACTACAGTCTAAAGGAAGGGTTGGCAAACTTTTTCCATTAAGAGCCAGATGGTAAATATTTCAGACTTTGTGGGCCATATGGTCTCTCTTGCAACTGCTCAACTCTGATGTTATAGCTCAAAAGCAGTCACATACAAGACATTAACAAATGGGTATGGCTTTGTTCCAATAGTTTACAAACCCCTGTTCTAGAGGGAAGACAGATATTCAAAGAAACCATTGCAATACAGTGTGGTAAGTGTTACCACACTTAGATAGAGGAAGTGGGGAATGATCTAGCCTGTCACCACTCATTGTGCAGTCTTTAGACAAGCTGCATTGACATCACCAGGGAGCCTGTGAGGAATGCAGATCCTCACACCTCATCCCAGAACTGTGGAATCAGAGTCTGCATTTAACAGACTGAATTTTTTGCCCAGTCCCATTGGTAGCCATTTTCCATATGATGCAAAAACTCTTGATAAATATAGTAATCAATACGCACACTAGGATCACAATCAAAGGGCTTAACAAAAGAAGCTCTGACAGAGGGCTACGTTATACCAGCAAGAATATCTCATTTGAAAGC
1 AGAAAGAAAGAAAGAAAGAAAGAAAAAAAACCTAGAGGTAAGTAGCACTCAGAAATGTTGTGCTTTATCATGAGGAACTATTGCGGTAAGTGAGCACACAATAGGCATTTTTCTTGTTCGACTTGAATCTTTGTATTATTATTTTTCATTATCCATTCTGAAGTTAGGTTTCTCAGACTTCTGGGCTAGTTAACCATTTCCTCTAGTCTGAGATATATATATATATATATATATATATATATATATATATATATATATGTATATATATATACATATGTGTATATATATACACACACACACACATATATATATACACACACATATATATATATATATTTTTAAATATTGGTGAATAATTATGCTACTTAGGTTTTCCCAATAAAATAATTGGTAAAGGAAAACCAAGCTACTGTTATCTAAGACAATTTTCTCATTTAGTTCCAAACTAAAACAAACAGCAATGAAAGGTCATTAGTCTCACAGACTAAAATTGTTTTGATGAAGGCCAGCTTTCCATTCTGTTGACAAGCGTCTCAATTCTTTTCAACAGCTCTAGGTGTTCACACTGGAAGAATGTGGGGCAGCTTTGGGGCAGTCATCAGCCTCAGGGAACCAATGGCTCCTGGTGACAATTTGCAGAGCTGCCACTAGTCAAACTGTTCCTCCTCCCCTATTTTTTTTATCGAGATTGGGAAAATTAATAATGGAAATTTGTTCTTAGTGGCAGATTTGAATACAAACACTGCTTGAATTTCTGCTGCTGTATATTGTTGTTTAGCAATAATGAAGTCTCATCATAATTACGTGTTTCTTCAGAGTAAAGTCAAGGAATTTAAAGGGATCTGCAAAACTTCCAAGATTTCCTCCAAGAAGGCACTGTTTCTTTCTTAGTAGGTCAAATATCATGGCCCAAAATGGAATCAGTAAACAAGAGACATGGAGCAGATGGAACGGAAATGGAACCTCTGAGGATGACCTGACTGTCTCATAACTTCTATGCTGGCTTAAGAGCTGAGGGCTGACCAGCCTTATGATTAAAGGCCAAG
0.6912332171424308 TCCGTGCCCGTCTTATTTGAATACACAGAACTGGTGTGATGCCCACTTCCTTCTTGGAAGACCCACCAGCTGGGCTTCCTCGAGTGCTCCCGGGTCCCTCTCACTCCAGCTCCTCCAGGACCCTCTGCCACTGCCCACCCTTCCAGATCGGGGCCATCTGGCTCTCTCCCCACCTTCTTCTCTCTAGGAGTGCTTGGCTATGGCGGCCCGCAGGGCGAATAAGCCTAGAAACACGCTAGGCCTCAGTGCACCCCGCTCGGGGAACAAAGGTGACGCTGACGGTGGCCGGCACGTACGGAGCCCTTCCTGTGAATGACTCCCATGGGTAAGATGCTGATCTGGCCCTATCCAGAGGGGGCATCGGGACCGAGGCGCCTACAGACCCACAGGGAGCCCAGGCCCCGCGGCGCCGGCTCAGGCTCCCCACGTCTCCTCCGCTGGGGATTCCAGGCTCTGAGAGGAGGGCATCGGATGAGCGCATCTTCACCCGAGATGCATCTCCTGCCGCCGCTCTTTCCAGCCTTGTCAACACCACAGCAGATACCGAACAACGCCGGCTTGCCCGCACACATCCTCCTCCATCCCGCTCCTGCTCCCAGGCCTGGCCCTCTTTCAGGCCCTCACTACTTGGGCCACCGAAAAGCATCCCTGTGTCCAGGGCCCCTCCTCCCTGCCCAACCAGAAGAATCTCCCACATTAACCTACTCATGCACCCCCGGCCCCACCCCACCCTACACCACCTGAAGCGGCACCCAGTTGCAGAATCAAGCTCAAATATGATTGGGTGCCTGGGACCCTCCCCAGCTTGGCACCGTGGCCCAGCTGCCCAGCCCACTCCACGGCTCCTGCCTGCTCTGCTACCCCGGGGCATGCGGCTCCACCCCCTGGACACCCACTGTCCTCCTGGTCTGCTCCCACCCTCTGCAAGACACAGCCCACCTGCGGCCCCTCCACGCAGCACAGAACCTCTCCTGATCTTTGCAGAAGGGGCCCCAACACCTGCCCCTCCCGCCTTACTCCCAGCGATAGCGTAGCAGTTGTCACACTGCTGGAACGCAGCAGCTCTCAGCTGGGGACAACAGTGTCCCCCTGATGCTGGGCAATGTCTGCGACACTTCTGGTTGTCACACAGGTTGCTGCTGGCAGTCGGTGGGCAGAGGCCAGGGCTGCTGCTCAGCATCCAACGCTACACAGGGCAGTGCCCCCCACAAAGAGGTACCCGGCCCTGAGTGTGCACAGCTCTGAGGTGAGAAACCCTCCTATACAATACACACCACACCTGCGAGAAAACCAAGCTCGGGCTGATTCGCTTTCTTTTTTATGTTTTGAGACACAGTCTCACTCTGTCA
0.9713438764352772 GTCTTATTCAAAGTCACATCATTGATCACAGTTAGGTCTAAGGTTTGAATCCAGAAATCCTGGATGTAGGTCAGATATTTTCTCTAATACATCATAGCTCCCTTTCTGGTTCTTTCCAAGGCATCTAAATCTGTGAATAATCATTCATTTCTATGTATTTGTCATTATATGCATGAAGGAGAGATACTTGCAATTTTTTTGTATCTTAGTCACAAGATCAGAATTATTTTAGGATATTGAGCCAAGTCATACTACAAAGAATAAACAATTCACATTTTTAATTTTGTACAGGTAGGCAGTTTGATGCAATGGAAATTCATGGCTTTGAGTCACAGAGGTCTTTCCTTGTGGTTTTGAGAAAACCACTTAACTTATCTGAACCTCAATATCCTGACTTCTAAAATAGAAATAAACAGGTCAGTATGAGAATTACTCAAGAACATGGCTGTCAAATGCATGTCATTTATGAACATAAGCATTGACTTCCTTCTTATCTACATCCCATCCCATGTGCCCTAGTGGGTCATTCTTGTCTTCTGAAAGTAAAGGGATCTATTTCTCGTACACTTAATATGCATTCCACCTTGGGCTATTATGCTTTTATTTATTTCTTCCTGTTCTTTGTCCAGTTTCCTGTATAGTTAAAATGGTTCGAGCTGCTTTCTCCTTTATTGTTTCTTCCATGCTGTAATGCTGGGTGGGGCCTGAGTTGGGCCTATAGCCCAAGGAAAATCCAGCCTGCTCGCCTGCTCATCTCCTTCAACTCCCATATCTAAGACAGGTCTTTGTGTTCTCTCAGCAGCCCGTGGTGACATGAGTGAGTGCCTCTGTACACGCTGCACTGTCTCTCTGGTTATCATCTGACAGTCAGCCTTCCCATCGCTCTTCCTGTCTTTACAGTTCTAGTGAACGGAAACTTGTTAACCTTGACAGTGCCTCTCTTGCAGCATTAGCCATCCTGAGAGCGTCCTTCAGTTTCTGTGTGCTGGTTCTGCCCAGGAATCAAACAAGCCCATACCCAAATCAACATTTTAACATTAAATTAGAACATTTTAAGCAGTGCATTTCTTTTACAAATACAGTGAGTGTCTTCTTCCTAGAGGCCAGT
0.6827877798709805 TTTGTCCCAGATTTGCAGAGGCTTGCTGCCGATGCTGTAGAGGATGGAGAGGAAGCCGCTCTGGAACGTGTTTTTGAACATCTCGCCGGCGGCCTTCTCCTAAGCCGCCCCCGGAGCCGACCTAGGCCCCGGAGTAGATACAGGCACCGAGCGTCGAGGGCACAGCAGCAGGCCGGCCCTGTTCCGAAGAAGGGTGGTTGAGCTCCTGGCCTCCGGATCTGCAGCCACTGATGGCCGGACTCGGACGCGGCAACGCTAAGTCCGCGATCTTCAGCTCCTAAGCTGCGAGCTCAGAACGGAAACCACAGCAACTACCGTCCGCGCCGCGGTATTTCCCCGCCTTCAATGGAGGCGGAGGGCCGCCCGTTGCTTAAAATGAATCCCTCCGCCCATCTGAGCCCGCCCCCCGGGAGCGCGGGGCCCAATCCCGTTACAAGGACCACGGACTTCCGTTTCGTTCCGCCTGTAAGTCCCGCCTGGTCCCGCCTCCTCCTGAAAAGAGCTCAGTTGTCAAGGAACTATTTTTCTTGCCGTCGTCCCAGAGATGCCTTTGGAAAAGCGGAAGGGCACGGAGGGTTCTGGAGTTCGTTGCTGGCACCTGCGTGGTGTCATGAGAACGTGGCGGGGCGGTGAGTGACGTGAGGGGGCGTGACGGCCAGGCCGGGAGTAGTTGCCCGCGCGGGAGAACAGGGGCTGCGCAGGGAAAGCGGCTTTGAAAAAGAGCTTCTTGGCGTCGGGCGGACGCCCAACACATGCTTGTCGGCCAAGTACAGGATAAGGTTAAAGGGAACTAACCAATATTCAGCACTAACTGTGATAAGCGCCTAATATACATCCCTGCCTGTCATTATTCACATTGTGGCATGCAGTCAAAGCGACACTCTGAGGAAAATGTATCGCCTTAAATACATTGATTAGAAAATAAGAAAGCCCGAACATGATTAGGCCGGGCGCGG
0.9563434904920729 CCGGCAATCAATTTCTAATCACTTGATCCATGTCTCCCTCACCAGGCTGAGTCATGGGGACAATGGCAAAGGCTGCCCACTGCCATCCTTCTCTTCTTTCTTACTAGGAGGACCTGGTTTTGCTCCAGGTGGCTACATGCACAGCTATAAACTCAACCTGCAACATCCATTGCAGCTGGGGTGGCCATGCAGTCCTATTCCAGCTGATGAAGTATACACAGAAGTCACTGGAGACACTGGAGAGTGTCAGGAAAGTCTGGCTTCCCAGTATATCTCATCCTTCCTTCTAGTGAGTTTCTTCTACTTCCTGCCAGAAATGCAGGTATTCTTCTCTCCTCCCTGAAGGTACAGCAGCCATTATATGACCATGAGGACAGAAGCCACACATTCAGGCAAAAGAGAGGAATCTGGAATATGGCAACATCTTGGAACTTTGCTCCAGCTCTTTTTGTAATATGCAACAAATAAATTCCTGTCTGGTGAAACCAGTGTATCAGGCTCCTGCCACACACTGCAAAACGCATTCCTAAGTGATGAGAGCACAGCCGACAACGCTTGTTTCTCACCACTCACCTGACACCACCAAGTGCTAAATAAGCATTCTTTGAATGAATGCTTTTCATTTCACACCAACTCCATAAAATAGATGTCAAAACTGAGGCCTTGTTCAAGATCAGTCTGTCTAATTTAAAAGCCTGGGTTCTGTTTATTTTTCTTTCCCGCTGTCTTTCTTTTCAAATGGAAGAAAAATCATATAACATAACACTAACCATTAACCATTTAAAGTGTACAATTTAGTGGTTTAGTACCTTCATAATAAAATATTGTGGAAACATCACCTCTATCTAGTTCTAACACATTTTTACCAATTCCAAAAGGAAACCTGTACCCCTCAAGCAATCACTTCCCATTGTTCCTTCCTTCAGCCTTGGCAAGCACTAATCTAATTTGTCTCTACAGGTTTGGCTCATCTGCACATTTTATATCAGTGAAATCATACAGTGTGTTCCTTTATTTTACTTTTTTAATATTTATTTATTTATTTATTTATTTATTTATTTATTTATTTATTTATTTTGAG
1 GAGATTGTGCCACCACCACTGCACTCCAGCCTGAGACTCTGTCCAAGGAAGGAAGGAAGGAAGCAGGATGCATCCAATGCAGTAAGGCTAAGCATTTTTTTGTGAATAACACACATTCACATATCTGTGTAGCTGGCCCTGGTGTAAAATGTATTTCTTACTTTGGGTCTTGATAAAAAAAAGGTTTGAACCTTGTGTATGAATTTGGGAGTCGGGGGACGTAATCCTTAGGCTTAGACCCAAAGAAGGATATAATCAATAAAATGAATAATCCTGCCCATAATATGATGCCGATAACTGAACATGTATCCTGCGCCAGATGGGGATGCTCAGGTCCCAGGGCCTGGCAGGGAAGGGAGGGGAAGGATTCCAGAGTGGACAGAGATCCCATGGGCAGATAGGGGAGGAGTCCAAGGCAAATTGCCTGGAGGAGGAACCTGAACTCAGCCTCCAAACACCCCTCTGCCCTGGCAGGTTCAGGGCTAGGTCATGGTGTGAGCTTGGGTGGCAACAGTAATGACAGGAACAGCAGTCATCAGTAAGTACTTGCTGAGTGCCAAGCACCTTTTATCCTCCAGACTTTCCCAGGAAGCAAGAACTGCTCTTTGCATCATTTTACAAATGAGGAGACTTGGAGCAATGTGGTAACTTGTAGCATAGGGGTCACATGGTGGTAAAGTTGCTGTGGCTAGATCCAAGCCCAGGTCTGCCCTGCTTAAAGCCCTTGTCTTTAGGATTGCACACAGAAGGGGGCTGAAAAAGTGGGAGTGCTGGATGCTGGAGATGGGGCAGTGGGCCTGGAAGGGCGGATGGCCAGGGCAGACAGGGGATCCGTCTGTGTTGGGATTCAGGCGTCACGGATGAGTTTGCCTGAGGCTCAGAGACCACTGGGCTCAGGGCGAAATCACAGGCCACAAGACTCCCACCCTGAAGGGTGCACATGATCCCTGTTCTTGGCAGTAAGGTGGTCACAAGGAGCAAGGCCAGCCCATGTCCTGATGTTGTCCACTCCTCAGGTCCAGTGTCCCTCAGCTGTGGCAGATGTCAGGGAAGAGTGGGGAGTAGAGAAGAGCAGCAAGGGCCTGTTTCCCATCTTTGATCAAGATTCATCTTTGCTGGTTTGAACCCAGCTCCTCTGCTTTCCAGCGAGTCATTTGTGCCTGTCAGGAAATCATTTTTGGCTTGAGTGTTCCCTGGAGGGAATCTGGGGTTCCCACAGCTCATGTTTTTGCCCAGGAACTGAACTTGGGAGCTCTCTCCCAAGAGCACCAGCACCTTGCTTGGGCTGATGGGGCAGTGGATGGCCACAGGCGAGTCTGTCGGGGCGTGAGTAACAGGTTACTCATATTCTTTGCAGCAGCAGCTTGTCTGGTTTTGGACGGTTGCAGGTGCTTTGTGTGTGTGCTACACGTACACACACATACACA
0.33756339532243 ACCACGCCTGGCCCTGCCTGAACAGGTTTTGAATGCAGGTGAAACTCCCCTATTCTGGCGAAAAAAATCCTGTAAGAACATTTGTTAGTAAGAAAGAGAAGCGAGCACTGGGATAGAAGGCAAGAAGGGATAAGCTAATGCTACTGTTTTGTGCAAATGCAGTAGGGTTTATGATAAGGACTGCCTTTATCTATAAAGCTGCCTACCTCAGAACCTTGAAGGGAAAAGATAAACACCAGCTGCCAGGTATTTGGTTTTGCAACAAGGCTGGAAAGAACCCCTTTTTCCGGACTGCTTCCATTGATGCTTTGTCCGTGAAGTCAGGAAGTACCTTGCCTTGCCAGTAAGGAACTGCCTTAAATGTTCTTTTGACAATGAACAATGCCCTTGGTCCCCCAGAACCCCGTGAGTTCAACAGCAGAGGCGTCAACGTGGTCTTCCTGTCCCCAAACACAGCGTATCTAATTCAGCCTCTAGATCGGGGTCATAGGACCTGTAAGGCTCATTACACACAGCATGCTATGGAAAGGACTGTCAACATGGGAGAGAGAGAGAGAGAGCATCATGAGTGTCTGGAAGATGACACCATGAAAGATGCCATCATTGTTATAGAGAAAGCCATGAAAGCTGTCAAACCCAAAACAATGAACTCCTGCTGGAGAAAACTATGTCTGGAGGTTGTGTGTGATTCCACAGGGTTTACAACAGCCAATCAAGGAGATCATGAAGAGACTGCGGACATGTGGGCCGGGGCAGGAGGGCTGGGGGGCGGGGAGGGATGAAGGGTTTCATTTCAAAACTCAAGAGCTAAGAGATACCACACCAGAGAAATTAGAAGACAACCTGGTGGTGATGAGTGCTTCTGACCCACACCAGGTGACGAGGAGGAGGTAGCAGCAGTGACAGAAAACAAAGTGACATCAGACACTCCTGCAGAGGGGAGGGGTTCCCACGACTCCCACCCGCTTTTAACTTCTTGTACAACACACACCTGTCTGTGACATGGGCACTGAAACTAAAGCCAACAGTGAGGGAGGACTGTGACCATACAGGAACATTTCTAGAGAAATGACAAAGCACTTCGTAAGTTACACCAAATGCGCCTGCCTCTCCTGCCTCCCCTTCTACCTCTTCCACCCCCGCCCCATGAGAACAGCATGACCACCCCTCCTCCTTCTACTCAATGAAATGATGAGGATGAAGAC
1 CATTGGCACCCAGGGCAAGAGTGATGAATGTGTAGACAGTATTGGATCAGACTTGAGCTGTGAAAATAGAAAATATGAAAAACATCTTCAGTATTTTGGCTATAAAGAGGAGGAACAACAAAGGATATTCACCAGAAAGACATGTGCAAGGCAAATTAGTATAGAATTTGCTTCTTAATGGGAGAGATTTGAGCACATTAAGAGTAGAGATTTGCTCTTGGAAGTTAAAGGCTAAATCCACACTAAGTCCTTTTATTCAATATTTATGCGGTTTTAACAAATTGTTGTACATTTTTTAAGTTTACAAGTTGTGATATTATACAGATAATTCAAGAAAAGAAATATTAAATAGATTACAGCAAAAGATGTAAAGTTTCAAAATATATCAATAAAAATATAAAGTAGATGAATTAGAGGGATCTATATACCCTTTACAAATGTCTGGAGCTTAGAAGGTGAACAATCAGTGTGAGAGACTGGGATAGAACAAGTTCGAGATAAGTGAGTATAAAGAATCTAGAGGGGGTCAGGAAAATTTACCCTCCAAAAGTAAAACAGAGCAGGCTCTGGGAAGATTTTAAAACTTGCTCGAGCAACTAAAAATGAGAGTTGAAAAGACTCCTGTGATAGTAAGAAGGTTATTTCAATATTATATGACATACAAATTGTTTTGGAGATGGCATAGTGTGGTACAGCTGCAGAACAGCCCTTCCCTAGAAGCCAGGCACCGGGTTTGGTTTTGTCTGTGTCAATAATAAAAGGCAGTAGCTTGGAGAAGTCATTTAATTAATCAGAGCTTTAGTTTCTTAACCTGTGTATTTAAAGAGTTTCCCTACATTTTCTGTAAGTTTCTTACAACATTAAAATTCTTTGTCTCTGTAACTAACAGAATAGGTATGCTGTAAGAAAAAAATATATACATTGAGGTAAACTTAAGTGTCTCTAGAGCATAACATTATCAAACTTTTTTTGTAGGTCCTGTGTAAGTGAGAATAAAAGCTCCACACAGTCCTTGACTTCATTCTAAATAGGTTGACACGGGTGTGAAATGACATTCTCCAGTCTTAGGGATGTGTGAAGGGCACTTAACATTTCTGACAAGCTGAGTCATTTGACATTATTCCCTGTGTAACTTATCCATTAAAATTTTATCTGTTGTGAACATAATTTTTAACAACTACATAAAATTTAAATACTCTGAAGAAAGCACCTAGTCATTTCAAGACTTTCTGATGTGATCTATGTTGAAACAAACAAACAAAAAATAAAAAAAAACCCTCCTATAGAGTCTCACCAGAGTACAGGTTTAAAAGTTAAAATATGTATTTCTAAAAGTAAATACATTATATAAGCATATGAAATAATGAATATATAATACATATTATATAAAGTGATTACATATAAAT
0.6094898735152801 TGAAATAAAATGAAGAAAAGGAGATGAGTGATACTGAAGAAATCGCCTACCCTGAGCTTCATTTTACAGACAAGGACAATAATAGGACTTGTCCTTACTATCTCACAGTTATTTTGATAATCCAAAGAGAAAATGTATTTGAAAGCACTTTGGAAACAGGGAGACATGATAGAGATATTAATTGTAACTACAATCAGAGATGGGCTTAGATAGCCCAAAACACCTAGCAGCTCCATTTTGATAAATGGAGGAAAACAGCCTCTTAGTAGAATATACTGGGTTACACAGTCTGATTGAATCTGCTATTGTGTTTAGAAGTCAACAGTCAAATCAGATCTGTTAGGAGCCTGCCGTATCGTTTCCCTCTATAAACAGGTCGCTCATGTCAACACCTATGAGTGGGTGTCTGTGCATGGAGAACATGCCGGTGCTTTGCAACTGCCTGCCATCCTCGGTAAAAGCAGCCACAGAAAGACTCACCTAGTTCTTTCCTGTATTCCTTTATGTCTTATTTTTCAACAGAAAGTGAAAAGAAGGAATAAAGATAACATTTTTGAGCACAGAGAAATCTAGTTTGGGTCTCTCTTGAGCACTGCAGAATGGAATATATTCTTAACCAAAGGAAGGTATAATGCGGGGTAAAAGTGCTAATCCTGAGTTTTGCTCCCCTCCCCCAGCGTCTGTGCCAAGGGTTAGAGCTGATGACCACAGGGAAAGGATGGGCCTGGGTTAGAGAGGGCAATGGGCTTCTAGGCTTACAGTCAGCTGAAGGGCACTGCTGACTGCTGGTAACTGCAATTTATTTTAAGAAAAAATTCAAAAAAATAAGCACAAAAACACCCAAGTTTGCCGCCTGCTGCTGTTTCTATACTCAGCCAGGACTGTGGTACATGAGTCACTTGGTCCAAAAAGGTTGGAAGAGGCTGTTAGGGGAGGCCATGTCATTATAAGGTTGCAACATAGCGTCCTGATATAACCCCAGTTCCTGCTCCAGATGTAAAAGGTATGATGCACTACTGCAATTCCAATTCAGT
0.8808049871280581 TGAAGTGTCTGTTCATTTTATTTGCCCACTTTTTAATGGGGTTATTTGTAAAACAGCTCTTTTAATAAGATATTTTTATCCTGATTCCAAAAGCATTACATTCATGGATCATCAAGGCCTTTATAGGTATTATTTTTATATAGTACTTAAAAGCCTAATTCACCACCTTTAAAATCAATGACACATATTTACAGAGTGTTTACAAAGAATTGTGCTGAGTTTAATTCTTCTTTAATAACATTTTAAAACCAATAAGTAATCTTTCTATTGCAAACTTTCAGATGTAAAGAACTTAGGAATAGAATTTTAAAAAATCAATACAAGAGTTTTCTTTAACCCTGTACTTTGAAATCACAGAGATTAGAAAGTTGATTTGCTGGTTCTGGCTTCTGCAGTAGAGAAAGAATTGAATGGAACATGAGTGGTTCTTTTAACAAGGCATTCTGTTTTCCTAAATCTCTTTCCTGAGAAAGAAGCGAGTATACTAGTGGGAAGTGCTGAATATAAATGATCAATACTGTGACTGATGTTTATATAAAGCCACAAGTATCAGTTTGACACCCTCTACAGCTCTACACGTTTGCTGTGGGCCTTGAGGAGAAGGTGCTGAGAGGTTGTGGGGTGACACAACTCCTGCTTACTTTGAATGCTCTGTGGAGATGACAGCTGGGAGAAAGTTAAGATAGTAGACACTGGAAAGACTATTCTCAGTTTAGAAAAAAGCTCATGAAAAGCGTGATCATGCCATGAGCAGTGTGAGTGTAAAGGAAGTGAAGAAAGGAATGTATGAGGGAAATGAGCATTGCAAGTCATCGGTGTGTTGTGGTTGAATGCAAAACAAAGGCACCAAACTTTATTGTTGTTAAATTTAAGTTTTTCAAGGACATATTATCATCCTCGTGCAGTATACTTTGAAAATCATTACTTTTTAAATTAGTAACATAAGTAATAGAAGCTATTTGAATGAAATTTGCCTAGTGTAATACAAAAAAACAGGAGCAAAAATCACCTATAATCAAACAATGCTATTTTTTTTCATTTTTTTGAGCACATTTCGATGTGCACATGCAAAAGCATATATTTAAAAATAAATTTTGTTGTAACTAGTATTTATTGACCTTCTTTTAAAAACTTACATCTTTGGCATTTTTCTTTACCTATACTTGTTTTTATATAGCATATTAGAGATATGCATAGTATTTCATTCTTAATTTTTTTATTTTCTCATTTCTCTATTCATGTCCATTTAAA
1 GAGCAGTTTTTGTTTTTTTCTAGTATTTGTGGAAATGCCTTCCTGAATAAATATGCTTGATGTTCATCAAGCCCATGTAGGATGGAAAATAAATCTTAATGATTATGCTGAGGAGAGTATAGGAATATGGTTATGCATTTATTGATTAAAAGATATTGGCTTTTATTTTATGATCTTTGGAAAATAGATTTCCCCAAACTAAAAGTAAAATGCATCCATGAAACATCTGAGTGGCAGGCATGTGTTCTACAAAACAGGATGCAATACAGGTTGAGCCAACCCCCTGACAGCAGAGATAGAGACTCCAGAGGGTAGGGAAAGGACAGGTCAGATATGCAACAGAAAGATTGACAGTGACAAATGGGGTGTGAACTCTGGGAGAATGAAAAGCCCAGTGCACTTCACACTCTATCCTGATGAAAGCAACCCTCAGAGACCCTTAAAGAAATGAATCTGTTAAACAGATGCCTTCAATGTGTCACTTGCAGACAAAGCTTCCTTTGCTAAAACCCCTCTTAGACGATGAATAAGTCTGGTGAGAGGAATAATTTGTCAAACTAATTTATTATAGTCCAAGGAGGTCTCTGAATAATAGGAGACACTAGGGAATAGAAGGTAGTCATCTAGTGGATTGTTAGTAACTCTCTTCCCTCGAGACTGAGGCCTCTGTTTATTTATTTGTTTTTGGTTTTGTTGCCTGCATGAGGCTAACATTGTTCTCAGCAATTTGGTTTTGTTAATAATAGTCTTTTGTTTGTTCATTTTGAAAATGAGAAAATGTGAACACTGTGTGGGAATGCTGTATTTCAAATAGGATTCACAAGGGAAAATTGGGTCTGCAACTTAAAGCTATGGAGAAAACAGGAAATGGTACAGCCTGCTGCTGCTTCGTTGCTTGGGTATGAATCTATAGGATTCTCAGGGAAAGGACAACTAAAATTGGGCTTGTAAGGCAGTATCTTCTGCTAGTGAGCTCCCTCAGAAGAGCTTGCAACCCAAACCCAAACCACTAAGCACTGCAAAGGAAC
0.7610507052147303 ACAGGGTCTCACTGCATTGCCTGGCCTTAAGTGACCCTCCTGTCTTGGCCTTCCAAAGTGCTGGGATTACAGGCGTGAGCCACCACACCTGGACTTTGATCGATTTTTGGAGGACTTTCAAAGTAAAAATGAAGAAGGTATCTGATCTTTTGATAAGCCCTTAGTCACTAGTAGATATTATATTGCATTTAATTCCTGATGCCCTTCCTCCACCTACTAGTGGTGTCATCTTTCCCACAGGACCTTTTCTTCCTTTTAAGTCTAACCCAACCAGCTGTCCCCTTAATGCTACTTGTCCCTGCCTTCCTCAGCAAATTGTTTCCACATTTATCTCTTCCCTCTCCAACTTCTGCCTCTCCCTTGCCATTGGCTTCTGTCCTATTTGTTCCCAGCTTGCAGGCGCTGGCCCATGTCTGTCTCCAAGTCTTACTCGTTCTTACTTTGAAACATTTCTCACAGCACTAGAGAAAACACAGTGTGGTTGGACAAGACCTTGGGAACATGGGAGCTGGGATCAGAATGTGTCTGTGTTTGGATGTCGGAGTTGGGCAACCTCTTGGCTCGGATATTTTTCTGTTCGTTTTGTTTAATAATCTTTAAAATAAGCATGACAACTAATAACATTTATTGGATATGTTTGTATGCTGGACACTGTCCTAAATCATTTCCATGCATTATTTAAGGATCATGAGACAGCTAGAGGTGTTTGTGAGCATTTCCAGAGAGCATGCCTGTGAAGCTCGCTGAACAATGCCCAGCTCTCAACATGACCCTGTTATATAAGAATAATTCTTTTTCTCTCCATTCCCACTTAGTTCAGGCCCTCAATCATCAACAAGCATCCTCCTTAAAGTTCTCCCTGACTCTCCACCTAATTAATCCTGTCATTTTATTTTTTTCTTTTCATTTATTTATTTTTATTTTCTTTGCCACTTCTGTATCTTCTTTGGAGATAATCCTGTCACTACTTTTAAAAACCTTAAGTGCAACTTAACATATTGCTTCCCTGTTCACGTCTTTCTCATTCGCTGTCACCTCAAACCCAAACTCCTTGGCTTGCTTTTAACACTGTGGAGGACATTCTACTCTCCTCCCTCCCTGCTCCACACCCAGGAAAGATGACTGTGCAGTAAAGCCATGGCTCGCTTGCCCTTGAGTTTCCAATGGGATTCATCTGGTAAGAGGCCTCAGCCAGAGATGGAAGGGTGGGAGGAGAGTGAGGTTGGAGTTTCCATTTTCCCAGCTCCTTTCCTGCCAAGCCACAGGTTGATAGTAACTGCTATTTGTGTGCATATAGAGACCCTCTCTTTGCACATAGAGACCCTCTCTGGGCTTTAAGACCACTGCCTCCCCTGCCCCTTAAGGAGTTGGGCTTCCCTTTTTTTTCTTGTTGAAACAGTGTCTCAGTCTGTCATCCAGGGTGGAGTGCAGTAGTGCAATCAC
1 ACATTATCCTAAGTAAAATAAGCCAAATACAGAAAGAAAAATAGGATCTCACTTGAAAGAGCTCAAAAACACCGAGATAGAGAATTCAACAGTGGTTACCACAGTCGGTGGAGAAGAAATGGTGGAGATATAGGTCAAAGGATACAAAATAGCAGATGTGTAGGATGAACAAGTCTAGAGATCTAATGTACAACATCCTCATGTTAATAAAATTGTAGTGCACTAGGGATGTTTGTTAAATAAATAGATCTAAGCTACTCTTGTCACAAAAGAGTAACTATGTGAGATGACAGATCCCTTCATTTGCTTCACTATAGAAACCCATATGTCTATATGTATCCCACAACATCAAGTTGTAAACCTCAAATATACACAATATTTACTTTAAAAACAAAACATTGTTAGCAAATTAAAAAAAAAAAAAGAAAATACAATCCATAAATCTGGGCCCAGGCTCCATCCATCAGACACCAAAGGCCACACCTGCCATCATCAATCATGGGGCTAATCCTGCTGTCAGCACCAGGAAGTGAGGACAGGGATGCAGGCCCAGCAACTCAGGGACACAAGCTTTGGCAGCTTGCCTTTGGATACTCAAATAGAGTGTCTAAGAAACAAAGAGGGCTGGGCGTGGTGGCTCACGCCTGTAATCACAGCACTTTAGGAGTCCGAGGCCGGAGGATTAGTTGAGCCCGGGAGTTTGAGACCAGCCTGCGCAACATAGGGAGACCTCATCTTTACAAAAATAAAAAT
1 TCCAGATTTACTGAGGTTATTATTTTCATCTCCCCTACAAAACTGTTAGCTCTTTGTCAGTAAATACATTGTTATATTTATCTTTCTGCTGCCTCTAGGTCTAGCATAACACTTACATGTGGTGGGGGCACACAAATGTTGGTGCAGTTAATTGATACACGCATATGCATACATAGGTAGTACTTGCCTAGAAAATGTTTATGCAAGCAGCTTTAAATAGTGCTATAAAAAGATTAAGCAACATTAATGGTAACAGGCCAATCACATATTCCCCATTCTGCTGGTAGCAGATAAAATACAACAAAAAGAAGGCACTAATGAGCTAGGATGGTGACTTACTAAGCGTGTAATTAATGTTATTAAGAAACATTGCAGTTGCATATTAAAATTCCGTTAACTAAGCAACCCTTCAGCATCAGTACATTTGTTCCTTGGTTTCAAGTTTTTCTTTTTCTTTTTCTTTTTTTTTTTTTCTGATTGGCATCTTCATGCAATCTTTCTCTAAAAAATGAGATAATGGGATGTGATCAGCCCTCGTGGTTTAGCTGGAGTGCTGACATGACAGTTCTGGCAAGTTGACAGGTTAAGTGAGTGAAAATGGATGTCTTGTCTCACCATTTACTTGAAGAGCCATTTTAAGCTATAGTTTCCCTCTCTTTACTCCCACACTTACAACTCCTTCTATCCCAGGTATGAGAAGTCAAGTTTTCCCAATTTAGGAATTTAGGATCTTGAAAGAAGTTTTTCACCACTTTAAACTAGTCTTCTTCTGCTGGTCAAAAATGAGATCATTTCTTTACAAACAAAGAGTTAATTTCTCTAATAATGAATTCGTTTTTAAGTTAATAGCACTTTTTATTTCATATTAAGAGTCCCTTAAAGAAAACAAAATTTTATTGTTTTATTTTTAGTATTTTAATTATAAAGGCAGGTAGAAAAGCAAAGCTACAAACGCACTGGTAAAGTACAGAATAATATGGGACAATGGAATTTAAAAGTTCAGAACTTGTTTAATATTTTGACAGATTTTCCTAGGGATCTCTCAATTTATACCTATGTATAATTTAAAAGTTCTGTGAAACTTGCATGGCGAATCTCATAATGATTTCCACAGTTACATGATTTCCTATAGTTACCTATAATTAAGGAAATCTATTTTAGTAATCTGAAATATAATAAAGTTTAA
0.3162604207189741 TGGGATTACAGGTGTGAGCCACCACACCTGGCCAAGAATGATGTGGTTATTAACGTGGATAACTTCAAACCTATTCTTTATGGAGCTACAGTGTCCAAATCTTAAGCATACAGTTCTATGGTTTTTACATAGATACAGATCTGTGTAATCCACTCACATAAAAATAAAGAATTTTCCCAGCACCTCAGAAGGCTCCCTTCCCTGTAAATGCACACACCTCCTACAGATGCAGTCACTGTTCCGACGTTGATCATCATAGATTAGTTTTCCTTCATCTTTCCTTTCATGTCAGTGGAACACACGGTGCATAGTCTGTCTGTCTGTTTTCCTTTACTTATCATCGTGTTTATGAGATCCGTCCATGTCGTGTGTACTGGTCACTTGTTCTTTTTTATTGCTGTGTAGTAGTCCATTCAATGAACATACCGCAATTTATCATTCTCCTGTTGATGGACATTGGCTGTTCACCATTTGTGCTAGTACCTAGAAACATTCTAACGTTTGCCTTTCAGAAGTTCACTCCAATTACAAAAAAGTTTAAATCCCCTACAAACAGCCATGTGTTAACTTTTAACAGTACCCAGTTATTTGGGATAAAACTCATAACTGCTTGAAACCCAAAATGCTGGAGGCACCAGCCACTGCTGACAGCCGAGAGAGAGTGTTGAAAAGCTTTGAGCAGGAGAGTGATGCAGTGGTGTCGGATTTCACAAAAAGCATTCAGGCAGCAGCTGAACACCACCATTTCTGTGACTGAACTGATGCCCTTTCTGGGGGGCAGCCATGTGCTTTGGCCATTGAAAACACAGAGGGTGTGATGGAGAAAAGAGAATGCCCACTGTTGTTAGTTTTGCTTTTCACTCCTGCCATCTCTCATTCCATTTGGAGAAAGCCTACAGCTGAAATTAAACTTTCAGCTCTAGGGGCAAATCTGTTTCTCCTTGTCCTGCGTCTGTCAGAAATGATATCCATTCCGCAGACTAATGTCCCTGTACCATGGTGCAAGCACTTCCCTGCCAGCTCCAAAGCCGGGCACCAGGGAGAGCACAGGGCACTGAGTTCTTGCTGTCCACACCCTGTGCAGATGACCAGGGATCAGCCACCTGCCGCTGTCTCCCAAGAAGAGAAGACAGAGCAATGATGGTTTCATCAAAGCCCCTGAAAGGGTGGGCAAAGCTGGCGTAGGCTTGGCGGCTAACAAATGTGAAATGGGAAGTTTTGGGGGC
0.737388511708029 GTATGTAACTATTTTGCAAAGACTAGAGAGCATATTTTAAAAGTAAAAACAAACCAACAGAAACCTTTTTCTATTACTCTAGAGAGGTTTAAATCTAGAAGTCCAGCATGAGAAATCTAAATTGACAAAACTTGGTTAGCCAAGTTATGTGATAAATCAGTAGTCAGAATGAGATTTTTGTCTACTGACTTTGTAGATTGCCAGTTGACAATATCTGGGCTGTAAAGATCTTAACTGCCTAACCTCACCCCACCAACACACACACAAACACATACATACATACACACACACACACACACACACACACACACACGTAGGCATTACTGGAAGACCTCCCAGGTTATCTTGTTTACCCTCCCAGCCTTTAGACTGGTGCCAACTAACATATTCCAGAGTGCTGTCAACTCTACGTTCACACAGCTGTACTTTCATGATTTTTTATTCCAGTGCAAAGAATCAGTGTTAGGAAGTTCCTTGAATCTATCTCAAATGTTGTTTCACACTAAAATCTAAAACGCTTCTTAAAGTTAACTACAGGGATATAAAAATTTTAAATCAGGCAAAATATGTAGAAAAATAAAATAATTATAAGCAAACTTCTTCAAATTTGTAAGAAGTAGTGCTATCAAATGTGCTTTTTGGTATTGAAAGTATGGGAAGAATTGCTGAAAATTATGTAACTAGAAAAAGTTTTAAAGTAACTTTTTTTTTTTTTTCCTGAGAAAGAGTCTGCTTTTGTTTTCTAGGCTGGAGTGCAGTGGCGCGATCACTG
1 AGTATATTTTCTAAAGGTCATCAAACGTTTTAAAAAGCTTTTAAAAAGATAAAACGCGATATAAAATATAAGGGATTGGGATTTCTGCTTCTGGTAAAGCAGACTAGGAAATATGGGCCAACCATATCCCAAATATGTCTTATAGAAGACAACCAGCAGAGTCAAAAACATATCTAATCCAATCCAAGCACACGAAACCTGGGTGAAGGTAAATGAAGCTAACAAGATAGCAAGAAATTACCAGATTAGAACCTTGACGGAAAAATAGGCCAAAGAAATACACTTTAAGCAATCCATGGGTCAGAGAAGACATTAACATGGAAATCAGAAAATATTTTCACGAAATGATAATATAAATATTACATATTAAAAAACCATGACTGCTATGGGAACTGTTCTTCCACCTTCAATAACTAGAAAACCAGGACACATGGAGATCTGCAATAAATGGGACAATTCTACCTTAAACATTAAAAATAAGCATTAGCATTAACTAAAGGGTTAAAATACTTGCAGTAGAGTATGAGTTCTTCCTTTCCTAAAGATTATAATTATAAAAGGAAAAGGAAACAAAGTTACCATATTTCGCTGCACTAAGTTATCTATGTCCCTCTTTACTATGTGCAGGTGCTCTTTGATGTCAATGAAGTGCTGTGTTGTCTCATAGACGCCTCCAGCAGAGCCAGGGTGCTGCATTCCACTGACCAGTCTGACGGTTTCACTCATGGAATTTCTGAAACAGAAAGTCTCTTGATACAATAAAATCACTATAAAGTTTTTTTTTTTCAGTCACAGATCTCCAATACTTTTACTTTTCAAGTCTAATATATTACATCATTTAAAAAAAAAAACAGGTAAAGTATCTTTAAAAATCGAGTTGTGTTCAAAATTGGAAAATAATTTATAAAACGACATTATGCCTTTATATTTTACTAAAGGTCATCTAAAAATACCATGTAGAAAATACTACTAGGTAATCTGTGTTAAAACCAATAGTATAAGTGGATATTGAATATAATGGATGATATTTTTAATGAAGTTATAATAAATCTTTCTAGGTGTTCAGCTGTACAGTAAAGGACTAGTGCCAAACGCAATCATTTCCTATAGGCACACTCACACACACACAGACTTGTCCGCTTTGTAGCTGCACATATAGATGATTTCACTCATACAGCATATAGTAGGAGGCTAATGGCTTTGTGACCCTGAGGACAGGGGTCACAATTCTGATTTCCTACGAGTGCATTCAACAGTTATGGTTCAATTTGGAGGAATAAATAAATAAGTTATTTCACTGGAGTCAAATGTAGTTTAAAAAGTAA
0.1751479577904691 CACTGCGCACCAGCCCGCTGATCATGAGCACGGTGCTGGTCATAGTTTTTGAGACAGGGAGGTCCTAGAAGGCTCCAACAGCAGGAAAGGTAGGTTTCTCTAGCACTCATGGGTGGATGCCTTAGAAATAAGAGAGAAACAAACAGCCTCTGGGCCTTGAGAGGTTTAGATTTCCCATTTGAAGCAGAGGTGGTGTGGAGGGGAGGGCCGGGGCCAGCACCTGTTCAGAAAATGCATTCCCCAGAGATGGAAGCAGGTGACAGTGTTCTCACATTAGTTGTGCTGAGAGAAAAAGTCCTTCGTTCAGCTGCGCCCAAGGCTTTATTCACAGACTCCCGTCTCTCCCAGGGGTGCTGGAAAGACCTTGGGGACCTCCTCACCCTTCTTGCTGGAAGATGCCCGTACCGCAGCGCACGAGACCCCAGCTTTTCCGGGGCGGCTGCACTGTCAACTCAATGCCTAGCAAGGATGCGTCCGGCTGGGCATAAAGACAGCCCGGCCCGCTAAGCAGAGAAAGCTTCCCCTTCACCACCAGGCTGCTGACAGGTGTGAGTGGGGCAGGGCAGGGAGGAATCACTGAGGCACACCCAGGAAGCCTGACGAGAGGGGCCAAGCTCTGTCCGGACGTGGTGGCTGAGCACCCTGCAGAGGCTCAGTGGCCCTGGCAGCCCCTCGCCTGCTCTCTGGAGGCCTTTGCTCTCTAGTCCCCTCCCTTGAACTCTGAACTTCCACGGGTGAGGGGGGTGATAGAATAATGGCTTTATTTTCCCAGTCTGAAAAAAATAATATAGAAGAAATAACAGCTGGGCCTTCCTCTGCATGGAGTTTCCGCTCCCACGAGCATGTCCGTGTTTAGCATCGGCAGCCACCTGGCCATGCTGGACTCGGTGTGGCTGTGTCTGCAGTCGCATAGACATTTATGGTATTTCCAGTGGCCTGTCAACAGTGCCTGGTGTTCTCTAACAAGTGCTGTGGACTCCAAGGGCCTGACCACCTGCAGGGCTTGAGAACCACAGTTCAAGCAAGGTGAGACAGGGTCGGCAAGGCTGGCCTTGGCGTCTCCACAGGTCAGTTGGTCCTCAGCCAGGCATGCCACCCTGTGGGCTTTGGGGCTGCTTTCCCTCTGGAGTCTAACTCAAAGCCTTTTTTTTTTTTTTTTTTTGAGATAGAGTCTCGCTCTGTCACCCAGGCTGGAGTGCAATGGTGCGATCTCTG
0.709617559292573 GGGCAACACAGTGAGACTCCGTCTCAAAAAAACAAACAACAACAACAACAAAAAATAAGTAAATATCAGAAGAAACAGCTAAAATAATTTGGAGAGGAGAACTGGATTTGGAGATGAGAAAGGGACTTTTTCAATATTCAACAAGAAAAGGCTTTTTCAATATTACCCTTGAAGTAATATTTGAGTTTTTAAACTATGCATTTGTATTTCTGTGATTTAAAAAATCAATTTAAAGGGAAATTATAAATGTTGGAGAAAGGTAGGGAGGGATGGTATCTAGTACTGAAATGGGCACTTTGATAGTACTGATAGGAACCAGGACTCCCGTGACTACCAGGAAAGGTGTTGCTGGTCTTATAACTACCCACTGGGGTGTGGGATACAGCCTCTCAAGTCGGGTCATACCTTCTGCACCAAACACCTCTCCGCAGTGAGAGCAGAAGAAGTGCTCTGGGTGCCAGGTCTGGTTCATTGCTGTCAGCACTTTCTGGAAAGGGAACACACAGATATTATAATGATGCAGAAGTTGTAAAGCATGACTCTGGTTCTAAGTGAGTGACTGAAAGCTGGAGAGGAGCGGGGATTTACTTACATCCAGGATGGGAGCAGCGCAGTAAGCACAGCGTGGAGAAAAAAGTTGGTGGTAGTCGTTGGGGCAGTAGGCCAAGCCACTCCGCTCAAAGAAGGGACTGGAGCCAATCTCTTCTTTGCAATGAGTACAGACAAAATGCTCAGGATGCCATGATTGCCCTAGAGCATGGATCACCTGTGGAGTGAAATAAAGCCTGACACAGGAGGCCAGTTGAGTGCTCTACAGCCTACAGGTTGCACAACTCTAGGGAGCACTCTTCACATTGTACCCCTTGTAGACAACACGCCCTGGAATTATACAACACTGAGGCCTAGACCTAGGTTCCACCTAAGGCCATCTGTGGTCTGTGCTTTATGGATTGATAATAAAAGGATGCCCACTTCCGGGACTGATCACTGTGATGAAAGCCTGTAAATGTTCACAACCACTGCACTGCCACAGGGGGTGGCAGAAACAACATATAGCACATTGATGACAGAGAAGTTGTAACTGTAGCCTTAGTG
1 GTCTCTTCAAAAAATAAATAAAATTAGCCGGACATGGTGGTGCATCCTTGTAGTCCCAGCTACTCAGGAAGCTGAGGCAGGAGGATCACTTGAGCCCAGGAGTTGGAAGCTGCAGTGAGCTATGATCCGGCCACTGCTTTCCAGCCTGGGTAACAGAATGAGACCCTCTCTCAAAACAAAACAAAATTACACACAACATAAAATCACCTCTTCTGCACCGTCAAAATTAACAGACATAAAAGACCACATATTTTACGACTCCATTTTCATGAACCATGTGTATTAGGCAAATTTATAGGGGCAGAAAGCATGTTAGTGGTCACCAGGGGTTGGGAAAGGGGAGATGGGGAGCAGCTGCTCAATGGGTATGGGGTTTATGTTTGGGGTGATGAAAAAGTTCTAGATAGTGGTGATAGTTGCACAACATTGCGAATGTACTCAATGCCAGTGAATTGTATATTGTAAAATGGTCAAAACATTTTAAACATGGTAAAAACAATGAAAAAAGTGAACCAGTGCTTTTGAGATGTTTGGGGTTTGCGTGAGAACGACCTGGGGGTGCTGGCCAGTTCCACTAAGGCCCACTGAATTAGGGATACCGAGAAAGGAGCCTCGGAACCTGCATTTTCATAAGGTCCCCAGTGATTCTCACTCTGGGAATACTGGCAGGCATTTTCATTCTATTTTGTTTCTTAATTGGAACGTGCCATATGTGCTATGTTCTCGTCCCCAGCTGTCACAACCCATGCATTCACAGTGAGCAGCATGCCCAAACCTCAGCAGCTGCTGGTGGGGAGAGGTGTTGGTGATAAGCGTGGCAGTGGTGGCAATGGGAGTTGATGGTGTCAGAAGGAGTGTTGATAGAATTGTGGCAGTAGTAGCAGTGGTAGCAGGAACAGGGAATGAAAGCAGAAGGCAGGACCATATGGGATCCTTGTCCAGGGACTGACCTAATTGTGAGATTGCCCCACGCAGAGGTGGCCAGCCATCAGGATCCCAGTATTGGAGCCAAGCTTGGTGGCTCACATCCATAATTCCAGAGCTTTGGGAGGCCAAAGTGGGGAGCGGGGGAGGGATTGCTTGACGCCAGGAGTTTGAAACCAGCCCGGGTAACATAGCGAGACCTCATCTATACAAAATAAAATAAATTAGTTGGGCATGGTGGTGTGTGCAGGTAGTTCCAGGTACTCAGGAGGCTGAGGCAGGAGGATCGCTTGAGCTCAGGAGGTCGAGGCTGTAGTGAGCCGTGATTGCACCACTTCACTCCAGCCTGGGCAACAAGGCCAGACCCTGTCTCTGTCTCT
0.3664536153765361 AGCCACATTATAAGCCCAACTCCAAAATTCAAATTTGGATTAAGATAAAATGGAGAAAAATCAGAAAACTCAGGAATTAACTCTCAGTCACCAGTGACCTTTCAAAGGCAATTCTGTTTAACAGAAGAGAAAAATGGAGGCAAGGATGGAAACAGATGAGAAGAGAGCTGGGTTGCTGGAGCTCAGAGTAAAGCCCAGGCCTTCTGCTTTGCAGCATCTAATTCCTCCTGCCCTGCCCCCACCCGTCACCATTGCCACAACATATCTACCCAGGAGAATGCCTTCTCGGGGGGTGTCATGTTGTGATTTTAAAACACAAAGGAGCAATTCCTGCTCCCACCCCCTCAAAAAAGATCTACCCTTGATGAACTGAGGCAGAATCTGTTAACAGCCCTGTCAGAAGACCCCACAAAGCTAAAAGCATCCTTTTTGGTTTTGATGTCTTGTCAAGATGCTTCCTTTGAAAGCTCCCAGACAGCCCTGTTATTTCTCCTGACAGCCCTAGTGAAAAGCTCTGCGATGAGACGTGGCATCCCTGTCAAAGCCCGGAGGTGTGATTCCCTGAGAGCGAGCAGCTCTTGAGCATTCCCTGGGCTCAGAGCACTGCTGCCCTCTGGGTAGACCCCTGGGATCCCGGCTCTGCAGCTCCCTCTGGCCTCTGAACCCCCGAGGGCTTGAGATCCTCCACTGCAGGAGGCCTCTGCAGTCTGACTCCTCACCTCCCCCAGATGCATCCCTAGAGAGGTCAAGAGCGGAGCCATGTACCATCCTGACAGCCAGACTGTGAGCCAGCCACCTTGAGAAGTTTCCAGGGGCTGCTCTGGCAGTTTGATCCATTTTTTCCTTCTCCCAGGGGCTGCAGGCCACTTGTAGGGAAAGGTCAGGAAATGCCACCACCTGTCTCTGGAACTGACGGTGGTAAGGAAAAAGAACAAAGGATGCAGAGGAGAGTGCTTCTTGGGG
0.5923489853072422 TGCTCCATCTCCTCCCTGGGAGGAGTTCACTCCTCCCCAGCCAACCCCTGCAGTGCCAGCTGCCTGCACCCCTCCCACCCAGACGCCATCAGCAGGGATAGCCTCCCAGTGGGTTCTCCCCCAGCCCCAGGTGCCTGCAACCCCTCCTCCATTACAGGGCCAGATACACCTGGGGCTTCACCAAGGCCCTACATGGGCAGTAGTCCCTCCCGGGGTGCCGCATCCAGAGCTGGTCTCACCAGCGGGGTCACCCACTCCGGAGTAAGCTTTCCTGCCTCTCATTCCACCATTGAGCCCCCACCCCTTTGGAATGCTGAAGATTCTTTCTGCCTTCAGCAGTGAGTCTATTAAAATGTGAATCCCCCTGGGAAGGTTATGGCTTATCAGCTAACACTTGAGTTATCAGCTAACACCTGCGTTGACAGCTAACACCTTCCACGGCAGCTGGCTAAGAGCAGGATTCTGCAGACATGAGGCCGGCTAAGTGCTGGGGTTGGAGCCGGGCAGGAGGAAGGAGTGGACCACAGGCCAGCTTCCCCAACCTAGAACTGTGACCCTGGGGCCCTCCTACCCACATGGGGCCCCTGCCCCACTGGGTCCTCTCTACTTGGGCAGACAGTGCAGTCGCCCTAAACGCAGAGCCCAGCAAGCCCAGCACGCGCAGTGACCGCTGGGCATGTGCGTCCTCCCAGACTCAGGTTCATAGGTCCTCAGACCCCCTCCCCACAGCCTGGGGGCCTCCTCTGCCAAACCCCCTGCCCCAGGGCCATTTGTTGGCTACCAGGGAGATGGCAGCCCAGGGATGGGGGTCCGGAGGCCCCTCCCTGGGTGGGCTGGGTGAGGAAAGCACCTGGCCTCGTGTTCTGTTTAAACTGCGGACACCCTCTCTGCTCTCTTTCTACACACTCTTCCTAGGAAGGTGGGGCCTGACCATGTCAGCTCCCCACTGCTGTCTCACCTGCTGTCACCAGAGGGAAAACTGTGCTATGTAAATGGCACTTCCTGTCCTGGGGCCAGGTGGGGTGGAGGCCCCACATGCTCATGGGGCAGGGTCAGGACTCACTGCCACATTATCGACCACACCACACCACTGACTGTGGGGGTCACCAACTGAGCCTTGTCACCAACCATACCATGCGGCTGACTGCACCCACCAAGACTAGCCACCCATGGTGGCCACGCCCGCCACATTACCACTGAGCCATGCCACCATCCCACCACTGTCCTGTGGCTCCAGGCCCGAAGCTGTGGGCTGTGAGTCTGGCTGTGGTCAGGGCTCAGCTCACTCGCCTTGAACCGAGCCCTGTGCTCATGGATCTCCCTCCCGAAGCAGCTGTGTGTCCACTCTAAACATGCCCCCAGTGAGGTGCCAGAACTGAGCCACACGGTGGTGCGGGGTCGGGGGAGACAGGGGAGGACATGGGGGAGTGGCCACGTGGCGCTCAGTTCTGCCAGGAAGTGGGTATTGGGCGCAAAG
0.7194165842627178 TGGGCTCAATGGATCTTCCCACCCCAGCCTCCCAAAGCACTGGATGACAGGTGTGTGCCGTGCCCAGCTAATTTTCTGTAGAGACGAGGTCTTGCTGTGTTGCCCGGGCTGATCTGAATTTCCTGGCCTCAAGTGATCACCCTGCCTCAGCCTCCCAAAGTGCTGGGATTACAGGCATGAACCACTGCACCCAGCCACATAGCCTAAGAAAATCATTTCAGGATAAATAATTCTCTTAAGATCACTTCAGAGGTCTTGTGGCCCCTTGCTTGATTTAGAAGACATCTATGGAAAGTAGATGAAACCAATAAACTATTCCAACCTGAAAAAACGCTCCAACATGAAAACCTAACCATGTGTGAAATACCAGCTCCTATTAGCCGCTGAAAGGGACTGCAGTGAGCAGCGGGCACCTTGCCATTCCCAGAGTCCCCACTGTGCTGACAGGTGCCATGCCCTGTCAGCTCCCTGGGGCGCCAGTGAGTTTCTCCCAGACTGGGGTGAGTGGGAGCACGGACGGCTCTTTGAGAGAACGTGGCTGCACAGCAGTGAAGGGAGTCACGTTCCCTGCTGCCGTGGCAGCTCTCTCCTCGGCGCCTCCCTCTCGCCCGCCGTTGCCCCGGGCACTCACACCCACTTTTCTCTCCCTGCTTCCTTCCCTGACAGGCGGCTGTGGTGCTTCAGGCAGCTTTCAGGGGACATCTCACGCGGACAAAGCTCTTAGCAAGCAAAGCACATGGCTCAGAGCCACCCAGCGTGCCAGGCCTCCCAGACCAGGTAATGTCGGGGTGCTGGACGTCCCAGTGGCCATCTGCAGAGCTGCTCGTCTCGCACTCCATCCATCGAGAAAGCGTAGGGCACCCCTCAGCCTCCACATCCCCGCCCGCCCAGCAGGCGTCCCCTGCGCTCCATCCCTGGCCACGCAGGCCATGCAGGCTTCTCTGCGCAGGCCCCTCTGCACAGGCCCCGGATGGATGTGGCGTTAGGGCCAGATTGCGTTAAGCTGCCGGAGAGTCAAGTAGCTCCATGAAGATGTAGCTAAAAACTACTAAAGACAGATGCAGGCCATTGCGGCCCCTCCTCTGTATTGAGGACCAGGT
0.4646636996583731 GTTCTTCAAATGATTCACCTGACCTCAGATCTCCCCTAGTTTTCTTCAGCATCTCTTCTGTCTACTTACAAAGCCCATCAAGCCTAAAGTTGAAAAAAAAAAAAAAAAAAAACTGCAGCCAATACTAGCTTTCTCTGCAGCCCGAAATCTAACTAATAGTTGACTTCACCCCACTCTAATTGCTAGCAAGTAGATCATCAGACTAACCAATAAATAAGTGGCCAGGGCTATTTTGATCCATAACACCCACACTTGCAGAAAGCACAAAGCTAAACCATACAAACAAAATAATTCAAGTGTATGTGTTTGGGGACCACAGAGCTCTATGTCATCTCACTAGTAAATTAGCACTAATCTTTGGAAGATATCCTTTTCTTGTCTGAACTACTGCAGTCTGTTACTGAACAGGGAGGAGTGATGAAAGAAGTGCTTGAGGAGCCCCAGATGACCTGTCACACAGCAGCTGGGATGCTATCTTCACTTGAGGCTTATGACATCCCTGTTGCTACAGGCATCCATTTGGTTGGAAGTGCCAAATCTCTTTTTAACTGAACAGTGGCTACAAGTGTTTCTTTACCTCCAGCAAATACATAGTATTTTGTACCCCCTTCTTCCTACAGCTACCCCTGACCACTAGAATGCATGCCCCATAAAAGAGGGATTTTTGAGCAGTAATGAGTTCAACAATTATTTATTAAAATATTAAAAAATGTTGACAAAGAATGTTTACTAAGTGTTAAGGGGTGAATTGTGCCCCTCAAAATGTTGACAAAGAATGTTTACTAAGTGTTAAGGGGTGAACTGCCCCTCAAAAAGATATACTGAAGTCCTAAACCCCAGTGCTTTAAAATGTGACCTTTATCTGCAAATAGGGTATTTGTAGATGTAATCAGATTAAGACCTTGAGGTCTTGCCCATTTTCAACTCATCTAACTGGCACAGAATAAT
0.710155748862993 CAAAAAACAGAGCCTAGGCCCAGACCTTGGTTTGCCGATCACTGTTCTAGGAGATGGAATTGGTCGGTCGTTGTTATGTAACAAGTCACCATGTAAGTGGCTTCCTATCCACTAATTTGAACCATTTATTCTTACTGAAACATCTGTGGTTAGCTGATGTAGCCTAGGTTTGCCTGAGGGGAAGAAGTGGGGAAATACGCCCCACCTTTAGGGATAACTATAAGTCACATGGCAAAGAATGTAAAAAAGGGAAAAATGAAAGATGAAGAACTGAAATCAATAATTCATTCTATACCAGGGAGTAAGTGAAATAACACACTAAAAGTGCCCAGAAGTATCTGAGCATATGATCCATGCCTTGTGAATGCTGGCTATTGTTATTATTATAATTATTAATTATTATTCTTTATTTTGTATAATTCAAGGCTAGAAATTGGATGCAACTGTCCATTCTTTTGGGAAGGCTGTTTCAGACATCCTCAGTGATGAGTGTCACTTATCATTAGCACTTGTGACAACAGGTGTACAGAGTTGTCCGTGCTAGCAGCCTGCTGTTGACAGAACAATTTGTTCTCAGTGCTGTGTGCTGTTTATTCAGAGGAGGCCCCAGGACAGGCTTGTCATGTCATGATCAGTTGCTGCTGAGAAACAGGCAAATCATTTCTGATAGCTGATGTTCAGTAGGGATGGGGAACTTAGATCCTGGTTTGAAAGAAGAAATGACTTGTTTGGAGCTCAAGTAACTGGATATTCTTAATTAAGGAGAGTATATTTTTGGTATGCCTTAGGGAAAAGAGGCACATGAAGAGGATGCAAATTGGCCTTAGAGATTTATTAGTAATGATTAACTTGGCAATGTATGTCCTGGGCTCAGTACAACTTCCATCATCCCGGCTCCTTCACTGTGGTTCCCATGTGCTCTGTGTAGACCCCTTGT
0.2516428734405772 ACAGCTGATCAGAACCCAGGACACTAGCACTTACTATCAAGGTTATAGGGAGGCTGATGCTTACAGCTGATCAGAATCCAGGACACTAGCACTCACTATCAAGGTTATAGGGAGGTGGCAGAGAAAAGAAGTTCAGCGAGAGTGGTGCCTCTTTTCAAAATGGTATGACAGTCCCTAGGTTCTCTGGCTCCTGTTTCTGGATTCAGTGCTGTGAGGGCCTCTCACCATCATGTGGTCTGTGTGAACCAACCATCAGGGCAGTTTAGGTACTGCAGGGTGTTGGGGCCCCAGTCCTTAGCAGGGTTCAAGCAGCGGGTGCCATGCCTAGATCTTACAATTCCCGGCAGCATCTCCCTTCACCTCCTGCTTGCTGAGAGCACTTTGGTGGGCAGAAATAGCCCTGTCACTCATGCCCAGCTGCACACACGTCAACAACCTGGGGCTGTGCGCTCTCCTGATGCAAGGTCCTTTCTGCTAGTCATGACTACTAAGACCTGCTGCCCAGGACTGAGTGCTGATTCACCTACTAGGTTGGTCAGAGGGTTGGGGGCAACTCTGATTGCAGAAGCTCTCTGGATGGGCAGTGCTAGCGGAGTTCCATAGAGCTGGTCTTAAAAGCAGGGGCCTTTTGGCTGAGCTCCGAGTCCCTGGAGGGACAGTGTCTGCTGTGAACAGATGTCACGGAGGGAGCAGTGCAGTGTCACCAGTCTGGCTTCTCGCCCCAGGTCCCTTGGGCACGTCTTATCTTATCGTGCAGCTGGGCTGGGGGTGCTGCCAGACTTTGTGGGAGCTGGCTGCAAGGGCCAAGGGTGTTTCTTTAGAGATATTTCTCAGGTTCTGGGCCTCATTAGAACAGGAAAGCCTTCTGAAAGAGTGACGTGGCCGGCGGCAGGTATGGTGTGTGACTTAACTAGTCAATTTTGAGCAAACAGAGGCCCCCAGGCGTTTTTCCCGGGTCACTCCCTTTGCCCCTCCTGCTCTGCTCATCCTTCCAACTGCTCCTTTAGCCTGAAGGCCTGGAGCCCCAGCCGCCAGGCTGTAGCCAAACGCATATCTTGTTTGCATTCTCGGTGAACTTACCATTAATCTGTGACAGATGAAAAATAGGAACTTTGAAGCCAGAATGGGGTCAAGTCTGGCTTTACTGCCTGCTGCTAGGTGACCTTGAACAAGCTAAGTTGTCTGAGCCATAGTGTCCCCAAGTGCAAAATGGGATAAAAGATAGTCCCTACCTCACTGGGCTGCTGCGACAACAGTAGGGCACACATAAAACAGTTAGGTGTCTCCTAGATAACATGAGGGAGTCATCGTCATTGCCGGAGGGATTCAGAGTGGACCCGTCACGGTACATTCTTGTGAATATCCAACAAACAGGTGTTGAACAAATGGAGAAAGATATTAGACACAGATTACGAAGAAACAGAATAACTA
0.1992221736835111 TTCCAGACACTCTTTCCAAAATAACCCAAACCAAAAAACGATGTTCTTAATGAGAATGGTATCAAGTCTGAGTCTCCACTGATAATATCTGACTTCACTCTCCCAATAATAAACAGACTCAAAACACCAGGATCACTTTAGGGAAATCTACAAAACAGTTGCTCCAACCAGCATGAACTTCTAAAACTGAGTTTAGCCATCTTCCAATCCAAAGAAAAAGAGAAGATCTTGGAAATCCACTTTGTGATTAAATAGCAACAACAAAACAGAAGGCAGATGCATCCTTCTTTTCCCTCTTTTCCTTCCCATTAATTAAAACCATTCTCTTACAAAAATTAAAACAGTAGCATTGCACAGCAGAGCGTGAAAAGCCCTTCCCTTTGTTCCCCTCCAATCACTTATGCTAAAGGAGGCCCTGACAGCTATGCACGCCACTCAGCTCACCCTCGCAACCAAGCAAAGCCATCTGCGGTCTTAAACACAGCCACACAGTGCTCTTCTGATTCATACGAAAGTGAGGCGGGAATCTGGCTCCATCATCCCAGGTGCTTTTAACAGCAGCTCCCTGATCAGTTTCTTGGAAGGTAAAGAGAACACTGCATCCTCCCACACCTCAGATCCTGGCACCACCCCACCCGGCTCGGGTGGGAGTTGAGAGCCGGCCCATCCCAGGCTCAGCAGCAGGGGGCTTACCTGCGAACGGACAAAGAGGCAGCACCACACCATGGGGCGCTCTGACCTCATCCACCCGGACTCACCGGCTCCTAACTGCAGTGGAGCCCTGTGCACAGGATTCTCTGAACAGGGCTGAGCATAGTTTCCCTGAAGGAACTCCTCCCCGCCACTTGGGCTGCATGACAGGAAGTGACAGGGGCCATCAGTTACAAGTGTCAGAGGCTGAGAGCCGCACCAGTCAAGAGCTCCCCACCTCTCCTGCTACTGCTGCTTTTGCAGAGCACTCTTTGGGCATTCAAAGGTACACCAGAAGTTCAGTTTCTGACTGACAATCCCCAGCCTGTAAGAGACAAACAGTGCTCACTGGGTCCCCACCAAAAGCAATGTGAAGCATCCCATCGGCTGCAGCGGCTGTGCTGCCTGGAGCTTTGCAGACCCAAACACTGGGGTGAAATAGAAAATAAAGCATCACTAGGAGAAGGGACACTGGGAGGAGAGCTTTGGGTCTTCAAAGAGGAATCAATGATCTACTTGAACTTTACCCAAGAATCAGTAGCCCTGTCCGGGATACAGAGCCCACACTGAGTCGCGGTTCAAAAGCAACTACACACCCATCCGTTTCTTTTTGTCTTATGCAAACCTGGCATCTTCTCTTCAGAGCCCTTTCAAAATAGCTGCTTCTGGAAACCTCCCTTTCAACTTTTGTCATGGATAACAAGAGGTCT
0.5741487076827605 CATCTCAAAAAACATAAATAAATAAAAAATAAACCCCCCCCCACACACAGCAAAAACAAATCACAAAGACAAAAACGAAATCCCTTCAATGCCCATTTCCTGAATCAACTGCATCCCCCAGGAACTGCTTTGGGATTTTACTTATTATTTGGGATTATTTGTGCTCATTTCCCCTGTACCAAAAGTCAGAATCAAGTTAGCTGCGCTGTGTCTCTGTCACAAATGTCTGCTTGTATAAATAGGAGGGGGTACAAGCATGTGTCCACACACGCACACACGCCTCTCTCCGGATAAAGAGGTCTCGGGGTGAGGATTCTGGAACCCGTCCTTCCACACCTACTGCGTCTGGTCACTGTCTCCGAGGCTGACATTCCTCACGCCGAGGGATGGGCAGGCAGAAGGCTGCAGGCAGTGCGCCAGCCAGGTCAGCTTACAGCGAGCTGTCAACCCAGTCACTGACGCCTCAGCGAGGCCATAAATAACAGCGGTGAAGCTGCAGCAGGCCACCCGGGCCTCCCCCAAACCACTCCTCTGCCATCAATCTCGCCTGATGACTGCTTGGCGTTCAGGCTTCCGCGTGACCCGACCACGGCCCCAAGCGTTCTTTGGGGCGCAGTGTCCCTTCCCAGGCACGGAGTGGGTCAGCCAGGAGCACACTGCCTCGCAAGGTCCCCGTGTCCTGCCAATGTACTTTCTGGATGCTGGAGGCAGGCTGAA
0.8299818227398303 TCCATCCATCCAATGGTGCTGGCATCCTCAAAAGATAATGATCCTGCTTGGTCTTTAGCAAGACATGCTGAAATAATGGCTGATATATGATTCTGTAACTCTAAAAATAAAAAAAGTAGGTCTAAAAACTAAGGAATGAAAGTAGGATTACCCTCCTCCTCCTAAATTTCGGAGGCCCATTCGAGAGTTTTTTTGTTTTCTATCCTCATATAACCTTAGTCATAAAGTTATTCATCCAAATTCTTATGTCTTTTATCAAAGGCTTTTTTAACCAAAGAAACAGAGTCCCACTGATTTTGGTCATTCTCTCACTTATCCAGTAAACCAGTAGAAAAACAACAGAGTGATTTTAATGGCAGAGGTAATAGACTATTATCACTGTGAGAAACTTGAGTTGCTGCTACATAATGGGGACAAAGATATGTCTGCAATTCAGTGATAGTTTTAATATCTCTTTAAGCTCTTATACCCAGTGATAAGTTTTGCCAGACAATTGCCACAACCACAGCTCAACAAGGACAAAGCAACTACAGGCTCATGAGAAGTGACAGTCAGCATCACTCTATCAAGCCAGCAAAACAGACCAGTTGAAGTGTTGGCTGAGGTGAGTGTATTCTAGGATCAGTGTTAGAGGAGTAGTTGATGACTTACAGTTATGGCCTGGGGATCAGCTTCAGCAGTGAAGGCTGAACATTCTTGCTATAAGTATTTAATTGATTGAAGCTGGCTACTATTTTAAACTTATTGTGCACTTTGTGACTCATTGGGCTTGAATCTCCCCTCTTATGTTCTCACGAAAACACAGGCTTCATATTGCAATGTGGAATCTGGATATAATGAAGGGCATGGATAATCTGAGTGATGCAAGGTTTTGATTATATCAAACACGTACTATGCATCTATTCAGATCATCTCTTATTCACTTGTCCCTTCTTCAAGCTGTCAGTATAGCAATTAGATCTGTATGGACTCTGATTAACTTCACATAGTCACCACCTAATGCAGACAACTCTGCTCAAACTTTCTGCCTTTTGGCTCCATTTTGGAGCTTGTTTGTTGATGGTGCCATTGTGGAAACTCACTCACTGCTCAACTATGTGCAACTTGGAACTGCAGTGAATTAATTCCTCATGGGACAAAACGACAAATAGGAGGTGGAATCTGAATAACATACTTTTCCTTTCCCAGATGGAAGCCCTTAGACATATTTTATGTGGATTTTCAGGGAGATCCTAATCAAGAACCAACTGCACAACCAGGTTGATACTGCCTTATTTTATTGTCTTTCTCACCTTCCCTACTATACTCCTCAAATCCATTGCTGCTTTCTGGAATTTTACTCCCGGTGCAAAAGAAATAAGCCATCTGGCTTAGACTCTACTTTCTGAGAAATTAATGCTAAGAAAGATAGTAACAGATTTCA
0.5968731059082476 ATCCTGCTCCTCTTAACATTTAAAGATCTTGAGACAGAGCAGGCCAGCATCTCCAGGCTCCTGCTGCCGAGACACTAATGCTTCTGTACATCCCTCTCCAGTGCGGGAAATGGGGTGATCCAAATAAAACCCACAAATCCTACCTGGAGCTCTTCTTCCTCCCCCCAAGCTGAAGACAAGCTAGCTGGGGAGGGTCTCCCAGGATGTCACCCTCAAAAGCCCCTCTCCATTCATCCCCAAGCCCTCGGGCTCTAGTGCAGGAAAGATGCTGGCAGAGAAAGGCAGGAGCTCCCCAAATCTTCATCTCCCTGCTTCCAACAGAGGGCAGTGGCTCCAGGGAAAGGCTCTCCAAACAATATCATGGTTCATTGTCATCAGCCTCTCAGGATCTCACAGGCACCTGGAGCTTCTGGCCCTGCATTCTCCAGACCTGGCCTGTGGCTCTGCCCCTGGGCCCATGGATGATGTCTCTGCCTGCGGGTGACTGAGGCTGGGGCTGGAGAGGACGCCATTCTGATCATGGAGAAGGCACCATTTCAGAGGGAGCAGGTGGCCCAGCCCTGATGGGCAGCCCTGAACTCCGGGTGCAGTTCTCCAATGACATCTACAGCACCTGTGACCCTGTCCCTCACAGGCAAGTGAGTGATGAGCAGGTAGTGGCCGAGATGGCTGCAAATGGGGAGAGGGGTAGTGGGAAATTAGGGGGCGTAGTGAAGAGGACTCTCAAAAACTGACTTTATAGTCTATGGCGCAGTGGCTGGGGTGGGAATGTGTGTGGTGCTGCCCCCTAGAGGACATGCAGCAATCAATGCCTGGAGGCCTTTTGGGTGTCACAATTGGGAAGGGGGATAACTAGCTGGGTAGAAGCCAGGGAAGCTGCTAAACATCCTGCAATCCACAGGACAGCCCTGAAACAAAGAATGATCCAGCCCCAAATGTCAAAAGTGTTGAGTTTGAGAAACTCTGCCCTTGAGGGATGTAGCAGTATTTACACAGAAGCTAGAGCTCAGAGAGGCAAACCAACCAGTCCGAGGTCACACAGCAGAAAAGTTCAACTCCCCAGCTGATGCTGTCTCTCCAGGGTGGCTTCAGAAAAAGGGATACCAAATGGGAGTCAAAGTCCAGGCCTGCCAATAGCTGCCTTCATGCCCGCTCTTTCCA
1 CCCGGGTGACACAGCGAGACTCCATCTCAAAAATAATAAATAAATAAATAAATAAATAAATAAATAAATAAATAAAAGCAACAGCGGCTTCCCTTTGGTCCAGATGGTGCCCTCTTGTGTAAATAGTGTTGTTAAATGAATGCCCATCAGCTGGAGGACACTCGATGACACACTGGAATGTGGAAAGAGCAGGGCAGATGAAAGAATCACCAAACACCTTCTGAATGAGCACTCACATCAGTCAACAGGAAGCCTCCACTGTACTGTGATCAGTTTTCGCTTTCAAGTGATTGACTATTATGTTAATAGATTATGAAATGGAAGTGATCAAAAAAAATGGAGGCATCAGCCTTGTATTTGAAGTAAGTTTTGTAAGTAAATCTTATAAAGGAAAATGACAGAATCAGAGTTCTGGAGTAACGGATGCTCCAAAATGTGATTGTTGGCCTGTAAATTATCTTGTATTGTCACGGGTTTTTCAGGCGACATTGCTGCGAGCAGCAGAATTGCCTTTTAGGTTTGGAACAATGGTGTAAACACAACTTCTGGCGCTCTGTTTCAGAGCTGGCCAGCTTCATGAAATCTCGCCCAAAATGGGTATGACAGAGTTGGCCCAAGGACAGAAACAAGGGTCTACATCTTGTGTGAGATCCACTGCGCCAACCTTTCTCATTTATACTGTTTTAGCCCTTGATTTTTAAATATTGCAAACGGTTGTATCATGTTGAAAAAAATTCTTTATTGTCCAGCTGCTCCGACTGGGAGAGGGAAAAGGAATATTGAGATTTTCCAAATAAATTGTTTAATATTTAACATGTTGACATCGCCTTTGTGCTGTTGAGTTGCTAATGTGACTGGCACGTGATGTTTTTACTCTCCTTGGCAAAATAATTTCTATCAAAGCTAATGCTTCCTTAGGCTGTGTGCCATGCACCTTACTTTGTGCTTTTCGTGGATTTTCTGATTTATTCCTCGCAAGATCTTCACTGATGTTGCCCCATTTTACAGGTGGAGAAACGAGAGGTTTGAAGAAGTTAAGTGACTCAGG
1 ATCATCTCATTAAAAGCTCCAGAAACCCTACAAAGAAGAAACCTTACCTGGTATCCCCCAAACTAAGATTGATAGATTTCCACTGGTTTGTAAAAGAGATTCTTATTCTGAGAAGTTCTCATGGCTCTTAAAAAGAAGTCACCTTCTCATTGTATAGACTTAGACACATAATTTGTACTTTTTTTTCAGATTGTTGGGTAAGTAATGACCCAGACCATTGAAGAAAATGAGGAAACTGTGCACACAGACTGATGTCTTATGTGACCAACATGCATATAAGAAATGGAAGCTTCCCCCTATCTTTCCAGAGTTCAAAAATCCTATTGCTGAATTCACCTCCAATTCCATGAAACAATATAAAAGATCCTCCATAAAGACCCCAGGTTATAATGTTTACAATTTATTTTGTACTCCTTTTCTCTGGTAATTGATGACTGCTATTATTAATGAAGACATTACAAGGAATAAAAGGGCTTGCCTGCCACTTCTCACCACAAAACCGTGTGGCATCAAACAGAATGAAATCCTTCTGACACTGACAGCTGGAGAAAACCTTGTCACCACAGTGACAGTGTCAAGTGTGGTGTGACATCTCTGTGTGTGTTTCTTTTGCACCTAATAACTTCGTTGCCAATACAGACCAAAATAATGAAAGAAAACCTGCTTTTGCCAGCCCAAAGGATTAACTGTACTGTTGAGAAAACTGCAGGAATATTTGACATGAGATCACAATTTTTAATTCTTTTCCCCCCAGGATTCTGCATGAAGTATTTTTCTATGAAGGATTTAAATAGAATTACTTTTCCTCACATTGGTCATGGAGAGAATTAAGACATTAACTGTTGATCCAATTTATACTGCCATTTGATCCCATAAGTGCTATACAGGACTCGGTTACTCATGGAAAATAGTTCCTGCCAGATCAAACACTCTCAGGGCCAAAGTCACAAGATTCTGACTTTACATGCTCTGTTCTGCCTCCTTTCATTTTGCCTCTTGGATTGTCATGAACTTCCTGAGCAAGAAGGCCATCCACCATGCAGTGTAATGTCTTGCTAAGAGAAATTAGTATTCAGTCTGCTCAGGTTCCAGCAAGGACTTTCTTCATGAAGATCTTCAAGTGGAATCAAGGTAGGAACTGTTATCCTTTTCAGTCCTTGTGCTATTCATTCACACCTTGGAACAAAAACAAAGCTGAACTCTTTAGAGGGGAAAATTGATACCGCATG
0.6839824661868733 CTTTGTCTCAAAAAAAAAAAAAAGAGCGTTTTCAATTTTCTTTTTTTTGTGAACTATCTGTTCATATTCTGCAGCCATTTTCCATCGTATGTTGGCCTTTTTCTTACCAATTTCTGTTGGCTCCTGGTCTGTGACACCAGTAAGAATATTTTCCCCAGTTTGTCCCTCGTCTTTTGACTTAGGATGTTTCTGTTTGTTTATTTGTTTGTTTGTTTTGGCCATGCAGAAGTTTTTTGTTAAATATAGTTGAACTTATCCATCTTTGCTCTTACACCTTCCAGATTTTGAATCACAGGCTTTTCCCACTGCAAGGTTATAGTGTAATTCTTCCATGTTCCTGTGAGGTTTTTCTTCTACATTAAACTCAGATTTTGGTCATGGAAAGAACAGGTTTACATATTTCAAGTGACAGTTAAGGGAACACCTTTTTCATGAGTTTTTTGGTTATGTAACCTTGTCTCATTACATAATTCTGTGATGATACAAATGTAAAATATAATGTCCATTATGACATAAACATGAAATACCCAGTGCTGAGAAAGACAGCAACACATAAATAGTATTTTGTTATTTAGAGTAGGAACCACCTATTTGAGAGATAAACACAGATGATTCTTCTTTTACTGAGGTGACATCAGTTTGAGGGACATGACTAGTACTCCTGTTATAGGTGGTGTGTGTGCTGCTTTGTGACTTTCAAGGTGGCTGCATTCGATTCAGATCGAGCCCATGGTGCTGCTTCTGCCATCTCCTGCGTGCACATGCACTGGGGTCTCTTGAGAGCTGCGTATTAAGGTCTCAGTGACCACATGTCCACCTCCGGCTGCATAGCTGTTCTTTGCTCCGCTCGTGGGCACCGACTCTTCGTTTCCCGTCAAGGGTACTGAGCTCTCAGCCCACCTCTTACTGCTTATAGTCCCTGTCTCTTCGCTTTCCTCATCTGTCCTGTCCTGTGTTATTTTTCTCCATAAGTAGGTGACTGAGACGTTCTCCAGTGTTGATGAAAGCTGGCTCATCACCTGCATTCCCACACCTCATGAATCTGGCTCTTCACAGTTGCCTTGGTAGTCAGCTTGTGTCTACAGGATGCCTTTTTTTTCTGTCGCCAAGATTGAATTTGATCAGGTACACAGGGGTCTCACATGCAGAACTCCTAACAGGCTGTGCCAGGCGGAAGCGGGGAATCTCAGCCTCCAGCCTGCAGATCCCAGTTCTTGGGTTCACTTGGCTGCCTGAAGCTCTCTAGTCACTTGGCTGCCTGAAGCTCATTCCCTAGAGAAGCCTCAGAGAGGCTTGCAAGAATCATATTCTCTGAATTCTCATGTTGATCACAGTGGCTGTCTGCTGCTTTTTATAATTAGGAGTGAGTTTTTCTGGAAATAAAATTCTGGGCTCATTTTTTTCCCCCTTGAGTATCTTACACAT
0.69220275042913 TCACGCTTACTTGATCTACCATGACCTTTTCACGTGGACCTCTTAGAGTTGTAAGCCCTTAAAAGGGCTAGGAATTTCTTTTTCCGGGAGCTCGGCTCTTGAGACGTGAGTCTGCCGACGCTCCCAGCTGAATAAAAACCTCTTCCTTCTTTAATCCGGTGTCTGAGGAGTTTTGTCTGCGACTTGTCCTGCTACACTATGTGTAACTAATTCAAGTACCTTGTCATCAGTTCTGCCTTGCCGGTGATCTAAATGGACTCCCCGCAGGGAACAGCACTCATACTGCAGAAGGTCTTTTCTTTTGCCTTTGGGTAACTGGCTTTTTACACTTTATTGAAATAATTCCTAAGTTGTGATTTGCTTAGAAAAATTGAGATTAAAATGTTTTTAAATTAAAGTTATTACATCTGTGTAATTTTCTGTACGTGCTTTTAAAATCCTTATGCCATTAAGTTACAGGGCTTTGACTCCTGGGTCTAAAAAGGACA
1 TAATAAAACATTCGATCTTCTAAAAAAGTTATTAAAACTTGGCAAATGCAGGAATGCACTATTAATGATTTTGTTTATTGGGATCTGAGCTATGTTCATTTATTATCAAATACTACTGCTTTTCTGAAAAAATAGAAACTTTTTATAGTCAGCATAAAAGCAGAAATAAATCAATTACTATAATGATGGAAATAGTTGGAAATGCAATGTACAATTTCATATCAAATCAAATTCAGTGTGTTTCTTGGCCTGGTTTGCTAATTCTTTCTGCCACCATAAAATTTGGCTGCAACAGGGCAATAGAATACTGGTGAGAAAATACTGGGTACCACTTTTTTAAAAGGAGAAAGGAAGAAGTCAAAGGAGTAAAACCAATGTGTGCAAAGCAGCACATGTTTACTCCCCTAACAACTGAAGAAGGGTAGCAATTTTGGATTAGAACCACGGCGCGTGGAAAGGAGTTTGTCATTTGTGTTCACATCCTCAGGCGCTGAAAGGTATCACCTGGCAAGGATCCTGCCCAGGCGAGCAGAGGTGACGCTGCCTCTTTCCTGGCTGTGTGCCCACATCCACAGCCTGTTCCTGCTTCCCCTCCATGTTAGAGGGGATGGTTCCAGGAGGCCGCATGGCACGTTAAAGCAAAACAAAACCAATGCCCTGCTCTTCTTCTTCATGCAGCTCCCATATTCACTATGACAGCCCAGAATTCCTCATCCTAATGATGGTGCAGGAGACTCGGGTTCTGGCCAGTCCTCTCTCCCCAGCAGCTCCTCCCTTCTCTGGCCTCGCTCTTGGCTGACGGAGTGATGGTTTCTTTCCATGAGAGACTCTGAGAAGAGCTTGACTTTAAAATATTAGGTTTGTTTTTCCTCCTGTTCTCCTTGGATTTCTTTT
0.1770141411983006 CCTGGTGGCTGAAAAGGTCTGAACCAGCACTGGGCACAGGAGCCCAGCAATGCCAGCCCGAGGCGTCTGCTGGTCTCCGGAGGACACAGTTGCAAACTCGACACAGACACAGAGAAGCAGGCTGGCCCCTCCAGCTCCTGCTGCCACGCGCGGCTGGGAGGTGTCACTCACACCCCACGTGGAACAGGGCCTCTCGGGCTATACTCCCACACCTCTGGCTGGCACTTCAGCAGAGAGTTTTTCACTGTTTTAAATTAAAATACAGATAAGGCTTGCATTAATTTAGTAGAAAAGTTTAGCGCCAACTCAGGGCTTTCATAAATTATAGAAGAATACATTACATAGTACCAGAACACAGAGAAGAGATAAAGTAATTCACACTTAAACTATACTGATGAAGTCAGTCATCAGTAAAATGGCAAAATCCAAATCATCGACACTTTTTCTAAATTGAAGTCCCACAAAGCATTTACTATTGCATTGCTTTTCAAACAAACCGTTATCTAACAACCCACTGTTAATGGGGTAGACTGTGGAGGGTCTGATTCTGCCCTATCAGCACATCCGCAGGAAACACCTGCAGAAATCATCACCAGGGAGATGCCGGGGGCAGGGGTGATGGTCGAGTGTGTGTGGACATGTCTGTATTCTGAGTGTGGCAGTGGCTTTCCAGAGGGACACTTCTGCCACAACTCATCCAATGGTCACTGTCAACGAGTACAGTTTATCACGTGTAGATAATGTGTCTGTAAAGTTCACTTCTCACAAAGTGCTCCTGTGTGACTCCAGAGCCCAGGAGAATGGGAAGCTCTTCTGGCTCTTGGCCAAGGGTTTGTTTCACCTCCAGAACAGCTCCGAAGGCAATGCCAGGCCTCCTGAAGCTCAGGAGTGAAGAGGAAATGCCAGGTTCCTAAATATGAGGCTGCTCCAAACTCCTTACAGGCAGTGCAGGAACAGAACACCCAAAGGG
0.8891502952991386 CGGCCTAACATGCATTTTTTTAATTCAATAAATATTTATTGAGCACCTACTATGCATTATGCAGTGTGTGGTATTAGGGATATATTGATGAACAAGATAAATATGGTCCCTGTCCTCATGGCGAAGACAGATGTATTAAAGTGAAGAAACCAAGATGTTACTACAAATTGGATGAGTGCTATGGAGAAAAAATACAAGCTCAATGGGGAAAAATAACAGGTAAGGGTGATCAGGAACACCTCTCTGTGGAGATGGCTTGAAAGTTAAAAAGGAACCAGTTGGTGAGAAAGTCGGGAAGAGTGTTGTAGGCCAACTCAAAGTGGGAAAGACATTGGCGTGTGCTCCTCGAATAGAGAGGAACTAACTGTACTTTCTGGAAAGGGAAACTAAAATTGAGAGGCCAGTAAACTAAAAACTGCATTGACACAGGGCAAAGCTCTTCATCCTTTTCTCATAATAAAGTGCCTAAGTCCACTTGTCCTGGCTAGTCCAGCCAAAGGTAAACTCACTGAAAACTCTGTTAAATGCTAGATGATCATACAAGCCACCATAGTGAAGGTGGGCGGAAGACAAGACACCATAGTGAAGGTGGGAGGAAGACAAGACACCATAGTGAAGGTGGGAGGAAGACACACTTGATGTTTTCCAAGGCCACACATTTACTAAGGTGGCAGAAGTGGAAATAATCCCAGGGTCATCTGCTTTGGGGCCAGTGTTCCTCCCAGGTGAGTCCATGAGGTTTAGACAGAGGAGGGTCAGCCATAGAAGTGGAGAGGATTTCTCTGGGGCCAGACAGTGTGTTGTTTATTCCACAGAGACTCCAAGCACCCCAAGTACTGCATCGAGCTGAGCGCCCAGCCTGTGGGACTTATCCGGGTACACAAGGTCCTAGTGGTGGGCAGCACCCAAGACAGCCTGCATGGCTTCACCCACAAGGTGCAGCCCCCAGCAAGCAGCAGCCCCTCCACGCCTATGTCCCTAGCCCCCACTTGGCAAGAGAGTCCTCTGGCTTCCCCACCCCAGAAACCGTTCTTTCCACTGTAAGCCCTGAGCCCTCCACAGACGCTGGCTGTTCCCTGCCAGGGGAAGAAGCTGTGGACAGTGCAGATGCCCGCAGCCATCCTGACCATGAACCTCCTGGAGCAGCATTCCCGGGGCCTGCAGGCCGTCATGGCTGGGCTGGCCAATGGAGAGGTCCGCATTTATCGTGACAAGGCCCTGCTCAATGTCATCCACACCCCGGTGAGCCCCATCTCCGGCATCTGCCACTCACTCCTCCTTGCCCTCGTCTCACCTCTGGGGCTTCTTAGCTGCCTCTTCCGACCACACATTGATGCATTTCAAAAACATTTGTTGAGGCCAGGCACAGTGGCTCATGCCTGTAATCCCAGCACTTTGGGAGGCCAAGGTGGGCAGATCACCTGAGGTAAGGAGTTCAAAACCAGCCTAGCCAACATGGCATAACCCCCTTGCTACTA
