svm_type c_svc
kernel_type gkm_esttrunc
L 11
k 7
d 3
norc 0
nr_class 2
total_sv 1800
rho 0.18556
label 1 -1
nr_sv 991 809
SV
0.8782982573206347 TATTAAACATACCTCAGCAGCCTCCTTCTCAAATTTTTCAATGGTTCTTTTGTCGATGCCACCGCATTTATAGATCAGATGGCCAGTAGTGGTGGACTTGCCCGAATCTACGTGTCCAATGACGACAATGTTGATATGAGTCTTTTCCTTTCCCATTTTGGCTTTTAGGGGTAGTTTTCACGACACCTGAAATGGAAGAAAAAAACTTTGAACCACTGTCTGAGGCTTGAGAATGAACCAAGATCCAAACTCAAAAAGGGCAAATTCCAAGGAGAATTACATCAAGTGCCAAGCTGGCCTAACTTCAGTCTCCACCCACTCAGTGTGGGGAAACTCCATCGCATAAAACCCCTCCCCCCAACCTAAAGACGACGTACTCCAAAAGCTCGAGAACTAATCGAGGTGCCTGGACGGCGCCCGGTACTCCGTGGAGTCACATGAAGCGACGGCTGAGGACGGAAAGGCCCTTTTCCTTTGTGTGGGTGACTCACCCGCCCGCTCTCCCGAGCGCCGCGTCCTCCATTTTGAGCTCCCTGCAGCAGGGCCGGGAAGCGGCCATCTTTCCGCTCACGCAACTGGTGCCGACCGGGCCAGCCTTGCCGCCCAGGGCGGGGCGATACACGGCGGCGCGAGGCCAGGCACCAGAGCAGGCCGGCCAGCTTGAGACTACCCCCGTCCGATTCTCGGTGGCCGCGCTCGCAGGCCCCGCCTCGCCGAACATGTGCGCTGGGACGCACGGGCCCCGTCGCCGCCCGCGGCCCCAAAAACCGAAATACCAGTGTGCAGATCTTGGCCCGCATTTACAAGACTATCTTGCCAGAAAAAAAGCGTCGCAGCAGGTCATCAAAAATTTTAAATGGCTAGAGACTTATCGAAAGCAGCGAGACAGGCGCGAAGGTGCCACCAGATTCGCACGCGGCGGCCCCAGCGCCCAAGCCAGGCCTCAACTCAAGCACGAGGCGAAGGGGCTCCTTAAGCGCAAGGCCTCGAACTCTCCCACCCACTTCCAACCCGAAGCTCGGGATCAAGAATCACGTACTGCAGCCAGGGGCGTGGAAGTAATTCAAGGCACGCAAGGGCCATAACCCGTAAAGAGGCCAGGCCCGCGGGAACCACACACGGCACTTACCTGTGTTCTGGCGGCAAACCCGTTGCGAAAAAGAACGTTCACGGCGACTACTGCACTTATATACGGTTCTCCCCCACCCTCGGGAAAAAGGCGGAGCCAGTACACGACATCACTTTCCCAGTTTACCCCGCGCCACCTTCTCTAGGCACCGGTTCAATTGCCGACCCCTCCCCCCAACTTCTCGGGGACTGTGGGCGATGTGCGCTCTGCCCACTGACGGGCACCGGAGCCTCACGCATGCTCTTCTCCACCTCAGTGATGACGAGAGCGGGCGGGTGAGGGGGCGGGAACGCAGCGATCTCTGGGTTCTACGTTAGTGGGAGTTTAACGACGGTCCCTGGGATTCCCCAA
0.8083659286344619 AAACCACCTTATTCTAAACCCACATGTTATTTCATCTTTGCTCTCTCTGTATCTCTGCAAGCTTCCCTTTGCCTCCTGGTTTTGTTCGCTTACTTAACCCTTCAGATTCTGACCTCTCATGTTCTTGTGGCCTTGCACAAAAAGTGTTTTCTTTTCTTGACACAAGGTGTTCAGGACTCATTTGGGTGCTGTGCCTCTCTGATGTGCCTCACCATGTCCCTCAGGACCAGCACCAGTAAACAGTATTTCCCATTCCCAAATGCATCTTATCTTTTCTGGATCTTACGCCCAAAGGTTGGATATTATATTCTGGTACAAGTGATGACCAGAATGACAAAAATACATTGCATTTCTCAGAGGGCCTCTACCTGAACAATGAGTGACCTGTCCCTTCACTGAGCATGGCTGCAAATTATACTCTCTTGACTGTCTCCTCTGAAAGCATGATGGTGCTGAGTGCCTGTTACCACCTAATCAATCATTCTGTATAGCAATATCTTCATAGTAAGAAAGTCTTTGAGAGCAGTGAGGGATCTGAATGATTGGCCATCCCAGTGGCTTTTGAGTGAACTTTGAGCCTAGATCAGAGGCCCCCACTAGAGACAGAGTTAAGAGGGCTCCATGGAAACACTGTCAATTTTCATGTTGGAGGGAAGAAGAATTTTATCACAGTGTAGCAGCCCTCCTGGCAGCTCTTAGGAGGGTGTTGATGTGTCCCTGAGGTGAGTTTCAATGCCAATATTATGTCAGTTGGGGTGTTGGTGAATTGTTCCAGAGCAGGTCAAGCTATGCACACTTAGCATTATTTTTTACTATTAGGAGCAACCCAACAAAAAGAAAATTTTCTCTCATCCAGGGACATAACACAAGGGGAAAAGAAGACGGAAAGAGGTAGAGAAGCAAACCAACAGCTCCAGTACCATGGCGAATGACAAGAACACAAAGCTCCAAAAACACTCTCTTGGGTTATATACTTTAAATAATAACTGTGTCTGGGAGAGAGAACTATCAAGGGCCACATGTATTTACATAAATGCTCCCATCCAGAAGAAAAGATGACTAGTTGGAATGGGTTTTCAAAGATTAAAGCAACAAAGGCAGTTGGACCATTTCCATTATTATATTTTGTATGGAATTCATGTAACTCATTTGTGTTGTTGTTGGGTTTTGATAAAGAGGCAAATATACCCTGAGGTACATTTTGTGAGTGAAGAAAATAAAAAAGAGGATTTTGAATAGATTTAAGAATGATTAACACTTTTCAACTGAAAAGCCACTGTGCTTGCCTATAGGGATTAGTGAATCTGGGTTTCCTGAAGTCAAATGCTGTTTCTCCAATGCATAAAGATAACTATCTTTTATTTCATGTGAAGAATGTGAAGGTAGGATTTGCGAGATGTTAATCTTTATAATAAGCCAATGGTTGATTGAAAAGTTAGAAGAAAATGGGACA
0.6178974650490994 TTTTCTTCAGTCCCACATTGACTTGCCTTTGAATGGCTTTCACCTTCTGCCATGCAAGTTTCCTCATCTTTTGTTCCTGTAAAGATTTGGTGCAGGAAATAGAAAAGGGTTTAGGTATCTCGAGTAGAAGGGAATTTAATACAGGGAATGGGGTGCTGCAAAATTGTTGGAAGAGCCGTAGAAATGCATGTGAAGAGGTCCTATTAGACTTACAGATCATGCTGATGCTAGGTTATAAGGTTATAACCCTGAAGCTATGAACCAGAGGTCAGGAAATCATTGTCAACACGCATAGGTCAAGAAACTGCTGCCAGTTTCACAGTTGCTTCACATTCATGAAGCTGGTCACTATAGGGTGATTGTGAAGTCTGTCCACTACAAAATGCATTTCTGCCAGGGCTTACCACTGCCATAGAAATAAAAACGGGCTCCACCAGCATTTCACTTTCCAAATCTCATGGGAAGGATCTTATTTCCTGGACTTCACCTCAAACCCTGGCAGCAAGGGAGCCTGAGAAATGTAGTTGTTAGCCTTCCAGCCCCTATGACACAAGAGTGTGTAGAAGGGGGTAGATGTGAACAGTGAGTGCCAAAAGAGCATGTCTGGCTTATCTCTAAGCTGTCAGACATTCTCAATACCTTTTTTGATGGCTCTCCTGCTTATGTATTTTTCTATAGCCAATTAAAAACTATTGTTGTACAGTTATTATGTGCTAACACTGTGTTAGGCACTTCAGAATGTACAGAATGATAGCATGGTTTGGATCACCTGACACCTCATCCACTCAAAAAACTTATGTTTAATGTCTATCAGGTACTCAGAAAACCATCAATAGCTCCTCGTTATCTATCAAACAAAGTCCAAGGGCCTTAATTTAAACCTAACAGACTCTCCATGTTTTCATGACCTCAACTCATGTTTTAAACCTTATCTCTCATTTCTCTGCTTATTGAGCTCTTGTGGACCAGGAAAACTGGATGATTTTCTCTTCTTTATACATGAGCCTCTTTTCTGCCATCAGCACTTTAGTTACAATGTTTTTCCTCCCCAGAATGTCCTTCTTTCCATCTCCCTATGGTAAAGTGCTGCTGGCCCCTTAATGTCCAGCTCACATGTCACATCCACTGTGAAGCCTTTCCTGACGCAGGACAGCTGGAGATACTCCTTTCTTCCCAGAATCTTGGGAACTTGTTTTAATCTCCTGTGTGAGATTTAGAACGGTCTATCCTCAATTACGGTTTTTTGTTGTTTTTTTTTTGTATAAACATTATTTCTTCCAAAGTAGACCCTGGTCCACAGAGGAAAGGAAATTATTTCTTATTTATTTTTGATCCCCCACATAGTGCCATGGTGCTTATTG
1 GGCCAGGGAAGTACAGTAAGAGGCTGCCCATGCAAGCCCAGCCCAGGGCAAATAGAGTTTGAGGCAATGAATTTAGAGTATTTCCTTCCAGTTAGCAAGAGCATCCCAAATATGAGCCTAGGTTCCAGGCTAACTAGCAAGACTCTACCCATAAGTGACGGATGCTATAGCTAGATGTAGCCAGCTCATCTGAGCCCCCTCCTTCTGACTCCATTTCTATGAAGCTGTCAGAAATCTCTATAGAAAGAGAATGTGTTGCTCATGCCAACTTCCAGTGGTCTGACTTTGTGGCAGTTTCACTCTGGTGGCCTGGCATCAGCCGTGATTACATGGCCTTAGTTAAGAGTGAATACCTGCCAATCAGATGGCTCTGTTCTTGGTGTCTGTCCCAGTCAGGGCCTGGCCCTGCAGAGCTGAGAGCTAGACCCTGGACCAAGGTAAAGTTCACAGAGGCTGTAAATACTACTTGGGATTTCTGAGAGATGTTCTACTCATCTTTATTCCCGTGTCTGCATCCCAGCATTCAGTGTGGCTTAGAATACACTTTTCCAAATGGTTACAAACATTTAATATTGAAGTTTATATTTCTAATATAGATTGAACATCTTGGGTTAGACCTGGTTGTGTGCTATTTCAGTTCCCAGTCTTAAATGCAAATTGTAATAGATTGGGTAAAACTAAGCTTTATTGTACTCTAGATAATTACTAAAGAGATTGAAGCAAATGAATGGAAGAAGAAATACGAAGAGACCCGGCAAGAAGTTTTGGAGATGAGGTTAGACTGGAGGTTTTGGGGAGGGGCTGGATACTTTTATGCACTGTTAGATTTGATACAGATGAAGTGATGACAGTGTTTGCTTGCCACAGAACCAAGTGTTGAGAGCTTGAGGGCTTTGCTGTTTGCACCTTGCTTTGTGATTGAGAATGTTATTTCAGGAGTTATTGCTAACCAGTTATTATATTCAAATACTGTAGTTTATCTTGGGTTGTTCAGAACATATAACATGTAAACAGAACCCACATAATTCTTATCTTCTTAGAACTGACAGAAATTTGTATCAAAATATCCATTTGGAATACAGAAAAATAAGATTTATCCAATGATAGAGACACTGAAATTCATAATACTACTTTTTTTTTTTTGAGGCAGGGTCTCACTCTGTCATCCAGGCTGGAGTGCAGTGGTGTGATCATGGCTCACTGCAGCCTCAACCTCCTGGGATCAACTGATCCTCTCCCCTCTGCCTCCCAAGTAGCTGGGACCACAGGCATGTGCCACCATGCCTGCATAATTTTTTTTAGAGAT
1 CAAAATAAATAAATATTAAAAATTGACAAAAATTATATGTATTTATCATGTATAACATGATATTTGGAATATGTACAGATCCTTTCTGTAGGAGATGAAAGAAAATAAAAGAAATATGTATACATTGTAAAATGGCTAAATTGAGCTAATAAACTTTTATATTACCTCATATACTTATCATCTTTTTTTGGTGAGAACACCTAGAATCTATTCTCTTAGTGATTTTCAAGAATATAATACTGTACTTTGTGACTAACTATAGTCTCCACATTGTAAATAGATCTCTTGAACTGCTTCCACCTGTCTAACTGAAACTTTGCCTCCTTTGATAACCATGTTCCTTACCCCCACGTCCACCTCCCAAGATCATCTAATGTGAATTGATCATTCAATAAATGTTGTTAAACACTTAAAGAGCTGATTCTGATCTATTTTTATAAGAGATATCACTTTCGCCAAAATCTCGGATATTAACTTAGAGCAAAGATTTAATAGTTTTAAAAAATCAGCCATAACAAAATAACAAAAACAATAATATAAACAAAACCAAACCTACCAATCAAGAAATTATAGAGTCTATTTTCATAATTTCATAGACTGCCCAAGCATTTCAGCAAAACAAAGCCACACTGAAAAATATTGACAAGTTTGTATGCATAAAACTGTAAATCTTGTTTATGGGAAAAAATGCAATAAGCAGAGTTAAAATTTAAATGACAAGCCAGGAAAAAATATTTGTGATTGTGTATGACAAACAAGAAGTTAATATTACTTGATGGGATCTGAGCTCTGCACTGTTTCTCTAGCACTGGGCAGCTGTTGAAACCTCTTGTCAGTGCTTGCTTTCCTCTGGATTCCTTGGAGTCTTGCCCTGTACTGGTGCAGCTTAGGAGTCAGCCAAGAATTCGAGACGAGTTATATACAGATTTGGGGGTTCTCCCTCTGTTGGTCTCTTCTTTCTGGAATTCCTCCCCACCTCCTCAATTTCAGCTGCTCTGGAAGCCCTGATTCTGGCCTGATTCTTCATCCCAGCCTGTTGGCCTCTTTCTGCTGGAGTTGTATCCACACCTCACCCCACTCCCACCTACACCACTCCAGACCCCCAGCACCGCAGAGTCTTGGGGGTAACCTCAGTTACTGATCAAAATCAGTTCTTTAAATGTTTAACATTTATTGAATAATCAATCCTTTATTCACAGTTTAAAAGTGTAGCTCTATCATATTTAGGTGACTAGATGTGCTGATTTGTTTCTGATGTCTGTTCGTTCTGTTCCCTTAATCTGTTTATTTATCCTTCTGCTAGTCTCACAATGTTTTATTACAGTAATTTTCTTGAAGGAAAATTTGTATTATTTTAATTATTTTTA
0.8473227003490672 CCTTCTGGGGCGATTAAAATGTTCTGGAAGTAGATAATGGTGATGGTTGTACAACATTGTAAATATACAAAATGCCCTTGGATTGTACATTTTAAAATGATTAAAATGGTGAATTTTATGCTATGTATATTTTACCACAATAACATTGAGTCATTTTGGTCTCTGGGAAGGCAAGGGAAATTGTGAAGCCTTTTTTGAAGAAGGTGGGCTTCTGAGAACAAAGGAAATTTGAATTTGAATCCGAATTTGAATTTGCAGCAAAGGATAAAGGTGCCCCACGTAAAGGTAAAGATAGAAACTTGAGCAGCCTGGCTTGTGTAACAAGTGGGGATCAGGTGGAATTGTTGAGGAATGTCTCTTTAGAGTCTACAAATTTGATCGAAGTAAGGATTAATTTAAAGCACAAAATATATTTTCAGCAGAGACCAAATGTTCCCCAACTATTAAATTTAACTATCAATAAGTAAACACATCAAGTAGAACATTATATTCTTGATATTATTATTAAATACTATTTTCCTGTGCCTTTAAGAAAAGAAGCAGACACTCCTTGGGATCACTCACAGCTCAATTTTTATGGCATTTGTTTTACAAATACTGCGTTACTGTGGAGGAAAGAAGTGGGGACATGCACAGCATATTTATTTTTTCTATATCCAAAGTAAATCCATACATCATTACTTTAGGAACTAAATATGTATAATTTGCCTTGGATTTATTACAGCATCAAAGTGCAACTGGAAATATACGGAGTTTGAAATTAGAATTGTCAACTGTTCACATGGAGATCAATAGCCTTGGAAAGGGTGACTGTGGGCCCTGCCAGGCAAGCTCAGTGACAGCCTCACAGCCAGTCAAGAATGTCAGCAAGACAGGCTGTGGGCAGAGTGATGAAATGCAGCCCCACGTATGAGGGTGTTAGGTGATCACATTTTAAATTTAATGGTGTAGGCTTCTGCCAAGGGGGTACTAGAGGTTACTCCAGTGCACAATAAAATAAAGGGAATATCTTTTGAGTCTTCAGTTTTTAGCCACTTTCAACTCATTGGGTTTTCTCAGCCTTAAACTAAGGTCATTAGCTTTCACAAGTTCTCCCTACAAACAAAACAAATGCTGGGTGTCACCACCGCATTCTTTCCATGGGGGATGTTAGACACCACTGACCCGGATGATTACGCAGACAGCACACCCAAATAGAGACATCTAGATTGGGAAGAGCCCTCAAAAGCTGGCTGACAACCAGGATCCCTGCTCACGGGCCTATTTTACTCAACAGGAAAAATTGCTTCCAAAGGTTTTCTTTTCTTTTTTTTTTTTTT
0.1947510510542968 CAAACCATGATGGGTGGTTCAGGCTGCATGGTCACTTAGTGTCTTGTGCTTACTGTGATCAACAGTCTCAGTTTGCACAGAACTGGGGGGTTTCTTGTGACATCAGACTTTCAATGCTAAAACCGGAAAAGCTGGGAAGATCTTGGGCAAACCGGGATACATTGGTCAGATGCTCTGTCTTTAGTGGGGCCTAGTTAATATGCCAGGAGTTCTATTTCAAAAGGTGTGTGATTCTCCTTTGAGCATAACATGGTTTAGCTGCAGAGCGTCAGAAGCCTGCATTGTTATTCTCCCACCAGGGTTTGCTATACACTTGATCTTAGCCAAAAGGCTGAGAAGCGATACTGGGGTTTGCCATAAATTCTTTGGAGTCATCCACCCAGATGTCCTTATTCCATGGGTCAAGGTCCCAAGTTTTCCCAACCAGAGCCCTGACCTTGGGTTAACAGACCTGTCTTAGTTGAGTCAGCCACTCTGACTTAAAGTCCTGGGCATGGTCCTTGGCTTTCCACATCCTCCAGCTGGAGGTGATGAGAGCTTCACTGCATGTAACTGAAGAGTCCCTGTGGCTTGCATTCCTGGCTTTCAGTTGCCTGTTGTTCATCTTCAGCTGTGCATTATCTTTTTGGAGAGGATCAATGACACTTAGCAATAGCCATCCAATCCCACTCTCTTAATGTCTGCACCTTCTTAAGTGTCAAGCGTCCTGTAGATTTCTCTCACTAGTTCGTTCCCTTCTACTAACACACCATCCCAATTCGCAACTAATGAAAGTGTTAACAACAGGACCACCACCTGGTGCAGGGGCTGTCAGTACTCCACCTATCACCAGAAAAACAGGCCCTAATTGCCAGGCAGGTGGTGAGTGATTCAACTTCAAACTCTGTCTTATCTCCACCAGCTTTCTCAGCCCCCCTCTCACTGCCAAGTGTTGCAAGGCTGGCTGTCTAGAAGCAGTCACTGACACAGAGTTTGGGGAGCACAATACTTATTAGAGATTAATACCCATAAAAGGAAGAGAGAAGAGACAGGATTGGTCAGAGGAAGAAGGTGATCAGCAACACAGACCCACAAAGCTTTGGCTAACCTGGCAGGGCATTCTGGAATGAATATTCCCTATCAGAGTCTCTTGCAGGCTGCCCTGGAGGAGCAAGACCAGCGAAATGGCTTCTGCAGCTGAAGCTGATGCTGGAGCTGATACTGGCTGCTAGCTTCACTCACTCTCTGCAGCTGGCCCTACGTCCCTCTGGGAAGGGGGGTCTGCACAGCACATTTCCACAACGCCCACCTTCCCTCTCCTCAGACAACTCAGAAGACCTCATGAAACAGGGCAGTGGCATTGCACAGGATCCGATGTGGTCATTCCCTCCACCTAGGAGGACAAACTGAGCCCTCTGTGTTCCCACTATGTGGTAA
0.7584106061421205 TTAAGGTTCTCCAGAGGGACAGAACCAAAGGGTATATGTATAAATAAAAGTGAGTTTATTAGGAAGAATTGGCTCTCACAGTTACAGGGTGAAGTTCCATGATAGGCTGTCTGCAAGCTGGGGAAAGAGAGAAGCTGGTCACGTGGCTCAGTCCAAGTCTAAAAGCCTCAAAACCAGGGAAGCCAACAGTGCAGCCCTTAGTTTGAGGTGAAAGGGCCCGAGAGCCCCTGGGAGGCCTCTAGTGCAAGTCCTAGAGTCCAAAGGCTGAAGAACCTGGAGTCTGATGTCTAAGGGCAGGAGGAGAGGAAGCCAGGCATCTGTCACAGCATGAGAGAGAGAGCAGACTCAGCAAGCAATCTACTTATCCCCATTGTTTAGCTGTGCTTAAAGCTGATTGAATGGTGTCCCACCCACATTGAGAGTCCAGCTGGACATGTGGGCTGGTTCCTCTCACAGTCCACTCACTCACATGTCAGTCTTCTCTGGCAACACCCTCACAGACGTACCCAGGAACATTGCCTCAGCCATATAGCTATTCCTCTGTCCAGTCAAGTTGACACCTAATATTAACCATCACAGCCCTTAACATTTTTTTTGGTATAAATATAGGTATCAAAATAATCCTGGACATATTTTGGATTTTTTTTTTCTTGTGTATATTTTGGATACTTCTAGAAGTCAGCACCTGCACCGCTTCAAAAATTAACATAATTTGTGATAATATTTATTTTACCTGCTACTTTAAACAATTTTGGCTGCAGTTTTTCACTAAGCAAAATAGGTAAAGTGTGCCATTTCTGTTTTTTCCTTCTTAAGATTTTTACTTTTCGGCCGGGCGCAGTGGCTCAC
0.3783337424936641 TGATCATATTTAGTCTTACAGTCACATGATGCTCTCATCTACCACATTGTGTGGCTCTAAGATGCACGTTTTTCATGCTGGAACATTGCTGAAATCAGCCTGTGTCTTACAATAATGGCATGATATAGTTTAATTGACAGCATGTTTTTCTTTCTTAGTGCTACATAAAATTACGGGGCATCTTACAATTGTTGGGGTTGTAGATTCAATGACATGTGATACCAACCAGGGAGGCAGGCAAAGTGGACTTTAGAGATGAGTCATCTGGTACTCAAAGAGGGTAAGTTATTCACCCAAGATCACACCTGCCTCTTAATGGCAGATGCAGGAGTCAGAATTGTGCCTTTTGATCCAGGGCTGGTGTTTTGACCCCTGCCCTGTGCAGCCTCCTTACCAGGCCACCTGGTGTCCCCCTTTGTCTTCCTGACACCTGCACCCACAGCAGTCCCTGCTGACAGCTCTTCCTTCCCACCTCATCTCCAGGTGTCACCTCCCATTTTCCCCTCTGCACAGGAGGAATGACAGGTGCTGGAGCATGACACAGTGCCTCAGGGCTGAGGCTGCACAACTTCTCAGCTCTCGGTGCTGACAGGAGGGAAGTGGGTGCTGAGGTGTCAGTCAGCTGGCTCAGTGTAAGACCTGCTCTTATTGATCTTTGCTGAGAGATGACTAGTTGAGGGGCCTGGGCTACCACATTCTGCCTGTGACCTCTGACCTCCTAAACTTTAGTGTTCTTTGGCCTATAAGTTGAGGGTGTGCATGGTTTAGAAAGCGCATTTATGTACATTGCTTCATCTTGTCCTCATAATGCCATAGAAAAGACCTTGCTAGCCTCATTTTACAGATGAAGAAACCGAGGATCAGAGAGGGCACATGAATTGCTAGCAGGCACTAGATCCAGGACTTGAGACCACATCTCCTGGCTCCAAGTTCCTTCTTTCACTGACTTTTCCCCATACTGGCAGTTACTTCACAACCCCAAGGGCCCCATGGTTCTAAGGCTCTGTGGTTGCAGGTTCCTTTAGTCCCCGTGAGGCAGTGTGGGATGAGCTCAGGGAGGTATGATCAGGCAAATGTTCACTCTCAAAGGTGGGGCTTCACATGTGAGTTGAAGGGGACAGGGGCCCAATGTGTCCATCCTGAGACTTCTCTCTGTGGGCTTGGGATGAGACTCCCTGCTCTGTGGTAAAGAAGGCATGTCACTTTAACTGTCAGCATAGCATGGTTTGATGTGTAGAGAGTGGATCAGAGTTCCAGCTGATTTCTTCCTTA
0.913460099086189 ACTCCTGACTTTGTGATCTGCCCGCCTTGGCCTCCCAAAGTGCTGGTATTAGAGGCGTGAGCCACCGTGCCCGGCCTGGTATATTTTTACCCAAGGACTAGATTATTAGTTGCTAGTGGGTAAGGAAAACAACTTAAAATTCCTTTGCAAGTTGTCTTTCAGCACATGGAGAGGTGGGAGTGCAGCCCATACTTACCGTAGGAGATAAGCCAGATGTCTGGCACTGAAATGAAACATCTGTCAGCATTTGATTGTGTCATAGACAATGCCCTTGCCACACCCATACATTAATGCTCGAAGAAAAACTGTGGCATGTATATAATGGAATGTAGGTGGGCCAAATGAAAACAAAGATTTAAGGATTCTGGAGATCATATTTATACTTTTGTTACTATTTCTTTTTTTGAAATGTGCGTGAAGGAATTAACAATTATATAGTAATATAAAAATTATCCTGTGAATGAACCCGGTAATATGACATGTAACTTGACAACGAGTGGTGATAAATAATTGCTCTAGGCTTCTTCAGTTTTTTTTTTTCTTAGATTCCCTTCCTACCAATATGCTCTGTCTGTGAGACACCAGATCTTCTATAAGGCTGTGGTCTATGGTTGCACTTCCCCAGTGGATTATTCTTCTCAGAACTCTAGTGTCTCATGAAATGATATGTTAATAGTTATTTCACGAAAAAAGGAGATATGCATGCATGCAGACGATCTCTGACTTTTGATGGTTTGACTTAATTTTTGTACTTTACAGTGGGTTTATGAAGGTATTAAATGCATTTTTGACTCAATGTTATTTTCAATTTATGATTGGCTTAATTTATGATTGGCTTAATAGGACATAACCCTATCATCACTTCAAGAGCATCTCTCTCTCTCTCTCTCTGTGTATATATATGTATATGTGTGTGTGTGTGTATATATATGTATATGTGCGTGTGTGTGTGTGTGTGTGTATAAGTGTCTCACAAAAAGACTTATTATAAGGAATTGGCTTGTGTGATTATGGAGGCTAGCAAGTCCCAAATTTGTGATATGAGCTGGCAGGTTCAAGACTCAGGAGAGCCAATGGTGCAGATGAAGTTTGGAGGCAATTTATTGAAGAATTCCCTCTTGCTTTGGGAGGCCAGTCTTTTTGTTCTGTTCAGGCTGCTTGAATGAGACCCACCACATTATGGAGAGCCAGCGCTTACTCAAAGTTCACTGACTTAAATGTTAATCTCCTCCAAAAACACTCTTCAAATTGGCACATAAAATTAACCATCACACTGGCAAAAAACAAGGGGTGGTGGGAGTGGGAGGGA
0.2690410965164043 TGAAGTCATTGATGAAAATAAACTATGAACTCTTTTAACCTTGTCTACGTCAAATCATGCCTAAGTTTTTTTCTACAATAAGATAATCAGGTATGGGTAGAAGAGTGCTTTTAGGAAGTTCTCTTTTTCCATTTGATTTGAAAATGTTCGGTTTTAACGACCACTAGAAAAAGAATTTTGGTTTTGGTAAAGCCATACTTTCTCTGTAATGTGACTGTACTTCTAGCCCATAAGAAGGCCAGAATAAATTAAAAGTAAGGCCTAAAAATATTTCCAGTGGGATATCCCCCATTGGCTATGGAATCCCACCTTTCCCCTCCACCTTGATTAACACTCCACAAACATGGGGAATATCTGCTCAGGCTCTGAATTGAGACACCAACCCTCCTAGAAGACAACAATTTCCACTCAAACAACTGGTCCTCCTTGCCTTCTTGTCAGCACCACACGCTGAGGGAGGCTGTGTTTGGTCTCTTAATCAGGCCTTGCTGACGGGCTGACATCACTGCAAACGTTTTCACTTACTCTTTGGCAACAGTTAAATCCTTGCCAAAGGCCAGTCAGTAAGTCGGAAAGTGTTGTGAGAGAGAGGCTGGGGGAGTCGGAGTGTGAGTGTCAGCTAGCAGTCTGTGGTGATGACAGCAGGGAGATCTAGGTGCTGAAACCATTTTAAAGGTCACTCTGTGGCAGAACAAAAGACCTCTGATTTAGAAAAGGAAACAGAACTCTGGGCCATTGAAGCCCTGGGATGCCGCCCTCTGAGCACTCTGCAAATTCATCATCTGCTCCCTGATTGTGAAGACTGGGGAGGAACTGTTACTTTACAACCCAGTACAGCTTCTGCCAGCAACTGTGTGGCTTAGCAGTGGTACAGAATAATCTGGTAAGATAGAAATGCCAAATAATGTATCCATGGTCCAACTGCCTGTTGTTTTTAAAACTATTGAAATAAGTCACTGCCTGTTCTTCTTCGGTATTCTTTCTCCTTACCCTTCATCCTTTAATTTTCAAACTTGAATTGCTAAATAATCTAAATTTAAAGTTCTT
1 CTGTGGAGGTCGCTGTGTGACTATGGAGGTCTCATCTGTGTGGCTGTGGAGGTCTTTGTGTGACTATGGAGGTCACGTCCCATGTGGCTGTGGAGGTCTCTGTGTGACTATGGAGGTCATGTCCCACAGCTCCATGGCCTTCCTTGTTCTGTCTTCCACATCTGAGAGCAGGGATTGCCCTTATCCGCAGTGAGCATTTTGTTTAAGTAGCAGTGAGTTCACTCCAGGCAATGCTTTGACACTATAAATAGACGTGTATTTGACATTCACACACGTGTCTGTTGAGCTAATACAGACAATCATTTGATGAACCTGCTAGTTAGGAAGTAGCTGTGATGTGAGAAGAGACAGTGCTGGCTGTAGATATACACCAAATTTCCTCACTTGGCTGTTGATACAAGGAAAGCATCTTGATACTAATAGGAGTAGAATGCAAATGATACTTCTCTACCTCCGATCATTGGATTACATTCCTTTTCTCTGGGGTGAATCTTTAAAATGCTAATGGCCTGAGTGCACCAACATGAAGCACACAGTACCATCTGATTAGTTGCTTTATGCATCCAGAGAGGGTATTTCTAAATCTCAAAGTATGATTGAGTGTCAAAAATCCATTTGGGGGAGGGGCAACTCCTGTGTTGTGCTGCTTCTATAACAGCACAAAAAAGTCTTCCAGTATGTTCCTGCCAGCAAGGAGTTGGCAGGGCGGGGAGAAACAAAGGCTGTCGCCTTTCCAGTGATGAGTGCCTGTAATATGAAGCCGGGAGTCCTGACTCAGCACCTACAGCAAACCTGGGTTACCCAGGGCTTGCCACTTGTTTTGAGAGGTTCTTAAATTCTTAATTTTAAAAACAAAGTAAATTGCAGTATGACTCATATGAATAGTAAATGTGCACCAAATAGGACACATAGGAGGCAGAGTGGGTTATAAAATATTTAGTCATTTGCCACAACCAGGAAAAGATGGTTTTAAGGATATTGGTTCTTGGTCTAGGAATTAAAACATCCAGAAAATGGTCCTAAGTTACTGTTGATTTTTGCTGAAGAAAATACATTTTCTTCATGTGTTATATAAAAAACTTACTTTGTAATAATTATGTTTGTGGGATTCACTAATGTTTAACTACTGGAGCAAAACCTTTGTCGTAAAGTTCTCTTGGTTGTTTGAGGAGACAAAAGGATGGCAGATCTTTGACCAAATTATGAAGATATGGAATTCAAAGGGATGGAATTGAAGAGTTTGAGAAAGGAGTTAAAGTAAATACAGAATGTGG
0.4085996595408636 TTCATTTCATTATCCAGCCTTTATTGAAAGGATGCTGTCCAGGATGCCAGGTCCAGGCTTGGGAGAGGCAGAGCGAGTCCCTGTCTCTTGGAACCTGGGGCCCAATGGTCAATACAGTAATGAAATAAATGCAGTTGGACAAGCCAAGTGGAATAACCTTTAGAAAGAAGGCTTTTCCGTCTTCCTAAGGTTTTATCCAAAGCAAGCCGTGATGCCGGTGTGATCGTAGTCATGGCGGCAGTTCTGAAGCACACACAGATCTACCTTATCTTCCAAGGGCTGTTCCTGAAAGGCTGGCAAAGCCAACTTTCCCCATTGTACTTGAAAGCTCCTTGCAATGAGATCTGAGCTGCGGAAGTCACAGTGCAGAGGCAGGTGCTGTTGAAGGCTGTGAAACCTGAGTCATTTGAAGAAGGAGACGCGGGGAGAAGTGTCCCAGTTCAACCTCGGTGGATGGGAACTGGGTTTGAAGAGAACACCAGCCATGGCTCCAGGTGGGCCAATCACCGAGGAGACACACACGAGCCCTGTGTGCCACTGGGCATGAAAGTTTTCATCTTTTCCTGAAAACAATTGCTGGAGGTGAGCGCTGGTTCCTTCAGCTCTGAACTCCTCTTTTTCTGCCTTGTCTTTACTTCTTTGGTACAGCATTACTTGTCAGATGCAGGCAGGAAGAATAGACATTTAGACACACTTCACACTCGGCTGTGAGCCTGGCGCTCCTCCTAAACATGCTATTCAAAGTGCTTGGCTGCCTGTCTCTGGCCCACACCTGCCAGCGTTGACAAGTGCCACTGAGTTCATGTCAACTCAGGCGCTTGTCAGAGGGAATCTAGACCAGGCTGGGGCTGAGACAGGTGGGCGATCCTCATCCCACTGCCTCCCACTAAGACATAACATTGTGTGGAACAAGGAAGGACTGGTTCAAAGCCACAGAGCTGGTTACAGGCAAAGCCGGAAGCAGAACCTCTAACTTCAGGCTCACGTCAAAAATGCCCATAGAGTGCATTTTTTTCTGTTAAGATTTTAGAACTTTTTTCATTGAATTTAATCATTTCTGATATATTTGGGCTTATGCCTACCATTTTACTATTTGTTTTCCATTTGTCCACTATGTTCTGTACCATTTTTTCTCCTTTTTGCCTTCTTTAGGATTTTCAAGTATTTCTTATGACCATTTTGATAGACAGATAGATGATAGATAGAT
0.6799069055593001 GGCCCACACATGTGTTTGTAATGCACAGCACTGTGGTCTGTGAACGGAATCCTGGAATCCCCGGGGTGTATGGTCAGCCTTTTGCCTCACTGAACTCTCCTCTGGAGGCCATGGGAAACAGGGTACTTGTTTGAGTTTTCTCCTCGGGTCCACATTTCCTCTATCGACTACTGCTGTGTAAACAGACTCATGTTCAAAAGGTGCTGGGCTCCATTGACCTAATCCACTCTGAAGTGCCAGATCTGTCCACACGTCCTCGGGATTAGGCCAGCATGGCCAGCTCACCCTGACTTTGCCTAAGGGATGGTGCAGTGGACTTGGACCTCCCCCAAGCCAGGTTCATCTGATTGGTTTCCCTTTTGCGCTCTTCTTCCCCTGGGAGAGGATATCCTCAGCATGGACTGGGGCCCACAGAGCATGGAAGCTGAAACACCGATTCTTCCTCAATGAGCTGAAGTTCTCCAGATGGCAGCAAGCGCTCGTCATGCAAATTCTTGGCAGCAGGGAGCCTGTCAAGTGGCTACTGCTGCTTATTGTTACCAACACTCCCCCACCCCCTCCACACAAATGCAGAAGAAACACCATCTGTCGCCTGTGGGGCTGAGCGGTTCTTTCCAAGTCCCTTCTAGTCAGTGCCGCTCAGCAGCCCTGCGCTGTGCGCACGGTCCAAACAGGAGTTGCCTCTCCTTGAGCCAGGGAGGACCCCGTCCGGTGCTGGCAGTTCTCTTCTTCCACGCCTCCTGGGCCTGGCCCCTCATCCAGGGCCGAGCCGGGGCGTTTTGCTAGCAGATTTCTCATAAGATAGTTATGTAACAAGAATAGGAAAACGATTGTGTTTCTCCCTTTAGATTCTGGGAAAGAAACAAGATGAACTGAGTTAGCAACGTGTCTCCATCACTAGTGAGAAATGTGAATAGAAGATAACTGGTTAAGGAGCACACTCCGGATGTGAAAAGCACAGCCTTGAAGTTAAAAGGTCGCCCATAACATCAGCGTGATTTCGGGTTTGTGTTCTCTTCTCTCCCACTGATGTTATGTCTCCTGATTAATGATGAACTCTCATAAGACCTAAAAACGTTCTGTACAAACGAAAGCTGTCGCCAAAAGACTCTAAGCTCTGGAGAAGGCTCAATATCTTGTCCATCTTTGAACTCCGAGACCATCCGTGCAGTCATTCAATAACTATTTTTTCTTGTTGTTGCTGTTGGATTTTTGTGGGATAGTTATATATACAAATACAAATGCAAGCAATAATAATATGCCATGTCATATCTGCGTTTTTAATGTTTTCTTTTTAACCCCAGAAAGTTGTTCATATGCCTCACCTCAGGTCATTCTATCTTCCTTTATCTGTGCAAATCTCCCATTTTATTTTT
0.639445379914095 CACATTCATCTTCAAGCTTCTCTCTGGTTTTGGATTTCTTTTGGCTCCCTTCTCAGGGCTACCTTTAATCCTTCCCTGAGCCATACAAATACCACCATCTTGGGGTATCAAGTGAGTGGTGTATAAATCCAGCAAGTGGAACTACATCCATGCCCTACTGTGTTAGAACCATCCCCACCCCTCAGGGAAAATGCAGAGGCAACCAAGGCTTTGCAGATAAGTAGCAAGTTGTAAGTCTGGGTCTCCCACCAACAGCATAAAAGGCAAGAGGGACAAATGTCCTCAGGACCTAGCCCTGCACTGAGGACTGGGATCAGAAGGAGTGGGAGAGCAGAGCCGCCCCAAGGTGAAGCCACCTGCCTGGCCCTCTCTGTCTGGAAAGTGCCAGTCGGTATCAGAGGTGCTAACATCCACTGCTCCTGACAGCCTGGCTTGTCAGCAGCCACAGACCATCTGGGGGCTGACACTTGAGCTCACTGACAGGAATCACAGTTTGCTTCCATATCTCTCTGTCTCCAGCCCCAGGCAGCTGCAGGCAGATGGCAACAGTCCATCTGCAAACAGGGCTGCAGGCTGATGGGGTCCCTGTCCAGCGGACCAGCATCAGAAAAGCCAGTGCCCATAGGCCAAAGGCTATTAGATGGGGCTCCTGGAGTTCCAGCTGTCCAAGGCTGACATACAAGTCCATGTATCTAGCACCCCACCAAATATACCACAAAGCAACGTTTTGAGAGACCAAAGGTGCCATGTCTGTTGCCTTAGTTTTCTACAGCAGAAAAACTAAGACCTAAAAGCTCAAAGTCAGAATGCATATTTTATTGGGGGTCAAAAAGAAGAAAAAGCTTAACAATTTCCTGTTTTACTCGATTAATGATTTTTGAGGCAGGAGAATATCTTAATACATTGTTTAATCAGAACGTATATAAAGTCTTGTTCAATAAATGAAGGAGTAGATTGTCTTTTACTAATTTTCATCACTGTGACAA
0.6147302038561393 GCCTGCCAAAATGCTGGGATTACAGACGTGAGCCACCGCGCCCGGCCGCAATATTTCTCTCTCTAAAAGGAACTGAATGAAGCACTTGGGTTATGATCTTGTTTACAATTTTGAAGGAAAAAAAGAGCTGCAGCTACACAACACTCATTTCTGTACTCAGCCCTCTCCAGTGTCTGTGGCCTGGGAGAAGGCTGAAGGGGATAATTAGGATGCCTGCCACACCCTCATGGCGGTGACAGGAATGCTGAGTGCTTACACTGAGTAAAGTGCCATTATAACTGAGTGCCTGTGGAATGTCTCTGCTTGGCTGTCCCCCCGGCACTGTATACTCATCTGTGACACCACCCAGTCACCCAAGCCAGGAACCTGGGCGTCCTCAACACGTCTTCCTTTCTGATCCTCCATGACTGGCACTAGGCCCGAGGGCCACTTTTCTGTGGGCCCTCCCTGCCATGCCCGGTAGTCTTGCCCACAGTCCCTCCCCTGCACCATTGCCAGCTGCCTTCCCACACATCCTCTGTCCCACTCTTGCCCCCTCTGGTCCGGTCCCCACCCTGCAGACACAATGGGTTTTCTTTTGTTGTTGTTTTTTT
0.5399510772683072 TAGGTATAAGAATCTCAGGTCCTCAGTTTCTCCTCCATCCCCTGTGTTCTGGCAGCACCTCCCATTACCTTTATGAATCCACGTATTTTATTATACTGCCATTATTTTATCTGACTCCTCCACAGAACTGTGGACTTTGCAGTAGGAACTATTTTATTCTCTTCTTGCCTCCCTGGCTCCTGGCAGACCCTAGATGTACCTCGAAAATGTACTGATGTGTGAATGAATGAGCGGATGATGTGTTCCAGGCGTCTCACCAGCCTTCCTTTATCTGCACACTCTTCACTTTGCTAGGGTCCCTCTCAAAAACACAACCGGATCAGGAGTAGGGGGAGGGAGGAGAAGGGAGCTGCTGTAAAGCAACACACTGCTGTCAACATTTTTAAATGCGCATAACCCAAGAGAACATGCACAGTATATTTTGCGAAGTCAACTGGAAAGTGTCAGGGCCACACCTTACTGTAGTTGAAATTCAATGGCATTGAGCTCTTGATATTATAGATAGTAATTTTCTAGAGTACACACAATGGTGTGTGAACATATGACTGGGCTGGAATCTATCAAAGTACTTGCATGGACTATTACAGATCATTGATGCATTACAGTAAGCCATTTGTGGATATTTTATGATATGTACACAGACTAACATCACTGGGATAGCAAAGGCTATCAGAATTTCACCTGCGTAATAACAGTCATTTGCAAGGAAAAATCTTATCAAAAATAAATTGATGATCTGTAGTAATGGACTGGGTTTTTGGTGGTTACTCATTATTTGGGGGACCAGTAGAGTTCATAGCATACTGACTAAATAGTGACTTTAGATCAGGATGTCTGGATTCCCATCCCAGCTCTGTGACTTCATTCAAGTTACCGTCTTTGAGCCTCACTTTTCTTATCTGTAAAATGGAAGTAATAATAGTACTGAGGCCTAAGGTATTGTGCAGCTTAAATATGATAATTCAGGTAAAGCACCGAGTGGTGCCAATATTCATTTACCACTTTTTATCATCACTTGATGTATGTAGATTGTCAGTGTCCAACACTTTTGGGAAGAAATGACACCCTTTAGAG
0.3298715636561036 TTTACCATGGGTCCCCTCCGTAAAGGAAGCATTGGAAGTAGGGAAGCATGGCTTGAAGAGGAATAGGCATGGAGACTCTGCGAGTGAATACATGCAAAGCGCTTAGAATAAACAGTGCTGGCAGCACGCAAGCACCGTCAGAGTGTTTACTAACATCATCAATCATCACTATCACTCACTGAGGTTTCCTTACCTTAAGATGTGTGCTCTTCTTGTCAGTTTCACTCGTTAGTCCTCAAGCAGTCATTATTGCACCCACCTTGCAGATGAGGAAACTGAGGCCCAGAGACGGAAAGCCACTTGCCAAGGCCACCCAAAGCCTCCTGAGCAGCCCCAGGACTACTCCTGCTCCTTGTCAGTCCCTCCTCATCTGTCTGAGGCTGAGCTGGAGAAGGCTGGGAGGACAGAGAGAAGGGGCAGAGGCCAAAGCCCCCCTCAGGCCCTGCCAGGGCTGTGCTCCTGGACTAGAGGGCTGCAGTCCGGCCACCGGGCACAGGCTGGCTAATTGCCGACGCGCAGCGCTGCCCTGGACTATGACACAGGCCCCTGACAGACATGATTTATGAGGGCCCTCGGCAAAGCGGAACCCACTCAATTGCCTATTACCTCACTTAGCAGACACCTTGTCACCGCCCGAGAGCCGGGTGTTAAAAATACAAACCAGGCGGCCAGTCGGCCCCGAGTGTGGCCCCTCCACCTGCTCCGCACCAGATAACCAGCCTTCCAGCCAGCCAGCTGATCTCTGCTCGGCTGAACTGGGGAGAAGACGCTGAGAGTGGATTAATGAAGTAGATGTCATCAGGTCTCAGTCTCTGGGTTGAGGAGGTGGACAGCGGGAGCAGGGATGGGACCCCAATATCCAGACTGGTCCATCTGCTGGTAGTGCCTGCTGCAGAGATGGGGACAACTGAGGCACAGCAAGATGCAGCCACTCATCGAGGGTGCTGGCAAAGCCAGGACTGGATCCCAGAGGTCCCACATCCCCACCTTCTTTGCTCATGAACTCAACTTTTTGTTGCTCTGAATATACACGGTGCTTGCTACAAACCGATCTGCAATGTCTGGGCTGCCAGGGTTTCCCAGCCCCAGCCTCCAAGCCCAACATTCTGCACCCTTCCTGGCTGGCCTCATTGCCTTTCAAACAACCCTACAGAAGTCAGGGTTCATGTAGACTCTCTGTCGGTGTTTCCAGGCTGCCAGTTAAACTAGGAACACACACAACGCCAACTCCGAACTCACAGGACTCACACAATAAAAATGCAGGGCCTCTTGTTCAAAT
0.6825027727923028 TCCCCCGGCAAAGGCAGAAGAACCAAGCAAGCCTTTCCACCAAAGCAGCCATGAACCCCATTCTCATCCTTTCCAAGAACTCTCTGCTATACCAGATAGGGGTTTGGGGTTCTGTTTTCCATTTTTTAAAAAAATCATTTCAAGACTCTTGAACAGTGTGTCGGTTTACACTATTCTATCTTCTTAAGCCACCATATCAACATATTCACTCTGCTTCCTTTCTTTTCATTTGGCAGATGCCACACTTTTAATGGCAGCAATAAAAGGTGTTTCTATCAATGCCAGGTGGGCAGCCCTGACCATCTAAAGCCTCGGAGAGGGTTATACCAAGTCTCCTGTACACCTCCGTGCTAGTGACAACATGTGGGGACCTCTCATCCCAAAGTTTTGGGACAAAGTCTCCCGTCCCTTATCATTTGTTTTCACTGAGGCTAAATGTATCTGTTCAGTACATGGATAGATTTTTAAGCTCCTCTCACAAAGTCTTGTGCTTGAGACAAAATCAGCCCAGGTTCTGCACTTTGTCTATATTTCAGCAGCTCTCCTGCTTGATATTAAAAATAGCCTTGTCTAGTCCATCGAGATCAGACCCAGGAGACAGGCGCCTGCTATTCTAATCTCTGCTTCACAAATAGCTCTCTATGGGCTCAAGCATCTATCAACACTTCCAGGGGTCTCCAGTTATAAAACAGGGCCAGGCCTAGTCACCTATAAAGGTAGGCTCTGCTTAACTCCCCTGAGCTGTCCATGAGGTTAGCATGAGGCCTACAACAATCACATTTCTACCATGGACCAGAGACTTCCAATGGTGACTCAAAACTGAGAAGCAGTTAAGAGCATCCCCCACACTCAGGGTATCCTGCATTTCCCAGGCCAGAACCTACAAAAGGTTCCCTTGAGACTCAAACTCAAGCAGCACTGGTAAACAGGCTGCCCCTCCCCGCTTCTTCCCTCCTCCTGCAAACCACCCCCCATCCCTCACTTTCACCTCCCTTCCTCCCCAAGCCCATCTTGTACTCTGTGAAAAACTGTAGTCCCCTCAGTTGCCAAGGGAACCAAGCCTTTTATTCCATCCGTGACTAGCTGGTTGGGCTGAGGAGTGGGGCAACAACTGGTACCCAGGCCTTTGGAAGCCCAAGCCCTCCCTTTTTCCCAAAGGGGGAGGGGTGGGCTGCACCCCCCGTTGCCTTTTCACCCAAACCCAGCTGGGTGGGACCGAGC
0.8111392597625138 TTTAGAATCACAGAAATTCTGAATCAGTGTCAATAAGATTTCACAATATCACTGTAATTGTGATTATGAGTTACGGAGCATTCTTTTGCTAATGTATATGAAGTGTTTAAAGTATTGTGATGTCTGCCATCTAATAAACACATTTGAAGGAAGAACATTTTACATATCATCTCCAAATCCTTCAGTCACTACTGACACAAAAATTCCTTTATTTCATAATTTATAAAAATGATATGAGCATAAAGAATAAAGAAACTTAAGTACAGCATTTGCAGACAAATATGCTGTTTGTTAGAATTAAACTCATTAAAAATGCAAAAAATTAATAAAACAATCCATTATTTTAGCAGTTAACTTCTAGTCAATATGTTTAGTATTCCCACCTAAACTTTTAACTTTACTACCCAATTACTGGGTTAAAGCCACTGCTTATTACTCTTTTTTTCAAGCAAGAAACAAAAAGAAGGAGCGGGACATGCTCAGTAGCTAAAACAGATGACCTTCGTGACATATGAGAGAGGCCTAATCCTGACAGCAGGAATGTGTCTTTCAGACACTGGCAACCCACTTGGCATAGATATGCCAACACTCACTTCACCAAGATGGTCAAAACAAAGTCTGGAATATGTTCTATTGTGTGAACAAAACAGAATGGGAGTATTTTAATAATAAATCACTTAAACAAGTGAAGGCAGCTGTCAGCAAGGTATGAGCTTCCAACATGAAGCACAAAGAAAAACATGCACTACCCTTTATAATCAGACCAAGACTAAAGGCCAATCGGTTTTGTGTCTGGTTCATGTGCTGTCTAGTATTCTACCTCACACAAAGAATGTGCCAAGGACATGGGAAGCTCTGCCTTAGAGAGGGTTAGAAGGAGAGGAGGCAAAACGACCCCTTAAAATATATCCTGATTAAGGCTTTATCACTGAAAAAATGTAAGAGAACATTATTCATTTCTTAATGTTACAAATCACTACTTTAAAGAATAAGTTTGCAGTTTTGTAACTACTGCTTTTAAGAAATACA
0.05554848974373076 TCTGCCTGAGTCAGCCCTGGCCCCAATATGTGTGAATATGAGTCTAGTGCTTAGTGATACACACTTCCACACAACATGGTCCCTAAATGTAAGACAATCACTCCATTGCATGTGCACCCAAAATCACAGCATCTGTTCCCAAGCTGATGGAAACGCCAATTTGTCAGAGTCTTCAACATGGTACCTTCTGAAGGAAGAGTCAAGGGTGAGTCTGATCATACGTGATCTTTCCTTGTTTGCTGAATTTAGAGAGTAACTCTGCTTAAAATGTTACTCCCTATATGTGTAGGTTGCAGACACCCCTGGATTCTTTGGGGGCAGTTCCCCAGGTCCTGCTACATTTGCTGTTGACATTCCCTTATTTTCTTTCCATCCAGCTCCAGACCCTTGTCCCCAGGTTTTGACCCCACCCAGACCTTTGCCTGGGACGGAAAGCTGCTTCATTTCAGGAGACACCTGAAGTACCTGGGTTGGTTCAGAGACTACCAGAAGTTTTTGGACTTCTTCTAGTCCTTTAATGGCCAAAAGGACTCAAGGGCCTGGCATGTAATGGAAAAGGCATCACCTCTCTCATGGAACGCAGCTGGAAGGACCAACCCCTTCATAGTTACAGGAATCTGAGCTATGAAGACACTAGCCAGGCAACAAGGCCCTGGGCTCAGACACAGATGAAGTTTCTCTGGAAGAGAAATCTGGCCTGTTACAGACCTGGGAAGTGCCAAGGCTTAGCTCCTGAGAAGGATTGCTGGTGCTGACAGCTGGGAGTCAGGACTCCAGGGCCACTTGTATGGAAGCTGGTGCCCGTGGTGCAGGAGGATGGGGGCTCTGGATTCTGCACCACCCCCCATAGACTGGCCCCTCAGAGGGCTCCTGTGGTGTCAGAGCCCTCTCACAAGCGCCTGCCGTGGTTATCAGCTGAAGCTGAGTGCTTGTGGAGTGTGGACAGAGGGCAGAGGGAGAGAAGCAGCCATGGGCTTCCTGCCAGGAAGCTCAGCAGCTCCGAGGAGACTGGAGAGTCATGGGACACAGTGCGTCCTCCCCAGAACAGCCTCCAGCCTGCCAGTTCAGAGCACACGCTTGGAGGCAGGAAGGCTGAGGTCCAACCCCATTCCTGCTATGGGCCAGCTGAGAGCTGTGGACAAGTCATTCGGCTTCTCTGAGCCGCAGTCTTCTCACCTGTAAAGCGGGGGTAATAATACCCTCCTCACAAGGTTGTTGCAAGGCTTTGTGGGGAAAAATACAAAGTGCACAGAGTTGTTCAGTAAGGCGTGGGCCTGCG
0.5183949924451493 TCCTCACTCTCCACTTCCAAGTGCATCCTTCTAGAATGCTACTTCTGTCCCAGTGGGCCTTTCTCTTCGTCTATCCGTCCCCCTCCATCATAAAACAAGGTTTGTCTCTGATGCCCTCTGCCAAGCAGACACCCCTTCTCTCTTAATTCTCCAAAGGCAAGAAGGACAGATGAATTATTTGACTACCTGTTTCCAAAATCTGTAAATAGAGAAAGAGCGAAACACCCTGCACACCAGATAGCTGGAAAGCAAGTCTCACTTGACCCCTTGATATAAAACCTCAGCAGCCCTCACCCCATCCAGCCCTGCTGCCCCTGGTAACTGGGATGGGGGCTCAAGAGAGGTATGTAAAGCCCGTAAGTGGCTCTCCCCGGCTCTTTAGAAAGCTGCTTATCAGGGAATGAAACACTGGCCCAAGCTTGCCATGACAGCAGGAGCTGCCTGAGAAGAGAGGCTGAGATAAATGAAGTATCCTTCATCCCCATCAGTGTGGGCCAGACAGAAACCAGGTGCGAGGCAGTGAGCCTTCATCTTCTGTAAACAATCTTCCATCGCCCACTGCAGCAGCTTGAGCCTGAGATGAGGATTAGAAGAACAGCTTCTGCAGGCCTGGGGCCTCTCAGCTGGACAGAGAGTTAAAGGGCGCACAAGATAGCTCACTGCTGGGAAGGATGCTTGAGGAAACACAGCCATTCGTCACCAGGGGGTTTGCCTGACCTGGCAGGAGAGAATCTGATATCTAAACAGTTCCCTGCGTCCCTGAAGCACTCTGAAAGTTCTCCAGCTAAATATTTGATACTGCATCAGATAACAGCCCAAAGCTCTTCCCACTAGTTTGAGAAGGCTGCTGCTACAGAAGGGAGAGACCTAGCCAGTGCTGGGCTTGGCTGCAATCATGCAGGACTTAAGGTGGGGGCATCCTAGCTCCCACCTCAAATTTTTGGTGTCCTTTCACCTTGGCCAGGTTAGGGCCAATTAAGGGC
0.4045569120783064 TGGATGTGCTAGGCTTTTGTTGCCTAAACTGCTTTATGTCTGTGGTTAACTTATTCCTTCCTGCAGTTTCATTATCTTTTTAGGGTCTAAATATAGTTCTTTTAATTTCCTCTTGTTATTTATATAGGCTTACTGTATAAGGCTTAGTCTTGGAGTTGTTTTATTTTATTACATTTTGTTTTGCATTTCTGGGATTTTTTAGTATTCCTTCTTTCAGTTTGCCCCTTCTTGAGCTAACCTTCCTGCAGTACCATCTTCCAGCTGACTGTCAGTGGATGAGGTGGAAACAGTTTTACCCTTTCTGCAGGGAGCTTTGCCAGTTAGGGACCCTTCAGGAGTAGTCAGGAACGCGCCTGTGCCCACAGTTGGGTGAGTCCCAGGAACGGCAAAAATGTCACCTAGCGTTCCCCCTGCTCATCTAACATAGTTTAATTGCCTTGATGGTCCATGGAATTTCCAAACTAGAGGTTGTGATATGCAGAAAATCAACAAGATTGCATTGCTAGGGAGCACGTTTGTGAAGCTGGCGTCTTCCACAGAAGCTGTCATCAGCGAGGAGGGGCTGTTGAGGGGACACATTTGTGAAGCCAGCATCTTTCACAGAAGCTGTCATCAGCGAGGAGGTGCCGTTGAGGGGACTCCGGGTGATGCTTTCGTCGTTTGGAAAGTAGCACTGCTGTGCAGAATGGCCTCTTTTTAGCCATCCTCCTAGTTCCATGTGGAGCCCTCAGAATGGGTTTTACTCCGGGCAGATTCCAACACACCCTCATGCTATCCCGGGAGAACTGCGGACCAGGAAGGCAGAGGCCCCTTCCTCCCACCCCCATGGAAGCCAGACCACACGAGCTGGGCCACCCAGCTGTCCCAGCACTGGGTCGGTCCTGGGAGACCACCCACCCCAGAAGAGACCAGGCTAGGTGACATGCACATTGGTGACAGGCCAGGCTGCAGGGAACTGGGTCTGTCGGTGCCCCCTGGGAAGGTGGGAGGTGTTTGGCTGGAGGGAGACAGTTGTATCAGCTGCCTCCGGGTTGCCAAGAATGAAATGAACAAAAGAGAGAGGAACCCGGAGGGGGCTGTCTGCCCAGCCATCCCAGTTCCAGGCTCTTTTCGCCTGCACCCAGGCAGACTAGACCGAGCCCTGGCAGGGGTGACGGCTCGCCCTTTGCAAGATGGATGGGCACAACGGGGCCCTGGCAGGTGGAGGTAGCACGGCAGGCTGTGCCGAGGGCGACCACAGAGGCTGTCTCTGTGTGGCAACTTCAGGGCCCCATGATTGATGGTTAGGCTGCTTGGAACCTGATCAAATCTCAGCTCAGCCTGCTGGGTGTGAGCAAGGGAGAGGGGATGGGGAGCCTGGTCAGCCTAGAGCGGGCCCCCCACCACTGAGGAGGCCCCGGGGGGGACCCCCAGCCTGACTTCTCCCTGCTCATGGCTGGCTCCTGTCCCACA
0.8213231324543085 ACCTCCCCCTGACCAAACACATTCTTCTTCCTGACTTCTTGTGCTCCCTGAATCATGTATGATTTACACAGCCACACACGAAAGAACCCAGGCCTCCTCCCAGACTCCGCCTTATATCTCATTGGTCTCCTACCTCTCTAAGTTCAATTGCATCTATTCCCTTCAGATGAATCAAGTAAGTTCCCTTCCTGTCCCGGCACTACACATGACAAGGGCCTCACCATGTCTCACTTAGGCTGCAGCAAATAAACAGATAAGTATACAAAAATAATAATCATCATCACAGCCATGTCTGTATGCCTAGGCCATGAGTGAGTACTCATTAATTATGTTAAATTAATGCCTTCCTCTTCTTCCTCTTCATTCTCTCCTCTACAGTGCCTCTGAACCAAGGCCAGCCACTTATGTCTCCAGTTGCTGAGGATGGAATAAGAGCTGTCAGATTTCCCTAGTCAAGGGCCCCATGAGCCATGACCAGGGTTGGAATGGGCAGTCCGGGATGAGATCATCCAGTTTACAAATGAGTATGCAGAGACAGCCAGACCTGGTTAGCATCCGCAAAATAACTTGCTTATTTCCTCTTTCCCATTCTTCTTCCGCTATCACCCAGCCGTCTGGTGCAAACGACCCATTTAAACACCTCAGAAGTGATGATAAGAAGCAAGATAATAAGGTAGCCAGCCCCCAGTTCCCCAGGCAGCAATCACGGTGTGTAGGATAGAGTGCAGGGGCCTCTCTGTCGCTCTCATCTGTCACACATCAAGTGAGAAAAGATCTATTTTTTCCCTAGGCAGCATGCCTACAACTTCAATTGGCCTAAAATAAGCTTGGCTAAATTTTCTTGTGAGACGCTCTAAATGGTACACAGTGATCCATGCAAAGTCACTGCGAGGAGCCTCACCATGACGTGGATGGTGCCGGGGCTCCATAAGATGAGCAGATCTGAGCCAGGTGAGGGCTCCCCCCAAAAGTTAGTTTCCCTTGTTCTGAGCCCCACCTCTCTGGCTGGCTGCAACCCAGACTTGCTTCTGTCCACAACTCTGCTTCCCAGCAGCCTCACAGTTAGCCGGCTGGGCAGAGCCTCTCCTCCCTGCCCCTAGTGGTTTCCTGCCCCATCACTCACTTCTGGTCCAGCATGCAAGGGTCTGCCTGCCCCTAGCCCAGGGAAACAGTGGGTGGGTATCCCCACCCCTATCTGCCAAGAAAACACCCAAACAGGGAAAACATCCACAGAGTAGATAAGATGAGGCCAGTCATCCTAGGATGTCATCTGGGCCCCAGGAGTCTTTATACCAGGCTAATTCCAGGAAAGCTAGCCTGAGGAGTTTGCAGTGTCAGTCCCAATGTTAGTCTCCCAACCACACACATGGTTTGAAACTGCTTTAAACAGGAATCATGTGATAAGAGAGGCTCAAAATGCAGCAACATGTCCCCATGTGGCCAGAATAGTTTGCGAGAAAGCAGCCC
0.8352852281549336 AACCCTGGAGTCAGGCAGGACAGGGTTTATCATTGTTTTCTTAAAAAACCCAGGAAGCTGATGCTCAGAGGGGTTTCATGCATTCCTCAACATCACACAGCCAGTAAGAGGTAAAGTGGCTCAGCTGCTCTTTCCGCTCCACCAGACCACCCTCTCCTGTTCACCTCCCCTGGAAATGTCCTCAACCGTTAGCAAGCCCTGCAGGACTAACTTCCGTTGCAGGCATCATTTCAATACCCCTGTCCTTTTGGGAAGCCTCCTCAAGTTCTCCAAAAACCTTCTAAACTGCAACCACTCAAACCAGTCACCTTGCACTCTGACAGGAGTAAAAGAAGAGGCGGAACTAAATGAGCCACGTCATGCTTCTTCTACAATGACTCTGGACGTTAGGTCTTTGCCGGGTGACTGGGAGCCGACCTTGTATGGCTCCAACACCACCCACCCTCCACTCACTGCCTCTGGATTAAGGTGTCCGTATCACAAAGGAAAGAAATGGACATTTCCAAGTACCTTCTATGTGGGCTTTCAGAAGAATGAAACGTCTGAAATGTCACCTTGAGTGGGTGACAATGACATGCAGATTTTAACATGACAGAAGGGAGAACTTCCAAACAATCCAACAATACAAGGGGCTGCCTCAAGTGGAAATGAGTTGGCTGCCTTGGCAGCTGTTTAAGCTGAGGCTGCTGTGGACTATGACTAACTGGGATATTGTAGAGCCATCCTTCTTAGACTTTAATGTATATAGCTATTATTTGGGATCCTGTTAAAATGTGGACTCTGACTTGATACACCTGGGCTGTATTGTGAAATTCTGCATTTCTACTTGGTAGTGCTGACACTGCTGGTTCACAGACCAACTGTAGGCGGCAAGGGTGCAGAGGACCTCAACTGCCCTACACTGAGATTCTTTGGCTATAGTATGCCAAGA
0.5434677765669199 CCCAGCACTGTGGGCACTGCTCCGGTGGACATGTAAACCCGTGGCCAGAAGGATGCCATCCTGCACGGAAACTGAGCGGTGGGAGAAAGAGGCAATCAGCAATTCATTCCACCCTGCAAGGATAAGGAGGAGGTCTTGAGGGAAAACAGAACACATTCTTTCTTTACTTATAATCACCCAAGGCATGTACTATTATCCCACATAACACAAGCAGAATTGACAATCTAGGGAGGTTAAGAATTAGTTCAAGATGACACAGTTCATTAGCGAAGAAACAAAGGATAAGACTGGGGTCTCCTGACTTATGGCTCTGCACATCCCCCCACTCTCTCTCAGATGCAACCCAGAATGACAGCTTGAAGACAAGGATTCTTTTTTTTTTTAATCAGTCAACAAATGTGGGTTGAACATTTAGCGGATAATAGTCACTATGTTAGCTGCCATGGTGGATAAAGCTAATATACCTTGCAGTTTTTCCCCTTAGGATCTGACAACCTAGTTTTGTTTCTTTGGCATTGTCTAGTAACACCCAACACAGTCTGTAGCTTTCAGCTGACACTCAGTGAGTGCTCATTATCTAACAGGGATGAATGAGTGGACTGGTTCCCAATGCTCAGCCAATCTTCATGAAATTTCCCTGCTGGCTCAGTGACAAAGAGGAGATATGGCATATGTCAACGGCCTGCAAGTGTCCCAGAAATAGGAGGCAAAAGAAAATACAGCACATAGAGTCTTAAAATAGGAAGACAGTGGAACCCGTCTAGTACAAGCTTGAGCAAACATCTTTGGCTTCTTTATCTCACCTATGAAATGGGAATACCTCTATTTGCCAATTTCATTACAATAATGAGCCACTGCTTCAAATTATCCTCAATAAAATGATTTAATAGTCTTTTTAAAATTTATGCAAATTATAAAGCCGTGGTAAAATTTGCATGGGAAAAGAGTCCCACTTCTTCATTAACGATGCTTCCTTTGGGAATGAACAACCCCGCACAGGGTTATTTCATCATCAGCATGGTACATAGCTTGGACATGTTGCAGCTCCATCAGGCTACTTTTTTTAGGATCCCAAGAGCAATTTCAAAATTGTCCCAGGAAAAAAGGCAGCCAATGTGCTTTACCTGCCCGAAGCAAAATGACCTGGTCCTCCAAGGTGAGGTCAGAGAAGTGGGGAATACGCTTGGCCCATTCAACGAGGGTGAAAAGCTGCTTGTCAGCAGCATGACATATGTTGGTAACAGGGTCATTTGTCTGAAAAAGGAACAAAGTACTGTGAGGCACAGGTCCCAGGACTCAAATACACCCCTTTCTCCCATTTCCAGCCCTACCCAAGAAATGGAACACACATGTGTGTCTAAGAGCACATACCGAGTTCTCCATATTCATGTCACCATAGGATTCTGTCTTTGG
0.9618548113977967 TTCCACAAAATCAGATCTTCAAAGATACAAACCAATTCATCAGATTTGCGTGACAACATGCCTCAAAATCCTTGCTGATTCTGTTCCTTCCGAACTAAATGAAACTTCACACTCTTTTCCTGCCCCCAGCCTGTGCCATCTCCCACAAAAGTTTCCTAATTTCTAATTCTTCACAGGAATTTTACTGCGCACCTGCCCCAACTGCTTTTTAGGATCAAAACTAATTACCCCTCCCTTGAGCTCTCACAGCCATTCCTCTGTGTTTGCATCCATTACACTGTATTATGGTTGCTATTTAAGTGCCTGTGTTCTCCACTTCACCACTCAAAGGTGTATTTTACCCCCTGCTCCCTTTTTGCGTGTGCGTCTTCAGTAACTGACTAAGTGTCTGCACATAATAAATGCCTAAATATTTGTTGAATTCAAATGAACTAAATAAAAACAAGCAAGTTCACCAAAACTCCTCCAAATATGAATTAAACCAGGGTATATATTCTTTTCACACTAATATATTGCTATTGAATGAGCTAGTTATAACAATGATCTCTTCATGATTGTATTTACATACTATTTTATAACAGTTTTGTTCTGACTTTGTTTCTGAACAAAACTATGAGCCCTTTAAAGTTATTATTTATATTAGTATAGCGCATATGTTAAGAGCACAGACTCAAATTCACAAGTGAATAGTGCTCAGGTCTTAATTTAACAAGGTGTCTGATGGATGACATGGAGACATCAATGCCACTGAAAGAAATGTTTAATGTCATTCACACTTTGAGAAGCAAGAGGCATGGCATACCATGCAGGGCATACCATGCAGGGCCACAGGAAGAGGCAGCAGATTTGGACAGGAGACAGAAACAGGGCTGTAGGGGAAGCCTAGGCCAGACGTTTTATCGGGGTTTCTGTAGGAAAGGCAAGGTGGAGTAGAATAACCTGTTCAGGATTGACTAGTTTGAATAATCCCGATGGGCTTTGGGCTATAGGAGTGGTCTCTATTGCCTGGTATCTGGCCCTGGAATAATTTAGGTCAGGGGAAATATTGGCTTGGTGTATGAGGCTACATAAAGCAGGTGGATGGAGATTAGTTGGTTTGGGTATGAAAGGTGGGCTCATGGCCTAGCCCTTTGTTGTCTCTAAAGATTGGCTCATCCTTGGAAGGAAGACTTCCCTGACCACTAAGATTTTTAAGATTTCAAAACATTATAAGGTACAGAAAATGAAAAACATGATTAATACAATGACCTTGAACAAGTTGCTCAACCTCTCTGTCTCATTTTCCTCATCTGTAAAATGGGGATAATAATTACAGCATCATAGGGTTGTGGTGAGGATCAAATGAATTAATATATATAAGACAAATAGAACAGTATATGACATATAAAAATGATGTAAAAATTAGCAATAATATCTGTCACTACAACACCTCCTAAAATGCATCCCACAAGATAGGAGGTGCTTGAAAAG
1 GCTGAATAACAACGGATGTCCCTATAGTGAATAAAAGTGTTCTGAGTGAAAGGATGGTAGAGACACACATGAAGAGCATTTTCACCTTTATCTATTGTTAAAAACTTGTCTTCAGATTGCTACAACCAGTAAGTCACTTATTCTAGAAAAATACAGAAGTTAGGCAGGCTTAAAACCGCTTCTTCAACAGTTAAATTCATTTGCACATTCTACTCACCTCAACCAACCTCAGCAACAAGGGAATAAATAGCTTCCCACTTATGTTGCAGCTGAGGGAAGAGGTACAGCAGCAAATACAAGTCTCCCTAAATAAAGGCAAATATTTCTGTCATGCCAAGGAGGGAGGGAAAAAGGGAGGCTTGCCAGAGTCGGCTGGGAGATAACAGTGGGAACTGCTGGTCCATCTGGTTTTCATTCTGCTAACACTCACACGGAACTGTTAGAGAAGGCAGTCCAGATACACAGATTTGAAGCACGTGGTTGCACAGACAGAGAAAGGAAGAGCAGGAGGGGGAGGGGAAGTGGGAGTAACAAAAAAATAAATAAAGCAATAGGAGGAAAAAGAAGAGGAGGAAAAAGAACAAAATAGAGAGACAAGAGCCTGATGGGGGAGTAAGTTACCCTCAACAGCTTCCTTTACCCTCAGTGTCTACAAGCTGGACCTTAATGTGCACAGCCCCCTACCTGACTCAAGTTTATAGAGTTAAGGAGCAATATCTAAACTTAAACATATTTGAAGGCTATTTTTCTTTCCTAAAATAGACCACCCTAAAAAAAATAAACTATAAATTTGACAATAAGTTTCCTCCTCAATTTTAAGTTTGTATTTAAGATAATCTTTGTATTCCTATCTTCTTCCCAATTTTAGAAAGTTTTTGGT
0.4887100763791168 GGTCCAGCCTTTCCAGCCTCTCCACCCTCAGTCAGCGCCACCTGGCATTACCGGCCCCGCCTCTCCACTTGGCTTGTCCTCAGCGTCATCTGTGTATTTTTCCCGATTGCTGGGGTTTTCTTCTGCATGTTGTGGGAGTGGCTGGGAGTTGAGTGAGTGTTCACACCCCGTGGTTGAATGTTGAGGAAGGGGACAGCCGGAAGATGGTGAGCAGGGTTCTAACAGCTCTCTGCCTTGTGAAGTGGATGGGTGAAGAGGTCCCTTCTCTGAATTGTGCGTCTTCCCAGCCTGCTGCAGTCTCTCGGGTCTGGAGGTTTCCTTCAGCATTCTCTCTTCCCCGAGCAGAACAGAATACTGGGAAGTGTGAAGAGAACATTGATATAATAGTGATGAAACTGTTTTGACTCAGAAAAAGATGATTTCTTGATGTTACAATAAATTTTGTGTAAAAATAGAGTGATTCAAAACACTTTTCATGCCTCAAAATAACACAGCTTTCTGTCACCAGGGGGCATCCTAGTGTCATTAACAGAAAAAGAGGGCATTCTATGTATCAGTTTCTAAACTGTCTTCTTTGACCACAGAGGGTTTTGAACGAGATGGAGGCTTCCTGAGACACACATGGCCGCTGTGTCCACTGCCCTTATAGACCCACCTCTCTGCTCCAGGTGCCTGCCAGCATCAATGCTGGTGTGTGGAATGGTCTTTGCCTTGCGGGTGCCAAGGCTAGTGTAGCCCATCTCAGCATACAGAATGCTTTCTTCTGGGTGTCAACGTGATGCGTACTAGGTTGCCCCCTGGTGGTGGAGATAAGTGCAGCTGTCAACTCCTGAAGGTGTTGGCTTCTTTTGAATTGCCCTGTGTTTTCCTGTTTGTCATAATTCTCTGGGAAGAGAACTTACTGCGTTACTAGCAGAGAGAAGCTTTTATTGCTGTGATTATTGAATTGGTGTGCTGAGATCTCATTGGAGAACTCAGCTGAGGAAGCCAATCAAGCAGCAGCTCTCATACAGTATTGGGCATGAGACTTACCTAGGAGCCTCTGAACTTTGCGGCCCTAGGGCCGTTCCTGCACTGGCCTTTGTACTGCAGTGAACAGACTTTGGGAAGTGCTGCACCAGAATGTCTTTTTGTTCTTTTGTTCTGCCCTCAGGTAGCAGTTTATCTCTCTGCTTACCTTACCCCTTTTCTTCCTAAACCTTTTTTTTTTTTTTGAGACAGAGTCTTGTGCTGTTGCCCAGGCTGGAGTGCAGTGGCACTATCTCGGC
1 GTGAGCTGAGATGGCGCCATTGCACTCCAGCCTGGGCAACAGGAGCAAAATTCCATCTCAGAAAAAACAGACACACAAAACAGCCTAACCCAAGATAGATAGAAATCTGTCAACAGTTGAACTATTATGGTTTCTATTATCGGATCATGCAATGAAAACACTTTAACCCTTCTTCACTTAACCAACTCACTCAATTAATATAGGTCTCTGTTTCCTCTCTAAAACACACTGACCTGTCACCAGACACCCACTGAAGGGATGCCGCGGGAAGGGTCTTGATTTGCATGTCTGAGTGCTTCTGTTCCTATCTGCTGAACTGTATGCTTTCCAGTTCCAGTGGAGATTGTGCCCACTCCCATTGATGTCCATTGTTATTATCATTTTACAATTTAATTAAATATTACATAAGTGCTGAAATAGGAATGCAAAACAAGAGTTGTTATTTTTGTAAAAATTAAGTTGAATGTTTTGGGGAAAGTTGATAGAATAAATCATTAAAAAT
0.140221445174976 AGTGAGGTAATGTGTAAATGCAGTAAGCAAAATACATCATATATATAGTACTTTCTATGTATTTACCTATATGAGCGTGATGCCTCCAACTGCATAGCTGTGGCTCCGGGAGCAGGACCTTGTAACAGAGCCTCTGCCCCTGACTGTCCTGAGGGGCCTTTCCCTGGGAAAGGAACCAGGTTTGATTTTCAGTCTCTTTTGTTATCACCATGCTGACAGCTTTGCTTGTCATATGCCTTTCCCTCCGCTGTACTGATTTTACCTTACAGAAGCTCTCCTTAGTGCTTCATCAGACACTCCCTCTTTTCCAAAGAAAAGACAGCCGCATTCCATGGTCATCTGGTTGAGCTCGAGGTGAGCCCCAGGGATCATGTGCCTCCCACCAGGCTGACACCCCAGTGGTGAGGAGTTGCCCCTTGGCTTTTTCGAGGCCAAGCAACTCAGAGGTGTGGCAGGATTGCATGTCACAGTGGCACTTCCAAGGCCCTGGAGAGTGACTCAACGCCTCTGTTATTAAGATGTCACACAGGCTGTGCAGCAACAACTCTAGGGACACCCTTCACACTGACAGAGTTGGCAAGCTTTTCCTATAAAGGGGCACACAGTGAATACTGTAGGCTTTGTAGGCCATACTATCTGTCCCAACAATTCAACTTTGCCCACTGTAGCTGTGAATCAACCGTAGATAATATTAAGTGAATGTGCACTGCTGTTTGCTAATAGTTTATTGACAAAAACAGCTGCTTTTGAGCAGTTTGCTACCCCGACAGAGACTGTGGGGAGTCCCTGGTGGCAGCGAGCTACAGGCAGCCAGTACCCCATCAGTGTGGCTGGTTCCATCCTCTCAAGCCTGCCTGCACCCAGACACTGTCGAGTGTGTCTTCAGAAAAACTCCTAAAATTCCCCAAAAGCACAGTGG
0.8307189596077855 CTTTATCACTTTTGTCTAGCATTTTTAGTTATGTCTTTGTGACTGTCTGATTTATTCCCCAGCAAAGTTACCTTTTCTTCAAGGTTCATTTTTCAGAATTCTTGGTTTCTCTATTCCACATGTACATGCCCGACAAATACTTATTTATTAAATAAATACTTAGTTATTTAAGATTCCATGTCCTAAATACACTTCCAGAACACACAAACCTCACTACCATTATGCAATTTATCTTCTGCAAATCATTATTTTTCTATGGTAGCTTGCATGCTGAAAGCAAAGTGCATCCACATTCCCAATGATCACAAGTGTCCCACTATACTCTGGGAACCAAAATTCCAAGAATACTTCCAGGTTCCAAATTTACCCCTCCTGTAATGGAAAATCTCTCCTGCTGAGGTGGTAGTTTCTGATTGCCCAATATTGTGTTCCCTTTCCAGGGCTGCAGGAGCCCAAACACTCTTTTGAAAACCTCTCTCCCTACTAGAAACACAGGCTGTTCATTTAGCAATTATAGCTGTCAGCACAGCAAGCTGGCAGGAGAGAGAACAGCATCTGTTTCTGGGCAGCGAGCCCTTGGCAGAGCCAGGAGTTGAGGGCCTGGGGAAACAGGTAGGACAGTGGCTCTAATTTGTCACTTCCCCAGCACTTGTGTATTTGCATCTTGTATCCTGAAAAGTGATACATGTATTAATTTCACCTATATGCTGGGGAGGAAAATTAGAAAATATGGGAAGTAGATAAGAACAGGAATGGTCTGTGGGTCTCCAAGGTCTTGTACATAGTGATACTGCCTCATCCATTCATCTCTTCATTCAACACCCACCTACTGACTATCTTTTCTATATCTGCTGCTGAGCTTGGTGCTGTGGACCCACTGGTGAATGTGACATGGTTCTTGTCCTTGAAGGGCACACAGAGAGTGGAAAAAACTAAAGTATAAATGAGAACTACAAAGGGTTTCAGACTGTATGGGGCATGGGGAGCCCATACAAACAGGAATGGAATAAACTGTGGGTCTCCAGTTTCCACCTGCCCTTTTGTTCTTAGGAGCGATATTTCCTAACCATTTGCCATGTGAATTCCTTCCAAGCTGCTGCTTTAAGGTTTTCCATTATCTAACCAGAAGCCTGAAATTCCTCAAATTTTTATGGCACATGCTATTTGTCCATAGCTATTTAGGTGTTATCACCTGAATACATAGTGTAAATCTTGCATCCTGAGATAAGTTCCTAATGATTGTGGTAAGTGTCCTGTACTTTTACATAATAGCTAATTATA
0.562505877629795 AAATAGCCACCATGGGGAAAAACTCCGAACATGCCAGGATGTTCTCACGCTAGCTGGACTATTAAGTACTGTTTTTATCTTTCGTTTGCTGTCAGGTGGTGACAGCCAGCATCTTTTCAGTCTTTGGGGCTTTTAAAGATTTCAATCCAGCCCTGCTGGAGGCATATTTTAATTCGTTTCTTCTGCAGGGGCTTTTTGCACTTTAGCTCCTGGAATTCAAGTCTTAAGCCATTACATCCCATATTGTAAGGGAGAAAGGGAAAGGCTTCTCTACATGTTTGTCTTATAAAACTCTTCAGCGGATCACATAAGTATGCATGCTAATATCAGTAGCTTACAGAGTTAATCTAGTAATGTATTAATATTTAGGACAGAGCCTGGCACAGGAAAGTGTCACATAAGTGCCCACCATGATCTCCAATGGAAGCAAGTAGCACAGCGGGTTAACTTGCCTTGGGGTGTAAGGCCCCTTTAAAGAGGGCGGTGAAGTCAGCCACCTCTTGATAGAACAAAGGCATACCAGGCCCTGCCAGCCCAAAGCCGGGTGGCTGATGGCTTTTGTCACCAAGTGATAGCCTATCTCCTCGTGTCAGGGCCCCCAGGCGTCAGTGAGAGCCACCAAGTGGGGAGGGTGGCTTCTCTTGGGAGTCAGATTCAGGTGGACCAGGCCTGTGCCCAGCAAAGATGGGTGAGCCACATAACGGGGCACCCCCTGTGTACACAGCACCACTGGGACAAGCAGCATCAGCTCCCCGTGCCTCAGTTTCCTCATATGTGAAATGGGAACATGTAATAGAGGTCCTTCAAAAAGTTATCATGAGGTTTAAATGAGTTAATTACTGCTTCTAAAGTTCTAGAATACTGCTGGGCATGGTGATGTTCAGTGAATGCCAGCTCTTATTCCAGAGAACTGGCTAGGCACCCATGTCAGTGGAAATGGAGGTAAAAGAAATAACGTGTTCCAGCTGGGCGTGGTGGCTCACGCCTGTAATCCCAGCACTTTGGGAGGCCAAGGCGGGCAGA
0.3257180476282492 GCTGGGATTACAGACATGAGCCAACTGCGCCCAGCCCAGACACCTTTTGAAGGCAGACACCGAGTCTCTCACCCGTGTACAGAGAAGGCAGTCAGTCAACATTTATCAGGTTAAACTGAATTCAGTTCTCACAGTTACTAAGCATCCTTATTTTCCTACTTCAGAGAACAGAGGAAAGATGGCCACTTAGGCTGTCAACAGACTGAAGTGACAGTGACAAAGGAGGGGTGCTGGAAGGCTGACCCAGCTGAGAATACTCCCTAGAGAAGATGTGGCAAGCCTCAGGAGGTCTGGCCACTCTTGGAGTGCTTAACCTGAAGCCTGAGAGCAGCACTGAGGGTGGGGGAGGCTGCCCCCTCTTAAAGCTGCCTTTTCAGAAAGCAAAGTGATGCAGCGGTGTGAGCACACTCTGAGGGCCTGTCACAGGAGCTAGCTGGTTAATGGCCAAGTGGTCAGTTCACTGGAAGCCTTCTTTTCCTGCCTGTGGCTACAAGATTAGGGGCTTGGAAGACCCAGAGGAAGGTCTAATGAGGAGAAAAAAGGAAAGAGATCAATTCAGATCTCCTTCATTCCTTTGGACCGTATACAAAACCCCAGAATAAAACCAGAAACAAACATAAACCATAACCTATTCATTTCTGTATCCCTGAAAGTTTTGACAAAGCTTTGAATCATCAAATTTCAGACCAATAAACCATTGCTGATTTAAACTATGGGCTCTGGGATGCCTTTGGATAGAAGGGAGCTTCTGTCAGCTCCTGCTTATGCCCCAGACCAGACTTCCTATTCCCAGTGACAGGGTCCCCAGGGAGCTGCTGTCCACACAGAATCTGGCCAGAGCCCAGCTACCAGGCTCTGACGTCTTCAAAGAACACACACCTCCAGTTTCTCCTGTCCCCACTCCCATCCCCACCCCAATCAGTTCACTTTCTTCAGTGGAAAGTGCATATGGTTAGACTATTGCTGGGGCATGGGGAGGGGGGCTGGAGAGGCATGACCACACTGAGGTGACTCTGCCAGGATGACTCCATTTCCGCTCCTGAAAACAATTTCAAGGGAAAGGCTCAGGGATGGCA
0.5383233170725484 ACAAATCACAAAGACAAAAACGAAATCCCTTCAATGCCCATTTCCTGAATCAACTGCATCCCCCAGGAACTGCTTTGGGATTTTACTTATTATTTGGGATTATTTGTGCTCATTTCCCCTGTACCAAAAGTCAGAATCAAGTTAGCTGCGCTGTGTCTCTGTCACAAATGTCTGCTTGTATAAATAGGAGGGGGTACAAGCATGTGTCCACACACGCACACACGCCTCTCTCCGGATAAAGAGGTCTCGGGGTGAGGATTCTGGAACCCGTCCTTCCACACCTACTGCGTCTGGTCACTGTCTCCGAGGCTGACATTCCTCACGCCGAGGGATGGGCAGGCAGAAGGCTGCAGGCAGTGCGCCAGCCAGGTCAGCTTACAGCGAGCTGTCAACCCAGTCACTGACGCCTCAGCGAGGCCATAAATAACAGCGGTGAAGCTGCAGCAGGCCACCCGGGCCTCCCCCAAACCACTCCTCTGCCATCAATCTCGCCTGATGACTGCTTGGCGTTCAGGCTTCCGCGTGACCCGACCACGGCCCCAAGCGTTCTTTGGGGCGCAGTGTCCCTTCCCAGGCACGGAGTGGGTCAGCCAGGAGCACACTGCC
0.6402797549970034 CCTCCACAATCTATCAGTAGGTTACATTAAAAAAGAGAAAGAGAAAAAAATTAAACTGGTTGATAGTAGCATGAACTAAAAGGGCAAAGATATCAGCAGCTAACTCCCTGCAGCACGGTAAGAGCACTAGCTGTGTTCTGCAAAAGAAGAGAGCTGTTTTGTGGCCTTGGAGTCAGCTGCCACTCTCTTACCCACACAGGCCAGGGGTTGAGTATTCCATATGGTGTCTGCTGAGCTGATAGAAAGTCATGAGACCCGAGATCCTCTTTCAACAGCCTGTTGTGACAGTGATGGAATTGCATGCCAACCAGAAATGCCTATGTTCTGACAGCGTTCTCTTTCAACATATGTCCCTGTGCATCCAGTTGGAAGGCAGATGCCTAAGCTTGATTACTCTACACTGAGAAAGGAAAGAGCTTATCATCTACTGACTGAAATTCACAGGGGATCAAATATTGCCAAGAACCGATACCCAATCAAGATGAAGCAGAATGAACCAGGGACTGTCAGCAGTTAGAAACTATCAACTGCTAAATGATGAGTTAATGGGTGCAGCACACCAACATGGCACATGTATACACATGTAACAAACCTGCACATTGTACACATGTACCCTAAAACTTAAAGTATAATAAAATAAAAGAAACTATCAACTGCTACCCATAAATTAAAAGGAATTTTTGCCTCCTTAGCATGTGATTTATTTAGAAGAAGCTTTTAGTGCTAACTTTTGAATGAAGCCAATAAGCACGTTGTTGAAATGATCCACTTTAGTGCTGAGCTCAGTTCAGGAACCAATGTGGAGTTCCAAGAAGCTTTCAGATGAACTC
0.6928791023044074 ATTTTTTCATTGTCACCAAGTATTACTGTGGAGCCAGCCTTGTATTAGGTCACTGAGTCATAAGTTAGAAAATGGAGAACCGCGGGGACAATTTGGCATCAACCACTAGCGAGGGACCCATGGACAGACCTGAATCACAGGAAAGCCAAGGTCACACTGCTAGTATACAGCTCCTGGTCAGTCCAGGGCCCTCTCCACTCTGCCGCTGGCCAAGACCCCGACTCAGAGTGAGCTTAGAGCTGCTTTCCAGCCAGCCCCAGTTGTTGATGCTCACAAAACCCACAGACAGATGCCTTTAAGGGAGAGGCGGCAGGCAGGCCATGGCTTGGGCAGGAAGCCCACCTTGGCGAGTCAAAAGGGCTGCCACGGCTCAGGCAGGGAGACTCACCAGCCCTGGAGTGGAGAGGTAGGAGCAGGCCACACTTGGGCCGAGAACCAGTAGCCGCCTTGTGTGTGCCAGTTAATAGCGAGGTGGGGCCACGGCTGGCTCATGCGATGGTTGTTGCTCCGGACTGGGACACTCACACTTTGCGGTCATTGAGGAGCATGCCATTCATCTTCTCGATGGCCTTGTCGGCAGCCTCTTGGGTCTCGAAGTGGACAAAGGCATAACCCTTAGAGCCGTTCTCATCACACACCACCTGTCAAAGACAAGGCGGACCACTTTAGCAGAACTGGCCAGCTCCTGAGACATGAGAACCTCAGGGTATCTTGTGCCTGAGGAGACTCTAGCCCATCCATGGCCAATGGTGGTCAAGTACACCAGTATAATTTTTCTAACACCTAGCACAGCACCAGGTGCCTAGTAAGTGTTCCATTTACAAAGGTAGCCCTACTAAGATGCTTCTATTCCAAATGTTTTATTTTTATCAAAAACAAACAAACAAAAAATACTTAAAATTGGGTGCTGTGGCTCATGCCTGTAATCCCAATGCTTTGGGAGGCCAAAGCAGGAGGATCGTTGGAGCCAGATCGTTGGACAATGGAGACCCTGTCTCTACAAAAAAGAAAAAAATTAAATGAGTGTGGTGGCA
0.742676924300309 TGCCTGATGTGGGCGAAGAAGGGCAGGAGCCCAGGAGCTCCCTGGTGGCTGGTGGGCCGGAGAGAAATGAGTGCAGGAAGGTAAGGACACAGGGGAGCTTGTCTTGGATCTGGAGCTCATTGGGCTGTGGGGCAGTATGGAGAGCCAACCCTGCCCTTCCCGCTACCCCGGAGGCTTCCATTGCCACCACGTGCACCACCTAAGCTTCCTCACCTGAGCTTTTAGAAGGCAGGTCGCCGTGTCACCTGCTTTGCTGTGGCTGCCCCAGGTCATGTTCATGTGGCACGTGAGCCATGGTGTGTTTCCACCTCACTCCAGGGCTGCTCTGGGGCCTGTGGCATCATGGGGTGCCTCCTCCTGAGGGAGAGCAAAGGCCTCCATTTCCCATCTTCCCTGTCCTCAGAGAATACAGTGTTTTTGGCTTCCCAGCAGAATTCCCCTCTGTGTACCTATGTTCCTGCTCTCATAAGTCCCTGGAGGCGTCCATCTCATCAACTCGAGTCAGTTTCTCGTCACTAACTTACCATACAGGCATGCCAGTCCATGAGACCTAGTGGTCAGCCTGAGGCATGTCCCTCCAAATCATCGGGCCGTGGTCAGTCTTGGCTCTGGCCTTTTGAAGATCACTTGACAAAATCTTGTCAAGATTTACAGTAACAAAGACCTAGAAGCAGAGATGTTATTGATTCTGAGGAAATATCAGATTGTGCATTAGCATCAGTGTGTTTGCTTCTGAGGGAGACATTTGATGGGCACATTTTATTTTGATTCAAAATATGATAATGGCATGCACAGTCCCCATGCTTTCTTGCTGGCACCTTTGCATGAATTGCTGCCAACAGAACTCTTCGAAGCAGTGCCTTCCCTGGCTCTGGGACTCCTCCGCCTGCCCCGGCAGACTCAGGAGGATCCCACTTGGTGACTGTTGAGTGCTGACATGTCTCGATAGAAGGTGTGACTGACTGCTGAGCGGGATTTGCTCTCAGTAGTTTAGTTATGAAGTTCTTGTGTGTGAGTCTGTGTGGTGGTTTTAGCTAACAAATACGTACAGCACAGCCAGGTACAGTGGCTCACACCTATAATCCCAGCACTTTGGGAGGCCGAGGCGGGCGGATCACTTGAGGTCAGGAGTTCGAGACCACCCTGGCCAACATGGTG
0.8976825955368994 GAGTCAGAAATGTTCAACGTGAAGCAGAAGAGAGGCTTCTTGAACGTAGTCCGTTCCTTTCCCCACACCACCCTGCATCACAGTTTGACAGACCTGTGTACCACTCCTTCCCTTACATGTAGAAACTGGTTATGGTTTTCGTATATTCAACAGAAAGAGTGTCCTCATGATATTTCTCTGATAAATGCTAGCTATGTATAGAAACCCACAGCTAATCAGCCACTTCTGACAGATCAGTGTGAAAAAAAAAATAGTCAACTAGATTGATGGACCACATTTTTTACTTTTCAGAGGAATGTGACAGTTTTCCCCCTCATTCCTTGGAGCAATGATAAAGAATCCTTCCAATTCTGTATTTGAGCACAAGGAACAAATTTTAGGAGTAATAACTCAATATTAATATAGTAAATTTTGCTGTATAGATTATGAAACATCTTCTTAAAGTCCTATTTTGTATATGGTGTATAAAACATCGATGACATAAATTCCACTCAAAATTCTCTGTGTGCAGAGACATCTGCTGCCTGGCCAATATCTATTCTCACTTCCTCCTTATTAACACAATCTCTGTATTGTTGATAGCAACAATGTGCCCAGCTACATATCCTAGCCACCCTTGTAGATAGGTGTTAAAATTTAAACAATTTTAAGAGGGACTTCAGAGAAGCAGAAAGCATTCCATTGACAGGCCTTTCTTTTTTTCTACATCTCTATTTCTAAAACTCAGATGTGATGGTTGGAGCTGCAATAGACAGACAGACATCTTTAGACCATGACTTGACCTTGAGGATGGAAGCTACAGAATAGGAACGCAGAATAGAAGGATTGAGAAAAACTGAGAGGCTGATGAAATCACAACATCACCATACCAGCCTCTTGACTTCTACATCAAGGGAAAATTAATTCTATTTAGTTTACAAGTATTACTTAGATTTCTGTTACTAGTTGACCCATTTAATCATAACTGATGAGTCCCCCAAAATATAAGTAAAATAAAGAGCTAGAAAATTTTGATTAGGACTATATTTTGAAATTAAAGAGCTACTGA
0.8632376042492044 CACAGTTGTCCTCCCAGTGGACTGGGGAAAGAGGAAGCACCAGGCAGAGAATGGTGCAGGATGAGGTTGGGCAGGGTAGGTGAAGCCAGGTAGAAGCACGACCTTGAGGGATCAGGTAAGGAGTTAGATTCAACCTGGCTTGTTGATGGCTAGCTGCAGGACAACATGTGTGTGTGTGTGTGTGTGTGTGTGTGTGTGTGTGTGTGAAGAGAGAAATCAGAAAAGAAAGAGTCTTAGGTTTTTGGCTGGAGCAACTGGGTGGATTATGGCGGACCCTTTTCCTAGGATTGCTTTAGGGCCACCTTGGTGAGGACTCCCTAGATCTTATGCTTGAATCTCAGTTTCCCCACTTGTCAACTGAGTGGCTCTGAAAAGTTACATCACACCTCTGAGCCTTGGTTTTCTTATCTGTGAAAATGGCATATTACCTTTGAGGTAGGGCCGAGGCAGGGATGACACGAGATGGCCACTGGGAAGCACTCAGTGTGGAATGAAATCCTGATGAAGGTTCCATGCCTGTCAGATTCCTTTCCTTCCTTCCTCTTGCTGTCTTCTCTAGACTCATACCTGTCTTTGCCTGTTTTAACTCAGAGTTTGCTTGTTGCCTCACATTGGGTGTGAGAAGCATGTAACATTTCATCCACACTTCAAGGCAGCTGTTGTCACTCTACTCTCTCCTTCTGTTCGCAGGTCAAATGCATTCTTTCCCCAGTCCTTCCGTCCCCCCAGGCCGTGCCACAGATATCCCCCACATGGATTCTTTTCCTCTTTAGGTGTAAGTTCCTGGTAAAAGCAGAGATGAAGTGTTTGGCTAAGCAAAATGCTGAGAGTAGCTGGCACAGTCTTTCCTTAGATGACCTCTGAAATTCTTTCCAACTTCAGTATGTTAAGCTCCAGCTTGTCCTTGAAGAGCCCAAAGGCAATAATGGGACAAAGACCAGTCCCCCATGCCTTGTTTCCATGACAGCCATGAATATAACTACAGTTTTCTAACTGCTGGCTTCTGACCCATGCACAGAAGCAAAACCATCTAGAAATAACTTTTTTTCCCTCTTTTTCATTGAAAATTTTAATTATTATTATTA
0.9686618909471923 TTAGAGTAAGAATAACAAACACTGCCTGAAATTTATTATGCAGAGAAAAGCTCTTAGTTGTGATCTCTAGTTTATTCTCATATGACTTATGTTATTACATATACAATAAAAAGGTTGCATTGTAATGTATCCTATGGGATTTTCTGAAAGTCCATATCCTATTTGATTTTTGAACATCAAATGTATGCAATTTTATTAAGTCTAGTTGAAATACTCAAAAAGAATGTACTTCATAGTAACAACTGCATGTGAAAAACTATATTTTATTTGTAAATGGTTTTATTAGCAAACATAAGCTTGTTCATATTCTAGGAAAATTATTTCAGAAAAATTTCTGAACACTTAAATTATGTTTTATCATTCAGATATTCATTGAATCTAACACTTGAATCTATTTACTATTTATAAAATAGAATGTCACTGTTACAAAATATTTAGAAATGTGCCTATTACCTGCATCAGCATGGTTGTTTGTATCTACATCAGGGCATTGATTTAGATAAACTAAAAGTAATCTGAATGTGATTTCAATTTGGAAGAAACAACAAGAGGTATAATATGAAGCTTAGAGGTTATAGTTCTTGAGGCAGAGAAAGTGCATACTGTTGACAGAAACATAACATGGGAATGTGAAGGCAGAGATTAAACAGGAACATGACACGAGCTTTGCTTAGTATGTGTAAACTGATAAAATACAGATGTGTGCCCCCTCCAAAAAGCAAATTAGGTATGGATACAAAATATGCATACATAACATATAATTCTCAAAGGAGGTGGAAATACACATGTGTAATTCACATTTCTGTCAAAACATATTAAGAATAGCACCACTGCTGCTGGTAGAGTTTCCACAGGTCTCAGCAGCCTATGGGGCACTATTAACAGTAATAACTTACATTCCTCTGGCCCTTTTCTTCACTAGCTTATGTGAAACATCGTCCTCCCTTCTGCTCCCTGTTTTTTCTACCTAAATATTTTGAATTTTCTAGACTGTCTCACATGTGGAGCAAGTACACAGAGTGGCCTCCTTTGCCTGAGACTGCCACTTCTGGTGGGTGCTGTCACTCTGTGCACTCACTGGGAAGTGAGTTCACTGGGAATTGCCCTCTGAAGTCTCTGCGGTCGCGGTCTCCTGGACATGCTATTTCTTTCACTGAACAGCACCTCATTCATGGTCTCCCAGACAGCAACCCAGGTGCATGAGAAATAGCCATAAGCTCTTCTTAGGTGGAACAAAATAGGAGAGTGCTTTATTAATTCTTCAGCATGGGAGTATGTTTAAAAACTATCAAAACTTTGTAATTTGGTGCTGAGATGTAGCATTTTGTTGACACAATTTTCTCTTTTTGCTGACAGTCTTCCCTTTCCCTTGGATTTAGAGGAGAGAGGCTCAAATGACTGATCTATTCCAACATATTTTCTCTACTTTGTGACAACCAAGGCTTTATTATTCAGACAACTTTCTTTTCTG
1 AATTATCATTTTCAACTTTTCTCCACCTAAAAGTTTATTTCTTCCACTTATTATCATTGTAGTCATGAACACAAAGACATATGTATACATATATGTATACACACACACACACACACACACACACACACACACACACACACAGAGCTTATGAATTTTATCTTCCTATTTGTGCTGCCTTCAATTACTTTTAAAACACATTTTATTTCTTTCCATAAGTTGTACACTCACATTTGTGACCTAGATGCCAGACTCTGTGGCTACTACAAAGAAGGTCAGGAACTTTAAGTGCTCCTGTCCGCTGTCAATATCACAGCTGCCCAACACCATGAAGTTAGTGACAGAAATGGAGGGCTGGAATCCAGCCACGGCAAACATGCACACATGAGAAAGTCCACCCTTCAATCAGGGAAAAAAATGGCCTCCAGTGACTTTCTGCCTTCAAAAACTTGTAGGACTATATTAAACTATGGAATTTAAATTCATTCAGACTATAATGGCAAGCCAGACATGGCCATGTAATTTTATCATTCCAATCCCTAAAAAGGGATGGGGACAGGAATGGCAGAAATTGATTCTCATTGTCAATAACAAGAATCCACGATTCCCTTTAAGGATGTTCTCAATATCCTTAAACCTTTTCTACTAATTATTAAAACCCATGATTTTGTTATTGCAAAAAATATCGTGATAACTTTCAGTTTTTGGTGATTAAGAATAAAGTTTCTTTTAGGAAGTCAATTCCACTCCTGACTTTTTAATACTATAAAAAGATCTAAGCAAGTAAGCAAATATGTACGCAAGTATTTTGCGCTGCTGTTTATAATAGTAAAGTACTGAAAAATCCCAAAAATTCATCAATTCAGAATTGGTTAAATAAACTCATGGTACAGCTATGAGTACATGATACAGCTATTCTTCATTCAAAAGAATGAAAAATTCTATATATTGCCAATG
0.779441855149405 TGTGCCCGGCAATCAATTTCTAATCACTTGATCCATGTCTCCCTCACCAGGCTGAGTCATGGGGACAATGGCAAAGGCTGCCCACTGCCATCCTTCTCTTCTTTCTTACTAGGAGGACCTGGTTTTGCTCCAGGTGGCTACATGCACAGCTATAAACTCAACCTGCAACATCCATTGCAGCTGGGGTGGCCATGCAGTCCTATTCCAGCTGATGAAGTATACACAGAAGTCACTGGAGACACTGGAGAGTGTCAGGAAAGTCTGGCTTCCCAGTATATCTCATCCTTCCTTCTAGTGAGTTTCTTCTACTTCCTGCCAGAAATGCAGGTATTCTTCTCTCCTCCCTGAAGGTACAGCAGCCATTATATGACCATGAGGACAGAAGCCACACATTCAGGCAAAAGAGAGGAATCTGGAATATGGCAACATCTTGGAACTTTGCTCCAGCTCTTTTTGTAATATGCAACAAATAAATTCCTGTCTGGTGAAACCAGTGTATCAGGCTCCTGCCACACACTGCAAAACGCATTCCTAAGTGATGAGAGCACAGCCGACAACGCTTGTTTCTCACCACTCACCTGACACCACCAAGTGCTAAATAAGCATTCTTTGAATGAATGCTTTTCATTTCACACCAACTCCATAAAATAGATGTCAAAACTGAGGCCTTGTTCAAGATCAGTCTGTCTAATTTAAAAGCCTGGGTTCTGTTTATTTTTCTTTCCCGCTGTCTTTCTTTTCAAATGGAAGAAAAATCATATAACATAACACTAACCATTAACCATTTAAAGTGTACAATTTAGTGGTTTAGTACCTTCATAATAAAATATTGTGGAAACATCACCTCTATCTAGTTCTAACACATTTTTACCAATTCCAAAAGGAAACCTGTACCCCTCAAGCAATCACTTCCCATTGTTCCTTCCTTCAGCCTTGGCAAGCACTAATCTAATTTGTCTCTACAGGTTTGGCTCATCTGCACATTTTATATCAGTGAAATCATACAGTGTGTTCCTTTATTTTACTTTTTTAATATTTATTTATTTATTTATT
0.9880027090613422 ATTACAGGTGTGAGCCACAGTGCCCAACCAAGAGCTTGTTAATGAAGTGTTAGTAGTGTGGATCCCATGGCTTCTCATTCTGGTAGCTGCATTGTAAATCACCTTCTCTCAGCACAAGGAACACTACAGATGACCATTCTTGATGATGAACATGCCCGAAACATACCGTAACACAAGCACAGAGCATGAGCTCAATAACTCACAGCCATGGAGCAGTGTTTTGGCTTCTGAATGGAAAAAATGACATGTACACAACTCTGATACTTCCTTAAAGAGGCTTAGTAAAATCATCACACTTGCCCAGCCAGGGAGCTCCCCATTCTATGTCTTTGGCTTTGACATGGCCTTTGAAATGAGTCCATGCGAGGTTGAAGGCATCTGTCTAGATGTTCAGGTCTCCATACTCACACCTGTTAACCTGGCAGTAAAATAATCAAAGGAACTCTGTGGCCTGGAAAGCAATCCATCTCATTGATAAATCAAACCTTTTGTATGAATCTTGATAAAACTGTGTGGCCAAAAGTGATTGAATTTAAAAATTTTGAATTTTCATGAATTGTTTTGATCTTAGACATAGATCACACCTGTTAGTGATTGTGCATGAAATAAACTACCAGGATTATGTGGGAATCATAGCCTTGGCACCATGGTGGTAATCAAAATGAGGCAGACGCTTGGATGCAGGTCAACTTCATCAGAACAATAGGTGCTGTCAACCAGACAGAGATACTGTAAGGAGTAGCCTCAGACATGCTACAAGCCGAGGTCAGGAGACGCACCTCCTCCCCGTCGGAGTCTAGGGTAGGCATATCTACACCAAGCCTCTGCTTCCATCCAATTCACAGAAGCTGCATGAATGGTAAGAAGATCTCTTTAAGTTCTGCTTCAATATTTATCCCTTTCACTTGTACTGCTGTCACCACTACAAGCTGGAAGCAGAGAACTCCCAGGCCCAGAGAGGCCCATGGGGACACTGAGAGCTGCTGATTTTCTTTTCCCTTTGGCCATTTTATGAGGGAGACACCACGCACATTCTAACAGATTCATGCACAAGGGGTTATAGTATGCTCTATATTCTTGGCCTTGAAAATTTTTTTTTTAAGTTTGTAAAGGTAATTATGATTGTTTACAGTACTGAGGGCAAAGCCCCACCCTGGGCTCCAGGCCAGGGGCTCTGGGAGTTGAGTGTAGTGGGGTGAGCCAAGTCCAAGACAAAAGCACAATTATGCTCACCTAAAAACCCACACTGGTGGTAGGGGGATGAAGGAAACACCTACACAAATGGGAGGTGTGTGGAGGGAGGGGCTTCCTTTGAAGTTTTGCATAAATCGTATTAATTTTTTTCCTATAGAGCTGGGAATGAAGATTCTTGGTTTTCATCCTGTATCTCTTATTGAGTA
0.6327586344908849 TTTGCACCCCTTGTATTCAGTAGGAATAAAATCCAATTCAAAGTGGGGGAACAGAACGACATCCTAGAAAGTCTATCAATTAAACAACGAAAGAATGGTAAGGAGCAAGAGACAGAGTCAAACAGATCTGATTGATTTTAAATATTTGCATAACCTCAAATTGTTTTACCCCTGAACTTCTATTTTTTCACCAATAAAAATGGTTAGTCTAAGGCCTGAGAACTAAAGAAAGTAATATATTTCAAGGGCTTGGAACAGTACACTTAGTGCTTGAAAGCATGGGTTCTGTACTTGTCTGCTCCAAATTCCTACTCTACCCTCTTCATAGCTGTGAACCTTGAACAAGTTTCTTAACCTTGCTAAACTTCAAGTGCTTAATCTGTAAAATGGTGATTAGAATAAGACAAAGTTCATGGAACTTTCTTGTGGATTAAAGATAACTTATGTTAAGCTTTTAGCACAGTGACTAAAACCTTCGGCTATGTCTCCCAGCCTAAACTCTTTCATTTACTTCTAGTTACACCTTATAAGGTAGGTATTCTCCCATTTAATAGAGGACGAAACTGAGGCTGACTAGCTTGCACGACTAACAAGTGGTGGGTTTGAACTCAAGCTTAACAAGGCTCAAAAAAACCAAAGCTTTTCACTATGGTTGCTGGCCAGAAGTTTGGGGTGTTTGCCGAGGGGGGTGGGTGTTGCTAGAAATTCAACGCATTAGTTTATCAAGCAGCCTGTTCCTTTACAGATCCAAAATCATGGGCATGTCAGTCCTTCCCATCTTTCATTAGCAACGTCACTCTATTTAGCAGAAATGATTCAATTTCTCTCCTGCAGCTGCTACCTTCCTCTGTGTTCTTATGTGGTGCATTCTTTCCCTAATTCTATATTTCTTTGGTCATTTCAACTGGAGTTTTGCAGGGAGGAGAGTTAAAAGAGTCATCTTGCCATCTCCAAATTGAATGCAGTTAAAAAAAAAAATGCCGTAAATGGGGATAATCAAGTGAAGTGTAGGTCGTATAGTTATTCCCACGCTGCCTCGTGGCTGTCCAGGAGCTGGAGCTTGTCTGGGGACAGATCTGTCAGTAAAGAATGTGCTGTAGAAGGATTCCATCTCCCTGTAAAAGTCATGTGTGACATTACCTCTCACTAGAAACTTCCCAGCAAGGCCTCCAAGCACAGACTGTTCACCCTTGCCTCCTCCAAGCAAATGTAAGATCTTGTGGGATAGGGCATTTGCATGGATCTGGCAGAGTCCAAATTCAAACGCCTGGAGCAAAATGAGCAGCAACCCCGTTCCATCTCCTGAACATGCTGTGTTCTCTGCCACCATAACAAGAGTGGCTGCCCGCACTATTCACAATAGCAAAGACTTGGAACCAACCCAAATGTCCAACAATGATAGACTG
0.9542333629423984 TCCTGACCAGAAAGAAAAGTTTGTGGCTGGCACACAACTTTTGGCAAAGACAAGTGTCTCACCTATAAAACATGTTGGCAGCTGCCCACAGGGGCTCCTCCTTTCTCTGGAGTTTTCATCTCCCTCCCTCACTTCACTTCATCTCAATGTGAACAGTGGCTAAGGTAAACATGGCTCAGGTCTCTTAGGAAGAAAAGTATTACATAAGTGCAAAGAAGAATTACTGCCCCAACTTCGGAAGCCTCCCAAACACATTATAAACTCTTCCTTATGCTATTGTAAATATTAAGGTTTGCATTAAACATTCAGGAGAGCAGCTCTGGGTATATAATTAGGGAGAGCAAATATTTGTTCAAATAAGCCTCAACGGGACCTCCTCCTTTCAACTAGCTAAAAAAAAAAAAAAAAAAAAAAAAATGTTCAAGCAGATGGATATAGGATACGAAGGCTTGGCCCAACATCTTCTCCTAGTCCTGATTACTCCACTCCTCAGAGACCCATGAATCTTCTTAACAAAGAAGAGTCTTCCAGGCCTCATACATTAGCCAGGCATTTTCTCCCAGGCCTTCCAAGCTTCCAGCTCCCTGCAGGGCCTCAGCTGACACTCTTCACAGGCACCTACTTTGCAAGGCCCTTGGTCTCCCGACAAGACAAGCAACACAAGCCAGATAACCACTCAAAGGGAGGCAGTGGAGATGGCTCTCATTCCCTGCCAGGAGGATCGCCATAACAAGGTGGCTGGAAGAACCTTCCGTGGCATGGGAACAGACAGCTGTAGACCCTGTATCTAAGTCTCTTCTTCCCGGAATTCTTATTCCACAGTGGTGACAGTGTCAAGCAGAAAAACACCACTTTTCACTACTTTACTGTCATCTTATAAATCTCAATATTTCAGCTTCACAGACAGCATCTTAGCTGATTTCACTTCATGTGCAAAAAACTCTTCCTTCCAACCAGAGGGACATATGAGTTCAGAACCCAAATTACATTCATTCTTTGAGAGGCAGATGTTTTCTGCAGATAACTTGTTGAACAATTTTTAAAAAGAAAGAGAGAGAAAAAGAAAGGGGAGGAGACATTTCTCCATTTTTACATTTCTTTCTTTTTCCTTCCTTTAGTAACTCATATGATTAAATGAACAGGGAGCTGTGATCTGCTCTATTTCATCTCCTGCTGGCTGATCAAGTTTTAAAAAAAAAGGAGAAATATGTATGCATTCATACTC
0.5169460453523885 TGGTGATGTAGAAAGATGCTGGAGTGAAGAAGAGGATGTTTCCAAGAAGTCAGTAGAGCTGGTGGCTGAGGACAGCATTGGGTGCTGCGGGGGCACTGTGAGAACTACCACTTATTCACCTATGTGTGTGTGCCTTCCCCACAAGAGAGGAAGACCTGCAAAACCAATCAACTCTGGTTCAAGTGAAGTGCCCCTGGCAGAGCCGGAAAGGTGTTACAGGGTTTGTTTGTGTGGATGGAAGAGGCTGACCTGTCCCGCAGCCTGAAAACAGGAGGTGGGAGGGGGTGGGCAATGGAGCCCTCTCTCTGCATGGAGACACTTCAACGAAGATAAGGGAAAGCTTATCAGGCAGCATTCACGGTGTCAACAGCAGACAAGAAATGTTTCTAACACTTCAGCCTTGCCAACACTCCCTATTTATCTCAAGAAACACAAGTGTTTTTCTTTCTTTCTTTTTTTTGTTTCCGTTCTCTCCTGCTATAAAATGCTCAGAGTCTCACAGTGCAAGATGAAGGGTTGACACGCGGTGAAAACTCATTTTTAGATTCCATCAAGTTCCATCAGTCGCACTCCCCTTGCAGCAGAACCCAGCAGACCAGTGGGCAGAGCCAGCAGGCAGGGGGTGGAGGAGGCGG
0.6405621112320244 GAAGCCTTATGGATGGGAAAGCTAGGTCTTAGAGAGATTAAGAAACTTATCTGGTCACCAGCTTATAGGTAGGTGGTAGAGCCTGAGGACTGTGCTTTCTTCTCCTGGACAGAAAGTGCTGCCTGAGCCCTCCCCTGTACCCAGCCTGTCAGGGAGGCCTCCCTGGGTGGTTTCTGAGCTGGCTGCTTTGCAGGGCTAGAAGGCCCATCCCTCCTCACCTGCCTGTGTCTGTGGGAGGCTCTTGGCAAGGGTGCTGTGTCAGGCGGCCCAAGTGCTTTCAGCACTTGGGGGTGGCAGGCTAATTTACTGGCCTGCTGAGCAGCTGGTGGATGACTGGGGATTGTCTGAAGTCTGCCTAGAACCATGGCCTGGGGCAGGGCTCCTTCCAGCAACTTCCCTGGAGAGCTGGCTGCAAGGCAGGGCCAAACCAGCCATCATGATAGTGTGAAGGGCATTTTCTGTCAAAAGAGGATGTTGGACAAGAGTTGGAAAGACTTGAGTTCTGATCCTGGCTTTGCCACTAGCTAGTTGTATAAAACTGAGCAAGTTACTGAGCATTCCTGGTTCCCACTGCTTACAAAATGGGAGCAGTAATCATGCTTACCTCCCAAACTTGTTGGGAAAATATATGCAATGTGATTAGCCCAGGTGCAAAAATAAATGTTAGATATTTTATGTTTATTATGATTTATTATTAGCTACAGCCCCCCTCATCTGTAAAATGAGAGGTTTCATTCAGTAACCACAGGCCTGGCACTATTGAGCAGTAGGTGCTCAATAAATGTTAATTCCCTTCCTAGTCCCTTAT
0.793778175656913 TGGGATCACAGGTGTGAGTCACCACACCCAGCCTGGATGCATATTTTTACAAACTTCTTTCATATAATTGTTTATGTTAGATATTCCAGTGTAATATTGATTGTATAATATTTATGGTGATAATTATAGTCAATATTTATTGGCCACTCGCTTTGGATAGGCACCATGCTTATTTCTAAATGTGCATCATTTCATGCAGTTTTCACCACGACTCCATAAGGTTTAGATTGGATTCCCCTTGGAGAAGAGCTTTGGATGCAAAAAGATGATTTGAAAAGTGATAAGAAGAATTACAAGTGAAACAAGAAAAAGAAGGGAAAAGTGTAATAATGAGCATAATACCGCTGTGAGCGACTGGGGCTCAAATCCTTCGAGGACCCTCTGTAAGACTGTTTGAAACACAAGTCACACCTCCTCCATTAAGACAGGGGGTCTCCCTGCTGAAAGTCCAGCTCTTGTTGATTGATGGTGTTCTCAAGGCACTGATTCCTGCACTTCTGCCTGCCTAGAGAGAGGGCAAGCATGGCCTGTGGCCAGAGAATACTTTCAGGCAGAGTAATACAGGAAGAGGGGTCAGGATGGGGGGGCATTCAGAGAGACTGATGCAATACAAGCAGGCTGTCAACAGCATCTGGTGCAACTGTTATTTTTGTTCTTTTATAAATTAAGAAAATGCCTAATGGCACATGAGCAGCTAGTGGAGGAGCCCAGTTTTGAAGCCAGGCAGTCTGGCCCCAGAGTCTACACTGTATCTTGAAATGAAGATGTAGTCAAAATTTCATTAGGATCTCTAACAGGGTTGTAAATGCCTCACTTTGCAAGAGTTATAAGAATTTAAGCTTGTACTCATAATACCATTTTGGAAGGTTAAATGTCATTCTAAAATATTGAGTTTTAATCTTGGAGGTTTCATTCCCTCTGAAATACTTGCTGCAGGATTCTGACAGGTGAAAGCTTATTTTTTTTTTCTATCTCAGAAATACTCTTTTTTGAATCCAAGAAGACAATGCAAATCTTTATTCATCATTCATTAATTCCTCTTCTTTAAACCTCCTTTATTCACGGAACCTTATATGAACATTGTTCTACTCCAGTAAATACATACCCAGAGTATCATTTTTATTGGCTGTCATGCATATTTAGACTATTCTCAAGTTTCCTGTTACATAATTCCTATACTTTTGCATATGACTATTTGAGAGAAATATTACAGGAAAGCACTTCTATGAAGGGAAAAGACGTGAAAACAGATGTGACATTTACTTTCT
0.9033486957081607 GACCACAGGTGTCTAAAATGGAGAATTTCTGTTTAGAGGTCCGGTAAGGACTCTCTTCTGGAGTCTCACTCAGAGGAGTCACTATTAGATGCTTCTTCACAGAATGCATGTAGAATTTTTGTTAGGATTGTAGGAGAAATCCCTTAATTTTTTTTTTTTTTTAGTAACCCTTATTTTACTTAAATCCTTTAATTCTTGATTCTAAGACAGACAAATGAAAGGTGGGGCTGAAATGATAGTGGCCAACTCTTTGGACGTAAGCAATGCAATCAGCATGAACTACCTGAGGAGAAGGCACCCATCACTAGGGCCTTCCTTACCTATGCTGAAGTATATGCCTCTTTACGCATGGAACTGTGCCTGGGCTAAGATTTCAGCTTGTCAAAACCAAGGAGGAGAGGCATGTCTAATACCCTGTGTCAAAAAGAGCACAAGCTATACCAGAAACACACACCAGAAACACCAGGGCTCTTGAATTCTGCTGTCAGCACTCACAGCACACTTAGCAACTATGTTTCAGTCTCTGGAGAAACAGGAGTCAGGAAATACTGTAGTCCCGCAGGTGTGCCTCAGGCCAGAGCCCAGCCTAATTCCATCTGCGATGGCCTCAGCTGTCTGCACTGTGAGGAGGAGCCAAGCTTCCCAGTCTGGTTCTATCCTCGTACATGTTGAAAATTGGCTTCAGGTAAGAGATGTCAGGTTTTGTGTTGTTTACTACCAAAACCTTCTCTTCAAGCTCAAATGGACTTTTTTTTTTTTTTCTGGGAGAAGTCTCGCTCTTGTGCCCCAGGCTTGAGTACAATGGCTCGATCTCGGCTCACTGCAATCTCGGCCTCCCGGGTTCAAACGATTCTC
1 CAAGGCCCTGTCTCTACAAAAGGAAAAGAAAGTGTGAACCACCTAAAACTCACCCCAAATTTCACAGGTATGTGAGCATATGTGAATTTTTTGTAGACAGTTTGTTGTTTTATCAGAGGCTAACAGAAGTATGGGACTCCTAAAAAGTTTAAGAACCACTAGTTAGACAAAGCATTTAAGCTGCTCCTGGTAATCTGTAGTCATGGAGAGTTATGCAGGGATGGAGTAGGGCAATGCCCTTGAAAGCTATCTGGATGTACAAGGCTTTCCTGTCCCTACGTCAAGTAACACTTAGTAAGCACTTACTAAATGCAGAGCTCTACATGGATTATCTCATTAAATCCCTCAACACTCATTGAAGAAAGAACGATAACATGAAGTCCATTATGCCCATTACAGACAGAGATAGTAATTAGGTCGAGGTCACATAGCTACCAAGGAGTGAGGCCAGATACCTATCTGGCTATGCTGGCTCCAAGCTGGCTCTCTATTATTGTGAGAAGTGGATTGAAACAAAAAGTAAATGGACTCTGACTGAGGATTCCTCTAAGAAGAGCATGTTA
0.7531273781143666 ATAAATTGAACTCAGGAGTCTGTAAGAAATTTCCAAAGGGTCATCTAAGTCATTGCTTGGCTTCAAAAAGGATTTGCAAATCAGCCACCAAATGTCAATAAGTATGCCTGATTGACGTGAAGGTGAAGGACCCCAACATTTCTCCTTGGTGTGACTGTCCTGTTCCAGAGTCGGGCTACCTTGAAAGACTCTTGCCATGTTCTCACATCACACAGGGATCTCACCTGCTCTTCGACACGTGATACCTTTCTAATGTTAGGTCTCTGGAGAACAGCGGGGTGAACAGCCCCTTGCTTACAATTCCTTTTGTTATGTATAAAGACATTAAAACTCCCACCCACCCCCAAACCAGGCTTCTCCTCTATATGTTAAGTAGTTTCCATTCCTTTAACCGTTCTAAAAAGATCCCATTCACCACCCTTTCATCATTGCCATGGATCACCTCTACAGCCTTTCCCAAATCCCTACCCTTTCCTTGTTTTCCCCCTGGGGCCTGGACAAGTCACTGGCCGTGACTCTTTCATGGACTCTCATTAATACATCCTGAATCATGTGAGGCTTTTAAGAACAGCACTTCACTGCTGACACAAGCATCAGTGTGAAAGGAGAAGCACCAGACAACTCCACTTGACTGAAGATCTGAAAGAGAAAAACGAGCAGGACCACGTTGGCATGTGGGTGCTTGAGCAAGACACAAAAGATATCTCAGGAGTCACTCTCCTGAATGAGAATTTGGACCCAGGGATGTTTGAGGCCTGTCGAATACTTCCAACTCAGAGCAATTCCACCGGCGCTGGGTGTTGCCTTGTAAATGGCAATATCCAAATCAGAGAGGAAATGACAGTGCATTCCAAGCAAAATGGCACACATTTAGACTGACTAAGAAAATAACAATAAAAGTGCAAATTTATTCTGCATGTGTGATCATGATTATCATTACATCAAGTTCCATATATGCCCAGCCAGAATAAATATTAACCCATTTTATAAATGACTTTATACTGCATTTGTGGATACAGCTCCACCCAAACC
1 ACACACATATATATATACACACACATATATATATATATATTTTTAAATATTGGTGAATAATTATGCTACTTAGGTTTTCCCAATAAAATAATTGGTAAAGGAAAACCAAGCTACTGTTATCTAAGACAATTTTCTCATTTAGTTCCAAACTAAAACAAACAGCAATGAAAGGTCATTAGTCTCACAGACTAAAATTGTTTTGATGAAGGCCAGCTTTCCATTCTGTTGACAAGCGTCTCAATTCTTTTCAACAGCTCTAGGTGTTCACACTGGAAGAATGTGGGGCAGCTTTGGGGCAGTCATCAGCCTCAGGGAACCAATGGCTCCTGGTGACAATTTGCAGAGCTGCCACTAGTCAAACTGTTCCTCCTCCCCTATTTTTTTTATCGAGATTGGGAAAATTAATAATGGAAATTTGTTCTTAGTGGCAGATTTGAATACAAACACTGCTTGAATTTCTGCTGCTGTATATTGTTGTTTAGCAATAATGAAGTCTCATCATAATTACGTGTTTCTTCAGAGTAAAGTCAAGGAATTTAAAGGGATCTGCAAAACTTCCAAGATTTCCTCCAAGAAGGCACTGTTTCTTTCTTAGTAGGTCAAATATCATGGCCCAAAATGGAATCAGTAAACAAGAGACATGGAGCAGATGGAACGGAAATGGAACCTCTGAGGATGACCTGACTGTCTCATAACTTCTATGCTGGCTTAAGAGCTGAGGGCTGACCAGC
1 TGTGCCTTGCATTATACTAGGCTGCCTCTCCACGCTGTAGGAGCCTGGAAAGGTAAAGGAAGCTCCAACTGAGAGGGCAGTGACACGACAAGTACAATCCTGTCCCCTCTTCTCCTCCCCCCTCCCCACCACCTCCTGGGCTTCTGAAAGAATCAGTGCAAGAGCCAACATCTCCTTCAACCCATTGACGTCTGTGAGATACCCAGAGACGTTCAACCCAGAGATATCCAGGCTGCTTGCCAAACAAGGAAATCCAAGATAAACGTGCCATTCTGTCATGACCTTATCCTGCTGAGAGACAGACAGAAACAATGGCAGAGAGGAATAGCCTTGCATGTTTTCATGGCACCTTTCAGAAAGAGATGAAATTCACCATCAGTCACACCTCTTGGAGGTTGTACCATTTAGCTGATAAGAAACAGCCAGAGAGGCAGGGAGTATGGACACTCCTGAAGGCAATCCTATGAGGAGCCCCCTGAAACTTCTTGAAGAAGAAAAATAGCACTGTTCCCCTCCCCTTCCAACTCTTCACGCTGACAGGAGTTTCTACGAGGCAGTGTTTGTCAGTAGTATTATTAAAAAAGGAACCAGGCCAGATTAGTGACTCACACCTGTAATCACAACACTTTGAGACGCCAAGGTGAGAGGATTGCTTGAGGCCAGGAGTTCAAGACCAGCCTGGGCAACATAGTGAAATCCTATCTCTACCAAAAGAATTTAAAAATTAGCCAGGCATAGTGGCATG
0.08300580258639752 TGGAGGCAGCGGCGGCCACGGCCAGGCTGGCTCCCCGGCACCAGGCGCTACCTACCGTCTGACAAGTCTGCGTTCTTGGACAGCTGCTCCAGCTCCCAGCCAAGGTGGGCAGATTCGTTCATGCTCTGCTTCTGTGCAATCTCAAGGACCATGTTTTCTTCCAGCAGCTCCTCAATTCGTTTCTTATCTGTGTCCCGGTCCTGGGGCAAGCAAGAAGAGGCAAGAAGTGAGGCTGCACAGCTGGAGATCCCCCTGGACAAGCCTCAGCCCCTGTATAGCTACCGTCATGTGCTGTGGATGAAGATGTACTGGCTCACTTCCAAATAAACAGAGCTGCACAGAAACATCCCAACACAGGGCCCTGCTATGAGAGGGAAAGCCACTCAAAGGTACCCTGACCTGGCTACCTAGGTTATGAAGACAGACCCGGCCGGGGTCCCTAACTGAATGCTGTCTGAACAAAGTGACATACTGCACAGGGCTTTAAAGCAAGTGTGCAGTGATGGGCAGCTCTGTGGCTCTAGCGAAGCCCTAACAGGCCTCTAAAGCTGTTAACAGGCTAACAAATCACAGCTCACCCCACACCATCAACACTGGCAAAGACCCTTCTTCCAAGACACACACACACACTCATTCCTACAGAAAAGCAATACAGAAGTCAAGTGCTCTGTTTGTGGGTGTTAAGTGGCACCCGCTCAAGCCTGCTGATTTTAGCAAGCTACTCCCCGCAGTCAACAAGTCATTCGTGGTAGCAGTGGCAGCAGCAACGGCAGTAGCAGCAACAAACCCAGTAGCTAAACTATCAGAGAAGGGCACGCCATAAACCTGAACCTGCCCCAATCGGTTTTCTTTTCTTTCTTTCTTTTTTTCTGAGACAAGGTCTTGCTCTATC
0.2365536532611496 GAGAGAGGGAGACAGAGGGAGAGAGAGACAGGGAGAGAGGGAGACGGAGAGAGAGAGGGAGAGAGAGACGGAGGGAGACAGCGAGAGAAGACGCGCGGAGCCTTGCGGCAGGAGGTCGAGGAAAGAACAGCCCCTCTCACCTGGCGTCGGTGGCAGCTGAACCCTGGGCCCGACTGTGCGATTTAAGGGGTGCCCTGGGGGTGAGACCGCCCCCCCACCCAACTGCCTTATCTGGCCAGACCCGGCTCTGTGAGCTAAATCGGGCAGCAGCTGTCACCACCAGGGGGTGTGGGACAGCTGTCCCCCTCCCCCCGCACCTGCCCTGCGCCTGCCTCTTGACCACAGCCCCTCCCTCTCCCTTTCTGCAGCCTGGGGGTGTGGAGAGGCCACTGGCATCTGTGCGGGGCGCCCCAGCCCCCTCAGCTCTGGGACAGGCCTGGCCGGGTGCCCTGGGGCAAGCGGTAGCCCTCTGAGTCCTGAGGCGCTCCCCTGGGAAGAGCAGTCCCAGCGGGTGGGGGCACAGGCGCTCTGCACTGTGAGGGGCAGACAGTAAGTGCTTAGTTGATGCAATGACCTGGTCTGTCCTGCCCGCTCTCACCTGCCAGAATATGGGGGTTGGGGCAGGAGGGAGTGGGAGCAGGAGGAGGTCAGCTGGCCCCTCTCCCCCCACCCCCAGCGCCCCCAGCTCCTCCTCCCGGGGCTCCTCACTCCGGACCTTATTTGGCCATAGCCCAGGACGCACCTGGGGGCCACAGCCCCGCCTGCCACTCAGGCCCAAGAATAGCAACACTCAGGCCCCCGCCAGTCTGTCTGGGACCTGCGATGGGACAGGCGACAGGCACAGGGTGGCAGGGAGGGGCCCAGGGGCACTGAGAGAAGGGGAGAGACACAGACAGAGGGGAGAGACAGCGAGCTGAGGAGAGACTGAGAGAGACCGTGGGAGAGACAGAGAGACAGGGTCAAAGAGACAGAGAGGGGTGGAGAGAAATGCCCAGCAAGAGAGATAGAGAAGGGAGGCTGAGACAGGCGAAGCGAGAGAGGGAGACACAGAGACAGAGGGGGTTAGCCAGGGGCCCGGGGCCAGACACCCAGATGGGGCAGAGAGCGAGACCCACACC
0.7942507667518109 ATACAGCCATGGACAGAGGCAGGAAGGGATGCGCTTGGCGTGACCTCGTAGCGCCCTCCCAGGGGGAGCGGGGGGACTCCAGAGCAGGGCACAGAAGGCTTCGGGGCGGCGTTCAGTTGCCTGGCATAGGTGGTGGTGACACCTTGCTTCATTTTATTCTTGTTCTTTAAATTGTGTGTGTTTTCATGAAAAATATTCTGCTTTGAAAATAACAGGTATGTGTAAAGGAAAGAAAGCAAGCCAAGTCTGCCCAAGTAACTTTATTCGTGTCTTCTCAAACATTTCAGATCAAATAATGCCATTTTCTAATCTTGAAACCAGCAAGATTAGAAAGAGAATGAGGCCATCCTTTCACTCAGACTTTCCCAGTTACTCAAGATTGTATTCAGGAACGAAGTCAAACTCGGCCTCACTTCTTAATTAGAATAAACTAGAATCAGGTCCATTGCATAACTGCTAATTGTTTTGCACCAGGGAGCCACAAAGGAAGCTAAAACTAGCCTTTCTAAGTTATCCTAAGTTTTTACTATCTAACCAGCACTTCTGATTTTTTTTCCCTTAAAACTCTAAAGTACAGGTGTTGTATGTCTGCCGCATCTGAAAGGCTGCCCCGGAAATCAGAGCCTATCTAGCGGGAATGTCTGGGCAGTCACCCCCATCCTGCGCGCAGATAGCAAAGGGCTGCTGGCAGGTGTCAGACACACGGTACCGCAACAGCAGTCCCGAGGTCTGAGATTCTGAATGTCAGCAGGTGGCTGGAGAGTATCACCAGAGCCACTCAGGAACCAGCCATGCGGAATGGCTGGGTTTCTTATTGAACATGAAATGCTTCCTCTTTGGCCTGGACTGTTTTGCTAAAATTGTTAGTGGGTTTTGGGGCAGGCCAGTGTATGGGAAACTTTTTTTTTTGTTGGGGGGGGCGATGGAGTCTCCCTCTGTTTGCCCAGGCTGGAGTGCAGTGGC
0.8435395782054225 ATTGCCTGGCCTTAAGTGACCCTCCTGTCTTGGCCTTCCAAAGTGCTGGGATTACAGGCGTGAGCCACCACACCTGGACTTTGATCGATTTTTGGAGGACTTTCAAAGTAAAAATGAAGAAGGTATCTGATCTTTTGATAAGCCCTTAGTCACTAGTAGATATTATATTGCATTTAATTCCTGATGCCCTTCCTCCACCTACTAGTGGTGTCATCTTTCCCACAGGACCTTTTCTTCCTTTTAAGTCTAACCCAACCAGCTGTCCCCTTAATGCTACTTGTCCCTGCCTTCCTCAGCAAATTGTTTCCACATTTATCTCTTCCCTCTCCAACTTCTGCCTCTCCCTTGCCATTGGCTTCTGTCCTATTTGTTCCCAGCTTGCAGGCGCTGGCCCATGTCTGTCTCCAAGTCTTACTCGTTCTTACTTTGAAACATTTCTCACAGCACTAGAGAAAACACAGTGTGGTTGGACAAGACCTTGGGAACATGGGAGCTGGGATCAGAATGTGTCTGTGTTTGGATGTCGGAGTTGGGCAACCTCTTGGCTCGGATATTTTTCTGTTCGTTTTGTTTAATAATCTTTAAAATAAGCATGACAACTAATAACATTTATTGGATATGTTTGTATGCTGGACACTGTCCTAAATCATTTCCATGCATTATTTAAGGATCATGAGACAGCTAGAGGTGTTTGTGAGCATTTCCAGAGAGCATGCCTGTGAAGCTCGCTGAACAATGCCCAGCTCTCAACATGACCCTGTTATATAAGAATAATTCTTTTTCTCTCCATTCCCACTTAGTTCAGGCCCTCAATCATCAACAAGCATCCTCCTTAAAGTTCTCCCTGACTCTCCACCTAATTAATCCTGTCATTTTATTTTTTTCTTTTCATTTATTTATTTTTATTTTCTTTGCCACTTCTGTATCTTCTTTGGAGATAATCCTGTCACTACTTTTAAAAACCTTAAGTGCAACTTAACATATTGCTTCCCTGTTCACGTCTTTCTCATTCGCTGTCACCTCAAACCCAAACTCCTTGGCTTGCTTTTAACACTGTGGAGGACATTCTACTCTCCTCCCTCCCTGCTCCACACCCAGGAAAGATGACTGTGCAGTAAAGCCATGGCTCGCTTGCCCTTGAGTTTCCAATGGGATTCATCTGGTAAGAGGCCTCAGCCAGAGATGGAAGGGTGGGAGGAGAGTGAGGTTGGAGTTTCCATTTTCCCAGCTCCTTTCCTGCCAAGCCACAGGTTGATAGTAACTGCTATTTGTGTGCATATAGAGACCCTCTCTTTGCACATAGAGACCCTCTCTGGGCTTTAAGACCACTGCCTCCCCTGCCCCTTAAGGAGTTGGGCTTCCCTTTTTTTTCTTGTTGAAACAGTGTCTCAGTCTGTCATCCAGGGTGGAGTGCAGTAGTGCAATCACGTCTCACTGCAGCCTCGATCTTTCAGGCACAATTGATCCTCCCA
1 CTTCATTTCTTTTTTATGGCCAAGCAATATGATGTTGTATGAATATACCACATTTTGTTTATCTATTCATCTGTTGATGGATGGGTTGTTTCCTTTTTTTAGCTTGTGAGAGCAATGGTGCTATGAACATATGTGTACAAGTTTTAAATCTCTTGGGTATATACATAGAAATGGAATTGCTGGATCATGTGGGAAGTCTATACTTAGCTTTCTGAGGACTTGTCAAACTCTTTTTCAAAGTGACTGCACAATTTTACACTCTTATCAGTAATGTTTGAAGGTTTCAATGTCTCCACATCTTCACTAACACTTATTGCATTATTGCATGTCACTTTGATTAAAGGCAGTCCTGTGGACATAAGGTGATATCTCATTGCAGTTTTGATTTGTATTTCCCTAGTGACTAATGATATTGAGCATCTTTTCATGTGCTCATAGGCCATTTCTATATCTTCTTTTGAAAAATATCTATAAGACTCCTTTGCCCACTTTTTAATTGGGTCATTTGTCTTTTTATTACGGAATTGCAAGTATTGTTTATATATTTTAGATTCAAGTACTTTATGAGATATATGATTTGCAAATGTTACAAATGTCATTCATTTTGTTGGTTTTATTTTCTTTATAGTATCCTCTGAAGCATAAAACTTTCAATTTTGACGAAGTGTATTTTATCTGTTTGTTTTTCCCTTGGTTGATTGTGCTTTTAGTTAGTGTCATTTTAATAAATCATTTTCTAATGTAAGATCACAAAGATTTGTGCCTCTGTTTTGATTTTGGTTGTTGATCTATTTTGAGGTATTTTTTTCCTCTGATGCGAGAGAGGTTCAACTTTGTTTTTTTGCATATGAATATTCCGTTGTCCTTACACTGTTTATTGAAAAGACTACTCTTTCTCTATTTGAAAGACTTGATATCCTTGTAAAAAATCACTCAACCACAGATGTATCAGTTTATTTCTGGACTATCAATTCTATTCTTTTATCTATATGTCTGTCCTGTGTAGTACCACATTTTATCATGTTTTCAGAGAATGTTAAAAAGTTTTTAACACTGCAAGTGAGATATTCTGGATTTCTATTTACAAAAATCAACTAAAATAATTAGATTATCATAAAAATTGAAAAAGAAGTTGC
0.5035133468394859 TGAGAGCGTTTCTCTTTCGGGGAACCCCTAGGAGGCAGCCCTGGGGTCTCCTTGCAGGTGGTCAGGCCCACAGACACCTGGAGAGGGAGGTATTTCCACATGGCTGTCTCTTGTGCCCGCTGCTCCCAAAGCCCGTTCCCTGCCTGGCTGCGGGCAGGGACCTTCCCCCACAGCCCTGCCCAACCACGATGCAGCACCCCAGGGACACGGGCAGCTGAGGACAGCCGCCCAGATAAGCTCAAGTGTCCACTGAGAGGCTGGCAGGTGGTGACGCTGGGAGTCTCAGTCGGGAGGAGGCCCTGCCCCGGCGCACCTGGCCTGGCTCTGGCTCTTTGGGGCTGCTGTGGCTGTTCAGCCTCACCAGGTGGCCCCGGCTCAGAATAGAGGCCCCCGGCCCTTGGTGGCCCTCTTGCCCACCAGAAAGTGCTGCAAGCCCCCCGCCTCCGGCACAGGCCCCCTGCAGGAGTCCCAAAGGGGCCTGGGATGGGGGCACACAGAGGGCAGGGCCAAGCCCTGGTTTCTGGACTGGCTGGGCCCGGCTGCGTGTGGCCTTAGG
1 GGCAAAATCTAATGTAGCTTTTAGGAATAAAGTTTGGCACAGTGTAAAGAATACAGTCCTGTAGTTGTAGTTTCTTCTGGAGTCAATGAACATGTGTTCATTACCCTTTTTCTACACATGCTTAATAGATATTTATTATTCTGTAAGAAAAGGCTAAGTATAAGACTAAGCTACCAATAAGTAAAGATGGATATAGAAACTTTGGTAGTAGAAGAAAGTGAAGACAAGAGCTGACAGGGAATAAGTAGTTACAGACAAAAGCAGCATCTTCAAACTCAAATTTGATTATCTGCCAAGAATAGTATTGAAAACATTCCTGCATTGCCGTAGACACTGAATTAAATAAATGCTAAGAATTTCACCAAATTGAAGATCTGTTCATTTTCTTGTAAGTGTGCCAAAGGGACGGCAATGAGAAATTAAAACAATGCCCCTCTGAGTATGTCTTGGGAGCTCAGAGTAAAGATCTCTGGAATAAACTCATACGCACCCTATCACTTGAGAGATGAATCTTGCATTACACCAAGAACTGCTTCATCTGTACAAACAGACTTTCTATAGAACTGTAACTGAACACTACAGGCAATGAGCCAACACTTTTAAATTTCATCAAGCTCTAGTGCCAGGTGACAACTGTTTGCTGTGACATGATTTATGCAACACATTTCATCTAGTTATCTCAGAATCAAAGGAATTTTACCAAAGGGTTCTCATTCAGATAAACAGGAAGAATTTCTACCCCAATCACATCTGTGAAAAGTGGAAGACACATGGTAAGTTTCAGGACAAGATCCTACTGATTAAATTCTGAGAATAAAGGACTGGAAAACATAAAATTGGCGCAGTTACTGGGCACTCCTCTATTATGAAGACACTGTTTTACATTTGGATGCAGTGAGCTAACTAAAAAGCGACCCGAATCAAAATAAATTTTATGAATAATAAGTGAAAGTATACATAATACATAACAATACTTATTTATATAACTTTACATTTCCATAGACATACTCATGAGAGTCAGAATTTTTTGTTTTGCTCTTCCCTTTTTGTTCTGTGCTTCAGTAATTTCATGGGGATTCTTTTCCTTCTCAATCTTCTCGTGAATTATCACTTCAGCCCCTAGTTATCTCATCCTACTACATTCTTATCCATTTTACTCAGAATAAGTTATAGTTTGATAGAAGGTAGAATTTAAAAGAGGACATCTTCCACTAATAACTCTAATACAATTTCATTTTGAAAGTATTTTACCTAAAGAAGGTTATCTATGTTATCCATGGATGGTGAGAGTATGGGTGTAGTTCCTTTCTACTTCGTAATGTACGTATTGCTTTTGTAATCGAGGAAAGGGGTTTTAAATAATGATATAGTGACATGATGGAGAAAAAAAAACTTTATTATAACAAATGTTCAACT
0.5088528308231245 GGAAGTGAGTCTGGGTTTCCACTCTGTGGCCTGATGGGGTCAGGGTGATGTGGCCCACACAGCTCCTGTCCATTGAAACCCCGTCCATTGAAAGCCAAGGTGGGACCACCTTCAGTGGGAAGTCACCGCCTGTTCCTTGGGAGAGTCCTGTTTCCCAGGAGGAAGGAAAGCTGCAGCACAAGCCCAGCCAGTCTGTGTGGCCTTCGCAGTGGGCTCCAGAGCTGCAGGGACCCTGCCTGGGTCTCAGGCTCTGCTGAGCTTCTGGCCCAAGCACGGAGGAAGCGAGCCACCTGGGCAGCACTCCTCGCATACCCCAGGAACCTGGAGAAGCCAGATGCTTTCCAAACAGAAAGAGCCAGCAGCTGGGCCAAGCTGAGAGGGAGGTCTCAGGGCCAAACTCCTTTCACTCTCGAATAATCCATTGTTCTCTCTGTCTGGAAACAGTCTATGTGCACCGGCCTCAGTCCCTGGCCATGATGGAATCAGGTGGCCCATCTGAGCCCCTGCCCAAACACCATCCAGTCTTCCTTGTGCCCTCCAGTGATTTGGGTCCTGGGCCCATTCTCTGTGCCTCTGTTTCCTCATCTGCATAATAGAAACAATTTCTCAGTTGATTTCCATTGAAAAAGTTAAAAATCCCATTAGGACCCACCCGAGCACATGGCATATGTTTTCCTTTAAACACGTTGCTGTGATGACACTCAGAAGAGCCTGGGCCACCTGGAAAGCATGGCCTCCTGGCTTCTCTGAATGTCATGCCATTTCCCAGGCCTCGCCTCTGTGTCCTTTCCCTCCCTCACCTCTGACAGTAATTGTGCTGACGAGAGAAGATGGGACCTGCTAGGCCCTGCATGAGGAGTGGCATGGATTAACTCATTTACCCCTTACGGTCCTCTGACAGGTGTCATCAAGTCCGAGTGACTGTCCCCTCTCAGCCTCTCCAGTCCACATGTCTCTCTCCACCCTCCTGCCGCTACCCTGGCACAGTCTGTCGGCGTTTTCCCCTGGCAGCATGCCACAGCCGTCTGGCTGTGTCTGCCTCCTGTCTTCCTCTCGCCAGCCCATTCCCCACATAAAAGTGCAGCTCTGTCCCTTCCCTGCTCAGAGCCCTCTGGACAGAATCCAGCCTGCAGCAAGGCTTACGGGCCCTCCCTGACCTGGCCCTGCATCCTCATTGGACATAGCTTCCATTGCTTCCGTGCCCTCCATCCCTGGAGTATGCCTGGGGCCTCGTACCAGTGCCTGGCTGGCTCCTTTAGGCCTCACTTAGCTGGCT
1 ACAAGATTAATGTCTATTAAAATATGAGTTTTCCTCACCATGGTTAGCATCTCATCATCATGATGAGGATGACCAAAAGTACCTGAAATATGTTGATGTTTTATAGAAAAATGGGGTCAGAAGATAATCTCAAATACTGACCCAATGAGGATTAATTCAAACAGATTTCTAAAACTGTCACATGTCACTGAATGAAACACATGTGATACACTGCCTGGCCCATGACATCTGCAGGTCATATCTGATTAAAGAAAAGCAAGGTCACACATTTCTATATCAACATGTATGCACACTTCCTTGGGGAATGTTCTACTGCTGGGGAACATACAGAGAACAAAACTTTAATTTCTCTAACTACAATCCAAAAATATCTAATGTATCTTACTTGATCAGAGTCAAAGTATGCTTCAGGGGCTACTTATCTGGAGAATTTGTATGTCCTTGGGTCAGGAATTATTCTTTTAAACTGGAATATCTTTATAATTCAGCCAAACTAATGGATCTTTCCTATTATACCATGGCATTATCATCTAGGTACACAAAAGCTGTTAACACATGGCATACTTAATCACCATTACTACAAGCTGCCAACAGATGCATCAGTCAACAAATCTATTCTAATTGTGTCCTGGAAAGAAGTGTTTCACACCTTTGGAGGTTGACATCTGCACCAGGCAGAAGTGCAAAAAAGTGTTTAAGGTCCACATTTATGGATACCTGATAGGTGCATTTGAGAAAATATGAACGTTGCTCAACGGATGTTTTAAAGAACACAGAACACATGTTAATAACTATGACTGTTAACATTTTAAAGTTTAACAACAGATTAATTTGGCTGATAAGTACATATGTGACTGAATCATAAATTTCACAAGTGCTGGAACCATGTCTTAAACATATTTGCATGCCCCATAGTGCCTGGCACAGTGCCTGGTAAATTGAATGCTCTCAATAAATATTTGATGATAATGAGTATTTTATTTTACATCTACATCAAACCAAAACATCAAGCTGATGGAAAGGGAATTTTTCACTTCTAGATTCCTTTACTCCCTTATACTCATACCGTGTGTAATTGCTTTTTAAACATCAGACAGTATGAAATTTTCTAACTAAAAAGAAATATGCAAGAATGCAAAAGATGATAGAGAGAGAGGTTTCACATTTGCAAGTAAAGAGGATCGTTTTGGAAATACTTCATGTTATTACTTAGGATCTGAAATAATGATTAGATAAGTTTTGACCCTTTGGGGGTATGTTACGTTTACTTTGTATTTTGGGACCATGGCATCCAGGCAGTAGAAATATAGACAATGATATATCAAGTCACAGGCATGATACAGCAATAAATAAGTGCTCATCTTTTGCATGATTACTGTCGTACTGCTTTGGTATTATATTTGTTTTCCTCAAATAATTATTAGCTATATATAAATAATAAACTTTACTCCCTCGCTACTGGAAAATG
0.8930382349122351 TGCAAAGGCGGTTTCAACAGAAATTAACATGTCTAGGATAGTTGCTTTTTCTATTATTTTTTCTATCACTGCATTTACTTTCATTCTGCCTTATGCTTTAACTAGGTAATTTTTTTTTTTTTTTTAGTTTTGGCGGTATCAACACTATATTCTTCTCTTTGACCACCGCATGCTGCCTACGTGGTAGACTCTCAATACGCATGGAACTGAACCTCTTACAGGATTTGTAACTCACTTCTGTGGTATCTAGTAAACTGGAACACGCGCTTTCCCTGGGCTGCTCTGTCATCCCAGGTTTCAGCACTCGGAAATCGCTTGGGCCCCCGCCCAGAGGCGGGGCTTGGGTGGGCTGACCACTCCTCTGGCCTCCAATACTGTCGCTGACATTCTCGTCTATGCTCCAGCAGCCGTACCTCACTCCGGTGGAGGCGGGACTTCCTACAGCACTTCCGGCCAGAGCCTCAAGCTTCGCTGCTGGGCAGTTGGCTGGAGGGGCTGCTGCTGGGAACACCTGGAGTCTCCGCGGGCAGGTGAGCTTCAGAGGTTCGGGGAGCTTTCGGAACGAGCATTCCTGGCCGGTGCGTCACCCTGCAGTGCTCTTGGCCTTTTCTTCCTTTCCTGGAATCTTCCCAGATTGCCAGAGCCGGGCGTTGCCTGCTCCGTGCGCTGGGAGGCGGTCCAGCCGGCTGGGT
0.4754282732022942 ATATAAAATATGCAGTACATGAAGAAAATATTTTTAATTTACAATGTAATAGTCGATGCTATGACTGATGCTCAGATGAGGATAAACCAACTGAAAGATAGATGAATGAGCTTTGATTATCTGTTCTCTCCGAACTGCTAGGCCTGATATGTACTGTATTAATTATTTATTGCTGTGCAATGAGTTACTCCAAAACTTAGCAGCTGAAAGCAGTAACATTCATTATGTCATGCTTTCTGTAGGTCAGGAATCCAGGAATGTTAAGTAGGTGCTTCTGACTCAGGTTCTCTCATGAGGTTGCAATTAAGGTGTTGATCAAAGCCAGTGTCACTTCAACACTCAACAGGGGAGAACCCACTTCCAAGATCACTCACGTAGTTGTTCTCAGGCCTAAAAAAATCCGCTTCCAAACTCAGTCACATGGGCCTTATGACATGGTAGCCAGCTGGCCTCCTTCACAAGAAAGAACTGGAGAGAGCACCCAAGACATAAGCTACAGTCTTTCTCTCTCTCTCTCTC
0.8000003750634774 ATTATAAAATAGTAATGGACTTAAAATGGCTAATGATATCTTATCTGTTCAGCAAACTGTGAACCAATTCTTGTAAGAGCCAATTAAGGCATATGTTAACTTTTAGGGACCCTACCAACATTTCCTATTCACTTAGGTCTTCTTTCTATTCCTTGGGTCAGCTGTTCTCCTGGTACAGATTTTCTTATGAATAATTCTACTCCATTATTTAAACTAAATCAGTAATATTTAAAAGCTGTGTATGTCCCACAATATCAACTTCCTCTATCCTGAGATATCAAAGCATAGAAACTCTCAGGCAACTCTTCTATCATCTCGCCAAATGAAGTGGCATTACTGACACTTCCTTTGGACCTTGTTAGGAAATGCCCCCGTGTACATGATGAATGAATAGGAGACGCTGAATCAAGAGGCTGCTAAAGACAAAGCTGCCAGAAGTGTCAGCACTTGCCAGCAGCTAGCACTAAATATAGTAAGGGTGGAGGAGGTGAAGGTGAATGGGATCCTGCAGAAGTTTTCTAAGTTATTTGTGAACAAACTAGTCAGTGTTATCTCCTTAATTTATTTAAAATCTTTGTAAGTTAAAAGTATTCCTGAAGCAAAAACAAGCAAACAAAAAAAGCCGGTATCTATAATCTGGCACCAATATTTTGTCACTGTTCATCACTTGTAATTTCAGGATAATTTTGATAAAAGAAGAATACATATTAAATCGGGACAAAAGTAAATATAGGTCTGGTGGTATGCTGGTAAATGTTTAACAACCAGCTCTCTGAAAAAAATGTTTCTTGAGAAGCCCCAATTTTTAGC
0.7327177137068462 GCCAAACTCTACATTTTTCTGCCAGTCGACTGCCTGCGGGCACGCCAGTGCCTGTCAGTGTGCTACCAACCTCCTCTCGACAGCCAGCCGCTTGCGTGTTCCTCCGCCAGTGTGTTTCTCTTGACATCCAGCTGCTTGTGTCTTCTTTCCACCGATCCGCTCCTCTCAACGTCCAGCCACTTGTGTGTGTGCCCCCTTGGGTCTCAGGGTTTTAATAGGCACAGGATGGGGGTGTTGCGGGCCAGGGTGGTCTTGGGAAAGCAACATTTGAGCGAGAAGGCAGGAGTGCCTGTCCTCACCCAGGTCCGTGGGCACAGGCCCCGGGTGGAGCCCTCACCAGGGACCCGCCTTTCTCTACCCAGCACTTCCCTGCCTCCTCCTGTATCAATTCCTTACTCAGAAAAGTGTGCTTTCAGACTTTTTACTTTTGGATTTCTGGCCCCAATCAGCCAATATCAGTTCATTATAGAATCTACAGAGACACCATAATCTTCCTATTTTAAGACACAATTTTAATTGTAATTTTGCTAAACTCTCTCCTAAGACAAGCAGCAGCTTTTTATCGCCTGTTATCTAGGGTGTTGCTTTCACAAATCCACACCCTCTGGGCCCGTCACAGGCAGCCAGATCCTGGGACTTCTCAGTCAGTTGCTTTGCTGACGGTTCTTCAGAGGTGATGAGCTGTGTGTGAAGGCCCCCTTCAGACCATGGTCCCACGAGGGCATTACACATCAGGCATATGTGCAGAGATTAGAAACTTCTCAAGGATTTCATGTTCTATTCCAAGAAGTAAGGTCTAAAAATGAAAACCCATTTTAAGCTCTTTTGTGGTTATACTTTTGGCAACATGGAAGGAGGACAAACCTACACA
0.6769640770819015 TCGGCCTCCCAAAGTGCTGGGAGTATAGGCATGAGCCACCATGCCTGGCCCCTTCAACCTCTTAACATCACCAACAGCACCATCTGGAAGGACAGATCAGGAATACAAGACTTTTGGTCAGGCTGGCATTTGGAAAAGGTCACCAAAGAAAGCCTTGCTCTTCAAAATACTTCATTAGAAGCATGATCTTTGGCATGAGACCAGGGTTCCAAACCTTAGCGTGATTATTTGCTAGCCACACTGCCTTGGGCAAGTTATTTAACCTCTCTGTGTCAGTACCTTCATCTGCAAAATGGAAATGATAATGGTCCTCAGGAAAGAATCTAATAATGCCTGTCAAGAAGTACACACTTGAAAAATATTAGTTCTTCTCCTCACTCTACAACACTTTAAACCCAAACCTCTGTCATCGTCAAGAGATGGAAAGATGAGGAAATCATGAGCAAGAACACACGTCTTTCTAGCCAGTCAGATGCCTGGTTCTATCAGTCCCTGTGTCCTTGGCTGTCAGTCCCCAGAGCTGCTGGAGACAGAGCCCAGAGTGAGCAGGTTTCCCACCACCATCCACCACCCACAACATTTTGCTTCAGCCTCCTCCATTCACCAGTCCCCTTCCCTGTTCTTATCTCCCCCAACACACCACCCCCACCAGCACTGGCCCGGACCTGTTCCCAAAGGACTAGTTTCTGGCCATGTTCCAAGCCCCCTGGAAACACATCCTAGCATCTGGCTCATACTCACAGAGAAAGGGGCAAATGCTATCCAGGAGAATGCATGACCCTCCCAGGAACACTCTGACCCCCCCCAAGGGGATAGCTTCAGAGCTATGTAATTGTCCAACCAACTGCAACCATCCCACCCTGGGCTCCACTCCAGGCACTGCCCATCCCGCAGAACTTGCCGGCCTCCCAACATTTCTGGCACCCCATGCCAGACTGGTATGGCAGGAAACAGGGTAGAGCACTGTTCCAAGCCACAAAATTTCTCTATATGGTCCCCCAACCCACTTTGTCCAGCAACCCATCACTATGAGCCCTGGGAGCACAGACCACCTCCCTCCTCCCCAGAGTCAGGCTCCTAAGCCTTGTGCCTCTACCTTCTCCTCCCCTGAGTGTTGGTCCATTTGCACTCTCACAGATCTGCTGTTCTTCATACCACCGGCTCCCACAGCCACAGCCATGTCCCATTCAGCCTGGCAGGCCCAGGCTCAGTGCCTCCCAGACCTCAAGTCCCTCCCAAACCCTGATCAG
1 ATTGGATGAGTGCTATGGAGAAAAAATACAAGCTCAATGGGGAAAAATAACAGGTAAGGGTGATCAGGAACACCTCTCTGTGGAGATGGCTTGAAAGTTAAAAAGGAACCAGTTGGTGAGAAAGTCGGGAAGAGTGTTGTAGGCCAACTCAAAGTGGGAAAGACATTGGCGTGTGCTCCTCGAATAGAGAGGAACTAACTGTACTTTCTGGAAAGGGAAACTAAAATTGAGAGGCCAGTAAACTAAAAACTGCATTGACACAGGGCAAAGCTCTTCATCCTTTTCTCATAATAAAGTGCCTAAGTCCACTTGTCCTGGCTAGTCCAGCCAAAGGTAAACTCACTGAAAACTCTGTTAAATGCTAGATGATCATACAAGCCACCATAGTGAAGGTGGGCGGAAGACAAGACACCATAGTGAAGGTGGGAGGAAGACAAGACACCATAGTGAAGGTGGGAGGAAGACACACTTGATGTTTTCCAAGGCCACACATTTACTAAGGTGGCAGAAGTGGAAATAATCCCAGGGTCATCTGCTTTGGGGCCAGTGTTCCTCCCAGGTGAGTCCATGAGGTTTAGACAGAGGAGGGTCAGCCATAGAAGTGGAGAGGATTTCTCTGGGGCCAGACAGTGTGTTGTTTATTCCACAGAGACTCCAAGCACCCCAAGTACTGCATCGAGCTGAGCGCCCAGCCTGTGGGACTTATCCGGGTACACAAGGTCCTAGTGGTGGGCAGCACCCAAGACAGCCTGCATGGCTTCACCCACAAGGTGCAGCCCCCAGCAAGCAGCAGCCCCTCCACGCCTATGTCCCTAGCCCCCACTTGGCAAGAGAGTCCTCTGGCTTCCCCACCCCAGAAACCGTTCTTTCCACTGTAAGCCCTGAGCCCTCCACAGACGCTGGCTGTTCCCTGCCAGGGGAAGAAGCTGTGGACAGTGCAGATGCCCGCAGCCATCCTGACCATGAACCTCCTGGAGCAGCATTCCCGGGGCCTGCAGGCCGTCATGGCTGGGCTGGCCAATGGAGAGGTCCGCATTTATCGTGACAAGGCCCTGCTCAATGTCATCCACACCCCGGTGAGCCCCATCTCCGGCATCTGCCACTCACTCCTCCTTGCCCTCGTCTCACCTCTGGGGCTTCTTAGCTGCCTCTTCCGACCACACATTGATGCATTTCAAAAACATTTGTTGAGGCCAGGCACAGTGGCTCATGCCTGTAATCCCAGCACTTTGGGAGGCCAAGGTGGGCAGATCACCTGAGGTAAGGAGTTCAAAACCAGC
1 CCCAGGGTCCCAGCCCCCCAGCCTCTGCCTCCATGTTTCCCTTCACCCCCACTTGCTCAGCTTCCTCCCTGCTCTAAGAAGTGCCCCTACTTGACAGCTATTCTGTCCATGGAATTTCCCTGCTGGGCACCTACATTTTATTTTTCAAGTGGAAAGAATGCAAGGTTAAGGACTGTGTTTCTAAGATCCCAAAGCTGCAGCCAGTTAAGAACTGAATAATTCAACCAGAACTAGTTGTTCTGTCCATACTAGCTGCATGTGGCTTTATCCCCTGTAACCTAGAGCTTGTAGAAATGAGAAAATTAAACCATATCCAGCAGGGCACAGAGCGTGCACATTGTCCTTCCGAGTAGATTCAAAAGGAGCTGGTAGTCATGCATCAGATGGTGTGGCAGTCTTACTGTTAAGGGACAAGCTAAGGGCTGACTGCTCTCCCCCACGAGTGGAAGTGCCAAAGTGGGTTTATCTTTACTGCAGGTCTCCTGTGTGCTGGAATCTGTGCTAGGCACTGTTCCTGCTTTATTTCAATGAACACTTGTAGCAATCTGAAAGGTCATATTGGCTAAGGACTTGAGCTCTGGATCTAAAGCAGGCCTTGTTTTCAATCTCAGATTCAGCACTTTCCAAGAGTGTCTTTGTAGCCCATTGCCGGGCTTCTTTTCTCTTTTTTTTTTTTTTTTTTTTTGAGACAGAGTCTCGCTCTGTCGACCAGGCTGGAGTCCAACGGCCCGATCTCGGTTCACTTCAA
0.8649071988931085 TTACAACCATGATTATTTAAAATAGAGTTCATATTTTTCTCGCAGTTCGTGGTATTTTTAATGGTTTTAAACATCTCCTTTTTGCATTTAATATTGTGTACTATCCCAAGCAGCATCAGCGAACCTGCTCAAAGACACCCCAGTGGCATATCTTGAGTAGCCTGGGGATGAGCAAATGTGAAGGATGAGTAAGTATATCTTTTAGTACCTGCTGTCTAGCAAAATGTCATGCCACTCAGTACAGACAGATCTGAAGAATAAAGTTGTCCTTAGTTAAGAATCTACAAACTGATCTGTGGAGTTTTAATAGGCCAACAAGTCCTGGCCTCACACACCTCCCCTCGAAAACCTTATGTTCAAATGTAGTTTTAAAATTAGTTTTCTCCTTAATGATGAAATTGAATTAGATTCACCAAGCACACCTATACATGGCATATGTCAACAGTTTTCAAAATCCCACATTTTCCTTGGGAAGGAAAGGAGAGTAAAAACTAAAAGTTTTAGGCTTTCTAGTTAATTATCTTCATGTTAATATCATTGGGAAATAAAGGTGGGAAAAGGTAGAAAACAGTACAAAAATGAGAATCAGTTTTAAAAAGACAGTACAATCTTATAGTTCTACTCATGCACACTGTGATACTTAATGGGACATTATAACAAGTTCTCCCAAAGTCAGATGAGAGCAAACACTACAGCTTCTCACTTACAGCATAAGGTGATGACATTAGTGGTAAGAGGGTGGTAGTAAGAAGGCCTGAAGGCAAGAGCAGATCAGCTGTTGGAGGATGGAGAGACACGAGTAGAGTAATTGCTTGTTGACTAATTGAAGTGCCTCTTCACCATTTTATCATTCATGAGAACAAATGTCAAAAAGTATTGATGACTACTTGAAGGATGATACAAAAGAGATCACTTAATAGTGAGGAAATATAAAGATAAATAAGTTGCAAAAGAAACGGGATAGGTAGAATTAAGCAACAATTCATGGAAGCTGCTTGACAGTGTATACGATTTGGATACTCAGCCTTGAATGAGCTTCTGGGCAGGTCTGACCATTACCCTGGCTTCCTTTGATGTAGCCATGATAAAATATCATAGAAATGCAAAGTTAGCACCAATACAACATTCTAGGCAAGCTTGTATGGTTGGCACAACAAGAAAAATAAGAAAATCTGATTATCACCAAAATATTACCAAGTTCATTCTTTCATTCAAAAATATTATCTAAGTACCCACTATGCACCAGTTAGTGAACGACACAAACAAGCCTCTGCCTCTTGAAATATATCCTGTTCAGAAAGACAAATAATGCACATAATATATCAGGAGGTGATTACTGCAAAGAAGAAAAACAAAGCAGGATAAAGAAATAA
0.7382947172491996 AGACATGACTGATCCATCTTCTCACATGTGAAGAAAGTGAAAAACAGACTTTTTTATTCTTCACCCTTGTAAGCCACTGAGATTTTATAGTTCTCATTGCTAGAGCAAAGCTGAATAATTTAGAATGCAAGCCAGAAAGAATAAGTGATTTGTACAAGTTTACACATGTACATAGCTAAATGGCAGAACCAGAGTTAAATCTCAGTTCTTTTGACATCCAGTCCAGTATTCTTTCCATATTTTTAGAGCTCTTTAAGTGACCAGTGTAAACATCTACACAGTATATTTTACTGTGATACTTAGAACATCCCCGAAAGCAATTAACTACATGACTAAAGGTTTGTCCAATTAATTTTTCCTTAATTGCCCATATGCTGAAGGCAACTCACAGGCTACAAATAATTTACGAAACTCTTTTACTCATTGTGGTCATTACTGACCGTATTGGCTAGCAGCAGTCCTTCCCAATGTGAAATGGGTGAAGTGCACTTGGAAATTACATGAGGCTTGCACTTTTCATCCGCTCTTGTTGGCCTGGTCATCTTCAAGTGCCTGTTATCTTGAGTGAGATAGAGGATTCTAGCAACAGCTCCATTGTGTAGTCTTATCTTAGGAACATATGGACTCTTTCACATTTGGTTTCCCTAAGTAGGCCTTTAAAAGTGATGGCAAATTCTGTCAACATCTCCACCTGTTTTGTATTCTCTCCAGTAAAAATCTGTCCAGTAGCTTCAAGAAGCTCAATCTACTGCTGAACCACTTCATGCCAGTTTCACGTGCTCCTTTAGTCATTTTCTTCCTGAAGTCATGTCAAAATGTCTATCTTCAATAAGCCCTGTCACTTAAAATAGAACCCTCTACCTACAGATTATGTTTTCCTTTTGACCTGTGTACCTCATTTGAAGTATGTGGCATAGATTTTCTATATCCAATTCAACGTTTGTTCTATATTCACTTTTGGATGATTCTAAGTCGTGTTATCATATCAGACTATCACAATTTTGAATGTTGAACTCAAACTAAATACTTCATTGTGTCT
0.4129009772111952 AACAGATATTAGTTGAGCAAACAACAATACATGAATCAGGCAGTGCTCTGAATCAGAAGAGGTTGAGATAACTCCCTCCCACAACATGGCCAAGCTGCATTTATAAACAGAAAATGAAAGTGAGGTACAGAAACAGCTTGACTGGTTACAACTTCGCCTTTGCTTTACTTGAATATGGTCTGATCAGCTGGCAGCCTGTGATTGACTGAAGTCTGGCTGCTGTGATTGGCTGAGACTCAGCTATTTATACAAAAGTAGACTCCCGGCTTTCAGTTTAAGCACTATTATAAGTTAGGTTGCAGTTCTTCACATAGGGACTCAAAGTACAGAGGCATCCTCAGGCCAAATTTAGTTTAGCTTAGCACACTTGTCATCACTTCGCTAGCACCACACTTGATAACCCTGGTGAGATCACAGCTGGCCATAGACAGTGACTGCCACAGGGAGCAAACACCACACTTTCCCATTCTGCTTCACTCCCACGTTTAGAGCCAGACCTTTCCTTTGTTCCTTGCTGCACAGCTGGAATAAGGCAGTGGCTTTTAGTGAGGCTTCAATGAGGGATCAGAATAATGGAAACAGTGTCTTTTCATCCACTGGACACTGGGAATAGCACCTAAGCTGCTTTCAGGTCCACCAGACATCTTTGAGATGTGAAAAACACAGTAGTGTCTGGCTCTATGGCTATTGCAAGACAATTTCATGGTATTTCCCAAAGTTTGGACTATTTTGATAAACAACAGAACAACAACCTTATGAACTGAGTGGGGAAAAAAATCCCATAACTTTGCAATACTGTGTAAAACCATATAATTCTAATTTACTTAGGCAGAGAAACTGGCATCCCATCTTCACATTTACAGAGCAATATTCTAAAAGGCAGAATGCTATGTTAACTCTTTGAAAGTTGGAAGCTGACCTACCTTTAAAGAGGTTTTAGATTTCGCTCTTTTGGCA
0.5876339195471502 GGGAGGAGATGGCAGAGAGAGGAGCGGGGTGGGGTGTGGGCAGGTAATACAGTGACTTTGGTGAAGGAGGGTTGAAGAGGGTCTTGTCTGATGAAGTGAGGTGAAGGAAGGAGAACTGTACATAGGTTACCTGATGGGAAAGAAGGTATTACATACCCAGCTTGGAGTTGGAAGAGGAAATATTTCAGGGATGTAAGAGGATCCTGGGAAGTACTGAGTACCCTTTGAGATCTGCAGTTACAGATTTATAGTGAGACTGTTCAGCAGGGCCATGTGTTTTTCTTCAGCAACACTTGGCTACTCAGGGACAGGCACAGCACAGACAGATGGTTGGTCTTAACCAGATTGGGGCTTTGCCAAAGTACAGCGGAGGAGAGAGACAAGAAGGAAGTTAATGAGGGTTGCAAAGCGTGCATTGGTGAAAGGTAGAAAGAGAATATTAGGGTGCAGACAGGGTTGGGTCCTTGTTGATGAAAAGGTCGTTGTCATAACAGTGGGTATCTGAAGTGGGTTAAGGAAGAGATATTTGGAGGCAAGAAGTCAAGGGACTGAGAGGCCATGGTACAAATGTGTGGCAGTGGGGCTATGTCACTGCAGCACAGGGCTTAGGACAGTCTAATCTGATCCTCCACAGTTCCACCTTGGCCAGAGATGTGGTTTTTGCTCCATGCCTCTATCCCTACACAAGATGACCAAGTTCTCCACCTTCTGATCAAGGACATTAGTAAATGTCCAGAAACAACGGGATGTCCCCAGTGGGTGGGAGCTTCCTTCCCGCTTGATGCTTGTTCGGCACTGAGTCCTGTCTACTCCACTTCCTGGTTCTTGCCACTGTGAGTCTGTCTTGCCCTCCCCCGCCCCGCCCCCTTTCATTTCAAGAACTCTGTTCTTTCTAGGCTTTCCTCTTCTTTGCAAACCATTTCCATTACCCTCTCTTTCTAGGTAAGCCTGTGTCAGAGTCTTTTTGTCTCATATTCACAGCAGAGGCATATGTGAGTTTTTGCTTCTTCATTGTGTGCTGGGATAGAGGAAAACTGCCTTCAGGCTTTTAGAGAGA
1 TTTATCTTTTGAACTTGTCATTTAGTCAAATGAGCTGTTTTAATTTTCTCTTTGACTTCTATCATCTTTGCACCTATCACACTATCAAACGTTGTGGGTGTTCAATAAATATTAACTGATGACAAATTCTTATTTTTTTTTTTGGTTGATATTAGTCAGATCCCTGAAAATAAATATAATTTATCTGTTGTTTATTCCTTTTTGCAACTTTAAATATCCAGACACCTCTTATAATTTGTTATTGTCTGGACTGAATGTTATTTTACACTAAATGTTTTGGAAGGAAAAGAACCAAGAATTTAGTTCTGGGGGTGGAATAATTGGAGGTGAAAATTTTAACTAACTCTCTCTGCAGAAGGATATTTAAGACAAAGCTTTTGATGTAGAGAGTAATAAGTTGTTTCTATGCTGTATTTTCTTTTCTTTTTTCTTTTTGTTTCAGGGCTCCCCTCAAGAAAGACTTTTTCTTTACCTTCAACCTCTCTGTGCTATATTTTAGATTAATGTTCATTATTCTAATAAAAGCTTTTCTTATTTGAGTTGATTAATTTGTTTCTTTTTCTTCAAAGAAATAGGAATCAATAAATAATTCCTAAGGGGTTGGATTGGCATTTAGCCTTAAATTATTTTTCTTTCTTTTTCCTGGTAGAATTTCTCTGGCTATAATTAAGTTATTCTTAATTTATTACTGGAGTTTGTTTCTTTTTGGCCACATTCTGCTAGATCTTAGGTTTAGGTAATCTTGGAGATTTTTTTCCTACCTCTCTTTCCTATGCAGAGTTTGTGATAGTAAATGGAATTTTTCAGCATGTTATTGAGTATTCAAAGATGAATAAATCACAGTTCCTGCCACCAAGGAATTCACAGCATAGAGGAGATGACAGACATAACATGCACATTACTGAACTACATTCTGACACATGCCGTGTTGGAGGTGTAAGTGCAATGCCCTTGGACCGTGGATAGGCAGGCAGTCCTCTATTAATACCATGGAGAAGGCCTGGGCGGGTCAGGAAAGCTGTGTAGAGGAGGCAACTTGAGGTGGGACTTGAAGGGTAAGTGGGAATTCGTCAGGTAGGTGAGAAGAAGAGATCCCAGGCAGTGGGAGGAACACACACACAGACACAAAGTCTTGACCACATGTGTCAGGGCAGCATGACATAGGGAAAGAGGATGGCCTTTCAGGTCT
1 GATACCTGATCAAATAACAGTGACATCTTACAATAACTGCAAACATACAAAAAGATAAATCAAATTGGGTATTTGTAGTTCATATGTTTTGATAGCCTTTTACAAAAAACACAGCAACTATCTCCTATAATGATTTTGGGTAAATAATATTTATTTAAACTTATATTAATGCCACAGGAATTTTTAAACTTATGTATCTGTAAAACATGGTATGTAGGCATTATACCTAACATCTACACTGCTTGTTCTCAAGGACATACACTAATTTACTAAAGAAGGACAAGTTGTTTGCATAAATAATAAAACTTAAAATCACACATTATGACAAAAGAAAAGGTGAGATATACAGGTATTTTTTTTTCAAATAACTAAAAAATCCTATGTATATATATTTATGCAATTATTTCTTTATAACAGTTATTGACCTAGGTGTTTTACTAGGTATTTTAGGTATTTTACATATGCTATGAATTTTAATCTGCCTATCAATCTACATCCATCAAAAGATAGTATCAATTCCATCTGCAGATAAAGAATCTGAGGCTCAGAAGGGGCAATGTACTTGTCAGGACATATAGTTACAAATAGAAAATGTTTAAACTTCCAGTTCTATTTGAATGTAAAGCCTGCACTCTTTCCTCTTATGCTGTTGTCACTTGCCAAGGCCACTCATCAAGTGTAAGTGTTTTTAATATGTAGAGTATAATAACAGCATCCCTTTACCCTACAAAAAACAGGATCATATCATGCTTAGGGCTGCAGGCTCTGCAACTGCAATGCCTGGGATTAAGGCCAGGTTCTGAAGTTTACTAGCCAGGCCAACCTATGCAAATTAATCACTCAATAGCTCAGTCTGCTCTATAAAATGGAATCAGTAGTAAAGAGTATCTAGTACAAAGAATGCTGAGAGGATTAAAAAATCAATATTTAAAGTACTTAGGAAAGTGCTTGACACATAGTAATGCTTAAAATCAACATACATGAACTGGTGAAAAGATACAGTTTAGTAAACAAAAAAGATTTGCCTGTCATTATTTATAA
1 ATGTGCAAGGCAAATTAGTATAGAATTTGCTTCTTAATGGGAGAGATTTGAGCACATTAAGAGTAGAGATTTGCTCTTGGAAGTTAAAGGCTAAATCCACACTAAGTCCTTTTATTCAATATTTATGCGGTTTTAACAAATTGTTGTACATTTTTTAAGTTTACAAGTTGTGATATTATACAGATAATTCAAGAAAAGAAATATTAAATAGATTACAGCAAAAGATGTAAAGTTTCAAAATATATCAATAAAAATATAAAGTAGATGAATTAGAGGGATCTATATACCCTTTACAAATGTCTGGAGCTTAGAAGGTGAACAATCAGTGTGAGAGACTGGGATAGAACAAGTTCGAGATAAGTGAGTATAAAGAATCTAGAGGGGGTCAGGAAAATTTACCCTCCAAAAGTAAAACAGAGCAGGCTCTGGGAAGATTTTAAAACTTGCTCGAGCAACTAAAAATGAGAGTTGAAAAGACTCCTGTGATAGTAAGAAGGTTATTTCAATATTATATGACATACAAATTGTTTTGGAGATGGCATAGTGTGGTACAGCTGCAGAACAGCCCTTCCCTAGAAGCCAGGCACCGGGTTTGGTTTTGTCTGTGTCAATAATAAAAGGCAGTAGCTTGGAGAAGTCATTTAATTAATCAGAGCTTTAGTTTCTTAACCTGTGTATTTAAAGAGTTTCCCTACATTTTCTGTAAGTTTCTTACAACATTAAAATTCTTTGTCTCTGTAACTAACAGAATAGGTATGCTGTAAGAAAAAAATATATACATTGAGGTAAACTTAAGTGTCTCTAGAGCATAACATTATCAAACTTTTTTTGTAGGTCCTGTGTAAGTGAGAATAAAAGCTCCACACAGTCCTTGACTTCATTCTAAATAGGTTGACACGGGTGTGAAATGACATTCTCCAGTCTTAGGGATGTGTGAAGGGCACTTAACATTTCTGACAAGCTGAGTCATTTGACATTATTCCCTGTGTAACTTATCCATTAAAATTTTATCTGTTGTGAACATAATTTTTAACAACTACATAAAATTTAAATACTCTGAAGAAAGCACCTAGTCATTTCAAGACTTTCTGATGTGATCTATGTTGAAACAAACAAACAAAAAATAAAAAAAAACCCTCCTATAGAGTCTCACCAGAGTACAGGTTTAAAAGTTAAAATATGTATTTCTAAAAGTAAATACATTATATAAGCATATGAAATAATGAATATATAATACATATTATATAAAGTGATTACATATAAATATATTTCTATTCCTTTTTGGAATTTGACTATTTTCTGGTGAATATTAAGATTAGCTTAGTTT
0.5949799178251612 GACAGAGGGTTATGAGGAGACCTGGGTGAGTGAAGACCCACAAACTCCTATGTAAAGGTTCAGGAGAGTGAGGACATGTATGGGTATTGGTGTCAGGGGAGGGACTGAGTGGTCACCCGGATGGTAGGTGTTGTAGCTGTGCAGGCCTGGCCTTTCCACCATTCTTTCAGGAAGGGCAGCATCCCCGGGCAGTGGGATGTGCTGCTTGTGGCCACAGAGTCACATGTGGACTTTCCTGTAAGAAAGGGAATTCTTTTAGTCTTTCTGGCCGTAGTCCCAGGGATCATGACTAAGTTCTCTCCCTCTTTCTGCCTGTCACTGATAATTAACGTAAAACCAGGATGAGTTTTGCAAACCAGAAGCAAGATTTCTTTGTGCGAGGAGTGACTGTCATCTCTAAAACTGGAGTTTGTGTCCTTGTGTGTATTTGCCTGCTCAGCTTAATAGCTTTAGGCATGCAGTCATCTTAGCATAACTTGATATAAGCCGATTCTGAGAGTGGGTGCTGACATATGGAAGTGTTTTTGACAGTCCACGTTGTGAAGGTCAGGAGGTTTGCTACAGGAAAGAAATCCAAGAAGGGCAGTGGCCCACTGGTGTTGGGTCCTCTGAGAGTGAGCTGTGTTCTACTCTTCCCACTCACGTCACAAAGTCGAGAGAAACATCCCCTAATTTGATTGTATATTTCATTTTAAAGGAATCCTCATTGCGTCTGAGGATGTAAAATATTTCTCTTGGGTTTCGGAAAGAGGCCAAAGCCTGCCCCAAGGTGTTCTCTGTTATCATTTGGGGCATCTGTTGTTAGTAGAGAGCAAAGTGATTTAATATCAGTGCTTGTAAACCAACTGCCTGGTGACTTGCTGTATGGTCAGGAACTGAGTAGCAGCTCCTTAGTTTAGACTTTCCAATTTGCCTTTGATCCCACTCAGCCCTTTGCACAGATGAACATTCCTGCTGGCCCCTGTAGGCCCTGGGTGTGTGATTCCTCTGGTTAATGGACAGGACTGGAAAGGAAATATTTCACAACCCTGCATCTGTGGAGAGGGAGTGTCCTGGAATCCCCAAGACCACCCCCAGTTTCAATGATTCACTAGGAGGACTCACAGTACTCAGCACAGAGTTGTACTCATGGCTATGATTTATTATGGCTCAAAGATGCAAAGCAAAATAAGCCAAGGGGAG
0.3796498839625534 AGTGGGGATCAGCACTGCGCGTGACGGTGGGAGGCGGGGAGACGGACAGTCACCCCCAGAGACACAAGGTCCCTCCCGGGTCACCTGGGGATGCGTCCGCCGGGCCTGAATCGAACACGCCCACGCTCGAGATGGGGACCGCCCAGGCAGGGCTGGATTCCTCGAAAAGGGCCGCCACGCCCCGGCCCCCCCAGCCACGTGAACCCCACAAAGTGCTGAGTAACGGTGACCGGGAAGTATCTCGGTGTGTACGTCCTTGCCTCCTCTCCGGAATTTACCGTGACCGTTCTCTTCTCTGTAACCTCCTTCTGTTCTTTCATTTTCACTGCTGAGCCCGCTGCTCCAGCTTGACACAGCGGTTTAGTGCGGTAGAAACGACCGGGGGACTGGTTGGGCTCTTGACCATCAGACAGCTGCGTGTGAGATGGAAGTGCCACTGGGTTGAGCTCTGCAACTTAGTTACGCAGTTGTGACCCTGGAAAGGTCCTGACCTCCTGAAGTCTCAGTGTTTCCTTCTGTAGAACGGGAATCATGATGGTCTCAATCTCACGGTGGTGGTATTTTGAGGGTTAATAGTGCTTGCAAAGGACGGTGCTTGGCACATAGTAAACACTCCATAGATAGTTCTTACTGTTCGGTGTCTTGCAGGGACTGATTGGGCCTGGCCACCTTATACAGCATTTACAATGGCACAGCACGCACACTTGTGTGAGATTCTTCTAACAGAGGCAGACTCCTGGAACAGAAGTCGGAGTTTGCATTGATCCAGGAATGCCTGTTGCAGGTTATGTCTGGCAGGGCTGGGGATTGTGGAAGGTGGGTATGTTAGCTGGCCTTGTGGAGCCAGGAGGGCCTGTCAGCGGCTGGAAGTGGAGGTTGAAAAGCTGCTCACAGGAACGAGAGCTAGAAGGCTGGGAGGGAGAGTCCCAGGTCTGTGTTTTCAGAGCTGAGCTGTTCCCGATGAAGCTGCAACTAGGTGTGATTGCCTAGGGGTGGTGATACTGCTGCCTGGCTGCCCCCTGAAATCCCTGGCTTCCTTCTTTCACTCTTTCAGACAGAGGAAGGGAGGAAACCAGAGGTTTTGAATCTATTGTGCAAAGTTTCTAGGGGGCTGAGGAGCACGGAGCATGAATATGGATATAGGCAAGGGACACATTCTAAAGACAGCCCATAGGGAGGGAAGACAGACTGCCCTGAATGCAGCAATGTTCCCAAAGAGAGGGAGGTTATTGGGGCAGAGAGGAAGGAGCTGTATGGAGCACCCAGAGCAGAATCTATAACCTGCTTTTCTGCTGCTGGGTTTTCAGTTCAGCTGCATCCCAGCTTCCTGACTTTTATCTGTTTGTTGGTGAATTTGCATGGGT
1 GTGTGTATGTAACTATTTTGCAAAGACTAGAGAGCATATTTTAAAAGTAAAAACAAACCAACAGAAACCTTTTTCTATTACTCTAGAGAGGTTTAAATCTAGAAGTCCAGCATGAGAAATCTAAATTGACAAAACTTGGTTAGCCAAGTTATGTGATAAATCAGTAGTCAGAATGAGATTTTTGTCTACTGACTTTGTAGATTGCCAGTTGACAATATCTGGGCTGTAAAGATCTTAACTGCCTAACCTCACCCCACCAACACACACACAAACACATACATACATACACACACACACACACACACACACACACACACGTAGGCATTACTGGAAGACCTCCCAGGTTATCTTGTTTACCCTCCCAGCCTTTAGACTGGTGCCAACTAACATATTCCAGAGTGCTGTCAACTCTACGTTCACACAGCTGTACTTTCATGATTTTTTATTCCAGTGCAAAGAATCAGTGTTAGGAAGTTCCTTGAATCTATCTCAAATGTTGTTTCACACTAAAATCTAAAACGCTTCTTAAAGTTAACTACAGGGATATAAAAATTTTAAATCAGGCAAAATATGTAGAAAAATAAAATAATTATAAGCAAACTTCTTCAAATTTGTAAGAAGTAGTGCTATCAAATGTGCTTTTTGGTATTGAAA
1 AAAGTAATAAATCATTTCATGAAAAATACATTACTCTTCAGAATTCTCATCACATTTGTTACAAACTCTCCATTTCTTTTGGGAATAGTCATTTTAGGGTAGTATTTTATATTCCAAAAGACCCCAATTTAATTTTAGAACAACTCTTCCTCTTTTTTTTTTAATTTTTTTACCTCTTCTGCCCCACCCCATCTTTCCATATCAAATATTACTGTGAACCAGGGAGTGTTTTCGTTCTGGGGATAAAACCATCACCAAAAGAGATGTGGGCTCTGTCCTCTTGGGGCATCCTTTCTGTTGCTGGAAAAAGACAGGAAACGTGAACACATAAGCAAAATTAATTATCAGACAACATCAGATGCGTTCAGGGTGGTATGGCCATAGAAAAATTAATTATCAATCATGATGAATATGAAAGACACAGATAAGGTCCTAAGACAGGAATAAGAAAGGAGGAATAAAGGAACATCTGCTTCCATTTGGGTGGGAGGGGCCCTCTCTGAGGGGCTGACGTTTAAGTAGGGACATGAAGATAAAAGGTGTGGGAGATGAATTCAAGCCCACGGTTTGTCAAGTACAAGGGCCCTTTGTCAGCAAGGTAGGTGCCGTGTTCAGGGAATTGTAAGCAGACCAGTTGGCAGGAGAGTGAGTGGAAGAGTGAACAAAATAAGGCTGAAGACCAAAGCAAGGGGGACTGTATGTGAGAAGTTAGTGATTTGCATTTTATTTTATTAATAAATTTCATTAGAAGCAACTGAGGAGTTGCGAACAGAGGAATGACATGATCAAGTGTCTGTTTTAAGTAAGTAAAGGGAAAATTGCTGTTTCATGGAACCACACTGCTGCGTTTATGTTCTGAAGTTGTCACTGTGCAGTTACTTAAGGCCAAGCCTATCCCAGGAGCTTCAAAGTTGTATCATTTAGGTTGGGCTAGGCTATACAGTGGTAATAATTCCTAACATCTCAGGAACTTAGCACAATAAACATTTACTTCTTGCTCACCCAAGAGAGCAGGGCAGCTGTCTGCCACATCTGGGCTCAGTGTTCC
0.8544156119572718 GCGCACAGCAACAGCATGCCCTACAATCTGGAGGGGCCCACAGGGGCTTCCTTCTTGAAGGAGGCTGGAGGTTGGAGATGGGGTTAGAGCTATTGGGAAACCAGCACCTCATCTGTGCAGATCAAACTAGACTTTTTTGAAAGGTATATGGATCAGCATGTATAAGAAAGACTAGGCTAACTTCCCAAAGAAAGTAGGTAGAACTAGGGGGTAGGAAGAGAGGATGCAATGAGGAGAAAACAGAACACTGAATGAGAGAACACCATTCAATGGTCTATTTCCTTTAATTTACACTTGCTAACAGGAAGACAACATTTAAACCCCACTGTGTTTTATTTGTATACACACATCTACCTCTTCTCAGCCCTTCAGAGGTCCCTCAACCTCTGGTCTCTTCACTGTACTATTAGCAAGCTGAGAAACTTAGAATTGCAGTGTGTATTTCAGAGCACGTGTACTGTCCCCTTCCCACACCACCACCATCACCACACATACACTGGACACAGGTATGGAGACAGCAAAATGAACCGTCTTTGAAGGATCTATTTTGCAAGTGAACCAGTAGGGGGAACTGTCAGGGGATTTAACTGGGAGTGGAATGCCCACTTGGGTCTGCTCAGCTTCAAGGGCAGGTTGTCTGTGAAGAAAGCTAGGAATCAGAGAAATCTCAGCCTGGCATTCATTTTAAGTTGTCAACAACCAGAGGAGAAGAAAGTCTACAGTGTTGGATTCTGGGTGGACCAAAATGATGAGTGGCGATCATTAGGGTTTAGGGAGGCAAGCGGGAGACACATCTATAAATCAGAGAAATGTGAAGAACAGAAATCTTGGTTCTCTTAAGATATCAAATTTCTCCCAGGAAAGGGATTCAGCTGAGCCCGTGCTTTATAAGGTATTGTTAATAAAACCTACCCAGAAAACTGGGAAAGCTTTATGTAGATATAAAGCCCCATGACATGGAAAATATGAATTAGAGAGTGGTGAAGACAAAAAATACAGGCTAATGTTCTATGAATAAGTTAATTATTAGACATCTGCAAAAGTCAACAATAATTAGGTTTAGGAAAGAAAATGATTAAAAAGCACTCTTAAGTGCCTTTTTGGTCTACAGGATGATTGTGCACTGATAGATACATTAGCTCTCCTTTCAGTCAGCACTTAAAATTCTGATTTTAGTTAAGGGAGATTTTGTGTATGATGAATAAATTACCTTTGTTGCATGGCCAACGTAATCAGCTTTGGCTCAGCCGAGACTTTTTTGCAGCCAAGAAAGCAAGTGATAAATGCTGCTG
1 AAGAGGCTGTGTGTGCACAAGATCGACTGTTTGAGGACACAGGCCCGCCGATGTGCAGGGGGTGTGCGGCAACCAGACAGGCACAGAGAGTGTCTGAGAGGTGGAGGGACCCCTCCAGAGAAACAAGAGTGACCTTGTGCTCAGCCTGAGGGTTGGGGAGTGACCCAGAGCAGGGCGAGTATATTCTCACCAGCCTACCCCCCTTCTCCTTTGGCCAGCTCCTACTAAAAGGGGTCTGTGTCGTACCTTGTCTCTTTCTTGTGGGGCATCTCCAGCTTGGGAGACAGGAACAAAGCTCTGACCTAGTCCCTGCCCTCTTTGACTGCTCACCCTCTTCCAGCCCCTCTACCCAGCCTCAATCTCTCATTCTTCCTCTACTTTGAAGTCTGGCTTCTGTCTTGGCCCCTGTGGGTTTGATGACAAAGGGCAGTTCAGGAATGACACTATCTACACATACATGGCCATATGGACAATTTCAGGTGGTGGGACTTGCAGCAGCTGGGGTTCCCAGGACTGCTGACATTCTGCTGAGTGTTATTAGAAGATCAGGGACAGAGCTTATCATCTGGCTGTCACTGCCCCTTTCCAAGCCACAGCGAGCCTCCACAGAGGGGCCCTGGGGGATAGCCAGCTGCCCTGTGCTCATGCTGGAGTGAACTTTCCTCTGATCTTCCCTGTTTTCTGGATTTAGCCAGGGAAAATACAAGGGAGCTCCTTGCTCCCTGTGTGAGGTTCCAACTGAGAGATCCCACCCTTCCCAGCTCTGATCAGATACCCCTGAAGTTTGGAAGGCAACAGCTATACAATCTCTCTCTCTCTTTTTTTTTTTCTTCCCCTGAGACAAGCATCACTCTGTCACCCAGGCTGGGGTGCAGTGGCACAATCATGGTTCACTGCAGCCTTGACTTCTTGGGCCCAAGCAATCCTCCCGCCTCAGCCTCCCAAGTAGCTGGGACTACAGGCAAGTGCCACGATGCTATTTTTAATCCATGCTAAGTTTAAAATGTAATACAGGCTAATTCTTAAATTTTAAAATACACACTAATTTTTGTATTTTTTTTAATTTTGGTAGAGGCAGGGTTTTACCATGCTGCCCAGGCGGGTCTCAAACTCCTGGGCTCAAGCTATCCACCCACCTTGGCCTCCCAAAGTGCTGGG
0.1069746424584783 TTGGGTGCTCTGCTGCAGAGTTAGCCCTGTGACCTGTGGACAGTGGGCTGGCACTGAGGATTTTTAAAGCAGGTGAATGCCACATGAGCACAGCTGTGGTTCAGGAATACTCATCTAGAGGCCGTGGGAGGGAGGAAATAGAGGGCCTGGGGATCCCACTGCCTGTAAACTGGTCTGCTGGTGGCATGATGAGGAAGGCAGGGGTGAGGTAAGGAGGAGCCAGTCTTCGAGACATGAGTCAGGAGCTTCAGGATTTCAGGGTAAAAGGAGGATCTCAGAACCCCAGGGGCTGTGATTAGGAAGTCCCTCTCATCTTGCCCAGAGTGCTTCCCTTGTCGGTGTCCTGCAGCCAGTGCTGAAAGTCATGATGCTGACAGTGCTGCTTAGGCCACTCTGATTGTGGACAGATAAGCCTAAAGGTCTTTCTTTAATATGCCACAACATGAGGCCTCTAATGTCACAAGTTTCCAAATAACTGTCCTGTCCTGACAGCTGAAGGATGAAGGCCATAAGTGTTTCCAAGGCATTTAAGAGCACCAAGAATAACTGTCATGAGGACTTCTGGATTTGAGTTCAAATGGTATTGATTTCAAAGTTTCCCCTGTACTGACAGCCCTAGTAAGCGTGGATTCACTGGGTTTATTCCCTGCCCACAGTGCATGATGTCAGTAAATTTGGAGAATTCATCTAGACAGCCAAATGAATCAAGGTGACATAAAAAATAGGCCCTGCAATGGGAGTGATGACATTTTAAATACTTGGTGTCAGGAAAACCAGAAACCTGTCACCAAGCATTTAGCATCGCCTCTCTTTTTGGTCTTATCTTCTGGGGCCTCAAACAATGAAACTGTGTTAATGGGAGGTCCTCACAGAGCGAATATGCACTGGCCGGTTTTGGAGACATGTAGTCAAGTGGTGGAAAACGGAACTGGAAAGGTGGTATGGGTTAGAGTTAGGAGGCTTAAACAAAGACATCTAGCTTTGATGTGGTAGGCAGCAAGCAGCCAATGATTATTTCTGAGCACAGAAATGAAAGTAAGTTCTGTAAAAAAAATCACAAACAAAATAAAAATTTAAGTTGGTTCATGATGTGATGCTGGTTGCTGGGCATTTTGGCAAAGTTCTCCAAAGGTAACAACTTTCACAGGCAACAGTTTTTTGGATCTGATCTTTTTTTGGCAGCAACCATGATATCCTAGATTGACAGAAACCATACACAGGGCAAATATTTTCTATGACAGGAAGAGAGTGGGGCTGCCTAAACAGCTTTCACATTGGATCTGTCTCATAACTAGTTACTATGGGTTCCT
1 GACTTCATTTCTTAATGGAAGAAACGGCGCATGCAACCAGTGGTAGAAGGAATTGCTGGTGAACATGTTTGCCTACCACCAACCATACCTAAAAATTTGTAAATAAGCCAATTTCCCCCATGTAGGTTCTTATGGCTACAAGAGGCTTGTGATTGTGGTTCCTCACTGCATTATCATCCAGTAGGACAGTGAATTGTTCTTCTAAGAGCTTTACAATCAGAGTCTTTTCCTCCTTGATATTGTAAGTTCCACTTGGCATCTGTTTCCAAACCAGATCGATTTTCACTATAACAAAAATATTTTGGGTAGGTATCCCCACTTCAGGATGAGTGCCACTTGTGTTGTGAGGAGTTTTCTAGCAAGCAATTTGTAGATGCAGGTTGGCCACCCAACTGAGGTGGCAAATGGAAGCCGGATTGCAGCCTTGTTCTAATCACTAAGCCTTGTTCCCCTGTATGGGACGGAGTCTACCAACAGAGAACCGCTGCCCCATCTGTGTTGGACATGTCACCACTGACTTTTGCTTGTGATGGATGTGTCACCACTCACTTTTGCTTGTGATGGACATGTCACCAGTGACTTTTGCATTATGCAGATCTGAAAAGACCTAGGCACCTACAAGTGTGGCTGGCCACCCTAGTGCCTGGCTACTTTTACCATGCTGAAGCTTTGGATAATCTTCCAGGCTTCTTCTTCATTAAATTTTGCCACGCTCACTGTGGTTTTTTGTTCTGTTTTTTTTTTCCATTTTGGTAGTTATTCTTTCTCATCTTTTGCTAAAGATGATTAGAGCAGCAGTTTCTACAAATTGCTTTGTCATACTGAATTATTCCTATGAGCCAAAGAGAAACGTCTTACGCACATATCATTTTCTTAAAATTTTTTCTAATACCATATTTCTACTTTTGTTTCATTTGTGATTGTCCGCTTCTTCAATCTAGTATTTTTTTTTACAAGCTTTATTGTTTTTGCATTTA
0.5574702057037736 AAAAATAAAATAAATAAAATCTCTGGAGGAGAAACAAGCTTCTGGGCCCATCTCCTCCTCCCTCTCCTCCCTGCCATCTCTCCTCTCCTCAAATGTCCCTGCAGTGTGAACCCCGGCCTTGAGGCTGGGAGCAGGGAGGCCAAGAGAGGAAGCTGTACTCCGCCTAGCTCCTGGCTGTCAGCACCCATGGCTGGCAGGATTGCCACAAACTCTGGCGCTCTAAAGGCTGATAAAGCCCCACAGCCTGCACGTCTGGAGCCTGGGCCTCCAGCCCTGATAAGCTGGACCTGTCAGCACCATGGCCACACCTGCTGTAGGCAGTGAGCGCCACCCGCCTCCCCTGGCCACTCCCACTCACGGCTTCCTGTTCCCTGTGCACAGCCAAGCCCTGGCCACCATGCCTAGGCCACCCCTCCCTGGATGAAGAACAAAGTGGAGTGGCCATGGGCAAGCAGATTTGCCCATTACATTTCATCTCTGCATCCCCCCAACCCCATCCCGCTCTTAAGCACCAGCGCTGGGGATCAGAAGACCTGGGAGATTCAGGATAGGGGTGCTGGAGCCCACCAGGCACACAGTTCCCTGAGGAAGTCACATGGGCCGATCACACGCAGAGCATGAAGTGCTGTCAGCAGCTCCAACACATTCCTGGGATTCTCCAGCCCACCCCATGTGGCCCTGAGGGGAGTGTGCAAGTGCATGGGGGCTGAGAGCCTGGGTCATTGTCACGGCCAAGCAGGAAGCAAACTATGAGAGTCTTTGCTCCAGCCGGGATCACCTGTGCCCGCACGTGAGTGGGTACAATGTTCTCCATCCCTCGCCCGGGAAGTCATCGTTCATCAAGCCTGGGCTACTTCCCGTGGTGTGGAAAACCTCCACTCACCACAGCCCACCAAGCGGGCTCCAGGATGGACCCAGTCTGCCGGCTCTGGTAGGAGAGTTAGAAAGGCCTCTTGGAAAAGGTGGGCAGGCAGCCAGGGACAGGCACCCCTAAGAGATCCTCCAGGGCTCTTGCTGGTGAGGGACCCGCTCGCCCTTCTCACCGTCCTGGGCTTAGTTTAGCAAACACCTGTTCACACCTACCATGAACTCACCACTGTTGGACGAAGGCGACCCCCAAATGTCCCTGCCCTCGAGGAATGTGTAGTCAAAACAGAGAAAGACCAAACATGTTTTGTCGGGTTTTTTGCTTTGTATTTTATTAATTACAAAGCCCAGATGTCACCAAG
1 TGTTTTGCAAAATGGCAATATTTAGGCAATTCCAGTATTCTGAAATATAAAACTTTTTGGGTGATTATATTTATTTGATACTTAATAATTATAAGTAAAAAGGTTTTGTAACAAGAAGAAGCAACAATATGCCTGAAGCCTATGGGTCTGTTGGAATGAGTAGGCAATAGGCATGAAGTATTTGGGAATAATAGTTTATATTAAATATTTACTAATGACCTGGATTATTTAATGAAGAATAACATTGGTTAATAATCATAATGCCACAATTCAGCTAGAACAGAAGGATATATCAGTCCTAAAGAGCATATTGTAAGCTGGGAGATGGGTATTATGTTCCTAAAATAGAATCACAATATTTTAGGTCATTTACATTGTCAAATCTGCTACATAAAGGGTGTTCTCTCTTTTTCATAAGAGCAAAAACCTACTACAGTTTTGTCTCTACAGGGATTCTTCTAAGAACTGTGACAGTTTAGGTAAGATTATTTAAAGACAAAAATGTCCCTTTGAATTAAATATCAGGAATAAACCACAGAGTTTACTTTACATGGCAGTGTGTGTGTGCTGACAGGACACTGATAAAACATGCCAGAGAGATGTAGATGCCTCCTTCAGACCCCTCTAGTCTCATTTAATTTAAGGATTTCTTCCATTAAAAGCAATAGTGTTTGAATAAGAGAGCACTAAGAAAATACATAGAATGGCATGTTACAAAGATTTTTCACAACATCTTTGTTTTTGTTTTTCTAATTAACATTCTTTTTTTGGAGTCAGGGTGTCACTCTGTTGCCCAGGCTGGAGTGCAGTGGCGTGATCATAGCTCACTGCAGCCTTAAACACTTGGGCCCAGGCTATCCTCCCACCTCAGTCTCCTGAGT
0.5191912360786713 AGTGAAAAATTAGAGCAGAGTTCTTCACCAGGAGCCAGGGGACCACACAGACATTTTCATAACTATGTGCAGTTTTCTAAAGAGAATACTCAAAGATACACATGAACTCAGGAAGGCAGAGGGCTAGTGATGTAGTGAAACTATGAGAGGCCAAGTACCATGTTAAATTCTTAGTATGTGTGGGTGCTTGAAGAGTTTGTGCCCAAAACAGTCCACAAAGTGCGCATGGAAATATACACATAAGGGATTTGAACCTGTGCTTGGCTGGTGCAGAGCCTGCCTCTCTCCCCAGCATCAGGGATGGTTTCACGGCATGTGGCCTCTCCCTGCTGCCATGCCTCCATCAACTCTCCCTTTCTCATATCAGAAGATCACAAGCATTTAACAGCCTTGCACTTGTCTGACCCGAGCTTGCTGTATCTGCCCAAGAGGGCTGGGAAGATAAGATGAAACAATCCCTGTGAAATACTGATCACTAGTCAGCACTCAAGAGGTACCAGTACATCACCATTCATCACATATTCATTTAGGACCTAATACATGCCGGGCCTTGGGATAGGCGTTCTCATCACCTTCATCACTTACTGTTACTACGTTTAACACCCTCCACTCCCAGCAACATGCAGAGTGCTTCACACAATACACACTCAGTAAATGTGGGTTCAGTAAGTAAATGGTGATGATCTTGGTGGTAGATCAATTTATTCTTCAGCAAATATTTATGCCTTTCCCTGACATCCATGGCTTGATCCTGTGAGGTGAAAGAGACAGTGTACCAACTCTGAGCCTACATCTTACGAGACATCATGTGTTTCTGCTTGCTCCACAAGAGAAGAATATATACGTGAGTAGTACTGTCCAGAATGAACCCATGTAGGACAGACCACCCCAGCCAACTTGCGCACTTATAAGCATAAGAGTAAATGTTTGTTATTGTTTGCCACTGAGTTTCGGGGTAGCTGTTACTCAGCAAAAGCTGACTGAGACGATCTCCTTTACCCAACTCCAGAGGTT
0.1574007379523025 CTGCTCCCCAAGGACAAGAAAAGGCAGGGGGAATGGGCAGGCCAGGAGGGTTGGCACCCAGGGCCTTAGCCCCTGGGCTATACAAGGTGCTTGCCTGGGCCAAATGGGCACCTCAAGATGGGCCACAAATGTGCAGCTTTCCACACCCCTGGGCCGGTGGAGGAGAGCGACTGTAGGGCCTTGAACTCTGGGAACACACTTCCCATTCCCAGCTGGGCTGTGCTTTCCCCCTCCCCCTCTTCCAGGGGGGCTGGGCATGTGACTCAGGGAAAACATATTTGTGGACAGTGATTTTCCATTTCCTCTTTCTGGCATTTATCAGAGGCACCTCTCCATTCTGGACAAGGCCATTGATAGATGTCACCACTCAACACCTGCCCCCTGTCCAGTTCTGTGCCAGGCACTGTGAGAGCCACGGCTAAAGGTGGCTCACCTTCATTCCCCGCTAGGTGTGCCCTTGATGGGTCAGCCAGCATGCATTGCAGGAGAGCCTGCTGAGCAGGCTGCTGGGCCTGTGGGGGAAGAAATTTCAAGTTGGTCAAGCCTGTTGTAGCCTTGGGGTTTTAGCCTTACGATGGCTCTGTGAGCTTGGCAGGGCAGGCCTTGCTCTCAGTTTAGGGGAGAGAAAACCCAAGCCTTCCAGGAGGGCTAGGGCCTTGGTCAGATCACCCTGAGCTCATGGCAGAGCCAAGTGTAGACTGAGTTCACGGACCACTGGGGCCTGGCC
